{"name": "hl_14_bias", "layers": [{"type": "input", "nodes": 784, "weights": [[-0.16407197629330955, -0.1392807398997964, 0.02705939455194975, 0.127790486413017, 0.10628732949972323, 0.15270071272587638, -0.017080754536583614, 0.328428747565012, -0.10073424970880919, 0.674525232983913, -0.13688352906343848, -0.13169149638772681, -0.3293067027273396, 0.27187047093186384, 0.5150205689041932, 0.08727250385438835, 0.15626273348182346, 0.2943708847073854, 0.09885179816146981, 0.41717518219918187, 0.7385965486589124, -0.18115833192916947, 0.2382112451323713, 0.4097533965163072, 0.3609333125903114, -0.05579422562987861, 0.5450209189789615, -0.32046343605315203, 0.23445716883154222, -0.015210209938664088, 0.6004649221130832, -0.043396120024898746, -0.21425906086221658, 0.163671390778035, 0.16174568643328158, -0.08576048195807316, -0.10673762295431509, -0.36567074797424304, 0.1775049932244197, 0.7952876106445529, -0.05206600465932326, -0.23554118978924912, 0.10466966709732828, 0.1491687205964182, -0.0539919044610727, 0.3560852238628963, 0.13446678645473192, 0.5286465103397832, 0.07827761276068958, 0.3271677999638135, 0.3913344870797257, 0.17294923184186006, 0.3088769607329442, 0.19532740470694143, 0.19418085135152985, 0.4246669817001943, 0.15223992324726437, -0.20366523436921835, 0.20891864668864468, 0.21520117154711776, 0.30944491396498575, 0.15664460741310582, 0.3607645691802674, 0.5145669289037549, 0.05133425925134323, 0.570498255056717, 0.09920090039605445, 0.231104399706821, 0.359954757836802, 0.2621892872964872, 0.6562310898309434, 0.635718387506598, -0.20662412431822047, 0.3213225684055954, 0.5353102299945266, 0.22348491866389003, 0.5027247116804923, 0.4259125803625418, -0.2722052914497755, 0.5313789159946471, 0.1930605604021307, 0.5374536561774449, 0.2570705119171766, 0.14332229222467746, 0.36207919432237295, 0.0045377354341224335, 0.8032303502701457, 0.20898085542307374, 0.30473718780643694, -0.4188023376400325, -0.19910224789551156, 0.4007727813885096, 0.29681157032633704, 0.32269637573594506, 0.631454775569804, 0.4527480243352559, 0.6589114304126952, 1.002938769411841, 0.7046559502125403, 0.1091538980315566, 0.32001579389789214, 1.1728844727982453, -0.5063990785599015, 0.20499243713855503, 0.5947518733547119, -0.2996859719353469, 0.7995063242096434, -0.34555473658602626, 0.034842888609693805, 0.7511963256318773, 0.11107335755711835, 0.28078945520793624, 0.073627480501145, 0.01721669093533909, 0.16827332644135892, -0.04267671487600457, 0.398777129356244, 0.00978507097534898, -0.1885087579375264, 0.15915237538209978, -0.06423127925059768, 0.5692132458273736, -0.01431171804112829, -0.45101050894362993, 0.3958180699300366, -0.22400246607811541, -0.017380350157222144, 0.10815032417720279, -0.029348766095206934, -0.2445577583513829, 0.1467613072946726, -0.5808240714955494, -0.5673114263410296, -0.13086236659589404, 0.4800237589134841, 0.391197972378614, 0.23285107675068067, 0.31061656480713573, 0.17937790754563976, 0.8499275967838172, -0.07484294680016453, 0.2571434221714635, 0.2092362332413332, 0.17087245256718311, 0.20957328682882767, -0.4889980019705351, -0.22477810600406486, -0.021288461042049935, 0.16719526658206152, -0.10106374684468372, 0.05933575154943395, -0.13135918440216243, -0.33260634763756985, 0.07869733119920365, -0.26845840643934243, -0.3753173555384258, -0.5695185006531963, -0.46199030144545694, -0.31519425505932036, -0.21556240050621953, 0.18348977601968539, -0.41298405630942725, 0.25643602741677224, -0.06228210793234018, -0.08854753946359428, 0.18950216981201115, -0.3000463506002752, -0.08212125774875463, -0.13178694989481732, 0.008262436171035125, 0.03341582562714948, 0.2635816937646471, -0.34419159700167573, 0.608648692746275, -0.08909054025134086, 0.15533189507854017, 0.4130240325847466, -0.22308490171775422, -0.05424647371128972, -0.16279714795469785, -0.6604160896325979, -1.022061343289729, -0.46354338612666457, -0.8203464801295209, -0.285560162166937, -0.7466338004040692, -0.14558479611120084, -0.7491344725388853, 0.07980334888305045, -0.2604195439669313, 0.30642187229547346, -0.6162715374446587, 0.1950264914431359, -0.469073596782145, -0.2384716900424463, 0.13775381276012172, 0.5061941333316488, 0.4107944844548956, -0.28673289981159583, 0.09297662119081998, -0.33597077035501793, -0.9530102722698899, -0.6435809944028102, -0.45186401718573055, -0.10383423354045314, -0.5040131950525611, -0.46858102769061627, -0.7492192075149189, -0.5628286646072106, -0.43409420088820955, -0.3411888632815271, -0.23132653044384574, -0.2581580083579949, -0.23037741725986496, -1.0840314856735396, -0.39160915744367025, -0.8442835230271423, 0.08000882953407275, -0.18668626909763164, 0.22648745454470237, -0.32345082553019133, 0.6518268855572354, -0.3816391904529455, -0.06526924131307925, -0.017402097315309957, -0.11178731678097982, 0.27705544266239196, 0.22619878184214026, -0.22682303903308274, 0.3079127555263689, -0.403957675298003, 0.18536348242078476, -0.11118079284196523, 0.27250260265487114, -0.2547830059787094, -0.47376801832223003, -0.5929590693513769, -0.1106854808807876, -0.44398448368000354, -0.10031619461516339, -0.13502912534528855, 0.12184685796501714, 0.28335001530920667, -0.15778889437811722, -0.26293045035732426, -0.007499209859445721, 0.37100029324412426, 0.7592684341306474, 0.13085722386300008, -0.3641562783995359, 0.08354473462148033, -0.25091499254201366, 0.30912570601852524, -0.07431088173542834, 0.3726726222974593, -0.32881541749812565, 0.31267001963381585, 0.03206999619048598, 0.736258674990154, -0.14305242589164305, 0.10950956662912076, 0.006512925706519677, -0.16146997305074612, -0.46967689242369454, -0.22767240234704963, -0.24876921641979574, 0.23385756383634473, 0.45223577068227244, -0.44556189059783957, 0.20425508223003336, -0.0743175041505438, -0.6455001424551563, 0.011657265620601853, -0.04907798795559515, -0.2631997344732527, -0.2354494626480328, 0.35120457968254437, 0.17154739239443842, 0.3803070731538291, 0.060714128533590046, 0.18709859252130073, 0.07430396718382644, -0.33591276204001996, 0.24964505956414523, 0.1776857599305217, -0.4682080419950497, -0.35863106792608307, 0.8483282156188301, 0.25679305194207386, -0.35012323961381303, -0.4387280573809511, 0.5689369114101712, -0.45732910289169193, -0.38796075349192155, -0.6257290864545432, 0.10779223013636678, 0.1503084556427921, 0.10522004565769029, 0.11781813306326756, 0.24211299982621468, -0.17244122089496977, 0.3133696775391574, 0.4527877755154876, 0.27302236535739904, -0.06196288616725214, 0.6392259487946428, 0.6316061805656292, -0.17194727831082426, 0.5112556884332696, 0.27653070074659253, 0.3192733156428315, -0.6077416247055587, 0.08693993163547191, 0.29765272913932866, -0.037093444607568755, -0.12849640809265545, -0.18942555665799063, 0.3655599758828585, -0.7327835016481739, -0.5691987229122902, -0.2004219272717393, -0.27473184010160345, 0.05030712227346544, -0.10777994679317163, 0.5226106035275565, 0.07347865201199967, -0.12033300352877731, 0.6013415113208574, 0.11926904910121346, -0.39925180174326774, -0.023026288659615694, -0.43149910891059096, -0.2611549233302743, 0.2030385560166573, -0.36346772909374536, 0.551834621405786, 0.20492790915357367, 0.20540635151345923, 0.34286984989087493, 0.10148852192606636, 0.4708568193066433, 0.15776324061319769, 0.5836700067699673, -0.40303522039531564, -0.35341626612122373, 0.13552236742016235, -0.47768698325518005, -0.06344523134283364, -0.6868281775362649, -0.037091896799506835, -0.4993773631645871, -0.3021096479712779, 0.0004745839408776842, 0.5084193241608578, -0.23304188884622973, 0.3072404383303288, -0.6340079439583307, 0.7448516446822323, -0.025904927611014605, -0.09042176396359851, 0.2478897073568538, -0.5238404429522425, 0.3872888871719697, -0.11220223898702673, 0.0842922160882859, -0.00977059561749363, 0.6888317399615301, -0.20779654374005166, 0.8645555888387425, -0.0900104633122953, -0.091089001766982, -0.011896894513985309, -0.13691099877331575, -0.1739948841689784, -0.5804964258383388, -0.5578393364940599, -0.3101512878428326, -0.4402902400889254, -0.25080796016930257, 0.07407746627230188, 0.41278690525593653, 0.2843416064172583, 0.08006733553537138, 0.3764329154680349, -0.06546062815192365, -0.5997994809883574, 0.13952600319019265, -0.6144416414535373, -0.18279041468782622, -0.01994368922598093, 0.12453793442999107, -0.1837296566808353, 0.0819969250577706, 0.07312398431829036, -0.38925727692422846, -0.11596063965546075, 0.47726732221169377, 0.3315930972149047, -0.5611614834485024, -0.24125295959589171, -0.22986493175567593, -0.4208858792053998, 0.44122151946895666, -0.3398267330441466, -0.4554527090877491, -0.3550698561985607, 0.4033826261867097, -0.1975839627930545, 0.028379739613691595, -0.42572151455100665, 0.31062699322713916, 0.48652806463719867, 0.017150688455712226, 0.04768909173131569, -0.3275585838533091, -0.22174186216953976, 0.7698531598899454, 0.5170560620126924, -0.16681132981388494, -0.03327116037180368, 0.2828514632759163, 0.5180048452268767, 0.4356161696575467, 0.11458462137948501, -0.26374979793536557, 0.27824134219671404, 0.436457088154464, 0.5030632437297607, -0.09858055849645146, 0.20952140732256258, 0.08135520431356004, -0.059458249870073414, 0.16921029776402358, 0.2951095222797087, 0.6230773218595477, 0.4407913471987534, 0.819493078952928, 0.19760407728868226, -0.1593876733022164, -0.6011617002383877, 0.01820527722835509, -0.3531420064600736, -0.1581730738500721, 0.19288790095313016, -0.06791854220029979, 0.5877228793371954, 0.7731629798570281, -0.025380283011234107, -0.2102200557614768, 0.37800450751997033, 0.2840785103907579, 0.1364365183437157, -0.12074977721848135, -0.18011643986130124, -0.515379292910323, 0.6620585880131369, 0.6796134356713525, 0.3625301961172998, 0.27962485825866396, -0.2365921282638782, 0.3168225538669865, 0.49130569532948415, 0.601675355995906, 0.07979174136718963, 0.44202038554024836, -0.07205887358195148, 0.038523412416541745, -0.3230689525358599, -0.3156937887399086, 0.23796024378485786, 0.23923933590795624, 0.36290824755738066, 0.11967093905317804, 0.45828972739914214, -0.1610882716838032, -0.05321740905746794, -0.2478009942112821, -0.03190717405664138, -0.4377981851883999, 0.6555014762775555, 0.25856200538153473, -0.2656318401534893, -0.05338886868682368, -0.19724771792223597, 0.0899583590279086, 0.01025752434873319, 0.16421250636984147, 0.229378634861842, 0.9120355742435206, 0.7754722724401107, 0.6981993705651658, 0.9630098754574529, 0.039091448845611255, -0.018375303415407128, -0.3789450173518202, -0.14964552455728788, -0.5953704079077932, 0.025412569611513024, -0.7685674635663762, 0.03683386254358375, -0.028265986024079988, -0.1694444199871981, -0.4302359839474321, 0.450221606338277, -0.35165901531359417, 0.12246425047604782, -0.02551232553543341, 0.33290513449261466, 0.6546217127131013, 0.2164405246573458, 0.6204689523589153, 0.07035128994389205, -0.49304651811730443, 0.04067976966988784, 0.05619116769296807, 0.466455309384319, 0.4098112445893319, 1.2036590017850692, 0.9579505696994033, 0.5243562200867297, 0.36618262502007953, 0.06202690841434597, 0.02495872127026693, -0.12576805002912858, 0.06889111535756084, -0.35638879368893134, 0.06957909272313935, -0.0379631654711825, -0.4325158996893376, 0.3041637659948811, 0.29492816572641195, -0.21037966245391243, 0.4899681606336033, -0.24075217081565092, -0.553518946698285, -0.3109092254619105, 0.16844599356074652, -0.5145286880598555, -0.1350948336833433, 0.01918902266126751, 0.10136869353057092, 0.0299861566261266, 0.5169526330641872, 0.4153410222191047, 0.8783348852547793, 0.593326210405259, 0.7892282115511614, 0.4113411267571979, 0.26304421588175103, -0.6815394273616682, -0.15923032809899249, -0.378274920327072, -0.9327041691766532, -0.05769082960658089, -0.04947581071259381, -0.09297060444807947, 0.10507310104462629, 0.31214436119967137, -0.003101293085326502, -0.2343939608130834, 0.3472628428058348, -0.23325582070982953, 0.0538015833254726, -0.24311190832738028, 0.13507858917472115, 0.3975550254771877, -0.11801130150240703, -0.684440439645897, -0.5653429192390775, -0.020211849432454198, 0.36331799216239924, 0.044099014751852475, 0.5233971988976407, 0.4006604376015797, 0.2401291805461103, -0.37932237030847304, -0.3115229395188993, -0.567921222820634, -0.24673413911443798, -1.0502200720125183, 0.0007295428907338958, 0.0648102801282253, -0.3042270462259988, 0.04641205430907662, 0.061427717846101994, -0.11699925226994637, 0.11201802652847845, 0.25336772599413815, 0.23585830689801202, 0.21504671900933608, 0.07576227574299532, 0.387827392415449, -0.3117318880012726, -0.7427613652877711, -0.46764658968839273, -0.4195769566736601, -0.1146158616511592, -0.7162315558171353, -0.31320836666573487, -0.589733689841632, 0.008007457198894858, -0.19685596842801295, -0.32754081722800293, -0.6264582490040572, -0.8779058082341067, -0.5361112108144255, -0.5580079240486562, 0.1822223434740477, -0.5008958650288518, -0.39663621317953773, -0.17315247864281438, 0.4840996895050237, 0.43572422914052056, 0.3332548435098352, -0.32861565273352855, 0.30462666233185537, 0.22893390927473078, 0.39014246502188127, -0.023079561051924057, 0.38409471700155107, -0.20056363190808715, -0.1622729919471174, -0.22518785850676118, -0.7806369647512547, -0.751766154782096, -0.6980921685254676, -1.1914052023128308, -0.7381100326071837, -0.8705579813004406, -0.8024369728910269, -1.1723387855837153, -0.9333706006239997, -0.6000696993909602, -0.5039946934485694, -0.359020062707946, -0.14785133156884675, 0.6632148662104367, 0.29076769675274716, 0.07390435480649041, 0.449159973418056, 0.11793678153415978, 0.022690373710583786, 0.06832380353586803, 0.18745635321040194, 0.17313055071233296, 0.1569297548919904, 0.1329950030533203, 0.22844885367249887, -0.7585088546321799, -0.9383592973027908, -0.2389558131784539, -0.6243272246810665, -0.12019596941883097, -0.5376479153404509, -1.2839701006200595, -0.7215034840014072, -0.4170042501072305, -1.5471201581721052, -0.6817663020311555, -0.6529093468103988, -0.4221155855707937, -0.3624354662325366, -0.08315930106096124, 0.39876117720745835, 0.06581349068396829, 0.05262565256753903, 0.0029596331239747074, -0.28741848940490206, -0.13787544950583, 0.19827396949021361, -0.16687722369824226, -0.2692722851367561, -0.0035695283391547713, -0.10869762863295636, -0.22680960455829574, -0.5895251962036349, -0.04031434812984726, -0.17080122641164955, -0.3284737661962166, 0.45613261886036854, -0.4976709871386665, -0.7080988706135, -0.4649013601370403, -0.615917899683904, -0.6588499220180964, -0.9768284800148216, -0.6567279697784811, -0.5135316741014141, -0.22554581446719676, 0.2654647845354847, 0.06276097953588372, 0.932190339323897, 0.8906163501756748, 0.04262667163798798, -0.2697516234958231, -0.49194759317179637, 0.026609614208160347, -0.19929046971014736, 0.17208390252752598, 0.4290642725252109, 0.3806774266726745, 0.30920434630300625, 0.3737806075307481, -0.41808916978743454, -0.31883072713519417, 0.4022023342520492, 0.202107424144112, -0.47754500693732105, 0.5400105249250392, -0.10398146514183003, 0.33557918235983997, 0.26358131604795426, 0.17679793761678386, 0.429204129788193, 0.5034627551050513, 0.5990631946947526, 0.6888629488639292, 0.6211646074474919, 0.9998279689882281, 1.5719622334716867, 0.5000539319423485, -0.05333155393796895, 0.4099407453760173, 0.15776207663633673, -0.49632174153942554, 0.16229359247680486, 0.6303611023099912, -0.2785559703647051, 0.4154473887489653, -0.0902571267305408, -0.06231757852081659, 0.24198455857213347, -0.27832941876478906, 0.7367140713482025, 0.20664933400609786, 0.1285674730920926, 0.4262139777720969, 0.7838992456579216, 0.6682963487902535, 0.1296779065994834, 0.40383192464850576, 0.6986205001572297, 0.6963246586401819, 0.24176440537842792, 0.9951500535985941, 0.2078719323436882, -0.2724737942451495, 0.39995817107823173, 0.4156764132822636, -0.03940568294408926, 0.12547323170198033, 0.02695545904634771, -0.06095220757817833, 0.0820340843387909, 0.42401737050742044, 0.19639005358463868, 0.34613124464591377, 0.03971634840660286, 0.04982260557568535, 0.7104384466129786, 0.5893808309802574, 0.3763696034509307, 0.06222032835335923, 0.2661964008885684, 0.09834316397972252, 0.24987563786108913, 0.10230236046507271, 0.19036959322908084, -0.08054896199597245, 0.06603527745209734, 0.24562845122989224, 0.29540113058975803, 0.14099379989685637, 0.3370864239648982, 0.04815373631145499, 0.0561983911352775, -0.14665298818590444, 0.2543971704767866, 0.4041752901090529, 0.11155126958434515, 0.19930955011266532, 0.24399602816973687, -0.10156907659885099, 0.22960925370521929], [0.45898560983482056, -0.15064198955624006, 0.2456538865499838, 0.28625363326787506, -0.23318495628848443, 0.05612624664727473, 0.16417495843680655, 0.14338148737124232, 0.4980415379584234, 0.02536119827927933, 0.16792747748234618, 0.1253075713045678, 0.09071908355932368, -0.31736378158704276, 0.516361477033882, 0.13423589327248361, -0.2637108699852007, -0.22276988176349652, 0.4483418842577553, -0.1892520581418222, -0.19348396095699663, -0.12824948870735983, -0.020969960682331465, 0.003386255680971452, -0.1539240516502958, 0.2372272685141739, -0.09894242991499555, 0.13683029038709402, 0.14322408368171055, -0.2373787258405772, 0.4785823099991882, -0.18362246792566664, -0.07641908170804843, 0.03249664855809501, -0.08698754797006897, -0.028479960704278252, 0.05848239227909766, 0.20713857942754818, 0.3254684691316664, -0.21174017798883518, 0.2925073463345043, -0.06597209392767842, 0.25976279580390554, -0.5911175460354019, -0.15978041120590034, -0.22118052607943686, -0.12153823836891506, 0.44527434462439996, -0.03529478400690475, 0.35379496090905194, 0.04306376483419202, -0.10179904942372411, -0.22150892260953445, 0.04176217889355755, 0.01776354282937399, 0.2090295611842294, 0.020014727785530373, -0.06508405041778093, 0.4689781151179971, -0.04335854251939286, 0.5737046674170467, -0.27939899893272085, -0.5788040448150673, 0.6775530135932636, -0.03740876127247914, 0.1225779966523817, -0.2556002222463819, 0.25975206164739334, 0.1253589165281416, 0.013269715856158997, 0.3599189581525928, 0.17025851605114964, 0.12327087652869463, -0.0037064433590602765, 0.19708281466927993, 0.45827854620979136, -0.29701630420645764, 0.40655000257610124, -0.346814772041675, 0.15888090461387297, -0.10506646537446243, 0.15699898991123937, 0.15356563791385933, -0.14161155441493786, 0.15211720749479482, -0.01185449830959868, -0.07549080275567385, -0.00013355187394950216, 0.3506813591552231, -0.25842389602061583, -0.9925656586504855, -0.13778488558208155, 0.030547359305808874, 0.13652743838129633, 0.30155606042048616, -0.39282316447307936, -0.15288902868190643, 0.29656966330794465, -0.2904111768103606, 0.13487732161012886, -0.21225365863615078, -0.14985723301773596, 0.32821401244348875, -0.026149786392405592, 0.03621439270866183, 0.33893256317245857, -0.5535069058335989, -0.4781962712035599, -0.2211344384395384, -0.19721123307173552, -0.023568957466321525, 0.2985496183562952, -0.13140810000954614, 0.0138350951953538, -0.3837575518186331, -0.03444414793707028, -0.11226313509425868, 0.6170769998999293, -0.12986736666531687, -0.3681915804632837, 0.022803382782351472, -0.21413421202775137, -0.4227185266074524, -0.7054586592590103, -0.5191443500046472, -0.44708352122885137, 0.01577386446444459, -0.13325903997315275, -0.24824388547313767, -0.05491897129647612, -0.2154643639516798, -0.5369584256309987, 0.3441589907789978, -0.3953000761730534, -0.3555486600562434, 0.2462361075437643, 0.23439448693509246, -0.27265907864490785, -0.9225632155383632, -0.15878477440239938, -0.2033450930498746, -0.06652452025105807, 0.07198997119380637, -0.002996092853888722, 0.44494701498908323, 0.8069122176251076, -0.03690771701452847, 0.22032099380762096, 0.07663582726881675, 0.0012896440214502395, -0.28825728243487536, 0.06631936865068673, -0.1248184136229168, -0.2861640588788869, 0.1801001812417661, 0.1325106653045965, -0.05376595754747503, -0.38021997316978595, 0.13244065560728477, -0.38740286908676985, -0.5003512494058273, -0.29092341302326286, 0.13626863276165993, -0.2092482556504726, -0.8547367908073514, 0.01809946429050171, -0.5359335161456189, -0.2154584893322876, -0.30100921799122865, -0.29291087486457973, -0.2474243307581069, -0.09878997402856907, 0.47942859672356813, -0.5032867975402815, 0.36191386709449663, -0.1116414201320762, 0.7369506806555443, -0.184112735637634, 0.10638676377454488, -0.3340270991565605, 0.419854671519663, 0.19390167162829644, 0.3477585530571374, 0.13957586709118497, -0.1532902152183374, -0.6440733267710664, -0.5323923338998772, -0.6604520063009527, -0.6685134972978759, -0.3958006282481428, -0.33308313323552863, -0.5175201189953834, -0.12372608942539107, -0.1490602159126118, -0.21066874622207213, -0.2427584203965901, 0.1706033882820354, 0.25465433577032154, -0.948347038724293, 0.2072714130454762, 0.12800424136004904, 0.20804510865296102, -0.1897434384996429, -0.06188061791057002, -0.1333219981353511, -0.0020076962612434273, -0.31439436395970555, -0.044431226053262975, 0.3754779921134707, 0.3169300870744436, 0.31785571350140585, -0.00758838539911038, -0.3734685843030052, 0.15670216920993682, -0.30508645624750474, -0.9163431490861461, -0.5638414290842606, -1.506438512485912, -0.5141756380321082, 0.11736028063136501, -0.8019618812380985, -1.0945135569109128, -0.31835267806237133, -0.4780091513005789, 0.004809019298887516, -0.09061225722661578, 0.3437316863449722, -0.049241321687890346, 0.23814746572697873, 0.3953856007432383, 0.020684272315043505, -0.023623271990917506, 0.014725070332522374, -0.080148278456234, 0.5508649229053266, 0.36666096767336576, 0.3977086146805512, 0.16484397538825446, -0.16324675592447288, 0.38960917258140776, -0.3560997836131299, 0.5454535870204231, -0.20012096106909297, -0.5905178080560077, -0.576002107514979, -1.3566360512054245, -1.0831949781197976, -0.7977914101788198, -0.09822106113374872, 0.12367297906209501, 0.06048670932064899, -0.769048648518199, -0.26718893178167025, -0.5620517967980102, 0.580847276126564, -0.0713110029200462, 0.7977572587202815, 0.5228009536912277, -0.08457283636731072, 0.27567065437484695, -0.31465591856605946, -0.06847677125428704, 0.23372387247383145, 0.13127167993710726, 0.19268839652920391, 0.10574269858913272, 0.3668605613100259, 0.18811678908675908, 0.11427979467911516, 0.6580653524876222, -0.2586085028494824, -0.20163225045412908, -0.43067048387716156, -0.7846797216764728, -1.4232400358063062, -0.776490954586924, -0.47237844141008745, -0.19373236187093743, 0.11546322745497266, -1.065885842682836, 0.5160619107102925, -0.34636451963784093, -0.3242173250967825, -0.1550652232933916, -0.3777873894248928, -0.324160859327171, 0.20386859775112082, -0.09385943651035131, -0.7028942903946106, -0.2739501961415097, -0.1494688587771574, 0.35306589661484994, 0.2208774065869663, 0.22229996217701856, -0.05033395658365857, 0.3310336340732265, -0.15305448168894223, -0.219184256013758, -0.12869602858730286, -0.30621442841299573, -0.42495491042966865, -1.20809366063731, -0.988663349418227, -0.6959087665054123, 0.6928888542413543, -0.36273365834362964, -0.7540879977011784, 0.08362813508325279, 0.23657538334108916, 0.012585646624370238, -0.11842612309144127, 0.3677203150444113, 0.15446612792301917, -0.3895564258540229, 0.2813935752571353, -0.4765836936653793, 0.16576680220658, 0.22286154960119317, -0.10308081393500666, 0.27173273868136494, 0.2252678604444977, 0.580689866679275, -0.1737317702616316, -0.06985944853160106, 0.07761237327167578, 0.2132045101614359, -0.8739678379814836, -0.5537997910477106, -0.3591146538171969, -0.6971941693883884, -1.3499754886387254, -0.6872734676898866, -0.05651720148957919, 0.07206846137392513, -0.6687116681135492, 0.2649024106674415, -0.1851150113447029, 0.0224885402873378, -0.3509470656548885, -0.3005876530580996, 0.26181408196939115, 0.7259286029324923, -0.3450896052668403, -0.032353022367382966, -0.045653155648038415, -0.30982183305823996, 0.564940527242436, 0.23695422469023683, 0.13676868859121344, 0.17823214231144677, 0.6049965526450918, 0.011622649959146799, -0.1424750522784173, -0.18521907171354818, -0.4879449783064505, -0.44153136698078604, -0.5851380288030432, -0.24256204426044659, -0.9382909206658301, -0.17613511264257511, 0.3121391640285742, 0.28614478712287533, -0.7235957688929788, 0.1524606932424872, 0.17132178671578627, 0.1358963679454299, -0.3376416534152117, -0.05950550184434057, 0.3235601973448114, -0.7720312051212775, -0.635411420914688, -0.13684915434857606, -0.04010823755021344, 0.5199140049691341, 0.8100865319868881, 0.5760026508234273, 0.2706649124772894, 0.21956091808767939, -0.3285922851458215, 0.20028786191144174, 0.01988879581099269, -0.43332797511751, -0.2818323627137796, 0.0006255602367844431, 0.0023368922016718087, -0.37867469435208734, -1.0591575818412378, -0.5245792784566385, -0.22439576119933188, 0.07764959894093333, -0.08275147496462658, 0.3606536223088039, 0.09666588537018847, 0.489320124858212, -0.16241430043890875, -0.2945983305226238, -0.2747494476130288, -0.4667951775628854, -0.21167301653681772, -0.4619174232873258, -0.20322505843988573, 0.43157513323224367, 0.22611036056692674, 0.3188121503002233, 0.30245684536153944, -0.31243453168472735, -0.20120310752451995, 0.25529458458155524, -0.11015041431297772, -0.12731446984441763, -0.3048698911756243, -0.14277760936908726, 0.17142385951305852, 0.22678338481895802, -0.4885412335077132, -1.3466719199210153, 0.045022027850079145, -0.37718108396019906, -1.1958284122596867, 0.11194516486624284, 0.11045139453757197, 0.15785642274623404, 0.04305875242914956, 0.16619168332799966, -0.1578896345118773, -0.20672696169254454, -0.0726152497542664, -0.7506337908652083, -0.16993095078493456, 0.4247609441880362, -0.19941409558694026, -0.10433330122978705, -0.09308867867839833, -0.37028054177355, 0.14922771691432787, 0.15312055721109463, -0.09808455284619308, -0.2908195508374799, -0.475352637931927, 0.03433241813453077, 0.0353123463868218, -0.09177644570718177, -0.6309821181031385, -0.7457930491465766, -0.7342037807889635, 0.3426520799665971, -0.11219936454225443, 0.286254564419742, -0.2248026357025025, 0.4298409802782231, 0.20907800208425284, -0.05744446813365937, -0.9838119072478495, -0.8193484520453912, -1.132867313715386, -0.2731876795077295, 0.10150848467936345, 0.12320620426675519, -0.23722895173201247, 0.453364210615232, -0.2633929130449639, -0.6261478284617275, -0.6222741123776011, -0.22080709288966663, -0.5242726832255639, 0.1880923680690424, 0.020970240171343003, 0.30661727808782135, 0.4451692406542602, -0.4517059295254063, -0.239712823447616, -0.4338242076622455, -0.3025141410134439, -0.3595518178720755, 0.1073996854179488, 0.14134502530357249, -0.15528730130127247, 0.1297887772335717, 0.8119894599951969, -0.8350268451879114, -0.7713427710550418, -0.8747829725852426, -0.28398726983800426, -0.4452536090409773, -0.6407489642957024, 0.10066631779080529, -0.3917739785542883, 0.21956048931801234, -0.20061452241225722, -0.035928262070754155, 0.10500525652520798, -0.25262796682616956, -0.04885583877977421, -0.17635904438793856, 0.20696949832184586, 0.25156576030779854, 0.5535941919754521, -0.13296435362587092, 0.25758681645610715, -1.054429442276811, -0.6176017395561874, -0.31035388549723897, -0.2933743955798517, 0.30392674508899653, 0.12024217320578398, -0.3308548911045944, -0.2187671944218039, -0.23178827857639758, -0.028296014386730354, -0.8706749940128441, -0.7505787586481405, -0.24332124791681875, -0.10226687450089568, -0.3874546039635928, -0.011931474078867339, -0.32162902266741095, -0.44341528475692965, -0.02645948908072611, -0.13162030743594538, -0.5133634965893044, -0.12638244144314614, 0.03809108579661525, 0.1909681463347162, 0.2789531192953136, -0.36210717476882526, 0.37124117231758635, -0.4602463263497926, -0.14646628276354134, -0.19560168357286822, -0.44344163622500254, 0.141136564085956, -0.18905294156065802, 0.19870391294101167, -0.2235627621841236, 0.37446982648792776, -0.9918378793275918, -0.31078793082050515, -0.7313591768800138, -1.8859195495770253, -1.1053603097915483, -0.17890231602022824, -0.05113237208267673, -0.5630990434772679, 0.004708478011665423, -0.3024674252218773, 0.06941354872276678, -0.19198944174197188, 0.5486866280007828, 0.22463759811412248, -0.1489603755359369, 0.2550622802068982, 0.03531086035656864, -0.24609830486946135, -0.6302796639168684, 0.20663633687906333, -0.9044208174045892, -0.38943122007701975, -0.5497099617686465, -0.2097826638487905, -0.40440508873484854, -0.16794437371285378, 0.17230244545505533, 0.04915432751713654, -0.2024990660311214, -0.9196682361985081, -1.5334530315553354, -1.2348253189086098, -0.762409522224766, -1.3954445395649129, -0.4987399147914285, -0.44183333706507233, -0.11653075878777783, -0.366940408864349, -0.07583155067883629, 0.23091107133413533, -0.0176608152635551, -0.47382770757910125, -0.22055325678893248, 0.12638121794747653, -0.4602119058907364, 0.06724800744644903, -0.016224851851467062, -0.3506771457787389, -0.07867528428637746, -0.13949866397244323, -0.19246805565865413, 0.504964091755343, 0.5509109102528518, -0.26472122715328955, -0.6157299091328811, -0.38680018155237733, -0.5182113811460684, -0.7148996980549022, -1.050577735764572, -0.7188890778866517, -0.32249851763532467, -1.1985420348968656, -0.601632717374544, -0.3381457290704772, -0.6291118355951874, -0.1473098739383012, 0.15149871188762182, 0.3316994694111316, 0.25773504404238873, 0.3078379984408578, 0.4778513308511741, 0.16758126549471994, 0.022166454532127816, 0.20073273706757147, -0.21862662369198332, -0.04143686149026055, -0.22673604807167544, -0.21432258786417777, 0.14984107338793234, 0.7485822500504506, 0.37635908328525863, 0.46454265251263144, 0.20200250939470818, -0.41996214554949945, -1.1221277528236189, -0.358924912265886, -0.83591251582513, -0.48456150515171487, -0.7408254082571305, 0.0977815387590465, -0.31631092029232394, -0.23387367977683174, -0.39162184119547966, 0.021083304171359098, -0.2485409104783025, 0.22378951940812486, 0.16082058223605147, 0.37068521634160373, -0.07016919062870139, 0.43950768767665044, -0.025752970669386758, 0.05367657031202038, 0.6865280156156044, -0.23498865307005617, -0.11709582175659486, -0.4706944611842275, 0.5148599833226124, -0.2959507029454866, -0.15371683448345766, 0.22121428570459298, 0.016759912414609196, -0.04558999707966153, -0.1772642909617122, 0.804157969360167, -0.284728532089357, -0.4069090985551197, -0.34666846896416403, -0.9932097717539764, -0.7177868823133824, -0.4269466769360387, -0.36650031755800255, -0.6655437624950734, 0.19975833426713674, -0.3291855861510573, 0.13807197399550827, 0.7898150911223535, 0.5503820091908892, 0.5616096839571011, 0.5497420859863206, 0.750628368670445, -0.24430383554671004, 0.6081209060193588, 0.20815237281554388, 0.08651452584782049, 0.31414027659676713, -0.1396906573417396, -0.28842052991441, 0.16114121265879008, -0.09141145699119946, -0.010159463849828037, 0.09659148085582374, -0.5127709629007533, -0.2390845921714777, -0.13334438291694053, 0.08259963213458107, -0.36493701427681047, -0.7223143341232744, -0.7908141647521726, -0.3003496554641672, -0.5572250409991948, 0.13101845444903354, 0.6393647757314653, 0.36339324283563773, -0.03510040871967836, 0.5002619541788147, 0.05510765315015435, 0.6656173972732065, 0.2892688795659896, -0.18369137616996353, -0.08737754644083442, 0.5557342149335607, 0.0468029810909061, 0.11763684345843203, -0.2026273462263278, 0.21054230590282516, -0.16867725594472546, -0.006130065171604569, 0.07359254991138378, -0.1810514711782467, 0.2096246632380619, -0.45789229369015644, 0.1568615851353407, -1.1151713494119755, -0.6610390374729459, -0.6736253464413621, -0.8489497767455397, -0.1301429985596826, -0.5153691479356002, -0.08009275253676724, -0.2164231572673598, 0.4600872398836054, 0.8279901248185846, 0.4399996100728891, 0.6214459166143531, 0.7949366561601612, 0.5888833445033106, -0.1339150105137168, -0.30696712164353, 0.24193754896500788, 0.6562736601908011, -0.06522008452652833, 0.3302433285301219, -0.06822315625192099, -0.22422803583570874, -0.1455980184421394, 0.44012295860404355, -0.08825608526993137, 0.1265643449986267, 0.21107288016423761, 0.2983085700392825, -0.2541750688189933, -0.1799641403115574, -0.9884836481256246, -0.1850712872404978, -0.5072071358700758, -0.2788259548667794, -0.1776821083871507, 0.22589773479926065, 0.943760337251926, 0.35870289668645183, -0.1014771857827797, 0.30232888997410134, 0.2569351220152487, 0.11913193928815902, -0.008186440436845277, -0.006329298094124876, 0.5083981135264117, -0.16071207479904945, -0.17362896390200647, 0.25402687781027394, 0.003726961884195813, -0.029609510717629607, 0.4339444641138412, 0.4605789901187421, 0.5297601602272792, 0.047163539601750064, 0.22443232589722656, -0.09478439583739269, 0.35823222211791084, -0.2553765544199727, -0.45981902581417794, -0.4307460147083775, -0.11602631911834106, -0.7010261439105672, -0.5251134376650162, 0.21952510995018812, 0.09845378124147552, 0.05422902150822349, 0.08613158221773734, -0.18948217006142046, 0.38937851190512135, 0.07124953317536536, 0.5771777692199402, 0.6900896322451044, 0.3702828147057409, 0.22150541692069656, -0.4432128895291105, -0.028659989349290232, 0.47696583603099935], [0.31148002644218864, 0.06443644734783974, -0.1534800826569161, -0.24030561451500387, 0.17379628172843498, 0.16700292230424488, -0.4066234994235995, 0.13348397055281128, -0.05802630952470387, 0.10450199939997383, 0.5341883014042801, 0.15797619181886197, 0.2797185757639533, -0.03251198688439503, 0.32274099893012814, 0.03358900794591657, -0.15798550853408982, 0.16606227079183616, 0.3013098119200799, 0.32995194352622326, -0.3113467584298472, -0.6025229429881508, 0.6541386656262276, -0.24106098675286983, -0.10470674553491151, -0.1472996578049924, 0.09945579466551013, -0.046697248337445985, -0.030764344389020433, 0.10063316347659015, 0.38710294284115115, 0.08144333264859849, -0.1434575615723827, 0.12308359419605835, -0.030315063488535167, 0.09007064634029976, 0.06592582499696785, -0.1849070245117614, -0.320772757524036, -0.03016263206337702, -0.053088045073054764, 0.08309252519253565, 0.24762825963781201, 0.1101333072806172, 0.034348745192502875, 0.3168880016062668, -0.0630097149403741, -0.15790951051309016, -0.020465754995849166, 0.23111631459929322, 0.04574554760764816, -0.151143579154141, -0.4397583709793081, -0.10182528501706616, 0.19854134641669396, 0.27540129224760185, 0.16005047870193276, -0.08705898728901909, 0.029840493057599813, -0.02478808757333299, -0.0784573305966868, -0.21120006820387388, 0.08472738069634361, 0.0842407627845375, 0.08690909191226172, 0.4083159350617119, 0.3228419885146039, 0.13177506347539972, 0.1227816334085441, -0.29550695240550007, -0.08502661139959786, -0.23605461983177672, 0.15712238193007397, -0.1559813124439492, -0.34574760938486676, 0.277762507022656, -0.7553074764263609, 0.07777738974078702, -0.08882455433582331, -0.08120030729671406, 0.11292950398509018, 0.2170921926103912, 0.43575636093622855, -0.29378362598404034, 0.12479259408631051, -0.2530970406277661, 0.2243839981107172, 0.3638330503319224, 0.1394879088414354, 0.15634290026333542, -0.1788303682998649, 0.043898778226251794, 0.1353492748736489, 0.10327112064624736, -0.6395879463697267, 0.013985893027779707, -0.2827700448263224, 0.09719358385640099, -0.14447127404294016, 0.130419590425892, 0.16463965768585395, -0.20494067169239244, 0.4563247804420694, -0.37083613828929246, 0.2705853445697943, -0.23817839429563858, -0.12987158648916228, -0.3008069525104954, -0.3079471239418542, -0.05202186724036196, 0.26492034277672827, 0.06316705143372237, 0.11354952805006874, 0.07701521643642217, 0.166433336682474, 0.05055225318116035, -0.2414618554834684, -0.14858079819853867, -0.30606030411527846, 0.01043405517975734, -0.0682742342685785, 0.09913867246922756, -0.1858053040385561, -0.179253884767503, -0.1914236903664229, -0.04289960296617374, 0.06855223170216221, -0.14077309706221622, 0.11816327879433099, -0.07534738592588013, -0.20846053160415193, -0.13114484824041542, -0.09154087075431051, 0.17772827817644699, -0.3464469664869345, 0.28597355990218837, 0.44761029360802657, 0.16670017256041325, -0.3584805023095053, 0.19747484166987997, -0.1892987497866001, -0.27214973824931066, -0.1914780226085283, 0.41892419704818806, -0.06014983219761344, 0.003601115252853932, -0.3036240896268606, 0.19821125093496753, 0.06946109679504935, 0.012667670675443608, -0.3027410575313993, 0.03743969293043074, -0.0850020983163668, -0.03565938942157822, 0.6589100723504877, 0.3345104127382673, 0.12387663267731847, 0.07150158930807551, -0.150417530357384, 0.21355424784919236, 0.61048091924944, 0.011509943010993472, -0.4895905439823244, 0.03677033074829839, 0.031692694798358644, 0.013375287094850285, 0.020986777736693954, -0.31826990432686264, 0.01693725904424119, 0.012240742027537298, 0.12006460929665128, -0.24890240714382683, 0.07818272296558211, -0.08071229724674586, 0.331320778732783, 0.16952021629295366, 0.11986949274803682, -0.469595304647174, 0.2844938547425402, 0.07482821910524404, 0.3871357336002379, 0.20189971570629633, 0.0930121882198865, 0.07912130947983032, 0.4535447994703648, 0.5875553154323302, 0.38597158306963386, -0.08056290023790996, 0.109913514768594, 0.1763649884436927, -0.033263033527788505, 0.002350806650398731, 0.15728853185066868, 0.03190789805887321, 0.3829557332811418, 0.1347063002638999, 0.019995964083947097, -0.31137750379694457, -0.4606545765870186, 0.2645333064046394, -0.014533001461755245, -0.18272216763006888, -0.08874734583110502, 0.22022091843695837, -0.10983980221291278, 0.22595161407711056, -0.38135044199661544, 0.0332142138880658, 0.4916049391030412, -0.18533651689253341, -0.22217409158878298, 0.32398831105265125, -0.009317618014202793, 0.6726926266937633, 0.3397904950816737, 0.267807776966342, -0.015217741892389988, 0.38755194230208473, 0.2796940077162709, 0.5144892667751609, -0.08443431314305318, 0.37299154361875975, 0.43966000229856805, 0.19185265724227, -0.2505235360396502, -0.175119235470021, 0.44361768933673273, 0.2937548970000757, 0.1789098718406132, 0.12172426886094531, -0.37237517488288513, 0.4563198775900909, -0.23389970051541953, 0.14055972083354906, 0.2855197873214354, 0.32959066088394656, 0.010129043233512467, 0.3308020336244955, 0.7490280302108414, 0.277153446571523, 0.15523367474401184, 0.2882067422439454, 0.14228889103777065, -0.3624188545305167, -0.06464017880819121, -0.36831896346818127, 0.22198782844115644, -0.4255836242134559, 0.5523980813714305, 0.19743407179992314, -0.09216830270943725, -0.42710518385321006, 0.1454115586062569, -0.2070441319831657, -0.06448116152055372, 0.4142286797936348, 0.3304342326281233, 0.042464572733583096, 0.15280841583495083, 0.22819138164573952, 0.03340335476230892, 0.04914336826613182, -0.31246808012686517, -0.012246265690552397, 0.4270075689766938, -0.10907679679252552, -0.14448190261314972, 0.42200785724528467, 0.6095129700835055, 0.08178945856160344, 0.07755886936807464, 0.886728630785749, -0.08530188447690175, 0.5221803893878766, 0.034903478416499496, -0.019609101431475023, -0.25744643279229806, 0.17065594965055292, 0.20512324210832225, 0.08694281866666154, 0.2759434059173933, -0.09150141808188877, -0.35075215052788744, -0.03714123524533284, 0.36664215578306214, -0.1973792076606589, -0.1558579835813989, 0.0177802207756465, 0.5504659162554456, 0.42278773209435533, 0.07791568121650738, -0.05140353397845886, 0.37937244766073913, 0.40620300467141623, 0.26718743872728357, 0.376051976475395, 0.32330916969219003, 0.009592066205077372, 0.4829397802299141, 0.22608384278259153, 0.4438194381854758, 0.1958451965797732, 0.18727045747437918, -0.30905831093288316, 0.48259311140170946, 0.07098903257994649, -0.4055050333942191, 0.3625301533266658, 0.1463212580078892, 0.414911912503744, 0.017258000644091807, -0.035421039401845475, 0.02004417069605696, 0.014613544281581878, 0.25626566672042683, 0.4730104707370847, 0.23089718020788838, 0.6147140886037809, -0.10135099892499554, 0.19274685980072942, 0.31410019419651924, 0.05095084916909661, 0.37560444483166994, 0.35996363390066777, 0.06253453601250113, 0.14809503500700164, 0.11451300864535893, 0.14730648898604545, 0.08115036898365297, -0.3616384719643291, 0.32826315795813993, 0.02987298141930725, -0.04820190252517725, -0.304900934930653, 0.3123418997226797, -0.06507160039071969, 0.14639544608908933, 0.5133666985238252, 0.36609345269703086, -0.4760131311970562, 0.1905252141124734, -0.040167425170405904, -0.0012370873696065916, -0.0663269794285791, -0.3915257825139325, 0.237955279071907, 0.10732829999035629, 0.3667524096896673, 0.08778706023183462, 0.5385973677735821, 0.4166148209191864, -0.06777523036471893, 0.4403283021991281, -0.23134088272226477, 0.09837961842720173, 0.4171746367828397, -0.14333836641173547, -0.42379678876391225, 0.37117794232991264, -0.07119897327901673, 0.09480247025506547, 0.34473869681622343, -0.2373366154793669, -0.15568181831966216, 0.044439353661850395, -0.39088996784000296, -0.19738830864184737, -0.08108983804083968, -0.09834233619149846, -0.17175906583015058, 0.12572199872629708, 0.36400589317318177, 0.2940810014131907, 0.12231600208092905, 0.15894285626042476, 0.13881758501563224, -0.20712561949751987, -0.0821871374579543, 0.6032279214473422, 0.2625593909312587, -0.04186628033890987, 0.09869981030067394, 0.1986724571846236, 0.006731137135926544, -0.5011896937574344, -0.06160531349778596, -0.03741437819376296, 0.5520658239082658, 0.06604282290359051, -0.5992538561262559, -0.030775268679623685, -0.2762659162829574, -0.17216689653813705, 0.12242946729910098, -0.5631433977784089, 0.30484423461660287, -0.040600967757827046, -0.17375691681093114, -0.26545810686605664, 0.4253770690918972, 0.47463536376397414, 0.2290331030156872, 0.13414488254416015, 0.2998431469738508, 0.2312046232333085, 0.2127568206074725, 0.2397054865356184, 0.4774233576799294, 0.4857584350165125, 0.17827741310102702, 0.4517810251935754, 0.271805791391124, 0.18711506974365377, 0.45580964714106653, 0.6138494315598576, 0.05294333584722334, -0.31732123454898814, -0.07582360787670346, 0.06629627545786158, 0.22918991404708736, -0.23579035890787267, 0.5322876952686871, 0.05411389109331904, -0.489396155209545, 0.2634096369934533, 0.26817557185652124, -0.2921328141172717, -0.2677057465040856, 0.2179870817128694, -0.003763474342189254, 0.41173317252551345, 0.04736878501393223, -0.09280362707905544, 0.13773559340251199, 0.14586578349012838, 0.4215971465555189, 0.44926368285126117, 0.6770351382678276, 0.2512558533572644, 0.4008399109553743, -0.44425400342657273, 0.1492151128280616, -0.01797982349804152, 0.04851185410216479, -0.0005330308003593154, -0.10847174594801155, 0.3690075386561545, 0.949378740076776, 0.19835891040269074, 0.24231342538719844, -0.20099194855487754, 0.18970352988967484, 0.3171795251343998, -0.013518678792159688, -0.15246954390081335, 0.17195669251086823, -0.03135381052577174, -0.012547070050321714, 0.024609917118535093, -0.14226784368863918, 0.2987821895318976, 0.10762153416187675, 1.0594742351212214, 0.3617496393077369, 0.03770654296884536, 0.6069695201543689, -0.17909775932637512, -0.056495136341267356, 0.10454749291586919, -0.02941050416996013, 0.08842187021313776, -0.08634204952452096, -0.26680900492103465, -0.05552425825738918, 0.18344028737304338, 0.36646412074902734, -0.0272704770699686, 0.024105161854037258, 0.4399006077807943, -0.48185354022704546, 0.25324938823029963, -0.11542819285839734, 0.01872721619470928, 0.26868317148505677, -0.2873971878405335, 0.4665414256089368, 0.5324038878441331, 0.3193621887256295, 0.7418352417254498, 0.32623836883023044, -0.07095524510438293, 0.44007440447251733, -0.03924917482850721, 0.08015685568546824, 0.18808940161081283, -0.007349573311528078, -0.2905594328285472, 0.3514643654437092, -0.001951988517796193, -0.47765840055851927, 0.11923927463603821, 0.0753924228820777, -0.15623390943218632, 0.12700943887927216, 0.11630433588414345, 0.6313616937618662, -0.2110582742129944, 0.1969498176728438, -0.0402407968080499, -0.043301255974465394, -0.06593717338385559, -0.2698246659117758, 0.10388460044318655, 0.13279555738277846, 0.12152908127618467, 0.5244727792517576, -0.05646892824545237, 0.16211746915739833, 0.1474417518678615, 0.5049346076207452, 0.08478524213743799, 0.07029081036244138, 0.3829405861468105, 0.14489174393642626, 0.2603289715323484, -0.24017831610222393, 0.3796599291005475, 0.25126669765365656, 0.05636985736200233, 0.32622061793953333, 0.33225747823090446, -0.26951741007921093, -0.2358293878402651, 0.1396908276511092, -0.09070007511690814, -0.18704059463077305, -0.20279106012354547, 0.4041958398662218, -0.14240341951628707, 0.03662236328659139, -0.07445044342487964, 0.13639844818597494, 0.10329481189543074, 0.22092925238658978, -0.04313765051324289, -0.1410468492873088, 0.16206769601274784, 0.4637416440112271, 0.0621345000166713, 0.2920280400322342, -0.029149831807256513, 0.6890213826349901, 0.2179648289947673, -0.04939632711176867, -0.034458413604867615, -0.03713188440131527, -0.10108334095477485, -0.0979312503057261, -0.09922354786114153, -0.17498908027684873, -0.4105817620512117, 0.39169718360201566, -0.08493509177663229, 0.11128439235974992, -0.1035827441813646, -0.3469435169378446, 0.3510763112447055, 0.3639792942691998, 0.21313797554776873, 0.16853743507703814, 0.2660332853198627, 0.13022372804177476, 0.559519875985432, 0.39609343293182075, 0.5488210546549301, -0.02362325301536097, 0.7422051880076623, 0.14162254719027015, 0.2734165111941418, 0.5723040137333846, 0.011393843872076528, 0.4337844565899525, 0.01983018304208729, -0.1753980860237845, -0.5360639393928426, -0.009613288289522648, -0.12354414994696634, -0.5194959743982271, -0.19174984926040758, -0.4368849875460648, 0.043160342379175314, -0.015969965957739186, -0.20246168630739222, 0.05768916786279159, 0.021955407122556912, 0.2453957934070184, 0.28362213184737983, -0.21942403768937085, 0.08224549255221224, 0.6438667398151258, -0.16358178971959778, 0.4057644307598899, 0.6586819346343687, 0.23027533026346392, 0.32460165470612495, 0.033668452480250764, 0.33835446189582485, -0.02998637510400152, 0.1932767106958379, 0.04040870331600933, -0.12723142157165107, 0.7022712510683227, 0.05379610490905716, 0.11411707087070665, 0.16319039375247166, -0.12076152646743449, -0.1961324466066975, 0.0840973661256961, -0.12431989068608751, 0.5553437400570962, 0.5177246079475892, -0.006031379676193933, -0.41104702411813876, 0.32397513613903983, -0.0014607633117625775, 0.28626062494866983, 0.01686949188883963, 0.18065152690018368, 0.1641508704143305, 0.4865777950484789, 0.170249120167762, 0.12194771686102471, 0.4398463000908585, 0.14017871344426086, -0.16528568349652703, 0.15071751685127666, -0.33251843881098814, 0.04007240590374429, -0.29326256797252526, -0.049594187660198415, 0.15753414661881046, -0.060437246728226125, -0.08869102484906848, -0.21636262316396915, 0.2797364652893226, 0.5993966306283172, 0.6179550312288622, -0.2524871620890715, -0.23687648056835767, 0.5386770284016192, 0.6210169350249798, -0.6483776506449386, 0.03011623517898514, 0.07044987751241583, 0.018139420064205224, 0.15051207420775475, 0.48456691280154973, 0.08884776396699819, 0.33295936831475065, 0.23935695189628242, 0.0842616795960597, -0.18355014844428552, 0.27463500869139007, -0.4889701398234252, -0.06682376720554077, 0.14702127559776723, -0.03373672396437357, 0.4477907912525895, 0.2019349571647741, 0.21877713527678327, 0.4209300908991031, 0.1134605496256209, 0.05354234833929554, -0.26486118315795226, -0.3348147765531333, 0.20485851516217607, 0.07340849702176293, 0.03143234023894036, -0.06254575513883975, -0.05597673161984512, 0.1667178974419619, -0.5712815067135397, 0.3796006136119367, 0.2194979047669491, 0.5189112264811065, 0.15482071123799304, 0.2657955902422716, 0.21421021892947295, -0.28806494374764446, -0.06757898084612891, 0.3531270155582197, -0.16447654714241916, -0.10000543861967309, -0.4950468556002147, -0.3770575667409607, 0.14025914841522055, 0.20538741575714003, -0.14044517531161604, 0.20389168176705044, -0.14243560989606377, 0.24739824170853644, 0.15245198132213886, 0.21915070604569703, -0.11166312871064434, 0.10251888924276381, 0.12679933436378815, 0.16161740297679775, 0.02180276492012536, -0.021507173723532558, -0.07281923129413169, 0.14540559890431018, -0.002575658194725363, -0.06690819153355186, 0.029753058698578427, 0.00875253027973079, 0.7465520437435669, 0.3182911815850934, -0.13572009243872388, 0.151979727421699, 0.482399516037905, -0.21388531301419939, -0.2070613448756766, -0.22448050510858258, -0.522750715309168, -0.19455745520343062, 0.011923750832339156, 0.2634366217909306, -0.40189146244615287, 0.10851887784569746, -0.21090268553445404, 0.5671807149538579, 0.1259642194009851, 0.08224438368263959, -0.05628962395938745, -0.18150753490003296, -0.302615319619789, 0.2884553061501951, 0.04818470337541554, 0.4570426684863305, -0.19115597808421295, -0.3589801678024341, 0.49303867205914387, -0.7301386326885213, -0.20235563094195022, 0.21508616534032765, 0.19056186259206292, 0.31480242109318674, 0.037845965944405896, -0.05420743463383518, 0.08701946978344106, -0.4824442546433019, 0.16362303622131696, -0.5687598639190339, -0.38004150960171357, -0.09331809465330823, -0.14429315990852615, 0.039815936780131934, 0.23072915130858646, -0.18522103934825154, -0.022644027506715358, -0.42295426140711545, 0.16272930102631974, -0.5154750560837565, 0.08090398731052237, 0.47595120572196997, -0.02510756891631844, 0.3945128411725692, -0.13684174630782386, -0.14848928565451636, -0.4054744581565595, -0.03724553436617014, 0.226516131535804, 0.2590623951054875, 0.0012554705938955875, -0.3504532898816314, -0.4743815445076599, -0.059431399259144514, -0.19145132343087887, -0.07757152260549657, 0.21208457368971778, 0.2897532997663858, 0.19824820645977556, -0.24213906676474214, 0.09690952468188785], [-0.08978165796609978, -0.07509140560890303, 0.09050760781713209, -0.6117292224570466, -0.21174407401632017, 0.03917088150105193, -0.0722384719175971, -0.36140780066476696, -0.07070265425516196, -0.1516936055221848, -0.18798867816409326, -0.4328022033862281, -0.2317706666829893, -0.5816448661240158, 0.12256533861382064, 0.4423150806032674, -0.5017534955217492, -0.144441350259137, -0.40821699303171155, -0.004819948595719808, 0.11502373461928643, -0.42782415376675564, -0.21678001311881906, -0.2841037628743498, -0.419326235875251, 0.31032854191879145, 0.1776489758686276, -0.30069314094065935, -0.6507094933675647, 0.09770901700345123, -0.438289379431963, 0.16398055825050184, -0.12944464446479104, 0.17094120750413566, 0.524187080567777, 0.09692101161973324, 0.09614077146504932, 0.03440593184730706, 0.034630860709015415, 0.04586247509293541, -0.15633178279441007, -0.0812730901444933, -0.11679919021277031, -0.16540329653998848, 0.12845059227516537, -0.43794323081117087, -0.026949446841105864, 0.02595312222153245, 0.103508089682608, -0.03675937812338638, -0.5007042128978891, 0.0238168012650038, 0.47580364928075436, 0.33181990168109277, 0.05611072671079366, -0.08572613201187236, -0.08784803495194428, -0.435012897709371, -0.4180855219809826, -0.1228323231964679, 0.45977581230209985, -0.18247526941740805, 0.691687990622193, 0.3133441058302808, 0.8426553347008439, -0.15644379807249353, -0.24368459928038094, -0.08451275085488864, 0.1891087360864332, -0.08942563378441562, 0.13871192555290635, 0.12052776232927016, -0.15541870617828896, 0.05225703526298992, -0.11138702575205495, -0.28824340705827634, 0.1404275110272837, -0.15712676690792057, 0.19346666036517604, -0.25230975526685484, 0.22559607720002373, 0.26822686418299724, -0.15539357090776718, -0.06134434766811435, 0.028301016887322807, 0.32436611737546495, 0.12010366736460716, 0.34495126409128957, 0.08500903954993481, -0.009232434500380643, 0.4332715232964831, 0.029531519174494498, -0.10278840254053297, -0.12393545060221237, 0.17486353090477663, -0.1689225629929621, -0.18575097297025905, 0.6467810178086949, 0.05684380943357777, 0.14072081122464944, 0.01865259651911599, 0.19565419946639045, -0.032256575545465765, 0.38840756066977883, 0.12897016519395058, 0.1312637143889926, -0.026792570075056317, -0.22021479862382298, -0.011329391483515463, -0.10803900251196688, -0.07123929367163596, 0.1913666745564918, 0.007945104631618507, -0.01944477137620775, -0.14930157711346276, -0.3692741553885638, 0.03041653210539559, 0.08036327573210975, 0.11981180866928397, -0.04089552323199494, -0.37502741527705064, 0.01187366650206482, -0.17969727767898186, -0.15125524446777666, 0.017249047674500733, -0.007756660601751272, 0.15207211457573452, 0.030941437126523336, 0.19872494321284903, 0.2580380222373366, -0.15010982405477702, -0.17739590207254916, -0.009123408718527473, 0.10662958902911156, -0.07190993761204177, -0.11994885458532965, -0.32592297938641174, -0.34958377933531526, 0.33853085187806176, -0.08414445421770421, -0.14929297961683274, -0.20282277000819154, -0.09105065185798997, 0.04463678016805003, 0.2630460953795481, -0.23596923127773478, 0.012871448461831804, 0.020366326762662843, 0.10641926376728912, -0.1360763665991046, 0.17751443047958243, -0.04086765554300918, 0.05703764716539769, 0.150685118601784, 0.2282654048371575, 0.3491139596602712, 0.2014024814670775, 0.28393178264631147, 0.15518104528147902, -0.03895327721207749, 0.10622025180894237, -0.14460528742337758, -0.022073993806295034, -0.10126402877367759, -0.13203636388277243, -0.10060515027240893, -0.19169021301155909, -0.061779479241052704, 0.047616204079083374, -0.2150113339061956, -0.013618319730115283, 0.1372941971112922, -0.027498304687265062, 0.5077395386575686, -0.04804362874848697, -0.11429742501709765, 0.0002596030343931197, 0.20879554402497977, 0.09111749327133442, 0.5222247330102828, -0.006611552625470909, 0.38647118931037094, 0.046040732583827494, 0.09674645957091284, -0.019191695895102317, 0.39035841461682524, 0.18419561301256596, 0.20043452144021573, 0.3061302677494222, -0.02373842483447563, 0.1258402558700856, -0.01084585541136768, -0.13657540247330052, -0.05484185953740679, 0.07800371812512703, -0.25739105851790123, 0.0586499222797803, -0.2899645448473378, 0.03305120593233159, 0.08209985073571045, -0.1682704072880758, 0.027542616889037707, 0.10646948386347037, -0.1637691208227513, 0.027023205312997123, 0.08934439685738134, 0.10451252302395199, 0.11027365986377785, 0.21170630649546063, 0.3285675284605783, 0.0461278721118184, 0.08386344944072974, -0.14186244640156595, 0.22860763624937688, 0.4615726423345916, 0.06135062482827186, 0.09231943462866443, -0.04621259802346336, -0.1780875471211082, -0.30650592630551804, -0.011459007721853242, -0.15478344600148797, -0.06095039866758313, -0.09562195548207071, 0.45156357689941595, 0.33855341636869585, -0.020207298089681126, 0.03735551475345082, -0.27293786976651546, -0.2700315130001323, -0.4683594133523223, 0.2779012857370349, -0.120114570355056, 0.21131987847879025, 0.4366646024552802, 0.28542614696798135, 0.32428732991115095, 0.07708399247001316, 0.15984597665091793, -0.024146541772895182, -0.10491181976422147, -0.04878630308880139, 0.3170210503488435, 0.00795987684911057, 0.15336098031473946, 0.07021415038281652, -0.2792790743195986, -0.39463602034983675, -0.3995934690748353, -0.18123788210273115, 0.09664179319861582, 0.17218810336620116, -0.2889630725427491, -0.06684109871762284, 0.002327827571397482, -0.04806017424178537, -0.3836916806342986, -0.1264196593842425, 0.0069429886979314945, -0.2671383067447608, 0.07174397120475058, 0.2460876615787367, 0.16524811705407447, -0.06450732933089451, -0.22913681399876712, -0.05750003124758651, -0.20122302618042295, -0.48972048436490867, -0.12180785356821971, -0.08655938131026811, 0.33887178643337845, 0.19752875189006502, 0.09132771672976288, 0.029792788121126776, -0.5256913646017769, -0.41234312205498624, -0.0429057309905056, -0.13900232901443235, -0.06411028816687686, 0.19916251862993695, -0.381672408684103, -0.44568174113010084, -0.150520479878882, -0.18602995684218976, -0.24851780794908357, -0.274738892046758, -0.15176417951786275, -0.0545123972689307, 0.013946048527342353, -0.0013346871464320876, -0.059456921914607094, 0.1487327014778974, -0.19727405404306855, -0.17728144665121173, -0.5662840435029185, -0.4771077203081913, -0.1035825788600847, 0.11455870096150288, 0.32672031175229654, 0.2312549462112922, 0.07325996363488914, -0.22423938277954897, -0.26940196363419755, -0.3525030230554034, -0.20425813328249945, 0.261321151175979, -0.11911137633612541, -0.6215866842746561, -0.13947941120645269, 0.1479648877857671, -0.3842714015877825, 0.06432099235352057, -0.47376672119832836, -0.10656008137525728, -0.39529279763733444, -0.06055860116434272, -0.04599969996785176, 0.15418627394222345, -0.06261088166388572, 0.06315017344763293, 0.09999328104173143, -0.28847826138385196, -0.12232508968669666, -0.32544314453707857, 0.1364033330086032, 0.4830813927208803, 0.47839528543825566, 0.3762464546051798, -0.03373073948756992, 0.20664162883149914, -0.13303430333864602, -0.282836846038802, -0.4653640726194111, -0.14732153888735938, -0.37134224133735344, -0.16897518682788265, -0.46329556254825166, -0.05785321434341788, 0.14474973878300357, -0.4339762047966609, -0.1104621557208719, -0.13289362735202312, -0.1672054393485136, 0.2608387734686877, -0.19074326884361012, 0.07963209329575259, 0.23204123650210468, -0.06582440911857683, -0.10625071167248434, -0.04764938242313416, -0.27023448046717913, -0.011871404355181308, 0.027462099902199746, 0.1794041288178961, 0.5784870782677962, 0.21101136903001996, -0.13068332260946275, -0.38147514709907937, 0.12281261127956664, -0.7522838522113522, 0.006933785586296079, 0.02747057785104264, -0.33582777542992814, 0.5584017774473184, 0.1906743790014402, -0.3776997826432982, -0.3935044250763532, 0.024909304662021726, 0.03627086511352655, 0.0862893933072161, -0.06648197974602134, 0.20051632157869875, 0.33405535219956317, 0.24193178208253485, 0.12502413450256727, -0.04693293404453118, 0.49124759293134473, 0.15394750820398395, 0.048770260992263996, -0.13482552461194214, 0.353924192395295, 0.4069006894835542, 0.0882209643400243, 0.2769705874543178, 0.17113713958023, 0.17975045405888257, -0.06966629884368145, -0.39302751300481104, -0.07430767107821054, -0.07747434857998252, -0.2781660811078994, -0.2989418789367796, -0.17554980875272802, -0.07317414688358452, -0.6880479507785832, -0.31170362595951995, 0.22367982728660885, -0.11792392152274189, 0.004244545986613148, 0.33050683490657723, -0.11041514834336547, 0.1598920492328432, 0.41005972275595154, 0.3119770846098759, 0.42531898040714355, 0.29304752368339754, 0.12554432885467898, 0.13121423180190886, 0.23449820565730572, 0.13935653785055346, 0.1430043506645392, 0.06398926482096266, 0.11190040626353062, 0.11149815882514988, 0.12666527372603578, 0.15123215491758105, -0.3595764923700835, 0.028188336441334092, -0.22596672880225516, -0.2477828420253314, -0.2866827224156091, 0.1725732260469358, -0.1280014709714244, 0.31963779077920323, -0.08059315913969807, -0.04131248399711832, -0.13129256908380524, 0.09725971020732177, 0.05675124682519288, 0.4594589904378017, 0.22073473387913872, 0.4665982724593542, 0.3879204868952684, 0.46105771439574383, 0.3102700116332204, -0.05435920878558567, 0.386978949225678, -0.07608430057533992, 0.15816447059938643, 0.22050922837783576, 0.27895435002134034, -0.08338111973264888, 0.16929964594267535, 0.10462931993460092, 0.18325042076302825, 0.009732629494622202, 0.12444959742988636, -0.018758274899526372, -0.24204048348616597, -0.0407962729350267, -0.05721768370098497, -0.02911347036070948, -0.14629400948985016, -0.4018554450325995, -0.01882971157536262, 0.1816153955016586, 0.3087984096451481, 0.4529784789948682, 0.3621869867017623, 0.42161215340985836, 0.4428955440899148, 0.3016709486034275, 0.220428020499431, 0.37820322874915896, 0.21141908456243166, 0.1531505710488631, 0.3416134088989707, -0.12929694253431873, -0.1320397276992529, -0.04020002245430697, 0.022150113642576574, -0.2165387210341886, 0.02652347204089021, 0.30486972569653714, -0.152863903295182, 0.06310666441224655, -0.11511168119073996, 0.36594662191550964, -0.5441212630159374, -0.3491970313529651, -0.06972606237571442, -0.5258730418347488, -0.02948813922118667, -0.0636168844097714, -0.024516665657224962, 0.4529281636519512, 0.5251541721953471, 0.18663699640698997, 0.27790643914538893, 0.5015857622706372, 0.0907885433355274, 0.23819542781858802, 0.1205103509027674, 0.1536134606686905, 0.24530068304177163, -0.1094749233165017, 0.007913896358759524, 0.04989478419593367, -0.06551619776994756, -0.04374519594157756, -0.04156609165049337, -0.29783100007133584, -0.2199710215155874, -0.11712055280366981, -0.17208867757652296, -0.3946458093155635, -0.10459996317106734, 0.3284888278355742, 0.04236697173326575, 0.0015976854250873687, -0.2821619312613782, 0.25684876197169293, 0.3255839456022379, 0.3354239991952223, 0.4329148007413639, -0.03136354230654799, -0.01601915022663732, 0.04763042723947406, 0.16501758150361712, 0.10074234489298543, 0.30645179992200233, 0.4287444789649427, 0.18217733664326138, 0.12630116106814865, -0.047527632793220136, -0.02434514692062596, -0.07449240102888531, 0.11206035258512831, 0.015122666864204366, -0.02869023116087734, -0.1795073107909933, -0.04973667863590506, -0.3376616661563837, -0.19154619216496355, 0.08263848405787642, -0.1915093604036907, 0.040034739509671007, 0.03477827890672691, -0.10540401339778453, 0.03580518800353104, 0.08870930881975522, 0.2745652625075322, 0.4621727522551276, 0.3622638313711496, 0.1440947614081755, -0.15810371580571428, 0.016875051162918105, 0.29626446106797066, 0.30903391645301254, 0.24848810693047252, 0.12994134107670877, 0.052326626952992256, 0.10408676599036285, 0.06617408975047044, -0.06955013108869035, -0.13369555157722618, -0.07329719318506418, -0.01800895396362617, -0.5186491560010248, -0.11538267470344017, -0.10705848716745268, -0.297045309386997, -0.11270468723726527, -0.08869956947346162, 0.07533877665515923, -0.18474703803467338, -0.2983500226827303, -0.3569723074120281, -0.10970881900236287, -0.06940168595508125, 0.2745183988199799, 0.05893832622267206, 0.08100606680766331, -0.31026976461859646, 0.12246198180383544, -0.03365649651607905, 0.25048564528229933, 0.17566824154446475, 0.08995187293201137, 0.4218862392889924, -0.03412095218568086, -0.35051105289269835, 0.16295219685209045, 0.24016721094959054, -0.05039450837986648, -0.14824594175388034, 0.08344505502552305, 0.3144305705128271, 0.09689207864594816, -0.085884628824119, 0.19747758319216374, -0.20622551594059502, 0.07591135536133577, -0.32805074079341284, -0.19456275158495862, -0.02788426143716383, 0.11363622727844883, -0.1761943463254368, 0.10175267173790416, -0.025180998767705205, -0.03506988923439868, -0.11307490920315792, -0.03151059403309713, 0.1763634918056327, 0.3740964157137084, 0.01163707745502847, 0.30405490911060556, 0.19973918160224102, -0.01482613139525017, -0.0734532617751833, 0.01362816907855484, -0.22997835830340396, 0.09236178244539918, 0.05477666631837419, -0.4498934486993281, -0.22036819214625747, -0.37999754314031264, -0.19214081319539822, -0.4186941214333885, 0.08899618416576288, -0.08382734728638673, 0.02359147593984754, 0.07070360863532611, -0.07653767151229673, -0.06146626338458051, 0.20387945956114562, -0.10899568093178288, 0.14341843829585993, -0.008829247499700637, -0.07696093252974036, 0.015506870131328426, 0.13488157169908874, -0.02291387269862423, 0.12284555156499861, 0.3249607433630845, -0.21086447503981987, 0.00014751580031826942, -0.020863725806906624, 0.20918582157243776, 0.14057992399089303, -0.06778972221220475, -0.07815353802034106, -0.22039398263839605, -0.14818177252255238, -0.3190486099423048, -0.19709722625392573, 0.19207857202991613, 0.2347027483902707, -0.3151994389775667, -0.15291949883418177, 0.05611109210140891, -0.046629164591441626, -0.3655135359262994, 0.025082169480290878, 0.2322840405099939, -0.03974767373754076, -0.12955670379100062, -0.17644935526609418, 0.03461048679402996, -0.15865732792678167, 0.3981662697550315, 0.16931742684432907, 0.06473749888079484, 0.13449313920283995, 0.11036564760144094, 0.22756944918638733, -0.11778361224448633, -0.08078505915347754, 0.23408673271908748, -0.05965089717721517, -0.3250988684814703, 0.12568655696392972, -0.41972051525807896, 0.06501144746795721, 0.05886466574833425, -0.25562439312727503, -0.09825041764619027, 0.16553787455307875, -0.3702200380435074, -0.01901210579655227, -0.03336616299610399, 0.010394567596862957, -0.25167092104674976, -0.15595457501097507, -0.08625457454705475, 0.13117293324248527, -0.05071858884675813, -0.05696103914250584, -0.126527715651636, 0.027996809684540973, -0.18903766531463106, -0.06933737950372437, 0.35652665890971347, -0.1615728560641697, 0.4941746883655317, -0.1835687689736365, 0.2759566684672831, -0.15318052595323167, -0.0946915298018957, -0.17967742916250268, -0.23889841762672553, 0.3743584779901685, 0.3699887482638101, -0.22950011057268815, -0.0670310455716073, -0.00012656907909711892, -0.23828650526562237, 0.2143580486131781, -0.20438060287241033, -0.3387212485414512, -0.3796622975053818, -0.02730428022954094, 0.08465965724960271, -0.1589996737913983, -0.026968207656199797, -0.1367613010894977, -0.041364700196342044, 0.021578469216618462, 0.08088765928124898, 0.49977957938874, -0.4020604677818205, 0.06202920607078806, -0.33256358592039886, -0.014135351013623966, -0.06044015633621366, -0.34791798796047524, 0.13539979083434328, -0.09658141370050459, -0.4788999633432629, -0.15160058999720788, -0.12412504289332013, -0.1078334082507192, -0.03939940175406165, -0.10585846886797241, -0.23959386926167656, -0.10342661382186628, -0.26865710464207254, 0.01508060942903706, -0.23879653091168318, -0.4087183273594864, -0.43214560680133307, -0.15023665454424567, -0.169968610269071, -0.2145550260826971, -0.20943440513952472, -0.2868291417758604, 0.021963007008732268, -0.007156810915653766, 0.006078733813811972, 0.02760319712653721, -0.13887291058905932, -0.22083539855640422, -0.022349841393241403, 0.17812878717311348, 0.32482102798216217, -0.15942327834751813, -0.39651909380876027, -0.022666070898849106, -0.15919757919176197, 0.446513925969261, 0.0010665200192227196, -0.05118283897413135, -0.6002558765427556, 0.022293141151696522, 0.14508603703631212, -0.33235370120132685, -0.4870078862762343, -0.12985262979329465, -0.25525620921444, -0.25922873978113037, -0.23539936055186916, -0.05141141561042192, 0.33665247732228093, -0.003513299808193071, 0.001367703693445007, 0.198613775432252, -0.37393713801040196, -0.2761789405927829, -0.23191772692983453, 0.41863614858114273, -0.10024744947921106, -0.03552681602663077, -0.7275738557242842, 0.05458019139350928], [-0.2592361956726089, 0.33423519954532577, -0.42912586727124347, -0.07699193994935961, 0.11858636165119556, -0.2659414812476603, 0.3105895620380738, -0.4420077839765841, 0.35358076087277596, 0.19553082855143208, -0.11814196826762646, 0.06665317595738735, -0.2948296263113297, 0.26710569869212636, -0.1174361913081257, 0.06420110453652386, 0.05170440704334635, 0.26432324979965033, 0.12652360589066258, -0.13284975262799154, -0.1834510458797369, -0.280040631714745, -0.41978129312042306, -0.1764371611304083, 0.06833115027888494, -0.4626597845422146, -0.01484533202623209, -0.4025271379812219, 0.06934086192610184, 0.14870370449065268, -0.06761654035727206, -0.04508778932663765, 0.09950146904119363, -0.2211992182431218, 0.39614597293872406, 0.04038502755622946, 0.09781611127795913, -0.20499867233450234, 0.3543538707101514, -0.17403142231563737, -0.09034568172689221, -0.2275048695010106, 0.00904474706495421, -0.15047454234247734, 0.4508732030319214, 0.04672431119540711, 0.13341520495166584, -0.20845259905313535, -0.16003082977504718, 0.0537928894551555, 0.13039935251930762, -0.14869009590775428, 0.07379329349805505, -0.15871022360141626, 0.15465920255385887, 0.4538516823295904, -0.3440441433546664, 0.40002135034420133, -0.22630669193566155, -0.3848937252076536, 0.05480353418687159, 0.21943233088707545, -0.2394673877909037, 0.07645595303395072, -0.28855783585441697, 0.19497064675940157, 0.3763603200139137, -0.22750171276473913, 0.48378401520353165, -0.05857100599450403, -0.03584937519366236, 0.3979920154067964, -0.023639871247067824, 0.12350438177808697, 0.4648902295025093, -0.026751793202798455, 0.06351800227215584, 0.6544853855298176, 0.13316389696260053, -0.11376399095856325, 0.07536242240233547, 0.08568120617035227, 0.053932040417534306, 0.05587233510622254, -0.1921803970564763, -0.06676630278617575, 0.12050436544252088, -0.10892092204132663, -0.18651522674418505, -0.20751760450995052, 0.10531669605637548, 0.08801527387779935, -0.1999198901695808, 0.4679789938411093, 0.13589191090224204, -0.18327974632739383, 0.16218214263837782, -0.22689634937682399, -0.23122467536476257, -0.1210793277919138, 0.12527383586289662, -0.08305776357081336, 0.006049451277235276, -0.20368622671249323, 0.045653912047132504, 0.07793101020199827, 0.2668142155843872, 0.22014332750795415, 0.06289137866103206, -0.2672166547353507, 0.45091003320971834, 0.5661306084742316, 0.4871691205528166, 0.22134383726205617, 0.45142893812812623, -0.3276176446577138, 0.1895914374140679, -0.003334813176688984, 0.10878802737514827, -0.2476904863854896, -0.12094531170060223, -0.05105374262149019, -0.5858141183910327, 0.20809318768865445, -0.3494609638738858, -0.1983212523407825, 0.24854586364131936, 0.13479529515386496, -0.2476158629529058, 0.10733145070094534, -0.015552833983771854, -0.012156800212851655, 0.28993336232377526, 0.010458799606405373, -0.2583287015216903, -0.0002921876095158761, -0.1703741469303861, -0.5037350860551767, -0.2245704301927167, 0.04090359207312315, 0.2075198533246311, -0.15216432359155066, -0.07004013806788968, 0.35294124875161326, 0.2789142647301173, -0.08063228815282077, -0.13877001587981297, -0.5005194608162142, -0.20046110300407785, 0.205872149589104, 0.03424164205197572, -0.09223123059576589, -0.18009543970217085, 0.2857327750573556, 0.21913017053626818, 0.1343273263088435, 0.0010002892774565108, 0.10712330282824756, 0.0977145363790676, 0.5181760229199689, 0.40310486021283093, -0.3339758764180147, -0.02900986402467457, -0.13358541621989475, -0.0906052449429272, 0.07271644370177033, 0.06974223426206509, 0.8770083599780533, 0.020106949290638, 0.17643857608197794, 0.23785482337010236, 0.13107121706004227, -0.14387647325576347, -0.06615341307868436, -0.0539415351668702, -0.07328522943386745, 0.35072848764886555, 0.13191304062582093, 0.3446202461055431, 0.18562815145928332, 0.026822505176136702, 0.12972470046219212, 0.02235359417674445, 0.5399777826935189, 0.02846959519160956, -0.2959283431443717, 0.29681223815553215, -0.2813255318509063, 0.21839228200380942, 0.2172342994871878, 0.11689832296593909, -0.06469138201287446, 0.0174651218793689, -0.3530191667206906, -0.10857752902914682, 0.06553567577219085, 0.19466547268714512, -0.03497767435298861, -0.28557590878328376, 0.2914050784758381, -0.2856650747508115, -0.2509823491758666, 0.08928543071612059, 0.2840401089760126, -0.03621477190660578, 0.012634357157917787, 0.6328651834990804, 0.30914618335905725, 0.25837880816874126, 0.09847313222127438, 0.07512995234570614, 0.3478015788068028, 0.4976242983880472, 0.3445224143750056, 0.28480523290597254, -0.13165218206984472, -0.5253535125588319, 0.1682515177122249, 0.0337510397844042, 0.3500798138459968, 0.23053815203681663, 0.17914117762756754, -0.060837780460336305, 0.11554072194086736, 0.30561812968819135, 0.16998218379467084, 0.18896277578094955, -0.2845765824893062, 0.27099535486947524, 0.16162328205860846, -0.11940511751510861, 0.23667494291234503, 0.24800769785043159, -0.14676894851749173, -0.008905440267636228, 0.24637930297579727, 0.4224315240436598, 0.10602762044373314, 0.09463696168985362, 0.2655357242271748, 0.030055958161012364, 0.30454276766048793, -0.23135443231312033, 0.26280941026724897, 0.5806249056380499, 0.09810125945209214, -0.16457919057262843, 0.2873179786497608, -0.07076556139019105, -0.22720394840460567, 0.1594164871103023, -0.16022355450847042, 0.3059199962722287, 0.05259620879792157, 0.4505306137480329, -0.11258739859822582, 0.038381006492266466, -0.13886236805160254, -0.0961239615277171, 0.1238361674532625, -0.0916968172059106, 0.31167528065680844, 0.0038429900387147034, 0.20776766865459917, 0.18694213943653132, 0.7192984290602771, 0.4050082300070484, 0.18402051708167846, 0.4089327225078391, 0.4228462317909553, 0.3087889801715424, 0.4226932378406053, -0.3094762933354511, 0.15397091119575684, 0.3611264722302714, 0.15069391583749206, 0.10477473780600532, -0.13647910877974567, -0.30448412006042636, 0.08589020228487068, 0.274436273788731, -0.0021803942842999638, -0.24802416817732564, -0.10886386327128121, 0.19745250582121585, -0.12138712400899213, -0.33386054942797383, -0.03158881663345031, 0.06395473729491427, 0.4180213669563457, 0.19035216397344196, 0.4833623927528704, 0.14733982695297446, 0.3435979263146444, 0.46959417026372274, 0.1785448526128938, 0.3305628548914627, 0.3510112350621789, 0.4528178453626398, 0.36078763983750073, 0.3780522357750137, 0.3699547429598603, 0.09104050414730272, 0.40408225312117874, -0.47458714660038936, 0.4027836256111183, -0.09219899176333296, 0.17620175933552507, 0.03212791250272622, -0.26468340888500536, 0.3425031232577923, 0.04125280509420193, 0.012028652664491006, -0.3175315659943799, 0.015987513686353455, 0.11342177956755031, -0.07000381891467003, -0.41317393785583495, -0.16239181533833769, -0.02496580274989418, 0.1985396698497219, 0.7320333618951598, 0.8149166376635956, 0.2573995691905502, -0.0027069846102261977, 0.35170644889654085, 0.002331074716458869, 0.2793012669657743, 0.3514786202864942, 0.3030613122041314, 0.3015735829836924, 0.09453201377768856, -0.00611332891824762, -0.04223866954047478, -0.3042601764728939, 0.1960456431831066, 0.41472228446847625, -0.0662809039213956, -0.14712406195729663, 0.03835071065361148, 0.09995918859736662, 0.10919283172189191, -0.007015193248645346, 0.37529703397124936, 0.23800723559445286, 0.44131176909525993, 0.2670317840489341, 0.049656552683137026, 0.3326065201060414, 0.18383500463812685, 0.5494505005473861, 0.28728592583311546, 0.3082175937315462, 0.3433105502915121, 0.16804968203236925, 0.18189621773241876, 0.08395697549645421, 0.15709998118730104, -0.13031474488405936, 0.1171204913196849, 0.2862500058603974, -0.2687100603154996, 0.21874640304989437, 0.18723376611075526, -0.5717316887025808, -0.07392701829302947, -0.1256956645623113, -0.08591178151844232, -0.21134255500677177, -0.18961376408731406, -0.2517542523940833, -0.1089825959436194, 0.3513508754403138, -0.014039783381631287, 0.15264135751564042, -0.06996869278991198, -0.1851386253192081, 0.40786041861109734, 0.4314520502706517, 0.6296795441149143, -0.05830903265337581, 0.7788569872279506, -0.02223680399770947, 0.04393765329730523, 0.04913069371712774, -0.24041704962678748, 0.09010206160188466, 0.0959458935769782, -0.31898679687269266, -0.07160954945541893, 0.6080809118277334, 0.46262404658892275, 0.445122213463431, -0.2247017292772839, -0.1612754182455725, 0.2243335564701533, 0.2036007531242618, -0.015058125415174473, 0.10540606921133842, 0.09082772336038011, -0.6250093219063347, -0.27034404979407656, -0.1321385243192319, 0.30193705976985, 0.30158621523204204, 0.2552868052961629, -0.35479431801305134, 0.7566125023381453, 0.1831808983745522, 0.029831417408472265, 0.11402635361262733, 0.3070362584398373, 0.5206082476123529, 0.037297703676344246, -0.0560456631020523, 0.2824290906573042, 0.3160466113848168, 0.04296215576093159, 0.3225228518330472, 0.26780702881116214, -0.0037854109279722935, 0.31647858317614586, 0.007790503031775656, -0.3487078977226031, -0.08686107075024938, -0.03005490007226719, 0.25406611408895796, -0.11048942217216189, 0.37824498347753605, 0.21690924870791026, 0.6480361655059738, -0.13872656318737814, 0.1959798110526012, 0.21906490409926305, 0.6918105505694946, 0.1910840856014448, 0.340569755607091, 0.0757703491196056, 0.3973757279971553, 0.1318449473817233, 0.2833446873422712, 0.07621677995841894, -0.11687748924587477, 0.12448609270010108, 0.3031572220257309, 0.20947792320745265, -0.1464780766479033, 0.49617563129482073, 0.21887369260246492, 0.5042610802579678, -0.034819603736853555, 0.32015725347985474, 0.18128648611896234, 0.7862790805294276, 0.061842826648862814, 0.36477872474883644, 0.48451750441641406, 0.2103710437364386, -0.26208755388258936, 0.14340742918675045, 0.2529507149300415, 0.6615745888421252, 0.5047949084650138, 0.69097582459751, 0.13670605620566256, 0.3622164594493891, 0.07313793109219036, -0.2675126616065668, -0.43047666335506896, 0.20427351958849022, -0.403639592162778, -0.19606079094058124, -0.31938785646086004, -0.3147407027088163, -0.4359104909519271, 0.3899237670964176, -0.16230929783085823, -0.014448368110117491, -0.27786121290450405, -0.2654794711994538, -0.06561448502508388, -0.3522735504225167, -0.11395405767054047, -0.4437507196825325, -0.1507803219120216, 0.36630308441354725, 0.3451405859136815, -0.01404409537272282, 0.19760575517174342, 0.13322137646587026, 0.4692676039230278, 0.5506980429124267, 0.18309670187665528, 0.4497788614765428, 0.12760353991206877, 0.053065391534609464, 0.21719757952047597, 0.39266484364270177, 0.5873050968290865, 0.2695778297525982, -0.46553931744857524, -0.18006938833294717, -0.467055988076372, -0.11639427945182983, 0.04866621217680886, 0.07712035944534376, 0.11236715103395241, -0.19715251424333738, 0.037869011585567026, -0.09195425261642876, -0.25933754810815773, 0.010898659480322417, 0.2689791429350613, 0.2287186415518882, 0.08853249474442738, 0.5252351591940019, -0.23575666878280532, 0.18003496393519733, 0.4073988319891161, 0.15799735183137487, 0.4766762039845772, 0.31167171912320973, 0.4711762221964631, 0.3356329802283703, 0.2958266262895506, -0.46568176073073914, 0.23654141617651253, -0.17364393044949392, 0.07889523133991268, -0.39806900686937996, 0.018633573273450395, 0.12287578871198711, -0.32542351803067177, -0.4007142653862271, 0.09248686422464458, 0.40262866697474486, -0.5349313481474458, -0.1511948966530289, 0.21680934126815982, 0.3173859440580794, 0.057589260891348644, 0.10936693377788785, 0.23833492575387227, 0.4143307161049257, 0.7064927877140973, 0.16362043784588637, -0.21708625155461908, 0.003502368890934004, 0.13569056006017893, 0.4043673154579815, 0.005615871440239904, 0.3154935268528985, 0.0828490806979739, -0.3403079978128186, -0.05666348598883948, 0.028100167347726825, 0.1458698070069631, 0.38621095400850536, 0.32192992549329663, 0.07128726028543078, -0.20737904896470358, 0.30981248401403466, -0.3346206708527838, 0.3203596804583944, -0.3639737436853396, -0.12493500263053837, 0.7724948210049295, -0.19354564550284759, 0.5474010933833278, -0.262703179968585, 0.17075026465587947, 0.03062840949121255, 0.644711972665008, 0.04778689710170616, 0.2904807277270228, -0.28225286025729024, 0.942756284683187, 0.3752105462446994, 0.0018017683980332787, 0.4485906119010444, -0.03450994807234593, 0.08192971014491895, -0.1474411791339432, 0.3438481119305861, -0.07020089164257196, 0.32475389256173753, -0.3281445462412734, -0.14048081011233518, -0.23491579385819086, -0.12700179621691896, 0.018785526542846476, 0.020972648389254847, -0.3268024050693579, -0.056182175384259285, 0.20308955116517594, 0.006122406062492754, -0.08922881718458946, 0.8129203610450321, -0.00014044592612606137, -0.047116411225697825, -0.16711811747686767, 0.42170853524453, 0.4279845776188519, 0.16033899124778847, 0.2443461776622676, 0.046770348787667816, -0.21297562619638016, 0.3573295988262368, 0.9946173411205991, -0.3594709913774639, 0.1494679297505365, 0.05350309964242017, 0.1805557453987419, 0.010472737933146396, 0.5288700469906571, -0.04312991904342591, 0.15576192183994028, 0.0322435659185199, -0.19608582074387157, 0.20602822602474846, -0.03612843253559004, -0.10644526315262039, 0.2403373376172209, -0.1923998729662088, 0.2579426958421509, 0.07667281094426953, 0.10717592731959227, -0.11516439271837497, 0.4137850939080905, 0.010400340009968909, 0.13479153116421622, 0.1562712021384012, 0.15956458938663803, -0.22667549453859248, 0.1189751649511684, 0.4046215063784743, 0.321373409268595, 0.4342427105108058, -0.149269350294574, 0.1442983115774789, 0.11300926982668606, -0.17690875792543032, -0.16250401645761656, -0.01775850015945802, -0.0060020856400529714, -0.051173374580928035, 0.09075066325767096, -0.20884524943404836, 0.08555112957767272, 0.09446664466354086, 0.579714511946162, 0.06803779303370361, 0.5334654429679555, 0.20071477292028717, -0.11072239688977692, 0.2528990081701628, 0.6137355744260533, 0.1894498304170594, 0.23376481726552645, 0.017954114417625223, 0.39021936417019787, 0.03989068032900833, -0.13439013420255302, 0.29896980475519086, 0.13788387436701827, 0.06495916220581462, 0.15744831916397847, -0.14203068687656165, 0.22655468211786448, -0.23776799643667093, -0.29025354257084396, 0.3269058379094895, -0.32405442726720385, -0.15909759726325795, -0.20545418181342662, 0.036230552366607424, 0.2135676736206673, 0.6846146296027672, 0.20903403552787375, 0.3878181010861811, -0.32922524748058585, 0.008037339801816984, 0.1182456799433699, -0.14380602373937634, 0.3572093873914125, 0.07580815135481192, 0.11163944849119889, 0.25423690469067384, 0.308340584114198, 0.20255399950811578, 0.04256431603777936, -0.03736476164528588, 0.5704182826953577, -0.732523286332223, 0.33036994020544236, 0.3416325420857772, -0.08489869452455907, -0.25589335223491827, -0.1558759909448974, 0.2156669251705228, -0.5182439745425119, 0.11469760366573416, 0.21835327062057017, 0.08912580003957679, 0.021479169204326142, -0.04604464034300516, 0.40241618272141494, -0.26889966194475834, 0.3344057665651295, 0.07024339760597141, -0.052795907873970954, -0.07489317668831848, -0.46928389765929823, 0.052989155119995135, 0.45584595822039675, 0.04296047238285538, -0.009213076268160935, -0.2048059694977195, 0.02785592696235547, -0.09255707409736433, -0.01692640189699824, 0.17989140533198714, 0.17900947090035113, 0.2909394064717654, -0.02614109109094651, -0.47142962520619497, 0.3196852307460181, -0.0642150415199336, 0.3477439203089943, -0.22291307117416148, 0.23145596234356436, 0.3077280270393461, 0.18235613028253878, -0.21386004358068061, -0.021993135124323368, 0.0054026024209240155, 0.1497400222993138, 0.2770857160976908, -0.24716013867341383, -0.13835755442440548, 0.6058483631888806, -0.018131575263508153, 0.4523017318370783, -0.3192984562451293, 0.7232671477800606, -0.5231049595086635, 0.021988199626894276, -0.19678694155537738, 0.0611559350865919, -0.16567951081092513, 0.4130282832356566, -0.03947929451135058, -0.17904102474668576, -0.4432091180154696, 0.30207322356029287, 0.2914156098982562, 0.43630383362889497, 0.24709773022917028, 0.31686855362424204, -0.6183087029544401, -0.17841807495121753, -0.6188627258069064, -0.09495599495351938, 0.12946065326755232, 0.23257635112154296, 0.11029990908513078, -0.47319333672558417, 0.29685816505367824, 0.08639385718835273, 0.32688804828217494, -0.4114588645545514, 0.006615292472051591, -0.00024723120760002435, 0.5245329727730732, -0.3165457681655194, -0.044110723736071986, -0.41315558089368765, -0.0754484497123354, 0.3395187723238635, -0.5504612186234752, 0.3380791002030266, -0.07235821302772773, -0.15733613384549938, -0.029747101718041003], [-0.34964127997416167, 0.00448114508796079, -0.04321138060524273, -0.1389403034260562, -0.6614634338772989, 0.01631789582196719, -0.011874534844834342, -0.1473276311960458, 0.09551752872852573, -0.1552278877556581, -0.5300867473657545, -0.10536832725239105, 0.39659437378286533, -0.21296723769158185, -0.16928791021162265, 0.16604697504652038, -0.06553374269163662, 0.14309409380680124, -0.3173115382404297, 0.2151494620706395, -0.014335149162064251, 0.0788070713186169, 0.2891171419444332, 0.1859582639279982, -0.13215747620216853, 0.2011670213096444, -0.13770605887231477, 0.06328040628507724, -0.06429061298551506, 0.6250483278606366, -0.058916258544431686, 0.14746457143338668, 0.25013076834466397, 0.390802708222012, 0.27173537503032863, 0.1587062641487965, 0.00833288280453229, -0.1552591748229788, -0.3889747438069718, 0.03437095336093021, 0.1642290384586939, -0.1885211081395314, 0.03460588578812337, -0.06111362108867904, -0.33004495617980617, 0.4543971966120699, 0.4247233106220988, 0.013194080767854515, 0.26928960318718875, 0.08699443291174348, 0.297833327615682, 0.07705115519905688, 0.34579468013180586, -0.6822956111638047, -0.03893379000356743, 0.07444098316808867, -0.11583964632391341, 0.2759409427918431, 0.2389334269404888, 0.15836436138104293, 0.05404090265519315, 0.20615642165422068, 0.39006490206678707, 0.09052905690131123, 0.24461748741591613, -0.1981495513973271, 0.2695552440574338, 0.5500270418956326, 0.1671537658778599, -0.06691571795317496, -0.05181315127344726, 0.08938338994728028, 0.39204133862010804, 0.1719462802332395, -0.383581986725581, -0.4319923905736875, -0.6501147257449963, -0.2282684793218508, 0.2854253164198506, -0.07451064783972194, 0.24710768327958316, -0.10857444114805907, 0.2741148612341647, -0.25296653663537133, 0.5311034857606716, -0.3937003840420778, -0.09351482421179644, 0.10705524219557194, 0.20236675550795122, -0.15517675041635767, 0.49273304799562895, 0.3167355013255447, -0.23842283506254175, -0.5227363457495245, 0.17944943512793768, 0.21744960029815763, 0.3110686747381846, 0.15103072304621984, -0.017812827594742873, 0.35017954868046025, 0.00046802305291098655, -0.02391171465195415, 0.1827827497169912, 0.14978535819146058, 0.15496135873334607, 0.1071226798530184, 0.5068573441858508, 0.2619305659590087, 0.0015175523677539557, -0.27757987768932113, -0.2551555550309277, -0.0711901313198137, 0.26210537656548527, -0.11791337693310078, 0.2757680694719614, 0.03905228480728428, 0.499935930476059, 0.02388428019629676, -0.21865568249145914, -0.18784902289965746, 0.09068083396078183, -0.0461790939860331, -0.21855571799501644, -0.20585923113733268, -0.4014358025166087, -0.0351240664296289, 0.19660261897418685, -0.16309305287208786, 0.3054071580000909, -0.10974639204444868, -0.3300065443462653, -0.5249334253485565, -0.2180938263971692, 0.19768546358093503, -0.03466551785392616, -0.048979438318088604, -0.0964124132647911, 0.25503640023571494, -0.05305754154436402, 0.16157048864719112, -0.11573116510669493, -0.1915853843251548, 0.20874271024799168, 0.16092087223067572, -0.3121613835753467, 0.06559794405158764, 0.38092693054702575, 0.09470854188845557, 0.1507993871801606, 0.27434853273654536, -0.20127021307882634, 0.3390538043210554, 0.17473707570474795, -0.05495700938471266, 0.5181291926033283, 0.1277995472602265, 0.3302213620044286, 0.10085137483116258, -0.04144584634692728, -0.094877046819755, 0.4063413034197901, -0.15814551176784059, -0.32829256198304063, 0.40247466227739176, -0.3005144253398398, 0.003735900008812932, 0.2093542164049054, 0.07737969879955063, 0.29085413265225846, 0.23538460575619566, -0.01093827062551165, 0.04644616829245356, 0.10583229529126342, 0.3280520237267198, -0.19504612524046305, -0.10042764704521416, 0.050990292989418005, 0.588976436200736, -0.28756814333964886, 0.035294639271176195, 0.42096493000606605, 0.834924631821991, 0.17790295669070527, 0.36518762014325934, 0.38345213962282204, 0.2787902103016106, 0.3783195226122306, 0.3174029715059377, 0.31169256736455275, 0.10121259326733167, -0.08323028818450347, 0.3855683706093416, 0.36463705351834036, -0.19927922089116115, 0.18219502701383272, 0.04585330081986896, -0.2770990488762336, 0.2585985975544557, -0.08079694985615002, -0.007733768962626984, -0.1103790677563044, -0.24782932869796315, 0.04619559223435408, -0.06522739458355212, 0.3992833604420254, -0.15432707397204995, 0.18625633121187002, 0.24241482298590372, 0.15516176785535868, -0.01054106991565115, 0.28149569540419767, 0.11598742796596091, 0.6580347320332224, 0.34469622207951234, 0.4608506163852049, 0.3021581175831741, -0.04921092229829579, 0.26471853369969545, -0.6304720814858832, 0.22340805942446945, -0.14302753989350114, -0.33407503242664843, 0.15944514119574069, 0.1499008186163762, -0.24117826127699415, -0.4862366938000041, 0.35234491331965573, 0.16869872780861866, -0.482725218439027, 0.08951685907464098, 0.027619955487095532, 0.1580622503659318, 0.008488711575110578, 0.15539382242103836, -0.15940972004550305, 0.169569932647627, -0.15088305925547038, 0.8299445760238887, 0.5950716764919776, 0.43190824179272297, 0.06978957594452653, 0.11398208090666445, 0.30367897032909413, 0.048646393091475844, 0.3486259742933633, 0.13481446253419224, -0.4322232355286359, 0.13960737180872468, -0.05989064676025722, -0.03633848602577689, -0.13504202675853827, -0.08574238909823541, 0.15998076753908838, -0.3949989206579975, -0.12934351100340422, -0.22339611184840885, 0.39967226831166075, 0.06952606036523025, 0.10662230826710921, -0.1284313440535899, 0.3131996605516481, 0.35782153182459847, -0.03761254923656373, 0.46960418045338137, -0.18170117008565412, 0.421068468653722, 0.6401159315379373, 0.47915921498165875, 0.48310897440139344, 0.05613241639209506, 0.20885680786316937, 0.003210266141270474, -0.12404606115986434, 0.22968315812995557, -0.2013405260127486, -0.20632851506099678, 0.2837513641189442, 0.11740208410074394, -0.13367581541859172, 0.16973450669910262, -0.2868723276055537, -0.07872457746949202, -0.008912558248365218, 0.16226841903434977, 0.2361159109931924, 0.47749967362697404, 0.26312593371284687, -0.023243846689448438, 0.07405945603300748, 0.07596750896540684, 0.057061547090363034, -0.11039023408908145, 0.13796652369048215, 0.5432460412401093, 0.5407235973929734, 0.2752850568552939, 0.4867916020506934, -0.09587306968500701, 0.4248388710530616, 0.33649071428816374, 0.30428527239758735, 0.11798403819679888, 0.2191406388183331, -0.24650223131000734, 0.4648270245252803, -0.07258131531906621, -0.3032953111021533, 0.3900642357153629, 0.16573157022090998, -0.023022642761333242, 0.1342323657612006, -0.2903690834651745, 0.029766725471999884, 0.4234167582253388, -0.03002596490049932, 0.11435933268990629, 0.09773745496492678, 0.20438793578747239, 0.3034478964645721, 0.04255642813252835, 0.11499737631816634, -0.05150432027609868, 0.5293081975678867, 0.28144014583073795, 0.3855801512474218, 0.24213487757747307, 0.22459830786876336, -0.12314120799362259, 0.2800308279543018, -0.33063822343268523, 0.12414361504274188, 0.23735903631451644, 0.0909748444868987, 0.0038500569643102212, 0.43228740380534275, -0.23997033094493506, 0.5096948049500687, 0.4206508744912328, 0.13345130475803224, -0.09947295129870261, -0.17559914823094236, -0.2932374526295734, -0.01001523411762519, -0.2020596777603254, 0.44940939358410664, 0.4659261874255227, 0.16480718334548367, 0.35184260721990873, 0.1800980999232705, 0.4018723721071101, 0.031018032647196516, -0.1641456188398272, 0.4709488461162806, 0.3705995178486347, -0.3815697598877925, 0.20692254529753212, -0.06354372651115892, -0.1248208021028438, 0.11321394370098731, 0.17134362402193973, 0.5683238204605824, -0.14524194821316652, 0.2414163215768313, 0.1758037799491414, -0.36319172278673295, -0.3404180727570352, 0.10848697688168488, -0.12571028879248997, 0.3763115939077118, -0.10469164035139793, 0.6642096628403068, -0.3034245412142613, 0.004828088986184257, -0.41856077232214706, 0.37849841084668406, 0.5127846332691396, -0.19071165005259266, 0.30558322724639986, 0.39195836636124665, 0.304325217475288, 0.2518529298130258, 0.5536529614710434, -0.05421955585131744, -0.1328654531813642, -0.3846507530217882, -0.006938523211780341, 0.5593222998407883, 0.23205413931297852, -0.06425632301701921, 0.2603294467623225, -0.21793591070046783, -0.06360457801556699, -0.5996978840359579, 0.6959973106033849, 0.07559487039593145, -0.5719462557276866, 0.13356720078484882, 0.0008193819173214867, -0.03480444277594974, 0.4584651598159781, 0.07197048914802374, 1.2248359470511399, -0.10629531234199667, -0.19321911483027682, 0.02987772321710374, 0.27388642362767146, 0.4444113944781523, 0.5097941385483225, 0.3784395828603747, -0.052269255055315246, 0.47961623641242174, -0.06813110412415332, -0.21667457788523345, 0.5691286422594699, 0.06344918072427409, 0.1392292826644399, 0.2506480092645473, -0.042749916621463616, -0.16798545611122065, -0.7365792201828344, -0.3021124634382746, 0.27426415613174165, -0.1238849256627848, 0.6640619856004503, -0.0046529853491589866, 0.03011228025547621, -0.03499062792948517, 0.3393411582999965, 0.30874630558173694, -0.07798047641251514, 0.54392538961807, 0.4395606262436416, 0.3601233433154472, 0.2633338754344902, 0.26139421061397133, 0.020329875244327094, -0.24449082107487108, 0.24841381709977112, -0.02824943612828184, 0.5690766537436796, 0.0718255474688445, 0.34932083073420606, -0.2952428701007062, 0.5217747050887986, -0.2795490320145299, 0.013395909366293531, 0.2835906728014615, 0.08486254350925686, -0.07976551909856841, 0.05670068531378423, 0.31211083508783005, 0.13354479326865415, -0.15870957257261284, 0.2045781084541043, -0.1825414456714001, 0.3751206468835355, 0.08233929008727725, -0.050858485346199904, 0.4889436307960685, -0.05261111429239409, 0.39013088096874854, 0.47172501190433075, 0.33161794920287185, -0.08021699665224254, 0.5662247782075246, 0.1920811524862398, 0.24507310440417926, 0.030762781140407577, 0.010202000021865883, 0.2048941984583566, 0.06214400707637217, -0.05985085559429897, 0.06693440245521856, -0.21300507717111025, -0.09674504730597076, 0.08066372090196794, -0.28366711813355616, 0.18289932059951852, 0.3263300495361661, -0.036923023726991834, 0.0102396825684411, 0.37544745118439554, 0.23453910193826996, 0.0070843230118451525, 0.25687714990642785, 0.3623448231737334, -0.07952159296495244, 0.8568311048140608, 0.5413079671304891, 0.05859334263032247, 0.38560695290764674, 0.3196443865403396, 0.1919066389921631, 0.07716223271402116, 0.6608634935792702, -0.2830683753803293, -0.2219316146239061, -0.3290663886921137, 0.3754449189841264, 0.4438506699200934, -0.25292238104245457, 0.05678774711474796, -0.2179914141074556, -0.3602830365539663, 0.04458994783367417, 0.30479248124100916, 0.0888562931276446, 0.2116685996151946, 0.1310969589032392, -0.019500582826508604, 0.02240080484582256, -0.05254759970916962, -0.07282977556690541, -0.23130771273007514, 0.3121001929083416, 0.10824208516045081, 0.255971222120775, -0.0729167787912809, 0.3731589662869315, 0.5431985166604905, -0.19063990351588772, 0.35425688374208086, 0.00792523704710511, 0.620122256909691, -0.32498533214727643, 0.5398346348485182, -0.057512297659796895, -0.0005182922411749288, 0.02906224361627403, 0.8379406471401979, 0.05742437521490328, 0.14724698236445194, 0.05009087014839356, -0.08389654287973623, -0.11494894217966616, 0.005502552424200326, 0.36024336680265695, 0.08890202479194668, -0.35426115605863184, 0.06826369581894975, -0.3203657755033792, -0.17163666088168913, 0.2609207302966323, -0.2610771975891645, 0.49086709852239296, 0.2780824391230812, 0.17841320416878353, 0.3847606596393069, 0.024522188874931433, 0.09174216712156992, 0.10998796189687551, 0.23729638049321347, 0.13637150578081067, 0.31045593682484224, 0.016372497461454128, 0.36105716661739967, 0.07785989832797652, 0.28908163009846055, 0.14766687286204166, -0.03692120714620915, 0.013703657935739336, 0.0780635901209855, 0.0644307497412103, 0.04970083010354285, 0.25319144731147, 0.04553618699692238, 0.20146345424240608, -0.19845306286292663, 0.24288973655456478, -0.04671971374558596, 0.20540920496467147, 0.48862095220695345, 0.12909335726455612, -0.15465692363041, 0.2904492243900477, 0.4676954239048557, 0.41960140583316413, 0.17127985429896775, 0.3769221361704416, 0.49333969169666253, -0.6944086070845625, 0.4578622348472423, 0.2979694372712348, 0.14700201622388612, 0.06743756471384915, -0.2728692816105196, -0.1440644140581526, 0.44015105573840974, -0.14316203219917695, -0.020338335239270134, -0.09857737564484095, 0.16280697648793668, 0.24994349721724035, -0.10826885830076531, 0.22110833702862023, -0.12477296998116155, -0.0941756753917152, 0.5787167267070775, 0.03646630734270595, 0.40295984263494955, -0.05530939512904761, 0.32609304591640165, 0.024397021209934616, 0.06335135544100169, 0.5838046296646903, -0.1808583287163114, -0.18347371074755792, 0.46722478029138803, -0.20153338670816442, -0.3454181216054381, -0.013939409552744711, 0.3577659864651955, -0.02804715519489465, 0.3610727570891304, 0.16274353963979882, 0.12472823806826568, -0.0683048197692755, 0.14950500913986758, 0.48312523600745716, 0.24891329723037586, -0.44795957611852993, -0.008189119349376139, -0.6393826719018996, -0.39041417718843296, 0.14614612712486003, -0.01924500015403004, 0.51628058789252, 0.4187131572625406, 0.39621816614011807, 0.33613627950788644, 0.5999464931846319, 0.051898214612237904, -0.27868245044745454, 0.506166646446917, 0.12097904125314317, 0.05788504698220202, 0.23164859102364416, 0.18274829569199308, -0.00965457448900332, 0.07943513321587661, -0.08826008021511478, -0.09951207711024998, -0.006925658969483177, 0.11604549326192207, -0.02838436719557254, -0.493958702598571, 0.06829048111057603, -0.008853645108811177, 0.11112860502061471, 0.30586790862603974, -0.21759177128661905, 0.06470615246156498, 0.13381559146536837, -0.11759427900135712, 0.44146992601006163, 0.18001130838166632, 0.14963443585127553, -0.019069199231776312, 0.014562908669334471, -0.12560679960705684, 0.45649073244623434, 0.31906209702815985, 0.9052946461354611, -0.022319265198232636, -0.026468623313793294, -0.17567193134322742, 0.1643573006956203, 0.43208401441384037, 0.21205083995946855, -0.4164449440025496, 0.2521645950831717, 0.09437116473306262, 0.17548795680420678, -0.2170783931363885, -0.17915219246373565, 0.14708623542900923, 0.16240822498421395, 0.5128955336632517, -0.0016916869827589666, 0.06068149069079994, -0.15859821651843609, -0.12294397650637105, 0.4916573315107566, -0.17152311165819267, -0.37763523553791206, 0.07333813650569719, 0.45832651439919886, -0.23452957022572302, 0.05187139540386906, 0.22529768305922618, 0.42734354317268547, 0.22005452975729206, -0.13782752206709695, -0.5705458780209564, -0.07593242118071841, 0.14844024208978493, -0.12556915068442817, -0.4085155262296493, -0.31896855703184285, 0.17238084554886365, 0.34066960896363224, 0.15533819032444363, -0.12640993030303352, -0.21060917485300348, -0.18076066671688712, -0.34119665767489016, -0.27009095642234887, 0.013173776971514015, 0.20522815616701817, -0.10466197190384195, -0.2513956371642433, -0.013915327470343793, 0.3625345943864507, 0.28613727940102873, 0.19871542378934676, 0.3194813570859741, -0.12581386766348163, 0.09902104804965962, -0.08125421214469303, 0.3266823602876973, 0.43633202820933475, 0.14517490441359818, -0.23286981759712708, 0.07369188767644394, 0.04400825224398307, -0.21228451874549414, -0.09974284113656756, -0.06516097384741083, -0.14572756426835587, -0.17613043069002784, 0.13510175543988026, 0.29817241659686244, 0.15624878466095649, -0.02482261166749157, 0.13982307705965105, -0.47302649424225407, 0.049115332955791374, -0.14397657109295275, 0.21375133058087195, 0.14042572903585726, -0.1517524774339438, -0.026923747848092733, 0.4136242575879616, 0.013907895943775781, 0.4461608908519794, 0.1948996346609739, -0.2102291954452271, 0.439399337379276, 0.17198879676226633, 0.0018854523942287186, 0.2272073610938652, -0.22615679310318468, -0.31675054221175103, -0.09066306590236756, -0.3234240400857546, -0.2058318762072142, -0.30353430150449784, 0.14011120753916143, 0.11014360729327018, -0.15315717850086136, -0.046425809876003386, 0.5560950154913026, 0.16261468995408423, 0.18232316597643256, -0.38549323825502124, 0.4399506246742513, -0.4835564436112074, 0.052993088551612166, 0.15405484661349894, -0.3419628087326195, -0.02147523502537553, 0.17684192110467464, 0.41678758025611934, 0.7596761820626338, 0.023001483842092475, 0.41710945094430546, 0.532983921482023, 0.1317376970758476, -0.42247216331541976, 0.026457619402741772, -0.42214699914472803, 0.31940708488919517, -0.22215166926554789, 0.41456295483268374], [0.09985940751350494, 0.05294488064767342, 0.0838615668898047, -0.3735579584606451, 0.18017553364326355, 0.28025982739103816, -0.20374906895776723, -0.22432123198463833, -0.31699883699771747, -0.3547685569309408, 0.3559689175200096, 0.2817982843757624, -0.25362633622776487, 0.48899854641727514, -0.3404351213955482, 0.027233560118423483, 0.22373917294730034, 0.1701744432791577, -0.18003050341018412, -0.04912583443966207, -0.030208219487778597, -0.07075916306916755, -0.13532832852254084, -0.1263402963983976, 0.2198781401855729, -0.13726534588688444, 