{"name": "hl_2_bias", "layers": [{"type": "input", "nodes": 784, "weights": [[1.8031593540005681, -0.5987139147684606, 1.0161060768001933, 0.7778275267495578, -0.6085498100369378, 0.6554685762165959, -0.6651561487609681, -0.24403500653975516, -0.41841102237298206, -0.9540894737966863, 0.7469136364984115, 0.3292383659006019, -1.121346888181286, 1.6873919573110443, -0.3022862445182282, -0.5222391119739793, 0.5958186304359918, 0.22350427599471498, -0.19288623272282376, 1.1799390030505978, 0.49100607720158423, -0.6957381107155143, -0.5668372663358352, -0.218483283176254, 0.7020757259159418, 0.627608373456134, 0.5695542727247644, 1.2201926726203103, 0.566090082087249, 0.2945831974368655, -1.4087140344023725, 0.0029798392762642747, 0.13981128836200843, 2.1309179688636486, -0.6148397490082462, -0.6465479055723115, -0.8491011191483969, -0.09978035251219533, 0.842974849532548, 0.7806664257892909, -0.6718798931011812, -0.07141073940759192, -0.6481809973326476, -0.590090728444869, 0.18819802068575905, 0.839133094875375, -0.40942435125227467, -0.01623761931857616, 0.13596756353111672, 0.44656613958040964, 0.3698303207468509, 0.057766704073838646, 0.6673766062728974, 0.40061816948276324, 1.0420570383970695, -0.32252815450724787, -0.8460612363011171, -0.2725602310158493, -0.4590807180982381, -0.367849691786738, 0.7901452137839051, 1.2025212153534157, 0.8528157916653077, 0.211183346154671, -0.09386076341197697, -0.32503194887225634, -0.7729423574364853, 0.5464398913846049, -1.2991837822874144, -0.39356821886893933, -0.11551476375124538, -0.536468086255329, 0.2733039461428432, -0.657483284294934, 0.28806672393474536, 0.23098161101780443, -0.1127783541405575, 0.22685119951434202, -0.024668383492894606, -0.8728366911947603, -0.010232334074139007, 0.14830918835357373, 0.20680699729623117, -1.5012708425907462, -0.5774955061895461, 1.5203522077457825, 0.7759559174512314, -0.20929112322633897, -0.044599826165300546, 0.2825957631940586, 0.047397720485642045, -0.9975859156195962, -0.35645890672445885, -0.08709732241683216, 0.5228173649441291, -0.6196296941039465, -0.0858947603069535, 0.05745432190831148, -0.4775598998367317, -0.03983376808937366, 0.14451655428654164, -0.3629758613633748, -0.12040762612318735, -0.03493921241900176, 0.029049844828297536, 0.15317471747352648, -0.3775355706665411, -0.6444132720980177, 0.5138115329363178, -0.34458802647452286, 0.9734750610005263, 0.016859521702873605, 0.907544079748281, -0.3222523999731011, -1.6738867993800175, 0.8586905912363919, 1.1459330708836082, -1.6162045785725994, -0.22635192171233798, 0.22723162530997124, 0.33661971800948615, 0.21566595937654925, 0.1304101271729263, -0.31273061701885957, 0.16105143424173113, -0.5361998725062759, -0.23893225634928722, -0.7220429980855697, -0.7376401538500386, -0.15434667481376976, -0.6798012040817112, -0.0779426771910974, -0.1963731118437783, -0.6339567182891789, 0.4437206351503773, 0.4983852803947839, -0.9691593064068555, 0.07395955764469632, 0.09134483285631495, 0.542532327836702, 0.05146772874437798, -0.015449712615387162, 0.6719643461163803, -0.7679926530795891, 0.7912362150782175, -0.7522857246470163, -0.4541084941641282, -0.4319766540327981, -0.13608452198810003, -0.9318529729024208, -0.7093696629602689, -1.2033687970150206, -0.6854276014671324, -1.0125331396827544, -0.732519264951439, -0.9861876029377552, -0.6884521533551935, -0.019676430402002027, 0.066684274309528, 0.10981218523061297, -0.4467337438944108, 0.1995177548817981, 0.13164956904982322, -0.42556572797226494, 0.07973609838035464, -0.8592000468757638, 0.21420293509509822, 0.01779239580955437, 0.3389537891447901, -0.7952851958559458, -0.02265327355806769, 0.5624341833344152, -0.6823288730130388, -0.09934749939505916, 0.4921053802448024, -0.17656809424193776, 0.01650031818023896, -0.6483138583184651, -0.7858121794045927, -0.6110669341189553, -0.20072861918084645, -0.7448953244130678, -0.27410584175780306, -0.36414455892007014, -1.045536630281952, 0.25743838305245953, -0.2499119003861618, -0.35045731502484023, -0.15879197417440866, -0.2349594011055992, 0.1932112337777171, -0.14252608352470214, 0.36422308245952995, 0.06230857451964701, 0.21580043419542289, 0.9915510161931459, 0.3733728107841849, -0.3696188114545342, -0.18854244107232543, -0.4319961474810475, -0.174971789589542, -0.5213819879709164, 0.00018136494406772484, -0.9766364163354102, -0.7463691107125501, -0.5287887005922739, -0.1777296638683832, -0.2730958177319322, 0.4705376050192376, -0.9884298573125333, 0.21661750154674217, -0.26753567208597057, -0.7691417814744725, 0.3129743419346853, 0.6400614119891616, 0.15946122539713295, 0.2459476331498203, 0.10580175627645515, 0.1926047813729132, 0.36774720023944196, -0.27594061492550065, 0.17744731398671973, -0.31050943679172877, 1.144484507506375, -0.5081263034664724, -0.4426333092525498, 0.0870514060587074, -0.5230518779539096, -0.19899061211012006, 0.23337949754591727, -0.6536852142398981, -0.557394496947427, 0.057965885042396866, 0.035878539301241255, -0.6004311127907856, -0.11506290778418643, 0.5280738101233455, 0.09419140372643527, -0.22711631647531966, 0.7493212539636084, 0.8114541826353688, -0.23654843034180573, -0.06783247942869611, 0.16205440382994668, -0.4194248186263888, 0.18805938685552867, -0.19923695829622512, 0.16351162365167973, -0.36394035622054427, 0.21130020392093476, -0.5233663992258804, 0.08263306013836444, 1.1842493404988303, -0.2678520576124798, 0.1758691973187174, 0.025153980966004484, -0.8027596685476147, -0.3504326942869416, -0.48546407395532176, 0.11038650205425844, 0.2015031567822824, 0.3780610616909613, 0.3676745184581688, -0.3732380750131078, 0.6919081746891198, 0.019182729235066667, -0.05040077138924297, -0.48128585530285556, -0.009853787836885713, 0.23066529493099858, 0.5993774650212504, 0.5576650039341411, 0.053112187444059406, -0.5447472185814988, -0.5128395773780583, -0.4351810709260017, 0.038260408062720436, 0.4983609798125175, -1.0102473141665251, -0.172375317578826, -0.8108096371073548, 0.6669879358069282, -0.20918319098033172, -0.5585798349781486, -0.1867816922601259, -0.6623224948563432, -0.3721855481975283, -0.622951214394256, -0.30777019281020107, 0.04345058973033324, 0.40623176051571946, -0.07003892141613398, -0.08557025579633357, -0.22981759035745244, -0.1132941982978554, 0.3321790113038152, -0.9477271210826488, 0.36419968786988133, 0.6001962377039436, -0.37556215549059146, 0.4641351901556723, -0.46412729510067274, -0.25606014512461434, -0.05330901019320213, -0.7481746591836544, 0.14969663809737874, 0.15178021784620932, -1.428239208693159, -0.5261728008676338, 0.029962594934009983, -0.8692782959549455, 0.12021893757875515, -0.4937459683296726, -0.22400186751679593, -0.30987439737942174, -0.17674149853080168, -0.21041786374684376, -0.06655914740767195, -0.6744861843887789, -0.2996563976922323, 0.14684142476335424, -0.19098914229758884, 0.6265907192022324, 0.17042101388178135, 0.04175879467318776, -0.2789664738210757, 0.356664429456099, -0.969942943896431, -0.3318349865602104, -0.37604355544985407, -0.617777590310502, -0.6177178132705408, -0.029116799723574692, 0.2067084122918019, -0.11567049043243116, -1.2123159118431623, 0.3527416880935185, -1.042192589321836, 0.8373894707545272, -0.34582238928062886, 0.12078132659940283, 0.1913269275139898, 0.006395266559914865, -0.006082490398840543, -0.3007479861527807, -0.7433262241728911, -0.03943932533984909, -0.09641434691351368, -0.004219359087820592, -0.059899329668970804, -0.18830948963844468, 0.0860610548117406, -0.3115405461835186, -0.14033487902628503, -0.13923099545580286, 0.44402096409563024, -0.14485616330542797, -0.38216799609476737, -0.7718956984593645, -0.23856476161271858, 0.24650558856576996, -0.6817767535594524, -1.0640537612277208, -1.3282768586022244, -0.06124181951810156, 0.06919077673444055, -1.746540825597416, -0.4640600816481741, -0.8688361942693433, 0.031106513422924396, -1.08201390582364, 0.3501223035804212, -0.07442853632616984, 0.29370691175378855, -0.2937885216357455, 0.05814319741652739, -0.5004650603615032, 0.11307936932694126, 0.2669283673953195, -0.4528812707361339, 0.638912377827988, -0.5366019773354244, 0.1405157801705943, -0.3981914702521554, -0.370558397814654, -1.032585577062978, -1.7166689620457751, -0.23227784702639415, 0.6906391125610711, -1.5388167224192053, 0.33959049189313945, 1.0304151399449741, -0.7510441612837326, 0.6963716302785445, -0.08719754805422343, -0.37709883128845473, -0.5521378190979168, -0.07482614953688635, -0.1692929830251144, -0.8363239673939789, -1.0079592410091034, -0.404732382944411, -0.11752966453097258, -0.06939124848223235, 0.20955154090132522, 0.4053516843824131, -0.06168998633167464, 1.0241977428514677, 0.601281102882268, -0.6137360127156317, 0.0055259726903884275, -0.48988701345685487, -0.9554822380690949, -1.329305492609234, -1.1672646493581966, -1.2911682867319343, 0.6401972872988514, -0.4516154012258458, -0.5428944491667305, -0.709890689588299, -0.9860176016018156, 0.06277587469831582, -0.842092527606024, -0.4215147266702724, -0.5786625017553435, -0.8738275763196259, 0.3723095464323144, -0.5892119830328082, 0.0021608870244828673, 0.027607326352858497, -0.6626973454670393, -0.627444269022738, 0.4881484577617919, -0.14599326998210457, -0.7331973043391061, 0.9737169304490283, 0.07089517444756918, 0.29980505539658353, 0.048988426283667966, -0.175495813109927, -1.0767120403698227, -0.896796389509979, -0.8540262331953363, -1.349202939197459, -0.3672159687159129, 0.06038996808167159, 0.5714162989897281, 0.23550253521855982, 0.6475471785573157, -0.0012493101317129565, 0.1303956850030409, 1.0296136958183593, -0.5586319881746247, -0.7869121260320724, -1.049845315732085, -0.7942299504513624, -0.27702114201542694, -0.6343213946677924, -0.31767096377711707, 0.040698835466346624, -0.4423340615594006, -0.12926628166454548, 0.2042861604724164, 0.5701504630406546, -0.6496361319109861, -0.006779842593096643, -0.3627504870748987, -0.8049698407756989, -1.0852192955517321, -2.5951719762780643, -1.697706401976509, -0.012144722108186193, 0.07694407714628813, -0.4135163609012635, -0.16653866658286018, 0.7050134811251998, 1.0893126556094452, -0.5507899919982459, -0.16964195130765874, -0.5949521223695419, 0.26926285726294796, -0.8604252850846766, -1.4293410061615872, -0.8986922480932548, -1.0185028185533698, -0.5390890679766838, -1.0920944532654417, -0.11451931818339171, 0.6126715506135865, 0.06853289578335697, 0.15329194166852955, 0.30003511883952527, 0.023890664067474154, -0.8093534348056927, -1.3644199689051488, -0.8362998945523954, -2.0471079399478613, -2.3574527217836305, -1.0544079653939136, -0.8702053515359552, -0.7130985967964373, -0.560161528914575, -0.5708984595594885, -0.1221720577770144, 0.47186343396735503, -0.7341534745176926, -0.28207817412995645, 0.0019133860084740858, -1.2998222660431193, -0.9726763648971414, -0.585663143217306, -0.6223439227488745, -0.7587789268581351, 0.5678154235504911, 0.3120903964195995, 0.013294183437203927, 0.40396488630319966, 0.4416542550147035, 0.4935035383218627, 0.3384729559978681, 0.44883265796418237, -0.28103592300854946, -0.7618689335721095, -1.3209735267310438, -1.9993665304829795, -2.7914779393212403, -1.1365599250512817, 0.10964407644161955, -0.0710375112691771, 0.07976184521938781, 0.13560911010552437, -0.4510847204089206, 0.30232981968929656, -0.8827024324875538, -0.32099589702093634, 0.0185463304750271, -0.3748847522502794, 0.11473917134596677, -0.36917788738180557, -1.265908607365787, -0.43293058789214617, -0.3407041746916851, -0.30927194898043336, 0.0909827268531977, 0.12866959995984098, 0.46806780729286795, -0.2414087041444892, 0.5392742028783694, 0.18095132810246625, -0.11470206180107011, -1.149175200749289, -0.974054045434619, -1.226019310805364, -0.9575633764916406, -0.6283983492553697, -0.10533248876833506, -0.13381513527673727, -0.9534423347030054, -0.6286283321098135, -0.3117828503349725, -0.12282460613039364, -0.18335437926839462, 0.5821023570872147, -0.5684576865768587, -0.20060511184399396, -1.3468252406959862, -0.5811843934430238, -0.843586599307863, -0.7051828672314354, -0.6342108554605248, -0.9202440037510203, -0.7221095079991692, -0.11673763854642255, 0.6846827315793416, 1.0571468649457048, 0.1078708038950196, -0.1375675795464567, -0.5186084155817317, -0.4676441992003849, -0.8173762886754683, -2.0939302692779145, -1.0375373251488775, -1.0157861116200477, -0.03836315010128023, -0.09546388976048345, 0.5266110321617892, -0.20297969681874123, 0.627521981331092, 0.8563855790824424, -0.17393192241033192, -0.1033921494284557, 0.04791426594872815, -0.8978901381681588, -0.16638334763618887, -1.064111741024807, -0.3624265612906186, -0.20774817643450985, -0.824518250701869, 0.12208435584068547, -0.021413744540072048, 0.06265794422721191, -0.062267676750994816, 0.42916562491778426, 0.5632743027718019, -0.9654244880598082, -0.8088619957271161, -0.13337371864741546, -0.12058287157878639, -1.632122806960325, -0.7295955365383495, -1.224772269757247, -0.17912138258450047, -0.14440360821310713, -0.009411448749464018, -0.0050436647098777414, 0.4835100311552823, -0.37317380076271595, 0.478721626664736, -0.5023617439717626, -1.0817887219112057, -0.8114936773385478, -0.88212651178073, 0.5071036339022839, -0.5512992930937702, -0.49060160096126987, 0.47177114512947355, -0.26372817742624693, -0.1810449136771021, 0.011370563435843901, -0.35810829027738394, 0.06137405758081549, 0.31776916037559416, -0.3372142554145949, -0.3280400260426274, 0.14506035683844518, -0.3646770830968631, -0.7569011935815738, -1.091577341965704, -0.2568805313939238, -0.09540655446879248, -0.3088433689403854, 0.9547639204709258, 0.2782051875663219, -0.5064812503594434, 0.4725166270887085, 0.9231656679130631, -0.48352726249128025, -0.285345288301774, -0.377877611542569, -0.2761422371683997, 0.06934451921674237, -0.040121980101127885, 0.18985145609525098, -0.21178805798175374, -0.5457653363528541, -0.2661651152047406, 0.021011718095512326, -0.36550744801976603, 0.20647309244509346, -0.3348861389090039, 0.1560310024261621, -0.3458766559236833, -0.797040249476331, -0.10970038444105233, -0.18288273671387026, -0.0015464750383705386, -0.6641983277652656, -0.22947551592255655, -1.0930699243912563, -0.6670784718678858, 0.34470516204672713, 1.189185455035149, 1.5565441713749186, 0.15026471796886284, -0.06060723200255297, -0.7632586230411844, 0.0766811734426281, -0.19161842473892862, 0.36305229362072755, -0.0982277527009119, 0.9055587199474596, 0.5221772117635746, 0.40203567167645143, 0.08319517519075352, 0.5680923740053223, -0.3749499492401041, 0.10141060974491058, -0.3768942064850156, -0.5569636529299377, -0.04290881564539922, -0.03796859422497768, -0.4215191419777545, -0.10887549410109755, -0.048933804109615356, -0.5484762236798663, -0.5398601512532372, 0.25208209666301346, 0.21289566794566858, -0.5256114016470734, 1.0277911939929625, -0.09520259097643438, 0.41809811086363086, -1.997102428042584, 0.646985544489163, -0.2529023181469121, -0.26004957669620116, -0.11796357309243696, 0.1699725927727674, 0.5202044249070051, 0.8333866166292107, 1.0364747934628584, 0.6815276728484267, 0.4312904205639169, 0.47301469536507923, 0.35523356744260093, 0.432537977077206, 0.21473317862161312, 0.07468646990104294, 0.298312309904662, -0.3197541933579791, -0.5607030729298593, 0.25346136931605595, -0.8077467601973788, 0.11476818192394989, -0.05784317333462112, -0.5349093324342892, -0.8306624653637873, 1.6207655722337406, -0.06605883171372248, -0.839896012078476, 0.4239282649588291, 0.531408628936267, 0.5911875440667971, 0.0799649163946626, -0.017676717697588686, 0.7111076987262223, -0.18545957933176874, 0.8701461635395006, 0.33296961240158685, 0.10671083701716445, 0.22240952336789577, 0.6845136184702983, 0.6743954197855815, 0.6485079569038694, 0.6840181140807426, -0.5393052611027571, 0.04759557902193111, 0.12030897559912052, -0.2337384426136124, 0.04205513786776793, -0.682033979611858, 0.528533833585035, -0.8385095092336057, 1.237471702785094, 1.1145547212217537, -0.8558152795891714, 2.3990616237606948, 0.5859459230976207, 0.6776720392604674, -0.46915581593580197, 2.219384646386881, 0.17840936973846885, -0.6603701975051974, -0.5116158518986165, 0.14546896541539708, -0.59543328516364, 0.2541421968896152, -0.2798592766946723, -0.5787273430412296, -0.63788229972823, -0.4671383481956621, -0.16542763838156735, -0.26380217466045935, -0.19348548659175366, -0.5658536340409624, -0.6905647106560174, -0.8752956461908141, 0.6756293336667607, 0.10498803801119364, -1.5814372474864926, 0.871530548015216, 1.223261662779888, 0.19934385224734033, -0.00922037275141509], [1.2545843178270473, -0.3655572108118707, 0.851873069518634, 0.6304864341223408, -0.017790840981058757, -0.10158636964221177, 0.2151047230819325, -0.37787970140533894, 0.6599220648803953, 0.3933214894263908, 2.3574334491290223, 0.015525141000068193, -0.13135129947736232, 0.726226180089631, 0.6590073027002834, 0.4108276444503749, -0.08760840586731192, -0.28760369875539116, -0.9068348084140271, -0.6141753016830972, -0.9463356035635017, 1.1613607148598244, 0.8182258103838546, 0.1330299897959733, -0.38428395582662234, 0.8404100083612697, -0.07070790654839923, -0.13998643203968214, 0.5957262703648342, 0.14096669944233664, 0.46498644888889445, -0.5808304385565064, 1.279065743082161, -0.37075354741614314, 0.3416832123662222, -0.7609366169531858, -0.10543984702622118, -0.29677440390509346, -0.855154923024826, 0.55533432198203, 0.9555659517284814, -0.8763779339810567, 1.0399825332263435, -1.7208356844719273, -0.8020672789606593, 0.37814949614446214, -0.8218046927273301, -0.11711521277855445, -0.06067949754454326, 0.886429217787766, -0.47927675188456687, 0.913462192623202, 0.7235595161453074, -0.4361138099277807, 0.3689139069835954, 0.2754011177592086, 0.7488946473390584, -0.11187214509502993, 0.4275038018607752, 1.3210857180687323, 1.1722383323091152, -0.3262407100940792, -1.2744167947945215, -0.7259543140632498, -0.16278916649250824, 1.5528652440699104, 0.7930690117664779, 0.7821199358393703, 0.5517844388389094, -0.6301069336261521, -0.9222746117000834, 0.1702489752129262, 0.038398627890900344, 1.1592107099666542, 0.4906199962963677, 1.2229179155203596, -0.6658483899655182, 0.6058969072461898, 0.32794956913304796, -0.1266606079205066, 0.36539591863880855, 1.7313803740198732, -0.3895316392303931, -0.6418187216647028, -0.09461048242876591, -0.31948748970211827, 0.05662227032158438, 0.07928670744667822, -0.26496168037493145, -0.495808936793149, -0.40459244114654985, 0.16440749693655748, -0.15735722446525466, 0.7712448589189772, 0.9777472833158135, -1.6590403945775238, -0.6711840074889861, 0.7430952457378115, 0.8725462272467149, 1.4162589154750365, -0.5705941050919671, 0.7122073239380042, 0.4032053082892932, 1.4774553057858142, 0.10801560066555277, 0.4915267891259791, -0.2016376886625614, -0.3042629082195862, 0.8239460692453339, 0.4151187118056113, 0.6160585546982434, 0.7556166077229182, -0.7924840421428941, 0.26717530697748926, 1.2046986796633161, -0.6608796870141534, -0.45526115979319126, 1.2783843908466799, -0.09795923017112473, 1.5605418733534178, 0.36393713374563974, 0.5528009112160807, 1.4303503221564973, -0.9770716158578627, -0.057820715518566816, -1.1837614382507595, -0.5688386941907858, 0.08564246443144283, 1.0535078762915682, 0.08168716928914373, 0.42648584558621333, -0.44206686049643396, -0.7056873699102219, -0.3922531231655865, 0.6595732966344923, -0.09874426957444404, 0.59476633276223, -0.14381073631160973, 1.1429152856695362, 0.4007623095020188, 1.966306149399508, 0.5754168419100276, -1.073111508308638, -0.2546152257679986, -0.4665908359812772, -0.4898213169205875, -0.8952228811155555, -0.47081289569205126, -0.5847801289441844, 1.0471267441315537, -0.5685725792948869, 0.04612845020792403, 1.3521576812712979, 0.6884642591111556, 1.3288907932243992, -0.7393317911651045, -1.2064156805262252, -0.5905370777470178, 1.2371576703293403, -0.8569792823547991, 0.2684349589786297, 0.5601629632535742, -0.23962918055566082, -0.7826538728625134, 0.3148696569669494, 0.8940539442505853, 1.091031063012903, 1.0000908201363325, -0.27972443231697075, 0.6040638103437911, -0.06221152994000781, 0.3745124733399016, 0.5451807564891706, 0.4904176422663929, 0.10159802940313925, 0.9063927263492816, 0.04909054057668943, 1.0467514977564076, 0.931724560957779, -0.30656399453700833, 0.16033953683557636, -0.47611822448800956, 0.11199833942601063, -0.42716957122143545, 1.4396580812101576, 1.3903290098241674, 1.4061870040491669, -0.16218784741009545, 0.4865146858588737, 1.3658844380485529, 0.07575737802027244, -0.2543798681080585, -1.1726512705248258, 0.13547562296330598, 0.7338025973020452, -0.37582643950119465, 0.9914293147995559, 0.7397832340673975, -0.5425394100446639, 0.9695419038024252, -0.8628742199650211, 0.41145935820091234, 0.7281770118386239, -0.3745647307858512, 0.13015954258686677, -0.46442034005079935, -0.22625840404263883, 0.059910797898424815, 0.4996753296292222, -0.18929428827161116, 0.5515867320875041, 0.4909363343704197, -1.067670287546353, -0.45605677200933675, 0.24763986923229012, -0.290771917923358, 0.7091487661223496, -0.18004848509431795, 0.38569406019554536, -0.7799969761178303, -0.7871200315788431, -0.5209541697997797, -0.05724621523246851, -0.5562653438610168, -1.3931950429239681, 0.3227690408020485, 0.3153102675217523, 0.030030258124484916, -0.03220465959768412, -0.8741912455145361, 0.6140978350916182, -0.1407523281833399, -1.0943781237940586, 0.5338551796021113, -0.3234314141662787, 0.5893227509743468, 0.19826327623306939, 0.7462185510983392, 0.2810839003621235, 0.46588730330563927, 0.7282598414200685, 0.7205539132327564, -0.01891743345456273, 1.2300762141172987, -0.5058249870163375, -0.008266966137144933, -0.44525310729242484, -0.6677996651940672, 0.08900798655208376, -0.7205958367318213, -0.4806539541272985, -0.2849398327585995, 0.3837238314307063, 1.2464520474637482, 0.24715464376126603, -0.8692947153882192, -0.31781616567467197, 1.6649296588581215, 0.5401952054128759, 0.5220522710580421, -0.044968235908605304, 0.9722262406120015, 0.7286365422618943, 1.7855546952397892, 0.4103436170731622, -0.30054142491364594, -0.08149132980778687, 0.15845223959112678, 0.8410835301929832, 0.45303857026232275, -0.3692146315865009, -0.559811178817873, 0.16549817351349846, -0.5108649403531236, 1.0806296516652827, 0.596640753052508, -0.7338358572748775, -1.2862272032090791, -1.2804602890830252, -0.266383422231843, -0.5697110583130356, -0.0002030387354081461, -0.28458026249392876, -0.12113739688145776, 0.25622524245283457, -0.032287332619913636, 0.2968705029274178, 1.170331447588165, -0.29529452461536077, 0.15888343492633195, -1.3542892149052146, 0.5980624073794324, 0.8200053201664661, -0.22915911363767105, -0.6041718351735065, -0.7442888438591877, 1.4825920011609104, -0.5845236501197594, 0.607230367411516, 1.37194031375632, -0.1359967534536001, 0.584700242331428, -0.24991753673282657, -0.14496019558737264, 0.9530757029761234, -0.31099573400299363, 0.17278068127488425, 0.897199272428075, -0.024601938052307197, -0.03996876628919251, -0.11952791465103585, -0.13232930118046002, 0.42027757379139746, 0.113264580953299, -0.474542296459494, 0.69829594004625, -1.0918189095603814, 0.7825609891842689, 0.06657748676842286, 0.825657893335971, -0.27940555546663, 1.4803069305427106, 1.2362682435723156, 0.40376317275621715, -0.09303223341146474, 0.22217032242184745, -0.5521975903714735, 0.22103361566008556, 0.674465980959549, -0.2817435225223114, 0.15230867705106446, 0.21041218469135398, 0.3068017979383795, 1.153167481296483, -0.4235842377421123, 0.7486979606804737, 0.4203025013229847, 0.4783854832612704, -0.1606898571803385, 0.8202475902151767, -0.8454140147057667, 0.4754105574026852, -0.7430469718912797, 0.8299249051724447, -0.32049318947358474, 0.03869932179147411, -1.08158398800211, 0.42230762559272883, 1.6116490530778866, -0.6520125502653551, 1.0102466778878016, 0.059484919112767626, 0.4895806156970619, -0.32527454191862515, 1.0734851432512085, -0.9721340032837017, 0.2697024077200136, 0.9661400384316718, 0.22760518105422323, 0.09467135817397629, -0.5666144476107802, 0.23341977776504774, -0.5325867498762666, 1.8324369772428508, 0.6571318388410567, 0.11464735303168269, -0.23473465696986082, 0.057914797177157355, 0.14035957189001794, -0.0037219087404594627, -0.3322509916799945, 0.2674132454994332, -0.7952017386052691, 1.9311977954178776, 0.13949293186757897, -0.3894097882562699, -0.48308813847734794, -0.4150810101596838, 0.3970586408145905, 0.6730684892141278, 0.09922139958107518, 0.5752664608436765, -1.9425997574964804, 1.0688508460624586, -0.9361639849088286, 0.0722232796960475, 0.25402541157834624, 0.08024166489304638, 1.1264650042999655, 0.35448967793669356, -1.4054961501267458, -0.09783908158320019, 1.050616168051526, 0.9357374079913668, -0.5000192860328398, 0.0395362584994482, 0.13622374280342284, -0.1849479821140049, 0.11897036367920301, 0.1764144253734489, 0.38796743806551465, 0.19167513766838332, 0.8338719592376731, 1.3792345089906752, -0.9566616583358469, 0.05838808445647453, 0.650284608687687, 0.3389397231313825, 0.9008471692009976, 0.15339783756117922, 0.7911438914600222, 0.014074355380721002, 0.05727538290532368, 0.27100140382581445, -0.466991352948942, -0.13620201670198376, 0.3481562207987813, -1.566574741798934, 0.8194028268124323, -0.4753817431538604, -0.5179631060349755, 1.0787431086085932, -0.44661144874653563, 4.465958689532889e-05, 0.5919056873343501, 0.256063828545954, -0.6377431024103899, 0.8162083389703609, 0.7320594532855444, -0.3343630337418973, 0.5856942692139712, 0.8747464662380212, 0.08121990151310927, -0.7688084232330321, -0.2851939300389947, 0.5447849405316318, 1.1932440274990168, -0.8382007005915048, 0.12915745192527067, -0.13032855692732104, -0.6326240266757636, 0.6892873530103155, 0.9042164620875018, -0.6485623219205439, 0.44631341926519225, 0.22902994569435695, -1.855411820691683, 0.2422427108045891, -0.8221112256627365, -0.4168359797399354, -0.4652038895961449, -0.457996377044058, 0.5074315934681848, -0.015927254125496223, 0.38723382730966943, 0.9824238314253324, -1.0715749081538075, 0.6655752060465048, 1.5178103199419894, 1.0031493144859505, 0.1891163469128546, -0.3123771474801778, 0.8096647569010682, -0.16481727033208957, -0.17286641867862854, 0.42871704129103394, 0.3518339750337554, 0.16476641671297804, 0.7479503243824613, 0.2999731994601849, 0.09676896948622538, 0.1583915591545409, -0.8540019959694012, 0.4129445195063662, 0.09915196014360646, -0.3509095062620713, -0.9342871283233725, -0.8555815143479404, -0.9363333179258487, -0.059479166711831066, -0.6170449548462829, -1.4464286664023247, -1.1732817854624857, 0.624223810966328, 0.9085311735454025, 0.8227878694286187, 1.218825372033813, 0.0791797979087445, 0.6892310510657219, 0.7737295706326665, 0.2937818855394792, 1.163047108112235, 0.05550621946861928, 0.5169914554498909, 0.7964241312119497, 0.7068027964281437, 0.9683871560708538, -0.20541577931324492, -0.009947361119152114, 0.5472561503034183, 0.9986516669404647, 0.8011992206082661, 0.18033657449710241, 1.2799461041634403, 0.3527145383305427, -1.2332831825343211, 0.26674701491125585, -0.10531831350602824, -1.5340722422485296, 1.0153882939844574, 1.2720715398997868, -0.47919342515675356, -0.3040539854058583, 0.032689004625276005, 0.533528851743718, 0.03975508584344507, -0.27482630181503825, 1.4918893826015263, 0.49743668588128365, 0.7014584244277828, -0.2836422289017614, 0.5265164893718207, 1.933074341869181, -0.041142903109838466, 0.9493893761832956, -0.9871489595116506, 0.9693927377547464, -0.5225992160530599, 0.601576795030481, -0.19643148433214733, 0.5710412622519987, -0.8570513323165786, -0.2266518880884412, 0.6314157823270178, 0.5800219456997913, -0.04112141464587503, 1.8507543125901784, 0.030645191078167665, -0.034718780073670526, -0.15822505611804158, 0.27116272223675203, 1.2098218021784584, 0.11765189231918816, -0.4784404733757875, 0.8928023355732982, 1.755051697295948, 2.1089693502616376, 0.560448414206986, 0.32838397802205466, 0.45211968264703745, 0.6826902559514516, -0.7379612459471695, -0.27149007566618316, 0.36092054863365736, 0.3849002700404116, 0.2290043519121137, 1.400390308650881, -0.9978432214143045, -0.47703102463055735, 0.6527540501445017, -1.21106018076108, 2.172014459263566, 0.323307776189793, 0.606335336675577, 0.7941289531441909, -1.0879532038151898, 0.04980661434524217, -0.10626919296836211, 1.478910255617231, 0.27737146319342987, 0.6450909693608001, -0.2876357510633824, 0.08009817816830961, -0.2391480729849288, 0.5301228868870671, 0.03235349248270564, -1.085660768919924, 0.8246381463946525, -1.0480435142369204, -0.2575734524472178, 1.1733196868630975, -1.2192051513383724, 0.34913322281659226, 0.6711038725250871, -0.7702489318963683, 0.3874102609316714, 1.0750343484359755, -0.08390844942078013, 0.08861927433224281, 0.35929476241787217, -0.22573528691553893, -0.03829720486880756, 1.6235040222050086, 0.3660636610035911, 1.38567432737586, -0.2817580741539251, 0.4393235580315486, -0.0812999280736162, 0.06689466099295593, -0.23645102451141017, -0.405328573915559, 1.1661531256122895, 0.010171299764063012, -0.9263238470822811, -0.14192288553905835, -0.15699152511272174, 0.3773802562723205, -0.9914277862411006, -0.31114220618460803, -1.5118429906838633, -0.4959057821522957, -0.2872723015294857, 1.0785674829414031, -0.7471549786805903, -1.6687688510376713, 0.4975498601449163, -0.22960971848402745, -0.09694442350033652, -0.2371665850720967, 0.4884090363794894, -0.20848340699110599, -0.0978285347739867, -0.3488184737871104, 0.5696315468922609, -0.7208955454264017, 0.244144485401524, 1.2544599088241557, 0.805985331072892, 0.7729034479887035, 0.38780047481820534, 1.146301970349049, 1.0297216950982968, -0.033268461270842806, -0.542660326179249, 0.045514148302961535, -0.2847951615028866, 0.26710428448187995, 0.3339145532938641, 0.4154579218504466, -0.07955487403116272, -1.110508372059287, 1.356271256687823, -0.6264206901180138, -0.8362602624401168, 0.4111013152479489, 0.99292254788946, 0.07808142564041991, 0.3935934111141799, 1.3500528021501172, 0.5932027976748435, 0.7153921484924777, -0.16381114284387, 0.28683475290328686, -0.014626244859516833, -0.4502482937469939, 0.7728446708015987, 0.19177355205517296, -0.9822067783414367, 1.138349315207178, 0.20767242660252455, 0.4716569357891953, -0.7064290776428928, 0.6836402090803172, 0.9255006871169966, -0.04515820038584908, 1.655490871387523, -0.7051240014017748, 0.02149261806062548, -0.8296084086390725, 0.016484237397558072, 0.9160855045799199, 0.6002758815092626, 0.41849351517747335, -1.1113817024561228, -0.20785021790416214, -0.06585576510907117, 0.1103832848427978, 1.752458363896148, -0.031797818375192806, 0.1912597369839351, -0.11403759749972851, -0.34068525194106297, 0.3496852554249062, 0.7975464843892388, 0.3548114964723236, 0.09507058270941754, 0.49576840228996366, 0.9682604563397726, 0.020047506117267317, 0.6742764542432788, -0.16601016439666763, -1.1970512886930655, 0.41389319459984514, -0.5658989857833214, -0.14166564124870223, -1.072477242954031, 0.9366785022093694, -0.44466985092920064, 1.64933074780855, 0.007722290807812475, -1.2178820747921468, 0.16533575331526842, -0.7073530929481336, 0.30487040701170565, 0.9107751260078284, 0.021534517110262198, -0.289962698200075, -0.1720481616687798, 0.1799582966998037, 0.030656754244545628, 1.0344918758633765, -0.05006821812442377, 1.2017104744298162, -0.4527304951564313, -0.7646568411195334, -0.03263292751972035, 0.5402284560336962, 0.41912244037448754, -0.25158296126778573, 0.19129004490650703, -0.5679701333484315, 0.4414080625271762, -1.0054949180669202, -0.44058060675909566, -0.12306810201408312, 0.3036845070193889, 0.48407743366211603, -0.07415122973963159, 1.173218533880181, -0.4908981084900476, -0.24993556312916415, -0.5606973652397705, -0.08944960114737005, 0.2806002494201022, 0.38599813631222907, -0.2263689488441431, -0.5167830431514154, 0.3499536977473642, -0.11050662263087269, 0.19907700783198126, -1.5453338132036782, 0.09131246258795742, -0.40088563692024304, 0.29148561628483494, -0.7506619634277713, 0.2803160455985755, -0.22481626592800705, -0.6982274479623993, 0.26757428459345, -0.4957367091911044, -1.2872694934368838, 0.16739122681068136, 0.4482184379766632, -0.2877720956095434, 0.09730637063734876, 0.7222310002060638, -0.22821330314630717, -0.2921501939351524, 0.4342297940287968, 0.3366814502844787, 0.4666305907923077, -0.49611846222832734, 0.7197031384647687, 0.23770606732134136, 1.6988296225400132, -0.41431232608497076, 0.872620244860895, -0.5548080806739627, 0.2574852352839394, -0.5031581659569144, 0.9389059540528951, 0.8635113075121906, 1.1261934974358412, -0.06242983067071061, 0.3626539627298169, -0.08697169974745655, 0.47921643533218333, 1.073622056666903, 1.3549394110137971, -0.4798028204493894, -0.3485073502231567, -0.380511682129269, -0.13420714329320585, 0.3736212061530393]], "bias": [[-15.122983245430484], [-1.908976853907]]}, {"type": "hidden", "nodes": 2, "activation_func": "sigmoid", "weights": [[-1.2893817776028027, -2.1344665361799784], [-1.2279832371830068, -2.1463692278392674], [-1.2688942795556164, -2.171295515854122], [-1.2276525143736488, -2.172720987453165], [-1.195042575300036, -2.1444097275182403], [-1.233454435401776, -2.194091836759916], [-1.2485704710058332, -2.1641345944037433], [-1.239649359766746, -2.2022903391571074], [-1.1868932434347093, -2.1540959125658365], [-1.2179758745221567, -2.1548920569585337], [-1.2155203909738186, -2.187685607742126], [-1.2151294345042973, -2.2071640539269772], [-1.2150063092708367, -2.226290199688917], [-1.2520581802526802, -2.206831792416699], [-1.2156731554646851, -2.1881521078926967], [-1.2240100986837636, -2.180521982710079], [-1.2323906477548519, -2.1625918633993493], [-1.2337051009101854, -2.2123570223033755], [-1.233666189534253, -2.1297628540307234], [-1.2377228305983141, -2.177473386544051], [-1.2195673994200094, -2.134794711680793], [-1.2624478252168227, -2.18953879641841], [-1.2524411360494743, -2.2244605173231786], [-1.1695758245833252, -2.1337872795905035], [-1.19226666343967, -2.1812372822316664], [-1.171998428511176, -2.189787267049491], [-1.2080182728064623, -2.1816318329701785], [-1.2672779789570812, -2.1809850301537788], [-1.2430511944854017, -2.1931877343455826], [-1.2189357899377533, -2.2321403461920934], [-1.2569618610942443, -2.153655939648412], [-1.24820389906572, -2.197135549525084], [-1.2428769307760124, -2.142186840891072], [-1.2551529923260138, -2.1619391014976626], [-1.2674227897074175, -2.1462940517263736], [-1.259345106583032, -2.1425191547110884], [-1.2316632794777407, -2.178684078520256], [-1.17679004032519, -2.1727903260267847], [-1.208834488651596, -2.129452162667355], [-1.166496784516534, -2.1269833891998973], [-1.1290774241289405, -2.141128750116641], [-1.1780302120138848, -2.122967220265524], [-1.1930911190325055, -2.185106189096737], [-1.1482514257363896, -2.160805593699013], [-1.1557523734007473, -2.100525396619663], [-1.2119706852075305, -2.1619166997082764], [-1.25439451205521, -2.1140555237712957], [-1.1812808038479314, -2.1863053988225465], [-1.2553826758603353, -2.174196603113956], [-1.2338394836094198, -2.1367609742504348], [-1.2045734502345127, -2.1614893254439855], [-1.1911962608061972, -2.188559975231793], [-1.222787552775921, -2.1754129996087057], [-1.2349640875655086, -2.223046733697981], [-1.2180502859689037, -2.1801426138892754], [-1.1743331637856846, -2.1719060786897892], [-1.2195715772462492, -2.1339571950612144], [-1.2174386307673135, -2.1913939770597413], [-1.1945059429054738, -2.1706183282282194], [-1.2383137748407391, -2.162534111469818], [-1.1866777248405507, -2.166214987498608], [-1.2312329178607027, -2.153088774331005], [-1.2546649319127425, -2.1917141309797463], [-1.211039823602845, -2.1432768017861266], [-1.2169009061255058, -2.080345411307161], [-1.1935106911502429, -2.0430004170008034], [-1.145775231122139, -1.9516824892020928], [-1.1024638788817105, -1.8725331466119255], [-1.1316362861818707, -1.8255925765402456], [-1.1382392389217104, -1.7197677201785317], [-1.1213855629771123, -1.6529440995018463], [-1.0679932495868647, -1.6592014906415817], [-1.0097791580811164, -1.6600170141272792], [-0.8976244670105507, -1.6815949898120754], [-0.8249465874416667, -1.7594771960028945], [-0.8476430365491417, -1.8845811711459501], [-0.9485956406620573, -1.941527199583761], [-1.0786419951910555, -2.01820038825081], [-1.187546029354743, -2.1422252625022686], [-1.1639847302367476, -2.145359121258074], [-1.2597961716688901, -2.1492907169909516], [-1.321141372612548, -2.167278234280868], [-1.2091018656889196, -2.159419404897257], [-1.2729033448856188, -2.150278781559314], [-1.2250872146481842, -2.152477314792173], [-1.2671274525300422, -2.15928049837471], [-1.2706193828803998, -2.221505476174265], [-1.2282822907022437, -2.1802919724775234], [-1.2264376245882833, -2.184061702222698], [-1.2562749237141801, -2.103348174709966], [-1.2637891207017948, -2.1135833592901205], [-1.1608378040858136, -2.059086485328548], [-1.1279335657969431, -1.920408942299376], [-1.1436790280895226, -1.78733670064887], [-1.3088292569709048, -1.5981361249274033], [-1.5095099781701247, -1.4705367625930448], [-1.6981304889858642, -1.3087978287301703], [-1.8046689387483832, -1.1584193977172905], [-1.8021404635112543, -1.1094006136407615], [-1.7069464593485555, -0.9887113989238514], [-1.4848836644028243, -1.1004902966036294], [-1.1971277712784374, -1.1882451546760981], [-0.9798231682628419, -1.2788290464708771], [-0.834850092132372, -1.413544070884694], [-0.7649692799318778, -1.6282800008018978], [-0.8127533240924805, -1.7855822196871496], [-0.9530556630882202, -1.9717903378939632], [-1.1328023122173858, -2.090000287231616], [-1.148127462196876, -2.1851975703210296], [-1.2411785655368048, -2.142553143564576], [-1.1905531858644167, -2.177793544798813], [-1.2026606908286153, -2.166731770705587], [-1.2393594868838174, -2.1811108135167876], [-1.1924865295792508, -2.176287455116053], [-1.2635847739039991, -2.1726180999141413], [-1.2575077705005948, -2.178558854357448], [-1.328071938354008, -2.1656451749225263], [-1.2121811526961561, -2.0901046812245543], [-1.1645458041556893, -1.9370838046302723], [-1.203858087119666, -1.6875368677150167], [-1.5034558453756526, -1.4983079796097314], [-1.8829331943883112, -1.2320744706708733], [-2.120478509641171, -1.0740565033523708], [-2.151011690010452, -0.8720404595350316], [-1.955592179819611, -0.7367039077326968], [-1.733878443530106, -0.5353003713240201], [-1.5485231735004554, -0.5391696656578053], [-1.411334924307495, -0.4476369769993559], [-1.272984567548273, -0.5004375566591661], [-1.0915315822910183, -0.47095958325486686], [-0.9429841966217694, -0.6786721034061275], [-0.7832582111656231, -0.8731883610694428], [-0.6377234005111561, -1.1583140285554836], [-0.5218989819350153, -1.3856646608314687], [-0.42065943734239897, -1.6626694732199443], [-0.5819462497138129, -1.8896484038685155], [-0.9945818732798368, -2.0229773609556894], [-1.1896836326679896, -2.1091454174240885], [-1.2526117882263956, -2.1685436352341583], [-1.267237189517908, -2.1513984722362287], [-1.233872118764788, -2.2014527347244623], [-1.2482650943974858, -2.2057922696364827], [-1.1824827692186923, -2.2216287258253233], [-1.2089085961372037, -2.1366562620244673], [-1.221645162288511, -2.027211166632678], [-1.1395910210473144, -1.899698586484302], [-1.3203451011174645, -1.5614641493678418], [-1.7792939244653125, -1.3430613942264549], [-2.2202739787117567, -1.0629095027110365], [-2.434415347602128, -0.8277322901689229], [-2.3740315106026615, -0.5813618564631393], [-2.1845033110680996, -0.4740412306808787], [-1.9126883013137455, -0.28975219119141865], [-1.6826361897909596, -0.14376483864110734], [-1.525836442249887, 0.04061334118652861], [-1.3850964188371688, 0.049930078877213124], [-1.1906668674429086, 0.023276102898444048], [-0.979137678381039, -0.07728715372349906], [-0.8140396535719175, -0.11396489016005829], [-0.6866227813374183, -0.33668751502043864], [-0.5770054362523761, -0.6416970289300653], [-0.4623375763653561, -0.930277925662747], [-0.3061452798531983, -1.2712255246286062], [-0.12504781271248486, -1.5589652126745588], [-0.12827225959269414, -1.8505130659410347], [-0.8839990806849007, -2.0325962674474964], [-1.1934017216530215, -2.1893805598586087], [-1.2441711141615166, -2.1834864347542555], [-1.2303661407372337, -2.2013325818423364], [-1.2160321037409954, -2.191477883737733], [-1.2513367490269116, -2.1772451389101644], [-1.2275406141203278, -2.1460733533807006], [-1.1235269913143002, -1.96103915119023], [-1.159930604289453, -1.6618356633750948], [-1.5567966896917462, -1.3535562233597238], [-1.9911126079560995, -1.0074051829056518], [-2.1409589421034125, -0.8050088715900443], [-2.1275585159080594, -0.5963460218890109], [-2.0285980436433766, -0.33472566043393404], [-1.8573545765957407, -0.1737130246925383], [-1.6122720879642816, -0.007647537773958641], [-1.373282704578645, 0.11062097967013018], [-1.1635636151400228, 0.21492075712391712], [-0.9547132133524489, 0.23224681972947891], [-0.7736066930761596, 0.16780734310797868], [-0.6610573632313866, 0.12902713255246417], [-0.6029501987304852, 0.0651172315462679], [-0.574990507558113, -0.07007135529750104], [-0.5371119026472458, -0.3329770090551864], [-0.477292024670068, -0.6638460741041033], [-0.29796881118992685, -0.978754430252563], [-0.05205995954499419, -1.384374220637181], [0.20898533209380046, -1.7519683173028298], [-0.22820798323995595, -1.9584811476363364], [-1.0432173030610432, -2.081283539142376], [-1.1945867226749582, -2.164028530385891], [-1.1946379309226849, -2.1533196779424704], [-1.2136768384706875, -2.1880093652222583], [-1.142431473460936, -2.13604854093073], [-1.0485043339043068, -1.9963496864863166], [-0.825203876686726, -1.821177214063315], [-0.9488675551049954, -1.5086844110090871], [-1.2357456706986782, -1.1797625383286325], [-1.465393892112009, -0.857164787112968], [-1.556565167631651, -0.6009434354567575], [-1.5437927900757178, -0.3657541608214558], [-1.4248047796300127, -0.20417981715968475], [-1.2168973334388937, -0.1244911302404187], [-0.9189994042055035, 0.05839922386486224], [-0.5956340649334931, 0.09916607051744138], [-0.2978136416207775, 0.10768044875739763], [-0.06837092500655641, 0.09329303798224535], [0.016641683127254996, 0.0702274947467365], [-0.011547302283168283, 0.06184811001379123], [-0.12967953077994535, 0.048512283056016556], [-0.2821759178813969, -0.01089249108502695], [-0.37665218170725157, -0.11324845824376181], [-0.38810200218239527, -0.4985976326380702], [-0.294786390273875, -0.905715498797056], [0.010911451436472137, -1.2480980287984225], [0.3372536648965145, -1.7253938261313628], [0.17206357433697309, -1.927206508323378], [-0.9065317910292491, -2.1370936674444483], [-1.2363436831868337, -2.1749839294382145], [-1.2227532462224766, -2.1814521381566645], [-1.1688817408715386, -2.107169786259846], [-1.1376185297109045, -2.1205360136042137], [-0.8227740647859979, -1.9856820591919482], [-0.5477996081600905, -1.755400190343802], [-0.6733991750705086, -1.4142277206073832], [-0.914610228237834, -1.0737274318723837], [-1.0909392386652708, -0.7847325675598161], [-1.168197174398497, -0.5549687750724288], [-1.0462250177391528, -0.3405763627720746], [-0.8355727363128158, -0.22571417268555083], [-0.553721695977691, -0.03441832486784094], [-0.15684354107302856, 9.442224298603265e-05], [0.1718572376219506, -0.06024951267122905], [0.42277898236707756, -0.12497122664083112], [0.5841644803384201, -0.23565816061357533], [0.5707434124110675, -0.2120391114737488], [0.4402571529692207, -0.1518928783599076], [0.22295337975383098, -0.06067059074449509], [-0.032229128706525854, -0.03908249556798472], [-0.25994664606648116, -0.1795575627763156], [-0.39663184853147265, -0.43163470948435523], [-0.4024658193878828, -0.8090868095603221], [-0.1059028643794551, -1.2734309331662639], [0.3145877985521763, -1.7022449623580798], [0.19795719141764198, -1.9558055485586965], [-1.062046556256217, -2.0804859293147233], [-1.207541004507426, -2.154231593025196], [-1.268522050356624, -2.186131183238948], [-1.1834431705491053, -2.176212777121978], [-0.9870993576997616, -2.0733742829775434], [-0.6466402438933334, -1.9557126286808681], [-0.38326616879040765, -1.718998026327721], [-0.5637757372577539, -1.3700812631171715], [-0.829430720418463, -0.9993144272993475], [-0.987231853994146, -0.6814922210007345], [-0.9568327033591073, -0.4833450555577441], [-0.7204159151717622, -0.3403688326360894], [-0.4248856958846032, -0.16749420133134385], [-0.11864205208382045, -0.06406847321582043], [0.20224492389364263, -0.07312335378874663], [0.44478466152118457, -0.2225421430776374], [0.6470516038874844, -0.4082617915258577], [0.7684773006449578, -0.4548379088419241], [0.7179208638096628, -0.4011270795747983], [0.5550998435183065, -0.36210322081234736], [0.3344241516642789, -0.16303706212280072], [0.025009645268569816, -0.07372613606573761], [-0.3286100061651624, -0.21167409393437997], [-0.6069507493213804, -0.4394021467782742], [-0.7009547323043381, -0.7700238987812319], [-0.46275475155225515, -1.1660372618250527], [0.03987824137361178, -1.641036318379451], [-0.25263001566052196, -1.9327763307423589], [-1.0801037289424429, -2.121032660020243], [-1.180529965982901, -2.189680345681458], [-1.2228847887926217, -2.1619348436709833], [-1.2256996651505503, -2.154910591689492], [-1.0801615434545717, -2.0723631377407217], [-0.7165245391229073, -1.911071504742363], [-0.41687752275210754, -1.7285260877124229], [-0.6960875350671202, -1.3307327207858404], [-0.9994390854694867, -0.9683511725877612], [-1.090214083107692, -0.6408486141368446], [-0.8985139192205899, -0.40224164930619116], [-0.5894882959919461, -0.24508281585637692], [-0.2925836375266548, -0.1211060319944363], [-0.07337705603703151, -0.06966169395455138], [0.10686649790800397, -0.17225727301306953], [0.3077606410804017, -0.3848424038059124], [0.5437573589866093, -0.5661445832269638], [0.6836649625200237, -0.604747671742482], [0.6184411419261521, -0.49721999374541903], [0.4916733440053292, -0.35778484910753944], [0.31348102475800776, -0.1616071768512581], [-0.0501159269414358, -0.08632851275474406], [-0.510124069257752, -0.21089897260698345], [-0.95462669362607, -0.42366225426340187], [-1.224286384913979, -0.7361186290997812], [-1.1039638673280614, -1.1654529625886658], [-0.5412054666589801, -1.6480893677285111], [-0.7067229639609763, -2.0414201934168], [-1.1010783545888732, -2.1007634371632067], [-1.2505343491059406, -2.188150987451749], [-1.20469695209486, -2.1741551963361703], [-1.1952244459953856, -2.145906528039599], [-1.0994901132023451, -2.123583793108504], [-0.9189792761289618, -1.9368158081539848], [-0.6433351185406814, -1.687184853222815], [-1.0606046787737238, -1.3216316573873017], [-1.3469755921533062, -0.9162181314779102], [-1.2602868075247253, -0.6156363044133728], [-0.9072049048211919, -0.3629303707432855], [-0.5901205227428057, -0.23224506242462786], [-0.38021588427143455, -0.04521788853632007], [-0.2632343001747598, -0.10992883596398857], [-0.18776480499503714, -0.21680072761339553], [0.022025297165384816, -0.4502921340659004], [0.36666004006102815, -0.5886079842620551], [0.5180572712945752, -0.5141180078283837], [0.4703108903616197, -0.40225868427217687], [0.38310494311967863, -0.307624105817647], [0.1934453424932737, -0.0941604537081418], [-0.2588886755942507, -0.071858016975095], [-0.8614416201278915, -0.24956483774231975], [-1.501142363373648, -0.4853843443234838], [-1.9967423732484642, -0.7354511601133661], [-2.0103113230578455, -1.165801889293148], [-1.137252015547533, -1.6045794308527075], [-1.0405478981890015, -2.032272073819283], [-1.1822853835345415, -2.126259867493467], [-1.2285679565892371, -2.160677078825999], [-1.248147780057173, -2.166900524057843], [-1.2317263206286093, -2.196806426956743], [-1.129235289455016, -2.1371332933667886], [-1.0161899839493629, -2.0109335692951644], [-0.9442971430736304, -1.711203183767202], [-1.501760000060072, -1.257210731123366], [-1.7214865763481568, -0.8282252379016438], [-1.3880666432621902, -0.5738099638465866], [-0.9625423524974958, -0.2641730460165412], [-0.6750366577511561, -0.09930419039935343], [-0.5453770310154101, -0.0422960894838439], [-0.4540410099432044, -0.09170611690123731], [-0.3433181548287702, -0.26142158959957884], [-0.043497353906085605, -0.42725688027927444], [0.3425839390828663, -0.4245502819448362], [0.4463661221528319, -0.32558466095232713], [0.3850794781750694, -0.23066580292409464], [0.21468019903806812, -0.056850781272823316], [-0.09583675556379162, 0.03206490133072421], [-0.6838533318937773, -0.0504488741505866], [-1.426403142276652, -0.292407933160741], [-2.2741631854919158, -0.5155750982044581], [-3.4715591552849343, -0.7067321875334917], [-2.7425393226384376, -1.101625597584935], [-1.493868433477764, -1.5852156962531594], [-1.1561190714561271, -2.038940142994028], [-1.191349307770627, -2.1666464274994035], [-1.2496281285950317, -2.1675007861437594], [-1.2410682566270153, -2.1931835818784635], [-1.2122193808447472, -2.20377035081781], [-1.2404721557942024, -2.1183189805666474], [-1.087329603193969, -2.0286306444970923], [-1.1355149104435944, -1.697021104839432], [-1.9001637606551762, -1.1721536819604987], [-1.9860843916547917, -0.8129814412879612], [-1.5140478810342923, -0.4490500609776371], [-1.0451774334564132, -0.21273590096283818], [-0.7638652417676259, -0.04644201147846809], [-0.616353366958831, -0.026007005698034515], [-0.46878754498004366, -0.15981473331066098], [-0.23156076027525582, -0.25204010410921257], [0.22723122166718973, -0.33555947700836575], [0.5165346417383404, -0.29848797912371383], [0.5665558962419522, -0.1756631031809614], [0.35443953503185366, -0.06692777229987407], [-0.01167013254269958, 0.10647247224450408], [-0.5211926026487748, 0.05050343496254148], [-1.2160703106954995, -0.023330240895255473], [-2.111577800881479, -0.2286389603566661], [-4.121661268844012, -0.4458210814915863], [-4.357656641875488, -0.7278252486420473], [-3.0255914479947705, -1.0206285056825293], [-1.6580688942138806, -1.4891997080587616], [-1.1442361467279092, -2.037325077798281], [-1.2443225234553592, -2.213667017741574], [-1.1998145082428628, -2.174848656410095], [-1.2255823863434647, -2.2324805812963278], [-1.2551354423847505, -2.1699004366220622], [-1.2499409262525552, -2.1741188880717597], [-1.1550403218128416, -2.048044321253813], [-1.239355643996726, -1.6858423429987042], [-2.2127140430641634, -1.0951117234147016], [-2.2119022076147496, -0.6873935689945347], [-1.7085646659804057, -0.3835428939383693], [-1.238971178226532, -0.1531223942402278], [-0.8788569961635719, -0.007743573899038597], [-0.5966173556583755, -0.09320638177073544], [-0.31731923552388397, -0.2193520824819365], [0.03872991635583342, -0.23721751021450235], [0.5329907779581643, -0.2529436239992317], [0.7423547168615526, -0.19065766184363953], [0.7329537889040542, -0.05700817215659891], [0.3308388855607142, 0.03889000191629888], [-0.14909275037922787, 0.2233250245469179], [-0.8730952987204424, 0.18184479521627384], [-1.7637413848233991, 0.03276731432825247], [-2.8605968530452497, -0.19016831603296588], [-5.450535608365704, -0.38674849766813474], [-4.614777156765951, -0.6241792317986677], [-3.1033232951747376, -0.9543239825072685], [-1.7520574015441215, -1.4586971221275693], [-1.1071113928593814, -1.9909807316300485], [-1.1994897812177516, -2.1359208789860733], [-1.2292867482991727, -2.1737910039268984], [-1.250479346670722, -2.1880597815539033], [-1.217007049531276, -2.168999324689803], [-1.2022763117688624, -2.112548594107563], [-1.182026385532412, -2.0324094203856515], [-1.365508931476169, -1.647267379628236], [-2.5073066024356665, -0.9970259053797987], [-2.572679311424137, -0.6420832584373517], [-2.0427157087605634, -0.2664762179255009], [-1.544864169316736, -0.09134089645454381], [-1.0653838259508643, 0.0176348071690685], [-0.6327069770757041, -0.09074936006120857], [-0.2638559370418162, -0.17375562593107263], [0.17214488842995804, -0.1899040483399003], [0.6213097790816725, -0.21073556254192286], [0.841110757921721, -0.23167741551907356], [0.7954577044176226, -0.15115222381427348], [0.41677627380537635, -0.012696611336116395], [-0.1445481521873669, 0.04858772342650288], [-1.118705373518402, 0.1411327200938716], [-2.2122670597294594, 0.03016132178156969], [-3.948287077462139, -0.09481569194224616], [-6.163410580587464, -0.32304030284133417], [-4.812442910995553, -0.5957158741030913], [-3.115153253791171, -0.9499083290907719], [-1.7635655166794806, -1.4333490515630902], [-1.0958281003690244, -1.9254641621046251], [-1.2575800902320564, -2.148000508258309], [-1.2169032517007146, -2.1830442045579814], [-1.233652730608796, -2.1661918727115674], [-1.2320397000486207, -2.166513963459903], [-1.2229901211906156, -2.139983075120821], [-1.1687990919883855, -2.0204808699939654], [-1.5263741826957828, -1.5084419384987051], [-2.885420073366116, -0.928890473645826], [-3.2247844685636564, -0.5630775206853711], [-2.571592000116301, -0.26762157818925636], [-2.003953664510902, -0.027043677187248656], [-1.399297712603981, -0.009343958690841042], [-0.7970688125820654, -0.12033247524833547], [-0.3183510755810311, -0.18712253447507715], [0.14819256838412642, -0.2379914174621774], [0.5623450928561425, -0.21544254490501583], [0.8753294274913382, -0.21466748668835028], [0.9114181746433673, -0.23228334742514337], [0.5660759452662367, -0.20227956143183712], [-0.2040278375711437, -0.03249066724451349], [-1.4033878919584735, 0.10502899527106588], [-2.719148430137821, 0.1234061452268013], [-6.10578136927503, 0.001257377705306998], [-6.888295380316093, -0.31215353937539553], [-4.928035335423029, -0.6170160532421208], [-3.050443089619511, -0.9615344103789228], [-1.731654853932613, -1.4374024554750862], [-1.1207172262942118, -1.923594634133289], [-1.217601891340222, -2.11248055848242], [-1.3038096965426729, -2.1801479511407025], [-1.2027689653743727, -2.1759816344328007], [-1.225376823590291, -2.202665225344312], [-1.2322274565568625, -2.1236477167126337], [-1.0931186780797681, -2.0080759630026095], [-1.7526413161284577, -1.3992666865792904], [-3.158147905742425, -0.8389005582851033], [-3.9694217299750783, -0.5067313622554523], [-3.2210362584358894, -0.2148720139773341], [-2.406587896083014, -0.10520331324236926], [-1.6924310435378183, -0.09763618349898844], [-0.9663341556439824, -0.19997920563526733], [-0.3768669256493842, -0.2438864971516612], [0.1238078281675897, -0.291108118865499], [0.5736599494223651, -0.2646507948780148], [0.9670697049159838, -0.306843565917616], [1.0268570474273409, -0.3071627409978506], [0.5362012088661876, -0.19242127758261912], [-0.49453750666223556, -0.040341300121397125], [-1.7991552640265878, 0.11215818168241388], [-3.296212249575737, 0.14341437770420273], [-7.681272775711174, -0.00397426052722401], [-7.252698093457671, -0.30183941566513395], [-4.8382975522186324, -0.6601593749434114], [-2.86822216643245, -1.001841327060405], [-1.6193350838130607, -1.3992222815288347], [-1.1338666866217748, -1.867220502155033], [-1.194809413042229, -2.144970313795867], [-1.1693998657997107, -2.1475579775160454], [-1.2026628405875366, -2.181756069825559], [-1.2220746281908423, -2.2119327884523132], [-1.2378836988962871, -2.159141791983962], [-1.1223954501424478, -1.8651953551509637], [-1.940382799193498, -1.320835135457889], [-3.1184076465262764, -0.7301362511873121], [-3.667457180610871, -0.4276151962392737], [-3.0675293064100964, -0.23817305237648065], [-2.392444828218107, -0.1592920369290178], [-1.7057031827005946, -0.1384603446216676], [-1.0296494262219487, -0.21929277348814333], [-0.4240115215544651, -0.29975026180475667], [0.10061959282127006, -0.3020719925029568], [0.6103270210405009, -0.31725162298088894], [0.9590060261697375, -0.33587878444921365], [0.8643407468491106, -0.2988262462414933], [0.15830813654715528, -0.16295646545165404], [-0.9707616698186673, 0.05145708645688712], [-2.238973977664215, 0.22493910715685078], [-3.982816997897916, 0.19397289846004742], [-8.218976240832744, -0.03200070928624034], [-6.886170582913123, -0.3569499858723762], [-4.402765174087032, -0.7185650372451274], [-2.6212416376764334, -1.101881887104202], [-1.5158703901239392, -1.5111147248792551], [-1.1227918099153926, -1.90233299106365], [-1.2045056827379728, -2.1522215339722117], [-1.2411313479472148, -2.183283771924041], [-1.2671518040414396, -2.1740471080105763], [-1.252223789257858, -2.1149713527565797], [-1.2015255835415652, -2.1555057835657143], [-1.0705049469151842, -1.7976362928076832], [-1.9445886763815354, -1.1905396708576619], [-2.7606525405982927, -0.7071077957797222], [-2.6330418901923545, -0.38002084960287463], [-2.4054148409934806, -0.23765006235229583], [-2.0810675121561846, -0.130398426130563], [-1.6157679833070264, -0.11032177605037555], [-1.0697881209015396, -0.12872161100759155], [-0.5195545086926933, -0.17475466899635583], [-0.0016811338773277714, -0.22581933722216854], [0.4536959880480713, -0.2821102290464565], [0.6885925288051337, -0.16768811309310871], [0.4106659788574861, -0.06836588556690301], [-0.4192030769537111, 0.018980599819097724], [-1.4751522323325978, 0.16442074087504224], [-2.5916589653757267, 0.2976867549571891], [-4.658623619305585, 0.08482739936703998], [-7.587268431723413, -0.1907401227289097], [-5.970043671230534, -0.49335972502552244], [-3.77133498584673, -0.8177870614313739], [-2.2989129877314007, -1.2082187384178371], [-1.3732504542710955, -1.5685747396114835], [-1.1321519765817172, -1.9400506170579426], [-1.1936281494666958, -2.1278523281573665], [-1.239638987840457, -2.1780923321517567], [-1.191650053523773, -2.199025535224428], [-1.2305589926728113, -2.2018187921104677], [-1.1421564190901448, -2.0688594515390646], [-1.040786044099377, -1.7826769192669054], [-1.800993201189768, -1.3025800427051086], [-2.2782363641955374, -0.7610796444155936], [-2.104366373372957, -0.4116575458019306], [-1.9687515498447772, -0.1728967275043467], [-1.8042369809203767, -0.013919124256017216], [-1.5245809987053685, 0.05446801964192574], [-1.1042649242658593, -0.0032415711854615207], [-0.6600194498374372, 0.02688384448509042], [-0.19416535644571398, 0.06837394522509259], [0.19140967984699359, 0.007727750349775736], [0.2695776682292717, 0.054711831031295136], [-0.13237571786155616, 0.006620086723643601], [-0.9276204080213633, 0.09688269465236199], [-1.7935542305890457, 0.11302251379162256], [-2.678749795553458, 0.11272735422744058], [-4.5717379296832545, -0.13599499118474698], [-6.029135765010691, -0.35418625673283044], [-4.56395925036284, -0.6665436961771675], [-2.956803468759662, -1.0036552800054284], [-1.888138695231053, -1.4017991612342517], [-1.2515939259230553, -1.6645183195728155], [-1.1395134329518992, -2.0415021227774974], [-1.1739405352493173, -2.151153458323747], [-1.189067456777528, -2.212595730531097], [-1.2172500557793604, -2.1185015626375336], [-1.2385833356678861, -2.2562616601681555], [-1.1832585417983223, -2.075608836599839], [-1.0158182537331815, -1.84031886050377], [-1.4866231669276126, -1.3905931922462869], [-1.8402154856824102, -0.9465035418914345], [-1.7031748208835251, -0.46636827188583874], [-1.5872152836901874, -0.21419464586455375], [-1.4810251827619834, -0.00678667571611303], [-1.3186804196543342, 0.026789423544802883], [-1.0129940152188883, 0.14353858675810913], [-0.6528469204738452, 0.15551134084372376], [-0.27071105449297556, 0.19417803987367935], [-0.02514455841621857, 0.10142368382501755], [-0.0856062781472797, 0.07078769733051202], [-0.5359695895703461, 0.02682710269920261], [-1.1414959420113828, 0.0815335960815544], [-1.7618307614720974, -0.10428467811543987], [-2.4759219429689976, -0.13765946661379458], [-3.622688159537582, -0.35554209909712264], [-4.097566128775471, -0.5931380224586953], [-3.127059702793713, -0.8767604866750852], [-2.1565984939801064, -1.2455885691725115], [-1.4666640180836805, -1.5373060163054593], [-1.1237136202210267, -1.8454600480487229], [-1.1744728550257524, -2.0320801736501317], [-1.1771845058333987, -2.140773558090441], [-1.1868328069832945, -2.2025085194357787], [-1.2559970869863357, -2.1848942459848724], [-1.2257060148257484, -2.139403532163303], [-1.1770999040987233, -2.1322278957531013], [-1.0558723505202803, -1.9678750289683078], [-1.065324688136572, -1.6641001848279633], [-1.3113882434115842, -1.1853017119640314], [-1.2388069334147123, -0.8622899047640606], [-1.1053517906391883, -0.43937547339737437], [-0.9780918679935946, -0.16764964126817303], [-0.8134523523501367, -0.0641170891492205], [-0.5819684330763554, 0.08814118921511095], [-0.29765138126421237, 0.061624137177253804], [-0.04113512808793566, 0.12624157217165313], [0.028009725564153324, -0.01707768569804572], [-0.1457510548574903, -0.11167283710064367], [-0.5364269522393956, -0.20339654742074595], [-0.9769574789929957, -0.3132114949475377], [-1.462288570264623, -0.3876522695522795], [-2.057028516489967, -0.4738967210986578], [-2.682778256236885, -0.6365258286242389], [-2.701635625156531, -0.9148010413129857], [-2.0997856065629428, -1.1966395027080334], [-1.5134751959821298, -1.5615329919958671], [-1.1883223440473165, -1.756149315071062], [-1.082709179945047, -2.0114502374259216], [-1.222750937887927, -2.185747003097611], [-1.221948667091255, -2.163885776587078], [-1.2095597070916007, -2.1843061252466414], [-1.199681691682749, -2.2101721773538965], [-1.20428138654756, -2.1397841459795557], [-1.2491693050181873, -2.1434037234615078], [-1.162562628085023, -2.049194257789019], [-0.8365567761646381, -1.8544324015017821], [-0.6135900897678307, -1.620001964639258], [-0.5286509328718717, -1.2770305552034922], [-0.39093270178650724, -0.9500718859520358], [-0.23242326554250103, -0.6263020408720392], [-0.048771388964849983, -0.42286904854463403], [0.1026297974179096, -0.2494981575536156], [0.24828465847908862, -0.24773010404814116], [0.31607772775536236, -0.22468838998305876], [0.2639798753047582, -0.34023842323932696], [0.05535982752685936, -0.41682804917077476], [-0.2478421308125913, -0.5434140441672916], [-0.5983879686997349, -0.6382652210439905], [-1.0129603200732196, -0.6957359526473128], [-1.50271563311397, -0.8230163591258359], [-1.8387139170913627, -1.006183480370762], [-1.7625076667189312, -1.282976247023249], [-1.3821155622145125, -1.5134310674430773], [-1.1376250973639417, -1.8188205390413015], [-1.127262103723641, -1.9432068595804082], [-1.1663786275284598, -2.066525005402836], [-1.1934432551430563, -2.1939071854192966], [-1.236465456554337, -2.1632608943115637], [-1.246385177081051, -2.1951561729466342], [-1.2394265956367865, -2.180708271634539], [-1.224848500590069, -2.1633601914754146], [-1.2038327566427218, -2.1471902759393964], [-1.1659372212135843, -2.161004896514907], [-1.0143033924518534, -2.0967030137122333], [-0.6064029388156523, -1.9437495005638585], [0.11571456808622942, -1.7776893442537633], [0.4045155880082436, -1.5861630093177614], [0.5933737050576038, -1.341565553520828], [0.769098948293176, -1.1325586666758602], [0.9156519787224755, -0.9729912148941418], [0.9620068358009611, -0.853895835997299], [0.9227859732046505, -0.8078116536629784], [0.7435767327585726, -0.8415784573992532], [0.5023330742250317, -0.903153495772719], [0.21076928822519073, -0.9955662122909124], [-0.10782078159311621, -1.1009632208425573], [-0.4780341967494497, -1.0974864560115876], [-0.8941696988510514, -1.226328781816956], [-1.146167549978722, -1.3963954090803887], [-1.1447777292860921, -1.5966977615443714], [-1.0983189313736157, -1.8181744543960183], [-1.148846416111162, -1.9967263289172077], [-1.1665259532240715, -2.110228727727866], [-1.2176067769552688, -2.1658556157762585], [-1.183889501710631, -2.1405710677510474], [-1.2420440082357334, -2.1468602824927356], [-1.1774724247887935, -2.156180854565395], [-1.248129048086778, -2.1689619674217804], [-1.2457811166147472, -2.1622458136865688], [-1.2907577586208363, -2.1296109520163227], [-1.2868396181983845, -2.169085053152904], [-1.1114368638623457, -2.1593504305575038], [-1.043291852474452, -2.1483844405523524], [-0.41646917792829763, -2.0227512961102327], [0.598902749314056, -1.9745164479342807], [1.2166947266486092, -2.04529433965507], [1.6323381958084517, -1.9885437410811337], [1.9405659299757758, -1.9526825295223271], [2.0855155053668124, -1.8478933778571998], [1.9861717104792491, -1.8053535717171116], [1.6841976679926098, -1.7399001311007685], [1.302298142875648, -1.6409499288328022], [0.9131573229032084, -1.6233197771004313], [0.48838559904373857, -1.5905208188540865], [0.038817704464460145, -1.5374819284904582], [-0.3891336459958059, -1.640629943096354], [-0.7166572715301983, -1.7620636260453288], [-0.9826510258040078, -1.8816756275684015], [-1.1088887162908025, -2.005811894619952], [-1.168596484012953, -2.077535153335593], [-1.1834895871961144, -2.13300872816006], [-1.2382212414372937, -2.1589669129935594], [-1.2467433190339918, -2.180320155794231], [-1.2407673813184588, -2.1880019206208607], [-1.251609878020903, -2.2231113685349424], [-1.210035616584767, -2.178943516576646], [-1.2833143570232717, -2.1775769230227735], [-1.2328580525636015, -2.190314545066634], [-1.1979752410441458, -2.1937123392471927], [-1.21892723000716, -2.198634213750397], [-1.2461379067881342, -2.170123083240398], [-0.9713410047140625, -2.0926319754893066], [-0.516388741252186, -2.084840537087886], [0.42512474724367516, -2.012161770088493], [0.9400263869917643, -2.032802438644073], [1.2858788392320355, -2.1461703457039683], [1.493476708719521, -2.100566930622016], [1.5209607785070502, -2.05178974557689], [1.3555012769522863, -2.0605401354451027], [1.078978277011632, -1.9669810420945342], [0.7094708076269537, -1.9778942062086873], [0.3302537883148049, -1.9232333300187159], [-0.11764373193577468, -1.8676390021200635], [-0.6216907130585048, -1.9439562637620453], [-0.9597922596491957, -2.011145282139464], [-1.1176138623150602, -2.058816845765526], [-1.1629628600580295, -2.071813657435096], [-1.1658316508823208, -2.1528522543650435], [-1.218887665465414, -2.186221375976825], [-1.1829703687808766, -2.1347756402814664], [-1.230865113304645, -2.193684224919085], [-1.2694810476453193, -2.2041231613301235], [-1.2026108722198348, -2.181765898931298], [-1.2228313085465692, -2.1411023351277], [-1.2561188198013666, -2.1751753862864955], [-1.2513139985584225, -2.153037962708643], [-1.2325401834652343, -2.206652301895236], [-1.1702775310110987, -2.188521923647582], [-1.2165299185039058, -2.176386242623545], [-1.249977014729377, -2.2162481018986706], [-1.1895675739229477, -2.159883234110084], [-1.1928429957860287, -2.184567877900416], [-1.0412608122326148, -2.156180181485637], [-1.0356490346770963, -2.0831165708429973], [-0.9934773415159593, -2.15920326661271], [-1.0361700688624154, -2.1357185748083034], [-0.8912248366816932, -2.1065339837366763], [-0.9581226312964869, -2.0688440705768785], [-0.9733776629362745, -2.1392344340069185], [-1.043667963659978, -2.123418964326471], [-1.138227088285183, -2.0672061422050976], [-1.184076815122494, -2.0763238133057973], [-1.1780306326699947, -2.159450602484076], [-1.172984983837582, -2.121471571725334], [-1.1937155855583792, -2.1709355443905554], [-1.2039261087457866, -2.144588996484964], [-1.2111829666333145, -2.1640042122192544], [-1.2312348822448123, -2.1995256161991086], [-1.23075307440064, -2.190373033490411], [-1.1716992626921174, -2.1333695282172203], [-1.2441131638249918, -2.1367946618701623]], "bias": [[2.2687457316354833], [2.2543723037812713], [2.2310560734410454], [2.22800816274903], [2.2551519504875297], [2.206856126908099], [2.237398236397384], [2.1988947634780445], [2.2451913414613487], [2.2454794446508366], [2.212596629855075], [2.193104026723581], [2.172870086267328], [2.190671207128369], [2.2102076018512844], [2.2199909699367777], [2.238315720742004], [2.188600471165299], [2.2711931106182095], [2.2236375673191855], [2.2656349716807207], [2.2125492087454544], [2.17722547248291], [2.2649412185750384], [2.2182301330923933], [2.2090173861833726], [2.2183814037809984], [2.2213001379558714], [2.2081291153179525], [2.168266267377236], [2.2482105435878976], [2.2043828611270975], [2.258971221127456], [2.239335323818055], [2.2509523791583383], [2.2463775369082284], [2.19863658367094], [2.1917181213695747], [2.205797741822428], [2.1873789411320774], [2.166781102850739], [2.1844042964503747], [2.1176669291303982], [2.153018620529745], [2.2132418526358397], [2.16717822101843], [2.239798948605304], [2.1797478137891835], [2.201075538724791], [2.253232232627943], [2.2332289547337663], [2.208987280208233], [2.225135205091049], [2.177958691768258], [2.2202316193020173], [2.226972561575154], [2.2664726456548796], [2.208957955011425], [2.2283275245074576], [2.2381999596952435], [2.2291873672712725], [2.2446907655981923], [2.184000838905278], [2.182408517082296], [2.181942620010901], [2.104560216528747], [2.0499944575360463], [1.9829356176315456], [1.8577255556781698], [1.799537429335377], [1.7303671785280201], [1.6586163997560166], [1.6626818270654589], [1.7349717426255356], [1.7970483427504236], [1.8389946900061893], [1.997745577977025], [2.108021505248593], [2.1204341318568796], [2.2079647125918083], [2.2355184832584802], [2.2331961910172686], [2.2406323172731835], [2.2522385104271927], [2.2481561315148757], [2.2429984850438927], [2.1793726855615883], [2.2172441770778977], [2.209969711057199], [2.2615155307979258], [2.1773673549409214], [2.074169747027476], [1.9819398857088928], [1.799776794099863], [1.661173086358803], [1.4776505756520497], [1.374948519409203], [1.286775374975754], [1.127583688098346], [1.1438048701983379], [1.0871407191517928], [1.1844540968531556], [1.3496218885740172], [1.5208671494069401], [1.6833717924075073], [1.8914973893260705], [2.0223218869337654], [2.1355065490053846], [2.1454210944641874], [2.24634072979868], [2.2209144298362515], [2.2330928822766603], [2.2200630918150774], [2.222844865048982], [2.22753599929244], [2.216439204581229], [2.19675605296157], [2.1054542451733154], [1.9977484548047784], [1.844402747759091], [1.5521438538986994], [1.3395597544489757], [1.0921752801915385], [0.9267124921010554], [0.7405083648472385], [0.6360376881225751], [0.40329933636565235], [0.4070081158803023], [0.4129372377716899], [0.611413084851607], [0.7206376251161136], [0.9281733579196608], [1.166709497811711], [1.4653650987111553], [1.7145701888268332], [1.8894846417908262], [2.0755975614963798], [2.219260547354922], [2.2250721462205663], [2.2505599155909604], [2.199511098408393], [2.1957285517228766], [2.172541034842712], [2.2324070303059003], [2.176917294026093], [1.9028648352675372], [1.7171486290728453], [1.3591696372413269], [1.086685567153289], [0.8502861316750139], [0.7029336083943611], [0.4369477025868015], [0.29604903474313393], [0.1490272909516977], [0.10365344629388054], [-0.021077979661530303], [-0.0201477454664113], [0.001412805989007596], [0.20226682115503225], [0.3728405541843404], [0.6603294466732673], [1.0157087478445235], [1.321801055169308], [1.658796147127595], [1.8987418039483315], [2.114975911115501], [2.1704657248545782], [2.217066643452108], [2.199498511644327], [2.2087680046871085], [2.212994669638442], [2.1441285306068747], [1.9679502907295838], [1.7078028087211476], [1.3734550245283206], [1.0977176757146818], [0.8041009091206939], [0.5593291784893428], [0.3887418660018065], [0.17779137904738476], [0.033156641866132826], [-0.09137882481005623], [-0.12300527395567243], [-0.16049395165273142], [-0.18711266095609116], [-0.1493434183391008], [-0.056691893503047264], [0.0968468891528796], [0.31263831777418294], [0.6717133878333592], [1.099956164462903], [1.4145177778980484], [1.790232864246342], [2.002027832521819], [2.222001137179633], [2.229965873944195], [2.2460962253909873], [2.206859492566605], [2.221893556128712], [2.15625435523273], [1.8411693570505263], [1.5228342066043448], [1.1888180721605939], [0.9264936504383184], [0.6884962282610604], [0.4606666111206139], [0.2666763065855077], [0.010673787952804539], [-0.05692103541915925], [-0.11170736940910125], [-0.08825215035225897], [-0.05676677148665459], [-0.033289475722898365], [-0.05922889985905219], [-0.033344858010673724], [0.007100494697956515], [0.2471177049668283], [0.5291894191118356], [0.9001723797062543], [1.3613890855444373], [1.704691824721722], [2.0197924390428765], [2.1272028436771935], [2.219901157699475], [2.2184220399926597], [2.2735791092446305], [2.1535075132097488], [1.9697015221086216], [1.7139392369975326], [1.4287876084327031], [1.1047039316988057], [0.8025172973311252], [0.5420913885531596], [0.40750976397428473], [0.19489797469143402], [0.10590250734429736], [-0.008760712504712803], [-0.007684147432202727], [0.13056539625763702], [0.20003196736973403], [0.19214671857868815], [0.16870891528802703], [0.10408959647110409], [0.0394165030057384], [0.13662609403213394], [0.4701864642553728], [0.8773855441670209], [1.2597091729367755], [1.7110225124533178], [1.99928340779739], [2.196716641956639], [2.2406985337050993], [2.214933455368449], [2.1929925089179747], [2.1367579382851476], [1.9194040278200517], [1.6964478809698778], [1.3957271850214639], [1.0596071772634683], [0.7604787955346255], [0.5132988140724175], [0.34015112882110277], [0.21560777111049825], [0.09690968557696], [0.09332553722944391], [0.20963837377618635], [0.3802394614529967], [0.49158899216789537], [0.4447258378048426], [0.27340357333124504], [0.19399466234444668], [0.10842533225829908], [0.14572974101943073], [0.4590421295028163], [0.8549303345855725], [1.290749170113035], [1.7698905492470367], [2.0162682041990925], [2.18479098324603], [2.203248707334317], [2.236336549639642], [2.2048195072622905], [2.1310379304216616], [1.963485726360592], [1.6983753678023434], [1.3872537430040914], [0.9861342275500665], [0.7001912323949115], [0.4884073956612447], [0.31568274426542703], [0.16749933425598243], [0.09366633403168217], [0.2002950617889039], [0.41288060341108024], [0.6043483707167069], [0.5856833184141329], [0.48531786558982515], [0.3413606338016825], [0.21551175222118316], [0.14614313060991627], [0.19717881172329796], [0.502859309845429], [0.8197932334146172], [1.1885619228558228], [1.6984860443868723], [2.0181026269397933], [2.233000891788854], [2.208661048809959], [2.2242406436140043], [2.220349461426332], [2.1083108257776733], [2.0137578347541956], [1.76925885471904], [1.3253009435948007], [0.9449456112942317], [0.6437446423050334], [0.4181630851153362], [0.17475712934753102], [0.12291429834389324], [0.07351835860930794], [0.287058373168573], [0.45836211580267355], [0.5691615604651795], [0.538289257661217], [0.3733211212723039], [0.17543825446604425], [0.13907863009188634], [0.11911602771141441], [0.2462042490969406], [0.48943111132555644], [0.778566032054622], [1.0747319263425796], [1.6633837184246476], [2.143576835109268], [2.2299265559854735], [2.237522854000219], [2.2336147141878233], [2.183685961728201], [2.1582275674078355], [2.0389107341014228], [1.767964249631269], [1.300659997477036], [0.9151216908733428], [0.5572555594299091], [0.34034142271209294], [0.11867442104283694], [0.011852130888763647], [0.11743875125954921], [0.23556167580312964], [0.38957772266046503], [0.45160493714746963], [0.34807369546803296], [0.1390776722379273], [0.08127425379011886], [0.05055373599027416], [0.10226680826901914], [0.28089138882291415], [0.4770375468848198], [0.7650208715370431], [1.0505470162691721], [1.5554268834164526], [2.1594853843677555], [2.1995350141222905], [2.230251477482842], [2.2079736592329855], [2.1880713695637874], [2.228142315936736], [2.101281127858085], [1.7613755273781955], [1.2318737454040893], [0.7600130189895825], [0.5132904116085254], [0.23012842303196587], [0.05119558126106424], [0.04343012849822443], [0.1281595133558188], [0.2553108476899758], [0.3254336400380618], [0.29619720918861514], [0.17916915698613936], [-0.02315186463232496], [-0.08747844551812124], [-0.18448853793738487], [0.04823380026018782], [0.277837053904803], [0.4541275353657177], [0.7058522285958192], [1.0416772027042676], [1.5003487240709246], [2.0942395384850845], [2.151242426943484], [2.2206482246212227], [2.1675735511870116], [2.2275979152935306], [2.2014940294388596], [2.1282902350747435], [1.7102931397413461], [1.1317826023726512], [0.7169846437303656], [0.4338154088650225], [0.18408443671959845], [0.06983659035312423], [0.0790229643338746], [0.1496411260431214], [0.22054560309405066], [0.23718417538645595], [0.21491004024965962], [0.12524282788777708], [-0.05708288797743262], [-0.09343074023714895], [-0.13817932742466277], [0.0018565449640302147], [0.1846734210680288], [0.38591540693416926], [0.7236715722245008], [1.0451209798765069], [1.4226640592425386], [2.0392472848026864], [2.2179917127140656], [2.2258675401638945], [2.2133330854758326], [2.2292710587546383], [2.265276109273727], [2.1245101945785185], [1.628633490590254], [1.0421088879584026], [0.6242780674675266], [0.3865792777224977], [0.14661232059427795], [0.10581154163773918], [0.1438460180560861], [0.21695253494843392], [0.22494108605153323], [0.18712250142953535], [0.1305052595124193], [0.094975791196956], [0.036516588656451625], [-0.09447479183639641], [-0.09788164534282999], [-0.07953617226704293], [0.1251668911859727], [0.3330064702755332], [0.6917660982397897], [1.0244987957328688], [1.4344918704899305], [2.008019152404094], [2.179603757245162], [2.2124215280668986], [2.234644314879216], [2.2329776567655926], [2.224671081888291], [2.086687912192071], [1.5888725657153466], [0.9149549092563943], [0.5413834256669635], [0.26098062366029023], [0.12589720464142715], [0.08854721216550403], [0.1647104077279826], [0.2430306032285977], [0.21132941893226462], [0.28568412077974703], [0.2857143497214288], [0.23945578705187034], [0.13414319243666883], [0.0676794574555582], [-0.06890232791827204], [-0.07065520814005054], [0.08748167411751603], [0.3055238049482512], [0.6755806736186367], [1.0566028878179723], [1.4648743568471105], [1.9339837197316079], [2.194259590163771], [2.2171120683852275], [2.2238468091152104], [2.1952408004174626], [2.222266259137077], [1.9759787733288023], [1.4480294742861144], [0.8427400183379185], [0.4919502713814804], [0.25092534354330165], [0.10671033228391677], [0.12472941467980192], [0.21274676785641092], [0.2848167071902779], [0.28103273068793827], [0.37311433324881255], [0.35423727487021134], [0.3443833302091168], [0.290993741581231], [0.10433260020558405], [-0.14974342276054764], [-0.15833449747222253], [0.03751133509875323], [0.3445815372573776], [0.6861916453979022], [1.107375798270792], [1.5803083383935592], [1.9493294140276927], [2.1531326188974544], [2.247349160193357], [2.217765646222642], [2.186032370004697], [2.156788430999329], [1.9315639716038882], [1.303932009363477], [0.8357460924038939], [0.4900501401646071], [0.2714231148457627], [0.1749951585949497], [0.21136729713625138], [0.2563635900232277], [0.29686354749645877], [0.38078727630871123], [0.4048297013320337], [0.36426807841597475], [0.2845589458722298], [0.17309048503159563], [-0.022179483669049992], [-0.2017821585512769], [-0.14813343911961233], [0.09740656153183803], [0.41126165809553855], [0.744278834755737], [1.107790606768854], [1.5601330003663003], [1.9506875745662278], [2.1715369591675415], [2.2131312601085162], [2.228194307702846], [2.2820826279126494], [2.112415498139468], [1.8655398460555963], [1.3313134501428676], [0.7950879474431041], [0.49442828320841303], [0.2342953667258238], [0.1471955475759794], [0.1323212222978195], [0.14932877707002173], [0.21162137688900298], [0.19816557793509218], [0.15313605428892224], [0.18685797527839987], [0.13783346727271262], [-0.002044800766203959], [-0.15263268591516266], [-0.17090164897696317], [-0.07759811634008983], [0.19628058034917806], [0.5026422851115171], [0.8439737997155864], [1.212170052887785], [1.673211178555681], [1.9884140673471242], [2.1963761837299987], [2.220350870947565], [2.2004210586426463], [2.191878907818267], [2.1765797741040793], [1.8395228167568953], [1.2766926695026777], [0.8433528817069152], [0.42003779628165594], [0.20770508357945783], [0.11981668834660353], [0.06057065870974753], [-0.04127413031284865], [-0.007237542610515158], [0.04499816285300595], [-0.015624004962421553], [0.003597112455926741], [-0.09460169770859823], [-0.13281493568356362], [-0.19658322684574098], [-0.0407061323087616], [0.12464926840817518], [0.39641369793484904], [0.6874360210638931], [1.0080175915884773], [1.3419792627113138], [1.781832441286749], [2.0078919190376237], [2.190253391827859], [2.186494575046024], [2.2817615248798857], [2.1383741131173966], [2.189052129508579], [1.8903879318539085], [1.4452407421087885], [0.9536513308162221], [0.5748779096095475], [0.20275957742617715], [0.05483621783262794], [-0.09673746026459894], [-0.0925980859954149], [-0.11205102328962402], [-0.0856169290132734], [-0.14738967657111135], [-0.09171554766355881], [-0.04982961584441799], [0.07352082245456013], [0.050184597738798735], [0.27861555638435265], [0.3860696547832474], [0.6607493526116732], [0.9930601896255763], [1.2711083886084138], [1.6056622969586576], [1.8791928420365789], [2.1478306847270354], [2.229263468158571], [2.1964262975137485], [2.2168568114348584], [2.2608170806371755], [2.178675130315092], [1.9892658168555934], [1.625172982340339], [1.2771389699503393], [0.7729626516908682], [0.41759532040833613], [0.19455879409731947], [0.0038839428646561206], [-0.018321529081932502], [-0.09534747468786452], [0.011231409814971099], [-0.002790704119976796], [0.11432401877141558], [0.23353530611580872], [0.2869757411235693], [0.37908483327231657], [0.5146340447351024], [0.716316510690168], [0.979720518274869], [1.3012131426724034], [1.5023335414362273], [1.82031607759873], [2.0086815016690402], [2.1193184115172157], [2.2287672278818946], [2.215112497586455], [2.189548940053146], [2.260097228003282], [2.227722353738872], [2.166483118937003], [1.9648647660122844], [1.6406428386056457], [1.3320038488783261], [0.9785086239392436], [0.6621508540221057], [0.3735299923780797], [0.27786395828381255], [0.18853269287345503], [0.27741028637217985], [0.30967938736367195], [0.4726255194304845], [0.5670638645564362], [0.614696324784123], [0.7211909386844174], [0.8654917284216244], [1.0924115736579898], [1.3364451056207658], [1.6362535696631393], [1.7833608229981273], [2.023969907507361], [2.1797071483443746], [2.1786021650782312], [2.234956850823621], [2.20629082181776], [2.220468221638607], [2.237264383578758], [2.2446548716440486], [2.1884493504683262], [2.1107372810119767], [1.9911089764204937], [1.8885787128045757], [1.6748245470573506], [1.475855053598921], [1.214422088790393], [0.983099150972558], [0.864236579541947], [0.8456941745982718], [0.8937673960938668], [1.0071185256954909], [1.0237285960510225], [1.0077534005074502], [1.1344764160319738], [1.2600047544098287], [1.4515132524183894], [1.6714418555790092], [1.8559751960386033], [1.9898513024055633], [2.0986152035268075], [2.184015639577181], [2.2493356922473877], [2.253564441957224], [2.2427982451306545], [2.232553480629887], [2.239177501363576], [2.272940348575672], [2.228464415473667], [2.2041848435593887], [2.126458023491179], [2.0350334420113847], [2.0839011900561224], [2.034859575587807], [2.0571297799169126], [1.9776478189234308], [1.9000641982862192], [1.7527554130193645], [1.6997478168583944], [1.7228207883897895], [1.668187716510688], [1.6100081399285575], [1.6532593785985572], [1.6659443252777448], [1.7546617811147132], [1.8998239591204527], [2.0310932979495644], [2.1450267012864352], [2.196994199174648], [2.226530003261337], [2.2194662070409463], [2.2123690946651435], [2.1785416188531608], [2.22114148786806], [2.2253769101799152], [2.2106107755448776], [2.205854522644599], [2.1954395644215188], [2.199113316332507], [2.184567248554019], [2.037425314655289], [2.08406986423118], [2.172042536250037], [2.0902119938716743], [2.1127530830547787], [2.11813490228434], [2.0435693214833446], [2.0608043111415317], [1.9649941846819954], [1.9414479043331196], [1.9617034394762678], [1.9397790139261468], [1.9978433567957263], [2.0913864216347], [2.2084350939358246], [2.2087371938493208], [2.206910071280673], [2.264099996787711], [2.2070086248809138], [2.198252619796916], [2.218057017384256], [2.2594474641882534], [2.2266573141653967], [2.2486032598765444], [2.1942609733104224], [2.2097630214064012], [2.2206323516592037], [2.176057697051982], [2.2206476374900346], [2.1861154576778117], [2.194318258810387], [2.242852642828348], [2.147059671806424], [2.1450688944766707], [2.1415673194346585], [2.1466547869712627], [2.088720372349381], [2.113967320616354], [2.1993003660405623], [2.236486908092304], [2.195452007592555], [2.2535671575766156], [2.218390903124538], [2.2471564367128787], [2.2350182194639094], [2.2013382672878534], [2.210472656088746], [2.265425653866964], [2.2645634888430592]]}, {"type": "output", "nodes": 784, "activation_func": "sigmoid"}], "bias": true}