{"name": "hl_2", "layers": [{"type": "input", "nodes": 784, "weights": [[4.008796408251695, 3.6860247677387896, 5.7478146239504335, 4.403190513386849, 5.285440519036761, 5.473913354167768, 4.791423445420045, 4.8764533430579435, 4.596774696245656, 3.8645495916163, 6.445709190217982, 5.557427164967181, 5.279613310298183, 3.298229291147736, 4.256792808124485, 4.295660490035684, 4.1058186631693525, 5.372653412534157, 4.898476940985989, 4.897341646219295, 3.147221930479833, 5.18433231033901, 3.9091715489346814, 5.585946246841957, 3.710831386257686, 3.6322568389336167, 4.22876438473734, 3.114012088693255, 4.129990085858062, 4.031074461109671, 4.0291701658961525, 3.5498369679765727, 5.137271148668212, 5.65177427237625, 5.450069571283147, 5.452336696419843, 4.912748584146839, 3.5904144602028967, 2.7902524908974993, 2.303127925819153, 2.013856433693329, 0.9590182823328063, 0.20666346432592922, 1.87928689468862, 1.815760394454298, 0.04745448165216057, 1.1879021781106822, 0.6283665142100919, 1.6228988104962887, 3.0700404920029496, 3.2334597717481905, 4.559135785013295, 5.784407216987689, 3.8198859528308207, 4.9122837452960395, 4.494832281235349, 4.134071824336231, 4.2461999309006275, 4.594510160501871, 3.35311855634707, 4.132508699737686, 3.758702388812816, 3.7629930946929306, 3.2525387655183935, 0.8008400337385386, -0.11681498511065849, -0.2533499140403582, 0.008008955953551165, -0.680987317054082, -0.05530509403680168, -0.43622357055744904, -0.2667351459489328, 0.23559533492304716, -0.2411188989758515, -0.19943958358599637, -0.19680273527598663, 0.04651425807241388, 0.0672773088566925, -0.0937466055463961, 0.7336055326720846, 2.0287409128108713, 3.3669457568282377, 4.963194628985726, 4.807885251057381, 4.319622910085868, 4.6204092885549555, 4.150279045886684, 4.431148191786755, 5.0162922804741426, 4.36222019221523, 1.1004767905235942, 0.17071326460542943, 0.7890953845085991, -1.19047835938603, -0.5603200727712486, 0.24658587712283828, -0.20414436746945983, -0.45849341592368253, -0.046761828528945934, -0.28141656037508866, -0.0090916335777183, 0.24420824992476164, -1.4361729606651137, 0.06512326509559692, -0.091662456502571, -0.4741391179632408, -0.3131086683406547, -1.2881662892605226, -0.1478951855294348, 2.512843779566563, 4.731387995403067, 5.218543704941809, 6.157768382599559, 4.430819890161203, 4.8720138094095224, 2.645554539495123, 2.171333482460433, 0.20764446257312633, -0.1935935933488709, -0.2700741024956431, -0.9070029263781321, -0.0932177243638031, -0.8546710632979975, -0.701667567070208, -0.6662815010549488, 0.022468395307616313, -0.9730913837644741, -0.6059383521185105, -0.24956400135497497, -0.39332374027443856, -0.5152460341671493, 0.6093863655483459, 0.639508928094466, 0.11100894192457371, 0.045255408211746145, 0.12044405300767043, -0.25042446108295235, 0.834502942293804, 4.0633207823954605, 4.230402274982052, 3.1112482619108555, 3.9549296849992315, 4.7092194590516065, 1.5039218255788047, 1.2438812382778635, -0.9267545005480616, 0.06917847454525508, -0.45659299827783373, -0.9094096597217093, -0.4502131397882625, -0.717282685083095, -0.8103078661802472, -0.5116070849411414, -0.11295545789417943, -0.9977527115857736, -0.679377665615865, -0.3188254882647672, -0.06975524306357259, -0.16271913181281714, -0.6899284497264894, -0.29350642572664043, -0.3643988269658462, -0.013419318282268614, -0.7400421540038448, 0.5453806427689244, -0.27166816943185124, 1.8329478666349994, 3.640229372411271, 3.5667145626293744, 4.507936625717416, 4.174492536663861, 0.7865088120109067, -0.3127441744388566, -0.9463118747815501, -0.021479777925972103, -0.27902548564651597, -1.0775265342596652, -0.6440801300200004, -0.46300387004367977, -0.8947052347494335, -0.47384562567116856, -0.897160256892075, -0.023999362521816985, 0.013780950798626313, 0.26311155107542916, -0.2079032705910426, -0.43401678088174134, 0.05971850567472031, 0.09751044309254327, -0.2897624233225271, 0.29074596530718577, 0.13915405610629714, 0.38338248100812167, -0.6820950327162489, 0.7852523030403776, 3.5658124498643904, 4.238383961025672, 4.115138031808735, 1.0374560359703655, 0.5475758690453024, 0.5168410209374883, -0.1844378989931049, -0.3224544991018681, -0.021146486651048176, -0.3248194268991676, -0.4217909107213134, -0.4762766170047448, -0.34484912571399806, -0.23646338011527135, -0.15546970521564257, 0.4504633510773956, -0.15470941727879436, -0.15252266095477918, 0.25742550625353683, -0.10245179649665401, -0.0963927157972745, 0.19267287006426115, -0.24983871698355378, 0.5681514918735205, 0.034045578230127306, 0.20973208508160296, -0.3736571461905996, 0.41801188203286854, 3.7638274158103058, 4.817740131703079, 3.5541097310485825, -0.8218875957833641, -0.8799314044889518, 0.5150728406408952, -0.029399174039069283, 0.3456611992711484, -0.2502844302634028, -0.35180311941626263, 0.3712444891897512, -0.40514323227656673, 0.08072454410468692, -0.3378292090995008, 0.05391282516696369, 0.7565725547319692, -0.12714174098390185, 0.5136172484716975, 0.053884202837188463, 0.44681165564967956, 0.20650858814542478, -0.3596746238701224, -0.63936395178532, -0.3015699023500273, -0.03224207778991832, 0.44267138739048556, 0.4447879246647636, 0.5747160101252226, 4.690927065714649, 4.751099000375902, -0.5120645806158519, 0.027477756394818736, 0.34900294822998434, 0.6157697328836259, -0.2988764412138334, -0.19983518575850223, 0.34273751992003715, -0.6169090253105154, -0.2376901667155269, -0.4792032477116932, 0.33027623053000854, -0.011288986012127961, -0.12982134802567777, 0.4986922082383048, 0.32655971723764954, -0.18467991357272284, 0.10859671268849719, 0.8006898615572755, 0.21039298089724448, 0.6466032481193268, -0.7458405962529334, 0.06027734077973477, 0.14585378810236643, 0.5213833955796603, 0.3445878961307115, 0.4311291387582585, 4.764675239487161, 2.78754372079909, 0.04933497060598799, -0.09460944832328987, 0.6896797787275563, -0.229090628858758, 0.09962704639597102, 0.3834840274332592, -0.17153686418779318, -0.35683347779209645, -0.3166746355588058, -0.5747961322864651, 0.21145811431544087, 0.17715185481010462, 0.3598243951593048, 0.6301829209492664, 0.06099599567621122, 0.5313682079538827, -0.5199712084635115, -0.1392274904918752, 0.38962433935140256, -0.1268085530888273, -0.13152483391770833, -0.2221628479593467, -0.3928725505215589, -0.555099169313825, 0.11453320681485364, 0.3396887334983465, 3.707173508914205, 4.97164049343566, 1.4868715924473022, -0.8006796328432173, 0.18989319814266162, 0.9135320759504956, -1.081379017648547, -0.26347106570045065, 0.5023302227177489, -0.8623573949427804, 0.19495286556064376, 0.9160392447400294, -0.3413486662685999, 0.11237552940168229, 0.26467582054324407, 0.31455729141782424, 0.1776901575473486, 0.0029654656236666544, 0.32784760898682197, -0.05631757333076909, -0.25175989632122175, -0.02305475728666428, -0.25488319201700854, -0.05876046672537964, -0.08768758420729111, 0.34204634507293885, -0.041072833552754706, 1.0914753253181764, 4.086314167071621, 4.1272023266391304, 2.2673816659345483, -1.6119540907176706, -0.39718841917680864, -1.0025428370238587, 0.6546612895675876, -0.1468400457002207, -0.0565793378095143, -0.6551329055927223, -0.7331696879903685, -0.2940679881746119, 0.14304649616572773, 0.22470078081330588, -0.3450385950580329, 0.6894307952075943, -0.21053114958423508, 0.539336911141506, 0.310531615633682, -0.12419725298696727, -0.09891170322349838, -0.17124665852317766, -0.7078930070713895, -0.6864745706229892, -0.8807350571199947, 0.43036752543833007, 1.0121863294456719, 1.5206120094676483, 4.168164075793496, 4.838765204376403, 2.5405299543834685, 0.18746457650003642, -0.4361856945388003, 0.23111224783269887, -0.15458807826129645, 0.04680608282798195, -0.3180001401243256, -0.6442898560031027, -0.5703721217732663, -0.5990610118087031, -0.3880858456580129, -0.4077769106096962, 0.1664337673441687, 0.4267902885753242, -0.03984774093893198, -0.07434886455803595, -0.3851812444459363, 0.44736003787279904, -0.8206634276576397, -0.2838155095251715, -0.9761653866941874, -1.1245014749270643, -0.769996353323202, 0.06874805451732378, -1.3873435651721848, -0.008478048898644635, 2.9241618952536177, 3.5640118177505142, 2.480318619458483, 0.878740007172115, 0.7999019622700768, -0.24601324285044868, -1.3789494297083806, -0.6077788401967843, -0.5934989666084313, 0.2517211650616782, 0.07574020946794448, -0.08391896151139439, 0.3233068912688955, -0.3045061433991844, 0.39731227799562985, 0.16086265199377328, -0.18973449145996915, 0.001439549781918849, -0.5024008650218812, -0.1457335557133627, -0.11957588875336016, -0.9410625644693553, -1.2269152773425898, -1.8239581858488911, -0.005343557628967488, 0.038973023955115475, -0.4144307473432623, 1.469641276700879, 5.130780932354641, 5.191294652230101, 2.83476383867323, 0.3469242914657773, 0.5954196651351291, -0.09815961914101819, -0.5331739483951767, -0.5208395159704023, -0.7801448841811107, -0.31486346320766134, -0.1529658394155084, 0.02677162382847856, -0.24464935900093726, 0.12904095057308346, -0.2040853695233419, -0.23747636156456942, 0.21141085737724777, -0.32778739163994675, 0.04060076804157373, 0.23576855480476316, -0.024264334026845077, -1.7098978680190087, -1.1806919105168363, -1.4461695764054976, -0.9181553449663296, 0.691410463938737, 0.2558534127122715, 1.530716910508565, 3.893995477682829, 4.915658156278148, 3.6581846711629886, 0.45238217097063926, 0.3425915079031373, -0.6204210096578909, -0.7114781753897418, -0.7101072832364458, -1.2087232202404405, -0.7505751068752857, -0.8524223302084252, -0.49271138279790533, 0.1873705193072595, 0.23517776185917508, 0.42162712933320234, 0.2835093147477784, -0.11066561478303412, -0.19769378632321005, -0.5870694394325686, -0.10215972425149059, -0.6528827121986357, -1.2936172471603788, -1.8618159863309485, -1.405312938141718, 0.6228961504312058, -0.5160292017155451, -0.6487506134769114, 1.4722504303435233, 3.1851644633715206, 4.96664292188099, 3.7554757163184385, 1.7426422985437768, -0.5478375952984272, -0.04577642985101262, 0.1778327022132323, -0.33676292660820034, -0.5434169631710296, -0.37305952202925574, 0.2821833517773086, -0.7288442968615954, 0.1960039092373131, -0.2527674467655831, -0.06754010571680126, 0.11933905477167067, 0.05811811400446318, 0.6472043441079354, -0.07267653603684615, -0.9495110225970151, -0.8474861243376597, -1.9040379982381799, -1.926906330133552, -1.6692399777447129, 0.01560592403372312, 0.41765755018230805, -0.6638498386169576, 0.8052009425285365, 4.685772739578303, 3.7690762130622653, 3.8761142371433617, 1.163261247058115, -1.5964528441466634, -0.25403952752659476, -0.6648484846099635, -0.44568830673435766, -0.44415463635247904, -0.5357473370377424, -0.20577797392872166, 0.004692722827967151, -0.4464000425956211, 0.03663428742439446, 0.11133372876950934, 0.34666922824340396, 0.5458321151400001, -0.04458729545428993, -0.08512037216915576, -0.23998126361949812, -0.825332955429332, -1.9731215936771491, -1.8642524412169628, -0.9202106732604229, -0.40420686683629437, 0.16197548491445038, 0.18196896279544852, 1.1409540735244044, 4.122695934281228, 4.547126663999011, 3.351625908234848, 0.11081335894300846, -0.6856791721598755, 0.3570184733232232, -0.6628370843155975, -0.5235123317187552, -0.23188622946459428, -0.4572077930488124, -0.28352001374207686, -0.07564785408491101, 0.15739694257947714, -0.3977924928475803, 0.14547101794976647, -0.12446504919941818, 0.4447036057683239, -0.3880652159403538, -1.0084661194427629, -0.8095810123441685, -0.6614257759633827, -2.163659317276723, -1.665863695676917, -1.1898116989151974, -0.3286130265807231, 0.6754725250209663, -0.011451756754179114, 1.1200323686175537, 5.05924519427309, 3.722548778867223, 3.0064240310997823, -0.3900520622490605, -0.2920720294879419, 0.10730045105691144, -0.2704373457651225, -0.8542502363337328, -0.5345243633185547, -0.5742937685824844, -0.3247362120519609, 0.4894473521768566, -0.34643255080976276, -0.2677629716297035, -0.5328992851249982, 0.07521958464554156, 0.1907992401600166, -0.5970552613922443, -1.2729164741808152, -0.6708098196495583, -1.6763207558373368, -1.6212442307940909, -0.795132842678391, -0.29963621692269554, -0.857117242589714, -0.359721408030205, -0.3840918969818347, 2.3988290130664347, 4.866859134694679, 4.997218862171384, 5.061975941987485, -0.7032216812719039, -0.773022250286818, -0.3849836956229756, -0.9271184269016629, -0.5050207215661464, -0.17143980987103521, -0.8531293963434435, -0.3220070910683608, -0.3396109523268508, -0.49770830731495846, -0.2103687144961419, -0.06862470863102345, 0.29910175520545074, -0.15885386061476592, -0.35396631249160637, -0.5901798732327285, -0.5611349851742965, -0.9265047621907273, -0.8329310480130905, -0.4895703991240352, -0.9412927366081334, 0.4485319544978417, 0.07241923990058743, -0.47400123569209063, 3.0830031506266606, 3.7197618909992354, 4.957594684042044, 4.229225416214971, -0.7314830657685158, -0.5149766202182946, -0.4162439197735101, 0.06838196604920589, -0.8127648866361586, -0.1751251637864124, -0.33475468069685754, -0.10494145810654751, 0.5968570303795068, -0.2000115315686445, -0.06858860420623612, -1.0898437489041315, 0.16224054405201876, -0.4396189053917707, 0.6167060426287347, -0.26805926916873696, -0.29807740642350594, -1.0100812099893204, -0.5894290297018047, -0.030453552141484173, -0.515709301253636, -0.5885323720841169, 1.002673393264548, 0.46436899364354833, 3.1064996191922343, 3.9561806537998105, 4.746089903010685, 5.2508073649067475, 2.4055343323318397, -0.8669482187995788, 0.18272659306903763, 0.12961530468640747, -0.25290476011300866, 0.038904622242733736, -0.2239776121680055, 0.32625529755442834, 0.43247537406773745, 0.7988159191773121, -0.2384039569859426, 0.3947778656967666, 0.5882893973343027, -0.25034472092675225, 0.17145719523940442, -0.07923697845942844, -0.7257962539255248, -0.10312778046112685, -0.15410838730073537, -0.11189078883508016, -0.13857784905063306, -0.8191419613556072, 1.3051140460514246, 1.6007853945687238, 3.394839631175861, 4.426985278158884, 6.113091909904312, 4.694698548854714, 3.140988025774071, 0.4583721412289225, -0.2598993973622948, -0.1553176130153269, 0.05967584501878112, -0.3108267686816367, 0.22475194588256023, 0.39348157212685525, 0.15542413353658174, 0.27406728738792907, 0.6338188517934299, 0.41174145635333526, 0.1515347879242237, 0.8293952137045734, 0.005853579462824918, 0.2610174537259442, -0.3214799219252206, 0.6083898448562959, -0.45447886627272593, -0.2922006700129388, -0.23276422458474846, -0.012195704305332507, 1.8760122149285814, 1.85882191488601, 4.514775156892046, 4.764134333612964, 4.245514164536034, 5.128220096740059, 3.759034294959916, 3.7753345251304276, 1.8700128578914383, 0.1274860283481697, -1.18836521804481, 0.6684895218116239, 0.23873904487753222, 0.44649143463086893, 1.2946600864995457, 0.5072309543766195, 0.6873395476353639, 0.6408562048117891, 0.6871172873422922, -0.37255162665989644, 0.0006575416296618102, -0.28305825630612474, 0.39377851188560886, -0.2788623035415385, 0.05485448689442727, 0.03200037775694621, -0.09240927690116091, 3.8917734684825143, 2.925249212531654, 4.729558178586516, 3.8103093640196697, 4.8180845367199785, 4.391986939358881, 2.999693306806388, 4.853619202901492, 5.6612266728652525, 3.9061875121317553, 3.3468227157436763, 0.11709047179235044, 0.9493406815181076, 0.32336417393104333, 0.07554499248028466, -0.009942019895363, 1.3403239532152926, 0.704254026906276, 0.6114717382563819, 0.6403150203945299, 0.5898624614518777, 0.07134889968374228, 0.5130907571951129, 0.5286334185865788, 0.2655412322827994, -0.13404348116056422, 0.8174964956624386, 2.0753159732680873, 4.663281052352829, 4.891125419319966, 4.824424664114935, 4.511641811752384, 3.4207937242258097, 4.910602091655936, 4.451965534046374, 4.532914560956315, 5.986658248958141, 3.852092798648506, 4.770455190116489, 2.9026560961623056, 2.5578135812775193, 1.6128766395914331, 0.09947538517478322, 0.8291326935853269, 0.7055348657043865, -0.1516423704690167, -0.12291414298068137, -0.007498697700001107, 1.4574509441401227, 0.19129794881251214, 0.4389139229641046, 0.4627864502351737, 2.041440975562382, 2.2109122845427156, 3.1630305216192287, 5.111066687481585, 4.285866166538102, 5.572160645348213, 5.320725219672332, 5.047243720646695, 2.6528662397151814], [0.4900563099951422, 0.19380138745934405, -0.8332821708016594, 0.661043437935853, 0.3493136752264984, 1.4449627626890502, -0.5128172734896105, 0.5438943745317294, -1.1399079687187026, -0.12168237274133102, 0.23602751737616523, 0.057447779932680146, 0.4820107228140611, -0.2844446162008616, 0.03270001401920903, -0.22423447079693878, -0.913403331829921, 0.19213234259129153, -0.6041880733956472, 0.8384163689930637, 0.8751428105309825, -0.26372615702267954, 0.2960052162768696, -0.5177585790018395, 0.3415079763299553, 0.24181656846561422, 1.8881386579903077, -0.6514742285861929, -0.475882490409551, 0.8054083913327529, 0.6154963082151803, -1.005967906378335, 0.9236066084589822, 0.38222370993939747, -0.9277535835829921, -1.133263062127895, 0.5131557485906593, 0.37454673622693047, 0.07967785984574298, 0.12169876324907067, 0.2792845497297592, -1.0507830230981243, -0.20776634543601918, 0.20377640556884807, -0.526529365192694, 0.3779751279971867, -0.14136109237134833, 0.10214848409701789, 0.2573608973884247, -0.23993784807743115, 0.11311965914838025, 0.3631222336591611, -0.36198190933535357, 0.19641914861365256, 1.0347933999935175, 1.1978252437480215, -0.15362579766291196, -0.3496632278178102, -0.7677043533646295, -0.5079475038684867, 0.6567054740437315, -0.023792477640822922, -0.11933828505489373, -0.6242688483367886, 0.6957947550812428, -0.14315947700912382, -0.44473026595012183, -0.39172757686773185, -0.9900575012126948, 0.15980252858614954, 0.8694132940571622, -1.235610548470705, 0.11405125981010275, 1.0390756059916062, 0.33378214376295573, -1.2388136613035523, -0.20631875228803936, 0.4521233918485793, -0.8375985548616891, 0.6647419825693194, 0.11517361500745281, 0.7325193118267888, 0.4190917837946798, 0.5771971971548644, 0.5399262638575247, 0.5706400605454481, -2.4662129753185558, 1.6481041507572944, -1.3402031423351382, 0.7095436679057656, -1.1799876396038784, 0.18337224759700219, 0.19386544485485482, 0.8017268964960598, -0.17909679005596146, 0.5624454798645792, -0.8737118746839962, 0.05540187984674609, 0.08928661058094159, 1.135000297514866, -0.4569200023260176, -0.6291007001109028, -0.3457042229117635, -1.4772639435809538, 0.449486953165459, -1.2548084279925402, 0.626251285434249, -0.09839965624761246, -0.45396728347190385, 0.2791414790882482, 0.6427007230097757, 0.49134460452623385, -0.5841717237301848, -1.155076982111205, 0.7551708996826854, -0.6469974164554103, -0.14652852523989474, -0.5669450752359072, -0.9140047119625307, -0.8382742535214186, 0.2771428611858571, -0.3610721463173143, -0.701020282499058, 0.35539024854844753, 0.1281111496586209, 0.37803493947861005, -0.12674712915621028, -0.8351175558245922, 0.3319478186009543, -0.8616479365226261, -0.06490363832507247, 1.4060499668679645, 0.17264128011393123, -0.2740212061541098, -0.3967671829194903, 0.29942075899157033, -0.7012765192506617, -0.6851547851271368, -0.6830166810358524, 0.5721629374690553, -0.8523267875620035, 0.16992840154907662, 0.8309689220352776, -1.2134197801221904, -0.054508786437810264, 0.608686762350349, 0.2717291680233346, -0.5905504503562157, 0.08194576449456369, -0.5110524304079006, -0.8545047023984935, 0.07646739869825156, 0.11830385290362017, 1.0306036282799607, -0.01565591885903955, 0.6838007752968353, -0.006597814151255979, -0.7215053353395362, 0.20295174444790767, -0.18519140418136876, 0.8663956159135332, 0.09850698522775858, -0.527730403522608, 0.23892186166923696, 0.36347740810362666, -0.27246950111401946, -0.14920373360138015, -0.5079521491534718, 0.33369810732458743, -0.6128714171446661, 1.164261686409468, 0.0506709738080685, 0.5724397968998884, 0.8934837389970095, 0.9013148032355243, 1.0085719235990454, -0.11921180507660362, 0.4268213562205135, 1.2336072752848795, 1.371979636971682, 0.45381455322266795, -0.3601876189625939, -0.34670697058039196, 0.8422379808524321, 0.36017452060786403, -0.4769293804289729, 0.2707843377980508, 1.7349418143880901, 1.9406556393845005, 0.578112277367115, 1.3122506369919271, 0.41345426726794093, 0.48165305590476887, 1.2269073810585491, 0.33943684884428144, -1.4429243921177997, 0.28934524918911164, -0.7454186410935456, 1.0514563871753233, -0.6796501861997583, -0.03130012501559428, 1.4973812373751392, 0.027545032827827838, -0.10454360409907339, 0.011569147194444252, 0.2350116335142469, -0.6247284442065235, -0.376989070561769, -0.1900983793527659, 0.12553131868261472, -0.6137952800376698, -0.06135780351304976, -0.5244857568924483, 0.3597706174631551, 1.8078385126362668, 0.35371206812512923, 1.4029984830750972, 0.8844041409311739, -0.5526808437438543, -0.72264635367324, -0.46712018268002675, 0.12801805055249343, 1.0178682700640087, 1.3031238329408288, -0.07421001900577252, -0.10588984591112605, 0.2772222218020262, 0.23303460853558933, 0.6244250975746086, -0.4577213848070358, 0.15821492660428102, 1.0392240137690052, -0.18515302621799984, 0.37838122523230977, 0.32524910640993876, 1.322333541373983, 0.07590901167480532, 0.3271812646474146, 0.9335077248973476, 2.5296603269171705, 0.20885618383056231, -0.6878319914165937, -0.4437588169437397, 0.13972752990145756, -0.5423393260608305, -0.23961659811076005, 1.3503460429709646, -1.0272646408076802, 0.6061858896357392, -1.1949632679013353, -0.160266289684563, -0.003173525758090988, 0.13195481202912202, 0.05186360646388193, -0.5652301819321074, -0.009668730097998492, -0.10039339308231209, -1.1883145677863327, -0.708719731870846, 1.5599015316159384, 0.08593240285235139, 0.2136534292563452, 0.4567527345726962, 0.42536768110487666, 0.7191150472805485, -1.2058675962890333, 1.1317339885337738, 0.3426224859255234, -0.7677573238531487, 0.6784963392019742, -0.004224796946698552, 1.023592079820847, 0.34555422402829344, -0.6729858027547273, -1.2984252645056678, -0.5132346153474341, -0.024719310036554493, -0.3218713660587254, -0.1509487247919365, 0.28992389928466034, -0.597491975382357, -0.5936685630580247, 0.5332143312458947, 1.3895831231331612, 0.8362828871713333, 0.5835155731528676, 0.18202579517290832, -0.16558021147585658, -0.10339749975263554, -0.24328158811518755, -0.30538510694600807, -0.7192739669204032, 0.8211170153546654, 0.4887457984233343, -0.2641489407946187, 0.67986541046147, 0.8882633961916383, 1.274553811711564, 0.4678117424612035, -0.403894231745207, 0.9599583955710094, -0.2485723969332018, 1.5647621864746206, 1.0039876550693003, 1.2847094512755075, 0.11744420367298018, -0.33186107657710223, 0.6655601093652678, 0.3128016588713237, -1.0502250333040555, 0.17745715862623918, -0.2846460449948827, 1.1567570495189208, 0.02473606467706135, 0.07391322382457335, 0.5758985113386109, 0.03783445610295295, 0.45327129228985635, 0.3382844536548565, -0.13845570476671643, 0.21091607243746532, 1.4167292008969383, 0.7639927112121107, 1.104161151898016, 0.4345063528237222, 0.19476596444076574, -0.2804095242242012, -0.5348511009619208, 0.07292253673563677, 0.9195074133052304, 0.4956190408050777, 0.27818693121829685, 0.48399499707402605, 0.25064456562821424, 0.3359648842407987, 0.3752588775871449, -0.39326294469122564, 2.166554895452193, -0.39257649254325133, -0.5482636730757527, -0.34280437929438146, -0.995936036227151, -0.17516837533098586, 0.33508544132609763, -0.8720646619551276, -0.4840025527636994, 1.7757988188634835, 0.7201397660759801, 0.8906146793090884, -0.1410775522350594, 1.5158831643166395, 0.9935835794057833, 0.8864710216862425, -0.16084063779599736, 0.2395328993795969, -0.5358141025157601, -0.34225753318467084, -0.7232077255600153, 0.3329802510247099, -1.3446480544342123, -0.13419675680826826, -1.8195747295649316, -0.6642084030745568, -0.831014162203575, 0.046381006220996425, 0.8464619086290218, 1.2586862165847137, -0.45110023076535777, 0.8565303087787459, -0.7578351007014277, -0.1900719535377122, 0.4776290341384492, 0.640481855005096, 1.4029416820614675, 0.5918159347357574, 0.8823516445761903, 0.5793599362818751, -0.11902118320095677, -0.676009864762835, -0.12226835498394327, 1.1163298245666928, 2.0247417795456286, 0.9521000328473401, 1.3598026131587029, -0.2536998341658792, -0.12376192340798062, 0.13774957836241297, -1.3304139281562677, -0.16435035691954886, 0.3708680616700022, 0.4842242304802374, 0.2875411643694547, -0.6784491524997178, -0.3022210823439223, -0.6449442480541168, -0.2853190854168312, -1.0116099475521803, 0.5208280723652016, 0.6164984130726558, 0.054971707595269065, 0.11599321179359803, -1.4752986001796784, 1.3510104069485824, 0.06150645984039601, -0.5233439556992295, 1.2269100007162357, 0.5601322487940696, 1.1932904895038015, 0.03254574545381303, 1.1485209685529243, 0.7983451296312378, -0.5793600030071744, -0.6052992915056751, 0.8990650519121768, -0.6164114570936754, 1.129365674749692, 0.2634113453167128, 0.06251650956994736, 0.6192722330829892, 0.20464515288872004, 0.7930213365045535, 0.6368819460693086, -1.034945607077768, -0.31105871328490853, -0.29144575482650853, 0.8157093760349656, -1.0207208280538136, 0.4584042277043399, 0.8300883359392991, 0.8006496332284669, -0.30896425772343594, 0.26764938510437086, 0.99925958230089, 0.592573500184671, -0.19495417707551796, 0.06542235283747386, -0.20469683108865733, -0.23392904497884262, -0.06006174717575032, -0.7787784859942303, 0.5350591587091565, 0.2546271372653926, 1.279406824017806, -0.7080595586514081, 0.0864851509154114, -0.8493490393567408, 0.17933473075356987, -0.7290669145153598, -1.2701083068562127, 1.0369533534767787, 0.2324776723363152, 0.6738248095547649, -0.7684670274465436, 0.29851826854329677, -0.7769012213637836, 0.21474425416060292, -0.01524481581295051, 0.86710873226171, -0.45801091317650167, -0.2871603954567074, 0.2969611098777705, 1.060851835353633, 1.7177544889945062, 0.8317893773971164, 1.471207693767123, 0.7539231228741675, 1.1315037149451799, 0.8817122627408732, 0.8384611984026463, -0.058342028007729335, 0.8454103016143942, 0.6138678685512385, 0.2839342593476542, 0.7017866533575788, -0.9603204521697132, 0.5192595446093166, -0.23991639187083835, 0.25481622677347593, -0.8306999167086058, -0.45257396678901524, -0.3509183415820807, -0.7023362962668783, 0.1508678269249843, -0.4462569165597526, 0.9254408663272538, 0.6942079322150198, -0.5718073482528547, -0.40885074369120317, 0.24445348636634953, 0.12859638157306874, 0.7655552022676579, 1.7034782213874988, 1.7764299235581875, 0.7845516526576377, -0.5906037465643756, -0.1509511827272214, 0.14445151801652448, 1.2731297115234534, -0.4219051772089872, -1.0199271016742641, 0.3350832160778748, 0.09659845540826935, -0.07923682921005186, -0.41911643677730426, -0.2152825281173789, 0.45124369997593444, 0.5372545036050743, -1.5235287031398974, -0.35153573625497037, -0.04829793831934833, 0.3405071727799907, 0.04615810803299998, 0.9216482145083389, -0.04394051792736707, 0.008776416067625699, 0.5520929318055592, -0.4302526124799672, -0.3859630173631014, 0.2514927535380276, 0.8313127457324542, 0.14875597570767385, 0.4539738583275232, 0.3396681793574221, 0.6872905390847006, 0.43857877506528575, -0.7866293603377293, 0.2157358836913478, 0.15105206269963617, -1.7822730201703068, -0.9228004369903477, 0.6460885388975843, -1.4800907497172648, -0.7643245705364897, -0.06600237965058678, -0.9109336321264102, 0.16778934010370272, 0.2736746923667054, -1.293291369362395, 0.26060774782415197, 0.666536086146747, 1.303480967579329, 0.9602515208529436, 0.21068919058801544, 0.9604439393927485, 0.4008204194223432, -0.058686366767428666, 0.7102216432177754, -0.7118233113352541, -0.7741502088521282, -0.29559673400316216, 0.30422904993456945, -0.06038299984003686, 0.43328865826033375, -0.18851865385926253, -0.22438232267574904, -0.3590163842130041, 0.034588965319967274, 0.49248236324932043, -1.7148775764343167, 1.1981993558540711, -0.12232640342309141, 1.3650288259447614, 0.1560228093131032, 1.1887086043283446, -0.21650041131929862, 0.059486669755082884, 0.12084689063661518, -0.9437843272015627, 0.7602743227031927, 0.9700617883176846, 0.5670978426164569, -0.06554147326277823, -0.19848071080566165, 0.4113929142209453, -0.03982289805861526, 0.31503216537748885, -0.04181995505799084, -0.015452522076098416, 0.6930102613668648, 0.4405501887308684, 0.1864807209339723, 0.122343206690183, -0.17818235379885525, -0.5200532906366422, 1.5776635103475927, 0.3543312841434454, 0.06127770785888769, -1.372664203741856, -0.5561502353166029, -0.5384511430721447, -0.002855848405216435, 1.0481349814587884, -0.3773791756338243, 1.2402739738177448, -0.0010375194490874215, 1.1717738545276761, 0.06346552347243398, -0.18351551993159565, 0.4304896657785098, 0.058641625670493185, 0.39188343660486225, 0.4487288191094121, 0.871314922787919, -0.03296005569843961, 1.1880264592269958, 0.3381432573944678, -0.9160203939445852, 0.29619358961542097, -0.5359194178143105, -0.7066245732388525, -0.6081662760755512, 0.14679993661820961, 0.6175022755432215, 0.3246010310276639, 0.403057984480766, 0.597578753858314, 1.4675384095464108, 0.8045120666862019, 0.18587167874644323, 0.27301268029468534, -0.23581279089772553, -0.6726977688988971, 0.46074274939400267, 0.02805408971389635, 0.4375339640082897, -1.0853973673625523, 0.16151347802425534, 0.19538212306574484, 1.1527204608036838, 0.47733243364990613, 0.842897834873489, 0.0844901191480969, 0.18345534995133733, 0.30760617802320217, -0.564690030901188, 0.7759473189945048, 0.979209973120511, -0.19124299174777212, 0.3430787951950547, -1.0169887374250066, 1.3622922556936425, -0.039087653962025716, -0.069866399009096, -0.9562271462036493, 0.37798789758095375, -0.360470734188265, 0.633793773343545, 0.8590507679295685, 0.2107329495290891, -0.06624092696305876, -1.5578253398745197, 0.40367481980579484, -0.8459770813817435, -0.5122112469340514, 1.0568004359394367, 0.5020447654593697, 0.2988855720309741, -1.1599887384004284, -0.05062186042059268, -0.45901187992291476, -0.7054976204915006, -0.31193180341245874, -0.31269962671691315, 0.4363268179148268, -0.25561436465805704, 1.0324653766061325, 0.5180476698458049, -0.5611506950330988, 1.3988566783960696, 1.064951801024916, -0.04587439432136548, 0.20536234366281508, -0.2323784814574777, -0.526746851961844, -0.4082445709141586, -0.9018632652793391, -0.6784593975161987, -0.5470052993820853, 0.7344994223292456, 1.2610255384477769, -0.756745993881405, 0.31965012535425974, -0.6376819234723443, 0.8744493928700119, -0.3524103221353818, 1.5551623708346847, -1.1727389315429018, -0.4026539042563818, -0.10797654748486125, -0.3342032201436054, 0.2982376169829948, 0.0031893592616874912, -0.6303262742830322, -0.13298120473979275, -0.5174279043960026, 1.6175068343813928, -0.11095124094885758, -0.06313366850305448, 0.33479433780383966, -1.7046414475853489, -0.6768816769009023, -1.0642875081919878, -0.48518815567973733, 0.27855122789331904, -0.8915123843779982, 0.9361776160359465, -0.6806330429396694, -0.7337342757343105, 0.40884999851997006, -0.5797121241465435, 0.2876986886482742, 0.7827344376090599, 0.2687863719498743, -0.6462190189107899, -1.1026455953292273, 0.4120511228105773, 0.8511267407532223, -0.050838189254234965, -1.150291422538418, 0.7895976944622832, 0.6366774117628596, 0.18975078168904247, -0.5495012684887374, 1.4711279583741825, 0.5042919334807243, -0.4539145490777879, 0.5640518402970955, -0.46175358683677603, -0.4831929726004795, 0.6127438506886069, 0.4398780469126236, -0.7780374542954446, -0.7925005163193517, -0.34377144548835226, 1.3642780586283103, -1.2796840053347072, -0.18218551289029056, -0.5560375093475247, -0.563526398315971, 0.16725113061380303, -0.6617087008909905, 1.2878399300823482, -0.06421958215845969, 0.4484744329211252, -0.11569440664702685, 0.2317999138997186, -0.768401503731716, -1.5438452603739066, -0.507207661334249, -1.2369298496092294, 0.2697399040934354, -0.08761937234468661, 0.5324140117695432, 0.06770217486013201, 0.4371324662037253, -0.486855263936848, -0.39922286186432715, -0.20614496563163104, 0.0787526799564048, 0.19345542346146305, -0.5330136077474023, 0.026893002950906374, 0.3475930010128625, 0.7341275773965433, 1.146572850620632, -0.5595858771278039, -0.210362017048212, -0.4825524407271654, -0.40511098442928345, -1.546440497269515, 1.1411507379320274, -0.367259400300925, 0.14017751478253995, 0.24808888334381196, 0.7778502712965998, 0.20326218547458896, 0.02859064398748184, 0.18835293124253766, -0.08951806175173525, -1.721108063126297, -1.0217010121254648, -0.26701574806935463, 0.9145675909957103, -0.2086195442104125]], "bias": [[-2.152990722215339], [-0.19144558829632166]]}, {"type": "hidden", "nodes": 2, "activation_func": "sigmoid", "weights": [[-0.9263091704540077, -2.8442503800275802], [-0.9062334436056011, -2.7531335431221193], [-0.9321885906425124, -2.764712908161144], [-0.9621058301408553, -2.7783499111247263], [-0.9251257982428939, -2.775385729023935], [-0.9294869982881686, -2.771876988970811], [-0.9272388727801444, -2.8272897896531664], [-0.8780491914397924, -2.7889761511923945], [-0.9333424058565949, -2.7531130522327665], [-0.9213826274237522, -2.7828814667313115], [-0.9592140912612571, -2.8030636812904954], [-0.9207183815999965, -2.775223562763008], [-0.9187142347116355, -2.815164199912206], [-0.9617701434451154, -2.7804000730176597], [-0.879849563704197, -2.7513781592398026], [-0.9088988033043958, -2.7450699280039887], [-0.9276718439769747, -2.7748013138028096], [-0.9528632578576266, -2.791257600666385], [-0.971182524391195, -2.804460289005057], [-0.9128956135419777, -2.720065725141481], [-0.928636630343544, -2.7504762946597854], [-0.9212675010442043, -2.764501905578047], [-0.8675706594777075, -2.7620207559026673], [-0.9447862349278465, -2.7805451369029446], [-0.9269045530332782, -2.795865102728829], [-0.9079596680004871, -2.7782039623951693], [-0.8800871274629494, -2.7387049873801734], [-0.9350480697879664, -2.7841457679201183], [-0.9209286046143029, -2.7854885962095497], [-0.9386453939217007, -2.813970651376755], [-0.9232997134239318, -2.7874075080707175], [-0.9571241127109879, -2.8133532140041986], [-0.9250209774865031, -2.746989713570243], [-0.9212345743563481, -2.7473477727438027], [-0.9089603532125933, -2.787432138957628], [-0.9000430276123493, -2.7770156095999727], [-0.944369908085886, -2.7932710961758995], [-0.8924409604836576, -2.7196287082025], [-0.9596901181755737, -2.7990558941520574], [-0.9316304335830599, -2.714219199661475], [-0.9355019328111259, -2.7361225067805472], [-0.8924547660490476, -2.689102043447651], [-0.8945660700057341, -2.6744495007780844], [-0.9326077548895358, -2.7282434769505564], [-0.8682884581489475, -2.6768375502805113], [-0.8897832141421749, -2.760642984641125], [-0.8810469898381174, -2.74688774537931], [-0.9343777687868765, -2.7500643484566534], [-0.9429495284053776, -2.7728779779304538], [-0.8943750453052343, -2.7702664297249546], [-0.8872907689124583, -2.7762562964123227], [-0.9384924536359185, -2.7977822216426027], [-0.9007832688115772, -2.717559678612964], [-0.9018584354404852, -2.7801928100743036], [-0.9096242660090111, -2.7922165566506485], [-0.8977281180031261, -2.7545573632201665], [-0.9296754924547683, -2.839520477269875], [-0.8553645536100241, -2.7593671739005514], [-0.9500235375827075, -2.829320119725167], [-0.9022874222483928, -2.738304931700124], [-0.9499393613103024, -2.8368753824961384], [-0.9513458929087453, -2.7855268385032956], [-0.9389062176110003, -2.7402525201739274], [-0.9351628314583667, -2.7473050509472463], [-0.9407258686169249, -2.7455553206322048], [-0.9472083912201357, -2.5903442213285826], [-0.9602996039310513, -2.5201053837630316], [-0.9995640203448801, -2.405184882144691], [-1.0780282708218178, -2.303552173891059], [-1.089535858646601, -2.156699990654516], [-1.129974377020049, -2.126164919790146], [-1.075774877121764, -2.0212282629178917], [-1.0048731108519358, -2.0209635305690066], [-0.8886025245686977, -2.1252420026219094], [-0.7715653026384062, -2.2520409052382324], [-0.7408528789175937, -2.343522876157613], [-0.7770424291542067, -2.5291965170307433], [-0.8532822812404757, -2.6353318159144954], [-0.8923560679953951, -2.730281786726164], [-0.9139852375340524, -2.7498225462717487], [-0.8981370360144837, -2.776471708266367], [-0.9122061109539696, -2.815405573804444], [-0.9485088186546895, -2.7971494630650846], [-0.8941881922362196, -2.7332372936932714], [-0.9323281411338479, -2.789598675238194], [-0.8713383713276208, -2.7464231661391123], [-0.9493658141756326, -2.766311918768507], [-0.8972776597790566, -2.7754159662826154], [-0.9294040511951271, -2.777654256627662], [-0.9232093949869137, -2.789036222537251], [-0.9259058621485432, -2.7283440199530835], [-0.9440666702795486, -2.6142855380280072], [-0.9468565835312718, -2.364445764339186], [-1.1207710283362307, -2.1885556804996322], [-1.3247954270064786, -1.9876966304635761], [-1.5414542117839785, -1.728773290372698], [-1.748015062279352, -1.5506316884292468], [-1.8564776436581747, -1.4120395505527734], [-1.8631295195828812, -1.3175651348569253], [-1.7662972805068626, -1.2660967631088682], [-1.527297450965349, -1.2821503415951034], [-1.2186000311528207, -1.391166193420137], [-0.9948555585288082, -1.6044282762449553], [-0.8456227468648626, -1.8280058258170215], [-0.7362331094084911, -2.089393185978639], [-0.6739419531327226, -2.327939679850728], [-0.7821222889360334, -2.5550990328484073], [-0.8536827415486461, -2.683724143655804], [-0.8696798681435232, -2.6783692207146266], [-0.9326549763154733, -2.8235290755284743], [-0.9552202185535524, -2.8176141772689536], [-0.9210606651704801, -2.7756059408933846], [-0.9263797425700657, -2.765883341463948], [-0.9550424912922103, -2.7571629176630554], [-0.9467514494325705, -2.7448805668122764], [-0.932779547856162, -2.791990651154542], [-0.8934249424546614, -2.7437325204944485], [-0.9669678208765853, -2.7331889589779217], [-0.9767587865472368, -2.4730306790830197], [-1.1801658709393081, -2.169953340224982], [-1.5474868338342034, -1.8050868112306244], [-1.9417735127602267, -1.4523013622664382], [-2.175678878576056, -1.129202258145481], [-2.1910583647292534, -0.9211882580046293], [-1.987700093071327, -0.7099315190349874], [-1.763464720966961, -0.5487893429951878], [-1.5583375191122055, -0.38880172290847426], [-1.405523697830923, -0.36184123428554815], [-1.255311247062455, -0.455916307616666], [-1.0709224694184134, -0.6717032175717639], [-0.919804211067371, -0.8476293333401378], [-0.7650643319043802, -1.0922350464169632], [-0.6181134738106187, -1.447123697394898], [-0.5068966022097849, -1.7372512172613641], [-0.38172954208500204, -2.173561921776902], [-0.44322504266970103, -2.416391998997502], [-0.6671877181233231, -2.580167616767821], [-0.8777111887243665, -2.769378394846204], [-0.9031627305437456, -2.818222106306713], [-0.9157008071525311, -2.7683365316126176], [-0.9126073627278766, -2.730667098081752], [-0.9248858976479307, -2.775657566196521], [-0.9533721853954302, -2.766089276395543], [-0.8779356298368134, -2.7181773799104705], [-0.9325676657583765, -2.6532055259561265], [-1.0037213118444515, -2.3661922934910615], [-1.329911164981037, -1.9391706885371727], [-1.8313431035304997, -1.5361345219613303], [-2.2702545255163407, -1.2122294501546205], [-2.4645819717397957, -0.8367203662986598], [-2.385302685399974, -0.5211621631327513], [-2.185455236949893, -0.2977568664851445], [-1.9124034996288128, -0.08764919129394885], [-1.6597885068067055, 0.059343253603942], [-1.4787796846007344, 0.15896278321541063], [-1.332166646674288, 0.26333818676776183], [-1.1338395999115907, 0.1613181835516751], [-0.9379124996395594, -0.013465423272028125], [-0.7896098184534156, -0.30688432190992915], [-0.6652449453033501, -0.524041658122328], [-0.5550936254217982, -0.8862857917190688], [-0.4458932435557212, -1.2962550728046498], [-0.2959770874056658, -1.6870666355081074], [-0.10083043693105853, -2.056179370111208], [-0.02349653240924193, -2.445814020909962], [-0.5028693630624761, -2.648314608294139], [-0.8283536561862063, -2.7425808999611663], [-0.9443338151043619, -2.79544951491773], [-0.9128595597584633, -2.790778617311555], [-0.880074390040585, -2.7822320595073546], [-0.9007410721667971, -2.7914807065009293], [-0.9386545570653235, -2.737990457124588], [-0.9231998045172117, -2.4404856362278444], [-1.153986903043774, -2.064935273322524], [-1.5939598624836633, -1.6060715255339644], [-2.0141636827023572, -1.1463125945502417], [-2.148180817049941, -0.8052733229087048], [-2.124331906982048, -0.4362346285827702], [-2.0234883425797543, -0.14655382763696317], [-1.8442430461745032, 0.08300615073851597], [-1.5840710255977182, 0.3155263083323348], [-1.325606057061984, 0.3823199468850043], [-1.1002051162402773, 0.42513016177325197], [-0.8875742123688828, 0.3677595802558961], [-0.702465978026478, 0.26342400645909125], [-0.6092802858082289, 0.1704284556584307], [-0.5843428788626511, 0.008241604983264001], [-0.5601531985811318, -0.2414087107089244], [-0.5162244165404997, -0.5311343159497295], [-0.4577779749554152, -0.9330174777419922], [-0.2965471686115993, -1.4352249758559017], [-0.03901188823122005, -1.8421168716661735], [0.23512640314496513, -2.3568088553510353], [0.01592161556884314, -2.6302588968596794], [-0.6827340780102088, -2.7034818248961785], [-0.9474717796896756, -2.785568422886238], [-0.8957514501190397, -2.7940260988054946], [-0.8876283298779621, -2.7971440684624405], [-0.895697475698589, -2.786172498052493], [-0.8454257783306567, -2.6796612177328694], [-0.7380960474582005, -2.3545576321855974], [-0.9602509480759256, -1.8736856361383316], [-1.2423463041043792, -1.4097760569141213], [-1.4537365397429824, -0.9718536389968023], [-1.5396414428356011, -0.5629088809372104], [-1.532331095732946, -0.2606621535527307], [-1.4229393078113308, -0.01987202275728234], [-1.2010707408813164, 0.15168164002446696], [-0.8842219310846825, 0.27972318549308206], [-0.5628048768219711, 0.17929008412921535], [-0.2682378305545127, 0.12845622930818998], [-0.04845038170672373, 0.02098482763113631], [0.03865950394200703, 0.0016602764859225865], [0.01563021229673513, 0.01243472734560891], [-0.11922249803628208, -0.002912852162607173], [-0.27171830954306875, -0.0982466998678893], [-0.35877205042357285, -0.37905969841500736], [-0.37170572967442306, -0.8066596515017538], [-0.2909969360240513, -1.1973224071467552], [0.005653681368770232, -1.7146013184622364], [0.35798372217063745, -2.338267617481829], [0.30055259791568395, -2.655458987083102], [-0.5944029905367871, -2.7422774118387117], [-0.9199740659541713, -2.8209036502225056], [-0.9407639204055682, -2.823270972949747], [-0.8997021297415404, -2.7988106428744826], [-0.8111504306110313, -2.729298338506936], [-0.5871937204951748, -2.535160227079038], [-0.5015889181884924, -2.243525418012743], [-0.6749345692349532, -1.7417136311987267], [-0.9107293850927439, -1.2988378011613053], [-1.0727876400298721, -0.9051800142311163], [-1.1457930014102733, -0.5065480344080856], [-1.0389349391925622, -0.19264656016652795], [-0.8286755765962105, -0.029976050114005358], [-0.5229368632406163, 0.03208810211561227], [-0.13337027703922863, -0.03134316840567894], [0.18349501706253668, -0.148727780887521], [0.421409970720118, -0.36224907640699544], [0.5625269396734495, -0.4579400491485232], [0.5700363673427441, -0.39247092873015527], [0.4609637284460592, -0.3266088421382729], [0.24870716641323082, -0.18318408282765425], [-0.004518460011382175, -0.14833768957177867], [-0.2471016190134, -0.29343643087917515], [-0.38293329221832906, -0.6851803738242437], [-0.39321403569417174, -1.0462421268191378], [-0.11604122118331353, -1.5920099844869202], [0.33925482260183415, -2.28913115684047], [0.3409189156368611, -2.6824134966918227], [-0.6694066251264348, -2.669356493059194], [-0.8987448311831158, -2.775411665352423], [-0.8988518481451571, -2.742750678599504], [-0.9133824278867064, -2.7984310099798853], [-0.7236371694753743, -2.6954235906654955], [-0.4475610128028118, -2.495541987371636], [-0.3476091190180684, -2.209149720896312], [-0.5582431943533391, -1.7449326476579983], [-0.8146197248938626, -1.2104189062239945], [-0.960321507197717, -0.7150221047481846], [-0.9335983206942197, -0.4404339352416428], [-0.7203773512623627, -0.19333223179017553], [-0.4203198940042722, -0.06499339655371927], [-0.08871486087273411, -0.001029762668398213], [0.22535643990833149, -0.25821725059675993], [0.44841635232939336, -0.4515033190172065], [0.6295334534127985, -0.6721812028116275], [0.7572881360127255, -0.7592799858079611], [0.7387090247259672, -0.6639030647121751], [0.5828433812091462, -0.5040793274991118], [0.3644869133623745, -0.26909013859906034], [0.04997053231854714, -0.23444508859341107], [-0.31954113351741387, -0.27164635743451276], [-0.5938245118160357, -0.5619171094896067], [-0.6962003383364894, -0.9684114268493711], [-0.4664421877143676, -1.5316922384363048], [0.06887207381218835, -2.285749965932304], [0.04914202108674551, -2.599870567050733], [-0.7513803337558531, -2.760476741648493], [-0.87802470408742, -2.7311346316514147], [-0.9392120572344055, -2.7989194355950104], [-0.9113948635680983, -2.8070941696808513], [-0.7967640269839809, -2.7158287986713354], [-0.48676808881255323, -2.5332048648855894], [-0.37779591679060476, -2.199123996622783], [-0.6868881875922087, -1.6670972511602762], [-0.9794955457750485, -1.1534403754118823], [-1.066395603850806, -0.7280413901582762], [-0.8890852580459716, -0.39140993879299535], [-0.5908389708527736, -0.09782746624706255], [-0.2829243934446058, -0.05140060799753648], [-0.04305994085393905, -0.1404051738517621], [0.12250150297140744, -0.35900343525454137], [0.29463974912280017, -0.6916630723536148], [0.5241935958743819, -0.8239392478584617], [0.6843331231153246, -0.9029912273724162], [0.6451807020864752, -0.7591003914982212], [0.5148064529986583, -0.5383719251555779], [0.3303977983900648, -0.2599058053404845], [-0.02940920298590086, -0.24739808749264447], [-0.5001375444606754, -0.27934676958372345], [-0.9487950184049182, -0.6174714467997143], [-1.2343820524216182, -0.8747857767137853], [-1.1101879415308926, -1.3690818732806487], [-0.4901233946273812, -2.097242415939648], [-0.4328406685968863, -2.609094358487337], [-0.8255262685913626, -2.7742636077251843], [-0.9196074088963585, -2.782072717646681], [-0.9138340601500271, -2.731885808033165], [-0.9390880117383039, -2.8011372118393156], [-0.8162785475019941, -2.703477811680862], [-0.6661960235707883, -2.533999650939581], [-0.5879854158728711, -2.192460216881005], [-1.0541393405755592, -1.580423055087613], [-1.333857503595556, -1.0961635644342058], [-1.2557311822170867, -0.6196133634349892], [-0.91644361742871, -0.34913155213398633], [-0.5992859306242393, -0.06498100707574041], [-0.3641122841732927, -0.055736142707568846], [-0.23775273387282483, -0.17338729768235858], [-0.18554582529139796, -0.44288578352385166], [0.01133196393714267, -0.6907412667817311], [0.3667699067008735, -0.790412060779503], [0.5363081000631443, -0.7693456423488053], [0.5108889112886192, -0.6556938701339594], [0.414320370090411, -0.42934908778248665], [0.2085918238675339, -0.2992459164766934], [-0.24151945169418504, -0.19244075900156965], [-0.8508680040766073, -0.28914059807977405], [-1.5077590153814275, -0.5175636284955223], [-2.0519697843813325, -0.7949588584462487], [-2.065562063084559, -1.241631246826739], [-1.135044387763675, -1.99781257780067], [-0.749690452215172, -2.6815582289004136], [-0.8325119503907362, -2.7531175691099237], [-0.904499118792629, -2.7633242991778246], [-0.9147797003363788, -2.7539675112252024], [-0.9383481471405649, -2.6929142780053668], [-0.8965878621927372, -2.7292394633767785], [-0.8266694136649975, -2.604168619975034], [-0.9062930219868778, -2.252750540274151], [-1.5143496380340926, -1.5184460759491822], [-1.7207515679918772, -0.9581033565686475], [-1.4051323515979899, -0.5006239061165494], [-0.9942957860099246, -0.17360357173335625], [-0.6858040132089949, -0.029028444182617078], [-0.5350114813351549, 0.0075859295877893146], [-0.4509759336891744, -0.17448422410020428], [-0.3489623365835856, -0.3745289413443303], [-0.04262618276476175, -0.5255725138655523], [0.35834425120895064, -0.5544816215953922], [0.48039405721099604, -0.577600664103042], [0.42247884602059016, -0.4057611269956906], [0.24691113504060153, -0.1648718466305961], [-0.08194990954249282, -0.07225940630566106], [-0.6732312755985782, -0.07250107685656468], [-1.427258002186723, -0.2539543464635644], [-2.3551503224667374, -0.4639696491035992], [-3.9272151707440472, -0.7581439397742583], [-2.986408951514521, -1.1439918051656073], [-1.5603331632851654, -1.9021293362387937], [-0.8818588298618447, -2.6699417376688084], [-0.8965501443253409, -2.7526200400725283], [-0.8915218915148432, -2.7752188423723836], [-0.9042812344838789, -2.7424175692948176], [-0.9013430776780808, -2.724990140341021], [-0.8619818567621622, -2.7299082924086475], [-0.9065992137521601, -2.6275006018357], [-1.1214764628735787, -2.1617709417957593], [-1.9628861561036823, -1.362460304917273], [-2.002631684302959, -0.8322320009289867], [-1.544341211777699, -0.4261068968618771], [-1.076786111814614, -0.10777498320198259], [-0.7734287242645861, 0.023806093972934785], [-0.6383757082027852, -0.022323547865992867], [-0.5001378600403399, -0.1506121993482868], [-0.25690291713021085, -0.37549998564686293], [0.22115623996577247, -0.4815733638747654], [0.5342075710214422, -0.4614759866233854], [0.5955273435023151, -0.35614809404375825], [0.37876543099028975, -0.18567578040242422], [0.012871612964091804, 0.06587307060569687], [-0.5116605900603828, 0.1741617496381247], [-1.2313552641187782, -0.0030151128562132877], [-2.158748756824969, -0.08031250659977526], [-4.966470210132315, -0.32597526271666766], [-4.99543910738224, -0.6822178359859788], [-3.363737261843142, -1.1362759969066194], [-1.7632430194084698, -1.7684905947703973], [-0.9395577175613676, -2.624185294575637], [-0.8610186878768037, -2.7380304999974077], [-0.9191483063209102, -2.825587020390473], [-0.9449302218175036, -2.776305286811984], [-0.938506318403929, -2.8198786187695943], [-0.9380916096629381, -2.8028016912626543], [-0.9266431469168864, -2.619131867245152], [-1.2690680453725909, -2.0795181776847897], [-2.339499954894604, -1.289408965689361], [-2.2706652831225536, -0.6788105887789911], [-1.7481511120988757, -0.23767846855109878], [-1.2520670091403718, -0.06820003892380991], [-0.8937866850962026, 0.05153711651452612], [-0.6362655431054705, 0.008593978869009814], [-0.3530357318148126, -0.21884541649227846], [0.02875275118510489, -0.37087110711595955], [0.5436088271798938, -0.3811484872665218], [0.7613655445964179, -0.3939639695925975], [0.7432758877436381, -0.27295800832296846], [0.3379301514412781, -0.09143755757746247], [-0.14708365538485563, 0.14323640730726336], [-0.8948854448775349, 0.29377537094408174], [-1.8086947353246625, 0.2243400446634454], [-3.0686953294491532, 0.02076851990108769], [-6.45711110961668, -0.22846181211214178], [-5.327403287206355, -0.5519019591270172], [-3.4536538474494205, -1.0863599280702572], [-1.8856878639750592, -1.7462209045479482], [-0.920775137443251, -2.549873622765772], [-0.936510241151781, -2.720876512845217], [-0.9321539014599417, -2.7840911459100224], [-0.9112243661955673, -2.7601144079542452], [-0.9828576018873981, -2.826974131037681], [-0.9079360207832358, -2.760054774775577], [-0.9118515417935952, -2.6701091264784673], [-1.406033237961041, -1.977846878966823], [-2.681884534273607, -1.115343023088696], [-2.6897379383219078, -0.6304261239614168], [-2.0983677706619055, -0.17178066050430188], [-1.5599456878802727, -0.022012992553986036], [-1.0832978861751041, 0.060215921738108316], [-0.6658229701151464, -0.07255998348868058], [-0.269333449825011, -0.22735556632940268], [0.20251410809765943, -0.3080246363124901], [0.6621016918614102, -0.406436865095038], [0.8756607871229992, -0.36933127191540904], [0.8079554768788704, -0.28047617579609074], [0.414756288765159, -0.1514608964797317], [-0.17294066910607037, 0.09702342816129585], [-1.1734663113259993, 0.31211659507925316], [-2.293635599881034, 0.34931954255722963], [-4.86080355286531, 0.15719629035015958], [-7.210508886661053, -0.09691080756202707], [-5.557259953564252, -0.543669540688018], [-3.450786751848372, -1.0691827030594188], [-1.866329031310058, -1.6483439247964116], [-0.9751860698991491, -2.507197110844095], [-0.9086420837615342, -2.7371229550238874], [-0.9514826645155783, -2.7865869632223816], [-0.9256966800868679, -2.8195545537416082], [-0.9602815220693756, -2.8027412982509725], [-0.9669249704271641, -2.7970145375981046], [-0.9566523940233287, -2.6155236614106303], [-1.5873946100857523, -1.8436498791541294], [-3.126780474346672, -1.021434714968782], [-3.5102479837524374, -0.4208193000111202], [-2.6649247044828748, -0.12342638789222089], [-2.0439146309331466, 0.08293933971051724], [-1.4335323693146902, 0.06274433451568924], [-0.8257579255264266, -0.10756468224288625], [-0.32022224862696796, -0.276784443871966], [0.19524544565762653, -0.37602536673763504], [0.622319749777851, -0.472942035693364], [0.92156420201182, -0.5071675964659684], [0.9136691511791513, -0.48164178765531973], [0.5337663447382973, -0.3080224806968339], [-0.26888721712971236, -0.0053477026697962855], [-1.4679293853127817, 0.35216569216668386], [-2.808984078016279, 0.4500518426232019], [-7.26980894324143, 0.30530627444549735], [-7.923929097603011, -0.0710547099342019], [-5.638616303438342, -0.569242595221296], [-3.357521896516136, -1.0823539152851103], [-1.8246797098281975, -1.714503803438166], [-0.9808541060118574, -2.395787089825275], [-0.9115102378049088, -2.7173923469617134], [-0.9526317349254613, -2.7593650607176605], [-0.9096986132668003, -2.7587041164949206], [-0.9293693050241626, -2.778418073667166], [-0.9007645631155264, -2.7296623909440316], [-0.9777916842588044, -2.536013098428405], [-1.8298276428659312, -1.6777681781649625], [-3.4060571745841073, -0.8050016398448719], [-4.375984363983841, -0.4374340239745879], [-3.4329740201990244, -0.11046719592265347], [-2.4761030427607746, 0.03345358034201964], [-1.7341861234298808, -0.04372134727801609], [-0.9860048168198992, -0.14681003574433032], [-0.36389046792001883, -0.36990638664244174], [0.17578119794316024, -0.45422772957724855], [0.6298087373947421, -0.5461043901015852], [1.0077972090663434, -0.7105458078153472], [1.032241775046931, -0.669386516219164], [0.49914977196277766, -0.402114984015589], [-0.5627558942055161, 0.02758213134646104], [-1.8499771795382172, 0.4486550017543039], [-3.390531952282687, 0.5277567561500021], [-8.747685177811352, 0.3388808504046423], [-8.246649432067466, -0.09967509084577199], [-5.471789977434761, -0.6144294601468082], [-3.117066403896854, -1.180189605209775], [-1.7002269281429447, -1.7521114913397708], [-0.9992418906630662, -2.388676497018792], [-0.8738205175078906, -2.7177170577015004], [-0.8989559888228669, -2.7709557381660024], [-0.9217524433189892, -2.743720681110499], [-0.8796642215511598, -2.7452574777742362], [-0.9457074147101949, -2.780171090046938], [-1.0305657716102425, -2.4090102526680943], [-2.0114431488045854, -1.537018485490178], [-3.3164491623068946, -0.8200171686489701], [-3.8807526886818624, -0.3758648629406405], [-3.1915661474073382, -0.12517390585355462], [-2.459145717478394, -0.03848068309277813], [-1.7418751737494569, -0.03379256157057816], [-1.032099560611383, -0.1927338775930275], [-0.4108714977792434, -0.3784454024673525], [0.12546113365613742, -0.5383152650235934], [0.6354505820523763, -0.655428313797585], [1.0005752716300575, -0.7222928064856278], [0.8916035420150311, -0.610125404108704], [0.12884059982339527, -0.27671469824378225], [-1.0444726147062606, 0.17944214459323143], [-2.28500465855934, 0.6076715790200314], [-4.143039796678412, 0.6790814349544024], [-9.185476777782243, 0.3118257257978097], [-7.751033589957266, -0.15408306987857767], [-4.893590038630194, -0.6939955377307951], [-2.8034790748788043, -1.22128635606976], [-1.574033055822517, -1.8520515506738247], [-1.0219473840007287, -2.4519420482620173], [-0.8939191386429937, -2.7015598099928653], [-0.9132111791936618, -2.77731151840595], [-0.9464117353193775, -2.7931568369064594], [-0.8964674148280017, -2.769454944512605], [-0.866631572403042, -2.693012564448681], [-1.0077385464936341, -2.2554176309586507], [-1.988927018890492, -1.4370631027949854], [-2.824731317565795, -0.8276437984838545], [-2.6764804032322367, -0.34942494091836684], [-2.464110109318489, -0.082209128171636], [-2.1214222017966273, 0.0385018179414883], [-1.6233251987351232, 0.05770648683179234], [-1.0516847470878128, -0.1508687763993896], [-0.5038892216288992, -0.27902988421080727], [0.002317101700974548, -0.3552330355859644], [0.46572505635579714, -0.4374050359256193], [0.7240906185624787, -0.4370042059855551], [0.43867873969713306, -0.2589707511650778], [-0.45610836600619536, 0.0707625012639986], [-1.5381349670620865, 0.5191271519756188], [-2.6276230326587497, 0.6824318667594538], [-4.885541766493001, 0.4799452758454367], [-8.400174356707423, 0.08773244021512967], [-6.639035232400466, -0.3378629605453612], [-4.126244568659467, -0.8594864509513793], [-2.4420542886213505, -1.3813344963471081], [-1.4117625963663258, -1.9818981549670551], [-0.9670300462321633, -2.5187886971388416], [-0.8777700169261649, -2.708102509879348], [-0.9461198427730538, -2.8286313438648256], [-0.9198477461507505, -2.7871920882052352], [-0.9123651301667736, -2.7610929914566427], [-0.9212939731291857, -2.7202903937895138], [-0.9507135329745329, -2.222222467966212], [-1.8043808248932456, -1.5030463698221797], [-2.2671898783918687, -0.9237594664001314], [-2.1230389441115007, -0.38514984474210806], [-2.0008316410733746, -0.11473437594395382], [-1.8123353118618613, 0.009274414224581577], [-1.5077743173677047, 0.11094068574038825], [-1.0706407420334005, 0.1125078622735117], [-0.6460763295168079, -0.021817671156495827], [-0.19311326744241603, -0.08531364773024142], [0.19514082712143657, -0.1369725157416788], [0.280677428148425, -0.08947816096195323], [-0.13347556767504284, 0.11236639388577613], [-0.9586082929390056, 0.3288376027623587], [-1.8266099214870208, 0.5841856006668609], [-2.7062012123651016, 0.540062161802882], [-4.7059442565418275, 0.19675860908338713], [-6.530656492715292, -0.15959631350371484], [-4.952531187275398, -0.6252403051701235], [-3.1537353050195907, -1.0806961443590617], [-1.9756119115766284, -1.5941642657977086], [-1.2310954848433076, -2.1770014341290187], [-0.94865757981109, -2.57142046263741], [-0.9282885141938396, -2.7377902711999704], [-0.9138014728595998, -2.7721282997974823], [-0.9184996275509325, -2.7623345800198686], [-0.9330075911820562, -2.771309682482977], [-0.8758714150975005, -2.6638240457079587], [-0.9075317701573542, -2.3702707964760275], [-1.4654222304160238, -1.7031999939115572], [-1.8087495161023817, -1.1232546513705486], [-1.7039418901405818, -0.7004539976392108], [-1.5927559742506474, -0.23937278904308193], [-1.473628914427565, 0.032132989687294174], [-1.2948681223435987, 0.14691211376736382], [-0.9842419914602857, 0.2244691422952681], [-0.6266395977472542, 0.16391647836182927], [-0.2543930155764613, 0.1244101254870502], [-0.013175773224563044, 0.14644717769303914], [-0.0700720876945697, 0.1474788047172851], [-0.527653856645143, 0.22433876015881613], [-1.1530275362870221, 0.2771355706496889], [-1.770383088192422, 0.25505487417262723], [-2.4867634760464776, 0.1234836207382051], [-3.6520807320555897, -0.17154939817971704], [-4.29812716983436, -0.5218034507481103], [-3.284338919161647, -0.9807672583807058], [-2.253314532855562, -1.44067114805547], [-1.498779861888166, -1.879367049611215], [-1.0483321895420876, -2.329548638455656], [-0.9365276044738323, -2.6328293755582286], [-0.925011651634909, -2.777701357310629], [-0.9103766210058739, -2.763220155011587], [-0.9231330874506419, -2.7478497490067935], [-0.9476808514021735, -2.7941615663495782], [-0.8794364759338011, -2.755180047259969], [-0.8336937488407065, -2.5277640784283193], [-1.0105815254870654, -2.0096282393230886], [-1.2743429640856276, -1.4705761205190868], [-1.2357774599364366, -1.0237862998367369], [-1.0876761044536716, -0.640907421548671], [-0.9437312810649594, -0.24829466832074465], [-0.7750002495863012, -0.08687942670328637], [-0.5360184390779531, 0.08385532859457095], [-0.2537350633149517, 0.02320966352049196], [-0.004508057823216293, 0.022426586725220268], [0.06422083521401996, 0.05551237535863196], [-0.1044763429980135, -0.04453782981907682], [-0.5065750281593826, -0.0681115069174118], [-0.9573138012330599, -0.0913742739750411], [-1.4484863881352557, -0.19567972813940213], [-2.0497618260832575, -0.36473186909075234], [-2.674116281891138, -0.580400491023995], [-2.756138661228985, -1.000555764426921], [-2.1616348080685843, -1.4279196637380334], [-1.5488371840337196, -1.8744184888880298], [-1.1355524998391064, -2.21417191306695], [-0.9494749476474686, -2.5200129431264853], [-0.9279795971526976, -2.712195508722915], [-0.9163139492465712, -2.7616110763304618], [-0.9067406777279825, -2.7648839024441236], [-0.9550022837314681, -2.7877477194540248], [-0.9275897885243185, -2.7557668548508776], [-0.8745498811716567, -2.7915514430966772], [-0.862834031166135, -2.6716153009070718], [-0.6706754460554103, -2.423804350525458], [-0.5616354178116836, -2.043081298737098], [-0.5271571480668521, -1.6839570486243822], [-0.3913068560120139, -1.343917297865679], [-0.21060479880433172, -0.9998597478566996], [-0.008837820180525329, -0.6912684998207191], [0.1611893986184282, -0.4960049886162311], [0.3191807611498078, -0.40754278804168137], [0.37751453824679426, -0.36242723261963494], [0.3159570482239474, -0.3943811869409952], [0.10210188913108632, -0.4788992556414237], [-0.21331584602087655, -0.5106310637882062], [-0.5736914807192368, -0.5880719420874831], [-0.990707348368904, -0.6368328973405034], [-1.4838101717647265, -0.8622157774560893], [-1.821913736408914, -1.1653388342894457], [-1.7924608565170532, -1.5072617289203751], [-1.3949320300416546, -1.8868728391428378], [-1.0748183099369943, -2.218252326952429], [-0.9265925955443253, -2.484207669081165], [-0.9097911402126239, -2.720889669684743], [-0.8993518590903259, -2.7613382369253876], [-0.9092838681901372, -2.7740377125832474], [-0.8917898323479532, -2.7854730425247154], [-0.8956424029003553, -2.752242717366608], [-0.8831097034469211, -2.777223123009755], [-0.9298030728266278, -2.8072875232652783], [-0.8735129678719031, -2.7363092913405964], [-0.7780433648783024, -2.6961667392898825], [-0.3283943047111414, -2.5095557720716895], [0.15943984299847588, -2.4808338043546216], [0.42013671231004546, -2.241486318643234], [0.5976877822743276, -1.9726577513769228], [0.776879975636325, -1.7242802904891217], [0.9535176891889697, -1.5218689049567051], [1.0251060030335661, -1.3295744682276422], [0.9769397903934468, -1.2426825628986307], [0.7899654737454329, -1.2462871791951384], [0.5313852218689616, -1.3089203560122862], [0.24549917330955617, -1.312317374560493], [-0.0720315021703952, -1.274921894517539], [-0.45903320528157576, -1.3604737570431205], [-0.8814122018249801, -1.442182169252493], [-1.1378161452611584, -1.7458294617031496], [-1.1381585106824188, -1.955957494905882], [-1.0256971261896233, -2.263086471237298], [-0.9270033848492871, -2.516364479750611], [-0.9260538776682827, -2.7141958264284187], [-0.8684213845561429, -2.7498270404422915], [-0.9271032859287248, -2.755683685925148], [-0.9154150091127207, -2.746052249700077], [-0.9611179277463258, -2.7660375875195253], [-0.9695663189622045, -2.7990165754647416], [-0.9447171986659778, -2.7880045415241015], [-0.9305077560229853, -2.777889909913964], [-0.8913584723736016, -2.796336293394891], [-0.8629065758538618, -2.757332792975051], [-0.6769122163943736, -2.7175952601832805], [-0.09209175546207367, -2.6420899120102894], [0.6916616430354099, -2.810628332102772], [1.2551110417136888, -2.9044164061054762], [1.6761892812143426, -2.977812863493139], [2.002584616764618, -3.045905988606291], [2.167851536879107, -2.9761927288964665], [2.0776347310170413, -2.845808453934888], [1.7625262053010096, -2.6519731645414284], [1.3655015630511864, -2.481095142171873], [0.9672750014266374, -2.311127428801335], [0.5302393118663141, -2.2562515502908775], [0.05805210079940707, -2.1252497927587575], [-0.35898529317187794, -2.1250946420701307], [-0.6573017983754851, -2.188567480308099], [-0.866870168942031, -2.392905358205564], [-0.8993770481295978, -2.5798363008215466], [-0.9122446797497881, -2.699518614718494], [-0.9027005384886505, -2.7367060007853303], [-0.9110250183146636, -2.750535017206585], [-0.9336130774821653, -2.775434186916636], [-0.928507897259395, -2.751387069214493], [-0.9191840121970511, -2.782030186951042], [-0.9098171612200007, -2.7801053459180394], [-0.9202487666502519, -2.8067310978461744], [-0.8920846171003354, -2.79076290604413], [-0.8739234950358994, -2.734198073330154], [-0.8871289289565893, -2.7917413041534997], [-0.8652150499641238, -2.757026973312739], [-0.6522984289216722, -2.8223502679673897], [-0.10616416363709393, -2.735430903576205], [0.5883852735593618, -2.7643803664929734], [0.9800242606144032, -2.913522477690156], [1.309744301832788, -3.0434796660513674], [1.5193837247883812, -3.07741153882153], [1.549666872050057, -3.0565891345405807], [1.3865911232228871, -2.9824296693665615], [1.1192445471778014, -2.8860767045720706], [0.7632970570482354, -2.7618262399819433], [0.40738360672743873, -2.655736775269257], [0.01430269087676835, -2.57843902179917], [-0.4179694511524108, -2.5156722217161005], [-0.7625610987067586, -2.5383253993747013], [-0.9166176091473736, -2.657406548438732], [-0.8810288264077739, -2.65941212514906], [-0.9122980109181287, -2.7299606204162687], [-0.9307124428849289, -2.804221265699804], [-0.9543069375237501, -2.798128451248004], [-0.9478383635688011, -2.7893009230528816], [-0.917574551692451, -2.823540279396827], [-0.9654556821793729, -2.797078698345813], [-0.9285801040519138, -2.7864067191609134], [-0.9543872427260982, -2.7631883716992087], [-0.9125354723879109, -2.7265405907601914], [-0.9068986138370234, -2.8063828133812367], [-0.8866106316537834, -2.7438769219736003], [-0.9154193998329964, -2.766233585768416], [-0.8736106120408017, -2.7451268161249933], [-0.877235152465273, -2.767273496106525], [-0.8295305099552971, -2.7789299175848536], [-0.8496407046409955, -2.7429695574430473], [-0.7637335061124126, -2.7987419480518736], [-0.6548625098803301, -2.7985605573229595], [-0.6268268353673363, -2.7055507458734365], [-0.5712874927237905, -2.74730813897938], [-0.5148385461054799, -2.687172838926462], [-0.6559507940230721, -2.6976516425194896], [-0.7209036588128671, -2.7180243335390397], [-0.808717295314802, -2.65646688456172], [-0.9098828215007517, -2.762161356478949], [-0.9060465185268629, -2.7494342435444845], [-0.9041762901549099, -2.73038680927449], [-0.932523746944132, -2.748580472970528], [-0.8767089455548016, -2.7527729365415756], [-0.9241685257256465, -2.8140992871120187], [-0.9297923856020097, -2.748739181814411], [-0.9351461007263073, -2.7668942242496666], [-0.9304173282253189, -2.779685083742232], [-0.8943421125327444, -2.761825044713158]], "bias": [[1.511496308895071], [1.603233633007017], [1.5908714708072655], [1.5765095406350633], [1.580397252232952], [1.5837808813147063], [1.528432969795826], [1.5684191549269293], [1.602439740202915], [1.5730105857302132], [1.5518572463301192], [1.5806887849629918], [1.5399828448433883], [1.571379775612453], [1.6045317440849292], [1.6111520635179557], [1.5809075171375209], [1.5638055442577856], [1.5502139820109784], [1.6360872962956554], [1.6052061565074136], [1.5913922613520604], [1.5958044546183678], [1.5747102766206884], [1.559865261983073], [1.5781067727309865], [1.618610780738237], [1.571360747778164], [1.5704178479704292], [1.5414395342100042], [1.5684278590811567], [1.54161385061427], [1.6086738264553628], [1.6081329085923584], [1.5647565943135977], [1.569065795325046], [1.5430969577662519], [1.6095983848398678], [1.5033649482897187], [1.5719801551014747], [1.5452696351984838], [1.5929405944034025], [1.603354127415722], [1.557746759281317], [1.6106549062179172], [1.5379717671794642], [1.5716429052922358], [1.5787395705942817], [1.5615379058186036], [1.5780071360734262], [1.5767406290561836], [1.5561433754003409], [1.6389938647135505], [1.5763230388503335], [1.5640394981949868], [1.602100625837244], [1.51613130266015], [1.5989979113256938], [1.5253225503008734], [1.6178767425369178], [1.5151079958298002], [1.5670986932955346], [1.5940750511109933], [1.547263080579728], [1.4955740968771307], [1.550963782071792], [1.4864628283578443], [1.4554597050915694], [1.3836061441043344], [1.3685590114503081], [1.2568596368603613], [1.2981307189225493], [1.3045540762498287], [1.2913665291818286], [1.311028836332729], [1.392339683207101], [1.4196203739384332], [1.4866819841822578], [1.5119820664151733], [1.5702699310596164], [1.5670648607750082], [1.5375382794731536], [1.5580166280078571], [1.623546034585326], [1.565982563871196], [1.6112444546745335], [1.5875552277110723], [1.5786911084012762], [1.5726832588734219], [1.536773612611974], [1.5358737504551256], [1.5125044973095936], [1.5463877233999852], [1.4004243468545963], [1.2731301271250663], [1.2201313311884556], [1.1317462422872637], [1.0328422378353044], [0.9387063985117204], [0.9045475534498143], [0.9449152550120455], [1.0060068489799106], [1.0359594805146424], [1.1159207882701863], [1.2343308800696804], [1.3707919031079776], [1.444917747105611], [1.5272335646019464], [1.6232593991886473], [1.5228126117527878], [1.5368674622434746], [1.5802965125842088], [1.5898631790053095], [1.5975721286529485], [1.6086442592923769], [1.558040836096291], [1.5795979343541469], [1.4484975728685168], [1.4683592607500133], [1.3612595365028144], [1.2385348003227776], [1.1104405546809477], [1.0181284258974685], [0.86040686686467], [0.748809705050302], [0.6182568796596247], [0.5741892233321962], [0.5333895460427042], [0.5113971653619107], [0.49410155930665484], [0.638930884060033], [0.7784888101836044], [0.9147665502760498], [1.1332777490659973], [1.2212357471641004], [1.389066334161504], [1.5220585349773905], [1.5273295220968304], [1.5314798916974417], [1.5873677658354803], [1.6254949799379321], [1.58013159532692], [1.5850275968805532], [1.6143755528562969], [1.537428920123943], [1.443387201945061], [1.3337637641835651], [1.1617555950326], [0.9340453656650581], [0.8260064496814848], [0.7336409097975085], [0.5725885573001425], [0.4452607380697803], [0.3207983013662647], [0.22833969846540772], [0.2382339940410606], [0.19775442715514543], [0.18045643865719788], [0.16712755859928805], [0.3699108971205431], [0.558046733689116], [0.7253954650545452], [0.9448200515395349], [1.1850492657818013], [1.3452169599391783], [1.5028163748186263], [1.5814409543352246], [1.5589957780132366], [1.5653748214101575], [1.5750330481210555], [1.5558701319151853], [1.5260510760919013], [1.4961069899452035], [1.303579255426147], [1.1144231550527317], [0.956787990792226], [0.7795936146139819], [0.6724748647577584], [0.5212196087388914], [0.3770570627948945], [0.324152987042289], [0.18234593786028538], [0.11335797105679747], [0.027380249557302363], [-0.02565829614372107], [-0.013924883186701107], [0.010217981342232191], [0.09668542461774701], [0.3034685247245332], [0.5277299501983391], [0.6943691990563869], [0.9818950073992156], [1.201427961305279], [1.3921485892625038], [1.5738372959111144], [1.5640892968100137], [1.5625645369918095], [1.5554681132837758], [1.5373829632188207], [1.4670749536913172], [1.3213515196125325], [1.1572838521760314], [0.9573506161609554], [0.8023014308390926], [0.6995614109332206], [0.5208599556831287], [0.3769174008940774], [0.23612591238182676], [0.15801933301419277], [-0.00825524271995459], [-0.019223277274316577], [-0.07079790643914474], [-0.05743151460581208], [-0.05161892828893891], [-0.009467353675410269], [0.049362229278509945], [0.16224939806797004], [0.36444894777947345], [0.660185751826171], [0.897045324127497], [1.0977063905657034], [1.347615849294431], [1.5055177847318844], [1.5287385123459625], [1.5313960449164312], [1.5439866852610333], [1.5247472999303293], [1.4401092578531214], [1.2378955908677842], [1.1020959839292646], [0.8811073878702449], [0.6791910078206129], [0.5589090853449523], [0.4819965363033336], [0.31410299264996666], [0.1424028161537818], [-0.006281729303089535], [-0.023933906635235272], [-0.04448593986108144], [-0.00125095300827596], [0.028131888114661406], [0.009805020725891915], [0.01968512368197873], [0.03369875677023285], [0.167755446508502], [0.3405077621740019], [0.6745428773747413], [0.9232847265450267], [1.1256229733706415], [1.3370111232071775], [1.5821964309780663], [1.5763062680774507], [1.6127696148319255], [1.534454172065196], [1.5080847247917697], [1.4100199377413547], [1.2194824053227573], [1.023555514446021], [0.8595464846171008], [0.7254954734805366], [0.5140306134539219], [0.4032040188503171], [0.2593109716732943], [0.17361541163036148], [-0.012780071848467973], [0.0652938513612915], [0.15775549885918694], [0.18310770129266812], [0.1697538520058025], [0.11850767861349362], [0.10816860847964253], [0.03170654108339741], [0.20374919631490027], [0.4274445812664266], [0.6802671750495536], [0.9041239708979885], [1.1294573973158202], [1.426539508696781], [1.517661925201545], [1.620933777226236], [1.5547874644773274], [1.5161916017454096], [1.4782839623405288], [1.3735694351924872], [1.2416689948533841], [1.0550537082568916], [0.8157942341873684], [0.6010684893532804], [0.45312502086480017], [0.40286386305447375], [0.22172301540538072], [0.0906741102358227], [0.1070403857455822], [0.1680052297072426], [0.3433601871846143], [0.2644600742258585], [0.2133664559427581], [0.14765823518684196], [0.13738065148006806], [0.06735920290610004], [0.2514445580733041], [0.3856324393198712], [0.7080185155197294], [0.9738412797855367], [1.2597266020879112], [1.4644963185775224], [1.5285167239863027], [1.570312387263888], [1.6230262232231392], [1.5278417949106515], [1.515741592951445], [1.43531973622022], [1.2788860911722124], [1.0689130960910531], [0.7657160725082736], [0.6083088050440555], [0.3879708822903094], [0.30721079670725016], [0.14498030800959621], [0.09749106626760728], [0.1462340321141236], [0.2577432769680864], [0.3536403966310687], [0.27349322499464657], [0.13327296509395103], [0.07449657735047602], [-0.009041092486533573], [0.09919220726735377], [0.30784767881985425], [0.5085861637991272], [0.7413428145460202], [0.9947557460566727], [1.2670856628726628], [1.486090009191628], [1.5692274410100744], [1.590971394036243], [1.6013767790213387], [1.6466688771777072], [1.5418353383871817], [1.4488448260094755], [1.2311733496723254], [1.0326534307569286], [0.7658166862460518], [0.5892828805700856], [0.39947590810593075], [0.1897687064349736], [0.1241643290845786], [0.11065441519619046], [0.1915845947784048], [0.3053620767775948], [0.3185774762630049], [0.11103035402377315], [0.00321950635208497], [0.026025294981277838], [0.020624343165427838], [0.16880941933731328], [0.37540221711796945], [0.5590215496125551], [0.729602977395737], [1.0014830456263508], [1.2277523553051162], [1.5156745479752116], [1.5765294570133406], [1.5786043618795342], [1.6139194699068444], [1.6250805370646786], [1.5836210580008774], [1.4969703649755395], [1.2963972646134436], [1.031256161569659], [0.7151053651516068], [0.4972547455255248], [0.32870113366872883], [0.1590469139100649], [0.1076150704491263], [0.18612561392431232], [0.1652097620855853], [0.186110155119297], [0.12192293833919574], [0.011186747741452294], [-0.09003951070024334], [-0.06372183750573916], [0.026215457557350143], [0.1423547560818112], [0.46464493505616616], [0.6017874456722101], [0.758118841553513], [0.9193624935103234], [1.2087526934470585], [1.4978959534134952], [1.589649372692199], [1.5272276482234655], [1.5785120770393977], [1.5324124600000322], [1.5321724485847446], [1.548152440690467], [1.3128103007751337], [0.9270031756590652], [0.6953763276570699], [0.5490571486816253], [0.27933156190892633], [0.17703453264920563], [0.21643197255064756], [0.17518052799533035], [0.11421829520252162], [0.11658278580566565], [0.006805004497266703], [-0.06801755803365332], [-0.1289159011090458], [-0.10447751384007829], [0.04627575395859263], [0.24074129122814042], [0.4186084981551226], [0.5788209933397113], [0.8013171559784766], [0.9036915147350756], [1.1285982292564996], [1.481538751331147], [1.596965915027194], [1.5706369530705593], [1.5959234491319785], [1.5262422129289115], [1.5795043387776713], [1.4811800435925657], [1.2941869160544426], [0.9182924071998593], [0.6050838424315068], [0.48138108684463726], [0.2540260722347057], [0.19909730231551193], [0.18039490912889442], [0.173355083157081], [0.12870876857787672], [0.0094588186652697], [-0.0034752547083189795], [-0.012362640422990014], [-0.06107339629576912], [-0.0048318379705737345], [0.10802271096408028], [0.2682682330907965], [0.39525253554227313], [0.5929320221975248], [0.7437557538555591], [0.8973953103567349], [1.2121391103981276], [1.428310942861911], [1.5588401048862337], [1.56467660353685], [1.5360854535840902], [1.5510415326266302], [1.529251985855449], [1.4873369738227615], [1.2486586309069236], [0.8330592758157267], [0.6904074229172794], [0.4523622854223807], [0.3234466049865515], [0.23154890588259533], [0.2053970767359995], [0.16890612064705474], [0.11642279935180483], [0.059537626387388506], [0.017897586829695823], [0.004114825114580762], [0.04611264380666005], [0.09936766493298459], [0.18842584934644543], [0.27865990181464523], [0.41151355189681], [0.5769360319389437], [0.7182970422642704], [0.9217569316974137], [1.1781093203835067], [1.4694941187399122], [1.5617908684864144], [1.5906865429282018], [1.5975496970606151], [1.5751201043617513], [1.5826459047965387], [1.4474550894975715], [1.1727984690530149], [0.9094851053912714], [0.602390471360979], [0.44346015574381525], [0.3565572224348444], [0.2624810439551212], [0.31407973873355133], [0.2126547720043499], [0.1966856256483532], [0.1614789885734393], [0.009055140856904665], [0.013855456760793024], [0.09432827593824651], [0.1641147066327275], [0.19820766521523195], [0.2548330176464371], [0.4047732083885245], [0.5721198403784759], [0.7402653267536454], [0.925652075759804], [1.219140129511442], [1.4364770288662934], [1.5558956820938707], [1.5826260039148021], [1.6118260652301573], [1.6101705518784741], [1.5050639799260224], [1.3904483473737408], [1.101287200849919], [0.7942315263544717], [0.6115221946348152], [0.46764298543229077], [0.38427200281023594], [0.3817490891258065], [0.3276746444428394], [0.2719575097130404], [0.2224011678198517], [0.1512830946455315], [0.050531045355073044], [0.023580778014405623], [0.07065173308971892], [0.09096735849391183], [0.19312160574701037], [0.3649556694434205], [0.4610301251139752], [0.6360716203424382], [0.7854049103192873], [0.9968795897707794], [1.2153144922137584], [1.4059731090072194], [1.5928577469525638], [1.5748454989115792], [1.5620144996025231], [1.5836087052205525], [1.5552051546616357], [1.4122186072911225], [1.100666907104009], [0.7443434482414635], [0.6158176162922727], [0.4750681741796198], [0.38977019978177646], [0.36638677001027103], [0.20000188647425315], [0.191512091310089], [0.17491852056343937], [0.09694743301581692], [0.005880312451855945], [0.010264841577930178], [0.05757096172104339], [0.17866740596666977], [0.21311154988801315], [0.3208982630124808], [0.4739022007329154], [0.6717779155710086], [0.8200789396834336], [1.0463657259048091], [1.2600327485157268], [1.418567466055153], [1.5888553705588733], [1.5242832099949666], [1.568745427829764], [1.5901637979130312], [1.5067769778074156], [1.410505608699988], [1.0851831771600042], [0.7570929199485255], [0.5864383893462785], [0.37832665126802184], [0.22515144205741808], [0.1971499056582599], [0.17754168977693105], [0.06223645309705247], [0.00944479529176203], [-0.06286175228932683], [-0.07785640229288826], [0.036813117723073725], [0.09019843448240349], [0.24609820198301804], [0.34850368847233915], [0.4289370975399938], [0.588409822581732], [0.7389845719756627], [0.9445019280271292], [1.1532879175792043], [1.2748645944649517], [1.4805538262590408], [1.5712373094950582], [1.5836971470140508], [1.593551859822944], [1.5796412014587684], [1.5834188111163485], [1.3739113591576564], [1.1367060278518937], [0.8373422419218509], [0.4968821038077135], [0.3445316110941773], [0.22032003065806208], [0.12023825662946938], [0.09187544663361726], [-0.00039470080134184596], [-0.059562480804678894], [-0.04695678306270442], [-0.003789878313599988], [0.11987720758486024], [0.2141886959552653], [0.3284816128845983], [0.4600481859394421], [0.5457494968553747], [0.735567055550602], [0.8942918408130244], [1.0762431066872953], [1.2685069634594166], [1.4029315199726469], [1.537854547173517], [1.554375474967749], [1.5927246980595542], [1.6079002586529147], [1.560755967278439], [1.5317253598330216], [1.4440526419562167], [1.2889955925934988], [1.0075668649846172], [0.7032345498716611], [0.40500381836647426], [0.2798948962748416], [0.11518741108059731], [0.09392420801575443], [-0.03429569079738334], [-0.04113198028838283], [0.06425768941356691], [0.12598177248426812], [0.2794460624057858], [0.39772332602768573], [0.4610409494939261], [0.5651478891624432], [0.7648908954143241], [0.8927623327721103], [1.0576080732581903], [1.1869171984795368], [1.3711830273550238], [1.5019611452597361], [1.565597863246277], [1.587878202879242], [1.5909367280930247], [1.567267879765344], [1.5999459235570763], [1.542696055810471], [1.53270228194442], [1.4144703932573461], [1.2295416534339896], [0.9260029936043658], [0.6441956992730303], [0.4334974981157367], [0.26596957442847563], [0.1524272761347501], [0.09461158335114249], [0.1308375032897482], [0.19898936465602846], [0.31697918377005047], [0.4901782452994325], [0.5570606456506751], [0.7063194216341632], [0.7977074754677569], [0.9193688519019774], [1.0891682084377945], [1.252084241481025], [1.3893773184505478], [1.4920055073670764], [1.5092803637256131], [1.5739724001209068], [1.5796471634417528], [1.5713974106525677], [1.60449045665397], [1.579973459542364], [1.5428926340463636], [1.5814030150279066], [1.4985114463704086], [1.4625373254946348], [1.2063048747771925], [1.022861358091214], [0.8553367077647829], [0.6911350378362138], [0.5354177584440112], [0.470607758710269], [0.437246965822446], [0.46136305482008777], [0.5244915512233782], [0.6324028895954424], [0.7871738695671988], [0.8507307252006832], [1.0376386108804814], [1.0903737960375166], [1.3039385612123555], [1.4111229714171374], [1.4756430679225525], [1.4815413434282114], [1.5682510412355115], [1.5940469457727013], [1.6096584769349662], [1.588842722559398], [1.5556899583404424], [1.567252955602884], [1.5772334508735664], [1.556015697547299], [1.5707872229700066], [1.5334626604010797], [1.4522728410556869], [1.2930762922472434], [1.182757479640803], [1.0812735869878576], [0.947495106148618], [0.8869867325083778], [0.8296457452719483], [0.8511182003978989], [0.9037894027041454], [0.987068680736592], [0.9581866210336306], [1.0782632290849734], [1.1931851512441107], [1.3383978833124743], [1.3958643532876513], [1.4582527216007337], [1.5074898631425777], [1.5628191924473047], [1.5930095474445736], [1.5793817416955034], [1.6039739726897126], [1.5739265568331886], [1.5761458849910879], [1.549194827705441], [1.5660977685202369], [1.623251378575888], [1.5587561282911742], [1.5686808061120023], [1.4293487040428856], [1.409429967240627], [1.4125239025629155], [1.3027970699865505], [1.2023392750444641], [1.161051547318317], [1.1454275110962515], [1.1418225744162418], [1.1583997503181713], [1.2067774896997059], [1.2504735930207813], [1.3016747547871719], [1.4022998758988303], [1.4806314791661634], [1.4856780052028886], [1.5996859579153695], [1.5958910755829152], [1.545461689680388], [1.5566739632858546], [1.5657083643525385], [1.5324656503621883], [1.557709414185354], [1.569276584136289], [1.5918402904801523], [1.6296242995656927], [1.549962005752191], [1.6127237793998905], [1.587027305023206], [1.6042059863866311], [1.5726155583012955], [1.5528242727098915], [1.5737668347907199], [1.493235602518739], [1.4774175008030823], [1.5455144474585865], [1.4850082369307565], [1.517905262272975], [1.5173308672936603], [1.5066915607675717], [1.5912967152779625], [1.5226959179260624], [1.5719271061385336], [1.607351106253204], [1.5988861073211063], [1.5981569987011333], [1.5408124623148225], [1.6069105187863277], [1.588610012426305], [1.575947615463635], [1.5949526913226721]]}, {"type": "output", "nodes": 784, "activation_func": "sigmoid"}], "bias": false, "loss": [0.06635112176997703, 0.0627236833826986, 0.06245028220092228, 0.062249615707156675, 0.06206595289087207, 0.062218290283334775, 0.062047204473289014, 0.06227454047215385, 0.06225308941442705, 0.06209459751078597, 0.062197935330392556, 0.06192438875502409, 0.062070600918018755, 0.06201265906847642, 0.062083215057172715, 0.06184719611600599, 0.06216965773578476, 0.062021491988410414, 0.061842285518371745, 0.06196265166740667, 0.06197622494049435, 0.062119845248639664, 0.061928558881117625, 0.06189962041893682, 0.062025644787723995, 0.061997227098251784, 0.06199011284548626, 0.061949554373731744, 0.06202050643030876, 0.06188158817217565, 0.061979537714403385, 0.06209539565660738, 0.06224952249745195, 0.06196264529295556, 0.062044088308498814, 0.06195435762395319, 0.06201528298777815, 0.062526106246612, 0.06191416655784157, 0.0620457424829842, 0.06198765786466711, 0.06191878870285872, 0.06196183295220136, 0.061875715360388474, 0.06200499039324509, 0.06199488198029251, 0.06189611041602288, 0.06189804450937449, 0.06192179799664001, 0.06207392632319305]}