{"name": "hl_2_bias", "layers": [{"type": "input", "nodes": 784, "weights": [[-1.010248564628725, -0.7189429274242941, 0.21860404832334776, -0.3860575680981478, -0.02413508589448659, -0.3302213114703073, -0.5438274834105846, 0.4866681784466178, 0.6040239105538966, -0.4838657688920898, 1.5549240602973082, 0.2763108367404693, -0.44882229580048183, -0.10818899043027642, -0.044474203255087094, 0.12531558551205424, -0.9533285528189835, 0.5221373933297873, 0.4996883206640915, 0.012567233375013103, -0.584574879001778, -0.1900842612663209, 0.42989231582806425, 0.3987110401341682, -0.19271939820043246, -0.7603620372465835, -0.25467778292760695, 0.437336982708969, -1.675042631170522, -0.39954674217807296, 0.8472382315753691, 0.24064761557856282, 0.5895643549396663, 0.25913120060717443, 1.406333121614909, -0.9455977370552511, -0.08154373591840146, -0.14179020072575774, 0.26311426234016166, 0.8688042058917642, -0.3008523996939661, 0.1994448626434445, -0.22188459310684505, -0.4933270484796543, 0.22881021732217321, -0.010268269255114018, -0.6407339571861452, 0.9581792729709272, 0.49730096508039895, 0.8030110171165831, 0.8627334727870363, 0.637729852534123, -0.4372395468216641, -0.029587549841206335, 0.7342267123851691, 0.20976458342352447, -0.6448310943880612, 0.7576481460354926, 0.22947838216834313, 0.3390523971971142, -0.9379211863587112, 0.5336946252512447, -0.4265538098217684, 1.1790705783326354, -0.705819242589182, 0.3766115037259226, -0.9379308491632555, 0.43403627758228813, -1.018202442050983, 0.027497569576049187, 0.7310785906658366, 0.8847019051914498, 0.6467691585327888, 0.7225978260722711, -0.6658603598689313, -0.8983910645512848, -1.2491603312456923, 1.1556262292279453, -0.019723095647695615, 0.8271014810686876, 1.0590321421536002, -0.03558143061209588, -0.017519835394272952, 0.37253834271746183, 0.021408843815379937, -0.14005634501877848, 0.1065907623753055, -0.21503151286064343, -0.2843757505680417, 1.0004203455350236, 0.36108879844612984, -0.3505825067948562, -1.51665489653655, -0.08956015017341756, 0.4603423467495723, -0.4557785060647154, -0.12694133701963223, 0.6965319763338971, 0.5205463277064724, -0.44753900708293126, -0.9669096408738422, -0.49892101947085676, 0.6534793100248634, 0.6312806810573731, -0.10044928015241199, -0.5319641736701948, -0.06902296205260132, -0.9326919795912144, -1.4045800598835454, 0.6043464067784791, -0.12563820476658688, 0.025573425429307937, -1.0766596703659266, 1.8703109244880314, -0.6483647391634877, -0.43965516786871534, 0.7369270117095974, -0.10399258799395503, 0.6619166128566727, -0.23575434745141566, -0.524474905375553, 0.7032366921520666, 0.5177194456737714, -0.9808231308863969, -0.14820834330583021, 0.42496855682918455, -0.04080603623146683, 0.7381127573461018, 0.04186220581537708, 0.2528302733099284, 1.884759050605946, -0.3300717150439917, 0.44151233245013627, 0.24654648776198893, -0.19774643213052118, -0.25862484403648744, -0.49591021125543305, 0.28265644642334703, 0.09087120754464796, 0.4337855630635027, 0.6623052844249782, 0.451059363941818, 0.2861541037750937, 0.9625669471601171, -0.6117937788789607, -0.5774541312889102, 0.5181012156025295, 0.33696510141261254, -0.8299111268931084, 0.534258767045392, -2.343602166933937, 0.12896032377430944, 0.22748591564969528, 1.4515957760909803, 0.27837502893243826, 0.09706442397263441, -0.4471736122837197, -0.41201995329686963, 0.37320989243764463, -0.9465795402436604, 0.1560022034173039, -0.21414979919366786, -0.05280186894015442, 0.1719965705696724, -0.14764928517815473, -0.8172977211884926, 1.4548226443800063, -0.08995582783890087, 0.4577427273478249, 0.8309238486501584, -0.27220554432528105, 1.136032425950487, -0.24169621991365106, 0.1249828481121789, 0.2958502874781014, -0.14358747793877594, 0.5093353462998806, 0.5309629504686707, -0.3090954014652514, -0.43668843598627194, 0.3496851080104792, 0.9089342230860946, 0.5185832862121409, 1.0681080741139626, -0.2872308597855336, 0.5582042987190918, 0.2763730731958558, 0.41047997437283384, -0.2497574671133313, 0.6285673995577815, -0.03750344063475164, 2.0167692659464738, 0.7565533782833831, -0.6880374219485967, -1.9970475481536292, -0.11205870352766978, 0.0996754003810158, -1.0918029620589007, 0.09607313904156767, 0.5561227866086723, -0.44660291917016076, -0.6933762096416746, 0.6241475948105448, 0.8062901586445969, 0.36200951871072873, 0.364821652890468, -0.010763786550638883, 0.45802390028246986, -0.11702284402610609, 0.31828173325535913, -0.5810731285609834, 0.47302000552907336, 0.6702085919231889, 0.07977843889174656, 0.3367734167961488, -1.0036529851361045, -0.11952428741635998, 0.5352695762206916, -0.6483254842037355, -0.8464268593419468, 0.304425826957645, 0.7103848526130045, -1.1722799622487439, -1.1689889734754777, 0.34390389626451956, 0.5945332644162827, 0.15838745672309956, -0.10280953275475109, -0.3536973861361867, 0.27492303114559286, 0.07053940850914889, 1.0406521995259663, -0.5437267734936747, 1.6005591400937333, 0.5483805351658145, 0.35656408727551026, -0.13061022811342907, 0.43361213860898545, 0.5378812698802758, 0.4680996551492786, 0.3202845599890463, -0.10173056897244943, 0.0683231535694283, 0.3763367209418265, -0.1837916285717351, -0.07762837756348634, 1.1189847918978486, -0.26266882770315214, 0.026675102960848594, -0.39365792781675885, 0.08470282348169002, -0.6056798174366241, 0.17743097824214615, -0.03208600320809261, 1.9423984077622471, 0.6214490643711443, -0.29269912209491505, 0.5601390946798991, 0.3971295413830465, 0.5612486368183258, -0.21519719431333081, 0.704895131518415, -0.18955177205972953, 0.1329922189234882, -0.03247984140972525, 1.1211524593945332, -0.6475470690293252, 1.7663563951595636, 0.4706587240810994, 0.7303408998590407, 0.4647602696932919, 0.3621264512051561, 0.34805840984085734, 0.04696815535131804, -0.03852192629244512, -0.18691933881073827, -0.2999294587638758, -1.7583848168231346, 1.5939865790690353, -1.4411849120080449, 0.8583843421183364, 0.1017977459882013, 0.4429417101276453, 0.7434753999302331, -0.3487830448526324, 0.16341552309624194, 0.3536664634980835, 0.45467708202725177, -0.6733399235009462, -0.11141500355642485, 0.6396428004560409, 0.4242812136692082, -1.2231972801372377, -0.6450909643311458, 1.9214590751947538, 0.2986148773921321, -1.4132470357953406, 1.4644668086212587, 0.4750927107154829, 1.3020696100968148, 0.4301093211485011, 0.40719981387194243, 0.43594302452496103, 0.8459103216869461, -0.11127466476842245, -0.6894675413515525, -1.1868894956069287, 0.6117110361102571, 0.8434590729936599, -0.591560616463404, -0.2605732727544907, -0.3199131793374734, -0.34084681595317035, 0.5845972701057802, -0.27154231006130897, 0.06764347607693509, -0.31914256485073594, -0.19537968328086427, -1.522390744950789, 0.12943819331047357, 2.554336504279722, 0.30256220563388736, 1.7344864039797434, -0.029490719047790253, 0.9281648063919574, -0.9948867053020224, 0.3951094592514599, 0.16216174243275203, 0.7713018925073575, -0.5909943738517516, -0.02886711941800266, 1.512459720580246, -0.7012047366017418, 0.9783608747841629, 0.3781599197162691, -0.04359569205045763, -0.043895407928530715, -0.2953858720416101, 0.5924786265831127, 0.893037116611243, 0.021543931198498723, 0.6414118555179694, -0.40406301271509026, 0.768370173597635, 1.0107558449972198, 0.4022701187936423, 0.6628478494513301, -0.22354068723342518, 0.014598453907163855, 0.2291004831576026, -1.2138025584579673, 1.1536955161156823, 0.8669623094744964, -0.2887412513306848, 0.8777656649117513, -0.4506098972883496, -0.8876787647406084, -0.7893546685269565, 0.7909266063744332, -1.3104863574525913, 0.03840104955717444, 0.6320457645318311, -0.23423909989961653, -1.2360295093499702, 0.49761733443779893, 0.8746542668780918, 0.010186928860627055, -0.7174064116805103, -0.0935373626302841, 0.36624840319140284, 0.38676155983685206, 1.7965275040841258, -0.44397288833027454, 0.48911817815419284, 0.3923963917994138, 0.4783200573847125, -0.07683910952664423, 0.31259720480859404, 0.7914844935702173, 0.10286086723787863, 0.7399000950735201, 0.6168841623556308, 0.39721746401965125, -0.3977085396395312, 0.9449787744174404, 0.6172708165575529, 0.03194631560029004, -1.3233152435999098, -0.20181448256116827, 1.7711155011394129, 1.0315508020703463, -0.36993761310454754, 1.0994751060028787, -0.7232564383764567, -0.5078703161722281, 0.35704917982218876, 0.7569512103488396, 0.9267875025558199, -0.509518813662333, 0.3972100650399394, 0.09744027813196096, -0.20152754098055692, 1.9921641049015122, 0.1976448317570187, -0.2080591364607893, 0.6085035880893811, -0.9534173801820027, 0.9697740767374661, 0.5376586735029023, 0.9050218359324864, 0.14456111115424122, 0.22273889214122636, -0.29810622118315167, 0.3318382838569988, 0.9058338571531315, 0.940894776049378, -0.14326006585980552, -0.2710751723608897, 0.45797430396475464, 0.8805827912211323, 0.8167749879293746, -0.9083014480243696, -1.0469905314089818, 0.8396553748278859, -0.6964040163544001, 0.1462903195081722, 0.08640931972062901, 0.8859520126286086, -0.45847396092480064, -0.33826688575564573, 0.22855736885355496, 0.7467323102138892, 0.19025664830131495, 0.5490827203205318, 1.0069611866703232, 1.2568760043120963, 0.211502828259516, 1.2994373742906966, 0.7664569984672481, -0.8555686920970592, -0.4642292423143674, 0.21216865775552166, 0.2924600385080417, -0.16697906950578698, 0.7091076384372272, 0.22248316412046087, -0.8360161171377151, 0.40933235242105953, 0.41229560507944013, 0.36734934036176425, -1.992895784378621, -0.7093292656260562, 0.33238262934825663, 0.744435913840176, 1.5793248042364865, -0.08557128214338186, 0.1542414616660521, 0.33559951474536415, 0.9623051525706354, -0.6309998625597126, 0.3015079467091204, -0.07390065379037108, 0.30705414351592636, 1.6441807904046726, -0.15882525554150104, -0.7373605068571116, -0.016274175076766224, -0.00203272848525152, -0.11597043340886355, -0.45737166509479893, -0.9019706606934307, -0.027890894861284488, 0.4975886887557135, 1.2282900743470475, 1.3209828650863193, 0.637928006469628, -0.9729294681702149, 0.7141657699213099, 0.2988830772051636, -0.08035510776434655, 0.8693250299083551, 0.8699939857145202, 0.44927518175743736, 0.05139428361980561, 0.33884364384843135, -0.8659167718731318, 0.286457863191883, 0.5540618257156, -0.8789997375855605, 1.3010502664980839, 1.300645962370262, 0.6821327793800076, 0.9375997268313446, 0.04684942305559935, 1.5422672997091198, 0.25321717378014214, -0.37039949312192033, 0.9771964161140385, 0.04785315970347945, 0.738287208396889, -0.39205160986989723, -0.20480986761988834, 0.03321191203402205, 0.09737733645848465, 0.29197292634845046, -0.8388054973720653, -0.34670857372742353, -0.08524996498718337, 1.2849980118981434, 0.40751723874698914, 0.4597404342416804, 1.1743293864371434, 0.19654980154098564, -0.06774673224932048, 0.6579992732865066, -0.20564666400768863, 1.4316430532864428, 0.5768042610187328, -0.3031839360131401, 0.1399970568524373, 0.9532317342615332, 0.6484684508984546, -0.33423245120399164, 0.8158806257219047, 0.9388751961314891, 0.46240156391890175, -0.14839797183665376, -0.7942642478241312, -0.41800284467659643, -1.2980968090246998, -0.3805742850351075, 0.5975833261957171, -0.9337902356603605, 0.2523421636953744, 0.49591606134305816, -0.6093280825114467, -0.9564035789576276, -1.4606998894925058, -0.44026515711397907, 0.6989054192917188, 0.7981674890605922, -0.14956010834207759, 0.6984744006455765, 0.8765429079413927, 0.6397250534506546, -1.4537752841436797, 0.3804196493179673, 0.9507046707936379, -0.19339896063773282, -0.0650038998476047, 0.8870576489304062, 0.906354087183006, -0.991156943133323, -0.43577201776070984, 0.26779534396260574, -1.0854544414401188, 0.17685530833167082, 0.8368354297767427, 0.6340682638399072, -0.011477132501325933, -0.08928848274205733, 0.3102665528056097, 0.32811543517923175, -0.13577753906712103, 0.10568003729126528, 0.03533676445738432, -1.0615218082022706, 0.8471125618818484, 0.40548122576432755, 0.5774689112093506, 0.30085669732271947, -0.9074406795083416, 0.26834861228689094, 0.95145771811013, 0.21851718308610546, -0.39880053223080997, 0.27379825516524836, 0.09122362416721136, 0.0979832893893531, 0.5244797724405363, -0.19999073352924612, 0.6271745835618802, -1.5127607156737177, 0.4939056066813427, -0.12783989849077174, -0.4304115421176135, 1.6278767877751743, -0.7882891481787818, -1.8309645999189579, -0.48497992050397987, 0.15134044276688347, 0.022117042228305867, -0.13193408845108806, -0.2249760382438334, 0.4543840030010962, -0.27409086893995216, 0.4747838759067696, -0.03184584207816598, 1.162329733730571, 0.923826957161986, 0.5253348622189589, 0.8035169095145331, 0.6117987372893778, 0.4605768882782793, 0.28164071241018573, 0.3141651550169513, -0.7704638201931783, -0.5379064128721727, 1.3351706127223237, 0.5799086179247895, -0.0979535710428896, -0.3553310388469885, 0.8284065283872327, -0.5951516432473867, 0.18404236379106859, -0.29842400403371766, -0.23490287815786118, -0.613919092046354, 1.721473406587744, -0.9519537996770264, -1.0842526554038576, 0.1446504120539277, -0.6867039047175003, -1.3958230774050422, -0.27198953951350596, 1.210685262952304, -0.5269294630397855, -0.7305198019256393, -0.3254221881274509, -0.10444795476292892, 0.08094684260202266, -0.261582201701414, 0.16606392131418732, 0.8846577030723257, 1.1162220546415658, 0.22705051727714048, 0.22569520146705507, -0.779945714154014, 0.035099491576659814, 0.43259861182913195, -0.274436255388708, -0.3817538004804361, -0.060583214166131126, -0.46425591155300955, 0.9392645245920117, -0.5617353151945715, 0.6502380314742953, -1.2589402574141215, 0.0397290860419197, 0.2116248454293854, -1.4441365803612831, 0.27743110873554805, 0.8634986590443904, -0.07985441123252875, -0.30904645125074187, -0.0010052316242804924, 0.5387978336237947, 0.21682995474892935, -0.35241871483946524, 0.6267125553297204, -0.5417840849058446, 0.5242174221128721, -1.6645370805927415, 0.17328571952698588, 0.029864725120361736, -0.03688972520866051, 0.6672532576265237, -1.2133914675859447, 0.26442750620566363, 0.461229165813973, 0.7440072569892378, 0.7129302810963677, -1.667303408821477, 1.1004497005947107, -0.07759423975270767, -0.3137474071978506, -0.7170164644352092, 1.5022652630378646, -0.7449739940643688, 0.312002444448278, -0.1331462249319497, -0.5595504997584304, -0.6682423235503858, 0.9346292669450204, 0.5343306736497807, 0.4763307848438372, 0.19357150252560978, -1.524752048402888, -0.26624308333163166, -0.5869822000489422, 1.7432442025076704, -1.1696465524104216, -0.4765120902324504, -0.3618902870693667, 0.41118154926363076, -1.5815433807409105, -1.8395875155296577, 0.09042150428714824, -0.10028819557597986, 0.22239944540999207, -0.6546515524142492, -0.3254141756254362, -0.22731617782903837, -0.609123121155545, -1.6132628899183217, 1.4638229775325982, -0.8941007172227339, 0.14105556163354588, 0.5289925701541948, 0.15739738579328488, 0.07113776805625867, -0.6773709418785536, 0.552683911544699, 0.7666750246096415, 0.9057041230739856, -0.6024910519052168, -0.48860160157154536, -0.7203502603887626, 0.4824212642896602, 1.0922151826588924, 0.46724616372471606, 0.7750452268339441, -0.19128663757032818, -1.2237637943168516, 0.0246777196133, 0.09487685659260806, -0.09630505266099527, -0.005695063617059083, 0.7583208477436013, 0.5006098348552647, -0.3231540376849906, -0.7428767985307481, 1.1684742695762853, 0.9667715476234616, -0.2705185285149545, 0.40547366286538394, -0.052775352675638286, 0.9633979501584816, 0.17343038084720694, -0.9310785613793529, -0.8125198337129054, 0.008742567951696553, 0.09299109087487871, -0.056180504606544744, -0.6307740828479554, -0.3233587937381669, -0.016066011845523594, 0.10114782729720943, -0.5269659929419762, -0.6354015268365785, 0.4954615738662723, -0.4448142833903434, -0.3116545728044025, -0.23734324400791046, -0.24559791254228197, 0.6994999592272372, -0.646859332253748, -0.39512128044212974, -0.03127055301717045, 1.6232666968011715, -1.686935607377317, -0.524582796547857, -0.5799511211412285, -0.36835265957032787, -0.4666697485622362, 0.3575105732252256, 0.7481243965312726, 0.669689031963509, -1.5327586723457705, 0.049269032143345624, -0.06927121012586547, -0.6135829289772978, -0.18969269214734488, 0.1173505478876266, -0.09446259909915342, -0.4595455194367562, 0.16344135866523746, 0.06613062691170432, -1.2791524270808654, -0.3699259264477466, 1.0857972002296645, -0.13397303288597792, -1.0484367900240645, -0.2540747772527551], [1.231711692165088, -0.12013722547460703, 1.1830474948804486, -0.45213330812708213, 0.27778048357903323, 1.698236363522909, -0.1414512961032444, -1.0935498958271614, 0.9016101039543495, -0.23608203725093238, -0.8305068009673605, 1.4616969669563813, -1.058890441590332, -0.31443333287146097, -0.1662558000295297, 0.21011573833042288, 0.25130644303421995, -0.16087754492703235, -0.572894380103743, -0.12743159601014872, -0.5870183596439703, -0.41301506298095386, -0.3023359027453248, -0.5845227501597084, -0.33061758597370766, -0.22882195293066918, 0.3637607500677578, 1.5770240799979265, -0.4134008519636027, 0.9813771070381608, -0.4727597525679664, 1.618889755381469, -0.360508471925818, 1.101608169483579, 0.7625953374597917, -0.9093856937382123, -0.2430096144846719, -0.7529368633497604, -0.30191569945523106, -0.05685253507690815, -0.5555695511099609, 0.14161694698011093, -0.5303732224062746, -0.10647340754445819, -0.36641974747210043, -0.4883407347373872, 0.13677250067571792, -0.9393325133687626, 0.5273607689884187, -0.2590100934383405, -1.0671526909394908, 1.101089374195119, 0.5886825257116292, -0.17559750627118562, 0.603993109109002, 0.9032676917028374, -0.06071407168756358, -0.4032879235515588, 0.7914302451108691, -1.0531768365491925, 0.187046729726421, -0.06122780994071921, 0.12337340416257189, 0.44165680278155556, 0.43185604638368874, -0.7477711257182161, -0.6588335995809687, -1.7213057802385, 0.291170382659285, -0.6288250595910455, -0.229468564742231, -0.6839581479524663, -0.39824619424103036, -0.5023992586924061, 0.5812647734742507, 0.04164678830322236, -0.9705054856867168, -0.17393197180123193, 0.2280861570476319, -0.11057976418237103, -0.5032566978592523, -0.3484882143584785, 0.5193827654232802, 0.43562866494097435, 0.6977975249049019, 0.6496038688594107, 0.5532581577169983, 0.3572012666973528, 0.4518822786491733, 0.3115207695666838, 0.8601766346475862, -0.8377025260659255, -0.11157258219494631, -0.33212958230614603, -0.5134213707498003, -0.2950675723243718, 0.0629391077975968, -0.7530975171965671, -0.3246350421255886, -0.3881185356523609, -0.13268154765109985, 0.33027203037927094, -0.5587565950554662, -0.17489287950068097, 0.22659228704703663, -0.24593733570457366, -0.013831129796362663, 0.7123644423580667, 0.894473050145319, -1.53285199514644, 0.18552533985488065, 0.6480099919549615, 1.5171476198287792, 0.2360266667486883, 0.6175088925979826, -0.09542535746806804, 0.909467920195661, -0.7210585691130403, 0.012639990492917795, 0.1400054411243646, -0.2015779544570645, -0.48542681678224264, -1.0123968405701043, -1.3494632129976236, -0.4282937832124281, -0.7556031763292567, -0.8449990169476504, -1.0346087898305771, -0.1373648677476839, -0.4912748198262654, -1.4373953403954618, 0.03091246749853044, -0.9480203355542772, 0.3227723447544684, -0.12443516058991644, 1.0182595059514443, -1.0132357359972777, 0.8141868872536626, -0.28163730538684456, -1.383855230378505, 0.06069013877994178, 1.1436562482141863, 0.20226641057654965, -0.5397504051711706, -0.35528160834785477, 0.26307144935014476, -0.15860360787270084, -0.5348937740680506, -0.9879773175752306, -0.8411059584039123, -1.0730564034218135, -0.7111311911231973, -0.09239664897106971, -0.05568482983126777, -1.0392243515221848, -0.5406908601132363, -0.24263046304304237, -0.059520116547771416, 0.5721501441757768, 0.22980491837886974, -0.6151225244666685, 0.8951617918705436, -0.18959534443270445, -0.33736988595923556, -0.14851105991270164, 0.23710139261283247, -0.3611018695277128, -0.03416967828309075, 1.2121897592129847, -0.28009936077071346, -1.0476148608004765, 0.7256454323463104, -1.1543571663768233, -0.805052747953193, 0.04031223198096009, -0.8090212601343537, -0.8774600066780757, -0.07958132092503012, -0.6471663124110203, -0.10944163659032119, -0.5431220998041261, -1.1368196405667408, -0.2807698085762245, -0.6648138512447916, 0.31215729950448595, 0.16881705502788752, -0.26032063835107755, -0.767994071372451, -0.1351686553776568, 0.15715088807125766, 0.13842507212215938, -0.14127883008685652, -0.43871420023745333, 0.013357877764108675, 0.4893028529096695, -0.6295868337470414, -0.33199153465006465, -0.24986422910780773, -0.17355116870044443, -1.1147026393909805, -0.447772463909759, -0.7309406717237665, -0.1502434096919889, -0.8849556989109416, 0.12613211742302022, -0.1968427229722574, -0.14031550597192124, -1.3458673892006658, 0.4162980456370364, -0.09335845061543516, -0.3942429075879402, -0.3796933425562821, 0.5846090008530284, -0.193222904264795, 0.24000191015769737, -0.026678764388658033, 0.0895992460101535, -0.5219785554713529, 0.3044233396749184, -0.331961389012016, 0.4514669976102074, -0.449181448229616, -0.09256343798022645, 0.09845795539582664, -0.13137893038980536, -0.17406151892490845, -1.0445092985649758, 0.09760120574163329, -0.04275301754661167, -0.18593074683152816, -0.9326094304681398, -0.21431156468176096, -0.47496116277022915, -0.4843661142596121, -0.19696773435895445, 0.0547178396140609, -0.049706126315093684, 0.5517712318104314, -0.21608001070984278, -0.15037922534425047, -0.25275984041638055, 0.28427871483680184, -0.09258174371722663, 0.571351099556736, 0.05269397972924521, -0.5750387250031816, -0.14887551572283889, -0.28031136668309453, -0.13063827794058175, 0.15697045095469306, 0.33689464520624585, 0.3952694861773605, -1.3001881532308581, -0.25217205504294987, -0.9867817443459996, -0.11816651196799213, -0.699813968844793, -0.7560114570333515, -0.3810747909602507, -0.447857139267186, -0.23406051442664508, -0.47299042028784233, 0.7036018211055844, 0.9767795770022213, -0.13061995792573303, -0.10288444597581173, 0.13726634168742485, 0.6547759864114908, -0.07847656386509926, 0.021063239138995025, 0.30815917406563753, 0.21070478263026987, -0.20166964915709026, -0.08160587635208023, 0.12977610786843266, -0.5497243145843999, 0.033609525653496695, -0.039853900683750984, -0.021397027538039667, 0.5082108966614417, -1.2903314021201053, -0.2685516377414873, -0.5476920145106015, 0.005573709112043399, -0.7036845615350087, 0.41693851255528513, -0.46068732545613905, -1.0030241220555116, -0.15450770520223273, -0.4417581440940468, 0.10548773896289115, 0.7317284621453518, 0.07785530259066181, 0.16063915632951822, 0.10330778183830762, 0.441106200964733, 0.8407120767779053, 0.21987613480429954, 0.2954063449859186, 0.6477372875338093, -0.30183984582946544, 0.8307406849145128, -0.5113758068467622, -0.06970875420275671, -0.8613692332444366, -0.4860245985845143, -0.6268920597813467, 0.613476757983836, 0.2611510299000936, -0.9358722088740961, -0.07549860996167267, -0.0543415045197747, -0.5544900684293227, -0.8750135652281376, -0.37759949982292385, -0.2009942057617607, 0.31472999745927466, -0.7623792211720726, -0.37269762107995663, -0.10176975115281911, 0.2001686759113409, 0.5431230885862047, -0.3861002046275367, 0.33730158697278295, 0.08589505733364, -0.4800786971513669, -0.21897944123594634, 0.5625135914817884, -0.8010042880614837, -0.6393839114719767, -0.6198928626844712, -1.082550913431524, -1.211393297670775, -0.343846707420038, -0.2578445222307402, 0.3305658473330005, 0.41629051714208126, -0.9507196912125534, -0.5293208639937805, -0.3820359474836537, -0.3398721086728231, -0.4791226125817125, -0.5763815686624726, -0.588879949471926, -0.6419892951556935, 0.4004788869669194, 0.0002379603271619895, 0.023630945940945672, -1.2536771990854272, 0.23683776294552192, 0.5816216981157831, -0.4359967692412493, -0.1970058639290298, -0.23044490115402383, -0.16941754196400938, -0.8391195372946165, -0.30216751130531894, -0.5350369677090363, -1.797441632440505, -0.5120962930783534, -0.42604344792808285, -0.54904864469815, -0.5996300372999209, -0.20412099704368106, 0.2885208762041393, 1.4315743384671304, 0.13830454366318984, 0.007684370679173444, -0.47199062225777044, -0.31680922097831166, -1.17223016854734, -0.7729541487255429, -0.4188769996252401, -0.6042997811403861, 0.45321635250061015, -0.3927788284888603, -0.3326932862685379, 0.49969260087756534, -0.026635077326455966, 0.522045216584793, -0.46529809667589306, -0.36859492554706574, 0.4901023837877935, -0.541461433144037, -0.24284934836398095, -1.424083608628121, -0.6776926660029552, -0.019127111478632417, -0.14566030222660814, -0.7741063134512202, -0.22823725194793693, 0.703582912585632, 0.7515263177995845, -0.18477550695331932, 0.2362982269110908, -1.1005350904974482, -0.7641989759802893, -0.9395787829308134, -0.5809705571457822, -0.8756530713660449, 0.15498351102451113, -0.6165034949005314, -0.621611215083191, 0.1774204432199812, -0.5694934034914392, 0.05929389570244057, 0.4164487304478705, -0.5794307482787739, -0.08847029376767139, -0.09192908153004126, 0.15595005388683064, -0.9492322066114196, -0.7346599085351433, -0.9675113798351557, -1.9596469907041303, -0.8293986375922996, 0.2541963243076891, -0.40864073532127737, -0.8861976565583801, -0.5381579768297252, -0.5630280594409033, 0.49930871349525274, -0.7728764598152807, 1.3481335433005492, -1.1905255179863918, -1.0820356805584859, -0.4356117417154784, -1.2693862662608946, 0.20839504013401874, -0.8926285226774066, -0.2255710193332066, -0.3249933287465087, 0.1804097992991572, 0.33754783483583833, 0.7795683257075655, 0.8990337723605727, 0.2834528253386644, 0.02579562887566235, -0.5768479049957538, -0.5813016030648214, -1.652777692861861, -0.7948197434589623, -0.9999293321897698, -1.1219618022704403, -0.6586331889104348, -0.09383010869206403, 0.05641640806724533, -0.4626156058520699, -0.7882874108275059, -0.03959754181095559, 0.16180507886481055, -0.21553131200071007, -0.3893844425555764, -1.3563648404257427, -1.0614873977387753, -0.5502761495702677, -0.5408826294034587, -0.3355692910391175, -1.1373818509115288, -0.5330128246571562, 0.060926218628248416, 0.4949859186034323, 0.890301146138174, -0.3612579667504749, -0.5334269264249559, -0.07687366132976653, -0.29869978090758453, -1.0262321512283088, -1.094922908200203, -1.5913160559313506, -1.7755801250674679, -1.2219502601770107, -0.4315529242466823, -0.4987840719463557, 0.24832050680629494, 0.1255027894034, -0.6867408668838674, -1.4598795036349268, -0.3351614674313918, 0.18830432386159518, -0.5411004332968723, -1.2093837101035412, -0.8639953120082001, -1.271527510156542, -0.8185367602971548, -1.0637849254124987, -0.5808238652544931, 0.1938218938503031, 0.16541998791693432, 0.5574799421793812, -0.1632945665806502, -0.22996323645143962, 1.3400421313876163, 0.3008550789611367, -0.7726646277959113, -0.24152945982394983, -1.9781132190989197, -1.9195021882304726, -0.892199787279762, 0.2027287133882742, -1.177970641487582, -0.19977129692073364, -0.7013850093410084, 1.0185094184301713, -1.6833478474233785, 0.061638605484284126, 0.28118485605626437, -1.2131642283834636, -0.9542339077532497, -0.615299729661164, -1.3107455413323323, -1.2506611936036258, -0.6184979077843342, -0.3273655223176465, -0.26780338688538236, -0.5053235105216386, 0.07809497188840095, -0.3361084181499542, 0.47615699089238095, 0.7608346957111528, 0.25264490137318785, 0.3069843914466892, -0.8437190561270405, -1.15856544712682, -1.6976803731906889, -2.667481824164205, -0.9944701894937319, -0.6743582425490822, -0.503712211609672, -0.66128698912166, -0.5745514955417357, 0.6357444764515235, 0.4275462076804816, 0.6716108320249808, -0.21148518411010364, -0.5734732275243614, -0.6905248455815195, -1.0646513216912954, -0.90421424232495, -1.00015140769688, -0.48499071984824255, -0.3082256013872308, -0.6733455795069694, -0.7177729431399773, -0.8726654999679004, 0.15442434872614383, 0.7316552366980618, -0.055739613774335825, 0.31323464188478367, -0.420815393625858, -0.6556847389229058, -1.152744514460589, -1.8662821033950714, -1.9261113466592783, -0.8994935661665214, -0.8272574479640222, -0.4127817181163898, 0.11940901606326315, -0.248419035662441, 0.42753758797378455, 0.5968823588178468, -0.010351676036511223, -0.8071114020793348, -0.6997493185839162, -0.10829582743714364, -0.5337548323095556, -0.985800867665378, -1.0427974122389532, -0.8237846430036412, 0.08078665403751653, 0.029653468866692508, -0.2321184295580434, -0.35089026678293755, -0.4269283609062584, -0.04427722592655971, 0.11593096464242493, -0.12064089292200804, -0.8071358201228466, -1.0156526087037079, -0.9159146304167923, -1.8672851050306445, -0.67815789859976, -1.8676608073659886, 0.5627752516247345, -0.47771550605611146, -0.032395154677985115, 0.43729369751153274, 0.7515855471403581, 0.41702110045018065, 0.4892681886616757, -0.8862444331164593, -0.8674819102052992, -1.0248716402513454, 0.02023606455802966, -0.1091938433390089, -0.4469928251912178, -0.5930070777701667, -0.6006300781047753, -0.39649415742071653, -0.3546015024699845, -0.19239666799763142, 0.06993460229443861, -0.17415298687920625, -0.04653640832463741, -0.5199513067030607, -0.4493789074963159, -0.7268506098317705, -1.1864947875039003, -1.621795456622944, -0.8741608815965298, -0.7191599972627929, -0.35388466262111057, -0.9921967688986966, -0.8616933503444082, 0.826129067443734, 0.3030467549671762, -0.5747914583639288, 0.1492036223907471, -0.7859215808099921, 0.07614552149376205, -0.40745232261969583, 0.04402130056157385, -0.12125971714101737, 0.021178754455062607, 0.02509090975724897, -0.6699475370336129, -0.5409198324709209, 0.3588594428328602, 0.033089713901902275, -0.0777943826800333, -0.21975256002977187, 0.668222608936889, -0.9070625232276627, -0.8288905516487012, -0.39694804577061477, -1.2096488217955703, -1.3010747712564386, -1.033394079936121, -0.11884020205066113, 0.14018163483751925, -0.37739277361655055, -0.6001020919608095, 1.4206321815206127, -0.16689539258793282, -2.052286571141501, -0.5248839605807029, -0.17791460818393637, -0.172958963958653, 0.25806265856632354, -0.30163253048951283, -0.4148036129796605, 0.31737363494119847, 0.6096819823809079, 0.05710252881607538, -0.30501982130472577, 0.37437770472412885, 0.15715805321109774, -0.10342605205074078, 0.03825216454044698, -0.31784815167564595, 0.004937940349931713, -0.1876216399676551, -0.573637262423443, -0.639848285890886, -0.5666113687906322, -0.5012602709917391, -0.300813322713823, -0.5734486457706746, -0.43119567828242417, -0.05818093470124689, -0.17870982267121144, -0.029343633783743713, -0.8725899638990972, 0.4432211657724278, 1.5650521533021349, -0.1975690908210671, 0.37830989277864113, 0.10029055880751177, -0.06727544615441051, -0.22102626438765122, 0.7447016740903133, 0.21118072667476862, 0.7012384283608464, 0.3942282472408368, 0.41547897232224157, 0.507878243135144, 0.5849009992024513, -0.07342379038656939, -0.6563643489293406, -0.5321638712372885, 0.03198003770331067, -0.07782770389255182, 0.17677470262603756, -0.3602251799976604, -0.8150483174979658, -0.20716911405294128, 0.3850109479675024, 0.2774421619025241, -0.14204993803112967, 0.5116012703392775, -0.27961041318258534, 0.6288335979661749, -0.0030558973569106934, 0.22909860298219056, -0.13217378665625748, -0.13520745210284185, 0.42007633233597685, -0.6143993329642327, 0.982238839517095, 0.49411769702295794, 1.1455854892217208, 0.37677687245694036, 1.078848847969199, 0.3117861344706485, 1.1449961602406458, 0.04300010965018168, -0.10342792197838446, 0.25550224119892984, -0.7820774212095497, -0.7453874770809071, -0.39198411277487827, 0.3214410476621104, -0.2677191879515877, 0.485424448682838, 0.08419098907115402, -1.145870128832281, -0.4051631113161009, 0.7855102970140012, 0.38285765873431615, 0.9068263188063029, -0.37536861953502626, 1.4695310288183527, -1.3053237012352157, 0.07134429176438122, -1.096035538176658, -0.32819554614665913, 0.3319933917594768, -0.017311796449506155, 0.9860854889030197, 0.3395078318480573, 0.8607916297914552, 0.5087208821477035, 0.1606433506242042, -0.11100632496808736, 0.25996418021227896, -0.7804521466102272, 0.5802887670798171, -0.24959350222839288, -0.4681937082309596, 0.5051603182467762, -0.21508612392050652, 0.35057907667472904, 0.5254883453039848, -1.2139830369610436, -0.07795308444558574, 0.6926011876000976, 0.22670621124320464, 0.39157537231545086, 0.30986333856546217, -0.2993435840985826, 0.09699218646999594, 1.2847308324913156, 0.6466341182250739, 0.790262827881104, -0.47166315396036546, -0.32508076192227026, 0.6515528867231547, -0.2531752538836878, 0.0006840728961848171, -0.6946457407697496, -0.08779185804906547, -1.079207671262915, 0.3628736112594859, -0.9296512920589898, 0.14382311359739708, -0.016290991645363045, -0.09085545957702118, -0.012089652898055412, 1.2093449719361946, 0.7845389258381669, -0.7527429756197758, -0.18718826472686276, 0.6231872971528815, 0.9971903683434296]], "bias": [[-0.6832019220619251], [-14.675836740036093]]}, {"type": "hidden", "nodes": 2, "activation_func": "sigmoid", "weights": [[-2.220733908944402, -1.1462708163430253], [-2.176819868895878, -1.2009928730311001], [-2.184467376764933, -1.179507328207337], [-2.168630240681738, -1.1732064198511933], [-2.208266692091553, -1.1848979072259864], [-2.2037687279925557, -1.1269587053257688], [-2.236027551900472, -1.1268255706959365], [-2.1880452349022916, -1.140310791429589], [-2.1842249996967418, -1.150013538777837], [-2.1335211798360083, -1.1165233353633266], [-2.180265153715248, -1.1806058351137134], [-2.202854155896481, -1.1299910017722672], [-2.1939309863540353, -1.1272241132681318], [-2.1767994260453767, -1.1952841008883746], [-2.152585779189945, -1.219331951105446], [-2.1586923206422024, -1.1528579389894047], [-2.190564169483282, -1.226288409173322], [-2.14282710242997, -1.1526730111150945], [-2.1306400200009503, -1.179520592420433], [-2.161376228082625, -1.1894768573978158], [-2.1843955581656394, -1.1832588365937513], [-2.159245669881043, -1.1494843221884983], [-2.1948954133986325, -1.1829910847759926], [-2.2210810470706277, -1.167454710530194], [-2.1683927588344556, -1.1443828101477884], [-2.17147185724591, -1.1629781316351457], [-2.175161605194075, -1.125779514722185], [-2.205639933136923, -1.1628895748340673], [-2.2279576666576344, -1.1507597686165028], [-2.1752385068936615, -1.175528284171114], [-2.1711394518282936, -1.197239647865647], [-2.202480356263062, -1.1837509148325551], [-2.1706543946967627, -1.1532341214480255], [-2.184655153938103, -1.1520363883317493], [-2.147513051022345, -1.1518446638490303], [-2.1771551747899682, -1.130384791024654], [-2.179461825053958, -1.0903728576947938], [-2.1232001524997277, -1.1891635919321546], [-2.160559343828059, -1.11458682833301], [-2.1575753833138136, -1.1231925121050115], [-2.1651388770593885, -1.193791461724666], [-2.1464176087350015, -1.0935377207829158], [-2.142108832461627, -1.143765594043076], [-2.154562002260308, -1.0695617599450846], [-2.1659766254836463, -1.103938741434363], [-2.122621737419138, -1.1162377210541448], [-2.136635984086877, -1.1022649708363041], [-2.1293634632197986, -1.1567022114990853], [-2.1505461174201517, -1.179031125131543], [-2.1800477641342004, -1.22655711265177], [-2.2047981988788528, -1.1654995717130805], [-2.1516939281186143, -1.1945630524680708], [-2.219892635044851, -1.1767659722095491], [-2.186070117123786, -1.1533487232130735], [-2.1853238985622085, -1.1719135847067748], [-2.147891131975873, -1.1206493564287394], [-2.219045576808627, -1.1385806786254173], [-2.1955717293023356, -1.1419094263210139], [-2.1625191016906062, -1.103032185303843], [-2.1555573782967503, -1.1645564991047523], [-2.200791544498776, -1.1315876045321531], [-2.198001835963484, -1.1841347304236085], [-2.216665421591144, -1.093491001521772], [-2.1548660786886407, -1.150839612110963], [-2.0641493358947494, -1.13608769343721], [-2.0780489240389155, -1.1849287843658984], [-1.983016286499439, -1.1290321996757695], [-1.9136015373621316, -1.0865609730579306], [-1.8151839749932188, -1.1319709853577982], [-1.7736565109345905, -1.107945654967894], [-1.6764475265322216, -1.104888339321573], [-1.6697838152750515, -1.0694471942270236], [-1.6466753747338583, -0.9881758899951439], [-1.7031218950383264, -0.8776543657117994], [-1.7886527312809744, -0.7717627828502844], [-1.8745179600624267, -0.7878605956632964], [-1.9798446715890956, -0.9133952298681042], [-2.045515187768001, -0.9828462436560366], [-2.1159636565058437, -1.0357319199828918], [-2.16467296619727, -1.0795591350202107], [-2.199826902068122, -1.1392778204996132], [-2.186079832769652, -1.1364492247736468], [-2.175660480618152, -1.170011323929668], [-2.2298237496865885, -1.145609342099177], [-2.2330911299132974, -1.175893170880081], [-2.18001717461536, -1.1464670794946454], [-2.1988516160954306, -1.1991989795486429], [-2.220114675096264, -1.199254394043624], [-2.1804716686159895, -1.1394574259064953], [-2.1293306794684104, -1.1107985923238648], [-2.1071256358353248, -1.157410938414144], [-2.0520773328400397, -1.1383041557533469], [-1.9520311970362685, -1.1015918212122098], [-1.7966335297692169, -1.1528259062377462], [-1.6170480248453103, -1.317094670273301], [-1.4735819810985145, -1.5220400932026785], [-1.3655161826023519, -1.7121790608123182], [-1.2383422646978643, -1.8219210839659654], [-1.0663228142834373, -1.8283622853972006], [-1.040902582059162, -1.731078077622769], [-1.0709145731248328, -1.4909006870943358], [-1.1539343631789245, -1.187901397410468], [-1.2996125194752, -0.9774115465528429], [-1.4433944181460265, -0.8405606543057064], [-1.6467858515525127, -0.7537019539351727], [-1.8440654399638203, -0.7594386418290633], [-1.9659372054366644, -0.9105215797469793], [-2.1497734647190154, -1.083370905404447], [-2.1455629167242996, -1.1135738898141785], [-2.2282175762371885, -1.136124722232383], [-2.179517464678551, -1.1404267675658204], [-2.1522542493729846, -1.1102368732998875], [-2.16682375499382, -1.1120439651286569], [-2.2067118531002423, -1.1118679824115854], [-2.162158011836805, -1.2032538998065256], [-2.2019692694743176, -1.1474929766154238], [-2.1773630687460583, -1.1813046308329804], [-2.0949552651028855, -1.1316983319150957], [-1.971296690542776, -1.1132275326407466], [-1.7164003168948696, -1.1873057978580495], [-1.4926024935338813, -1.5286583795356643], [-1.253199580510285, -1.8989212320343767], [-1.046147253645875, -2.1331501967354853], [-0.9175804828965243, -2.152537792777778], [-0.6855044596609923, -1.9486843513676684], [-0.5898039803760647, -1.7318823508711034], [-0.44144809834733034, -1.5454913829880588], [-0.40748253289698355, -1.4018476790923202], [-0.46825786660446966, -1.260425450372939], [-0.49988756828993547, -1.0773370042838997], [-0.707128552730653, -0.9357567978069905], [-0.8540529326370289, -0.7874200848074421], [-1.1617698459145922, -0.6332956396958451], [-1.383876423856771, -0.5084073135358682], [-1.668207522995881, -0.3939155693369039], [-1.8636616162919208, -0.5237447494253656], [-2.0457235337248636, -0.8847043954900919], [-2.214530681127653, -1.0642236135102134], [-2.1486899807719073, -1.1092197398354933], [-2.1765042495729365, -1.2131346107415153], [-2.1683682151597865, -1.1591493472164587], [-2.2030763780230282, -1.135595134994019], [-2.1364424534482067, -1.1580088861706404], [-2.16727364575658, -1.1777575382245933], [-2.140714356586305, -1.0806991700086783], [-1.8729709114832247, -1.1081606693599322], [-1.596705935417163, -1.3385960818395384], [-1.3296521465891176, -1.805725080491901], [-1.0755597286807348, -2.236749840983611], [-0.8424593184733439, -2.4334305858067036], [-0.6434358513488816, -2.378712491036392], [-0.4211160292421995, -2.1731054294481083], [-0.29286295650923444, -1.9001983184399391], [-0.14761977235230853, -1.6717705529532276], [-0.03386958226505656, -1.504721671790141], [0.019709449997762956, -1.356772526586572], [0.002925071985718736, -1.1483101951288415], [-0.04465910279277073, -0.9472359604642012], [-0.16907825688636657, -0.8032933624911571], [-0.37314391357451293, -0.6814861877613289], [-0.6073665399831614, -0.5733784729501449], [-0.9544353360495526, -0.45488120328144627], [-1.2451038880785816, -0.3141555034517143], [-1.6510261510694517, -0.12637939514630123], [-1.867155780160654, -0.07083666457502814], [-2.0737404321478423, -0.7519427409205406], [-2.173765987297868, -1.145071428561264], [-2.166872805573039, -1.1693654192547482], [-2.1568369309480797, -1.1477699496880993], [-2.1466634057216507, -1.1465464579526634], [-2.2129208451567095, -1.1629236440137274], [-2.1247514470489017, -1.122929259782067], [-1.9853327562738372, -1.071972773651469], [-1.6648863562690623, -1.1561454095607728], [-1.3686470609631178, -1.5756222999763358], [-1.0464840689425368, -1.9906880348205993], [-0.7854555560155643, -2.1338401744131072], [-0.5703916008219758, -2.1150745002144715], [-0.362025748758374, -2.0111533109306428], [-0.0905023143451615, -1.8436262399701546], [0.03418276498340586, -1.597168023479461], [0.11049464494530123, -1.3533976567650547], [0.18552866819016667, -1.1251725738829517], [0.19022723760052787, -0.9091506416696546], [0.1485224296127252, -0.7252627612034086], [0.15040523642311784, -0.629085095784586], [0.05797045530149932, -0.5989244952384671], [-0.10194084819497852, -0.5644662417516226], [-0.35872024969327715, -0.5263633077883159], [-0.6756274902786971, -0.4738823015019217], [-1.0506864182153806, -0.3238609112449418], [-1.430484273145848, -0.07881016828821731], [-1.7269850219016516, 0.1934900893061276], [-1.9858058472503197, -0.10678488823106873], [-2.1730339905336176, -0.9505912366335456], [-2.203895699364902, -1.139116045308363], [-2.194071958016491, -1.1388774242795343], [-2.158608540829969, -1.164241949633941], [-2.172211071362736, -1.13083776088582], [-2.1162091167987453, -1.0291156233340002], [-1.80080571647088, -0.8426872901333972], [-1.5206875462264267, -0.9485445975936814], [-1.1960091193991902, -1.230625017094112], [-0.8956015812823244, -1.4498001818800756], [-0.6132723961213374, -1.5450329354444934], [-0.42357886565941366, -1.522130225986193], [-0.23048122946362912, -1.4063111801426869], [-0.06405591287047328, -1.1992713621095321], [0.11305175934471418, -0.9074080099328282], [0.07728483411725287, -0.5802126321086927], [0.0652592762937328, -0.2665693751581382], [0.05065866827424608, -0.03150802130814131], [-0.020300816282063535, 0.044608991403991154], [0.06180284153919303, -0.0027486117569163384], [0.0565258633826694, -0.1372406115731809], [0.003972659224865466, -0.2827327948642026], [-0.19718746073711999, -0.37853733917897725], [-0.5344788731716497, -0.3923847176900736], [-0.9267604876669608, -0.3221991946336218], [-1.2883071614018315, -0.028150327284298414], [-1.6808323414732447, 0.3250277828575824], [-2.0030156477440606, 0.23822763764606977], [-2.150683174082514, -0.8837881765492666], [-2.2012593721650857, -1.134458703907274], [-2.197618195250739, -1.1481595762006953], [-2.196097628444868, -1.1494087881300994], [-2.1207823731042, -1.1026184870498794], [-1.9761012740237873, -0.7639143719987235], [-1.7053812473004661, -0.5236893507430818], [-1.4130199392600649, -0.670927718543546], [-1.0701546903036316, -0.9108972219931032], [-0.7524602071192221, -1.0721338891113623], [-0.5509408180424559, -1.1467200393279815], [-0.37592391353514865, -1.0473656381510912], [-0.1596970909634848, -0.8332376899862224], [-0.060793699552217244, -0.5468837897087858], [-0.04059158462870564, -0.15172233339374544], [-0.044013420926629174, 0.1892946990134415], [-0.12608290732088676, 0.43428559537763806], [-0.23766797610286555, 0.5731836013801909], [-0.2044078961498765, 0.563173947979488], [-0.20291653109299249, 0.44574978150170724], [-0.11204784696290022, 0.21793433922757843], [-0.05056604095583938, -0.04233067855235821], [-0.20373109355512983, -0.27552029193804295], [-0.4369631444492463, -0.3940473329799684], [-0.851850490365574, -0.40827799663409253], [-1.2168060878424216, -0.1260746372859102], [-1.7114016942691028, 0.3113035630656115], [-2.018590534830851, 0.27389687759985526], [-2.094558870804989, -0.9860307096030266], [-2.1834724202935756, -1.1938335092258539], [-2.20659671859441, -1.1037228080937154], [-2.170338085033947, -1.0886646082335585], [-2.079174035152574, -0.9701473701752011], [-1.9527282158567874, -0.5540386532223986], [-1.6423876774799575, -0.37147474776407946], [-1.3144971969296382, -0.5626697321852221], [-1.0072668223244499, -0.8162344916456441], [-0.7080502783643301, -0.9622317186362195], [-0.5136059272973466, -0.9409106229925563], [-0.3331835148412504, -0.7422170866377554], [-0.16698936408827333, -0.43342757891405026], [-0.08433996604275783, -0.11700871244171446], [-0.04544787127393023, 0.21187957410660035], [-0.26869532263753293, 0.4487753218753454], [-0.38511907579997057, 0.6373753289614664], [-0.42727403625861254, 0.7564568361980785], [-0.44374961549396813, 0.7170362800815075], [-0.346666580787022, 0.5596725474754857], [-0.1438404671493731, 0.32681554423180115], [-0.15216386158219425, 0.01624007902279858], [-0.1888194701301873, -0.3355112041614474], [-0.4502309886767017, -0.5882000214716578], [-0.857928129265986, -0.6952297230170424], [-1.2302041184057988, -0.4670117718011647], [-1.7188858214854894, 0.048967130002872325], [-1.9927523238621698, -0.09589997412178691], [-2.1747592139913103, -0.9668825235106341], [-2.193266211348924, -1.1019009904752644], [-2.1929595243210556, -1.148178039113338], [-2.123932053684148, -1.046709430948747], [-2.050673831938382, -0.9480950629032985], [-1.9190137120925443, -0.6166143327398609], [-1.7189584519462544, -0.4059751433224822], [-1.3536141704604159, -0.6929613720555488], [-1.0061589849133568, -0.9811701305321203], [-0.6518396751392878, -1.066798488891253], [-0.458469141788304, -0.8903461275625635], [-0.24206231365195435, -0.6006240391368688], [-0.11166520504501477, -0.29571165442510017], [-0.10431705001828344, -0.06056262118431401], [-0.21629787551431304, 0.1277372345456199], [-0.3975141481729616, 0.30677596590202394], [-0.5598920726085905, 0.5320960581417722], [-0.6102349485365237, 0.6832258851569815], [-0.4759614025985914, 0.6371797644811579], [-0.37640625979023434, 0.5033879657906319], [-0.2064369260632841, 0.30894908129973564], [-0.12157113020438436, -0.04405560472653035], [-0.25135562106370796, -0.49950168194137023], [-0.417247488255578, -0.9254335257756197], [-0.7774559724711647, -1.2155053582566857], [-1.1274096284900907, -1.1001215340988322], [-1.6972224861340983, -0.5156872450084569], [-2.04466922975916, -0.6656236471745218], [-2.1487846243384165, -1.0225093320639866], [-2.1857364052841994, -1.1300885170995385], [-2.146568527445886, -1.144954146735623], [-2.1721259782132534, -1.1294578091701217], [-2.097635321038372, -1.0469463580685276], [-1.962637972718411, -0.8059151387801156], [-1.697760318074426, -0.6214821498600452], [-1.347245310755466, -1.055035234517159], [-0.9458749115888048, -1.339156229053933], [-0.6079636744627456, -1.247241360611058], [-0.35448901690193685, -0.909095912755368], [-0.18111379298300148, -0.5972792284659831], [-0.017569549626004304, -0.3782069307418391], [-0.09041290582418574, -0.23847638953063652], [-0.2885749502810964, -0.15520125926740383], [-0.4762084111100094, 0.04214660574728417], [-0.6053913755441616, 0.3802691683060808], [-0.49762124820949266, 0.5369169444548021], [-0.38649496132741684, 0.5007375887113338], [-0.22930433817889695, 0.4015836662373609], [-0.13600919655392907, 0.1996353660245776], [-0.06725792706403881, -0.2534417267123809], [-0.25169822671646774, -0.8381213862322912], [-0.5101277206987513, -1.4701155612355639], [-0.767754335312112, -1.9912292301986374], [-1.1203310947920717, -2.016807410574354], [-1.6567930834565938, -1.1382740827084976], [-2.0666887758869636, -0.9884847808715091], [-2.152905721393225, -1.1211779720342718], [-2.1643367811609266, -1.17086429491227], [-2.1739472730489764, -1.1110542384526108], [-2.2415116449482895, -1.1494855514543885], [-2.158876718091965, -1.0950259362293373], [-2.047790262272883, -0.953239209545833], [-1.7477549753513906, -0.9050614611550235], [-1.2701184281624749, -1.4993107290894465], [-0.8225587864710879, -1.7146170393837494], [-0.5369772334318206, -1.3843129314574898], [-0.278672059866495, -0.9794188440499004], [-0.1046539222392726, -0.680804039111135], [-0.018255403038990797, -0.5434918039505388], [-0.11704525438018794, -0.4416707782508093], [-0.25229608440399, -0.32508495727637265], [-0.4075471445947792, -0.009624829856605285], [-0.470512427549998, 0.37614474858009855], [-0.3567864832055448, 0.4726917402080036], [-0.19422400995855424, 0.4105298226606345], [-0.06527025134557635, 0.24305968500546005], [-0.018886943233103897, -0.08255788265692483], [-0.09053660524737155, -0.6812149036184023], [-0.20733386969598847, -1.3970625683851166], [-0.43997631354043654, -2.2568729530542995], [-0.725909579513701, -3.546075858203805], [-1.059969757069824, -2.7975247480833043], [-1.575188642916592, -1.497341320540115], [-2.0476725058424776, -1.0475441460160932], [-2.1856796360937594, -1.1732768279136268], [-2.2001608165923305, -1.1235608292848966], [-2.1854206756451915, -1.1559691651206834], [-2.199697389560263, -1.2026830550466043], [-2.1238912156694836, -1.1216821843486557], [-2.059864679693588, -1.1060658155688599], [-1.6883563071019156, -1.0901133721754268], [-1.1778755729639703, -1.9212512162113875], [-0.7940083709351935, -1.9907219973561256], [-0.41681453412454283, -1.5229531662207239], [-0.21058358783796535, -1.061059111889592], [-0.06337802298068834, -0.7644102790230766], [-0.03804568448763058, -0.620067516720455], [-0.12257578318160367, -0.4660627805833341], [-0.2469982337906984, -0.21397903320264142], [-0.37315036110462435, 0.26410305938027684], [-0.2882436041234705, 0.5526202122095296], [-0.17075223969402195, 0.5932573606794581], [-0.02121650853366965, 0.3748982062920569], [0.1021381803853526, 0.011627227687811641], [0.13428475282119362, -0.4992111192465001], [-0.030766194364313847, -1.210733613133729], [-0.22671681018385273, -2.068525902157542], [-0.48983424770019157, -4.211071734984705], [-0.7224120615909938, -4.504346711582258], [-1.0302131977411453, -3.112699858546885], [-1.503738723377761, -1.6930378920929297], [-2.060940432182304, -1.0760734056393273], [-2.173775391062147, -1.1507359693554104], [-2.201597673884433, -1.143948029321241], [-2.1668396456858545, -1.1132482778471013], [-2.186520713802876, -1.1834271522178077], [-2.240564201116152, -1.134758508700511], [-2.0953199432756495, -1.1294716246198295], [-1.6805995969486485, -1.2481949887722845], [-1.0608686987244498, -2.260296095901552], [-0.7080168401193195, -2.242693658129468], [-0.40857833410790967, -1.717215224820369], [-0.13725660404681414, -1.2289142191430145], [-0.00996172132601641, -0.8682256360698527], [-0.04452270005087604, -0.6008540815948051], [-0.18729615888571938, -0.3173859366082507], [-0.2285225459760462, 0.04985610665820841], [-0.2622117342122436, 0.549269125800161], [-0.24810671002813484, 0.7502903808902429], [-0.10820037600937815, 0.7279588111207832], [0.02279914571861168, 0.349305164658031], [0.1634643795556883, -0.1225572335468574], [0.1715472296535465, -0.8615875423135831], [0.02968701315662449, -1.7547843975756652], [-0.18551684150093967, -2.8662001354848106], [-0.3529603363667191, -5.657984479521461], [-0.6535417294455059, -4.790608713572949], [-0.9622245436220839, -3.1887761592723183], [-1.42426463772041, -1.797060187716946], [-1.9817772250026064, -1.0461694737580727], [-2.170633742401822, -1.2282635455582103], [-2.183905438774787, -1.1815011616543751], [-2.191104630817933, -1.168144202669894], [-2.17881455673622, -1.1377893981551415], [-2.128562759117409, -1.1359506727892916], [-2.0943359676164235, -1.1039503803617823], [-1.6515720851213378, -1.3689973354297178], [-1.0344942719478427, -2.5722883785368413], [-0.6400429249872334, -2.6234235998893944], [-0.26424323161763374, -2.068614151109898], [-0.10972527776781286, -1.5293117624879373], [-0.0683518301947588, -1.0527578013729126], [-0.08438565821597409, -0.6252246274015398], [-0.23987696138564868, -0.23876604392406145], [-0.19930838328133124, 0.20362428967382457], [-0.1888940899718239, 0.6394099883330333], [-0.15445766512441192, 0.8435069179771996], [-0.16436619347136774, 0.786922495608756], [-0.04084123926875206, 0.4161114733846564], [0.0732462545935309, -0.12957064333562504], [0.11662103086120716, -1.1029902666577267], [0.06545629600089194, -2.2068005732492066], [-0.13391425179161168, -4.103486902523872], [-0.3333264778879156, -6.462415098480703], [-0.627073785660619, -5.026868807942787], [-1.0068223878476206, -3.21049712817951], [-1.4298217963393265, -1.791919887510773], [-1.970623980955877, -1.053769879127916], [-2.1677921280498733, -1.0944926068127556], [-2.208731389667177, -1.1440961750621406], [-2.189095479330386, -1.1797633244176449], [-2.2152641772899595, -1.153595529244067], [-2.1300075596660917, -1.1759268191348518], [-2.0436487128149237, -1.102712063162753], [-1.5720904511529235, -1.5351195515077383], [-0.8765987818733267, -2.9573338743097835], [-0.5077745614674164, -3.3274513887469426], [-0.2413209006842418, -2.629493813001663], [-0.03944129948745954, -2.0116045121092996], [-0.07584707804445238, -1.402873819962028], [-0.1074372027256835, -0.7843375419033279], [-0.19284043654046473, -0.2921062515914095], [-0.2046093423988018, 0.17606396449828218], [-0.2996459963583876, 0.577477512327267], [-0.23189883015971902, 0.8620739631928845], [-0.20625181673515597, 0.8708158989890473], [-0.12236310875988379, 0.5452446158106528], [-0.040384200022203075, -0.20219486463288147], [0.09188516129474911, -1.382291504124254], [0.11287844181478587, -2.710967604039727], [-0.04911053004882674, -6.4714576546979625], [-0.23744408509434112, -7.251783294064071], [-0.6256467878660237, -5.165068275678399], [-0.9654034734078556, -3.1416936415156527], [-1.4218668059276152, -1.7530366261493115], [-1.9126642787268788, -1.0843955479276932], [-2.178424650468609, -1.1153434471394237], [-2.155745778987695, -1.1248048513784292], [-2.157774705184329, -1.1289654766672752], [-2.2145078676044467, -1.1472659062364519], [-2.1571873386633276, -1.1853080577824953], [-2.0039854465012916, -1.098022468597631], [-1.4135993753111673, -1.769534758214412], [-0.8360935244464122, -3.2179657837284434], [-0.43798400485050315, -4.093764112104265], [-0.22985997278094047, -3.287962794797625], [-0.08776396737159348, -2.447778951796721], [-0.08402970615887546, -1.6911109615511268], [-0.19001649936582068, -0.9455779332049092], [-0.24545905649749447, -0.3529338219719072], [-0.25432890854597334, 0.13949017436005348], [-0.31413066594431294, 0.5720119113594914], [-0.3190682908880677, 0.9456367457397673], [-0.3018705800469211, 0.9884461164915558], [-0.21201002172028877, 0.5141540363511536], [-0.04092888732603815, -0.4828718373786712], [0.13980197619156462, -1.7669384681487248], [0.17972757672920334, -3.2996568096802568], [-0.0092727447596453, -8.059118632849936], [-0.2834196267802508, -7.597620512789635], [-0.6528937117970471, -5.0290839483445025], [-1.009248696263724, -2.926530457461717], [-1.4485867702168314, -1.633820307989167], [-1.877035483987605, -1.0652757992664266], [-2.1658990965355174, -1.1279454043162422], [-2.160158300569621, -1.1614900381965272], [-2.196434513251292, -1.2070096889115007], [-2.165181712130214, -1.1518586108621247], [-2.1869625861600555, -1.1648706363565113], [-1.9441207946336831, -1.1229807266171563], [-1.3093620820173923, -1.956998432141786], [-0.829255519454001, -3.160401551284379], [-0.4329253803779703, -3.7279282859640266], [-0.25596556892299993, -3.1192726492770904], [-0.1363478741324005, -2.427722632247681], [-0.12411185477582017, -1.706379959764233], [-0.25332241773570935, -1.003473544864497], [-0.2680160742497757, -0.40966755938365707], [-0.3473858771475282, 0.09125930025249783], [-0.36137309195752426, 0.5902576660615438], [-0.31438959652035425, 0.9427802963240002], [-0.25719647988246175, 0.8463077732855467], [-0.14734685779928589, 0.15244505763680632], [0.045479761950320316, -0.9653020926948559], [0.22045931544878683, -2.216982227433648], [0.21553344689611173, -4.028225510844482], [-0.09281065397671504, -8.59920748143513], [-0.39854139198963834, -7.17724726298992], [-0.7366475425142193, -4.5407619884377395], [-1.0907055944176176, -2.666576906689154], [-1.5330661317671195, -1.5230072195389068], [-1.941014234445921, -1.1250270984184036], [-2.1502813307682773, -1.1278601995934638], [-2.1577964061270887, -1.1950438539600274], [-2.2117505026785302, -1.145929818925161], [-2.2053891808886585, -1.1397834756820953], [-2.1376837875474832, -1.140442213583125], [-1.8211011916945925, -1.089116311513407], [-1.2468927261190048, -1.9704520931073628], [-0.7287336559494949, -2.7800237944723456], [-0.4196631811783151, -2.6381927607412266], [-0.22887896686265646, -2.4419574794502883], [-0.13843924391319223, -2.1057131772196853], [-0.10794458003868067, -1.614009819022647], [-0.16407147342688524, -1.0647133251496805], [-0.19215414093578218, -0.5345082585289118], [-0.19375742586516784, -0.031395190631924065], [-0.19337854356272033, 0.419751549734537], [-0.15823353823492076, 0.6710033733365747], [-0.0916094158479082, 0.4181633471515249], [0.031288255672778605, -0.40588119257110816], [0.1463530665459543, -1.4676443077431054], [0.2643551676465723, -2.576185707991999], [0.09399753227843337, -4.723748709250005], [-0.1900013665980082, -7.9053901505481505], [-0.4950346254622132, -6.1952354461470875], [-0.8219288756793569, -3.8773396054504676], [-1.200624717317749, -2.3425140975617444], [-1.636919670159842, -1.3947184458988775], [-1.9213570908156687, -1.0606993955382356], [-2.1501278203761234, -1.1008870934855113], [-2.1687980772563256, -1.1936854622405928], [-2.249370280518806, -1.1232035928383728], [-2.1385516583724473, -1.1500043186301234], [-2.1094683134974814, -1.1240488006547364], [-1.8177425953919892, -1.0361405071086074], [-1.2587746212864042, -1.8120022122291373], [-0.7808699682119356, -2.2681858507631163], [-0.42182599787041775, -2.111614991887458], [-0.19775445563555039, -2.000583180659694], [-0.10545126569269432, -1.8103614530484584], [0.0345755713472271, -1.5192781607159513], [0.043539956355343086, -1.1039170745369837], [-0.05174697291146824, -0.6740797066577207], [0.012034717761516834, -0.21754529488442045], [0.03309460424712646, 0.16137791509572794], [0.032183508179737114, 0.2646728203121824], [0.06519710313162361, -0.10936289891330056], [0.13634324004130025, -0.8990291913014476], [0.14468503738083555, -1.7846092402628964], [0.1045840436874215, -2.67566635056775], [-0.13130871149514187, -4.64380261442283], [-0.3487869359788481, -6.224696412948442], [-0.6971892291344771, -4.702999822929505], [-0.9886915311577138, -3.022419689121849], [-1.3442257165875615, -1.912048813360309], [-1.6909109376712619, -1.2342520919041609], [-2.017403827524748, -1.0980150685767183], [-2.1442965461764727, -1.1366612713777773], [-2.175022888677404, -1.1191207321428962], [-2.145953554394497, -1.16134127946385], [-2.2160419878160433, -1.1087519855982884], [-2.1083153271351467, -1.0862057150787339], [-1.813106379681187, -1.0303719226594186], [-1.431137601245028, -1.4819581491582052], [-0.9101186553228536, -1.8113797178078472], [-0.49956050615054376, -1.7004888778931668], [-0.20823512514155823, -1.6003042251167738], [-0.03858778388800445, -1.4815171837305634], [0.04264733605310716, -1.3160203128197767], [0.11730710258684887, -1.0075894890566697], [0.15445548768383607, -0.6425016945488032], [0.1508351297679715, -0.2728733987089663], [0.12211736541130874, -0.03484988338294901], [0.06141816768187507, -0.07242096459434026], [-0.0052738488688292805, -0.49613222772282206], [0.0010422813333936694, -1.1177185932308475], [-0.039713963918998584, -1.769267637276163], [-0.20390614099582482, -2.487282394498654], [-0.3346757537514287, -3.642489713692368], [-0.6486676831227364, -4.169274631528599], [-0.8910962102379492, -3.179569286138393], [-1.234939865402279, -2.1883961673086234], [-1.556982407797286, -1.472659953169719], [-1.850373758626686, -1.1050488500980782], [-2.0491088174064163, -1.1310240966428378], [-2.131557535955864, -1.1157195904897557], [-2.198052209839579, -1.1033427596443444], [-2.175688645343595, -1.140682820313171], [-2.1697189491428484, -1.145618105591156], [-2.160941983832316, -1.0930208241410062], [-1.9807737797057798, -0.981244934797465], [-1.6605987793235832, -1.0450190762882259], [-1.2290810497368623, -1.2866389202717243], [-0.8007884284251173, -1.2308373132177348], [-0.4346470741478828, -1.095723898139136], [-0.1763807478271476, -0.9577890873521839], [-0.028079031435114893, -0.7979197664827856], [0.03588434223567949, -0.5578054740388724], [0.06685777412438351, -0.26437654319080683], [0.06186673665789045, -0.02250862133923498], [-0.022655044227259235, 0.052061234230882734], [-0.14233848816260697, -0.11268588199216568], [-0.24603093036885265, -0.49829557989461293], [-0.23830243839646897, -0.9646347319518237], [-0.417258722369021, -1.4692591140054734], [-0.5203838921998907, -2.0588889238862387], [-0.7019537319168131, -2.6635897977611176], [-0.9577752045295, -2.7100659875117787], [-1.2624117116154518, -2.117502859515058], [-1.5354813677601176, -1.5140067951900096], [-1.7959696286110034, -1.144676807338308], [-1.9908812159498606, -1.099985632174227], [-2.1375651897195436, -1.1133974309360801], [-2.199876645208363, -1.1722768804763046], [-2.240929777878145, -1.1346510111982147], [-2.1851039640333276, -1.1955320740776363], [-2.199432875381793, -1.1819308343972126], [-2.115127838264153, -1.142725215195656], [-2.104125907507164, -1.0393812200941202], [-1.9182547805021712, -0.7621424957472022], [-1.6420365772801802, -0.5935635198389493], [-1.2997998909662611, -0.5335926297285845], [-0.9910624256883017, -0.3985136620726031], [-0.6611269259300216, -0.2221926432744907], [-0.40297268770147354, -0.025827854832740926], [-0.2626856037627543, 0.1378064464763271], [-0.21723522641492676, 0.2788025838179689], [-0.2681459647530923, 0.324264753034058], [-0.3151286750145657, 0.27179759573379436], [-0.37415849764140546, 0.057209431803236045], [-0.5817185888099594, -0.231306561499246], [-0.6213282853605959, -0.5893107411594637], [-0.7044250875423426, -1.0030995594305738], [-0.8474705086269102, -1.496013843681953], [-1.0213068539612857, -1.8191947849168686], [-1.268461900900019, -1.7748525685032086], [-1.588558260803665, -1.3809510040356903], [-1.769559929573884, -1.1205781163330957], [-1.9766666276455653, -1.1085279250256599], [-2.1509589137850287, -1.1320491109400037], [-2.1046954201052444, -1.1513104282207933], [-2.1224964400151594, -1.2120895774159823], [-2.1761243362639413, -1.1610089203193572], [-2.202164014215328, -1.2071684195175871], [-2.2065221258750793, -1.2099073707273256], [-2.1853963561286682, -1.153902519845396], [-2.1543271678901688, -1.0640699854014863], [-2.1151344297556136, -1.0378840378553214], [-1.9756181905269836, -0.5199336961962883], [-1.8397274875880378, 0.11707507681335355], [-1.6282152089731998, 0.38396261576607654], [-1.3979517356122995, 0.5746930448003786], [-1.1189793930576208, 0.7539338940190485], [-0.9809361086398662, 0.9146175287536585], [-0.8399426730299868, 0.9521161933147931], [-0.7992129705624157, 0.8947460071079044], [-0.8557215680089523, 0.7226015325499529], [-0.9076668922743776, 0.4903204690176673], [-1.0036512587920943, 0.23022497205262357], [-1.0480951239042648, -0.08416844727143007], [-1.0831804407738934, -0.47174138704884244], [-1.2096672885453554, -0.901849053232169], [-1.4238654095049612, -1.1456007424869865], [-1.6059366740711647, -1.1524107992756172], [-1.8083042394823086, -1.0688473917342276], [-1.9883309756944811, -1.0227613647694556], [-2.09394651924967, -1.1056130986080899], [-2.1395723760620293, -1.1942439313576778], [-2.1813006972627256, -1.1188543316411856], [-2.1877113027956803, -1.1329153001658385], [-2.1972794421745276, -1.1268900336435146], [-2.192247684278101, -1.1580143787681376], [-2.178111270472092, -1.1771482334384331], [-2.191396883099651, -1.1765803386890856], [-2.219971175172415, -1.1619140375593127], [-2.118816509417567, -1.0588799350312932], [-2.109162535841407, -0.892726863990211], [-1.975812386099326, -0.31692944531406564], [-2.031409587266025, 0.6508287182380862], [-2.036269498104005, 1.229449691506865], [-1.9816766878489582, 1.635327379485413], [-2.0072361395809546, 1.941278543931898], [-1.8685442641518346, 2.077412183936104], [-1.7627903131718359, 1.985319363484732], [-1.7490713112097034, 1.6930744895722443], [-1.6507493978677517, 1.3235553060383711], [-1.602629288916811, 0.9397932093752753], [-1.5899918525685444, 0.5052826016071345], [-1.6010158267698404, 0.037379461032489555], [-1.614323065094482, -0.3913658775814434], [-1.7370933508340334, -0.7054252075319244], [-1.8326131647656558, -0.9153378520202848], [-1.9817862459891011, -1.0594174612706406], [-2.122974755618725, -1.104635241696948], [-2.1010087560409905, -1.1542468903323473], [-2.152182063106738, -1.118233079185571], [-2.1316146000327993, -1.140245491346092], [-2.153599123141259, -1.1474658624476322], [-2.2110053581135047, -1.1549256719433867], [-2.13231442005394, -1.1350083028933136], [-2.2078525322918785, -1.154523140206485], [-2.222144405207729, -1.180791297015043], [-2.1530511333402247, -1.1228876393832739], [-2.1705187145949547, -1.1119966158649943], [-2.145504813525894, -1.0022368347936677], [-2.084330096843955, -0.9096591402981449], [-2.0597057760718944, -0.3512357117023022], [-2.0322021228600944, 0.49233949699796004], [-2.0383934776552506, 0.9869945778445166], [-2.121164855717688, 1.3303571905177443], [-2.1325663641014203, 1.542167360452845], [-2.124386467956521, 1.5636758762518848], [-2.0652061477074426, 1.3916163875234802], [-2.0346135920871027, 1.1196658966745845], [-1.980810620811136, 0.7562449134368752], [-1.9128942476984627, 0.38763230140078453], [-1.952263426544488, -0.0530171668243271], [-1.94102729993173, -0.5623036448231206], [-2.037414530762782, -0.9097836557359266], [-2.073815255669831, -1.0609497951961104], [-2.129127238886473, -1.138711822035895], [-2.1847128407642065, -1.1740880812457626], [-2.2205979777330542, -1.1364373242891848], [-2.168509869197162, -1.1328098473254808], [-2.2184271262791717, -1.1641107104589905], [-2.1520880222884475, -1.160156903808909], [-2.2015111365249136, -1.1381122722659076], [-2.1738899240765837, -1.1864963730063864], [-2.1620285324659885, -1.1217238525447384], [-2.2291574503915803, -1.1857262516263334], [-2.207245766816843, -1.080045019726655], [-2.160618853013658, -1.1655959291431086], [-2.1806614121650454, -1.1526573824466395], [-2.178706619935912, -1.1617875427796096], [-2.2158250383488287, -1.1472776596556007], [-2.1229512963156627, -1.1548915124783408], [-2.121175466103659, -1.0617127931175705], [-2.1470741193185723, -0.9751110384390408], [-2.1178514829433372, -0.8848839558001791], [-2.1117022917135446, -0.8734793727341807], [-2.078005260489994, -0.8281520702472176], [-2.0860484472162297, -0.7381704927943311], [-2.079907902255373, -0.832485029409661], [-2.1330584101201326, -0.9333460612932948], [-2.084826491905359, -1.0296916829828833], [-2.159963532309175, -1.1351022218683617], [-2.173894732228021, -1.1705652513375955], [-2.1658053289202948, -1.1642638619683747], [-2.1937116336303752, -1.0853034768854037], [-2.1805121640620113, -1.1269749797472528], [-2.201985545231734, -1.1980508216349828], [-2.1514040875625384, -1.1559608204129717], [-2.1763156027137924, -1.188584432633438], [-2.1554332367013065, -1.1785434799321963], [-2.1834971010118895, -1.1214823347211929]], "bias": [[2.181549437256161], [2.22734887940136], [2.2189210573940206], [2.2345388962489348], [2.1953128536697784], [2.197933705363668], [2.1656710652158573], [2.2140538263393124], [2.21817625286484], [2.2678872493702102], [2.223161954740771], [2.1989363717952175], [2.2066569068199517], [2.222915930414038], [2.250322105158836], [2.243718718927679], [2.2145844290548737], [2.2596589782272525], [2.2727488629832546], [2.242368118933665], [2.2191255331869963], [2.2431388115609665], [2.208616155050032], [2.181891859380032], [2.2338317153072875], [2.231350897346698], [2.2265068884153396], [2.1971798954783397], [2.1744673123123577], [2.2280109315949694], [2.2328894337841247], [2.201058256762061], [2.231697683848324], [2.217291912896192], [2.2499223170258293], [2.211696006862387], [2.1978578780367046], [2.2453187548042033], [2.175887566624611], [2.1584836109120866], [2.146843550907276], [2.163489989684223], [2.162876519094053], [2.161016720581601], [2.149473414188081], [2.2070204725689666], [2.2168548490031394], [2.239885831370377], [2.2265080920257767], [2.2139458342388343], [2.1927386275774814], [2.2503189161103867], [2.1833998661787493], [2.216437657076163], [2.217800810575598], [2.2536318344150694], [2.1830008324021946], [2.206576327945272], [2.237934170133307], [2.2469174386581487], [2.1971491325057246], [2.202443489322702], [2.1584418897201942], [2.172920519464348], [2.200076619438062], [2.071486514595051], [2.0205809621502113], [1.9439610379025751], [1.8704094446027806], [1.749257853354303], [1.7061981714371248], [1.6488802317423399], [1.6832950015361083], [1.7211995891636978], [1.7819228769282325], [1.8613338118267833], [1.9612385011872682], [2.082988317192355], [2.1480616981677425], [2.190993797731377], [2.185274804693251], [2.2117787382278897], [2.2273991759954663], [2.172438923393984], [2.170171000842123], [2.222272279963409], [2.2036914218999497], [2.1807347478901846], [2.2149278362656535], [2.2352484234111105], [2.1847746566330333], [2.0836074989663826], [1.9539571330236882], [1.7911905483915558], [1.641322324493067], [1.4699308553218873], [1.3091711609018386], [1.194816965484727], [1.1596157536603107], [1.0848513015407546], [1.1131393101508678], [1.2186394253330928], [1.3304284794525565], [1.488411780651202], [1.664648266018572], [1.8403438555547516], [2.033045431318531], [2.078457405203837], [2.1883178414404663], [2.161695140047109], [2.2219011077254334], [2.2489840751638526], [2.23446292014179], [2.194225055944768], [2.240084507287814], [2.1934580498775778], [2.1839140073598227], [2.1029518854404228], [1.9681020125852329], [1.8187420990219934], [1.5579157056916417], [1.3182263005586226], [1.1173877743774416], [0.8749837787186708], [0.78239132559028], [0.5691641387808107], [0.4881570615394297], [0.43732558027274415], [0.43794178445188364], [0.5777783929906667], [0.6885337340453963], [0.9420285099018473], [1.163452279247643], [1.4722242034027606], [1.718177175327517], [1.9276025258652425], [2.0554263019014147], [2.114196872855793], [2.2443078949628834], [2.2277971675833808], [2.2343279957301982], [2.1988800338876935], [2.261134756365998], [2.2046489652416064], [2.066298657833024], [1.9341203120045873], [1.681692343888839], [1.3712284904937277], [1.074928578214452], [0.8326693403225787], [0.6325072018365617], [0.47851785931602964], [0.2799491493245688], [0.13166850327652338], [0.022420558558874974], [-0.0523088808054893], [-0.03395982201725329], [0.03810199435680647], [0.145644633039481], [0.3372119173177009], [0.7003034404203325], [0.9976957133755304], [1.3451883364321324], [1.566855923192728], [1.9068135094331946], [2.0752849048645117], [2.1884081785536136], [2.235318681234362], [2.245493405121704], [2.25557247201702], [2.1778006209117415], [2.1661719346959707], [1.9478225807037999], [1.7068260520548832], [1.3552782702046382], [1.0569679600443422], [0.8177758547525622], [0.5768783869639622], [0.35389458431569176], [0.2556902696089856], [0.07005985493999344], [-0.09800352833966253], [-0.15060479393601767], [-0.1945092759028911], [-0.19587114994246474], [-0.12493178062995848], [-0.0727888064453665], [0.06117864707111622], [0.2877768397302265], [0.661992224962259], [1.0176037964927538], [1.3564211063137295], [1.8110719005612819], [2.0061703795594523], [2.12884074267955], [2.192154260876978], [2.2078529368167157], [2.2386352315464983], [2.1874991660255034], [2.037687958243429], [1.8604149463126942], [1.5099535624175746], [1.1723185238923424], [0.8852299203194411], [0.6677315986819211], [0.39950282179977215], [0.23878407046272976], [0.068900455503652], [-0.009953091447582297], [-0.1379071897708979], [-0.12407145025732466], [-0.08718078265317981], [-0.11499027728837079], [-0.059316336792106135], [-0.034578886584948725], [0.01470471598878172], [0.15653935116865408], [0.4878801560233128], [0.8669733103662315], [1.302496359513069], [1.7437864960451912], [1.980463212970336], [2.114708607987466], [2.193620203539396], [2.2040405100832636], [2.1876718768159433], [2.1525398508931533], [1.9827503657276442], [1.770569475786289], [1.4300895589907505], [1.1065418078377702], [0.8346697988591755], [0.5432631402183696], [0.36291849550787525], [0.25346651495600775], [0.07466701040911748], [-0.05319151729167799], [0.0152107583515067], [0.1386004760613489], [0.1976535059240525], [0.20086236297160068], [0.12491237094453325], [0.05196090006863325], [0.022005104691524793], [0.1026006158960772], [0.46120537718536714], [0.8318628814550747], [1.306373507136526], [1.7000316512416411], [1.9765770764213273], [2.1818615622436006], [2.2149372706574795], [2.1931161948869677], [2.199662036537396], [2.1317382244969987], [1.935654941350395], [1.7780043197855537], [1.4538038097868848], [1.0541051743613612], [0.7337451617915461], [0.4787482940915128], [0.330222798612894], [0.20785742831487744], [0.07495758159041066], [0.12699984447549745], [0.1718662413957663], [0.410735307988388], [0.5256608205078324], [0.4136712544414692], [0.29862862252876327], [0.21535971291999237], [0.028125619150543277], [0.1616255902004955], [0.4495810847101403], [0.7693825028021686], [1.2252929849201597], [1.6963093261909936], [1.9958281211927555], [2.1318930958805558], [2.201493802230232], [2.2070394702998626], [2.2340075685168803], [2.154755317255195], [1.9691112992717663], [1.7129883996890485], [1.368745261398294], [0.9495427710565753], [0.6848099041014578], [0.42546018161370347], [0.3074481959793332], [0.17313401577845994], [0.06419965795238178], [0.16633392208612238], [0.4047677015587646], [0.6140135356359938], [0.5891522804498152], [0.5241724659127455], [0.33517751616654073], [0.17284487055979658], [0.1132295287600271], [0.1537021842700833], [0.5125974284466832], [0.7777055134258986], [1.2279530767760727], [1.6582857735601961], [2.0186974705826666], [2.1866099423941745], [2.2113211646679742], [2.254117821648149], [2.1961241502243776], [2.137866535234975], [1.9986728009602002], [1.767979038634669], [1.3045984194237512], [0.90844173192886], [0.638969840052156], [0.4146846643021764], [0.21616281915037122], [0.1475730495244436], [0.10070514135138553], [0.22597710019321046], [0.43944606563393523], [0.5592727344937677], [0.568040024505556], [0.4089583896663051], [0.2666923456934073], [0.10307028489780352], [0.12335745979275435], [0.2409920824093646], [0.4622629366921029], [0.7414334570302586], [1.121896018079514], [1.6118390390563242], [2.1097636182269697], [2.205011939427534], [2.2362288992109893], [2.226487690681048], [2.1409292464276026], [2.1401035898559675], [2.009204206267908], [1.7427376184694823], [1.2874232314992948], [0.9053971418431356], [0.5735917188523239], [0.30676777442483044], [0.10319669577226764], [0.029846139842580936], [0.09174855791844808], [0.2478115605296795], [0.42062898808662275], [0.42091462407094354], [0.3312396592816813], [0.1920794378767084], [0.0900473742118231], [0.006850276858009764], [0.05432288405549058], [0.3553324179334222], [0.5435968395763069], [0.7372532580288206], [1.0883894376745091], [1.5654091300879265], [2.152960028592457], [2.183248381783851], [2.197464899804544], [2.217081900253915], [2.1961523552692115], [2.2231991921946177], [2.0740286585529555], [1.7804078915361417], [1.2216738360255537], [0.7568795354630823], [0.5178415989956162], [0.21349799318904303], [0.02524992327332947], [0.02190187545089391], [0.16118936863818845], [0.2625502582456414], [0.30020446169395043], [0.32545299115504706], [0.20243896170452505], [0.03595425299360806], [-0.07969517272388436], [-0.09489214597294227], [0.026264790162012535], [0.26657444947498604], [0.39779619524360865], [0.7001159430481123], [1.0261041981160917], [1.483260291715054], [2.072149358093411], [2.1910904099942217], [2.196103199701123], [2.2339757265929596], [2.2126724292527173], [2.1356034591621076], [2.084172625042781], [1.7175778434938616], [1.1564913857373473], [0.6712856924782661], [0.3827819608341817], [0.1890592425258141], [0.062308830552420466], [0.11872800469285373], [0.17583852090260313], [0.23216777556877116], [0.23977284705139668], [0.17099004634465784], [0.08100577618052845], [-0.060871402118125056], [-0.14221692184145115], [-0.15265877000016065], [-0.02108243144663709], [0.17198540861038702], [0.40811330732173556], [0.6817291125897181], [1.0303308887164015], [1.4549109683382573], [2.050795794792047], [2.1875172907269778], [2.21840094005018], [2.211707619767115], [2.2211324865173276], [2.2514138166957696], [2.066197257849361], [1.6236889760214595], [0.9906136072516789], [0.6014064391422366], [0.3626295377837704], [0.11294348275645252], [0.013273477695477116], [0.1469356562602], [0.159347644131226], [0.23367260920464564], [0.22778964545063707], [0.22172837242730384], [0.0885706603859805], [0.012542452175168355], [-0.06565564416386482], [-0.12662773021862242], [-0.06026431819200556], [0.06537783765468447], [0.3064570170227103], [0.6493246922436746], [0.963253354296082], [1.4361012057374678], [1.966360554073139], [2.158907648872486], [2.1884739192106086], [2.2141749504561945], [2.1856553163503936], [2.236732363239898], [2.066721843458541], [1.5230473714519115], [0.9536215210482877], [0.5729841513005015], [0.2557338343486663], [0.09107249744888166], [0.006734030654870179], [0.1761104376797626], [0.24677938063812757], [0.2632509479474693], [0.22268040360111865], [0.2799154766990308], [0.2604936294852766], [0.2090105397955099], [0.054556558660671696], [-0.08029278033668437], [-0.09000672718526857], [0.010677807656140636], [0.36545438914397094], [0.657993081115892], [1.04846071070419], [1.4804741565894268], [1.95020487055193], [2.1294231100606247], [2.239365411474049], [2.2439858823867103], [2.185031091819605], [2.1903977126978935], [1.9806396488378086], [1.431605462106563], [0.8369537018847065], [0.5416476855479471], [0.21165992848449333], [0.10198359987919722], [0.12793692296593534], [0.22189613749905082], [0.29121073635871836], [0.33150153080046857], [0.33774023229607103], [0.35028516882394006], [0.34462752372259675], [0.26303791156117184], [0.10100105142647721], [-0.1145428565846966], [-0.12864521940401086], [0.012597306642202223], [0.3518452138868482], [0.6855441056463704], [1.0984333898234409], [1.533318125331476], [1.9470554527639035], [2.1331556005499297], [2.238720644864971], [2.2076566084656637], [2.234706836651984], [2.129774244814134], [1.8524117046633177], [1.3142893538759775], [0.7221615069621239], [0.46283483653710633], [0.23557767290989592], [0.18709107434817554], [0.22258918072504344], [0.22235130805277203], [0.3305103071431656], [0.3380980374883352], [0.36708547358899707], [0.39632921497464607], [0.3304624281125351], [0.18231094667308856], [-0.035394138699312884], [-0.20881831971293355], [-0.14263083325149278], [0.02019701280588091], [0.3580571201430804], [0.7173160153216416], [1.116453126912358], [1.5390103455820283], [1.912829603820058], [2.174535766721772], [2.2412250429969767], [2.1904789296371723], [2.1919674799899136], [2.1304846688549253], [1.840925896168865], [1.2742144213308761], [0.7615943842727425], [0.443520224018109], [0.24052441076931425], [0.1350164514804303], [0.1320042104207018], [0.10256203572736752], [0.18197343629548873], [0.22087384311100938], [0.23585457242202068], [0.19943383287243074], [0.12412416271603789], [0.009296709072053957], [-0.1791831665008031], [-0.22054505682294287], [-0.08290574571454296], [0.18234626255607764], [0.48797221533028534], [0.8312802359057596], [1.2167368816516981], [1.6043000865738353], [2.012396711217607], [2.175495626273852], [2.232320050140115], [2.1522247477392797], [2.2568356880005065], [2.1360808374534686], [1.807587146717088], [1.32332004332522], [0.8269552394276273], [0.41124041407516254], [0.17986523192439471], [0.021284560802633815], [0.02668971365679007], [-0.01023133731975213], [-0.0984622043312995], [-0.022882773187821503], [-0.0003428429852844093], [-0.016912985822270146], [-0.027372790962018646], [-0.0898780663748512], [-0.17568547441248025], [-0.07110091133979103], [0.11012460001306572], [0.3869687334329047], [0.6467921412517349], [1.0166045823110894], [1.3985048138558045], [1.7594097754186664], [2.035029628213105], [2.1993040876682435], [2.2261685147584283], [2.2567280653667674], [2.1787620940936847], [2.1579038463258398], [1.9214631253383998], [1.4111909440544157], [1.0029899857156488], [0.5594126102459194], [0.21595656893805099], [0.017239103047152246], [-0.09359495350285045], [-0.12847459323148686], [-0.11555367502421826], [-0.13313770283717297], [-0.13158785724676775], [-0.0972453692233652], [-0.06992393619222252], [-0.005385732615333171], [0.09657279101798517], [0.1851220075371277], [0.39015164797678753], [0.5955444260008336], [0.975095512595228], [1.2821429008461132], [1.5891258634501102], [1.8787897811375405], [2.1330194868377412], [2.2406441657965073], [2.2026552757226208], [2.226336198831632], [2.2320950214788295], [2.1526996138214227], [1.9858052604487562], [1.6407431879262615], [1.2479607944202733], [0.8532530082091111], [0.4406398415862463], [0.1919901505430435], [0.037560148969445435], [-0.06944366970429383], [-0.08155589682353079], [-0.046583740391399384], [0.001161157407504942], [0.09454878359079487], [0.20363083958978956], [0.36038832258186526], [0.3318241506881571], [0.4529233976133881], [0.6457275787192032], [0.9347461326311978], [1.2365148778372317], [1.532526779831709], [1.7890713111044618], [2.0309601024500763], [2.1684601453813435], [2.1952838250998465], [2.16034756239406], [2.2188618020515896], [2.2040410842978018], [2.256995740458633], [2.1150292952100576], [1.915520265634616], [1.627598418328888], [1.3113533290167034], [0.9371537431046464], [0.6283128403889864], [0.3967474550951446], [0.2742292241501546], [0.2285531305415405], [0.23625761261372], [0.33819406453528467], [0.5150275951019608], [0.5357778135984791], [0.6304510748407253], [0.7053176068297169], [0.8387929249102711], [1.080437701716563], [1.3505336087561266], [1.5645535135743218], [1.8381340495080047], [1.9945597614142014], [2.0984437987512954], [2.270478505100429], [2.279190584942806], [2.2266331094554634], [2.2022380241975097], [2.1979846441178443], [2.2093331500433364], [2.1966429499172455], [2.094108496032991], [1.9694909997564067], [1.8284015199013264], [1.6173802034049007], [1.3975042920189393], [1.2012137249238906], [0.9594043442646886], [0.8703646426302336], [0.8426099703200685], [0.8765802178504905], [1.0063391721570314], [1.0332067080525862], [1.073458549561989], [1.1496758048504852], [1.275720849503318], [1.426089081988835], [1.6630064947342404], [1.870307918744545], [2.0068589523435794], [2.1181295362719275], [2.213527507871253], [2.2106581762179998], [2.213316263941621], [2.2044210244200073], [2.210411338306068], [2.225194553558229], [2.211160319331026], [2.177306982018418], [2.245813487216833], [2.1614156288694226], [2.091009831116592], [2.0642592779108044], [2.054774952589234], [2.074474597485601], [1.9473858972097078], [1.9048023835363062], [1.8283791827770917], [1.7236672064156788], [1.7425946645034074], [1.7110895957608168], [1.6202217117559798], [1.5885596888528466], [1.6912578738442057], [1.78262593778106], [1.956885503102326], [2.057625120778236], [2.1021360630332726], [2.231877112861409], [2.233741270617423], [2.2687069599705367], [2.247872372825871], [2.191553261976699], [2.2696243942336807], [2.1946930800003326], [2.1812892755088473], [2.2484322541378914], [2.2233460964203653], [2.2157319102848323], [2.190701293983535], [2.066238165565789], [2.103182284362808], [2.203535626690468], [2.153223275936467], [2.1207120894739515], [2.0806353825662316], [2.066113700693919], [2.0252514159059367], [1.993041420971542], [1.9856896812315246], [1.9036260709641841], [1.9525423794381724], [1.9776340681091], [2.0798177573588323], [2.1532065749897353], [2.1807350384392907], [2.1740884305223225], [2.2330812350197573], [2.184266429879638], [2.250641311497665], [2.200521088730657], [2.2297468806066068], [2.2395246404530664], [2.1744517570311186], [2.193251943163833], [2.2418495684785187], [2.218596801889018], [2.214762669221474], [2.1677110710829757], [2.2506404989208684], [2.2344347971079497], [2.1796152850197474], [2.1861442999914216], [2.162969230528404], [2.1717450254102215], [2.127584909474451], [2.148957031480749], [2.1062219778452484], [2.1818713892317247], [2.1543711871503777], [2.184946462308631], [2.2130457111061044], [2.196703730792208], [2.2130432785123313], [2.200955000670943], [2.2511880424283546], [2.2273964505934565], [2.2479213546634], [2.218049274539073]]}, {"type": "output", "nodes": 784, "activation_func": "sigmoid"}], "bias": true, "loss": [0.06691434197723355, 0.06687941104390305, 0.06687127772735627, 0.06686823209623104, 0.06245705302685843, 0.062288589074636455, 0.06219243258828496, 0.062511387266207, 0.06229439276265696, 0.06224744510739675, 0.06220523311163337, 0.062261257063884155, 0.06221975049720604, 0.062150234134987055, 0.062560793129236, 0.0627082581209912, 0.06218255453626127, 0.06217058026292805, 0.062197791193043514, 0.06229824284509511, 0.06220764666716643, 0.06231695845090126, 0.062385632557166046, 0.06232456442660678, 0.06251857667442513, 0.0622580940964782, 0.06222557659786116, 0.062274768970092716, 0.06221705790616704, 0.06233192048200606, 0.06243317220280297, 0.06220690022370616, 0.06230507931865745, 0.062315711797217614, 0.06235794086082725, 0.062255320649323806, 0.06226265321042532, 0.0622879193586399, 0.06230649426835332, 0.06239380482231861, 0.06242354479240694, 0.062482153525947326, 0.062412093847031995, 0.062363628096693505, 0.06232848188663498, 0.06237738310345012, 0.06245411888651792, 0.062357669004203246, 0.062346795789408355, 0.06244603870898226]}