{"name": "hl_2", "layers": [{"type": "input", "nodes": 784, "weights": [[2.2872255388071356, 2.279873194342374, 2.3222428779927586, 2.236252499325048, 2.2767435239460836, 2.253181038530142, 2.2746147271640833, 2.27214634917583, 2.1936552010279033, 2.2495922505020123, 2.289364017793109, 2.267868979879458, 2.265339526709112, 2.2621423886222907, 2.230796657523021, 2.297590455776253, 2.180237718594307, 2.265052622096342, 2.2048161559622104, 2.2577972551578624, 2.2223648984404782, 2.183455646272169, 2.262824817529855, 2.2112599552394503, 2.2401075147836957, 2.2496226632227, 2.3062107813516026, 2.2782715525208324, 2.2802414467607965, 2.1892320146623567, 2.2728329562362846, 2.2411280620603007, 2.312691567092147, 2.2640710173279017, 2.2143693041458974, 2.231381019588368, 2.2535123204424017, 2.269441320549533, 2.206616250218019, 2.013404450988528, 2.175233466729396, 1.9964675779878065, 2.1784978192822892, 2.768318602581359, 2.45837616592121, 2.662543117670272, 2.380843587891479, 2.8545085046285474, 2.320781858610317, 2.153596502314319, 2.2944613903604805, 2.2873626256456507, 2.2594336424209325, 2.3052392007807727, 2.1819523356644606, 2.235270060801516, 2.252647722608735, 2.27142176270199, 2.261471941802985, 2.2109618270573272, 2.239212469423462, 2.223162760550581, 2.303771216042014, 2.1946949020584676, 1.9836117740895034, 1.6692049620711709, 1.9544355728141583, 1.970221956479684, 1.8053654380528181, 0.7993827834848196, 1.6761603559925917, 2.5700565784298903, 0.9428038017962933, 1.376311530867829, 2.8697308858389174, 3.897198006127126, 2.8141960415947755, 0.82780097612298, 2.193923351779909, 1.694887895629993, 2.059152035352601, 2.182351533687611, 2.3087964711703273, 2.2215206417975812, 2.259220748163529, 2.237914335177017, 2.2419235429052864, 2.175493927915712, 2.140355419210827, 2.3030916789340474, 2.4495528606673003, 2.0028888880142084, 1.462238598764151, 0.053402830991627695, 1.8132647811053777, 2.1384069650535475, 2.2963360689952323, -0.7636359369186257, -1.2976624549372882, -3.444927272897014, -2.6237868950844407, 1.2714213667246628, 3.1934112547679496, 1.9379239561563262, 1.798087487810121, 3.6295116007964463, 4.052223640178792, 2.069740388754615, 1.9795724880713879, 2.133387418907037, 2.2604011203172307, 2.2832454051208737, 2.2415349802421107, 2.267590089210822, 2.193929614604944, 2.15434583479903, 1.952493772092751, 1.6156103311955683, 1.3860384637717102, -1.6376964334936643, -4.110523881881385, -4.208903380336459, -2.9035803797214994, -3.1648919712464654, -3.778436265206462, -5.8061655897006315, -7.79880441039101, -6.09501713186085, -1.5518754441427638, -3.982779053344002, -5.654244451938724, -2.9279733924000313, 2.1146290695354883, 4.106598449833147, 4.437232959463719, 3.356977180567676, 4.6459046176219765, 2.6265351064708264, 2.225499080913606, 2.2812024927601326, 2.2690577547988275, 2.273135541643411, 2.2238016278529407, 2.241891916168692, 2.3377568819327124, 0.3602123173722606, -0.7670844640359124, -4.894079689405824, -9.71396353449043, -10.674011229002282, -9.816844420457189, -4.370811176594337, -8.5467678786761, -7.875079575568574, -11.690289777642393, -4.431727169609349, -1.5002495696293625, -5.853994465448956, -8.695957591619214, -9.16537083760812, -2.1796072597767573, 4.16016436469081, 5.110085130601035, 7.728565417534324, 6.531807304262302, 4.282122771381915, 2.6237222418068487, 2.167950701160285, 2.20972755146456, 2.2640462809502635, 2.576941855119825, 2.4078990678263064, 3.2664925527198734, 0.7060142386369791, -2.789124030065371, -4.296907169112255, -5.956939036068007, -10.810964594619794, -12.367129035647986, -14.606897531799222, -9.884051100149627, -4.666502220925379, -4.245319730504744, -5.51083148395988, -6.784044107426592, -2.606144648434824, -3.551702498677951, -5.447212112275955, 0.5403506236577981, -0.26943693891334236, 3.088741316896033, 9.310037885797623, 10.684964785751571, 4.71473431175825, 2.9736461285056386, 2.47435541797617, 2.254996106740681, 2.261392965141792, 3.044784615471679, 3.2514638535765017, 2.7962474598436344, 0.19706367672197933, -1.4339681804022815, -3.0675406372267044, -5.4702801165392065, -8.259210641104712, -3.671969707877664, -7.5698701870167655, 1.5137948283594609, 0.40132243795810607, 0.6124991684972534, 1.848771613498901, -0.7427351982855475, -0.4401589949009236, -0.6103831069981356, -3.7859853438114133, -2.5586767387315725, -2.3327985569468117, 2.9508176756543243, 7.280849964580923, 10.698656795826926, 4.178014326409734, 2.4842590746507343, 2.3076612668238536, 2.218707911512891, 2.782417979413888, 2.756383070678112, 2.6475292339946646, 2.259394791629299, 0.06036876866272356, 0.4481777964965075, -2.1085720093458473, -7.078361040945488, -4.703883517451017, -0.9007001819477135, -2.208582372790269, 3.967365722532709, 4.642134679194407, 2.3136464482481798, 0.17732205544180005, 7.890233921516713, 4.159234963368615, 0.7998175009118965, -4.547062211030953, -0.5820146599112754, -0.8543521712487739, 1.138656180681793, 3.523737425284474, 6.120696966361299, 5.524704875474297, 3.131464944925249, 2.235646094903959, 2.2220476932956514, 3.1019422849530502, 3.090222257623016, 3.5362776647060423, 3.4437679639141967, 1.4844470281734985, -1.8665930868216598, -8.701968845476255, -8.570987794395633, -2.252733617075837, 2.869902184865599, 4.003336532576919, 6.0060647751184995, 6.685240479201586, 0.37960329508374, 8.781203617591347, 12.832273055578915, 10.239942390646268, 1.3057081729233397, -2.106335672959839, -3.1883471436136808, -2.7857089446313674, 0.4217517841444759, 1.5849542928593945, 8.052970002751637, 8.371663263524034, 4.007048357082748, 2.499109088471747, 2.181196619356246, 2.588872030096911, 3.83911466391704, 2.445754470404439, 4.96295929609878, 2.3866696018738263, -1.6314854875571765, -11.084408433478345, -4.921956073760969, 0.977727808053544, 3.241849418952855, 6.436616953217108, 3.265531377420984, 4.6272553744212575, 0.39327118316845655, 3.5247569407710517, 7.587994273453516, 10.218065199378174, 6.977238354926655, -3.22314285275098, 0.10753675507758821, -3.1410082990648927, -0.7056929517625854, -0.3311877546274719, 7.468505852638364, 8.6656313441264, 5.036745310517083, 2.7523721811215154, 2.4117144435726385, 2.5158529666159835, 2.464083485573911, 1.7431766570938785, 2.9809968915942777, -0.41197241507473603, -7.3215815397029225, -7.887429647707381, -0.6840323718535167, 3.4314510578475357, -1.9510840151821531, -1.6529656317886643, -0.9713343080320324, 0.6808459251698139, 4.717707247901256, 6.829773541695434, 7.389430585559673, 2.7741939478140654, 9.04130431841177, 0.345876785404804, 2.5301703882318227, -4.719729475177526, -5.245300696949233, -0.8131700230824302, 5.603358244285632, 6.2847982323086935, 3.29896533855908, 2.325709843555485, 2.2493957204576556, 2.2756895806933573, 2.3398814952089095, 1.1400779297075245, 0.6232517616931015, -3.548473650961583, -8.362971671717762, -4.342534597713996, -1.5193463444423834, 0.3772204874442109, -7.323582213541892, -3.321876143170144, -2.0285752258689267, 1.1670204633591976, 7.588176303942262, -0.027771089840104218, -3.0294594784221185, 1.5955375092203634, 0.5478840476603348, -6.259754037786693, -7.860242526498348, -10.117739289688977, -8.882000768790542, -4.862713576529498, -0.036376505783385665, 2.2975836440151305, 2.135391638426254, 2.2391895885160125, 2.308415914573579, 2.2600628711114825, 2.4355920706200402, 1.4548409973351157, 2.0367891657464052, -3.398564111891127, -4.142090428518194, -4.470365583202092, 2.345067142628897, -6.65149442056512, -2.0697470244024836, 4.839057475969218, 2.3307150543442097, -0.864947536980422, 5.682429709888149, 1.6157705128645763, 1.3302503115436586, 3.363169940867325, -2.723560557367835, -4.488571830210866, -7.564545000169965, -11.375495888505363, -9.535042063783512, -4.7462425653376235, 1.8353793554687374, 4.080341439468209, 2.9919056887089206, 2.543625837723281, 2.2419993946673697, 2.1982922560966873, 2.366409915326307, 1.9585090921884534, 2.903017908721053, -3.446984254570153, -6.950807214414273, -2.4960922797020393, 1.4899174809726419, -3.4905993739552064, 1.771876104415897, 8.740732885957698, 7.235519748988017, 4.958359347449824, 11.29650353674382, 7.219806837581425, 8.886423873889875, 5.594655502803003, 2.1427354614156, -8.861371572801307, -12.413772171137353, -14.644065314053028, -9.093552103061555, -5.258123764478874, -0.7593812774629881, 3.4330184929173493, 3.1957850797165426, 2.29850355155545, 2.188738404621272, 2.2249344277477765, 2.171630448774129, 1.838866648280545, -0.3485526229781717, -5.943759518129898, -8.241613127060454, -5.3949595508855, -0.936334739543545, -1.570559116299594, -1.3235581284281728, -1.653696781206932, 2.710660282549287, 16.01407321746254, 13.368963746084521, 6.2941456590787555, 3.409460947809133, 8.314890991938025, 3.5933233272410185, -11.897043435022342, -17.31232840218816, -15.999270352759675, -8.567671257920047, -5.759536472173438, -0.5815518665014797, 3.4538907978674467, 2.725529068725268, 2.712915166245559, 2.237043469394719, 2.231846263777873, 2.199719055223679, 2.344181658519969, -3.8401746771360883, -11.819469700413594, -11.673716691350693, -9.975572842770767, -9.705515050962566, -4.264140151244623, 2.1912946884395574, 1.6984809130486094, 6.475234720075282, 10.011132419757269, 13.485330346203858, 10.116208734035338, 5.2887161877001105, 10.213203504165033, 0.8190822484846203, -18.5881409051067, -26.713009883095506, -14.233128513619906, -9.393084990628074, -6.333801829426223, -2.0023838774174627, 1.886939357321474, 2.4025774724314397, 2.330476079090582, 2.2126128299738674, 2.220075890228862, 2.202710641089149, 2.919498974128234, -2.806480833356805, -9.35850270126533, -14.578367131156545, -13.13530457916312, -11.64634993094355, -7.91547664618561, 3.723096636732976, 3.3964868975164295, 5.22107550199201, 11.135478262761845, 10.595315493440177, 3.3118348594470826, 0.05824470254919959, 10.700832894201959, -2.549416611504354, -32.34337801051459, -25.001897694671282, -13.174777705633778, -10.31224389956587, -5.72076223095326, -0.855784350687949, 2.237559380212339, 3.2132834957859884, 2.5735848992688424, 2.2656227106804656, 2.225332428296843, 2.645761963147697, 1.778574476621637, -3.3125851713592573, -6.231411827837195, -7.2979911702947335, -13.087708864099122, -15.836477411694872, -5.7877066589452655, 1.1226595988194614, 4.866596069437988, 5.662164689766657, 12.030400959708956, 9.239787599809524, 5.631585818348428, 3.384339928667276, 11.977475269245197, -7.7390563002909625, -36.58880128629071, -21.864251899869245, -13.512167574608041, -9.759329157327, -5.342861347431651, -0.3507228357967203, 2.414782619316264, 2.868009922767958, 2.3057922589158486, 2.209782013676948, 2.2664276869793496, 3.993579846159512, 0.9109228179831941, -6.57591872310121, -11.953321224819293, -7.386046708442225, -9.612657712527907, -8.482579268925218, -8.916489263510325, -7.860190719313364, 1.2100907142291475, 7.529798204696063, 5.799483030680222, 5.2386748025879655, 4.197436934737107, 2.332774129888165, 4.397760538568051, -17.026437531189536, -31.032684272336013, -22.09772956950026, -14.58337635091387, -9.340740620437064, -3.99191559893126, -0.1266756492015782, 2.3422514701400106, 1.9213392600542085, 2.2062729215188304, 2.24852313727849, 2.131306705245244, 3.4044706127958446, 1.1420133412651365, -5.407940740527033, -10.232214283607245, -9.990434775312185, -9.84300910344323, -8.228010735835605, -4.78741545292492, -5.654127497938374, 1.0173728421244614, -0.18561540219876357, 4.274251238081824, 4.663158738631272, 6.62763928722573, -1.46906573796552, -6.602833165618282, -19.07908910922345, -25.471132664559192, -20.475698242949534, -13.427484543269067, -7.40579412745674, -2.5091932032704047, 0.7470997852297668, 2.2197873414528533, 1.9465384718806542, 2.276245553315047, 2.246130883262044, 2.179333968976635, 2.9711052238096016, 1.8308168222697714, -0.8913601197401404, -5.444805339090122, -10.759937014576595, -7.0035967666024534, -2.2470890725610393, -1.749729044609498, -3.3054791454286634, -0.34810178734675173, 1.1604464764150488, 1.7751567792183338, -0.5969738741650692, 2.616966641453124, -2.855295810588525, -5.652660736566962, -13.548502817273159, -20.573499642029688, -15.183547632236047, -8.610615942128156, -3.3957130367280435, -0.22924729705399055, 1.318844612665419, 2.4868844742586527, 2.5301790179154042, 2.1894040636638246, 2.253135283838411, 2.19777505865346, 3.2557956789975613, 0.6133176192114382, -0.19696593350360728, -0.08573967846897967, -4.872531633411553, -5.121689305151085, -2.898454435809156, -1.1782500193655632, -2.0977130191507394, 1.0332370361663812, 2.5259837132338725, 0.6713352519733268, 0.5071130724748051, -7.129283664861931, -8.996267208211737, -5.511419372078687, -6.237333857805791, -12.473235764439549, -11.4439508671921, -6.4688982063771405, -1.5784914318044234, 1.1131688099996924, 2.343216811986682, 2.5105398586857484, 2.238354910064383, 2.2248905529918863, 2.2180956392669353, 2.2020639281643373, 2.6850025294670457, 2.276845949983259, 1.2750999557204363, 2.2809750216577656, 3.1445700515829467, -2.661344728907335, -0.19285585726430043, 2.562296956210049, 0.08432379533403879, 2.6349447641094517, 6.693201947782802, 5.213534127759513, 2.843348319206559, 1.543048279254778, -0.38517871578694507, -6.300242196072443, -7.048665822167939, -9.072664708989677, -6.274261451600533, -1.890517214789649, 1.1806495632043996, 2.2364356964771686, 2.378318582972076, 2.2926045394154566, 2.34924839112415, 2.201106379900608, 2.314975598591917, 2.226955335816816, 2.6682986877452963, 2.648110880822869, 3.0719769862106037, 4.009149642042055, 6.3976176011152495, 8.166691459448558, 8.848379764079182, 9.610886688074837, 9.328604817010827, 7.158627274892995, 3.742096947728202, 1.8531216319462875, 10.443071545993073, 6.030681156697267, 5.297107048477911, -0.006208862507480015, -0.7985418910789085, -1.2812536307080857, -1.1113437223697509, 0.41560563639745307, 2.5327528497251333, 2.010130614921533, 1.7210380848902016, 1.922455515228128, 2.120807663521612, 2.272384756555008, 2.234886936857535, 2.2333048597161427, 2.302221693839655, 2.500563050602591, 4.0613191601093375, 4.413268916039167, 5.671042577384291, 8.331454630329041, 9.906731418246105, 10.715000226897837, 11.325961131809802, 14.266067976903566, 15.562990564461378, 11.925503058859771, 12.02196386168778, 11.560396451090373, 9.447147875582289, 3.441936669760292, 2.613134148937038, 0.6745466132875182, 2.086583721220344, 2.155353427977119, 2.680360787880762, 2.172371832280627, 2.249485472132974, 2.1079514608198697, 2.0824783701727245, 2.219697743231752, 2.2659212711894385, 2.248286980877721, 2.1716204195527418, 2.203754908382854, 2.0830935192453763, 2.2735352620071905, 2.7085177587700566, 4.376181297504002, 6.229967557557139, 5.5888775205216366, 4.22547529225715, 6.9740223705467566, 7.416417536619152, 9.813708695341113, 9.958144652507793, 9.358946036349062, 9.474439716690418, 6.1270489392829575, 3.0053939882318588, 1.27742262812156, 2.096755375594447, 2.3502711769997737, 2.4082402473408786, 2.337976970809278, 2.2280131116016904, 2.1998993218257263, 2.182194297199739, 2.306033082262442, 2.2504002801925567, 2.1655855342151495, 2.240789098806629, 2.233030090447488, 2.208009258636352, 2.1992552603330267, 2.159444323493326, 2.6556902057068292, 3.2059092457221396, 2.5579637306844147, 2.6654498936871764, 2.7705350333271026, 2.6341270619679498, 3.302568209919956, 4.539396090140553, 3.8859641061451495, 3.9719324127780027, 2.7806635766064876, 2.6897849247774603, 1.839708304331043, 2.048406575852326, 2.2005421160629486, 2.2414416464260944, 2.2874257996695326, 2.2533673522555326, 2.2986146360478097, 2.2652532596507062, 2.282703482301254], [0.13523780886695141, 0.01043874433095953, -0.0024688126828303156, -0.050324191355205106, 0.0058667288102081635, 0.05597995608525918, 0.0451363935561295, 0.059988777862071366, 0.041219472091263254, 0.09460305325688147, 0.039510286258992174, 0.10231079182732099, 0.013649275435986537, 0.0684704278668977, -0.0033030056833995933, -0.026540371440384028, 0.053959367521213296, 0.03018755315759329, 0.030163466960424195, 0.10128010811702119, 0.046526623633201494, -0.0009740295342299948, 4.211856754447634e-05, -0.0015053426466241028, 0.011980361984580416, -0.027391528159438995, 0.05262768497933541, 0.025124534911227327, 0.03561957283797628, 0.021838798841690835, 0.027337547646864933, -0.013718957968167692, -0.04017244539645193, 0.056399252758166686, 0.0433241368609468, 0.006749949997702062, -0.020775012542765564, 0.06177387650562077, 0.011934617334622567, -0.014798696806862393, 0.0649678020893668, 0.04553768208235687, 0.30899227619552305, 0.11600063287254704, -0.028648409246692225, 0.021141840084936126, -0.005598870241550101, 0.0348702305024407, 0.03434468492071862, -0.004918812908456835, 0.10223470817112261, -0.009461892005606657, 0.08600377867411978, 0.01934416371374677, 0.07422314598487158, 0.0009866044398268699, 0.07279048599417756, -0.0001662769451610169, 0.010599111046732362, 0.000480654820134931, 0.041087157789977395, 0.016158132102752062, 0.08742509047194001, 0.03376146495822279, 0.08018336612904935, 0.004552724457838363, 0.0027304833159523968, -0.03462311617385616, 0.06344292238869013, 0.1667186056085129, 0.3146469990314738, 0.19595514777913006, 0.019215807480683775, -0.0021226697839200736, 0.07206942132334083, 0.03810209079889624, 0.03996554230815118, 0.02782607652217578, 0.031236860429140218, 0.005902982936950654, 0.027902398477711997, 0.09147830314982787, 0.1045829999779838, 0.05693152576489088, 0.017776282799208797, 0.0016377400536326857, 0.042830427731542844, -0.005717527027975243, 0.02947167329549004, 0.09141350005276469, 0.041284951900943716, 0.04460267581518388, 0.04495139954365789, 0.07415631353102972, 0.05814574563054898, 0.03768664963804325, 0.13103260690532892, 0.5401488837052263, 0.4627428319882283, 0.22987160812615248, 0.027222288048520792, 0.010450445500269887, -0.02738541705945539, 0.024912898313948672, 0.05684285664731124, 0.07420067398808872, 0.01561619303835053, 0.002476838953197438, 0.11050590946864584, 0.06664409988321417, -0.00876718838808652, 0.05805312647689784, 0.07579224622456819, 0.01400233893653122, -0.04906874754634791, 0.04748723715661493, 0.02036854895973606, 0.009814088352117783, 0.08885558098660726, 0.04233042869512022, 0.05325092188047862, 0.06948155349860227, 0.007199340413014381, 0.06403611675099377, 0.3279959991626645, 0.3426121496660347, 0.04187191450385654, 0.5704904311661126, 0.5446533092345383, 0.06375294881850772, -0.2633318555131159, -0.23758196503467835, 0.062102248244014675, 0.14718241313607341, 0.09567525433911683, 0.04743036555135255, 0.09298154911481976, 0.02232496480910341, -0.0015519216901829101, -0.005898035586547774, 0.0692638730747827, 0.02783900118627252, 0.07909082427867599, -0.04004352299308528, 0.06349472838953892, 0.0469161246486066, 0.6413757467133914, 0.10586876945403767, -0.06968268886341454, -0.035652051566837345, -0.05452142478854568, 0.2052007061139909, 0.48918158685340324, 0.3455227487085429, 0.17532768527659134, 0.4945320634632541, 0.5417222460964931, 0.07913497619185007, 1.2818399158538984, 0.9871106476419196, -0.16760526035635737, -0.34915452968572536, -0.3617347596868513, -0.18058152150170478, 0.0724254368845478, 0.08338882318811366, 0.13411818542165482, 0.05187444550048645, 0.04568279099098387, -0.004115606228455293, 0.026162812584688482, 0.11311704312588705, 0.06262306810937882, 0.027261091437358408, 1.4122345321511849, 0.9022185714621166, -0.09402046066391985, -0.08849521325747432, 0.07962285337050368, 0.1387359348679707, 0.7858560175981207, 0.4761715499183259, 0.2316526952889706, 0.25530804989673955, 0.4316983451687364, -0.42986526358949945, 0.5172178157895821, 1.799793107829483, 0.688013503820943, -0.2483793804474447, -0.21773699780030695, 0.008311106020383499, 0.10463863296230962, 0.028328466179512783, 0.020556805592209643, 0.03172271860259635, 0.06632992924271063, 0.07170548554764697, 0.03640386781325413, 0.006005724569364614, -0.018260482559044337, 1.4569548744749246, 1.6340798468326618, 1.1019579935223103, -0.3562509439981028, -0.29180961190612353, 0.064044026510085, 0.288620465671629, 0.709095388763514, 0.5925675018187349, 0.7238324948849703, 0.5035356644032075, 0.710794007402492, -0.05242349079571671, 0.9540082596600812, 1.8485804169310915, 1.5837261983990991, 0.054292242749141524, 0.10204789426334424, 0.07110886992537414, 0.12035844699084211, 0.10212576390687886, 0.09046244634957118, 0.012564699673817493, 0.03871586504162811, 0.030071984624369705, 0.028025120445540817, 0.02019924386372054, 0.03677003801022799, 1.9369025557689319, 1.8509390617750323, 0.7659870372890762, 0.04104034011325479, 0.19742435999688915, 0.40059722908078155, 0.7426208064380743, 0.7987735899578955, 0.1453931635605874, 0.8274041029431342, 0.9798385754491139, 0.33772301143254146, 0.059890694403299576, 1.4987687299002177, 2.18286466168934, 1.6958586099858137, 0.1370187226431702, 0.10179106296875821, 0.09034839244051548, 0.07617579021463773, 0.09961223651765615, 0.03687009378396381, -0.03452339328826052, 0.00811213239276221, 0.04133786709852899, 0.11723642454670691, 0.125620829699829, 0.08841245860685573, 1.7929134445881656, 1.8974221444360373, 2.2287849066031415, 0.74623332272217, 0.7785434032967936, 0.8781740316288577, 0.4177849095273084, 0.13616777792057977, -0.04973647295551873, 1.0076371812663312, 0.9044920021208719, 0.45714107381533886, 0.26554854634907904, 0.29046464989191756, 1.296498045992407, 2.442360472189554, 1.222918120046075, 0.006453434186635853, -0.044000224077385026, -0.08277502219109048, -0.00954235004463766, 0.07384464744090857, -0.014130475999104181, 0.035560896701105384, 0.0021415698158872313, 0.051974832515038635, -0.010253150307312272, 1.144083511645136, 1.8651705890726709, 2.0271359560258184, 1.2922764454118187, 0.9393749206216541, 1.0945999616612563, 0.894852624093585, 0.030214340777691348, -0.31600481038742184, 0.11488757929544877, 0.7053391738204031, 0.6656465797238116, 0.8986262367011567, 0.4851886881148565, 0.06843456033944821, 1.298200444843264, 2.537906910313002, 1.3792242772337, 0.03976639465861849, -0.019467235483220106, -0.028006856960775765, 0.060417391059285015, -0.02019324853607296, 0.0691334096455868, 0.04134100772086611, 0.07651589764820768, -0.01116398482286057, -0.05177747283665382, 0.4860850923945704, 1.785004166939109, 2.1370081652751294, 1.9510981776630807, 0.9831444363898831, 1.072504294165266, 0.48813571701315284, -0.23124705166120627, -0.28883102597548904, 0.059196183018176855, 0.7170233149615078, 0.869428744252318, 1.2077750615036935, 0.7686042295069462, 0.4250343382630126, 0.7773906059930733, 2.5632457282557897, 1.6809748222389833, 0.1781923835698191, 0.09132979796461586, 0.09817119229951524, 0.07465575426834851, 0.06440824093471105, 0.05634472551970683, 0.029934161429708415, 0.08813933867905539, -0.00046990628284219836, -0.06383642565707283, 0.5407010477057523, 1.9913109844410886, 2.1450084369977684, 1.0138813957227948, 0.9980235962363239, 0.8215321279214767, 0.27700858587334576, -0.056522623778179855, 0.02668849680595179, 0.2652515513701542, 0.5106269954990983, 1.2848584459958738, 1.3574359946306263, 0.9716493609756365, 0.3718128154928724, 0.7277487600484891, 2.621383234742651, 1.752253546937283, 0.25422915494061915, 0.025104488838397023, 0.031023285950617555, 0.0033574190102978636, 0.03483227976663196, 0.0648270330953344, 0.02413323244602942, -0.02438927945444095, 0.03538189213562731, 0.039454053011675205, 1.0839826355021709, 2.056289643602444, 1.636199867009527, 0.5286632464675982, 0.9271855886704748, 0.72023055926024, 0.2680899692719751, 0.24969383249471294, 0.49647062638969164, 0.2482312457735727, 0.5070325159683831, 1.1157599983559767, 0.9036765007281357, 0.8470031954884201, 0.28415286152040337, 1.0501799722280278, 2.612552381140763, 2.8611432159703014, -0.05153894771074472, -0.38735363067841366, -0.09038257454652132, 0.06978460384783741, 0.004781700412416362, 0.06646713605860473, 0.026936274850755944, 0.062350212720719576, 0.01200909462210395, 0.007140485774906595, 0.6200495068585065, 2.082388368114359, 2.2120309707077133, 2.475645307787366, 1.1129801013546023, 0.8679146835874025, 0.16523882853987015, 0.24075039749890867, 0.7853425008071961, 0.9192804700543902, 0.9543230883610045, 0.5931586469495596, 0.3800192777059298, 0.30124284104012955, -0.3867509218794172, -0.1747831589747489, 1.968360055561948, 2.5726355117604345, 0.9816449141285885, -0.31892639598125516, -0.1426551747584861, 0.0352625011553974, 0.059386036031145374, 0.016019824217296356, 0.04137166547942713, 0.06667680210793588, 0.014070927613918035, 0.0012610907464133873, 0.5893703683562239, 1.9041651108004949, 2.1852395110906953, 2.815887614208098, 3.3925348021223654, 2.6533417904876964, 1.3796112024032046, 0.976752598273247, 1.4907006695498364, 1.2916340589585484, 2.3074397364363515, 1.5181545736447088, -0.07790073243274254, 0.06339778843494774, -0.1981695897558081, 0.5787695000205824, 2.6509882880761615, 2.5320618744068946, 1.0257621859748995, -0.26756710633511066, 0.06485784564006106, 0.012194816263404745, 0.00793580651896108, -0.003899031208123899, 0.09578871993756115, -0.013777306884755623, 0.07882713887186579, -0.019162431370171998, 0.5072084144075945, 1.8803626276343444, 2.035406297433484, 2.4249029557325827, 2.977960447355741, 2.8223789532294288, 2.5084931697084287, 1.88802105785903, 1.5998238971757488, 2.3551599042666616, 2.8037908915090353, 2.7456491387027624, 2.525490197537994, 1.8192976209777996, 1.518328206569541, 2.156990692354456, 2.68813982342108, 2.274485712536869, 0.45716137550710706, 0.0641673586662609, 0.037546063529836894, -0.0005805617745587854, 0.03350805553822519, 0.08386374813194371, -0.004702555333590405, 0.06874201058972523, 0.027204603550194835, -0.0022991987196234135, -0.04044150582610392, -0.4140261047579971, 0.3065241701934993, 1.6170400860394072, 2.6438888648721734, 2.6322008408205346, 2.4689883892466686, 2.0775993283959946, 1.6771137757539123, 2.305698584065001, 2.5070057085224797, 3.2215846711712155, 2.6425340320863686, 2.1528622197166585, 1.6139880170045993, 1.0624359814865025, 2.4491739819145026, 2.266125541277354, 1.287518241692378, 0.013298332954453495, 0.05434915527895555, 0.06449571092672106, 0.07894431238853482, 0.0020057176421090766, 0.04143026954206921, 0.06572124598877742, 0.021794103412828357, 0.02415689291230088, 0.02599288499053409, -0.06062870100094518, -0.09695110871722593, 0.412552075596844, 0.23378652529309074, 0.21868278027021115, 1.1883931907656953, 0.935154377447325, 0.07609095150551348, 2.7887435549113104, 1.866324701399494, 2.29068427901012, 2.892997277637639, 0.49040502601269503, 0.3022932323249386, 0.683530541949944, 2.291475391959242, 1.9488912107892966, 0.11360196633953439, 0.06328050432305261, 0.07153837132006519, 0.01598271335439647, 0.03482142369897605, 0.0339843101817265, -0.008757421109735365, -0.025303795236030116, 0.0004885473627333423, 0.02689835946514824, 0.05918551612104431, -0.04828897903553126, 0.052216989362361, 0.2300194328254289, 0.508364068651076, 0.6660859979509326, 0.44245222526371414, 0.06099807024106813, 0.1896636001829483, 0.4380793037294553, 0.866315055359122, 0.9068193332325771, 0.8516552930931078, 0.5464755039598408, 0.27400787008293026, 0.037028161302633145, 1.521819340753906, 1.8462544615303136, 0.6213674282558289, 0.011781141128422283, 0.014642449139115395, 0.04587264484230956, 0.04876239559172638, 0.08173587432287588, 0.03836243185100643, 0.04776620323357774, 0.09249485179087706, 0.017485387854432155, 0.034002953124454255, 0.07935876567312776, 0.10774946998125053, 0.3216692940795862, 0.29279026760072197, 0.5412982195314363, 0.5198217505722164, -0.4310722074075156, 0.1126133245814489, 0.7519567863409253, 1.0007490959385945, 0.8994538034527224, 0.8375177704871689, 0.47793711258914146, 0.19911260572139847, 0.10135382525287696, 1.3564263409850967, 1.8329089724681498, 1.090617920288443, -0.06706313691227349, -0.22315535788997304, -0.041026046100121935, 0.08197781320618142, -0.05582764553984124, 0.0006290136578332717, 0.0061063991660951335, 0.02695907688833961, 0.04648832617829499, 0.07859078688946995, 0.006253573525290362, 0.16504106208460118, 0.17249445995338317, 0.18301590280957705, 0.1203826231054913, -0.0027734671596018534, -0.6071755575145623, -0.16482531148987134, 0.6646442238378861, 0.9720460866753201, 0.857292122803686, 0.8094402237089491, 0.29468660673227265, 0.0019327338500672254, -0.2578971075814861, 1.0456051176609598, 1.7231740211858468, 0.8953668046608928, -0.18605984845107745, -0.20756914389703862, 0.030826470725803506, 0.02608866332756467, 0.06701690595582256, 0.012943863603185852, 0.07652077675339458, 0.025267167949683627, 0.009132222297759045, 0.009005506614950334, 0.045630345869454456, 0.05341276290292446, -0.26297811673310084, -0.3204207792620159, -0.3546474220442236, -0.2832809060025906, -0.4595923392802697, -0.12192579340490314, 0.8480390946072253, 1.3127046198703554, 1.3678982214541118, 0.7248125509918468, 0.10337850754105231, -0.06412797689575633, -0.2845341341786188, -0.7204330800634149, 1.8595884072922588, 2.1363276279810224, 0.06968805957258896, 0.08844428960247543, 0.12596210124513293, 0.06440088327341788, 0.02449759840721935, 0.09585238056953525, 0.11408544479300158, -0.018156483136340808, 0.0018726423858367097, -0.04789527387592093, -0.2856252596459823, -0.26887562977506535, -0.3734112521358086, -0.49198949887109317, -0.404966485071898, -0.4432006696025054, -0.6117323934585475, -0.18475488620226888, 0.8482708242818265, 1.2458618330857636, 1.1878623258018222, 0.7511768734312385, 0.3585750650922205, -0.020570852793478325, -0.10267601634479064, 0.2097807856852064, 1.9745436626325974, 2.184522745357767, 0.6402897564448402, 0.10299887086970742, 0.006362217938454509, 0.04928611582603272, -0.022613837511540946, 0.02932284866911899, 0.07512801195282419, 0.015506954339807946, 0.009738953981326067, -0.2088744435225737, -0.4156353156112275, -0.42138491076493895, -0.45870710687575655, -0.35481864820802744, -0.12847116500191033, -0.32955756715305656, -0.4622541705927965, 0.13644317826838986, 0.6040102831220101, 0.2961008166513511, 0.9389648593935057, 0.634517652894531, 0.2873003248466306, 0.12937195234078802, 0.04474977240760522, -0.38207484394537095, 2.0317077576774807, 2.296094379189337, 0.08085644450885093, 0.03402562554412367, 0.0613259948603978, 0.057004172796591354, 0.050886489543320625, 0.045857189659869915, -0.0011526026679067479, 0.0342806289826729, 0.07079580171473178, 0.008220924352725598, 0.044413856084188456, 0.059545246171338925, 0.023343177369757672, 0.10345257406416686, 0.04664037708546438, 0.02492536197593686, 0.05788498385182313, -0.005842535715361009, -0.015055921603286223, 0.1112520470365241, 0.45687723849055545, 0.37335420432728184, 0.2278469429763482, -0.020804702160189623, 0.028452869184410718, 0.014196493842889967, 0.03833820436909224, 0.039044724673365554, 0.037315018483935654, -0.005966959920299465, 0.0687053044463521, 0.011055466241934441, 0.0629607551450566, 0.02098177534161774, 0.04613496265514498, 0.007146003416336351, 0.11254682625350988, 0.017463167669151267, 0.09733387307073982, 0.02400399501832525, 0.04495386400344154, 0.02168921104128384, 0.02358290746682997, 0.09227261296569653, -0.019864105722142335, -0.0034446976222714427, 0.09813089372059254, 0.2322490160458297, 0.4255215019006064, 0.2521217463921403, 0.14937094522853556, 0.04108886896853652, 0.046081356600407665, 0.03330931180588948, 0.02167904556001771, 0.04078809926351792, 0.004851466724311121, 0.057104195598511015, 0.00221982919358738, 0.046322936989607336, -0.00017095788728956564, 0.005636650551017493, 0.06301634337150612, 0.018259721759407575, 0.13406534729166167, 0.01355376777007172, 0.04510022084628693, 0.005010969394546855, -0.000346092479338941, 0.05446618959652775, 0.051778619439664046, 0.0725604489893917, 0.11835105082365222, 0.025126577857453477, 0.004122574276108483, 0.0397348441852532, 0.06490227785210505, 0.025114134301633163, 0.010132961590797337, 0.011496540635212936, 0.002455351512875492, 0.025183043717809724, -0.012149467330313014, -0.016223659671189876, 0.06814090000630903, 0.06136116897257546, 0.07360407324155509, 0.06012653503174517, 0.016201257545971466]]}, {"type": "hidden", "nodes": 2, "activation_func": "sigmoid", "weights": [[0.37110784997837654, -4.8816290594704945], [0.10056500546206436, -4.663156817956419], [0.2814514249222811, -4.804502825976597], [-0.05724604436845869, -4.560554023616784], [-0.006703059493556377, -4.590905664248835], [0.16578992562482606, -4.711610040819878], [0.10036331016379002, -4.663011926433635], [-0.37806066493136087, -4.43395866572581], [0.037346259352248244, -4.6193624216878035], [-0.15258944280682915, -4.510751596300909], [-0.42931770129225943, -4.42362145261191], [0.036244050710258886, -4.6186289070189215], [-0.24143448737545728, -4.473034052286437], [-0.15311687503517457, -4.508004393892753], [0.04898994639414826, -4.626286473374771], [-0.13572513207926273, -4.518763143494547], [-0.12989330519986259, -4.521673471107217], [0.0652312966799803, -4.638269902076886], [0.12040490128277082, -4.67756241164768], [-0.3003615070218501, -4.4542361162162285], [0.11469944734493442, -4.673388932931935], [0.15051092161360888, -4.699983274515247], [-0.19280921523565092, -4.4928766430933464], [0.1849666749147906, -4.726429404024344], [-0.015628757264298188, -4.585361060619514], [0.024656872694582818, -4.610983043805964], [-0.16412693037583623, -4.505429829250046], [0.0008501855981991602, -4.5956573792164495], [0.04372869699172817, -4.623630879280044], [-0.05755691056369185, -4.560375402730385], [0.09521558175960186, -4.659324746721135], [0.027116397509586325, -4.612595931999558], [0.4323469843951231, -4.9363850449017725], [0.08869246140480817, -4.654420217187025], [0.04286287854229578, -4.620706445199279], [0.29785052633938014, -4.81323656654114], [-0.04986461724172081, -4.551529899574813], [-0.04013916986431851, -4.550867336684027], [-0.2785997276740562, -4.411431259261757], [-0.3098697762630607, -4.384497827567164], [-0.14472877350959215, -4.454126553736417], [-0.20366277022021181, -4.423907008814706], [0.04456032441226876, -4.572896592481188], [0.18446441954812615, -4.682330073325307], [0.12019289119585734, -4.620578355246454], [-0.17171859946080842, -4.444483648502599], [-0.05547913583214887, -4.527760057518663], [0.03830037808656135, -4.597183975318699], [-0.05614008854348749, -4.5430177758836905], [-0.21448852480555364, -4.475821755320436], [0.11308797349196059, -4.669594673134684], [0.03075267142091929, -4.6140964886278155], [-0.17936815199774006, -4.498639036812117], [0.12599029837548764, -4.681671758047239], [0.15823500640032598, -4.705840661368498], [-0.12469212712394913, -4.524260366870962], [0.0271745527935782, -4.612634134473465], [0.2738567019468737, -4.798159790522734], [0.08548829850122189, -4.652112052684372], [0.28711791731821046, -4.809084685162303], [-0.28371008853828794, -4.4563750965557], [0.008362838799305194, -4.598745156135189], [-0.0007620637867157586, -4.580766783714192], [-0.02749915429653424, -4.537512787564488], [-0.18347628025885765, -4.408074356697975], [-0.2961873003872986, -4.272977866840449], [-0.4709459291507521, -4.080825598101008], [-0.7142944974455772, -3.8795274606366377], [-0.8437716917855889, -3.698191329344217], [-0.9781465060585492, -3.516003906133758], [-1.0546091609605321, -3.364661535846281], [-1.057292799021232, -3.2873516560770195], [-0.9955988468964007, -3.291866581765267], [-0.8357062170005576, -3.4066302539170934], [-0.6687305308459415, -3.572172294455281], [-0.5259454282274553, -3.7703724878294462], [-0.3753702638710231, -4.030356314919973], [-0.23108854659812642, -4.256985379240279], [-0.13274186662281445, -4.41630530045831], [0.08387440279828658, -4.621186816046738], [0.1200679192165331, -4.666202603730159], [-0.005508723917770532, -4.588548632752716], [0.07825447617910836, -4.6473249594045125], [-0.20812021963872016, -4.486570443515196], [-0.193744253417149, -4.492483661635125], [-0.29070894819623105, -4.457180460004538], [0.004286044561036101, -4.596647378853366], [0.05348179913174472, -4.628450812130557], [-0.9370774512402618, -4.393881468954079], [-0.01467160561811002, -4.565488257656467], [-0.10175335751092705, -4.470558201170271], [-0.31726394570874944, -4.254743899091257], [-0.6052805205100822, -3.959049971964814], [-0.9724827167745369, -3.582753349637298], [-1.2577873755156048, -3.2358180512252823], [-1.4928368737737165, -2.925490849983108], [-1.665906949906908, -2.6642936604149723], [-1.7545369831297233, -2.4243309138043205], [-1.7593256643412925, -2.1894109130211588], [-1.6857828707464546, -2.0309573554380456], [-1.4750070638369792, -2.076205112689005], [-1.1976696597227576, -2.294214838167533], [-0.9823149895585946, -2.586025983041827], [-0.817488308628265, -2.8977996006872777], [-0.6342662508798105, -3.311417322830253], [-0.414246257160946, -3.7490213211138452], [-0.2159644340878323, -4.137598249017171], [-0.046191930956160046, -4.423881909112775], [-0.04258631865471953, -4.508157918408744], [0.03947928294270712, -4.609068390122173], [0.1219775464318277, -4.677246288513799], [-0.10385799874299514, -4.534932350146353], [0.025259494762104307, -4.611377722567188], [0.045862374047612994, -4.624895489289186], [-0.08358720303018423, -4.543493331373218], [0.14893296889268268, -4.694347877998221], [0.05237658891292054, -4.606606664914739], [-0.3048782268852941, -4.302144863489897], [-0.5324184073187418, -4.013977396698908], [-1.0292258416747158, -3.535060827405912], [-1.4894765254472018, -3.0459587419926892], [-1.8415978458969198, -2.593823853337547], [-1.992353377043755, -2.2181827157686933], [-1.9943337990028693, -1.8508046345117883], [-1.907816061254597, -1.52499940968564], [-1.7950358843702512, -1.1970728885341593], [-1.6683268377089695, -0.922534225075344], [-1.5612546819592243, -0.7458554553684533], [-1.3936166197798032, -0.7600740264760656], [-1.149290374529281, -0.8704205483992636], [-0.9619378014624476, -1.1799517642752084], [-0.7838000558325944, -1.6368047868679014], [-0.5620987896214616, -2.265168232606401], [-0.38659470934229134, -2.849174414905777], [-0.18846574095785598, -3.439345965673688], [-0.035046599203916944, -3.9547171210819143], [0.04943568155129506, -4.32420715915489], [-0.007552909928859114, -4.504531254575529], [0.059895040598625576, -4.620139962769575], [0.010226544490128366, -4.600637910292466], [0.13582362797218103, -4.688962615164101], [-0.026452236995367216, -4.5787418023297315], [0.07898073403084378, -4.644542998189575], [-0.2765966781686492, -4.436586506420012], [-0.27384294542867543, -4.322009942885782], [-0.6835669451572544, -3.8559071514792915], [-1.2559471054556575, -3.285836022943013], [-1.7284251717777523, -2.7209884688711585], [-2.0589731770217377, -2.208545788778567], [-2.216973908299515, -1.7596182015218942], [-2.270989571823319, -1.3610760537541142], [-2.223815397550399, -1.0088250114149087], [-2.045227203715567, -0.678601532536441], [-1.947125635164159, -0.3120577480232105], [-1.8595688310667895, -0.0001496029336729354], [-1.7192267593709865, 0.20474165920029105], [-1.3977663497747352, 0.1959618675610014], [-1.039113016874162, 0.08091250445441506], [-0.801490426955353, -0.10747914684105518], [-0.5761725905596431, -0.4264888665024394], [-0.37168590793623985, -1.0244963479435782], [-0.1844838843760233, -1.8125887743182183], [0.01077240717423511, -2.595869252674423], [0.25172424127811316, -3.362366061667727], [0.38468874612730164, -4.019081743217584], [0.08702636495528934, -4.326364082371045], [-0.06731940081695387, -4.494182603550556], [-0.1181506059460309, -4.52552057249833], [-0.24872022505379837, -4.471163197172558], [-0.010271919525970737, -4.588599632259439], [0.007118969995570776, -4.590217585437201], [-0.17893560957570429, -4.422474768022356], [-0.4686830902021015, -4.0218390518020986], [-1.018643342078662, -3.3805054360955453], [-1.4459171727282583, -2.755997265271777], [-1.7836295730223033, -2.1705348267917906], [-1.951366828863125, -1.6960403976674059], [-2.0506347868305608, -1.2734862460264185], [-2.0747601039658177, -0.8536804120314532], [-1.9823844185508355, -0.47977645107900746], [-1.8125973301870115, -0.10108807079733118], [-1.6619546870332431, 0.21206767996909293], [-1.491396612519568, 0.4090470654432004], [-1.2241832725608293, 0.48617950520199144], [-0.9009697198985552, 0.41873031774350866], [-0.6664947508089458, 0.3505428355624313], [-0.5170694953731899, 0.2275295869161847], [-0.406504693018239, 0.015377981712257108], [-0.2382077130555797, -0.44368861864515025], [-0.07270015823299922, -1.165252942182705], [0.09803932481559563, -2.0423609125435997], [0.37107242335087665, -2.9423015710777287], [0.6615615820177632, -3.8139188970255655], [0.5353323222808053, -4.338224214098075], [0.24060231425611836, -4.595365242355148], [0.032894888617971636, -4.602710988738342], [0.22114602695853514, -4.754695097549787], [0.17813923317593663, -4.712383637469009], [0.05003269307854842, -4.586155089106752], [-0.39141785088295444, -4.21110126069875], [-0.501724001907787, -3.7199993207938977], [-0.81727186502165, -3.059111540764588], [-1.077365652034681, -2.4150212327332046], [-1.3117776399264556, -1.8648758564970698], [-1.4961209924598737, -1.390830423523512], [-1.5605964725991692, -0.9557066368516738], [-1.4882708222397558, -0.6425762570706829], [-1.299900463842909, -0.2872880282334601], [-1.0748620091813896, 0.015777130663205626], [-0.7908625682746929, 0.18114570915021086], [-0.46939399551737315, 0.24830053676924607], [-0.13907328664055396, 0.20983378927325944], [0.08166424708422992, 0.09484680357180617], [0.14713766050658214, 0.06034694274538849], [0.07057824617995144, 0.056504089637803], [-0.060609797383168684, 0.06389742725092522], [-0.07073239681844645, -0.16374390363311392], [0.034635323743397936, -0.8655871496753944], [0.11274163135151748, -1.7842558866724485], [0.4194840278801265, -2.7629085035985583], [0.7895294840849456, -3.742781604420828], [0.7075670277247769, -4.314258261287848], [0.33413443395418685, -4.6133970506261255], [0.0420943513851142, -4.60755586071514], [0.09296440044931345, -4.65584686690266], [0.12893212987515576, -4.664066632211984], [-0.031417028349498353, -4.45417216673265], [-0.09007319758920874, -4.12995397716633], [-0.31924434590124456, -3.5411602028383897], [-0.506277150561579, -2.889022732733706], [-0.7549416903195186, -2.2270673954522477], [-0.9702301278778829, -1.6775807187112324], [-1.1336992521403746, -1.2267129149485052], [-1.0663374880614713, -0.9145055780588338], [-0.8557493484547644, -0.6298705701482351], [-0.5659049064362404, -0.3459430577129155], [-0.15485773394821004, -0.11715734902535913], [0.14706731827346217, -0.04119466443931667], [0.3704341673979051, -0.16816087219631173], [0.5553878191476453, -0.4078615587171456], [0.6151588026573087, -0.4653951982914958], [0.5708195749838891, -0.44241180632908306], [0.40228018493271805, -0.26818520131244405], [0.20015890324727886, -0.0616110332085342], [0.042948647910429086, -0.18801733484607905], [0.02204562289115151, -0.7712809365341372], [-0.001960216987971563, -1.7166933659385182], [0.25057545944450604, -2.700978016499967], [0.7315213823812067, -3.728646654363677], [0.7596849179239441, -4.351790130965364], [0.10371157838443301, -4.453256555246949], [0.27526318206027106, -4.7842357040323735], [-0.06268218677688421, -4.555138025155908], [-0.06367443421674565, -4.528106092218451], [-0.03707815712618764, -4.388282684667187], [0.03571935030424375, -4.094809003971023], [-0.1698969222814136, -3.4959059591980117], [-0.376256377416517, -2.8158761045672676], [-0.6544819889318023, -2.107461504990734], [-0.8295098801590485, -1.545505871627195], [-0.8582580257516239, -1.1660374080500908], [-0.6536053646152441, -0.9110806321585154], [-0.3168569853467347, -0.6404835993885261], [0.03127442578122198, -0.34473670750542057], [0.35447199721605205, -0.24254211348808358], [0.47948341777065373, -0.3864358486329546], [0.6151930483260366, -0.7125961965879372], [0.717741401750955, -0.972954512300379], [0.7066252060041495, -0.9748531951952991], [0.5910376408980594, -0.7750598327720717], [0.4175313920487804, -0.47350361561560955], [0.1969455769630505, -0.21603037652571175], [-0.008379800372421071, -0.2927394498493959], [-0.15620640783256873, -0.818220405208002], [-0.3280427629567232, -1.6765629857831348], [-0.12300637225627842, -2.6243301994700667], [0.41342035251845993, -3.6748349941232283], [0.6112196436352793, -4.395176448711551], [0.22352058501555583, -4.591350125423302], [0.25544105865796773, -4.7673903061448915], [-0.036405638441671176, -4.569720426195103], [0.02090631429039464, -4.573986170556673], [0.00515533057168884, -4.408631729525124], [-0.03830511609371038, -4.057944581183165], [-0.18430373407163844, -3.5113929256392593], [-0.5030194455689223, -2.7588805873241267], [-0.7929758888873191, -2.0100010674377806], [-0.8588459994649096, -1.4659281935052624], [-0.7076253745588867, -1.0966987897938878], [-0.420111265818154, -0.8122870761114023], [-0.09468337447402835, -0.5136713124885743], [0.18407682682952287, -0.2584607682426898], [0.32919782969823236, -0.36867491229348487], [0.3728667063999742, -0.717718791893663], [0.45980834634536166, -1.135615189715289], [0.5439037492917447, -1.2250424210336062], [0.5071088748034336, -1.0488014649312536], [0.41422750769548095, -0.7799679511898946], [0.3060899551647795, -0.4463427445379486], [0.16105031238230755, -0.29415228062092424], [-0.07973040129106641, -0.35467115881385614], [-0.5124979977707615, -0.8750816432847992], [-0.815981358316948, -1.61663466284788], [-0.6850935286305911, -2.4918962129512248], [-0.13007409979647497, -3.520004655518525], [0.37577412427437706, -4.439391459060589], [0.10172337923056174, -4.565477896289139], [0.1561049803096484, -4.694282156493367], [0.4047711772965554, -4.908438746320985], [0.005568190797243622, -4.570680336161273], [-0.02630538453957393, -4.427094617707772], [-0.11745042628270455, -4.129280181190749], [-0.38340712693452006, -3.5360678097339475], [-0.8500679828921334, -2.6943335309048275], [-1.0823330646289986, -1.9441240305501946], [-0.9731082731556803, -1.3999402810460038], [-0.6421269187692177, -1.0075884399784178], [-0.3995944475041278, -0.6545623728162071], [-0.1348836778891555, -0.2919224401588618], [-8.573074054398465e-05, -0.15955496695488872], [0.03888746306381241, -0.40684824470141895], [0.02609224026942399, -0.7823892560270209], [0.1942798271993714, -1.1070046416450103], [0.2672965450872867, -1.027275067043456], [0.2728349866509717, -0.7824370342797121], [0.3035727722154952, -0.512481706112342], [0.26367617787056313, -0.2821588803565465], [0.051025702559738796, -0.2576075539743476], [-0.36891858952830703, -0.47754749319521134], [-1.0652382939985006, -0.9964277777324578], [-1.392610229622644, -1.589032954559778], [-1.3944589537390262, -2.336309482887266], [-0.7700347850519952, -3.346361376905519], [0.15550644883776413, -4.484972043379473], [0.06402089196867965, -4.586671772364713], [-0.29307821884123153, -4.4533995608689505], [-0.0979232658104686, -4.536215374201008], [0.13070444263198777, -4.670679051139746], [-0.0946529187695013, -4.452468941421123], [-0.1835464622771578, -4.214056111939189], [-0.6464578164077716, -3.5445858926176665], [-1.2242785174048094, -2.6226777303936935], [-1.3301964299853837, -1.860674430249095], [-1.0461897282393464, -1.2816616401382004], [-0.6985185009139386, -0.8115775627094276], [-0.4474645673260246, -0.40803682074130687], [-0.3304390254696304, -0.03605074877778208], [-0.23297239412126317, -0.09527523130005268], [-0.22249337398770566, -0.3477908316568516], [-0.13629436533917907, -0.7206760308951232], [0.09072425723126798, -0.8036924575121578], [0.18502042273539743, -0.5959513298626299], [0.2309635993609019, -0.3616479036422211], [0.24458595160876268, -0.17703827344443454], [0.12322536242389615, -0.11570582200571597], [-0.2968142844174865, -0.22227834953772618], [-0.9740962505477753, -0.5614705901046805], [-1.6688842946159956, -1.0346872191450716], [-2.0319177681285305, -1.5284298693524145], [-1.9721200122022493, -2.2232649883128586], [-1.248171054558585, -3.17661207486061], [-0.2390389017489298, -4.31882863798136], [-0.20585264209656556, -4.457333926157926], [-0.00015542587415013828, -4.590914727939443], [-0.33814909737948967, -4.443442134766731], [-0.026981538570378598, -4.572374809135883], [-0.032156820605301555, -4.531805911517868], [-0.20763502044578774, -4.284732181835162], [-0.8470931407172156, -3.502863816915405], [-1.4959857954018907, -2.4819579510701266], [-1.4519309323153604, -1.7107242465809158], [-1.1066068918585217, -1.1044926441606757], [-0.7263001410320923, -0.6048276662647991], [-0.5262402764167097, -0.1897743216139015], [-0.4263385556588003, -0.00542181548335068], [-0.31870503825719154, -0.16619094038601734], [-0.17947848270389696, -0.4046656749992534], [0.1355947421877858, -0.5886601675496149], [0.31276470402785095, -0.5691571193645651], [0.39244522356006317, -0.3694718510932289], [0.34432590132984114, -0.06049497754869896], [0.0939349111650017, 0.12464989209171161], [-0.2624089855824576, 0.1338231934178453], [-0.8255373769415794, -0.05685204137865344], [-1.632358474784811, -0.4996728283693408], [-2.1922507800342417, -0.9276079654753612], [-2.442244274441069, -1.4897155658088517], [-2.2157055490512874, -2.12577390532399], [-1.449279351825753, -3.0204105348458348], [-0.22708280596835292, -4.280171865585332], [-0.014073537295825793, -4.554484794911632], [0.1899825464731131, -4.7270542884801205], [-0.028527260368480467, -4.576917926956686], [0.3882282901785802, -4.8951031814234], [-1.3255160051635513, -4.396768779939324], [-0.2199285190103852, -4.321345014636521], [-0.9874156105208152, -3.4245260846967662], [-1.6729652255989174, -2.3102326040417642], [-1.5529762063071733, -1.5505348647579407], [-1.2174248783127177, -0.9430371221632572], [-0.8717616503156486, -0.4600478884780131], [-0.6506709675213614, -0.12791797414594028], [-0.46407914047454246, -0.16805650584468282], [-0.19713001565918514, -0.35223588514159215], [0.14843949635689915, -0.49999709822694993], [0.5583338077853247, -0.5729919808938857], [0.7010691464316471, -0.48593532102243764], [0.7341669213830191, -0.23480591847659185], [0.43689698729608906, 0.0629112116265675], [0.04237143761192766, 0.22599317823956697], [-0.621448087748038, 0.25286883005964295], [-1.404480066883052, 0.0688102889630994], [-2.1123586511975727, -0.37074995100074726], [-2.5252710247645145, -0.8106767497092616], [-2.5493953821377597, -1.4076443673056842], [-2.243585877820929, -2.0859199419639265], [-1.5480143711160863, -2.910917465166501], [-0.36285216025383377, -4.144288277754014], [-0.08438829811466493, -4.513547332940551], [0.15336821828995817, -4.701519037001911], [-0.011014919535919113, -4.587984532699941], [-0.09002026904413626, -4.541145769347081], [-0.03807052036571565, -4.556292014452623], [-0.22122515339138923, -4.309388516754799], [-1.133760928910721, -3.296017920173789], [-1.8191765924939864, -2.131575349438367], [-1.7357038566312875, -1.389647132190029], [-1.460785783480237, -0.7161212652150561], [-1.1494038610150266, -0.2977644181379116], [-0.8368716634931151, -0.14712354426491528], [-0.4999462926998739, -0.32319088789963113], [-0.1538902348689333, -0.5119257989253795], [0.3228739899946554, -0.5949229241158658], [0.7297328288519187, -0.5645272312929851], [0.8713578900074033, -0.5006945009211056], [0.797658353880418, -0.29780079816159355], [0.5304065473184508, -0.09575262876898065], [0.08128609107855302, 0.05841524393795825], [-0.8500596318121574, 0.20370522598700594], [-1.8540416809168754, 0.1525524903874604], [-2.5500342718134834, -0.2233802878423635], [-2.7843905600000114, -0.7105801174522214], [-2.650084269262816, -1.3584875324023276], [-2.270509014276453, -2.0691439261947178], [-1.558050225690344, -2.910448635324923], [-0.4765263648530022, -4.023467926801602], [-0.13739048075519184, -4.4680547277273455], [-0.24180095211443928, -4.469364162097548], [-0.2858019084751303, -4.458490312223179], [-0.07567700455247546, -4.548712691002998], [0.07717173107221902, -4.623682878685286], [-0.1912926696445575, -4.2936673432057555], [-1.3336647910607753, -3.1094822475301416], [-2.0347076101166546, -1.9103577979458342], [-2.0395853232990215, -1.1304562696264906], [-1.8345843791779446, -0.486479516934145], [-1.5051269229247979, -0.10197246663027294], [-1.0886028111932284, -0.13110136710695758], [-0.5875647092402534, -0.3916238241266771], [-0.16559977725589417, -0.551745846582357], [0.3172277372413341, -0.5792257226280514], [0.6364416635496148, -0.6174591731601601], [0.8355835121591346, -0.5619468157682151], [0.8463621514566873, -0.4687794389563354], [0.6271315986858413, -0.32127263800719646], [-0.0739084044204521, -0.11700370654074255], [-1.2382396877610247, 0.17583602285092784], [-2.4009723287738995, 0.23524685200133794], [-3.1459496681586656, -0.11098255423351712], [-3.1485387777776053, -0.68745994020372], [-2.821148715527247, -1.3791260630957667], [-2.3305608106469022, -2.1200157981377004], [-1.5776362488163183, -2.945285480688609], [-0.6464455473829279, -3.9083665674522696], [-0.13595676208335597, -4.454332957808729], [-0.051481074432272796, -4.559822973983428], [-0.1121787218217025, -4.530611061098497], [0.39146867266332486, -4.8970371909819], [-0.1714094018801709, -4.462146969690382], [-0.4900220753949733, -4.057966810303158], [-1.5394563425306051, -2.835662024075673], [-2.1891625411955706, -1.7143679143227863], [-2.31255925249378, -0.953451837318792], [-2.2564582628168965, -0.3603284786724259], [-1.8947148126606328, -0.09582482595897177], [-1.2923206186008307, -0.18934097076277068], [-0.6852509215509147, -0.425939726218731], [-0.16316646644068405, -0.5216481168979661], [0.2651742404387469, -0.5709628748942143], [0.6148489531511816, -0.6200259935335986], [0.9914620969609387, -0.6523908860855618], [1.0460015075757332, -0.6388450613261812], [0.5585602597252171, -0.4657773979527708], [-0.5059893792919343, -0.10785259433356897], [-1.7450128244206347, 0.29445085596139875], [-3.0462574189790623, 0.3668888781089874], [-3.7632817511742465, -0.09516198068845558], [-3.555593915441557, -0.7361422525826872], [-3.0259828036261838, -1.4327835594436737], [-2.3387752429481434, -2.1778882862988547], [-1.533614055481729, -3.0046297780852775], [-0.6739588501529105, -3.8661271360570155], [0.0783505679474584, -4.587553096529102], [-0.010008983281687976, -4.586045100718688], [0.07643302399228616, -4.645049216396623], [-0.046570856400523525, -4.56478135972872], [-0.14769896817070105, -4.450154034001129], [-0.6290483968502261, -3.8593992348334605], [-1.6618405604863662, -2.591689574276734], [-2.1646409410268763, -1.5120781298080084], [-2.2934767473286213, -0.806309246456534], [-2.3605222805319532, -0.421386897971268], [-2.0061081171645103, -0.23611998072727533], [-1.3641135204852064, -0.2945814952362028], [-0.7690504925730316, -0.4183203215244392], [-0.19892200503806304, -0.5190621455599959], [0.21001248037331874, -0.5964878595851557], [0.6824244057921512, -0.6577290942233709], [1.074883487610896, -0.7138158612521911], [0.931667962854365, -0.6322932660734157], [0.083677356209314, -0.3255551465736645], [-1.1133926073510045, 0.14496821151050168], [-2.3568097572146773, 0.5148735463518768], [-3.606846831687838, 0.4066447478553907], [-4.207918684462813, -0.21850734484059658], [-3.7310420575271426, -0.8750965681451777], [-3.015270269783842, -1.5281317488295563], [-2.2804070312303626, -2.2361072669799666], [-1.4723889931708154, -3.0732402631893696], [-0.6035015248273131, -3.9140968562956306], [-0.20756992376237443, -4.4302207923976065], [-0.08855220627360638, -4.5387915626485995], [0.024082059142124794, -4.610469127164963], [0.032378666314184054, -4.611229214739408], [-0.2099788400248409, -4.384139118840328], [-0.7106734174656865, -3.7172703583292708], [-1.6373523521342896, -2.477141497098595], [-2.012283210809029, -1.3585060184312465], [-2.071497209470653, -0.7210404858731706], [-2.0855511007992393, -0.3781326651402057], [-1.8359074739576717, -0.20195189246620066], [-1.4017921363498411, -0.1557743124897583], [-0.9127781707343658, -0.15080574781771286], [-0.4269506122295345, -0.23472914944699055], [0.07313845108608605, -0.2767664395751412], [0.48419514973910976, -0.3585837532912498], [0.7348884811676553, -0.3836028533543506], [0.33755636146764173, -0.2479188784145997], [-0.6367436208351684, 0.06431303988427017], [-1.7282773621022283, 0.4031695528232925], [-2.8186528099580923, 0.5679039092685098], [-3.795394017920362, 0.14079950231001082], [-4.242011311022934, -0.5148974409008714], [-3.621084519771553, -1.0952906027219105], [-2.8597189432755883, -1.688359284477805], [-2.1156777312043076, -2.4216239878269596], [-1.3282378430981185, -3.2261193823446974], [-0.5594397600888044, -3.9898588786056925], [-0.10369499933272322, -4.484825581894784], [0.2069532364868506, -4.741425460023152], [-0.08343352791082116, -4.545867729130842], [-4.193778470674167e-05, -4.589402733416076], [-0.04093122003848229, -4.463521795035432], [-0.6721097385882778, -3.6886979183343347], [-1.4999952652976192, -2.5375222163517877], [-1.7862643714825241, -1.4069983245356215], [-1.781010091401467, -0.5779742368588486], [-1.7149833986286747, -0.21740912796538509], [-1.5651503843158825, 0.010672514270248535], [-1.325970897471486, 0.16085364374360278], [-0.9333158641906228, 0.22355176889973005], [-0.5563441856281923, 0.2281341247933702], [-0.10459242604519167, 0.14735714595871166], [0.2247194221294092, 0.029215898799351672], [0.1966162129570445, -0.04541802073091916], [-0.34830155413195896, 0.061653376231092315], [-1.2341719228043688, 0.280608884939378], [-2.07921038687835, 0.3723057117132867], [-2.8819057138415154, 0.15987461492194677], [-3.5604093186251093, -0.36613376599545644], [-3.7682674906124083, -0.868329490910183], [-3.1997239795933954, -1.415404014142708], [-2.491088894484165, -2.006376428151152], [-1.7935658777365762, -2.730819943738934], [-1.0911489207451555, -3.433017088879023], [-0.4143931653454978, -4.139838779511515], [-0.1340144992168208, -4.4794000690520335], [-0.14891379203625288, -4.511753752440037], [-0.16311809958566606, -4.505676515579324], [0.06389560522362583, -4.633353776919341], [-0.10892472828323621, -4.436859376906532], [-0.5587383386325676, -3.8128492243924494], [-1.2244967410325673, -2.8402079310676207], [-1.477508892906354, -1.7249492171367695], [-1.4606990750625064, -0.7312727639256345], [-1.3803360984677042, -0.17965477531634522], [-1.2900259797604556, 0.13679909776981553], [-1.1202507395534211, 0.2784948978401008], [-0.8078185420222116, 0.37334661789527396], [-0.5084638502514655, 0.3539194022223127], [-0.1697789594931978, 0.26899829062795805], [-0.05563078250517991, 0.1209598156114528], [-0.31260711152439247, 0.046461370248649485], [-0.8358445543829846, 0.027347657529956285], [-1.4506702100422466, 0.009754714779696605], [-2.0040653705564795, -0.20012862812358215], [-2.601618826797538, -0.5270506389974826], [-3.078671029538992, -0.8568053999583545], [-3.118403411231442, -1.3292770961341875], [-2.611777030611675, -1.912049619060018], [-1.9914248807265114, -2.529277718027216], [-1.388101726807628, -3.1239485204492556], [-0.7947319110044585, -3.741669350809438], [-0.383912189403864, -4.25348783193797], [0.13783988085872506, -4.673381722116897], [0.21139428642511277, -4.747109513444102], [0.2417622724425419, -4.771447174385107], [-0.06943726861370032, -4.5532745002396915], [-0.11260021927705718, -4.464369940096529], [-0.36094400866765614, -4.074649664069812], [-0.8141755422100534, -3.333495404065828], [-1.0515705025258393, -2.4374683970013016], [-1.0303623980597911, -1.3710021941742245], [-0.9530885939208068, -0.5298439381832603], [-0.8563809603427982, -0.13767044895496144], [-0.6304875342145649, 0.051920560330648985], [-0.3394212084578433, 0.13267044956456037], [-0.07494819222357782, 0.12521013876466094], [0.0714824875302468, -0.0572104228024205], [-0.03178691404116307, -0.2353489430368704], [-0.3490664218134163, -0.3644576755036791], [-0.7838543011610427, -0.5116638271371932], [-1.227665561933195, -0.6978806823957631], [-1.6304288952510997, -0.9091582736212843], [-2.1108547675978304, -1.1174590092038312], [-2.484841742803897, -1.4293734958021718], [-2.4351511382287234, -1.9288580433142442], [-1.9744011428749397, -2.53671556948126], [-1.4511704712016134, -3.074583228148057], [-0.9284378114625726, -3.584530660372478], [-0.43935636907753156, -4.107730476138454], [-0.01963056134059191, -4.523772338710385], [-0.1707100679924511, -4.4956330857105105], [0.05985327192869925, -4.6342692987389205], [-0.012508942112702261, -4.587290319243144], [0.009256377702715386, -4.601008999289898], [-0.07120283593737614, -4.529098757841071], [-0.12279745570427805, -4.381574875026279], [-0.30418916924963124, -3.9359428273551695], [-0.40236113123363576, -3.3261067753560027], [-0.36303669721157145, -2.6285989998025343], [-0.2058125154664523, -1.7402897222884908], [-0.07265408015668676, -1.0320344581575733], [0.14987375030260938, -0.6555635495212203], [0.31848696812944643, -0.5309277275549791], [0.4514799337932502, -0.5798959725481696], [0.3598015599838787, -0.7363397440276268], [0.18275686529992852, -0.839180600906056], [-0.142543345234863, -1.013155794302207], [-0.45712382098258475, -1.222244854147665], [-0.7693215912838512, -1.4054311174765202], [-1.0540927461498257, -1.5732964234168796], [-1.4844483179449761, -1.7810922963393991], [-1.800461646298656, -2.1292232083741194], [-1.7562518036400918, -2.663067054082192], [-1.348240189118678, -3.177361455738286], [-0.8808343633427977, -3.6269633175623266], [-0.5122748392085806, -4.038274290449942], [-0.1825441315799932, -4.389359263271434], [-0.10558061866830837, -4.5125411314568495], [0.028116217497545493, -4.609220246580834], [-0.1464632658811991, -4.513640619672927], [-0.07295570534963418, -4.551655474173331], [0.022300905447022158, -4.609443186155035], [-0.08852811830158483, -4.537217700720971], [0.19634477386939977, -4.689986020697865], [0.0026221079482313336, -4.40184968906075], [0.11825784725857784, -4.177229444893881], [0.3542646580398337, -3.8331473242978893], [0.6043858993671852, -3.400349736513746], [0.852411351469857, -2.83223969370536], [1.0838506306306765, -2.248858213412592], [1.1265698338434316, -1.9332214488031325], [1.0673888394795195, -1.8259673796097264], [0.9565452364742508, -1.8284737616161766], [0.7162244892611705, -1.8973354613256195], [0.39845500041250254, -2.055291660483724], [0.12047718370695447, -2.2049563092215356], [-0.12129569683880248, -2.301695429534838], [-0.41717696450907815, -2.3641804519992324], [-0.8380361345231968, -2.5340595416134226], [-1.1808118422571425, -2.858773636712949], [-1.1473794187993978, -3.2769915279598427], [-0.8052060589140504, -3.7092120897525938], [-0.4285805700463183, -4.085696074222208], [0.0825067731657175, -4.538786650197439], [0.040232703839346656, -4.589660839474094], [-0.07241021347698309, -4.543314717041223], [0.1650405163418634, -4.710330208825336], [-0.20065038921342906, -4.4896128338399315], [0.16127051541004, -4.708154001133136], [-0.1967704599727737, -4.4912188185393935], [-0.20937537841443446, -4.48540712325346], [0.15475666152918652, -4.695835781118932], [0.023209887321762487, -4.555752770082711], [0.08365673367698279, -4.453054217548305], [0.5707542899396085, -4.490323555086894], [0.9954640668974852, -4.409300511592182], [1.4459505195772435, -4.340607388713055], [1.8152271057978688, -4.22729810919988], [2.1346780239906695, -4.030280174125615], [2.2906834838605588, -3.8421702962106425], [2.1627317163919657, -3.7278374444900226], [1.8230387894475368, -3.690837562501145], [1.4509720743856627, -3.651556311949641], [1.0910748830250259, -3.570576377305265], [0.6926060357668246, -3.41947128066962], [0.20131619185341915, -3.298856540376505], [-0.31880991725092234, -3.339718096987034], [-0.6490822566998067, -3.5366644578201996], [-0.6224703210241941, -3.8334236262001187], [-0.5734303911889168, -4.08340515993885], [-0.26335777859238624, -4.335391091346351], [-0.07677189920422488, -4.504421648345688], [0.23598563756932936, -4.758251444363008], [0.023017387312137632, -4.608287902908208], [0.04067428514838684, -4.620982266785396], [-0.06480644407215237, -4.556238776108626], [0.09186881379046667, -4.656938743938196], [-0.045341154806157836, -4.567470284359408], [-0.03789914613974938, -4.571868008895306], [-0.09338390862062676, -4.540247187520582], [-0.09432086624419081, -4.524184973376751], [-0.0022142135121212313, -4.519137011193376], [0.2050577392261885, -4.492833100942146], [0.5407840909405736, -4.4941628936781], [0.9154285915413768, -4.494879766702604], [1.2121885867526745, -4.496300386101001], [1.4887061110128417, -4.427234072418858], [1.7085431093954853, -4.3447222646936146], [1.7293842166737337, -4.300113093176389], [1.5307441427781996, -4.25109846939608], [1.2636999502861268, -4.219355708386895], [0.9291979320603829, -4.148197977461679], [0.6169150626188786, -4.075346774176671], [0.23379848271105602, -4.008557855674383], [-0.10793225261439379, -4.033457704757422], [-0.25706011016619706, -4.148103742590503], [-0.3821014438488166, -4.230437049287944], [-0.12490763594447656, -4.449757129935027], [0.0015496877924789767, -4.574042656328464], [-0.013133126405309331, -4.581492149173099], [0.18601298272360514, -4.727088167862196], [-0.16138420837837708, -4.506224107377876], [-0.011129330384669983, -4.588146464871453], [-0.39245008647742985, -4.430828820624455], [-0.0363463216051887, -4.5727927352428015], [0.17232202881189493, -4.716629988536983], [-0.11163390178664252, -4.530891613884926], [0.16503650815198667, -4.711032916036078], [0.13170211998395961, -4.684572268892188], [0.14041715230487686, -4.6843045147388525], [0.17669475005005397, -4.697304265813675], [0.021054420610814396, -4.565330736024612], [-0.03901693220791696, -4.513267081845256], [0.035338054378819844, -4.524512924640585], [0.2600336161120227, -4.612786090788798], [0.44310609172738613, -4.718546680859064], [0.05463067499782815, -4.40723392927222], [0.3817744350474141, -4.612162018604539], [0.18047432714551245, -4.435934600575924], [0.12684229071561154, -4.441453314250709], [0.05163446447336934, -4.442256858003437], [-0.02440651229653013, -4.454422024706435], [-0.20308096521838254, -4.414996836787596], [-0.10767086615626292, -4.503962793610872], [-0.1298190441487434, -4.506771831414296], [-0.05996306063850454, -4.553519460634257], [0.027947080115039654, -4.609159440475855], [0.3231171802036332, -4.839429998109474], [-0.09512935819224382, -4.539549064777317], [0.08782136703615284, -4.654065090827453], [0.05249425474578672, -4.6295508270220855], [0.10283352517260738, -4.664788634896994]]}, {"type": "output", "nodes": 784, "activation_func": "sigmoid"}]}