{"name": "hl_2", "layers": [{"type": "input", "nodes": 784, "weights": [[-0.04178984874825875, -0.5515283564639717, -0.029971223804800384, 0.804013022848413, 0.35523766428518877, 0.6703827508801921, 0.3618177148313232, -0.6493160472869588, -0.5940590443082028, -0.6359744833845413, -0.4045801061877782, 0.3118276590166732, 0.5785313202001927, 1.0969578631359884, -0.1477424631631916, -0.06954482484533116, 0.8412217038700274, -1.013998319009089, 0.696768843898845, -0.24074571736755457, -0.7977526553841634, -0.9182782464135198, -0.5047246046217493, 0.9094690881857391, 0.2948316551333888, 1.146870828519034, 0.350837230739809, 0.23914458899189261, 0.5124662812865817, 1.05453182212248, -0.0417367443823527, -0.43491086350903285, -0.023667089678072333, 0.012705034673801666, -0.42057674202646816, 0.4617632946056639, 1.130900021482643, -0.31865217569905363, -0.803016082004609, -0.877379751586066, 0.3884242854226424, -0.886165488168898, 0.796115515816, 0.14364024415668228, -0.06366217574806578, 1.0444656205149887, -0.08118552029980344, -0.7820408548899852, 0.7785035292750054, -0.5116415545755262, 0.6637668109655968, 0.4169629520202279, -0.4670526766368853, 0.5492968514194573, 0.842871839957649, 0.08996900643733904, -0.28909738544284125, -1.0810603803563124, -0.6432222159072787, -1.0375894810937591, -1.0777072413283322, 0.2241073217560793, -0.5402131083449737, -1.6558573655817845, 0.6862257037484341, -0.8421424184009073, -0.3160020194685631, 0.7683390065863169, -0.5460499744295504, -0.40222090861342635, 0.5039396384526114, 0.42616400994419756, -0.5133225931121146, 0.3192506549842847, 0.3663725702366899, 0.25550767588714024, 0.08934021823435304, -1.0864219434901061, 0.3440879065750081, -0.9968067525569589, 0.05295257757590857, -1.35023875851121, -1.9159878203662186, 0.6541564792208863, 1.4360692773436254, -0.9236415115454153, 0.22756094261641327, -1.5306850907682505, -0.5479536093538003, 0.3479731943452603, 0.06482237824331374, 0.09509090892278566, -0.05549203139315382, 0.00903732886206693, 0.19111139417367465, -0.5232787895323906, 0.14157937961820508, -0.9119982029913749, 0.4383032917632565, 0.11209443718262803, -0.2960846838993079, 0.7685402052954836, -0.8664333044733631, -0.5993412355002226, 0.4233193549745651, -0.3339220574008226, -0.7878789777879243, 0.18026820857106818, 0.4495423101568089, -0.7505866400570589, 0.32816889891785683, 0.48914649969660884, 0.04917807470493453, 0.32602614404038405, -0.35131789716206524, 0.2600554162723296, 0.19570720540933356, 0.8615674219775253, 0.32981322803790997, -0.039989005625681355, 0.4782134301724489, 0.24578707058743104, -0.36047461740547043, -0.6349674669962061, 0.2931289839346341, -0.29203119630559327, -0.34176779235970717, 0.508782745474845, 0.25599562133597165, 1.7703228786334644, 0.6556040797654169, -1.6705937887633968, 1.607379907889941, -0.4523238352405928, -0.15761051770581067, -1.1485949407237832, -0.2907798568611937, 0.9987570036863406, 0.0008570813711244903, 0.4006912931179626, 0.36438749860601516, -1.1238343806338342, -0.4871168977220555, -0.661078920901219, -0.24738080286633443, 0.5617142116980333, 1.5433183790371587, 0.34909019188739887, 0.18270831411631053, -0.353561186426471, 1.242851635257684, 0.09459647533125569, 0.8203044163966636, -0.8564496561651463, 0.22539594819419811, 0.27532589560247167, 0.20517815430094064, -0.30292797795749726, 1.3662109257756105, 0.6135210904014865, 0.9805292020721144, -0.22724000395047533, 1.3137044177297903, -1.1123827509052393, -0.7028111908211152, 1.0529298089125925, -0.18943485229646606, -0.09450064788517845, -0.24853147532934655, 0.08111909539616492, 0.333406348195772, -0.36443202721117846, -0.8945635109831012, 0.06942056596743774, 0.2760893542702535, -0.20766197937788422, 0.31459913556784497, 0.6821030866355562, -0.03368300240036859, 0.8728802618779264, 0.3115763525540347, 0.44477824348215866, 1.3710244716499254, 0.11122043209250435, 0.25956266013373136, -0.6997139743353438, 0.17895552719584623, 0.8834632537215538, -0.23617035331649316, 0.3496212349574448, -0.470146558000061, -0.04016591637546332, -0.7276681393637439, 0.6327320993335351, -0.22083958595205247, 0.8206721003939678, 1.2709327259002694, 0.3944458478219452, -0.8020937471002616, 0.24095836825880565, -1.3702794152556579, -0.29983422674459514, -0.029996270364044092, -0.10361421239104818, 0.6112622943676127, 0.09993486484726154, 0.697313931112556, -0.2151525691815551, 1.2949179824811181, 0.17594327734587112, 0.5293708271688651, -0.13058946275445374, 1.6135938873113225, -0.6755072582405072, 0.9024207305593702, 0.05801487045148079, 0.582027876814443, -0.5799651802502197, 0.26307801024032695, -1.1960311367322247, 1.7137817815937484, -1.1125784543490067, 0.4660674116457831, 0.8489838416361987, 1.175302185930809, 0.005639587727375283, -1.858212963553176, 0.9695616559195575, 0.29406635921059066, 0.8935143097691473, 0.308379425465492, 0.6088658725465618, -1.272663374013192, 0.6141779939062588, 0.8861334474687507, -0.515515287221007, 0.9829574502076296, -0.9690249920575159, 1.2960472173147253, 0.24674263441653835, -0.29243450568512297, 0.14268888162271964, 0.7806224657008186, 0.7045587107499889, 0.6522669352405163, -0.3819640514576703, -0.229171453854567, -0.2723204445292137, 1.0905646438362706, 0.3416512659388739, -0.5312541369420667, -0.6440879978221244, 0.09129528202513836, 0.3620309152685092, 0.38890261807984056, 0.5737780896454279, -1.6317424688055744, -0.26845276711454247, -0.197367010190007, 0.37949949054060234, 0.05190874148847637, 0.6933165766970854, 0.3509197390237922, 0.030337214916172906, -0.38156068609802135, -0.22471937540618858, 0.447209693097588, 0.6160728263405978, 0.9351066405393256, 0.8851643390119243, -0.06728203678180311, -0.013654657211717961, 1.4079107663402126, 0.11057921749821827, 0.7229273924651894, -1.1556489479156877, -0.26916061271671227, -0.3089646353023767, 0.07578340580652146, 1.2599109085255853, -0.5422093465566566, 0.7532839520476973, 0.825317326148747, 0.15972559869284364, -0.46641426871964, -0.43742988667978566, -1.4066598343320438, 0.5938253769963521, 0.7971202087298128, 0.20280677417430518, -0.4758241629842886, -0.6392119846141501, 0.5623047159773054, 0.13112665044901906, -0.9141579508982889, 0.7750449481910918, -0.6392013085903555, 0.016467484317444124, 0.7328479290167293, -0.9767399270043914, 0.732139793225782, 0.24173678781215044, 0.6449937003919329, -0.35936226934183585, 0.46951522608249924, 0.034915616818101694, 0.6053210979002219, 0.3206825562758065, -0.6269505919173995, 1.2554618341096215, -0.7833996376225719, 1.4253801790300773, -0.4056309397563112, -0.8119802155042156, -0.17272268332922647, -0.16766129436673505, 1.056297555165634, -0.1311601660458915, -0.0007358668743820147, 0.7363676683805591, 0.11548148673321502, 1.0714595082681773, 0.5251754981066549, -0.03792773794897595, 1.3104908517326377, 0.24006372016325164, 0.6881572868458758, 0.33964603078708605, -1.0402427918816493, -1.0983556439301032, 0.27649775296549145, 1.237373706618807, -0.28220944008304466, 1.1803477615769054, -0.20633103105972878, -1.0215509657794406, -0.7996221221349666, 0.411511843063326, 0.12136423778110723, 0.30899704968733144, 0.2818741475631925, -1.196489389047996, 0.06857177712428451, -0.7947902963022894, -1.244029306803532, -0.9689452359262984, -0.1492569800804272, 0.010777265272499453, -0.4205854342070555, -0.47881539223703123, 0.5449801772511892, 0.1994839519864965, -0.626171957395384, 0.09495043956509655, 0.4914611943435641, 0.48627280944902673, 0.27536789164505937, -0.5368275746945513, 0.09718099827483433, -0.3550618761190984, -0.24981974374372945, 1.3936907343903744, -0.9796188893060565, 0.2895772136609279, 0.9728097270458415, -0.03754020650652476, 0.11950041965158015, -1.0614147033367984, 0.5150693107501132, 0.012982829183431773, 0.12443581118574723, 0.6625584712480492, -0.5339805084073451, -0.18085261261041163, 0.20720292968689197, 0.6194905911049271, 1.2908149472849155, 1.0554451741700845, -0.14979069024224206, 0.10008632771303566, 0.06902708529907309, 1.1462547454015806, 1.4495945462329212, -0.4386572909840157, 0.3256915990198154, -0.17210121804837286, 0.8076864904883899, 0.9342419894106483, 1.4424219812472683, 0.8478259588170106, -0.0959670061596349, 0.010068509613124067, -0.5633892755517669, -0.20830322903389065, -0.13073731163011743, -0.7943924134701084, -0.5736235960257936, -0.06917250145122876, 0.43589654723798527, 0.4319774951597902, 0.4673289492733576, 0.15052282421320468, 0.9530399282943871, 0.8444254047237949, -0.6338334603802501, 0.47998684908803835, -0.297402555621093, 0.647377876816804, 1.9167514997451505, -1.0402371718505081, 0.947254578102296, -0.513552201608313, -1.0444592286333767, 0.06934194952490891, 0.5714566214542941, -0.12401452008728832, -0.18634808600296068, -0.5287759994443348, 0.31917839613180765, 0.08020672746856843, 0.17599010825476763, -0.12428349226649173, -0.37171996373408794, -0.24520770787077698, 0.273840096805269, 0.47807608280026115, -0.28861218489106083, -0.7180919007969175, -0.28905804091906145, -0.6305571308903198, -0.7767629434344806, 1.8932535458693367, -0.56422012924086, 0.41345344976390797, 0.2174133039952574, -0.15153403803569315, 0.5052201946682606, -1.190227488029728, 0.9534642039669673, -0.5714582550118469, -1.3795074446895883, 1.0729041058247066, 1.7164688515695639, -0.10532327715858876, 0.5463181716438555, -1.1990789627938354, -1.0719954969585637, 1.4416281837332092, -0.12754814118526892, 0.45681985887559073, 1.1399927204366287, 0.32457352642667064, -0.3519806236581617, 0.8711021964103967, 0.0688049467341421, 1.4579705735679536, 0.8068156451675255, 1.1678576463293808, 0.30957937824017523, 0.4604477055293737, 0.7996925964430724, 0.1662932765939159, 1.4002477413325576, 0.32543931300669093, -0.775693947743485, -0.24467274470351363, -0.11058422239381364, -0.06999308032606066, 0.22975522912643423, 0.42971262295724416, 0.07670869928526287, -0.3796572211445236, -0.06659544404842604, 0.7398054543334583, -0.20730534535022072, -0.09352054127703519, 0.11105305356001544, 0.3488024723221363, 0.14250169687572986, 0.06830991988516273, 0.008777431467946803, -0.4450404037244532, -0.40625967448491795, 0.3275633316850339, -0.5350215065959892, 0.84713500084237, 0.15087759434064651, -0.05709020068681677, -0.0426262107389987, 1.0740753948400241, -0.07341088577474382, 0.5147920886416518, 1.2412641313079062, 0.23305251171821328, 0.6603171275729107, 0.22941753967175335, 0.33367280347503564, -1.6620659285371375, 0.18477530259608532, 0.43743253361179396, 0.6704370846701481, -0.4157670122634325, 0.03372523905167281, 0.23542361090684946, 0.5220738934501814, -0.7751821014344689, 0.7150840907705105, 0.09766670847481487, -0.7676543642031493, 0.2266451704295622, -0.17096623781155554, -0.3028827211276736, -0.09045425657796058, -0.3954248295164605, 0.3345233159575768, 0.5277320470887487, 2.5542947627884582, 0.12942716788788405, 0.2619742434711784, -0.5557343179256057, 0.31615384345572073, -1.0398395268529048, 1.199012668180449, -0.24811252652368207, -0.39734337867609465, 0.4321246455431829, -0.5079880505660833, 0.3462684387619779, 0.41995037580532707, 0.26874743773028714, 1.015630291270529, 0.6187228260191711, 1.032677126954819, 0.045705009484996624, -0.47963828783279766, -0.3406232865634706, -0.3415387847508898, 0.94733512056193, 1.4947023384009854, 0.5094257831599077, -0.556521510799877, -0.4576065601736542, 0.11511155501756662, -0.5028196072292626, -0.0021042687456373564, 1.0694227491886443, 0.5125768274131162, 1.5164400962091678, 0.9135856473254096, 1.9452768313434936, 0.7361674519038295, -0.6010011997743677, -0.2751735126908494, 1.5086988357916833, 0.7986842199320137, -0.5884581949598167, -0.26563343508086606, 1.2922253617240955, 0.31874856617149305, 0.7421857818173706, -0.0270316087577617, -0.9755088898077106, -0.01771385704229591, -1.109619850861668, 0.20471282669346844, -0.5593885320638934, 1.3841345589829843, -0.0680183319724905, 1.0923831422414325, 1.2776283423057064, -0.8960094395220622, 0.3639225974437957, 0.2390321345633188, 0.5394680433230162, -0.05837318048367351, 1.4154343243286378, -1.2998874324590264, 0.8846860426542503, 1.2638241803606276, 0.33982266028189023, 1.6066707177547936, -0.7738222625685491, -1.2571570301329598, 0.021304026091511028, -0.19687851277832735, -0.23745998369693605, -0.5864784290652142, 0.7475648059689689, 0.5433112061172728, -0.14133326511107558, -0.5153911579120566, 0.03314926115193879, -1.6704866803403868, 0.5313392849394789, 0.22743721277501455, 1.6184937182515942, 0.2549385740503024, 1.24657666194583, 1.643248311434966, -0.19863236093765957, 0.30561589071443535, 0.6895055434963243, -0.5344092673989892, 1.2977677605180062, 0.13098709844373974, 0.19787377182706356, 1.7514083785751755, 0.34875175547144405, 0.4364231583168722, -0.46287588405533725, -0.4934075826727024, 0.5912938750760081, 0.6062774512965275, -0.7976688813672166, 0.10342769184621475, 0.25590129324257993, -0.5006895728085821, -0.5839061635917463, -0.41084720747182646, 1.1360138526137786, 0.885273808565181, -0.5407789517352447, 0.1556492650203359, -0.43656844746826695, 0.02683253849785146, -1.1521675209280002, -0.5921372053960468, -1.5083852574888192, 0.16881638896292298, 0.28235116938261084, 0.649040330307569, 0.7249435590043779, 0.39068932934529915, 0.6973743019679759, -0.39378065150397873, 0.438415337730327, -0.8431602389485953, -0.014859229438823025, -0.9178398432776015, -0.6050673084069922, -0.3792218409261432, -0.10076785510602707, 1.2033817705822474, 0.5313695146019677, -0.35103453592550793, -1.087401521057846, 0.4656830396669867, -0.3272868476987591, -0.0717261878756364, -0.09548085339085284, 0.7211483151775874, -0.1452685910759438, -0.5330538569234199, 0.24396890663827725, 0.2972851863800739, 0.7759220421298533, 0.18242391275557646, 0.9128309458999809, 0.3792950996512574, -0.19038880730055815, 0.5501867934753358, 1.1244810675046994, -0.4886233421930139, 0.03059439506548236, 1.3495830824843769, -1.1145247321022926, -0.5128456996210937, -0.8858873653054211, 1.9674705196914484, -0.019535305877900852, 0.38032579841029646, -0.28257831760008845, -0.4432504718620527, -0.7936460833014459, 0.3107655265680179, -0.7239407956163416, 1.1563881965130607, -0.6630589327414523, 1.0302169858529764, 0.6437806081265102, -1.3633074880366916, -1.4883306313951792, 0.0035031679813669015, 0.6918844700191445, -0.9109923755450623, -0.37111271074490176, 0.8463192161044141, -0.02677953695703088, -0.1815884877785027, -0.012133206843310847, -0.8556171309485776, -0.7170781622046013, 0.6955148561566363, 0.9626291433474028, -0.19956064419298108, 0.5687300156379531, 0.4267988167966966, 1.0485895886407102, -0.47875916862600393, -0.9619280142665738, -0.11978875939703568, 0.20592019893834174, -0.7634406020385228, -0.4259270778933295, 0.3196001491167867, 0.08586938545588009, 0.20933121619286793, 1.0272502618069363, 0.36956103870272844, 0.5276291137961985, -1.1017447883755582, -0.4477160781050268, -0.0004381747771950491, -1.5883456551348047, 0.5376277949612052, -1.191014684621503, -1.383003059361542, 0.13418558505266132, -0.915431269117189, 0.9486759207477878, 0.011824348523128777, -0.31964369995097186, -0.5604574838551852, 0.190444388351857, 0.5009285906745141, -0.2590759517125154, 0.6021892659832597, -0.9510532724074595, 0.8713972654161493, -0.28806313870819833, -0.9325921674725728, 0.2575197780502121, -0.34976925577601653, -0.22614993754630033, -0.9947925362462698, -0.016460177962642278, 0.7395306268596326, 0.9348092656044142, 0.49133139768539563, -0.16549991211068174, 0.5101664259427763, -0.48678261597153194, -0.02203230714864909, -0.36090985934656816, 0.7126711046639755, -0.04841589173955872, -0.01546679619386167, -0.40213319414570087, 0.3179335987288184, -0.16105818662107535, -0.754923039057161, 0.9921054324322188, -0.2279579141519703, 0.39209391291733514, 0.6128958369892096, 0.4265567293994126, -0.8957248129801142, -0.9989610710246055, 0.7006952257113085, -0.08173315285056523, -0.21199569782140432, -0.12528306823752602, 0.7063347992220672, 1.1254696291882627, 0.4136924751827194, -0.42460968805070215, 0.48064369872250234, 0.22437377295015934, -0.7946078136375232, -0.043175255251392014, -0.1906380783672521, 0.45722839444436253, -0.8747319150754945, -1.0439153629638243, -0.125051522499855, -0.2854849706791785, -0.2565942595942904, -0.2550873640402912, 0.3902893441282207, -0.025758623316697146, -1.0205682349165957, -0.3219780797744136, -0.7717424081716451, -0.06169513358138042], [0.14642736030535644, -1.064047027038699, 0.787255352248975, 0.3430756521772336, 1.0105613685271242, 1.0502371509977861, -0.4117410294821257, -0.13525679400789467, 0.4676775132534933, 0.4265481994102705, 0.5450650798918771, 0.38102898193333096, -1.1577081279224235, 0.24945950350106147, 0.5303793965085707, -1.009609052863459, 0.5678493941412118, -0.40432865386795863, 0.48648618057016185, -0.3971988628472231, 0.10602356483364929, 0.6703364558318333, 0.7117613862649018, 0.415087034254416, -0.3691314924161499, -0.24659804575327685, -1.1149087314740813, -0.03323047980239698, -1.0321536653383727, 0.772249583510675, 0.16594930238739017, 0.14622636514512113, 1.8200159910993752, -0.07959016801157152, -0.5920750866743948, 0.6017059601190489, -0.1678224202481261, -0.1662837628923249, -0.1277584025927654, -0.10274568516996156, -0.5130780718765771, -0.709307427072917, 0.2853264847864365, -0.495847140290601, 0.31896615068889783, 0.045508548594024735, -0.3111204627961492, 0.2271881497790484, -0.22777844269953726, -0.537531159849235, 0.44354726703932895, -1.295478140242795, -0.19341301570176697, -0.154046089832132, 0.40150855006854164, 0.7666166455637303, 0.08823542341302444, -0.5143533701603912, -1.6104778084650206, -0.05795371348239292, -0.29978311450082457, 1.1720173037917014, -0.5090259354381508, -0.24293412558993555, 0.3355845672460811, -0.8594861000364947, 0.006152640659970287, 0.0016514134428299203, 0.2339666826289929, -0.03913189420416332, -0.4736516144069371, -0.011517410977001558, -0.28576350805779355, -0.234252820732797, -0.3377710858010929, -0.5178099899003344, -0.25541341407319357, -0.5080159026531668, 0.28084142104194143, -0.6920730808654265, 1.055796394268349, -0.20721102376851305, 0.27157576352567486, -1.388263581928084, 1.8496080228086005, -0.6930864503978943, -1.1664575996096278, 0.9240955188556877, 0.44350767995357077, -0.90957213733466, -0.4520779350660263, -0.4425124725813773, -0.42834200840623476, -0.2766153536858215, -0.22278579030440918, -0.7917830021337926, -0.8620987795499842, -0.945328948009066, -0.2924694304390324, -0.3782390495235254, -0.17146907057835284, -0.6690904314646963, -0.4179448291920048, -0.5986356574083668, -0.052137440460531634, -0.39477818461507064, -0.5671166887828286, -0.636909691189668, -0.00611461766972063, -0.4828559151693796, 0.8354074044141574, 0.5685108942633202, -0.20421755601228472, -0.5074641120083606, -1.1677574818050547, 0.17673711245386844, -0.2825667849595369, 0.12912217878719964, -0.3210733284514024, -0.12480183035068128, -0.7885217077899236, -0.5540322885160734, -0.007098019006321911, -0.9081876954498564, -0.5082508113431484, -1.0056809193863325, 0.004145407397734414, -0.5455460978739516, -0.08671099173685994, -0.19760793952257105, -0.4093951379934278, 0.0848149351173024, 0.051430195938709795, -0.2934615785333912, -0.2480561663930362, 0.2817902885880512, -0.23635725796246043, -0.31214853493709915, 0.1720685488023084, -0.6215460768648634, -0.09362647278085177, 0.0769216922838759, -0.2868986194706795, -0.11908334671435031, -0.47831476785541677, 0.2409104437960701, -0.42052412989710536, -1.1032168572052738, -0.20938846314723852, -1.062185900078937, -0.6075901924579407, -0.7108746534164017, -0.4698036032255804, -0.3024697911787848, -0.39227909768963704, -0.23899065535191447, -0.28652789060862566, 0.01735364396695356, -0.6370198570064781, -0.06457736280792407, -0.1418254899289798, 0.16803551876350836, -0.27584127708346096, -0.3316292900645858, 0.1282490068025509, -0.22015159004699408, 0.7230077856565548, 0.6784921110516281, 0.38297748618556243, 0.1375117257105278, 0.6034715647964412, 0.7778213239654862, 0.07252332822277943, 0.02759695929181372, -0.49059967008652366, -0.8818755190448975, -1.4414495324035868, -0.44818287589062616, -0.8498811156018522, -0.13788025468598922, -0.13420975815028782, -0.22537042663959053, -0.7408134164762418, -0.6072093889384589, -0.6302517036846091, -0.17005119627995455, 0.05250025620266421, -0.09181199249086308, -0.12672398699283774, 0.319752193561978, -0.510660699546701, 0.3804120601254046, 0.2142463428701898, 0.6101993161610244, -0.4784567023110307, -0.6441323040600428, 1.007381662639679, 0.8425973593003385, -0.25218698845057547, -0.8767435310697662, -0.4148884795293458, -0.633213326258361, -0.5132905616625923, -1.3594404248280147, 0.3542016336661039, -0.5651042969743689, 0.3042664388426705, 0.11788991577826799, -0.13073077676742365, -0.26659305060563043, -0.09647794697021865, 0.2811897862682814, 0.7137089664233989, 0.5381797455521424, -0.41033429454790443, -0.05723636898711454, 0.1431365594446433, 0.2707469258886438, -0.8263348315647694, -0.32520963397414376, 0.3771162617689305, 0.4216212733804561, -0.22336324451506223, 0.5997549587131805, 0.2840299885104178, -0.9807973322168394, -0.9378859355004332, 0.3547963132318699, -0.12459267172249334, 0.9311592237607514, -0.33136608041123866, -0.7452310853502487, -0.24067691235992134, 0.1338157938320769, -0.572410976146509, -0.3504358533721703, -0.07495124955527234, 0.013484879113934943, 0.4186244574058076, 0.45077344789365026, 0.0656718976994977, 0.6036734447846301, -0.008023273561436308, -0.03234487579201205, 0.1755639388758793, 0.23578835281559954, 0.10609743205911121, -0.29590749925368026, -0.057606844102417544, -0.05943950367423743, -0.2670810463415623, -0.40287907643806314, -0.23004620975731527, 0.36761795049430707, 0.19556854936092685, 0.21106314166308487, -0.5946537783440733, -0.25062416368378937, -0.1789453501686187, -0.6950601066232993, -0.21745242299586642, 0.25290590993935774, 0.15013869106445, 0.4074799622944898, 0.6670608225333995, 0.5003294368151961, -0.09844667198697067, 0.08814871293666693, -0.009715096316338346, 0.60831593429715, 0.10935071967350533, 0.08267289245651992, -0.07947245742349002, -0.46822313547363353, 0.021358169109979706, -0.3616681594029898, 0.2604337275693931, 0.7187082954645905, -0.365573910936442, 1.0274962655490687, 0.45871051216993003, -0.9777939498594553, 0.41980002525581117, -0.3128353580612635, -0.44238523418346026, -0.5030721851446696, 0.00942039347570709, -1.0059627030017844, -0.3013662347013106, -0.007757610196328516, 0.7410242902225184, 0.265733714803821, 0.11620462372853602, -0.0786340763935262, 0.23186324958217652, 0.7026676120492794, 0.6200212823769855, 0.3354432012365826, 0.06787654375587283, 0.42983272894365343, 0.05255045818508892, 0.31607668589295734, -0.022418946291957093, -0.850050644473988, -0.47679653840445885, -0.5290842803817654, -0.9686480834745822, 0.4666930911085296, 0.6101740996511598, -0.08976745453874645, -0.0317419497310744, -0.935150256446631, -0.3537841523110351, -0.4363909493359547, -1.1548963081113384, 0.14456534619228745, -0.5687484121184321, -0.09280282919177103, 0.03194924162099126, 0.14343830010395248, -0.32515623983344943, -0.45456164590349113, 0.26989535924669483, 0.1161031529531453, -0.5607162933664066, 0.8303111636891838, 0.29360721924301614, -0.12043431724243175, -0.5941399685541691, -0.23953854179678516, -0.2181936358568827, -0.9324686333106398, -0.9247320682598941, 0.8121253622950715, 0.035452313797865016, -0.7212314278496817, 0.06505953784069181, 0.3569087270013398, 0.022807010540677027, -0.391600229427428, -0.43902384365217245, -0.25334344111514595, -1.1951660876821935, -0.6073269267214714, -0.11486334488496594, 0.37471498165168404, 0.17172736292140237, -0.40470302920716034, -0.7168810212808059, 0.14786207798085843, 0.4074168283455756, 0.5272360683038091, 0.13616688575271474, 0.026288371191291217, 0.42917316336240446, 0.09023649638399454, -0.3793648058964427, -0.7945856694919685, -0.726343001005321, -1.056816213645105, 0.18759577358734905, -0.9697460539507403, -0.4802122742865609, -0.12734224142551706, 0.38063047184117155, 0.15523903647898638, -1.0459052785608256, -0.08250494594601435, -0.47806308247213425, -0.7225618125715286, -0.6269740485116334, -0.0708928214465118, 0.06002615181465559, 0.576154685865898, -0.3729272341809368, -0.4250102987462383, 0.21768512164003398, 0.08602947547422017, -0.2366356184639134, -0.097003615488439, -0.26992682286360103, -0.01478864170703402, -0.32720069871937973, -0.13919527033207363, -0.9535569499826061, -1.4167816789815888, -1.668377343170953, -0.6072351306165732, 0.8282655804868435, -2.0131433149256646, 0.3376189993269347, 0.06640798491879997, 0.4587116814428565, -0.6518334078214699, -0.426114360654223, 0.05727626454713468, -0.2505402328649229, -0.5921179344349298, -0.24487804262805773, -1.0507123842536625, -0.40738962686133307, -0.970688097599949, -0.37005475554866896, 0.48497653226011445, 0.11562222408831577, -0.11674438322021942, 0.1336427315208706, -0.0801371210438006, -0.27840272018152207, -0.5419711279341999, 0.07336298126405091, -0.3553166965405889, -0.7152933316611831, -1.4110891929107883, -2.4518092842770596, -1.6333240688846178, 0.19657559360787458, -0.8013245710150281, -0.9628389786826548, 1.0475351390092025, 0.7927796057593585, 0.19087837929744014, -1.4250670460265749, 0.0030902766815336206, 0.5291527828715212, -0.9540240066820589, -1.53855521480183, -0.23448414214747032, -0.3515239001775174, 0.34890296828498174, 0.19072925106820046, -0.23280450674725336, 0.39396652595014975, -0.4408314137183422, -0.08222235995665599, 0.6247905837252078, -0.05936003383509467, -0.17865510638884605, -0.30393821972215207, -0.2040408339020215, -0.9362728930869987, -1.9387661877793494, -1.0112591949765206, -0.7722253819961078, -0.38981862955809526, -0.4531238140203883, 1.0802081778967252, -1.120634964530844, -0.3099247028379129, -0.1087666022926242, 0.46303982891428724, 0.29292800826586507, 0.27027084733562945, -1.416664900951009, -1.191916383855353, -0.311615988105582, -0.7452895610328683, -0.6820634174211402, -0.22812038116742492, -0.12596764613926664, -0.37117213801197135, 0.2871227114583059, 0.8359687082917509, -0.1614882340580646, -0.05618709899617671, -0.16613299148623942, -0.5622800515199444, -0.5962659067542051, -1.1629203474738599, -1.9144314781851461, -2.2892520701733665, -0.5228818685385387, 0.03759938241488844, -0.7171117329798713, -0.1544756668325842, 1.0965596438272882, -0.9848267671627579, -0.9177589037847652, -0.35024573676308257, -0.9304108316434152, -0.17124355471629155, -0.5499951775396211, -0.9771767326738486, -0.8620890115305633, -0.49865494273385547, -0.3262597284658416, -0.6733771495645711, 0.034367141793548356, 0.38953163873213537, 0.6449401719590465, -0.019069013688301623, 1.5787740347368475, -0.018686620211680032, -0.6409215602585637, -0.7140771618107076, -0.25945310517060416, -1.9903786953190503, -2.236701194095763, -1.365403703188571, -1.0180269370863007, -0.5078318630633769, -0.6169048989042258, -0.6661882132285489, -0.17426030741016124, -1.0875754361741932, 0.6950440080180743, -0.8517869868531076, 0.40390253948418936, -0.8200523877327919, -1.0231841610641663, -1.2527965525999778, -0.5837366017190212, -1.1848476709579774, -0.3489943581935377, -0.20611277644804668, 0.4190573953152375, -0.2172009548242421, 0.4023603260376982, 0.542701699939928, 0.5454444071784587, -0.1442801347352246, -0.5714890312020083, -0.19951670918802628, -1.3872555507264408, -1.6815236528368993, -2.661943485188758, -1.3493911949198834, -1.0670278825227444, -0.2659254803199305, 0.13837832412469822, 0.19543877679368907, -1.3941715773393681, -0.322485063687363, -0.06820900842259199, 0.8165755304938018, -0.5021396394489691, -0.6664103022766251, -0.6449406573745432, -1.251560775024825, -0.8236886857293778, -0.7956581575667938, -0.07490322565830042, -0.5047754036120541, -0.3589486387462171, 0.14970842495660988, 0.9379230246402563, -0.372224657695051, 0.5769321964945807, -0.16575058586650354, -0.11155336978962031, -0.28582249324320186, -0.9592218974384427, -1.9567322074429898, -1.559815455973057, 0.08936373232398886, 0.13763568767762657, -0.9230110549560224, 0.06295232367337027, -0.8800241055858015, 1.0648216239336676, 0.0937864425023303, 0.2764645872546037, -0.09692301513701121, 0.16085658544558937, -0.31654337345947425, -0.5400967577009339, -0.9022022303208366, -0.22969980283800154, -0.67170876913059, -1.1817443329314286, -0.5451683933834426, -0.34988895665361386, -0.28402937394981637, -0.19410680979204314, 0.0875421574739961, -0.3039112299017487, -0.34257165473014245, -1.0225485142993374, -0.23441481345562312, -1.5337203121658955, -2.0909944880975844, -1.3348205793793144, -1.3113733127685576, -0.19647409158043244, -0.6665666076007727, -0.35090529088210126, -0.21842394543285598, 1.279572708082393, -0.5855715696247373, 0.5476231472023282, -0.5759545750128122, -0.1687729151724399, -0.7203278836396221, -0.3504752669550212, -0.5784244768157102, -0.35208884789885486, -0.5550656813693613, -0.5191852540211082, -0.3668172104867492, -0.4031385148305096, -0.30255571598500286, -0.28002071655934757, -0.1422851902941055, 0.41659021094381843, -0.3305377341387897, -0.22581306084164726, -0.4886627172667666, -0.6319949085976018, -1.2916198710489544, -0.35628183241661476, -0.4289695048266431, -0.4058641721987962, -0.5123970612686991, 0.047872830389206686, 0.48142961400564893, -0.5101904409900596, 1.9624669981148717, -0.04769237225076175, 0.07092971953334877, -0.07091981992064707, -0.39064116730691706, -0.14275076028150827, -0.6073420472697015, -0.07782459177233804, -0.501540278430444, 0.7395039482437976, -0.12101571018447745, -0.10110393820719227, 0.17284518632279394, 0.31631645022974525, -0.0721348483129546, 0.3459878362998771, 0.013962857864228203, -0.029298269421016283, -0.9649266251962049, -0.7649867092527913, -0.4093958011302249, -0.8089955722342346, -0.47379606411495473, 0.025101272422033343, -0.6601430250254665, 0.13530351260419654, -1.2203550330890867, -1.1340210954138465, -0.2482320528389393, -0.4583928162077691, -1.1601358957268784, -0.09272152264162314, -0.032458442631505845, -0.26998647087562194, -0.28912587214227764, 0.017863501731840224, -0.1576783467999151, 0.5595054646476569, 0.35494469123567995, -0.1598374689566523, 0.008970964757947413, -0.014672385818937959, -0.39990093496034446, -0.21248282972299548, -0.38949357497286, 0.29916740479707965, -0.2785991780188424, 0.09062358986611546, 0.1377673189383378, -0.29509789418357635, 0.5340966372671745, -0.021018222770912125, -0.36387557675021664, -1.0146541266924345, -0.5144303236965594, 0.11810747010518809, -0.06399759902470019, -0.34422927945236775, 0.12411650115836163, 0.9207756841107932, -0.4346116691983195, 0.33020591988112946, -0.18034703368109697, -0.4169172618104107, -0.12628781512471207, 0.45496395355241387, 0.46277506170777655, 0.5442067850687471, -0.11475154451214124, 0.17820036136028186, 0.04511212085016001, 0.6464997967526571, -0.1379193796054823, 0.3468937097687502, -0.42210704851445174, 0.18456404981321142, -0.0036140163220385975, -0.34878044512593953, 0.4490971106540435, 0.5667353795470633, -0.39132494292384823, -0.7985522630351036, -0.2369798199355664, 0.08017696448426272, 0.8573559940697452, 0.3104460555295924, -0.9041711338651047, 0.34743767041870427, -0.23579700018134508, -0.15945871051242175, 0.9167895549019311, 0.7388654003612909, 0.5234748753634366, 0.9571574805545742, 0.8597401152202957, 0.8677865334619503, 0.4962881397272836, 0.1457609282166341, 0.762768136164096, 0.7522368683750394, 0.2606802608019466, 0.5469289986753314, -0.28975566555941684, 0.31139284721547456, -0.2008000336826603, 0.19354188035147907, -0.6722318217503633, -0.18084728990440632, 0.2700216380351554, -0.45774751412513165, -1.0913927911099537, -0.938894128866513, -0.03066150397382275, -1.0222724649655828, 0.8650240222177213, 1.2481746007454244, -0.10422664689330871, 0.21088235547712453, -0.16247645210381834, 0.46169824010382804, 0.9552343043854611, -0.6066456972079991, 0.8260111242050245, 0.5876157275966126, 0.7465043084813582, 0.5722345328905521, 0.30577016062038, 0.6476300988017318, 0.27849007398406994, 0.11270735272778871, 0.7157003326609432, -0.3705937148591139, -0.28403758728479195, 0.5359784144108979, 0.549653718718563, -0.7492247745400181, -0.7058651014431588, 0.4370248622697956, 0.014023162930801312, 0.40338010266467955, -0.7506167761576238, 0.16140691931192577, -1.4648687212503677, -0.18278804078474778, -0.6839755769440635, -0.338603164765589, -0.6596484547761908, -0.2902501338072658, 0.29198822805664776, 1.2750897292306715, -0.9564090287529099, 1.1472972914676607, -0.41322595939104584, -0.1102593845947662, 0.32688544598282787, -0.48566005771299875, -0.5288333284849577, -0.4581851009725064, -0.48930561854937393, 0.19997698698429928, -0.4049609509732081, -0.455357741335449, 0.2135911662001376, 0.18779373959643483, -0.18537324595743918, 0.8198871501867674, 0.5377110937504638, -0.11266159494616897]], "bias": [[-0.6832019220619251], [-14.675836740036093]]}, {"type": "hidden", "nodes": 2, "activation_func": "sigmoid", "weights": [[-2.2000735324277123, -0.529312967027228], [-2.1523160463108995, -0.5400253188518753], [-2.1601154273598184, -0.5435943869214003], [-2.150956912827624, -0.5089056673727975], [-2.1893037390388894, -0.5134632331569041], [-2.183201893148815, -0.5319241228304695], [-2.212818604774587, -0.5468032715797673], [-2.1671755533098476, -0.5314137467982769], [-2.1656925704133507, -0.5173236990287874], [-2.1161468999763136, -0.5163662192644306], [-2.160978980235606, -0.5159020985045775], [-2.181684688142123, -0.5347544552210856], [-2.1743866583979354, -0.5278766421421835], [-2.154089242499225, -0.5374144505238232], [-2.130699517555267, -0.5247364195658052], [-2.1362516139248484, -0.5380166950123867], [-2.164730585213113, -0.5420037316451013], [-2.1189978060084185, -0.5457532814204185], [-2.111105021038828, -0.5173874379703077], [-2.1392844834812803, -0.5290151043036281], [-2.1671497532412456, -0.5049861940418611], [-2.137064211151174, -0.5370894108900656], [-2.173493336166332, -0.5266224868638097], [-2.1994180353432746, -0.5310071524395282], [-2.150259898736114, -0.5160709491149367], [-2.152822517409578, -0.5157034121567544], [-2.158113569846463, -0.5133772764714178], [-2.1819858175411504, -0.5429115846312043], [-2.205699894727301, -0.5373055668370431], [-2.156475199332746, -0.514100421697057], [-2.145070636839749, -0.5498171362797659], [-2.1841785858627527, -0.5103219011739866], [-2.1523829479702643, -0.5156330933508275], [-2.163371465309671, -0.53242208699573], [-2.1266667004950452, -0.5363793958422288], [-2.160626985960952, -0.5271856638390641], [-2.1631111078627407, -0.5459400509614477], [-2.107067434098292, -0.5472771445455105], [-2.1546385931244996, -0.5433883487682746], [-2.1503311525747617, -0.5737079048426184], [-2.159658143670841, -0.5599675712049038], [-2.1465365197500703, -0.5378707334543451], [-2.140165616355361, -0.5521883674254496], [-2.148235503758273, -0.5593387766954998], [-2.16585878359359, -0.5136873126369127], [-2.123822092280198, -0.49631117533394176], [-2.128407157121725, -0.5212436525555643], [-2.1156939450086383, -0.5264716702172715], [-2.1319326460571753, -0.5434743574991531], [-2.158751670840969, -0.5322545346670537], [-2.187782552373785, -0.5141158563192709], [-2.1304700871677116, -0.5261550487829012], [-2.2003335577821277, -0.5180579004208863], [-2.1638019822304204, -0.5368559249293197], [-2.1595623580747505, -0.5532821196095552], [-2.130531063973291, -0.5157758248957053], [-2.2023983483732015, -0.5093921313201516], [-2.1781138842043957, -0.5130415644877269], [-2.1425315115978267, -0.5331575358251984], [-2.1344452825826288, -0.5290650226332431], [-2.1819884194693637, -0.5272669825288648], [-2.173361137314827, -0.5491641853566015], [-2.2027235986334777, -0.5360387868234205], [-2.1455853116041013, -0.5676723793568124], [-2.0669106991471975, -0.5794747399976806], [-2.09265122048011, -0.6339202011277043], [-2.002776360807026, -0.7072386436222329], [-1.9242316663577428, -0.8087074501066555], [-1.81813432347835, -0.9059003862461151], [-1.7637483434698753, -1.004870191673856], [-1.6659600864474078, -1.0400370007737207], [-1.6594787765072343, -1.0136432497416037], [-1.6352027671051181, -0.939740905987599], [-1.6959942704748188, -0.8118375379104618], [-1.7901615019411201, -0.6717212617690668], [-1.8954691520068008, -0.5888934141464814], [-2.0166279409005923, -0.5538847553911017], [-2.0745831480413477, -0.524470132893393], [-2.12033831390823, -0.5465086300012194], [-2.1553070706181288, -0.5281629954890567], [-2.183815841616477, -0.5249897303006257], [-2.166327446239007, -0.5305336242746079], [-2.154447821071656, -0.5280240494086842], [-2.2064282417325916, -0.5446258561684345], [-2.2067280988021087, -0.5560641775744759], [-2.1608990209989702, -0.5209836203414813], [-2.176282444052864, -0.5314109481875763], [-2.1997006029355326, -0.5228391651163516], [-2.160149475690082, -0.5382017104581847], [-2.119978767653038, -0.5222275194109582], [-2.107409802763056, -0.5574867737638041], [-2.0683822516081523, -0.6292751899060786], [-1.9620218497442228, -0.7858481201493127], [-1.7914901851238063, -0.9928527838356184], [-1.595565605363316, -1.2681162443481195], [-1.4432541706794457, -1.5280286759017916], [-1.331007263224566, -1.7332559579022364], [-1.205789624594794, -1.8258100474591912], [-1.0561587068144507, -1.806115383699142], [-1.050381478495751, -1.6938088490791434], [-1.0858389087840594, -1.4658883860871328], [-1.1575332622562995, -1.1787032823875485], [-1.2914269376048162, -0.971849419227101], [-1.4382060608684317, -0.8292427513505324], [-1.6508104639704273, -0.7008212640732431], [-1.8738678296183995, -0.5587840772454175], [-1.9995619711799655, -0.5151919800171453], [-2.1598468578890677, -0.5151387306308394], [-2.1365092364234064, -0.5239056368110692], [-2.207959965698696, -0.5393385300530085], [-2.160835966045889, -0.5188748811946906], [-2.1336342820851697, -0.5238775029978034], [-2.145713973826325, -0.5372079330597501], [-2.1860998911797402, -0.5349915039307614], [-2.141297134076976, -0.5206870084592063], [-2.1895027151780844, -0.4945283401242219], [-2.1643129694036647, -0.5371380918956364], [-2.1025649862916604, -0.6154225922085176], [-1.9853837211916325, -0.7617199124779436], [-1.701780776966127, -1.0689668555573897], [-1.4560524071034846, -1.5173742106394195], [-1.2066141558151378, -1.9192666718051576], [-0.9837257465232006, -2.1354475136077378], [-0.8539468386206515, -2.148483299150844], [-0.6214804170929742, -1.974107630008814], [-0.5401989959593392, -1.7810903595030532], [-0.4179046023886118, -1.5975004919365867], [-0.4065454570969274, -1.4540160257812456], [-0.4829035334227195, -1.303601437680204], [-0.543420625978109, -1.1182327472395885], [-0.751750953911663, -0.971557160771803], [-0.8835590011973359, -0.817322587224204], [-1.1628329941556022, -0.6622028180854264], [-1.3733189207638856, -0.5350877681103863], [-1.6659568899571702, -0.3836129609307294], [-1.9067973805396385, -0.321214436612597], [-2.0860391146280417, -0.3700089987944723], [-2.2088607577075057, -0.47727028648804526], [-2.1343347391622647, -0.4968188603295847], [-2.152138450585966, -0.5354522262888711], [-2.143863047854188, -0.5484872687819919], [-2.1877600731267837, -0.5032389791436711], [-2.1222437024952647, -0.4998480102472419], [-2.1477043941993217, -0.5557818195699219], [-2.147179158944124, -0.6078733621954584], [-1.8809484579182822, -0.8335268798056132], [-1.5705140496680499, -1.2784436373755654], [-1.291224399003675, -1.8150383696461274], [-1.0293268463377065, -2.2199079149254977], [-0.7851657213091804, -2.375684281969278], [-0.5744594286293601, -2.3124946982922077], [-0.3403006270066487, -2.1503954134773138], [-0.19961761472213937, -1.9228603137756695], [-0.07020783400916716, -1.7110724313555943], [0.016318853548157507, -1.551733640017725], [0.036416175545330366, -1.4149156855767604], [-0.011417893174349127, -1.2155200153451053], [-0.10294780709890756, -1.01298139311336], [-0.28209512254844826, -0.8506550060312847], [-0.5161377412911102, -0.7144394300176926], [-0.7129259792943333, -0.5868889300669066], [-1.003673033179556, -0.45900685590569285], [-1.2742775254514307, -0.30240912122046487], [-1.671923592878752, -0.09469008957705585], [-1.9129901426147253, 0.03613728854208518], [-2.1214916181053076, -0.2222620338693678], [-2.160131630645229, -0.4733117800445395], [-2.1456097786079327, -0.5259935179505761], [-2.1369327865446133, -0.5248518492422605], [-2.1267439584496057, -0.5251650900227701], [-2.1945168623277196, -0.5271060960578912], [-2.125277973402585, -0.5540591501315233], [-2.0042947954171324, -0.7068170915122278], [-1.649604306854119, -1.073475929271902], [-1.334740542971674, -1.5648984976683786], [-1.0047362325222866, -1.955669833360604], [-0.7291817117441118, -2.066949448441622], [-0.49875423644524003, -2.049496552189724], [-0.27997169410705924, -1.9654361790456008], [-0.001581553175125363, -1.8197708811306148], [0.10212615692318919, -1.5930571468650816], [0.14460875207652202, -1.360937185676306], [0.20087735974408538, -1.146704461249275], [0.18977377980442595, -0.9555477732588062], [0.14312073212820628, -0.7909789020879646], [0.11090333443087581, -0.7000112916340461], [-0.03147372393397104, -0.6546206220018722], [-0.24588652900866234, -0.5978816071063943], [-0.5212883395749215, -0.5392581131071231], [-0.7809603506473276, -0.4640283049841112], [-1.1046473301647444, -0.292367524199591], [-1.4702899055610357, -0.029919813886988948], [-1.7596107186938357, 0.2558990580602862], [-2.0833197834896073, 0.15350346424317673], [-2.178104587243338, -0.3466108680863904], [-2.1891603908063257, -0.4867135266092634], [-2.1783427308042356, -0.5043179085591939], [-2.138695357765386, -0.5204706615671919], [-2.162573554528572, -0.5056804831798678], [-2.1412986863428247, -0.5127687700872264], [-1.8320227873966175, -0.6081903516148909], [-1.5086485494497779, -0.924225807238375], [-1.1686592313569413, -1.213529060434881], [-0.8557637640977275, -1.4273032265229013], [-0.5693779176007006, -1.5006002155687763], [-0.36670633600361385, -1.477492377250176], [-0.14957239094232183, -1.3618471912594197], [0.0008025966569247317, -1.1831637158294739], [0.1307847221128771, -0.8934850080204235], [0.06117472691788242, -0.5711369370629992], [0.03151399742696867, -0.28041236047839785], [0.00638718569900436, -0.05337669801992119], [-0.048731066817608734, 0.02206680795850713], [0.02677674347941526, -0.025333423466327387], [0.006355831638501992, -0.1760881756077256], [-0.10517932149411088, -0.3108430523950533], [-0.3625930452134682, -0.3821528294763591], [-0.6662301621589606, -0.3821912758980059], [-0.9843021526251027, -0.2861804421135108], [-1.3197221853073458, 0.024146006823361023], [-1.7073972073570316, 0.38059495373167296], [-2.078707673887839, 0.37821370901650203], [-2.163756593795235, -0.2925675598816407], [-2.1851208829986417, -0.49631177566583484], [-2.1790138785508546, -0.515821111559693], [-2.182316744715416, -0.5037900708907516], [-2.1381600317885336, -0.43587953390568757], [-2.0462690345320893, -0.3269177833683969], [-1.7352983490467093, -0.4013298393725804], [-1.4157670892810663, -0.6199607223036186], [-1.0607983205150227, -0.8722103449830283], [-0.7316331818271288, -1.045063136644124], [-0.5105984511858476, -1.1062775293129776], [-0.31610125970684394, -0.973608223562775], [-0.09313697040080987, -0.7897288959699448], [-0.0325606500851284, -0.5161059939704494], [-0.08383134310050724, -0.1196660989267529], [-0.12047312140754868, 0.20096667051724637], [-0.19191891659184182, 0.44015891659122874], [-0.2710965614033472, 0.5809132272860558], [-0.23098184963293966, 0.5870584027934428], [-0.20971741383928474, 0.4514435774853339], [-0.1335680415003383, 0.21158314730074698], [-0.13945480307986663, -0.039209722863762564], [-0.34408341824044725, -0.2579102834344677], [-0.5535694109585749, -0.38027077966250333], [-0.8831440056991884, -0.37941903830821344], [-1.2175781311805955, -0.09092532720603988], [-1.7255763249698892, 0.3562507286079853], [-2.0907992247421037, 0.39968851815329665], [-2.1072183216053495, -0.2854665244833838], [-2.161053063299087, -0.5183669345556448], [-2.1851888527014363, -0.5394051048229218], [-2.1598757764592684, -0.5073640035525833], [-2.1144121374265445, -0.38403548005246074], [-2.0394274845160734, -0.20274975183611027], [-1.6804570837338, -0.2540671414456641], [-1.3257253211512847, -0.4883975571368638], [-1.0081394711517981, -0.7692361955117282], [-0.6954656156299152, -0.9236274360821971], [-0.47560021906769295, -0.8808403928726599], [-0.2797833693468978, -0.6561076946115271], [-0.1257564781590444, -0.3830912004725612], [-0.11253440699669702, -0.06143285862784688], [-0.13651501555047668, 0.2509057022479975], [-0.3621725064934934, 0.470801731863711], [-0.4250846044761083, 0.6362914086226404], [-0.419833156820933, 0.7528515647254582], [-0.42339375864783974, 0.7325430227277515], [-0.3299061042811899, 0.580026070892656], [-0.15834804810394895, 0.351898871291771], [-0.23078317399966208, 0.042168082240470126], [-0.30460372935575997, -0.31688167430030395], [-0.525058185603142, -0.5889356055263332], [-0.8649728859731589, -0.6793553169857427], [-1.2040382583171618, -0.45000077659768867], [-1.7225475537526367, 0.07708451098966534], [-2.09445166249041, 0.16962970985592], [-2.174860250479726, -0.3747001920060618], [-2.1734677534509683, -0.521055549931634], [-2.1723243865876554, -0.5296085003009311], [-2.1181813400494605, -0.5045759495480566], [-2.081862952442574, -0.4071427036989193], [-2.0107991861082377, -0.21664644707505795], [-1.7613372830677991, -0.2723231633555667], [-1.3601895111986593, -0.6122147812328022], [-1.009350894313897, -0.920987493286896], [-0.6368146814736034, -1.0063611029842212], [-0.4250992867675279, -0.8206847014722308], [-0.20769458706122013, -0.5273046328787443], [-0.11192491300075431, -0.24103724438884128], [-0.17892882393763168, -0.01787543920572731], [-0.31374379054478757, 0.1382425663590392], [-0.4579843751722643, 0.29067588402100347], [-0.5409267568980661, 0.4934551076565811], [-0.5633275172522123, 0.6448256111531356], [-0.4367963749035199, 0.611010547439057], [-0.35564240963943977, 0.5143000426022206], [-0.2311941461449347, 0.33947578485242247], [-0.2064060006609611, -0.01215456658956704], [-0.36602149293445807, -0.4923679221002845], [-0.46613576068217405, -0.9409320160048571], [-0.775983756562392, -1.205233611870444], [-1.09067143967698, -1.0996446861264777], [-1.6891662001128043, -0.4817197200435301], [-2.1148983086174264, -0.16114658929683606], [-2.14394530631747, -0.43702842423506333], [-2.1668743821005836, -0.5175448927536833], [-2.13105236666508, -0.5016076407322154], [-2.164909533677012, -0.4960109327379649], [-2.1218744917621755, -0.4369054472421939], [-2.028678800097291, -0.3585275735198375], [-1.7267484948005463, -0.4764409760052838], [-1.3348419911080236, -0.9801799830794418], [-0.9319715487167611, -1.2552044526850417], [-0.5823895177012548, -1.168862388269633], [-0.3269626517847097, -0.8490881874631213], [-0.1673156330208752, -0.5388813658385625], [-0.056598426032660985, -0.33179346429311163], [-0.1716459972220161, -0.2280484111882507], [-0.3609868385313947, -0.18963156778308013], [-0.4919809681129263, -0.025842222236892406], [-0.5545255469242721, 0.30228698919548685], [-0.4458709016210269, 0.47027637444865183], [-0.36394494705119346, 0.47062975828126025], [-0.24718237709009935, 0.4218960577363918], [-0.20755563292161158, 0.24346261139366737], [-0.17706559877903655, -0.21095723635010594], [-0.33868168927957953, -0.8322579839520526], [-0.5292900592896582, -1.4754753617484844], [-0.7549477363295805, -1.9776555846155126], [-1.0734984163496322, -2.034291593757024], [-1.6321322213211238, -1.0961118517399542], [-2.0903389690579655, -0.4368198154524781], [-2.1393260044514393, -0.5075422980203691], [-2.1500448897214843, -0.4919756953022578], [-2.153212363144959, -0.533838062678479], [-2.223535564190677, -0.536151900930334], [-2.161054742669246, -0.5050747174688545], [-2.0804116188107615, -0.5129181884172602], [-1.7526466734689599, -0.762460443626456], [-1.2399297621598973, -1.426872428902851], [-0.7931780389594725, -1.6041211038815137], [-0.5117406866882678, -1.2967020639415956], [-0.2750925750927107, -0.9121614502651105], [-0.12489979804975648, -0.624154890124539], [-0.08754298647442749, -0.5045414417865888], [-0.1885924186572487, -0.44643092367829423], [-0.307990871169248, -0.3638551641434361], [-0.391167282852176, -0.08475045999886366], [-0.4216798183550565, 0.2938394176742017], [-0.3274001083972808, 0.41343225309542486], [-0.20825177226257924, 0.39135179980465307], [-0.11983479850556394, 0.26862827851241655], [-0.11220510646512306, -0.03501673714802794], [-0.18730297530269172, -0.6350123105316161], [-0.24788669312190142, -1.3833010544850133], [-0.43894027126300605, -2.237277690502045], [-0.7026254691897377, -3.6554474803968877], [-1.0064088101526745, -2.9140935698604027], [-1.5351576239105116, -1.5039726167998728], [-2.0608094075496357, -0.5518223658784451], [-2.1726329556971717, -0.5139199189973326], [-2.1830441044573123, -0.5162600191730221], [-2.1640527189394843, -0.5310798319871076], [-2.1775983987152774, -0.5355724327357853], [-2.120925039276843, -0.4932200735847299], [-2.082266400721449, -0.5605922937965807], [-1.6763887130590502, -0.9774114780932142], [-1.1391048481194637, -1.8495441215658681], [-0.7639551684121357, -1.8547306881094958], [-0.3995979814766239, -1.4237051210909477], [-0.23175205681541405, -0.9859805335773175], [-0.11882446068701015, -0.7078392297978884], [-0.12233784233826255, -0.5746037922174873], [-0.1842110870595398, -0.4648538064934725], [-0.28388269485944545, -0.2441359782492317], [-0.35712603934806614, 0.18453851037482094], [-0.23816467889426024, 0.47457203886558147], [-0.1526761934217358, 0.5457967241513806], [-0.06603085668007683, 0.37146534141194304], [0.022811901862268807, 0.05248611817320048], [0.02924241785991519, -0.45246117907355987], [-0.11251826721604456, -1.1613866254085892], [-0.25221390713215097, -2.045145052069649], [-0.4881458383723472, -4.09812572330551], [-0.6846396051645871, -4.845756211032182], [-0.9763178892193273, -3.281285088553022], [-1.4607318265042473, -1.705334210583322], [-2.0771837314350843, -0.6042086246343091], [-2.1642435509771336, -0.506841913112552], [-2.1847563895667657, -0.5125166078654925], [-2.1490185881609, -0.5189377866625077], [-2.16768839819384, -0.5186714918070001], [-2.2191395708417585, -0.5652792156556816], [-2.1070667012098925, -0.599722513170205], [-1.6629882172897752, -1.1469163861980214], [-1.0238105420063266, -2.1932480725446517], [-0.6782898999897253, -2.089150303980113], [-0.3983908051797356, -1.6163722792763544], [-0.16159135200024066, -1.1633292790874774], [-0.07769384483598182, -0.8106364626110488], [-0.11641045295264325, -0.5468119684016268], [-0.2463304370134333, -0.2870296783040216], [-0.2725624848602591, 0.056743485481430225], [-0.2631655023561569, 0.5220109934676846], [-0.23020159514159047, 0.7236477290058959], [-0.1291939795622913, 0.7208201926127953], [-0.04606695703188671, 0.36858837499407493], [0.064657329523699, -0.06308048757272365], [0.06722054947204419, -0.7951897276742964], [-0.028999776394623828, -1.6953999446520114], [-0.20114713225850647, -2.757688742371039], [-0.35030151863955467, -5.879493489803605], [-0.6129223130504151, -5.198676839508156], [-0.9037022743455543, -3.3658947249898965], [-1.3819062919186027, -1.8276397661550368], [-2.0006906387184906, -0.6656249409811957], [-2.155914723214384, -0.5411340005357751], [-2.163475438514907, -0.5231659907592109], [-2.1753886603916754, -0.4998778637957132], [-2.1593839521917837, -0.5268636546042214], [-2.1132627161057855, -0.5274092403212048], [-2.10630327564857, -0.6160103953589515], [-1.629829793667912, -1.31048224536929], [-1.007137698076903, -2.5159653112215814], [-0.6084816791284219, -2.452018200858537], [-0.2816323896768453, -1.9467084465498008], [-0.1621123520389626, -1.455161448375721], [-0.14351797968395047, -0.9777593235558903], [-0.1415581514157016, -0.5612413430796613], [-0.2773985303806688, -0.19085399598397174], [-0.22625772307941017, 0.22961362330395738], [-0.2023660634784539, 0.6555410293941799], [-0.1549837702976557, 0.8560274042888841], [-0.19648442271505026, 0.8061349780635723], [-0.11000372651893156, 0.46402864234481006], [-0.013478356713691513, -0.06044132522389634], [0.03604198018176132, -1.0188570546419486], [0.023149036209003934, -2.1163391483457032], [-0.14785265951406823, -3.653726808924954], [-0.33183418256221997, -6.7700496553026035], [-0.5808334523365835, -5.438487280005465], [-0.9459955834882681, -3.3753264945350994], [-1.3841608659337306, -1.8381902984437146], [-1.9864737163478159, -0.7293147712567065], [-2.1620975865936995, -0.5455940226191722], [-2.1880210414148413, -0.5351747085812982], [-2.1640237809142584, -0.5473574059465751], [-2.1946666349423527, -0.5289542808491926], [-2.118942260023883, -0.5161883270249679], [-2.056288922961827, -0.6538318194737449], [-1.54385294615645, -1.5224996377534148], [-0.8602259637934393, -2.97583412184743], [-0.505902747808923, -3.132923124901666], [-0.296458834864329, -2.482905817177287], [-0.13624420549633662, -1.919686649942219], [-0.16737616811975373, -1.3217157170576386], [-0.16026604672374206, -0.731506302624128], [-0.22333671847626893, -0.2658673764458561], [-0.2408910791749719, 0.2016856449955265], [-0.31507447603192956, 0.60162838158523], [-0.25294530062782994, 0.895122056248043], [-0.24742309566318196, 0.9234161534590468], [-0.18586092570143536, 0.6001327460780476], [-0.11367894806091192, -0.12670210090632025], [0.03425666357999142, -1.2760919475815329], [0.08668010423700165, -2.550598932609784], [-0.059937458206449364, -5.604087175148677], [-0.22550871570175374, -7.623383850434546], [-0.5709769780852617, -5.548966948573956], [-0.9008860580900504, -3.29462547332768], [-1.3746040276796916, -1.7900885392019803], [-1.9256438955975805, -0.7831977944604898], [-2.1810445679377604, -0.5199334481733128], [-2.1361301685308294, -0.53599576851137], [-2.1407795206180125, -0.5126480273904316], [-2.195088151448579, -0.5239334001955269], [-2.1458208664682825, -0.5406865961979033], [-2.021573815864013, -0.70349122188363], [-1.3833484348651486, -1.8011536270467046], [-0.8253365383447333, -3.3319011771374925], [-0.45031999624794355, -4.1518559840889075], [-0.2998207446170525, -3.139455273895349], [-0.18337614637123723, -2.3732169689413114], [-0.15527169475272326, -1.6468408556667966], [-0.23081336548586726, -0.9436293842391187], [-0.28778121464167855, -0.36530783309718745], [-0.31087742872990676, 0.14140631307855367], [-0.35611261582217707, 0.5756471921610743], [-0.3577477068761039, 0.9502954098416126], [-0.3525119796666338, 1.0291179902588081], [-0.27517665839134836, 0.5601086467311555], [-0.09694368396959609, -0.4171020442621472], [0.09511800074215232, -1.6428205901028228], [0.16828203239975043, -3.023998584829097], [-0.005994271897061226, -7.549090687436301], [-0.2595630349681815, -8.05799131770325], [-0.6091583223864131, -5.396885453390148], [-0.954467437957726, -3.0678795642423076], [-1.4028548816219102, -1.6700098364682143], [-1.8907971647394877, -0.7875147684487561], [-2.1652503741328117, -0.5464175726571999], [-2.141734348159081, -0.5187033328706029], [-2.17344309097527, -0.52930509577448], [-2.1464981840145057, -0.5206348335383109], [-2.1806059679115863, -0.5464416839899017], [-1.9536321376463366, -0.8326100090555121], [-1.280902107066654, -2.003058999764428], [-0.8313568671371723, -3.3096573187111704], [-0.46288716690337905, -3.8599919125454654], [-0.29427790663014314, -3.084251355029696], [-0.17625805837253242, -2.4176251945674454], [-0.14472272691937604, -1.7168921250711142], [-0.2641509085747978, -1.0459186439749544], [-0.2942191047910516, -0.4535935776667557], [-0.39141696157597083, 0.05180620446319951], [-0.40622961741703634, 0.5573530693306776], [-0.3462472576721651, 0.9186570383889802], [-0.30223455415958456, 0.8566202752867349], [-0.1957535798819095, 0.17626224480421215], [0.004995545296689318, -0.9088402344721147], [0.186449502048201, -2.0868570835146185], [0.21447638394660756, -3.5378141153672678], [-0.07017630490410008, -8.384898040894518], [-0.3690288126179891, -7.641385604780009], [-0.701312133181568, -4.847636529261042], [-1.0497584727339455, -2.7804568534721197], [-1.4953390378612912, -1.5446179189798717], [-1.9621147173774738, -0.768960749485457], [-2.1459397661414474, -0.5380490146663908], [-2.1371470726794786, -0.5235723734677173], [-2.1928007070909707, -0.5200359935678753], [-2.1860908245395416, -0.525747134869292], [-2.1435175926261967, -0.5362998793096772], [-1.8223948968932357, -0.8866449631719336], [-1.2170571453898087, -1.993025831025917], [-0.7451731830287377, -2.8176133940946158], [-0.4549388960034729, -2.690770674119915], [-0.2487523764080676, -2.484869011455178], [-0.14861840812743676, -2.1424414276484085], [-0.11917540384387602, -1.650906795138226], [-0.20180655896736643, -1.105545829758442], [-0.24495775855994406, -0.577937187587203], [-0.2672131612479419, -0.07562700746291824], [-0.2569774132846425, 0.38299406826023946], [-0.20839144360780307, 0.6427084166714112], [-0.13596187987997957, 0.40156311837156694], [-0.0059562179712939626, -0.3909284689783415], [0.12924051880900264, -1.4097236700795175], [0.2609092775681557, -2.452835519356807], [0.1312265018558904, -3.954181866001169], [-0.1385946530867852, -7.809064022185179], [-0.4568927752155487, -6.531413322434334], [-0.7875690176129898, -4.061052224693205], [-1.163351989064771, -2.420730701496168], [-1.6109153720734386, -1.3599288247167842], [-1.9431374962636794, -0.7191793336447535], [-2.1535996044661596, -0.505195499259117], [-2.1476390007180064, -0.5251414207827597], [-2.2242615553489973, -0.5585270819547817], [-2.1212956034988957, -0.5182990770653053], [-2.117345682426685, -0.5541910093062465], [-1.816713804192883, -0.8661209668250048], [-1.2207766606404886, -1.8173157209310735], [-0.792822526115409, -2.276830869177494], [-0.4969034402147836, -2.1598685382501057], [-0.2484723300302985, -2.038240307759107], [-0.12988685873241979, -1.855590136165897], [0.003513640946525257, -1.5709134802822387], [-0.017246230321033614, -1.15551613517182], [-0.1346647853999655, -0.7185063293288549], [-0.07313702642710825, -0.26548634068735744], [-0.033767905795511616, 0.11959243375598257], [0.0034308903558524745, 0.2163323627793591], [0.05448432880495356, -0.14373236839594106], [0.12666156950407148, -0.8858337528761442], [0.15015473931427223, -1.713058091090341], [0.14506135174366538, -2.529073755220085], [-0.07110919436550571, -3.884910788157493], [-0.29670106172499866, -6.101141242583263], [-0.6547773083762409, -4.850987351591554], [-0.9547296147836364, -3.114496408613978], [-1.3094074362055863, -1.9574639176644726], [-1.67809055199893, -1.1353228394621149], [-2.0434976323363263, -0.641342223975735], [-2.1370730055254312, -0.5350159197844132], [-2.156874665819572, -0.5191740960003961], [-2.1237836182612697, -0.5344917779736053], [-2.196146122727444, -0.5394290606961564], [-2.116927993394342, -0.532399441514181], [-1.8290563270260973, -0.7520772456388912], [-1.3908175696767913, -1.4790639281780715], [-0.9042957235851108, -1.8177335413858664], [-0.5747102733960634, -1.7446878344234487], [-0.30785177212082754, -1.6418863681552256], [-0.11600255561256365, -1.523799720584999], [-0.008650853845473639, -1.3658816443677542], [0.06249625135434242, -1.0705515276942648], [0.10336050652076814, -0.7118241220038952], [0.1019551188913603, -0.33995463833725487], [0.1038802945967574, -0.09172456719927621], [0.08447064408859588, -0.13024950828714563], [0.04013816149176033, -0.5264197904750891], [0.04520777704540764, -1.0882584489727247], [0.02243318907938701, -1.6688170263477955], [-0.1254272640172462, -2.320600714118089], [-0.2821088940270847, -3.2215254719785524], [-0.6059798152840603, -4.001078744576263], [-0.8481163839652609, -3.206779214027089], [-1.1918576666801393, -2.230999474090154], [-1.52906186219282, -1.4517147646139974], [-1.8548032935751007, -0.8860867353951829], [-2.0674701119471592, -0.5793475789705587], [-2.122691167695467, -0.5063062835457464], [-2.1790531170901333, -0.5273914075953495], [-2.1567995278102194, -0.520363501316841], [-2.151334298629748, -0.5177663400660946], [-2.1594768271665155, -0.5284302222577238], [-2.0086184969119403, -0.6036747287273782], [-1.6362459552759405, -0.9913761696447179], [-1.1915813991168043, -1.2804146826904372], [-0.8238230153499881, -1.2629146381468221], [-0.5509406050152952, -1.141604554997196], [-0.28955662591638637, -1.0012654294971592], [-0.11947553163387711, -0.8375281068502057], [-0.03371431772274302, -0.6094171585108078], [0.02135165195975957, -0.3335934060779318], [0.05280004580297572, -0.07677831420807901], [0.01987556589776582, 0.0020733336031687278], [-0.056050043466141605, -0.14951344267161548], [-0.14663103731646837, -0.4940021593429361], [-0.14467102869602078, -0.8883432675105891], [-0.33092516194546234, -1.3457309085919495], [-0.45787692685817494, -1.9071086208085113], [-0.6657369873009104, -2.4402001821763957], [-0.915599235180265, -2.6077994470156547], [-1.2092415530765854, -2.126103595644248], [-1.4969478969835928, -1.512921626647388], [-1.7889647840667042, -0.999795348659617], [-2.0080275070700377, -0.6930781977945528], [-2.136666290389279, -0.5442149784040924], [-2.182698973562969, -0.5136175960715869], [-2.21677165363121, -0.5518981436550153], [-2.1632322925352843, -0.5266673985774214], [-2.177221853832326, -0.5312581643476536], [-2.1046577596189344, -0.5084446956589335], [-2.115419544273646, -0.5324035534746243], [-1.9469362772232863, -0.5036407273185698], [-1.6315532115365365, -0.5601974805042498], [-1.2811887325340114, -0.5305000249842295], [-1.0244272971861597, -0.4237591827406257], [-0.7756982184604373, -0.26063582726509127], [-0.5376715103232689, -0.05474613276667651], [-0.3527493525876909, 0.10866019074422771], [-0.25057833419731623, 0.25546409305726], [-0.243224588074556, 0.32413976229815555], [-0.25001611527484563, 0.27865956351740145], [-0.2818679124795099, 0.08230760870172868], [-0.48896090989245167, -0.17142739010597668], [-0.5440519959356699, -0.4880356433130862], [-0.6550855362853556, -0.8796957033014685], [-0.8211717629040528, -1.3387028325611767], [-0.9938064332775931, -1.6593594804199363], [-1.2224281308914018, -1.7102063103386587], [-1.5487694133985217, -1.3562235783706653], [-1.7636860435573922, -0.9541998527057703], [-1.9979140922732184, -0.6975423111666597], [-2.156581554643981, -0.5665874387148997], [-2.0899000385581776, -0.5264474481828663], [-2.1017682882668036, -0.5162868347387862], [-2.1579395686362277, -0.513636772022385], [-2.1804178004377914, -0.5237606081260289], [-2.1785628672006383, -0.5581434712109634], [-2.1695672725754953, -0.5115419427029886], [-2.143583128715207, -0.5215012790893576], [-2.1322864836975057, -0.42103522597933146], [-2.042487174504469, -0.18352393548893547], [-1.8671446213180205, 0.17230800175085206], [-1.6545881292270896, 0.41067529188863694], [-1.449834278092493, 0.5879470588017074], [-1.237674448989111, 0.7698462979828574], [-1.1219131581061974, 0.9479985959534736], [-0.9548785507463148, 1.0199470729680975], [-0.8709582652540421, 0.9798638604443995], [-0.867563317393753, 0.8051948504737958], [-0.866811337047624, 0.5661361564584265], [-0.9606745189012781, 0.3178913570863857], [-1.0415519102697484, 0.03922273418210185], [-1.1125222308002138, -0.3097495639753824], [-1.2393330074313034, -0.717287012877944], [-1.4255707035283351, -1.002672621609767], [-1.592557389554812, -1.0509872486104304], [-1.8071228283252314, -0.8715474014045446], [-2.0059233864169252, -0.6676949742815114], [-2.10274978722723, -0.5791902537449762], [-2.1276218819779484, -0.5358737447779253], [-2.1613246528162637, -0.5395437003135312], [-2.1711484814899813, -0.5108451068235847], [-2.176395213094467, -0.5336980445864582], [-2.168984708287273, -0.5415682625226422], [-2.1567036397113473, -0.5277751676451966], [-2.1711281146069585, -0.5225668983283588], [-2.2018098653429807, -0.5120265557236997], [-2.106961740330254, -0.4760773307411585], [-2.124768628760967, -0.3056141368606116], [-2.097930788436342, 0.15578529159249593], [-2.0826365544337557, 0.7214637048034127], [-2.058344489796186, 1.2464310497073485], [-2.015800911961998, 1.6652421307367995], [-2.0812306161715144, 1.9987579370706625], [-2.014470377872413, 2.1811445336446726], [-1.924584588367948, 2.1135914393240562], [-1.8786006091564613, 1.8326835802001886], [-1.7496786621260103, 1.4620062690774942], [-1.6985884347370521, 1.0994009499741708], [-1.697748963076671, 0.6883248040936436], [-1.7007728052795021, 0.2299001842915963], [-1.6885256868219745, -0.19867171936846129], [-1.783035170525669, -0.5086453547081881], [-1.8605838100894418, -0.6550451581726027], [-2.007915183137519, -0.6193836856204831], [-2.132431701602438, -0.5625427772671489], [-2.096431978345024, -0.5255641167671489], [-2.1400412096426584, -0.507215775173831], [-2.1150098823776537, -0.5115541897761015], [-2.1331908079790916, -0.5289555854507298], [-2.19115799320243, -0.5234753840570973], [-2.1199405175006922, -0.48888765626016273], [-2.1846655715059984, -0.5417865221697395], [-2.2026836861834176, -0.5168190845399372], [-2.133737768289578, -0.5253562002316677], [-2.1553502894452765, -0.49214975230309954], [-2.1417218151558126, -0.4118270083051241], [-2.105475734725296, -0.20285397927576346], [-2.1732319144146883, 0.17179735907436988], [-2.1375143259038927, 0.6434588548755358], [-2.06280105147524, 0.9977573338061734], [-2.127624712243241, 1.3049747310106203], [-2.14949382198596, 1.5087544730683895], [-2.1614049293353306, 1.5484743646988066], [-2.1068827484090757, 1.4018800680186616], [-2.0779907199378527, 1.162647956895956], [-2.0433835522731822, 0.8429127480605051], [-2.000283426854777, 0.5267624811190231], [-2.059189768029895, 0.1760339536389624], [-2.0454225326171747, -0.1642001280636825], [-2.0924909631871103, -0.4525061250474675], [-2.096788972595237, -0.5660327546656889], [-2.1310393412019066, -0.5564282198952382], [-2.1698928353667455, -0.5372967419432145], [-2.2014525774883813, -0.5293876760462932], [-2.1473341303593925, -0.534713764212184], [-2.1979035958989575, -0.5248396773261051], [-2.1284694918014266, -0.5432388080629977], [-2.1813529656445985, -0.5279225192523546], [-2.151933977289343, -0.5289567368201179], [-2.143828890458596, -0.519960141262753], [-2.2071852080196637, -0.5291536973922065], [-2.1879234756451615, -0.5317156842537467], [-2.1391674973022954, -0.5287460959434279], [-2.1619976535956864, -0.5112328267548959], [-2.160137763522305, -0.5007922883306217], [-2.1940678979421833, -0.49871905104518455], [-2.1067264960776377, -0.45895957667542037], [-2.111078161181099, -0.41788098275271657], [-2.1441908990343896, -0.33180066186565926], [-2.1294651973210414, -0.2524924273487539], [-2.1316871721351762, -0.2222650966719836], [-2.104085833685769, -0.2161267677896552], [-2.129675580281412, -0.17863424831084965], [-2.112348330808603, -0.26092331533053575], [-2.160475288564787, -0.3486826203178893], [-2.103068057894935, -0.43488192865936065], [-2.157849255632849, -0.5220307150514081], [-2.166121923864633, -0.5146899542318872], [-2.1490828565478406, -0.5376916372297452], [-2.177697485700178, -0.5262138861820361], [-2.164514246090738, -0.5162898726946652], [-2.1777960145737203, -0.5398684671583196], [-2.1319639435392466, -0.521015328349479], [-2.159451273983855, -0.5021250666186972], [-2.1326780385759543, -0.5348041529454006], [-2.166591662645598, -0.5133104843712042]], "bias": [[2.181549437256161], [2.22734887940136], [2.2189210573940206], [2.2345388962489348], [2.1953128536697784], [2.197933705363668], [2.1656710652158573], [2.2140538263393124], [2.21817625286484], [2.2678872493702102], [2.223161954740771], [2.1989363717952175], [2.2066569068199517], [2.222915930414038], [2.250322105158836], [2.243718718927679], [2.2145844290548737], [2.2596589782272525], [2.2727488629832546], [2.242368118933665], [2.2191255331869963], [2.2431388115609665], [2.208616155050032], [2.181891859380032], [2.2338317153072875], [2.231350897346698], [2.2265068884153396], [2.1971798954783397], [2.1744673123123577], [2.2280109315949694], [2.2328894337841247], [2.201058256762061], [2.231697683848324], [2.217291912896192], [2.2499223170258293], [2.211696006862387], [2.1978578780367046], [2.2453187548042033], [2.175887566624611], [2.1584836109120866], [2.146843550907276], [2.163489989684223], [2.162876519094053], [2.161016720581601], [2.149473414188081], [2.2070204725689666], [2.2168548490031394], [2.239885831370377], [2.2265080920257767], [2.2139458342388343], [2.1927386275774814], [2.2503189161103867], [2.1833998661787493], [2.216437657076163], [2.217800810575598], [2.2536318344150694], [2.1830008324021946], [2.206576327945272], [2.237934170133307], [2.2469174386581487], [2.1971491325057246], [2.202443489322702], [2.1584418897201942], [2.172920519464348], [2.200076619438062], [2.071486514595051], [2.0205809621502113], [1.9439610379025751], [1.8704094446027806], [1.749257853354303], [1.7061981714371248], [1.6488802317423399], [1.6832950015361083], [1.7211995891636978], [1.7819228769282325], [1.8613338118267833], [1.9612385011872682], [2.082988317192355], [2.1480616981677425], [2.190993797731377], [2.185274804693251], [2.2117787382278897], [2.2273991759954663], [2.172438923393984], [2.170171000842123], [2.222272279963409], [2.2036914218999497], [2.1807347478901846], [2.2149278362656535], [2.2352484234111105], [2.1847746566330333], [2.0836074989663826], [1.9539571330236882], [1.7911905483915558], [1.641322324493067], [1.4699308553218873], [1.3091711609018386], [1.194816965484727], [1.1596157536603107], [1.0848513015407546], [1.1131393101508678], [1.2186394253330928], [1.3304284794525565], [1.488411780651202], [1.664648266018572], [1.8403438555547516], [2.033045431318531], [2.078457405203837], [2.1883178414404663], [2.161695140047109], [2.2219011077254334], [2.2489840751638526], [2.23446292014179], [2.194225055944768], [2.240084507287814], [2.1934580498775778], [2.1839140073598227], [2.1029518854404228], [1.9681020125852329], [1.8187420990219934], [1.5579157056916417], [1.3182263005586226], [1.1173877743774416], [0.8749837787186708], [0.78239132559028], [0.5691641387808107], [0.4881570615394297], [0.43732558027274415], [0.43794178445188364], [0.5777783929906667], [0.6885337340453963], [0.9420285099018473], [1.163452279247643], [1.4722242034027606], [1.718177175327517], [1.9276025258652425], [2.0554263019014147], [2.114196872855793], [2.2443078949628834], [2.2277971675833808], [2.2343279957301982], [2.1988800338876935], [2.261134756365998], [2.2046489652416064], [2.066298657833024], [1.9341203120045873], [1.681692343888839], [1.3712284904937277], [1.074928578214452], [0.8326693403225787], [0.6325072018365617], [0.47851785931602964], [0.2799491493245688], [0.13166850327652338], [0.022420558558874974], [-0.0523088808054893], [-0.03395982201725329], [0.03810199435680647], [0.145644633039481], [0.3372119173177009], [0.7003034404203325], [0.9976957133755304], [1.3451883364321324], [1.566855923192728], [1.9068135094331946], [2.0752849048645117], [2.1884081785536136], [2.235318681234362], [2.245493405121704], [2.25557247201702], [2.1778006209117415], [2.1661719346959707], [1.9478225807037999], [1.7068260520548832], [1.3552782702046382], [1.0569679600443422], [0.8177758547525622], [0.5768783869639622], [0.35389458431569176], [0.2556902696089856], [0.07005985493999344], [-0.09800352833966253], [-0.15060479393601767], [-0.1945092759028911], [-0.19587114994246474], [-0.12493178062995848], [-0.0727888064453665], [0.06117864707111622], [0.2877768397302265], [0.661992224962259], [1.0176037964927538], [1.3564211063137295], [1.8110719005612819], [2.0061703795594523], [2.12884074267955], [2.192154260876978], [2.2078529368167157], [2.2386352315464983], [2.1874991660255034], [2.037687958243429], [1.8604149463126942], [1.5099535624175746], [1.1723185238923424], [0.8852299203194411], [0.6677315986819211], [0.39950282179977215], [0.23878407046272976], [0.068900455503652], [-0.009953091447582297], [-0.1379071897708979], [-0.12407145025732466], [-0.08718078265317981], [-0.11499027728837079], [-0.059316336792106135], [-0.034578886584948725], [0.01470471598878172], [0.15653935116865408], [0.4878801560233128], [0.8669733103662315], [1.302496359513069], [1.7437864960451912], [1.980463212970336], [2.114708607987466], [2.193620203539396], [2.2040405100832636], [2.1876718768159433], [2.1525398508931533], [1.9827503657276442], [1.770569475786289], [1.4300895589907505], [1.1065418078377702], [0.8346697988591755], [0.5432631402183696], [0.36291849550787525], [0.25346651495600775], [0.07466701040911748], [-0.05319151729167799], [0.0152107583515067], [0.1386004760613489], [0.1976535059240525], [0.20086236297160068], [0.12491237094453325], [0.05196090006863325], [0.022005104691524793], [0.1026006158960772], [0.46120537718536714], [0.8318628814550747], [1.306373507136526], [1.7000316512416411], [1.9765770764213273], [2.1818615622436006], [2.2149372706574795], [2.1931161948869677], [2.199662036537396], [2.1317382244969987], [1.935654941350395], [1.7780043197855537], [1.4538038097868848], [1.0541051743613612], [0.7337451617915461], [0.4787482940915128], [0.330222798612894], [0.20785742831487744], [0.07495758159041066], [0.12699984447549745], [0.1718662413957663], [0.410735307988388], [0.5256608205078324], [0.4136712544414692], [0.29862862252876327], [0.21535971291999237], [0.028125619150543277], [0.1616255902004955], [0.4495810847101403], [0.7693825028021686], [1.2252929849201597], [1.6963093261909936], [1.9958281211927555], [2.1318930958805558], [2.201493802230232], [2.2070394702998626], [2.2340075685168803], [2.154755317255195], [1.9691112992717663], [1.7129883996890485], [1.368745261398294], [0.9495427710565753], [0.6848099041014578], [0.42546018161370347], [0.3074481959793332], [0.17313401577845994], [0.06419965795238178], [0.16633392208612238], [0.4047677015587646], [0.6140135356359938], [0.5891522804498152], [0.5241724659127455], [0.33517751616654073], [0.17284487055979658], [0.1132295287600271], [0.1537021842700833], [0.5125974284466832], [0.7777055134258986], [1.2279530767760727], [1.6582857735601961], [2.0186974705826666], [2.1866099423941745], [2.2113211646679742], [2.254117821648149], [2.1961241502243776], [2.137866535234975], [1.9986728009602002], [1.767979038634669], [1.3045984194237512], [0.90844173192886], [0.638969840052156], [0.4146846643021764], [0.21616281915037122], [0.1475730495244436], [0.10070514135138553], [0.22597710019321046], [0.43944606563393523], [0.5592727344937677], [0.568040024505556], [0.4089583896663051], [0.2666923456934073], [0.10307028489780352], [0.12335745979275435], [0.2409920824093646], [0.4622629366921029], [0.7414334570302586], [1.121896018079514], [1.6118390390563242], [2.1097636182269697], [2.205011939427534], [2.2362288992109893], [2.226487690681048], [2.1409292464276026], [2.1401035898559675], [2.009204206267908], [1.7427376184694823], [1.2874232314992948], [0.9053971418431356], [0.5735917188523239], [0.30676777442483044], [0.10319669577226764], [0.029846139842580936], [0.09174855791844808], [0.2478115605296795], [0.42062898808662275], [0.42091462407094354], [0.3312396592816813], [0.1920794378767084], [0.0900473742118231], [0.006850276858009764], [0.05432288405549058], [0.3553324179334222], [0.5435968395763069], [0.7372532580288206], [1.0883894376745091], [1.5654091300879265], [2.152960028592457], [2.183248381783851], [2.197464899804544], [2.217081900253915], [2.1961523552692115], [2.2231991921946177], [2.0740286585529555], [1.7804078915361417], [1.2216738360255537], [0.7568795354630823], [0.5178415989956162], [0.21349799318904303], [0.02524992327332947], [0.02190187545089391], [0.16118936863818845], [0.2625502582456414], [0.30020446169395043], [0.32545299115504706], [0.20243896170452505], [0.03595425299360806], [-0.07969517272388436], [-0.09489214597294227], [0.026264790162012535], [0.26657444947498604], [0.39779619524360865], [0.7001159430481123], [1.0261041981160917], [1.483260291715054], [2.072149358093411], [2.1910904099942217], [2.196103199701123], [2.2339757265929596], [2.2126724292527173], [2.1356034591621076], [2.084172625042781], [1.7175778434938616], [1.1564913857373473], [0.6712856924782661], [0.3827819608341817], [0.1890592425258141], [0.062308830552420466], [0.11872800469285373], [0.17583852090260313], [0.23216777556877116], [0.23977284705139668], [0.17099004634465784], [0.08100577618052845], [-0.060871402118125056], [-0.14221692184145115], [-0.15265877000016065], [-0.02108243144663709], [0.17198540861038702], [0.40811330732173556], [0.6817291125897181], [1.0303308887164015], [1.4549109683382573], [2.050795794792047], [2.1875172907269778], [2.21840094005018], [2.211707619767115], [2.2211324865173276], [2.2514138166957696], [2.066197257849361], [1.6236889760214595], [0.9906136072516789], [0.6014064391422366], [0.3626295377837704], [0.11294348275645252], [0.013273477695477116], [0.1469356562602], [0.159347644131226], [0.23367260920464564], [0.22778964545063707], [0.22172837242730384], [0.0885706603859805], [0.012542452175168355], [-0.06565564416386482], [-0.12662773021862242], [-0.06026431819200556], [0.06537783765468447], [0.3064570170227103], [0.6493246922436746], [0.963253354296082], [1.4361012057374678], [1.966360554073139], [2.158907648872486], [2.1884739192106086], [2.2141749504561945], [2.1856553163503936], [2.236732363239898], [2.066721843458541], [1.5230473714519115], [0.9536215210482877], [0.5729841513005015], [0.2557338343486663], [0.09107249744888166], [0.006734030654870179], [0.1761104376797626], [0.24677938063812757], [0.2632509479474693], [0.22268040360111865], [0.2799154766990308], [0.2604936294852766], [0.2090105397955099], [0.054556558660671696], [-0.08029278033668437], [-0.09000672718526857], [0.010677807656140636], [0.36545438914397094], [0.657993081115892], [1.04846071070419], [1.4804741565894268], [1.95020487055193], [2.1294231100606247], [2.239365411474049], [2.2439858823867103], [2.185031091819605], [2.1903977126978935], [1.9806396488378086], [1.431605462106563], [0.8369537018847065], [0.5416476855479471], [0.21165992848449333], [0.10198359987919722], [0.12793692296593534], [0.22189613749905082], [0.29121073635871836], [0.33150153080046857], [0.33774023229607103], [0.35028516882394006], [0.34462752372259675], [0.26303791156117184], [0.10100105142647721], [-0.1145428565846966], [-0.12864521940401086], [0.012597306642202223], [0.3518452138868482], [0.6855441056463704], [1.0984333898234409], [1.533318125331476], [1.9470554527639035], [2.1331556005499297], [2.238720644864971], [2.2076566084656637], [2.234706836651984], [2.129774244814134], [1.8524117046633177], [1.3142893538759775], [0.7221615069621239], [0.46283483653710633], [0.23557767290989592], [0.18709107434817554], [0.22258918072504344], [0.22235130805277203], [0.3305103071431656], [0.3380980374883352], [0.36708547358899707], [0.39632921497464607], [0.3304624281125351], [0.18231094667308856], [-0.035394138699312884], [-0.20881831971293355], [-0.14263083325149278], [0.02019701280588091], [0.3580571201430804], [0.7173160153216416], [1.116453126912358], [1.5390103455820283], [1.912829603820058], [2.174535766721772], [2.2412250429969767], [2.1904789296371723], [2.1919674799899136], [2.1304846688549253], [1.840925896168865], [1.2742144213308761], [0.7615943842727425], [0.443520224018109], [0.24052441076931425], [0.1350164514804303], [0.1320042104207018], [0.10256203572736752], [0.18197343629548873], [0.22087384311100938], [0.23585457242202068], [0.19943383287243074], [0.12412416271603789], [0.009296709072053957], [-0.1791831665008031], [-0.22054505682294287], [-0.08290574571454296], [0.18234626255607764], [0.48797221533028534], [0.8312802359057596], [1.2167368816516981], [1.6043000865738353], [2.012396711217607], [2.175495626273852], [2.232320050140115], [2.1522247477392797], [2.2568356880005065], [2.1360808374534686], [1.807587146717088], [1.32332004332522], [0.8269552394276273], [0.41124041407516254], [0.17986523192439471], [0.021284560802633815], [0.02668971365679007], [-0.01023133731975213], [-0.0984622043312995], [-0.022882773187821503], [-0.0003428429852844093], [-0.016912985822270146], [-0.027372790962018646], [-0.0898780663748512], [-0.17568547441248025], [-0.07110091133979103], [0.11012460001306572], [0.3869687334329047], [0.6467921412517349], [1.0166045823110894], [1.3985048138558045], [1.7594097754186664], [2.035029628213105], [2.1993040876682435], [2.2261685147584283], [2.2567280653667674], [2.1787620940936847], [2.1579038463258398], [1.9214631253383998], [1.4111909440544157], [1.0029899857156488], [0.5594126102459194], [0.21595656893805099], [0.017239103047152246], [-0.09359495350285045], [-0.12847459323148686], [-0.11555367502421826], [-0.13313770283717297], [-0.13158785724676775], [-0.0972453692233652], [-0.06992393619222252], [-0.005385732615333171], [0.09657279101798517], [0.1851220075371277], [0.39015164797678753], [0.5955444260008336], [0.975095512595228], [1.2821429008461132], [1.5891258634501102], [1.8787897811375405], [2.1330194868377412], [2.2406441657965073], [2.2026552757226208], [2.226336198831632], [2.2320950214788295], [2.1526996138214227], [1.9858052604487562], [1.6407431879262615], [1.2479607944202733], [0.8532530082091111], [0.4406398415862463], [0.1919901505430435], [0.037560148969445435], [-0.06944366970429383], [-0.08155589682353079], [-0.046583740391399384], [0.001161157407504942], [0.09454878359079487], [0.20363083958978956], [0.36038832258186526], [0.3318241506881571], [0.4529233976133881], [0.6457275787192032], [0.9347461326311978], [1.2365148778372317], [1.532526779831709], [1.7890713111044618], [2.0309601024500763], [2.1684601453813435], [2.1952838250998465], [2.16034756239406], [2.2188618020515896], [2.2040410842978018], [2.256995740458633], [2.1150292952100576], [1.915520265634616], [1.627598418328888], [1.3113533290167034], [0.9371537431046464], [0.6283128403889864], [0.3967474550951446], [0.2742292241501546], [0.2285531305415405], [0.23625761261372], [0.33819406453528467], [0.5150275951019608], [0.5357778135984791], [0.6304510748407253], [0.7053176068297169], [0.8387929249102711], [1.080437701716563], [1.3505336087561266], [1.5645535135743218], [1.8381340495080047], [1.9945597614142014], [2.0984437987512954], [2.270478505100429], [2.279190584942806], [2.2266331094554634], [2.2022380241975097], [2.1979846441178443], [2.2093331500433364], [2.1966429499172455], [2.094108496032991], [1.9694909997564067], [1.8284015199013264], [1.6173802034049007], [1.3975042920189393], [1.2012137249238906], [0.9594043442646886], [0.8703646426302336], [0.8426099703200685], [0.8765802178504905], [1.0063391721570314], [1.0332067080525862], [1.073458549561989], [1.1496758048504852], [1.275720849503318], [1.426089081988835], [1.6630064947342404], [1.870307918744545], [2.0068589523435794], [2.1181295362719275], [2.213527507871253], [2.2106581762179998], [2.213316263941621], [2.2044210244200073], [2.210411338306068], [2.225194553558229], [2.211160319331026], [2.177306982018418], [2.245813487216833], [2.1614156288694226], [2.091009831116592], [2.0642592779108044], [2.054774952589234], [2.074474597485601], [1.9473858972097078], [1.9048023835363062], [1.8283791827770917], [1.7236672064156788], [1.7425946645034074], [1.7110895957608168], [1.6202217117559798], [1.5885596888528466], [1.6912578738442057], [1.78262593778106], [1.956885503102326], [2.057625120778236], [2.1021360630332726], [2.231877112861409], [2.233741270617423], [2.2687069599705367], [2.247872372825871], [2.191553261976699], [2.2696243942336807], [2.1946930800003326], [2.1812892755088473], [2.2484322541378914], [2.2233460964203653], [2.2157319102848323], [2.190701293983535], [2.066238165565789], [2.103182284362808], [2.203535626690468], [2.153223275936467], [2.1207120894739515], [2.0806353825662316], [2.066113700693919], [2.0252514159059367], [1.993041420971542], [1.9856896812315246], [1.9036260709641841], [1.9525423794381724], [1.9776340681091], [2.0798177573588323], [2.1532065749897353], [2.1807350384392907], [2.1740884305223225], [2.2330812350197573], [2.184266429879638], [2.250641311497665], [2.200521088730657], [2.2297468806066068], [2.2395246404530664], [2.1744517570311186], [2.193251943163833], [2.2418495684785187], [2.218596801889018], [2.214762669221474], [2.1677110710829757], [2.2506404989208684], [2.2344347971079497], [2.1796152850197474], [2.1861442999914216], [2.162969230528404], [2.1717450254102215], [2.127584909474451], [2.148957031480749], [2.1062219778452484], [2.1818713892317247], [2.1543711871503777], [2.184946462308631], [2.2130457111061044], [2.196703730792208], [2.2130432785123313], [2.200955000670943], [2.2511880424283546], [2.2273964505934565], [2.2479213546634], [2.218049274539073]]}, {"type": "output", "nodes": 784, "activation_func": "sigmoid"}], "bias": false, "loss": [0.06206390270005141, 0.06198951508846838, 0.0620220448447974, 0.06209439584102918, 0.06185988936927683, 0.0619054910471095, 0.06188201675380312, 0.06191541075640631, 0.06188589993502414, 0.06198368359494644, 0.06197604180420592, 0.061861055285830344, 0.06205700868162072, 0.061966710182489976, 0.06200777983179951, 0.062056023025483006, 0.061912666315753304, 0.06219409138324826, 0.06191866943992734, 0.06193231792031747, 0.062211073994070235, 0.06201638280162269, 0.06201158849894209, 0.06200424877305714, 0.062014089942959705, 0.062089226346577354, 0.061928525395172296, 0.062047081053612514, 0.0620203850468222, 0.062066914510310586, 0.062078833108149316, 0.06191406941649156, 0.06233488059675484, 0.06197972362810329, 0.0621613014469421, 0.062159800302108624, 0.06214614440826267, 0.06256006966782947, 0.06222641860790882, 0.06200970491710007, 0.062025976366966586, 0.062101496252435016, 0.06198217866009121, 0.06201482020662361, 0.062211557934202265, 0.06198383074882278, 0.062307869511765694, 0.062017240615686996, 0.06208569794180376, 0.06209454467226024]}