{"name": "hl_2", "layers": [{"type": "input", "nodes": 784, "weights": [[0.08920587157168253, 0.029668568708154548, -0.007286653324700552, 0.09291165365504925, 0.08105015981588742, 0.03488605670936614, -0.006604190104071112, 0.04853534781532314, -0.031767568042279065, -0.029520772946483413, -0.02129506413990804, 0.030350650139919517, 0.02689293035322303, -0.05080797017109466, 0.07791123836040958, 0.016294176514055774, 0.03833077277145426, 0.03681855910608131, 0.0398690036180439, 0.06110327613749849, 0.07060096083691662, -0.01792278532534449, 0.03244592692673877, 0.007317225484024827, -0.0073929996137682315, 0.019990373043985384, 0.07207957754403188, 0.04741634540384829, 0.03655465892375686, 0.05285416316372481, -0.0002630127281623599, 0.04657027522620277, 0.03514978345077713, 0.04500425262925055, 0.02530033470133694, 0.09115976906853951, 0.060759301541401314, 0.06833631213008422, 0.040726814148309434, 0.026741821221217706, 0.016831717122709342, 0.09560815195208074, 0.11411386560667713, 0.06324859982521622, 0.009982567423242517, 0.07384537790578104, 0.04678082778761387, 0.03488811398845957, 0.0200188457953728, 0.045445569796542226, 0.08729381052086797, 0.06544161933629919, 0.06678660547134713, 0.07814551961055537, 0.05162138426667902, 0.0788587185015077, 0.021443795692215856, 0.04067958401757538, 0.03332082323863049, 0.0343218532872241, 0.015731319786032025, 0.011326447095251496, 0.03523353685728302, 0.0006876560600838659, 0.013679396220620378, 0.0645188634780121, 0.07463717439133444, 0.05843018047778061, 0.04384177958639572, 0.03529375588761983, -0.019843764450058657, 0.023321384775658732, -0.008006576739747395, 0.17132048719955056, 0.2802687098734959, 0.3911493442758111, 0.5826130583131985, 0.12276246743591086, -0.00013446953440994914, -0.01223132061289412, 0.07642985160362331, 0.05151561266920758, 0.05468796557546355, 0.07464001946601512, 0.044670404362325646, 0.015901295972966106, 0.04436490301591169, 0.06560524300826036, 0.07587532214078002, 0.06933823342181362, 0.07252099654257757, -0.003533234682198997, 0.03950207860639956, 0.058656712991352465, 0.05810179207174604, -0.012912953883451655, 0.06341744695733816, -0.012783702393371446, -0.020113065167858657, 0.08361674476852247, 0.1193001347300563, 0.20921088872236634, 0.6145825104090223, 0.5599182122138593, 0.4838895055041052, 0.1339157869176238, 0.08095517130534086, 0.08900010470910096, 0.09967098811876572, 0.08300190173862632, -0.03301201535624135, 0.05580154069595574, 0.04410111853949586, 0.07487722043427236, 0.08760257786466304, 0.028155384836758945, 0.058027563852770234, 0.060588055462781676, 0.05115089283064485, 0.03243931462883725, 0.04596621628944955, 0.10565094441725364, 0.05652076478394687, -0.06747101988486517, -0.0986007917350793, 0.09884918062333703, 0.6436836868982219, 0.9762039635780937, 0.45173335264278663, 0.5473495954408134, 0.6056014608527203, 0.3821724039454627, -0.41534582474346377, -0.31316401908872865, 0.027839645359191877, 0.10883529445679972, 0.05532268369019459, 0.11553772057503078, 0.07390173997151428, 0.02377636686305551, 0.041416131104741356, -0.008814710373026209, 0.03941744864450186, 0.026986369300255626, 0.05573154478225548, 0.0035356745814700543, -0.030841538624282332, 0.012429976403794653, -0.00509733103343828, 0.02673687571553226, 1.5677077374882247, 3.9084423557321903, 4.192018447934121, 3.021434749377491, 3.363759486493147, 3.350584449873261, 2.779998825762311, 2.4946941939642326, 0.793726686385568, -0.10572046243099446, -0.989989389657082, -1.0198124266830224, -0.28480003369076934, -0.07462490585786852, 0.07163926049785659, 0.026374012401152787, 0.1271200716165257, 0.005705029480968193, 0.05677266899186996, 0.05243990777212233, 0.06095124428103207, 0.05816066292974939, -0.029309330443713914, -0.005654387653452722, 0.06620747010138363, 0.043461116232063016, 0.09204992203428003, 3.116907911029702, 3.74890105939082, 3.6763632124990515, 3.8173899411784524, 3.619866603899248, 4.093483164920246, 4.781291413746204, 4.390586982857781, 4.409979983796211, 4.275108818863699, 2.0907593893491683, 0.3592818914211827, -0.7426032401751758, -0.6100014458173963, 0.017662208317411145, 0.10696378911289556, 0.013574246322741734, 0.024102650166482477, 0.032285148587494, 0.09915465550285221, 0.06629993893536953, 0.05084253372126024, 0.04010119804085995, 0.06947692409400091, -0.03403920196789939, 0.06025605970731423, 0.18100154879053637, -0.03266616118268298, 3.3641594484287323, 3.278105291401234, 2.6611490668736093, -0.4788588269773842, -0.8388893595322681, 0.37594274220085705, 2.33424000689063, 2.0807961042450747, 2.5406369015008314, 4.033272392864818, 3.2449029931562343, 3.303706467662666, 1.7092669659876263, -0.6041017180207405, -0.0380074946647094, 0.11086890738531575, 0.11569846880494829, -0.004942848676410742, -0.023548085684438523, 0.07725097191291938, 0.018352735325053174, 0.10624768800560266, 0.09689238310636947, 0.0076684367571577235, 0.04587304801695708, 0.034782025247016436, 0.19374781660446203, -0.5092079671667522, -0.34046310092348747, 3.3656196137257846, 1.7549952624198417, -0.6311716317346285, -0.797550591695681, 0.4425236099219415, 1.0394098755923287, 0.5855380784681223, 0.02598111615791835, -0.16919701262996026, -0.40270219897222814, -0.42197183179095377, -0.2757599560007174, -0.7334832863514594, -0.6286524763810023, -0.14702009529151464, 0.10969124389505418, 0.035171171034086214, 0.035868438809255485, 0.060002395789393495, 0.057247825547352055, 0.018765720264244036, 0.05119647205326473, 0.3505346969500761, 0.4652034500574055, 0.30875931012796115, 0.4509270993544348, -0.2418869888431846, 1.4696514282759985, 4.2584856807252205, 0.9822916873282591, -0.3565301811308662, 0.09599959844117802, 1.2913488763735619, 1.341840061001581, 0.6957124981116709, -0.18929446253872106, -0.6411300319383948, -0.7208645153724808, -0.5670470226138368, -0.452509810684924, -0.6355606502685105, -0.880720857204194, -0.6385115166357759, -0.042194637232768464, 0.047018903352480615, 0.075467760846425, 0.047885027717359904, 0.011502814546401412, 0.04833950943629892, 0.024781872598631335, 0.5324760752949421, 0.5736395436214364, 0.4745028380738114, 0.42355005002873275, 0.18339596100086106, 4.233882775586149, 4.050834757672583, -0.045875528590842325, 0.07493786659985914, 0.5335434656153826, 1.1335325450419746, 1.43020265044614, 0.8997291692876274, 0.2086289346104916, -0.1543878083861536, -0.1557563544555965, 0.006178089965573304, -0.3424533925284393, -0.10147742353115051, -0.510136956473232, -0.4699428666017864, -0.03836027986982722, 0.012983094606129971, 0.05258549977242507, 0.04960907426398755, 0.04899516409079145, 0.11752795361103342, 0.06897571184445175, 0.30953556951233163, 0.5478520473330996, 0.4569676404404003, 0.06146577419400159, 0.7372404283813769, 4.1683947334694835, 2.3914823821963815, 0.15921492025787504, 0.4191572338181719, 0.6549568415016903, 1.2282750078490021, 1.539835117448363, 1.0620788117525841, 0.31109111030482306, 0.2841773812883285, 0.2774687569767606, 0.42533063911904595, 0.2612481278845193, 0.20402322248891822, -0.13105736541614604, -0.3473064365362453, -0.08281026370337796, 0.05754536468226937, 0.020824965987982256, 0.07568164989403536, -0.0013686352254495546, -0.015261362136753468, 0.0726456233131473, 0.08363251348096333, 0.16958226104126417, -0.15014609850384814, -0.17660684465169388, 2.0535824508559917, 3.926845627041127, 1.4986603626775512, 0.030081034641217554, 0.3447290451185465, 0.8320953916927546, 1.310926681600797, 1.5526276304529751, 0.6709484921717304, 0.38635231676373266, 0.3788938382840076, 0.6203926488886832, 0.652995912803903, 0.364653020970407, 0.08604581451702331, -0.2440755396325361, -0.18794157642403947, -0.13489434430689304, 0.06396758166279667, -0.004428570010889438, 0.09744969639004147, 0.08723468565195461, 0.022116674760107514, 0.012517028239790529, 0.07017456137068684, -0.02186346565016301, -0.3723250982656125, -0.24356731318289962, 2.844939926738361, 3.358074536034568, -0.0448123087691995, 0.10816723171171264, 0.2854714177518277, 0.5394702856272945, 1.0273571398150885, 1.242532349581842, 0.39028733274601013, 0.4700929962397641, 0.5021937151105209, 0.7536870723401952, 0.7540717706137594, 0.3238092274667671, 0.12052408411000788, -0.21104291481328835, -0.25963500143569357, -0.08789187107406499, 0.10873235448221936, 0.0796116837342718, 0.07982998310044404, 0.08103086061564005, 0.05840366878027572, 0.03854842127055473, 0.034867629400604144, -0.17373467144881252, -0.40541049688224434, 1.265591546468903, 3.39215391247916, 3.3124711839996412, 0.6598746366369922, 1.6934408263223044, 1.190325837464802, 2.0630135421028077, 2.3439903025598907, 1.179651581455214, 0.16499365901493634, 0.8334998681511052, 1.1982718366808478, 0.914079506112849, 0.6050220024220866, -0.16563219008591812, 0.013298825754090724, 0.02640225315237941, -0.34128066415324615, -0.15084846924654302, 0.044358584092807476, 0.057967714266002154, 0.0976102920326904, 0.01654377070657034, 0.10193965504551579, 0.007761706140229679, -0.03085752031994873, -0.24740875745714105, -0.6238494347331875, 1.9211863469784234, 3.8671722798373502, 4.070259333017144, 3.5021412893397073, 4.027070993453582, 4.373711022408078, 4.78788586902831, 5.099413916533034, 4.1988924389364115, 3.2873753364021594, 1.8219013298934394, 1.2269410638533136, 0.8779296766034739, -0.010240046948868289, -0.066319460249741, 0.10775513301206964, 0.0824820635808255, -0.48983817112610517, -0.07741729518288393, -0.006320243695319531, -0.005326282175272538, 0.0515272694981994, 0.04709704117175084, 0.032472557199643745, 0.06973214776994018, -0.20267052991665585, -0.2710277962690624, -0.741471847111915, 0.1358843530944229, 1.8814160307737604, 4.195003042107186, 4.187609461969873, 3.118932623325519, 3.2994110719631915, 3.780238779840144, 4.54294611148907, 4.99813286071051, 4.244167502762645, 4.393461592394204, 4.208432481189779, 1.8656334830470171, -0.0016306240854366786, 0.01194059100523251, 0.22391705279864402, -0.30115567535359916, -0.3494741535088462, 0.08496388261338647, 0.017544129595713182, 0.07561259621809083, 0.0069574814285351914, 0.051383685027797464, 0.02435092900592059, 0.07399096176287445, -0.22546935292250742, -0.2712991258163402, -0.5816709102992963, -0.20383196445739607, 0.1631310234279518, 1.31981124887475, 1.3800180109326712, 0.8763160012782195, 0.5561042688182519, 0.7984036655863638, 1.4811789559376278, 1.4367264130107864, 1.840644233551052, 4.032545990340434, 4.573018184132379, 4.198826374865543, 2.7012498962372673, 0.3692436824025437, 0.09810552138982237, -0.49978345917180494, -0.19426676657173508, 0.027326391394074553, 0.0337612883034274, 0.056212453175993764, 0.12522673651680963, 0.0913400791524629, 0.03942301903029155, 0.015524938643938823, -0.2712202744167101, -0.3648932520883575, -0.5926463516967508, 0.06572857512852522, 0.15812476863596178, 0.7438885247699466, 0.8247071371244019, 0.5407903435261138, 0.10299206761808101, 0.18491713051053388, 0.6957545214368406, 0.4664954879033417, 0.6584916867489381, 0.7683227483712208, 1.5698244885318549, 3.9714981649182612, 4.478106291291363, 3.010368290370157, -0.29095934743478225, -0.48182443421694104, -0.0425312864679257, -0.00890406779916404, 0.028400980088767153, 0.04236913407481498, 0.08275758294991754, 0.015867196173531845, 0.0909504450399353, 0.029349960111055097, -0.336626905651736, -0.5512306977211371, -0.9596821111598012, -0.46441985763517185, 0.014473911950361885, 0.32085820792165903, 0.5196292383126638, 0.2289901899819832, -0.19190861342325355, 0.17178218462051423, 1.0638578173783788, 0.7956490569862112, 0.42449817794117484, 0.24669157903709032, -0.09342706023669768, 1.7848046289396993, 4.465309728204894, 3.8227582091216887, -0.23204799959126368, -0.19258986690704424, 0.013130032781964134, 0.05400279761977005, 0.018688380837476953, -0.010644574042270481, 0.02435893582023038, -0.01867262044857345, 0.07482162498819916, 0.03767025191340761, -0.15619951951517447, -0.32747620432516616, -0.7748826478439899, -0.8144192463990617, -0.039382239527470705, 0.36215678484235087, 0.7937207709822066, 0.5424370164461925, 0.4069281733990962, 0.7173568697043903, 1.0920351714227459, 0.8330013908575019, 0.15757348064698423, -0.10873501024007354, 0.1293617328346465, 1.7201167680818819, 3.693300745817231, 2.855328923204252, -0.18566099312161796, -0.09726674444071556, 0.016682266256140534, 0.046529369445093886, 0.05911110857703117, 0.05560483322144544, 0.03355603160503225, 0.0115284873578039, 0.04224557263835272, 0.028109436100388824, -0.021587218649810717, -0.3495938672055424, -0.3495979043813185, -0.37194215272956493, -0.13080758794052452, 0.6445457991852345, 0.7662924709186594, 0.5963718312844993, 0.6420213705154741, 1.0039564847148859, 1.314388573989745, 0.3254734418466268, 0.27191159683119337, 0.33052608893378055, 1.7253010958467165, 3.3716998926201653, 3.6963932021313135, 1.3249634720482022, -0.07293410958459703, 0.037043481803873575, 0.09796353128964422, 0.1131373751370891, 0.03027750770599136, 0.057572066017970526, 0.004999499128887291, 0.019791843643933778, 0.08582610958835907, 0.08256206178165199, 0.029968801897108495, -0.14648827802291353, -0.36843303454057147, -0.6623218675424107, -0.4693746010787932, -0.2156962827854471, -0.212094940270923, -0.29778762784507046, -0.006350289783436236, 0.4410417615517766, 1.2065010072633717, 0.6949933708896114, 0.7331668877401307, 2.2877803319567627, 3.88791584491603, 3.911801910814087, 2.468482672740198, 0.037658614292180245, 0.07495330838323604, 0.10642824215926544, 0.07430416376300417, -0.011415460652052725, 0.08919013647736479, 0.12169696073620025, 0.017961530731635627, 0.09952240045477928, 0.043291652498803984, 0.0795516394942567, -0.0016593691197230723, -0.3039772581400438, -0.4087727073640708, -0.6768492158255734, -0.5262372801341245, -0.2900403532664921, 1.205640425802277, 3.6031559603228773, 3.7402476333432184, 4.310435013350378, 5.081050290789017, 4.583460700821392, 3.2724731226317783, 3.5102961316446546, 3.7818312547196387, 2.525304199013153, 0.4676656943452195, 0.06981054777670728, -0.011656921901015914, 0.14017326356614648, 0.08843841608246023, 0.05429649280594078, 0.07968287048784817, 0.04468646175935106, 0.04317171804645406, 0.10052145039654534, 0.0183674310184731, 0.025034273074395937, -0.11306982421803591, -0.2811359485319933, -0.3622128370283706, -0.4739620834080157, -0.3460781562024451, -0.1746516992197324, 0.8431812041545584, 0.2658000883150901, 3.7886152835019864, 4.325560928917704, 4.6665364173730985, 4.145414602988471, 4.0897024713502645, 2.1981616779184074, 1.340254136616494, 0.13269965236033646, 0.14563847371759733, 0.06700383161667155, 0.12314884358504373, 0.046963554686568154, 0.053680726380238214, 0.08120265661150027, 0.06656282731704855, 0.006775867636825746, 0.020819234296901974, 0.02351921382928586, -0.010633125653011928, 0.03090947939760275, 0.04492679209525281, 0.06728373167856697, 0.06974997911300915, -0.021199475422972174, -0.09866497746145823, 0.07010309964906719, -0.008927229893673587, -0.04988364362687708, -0.008371592162302708, 0.020191590227034328, 0.16254725090848762, 0.21818446689032403, 0.14519954737864452, 0.005087557040949781, -0.021873909219265027, 0.1460057725426276, 0.08662264133385865, 0.08673208599723525, 0.08862142915621493, -0.013247534106631492, 0.07231208611887434, 0.08396033938428457, 0.035538670420912924, 0.06370946930206277, 0.09897176675614328, 0.05340321520288538, 0.04073760437769478, 0.01793164240161952, 0.04522657445359722, 0.10145794079562674, 0.05616063347895806, 0.09719173987498167, 0.089138466211751, 0.06353363834222227, -0.04401173736424491, -0.026639219337679217, 0.032823418251083376, 0.07224102629339188, 0.07033945467091515, 0.08968724974788628, 0.0253407123747975, 0.05588429418085306, 0.11284012537115533, 0.041634516526658734, 0.075589019701083, 0.04020964676167937, -0.006332147577134701, 0.06992366976894508, 0.04011648463970764, 0.014498829559734699, 0.07948151809154916, 0.07076329271534383, 0.09954933008652053, 0.01691686138905185, 0.00286554101117638, 0.050746720798238096, 0.061022618041651766, 0.04257544685488657, 0.050473742456342216, 0.10620251208874741, 0.06764767348208323, 0.023536892757685765, 0.057798651419068564, 0.05731437481301478, 0.028818731366753312, 0.13020674073856456, 0.05821466973287227, 0.06317406067870168, 0.0535056162741033, 0.05972130416611146, 0.047361687957301814, 0.051518826952650754, 0.10372915647409829, 0.057599172212616324, 0.10881959503357494, 0.078663843818509, 0.02615298156601388, 0.06581388766401165, -0.01450454793066362, 0.007600511931133116], [0.04376815192385993, 0.11987370166875053, 0.06644165202719945, 0.08579579443894186, 0.09839443965426747, 0.10529791417415865, 0.06656106869969908, 0.06065341679177754, 0.13510195738728092, 0.07060100517562912, 0.0926679437089532, 0.11328913595550211, 0.1270799839382165, 0.10107071869031356, 0.11113655881361334, 0.09471760055440018, 0.07068748105802913, 0.11091887445488124, 0.12006864665463413, 0.06615489551158726, 0.05695137102775128, 0.0807315138838528, 0.10053162025482354, 0.13157754623222617, 0.049027977145832076, 0.12857181040368906, 0.007795665983876771, 0.10137919098326348, 0.13882412220410023, 0.05243491337422621, 0.12571889268748662, 0.08970286892644541, 0.03875915678503763, 0.08825463807324346, 0.11415302357017815, 0.02410789749023077, 0.08453244554772055, 0.10780951171619418, 0.07574812635430847, 0.062122547718211164, 0.1066276126681027, 0.1264058551879589, 0.1881403501152105, 0.1438974948380663, 0.1392933515683083, 0.11860381245744389, -0.005435945450330718, 0.07727041888791955, 0.03863922818837586, 0.146682668185227, 0.14982941865632524, 0.10536344627830482, 0.15775119488991288, 0.15036146791260493, 0.14481189799680821, 0.07084251934589544, 0.047462992229204866, 0.07684826627488453, 0.054176836597529136, 0.09118481597880732, 0.06927820465474177, 0.06238828188294183, 0.14959381871623428, 0.0897424659368323, -0.01996347627696929, -0.025202770152025725, -0.03476128788045655, 0.14882731907863206, 0.10321624068800941, 0.24385490196856952, 0.20001613711130753, 0.29243027733517507, 0.5187340683092778, 0.3924262397555557, 0.06367988679882466, 0.04045452145027981, 0.19089489070599786, 0.17319014560676102, 0.13263627837272873, 0.09376142583887845, 0.10495143658129519, 0.14751461345673164, 0.05952212592458169, 0.06585337487747334, 0.08401708841265154, 0.07097739680101772, 0.1249059529449008, 0.13485828125207291, 0.06657976904810146, 0.1613803345716711, 0.0713367543777702, 0.02908455528542426, -0.02072929356565257, 0.1000641606095721, 0.5195960412846968, 0.26731071390140293, -0.11640608153748139, 0.051983721289709434, -0.39546771886943455, 0.06232906577950476, 0.16661993506266845, 0.18559210003932775, 0.38069488711390537, 0.4748663197063904, 0.3067623307823275, 0.07146596711501343, 0.06586202235199652, 0.2517870012518514, 0.17337269434128516, 0.1025036401576927, 0.005434537682063201, 0.11411084645826172, 0.1420717160250113, 0.03545994681002492, 0.07488248444593779, 0.15195809215669417, 0.12141258199385624, 0.19731569926557257, 0.10016374269816435, -0.0083598822048332, -0.17526987352876938, 0.3261519488229611, 0.47163884800495526, -0.2353895831065649, -0.41154346997041613, -0.4751786800965976, -0.10569578884083726, -0.06920451195752114, 0.5179922403769358, 0.2627796047848607, -0.06190852610787871, -0.6396746610726185, -0.16043259025988219, 0.05180617060715113, -0.07280598520874769, 0.18910363113427073, 0.24276448833134853, 0.1883431837556345, 0.15826681584421495, 0.04081060083520755, 0.09525446592875184, 0.13056144706527617, 0.14312657363418588, 0.1585901816102616, 0.24588455138324025, -0.001866536801350167, -0.19151539935563633, -0.35872291923424526, -0.6205831501319599, -0.5000083796384196, -0.3387069660065517, -0.693945811900278, -0.41813812522108573, -0.9574402960200178, -1.0171669388930942, -0.8436238654609494, 0.25249115419662893, -0.29530341073953015, -0.6100323850477011, -1.0705655829669884, -1.1611950027152098, -0.04696247261365809, 0.14989333223055054, 0.14848450627962162, 0.2772602204089983, 0.21456563064585493, 0.03734197070132785, 0.10126960857556644, 0.11026618936317881, 0.0932921973211473, 0.07883407837125536, -0.03778992901306497, -0.1982058733206392, -0.525411307222703, -0.8553902939032348, -0.7761770205250372, -1.072652433672059, -1.3773845249443621, -0.7952523976911487, -0.49142345798266973, -1.4550801348133853, -1.9757436921931564, -1.0885192137146902, -0.6136859887556368, -0.613889869894162, -0.6508637374680724, -1.1783519744356707, -0.9350087459933136, -0.9812018701000189, -1.5715650330549695, -0.9259186336861899, 0.15627377396084025, 0.3986454533715843, 0.5248631882202266, 0.38924213872088864, 0.1268071535795761, 0.136954481053515, 0.19084145326166177, 0.07691830582415801, -0.14399719727874252, -0.30670614033137555, -0.691132869851428, -1.0755760630656301, -0.8278502735177647, -0.8940014658003527, -1.0295204927035015, -0.4338878851893957, -1.5656653584384121, -1.3087882637369663, 0.10409423981790686, 0.3388579202990057, 1.1871500073498575, -0.3427981133041481, -0.6945889364474283, -0.3055407501090318, -0.2182140319116466, -0.790587420164039, -1.5993257700756058, -0.7732540939213792, 0.30309063248021, 0.7731772962561252, 0.4163144839523254, 0.2524035878926994, 0.11790222458666164, 0.11804833880358692, 0.06795024588696971, 0.07970556653430481, -0.21828827731751915, -0.28770216505923846, -0.8604877291186505, -1.4931595436567016, -0.9862983586258344, -1.3136132223053556, -1.035792962838026, -1.0414974281872462, -0.9759565043280813, 0.23284813420979006, 0.8261786946411959, 1.6474345148597218, 2.215993959754681, 1.1896423685104254, 0.6372978083002603, -0.15270754377520074, -0.03449013463922406, -0.2669842965803182, -0.6981522459709402, -0.6028913671915377, 0.14199905264651935, 0.33521441752407716, 0.17368726691206413, 0.10534462666413794, 0.09424272200042894, 0.05848610670827665, 0.026487442020943053, 0.0475475103229084, 0.08040650543924674, -0.09077687475141046, -0.706363162192003, -0.7771295183457465, -0.6236890035660525, -1.0898870414907078, -1.212642862708265, -0.953277995877239, -0.4758499800270654, -0.3911200428332327, 1.3751088475236517, 2.1431929688616203, 3.149614332762029, 1.8622309041281109, 1.207270331247416, 0.4694447039066426, 0.7507799828429619, -0.15682362665658084, -0.7424673367973474, -1.076173610061807, -0.293613637162859, 0.03441165647053662, 0.11146761351713678, 0.027137945349951002, 0.060612204565773105, 0.09553538815387205, 0.13295454862066686, 0.2741698210557107, 0.6754660852837532, 0.345286432080903, -0.09140563823600137, -0.32622961786611004, -1.054329616327591, -1.435441662161294, -1.4156712777894935, -0.540992622975836, -0.14350129580945895, 0.6811602650023947, 1.5674402853718115, 1.5806262931551414, 2.8066382107334586, 2.6278548310442176, 1.8240574801499174, 1.0664917386331527, 0.08450850533364541, -0.4934053384434476, -1.3110178644077697, -1.012323341369512, -0.7102588499609201, -0.175205499002968, 0.0735108065674623, 0.1470520257806614, 0.15462447537755725, 0.144251142537992, 0.09149805503071426, 0.29781647630836655, 0.6116816813888756, 0.33795517121822166, 0.1488196138442851, -0.0954011222066774, -0.640819096279284, -1.6368506053234333, -0.8738894643197882, 0.31456233215921725, 0.4626549648259932, 0.694913635348272, 1.179213454917655, 2.0056796517303765, 1.5065085029773382, 1.3741144790724222, 1.3942496221295115, 0.47485125665475003, -1.1615069838284304, -1.6645650575261206, -1.080942351506799, -0.26625321401052615, -0.13331178988988346, 0.14061879046582543, 0.3161148334009165, 0.18798545025183222, 0.12228343053431961, 0.1602121585460544, 0.18006959932136196, 0.21081020004781134, 0.43945399279802433, 0.30134117970544233, 0.22507563616436063, -0.4066155965940683, -1.4448082439714076, -1.8286827369676681, -1.0097761017607152, -0.324454658604491, 0.2812649038453105, 0.8874534645146962, 0.2022316568217657, 1.3574755937327752, 1.5418047561316226, 2.2892022387715993, 1.0291281199679763, -0.6258963725033206, -2.9628675949291488, -2.26258997455556, -0.9349887385257059, -0.2048526491934406, 0.1490460252169459, 0.130089626323318, 0.29992036835842983, 0.3845202719188803, 0.12282540747005286, 0.027936542117223878, 0.10093352506153871, 0.15495103864098972, 0.07670261047241844, -0.027075046617656764, 0.15772499602720016, -0.4014600526890344, -1.8701155550915567, -1.3114519101909845, -1.3614249694343632, -0.6987038803998261, 0.5081818176560166, 0.9260853312160884, 0.8344044126435924, 1.7951145774384258, 1.209530250759913, 2.277070722718478, 0.01560463409797326, -2.2151568920664437, -3.4227491841608644, -1.9773613340438077, -0.6324299903436507, -0.16729648307441589, -0.18332105861056516, -0.33367783787727257, -0.05818020036628176, 0.16606853579892789, 0.24435918156319172, 0.045249644990205236, 0.09891939109868816, 0.10100457023591047, -0.09465113987462453, -0.16014214800409754, -0.07113458459428669, -0.5437164943167847, -1.8878019829151182, -1.6466356786689473, -1.016248404380291, 0.3013075296572144, 1.1556507727051875, 1.7910909128731822, 2.0280778087492095, 1.7939783804650686, 1.5560508152482666, 2.0203850423628906, 0.4117057598452329, -1.730175485607056, -1.9135288590281065, -2.085240552318235, -0.456172558346421, -0.30067550258168596, -0.1562377715520089, -0.019529341086081814, 0.2737114153532495, 0.2204532180251994, 0.13343138290190654, 0.09473827055574213, 0.09571563793613316, 0.08702048481326582, -0.04881451075871599, -0.16050299463847123, -0.5450658171745494, -0.48960975538732354, -0.9042087114348805, -0.7123576270459924, -1.7416763699693065, -0.5020460261534311, 0.21912628966161599, -0.2688450746642381, 0.07971421089103625, 0.6648545326878952, 1.9376251187747129, 1.629497151416006, -0.17292216296341678, -1.7416728122781386, -2.0100055499346223, -1.8264745916007006, -1.0455568239253656, -0.4902685692748771, -0.17670432444633563, 0.2982881637411183, 0.1400483337330366, 0.12503853696769462, 0.1044257725817673, 0.1608100873591635, 0.04678139278820497, 0.09604733478912517, 0.12159690646013323, 0.15500427762346633, -0.7154982761775396, -0.46737404439405494, -0.7047455934659512, -0.6707064930561155, -1.3933829501993285, -0.318295245489116, -0.26935591922210345, 0.09674011659802376, 0.6065715606832314, 1.7780820560278359, 2.9721292061857647, 1.313243455117651, -0.45804750389802484, -1.7027230523530583, -3.095370535646091, -2.633757495288272, -1.5565842715112368, -0.9047570294596451, -0.5603478672566823, 0.04310126575629963, 0.16261812549495563, 0.15327738766602428, 0.11255097461697494, 0.15424455472082035, 0.14135939630584027, 0.005833889397454035, 0.11091528294333716, 0.17071988587598336, -0.6280622126201383, -0.7117952386830106, -1.4756085813213038, -0.8945639434660893, -0.758718166499818, -0.8004325577672543, 0.06850034644615141, 1.1974018893356497, 2.4750057681646385, 3.165456309120082, 3.4118367669310024, 1.0672633751443072, -1.0714523384799497, -2.3984182519006687, -3.8524173187603337, -3.480360751520055, -2.228154100845452, -1.1732563948210724, -0.6582250691840383, -0.24137633386612925, 0.2851537076921887, 0.03059619831695778, 0.09689546324972972, 0.04502632964163048, 0.09143250272772038, 0.06913283774911319, 0.03927914121917924, 0.16201731529872682, -0.025885527113603313, -1.0837215626453158, -0.9438949286784539, -0.3688326582471628, -1.3023001018456017, -0.8115370224257938, 0.10749615636227594, 1.090776237584347, 2.611306909000585, 3.1810758585050802, 3.274145280641404, 1.3845789992464286, -1.730923118927087, -2.8806604803768456, -3.165422173582181, -2.73822932956261, -2.1661041698987398, -0.7402029642633596, -0.5316315903852176, -0.10407048393127812, 0.1376263068756063, -0.030738243825646164, 0.07356791999706214, 0.1301880003026141, 0.07423410386101323, -0.03227097947654765, 0.04573516422199904, -0.09201048187052657, -0.35062010954451583, -0.6441457424160348, -1.0735632985332442, -0.5184264657386443, -1.4635405213679955, -0.6321674133315004, 0.2123544774035037, 1.013485436133407, 1.3198468742786535, 1.3815968289451248, 2.638802622645329, 0.22290771373088358, -2.260685037952876, -4.031001600143467, -2.3008823264567506, -2.1885144630899407, -1.6798480933036934, -0.6292251699993092, -0.018723836756344862, 0.1325241864146668, 0.20220782414863883, 0.040445913411524016, 0.021941376754252395, 0.11578890659990018, 0.1163725398158254, -0.17666343412938473, -0.3608627298851676, -0.5653693274252043, -0.8670719936238731, -0.9392757544603519, -0.9029787212301702, -0.5144585890198762, -0.6305088183911939, 0.10746491135895979, 0.5623535218437913, 1.1098039084005529, 1.1877168010532344, 1.345584387263046, 1.1580608634328269, -1.2931724017996942, -3.051367890623524, -3.1362589645609833, -1.6484969207753335, -1.7077559049436608, -1.7590241597866298, -0.9861792436135487, 0.01684942531425067, 0.2983664884766343, 0.18553805593482076, 0.07905839430224462, 0.10995458140498512, 0.08309990597637798, 0.10376545868526416, -0.03857018501472333, -0.1167320940951098, -0.8726550699269275, -1.0698194015586582, -0.8345083097537026, -0.515425849586974, -0.839799687840592, -0.37279656469951095, 0.5187512570398608, 1.0508243610199988, 1.685834999850812, 1.4907689392858583, 1.3564084432580756, -0.7279434432713886, -2.234309078237801, -2.3062778950057736, -2.2167545064248584, -0.656862130829638, -1.179749442770287, -1.1624974596937303, -0.6781139795138328, 0.04451499738597323, 0.1506301086373269, 0.12025460117859474, 0.1371052314287119, 0.20790277934986104, 0.05407426125072861, 0.019288190180650033, 0.01408472517842226, 0.23990357098489568, -0.5856061947462315, -1.3452837644968636, -1.0332139929791517, -0.8607444631999175, -1.2050022625956966, -1.3301403877145417, -0.15943630721404223, 0.9636225346183876, 1.4421071120202535, 0.667319448047295, -0.03525857085366343, -0.8552116152503185, -1.6021640876708056, -1.4858936489306596, -0.7543143969486366, 0.09781039347402615, -0.5859469834276707, -0.8290042008801849, -0.5747384807602591, -0.18680847208735743, 0.0442112439557911, 0.14205086501358344, 0.11438811845128213, 0.14075488577095194, 0.136284818928355, 0.017726532379147418, 0.11263491176796878, 0.19829773502475279, -0.08920478149305806, -0.29588765690597846, -0.4025365301669731, 0.6818432522207751, 0.09179485549677582, -1.2328832661221192, -0.2250415654065345, 0.05928546156407206, 0.27467671031381247, -0.24370920905078036, 0.1363497687781106, -0.9576289507266855, -1.1788987911601474, -0.5150756418614244, 0.27297524053206484, 0.5504727850374191, -0.011316002105324534, -0.2760761564045478, -0.08943293024116131, -0.05755834815287219, 0.057390024262388394, 0.029844282979561217, 0.08539283019679536, 0.12687865917800273, 0.10621456299138568, 0.10734527067897828, 0.09532492295879896, 0.0658017068356501, -0.023215901703704227, -0.15722092879568994, 0.0683932507621263, 0.49850256873969395, 0.8392737317136794, 0.6470398030514215, 0.37059802718262025, 0.8492347759219029, 0.4933559558176739, -0.4034166333694995, 0.06919361215256484, -0.5728701585582452, -0.6319412788359147, -0.18748952893628018, 0.18183737038164352, 0.3194641175079168, 0.1833179330072074, -0.011958229830141798, -0.010804631748880572, 0.11387935125821941, 0.034337960074903244, 0.07107564996614801, 0.037884489133513145, 0.12432448208966886, 0.05073892660119101, 0.05826338218302122, 0.06347031287244258, 0.06397780921306709, 0.15541908433176133, 0.3822256077586035, 0.6635960660130668, 0.666719381098097, 0.572823520378141, 0.6079906823756895, 0.9100319833160527, 1.0172203090327823, 0.8173211481165208, 0.5454913553400604, -0.13468484300160366, -0.37349159185407177, -0.2574127275642341, 0.19203143652942423, 0.4998381777985858, 0.2715799242195899, 0.14211857403376305, 0.2084876720681196, 0.11615869398492323, 0.1252526173595945, 0.07933299995455864, 0.11672304109521939, 0.10949135927210146, 0.11524545169287914, 0.12826451878425116, 0.11071205788763167, 0.059681648910383446, 0.08945764639400514, 0.15958918010363832, 0.25710282188312034, 0.45666734280847654, 0.3828301477874859, 0.0031549332385582417, 0.03322195778867435, 0.5612507320673175, 0.5371789152263828, 0.4698713783773753, 0.22244645562549165, 0.2998374617126078, 0.30602615676793904, 0.32171993320794173, 0.34839071188680826, 0.39095265253579886, 0.2650943008456509, 0.12769252150935692, 0.047136469765278736, 0.10868004328867675, 0.1338737484128424, 0.12138835027239717, 0.06665141157953303, 0.14210671281491624, 0.09708046951933075, 0.10423651804062384, 0.1357152666096288, 0.027447884590176518, 0.09568995479319936, 0.13449803553600595, 0.10010437644292901, 0.11668016896002734, 0.05954792067208971, 0.15863050226669365, 0.15655583846441376, 0.04532108376158361, -0.04481765851579688, -0.06727896109182516, -0.2891797787758964, -0.20906776206164182, 0.0056529905204638405, 0.04721459444192024, 0.07637802837880858, 0.14913221708496158, 0.13037927233280663, 0.09866501097940508, 0.09056594973785026, 0.17664244435891538, 0.12881333020438843, 0.1465806553864268, 0.15575351822583408, 0.06429851340208888, 0.06779373392496023]]}, {"type": "hidden", "nodes": 2, "activation_func": "sigmoid", "weights": [[-4.589497885709904, -0.37090539769227254], [-4.59471969265946, 0.03779422112042758], [-4.5890603318686685, -1.2339201501365284], [-4.593695006720675, -0.011737382993307476], [-4.588505112747484, -0.7452031760593694], [-4.598565719941315, 0.1812025179517913], [-4.60372856068557, 0.31611244211955736], [-4.594721670126702, 0.03798886112626253], [-4.5903261851331525, -0.2588861251595611], [-4.598300536730553, 0.17285953973190762], [-4.74844022615061, 1.272419047840146], [-4.59067537823499, -0.22233796571438547], [-4.616318419339019, 0.5403644638730863], [-4.601934209654921, 0.33545190605102043], [-4.587264324940727, -0.6627428448196482], [-4.601557666633707, 0.2660705696057313], [-4.590423500236347, -0.24839457164431383], [-4.5890374892520045, -1.2218103885501959], [-4.58863004364764, -0.9689886350577837], [-4.588525156709685, -0.7011724267856255], [-4.652807239946191, 0.8644023629166545], [-4.589392051474168, -1.399132034891753], [-4.635382672985365, 0.7341389157287475], [-4.5885397259342415, -0.6912268276481875], [-4.58940015435176, -0.3881633864652989], [-4.5902992785601295, -0.26199259373955874], [-4.625820422233119, 0.6435143204734604], [-4.613631075893134, 0.4933274358446528], [-4.588904355564533, -1.1496755310493008], [-4.593855465091937, -0.0034787254780553785], [-4.606697418112524, 0.37738747181597804], [-4.589749043412519, -0.3317555585064456], [-4.588492580912055, -0.6267684461574403], [-4.59038918689664, -0.21369041841896544], [-4.586450933960532, -0.3236110780400351], [-4.583794903971766, -0.07520365706630414], [-4.576393501792237, -0.05063722176667866], [-4.563952098899544, -1.329192715408677], [-4.540143926482646, -0.7697235582211903], [-4.524778466604354, -0.7571829523981656], [-4.528661821534824, 0.06700451516209897], [-4.523889733084334, -0.129137946140431], [-4.5196382432918965, -0.1786893643950149], [-4.525337405239442, -0.17048418209477506], [-4.520256848151831, -0.10337871479987244], [-4.527758734300366, -0.8873190432195994], [-4.549178902283594, -0.9349725937421396], [-4.620327876573701, 0.8094466542361822], [-4.56771404224448, -0.5616364153250452], [-4.6446791514390835, 0.8579321318893003], [-4.584602944429421, -0.6676351905710894], [-4.630331179630779, 0.6991156504024997], [-4.588503121547992, -0.7868713629135294], [-4.615106765038076, 0.5144519772218866], [-4.590069525353799, -0.2890335066305041], [-4.5885169728745145, -0.7207817756224281], [-4.588707397696673, -0.5717075325759255], [-4.5887790827336294, -1.075225537582119], [-4.588837892378116, -0.41132565701661833], [-4.588881052170807, -0.43206360013469824], [-4.607134305822874, 0.4332963182864006], [-4.58633603197509, -0.9378830483075866], [-4.60060096682098, 0.5500249083778078], [-4.5354386360470444, -0.6250630336171904], [-4.537660450304294, 0.6539558024708031], [-4.41024617572911, -0.08610993201531662], [-4.333321018723014, 0.4847248996512422], [-4.628323700139511, 1.4482403974029394], [-4.0533258260485105, 0.13782512035352196], [-3.857288691253513, -0.7621035309520261], [-3.809603699723693, 0.2501880860781079], [-3.761702560708226, 0.31944027767754996], [-3.619743275619558, -1.001473632726513], [-3.691643797671311, -1.3229758309071245], [-3.823851700906135, -0.5429051089528985], [-4.0223410772337695, 0.19339817592335862], [-4.200206292971605, -0.1002494573248907], [-4.359368862567998, -0.6266279412351317], [-4.593081917610338, 1.0273324715636107], [-4.56552265870542, 0.24066199615728714], [-4.574944845365671, -0.56460541120826], [-4.5850639703842795, -0.6182454996062414], [-4.594382316562644, 0.022329732747988832], [-4.588526160149137, -0.8527591779516218], [-4.58872558100113, -0.5634507855524414], [-4.5885202478508225, -0.8423530867175594], [-4.589319563394395, -0.22515652773845943], [-4.594551803796822, 0.12558600567245887], [-4.584065682317287, -1.1538849073590693], [-4.562579540560188, -0.42360981589768854], [-4.531573519822299, 0.3811303013027604], [-4.394502820269119, -0.7080200465022043], [-4.25745405479339, 0.4358827630529391], [-4.336609166016642, 1.1697406393384089], [-3.7421206986326774, 0.26623949943880354], [-3.442530766677541, 0.040865678318565905], [-3.0718705200154526, -0.7722699357615587], [-2.8096909237680032, -0.7177721100085918], [-2.5188994273130776, -0.8981726461817324], [-2.3795498552210095, -0.7383685942889134], [-2.7935587222681395, 0.058358677273160346], [-2.5439491590382683, -0.8441021773656499], [-2.8009083306177467, -1.9141097785935255], [-3.54512564297032, 0.5601261796093743], [-3.5586617243609946, -0.2662433378811769], [-3.926589036023424, -0.23051822273194655], [-4.243041460322183, 0.02369596804081374], [-4.570337991715942, 1.0504859064785468], [-4.52721676391959, -0.4884760531091639], [-4.577281231711062, -0.9295433038210148], [-4.587618654659145, -0.5564559659721664], [-4.594952421837931, 0.04832942547810018], [-4.605397539459697, 0.35169447519082503], [-4.785549824947759, 1.3744190587679161], [-4.587452692727966, -0.34999124388776404], [-4.615597396908221, 0.5892043157472633], [-4.5661839711510765, 0.11138334344943784], [-4.44406777984377, -0.11984214213003826], [-4.2399374837246135, -0.5065054158227346], [-3.921264212399047, -0.07983335840795172], [-3.4668485963103093, -1.174191481237585], [-3.231646304773574, 0.1478839575795422], [-3.375750551174964, 0.6101734759412274], [-2.4696007159905973, -0.15650718799501512], [-1.81296026155934, -0.9590026821099523], [-1.5324249708257047, -0.855075577943757], [-1.3059033965629927, -0.7830667446012558], [-1.1230659468054955, -0.7922110618644913], [-1.089918504969957, -0.73916238416182], [-1.2298238261085215, -0.4355083591740867], [-1.3306899296423864, -0.8787627994267082], [-1.76251169734733, -0.6879775862006546], [-2.3951028907698158, -0.38260242073712764], [-2.96197903888426, -0.33721173407344635], [-3.501273455495305, -0.3513705127787393], [-3.9801785258162004, 0.09523649373771519], [-4.294919250946114, -0.19555936087183576], [-4.509460151726884, -0.44511147403055096], [-4.5832312645846205, 0.047206298106880595], [-4.59008615352389, -0.20287720746951488], [-4.5893332105847975, -0.4000758838953177], [-4.647603020287259, 0.829079180619472], [-4.588042513046649, -0.10245036825859424], [-4.569456481515403, -0.023775713535003337], [-4.474480878396502, 0.422597914544959], [-4.164702486485625, 0.2267136428595401], [-3.6738656840121564, -0.957193378554364], [-3.1567511257044094, -0.5086874090607206], [-2.5299005394637333, -2.1851656772402674], [-2.38746312423333, -0.19830548274422258], [-1.794863780173107, -0.675667559712349], [-1.3998666728428137, -0.9188897968386349], [-1.0490747681645716, -1.0979661790934652], [-0.6963177490469022, -1.1817072544804723], [-0.3975547332472072, -1.1872563461096073], [-0.18800156090842465, -1.0986995843638383], [-0.13720723311694297, -0.8776668698693685], [-0.16686108063008048, -0.6494077794887013], [-0.28511161569928173, -0.5257260409086828], [-0.5670238747834936, -0.36036594661562], [-1.051586841842466, -0.4249459378725337], [-2.0428174864968907, 0.11789669818284734], [-2.5714621232922896, -0.15886184199728332], [-3.2175800404229453, -0.11159426505327695], [-3.778656293449749, -0.4744717761890471], [-4.513248206801131, 1.1703625707260046], [-4.551140937027158, 0.3256223072659868], [-4.605596411111541, 0.3900877855284311], [-4.588504560834095, -0.8019081654747089], [-4.588531172308241, -0.9475186518669372], [-4.579786879896607, -0.26848016149582904], [-4.649403427313959, 1.1433493098413778], [-4.2203817135112995, -0.5176053757041028], [-3.7404443029837595, -0.27063203374027517], [-3.1374223626456246, -0.5503335386802999], [-2.598662272998904, -0.39722579345028664], [-1.9511563692002099, -1.200293088164502], [-1.6720848795953338, -0.7405390858287245], [-1.1886623656419313, -1.1040929168219933], [-0.7839334030629361, -1.3570049477339974], [-0.42279904835800397, -1.3164361155232156], [-0.10973851021369528, -1.2324880886529614], [0.11948236710035588, -1.1117260434701368], [0.22387849251151126, -0.8600029330068711], [0.2068052503139536, -0.589628539214844], [0.20280695823729983, -0.45516382171246306], [0.14236084222390857, -0.42119829669624126], [-0.003896925601954233, -0.45089338245491306], [-0.4009218809504952, -0.41981878383159926], [-1.1402897648035812, -0.2408663843714765], [-1.86827203343391, -0.4861083595542565], [-2.6231583982909616, -1.3202463926674983], [-3.422209120792026, -0.06968029793845948], [-4.031107425438119, -0.3652318481204056], [-4.451474489994909, -0.4602563516087068], [-4.591030806137298, 0.2739563887889494], [-4.594936698747188, 0.05890772705980997], [-4.5886700154519895, 0.09119566459426114], [-4.57829396396774, 0.5403628730498533], [-4.390229597735169, 0.11766287216464058], [-4.05198824962592, 0.6023058995255903], [-3.4219913520747514, 0.11661593870323474], [-2.7647482553487976, -0.19741817484300633], [-2.1800704344239263, -0.4802958659780274], [-1.7381633891044403, -0.6124129128836057], [-1.1922485590695013, -1.0209568722410727], [-0.8152030741593977, -1.2266964918105945], [-0.40231599425989845, -1.246564041433756], [-0.050904491685424894, -1.0854691626185335], [0.16697739139888068, -0.8316749411717523], [0.22936268843485186, -0.46353230059368333], [0.19214770635607273, -0.10678245130721614], [0.0687755418657156, 0.14044277457542154], [0.05559486937502023, 0.1670137554707331], [0.08426172208776846, 0.006228844121381482], [0.1244783095746023, -0.20884999461471226], [-0.030522117116427976, -0.4301570620928534], [-0.7102444143288318, -0.44732927058815974], [-1.6976277652485163, -0.16960492160905563], [-2.454393709073127, -0.3580388395423802], [-3.208177592597084, -1.0645060758338543], [-4.123260921726841, 0.9342981688855689], [-4.408700506733816, -0.19016840838320306], [-4.577439753506935, -0.33427958480050207], [-4.588465643619892, -0.30929587159965755], [-4.576976296458731, 0.07264728171210715], [-4.501899112157766, 0.5242203073569002], [-4.190848826454339, 0.2050563185230792], [-3.7694381504879524, 0.3626076427721198], [-3.03287435317187, -0.3535121255922384], [-2.3265853220352297, -0.7081786739725354], [-1.8618226252030854, -0.5963975231613684], [-1.3907009056280035, -0.8297880907295666], [-0.977869022298306, -1.0695469858405426], [-0.5751972772971973, -1.1277878561948769], [-0.1728691009010965, -0.9879346978631409], [0.10875485651498347, -0.5853959729254201], [0.12981600243855065, -0.1398493752457581], [-0.04932086418429146, 0.21290877892202192], [-0.3432365319923139, 0.516725689162442], [-0.452541504395989, 0.691340125960492], [-0.4217383312386246, 0.6209354929837061], [-0.20275453255350348, 0.34336020178727106], [0.043720184517769066, 0.028093432268325478], [-0.01489553271643618, -0.3484974544651808], [-0.6075446737872137, -0.46860571303366383], [-1.6599464147427418, -0.21529826392502638], [-2.6211801263213905, 0.06539655937019283], [-3.261443831852756, -0.09763300215951073], [-3.8978067621282624, 0.009975851349250624], [-4.48734925190424, 0.8034602386061043], [-4.578140454655047, -0.5211998545460367], [-4.587707418143992, -0.3403259239624014], [-4.55955104667789, -1.1754171199010381], [-4.402234495969385, -1.1519366313817636], [-4.119337798682359, 0.4070122023726183], [-3.5210942018596403, -0.758542192688637], [-2.8691537801356453, -0.5519976827380233], [-2.166296881090471, -0.6212903038115186], [-1.6484665141995778, -0.6730035344571023], [-1.1597400610843513, -1.0330814512835702], [-0.7854883989761529, -1.0982591079765927], [-0.3762736949246386, -0.9360599873436052], [-0.03416978896268046, -0.577206262665255], [0.03523067247299202, -0.11101810372625695], [-0.19719413941013872, 0.23359940560212666], [-0.6271265563425872, 0.5751746154574797], [-1.0128414779584058, 0.8934862268980623], [-1.0561507811536275, 0.9644719839869826], [-0.799288372981119, 0.7533655801603875], [-0.40806981355636096, 0.3961983691875192], [-0.0597576627241088, -0.04539999622515137], [-0.08710120364808327, -0.47237476459828354], [-0.6687070330044402, -0.7867631710076575], [-1.6557385515870882, -0.4755482473154499], [-2.5538814395188494, -0.3895669912485563], [-3.367794499244134, -0.6281449965047079], [-4.030768229850288, -0.2943783468375047], [-4.496145271277732, 0.5561052490831836], [-4.578781283844144, -1.59634488833117], [-4.615383156447747, 0.5581577865753711], [-4.828158502998597, 1.512921785958334], [-4.449865327520623, 0.6006715346664258], [-4.063207978606788, -0.5022254741486749], [-3.5557868484631205, -0.45816888383217086], [-3.182621808768076, 0.2980720177940636], [-2.2180010862877606, -0.3555746366984159], [-1.4938488167831678, -0.9103065131742313], [-0.9915517509514487, -1.1769344409025742], [-0.5718777967363565, -1.0931022319398025], [-0.21669435006271207, -0.7382683979383065], [-0.0020473037577673015, -0.2928327054849361], [-0.2020994199622119, 0.08004440723402928], [-0.6513452227769585, 0.3395572885323647], [-1.2928859070335017, 0.7722978080614585], [-1.5258838517718918, 1.06564648272659], [-1.2804564192882066, 0.9767612815958857], [-0.8564828030219692, 0.6650664430471379], [-0.38020413290268784, 0.289627477774393], [-0.0664925517076435, -0.21910592041750532], [-0.13249379183043458, -0.671493044627651], [-0.803531514267312, -0.9709866284899715], [-1.5852883048440198, -1.1608388362474336], [-2.9717992459502955, 0.19087452227911], [-3.5652017042307276, -0.09268805026353907], [-4.214211112417284, -0.8861126705258464], [-4.506666974690508, -0.32705986198166803], [-4.582722091804832, -0.2893578126259796], [-4.589609272751784, -0.1164322233341072], [-4.5582503963143575, -0.7893881612832798], [-4.435278979914485, -0.30139686076278144], [-4.2889513919893005, 0.7525807990911333], [-4.029649658044192, 0.8793961587442777], [-2.8345577398480355, -1.1703781756156277], [-2.2361853661595164, -0.37764179962852623], [-1.4013675226191007, -1.105870176875455], [-0.846597484544669, -1.2610943471806617], [-0.40304113019789584, -1.0494139494987376], [-0.06386927139308282, -0.6423347981579586], [-0.045716691239002544, -0.23861634021484143], [-0.40265522164964784, 0.026608012649468382], [-0.9429230207605268, 0.3098447954052291], [-1.4565205443375207, 0.752693981827477], [-1.422399137975148, 0.9189054827476593], [-1.0569644216743082, 0.8250244516560851], [-0.6076924778420191, 0.5900457111031342], [-0.14851006232805317, 0.11162673377067558], [0.031455755922022016, -0.5042578395476042], [-0.27933485826363175, -1.1544654019621783], [-1.0216235425874765, -1.081965289873423], [-1.7817955955295073, -0.7917958979777958], [-2.6061406487952032, -0.6353509827300462], [-4.1032853030899625, 0.9955282278054499], [-4.375340081572369, -0.9585444967077872], [-4.543833025291204, -0.21498487523071128], [-4.585369837564513, -0.8730208363006605], [-4.622832078121781, 0.6270842389821188], [-4.571421294322463, -0.8445718510826384], [-4.497991255930385, -0.35864301392189013], [-4.329058143829714, 0.40648987384465735], [-3.775405449849285, -0.6601068752414224], [-2.8581820509931384, -0.845817031646421], [-1.8785883883346592, -1.4000895747455413], [-1.2284837315279293, -1.483029204023317], [-0.6264731389565111, -1.4052695832313897], [-0.17487257917354532, -1.0604570083142295], [0.08770395108459415, -0.6649324131928934], [-0.11594038330354152, -0.2459133054781782], [-0.4943934537476284, 0.022281026220186344], [-0.9833847135533799, 0.32472042484391156], [-1.1545832763997799, 0.7170661518893404], [-0.9399690298310157, 0.8385119324927915], [-0.5937393421414489, 0.7597614582726429], [-0.1895507113527116, 0.35709315363871297], [0.1297882626560773, -0.28392907237858345], [0.09202873401363103, -1.1242628221418907], [-0.47224003015612115, -1.5406549018711981], [-1.1200126247460944, -1.3884279552148082], [-1.765023351448533, -1.028000614141432], [-3.1285534739141743, 0.2353269692053561], [-3.7590598813054172, 0.4383042955214604], [-4.436008521141369, -0.026358354097182304], [-4.574462450278916, 0.3143662146885261], [-4.6806658163871155, 1.0344329250211364], [-4.588296931081478, -0.7184697345737544], [-4.680176417253937, 1.0423831576406248], [-4.544350821478508, -0.13266470226998361], [-4.3717082285096875, -1.4454578176094526], [-3.826623110506724, -0.1510783540275028], [-2.976440465098945, -0.11142224270649367], [-1.8503046404740646, -0.881495825811793], [-1.0643274481452492, -1.4879574947489764], [-0.43564490311139314, -1.4239965969762485], [0.0039763488290821564, -1.0623126616021343], [0.07618121236182156, -0.6861692605516044], [-0.21511752520907285, -0.287220920749536], [-0.5590880391120436, 0.07804260393044307], [-0.8103294737566468, 0.5351629025177441], [-0.8298313845034887, 0.8283377102987192], [-0.5977696936688793, 0.9209034148028598], [-0.16717220108740619, 0.6297123740038896], [0.24220589356159805, -0.08418738091443831], [0.4645554456599833, -0.8992579169570833], [0.13908122967288206, -1.6848957522384247], [-0.5003354236270837, -1.8901499075991512], [-1.1465413672149414, -1.3093153045666854], [-2.1003801013456744, -0.4165775585689267], [-2.4775131634843923, -0.7107120609508637], [-3.4171417666626844, -0.5794493086108987], [-4.391591729495354, 0.08022391236785748], [-4.667621540970925, 1.0856907522112849], [-4.585163420298882, -0.36445380632056723], [-4.587963069521447, -0.5755730391345687], [-4.643957690357141, 0.8220675032869922], [-4.566818087133155, -0.9452703535043983], [-4.416918911285301, -0.7580151001402675], [-3.9380384712771557, 0.5335739831278395], [-2.7406688830127703, -0.32084769127920976], [-1.686015648240031, -0.9987178068474923], [-0.9364517260584212, -1.5925345202084227], [-0.3572218802366609, -1.4883467773401247], [0.010490044245953623, -1.0739080658142668], [-0.0864509806036738, -0.6889251408957777], [-0.3496930442286126, -0.21736563906001366], [-0.5516446448363589, 0.28163361828975364], [-0.6673242743935354, 0.8447817415953406], [-0.6057385835071708, 1.0946508814917102], [-0.3083596626079904, 1.060079664222017], [0.10867243312197516, 0.4256513725488944], [0.47356036316923317, -0.38882448847912476], [0.5675491236047192, -1.340584474653907], [0.12219703932102996, -1.9679833975845238], [-0.4962081298290983, -1.8521384132169547], [-1.0295262820990527, -1.644894661516549], [-1.852828947157871, -0.681011726697011], [-2.535504617882503, -0.443528574963], [-3.366174257895629, -0.2267631071204557], [-4.317965329821594, 0.10234645947259015], [-4.55350128448191, -0.33480240503486447], [-4.6182155420105175, 0.5664435472338708], [-4.5973806114024045, 0.15181815887073552], [-4.590993599008499, -0.08824379241634513], [-4.593962043066244, 0.45122686287290986], [-4.4061343099932335, -0.3400212448877527], [-3.6468366878665237, -1.2070794046827855], [-2.304947927504506, -1.1778485702387713], [-1.532451628672725, -1.1064825904924036], [-0.7799176790760131, -1.6702324581105759], [-0.2823172331475871, -1.6272395604375158], [-0.03889872405821648, -1.245602890844159], [-0.2306213288391457, -0.7195985902940942], [-0.4453383233512552, -0.2480816232796736], [-0.5399164972787831, 0.32976099609565795], [-0.542702201971317, 0.868427125622154], [-0.5142909493166472, 1.1257522326863347], [-0.29921056190260276, 0.9995061465882976], [0.036892725145250146, 0.3703343759291127], [0.35036519770629937, -0.4605055061484188], [0.4402433966599583, -1.5546333170143862], [0.09360235141416409, -2.1237609860744304], [-0.4507552177522829, -1.9800346834038125], [-1.00007449318681, -1.4813893421010227], [-1.7230311338012516, -0.8741752037832861], [-2.6863871315137127, -0.18370079557926347], [-3.350646104579441, -0.2888434870971141], [-4.474798258781252, 1.1534348157624774], [-4.547288924247751, 0.25795779369833866], [-4.715038907529736, 1.173794559567245], [-4.60603313043515, 0.3690289236105627], [-4.599608483694406, 0.2504662100142827], [-4.560519925054476, -0.3958936682674674], [-4.397234614967722, 0.3729656620055017], [-3.4917037336548633, -0.760023389484817], [-2.693940458188023, -0.011961955731519348], [-1.3283695528342738, -1.1477438166984162], [-0.6559407362778664, -1.5641030700018754], [-0.20661605412237763, -1.6523344780109246], [-0.1308307537599447, -1.33198917806155], [-0.3153669525635277, -0.824175512799973], [-0.4626911654257611, -0.3250793478706777], [-0.5150456095630682, 0.2939859275621516], [-0.6020758117049613, 0.7697646208808359], [-0.5704529414908329, 1.064654372231643], [-0.44055131030646694, 0.9810324482429094], [-0.13152357237917914, 0.3761458446706398], [0.18068145310974104, -0.6666248829983404], [0.2751807093561526, -1.7344304127848633], [0.022312036526207897, -2.154702511489603], [-0.4223487760064126, -2.0076670425679706], [-0.9844451334160863, -1.5518624358536464], [-1.8903619243112393, -0.6126347179385837], [-2.711388389145997, -0.20769979308365655], [-3.3603540527392077, -0.5197834146793964], [-4.170853049590019, -0.5974213375582913], [-4.523379959218714, 0.03578392800646307], [-4.596326626888205, 0.2543534543429667], [-4.661112199709598, 0.9159337276799596], [-4.585845142364797, -0.5817640573049309], [-4.558002360973129, 0.21001390069152293], [-4.354741231944981, 0.6952491012643919], [-3.3257644476306156, -0.165610578022399], [-2.131086392982072, -0.5929971443304991], [-1.2290876454447395, -1.131095766565526], [-0.6070888088645424, -1.5788961078857753], [-0.31751383996576116, -1.522499759632825], [-0.3102916138422633, -1.2478418583874886], [-0.4585960034158373, -0.74392285272056], [-0.5519156651004413, -0.12045335590255675], [-0.6302875686480309, 0.4452663365828335], [-0.6945938411471289, 0.8693999685002884], [-0.6862172811504533, 1.2568167800242367], [-0.5476279783550356, 1.0581334475184305], [-0.1939160703514389, 0.15791326731475983], [0.13788712189383995, -1.0847854234043859], [0.23788450019775229, -1.9498244644451042], [0.000818419993853797, -2.196829651707636], [-0.43908372627999104, -2.0617840513730723], [-1.0326866906899486, -1.6045887513995032], [-1.84421608669692, -0.7950532044836375], [-2.9044991721474998, 0.017259642126060674], [-3.425238857590797, -0.7280067034833368], [-4.1422551446124904, -0.44165260066106093], [-4.515217318057672, -0.06779873259078015], [-4.585226289592036, -0.6027475756361836], [-4.653250217445073, 0.8725519491623508], [-4.634170989649854, 0.7403836668011592], [-4.526858396443113, -0.00013130801578570666], [-4.163056374205031, 0.3232230786668635], [-2.9902462688393885, -0.7280486443126084], [-1.8234346533299088, -0.8996985751636146], [-1.1614743925229523, -1.0687423738415223], [-0.7059604365346561, -1.4855218867622966], [-0.4891663632791923, -1.376210228823938], [-0.46746107793393155, -1.1074042650011382], [-0.5746366384617296, -0.5269434876768085], [-0.6722285422792708, 0.08930337403674982], [-0.8082618170011315, 0.6288724425266758], [-0.8241841317749683, 1.0889516455950699], [-0.7432646393671689, 1.302167068454629], [-0.4741527252143231, 0.8185622260021957], [-0.07277965524341137, -0.3429217124111184], [0.2506607881708653, -1.5144378833506753], [0.2755760847675805, -2.1666794844984656], [-0.02843350188237364, -2.2615796553992573], [-0.580492791172993, -1.8803083651303174], [-1.2263152316718628, -1.286626240106451], [-1.8492809657705094, -1.0671922982738926], [-2.598691868030752, -1.50281068338622], [-3.520466847253074, -0.37628603912501507], [-4.176752832416662, -0.10567377236664766], [-4.5696462928384385, 0.6326141642163277], [-4.662976091976183, 0.9493882852855899], [-4.599138279681629, 0.2016811425609402], [-4.595375470688872, 0.23054191317357295], [-4.4918551279029515, 0.0707153760049503], [-3.9970114186994237, -0.3421910063812791], [-3.110537545165342, 0.05758225218288255], [-1.677698951185478, -0.8779440638388232], [-0.9713511431071161, -1.3278137672667607], [-0.6655859613875913, -1.275545386630503], [-0.43924293618133786, -1.3168956552922957], [-0.37136601473852604, -1.031090958419681], [-0.386559824038201, -0.5081986169186786], [-0.5313102678152855, 0.10754853362118663], [-0.5602802799040458, 0.6131709821514889], [-0.5458066103619383, 0.9210403106123473], [-0.39464088606421344, 0.9019140347054466], [-0.10839872426312902, 0.14739800149120327], [0.19982647225401046, -0.9561077382018776], [0.32985377569637037, -1.84890224750399], [0.1908418564333739, -2.295749644726004], [-0.27612971218969334, -2.1829132513163025], [-0.8512092279271557, -1.7171363298450208], [-1.4198416807775294, -1.2788901269417625], [-2.190823925257339, -0.5415957847651002], [-2.87262445589799, -0.7153147143257148], [-3.945024441582455, 0.7823813524382818], [-4.272522642981637, 0.438392809583971], [-4.531861450140327, -1.2656523597521596], [-4.58604779992731, -0.9406580665495838], [-4.603071963890605, 0.30126424247254613], [-4.587702305912801, -0.008001103988162185], [-4.483156014633584, 0.2472094543337002], [-3.9632933946496953, -0.1238585727973179], [-3.107111332882864, 0.006016880430815577], [-1.864732720633809, -0.5181727589634304], [-0.8178896708888945, -1.2203247770960701], [-0.464534702700488, -1.1794380427059803], [-0.22351903486475033, -1.1060404083903221], [-0.09024353468596463, -0.8895988067314781], [-0.07306852692339742, -0.44310694772329434], [-0.10292099969983452, 0.004877690089846422], [-0.13374539073617184, 0.4225080389671257], [-0.12533933448450163, 0.5992815467990119], [-0.040478555347855515, 0.2514867314345195], [0.1614394128782123, -0.5578693612926374], [0.31308717299813527, -1.4415344256387748], [0.1611831507900238, -1.9689043656047467], [-0.2260992969332419, -2.1130464645309246], [-0.7023457994812881, -2.000858444974609], [-1.2097394938863297, -1.3660274256941742], [-1.795088979237363, -0.9272605022151016], [-2.488956933860996, -0.5343317993464204], [-3.1978839978638347, -0.6517279596505393], [-3.8746693406671024, 0.2062723571270836], [-4.322702992151722, -1.2459436353918818], [-4.54465845458427, -0.5241358374553403], [-4.650611564034244, 0.8544821886151339], [-4.5903146317984085, -0.23881329238366447], [-4.583791542477878, -0.5792251060191503], [-4.490574447945874, 0.009478170012473015], [-4.061574172017252, 0.057676186146814114], [-3.5252248484204745, 0.45449846120015935], [-2.1325778754301985, -0.4370107620902125], [-0.8705710284905235, -1.486770997514625], [-0.4136642104518016, -0.926032358531231], [-0.08726650453041139, -0.9332175347379607], [0.01720176053814377, -0.7026274161922167], [0.06608215224248265, -0.3138632669362496], [0.03863427403935371, 0.023851277230549126], [0.04517473736620783, 0.25749653623835267], [0.01716716540936975, 0.1884457331285856], [0.05118305158041746, -0.3243241358795532], [0.08171407811742337, -1.017302191910428], [-0.044011814000440394, -1.5703254225977457], [-0.41490645964902256, -1.8246892139552575], [-0.8256740875076057, -1.8063814417607815], [-1.196851197180232, -1.3898800800160966], [-1.8063014114694316, -0.697718632256908], [-2.5797635852644, -0.16526371550260244], [-3.0042709639933567, -0.46822836020383407], [-3.5561662926588404, -0.6970839054216897], [-4.05307746936303, -0.6851162934262379], [-4.547133245167674, 1.0119392837785401], [-4.567576500322152, -0.24750050184671807], [-4.6049991673982635, 0.348179983399416], [-4.6001791212610454, 0.2335717530458452], [-4.619534013996761, 0.5766534528843495], [-4.553463969338587, 0.5709354390781917], [-4.24368052601236, 0.036157597954574384], [-3.605780101447547, -0.8005484431056924], [-2.7605668167898747, -0.321781105167012], [-1.6633112850044707, -0.43267186433374666], [-0.6996544913465608, -0.6711656082873648], [-0.2908759346970417, -0.6574674450583491], [-0.11564496919505417, -0.402493591225024], [-0.05799549618301631, -0.028496440457009914], [-0.041813979539133156, 0.23823680040005984], [-0.1344233466437122, 0.2598327362898344], [-0.21992412857689014, -0.035109989226692916], [-0.29893828437929626, -0.5038215285037596], [-0.4706694761507802, -1.0035077878948193], [-0.7540690430075152, -1.3362489741336436], [-1.0547101985830665, -1.5695461622879845], [-1.380156388505663, -1.295474565691245], [-1.6953162614130188, -1.3406581919727254], [-2.4075826327645222, -0.47516645853432743], [-3.0199169736698126, -0.32620108565174893], [-3.495342414800137, -0.6394040800951502], [-4.0024429136855195, 0.3672026869869679], [-4.297330836787579, -0.7902444750789239], [-4.528615692203105, 0.1931985662348964], [-4.581608270742859, -0.9542756366983276], [-4.588240806632855, -0.5835308180310763], [-4.58897813696466, -0.47951235839810546], [-4.590821710584237, -0.20846676558767732], [-4.572663465156318, 0.1405584426658057], [-4.437704008640989, -0.22792974129523816], [-4.260428352960414, 0.9056482736696555], [-3.511189142473777, 0.0010683722075572897], [-2.7381282814389203, -0.2097842891150104], [-1.8252151818999585, -0.12319984863688532], [-0.990141221824583, -0.2409672172664014], [-0.6529421677190502, 0.1290333702144265], [-0.5312993076436331, 0.3450988154381069], [-0.551008399869707, 0.46141631565825697], [-0.6478489898501687, 0.259602522078947], [-0.7012197735342773, -0.046559143950901105], [-0.8849418788392619, -0.4300089605819624], [-1.1455227321258086, -0.718226489654078], [-1.4045716876968222, -0.9127638747467941], [-1.7380531869886278, -0.7543192244717126], [-2.0706142036780584, -0.6563496410419569], [-2.8532863370780013, 0.06071536901971026], [-3.2435615406867595, 0.07081386508909504], [-3.914482125103151, 0.7386484691357601], [-3.961611385830448, -0.2440744960812656], [-4.255759201433106, -0.5054442528687252], [-4.4715796629462785, -0.9128927649104988], [-4.571186678019866, -0.009386709476490602], [-4.584805386928537, -0.6106707996460934], [-4.588843917580223, -1.1144898890101747], [-4.58850630179866, -0.7442136231198958], [-4.589287432004337, -1.3477895363049364], [-4.583335153522836, -0.3423387271980438], [-4.542555581682996, -0.3679273911061595], [-4.402906695232276, -0.005686744770973149], [-4.126502861746093, 0.20022714873853256], [-3.584539113743497, -0.5329638579251257], [-3.3649117208070383, 0.6297847531763172], [-2.3567049104019904, -1.1322698566793796], [-1.9632707120446764, 0.6656389146180873], [-1.5256636342069594, 0.5962866300723877], [-1.5015134808841402, 0.6903082154525192], [-1.4332017681839444, 0.4435007340476813], [-1.5525052465165, 0.20938641674122072], [-1.7338914504156697, -0.16783710623796202], [-1.9969138632412262, -0.2709019369474757], [-2.1782844575960123, -0.38540717536619024], [-2.3200539761949717, -0.6162252010923104], [-2.6469206930696902, -0.9007893465796806], [-3.29828295089908, -0.02836398874162344], [-3.6398967219113665, -0.49934257218797146], [-4.005255800505258, -1.0936860042803118], [-4.378070165084267, 0.8033933296991459], [-4.441523920435247, -0.8756491297703989], [-4.5623962518516405, 0.2463783596089323], [-4.579770629673513, -0.8667179042899643], [-4.596714017657946, 0.14358621533981825], [-4.6064464722538006, 0.37257203221622126], [-4.588844834173394, -0.5192009806006408], [-4.592077971139338, -0.10802894281763101], [-4.656448178127829, 0.8910785683611714], [-4.588369091423998, 0.05137982442475159], [-4.569937467166303, 0.5114257618480388], [-4.4307330723699785, 0.09662403550476713], [-4.193654599878035, 0.38617700067979877], [-3.7809254588426158, -1.536895451647337], [-3.3615664673491135, -0.8472655158685994], [-3.3463501642599027, 0.8570220043870336], [-2.708630766411448, 0.414631763002531], [-2.7014469372937215, 0.9546936853608262], [-2.3168928350017515, 0.3280950188348062], [-2.3299401825285866, -0.3639581546250733], [-2.7971717079150054, 0.32005432730146105], [-2.7479724433783606, -0.1878991729367961], [-3.1073436287215292, 0.2189910443259101], [-3.076166103720909, -0.5557719390667041], [-3.94853314882064, 0.8808213094827564], [-3.7683011883397546, -0.5166055049807629], [-4.084167929059501, -0.28847087847659236], [-4.309387484962606, -1.0819406431166716], [-4.518002398621874, 0.7328992629957082], [-4.536304905049067, -0.44194977304339933], [-4.57624162790811, -0.7244251623125741], [-4.590483802020777, -0.1200203381835984], [-4.595673794660884, 0.10344782314831551], [-4.58860159983856, -0.9440498737230396], [-4.589178976264223, -1.2941042241516751], [-4.588662178153021, -0.5928462710276989], [-4.692402872775338, 1.0728328019384565], [-4.5890497657403415, -0.4136894885720085], [-4.601130976334958, 0.5020179381422355], [-4.529284458339962, -0.1827858588015594], [-4.399843377581433, -0.22375053558972444], [-4.204771424255219, -0.17908989070926506], [-3.9484398747350227, -0.1097785210857346], [-3.7876620402254426, 0.44279773143650025], [-3.6416023895274683, 0.7055698397429403], [-3.3312092287157533, -0.7445700930078052], [-3.235355255013977, -0.2750743097155587], [-3.2959827773250314, 0.021356569256372686], [-3.3939203098116093, -0.1793709789141409], [-3.5281976770778587, -0.505291031085484], [-4.172054484078462, 1.082360628827495], [-3.860938827294474, -0.3396816670561011], [-4.0780179116764455, -0.13841714713772713], [-4.252642576904581, -1.1099968522955947], [-4.4333632048154135, 0.45445069961203877], [-4.554176702380977, 0.6977223457221757], [-4.56308522016982, -2.1457326557755465], [-4.582629754082956, -0.5902356034899439], [-4.599446746417715, 0.2139448526533183], [-4.590566159278905, -0.1936281840958329], [-4.590152422075326, -0.27904354132393333], [-4.595748669712163, 0.08192708458223256], [-4.603963106650905, 0.3213090512536584], [-4.5946027388401225, 0.0326096675170659], [-4.601761331984854, 0.26983515778032147], [-4.590519651986502, -0.2381299077946005], [-4.598559954547994, 0.20997156288316476], [-4.584750694132785, -0.21367964531605924], [-4.573017107481465, -0.3715496247516499], [-4.5536524976183115, -0.9287969966267396], [-4.5560867285788325, 0.32552603514571327], [-4.513855010142757, -0.3737943912635846], [-4.523420045785138, 0.7989739673350736], [-4.432525952955905, -1.1342589687078628], [-4.449300043833533, 0.6342696021814448], [-4.693824792755753, 1.4564209974894509], [-4.359515110631691, 0.12603411261258443], [-4.379994354041259, -0.17588070548361168], [-4.425815437718034, 0.20973450220507242], [-4.457934320965325, -0.5658896854259238], [-4.547261050323628, 0.547067524106886], [-4.668455127815346, 1.0785650035748175], [-4.581142315160196, 0.15188512332191606], [-4.605693135175149, 0.471992706377051], [-4.5830230239799485, -0.6165181770307699], [-4.5878991743020014, -1.0088162282378401], [-4.616691886736224, 0.5360617381512535], [-4.588542731734516, -0.6796207625318695], [-4.6045117012455945, 0.33320400313102794], [-4.588503295114463, -0.7891072298026456]]}, {"type": "output", "nodes": 784, "activation_func": "sigmoid"}]}