{"name": "hl_2_bias", "layers": [{"type": "input", "nodes": 784, "weights": [[-0.30482026691774416, 0.14870543329273184, 0.7317079794688759, -0.4575028211964421, 0.1757444213008984, -0.12695071427171226, 0.41947288766666896, 0.42905284477273326, 0.9881816094469579, -0.21679967746541828, 0.6742984277399963, 0.5192506875768337, 0.011283203613830076, -0.3756982152209388, -0.7162453467412595, 0.3396553054368835, 0.5475952559094227, 0.7059465427581427, -1.9164092313005852, 0.9463256776861734, -0.6780060365931003, 0.8192460987275331, 0.7084370548729683, 0.6120714382279091, -0.7772760161948296, 0.5081686804025202, -0.25261288468670867, 0.06701022580094884, 0.7429899265744836, -0.7901810977240786, -0.9807339762478073, -0.39663862916992954, -0.022310408476257076, 0.0950659727745217, 0.5676867889048668, 0.5262793082207591, -0.04825783493962445, 0.07555624273650127, -1.2842801819132075, -0.1593064955799423, -0.13631915339330056, 0.19324623015011297, -1.6128421327627278, 0.044559637153878895, -0.36420462907136325, 0.14470402725510037, -0.4724988839589921, 0.06868195349609338, 1.0663558347665332, -0.0897443817968981, 0.8157050559990611, -0.07495320801207185, 1.2804783012337044, 0.18629153766214424, 0.2586353763254142, 0.23975855563755175, 0.3920518211563115, -0.6779567450789413, -0.32818244749519787, -1.5944570227931019, 0.8875010570974751, -0.23081383325467653, -0.4997300940193631, 0.3840850603317074, 0.15742469233761863, 1.5772184408136598, -1.3807417332932281, -1.432739053564834, 0.18821858651278806, -0.3462768798528751, 0.29300908650465585, 0.14099940633633273, -0.009478554019994048, 1.5189038050113903, -0.10959719274776489, -0.07418683533465004, -0.16807375218316237, -0.057488994314807314, -0.44358630432164603, -0.5056999777859096, -0.14453372704739836, -0.32016262128837464, -0.35893119173457927, 0.5233608675568138, -0.032988112340954424, 0.02628102070993925, 0.7625949298080464, -0.9156622438217015, -0.43158961130425183, 1.170155659628251, 0.005173230326882007, 1.5875323784042061, 0.12505882970538135, 0.24615076452667387, 0.13015701781066208, -0.19089177094956558, -0.7258524563280618, -0.5137648321537659, -0.9993152605800093, 0.08674114806411581, -0.3797389224124347, 0.4339488896745908, 0.3775649082269282, 0.1975053977929204, -0.2914598348590826, 0.25273497124285116, 0.2801019936541528, -0.7360098138984245, 0.10582730570896805, -0.48041559957230173, 0.19776596740511193, 0.34183742601794054, 0.6281152715660442, 0.44985338047395107, 0.23825157567232721, 0.3178286093827187, -0.0032575562684056887, -0.36987926122761317, -0.9960199690024854, 0.2858303596284421, 0.8897813095529051, -0.44663625266070955, -0.6232186787955634, -0.4688576360377012, 0.06971818125460885, 1.9869556353641595, 0.44669531007306856, 0.2572841112298201, 0.14598965447035667, 0.25387661249250104, -0.1412061128291709, 1.130305624196553, -0.24961579297094466, -0.2766339304629693, -0.6052981437600682, -0.010001424681705689, -0.9533046446596931, -0.12167201602707757, 0.30147876839017757, 0.461631278114215, -0.9464137507472824, 0.27612747006298904, 0.5883583261161104, -0.3531600211731363, 0.14186389290063797, -0.8776785153881931, 1.0741781913895012, 1.3186186382728018, -0.6816555987863543, -0.3298410419892991, 1.578868387165851, 0.6277621876952482, 0.5678093796081516, -0.3801322510070865, 0.1755376310222663, 0.46862412872297743, 0.4973926476389823, -0.3904358981568043, 0.6690381681420702, -0.5315212807322541, 0.005819907988007639, -0.26122703113235446, -0.047170056879056836, -0.4029949525428964, 0.308961844744886, 0.7951993023890574, -0.30754096419581367, 0.31278389675198154, -1.0615354442806386, -0.3955015700212294, 0.6745982974465138, -0.5481100372718705, -0.5381707841601986, 0.5667941865566886, -0.8568582012637974, -0.7319645509965588, -1.972210935645854, 0.684087246800827, -0.33519033309737634, 0.8084445451572633, -0.8907479841189831, 0.22498132604423401, -0.7808606144109707, 1.0988038986147657, 0.2702166979512286, -0.05044801597030194, -0.8225912087523573, -0.25554840443559645, 1.3620899954815846, -0.541250251156365, 0.13033950940439404, 0.7517309997221135, 0.21432139128736813, 0.6301247086786894, -0.1371155164260509, 0.023552200951974824, -0.05758678144107457, -0.8167420538516412, -0.23442190943042818, 0.3528452782351401, -0.17930369316974457, -0.2885962953048653, 0.25513113054812686, -0.1394239909639193, -0.11150934360597417, -0.6239282691015781, -0.8961265051367071, 0.09303190020136085, -0.21197890090644755, 0.5914886207926879, 0.4995923497565291, -0.9305989849628578, 0.19672856569434913, 0.08804402162692908, 0.16622313510765613, 0.5296118060242497, -0.8707747539945346, 0.9287091467675536, 0.1567454597047764, 1.1138453876423677, -0.3804829105438201, 0.9421067889274741, -0.3632393741377727, -0.055544259255794974, 1.0550925336301344, 1.0660282266560648, -0.05040181527883483, 0.3344349099784699, -0.32677873726783835, 0.5409138112749295, 0.4144100103125953, 0.8635720166156342, 0.2255020675012259, -0.216476225713795, 0.24160697901592348, 0.8676340674481512, 0.5928818371748888, -0.31352647788959387, 0.04985192607927702, 1.194435392417369, 2.3749100657373354, -0.5039394137225361, 0.3076500212950339, 0.617292045314987, -0.052469507959922515, 0.12331670245296203, -0.1385697151219407, -0.0169754790712056, -0.5841749634130443, 0.17798745032518423, 0.18996824192399436, 0.031321359958937416, -0.37313611997642904, -0.8259295065349609, -0.4656351297696691, -0.3359914400487621, -1.4106088765198648, -0.6452659110402497, -1.0063302474041906, 0.32812955357548423, -0.7161182230305653, 0.642048465460981, 0.6793934039978607, 0.9263451567525942, -0.24463513918873547, 0.4270558103055167, 0.19464158820187752, -0.09018735226785972, 0.6023582627448477, -0.3734011084026644, -0.08068974414517466, 0.013588820303347088, 0.7594679438430896, 0.06216612840094182, -0.7511708834880171, -0.2785654542337956, 0.8600609702014638, -0.14024321462410896, 0.0912856728599726, -0.7285907798890993, 1.695946264193355, -0.05601194277029423, 0.4163558878570055, 0.012399973260864283, -0.16094843310755225, 0.5220671642688093, -1.2447367795498074, -0.05731031779102107, 1.331413253804082, 0.3066119761352251, 0.14431529226502257, 1.0134468958427332, 0.7362574787265778, 0.5679475176895413, 1.0477195231025502, 0.9254744184545892, -0.5906506400652562, 1.0427643765913188, 0.18893966673057147, -0.5453770466085928, -0.49801187524689056, 0.9686303984299999, -0.5755545255372191, -1.7697580273572435, -0.2632111362022337, 0.5807592896398802, 0.9250532334367452, -0.24244826359840585, -1.2983917588072797, 0.36319652436556926, -0.615013058396777, 0.52524874411094, -1.2312620044347522, -0.11129686394277799, 0.17638921524857712, 1.268200644234627, 0.1982839351542203, 0.07746650281802621, -0.7214903398268117, 0.4589272404694143, -0.23462962290238917, 0.5283081017908622, 0.23831320452002774, 1.308828084624723, 0.17887645801989913, 0.2995926336319801, -0.3610145586911581, 0.5153947230796067, -0.19644333573193828, 0.17996494371254274, 1.2938458425218249, 0.26816381366108766, 0.3376329778439123, -0.3956095855301846, -0.5155711200395554, 0.6624325666655115, 1.0525603622405555, 0.3596196632915088, -0.8177048530395888, 0.8249401647909955, 1.4324504000101026, -0.337717946755064, 0.4379198936308708, 0.02355558719543482, -0.7792335822011177, 1.0781113009978818, -0.25125772761524756, -0.250757600240939, 0.577699043089858, -0.47151878380972495, 0.37379506276031454, 0.9122648077609736, -0.8073086191876266, 0.20942435304576232, 0.3065178297184694, 0.1808774903528114, 0.42724218020776406, -0.5959107446722606, -0.5220019729057802, -0.2299431274900803, 0.7559622889565967, -0.9293627726267196, -1.7453433703401129, -0.4216546327039332, 1.0727629423151126, 0.2562164122716329, 0.15187660419995827, -0.8086223627513396, 0.69755059201167, 0.24620797968261068, 0.24206116243435002, -0.41814261257020297, 0.7573608400046655, -0.3788263309413206, 0.05897736200379672, 0.2739288463504761, 0.1525829681216197, 0.9088380334335007, -0.32408803224925997, 0.4457440695924072, 1.0060518576185082, -0.0402355067997109, 0.19248862426693283, 0.2783830887091698, 0.11635885399509986, -0.4888493226562094, 0.459294866602537, 0.23079678125643388, -0.2334951938140306, 0.26607658387343863, -0.7350493366362906, -0.5814860636980614, -1.0971053382786136, -0.4255967121767527, 0.30936468010462365, -0.3100056872763984, 0.20821471483643683, 0.36596431905660537, -0.37676021240815744, -0.54936816042547, 0.1750738526718285, -0.22003686812326873, -0.4449957871064156, 0.6112174472169343, -0.09868214040879823, -0.25376979252329784, 0.3928505209084098, 0.7181000459334907, 0.5714502385332807, 1.9482661081618817, 0.031175654162575818, 0.8232216307502754, 0.3096260454938786, 1.106677694674259, -0.15797783813406463, -0.3510383319871373, 0.27386031303493225, -0.31459431539117333, -0.2832158259150566, 0.6689663144328416, -0.7622648361956191, -0.6693528916795781, 0.35759623325683404, 0.8516948137003133, 0.5188463830264025, -0.4100923784236035, 1.107268253286284, 0.6640013662063828, 0.42532015206868573, 0.8282395619910409, 0.8656303938091957, 0.2648294680811434, 1.721725109586727, 0.14520275626724344, 1.100435853321947, 1.2534490792102038, -0.06221514002483662, 0.2939783393143489, -0.39132380459636995, 0.3913291560130758, 0.2648402128249912, 0.08470504438661175, -0.26442673446290926, 0.32072182672283645, 1.0190022759292223, -0.054342472747738964, 0.08597430360105385, 0.7770386707864915, -0.6782213545870549, 0.29953277797585887, 0.1365449630054064, -0.13365901855353107, 0.4392342287256007, 0.5898404326450638, -0.3805451803752895, 0.10064837759210317, -1.043760788937998, -1.0230544642785648, -0.6626140375011402, 0.5186496265923085, 1.0759200177027706, -0.0072329877156784355, -0.14409985617940027, 0.30292342122406307, 1.04221023894527, 0.895869310813615, 0.5548655041863789, 0.03266503342670998, -0.6063774857405612, 0.58711343421182, -0.3564149724915556, -0.04671386672800611, 0.35711806313510835, -0.04206539862362881, -0.23609579435833902, 0.03007666212040676, 0.14588837780971764, -0.20069953415429986, 0.3533703267730339, -0.40356020224856015, -0.11196697368157159, 0.5860574203901868, 0.5274435479216983, 0.35766112336221956, 0.6062128163796193, 0.9962184503042775, -1.3049423241372675, 1.0877065084281692, -0.38591861659916654, -1.1689424150256185, 1.3601516106909328, -0.5310139368839221, -0.3813524419867003, -0.08627882056122953, -0.41530088482227084, -0.2525502737187009, 0.7855643437412462, 0.16184603216381852, -0.69300048600542, 0.573115872778901, 0.6868044808873951, -0.09834758640748197, 0.3201030381000543, -0.4216043396659253, -0.5914186901156162, 0.6646469693204783, -0.5812915261730509, -0.1832024115667993, -1.0721078520507596, 0.6861174343438415, 1.5816187627572116, 0.08725391898316817, 0.8288359820923417, 0.21968304978597022, 0.797641075519297, 0.8611522414679678, -0.15296665345108776, -0.09851802090850144, 1.138482536882553, -1.0133670493757883, -0.2835884323398367, 0.4423736330393293, -0.7429335557530735, -0.6648885741331794, 0.2090054037024244, 0.1381439478371764, 1.3331517890499545, 0.26233135190479306, 0.18917507600478625, -0.7973405234548541, 0.04437483678710089, 0.5162596063644777, 0.9415068303851368, -0.7838503563764044, -0.4123988743554306, 0.7348044357858134, 0.03373966202068713, -0.43302892250124325, -0.30357015380301905, 0.033894555186548984, -0.5776624235128588, -0.5884092943090937, 0.10509355725823505, 0.11098661080942714, 0.6765994492029012, 1.5698166542697285, 0.5189307914947004, -0.6503751043988627, 1.4353109611739823, 0.3977086381050118, -0.7952222288127393, 0.355365066148652, -1.4675016938026757, 0.5293970319563027, 1.6142236664077143, 0.2137562580964182, -0.30520435916584954, -0.5829595092868893, -0.9791084428353677, 0.5300282283209574, -0.7518233719104459, -0.08316116240145267, -1.4461838651645091, -0.2697060306342289, 0.7723968928271046, -0.8389980314782451, -1.6036436497623054, -0.008666364966270068, 0.17688245057519322, -0.704565348263793, 0.7143743409529715, 0.8184393598814008, 1.1401755740710549, -0.11247616569803637, 0.2524862864538257, -0.08460388417246127, 0.42778077499742384, 1.030085841293994, 0.5403745053536325, -0.5210535930078678, 0.21397701807144262, 0.6496618334989313, 0.20484035276352028, -1.0681145724958854, 1.0673689011918566, -0.5504720399521644, -0.03313076889413399, -1.472506672953227, 0.13036588389529866, -0.5203688765596075, -0.27801692575973713, -0.7726480882203289, 0.9970225656230007, 0.29313717143060325, 0.19589286902145336, 1.0129126667003363, -0.0058738507802661155, 0.45175265653788316, 0.19664780116816993, 0.9977465417091841, -0.1468479630080083, 0.007271837434585942, 0.8178058389893478, 1.5729697218903127, -0.46908881957636306, 0.9673151235091602, 1.3774379837954815, 0.0828821303048301, -0.35710845687312703, -1.0812309957204067, -0.3245315624082813, 2.0736639741200746, -0.6446281278018575, -0.03001864354712459, 0.1106833386249493, 0.47942744755057026, 0.008667163218497486, -1.249494016477482, -0.507159311365318, 1.351382212154869, 0.31118700138448535, -0.2039863251779559, -0.23471736276715913, 0.31473711815305616, -0.17524902619537117, 0.32587627017366755, 0.11860498706062549, 0.2962821426187379, 0.2813061923710361, 0.5245283732712308, 0.17568298871503152, 0.05910148021410962, 1.1342254796682234, 0.7621401475957765, -0.27713122618871466, -0.33834520208171703, 0.9242662824354992, -0.6582731007093737, 0.829732117568299, -1.092734207717529, -0.5779442936357995, 1.243408633708392, 0.6044547200036647, 0.9044187316770519, 0.10081621483624983, 0.8959594988692267, 0.11052720938412802, 0.8947001230790939, 0.15659686592947264, 1.1927074896109957, -0.7165207078376583, -0.05074891194674068, 0.08121353167573087, 0.22833593503307434, 0.13517656498658062, -0.3467799357212343, -0.940219262976005, 1.0718834212965964, 0.11995243516514308, -1.1159132749942349, -0.2639204100873414, 1.0517703266995173, 1.5334729764195956, -0.4042528698811761, 0.7651662376482988, -0.5418927405350786, 0.921436259939385, -1.2850918899501689, -0.8869056348761197, -0.1440549519403128, 0.43586203753101005, -0.4544504883780474, 0.8528654501945813, 0.6668630023016779, -0.874559809945314, -0.22450314398970508, 0.6875853484177636, -0.3365803695366632, -1.4413698989461117, -0.2359440524775085, 1.2580102503821775, 0.4200301033997637, -0.643976679391078, 0.08466921419420302, 0.3563995896687279, 0.14458068684555014, 0.21312230398510504, 0.9774183513109237, -1.4660610310747328, 0.8482190993342343, -0.26414418127170586, -0.3413543674488361, -0.40879777093203495, 0.6333194848528565, 0.31166328784566993, 0.5719462432837807, -0.4106134516540514, 0.05534041519518933, -0.6975105200643331, -0.3928592778141838, -0.1965141520869001, 0.8960060964226731, 0.6151532921316921, 0.3406158919140507, -0.3601234267674219, -0.18962175354140776, -1.2950956073362778, -0.09246617227042399, 0.7401613298405505, 0.11795157753080912, 0.27134547202895026, 0.7030123087358077, 0.13404228014057853, 0.5972268171251405, 0.03692263827369655, 0.3369901499228004, -0.5940622785969832, -0.5474748486486254, 0.6156014470918643, -0.7633058633939389, 0.3071178013848194, -0.022055263023604197, 0.7431626609590268, -1.7786021144722555, 0.21757732849608347, 0.025322416268852392, 0.19907384524516208, -0.5797528232537138, 0.17568078852627178, -0.5957193382250324, 0.3697313318485709, -0.1850089807095083, 0.6607220623234876, -1.0319143519803258, -0.299176226272533, 1.0831373199761796, 0.029738874303572863, 1.339609476358497, 0.4730013765009569, 0.2581387865877535, 0.8685944967582323, 0.06132421801114492, 0.5338311973451622, 0.6011318539309782, 0.6626058157217685, -0.285168179423514, -0.04207367598945951, -0.528899476458425, 0.04663731380515523, 0.6893825644273768, -0.4157265277376905, -0.22098741589264134, 0.8242975372287236, 0.106296336417082, 0.15015854443970297, -0.4118061133692401, 0.4675111211339168, 1.13765294522827, -0.8438478958084992, -0.06598319007082472, 0.24564006889940482, 0.8421853656843239, 1.1318648973190337, -0.3129415093970734, -0.15592722440132906, 0.22728838253452563, -0.7650092280210571, -0.3659302780603262, -0.7452006035698646, -0.3204945121088143, 0.8999348416871464, 1.3205875050843459, -0.21554608880469803, 0.11062386342893227, 0.6160478090346212, 0.8408436478615738, -0.22751315635763975, 1.0859586573050812, -0.23120776466573265, 0.5933616084501494, 0.7324535361251339, 0.7858595077166951, 0.5079952945549524, -0.5205494490371194], [-0.347786666771208, -0.9852442818227444, 0.436576220377887, -1.7271002957661596, -0.5861122498541905, 0.8389821523618304, 0.8034240558520013, -0.11126838081942701, 0.6232861683136628, -0.08525010169336945, -0.8317092406846622, -0.6138447873153966, -0.7922919840254201, -0.16653169362617173, 0.1913219640930303, 0.8852012279130134, 0.11197904192036812, -0.8732729207068257, -0.2832048096822693, -0.27198734813216324, 0.7285273494011896, 0.1949628068395848, 0.906765801353918, -0.8958841109622306, 0.11672676440298171, -0.9730635680631583, 0.47496290457573465, 0.2184769395394184, 0.18092105408078005, -0.8114807184648422, -0.24122433578035452, 0.054924057834394295, -0.10342266879041435, 1.1837586457147462, 0.13666474392692476, 1.2424555453308754, -0.5205444472067523, -0.3935208751139509, -0.22767400053946388, 0.47244519116942224, -0.19826465610590185, 0.19834498326779262, -0.7028472449303316, -0.32706381387115924, 0.3011824016960452, 1.419651340393927, 0.04430746480751009, -0.16956709131244185, 0.4107563544916612, -0.19951222252901782, -0.0720141333096472, 0.9709692704083267, 0.3681484317146991, -0.08403220999258314, -0.3871117161688173, -0.8735422184146262, 0.3700606290811468, 0.13987870298960683, -0.8462275337550353, 1.4152228869900076, -0.21166035372664407, 0.45016668085513734, -0.41932632587942475, -0.04805624026469121, -2.4045139665141373, 0.1577477622835492, 0.9606221397795257, -1.009308003931993, -0.45635396283355567, -0.4043266138337885, -0.8206024475977983, -0.07257554389561746, 1.2876406688052064, -0.5125140258587542, -1.025809151459333, 0.21473924848484927, -0.16540087154054772, -0.6274660663200783, 0.3918965919871671, 0.962771556036533, 0.13738336316987668, 2.0344965006922506, 0.5473317565835826, -0.33108573111922046, -0.6904450314021765, -1.7983334422453534, -1.6008835179156478, -0.3026285951798103, 1.9949941417836434, -0.11308855901913645, 0.06909243431495589, 0.014370190291392231, 0.5331529918948124, -0.3240923247415509, -0.2442306578840131, 0.02979142686784763, -0.701246674345819, -0.9411855803652078, 1.641985924920291, 0.6381991306852415, 0.5363054363637624, -0.039288901652257124, -1.9516997927843036, 0.47713704293556697, -0.11884477292278504, -0.5710112559695719, -1.0283994958280374, 1.2427984075986958, -0.36672974392626456, 0.5046893054429181, 0.5443324021112143, -0.2597812807045323, 0.6138410730957108, -0.22347825580365455, 1.5333580014725283, 0.44630749743925757, -0.21901713524367075, 1.4214967221836297, 0.4915346921410718, -0.7542634822186656, 0.027213442943908286, -0.7298905528513107, 0.2371154153825054, -0.3676889851832074, 0.5891095181804267, 0.6825131239808827, 1.1337010112467358, -0.3840590033428918, 0.3672538694762276, 0.07138744151886396, 0.04267318980496171, -1.1207082966972852, 0.749154853153869, 0.20266102145981896, 1.4868268982980626, 0.6554837543191809, -1.0816417829283422, -0.7865384141601517, 0.2655812268929419, 0.21991369318966686, -0.5305636411761218, 0.1399005569716423, 0.76235461570102, 0.5353457070116617, -1.2417894927029898, -1.1788977400879743, 0.2778811131423059, 0.08577308986486185, -0.7900652894401998, 0.5650381903858603, -0.0874468177822042, 0.23682183010722513, 0.11368942221365312, -0.3094767235913458, 0.9116953092503172, 0.6893777655358746, 0.9010046411260145, -0.26728684841095796, 1.9128217935066871, -0.46947605395139447, 0.3604329386888207, -0.3417558365232174, 0.9278160431891389, 0.6154881843886517, 1.1241727275689275, 0.8485184520890171, 1.091570245914103, -0.5501980942250928, 0.16836718586265803, -0.044178332956676884, 1.1758081268474116, 0.5434871776054175, 0.6391355176594571, 0.4042008027453214, 0.07864168842300567, 0.567183090801806, 0.4046998465508904, 0.603034557560194, 0.8181909908732243, 1.3448361230751686, 0.5091153457279087, 0.33860115325018814, 0.3732806649761234, 0.021105521267170708, 0.5468201234686518, -0.09425949842179056, 1.4730815199803349, -0.6869903141773572, -1.902927705775928, 0.029724952787246992, 0.4400282539446106, 0.342377174264299, 0.4010775449312037, 0.39691919723695884, 0.7773733037695482, -0.5156851895048585, 2.1820679840700032, 0.9419214377405551, 1.5260984775469468, 1.4448910117309475, 0.69175828961109, -1.0441569553506507, 0.6090140300823931, 0.9441316093936725, -0.5031251717275315, 0.36592310176175774, 0.7340092113700486, 0.007925270624914778, -0.1889906371086328, -0.3815645488313763, -0.1056122705960387, 0.2450610298501993, -0.20403231036895175, 0.8187927201556053, 0.4047300154815673, -0.10109195679287629, -0.7579137572378412, 0.7328688856815941, -0.5727546607528687, 0.21519332444255385, -0.7628465340325411, -0.5109421173824887, -0.5730587976688095, -0.3710680390678619, -1.26144644686356, -0.6416661257881309, -0.22053345079991427, 1.1848380010235224, -0.9241781824110902, 0.6152609209345973, -0.6180538782959833, -0.8691532766841702, -0.32145117169832166, 0.39789530857133476, 1.4383856734453833, -0.6147152848491232, 0.9372027666331149, 0.8707544692947701, 2.049486489497422, 0.20302327500099038, 0.5017906744913956, 0.2670155286205749, 0.5420096917353888, 0.9748271666405671, 1.222274775788231, 1.0223128393301515, -0.11451071665559916, 1.0632812778959277, 0.9156167518741316, 0.5376831896130971, 0.31343111955225017, -0.3094100236622983, -0.3559811783597797, -0.2893443455829096, -1.329234756159891, -0.03254724935511372, 0.3767794322159432, -0.5663379645078092, 0.047389833437109855, 0.23919537878379513, -0.48954601444831625, -0.10761418820532148, -0.05814285236085151, 0.17539923807705957, 1.0049758884617237, 0.5627461924185838, -0.3883950318648815, -0.13682734060692112, -0.3785587767897133, 0.5971338707609858, -0.5152438316140078, 0.1624983730760512, -0.08928800288253118, 0.6010763358387281, -0.26337849827306486, 0.4091005833879475, -0.37660990344821804, 0.45389924662661973, -0.07749248771777306, 0.03720287846560194, 0.35824825770595675, -1.585920439868791, -0.8269309248522329, 0.2292251551012202, -0.21650275248562445, -0.7978022066717834, -0.04669593291037491, 0.10530198608894134, 0.17137806008297407, 0.47277396052491105, 0.803916026236706, 0.3471808635263888, -0.38984112539719873, -0.1387596808319342, -0.3947588304998877, 0.9338288321243694, -0.05123874969093199, 0.00956416728465718, 0.9317908117144725, 0.7662436053834367, 1.5576167440645665, -0.12430553453895826, 0.09547803172717197, 0.4653328538947329, -0.7085942454192921, -0.07353407200940834, 0.3800941531401446, 1.6047298512643504, 0.19044703321778728, 0.016783557243061263, -0.599407705299922, -0.21396292121688965, -0.03388013435232408, 0.29202734740615227, -0.8722780729315541, 0.6659603476669879, -0.13743921767448242, 1.683053307468722, 1.5497777573013254, 1.0052441860842132, -0.18884123897098812, 0.47609387077116766, -0.16574665914031167, -1.1145846566434294, 0.5906079527331038, 0.03282792664327789, -0.13590324438659485, 0.12922340497650578, 0.4344392133903238, -0.2645343949883114, -0.3228186951341634, -1.4089413396950532, -0.044153552789639554, -0.23845561213341473, 1.500958500057516, 0.37021362753606274, 0.1938815061471488, -1.470022279982062, 0.5817299621043714, -1.140398372904893, -0.3894250777812234, 0.389964293257466, -0.8981248894962498, 0.8430219116030826, -0.5836267322154925, 0.473104082289817, 0.03247950875096395, 0.646629399894081, 1.422647953258497, -0.03179939869195574, 0.9146851627050021, 0.08120061701476908, 1.1202043438245914, 0.12796538476869634, -0.3022513778096066, 0.19018647927183013, 0.5484075417475499, 0.21651069746270163, -0.8864880285078465, -0.112970697993725, -0.2293234289445368, 0.04280904227100673, 1.1096382096459556, 0.7199139330933507, 0.42595521298836, 0.4678817822544425, 0.47062235734432417, 0.1675825635564197, 0.4905328812980497, 1.1629182021279276, 0.5736977996612411, 0.7222947128301807, 0.4579174340529311, 0.07966261741826801, 0.21047311550762374, 0.10889810352389762, -0.03407083873165413, 0.033802753690147964, 0.6918828441870692, 1.1111395045394872, -1.3186787724570217, 0.03551595196098432, 0.9513972673718882, 0.21479393529973478, 0.826457206938341, -0.018435661321970123, 0.6362015127474525, 0.8838977102200193, 0.12311934604265465, -1.35044485209709, -0.5504659878445819, 0.6783827402203156, 0.016052974267164007, 0.9343949428641405, -0.9028195696605101, -0.21618199853244852, 0.5248569192180437, 0.8475532395504305, -0.6194112664861379, -0.06429542400752297, 0.48262907178644393, 0.3847986300936488, 0.8322503801851524, -0.37170753939981027, 0.8963894212488559, 0.7883747718508287, 1.439386982267606, -0.7175982597761871, 1.3223860828093135, -0.29713614105492814, 0.293040129231258, 0.8974032944062558, -0.6718810660029582, 0.09851232103209356, -0.36714911536329137, 0.22287335832966806, -0.5762637559493703, -0.03663067350823515, -1.1850660511781175, 0.13784603760712852, -0.657784493263643, 0.9453678306505179, 0.20862615843056645, -0.34879480938364466, -0.2657526362544138, -0.13799154916410444, -0.06279708201722085, 1.4500591696587894, 0.12916441281109, -0.8220004935923259, -0.04553742752175553, -0.46011497593831235, -0.44068440222409627, 1.2881800544899698, 0.7744961606501956, 0.15828685691580024, 0.776119435266513, 0.7228326097753045, -0.23523593443613902, -1.1015744483057681, 0.09196543989229972, -0.6993176890586903, 0.21441658124817436, -0.13761974547720196, 1.2964974866540386, -0.9474268238265907, -0.15903926279095923, -1.2553905794691391, 1.295901050374629, 1.0262625902117612, -0.6081337720338268, 1.0867624809704683, -0.2372826052712739, 0.8568929383405957, 0.7023603752040146, -1.207402262723647, -0.2749174267160729, 0.6465922038998838, -0.6911365709472349, 1.043775213401515, 0.09151297274720405, -1.1826485881395965, 0.6113492164619342, -0.17481538247228498, 0.03851619464203507, -0.23832720886779582, 0.18001240536083007, 0.6885916841530793, 2.3538196475574305, 0.21462712716094356, 0.4555653591355612, 0.08531750957782777, 1.1368635957754425, -0.31870225980639466, -0.3544546586985665, -0.2850956726251155, 1.158553244289637, 0.22862165745271573, 0.42609206863689203, 0.8302064988164916, -0.8087025488191064, -0.7796210661044393, 0.7147309322258233, 0.7883890935676509, 0.5756528133469765, -0.10377753685124831, 1.7324025507783787, 0.8392878985397708, -0.8014539652413919, 1.2463557390571591, 1.9137394582092335, 1.13459002223093, 0.4691543198871573, 0.09953558291291933, 0.06263714903403654, 0.008037344150218343, -0.19389172962362575, 0.6431660614029098, -1.0051087129959784, -0.011055048470396458, -1.1180844547362514, -0.3734927298692344, -0.7505684182003755, -0.03305498095878167, -0.0672850957654314, -0.30081035878035167, -0.3935494008715815, -0.5339960824544563, -0.0023906155596552015, 1.1847410982459237, 0.3162673905659919, -1.3281648787733522, -0.5314113391133147, -0.5832958446354541, 0.580106417784195, 0.9693072222214426, 0.38060389041728415, 0.3340123948576105, 1.193352875599502, 0.2439843425333382, 0.8351144981787272, 1.4763136449661378, 1.4041773159296485, -0.5592949201316945, 1.0735850198814938, -1.4393136448708241, 1.1061561004326539, -0.43450888320638226, 0.08048334965675662, -0.4520052920117632, 0.21964605725063677, 0.00580430388575858, -0.22353986350943672, -0.992921298708519, -0.9613887774651151, 0.1328901044436687, -0.5408970316332241, -0.2552019638210776, -0.17288901068050175, 0.2222618673838237, 0.6695832663208989, 1.7719557859666544, 0.13598406335562044, 0.3261709992313171, 1.3058292710954515, 0.9828691247815232, 1.243252975336836, -1.0157082622990676, -0.1841693022124796, 1.7935709142011007, 0.9083208224492283, 0.49475632870633096, 0.8248903593645371, 0.9975665527884975, 0.21143789301368737, -0.010295378483284904, -1.0883244341448963, -0.3408983507198565, 0.9700971730165109, 0.40517555800859195, 0.5591089761092136, 1.1317142639077549, 0.46286945412329183, 0.34655620926745406, 0.10885907155076097, -0.45306828090253964, 0.21190430683945205, -0.2008478432422894, 0.4788842166888851, 0.007061669515739593, -0.5660465773039288, 0.8444380795289992, 0.16116159613046008, 0.6635237102887315, 1.7025347476762651, 0.16880441877216418, 0.8916108288832936, 0.5613442607948915, -0.11396946016630302, 1.1747542921564238, -0.8657666481446895, -0.012265754584000692, 0.8343643686191009, -0.2421329999797153, -0.18394393497044106, 0.07335571729254851, 0.40750696884822935, -0.8061402561833777, 0.16744749366671, 0.08972268660503716, -0.7441871700448955, 0.14768311076673965, -0.19838799494557688, -0.9157786195306579, -0.5041000208253633, -0.776348547447332, 1.333530016085491, -0.11314710739904112, 0.17031926780979809, -1.3420180767746668, 0.22647988509133843, 1.1651768690682343, 0.8397588783855164, 0.10380121910793146, 0.13300480296263034, -1.3515156300504967, 0.7726430201144724, -0.1624762706967324, 1.5031196638218651, -0.2164647192077105, -0.6386546726418659, -0.3289158037609635, 0.3852429228081397, 0.3863155312125133, -0.13800652013902046, 1.188949774900845, 0.7560951879149495, 0.48899365459213395, 0.04753092918852244, 0.844366104601798, -1.2551762952796632, -1.1377586803924555, 0.44252563964209374, -0.48126137761027, 0.7369143811801658, -0.02583719064856961, 0.4456005592864804, 1.332695798152115, -0.4800395490751307, -1.335673422607322, 0.4615016046316766, 1.1019810633517892, 0.36600434200324156, -0.7359723945322483, 0.3812809455953146, 1.1923552277282867, -1.3809724179227245, -0.4695704108158122, -1.6476294464619792, 0.6059664710658788, -1.154825058970368, -0.02011685171266178, 0.6950767266519502, 0.7792444918713786, 1.4246135924240064, -0.8083952265866517, 0.5624044787063228, 1.0081386429272383, -0.4791536516336475, 0.0503186371248198, 1.1474369387112449, 1.2541562205216303, 0.6306819316645789, 0.2856706382027082, 0.10579126219831611, 0.6196169119150606, 0.28318070711604176, 0.14472705376768685, 1.5770624299390505, -0.47589790066193527, 0.212909294112277, -0.44790261153071054, -0.8858088093810881, 0.06459018291939313, -0.1635717272215515, 0.24143536843966498, 0.12109148598466056, -0.034137455431064806, 1.9674159801486992, -0.07979331327005926, -0.5980462440563804, 0.6562144204301829, 0.3906546222432199, 0.3434759814779666, 0.9435199189074194, -0.30174621722652056, -0.10172806946915358, 0.41281864728573814, 0.772075901186444, 0.9006849082037461, 0.11891614012416105, 0.5068252759198386, 0.5073949888184333, -0.6089626266006983, 0.029265703186552347, -0.1744065535971215, -0.5695319460935419, -0.4134357254317025, -0.875956295391816, -0.2122548445456034, 1.4949251659472513, 0.43564401807302044, 0.02330971958805446, -0.10851559145769363, 0.37699870813678077, -0.6328305327652184, 0.019645537430808158, -0.14429070369796335, 0.7092471165106107, 1.0466006466973672, -0.07697697084353197, 1.3647229709371573, 0.3495888616553164, 0.6502720665495112, -0.18784917580735175, -0.8772184314059013, 0.6783329632337523, 0.47675018206579534, 0.45564594065015307, -0.40955244205014024, 1.389615856196915, -1.287814087686302, 0.6781151182664044, -0.39783682897394834, 0.297171779929897, 1.7263362528901545, -0.14673147106337614, 0.8262608622684459, -0.010097904640925658, -2.217014002429679, 0.5803183064775286, -0.052341300109717784, -0.2996025272748744, 0.3076682967026237, -0.5047179868793674, -1.1840793473501736, 0.23766713107695076, -0.45785714686291623, 0.075347122029713, 1.2539023122673214, 0.6127067321506167, 1.0146666025020297, 0.448656725539514, -0.7193524351907636, -0.5724414413999223, -0.555349248266422, -0.25974604838936977, -0.48715389885860705, -0.6730625397676299, 0.9608330685221732, 0.2269832928421175, -0.5181779713094529, -0.12025911265042935, -0.39202793840325795, -0.28907137736874183, -0.4232203196482116, 0.5627634459915136, -0.39725430866415246, -0.48589805559078597, 0.49969898147439007, 0.855395423740418, 0.7362965650017792, -0.1537716081831613, 1.5483373875256945, 1.0291471958980407, -0.2760160029889357, -0.06722970339450458, 0.6285957593539531, 0.9501747889292108, -0.9470070252450239, 1.3207328187597378, 0.12904147432488405, -0.6310805627875982, -0.9503819956647709, -1.003725413382733, 0.7106428973656165, 0.22855869685259048, -0.00977156123441312, 0.533664955006149, -1.4944128276086854, 0.9571690103305038, 0.301942881765893, -0.9675314266747675, 1.3009722922064535, 0.16319292047886183, 0.36390405290834177, 0.06352718540116249, 0.269724012856756, 1.452495220447186, 0.7822080674948342, -0.18701537354384287, -1.7208445763599327, 0.09651661447521481, 0.1857868894191102]], "bias": [[-2.152990722215339], [-0.19144558829632166]]}, {"type": "hidden", "nodes": 2, "activation_func": "sigmoid", "weights": [[-1.6329289654035852, -1.450651231199156], [-1.5074166048420947, -1.4844249581643394], [-1.5374480826703465, -1.4667559444899314], [-1.5796038669231725, -1.4389625200662723], [-1.5625358058568328, -1.4521426950103782], [-1.5244044157832481, -1.4868900700796335], [-1.5439173692055586, -1.5227252508771298], [-1.542845832325604, -1.4838105712480822], [-1.4825756575099505, -1.5100595599533648], [-1.5497952116988818, -1.472269830947481], [-1.5669371447105618, -1.4762814224848415], [-1.5187192201778603, -1.4956673170652393], [-1.5749429257930063, -1.4793693067528333], [-1.5324629144504007, -1.4883258622498694], [-1.5143248593456646, -1.4748826425910424], [-1.564152813382825, -1.4197151590964565], [-1.5191406184851253, -1.4950271872582763], [-1.6087738831103364, -1.422496804091311], [-1.5580511133193078, -1.4868106295711223], [-1.5187190437920697, -1.440268948089671], [-1.4963673434408913, -1.4935015898596644], [-1.5607164503534938, -1.4429670179888872], [-1.5415951933935346, -1.4576758899400202], [-1.523350163891732, -1.4970149309726848], [-1.5506524721520274, -1.4845579147946186], [-1.4994448313786861, -1.5175235231856659], [-1.5391217626045375, -1.4373429552336852], [-1.515741107659823, -1.507973441370662], [-1.554421441510201, -1.4702363874632303], [-1.6002149837801447, -1.453421635957876], [-1.5319373771194738, -1.4947102172616336], [-1.555435296457454, -1.4980265565600295], [-1.49806672494884, -1.4882256840977626], [-1.587322471961151, -1.3992509913907036], [-1.5492813528761975, -1.4775716467803204], [-1.5494417328874772, -1.46746188088087], [-1.5519483077001441, -1.4831910486363016], [-1.4542505612261543, -1.5063198160371298], [-1.5627527965217627, -1.481867485821019], [-1.5202661367980732, -1.4405739536829532], [-1.4912763066246997, -1.4915070745993424], [-1.5049155691221907, -1.4294597490073648], [-1.4828855488071326, -1.437218940953852], [-1.5077812945055258, -1.4635310565869852], [-1.4544464779483948, -1.4583752933672842], [-1.4924673593791566, -1.5049997633131633], [-1.5239290648017025, -1.460628013116539], [-1.495423442829862, -1.4932610866782412], [-1.5463146927002425, -1.4662754961424427], [-1.5672126241447466, -1.441509451110026], [-1.5552210539644593, -1.4591835200105294], [-1.5885442444051658, -1.4490763816838275], [-1.5446025198227562, -1.4114791620213631], [-1.5423720416862448, -1.4763804691035556], [-1.5505075759951776, -1.4805285682666551], [-1.5287851535879857, -1.464189625401645], [-1.6405648971350335, -1.4383803861162543], [-1.5220273158970798, -1.4740501131145756], [-1.581943927105103, -1.4873813417905626], [-1.536504399979422, -1.4404073979159435], [-1.5842884278704648, -1.4928981241487926], [-1.5741639197031696, -1.4516134492351505], [-1.5650220559408168, -1.4176285007125837], [-1.5132997791967409, -1.4817071982332015], [-1.5306928846546093, -1.470677056036492], [-1.4447343569022206, -1.4173363832353691], [-1.451850399422475, -1.3598618383115662], [-1.4045510500304432, -1.3198586395641234], [-1.3679314320623404, -1.2887034825502641], [-1.2609951706466165, -1.266782883596206], [-1.2904348212700765, -1.2188395459757897], [-1.2628444282800104, -1.1330616552436625], [-1.2038847173162255, -1.175918154794924], [-1.2721044227035243, -1.1817939985104737], [-1.2978349096675448, -1.2441163603177154], [-1.3400800680072744, -1.2711458317184057], [-1.4535930821334073, -1.3325349316112016], [-1.4877534374777108, -1.3961990642321787], [-1.5439136983932176, -1.4279844623057167], [-1.5165268453225944, -1.4721005049523086], [-1.5401248335162356, -1.4741919371795555], [-1.5505535233011827, -1.5035158597099108], [-1.5284661873239955, -1.508592609244282], [-1.5500910355780575, -1.421438537255178], [-1.4862421420409737, -1.5428503033908023], [-1.5386358143601422, -1.4451952340474046], [-1.5822419987825034, -1.4239649873136795], [-1.5763446486263357, -1.4376905160101214], [-1.5275050304057158, -1.4901324286212247], [-1.5591892202471735, -1.4724134872073151], [-1.5436203763381293, -1.4364265403597585], [-1.4488188362693468, -1.440986399036201], [-1.3735203417416895, -1.301664097483755], [-1.2972867623643183, -1.2642256946951773], [-1.2618470507434432, -1.155657415134042], [-1.1729820294978517, -1.032964865070989], [-1.0389354117168368, -1.0256813854335427], [-1.001815613338009, -0.9461181083656562], [-0.9453586827704632, -0.9013613353488601], [-0.8969230251357662, -0.8672844989537433], [-0.8596942554300032, -0.875102184210659], [-0.9190739030070755, -0.8730958668456296], [-0.9932834904953083, -0.9663564081030297], [-1.1074573853839782, -1.0298049567536731], [-1.1909480436257935, -1.172525293027284], [-1.3445396215390661, -1.2296852163401413], [-1.4463593207598682, -1.352345511466929], [-1.5107722948568671, -1.4065613232396954], [-1.4672872063662936, -1.4429753579794287], [-1.5455850068086574, -1.5156068267396026], [-1.5221186072060076, -1.5349800099060176], [-1.537639934719159, -1.4771390575230958], [-1.565585270859956, -1.4396273270210724], [-1.5610897888933477, -1.4361700931503794], [-1.5240401826350982, -1.460225663192119], [-1.5687399411081546, -1.4626272764986707], [-1.5150680741982958, -1.469386358261969], [-1.528228999121964, -1.4698897823291768], [-1.4085544544782982, -1.375038347890205], [-1.3254955495672096, -1.238391761026212], [-1.1386517651458188, -1.1544519595900504], [-1.0140273923924426, -0.9977228599549124], [-0.9137512882374302, -0.8307351403403093], [-0.8492743544666209, -0.7107931753281409], [-0.7134018328880437, -0.6424285785898634], [-0.6334484249171723, -0.5588288102825386], [-0.5003168346518345, -0.49855156727301453], [-0.45426893505953087, -0.4575449203846036], [-0.4836049141632212, -0.43647348621195], [-0.5440971702412258, -0.4648557499077416], [-0.5646544914235405, -0.5432545510465716], [-0.704866955994514, -0.611269843639611], [-0.871656407961744, -0.7829540030021899], [-1.01569970067517, -0.9054032898231156], [-1.2060221204935009, -1.1186476813345685], [-1.2953742233337826, -1.2924937015791993], [-1.4096739807120293, -1.3697292254690103], [-1.478531927255429, -1.5102524358069775], [-1.523718554497879, -1.5281313273408446], [-1.51953891675749, -1.4873700096545712], [-1.5167055881431803, -1.4528747087894758], [-1.5382179048421227, -1.4767260110235245], [-1.5136548223927302, -1.4922892843014792], [-1.4993733585310647, -1.4569655757286324], [-1.4690416546153382, -1.4457300492187053], [-1.3769932850371498, -1.3235470394045588], [-1.2404915183041925, -1.1431197828012518], [-1.112138513413676, -0.9652044231312353], [-0.918488093657519, -0.9125457148341818], [-0.7784591735609385, -0.7452657961977084], [-0.6578509331096299, -0.6034701472232673], [-0.5664647828707909, -0.5202187246477533], [-0.4880004927431665, -0.4258828859024265], [-0.38751678776345677, -0.3503877855285776], [-0.3065385939629448, -0.259401499368245], [-0.1971141359674212, -0.15359890618986421], [-0.17198640247073435, -0.12688917860650545], [-0.1736757459163932, -0.13066647345200721], [-0.22658682819138778, -0.2170908492860494], [-0.27238915182858137, -0.2668023558101061], [-0.4759049207726576, -0.426396348346408], [-0.7024711189150571, -0.6652884844336727], [-0.9554172292463519, -0.7991494910032041], [-1.0663315529992614, -1.0134359626511875], [-1.248185000926147, -1.2151787838137054], [-1.4763217626132932, -1.3284995442912801], [-1.5115558917453522, -1.4476909880256101], [-1.5503559287351005, -1.483895621550701], [-1.5286745079064572, -1.5010260929351291], [-1.5737349352731056, -1.446234878128647], [-1.5057551536984752, -1.5228793834882806], [-1.5160634702418037, -1.4701386557309293], [-1.3905255674575139, -1.3456573163294892], [-1.243190148443658, -1.2151672445303472], [-1.1044074174619853, -1.003770585320942], [-0.8911325361822189, -0.8500282957331254], [-0.774266835427478, -0.7089870341035128], [-0.6211696271904377, -0.5739057745271635], [-0.4937118658762739, -0.47692037520812675], [-0.4554114981022319, -0.3257291780967827], [-0.2387819793085915, -0.2552445338509986], [-0.19847871266721798, -0.11403658718675047], [-0.07376043655074353, -0.05622079704974849], [-0.007818050527762068, -0.023300707634606174], [0.025699470470303323, -0.04940989841350165], [-0.06759196855347578, 0.04954990954064324], [-0.07250749523880919, -0.029169780827638665], [-0.1340727299053166, -0.1196632933518924], [-0.2531157907870968, -0.22393950030834037], [-0.5575490013505275, -0.37110209195086247], [-0.7243773514012966, -0.7511358636463901], [-0.9779907883189354, -0.8468930699684523], [-1.1384786133332823, -1.1004209218068022], [-1.340814352837143, -1.3113148505076067], [-1.4626556571068374, -1.4215835321287236], [-1.5519817010546584, -1.4675297904711022], [-1.5792551265874155, -1.4529746471672687], [-1.5626754722400542, -1.4693826628980076], [-1.5577108884268325, -1.4586327561909163], [-1.5072906867353377, -1.4109970243141507], [-1.3366529456029212, -1.2853921425346493], [-1.142601859172027, -1.0780771057503984], [-0.9622429791470222, -0.8808216209890574], [-0.7472854071872002, -0.7598148794141327], [-0.6377444209202919, -0.5530169666778963], [-0.48710194394542716, -0.47189694417298006], [-0.44456409668138014, -0.3186139498899995], [-0.26245082388733787, -0.25890640335812287], [-0.13724664613599602, -0.07388766846708535], [-0.028145478461052333, -0.059813991378847804], [0.0406400259895281, 0.029280069943338524], [0.013566419846112824, 0.08444364747426616], [0.06303029463011922, 0.026082390364482406], [0.017091242715325496, 0.06882405928731965], [0.012211524483368487, 0.017508989045656516], [-0.04312357409854531, -0.0127670882996876], [-0.12784909581929446, -0.15188907302130025], [-0.37328324404062746, -0.3706280365973516], [-0.6557745347387507, -0.5773508887461267], [-0.8840637707071773, -0.8166680967236775], [-1.1035244068402568, -1.0649974333004673], [-1.2921871087515742, -1.2563203578672302], [-1.4669761283428435, -1.439758940668412], [-1.5669550662101872, -1.4870409011957075], [-1.5765319974926368, -1.4856303997091935], [-1.5427843688788137, -1.4891192520160081], [-1.50776808166868, -1.4407768176783757], [-1.411285968311279, -1.3248789052616834], [-1.257390497335511, -1.1902410067945168], [-1.0337295492733276, -0.9737242680232475], [-0.8674154884789915, -0.7811564266310974], [-0.6696104178750237, -0.6852839872611277], [-0.535144947231437, -0.5212372549576604], [-0.40907982743132376, -0.36769197872103276], [-0.27689283190621367, -0.2794743352284484], [-0.1425357309102212, -0.16870190740800378], [-0.006674529473213624, -0.06643441297009636], [0.06499493682851151, -0.011167165529189423], [-0.030050260072281454, 0.006305481801474607], [-0.014085798671675646, -0.07682312528457605], [-0.06767799486327919, 0.006222918137756539], [-0.04561984944017928, -0.044785270046509736], [0.003426994135174078, -0.04432655275886852], [0.01031383817474991, -0.04542985689552834], [-0.10609852356465199, -0.09780872525311268], [-0.32334318944528706, -0.3349333427946448], [-0.6271543552979114, -0.5311310762539707], [-0.8546527872796079, -0.8085324170008423], [-1.1057880655959949, -1.0329530204784405], [-1.2919783600082033, -1.2640490065479926], [-1.4655993648568861, -1.3734961056552766], [-1.5272415139360564, -1.4808985427872483], [-1.5334109940741942, -1.4468868818142355], [-1.5329822050852324, -1.4978292227957601], [-1.5192050154738044, -1.38448553983888], [-1.3586647231145093, -1.3058047320241821], [-1.2356207867766693, -1.1219104385965908], [-1.0036585322474094, -0.9685247379326615], [-0.7435700640910341, -0.7784179980655058], [-0.6087513265781487, -0.5181584416620301], [-0.49521761959782706, -0.4339759121151194], [-0.3655686945066917, -0.29752780110642063], [-0.16661379538726787, -0.21276605040404994], [-0.021548707087214795, -0.04413536912386457], [-0.07508801251264507, 0.02643895912236614], [-0.02597638626086041, -0.0505757866383326], [-0.09446416710888036, -0.12946486313759253], [-0.1389054851863026, -0.18574425379538143], [-0.08812688654582487, -0.2238303291689061], [-0.1269286883810048, -0.1312730306774192], [-0.09236820039170726, -0.004281219047499065], [-0.07574300581428649, -0.046607939800457174], [-0.1122515539649424, -0.137764226199943], [-0.3578728749066612, -0.31015863377824654], [-0.6333373917775329, -0.5871493237937118], [-0.9122497484553387, -0.851497734264641], [-1.185872497158377, -1.086454562215949], [-1.3409520991706483, -1.2712696789051383], [-1.507094740905701, -1.440931039690484], [-1.5248840809823234, -1.4382236948213392], [-1.5632388060644151, -1.4742666493918941], [-1.5768969710243952, -1.464574667237786], [-1.4947824124922358, -1.43452900941501], [-1.4024083119930562, -1.30810309594857], [-1.2105430855516832, -1.1484494515931776], [-0.9942265937346283, -0.9411582933032504], [-0.8088066602909414, -0.7010307434225382], [-0.6058510665708859, -0.5675062303342776], [-0.4954693486295981, -0.36126960631417465], [-0.24913051275714557, -0.22976043511462582], [-0.14730675859860062, -0.09497716499916951], [-0.07670105779274006, -0.016099145362948403], [-0.074368013866984, -0.08539843338851484], [-0.19805109193929626, -0.21171304665214236], [-0.21333875870573552, -0.2873713486577567], [-0.3048317956269435, -0.24751104926818115], [-0.2505432368288009, -0.20671288238789237], [-0.13179312449582906, -0.18745613304226272], [-0.03853234050565228, -0.052427533204050074], [-0.0515523465336754, -0.11692859708972042], [-0.165506654424172, -0.15304455660586547], [-0.4610525065474695, -0.41014666735623606], [-0.6613899220706637, -0.6397245878358745], [-0.9027157200549311, -0.8882142079530281], [-1.1964992710654812, -1.1087805615634625], [-1.3908929412558149, -1.3682051264348871], [-1.5678507620711455, -1.4155306506252159], [-1.458234359967519, -1.5591601760468332], [-1.5233665138688752, -1.4463325836445295], [-1.559894820021037, -1.4775842804886263], [-1.4930295954801978, -1.4330255564351317], [-1.398529252945817, -1.3529857046713483], [-1.2354172977577849, -1.1916382642721894], [-1.0107256624049499, -0.9499194194531886], [-0.779711480365664, -0.7843087901096851], [-0.6467076982957867, -0.4830163318744046], [-0.4535236181448, -0.35568725803753315], [-0.21384700897101716, -0.2019747602785722], [-0.11537737848153024, -0.09391650969055704], [-0.1440823988692217, -0.02432643550954264], [-0.14935550527995434, -0.23335840105388886], [-0.28385230440314724, -0.3080970571142649], [-0.28711634487671206, -0.3116494345096158], [-0.2817455131278635, -0.22402281971269], [-0.19672584977509808, -0.20368740626373752], [-0.09098457400392394, -0.1254470912381494], [-0.08340593270425996, -0.048914305573556915], [-0.0869542191879006, -0.09631910461560772], [-0.28797115771397774, -0.1971281339657959], [-0.4935499894886462, -0.4870167286122028], [-0.7319819193532142, -0.6551973551737001], [-0.9224537638549039, -0.8863090204931053], [-1.2556371356907396, -1.1275844893732438], [-1.4702736324329744, -1.426588617386332], [-1.5422004910440077, -1.4363531238638034], [-1.5239385213952823, -1.4770005048945436], [-1.5036283360404157, -1.488522680200976], [-1.4937316734247092, -1.4377317432112933], [-1.5084715087131768, -1.4539148537805267], [-1.4477167938936353, -1.4028549311780794], [-1.3195055347688331, -1.2591401889357843], [-1.0106472225203598, -0.9978717534552981], [-0.7704525127461442, -0.7532553439935216], [-0.5090466222025467, -0.5480788880434638], [-0.33674575280589847, -0.30449869772690874], [-0.21108114091801788, -0.15362133159065133], [-0.08808148429457835, -0.07410213325506089], [-0.1448715992187394, -0.11407971495715244], [-0.19903178067453395, -0.21303029205579796], [-0.26025925652578974, -0.25280316597622265], [-0.194515804049375, -0.186276408484992], [-0.1868680101912328, -0.14124497563160177], [-0.04794422471187522, -0.11832505637438238], [-0.02284648086186845, 0.02933570419015866], [-0.02015065828321236, -0.005276228801852596], [-0.1274292383972492, -0.1326222594281354], [-0.3358369873031198, -0.3525899646718192], [-0.5662940790677871, -0.5528107852999704], [-0.7996666662171724, -0.6670216083338608], [-0.9319994203476453, -0.8567749100233915], [-1.1812129826937279, -1.1971812587732742], [-1.4791079599210395, -1.4411902207361773], [-1.5490106201838763, -1.4391044000327744], [-1.5264699290971264, -1.4860244453138103], [-1.5335817060234527, -1.447360426221911], [-1.479519613634777, -1.4834989745100913], [-1.5500740399213642, -1.414083442584813], [-1.461763520040005, -1.4231787147378503], [-1.281392441538147, -1.2571885515097565], [-1.031744328152464, -0.8860515402760532], [-0.7754909402553164, -0.672875897795905], [-0.5437761248622629, -0.4678796736821341], [-0.25162998429105743, -0.31360717906515173], [-0.16138104816571056, -0.1233251385594392], [-0.12838939945168104, -0.0829875699852983], [-0.14039378536676905, -0.13544919206637698], [-0.2250948010308396, -0.19336216445918838], [-0.12883729178799289, -0.22122624335487964], [-0.0950059150719616, -0.12445137143765367], [0.012569265977349682, -0.07723390023675294], [0.03533943049989515, 0.019922520424162746], [0.08452642812288211, 0.05567292049636929], [0.0057220956162933635, 0.02739875383862447], [-0.2047726040529349, -0.1947601258448513], [-0.3447572162743955, -0.38055347189561545], [-0.5681317660752867, -0.5370818269386112], [-0.7735649012971993, -0.6669534838092523], [-0.8788637231326044, -0.9287313314643268], [-1.1336750360406411, -1.147292373862511], [-1.5099313571585828, -1.3807308423843065], [-1.5202672523119947, -1.4527765019579475], [-1.5573156115194147, -1.5062009062345953], [-1.510899808552262, -1.5049288549554458], [-1.5562530184592474, -1.5032700976655993], [-1.5548430629504235, -1.486737706825045], [-1.4386721814351624, -1.4398693149538773], [-1.3447147086028002, -1.1455022089287041], [-1.0017349493456171, -0.8867408096004473], [-0.7145288046325093, -0.6235943215628705], [-0.47098926868627705, -0.3912914539723179], [-0.3268971979243462, -0.2448198014309649], [-0.1236575701238421, -0.1584211418634109], [-0.13459221795679666, -0.07267525345659409], [-0.12900549073032966, -0.18624042556793105], [-0.12367206877896125, -0.1829492956688776], [-0.06057610328273741, -0.04505967784794263], [-0.03479594392819844, 0.003271577388527557], [0.14323379916157092, -0.020432336286998472], [0.07172863041168868, 0.08972295456879568], [0.07780070599850285, 0.08815280849561173], [-0.012402444888120121, -0.009905546039625603], [-0.22304980919401932, -0.1771521165106575], [-0.43974173319502535, -0.34345480744711293], [-0.549574568829622, -0.5068235108078467], [-0.7144673871517545, -0.6094734973955717], [-0.9261613359710322, -0.8414404138845916], [-1.2125392625122244, -1.061706678226538], [-1.4684543122966442, -1.364147183915791], [-1.4972528928735536, -1.464894130359855], [-1.5485869482836268, -1.474964698081021], [-1.5221409848060732, -1.476726614740407], [-1.5679693955067424, -1.4994227066735375], [-1.531121945105096, -1.466706883313519], [-1.4977758554156013, -1.434644083360565], [-1.255744047646877, -1.164098575073887], [-0.845546991322747, -0.8984290122453362], [-0.7118542013598396, -0.6145170430807784], [-0.4359943561278772, -0.4004657322994809], [-0.31017469660829433, -0.275863334956083], [-0.1780161023336638, -0.1719213428143534], [-0.17582704559729895, -0.1655568376437165], [-0.1539165356952336, -0.18563753690718926], [-0.0838348954388736, -0.11976052244163556], [-0.028826522352833606, -0.04960002193580519], [0.04545967989956947, 0.004690113785053843], [0.07693922408515536, 0.07864161205066338], [0.08967586667612094, 0.039467651748716456], [0.05780568913820675, 0.03920370571916764], [-0.06392365533595203, -0.08454926436609433], [-0.29168409853890315, -0.1530561344526435], [-0.41580693871282154, -0.35012752026873345], [-0.5406119097989751, -0.43535014250974696], [-0.7101976427205487, -0.6296524622783604], [-0.9420885311809989, -0.8154776067917137], [-1.1383050640531946, -1.0441686946352535], [-1.43276936384004, -1.3790436890173798], [-1.5019785283971925, -1.4782076490443423], [-1.529030010778276, -1.4971128154423892], [-1.5758640974493519, -1.482876450404992], [-1.5529893678631015, -1.4895600233128181], [-1.5558134146917344, -1.4812597004367116], [-1.5046212845242564, -1.3838966544666833], [-1.191340977982336, -1.1319467628202333], [-0.8364741450516033, -0.8341936746799937], [-0.5249192864764555, -0.5951645381115854], [-0.43319112705631396, -0.3667190776785157], [-0.2602532793540574, -0.2584233164670355], [-0.2586134091636531, -0.18115363704637275], [-0.25919448270280593, -0.1811256631564443], [-0.17211978501911473, -0.23434069962860435], [-0.14763795731643567, -0.09590904479204204], [-0.07400927538392764, -0.07001139360093409], [-0.03713973303857578, 0.017994076975100828], [-0.031601103281666806, 0.055417668030203704], [0.019679924982200916, 0.018469017929478283], [-0.1144427557561988, 0.045072116759954296], [-0.1703325313309281, -0.09198413746746716], [-0.25161366032914795, -0.24641079255314285], [-0.3588362094737275, -0.3662928045564872], [-0.5253529850702829, -0.45870036221185007], [-0.7158091596203134, -0.6663291809805684], [-0.9293613287398381, -0.8458957616435498], [-1.207699959718581, -1.040802816836358], [-1.416286612073731, -1.2989769659939236], [-1.5462821671205667, -1.4147847882326392], [-1.5367669787251212, -1.4627272796330413], [-1.5565685958087423, -1.4409573943010892], [-1.5212182217819885, -1.4959023137851983], [-1.5166945753953354, -1.4529104754082132], [-1.4815793286785455, -1.3484118174309145], [-1.1398741146003122, -1.0523282548440518], [-0.7717324003459968, -0.6951034303456223], [-0.5930235442134144, -0.570386574450653], [-0.42541521081111244, -0.3985336063378392], [-0.30646945470341824, -0.29649359152168203], [-0.3157564541500181, -0.26804829718554174], [-0.3186186645991714, -0.1808573723268095], [-0.228888933256627, -0.2306469211080944], [-0.13303627535895524, -0.14056439334891527], [-0.05357480045970523, -0.08317285035883634], [-0.058758074725941384, -0.04562059916085593], [-0.027800749217713302, -0.03684131943213813], [-0.03662683333496885, -0.02960299923872566], [-0.14752756278932486, -0.04610780895436931], [-0.1697176644320134, -0.1690280305291093], [-0.2799089557559446, -0.25859171534602693], [-0.43259655480248427, -0.3072299586473164], [-0.5560570134474524, -0.47176519624340874], [-0.7384315049312111, -0.6746803916835324], [-0.909990751865119, -0.939531432932353], [-1.2210334466678416, -1.0470168672932685], [-1.3996409308108626, -1.3165774220975026], [-1.5571557329858607, -1.4035567434738863], [-1.5585564235446911, -1.450464629969328], [-1.5483798168399048, -1.4341133147367697], [-1.5570043740253112, -1.4257533705161858], [-1.5521644342747098, -1.4698660185551633], [-1.4733586066230124, -1.2657443094405443], [-1.097024207484311, -0.9699334064486722], [-0.7822972357614268, -0.6798248885210973], [-0.5332546626996026, -0.5676308101533512], [-0.4686934827618204, -0.3974448192461748], [-0.3822073787385284, -0.3191229813030071], [-0.31829447782693804, -0.26323619439136825], [-0.2750583595841465, -0.27958212375674274], [-0.280877942016316, -0.19722935964352925], [-0.19572858220461387, -0.16730536687560482], [-0.09977649748687836, -0.09945058499991603], [-0.08190210763826962, -0.02189746039298886], [-0.042219783567595884, -0.030444851537995803], [-0.14779446778295638, 0.008375249100593278], [-0.1094372619284809, -0.18409708401529193], [-0.17738178643433494, -0.19005029540890545], [-0.2651457558421845, -0.20349427305591444], [-0.3835080918884108, -0.38824914045988024], [-0.5606825799825527, -0.503892018395851], [-0.7474429814785795, -0.7119209786101998], [-0.974345732918946, -0.8828441335020993], [-1.164135843775623, -1.1780127313635669], [-1.4200093173265547, -1.3551345119456706], [-1.4820930702139135, -1.4613734435332841], [-1.5772930850112745, -1.4382569539610461], [-1.5537038257908071, -1.4792540618713172], [-1.5479463996930376, -1.458632532135303], [-1.5146046468547811, -1.419720489848264], [-1.3893885374310164, -1.208991732718551], [-1.0235320680049225, -0.9375970688132866], [-0.7686626774658016, -0.6467509070210569], [-0.5280030301252489, -0.4553496925852098], [-0.4205887286596547, -0.33545759649199824], [-0.2754594680420399, -0.3341599322241609], [-0.2559370719016531, -0.22949433120933038], [-0.29226258859915855, -0.20251312581545444], [-0.19783125381261418, -0.18405750257934342], [-0.13532017658574685, -0.04967394457105799], [-0.03783186961820389, -0.008242006339116337], [-0.01586228953408132, 0.060625225447394245], [0.030937605819706428, 0.016543801026608105], [-0.030330067028591968, -0.07118683060807152], [-0.16687652128149344, -0.058982126730655705], [-0.24678814185197412, -0.18376606025391065], [-0.3842941995110654, -0.2978080862906078], [-0.485433148245976, -0.462030654754727], [-0.6133360048208337, -0.5882336401760139], [-0.7948354884832898, -0.7878796469246478], [-1.0121828087678024, -0.9700047206631165], [-1.2309303119681132, -1.202932708184404], [-1.45127064995883, -1.3711469091783335], [-1.5092004783942066, -1.4400086570036104], [-1.5993213934423856, -1.4688172673225834], [-1.521995053351398, -1.5043348729993211], [-1.528361323974219, -1.4704808373039722], [-1.5150983889406584, -1.4517161463381685], [-1.3215506894592508, -1.2344073295176072], [-1.0553818641344983, -0.9553549064724584], [-0.7857253417361301, -0.6652381613564297], [-0.48063169109508724, -0.39627131886965794], [-0.38370469853938494, -0.26812361144844565], [-0.2804798243529693, -0.2650993704429028], [-0.19678015959596873, -0.1880664915479298], [-0.10168594738741407, -0.10637342992519155], [-0.08841966021243292, -0.056972109618440736], [-0.02741314473282258, 0.028601220229011723], [0.056291993154116704, 0.04456103599508154], [0.023819549131279913, 0.10302900045931002], [0.031382632849558764, 0.05874390043544324], [-0.06543289255062716, -0.07262283498160421], [-0.17185517138901685, -0.14807808383315355], [-0.2984862837945363, -0.27519919383149544], [-0.4806506078850146, -0.39169569348020616], [-0.5831319707272853, -0.5048619835756522], [-0.7281019400793072, -0.6862416506487414], [-0.86518507060586, -0.8752683460917781], [-1.0991981702236346, -1.0412489743315585], [-1.309420472662786, -1.2716209938368854], [-1.4907677476290482, -1.362396038355183], [-1.4603013232994717, -1.5197020058864956], [-1.5378446748340748, -1.472872429804586], [-1.5432191566523386, -1.4581009251269181], [-1.5241866540945481, -1.4863409600098954], [-1.5180327217371172, -1.388661617565759], [-1.354564403540101, -1.3254585482418784], [-1.1328629116657718, -1.0316386784341645], [-0.8041714746331902, -0.7874625714669855], [-0.5563259139149281, -0.5143067792408392], [-0.32569694782213143, -0.27284017746611894], [-0.1882173489440969, -0.1932470608593564], [-0.18321841518926835, -0.0927614274509093], [-0.04511480285250424, -0.03824694092803898], [-0.02614260333495907, 0.01841462457527528], [0.03257387697883756, 0.08185702370895763], [0.10835409180882179, 0.08676064366299904], [0.04425335580645366, 0.06554811739047253], [-0.08616076954634645, -0.0035272737997702258], [-0.16530520485379233, -0.20646187467645274], [-0.31786533831981406, -0.33980451483570817], [-0.4517402793051082, -0.4224563737028858], [-0.587589709997899, -0.5009887031322934], [-0.7072675486259576, -0.6145333933765807], [-0.8711471951599737, -0.8006911365059656], [-1.029160265398487, -0.9984493222568553], [-1.1862577582573137, -1.1584423533300636], [-1.3671500358007957, -1.3052847816970055], [-1.4818535730336384, -1.4125972583218238], [-1.5486286251640562, -1.469124427769093], [-1.5009012558943595, -1.5012044305593883], [-1.525632429681018, -1.4613454357691713], [-1.5637586959543688, -1.4701777219687335], [-1.5224367099735467, -1.470184467516698], [-1.4106729471798067, -1.3857834057936544], [-1.2238434783069003, -1.1449533469727982], [-1.0140772557491737, -0.8689242924241081], [-0.7449091433306804, -0.5989376172488888], [-0.43442485638378175, -0.3690015333950248], [-0.21082653832943576, -0.21642030378497024], [-0.17164128269304166, -0.09726482049849995], [-0.03905690601482244, -0.0023262193458146894], [-0.005779836425968669, 0.00015917350406954812], [-0.0020004589868101463, 0.04072605881795566], [0.018570954619387164, 0.009107477210253349], [-0.12360620552774497, -0.09347060649381678], [-0.23003579560072954, -0.24299337073061855], [-0.3664182211280168, -0.3581219041374996], [-0.4997473633733285, -0.48736938090651344], [-0.6303049668124603, -0.5444621888740666], [-0.6195065165843453, -0.7098227493829937], [-0.8745487814225358, -0.7994387008219667], [-1.001793918474033, -1.0211669626951732], [-1.216336759346411, -1.1423261089816705], [-1.3072577408646449, -1.279739685130276], [-1.4754460283845787, -1.3324495678807318], [-1.540488542902254, -1.4172133688317037], [-1.5574777888015077, -1.4427223884837714], [-1.503384219218276, -1.5003024285105824], [-1.5473037027131775, -1.4805040274388588], [-1.549448257572673, -1.4456814262527635], [-1.6012935058049003, -1.4260767541708292], [-1.4860029627813174, -1.4240112407392478], [-1.3611676866982856, -1.3005183803136893], [-1.2147694064936976, -1.0574078988223172], [-0.9992858831875987, -0.8992754598286488], [-0.7173408905293768, -0.6874441324490991], [-0.4109433045731011, -0.4606868398686543], [-0.22657591841461663, -0.2608882083438892], [-0.16385720346717952, -0.1391468339247972], [-0.11427332321755194, -0.12202362507058415], [-0.14559282336630988, -0.11542798700503226], [-0.18768296460758996, -0.1865271922281528], [-0.32188044402020427, -0.2810571791088074], [-0.42048608317054686, -0.38048332029071935], [-0.5506605343030011, -0.4937723892579274], [-0.6265547329863825, -0.5628926294022208], [-0.7496202571941613, -0.7017169594404089], [-0.8921262487803545, -0.8655623275974386], [-1.0568596809166149, -1.0113844104042586], [-1.193591252794353, -1.160539755080774], [-1.3390918741955051, -1.2441350351825513], [-1.412887582045293, -1.3625068587301317], [-1.5522384504455107, -1.4179480332525223], [-1.5967622973488511, -1.401671992944233], [-1.526452970090674, -1.4851916838900614], [-1.5402746327112575, -1.48340349016876], [-1.4984590452280147, -1.4921256062519446], [-1.5828379466276319, -1.43226455203358], [-1.5543804554065663, -1.4915234571718508], [-1.5845132687857884, -1.3823022267985443], [-1.4903235012524112, -1.41366274225315], [-1.3738680210026166, -1.2721054999707277], [-1.2373850450773027, -1.1765407872260345], [-1.038061434037074, -0.9946291594012777], [-0.7959571977454422, -0.8325351687712819], [-0.5810055178938366, -0.6192417744132483], [-0.49826459453798355, -0.40554924330592435], [-0.4012237200034183, -0.34092293537078383], [-0.38236402223606564, -0.3736594847615884], [-0.4776752861097219, -0.4366436545040521], [-0.6200918714608142, -0.5360245807208208], [-0.6585683968942461, -0.6618414671086654], [-0.7199417425948248, -0.6954264339354974], [-0.8706747394864797, -0.7444483439204016], [-0.9267875185901623, -0.8824406872990553], [-1.1205581700592835, -1.0569301495328718], [-1.1954635037162897, -1.1722665775267787], [-1.305781051006008, -1.3092201827777146], [-1.412175805311634, -1.3918349960234475], [-1.4676447718650916, -1.5003829379320983], [-1.5239766107026869, -1.463511831682656], [-1.5342123822363258, -1.4581187927556511], [-1.539062898506183, -1.4456206796430948], [-1.5664252390191957, -1.4398078250251614], [-1.5304436606576979, -1.5089418246949928], [-1.5335258185200844, -1.4942966986284971], [-1.562425717515927, -1.4547798866089314], [-1.5433769697033044, -1.488846896998477], [-1.5169345940149195, -1.4591968425310957], [-1.5404747634193854, -1.3523612046343871], [-1.365360531439021, -1.3417942764395285], [-1.3224696743584237, -1.1740573720399814], [-1.1548183638421372, -1.0378599176185193], [-1.0063754818197002, -0.9326466844214267], [-0.8883412752491268, -0.8582813734020116], [-0.835197393593716, -0.7084531367519677], [-0.7789090306729114, -0.7159365622241376], [-0.7523081836344933, -0.7993309592376571], [-0.8744571532785752, -0.8029281774082735], [-0.9013441919580749, -0.8800727876421613], [-1.0416954862901249, -0.9436124278386909], [-1.0991021986841303, -0.9938824796009168], [-1.167409356468069, -1.1158977498464369], [-1.2692369133042523, -1.1886260287670165], [-1.4029893005066696, -1.2936555293017455], [-1.4662711651561666, -1.3950693715214955], [-1.4912254556611892, -1.4627097148758803], [-1.507092912419314, -1.4723400735101249], [-1.5005427932408275, -1.4893549918630646], [-1.5322525946829677, -1.4820224066657703], [-1.5018128354313092, -1.4886313589708402], [-1.5265661000082758, -1.49458274795256], [-1.5597952514802504, -1.4591345874361938], [-1.500285406310287, -1.5455949209862296], [-1.535955737953983, -1.493021993791413], [-1.4845697727093845, -1.4870266700026689], [-1.5398025571413927, -1.4827146407324114], [-1.542733086683959, -1.4216642052391215], [-1.5484971278757431, -1.4260672203900469], [-1.4173969991690665, -1.382239980682493], [-1.2977018998890941, -1.240450758169075], [-1.2351517178240763, -1.1925320971806999], [-1.1825778458883454, -1.1292429451398593], [-1.1579900188799268, -1.0226235998343736], [-1.0861765459935138, -1.045467957654733], [-1.1321864627903537, -1.0404409368510792], [-1.1656808005392676, -1.0929960335617737], [-1.2357338442187538, -1.1261124442160009], [-1.2625276420665297, -1.197850977859203], [-1.3495571905017711, -1.2337414691042374], [-1.3963146098642367, -1.2852454936337174], [-1.43747971650339, -1.3467185097085228], [-1.473834119118327, -1.4452326149409034], [-1.471369369079815, -1.4363718523588114], [-1.5517452450816653, -1.4191746134603953], [-1.5567947236089326, -1.4866511471944661], [-1.5287780641138864, -1.5094078275782339], [-1.5709320238201665, -1.45803189310123], [-1.6145056492748244, -1.4481050075411321], [-1.5688257043421288, -1.4685407061428708], [-1.576966541792235, -1.448832778883593], [-1.536687117034049, -1.4665480823160257], [-1.509075402663526, -1.4563754983074804], [-1.535244699987538, -1.5098687916775424], [-1.5192430813455193, -1.4621142846456268], [-1.5411539872260296, -1.4608249848438877], [-1.5170567673666817, -1.4573913266673606], [-1.5399678567165553, -1.4477933661825062], [-1.5267535377975054, -1.46620513849649], [-1.5188080918775773, -1.4270030916413738], [-1.5249732173351753, -1.4506613585817563], [-1.5156326018652941, -1.4442223122554305], [-1.472392763064248, -1.3893077406159087], [-1.508193475346939, -1.3918371034763317], [-1.45395249431089, -1.3831934164757447], [-1.4397678439260184, -1.4279981926327292], [-1.5100354633466113, -1.4024788497052103], [-1.484053024992563, -1.3913080991163833], [-1.5377128376612452, -1.459220313143239], [-1.5252642724638004, -1.464334738407844], [-1.4789011717003564, -1.4915890578509452], [-1.6014430954453245, -1.3875743773934155], [-1.523562234838956, -1.467655506240238], [-1.5670737195534215, -1.4864111252430066], [-1.5557431777875403, -1.4324219764199784], [-1.5527758659839814, -1.4536897774892323], [-1.5194261341384119, -1.499701576319314], [-1.5567746440980488, -1.4433483558076219]], "bias": [[1.511496308895071], [1.603233633007017], [1.5908714708072655], [1.5765095406350633], [1.580397252232952], [1.5837808813147063], [1.528432969795826], [1.5684191549269293], [1.602439740202915], [1.5730105857302132], [1.5518572463301192], [1.5806887849629918], [1.5399828448433883], [1.571379775612453], [1.6045317440849292], [1.6111520635179557], [1.5809075171375209], [1.5638055442577856], [1.5502139820109784], [1.6360872962956554], [1.6052061565074136], [1.5913922613520604], [1.5958044546183678], [1.5747102766206884], [1.559865261983073], [1.5781067727309865], [1.618610780738237], [1.571360747778164], [1.5704178479704292], [1.5414395342100042], [1.5684278590811567], [1.54161385061427], [1.6086738264553628], [1.6081329085923584], [1.5647565943135977], [1.569065795325046], [1.5430969577662519], [1.6095983848398678], [1.5033649482897187], [1.5719801551014747], [1.5452696351984838], [1.5929405944034025], [1.603354127415722], [1.557746759281317], [1.6106549062179172], [1.5379717671794642], [1.5716429052922358], [1.5787395705942817], [1.5615379058186036], [1.5780071360734262], [1.5767406290561836], [1.5561433754003409], [1.6389938647135505], [1.5763230388503335], [1.5640394981949868], [1.602100625837244], [1.51613130266015], [1.5989979113256938], [1.5253225503008734], [1.6178767425369178], [1.5151079958298002], [1.5670986932955346], [1.5940750511109933], [1.547263080579728], [1.4955740968771307], [1.550963782071792], [1.4864628283578443], [1.4554597050915694], [1.3836061441043344], [1.3685590114503081], [1.2568596368603613], [1.2981307189225493], [1.3045540762498287], [1.2913665291818286], [1.311028836332729], [1.392339683207101], [1.4196203739384332], [1.4866819841822578], [1.5119820664151733], [1.5702699310596164], [1.5670648607750082], [1.5375382794731536], [1.5580166280078571], [1.623546034585326], [1.565982563871196], [1.6112444546745335], [1.5875552277110723], [1.5786911084012762], [1.5726832588734219], [1.536773612611974], [1.5358737504551256], [1.5125044973095936], [1.5463877233999852], [1.4004243468545963], [1.2731301271250663], [1.2201313311884556], [1.1317462422872637], [1.0328422378353044], [0.9387063985117204], [0.9045475534498143], [0.9449152550120455], [1.0060068489799106], [1.0359594805146424], [1.1159207882701863], [1.2343308800696804], [1.3707919031079776], [1.444917747105611], [1.5272335646019464], [1.6232593991886473], [1.5228126117527878], [1.5368674622434746], [1.5802965125842088], [1.5898631790053095], [1.5975721286529485], [1.6086442592923769], [1.558040836096291], [1.5795979343541469], [1.4484975728685168], [1.4683592607500133], [1.3612595365028144], [1.2385348003227776], [1.1104405546809477], [1.0181284258974685], [0.86040686686467], [0.748809705050302], [0.6182568796596247], [0.5741892233321962], [0.5333895460427042], [0.5113971653619107], [0.49410155930665484], [0.638930884060033], [0.7784888101836044], [0.9147665502760498], [1.1332777490659973], [1.2212357471641004], [1.389066334161504], [1.5220585349773905], [1.5273295220968304], [1.5314798916974417], [1.5873677658354803], [1.6254949799379321], [1.58013159532692], [1.5850275968805532], [1.6143755528562969], [1.537428920123943], [1.443387201945061], [1.3337637641835651], [1.1617555950326], [0.9340453656650581], [0.8260064496814848], [0.7336409097975085], [0.5725885573001425], [0.4452607380697803], [0.3207983013662647], [0.22833969846540772], [0.2382339940410606], [0.19775442715514543], [0.18045643865719788], [0.16712755859928805], [0.3699108971205431], [0.558046733689116], [0.7253954650545452], [0.9448200515395349], [1.1850492657818013], [1.3452169599391783], [1.5028163748186263], [1.5814409543352246], [1.5589957780132366], [1.5653748214101575], [1.5750330481210555], [1.5558701319151853], [1.5260510760919013], [1.4961069899452035], [1.303579255426147], [1.1144231550527317], [0.956787990792226], [0.7795936146139819], [0.6724748647577584], [0.5212196087388914], [0.3770570627948945], [0.324152987042289], [0.18234593786028538], [0.11335797105679747], [0.027380249557302363], [-0.02565829614372107], [-0.013924883186701107], [0.010217981342232191], [0.09668542461774701], [0.3034685247245332], [0.5277299501983391], [0.6943691990563869], [0.9818950073992156], [1.201427961305279], [1.3921485892625038], [1.5738372959111144], [1.5640892968100137], [1.5625645369918095], [1.5554681132837758], [1.5373829632188207], [1.4670749536913172], [1.3213515196125325], [1.1572838521760314], [0.9573506161609554], [0.8023014308390926], [0.6995614109332206], [0.5208599556831287], [0.3769174008940774], [0.23612591238182676], [0.15801933301419277], [-0.00825524271995459], [-0.019223277274316577], [-0.07079790643914474], [-0.05743151460581208], [-0.05161892828893891], [-0.009467353675410269], [0.049362229278509945], [0.16224939806797004], [0.36444894777947345], [0.660185751826171], [0.897045324127497], [1.0977063905657034], [1.347615849294431], [1.5055177847318844], [1.5287385123459625], [1.5313960449164312], [1.5439866852610333], [1.5247472999303293], [1.4401092578531214], [1.2378955908677842], [1.1020959839292646], [0.8811073878702449], [0.6791910078206129], [0.5589090853449523], [0.4819965363033336], [0.31410299264996666], [0.1424028161537818], [-0.006281729303089535], [-0.023933906635235272], [-0.04448593986108144], [-0.00125095300827596], [0.028131888114661406], [0.009805020725891915], [0.01968512368197873], [0.03369875677023285], [0.167755446508502], [0.3405077621740019], [0.6745428773747413], [0.9232847265450267], [1.1256229733706415], [1.3370111232071775], [1.5821964309780663], [1.5763062680774507], [1.6127696148319255], [1.534454172065196], [1.5080847247917697], [1.4100199377413547], [1.2194824053227573], [1.023555514446021], [0.8595464846171008], [0.7254954734805366], [0.5140306134539219], [0.4032040188503171], [0.2593109716732943], [0.17361541163036148], [-0.012780071848467973], [0.0652938513612915], [0.15775549885918694], [0.18310770129266812], [0.1697538520058025], [0.11850767861349362], [0.10816860847964253], [0.03170654108339741], [0.20374919631490027], [0.4274445812664266], [0.6802671750495536], [0.9041239708979885], [1.1294573973158202], [1.426539508696781], [1.517661925201545], [1.620933777226236], [1.5547874644773274], [1.5161916017454096], [1.4782839623405288], [1.3735694351924872], [1.2416689948533841], [1.0550537082568916], [0.8157942341873684], [0.6010684893532804], [0.45312502086480017], [0.40286386305447375], [0.22172301540538072], [0.0906741102358227], [0.1070403857455822], [0.1680052297072426], [0.3433601871846143], [0.2644600742258585], [0.2133664559427581], [0.14765823518684196], [0.13738065148006806], [0.06735920290610004], [0.2514445580733041], [0.3856324393198712], [0.7080185155197294], [0.9738412797855367], [1.2597266020879112], [1.4644963185775224], [1.5285167239863027], [1.570312387263888], [1.6230262232231392], [1.5278417949106515], [1.515741592951445], [1.43531973622022], [1.2788860911722124], [1.0689130960910531], [0.7657160725082736], [0.6083088050440555], [0.3879708822903094], [0.30721079670725016], [0.14498030800959621], [0.09749106626760728], [0.1462340321141236], [0.2577432769680864], [0.3536403966310687], [0.27349322499464657], [0.13327296509395103], [0.07449657735047602], [-0.009041092486533573], [0.09919220726735377], [0.30784767881985425], [0.5085861637991272], [0.7413428145460202], [0.9947557460566727], [1.2670856628726628], [1.486090009191628], [1.5692274410100744], [1.590971394036243], [1.6013767790213387], [1.6466688771777072], [1.5418353383871817], [1.4488448260094755], [1.2311733496723254], [1.0326534307569286], [0.7658166862460518], [0.5892828805700856], [0.39947590810593075], [0.1897687064349736], [0.1241643290845786], [0.11065441519619046], [0.1915845947784048], [0.3053620767775948], [0.3185774762630049], [0.11103035402377315], [0.00321950635208497], [0.026025294981277838], [0.020624343165427838], [0.16880941933731328], [0.37540221711796945], [0.5590215496125551], [0.729602977395737], [1.0014830456263508], [1.2277523553051162], [1.5156745479752116], [1.5765294570133406], [1.5786043618795342], [1.6139194699068444], [1.6250805370646786], [1.5836210580008774], [1.4969703649755395], [1.2963972646134436], [1.031256161569659], [0.7151053651516068], [0.4972547455255248], [0.32870113366872883], [0.1590469139100649], [0.1076150704491263], [0.18612561392431232], [0.1652097620855853], [0.186110155119297], [0.12192293833919574], [0.011186747741452294], [-0.09003951070024334], [-0.06372183750573916], [0.026215457557350143], [0.1423547560818112], [0.46464493505616616], [0.6017874456722101], [0.758118841553513], [0.9193624935103234], [1.2087526934470585], [1.4978959534134952], [1.589649372692199], [1.5272276482234655], [1.5785120770393977], [1.5324124600000322], [1.5321724485847446], [1.548152440690467], [1.3128103007751337], [0.9270031756590652], [0.6953763276570699], [0.5490571486816253], [0.27933156190892633], [0.17703453264920563], [0.21643197255064756], [0.17518052799533035], [0.11421829520252162], [0.11658278580566565], [0.006805004497266703], [-0.06801755803365332], [-0.1289159011090458], [-0.10447751384007829], [0.04627575395859263], [0.24074129122814042], [0.4186084981551226], [0.5788209933397113], [0.8013171559784766], [0.9036915147350756], [1.1285982292564996], [1.481538751331147], [1.596965915027194], [1.5706369530705593], [1.5959234491319785], [1.5262422129289115], [1.5795043387776713], [1.4811800435925657], [1.2941869160544426], [0.9182924071998593], [0.6050838424315068], [0.48138108684463726], [0.2540260722347057], [0.19909730231551193], [0.18039490912889442], [0.173355083157081], [0.12870876857787672], [0.0094588186652697], [-0.0034752547083189795], [-0.012362640422990014], [-0.06107339629576912], [-0.0048318379705737345], [0.10802271096408028], [0.2682682330907965], [0.39525253554227313], [0.5929320221975248], [0.7437557538555591], [0.8973953103567349], [1.2121391103981276], [1.428310942861911], [1.5588401048862337], [1.56467660353685], [1.5360854535840902], [1.5510415326266302], [1.529251985855449], [1.4873369738227615], [1.2486586309069236], [0.8330592758157267], [0.6904074229172794], [0.4523622854223807], [0.3234466049865515], [0.23154890588259533], [0.2053970767359995], [0.16890612064705474], [0.11642279935180483], [0.059537626387388506], [0.017897586829695823], [0.004114825114580762], [0.04611264380666005], [0.09936766493298459], [0.18842584934644543], [0.27865990181464523], [0.41151355189681], [0.5769360319389437], [0.7182970422642704], [0.9217569316974137], [1.1781093203835067], [1.4694941187399122], [1.5617908684864144], [1.5906865429282018], [1.5975496970606151], [1.5751201043617513], [1.5826459047965387], [1.4474550894975715], [1.1727984690530149], [0.9094851053912714], [0.602390471360979], [0.44346015574381525], [0.3565572224348444], [0.2624810439551212], [0.31407973873355133], [0.2126547720043499], [0.1966856256483532], [0.1614789885734393], [0.009055140856904665], [0.013855456760793024], [0.09432827593824651], [0.1641147066327275], [0.19820766521523195], [0.2548330176464371], [0.4047732083885245], [0.5721198403784759], [0.7402653267536454], [0.925652075759804], [1.219140129511442], [1.4364770288662934], [1.5558956820938707], [1.5826260039148021], [1.6118260652301573], [1.6101705518784741], [1.5050639799260224], [1.3904483473737408], [1.101287200849919], [0.7942315263544717], [0.6115221946348152], [0.46764298543229077], [0.38427200281023594], [0.3817490891258065], [0.3276746444428394], [0.2719575097130404], [0.2224011678198517], [0.1512830946455315], [0.050531045355073044], [0.023580778014405623], [0.07065173308971892], [0.09096735849391183], [0.19312160574701037], [0.3649556694434205], [0.4610301251139752], [0.6360716203424382], [0.7854049103192873], [0.9968795897707794], [1.2153144922137584], [1.4059731090072194], [1.5928577469525638], [1.5748454989115792], [1.5620144996025231], [1.5836087052205525], [1.5552051546616357], [1.4122186072911225], [1.100666907104009], [0.7443434482414635], [0.6158176162922727], [0.4750681741796198], [0.38977019978177646], [0.36638677001027103], [0.20000188647425315], [0.191512091310089], [0.17491852056343937], [0.09694743301581692], [0.005880312451855945], [0.010264841577930178], [0.05757096172104339], [0.17866740596666977], [0.21311154988801315], [0.3208982630124808], [0.4739022007329154], [0.6717779155710086], [0.8200789396834336], [1.0463657259048091], [1.2600327485157268], [1.418567466055153], [1.5888553705588733], [1.5242832099949666], [1.568745427829764], [1.5901637979130312], [1.5067769778074156], [1.410505608699988], [1.0851831771600042], [0.7570929199485255], [0.5864383893462785], [0.37832665126802184], [0.22515144205741808], [0.1971499056582599], [0.17754168977693105], [0.06223645309705247], [0.00944479529176203], [-0.06286175228932683], [-0.07785640229288826], [0.036813117723073725], [0.09019843448240349], [0.24609820198301804], [0.34850368847233915], [0.4289370975399938], [0.588409822581732], [0.7389845719756627], [0.9445019280271292], [1.1532879175792043], [1.2748645944649517], [1.4805538262590408], [1.5712373094950582], [1.5836971470140508], [1.593551859822944], [1.5796412014587684], [1.5834188111163485], [1.3739113591576564], [1.1367060278518937], [0.8373422419218509], [0.4968821038077135], [0.3445316110941773], [0.22032003065806208], [0.12023825662946938], [0.09187544663361726], [-0.00039470080134184596], [-0.059562480804678894], [-0.04695678306270442], [-0.003789878313599988], [0.11987720758486024], [0.2141886959552653], [0.3284816128845983], [0.4600481859394421], [0.5457494968553747], [0.735567055550602], [0.8942918408130244], [1.0762431066872953], [1.2685069634594166], [1.4029315199726469], [1.537854547173517], [1.554375474967749], [1.5927246980595542], [1.6079002586529147], [1.560755967278439], [1.5317253598330216], [1.4440526419562167], [1.2889955925934988], [1.0075668649846172], [0.7032345498716611], [0.40500381836647426], [0.2798948962748416], [0.11518741108059731], [0.09392420801575443], [-0.03429569079738334], [-0.04113198028838283], [0.06425768941356691], [0.12598177248426812], [0.2794460624057858], [0.39772332602768573], [0.4610409494939261], [0.5651478891624432], [0.7648908954143241], [0.8927623327721103], [1.0576080732581903], [1.1869171984795368], [1.3711830273550238], [1.5019611452597361], [1.565597863246277], [1.587878202879242], [1.5909367280930247], [1.567267879765344], [1.5999459235570763], [1.542696055810471], [1.53270228194442], [1.4144703932573461], [1.2295416534339896], [0.9260029936043658], [0.6441956992730303], [0.4334974981157367], [0.26596957442847563], [0.1524272761347501], [0.09461158335114249], [0.1308375032897482], [0.19898936465602846], [0.31697918377005047], [0.4901782452994325], [0.5570606456506751], [0.7063194216341632], [0.7977074754677569], [0.9193688519019774], [1.0891682084377945], [1.252084241481025], [1.3893773184505478], [1.4920055073670764], [1.5092803637256131], [1.5739724001209068], [1.5796471634417528], [1.5713974106525677], [1.60449045665397], [1.579973459542364], [1.5428926340463636], [1.5814030150279066], [1.4985114463704086], [1.4625373254946348], [1.2063048747771925], [1.022861358091214], [0.8553367077647829], [0.6911350378362138], [0.5354177584440112], [0.470607758710269], [0.437246965822446], [0.46136305482008777], [0.5244915512233782], [0.6324028895954424], [0.7871738695671988], [0.8507307252006832], [1.0376386108804814], [1.0903737960375166], [1.3039385612123555], [1.4111229714171374], [1.4756430679225525], [1.4815413434282114], [1.5682510412355115], [1.5940469457727013], [1.6096584769349662], [1.588842722559398], [1.5556899583404424], [1.567252955602884], [1.5772334508735664], [1.556015697547299], [1.5707872229700066], [1.5334626604010797], [1.4522728410556869], [1.2930762922472434], [1.182757479640803], [1.0812735869878576], [0.947495106148618], [0.8869867325083778], [0.8296457452719483], [0.8511182003978989], [0.9037894027041454], [0.987068680736592], [0.9581866210336306], [1.0782632290849734], [1.1931851512441107], [1.3383978833124743], [1.3958643532876513], [1.4582527216007337], [1.5074898631425777], [1.5628191924473047], [1.5930095474445736], [1.5793817416955034], [1.6039739726897126], [1.5739265568331886], [1.5761458849910879], [1.549194827705441], [1.5660977685202369], [1.623251378575888], [1.5587561282911742], [1.5686808061120023], [1.4293487040428856], [1.409429967240627], [1.4125239025629155], [1.3027970699865505], [1.2023392750444641], [1.161051547318317], [1.1454275110962515], [1.1418225744162418], [1.1583997503181713], [1.2067774896997059], [1.2504735930207813], [1.3016747547871719], [1.4022998758988303], [1.4806314791661634], [1.4856780052028886], [1.5996859579153695], [1.5958910755829152], [1.545461689680388], [1.5566739632858546], [1.5657083643525385], [1.5324656503621883], [1.557709414185354], [1.569276584136289], [1.5918402904801523], [1.6296242995656927], [1.549962005752191], [1.6127237793998905], [1.587027305023206], [1.6042059863866311], [1.5726155583012955], [1.5528242727098915], [1.5737668347907199], [1.493235602518739], [1.4774175008030823], [1.5455144474585865], [1.4850082369307565], [1.517905262272975], [1.5173308672936603], [1.5066915607675717], [1.5912967152779625], [1.5226959179260624], [1.5719271061385336], [1.607351106253204], [1.5988861073211063], [1.5981569987011333], [1.5408124623148225], [1.6069105187863277], [1.588610012426305], [1.575947615463635], [1.5949526913226721]]}, {"type": "output", "nodes": 784, "activation_func": "sigmoid"}], "bias": true, "loss": [0.0665532714710992, 0.06651914998786375, 0.06651123288067215, 0.06650829045603626, 0.06650694474775766, 0.06650625255725148, 0.06650586866571159, 0.06650564437900712, 0.06650550827666919, 0.06650542327975884, 0.06650536899074298, 0.06650533367921249, 0.06650531036018079, 0.06650529475734661, 0.06650528419335915, 0.06650527696097666, 0.06650527195498923, 0.06650526845087018, 0.06650526596860828, 0.06650526418733554, 0.06650526289091853, 0.06650526193281857, 0.06650526121312085, 0.06650526066337932, 0.06650526023652877, 0.06650525990012994, 0.0665052596318181, 0.06650525941622616, 0.06650525924291148, 0.06650525910494964, 0.06650525899800996, 0.06650525891975444, 0.06650525886949073, 0.0665052588480107, 0.06650525885760655, 0.06650525890225344, 0.06650525898798947, 0.06650525912353554, 0.06650525932122085, 0.06650525959826517, 0.06650525997833003, 0.06650526049278145, 0.06650526117966502, 0.0665052620749102, 0.06650526318429491, 0.06650526442414736, 0.06650526555262204, 0.06650526617635699, 0.06650526575459026, 0.06650526286475944]}