{"name": "hl_32", "layers": [{"type": "input", "nodes": 784, "weights": [[0.0025119391581419704, -0.0032769506993500395, 0.03414827017184158, 0.030144986582841406, -0.0020219315189272348, 0.012805778945797807, -0.016726893345164334, 0.05354119812840058, 0.04525793018507116, -0.031295714423197875, -0.04989449483352393, -0.05563193083138909, 0.02197706622644031, -0.07955486949999886, -0.024403846430920417, 0.017038547089642805, -0.01534644280051268, 0.008032331915229951, 0.01609332991817534, -0.017621573779106697, 0.04803111395311295, 0.02362147838980872, -0.08057081006745352, 0.0346948088528878, -0.019078738801765, 0.022652067987962925, -0.042911104436620454, 0.024948205177634276, 0.0222119784247906, 0.013193306211073275, 0.024466844799203157, -0.0019660545785512634, 0.09490484417182872, 0.019581396979382035, -0.006523758131010167, -0.035459583051965775, 0.00017353846750439036, 0.003979027480782622, 0.02411172511637151, -0.06237553848206494, 0.015155947350112102, 0.01639721075581707, -0.007100237053628932, -0.010012234337638561, 0.01005332772276203, 0.032756994935098066, 0.01723075690252188, 0.03711782073808931, 0.08867391413296574, 0.021479384957857364, 0.0009729158228478533, 0.02775703018548504, 0.010384793724140567, 0.022201528509241578, -0.028397169860890192, 0.015126508502498137, 0.09063873190518958, -0.01837911234642517, 0.030924552303374642, 0.07091586053111387, -0.0660747206932785, -0.0316102133465088, 0.015344430399631152, 0.0333749873212264, 0.017222023725636523, 0.07615556674164964, -0.010910666221049498, -0.02620321051444158, 0.049807089061776395, -0.02309454212754449, -0.014260900373689087, 0.05653429633259798, 0.018935466938413865, -0.01468281889354504, 0.0801032099455981, 0.035300785468560296, -0.026415578462726, -0.00543321672188357, 0.01953760168756716, 0.011441167465730304, -0.008812121934436548, -0.0009024494568103175, 0.05475903568736341, 0.09192479408634503, 0.009236645042040926, 0.010659530026770671, -0.018400196315200866, -0.02027244959005634, 0.0189922903324287, 0.05633146446423842, -0.027273221938056237, 0.015428427816695898, -0.005895941838332608, -0.00631630983522584, 0.010103717303515168, 0.033329258147564884, 0.015341361134539952, 0.03302044451466608, 0.01807731987055197, 0.004467757523833613, 0.047005639581705685, 0.012267573917280391, 0.09703415320719129, 0.032296716825440414, 0.03873206404134841, 0.00368183144731806, 0.04361496888687707, 0.01052587794457992, -0.017691675228535837, -0.002106663242991336, 0.016826874130137993, -0.017059255587705865, -0.008615537114629352, 0.06369777815434434, 0.0704068606816133, 0.008136478619637247, -0.0015465993882694754, -0.05363484498723585, 0.008863005433043365, -0.014435852361047689, -0.08555674632596284, 0.08317105719714929, -0.012167859142454928, 0.010978082407087753, 0.1036365805380838, 0.09585640643526191, 0.21067446286942562, 0.07842677107737135, 0.07317242811969095, 0.10000529482843129, 0.06864908967164086, 0.00240304736645295, 6.358909661969815e-05, 0.0871448199492059, -0.007618347380612434, 0.03622478354215122, -0.055051934449570766, -0.026076248122181254, 0.037570764121115305, 0.0010260483921715685, -0.017332714993265885, 0.07698030418022615, 0.011437752161704886, -0.027599768351569246, -0.0034602882237585375, 0.07044719178116099, 0.03919408573104415, 0.04497123937764815, 0.027801605173199195, 0.03224433587467745, -0.010535120600223626, 0.1142133564601379, 0.12526610717402753, 0.18033894771675424, 0.18319562006913026, 0.31902237470857925, 0.23420303498558484, 0.1712117505491514, 0.09650459284871084, 0.0606524163378976, 0.08516120141361574, 0.02440312896253585, -0.014830321869814592, -0.014128883281088472, 3.6419579106953646e-05, 0.04279430309298393, 0.018371139373373285, 0.04170626358648521, -0.040864597852229755, 0.006095647236198419, 0.014740869984516914, 0.04204759238093116, 0.020743349578104867, 0.024253211208994808, 0.016182164859175105, 0.10564113072001025, 0.05058328304734408, 0.08697003427472792, 0.10783064908027089, 0.1411994207884608, 0.18435665808340632, 0.20249413626894497, 0.3599010111746104, 0.27350759297490274, 0.23076103688661698, 0.22269091472846014, 0.1523281566889527, 0.15034139790291318, 0.09104993829144396, 0.10374810898212328, 0.06391822012453639, 0.054763132324347125, -0.0018014623257709467, 0.0016545381010525052, 0.06640338256594965, -0.0013654713230507403, 0.006258593267327525, 0.03930463507745813, -0.025605804841111662, 0.023285456814283564, -0.040532781344848376, 0.07048838664971632, 0.0539626908500501, 0.04761415653432597, 0.12907172961190536, 0.09449274496045793, 0.06702805603206193, 0.17823107406981764, 0.25416861478509767, 0.3272077413262128, 0.3663296861930942, 0.2533873495032113, 0.2971084996808135, 0.21370404453544403, 0.20561134043872825, 0.17692399618262508, 0.12570269195976308, 0.0848190399047963, 0.05109950566136664, 0.01452873371263561, 0.02956543750401564, 0.013001036247666176, -0.04232389547188287, -0.018311984036746835, 0.08002566766540448, -0.010911502834712138, -0.00705674444326413, 0.025173605333620893, 0.06084828549689514, 0.080504730235092, 0.0795266652315723, 0.09845865917504337, 0.15878921830767492, 0.18054310661634435, 0.12045129866502724, 0.16613322419937976, 0.2326673964442677, 0.30826446681750197, 0.3491408189625825, 0.3518245385464704, 0.25694805765916745, 0.23469888035422165, 0.2599609914044958, 0.2103621418682433, 0.17188866974603004, 0.1529602002385243, 0.011002258163507687, 0.07364401403945499, 0.040824646132171453, 0.0601795064498205, 0.029555696750133118, 0.05161267677799983, 0.0042045051655552656, 0.02926795618585672, -0.050508131251556516, -0.011411521591973851, 0.030404343172378778, 0.08495975742040428, 0.0599679098903046, 0.03961063891097299, 0.1412307256831493, 0.1500952188095743, 0.1800964870026009, 0.27057746181242537, 0.25069575752279816, 0.3059926479980703, 0.3500542294682202, 0.2974504104199599, 0.3028997448453688, 0.2886434529256573, 0.27554801809892643, 0.25991131538669504, 0.2549552755177164, 0.0722855154522453, 0.07049835159247679, 0.04985901600722883, 0.05556687973638571, 0.018813722326384463, 0.07150165523422022, -0.01771036567750033, -0.04336598387106034, -0.0023328628624708987, 0.05573993118993021, 0.0505517176542524, 0.03889955849325799, 0.08569982640424127, 0.13880622318461847, 0.09025366609657466, 0.11240539678012121, 0.24644382565986359, 0.16223118148515392, 0.22737660059314688, 0.24939776779059153, 0.29810924344084, 0.3062615608169243, 0.35123081754974356, 0.33804940695908775, 0.3090600959320825, 0.2562265845354184, 0.20299406077595264, 0.2065896868466479, 0.17665145276196187, 0.07391363123778202, 0.02897313256707994, 0.0681151800419788, 0.01878024838681637, 0.06859062474647001, -0.020216206665219755, -0.03820923605904847, 0.00013659029608900956, -0.09181776472210698, 0.025500789802918842, 0.0323923659649555, 0.08979052147489497, 0.08410794357750284, 0.11787322284793388, 0.09920178087534454, 0.20788155889832294, 0.2196304330599868, 0.21273601080347315, 0.18869270873260227, 0.33619531165343186, 0.4011927231193544, 0.3622028140968289, 0.3320215791887918, 0.33070844209042, 0.3193810707403473, 0.17521833683347585, 0.25231006052051014, 0.14345201655331402, 0.08320895480914331, 0.056440635818332044, 0.04489935153584199, 0.054765924441280145, 0.0511606584027915, -0.013024824901052754, -0.027716202891321325, 0.0011421863245968265, 0.05226924916406149, 0.11255860609675074, 0.09710562507725984, 0.1459023750978888, 0.1527209360210813, 0.1963411378353066, 0.13952489148382297, 0.19805561299635976, 0.18679331143207953, 0.1908211333441085, 0.23505725736061062, 0.2601323830919544, 0.40141693674144197, 0.3879446759991409, 0.3238154010102006, 0.30585745994872077, 0.24925501579296164, 0.24828399509815927, 0.17172797065253262, 0.11774454330227864, 0.11958319488020443, 0.1423151856106664, 0.06698363638241807, 0.027026075308686743, -0.008650993642868235, 0.05749198473624279, -0.038916372798070135, 0.003780139710231715, -0.021132723682247806, 0.03376224134269814, 0.06465583814237465, 0.15123851034594749, 0.12035579433406678, 0.11044562063011622, 0.11356552438230265, 0.08272015327548816, 0.20769209364421326, 0.2428896396434746, 0.18771448496513188, 0.33071045881894856, 0.4595899624844014, 0.3842128585138197, 0.2902132668786628, 0.2832699420728732, 0.2671762054602461, 0.18795887932683952, 0.08806376984547334, 0.08517721846671038, 0.061099745211163875, 0.07977316310391912, 0.015649821809261624, 0.07484361079545264, -0.035724008655910286, 0.0031372190670728344, -0.03266021629966037, 0.03900318455124557, -0.06922029139937427, -0.024060409954929557, 0.03933600820823385, 0.10446199041350532, 0.10940628251417674, 0.10501403303859959, 0.1689624580332816, 0.1038859780165994, 0.1786623581925062, 0.21618114008309064, 0.23390944566859576, 0.3505529574280199, 0.4790551829949276, 0.42049197154440754, 0.27878632231219275, 0.2633390561499541, 0.26505868466608745, 0.19083405234214068, 0.11454386956667828, 0.058995664886372125, 0.120700559425867, 0.1384267785076503, 0.026628265176663737, 0.06296093255486344, 0.008066821026282565, -0.025226930438467368, 0.04109149197301331, 0.043933207872906416, 0.040436426237800034, -0.02980374388997491, 0.061067023905434094, 0.07703962420508398, 0.19341211008762282, 0.19756561831499014, 0.23090443088774162, 0.18712698093216018, 0.17302307527069835, 0.18447913355710552, 0.21048403113640038, 0.44935553948457635, 0.5140880132965301, 0.3534821693037069, 0.28152730722686153, 0.177129372361462, 0.16530123768643418, 0.18447828543962605, 0.1462027199866553, 0.11685596305953506, 0.11200198943263688, 0.035473467864477914, 0.02838965392801561, 0.04783084694419504, -0.002443512418448864, 0.00014448721340111194, 0.04097297601189631, -0.01263430610152116, 0.09020197857567237, 0.01760375988324673, 0.015937576402721632, 0.034907608945787004, 0.1086915704309459, 0.12757411531366739, 0.20838920536083388, 0.20358288375366643, 0.2439187988481703, 0.1526038644553568, 0.3042796692380839, 0.4062645032811064, 0.4764646132173307, 0.40445715360715917, 0.33785409293639346, 0.22273866179725926, 0.24631314332800058, 0.267652318314772, 0.07733144015274264, 0.12028708113592981, 0.06887270558704282, 0.08938508542090597, 0.0819043975943416, 0.03101571138141059, -0.005247391766198295, 0.024594492299924726, 0.04022336122432208, 0.019988526853372324, -0.026850294181324, 0.004237396220706117, -0.05308973327851417, 0.005146543643258355, 0.08245829250587235, 0.15091777710701992, 0.16981260929373038, 0.17298963002767628, 0.2165040383795537, 0.2145127694055488, 0.16623616442589792, 0.33687557929574696, 0.45204845628195445, 0.40101176754301515, 0.29081071470437525, 0.20402996492059686, 0.16794028382138082, 0.20884021529369046, 0.11944868317830548, 0.07322436263582657, 0.1373439946823274, 0.04189310337613889, 0.0034735337111019816, 0.01998813518454481, -0.05166967421436478, 0.039849735820396345, 0.026055676218953477, -0.008114676242699908, 0.036092998334209536, 0.00015793392543599877, 0.015491000267937644, 0.019197218735685705, 0.08163468329660067, 0.12127431281348655, 0.10179538734661783, 0.13933180707721826, 0.1885008393527377, 0.13447857208320657, 0.25965334397857337, 0.3545450716876178, 0.4043877337525774, 0.29046059198337537, 0.21071669307423768, 0.2706306487057364, 0.1543535999757547, 0.2079382249857606, 0.09426073552820356, 0.08919600979473283, 0.06899278562313045, 0.025694259820048106, 0.035027718583433794, 0.015426954940318673, 0.012140462492021692, 0.020002164103217906, 0.010042961535233033, -0.0371661425715248, 0.01889253629474956, -0.012128218883396078, 0.005152449836795742, 0.014498702430647764, 0.07657388206537416, 0.16891134252776963, 0.15960024778939144, 0.18107453996480902, 0.2164193178382464, 0.16843289190312394, 0.28833333199475586, 0.2911911575267164, 0.32891778598446103, 0.3171031858377263, 0.19737960384575326, 0.26701526011307075, 0.18728246671547405, 0.15350558557102115, 0.0699033505479489, 0.11196295772318632, 0.03421145232106071, 0.07421611261968958, -0.005506333845496103, 0.01841229519852532, 0.018405696877516416, 0.010538454958664423, 0.06254944434602185, 0.027227089456197635, -0.02326412504867251, 0.0014703819280503085, 0.008238498525558195, 0.01588026214350177, 0.07059386452629679, 0.13255837830091424, 0.22052484646947146, 0.2030561987921174, 0.26894571394140376, 0.2648478653028381, 0.29148971634461984, 0.248496697349504, 0.34921056062962663, 0.29161525330059657, 0.1760173247426574, 0.2059517288825165, 0.11743276243421336, 0.1703577283589397, 0.04299668992820069, 0.045128375416814435, 0.03281228689970064, -0.0073877832389125375, -0.016504805711601178, 0.04956310163041035, 0.015862071678252845, 0.020096003538721666, 0.02898118077383621, -0.005189048428931052, -0.02853522549903318, 0.03470453611398702, 0.01575290764779124, 0.008897836645323245, 0.058935475696307346, 0.09858424475399738, 0.13224816496162647, 0.14936371042293062, 0.2000145506780393, 0.20343643390976493, 0.2443035778409667, 0.18710141535243105, 0.2761416790889227, 0.34103261906114846, 0.2629996219876177, 0.27824462408584516, 0.12596883358061065, 0.14576974947148524, 0.14779793303043698, 0.06663995634633732, 0.005602458444842195, 0.04426960916711871, -0.043198854850013554, -0.03875567061751574, 0.040079070544343995, 0.0010211987210425287, -0.002520989526486334, 0.03435783945201851, 0.05015982087033059, -0.024461122363664402, 0.060582991364305554, -0.02254670606310892, 0.0432705398553749, 0.08765019508307176, 0.0799074685061984, 0.15012711740594692, 0.17519030194057514, 0.2553143936870219, 0.21874358438632213, 0.2079195792631046, 0.27951767905736247, 0.24251814112158987, 0.21889623490295562, 0.22788934941449682, 0.13427529949778777, 0.05122668826656426, 0.02189150133425682, -0.055305628462680556, 0.027709499292736754, 0.0672942097568709, -0.012316338473389142, 0.05473816997669195, -0.014992892872534377, 0.03573217203322966, 0.0264657042953914, 0.03901703393581499, -0.00832914248089268, 0.01581628060545007, 0.03128519745897704, 0.07208793368272493, 0.01741577731294346, -0.006996033238861059, 0.10257817616850273, 0.039340355300828876, 0.1800425754938924, 0.2328095066366429, 0.2331349120369879, 0.15497858379705917, 0.2726366815609126, 0.22409253472548593, 0.19307022808027258, 0.13189411343053634, 0.08051832696506993, -0.025777005499013902, 0.04515192634693552, 0.011231143553252021, -0.01804903650323991, 0.02025751533678681, 0.0023070108990411345, 0.0036795615979781965, -0.013543237909639329, 0.03671117856569135, 0.05538750432446576, 0.003952431645585586, -0.014184572733353162, -0.001762982127611684, 0.02513788863939339, 0.07956224449365144, 0.005509122315277535, 0.0677757726149641, 0.08491840011209358, 0.10521205530549499, 0.0539440191487507, 0.09064439160102797, 0.0828161294833824, 0.10862593454663859, 0.17415805802518425, 0.11970176119447691, 0.084824924864991, 0.09960491438950454, 0.10315435739451038, 0.026318280946017007, 0.0021399490125921855, 0.06740117305380466, -0.011542186658769285, -0.011962812822689305, 0.046731939349355496, -0.0651669573519248, -0.04261403212913701, -0.005400847840774101, -0.010984696873456278, 0.026762277938925383, 0.0344987609502476, 0.04584373505738986, 0.07127642015196968, 0.04108602927642841, -0.019423498497723936, 0.032004298125944075, -0.0029897408500257927, 0.03444295087548876, 0.050637384571296414, -0.000497476755364176, 0.04515704576509033, 0.0421856850245818, 0.06568873301469301, 0.103189202679643, 0.14835440856410606, 0.06711285907881481, 0.010527208549599444, 0.009755546086536258, -0.03024947956449465, -0.034822769546891126, -0.02166176627385446, -0.015556512618996725, 0.01592482206723863, 0.0041163369073700384, 0.012733508266004143, 0.046329590225416245, 0.00695579733026423, 0.05281491544585172, 0.020323468414717803, 0.02901042082752576, -0.02768549989779026, 0.021751969127060695, -0.02414525079280983, 0.016087080936377788, -0.02987843273912372, -0.007967333989548221, -0.03324481734602193, 0.05006554171636916, 0.01436556140191026, 0.03371995100222654, 0.07099639090671882, 0.031232288172352993, 0.009124888834997439, 0.0022151896616283947, 0.015402986121357586, -0.008226276947052349, -0.024415718033636628, 0.012433576089093634, -0.042029655059256384, 0.07140450780360165, 0.04527005109017478, -0.014027147347830612, 0.013768952235676684, 0.02352718785387889, -0.036443613956305826, 0.0262852909574587, 0.05487404820301522, -0.033085082153284304, -0.005101254937518758, 0.07625319654089528, 0.06686997234331143, 0.021582858608303064, 0.022208940055045617, -0.0014010623349138814, 0.008685898019440006, 0.029760716034996554, 0.06150173783325331, 0.03234414978579111, 0.07965511243260702, 0.022695794121875314, -0.0028765781481177536, 0.03141582979844897, 0.022529068295871566, 0.03109116552639043, 0.037681519341445056, -0.015508086401484765, 0.0009234469081435008, -0.05816010666344192, -0.030732840907315827, -0.0014547222511915674, -0.007793185222787651, -0.00544697393816763], [0.10204961595938951, 0.05048410384507162, 0.0020957587312920925, -0.015893905759055214, 0.05666408534126729, 0.03455200865208537, -0.005597730467005007, 0.009549388707772449, 0.01030306636637369, 0.0317169047680567, 0.00705474440858224, -0.01567428216438782, -0.010800823740037201, 0.01642587960530539, 0.0034649395459744707, 0.005638702842141804, 0.011414860665471684, 0.025836232126155243, 0.0012480278781531477, -0.009781789026035027, 0.04916056493842814, 0.000865210638578865, 0.026451989785940412, -0.03131440432826254, 0.04971941405582656, 0.024330719395651894, -0.045458693097108045, 0.12024590813422334, 0.05548921727641338, 0.08949891351516145, -0.04513327679795994, -0.020326763176209545, 0.022747834697886188, 0.011950207056675549, 0.0008084644927617807, 0.07500559073011875, -0.016704022215104787, 0.025294907329606136, 0.03354566169365411, -0.0006033159492951578, 0.02260001892739995, 0.09628875130909936, 0.014927750648581468, -0.03313514124380592, 0.0762438376916421, -0.008277032284279704, 0.029866295319779114, 0.06396773222292905, -0.04821144520885501, 0.01729142712553818, -0.03409975213259947, 0.08094026795567937, 0.023928850005051974, 0.038742968439117544, 0.06965340895767519, 0.009685805443320806, 0.010071956650159985, 0.0393381698130218, 0.05907959926974748, 0.013923038734311706, -0.006027319119351605, 0.01682083607378479, -0.01652765158173295, 0.031652108903381736, 0.06340883609435823, -0.015083549221879156, 0.034370416553264824, -0.006048962700284698, 0.006868661172283919, 0.028287706685581157, 0.07469393690612618, -0.01831131797876362, 0.009749014789209837, -0.015629709692518638, -0.019587308034139536, 0.04123922330018253, -0.08905540954360507, 0.04698972787426547, 0.008766807796791622, 0.0462773935312915, -0.006079785307220896, -0.0024999701169812123, 0.017821200719642476, -0.024458202026532986, 0.012377522052886822, 0.042916557472534776, 0.07117828201147344, 0.0033299017676962925, -0.05940043993357287, -0.05523869102579977, -0.013447202538109387, 0.030793374297744227, 0.09471260215656957, -0.004708306935468327, 0.010850985328714789, -0.04887641316006057, -0.010145961634907922, -0.04142981070209348, 0.0725871631563786, 0.0811108858843374, -0.012669240014045813, 0.06849888727099726, 0.07854140791604107, 0.032159259106779366, 0.008799378201529427, -0.053324479118345855, 0.02127303497238007, 0.0609135633951395, 0.02346973644347748, 0.044837721754934765, -0.013999454996821922, -0.011636906212927865, 0.005440798328484057, -0.05451128587192849, -0.015249078914653477, 0.0010719865341082021, 0.032061095502999105, 0.052553815816223357, 0.028369652062694418, -0.00232020821518051, 0.01479215394973375, 0.035916150644740685, 0.005273106064329606, 0.05019528702930083, 0.0864966163801269, 0.106700756186976, 0.07370334734228229, 0.1395297578776776, 0.09512955677757015, 0.14596720315116946, 0.05593072452774536, -0.02292722457871213, -0.0025058136720139098, 0.04868690507746847, 0.060529890712993084, 0.12126760453596017, -0.02300511474647322, 0.01326796922593875, -0.013732837324078283, 0.05694685646724104, -0.005407413892574721, 0.012084485006244827, 0.0003222011586180808, 0.007746944550558877, -0.004279086820436551, -0.006798270153822917, 0.014419745316700608, 0.0019853739721298145, -0.022656741725112537, 0.01693473175627835, 0.05888592327772786, 0.0647904963756186, 0.17144795838415544, 0.2674026771858818, 0.24559231796978348, 0.31252693254226566, 0.2249441994552207, 0.08970301902083777, 0.16562767773070786, 0.1179570220458991, 0.054374551233001236, 0.06368547738167969, 0.054657433170374276, 0.043273122093350234, -0.02094631162154475, 0.021912462654836807, 0.0018216346400598377, 0.04628321560837437, 0.08035045310211929, -0.007973417483024865, 0.05160918514593886, -0.01663126513882176, -0.013954050835543474, 0.015332721221572577, 0.04310586308186532, 0.10672384322304201, 0.12321056168464756, 0.03885657768757544, 0.06143652613669527, 0.13437976314475494, 0.16381381541210213, 0.25433658687825283, 0.3114000987396659, 0.2682198471337387, 0.12467084656105847, 0.10316994583714792, 0.15563185309410738, 0.07406455678652875, 0.09050203546322479, 0.11088804189386041, 0.06340392114091542, 0.044186170633861224, -0.04286030944316219, 0.051877552682708314, 0.0490024649835543, 0.006472272247743775, -0.010677903616951262, -0.04900284014558007, 0.023985640395476026, -0.029983782725123944, 0.05305838329765974, 0.07724816416345627, -0.001190725713123264, 0.10526500295828901, 0.08109425627465117, 0.1300889889093116, 0.09508819561669143, 0.12763537267523975, 0.27273905454298836, 0.31249600951902, 0.2961940611121933, 0.2437064974088566, 0.30549836943530745, 0.16064430875469854, 0.19495948324134738, 0.1854592433060814, 0.11786846066409973, 0.05197157141544849, 0.029108759762865345, 0.09210504293324495, 0.08144432047710398, 0.017356099741678975, 0.03388161358239061, 0.013367045284917375, 0.006297405503240378, -0.07412725687106923, -0.007897119639250898, 0.019662033628740812, -0.0061990604903710035, 0.13630689474895477, 0.014737434145609655, 0.09030523100214012, 0.1500706984069383, 0.15877085355723705, 0.21584208942674296, 0.19994464654909058, 0.24264210762904467, 0.3026782452770038, 0.3411443398296923, 0.3213793003612037, 0.27939210182197094, 0.27237409576246396, 0.29580356935231045, 0.1594522165708453, 0.22425908525075766, 0.10353988288423427, 0.07032798581687151, 0.02132898885090355, 0.061655633625845245, 0.006126202807773399, -0.004864667944364018, 0.03337134982126779, 0.004924411720792862, 0.010820015405037768, -0.002100550922772937, 0.04392554800237017, 0.0706594587140142, 0.0023275929286604735, 0.05814136026917108, 0.09528387873736065, 0.1471916128466026, 0.21207273248597758, 0.1738662616629841, 0.2398137106414774, 0.27266877066649253, 0.39389157405319164, 0.33147784426834365, 0.3650948904614869, 0.26380734904626285, 0.2449182207549632, 0.25017426376188945, 0.21090389965953982, 0.19509404483711495, 0.1228068934210651, 0.0824485384926411, 0.03784071331429579, 0.08936347926544072, -0.033779855912534774, 0.03119165020463747, -0.013547911587311685, 0.00047436222077421687, 0.05835486050819355, -0.057219077306724396, -0.04681906345225746, 0.025303641215355603, 0.025022219443448783, 0.062418769778287767, 0.13016581731034046, 0.10803652264388755, 0.18130432500418753, 0.19400607909035186, 0.18307347697763296, 0.2481097834995828, 0.2563435362645873, 0.38323347984557526, 0.3365595758272069, 0.3833176983530003, 0.28183388731173464, 0.2626518387097521, 0.17840745386762408, 0.15241026249444675, 0.12879381318628894, 0.06030456100548603, 0.061687882893091434, 0.10149052511788877, 0.020851054926596325, 0.018190502257124718, -0.006290146318234431, 0.03366934406025673, -0.017342262859987228, 0.042014864090322034, -0.0375046766901017, 0.042990618733576534, 0.05997120641467108, 0.13943444597388652, 0.08357974596434792, 0.17744512788212233, 0.18904230511212253, 0.20219108213256431, 0.23707705415705527, 0.22182360580080507, 0.2765442266718696, 0.39278025697072905, 0.42574416037507307, 0.2999777329542268, 0.3296020743922233, 0.2924301522800734, 0.27223110391264405, 0.16998178517804677, 0.12086400593696214, 0.1352801200540875, 0.09100850919451293, 0.039249063466373635, 0.0011954064590706114, 0.06612367989995169, 0.011772926712321505, 0.01884514282316186, -0.028741805315496936, 0.007999625891401343, -0.022095274213373144, -0.0326278538951942, 0.08158612158854539, 0.17459005784797604, 0.15962768544837316, 0.2182539414107326, 0.15659314412423098, 0.27532606371062984, 0.21296282356116672, 0.24187028356331766, 0.29396400899566716, 0.39552245333010566, 0.36486147697755267, 0.33886056746392923, 0.31295170293156227, 0.19848977869305373, 0.17723095994775548, 0.18278663537457515, 0.021791760101366946, 0.14224586666692673, 0.06576770041490651, 0.09305105511801684, 0.08502212892046322, 0.03843728102126411, -0.019630578782661137, 0.0936250201117699, 0.01467702561821676, 0.01650831104887105, 0.030057235729222746, 0.02030923699687627, 0.07689248671113268, 0.09584158102334558, 0.14020464170834204, 0.1323225694478075, 0.17282537589316965, 0.19780104436836882, 0.23865111760307992, 0.20871552085757988, 0.25279336134778785, 0.4669828955482268, 0.44251226665451876, 0.38545549472909085, 0.25843541110921425, 0.27395531753021585, 0.1022263239285811, 0.07195881336981459, -0.004797270725127469, 0.052303587020287, 0.12057353641762188, 0.0569525877437127, 0.017265809280692372, -0.04622786099251659, -0.04078525001022899, 0.04025664650480961, -0.02995354165621713, 0.0030314224099379913, 0.03780297563009905, -0.022215874978449478, 0.07606024408176454, 0.12036999630917489, 0.14910801369633428, 0.17155738271208038, 0.23185776833830896, 0.17891224373379722, 0.23103568862272328, 0.1877901804102815, 0.3576637642598156, 0.38873731523486754, 0.32124554052728127, 0.22003074585582766, 0.26764481870862467, 0.21054189098757725, 0.13682634029342808, 0.14187011689972176, 0.1538930121024282, 0.06680246913253675, 0.07813545797559263, -0.003184170130807732, 0.056246736138851235, -0.040597716840911596, -0.03883453174602646, 0.027485552868912418, -0.007340826352318939, -0.008532979600323006, 0.012692438034473555, 0.005346258706806459, 0.05198689159045197, 0.05759303289371857, 0.15942549220921173, 0.1504621729601569, 0.1350285514423463, 0.24754812426587042, 0.19824498596878135, 0.24537604193266585, 0.46586882018061354, 0.5799585316146949, 0.41569736137035845, 0.261046934980743, 0.2334860266686496, 0.21768423517014202, 0.20304548958875354, 0.13034953554182402, 0.12521454122058717, 0.17977510525182147, 0.06291620603570687, 0.00914884474032814, -0.06440135615558738, -0.021178681028032158, -0.007088590554880181, -0.02089255295394893, 0.0008745703861241189, 0.0495505244992282, -0.00631321752919464, -0.018276660331126675, 0.00626598033111808, 0.057844128507890426, 0.18324302107970977, 0.2323090838196322, 0.14462757561121717, 0.17841823586636021, 0.11380419331048756, 0.31953625745395137, 0.4299114345897335, 0.46844689253509936, 0.32641212633174693, 0.2967896098467102, 0.15926210530936366, 0.16953944540200555, 0.19021473420127605, 0.13024429956225025, 0.13814428152556316, 0.12803229301234317, 0.0033528019856844324, 0.01037902536660848, -0.053407648255153845, 0.0173141600563077, 0.04959780694120198, -0.035190204977350946, 0.04694706919081976, 0.06071471178847999, 0.045417043212267603, -0.02453084070309484, 0.09184042106881071, 0.08915873649577802, 0.15828114331955787, 0.1760192772136412, 0.13583953777477467, 0.16634404828312604, 0.21748953328516082, 0.23757654665456335, 0.32464034866078134, 0.425839291004447, 0.38402949620905974, 0.2973645265788604, 0.20633351767783256, 0.1384851403333197, 0.1565139015779002, 0.03631521213413161, 0.04670802965552391, 0.03799885862005081, -0.039841504629948295, 0.05879359888831266, -0.047026478077875, 0.002291531193673765, 0.01684200754826761, 0.013320041049266004, -0.006735400748331211, 0.053993318103755225, 0.017200668033600444, 0.02075858415054086, 0.10389509571091139, 0.11283659457573836, 0.1426948803345923, 0.16115939632994222, 0.08291161846320211, 0.16519410940074777, 0.13848402207179034, 0.21408182247497418, 0.3200648595760479, 0.32001564928873183, 0.3216154777847629, 0.2639790416134527, 0.1630622233724685, 0.19675043480102153, 0.18744851767577164, 0.146398869364718, 0.10384361899333419, 0.04987422494151318, 0.022271564066578518, 0.0471528663457729, 0.06524709450024671, 0.018482314292932216, 0.046928609486488373, -0.00594573936507936, 0.0036143146952214832, 0.028284743379504037, 0.001981687862758531, 0.05679521104796641, -0.016420117592752716, 0.06261307095654936, 0.1044390213826718, 0.1603634448178346, 0.2248419144141178, 0.23010510920620755, 0.21953937177246455, 0.24190479454107883, 0.26838200716459876, 0.4019611233282858, 0.26888223483950446, 0.24557965128948397, 0.16838849741790632, 0.17229866090232518, 0.2458366073920093, 0.10270401091864255, 0.07482039187177066, 0.007977685464334104, 0.015237809808092546, 0.03343625023020505, 0.04267669876646413, 0.020938195065441027, 0.014009323301720873, 0.0656439659029211, 0.009498813472211966, -0.012681119733716455, -0.04487686737777943, 0.010910099864208107, 0.013623797779138497, 0.10896612677771479, 0.14418077045389135, 0.10975338138985433, 0.22194830127856496, 0.26837925267112467, 0.2597149736796549, 0.29837270764758617, 0.30344445639811746, 0.3330828665483675, 0.2109352145124337, 0.1849659978545156, 0.2350648026875181, 0.19978210473646574, 0.13587874841226988, 0.09800564732739023, 0.052748241793102724, 0.05189756554969311, 0.0031013091896482966, 0.07243952841711943, 0.001713607231384677, -0.0019884343222824146, -0.026091834008472994, -0.05614601026493535, 0.00019064439320996991, 0.05235384641365509, 0.018103432659025028, 0.07095018317526511, 0.02639488357886207, 0.027430639689049185, 0.12003642896560474, 0.14767374495456323, 0.1325131826571885, 0.12406377970147434, 0.18422211604514677, 0.3166996463524077, 0.2664398040236452, 0.34195380811808346, 0.22478928659213043, 0.30881290631440705, 0.25999247513983953, 0.06251304219850569, 0.08733155290022523, 0.07345462333825066, 0.02224733738960016, 0.022308259863469883, 0.012042840688100546, -0.01201716803139069, 0.028152854369803276, -0.03260210641810983, 0.002899779822829451, -0.014808009198105633, 0.00910859162492061, 0.0853886034554264, 0.04094962806694955, 0.04351464263428227, -0.020659921450506758, 0.07221953262072235, 0.07696628217043375, 0.12346553418543448, 0.1578351881263454, 0.20364531086993173, 0.18426458931855608, 0.25213068849580633, 0.24725119831344985, 0.2853713980287566, 0.31527403607846116, 0.2685154793532078, 0.19893040749628987, 0.15846151867784194, 0.12790828327481765, 0.05492209824147788, 0.014704763210249976, 0.02640210085498469, -0.0068258788146210855, 0.04699839126327437, 0.001724749305803068, -0.0017991206301869278, 0.0316323603220057, -0.04178814151412414, 0.002186226964700184, 0.03233664736769992, -0.011606098320716822, 0.02430046475009251, -0.05701823259679577, -0.03784538483666134, 0.075481748296026, 0.08611276537450574, 0.10153914613661472, 0.12249366424658548, 0.1554113503639648, 0.2115538398799734, 0.1263802899804764, 0.2960484896700227, 0.2061297070665284, 0.24737050762044926, 0.19968733597208582, 0.16167862111000908, 0.07076570067834115, 0.004907056298285856, 0.020645459770520035, -0.02852876287137934, -0.013510961058521823, 0.03066804477808578, 0.03206386221927233, 0.013493007342278755, 0.004799500426221153, -0.009377722790815758, 0.05914302450325907, 0.029602058228149847, -0.012330586766922757, -0.05795224488676785, -0.025167103752749963, 0.07382850650848699, 0.0023625636965736913, 0.00875479530225509, 0.07711736856722053, 0.06556768269700428, 0.08154831098119994, 0.0812303522981507, 0.13142109455688927, 0.13543241734544303, 0.1130248839646978, 0.12593945062089065, 0.09525395905378799, 0.07851041518537134, 0.04180356671542663, 0.010229996659301507, 0.15623520970923477, -0.0261424663369459, 0.05763776538571343, 0.012073652542787526, -0.036946827892631054, 0.04716124071137864, 0.010228145079964609, -0.0077768354938787245, -0.030592459969307772, 0.003836856252521689, -0.06403344160824004, 0.06932596904815726, 0.0017777099712335972, -0.01541219769525517, 0.006241469381315594, 0.09166541401092629, 0.01196294446385075, 0.09877391762370895, 0.04576251368223485, 0.034311427247945364, 0.020656828749817568, 0.10064190017905897, 0.134424220058396, 0.057054166717075784, 0.046112896631637215, 0.08822604749597142, 0.07332828766390863, 0.07918742221867754, 0.0364229608756774, 0.015481051227356084, 0.006585439490883305, 0.06670106466138703, 0.07029274940278092, 0.0073951905645400695, 0.0014119775124933891, 0.05321429469421226, 0.03604603727957553, 0.014584565796957032, 0.09106435553251979, 0.04424274179352458, 0.008130671039461596, 0.05493504824704264, -0.030738927052600767, 0.006794739348016932, 0.027112152076024895, -0.006868419992778479, 0.020306651894129595, 0.009114858823829529, -0.01954013356926031, 0.05089024864301046, 0.06354474382742537, 0.10066626285369867, 0.0592963248403671, 0.03894076274390913, -0.03605568241709078, -0.022687188729549654, 0.0031472842254167003, -0.03650632518198482, 0.03927733670298674, 0.07354790886425548, 0.03344174989069523, 0.04491726427860381, 0.0027954475051305185, -0.01216324882901306, -0.01428072025079666, -0.02525131326857142, -0.019892848850012274, -0.05837871859063687, 0.0017945468254573626, 0.049050689686662985, 0.016661191302839277, 0.025160425174378828, 0.021191195142642515, 0.0659726112140103, 0.019493118934535782, 0.0017466628225929633, 0.07785078416943893, 0.05476708003266631, 0.008403248221897572, -0.011257953259464019, 0.021861407422698816, 0.034970439194152755, 0.006363186894161327, -0.002838331003679979, 0.02177742624092225, 0.028941467215371042, 0.07939255615527273, 0.019624670646393852, -0.01232017902816231, 0.025913749256097785, 0.0028987157346994086], [-0.22935767703376536, -0.2918828211514086, -0.1953193225829829, -0.1208222366207375, -0.13837772163649897, -0.1683682452820464, -0.2415065850784272, -0.1717819133614379, -0.1559215668591179, -0.20583561950766327, -0.21659777004154818, -0.15895787625493096, -0.17247721132867727, -0.21574677233125544, -0.17686311402958022, -0.15623000477596566, -0.1899861530527145, -0.18998802179242213, -0.18958182433359255, -0.18043186306039666, -0.2176375704600551, -0.1626348203034383, -0.21732649041290986, -0.23031516164149252, -0.17041156576982325, -0.17617435839527823, -0.1622296561771463, -0.15956158567240136, -0.20353196071254503, -0.16636454910168202, -0.15170462724035771, -0.17002362664711496, -0.19263674106217687, -0.1467296265834231, -0.20113764261874045, -0.1669235009056269, -0.11748002055215263, -0.22320791954582553, -0.19280854280544663, -0.2947710642899808, -0.24171821625055917, -0.3954654693141282, -0.2667653416947881, -0.22125338068511027, -0.27594311608666167, -0.5011839784978769, -0.16789165427920566, -0.21856121195850708, -0.3439676411278626, -0.12259528102033128, -0.04445237550044665, -0.20920616806677045, -0.1605625702465709, -0.13682669738322306, -0.19906517424119313, -0.0937229978782453, -0.1430843669035471, -0.21689759218967353, -0.18096792303399006, -0.14016560538535194, -0.1272782489166557, -0.19713333215358553, -0.2955501923417569, -0.2974879603051881, -0.2302916493802456, -0.2863608595015672, -0.7658958623631483, -0.8171898710587986, -0.779313158620244, -0.9885727351767228, -1.1301041379284575, -1.885393845039394, -1.4875568437269915, -1.9191473459670807, -1.6948323121849533, 0.21038535950962636, 0.062262742577502056, 0.6339814193262268, 0.4124106540799448, -0.14505914860967095, -0.3633772304863516, -0.18010795796763251, -0.22017064136891407, -0.18089556888562286, -0.2405126901649815, -0.1763317173480482, -0.15502885232745053, -0.2632004484211136, -0.20665612030865765, -0.26366560829461433, -0.6719629753513473, -0.9029675559952506, -1.700045888932581, -1.3544835390890546, -0.7253955510127841, 0.7567792271233863, 1.0298535214262021, 1.2157322025453872, 1.6214087162057775, 1.1935355437315247, -0.5602600617983204, -3.0179205922744963, -4.41374937331696, -1.8761060408190497, 0.8299076202618931, 1.546125862058908, 1.3237791828191614, 1.0970511566906855, 0.21501480598447145, -0.06690396411550882, -0.20489958502227185, -0.19908286743355863, -0.17185548789222888, -0.23278718216133792, -0.24271188996705267, -0.33259551311743923, -0.24776453004655044, 0.49586456132804774, 0.9469777375752245, -0.04287858494976207, -1.0599383270550204, -0.10104830375172905, -2.704201098115966, -1.846641919974227, -0.9169722359903016, 0.8263331911812003, 1.4878134817233806, -0.23359004408130682, 1.1253192351815888, 0.23851220025185674, -0.21822419090912776, -0.6185138790388758, 2.1373014660965777, 3.1559344605386257, 0.17406499135564735, 0.39660152827883727, 1.1741919712867146, 0.17222382705350142, -0.3563925208434867, -0.19778291519154745, -0.14824358367357637, -0.245328188429849, -0.3801171560229563, -0.2103449634344462, 0.4330291387278686, 1.4538096341375273, -0.6624488395955971, -3.3653024021316646, -3.625273503265318, -1.6433196000726171, -2.302380052921386, -3.620230633929418, -4.060575144447963, -4.105324439343635, -2.1326648774213735, -2.8957333610016924, -0.6574822724264929, 2.114616597606992, 2.5146887930979, 1.3368577314485421, 3.123924776014842, 1.9286536040696836, -2.819124943584502, -1.6946300308963809, 0.5628084444461553, 0.21035839833241163, -0.7534213984777168, -0.16987268087032642, -0.22553123308451073, -0.127933187335607, -0.34745051198166144, -0.5113033798704578, 0.5816579283668415, 1.369031285027495, 0.008444061596750022, -0.13478657480512563, -0.08008097112052538, -3.7066029506348355, -2.251238918500883, -3.3408923036649765, -1.9475913987773699, -0.5684656045438495, -1.2143020096084811, -0.13594744368156292, 5.457599068127688, 7.088584099795604, 3.147363944031345, -0.5858957621757972, 0.05183293566321312, -2.2901120180442565, -4.317003793030107, -3.9188384349602847, -2.9169771993474694, -1.0151086453960216, -0.15376118167818587, -0.24133918779201502, -0.20675738693447415, -0.12306080968436776, -0.48440394354494576, -0.4574968424651639, 0.3601231327784892, -0.14158949256431122, -0.4705609431815285, -1.0795966032686193, -2.7475642332518335, 0.46159428499242366, 0.1985434159877688, -1.5635895194138196, -1.3571993421427389, -2.0021218972147388, -0.5886236023672861, 0.6527813284971032, 7.120602037916444, 7.298877159707774, 7.1407237573639994, -0.09812197844445306, -0.7154483292868876, -8.798701214572345, -10.830908999751806, -7.412874226758381, -5.158438584863988, -1.1560447854587046, -0.11568151891441483, -0.3228024283867772, -0.18708640809996352, -0.1986032520850326, -0.2589840829719338, -0.8399081085068684, -3.004505201960303, -5.217676531411653, -0.08838604523425148, -2.023034828827879, 0.2089836510595693, 2.997536979428994, 3.3564538042027485, 1.4057810153429424, 1.4953099284718934, -1.6646442253963067, -0.8761453379718738, -0.5915421316633229, 9.344605353142894, 8.042055152278865, 4.998426267042662, 1.2455689827353857, -8.806682307459278, -14.776256815256996, -13.625198727964145, -8.730567572573998, -6.993521961163181, -2.844242233625179, -1.4187847414740742, -0.20142437559104964, -0.15494364965586566, -0.1907959051206286, -0.6016397082965096, -1.4998474405348121, -5.429330648207924, -4.066979754883589, -2.27685659511422, -4.729580300267057, -2.7390095626903443, -1.6206681159471532, -0.36240208000561824, 3.3943580019831296, -0.8253461153207067, -5.63439303396382, -9.130779696452677, -1.9063917049868977, 10.719599542837177, 9.217541164657346, 7.481253264655098, -4.899251154171676, -15.138372685823777, -16.41152309029278, -13.115827102057326, -7.732794717079389, -5.230543846412616, -2.88986119073073, -1.2190770953365035, -0.5240029905768733, -0.20892110201985337, -0.22269494878942037, -0.4625568125051385, -1.1093441797618635, -5.113754788005724, -3.5619022178807715, -4.278582252257932, -6.6295036626272195, -6.50028986454496, -2.4627138279390697, -0.009407681676471899, -0.6173956508722613, -8.087220832312129, -11.956457774535156, -7.376567095710094, 4.731532236836281, 11.747426052461483, 11.130468196081605, 4.719761106838876, -11.782276391918838, -19.59282675402273, -14.91150861109317, -11.00439231349894, -6.663467717903121, -4.807397195826, -2.933450278874182, -0.9741443095359512, -0.298696985835426, -0.16283272765786555, -0.31634786421521566, -0.44641164787711357, -1.319729713906693, -4.5156893075071025, -5.7914056035128985, -5.371627703924515, -5.004401672853725, -3.2068352312581307, -0.46782469198193016, 0.2896503450898514, -4.845197026170708, -10.659059728099997, -10.39515086664268, -2.7793017424731077, 8.080497986837532, 14.821905122746953, 8.70453381779429, 1.2436059244112085, -14.729807932180947, -22.158494682108266, -12.640368512564836, -7.34104764093558, -4.144373085561219, -3.3273127546403, -1.9238698937892136, -0.6393801704152622, -0.34516732490635144, -0.18969423027195942, -0.17509045412874696, -0.07282149120789998, -0.9409572514685065, -4.604883180467221, -6.685827943935758, -4.255231301405953, -3.2791114191665263, -1.8054638373656813, -2.053706460812241, -2.4142836509783443, -6.951839687152337, -7.357796365670365, -3.461511091789438, -0.40846833275832817, 6.621451903862555, 11.110687502429098, 5.736748279506126, -5.1531252886102585, -18.325928807124498, -17.92071018559398, -9.186882645302735, -6.553412154159544, -2.454248532957826, -2.0746125534596294, -0.6725659940493369, -0.22318694952765877, -0.3631527887288595, -0.24536639846024788, -0.14241324527125837, -0.1560859386286459, -0.644180965679114, -4.876035768223816, -6.35893427807089, -2.423780820197522, -2.0150509320456753, -2.1663038763300566, -2.934148673199572, -3.478360682713778, -3.5123255621881553, -1.5044087668049668, -0.5063936618475, 1.1208864708685318, 5.943251464440532, 8.863487900032293, 2.8385129046749045, -8.261866914587415, -15.24911667902377, -13.638417947913275, -5.559008269518601, -4.254537325610191, -1.6609971177852652, -0.4374583311649545, 0.34974477234386375, 0.3163267163435569, -0.1537459738328742, -0.2448935058726539, -0.15629133692286518, -0.20947721913330491, -1.104502749343911, -4.583901087072178, -6.783387370109518, -1.7395971494834337, 0.5874687956660739, 0.9545284966967958, -0.6818210693800605, -0.07204930177371825, -3.587433352322559, 2.9988828666856953, 3.1865880424471302, 3.423551181605524, 5.552109024482992, 5.077357938530837, 1.7052117435594762, -5.466459272263908, -9.155006817843518, -3.8653728692382283, 0.9363216526507584, 1.3347929851329128, 1.2154690089637388, 2.539977565305773, 0.6755628550455092, 0.22143637999487514, -0.18240182828534213, -0.19492463130644477, -0.21872631633291945, -0.29900376530424, -1.312700369462825, -3.391700529092892, -2.195361373986883, -1.3392614265461598, 3.1635311604405065, -0.09277666092561489, 5.320275342085475, 2.416487241798722, 2.2762003518297296, 3.980701346293172, 1.7536691774858364, 0.38861509586936893, 0.5073478749111892, 1.5491208299838253, 2.142934693586747, -2.096792858939093, -4.058633229204463, 1.9792287917838072, 5.836397823517556, 4.920887703673234, 3.627783515371412, 3.09500745477998, 0.4864503940727485, 0.30517499171413337, -0.008854454942096157, -0.22111362641486493, -0.18670007921749882, -0.12250626980803918, -0.3125743155415743, -0.8792457362932485, 1.201239772303833, 1.830776607935675, 3.3849789418645235, 2.3350033750971875, 5.422367348747023, 1.6161348350747682, 4.2851945576438295, 7.02786078141171, 1.7826682932636007, -0.046894340588421096, -1.4741985160611168, 0.0781673730487762, 2.4781254815191067, 0.3131589946167021, -0.8817662074527252, -3.0494605000558694, 3.647637095479369, 4.001464705040631, 3.1225399876112405, 3.5830930642612464, 1.672895057868487, 0.6747739690677548, -0.02222598350310281, -0.25335621237007394, -0.3073775937575798, 0.22042347272495383, 0.06691806855005109, 0.34054485518566124, 1.2846120424183813, 2.218868585638406, 4.011753079690929, 3.074803931695132, 1.8870304512127032, -0.4240926910180423, -1.4960113957989747, 3.824924371122151, -0.6244699069583222, -0.10384141748685644, -1.0488616571451965, 0.602199180299822, -0.7066986416868544, 2.5304783490135483, 0.7789167727797921, -9.069606953308213, -2.42375329063525, 0.09193113672482085, 1.7633706492476673, 4.265801917996241, 2.774828757999516, 0.9361191581280488, 0.005598296292858225, -0.16772626305895272, -0.3263989754386053, 0.47682228114969943, -0.12169655499995777, -0.1888020343765845, -3.4868244977081444, -0.7645768432543024, 0.27115304897036474, -1.0272892279987293, -0.5273468094385786, 0.9889957513269615, -1.271893394733255, -1.5600438408677955, -1.0549865230347522, -2.077059269421167, -1.1454216665167416, -2.4628915233555335, -3.41961120219685, 0.7548085858660528, -3.7292868914702573, -4.396813316617277, -1.148507394066039, -0.6124196466894376, 2.755527553562604, 3.4599078626568085, 2.4009416173681113, 0.1276872210597464, -0.17977303887071933, -0.20742758945288076, -0.3856385031712307, -0.28135880565506743, -0.7799811993606367, -3.025921553636206, -4.365715479029049, -4.04289397024384, -0.8403327700106645, -1.682647891534089, 0.22129109257246, -3.779552996821031, -3.8767522541293085, -1.7355176890762465, -1.8532438087182617, 0.2942502903307417, -0.7531259946638579, -4.122346967622593, -1.0611368349444148, -2.6087557330576527, -3.435884480257503, -1.8930805329521794, -0.6231286113333397, -1.7872722504585188, 2.7658436852390396, 4.05077397393759, 1.4116071621212207, 0.12414471571861685, -0.1820346581481735, -0.15869662659110811, -0.26324867057806817, 0.03890300874249239, -1.4613435225988372, -1.6998732045585394, -3.075930367019797, -2.658003179842037, -1.804996058218595, -2.631716310655884, -3.617299823597908, -2.686483840476857, -4.676307529506691, -3.5500499831825496, -1.4273339596996248, -0.7705521782232397, -2.6211183400313227, -4.191879122662145, -0.9080330001047061, -1.942396204342888, -2.125461502062215, -0.15266946350334776, -0.173612213994633, 1.7826842065754536, 4.8691303802735195, 3.7324442861984237, 1.1575638597240374, -0.13001846451018817, -0.19493635699579415, -0.1909231628412018, -0.32372977904273864, -0.3114571041195222, -1.123280830690764, -1.2736247262921065, -1.7545633890197523, -1.30151402007709, -2.933187683764599, 1.651363429362184, 1.1994442490826875, -3.3454967264240523, -1.4410829099370834, -1.734091325174024, -3.5584192637603067, -3.794023965197217, -4.115426925258767, -6.18188162190779, -1.086728143466799, -0.748193151311716, -0.8321849982123561, -1.8774116304810502, -0.04474958131965008, 2.1237967830480313, 3.605969212699144, 1.7372379595541365, 0.4538570667834033, -0.2606233572332772, -0.21468384165346066, -0.17852839603137027, -0.1937175008615889, -1.0388086695230934, -1.3514453832338382, -0.5955057387915963, -0.5001467099338998, 0.22069941390584166, 0.8376327324430077, 2.357608647825072, 3.4018904671423993, -2.0124652423903164, -0.5007644138362456, -1.0308104589436176, -0.7426342553778346, 0.8386718449383174, -2.696021240860727, -4.707748944956553, -2.1928153293463315, -0.18835439279287652, -1.7543828644736803, -3.5187726037085985, -2.0142061590799853, -1.31326557092813, 1.615457811954455, 0.8540437109527769, 0.0602368753900592, -0.16812180076634006, -0.18471557590493237, -0.24497602448354566, -0.13670230924643212, -0.486667708861822, -0.8871713066421479, -0.8191600646999858, -1.3118631847261544, -0.8598196259568385, -0.6097374333433879, -1.8749350255252952, 2.010595768060893, -0.1274176680619325, -3.5324588341171634, -5.337786286021478, -2.3796602234949593, 0.748830579541581, -0.6079981024521264, -4.691809516228476, -1.9562902986069781, 1.9085311474046625, -0.4083431084518956, -5.075754507842756, -4.222674161552252, -1.2355942042724353, 0.24398277243114214, 0.26182911624666344, 0.23975939550761297, -0.14631688880076676, -0.1532468901752277, -0.20843653618374858, -0.19911233052444438, -0.19201528640934185, -0.6451775012009208, -1.1074666685480792, -1.4538741969391795, -1.9464180551993264, -1.0200632370695621, 2.6461759649595673, 1.0536533015681706, -1.935562546198188, -2.6290070510057753, -3.1249829618814116, 0.7932456325193383, 1.0978194080547485, -1.8047224826588275, -0.9953641690561463, 1.5203293516882725, 3.4421824000577708, -2.2806125101854406, -3.854345484113035, -3.859336205883128, -2.998621304373083, -1.4075922055667276, 0.2689018142610427, 0.010116380787736726, -0.1730505834022953, -0.13032835616201677, -0.1896714587774629, -0.25225099222570363, -0.20555667900679542, -0.3094624227636411, -0.5701558002010512, -0.759994371130459, -0.7185626896150639, -1.3371414039525824, -0.6201170096605448, -1.3680449337222225, -1.9942564272208498, -1.5181310917040631, -1.3504261922303402, 0.646747153945563, -1.3246016025477887, -3.2690375161618803, -0.8435060178531961, 2.8490683474611207, 3.8994129411924043, -0.5629049730653181, -1.0289077034528835, -2.311594477652678, -1.9030532110095983, -0.7211475429715659, -0.3610391057641769, -0.20096302822750162, -0.22041976347503872, -0.15888771617032316, -0.18495133301148486, -0.17056962258470343, -0.15342977436721872, -0.1331078115681677, -0.2765728061469023, -0.44932233992933934, -0.5339607638922915, -0.8013178311609503, -2.138338183834749, -2.977621522585252, -2.3454050829260438, -3.0039807978882895, -4.47221141101165, -1.8577838660088917, -0.09478821516407883, -1.4127935784488852, -1.3174435856035724, -0.028219112532899795, 0.2914049912337019, -0.7979935245090872, -0.4374945032696354, -0.6153732355562387, -0.45553528136989724, -0.19095942657838882, -0.1708697036703562, -0.14570258176153977, -0.15372972286572284, -0.21504558972020094, -0.0819761937949665, -0.12518715602345976, -0.21092184985563744, -0.1866389184036889, -0.16523498963842292, -0.22096747626805346, -0.21487609676621394, -0.15625520787707559, -0.1989038073830191, -0.29235461612810804, -0.10741807725073818, -0.2172113889692307, -0.6643104409720977, -0.6905311147712919, 0.2341174905183688, -0.5254054802189835, -0.6795592161670301, -0.12940305442921743, -0.14510107793645732, -0.23548216310751885, -0.12402261755604867, -0.23368977397003154, -0.2795424960523145, -0.21311373818048884, -0.16273511217633585, -0.18418340931984922, -0.1825234839573216, -0.13777334455922374], [1.427294519711319, 1.4355486010527694, 1.4318858897026134, 1.3770980602289316, 1.3586334749328872, 1.3371106433188904, 1.370401330721293, 1.3652227379388984, 1.4419339062127776, 1.4413265872212266, 1.3623477441133607, 1.3699594046131451, 1.5801889277582433, 1.6908580488433875, 1.3024840644617177, 1.413224067753773, 1.3906058922028184, 1.383688370323209, 1.4320387019818661, 1.4002199960220045, 1.4274829349939286, 1.374537622527096, 1.3211286727555163, 1.419663889910385, 1.365329728822959, 1.3724821343828857, 1.398484445452928, 1.4310973231779573, 1.4557692848548272, 1.4237945343509157, 1.357376872996092, 1.4343758808962395, 1.4031397842446875, 1.4120891198861976, 1.3963546181688569, 1.450440379863376, 1.6655970780826048, 1.449047424756137, 1.551793753247473, 1.5825075485281126, 1.5024189864031074, 1.344247740754575, 1.2901193365243977, 1.3062328693107923, 0.9952396100617251, 0.30327771406840054, 0.8844478872110016, 1.5081149390631994, 1.6113570698862563, 1.418878501950615, 1.413767739925427, 1.4302131514149197, 1.4286438326251745, 1.3473221031475628, 1.436083570170575, 1.4002229724526816, 1.3730022309582288, 1.4125452886625622, 1.3660815663074806, 1.3921486145149102, 1.4236540113228175, 1.413669373112954, 1.3884663346880708, 1.2836789555082195, 1.4399932363538117, 1.6364419229842504, 3.8595461615917976, 3.6433567945431786, 3.109908622467288, 3.65414305579022, -0.5961054572835718, -0.997149711034163, -1.553491086902389, -3.2224001925274433, -1.195245623254057, 1.0044085445909736, 0.994241601651866, 0.9942212069182624, 0.8583812777180526, 1.2907766462158332, 1.3063151491718048, 1.3629006509029578, 1.3716154577273818, 1.4426787178437868, 1.4131484335400992, 1.3937522931935884, 1.3838850225980113, 1.4042456896699014, 1.4371540096216677, 1.3260477896134104, 1.409118708636649, 0.874130277754897, 0.11906730612971363, 0.14102799259191032, 3.107670007499006, 2.637941969528439, 0.9034063851264287, -1.38127095171845, -2.93230256528351, -3.4315685784962136, -1.8998759859900416, -0.09101675086468375, 1.7975394181690698, 3.0273066382974063, 2.2255263787442834, 2.6991141723646526, 2.2578766486949924, 1.4999321890878237, 1.3082004260393525, 1.355857458367504, 1.3835523859703907, 1.446969363782644, 1.399218074931064, 1.3499208216664296, 1.379198126853597, 1.453779193342916, 1.4266054489197824, 1.3084199265688339, 0.9536260885467677, -0.6143945569630118, -1.1865164666338015, -1.8762559377875283, -0.6164837353926114, -0.650030414986153, -2.039803484682053, -0.6209513214464341, -3.5968330660645638, -5.643117409409891, -3.726388550729005, 1.1960487410801977, 6.3686960808611275, 4.52538283020423, 4.752867880714377, 6.002459868060477, 3.9965900399376317, 0.5493858245621904, 0.7774061993823412, 1.2168463403466059, 1.4775708426080927, 1.4463060717129037, 1.4032558872877978, 1.381401348149278, 1.3334995681922488, 1.3375548360705785, 0.4453207353527373, -1.6121283242477091, -3.3996338151083423, -4.854280262171024, -4.184775286674516, -4.716468865983733, -5.519404008277535, -4.747051698391468, -4.6629033718451725, -2.700716909998378, -4.6441914063021486, -2.571920074822717, -1.6606253456585764, 2.6868102804741714, 6.734870546385166, 5.169666312675048, 4.913147436259367, 5.4821045131482995, 2.3584611117113874, 0.5081196357897576, -0.8435060617172466, 0.20557536641867502, 1.072064974293966, 1.3987581711183614, 1.354535039748335, 1.3979091348357056, 1.3514492273623062, 1.060091964777305, -1.0587966305398502, -4.741729098401396, -7.849603646871628, -9.21127336780408, -8.40595710663941, -7.3579485105392495, -2.8869559132713647, -4.956649515541784, -5.311375238027786, -7.147963689907319, -7.512523160165723, -5.1184120168937195, -4.082819179538367, -0.4274195914985303, 0.24693221913793836, 1.2434067438820604, 2.0164395054722415, 2.4382829500387855, -1.0837393042901728, -0.564459161491547, -2.048321216257021, -0.6824231517630546, 1.4249004859449153, 1.542741411202127, 1.3773986879847426, 1.500769812066743, 1.6933969826372444, 1.3976991579195361, -1.9684730481012622, -5.0371446261690815, -7.221031942871694, -8.511157825775543, -7.397949332039833, -6.208798833360995, -4.53914781320946, -6.724380019264363, -8.41402077979324, -10.10976438683075, -8.63100086923786, -9.137798081068807, -5.011030496001654, -1.1961636212878195, 0.36897480570821817, -0.057175298120479646, 1.323799430890894, 1.5088424699904048, 2.091078335337656, 0.6417379641567347, -1.21453224139599, -0.6568172633590361, 1.7200706010426678, 1.5217155077673863, 1.4178245943533714, 1.453043730355528, 1.5194948433112958, 2.0789716355112335, 0.46203386820640396, -0.9767149982760164, -3.3934176949158985, -4.389352356263762, -2.5926671701085047, -1.3078296015190674, -3.33529166260573, -0.6397225857460148, 0.294023101761893, -3.9844831910059026, -3.4453364064816183, 0.01408002927158556, 1.4850105250211345, 3.164606679935222, 0.8178657321614323, -0.28702126984938564, 2.1540808760949157, 2.091704592526872, 2.1962711764578184, 0.847193567321891, -1.7828743122615813, 1.7023259420300898, 2.0026172083319356, 1.4253769220440577, 1.40530916057589, 1.3997977512627766, 1.723124341641594, 3.6224377274548143, 4.129771789507476, 0.8083500190918582, -0.8735155280399489, 0.004990175795271645, -5.013138413249079, -3.121789430370206, 1.7911038535294275, 6.403794444872695, 4.026663386864262, 2.991888030708607, 6.5650398663659075, 4.197766853178603, 3.745817285877739, 3.2506999184115544, -0.4533336572576034, 0.7759595470160295, 1.9229658757512609, 0.464212945753218, -0.6563336376285623, -0.3692994208019573, -1.466351419335442, 1.0643889995036562, 1.7609365657212632, 1.402771869607188, 1.4003281363351936, 1.4057032452865497, 1.8088962207257586, 2.6446697568073008, 2.8840124817109376, 3.2706569310666755, 1.7029337310968857, -2.4957953327959457, -4.778766932156394, 1.1170769579049549, 4.630462831118332, 11.672803048759642, 12.775913079681732, 10.754340927760262, 4.785743202781867, 0.2601367883675373, 3.3942835119941765, 4.2748195283000125, 2.7939795775861263, 2.927141594707317, 0.409638062809811, 2.0399219440847474, 1.0065993394886585, 0.008961587074881474, -1.6567850334220908, -0.2040426693087534, 1.3664253893520397, 1.420299397985027, 1.43754914941269, 1.5233010785179146, 1.7875380197379749, 1.8048374432228258, 1.2427707921797926, 0.7415388185675696, -0.6503140327697836, -4.648584365672106, -7.015692662233064, -1.7765241945805514, 5.122339420628144, 9.209729254341529, 11.004636886332555, 8.883680297375253, 5.62237874742143, 3.012221558103654, 6.118967224156255, 2.505547729872112, 1.0841684676182102, -0.625463085126133, -0.10539194445369364, 0.759457749549286, 2.5133079867772974, 4.672967713543413, 1.0387810092068048, 0.9222381009101424, 1.6926243295438037, 1.3601620366262268, 1.4178358745504342, 1.51126697170696, 1.4615386431784267, 0.8484863646530378, 0.7908474667017341, -0.04995525842946794, -1.5528375438383242, -5.559334878554947, -6.6310348780267, -2.2713366089473057, 1.9705811454228324, 3.456325772006243, 4.1402522144974565, 4.905577473367044, 6.667721950236282, 1.8802713463917593, 0.16638736474812785, -0.08524961499393632, -1.1486369290996647, 1.290536344595288, 1.8834323028378293, 4.437981903876091, 4.082345664246202, 4.593047601776228, 1.922719375137651, 0.8847494697497714, 1.2128888332763208, 1.2842870437741558, 1.4261223011782216, 1.4003157573848783, 1.3287614316757521, 0.7843080465301354, 1.3580180963480506, -2.877624640601727, -2.726265608896741, -5.378817648938975, -6.834860574974421, 1.4597537888978753, 2.8295979421524136, -4.352624309757137, 0.5178039544497085, 4.926210355327287, -0.756204948378657, -1.5598233517720963, -1.2840271840717248, -0.964383660211004, -0.7146978911215465, 1.6348916097280326, 4.448646106794564, 6.59082907209627, 0.7698544074697569, 0.9277526311704579, 0.6408207415799214, 1.445491756648866, 1.6269661789644274, 1.349874197732276, 1.3729545937989756, 1.4797735957456297, 1.3541474220319505, 0.5115895428272159, -0.03537828227750287, -0.916692468564062, -2.1244208122215724, -5.996438304466337, -7.494473642222537, 0.4305725994359118, -2.6052975323676657, -5.668421122782005, 0.6499688095253161, -1.42232407239071, -2.0686969551418812, -2.3760418231826277, -1.798525701203351, 1.4568121597743793, 1.3707501406743463, 5.041980622088465, 5.489114984577478, 4.457433908474966, -1.9695657122243866, -4.173849687721004, -2.324901652075228, 1.587024771950028, 1.5978726202613143, 1.427357460776558, 1.3673270260759216, 1.4874439500475625, 1.5005609938407067, 0.6776767748635484, -0.16622026805023357, -0.8698905232236188, -1.9180324644621116, -4.884978580039658, -3.2678363768111365, 1.4415610605922764, -2.958380112754835, -3.105324315080304, 0.5921561035982285, -0.8814685947152417, -2.290094173619181, -3.5459561346864925, -6.590622402249902, 0.5344128624117994, 3.398204196131991, 5.301560902176916, 1.3519414806051142, -0.2484326916267305, -10.497930511624276, -7.1272536748198405, -0.5288791429838567, 2.2093043265368757, 1.2775175122520788, 1.3408055369154441, 1.38896801505565, 1.5096280557043205, 1.5472910255193018, 1.171398845158647, -0.5868471278757733, -2.466395742379233, -4.581752019367552, -5.587923711261214, -3.544967706394302, 0.6010342997145055, 0.34334171065562236, 3.4584189301400365, 3.8174095589341546, -0.6494905001471706, -2.792466647711236, -6.2636296185382605, -4.10324643066682, 6.226181092896261, 10.88600244292451, 9.740056273838272, 1.8265693878042608, -6.19614868247346, -10.486516815792264, -5.196399940359541, -0.7272964195449902, 2.3284693210969096, 1.5159835004471662, 1.3768747266124293, 1.4414920044211759, 1.3678749620594108, 1.6337360860364847, 0.5180294363792649, -0.5715340029980469, 0.37906942702721697, -3.237563636794809, -3.9860526682338215, -3.1355486302140636, 1.1010807563282132, 2.048916314925622, 5.825622505797096, 2.7367156756554163, -1.8290087804419317, -7.477793085374686, -7.207475887580302, -3.5012011367172766, 7.121054844342592, 14.55487989349831, 10.02723276292602, -0.677456842945587, -15.348062990439097, -10.64941247782787, -4.7627083186631936, -0.31271080306479576, 1.728879834303606, 1.7409250819574686, 1.424701854460089, 1.3999847797452918, 1.4252378761380629, 1.5463494975434458, 0.06271249177465485, 2.0239916968717844, -0.664658934413068, -2.928087605048964, -1.8318506794661142, -2.255458269766414, 1.7073095854082125, 5.5646274025171945, 10.889083205329346, 3.3610606765122513, -2.575121411256218, -10.023208879270774, -6.53744119534172, -2.4215326166555147, 5.483315755261577, 11.682314529972183, 5.824779474985491, -7.158508690507405, -20.075161888321926, -9.914022214398921, -3.072152230816843, -0.20265737046046883, 0.7404103655965517, 1.4299865377476229, 1.463553926926038, 1.383275356135696, 1.5150865842579186, 1.2474672258272588, -0.22482733568623808, 1.6583513434899402, -4.643152706771258, -7.11965137223488, -2.8069522347915052, -0.49477639136927415, 3.122549223861115, 6.155560446507286, 7.895213308372073, 2.971362434640641, -7.016447549456793, -9.23173737808594, -5.176202735996848, 0.7478814005194535, 5.194991598269802, 6.030897273378188, 2.2029043803750548, -11.508237107746327, -16.937145647899193, -7.939389747448583, -3.951712996845647, -1.112585074058272, 0.5179031860928363, 1.1193101296153742, 1.3865349244371428, 1.4151738455964684, 1.4001657210172913, 1.2027196650816885, 0.18771147665870916, 2.150035308120668, -1.3283400415354718, -3.763223283755986, -7.155738350254484, -1.3975938112357176, 0.6970194411111993, 2.4778132122706236, 3.6104966148506095, 2.4171053678004744, -3.6860500867592134, -2.205327671166456, -1.6497155427679526, 4.344476791404224, 7.328712295821091, 1.8116069810918465, -6.254041986639448, -13.964832694255698, -13.178722494806422, -6.3318588825168165, -3.124698050792827, -0.9698276959325696, 1.275734140551624, 1.2691350121165088, 1.3473943364139158, 1.4599669897828014, 1.4976310371394244, 0.9995280123239103, 0.18565605605729973, 0.9997582155145194, 1.57935395715896, -2.700527313278584, -6.084739630166993, -1.168890514857702, -1.004394184452124, 1.8117533317510564, 3.444210248099318, 1.2370780900248814, 1.7669852608913494, -0.7090198901853557, 4.129547007103518, 3.4744818304487284, 4.38763935491158, -2.2543740904747067, -10.611127415653, -12.730888061232656, -8.62650043290394, -4.886239667447423, -0.9469749381936517, 1.3686935980745538, 1.8025503381479293, 1.5837841303843383, 1.3957956541902525, 1.3234119375220423, 1.3794932991336382, 1.0567748548861284, -0.065420196778132, 0.20111787207172804, 1.4612377082615033, -0.17580822928846282, -1.9403814759974132, -2.16506186293114, -1.83467088941278, 2.3475353433312875, 5.527712570190624, 2.5011646487396852, 0.30499802860690595, 1.5029051286887607, 1.0501227163816393, 0.2713367032245518, -2.690376356988255, -5.055424629668044, -11.411024354909523, -10.29850899927702, -3.7361354916758804, -1.820681495210551, 0.5246887120940845, 1.1963053706380569, 1.4509507537922293, 1.4623805281066864, 1.3574366094133596, 1.3905684922757728, 1.4713086144391558, 1.20900240676086, 0.6987829218141519, 0.384318847370709, 2.8661180753077646, 2.838006477196252, 3.8474744968246433, -1.416085107596676, -0.08737974866327589, 3.562936217425313, 3.4067727292945005, 1.2544024231684836, 1.2230521086457533, 3.737586205649454, 1.1350346175349744, 1.3558360875741482, -1.051946506836273, -1.7884388402624176, -6.606560093474082, -6.3436448732055775, -2.015858960610048, -0.6053213657075183, 0.6278264466244877, 1.4090638309930164, 1.2675223736031036, 1.4904481904610538, 1.412536432379749, 1.4885679466797759, 1.3587148043579107, 1.1750388985823703, 1.1063360297537552, 1.2633402316885534, 2.3838037102060765, 2.733293109189551, 2.4371890058705703, 0.8518436906343154, 0.4989170034719344, 5.660816778105924, 4.312658287696682, 4.3652832630672425, 2.0514024663430135, 1.2864041535935948, 0.5097642485347644, 1.8685196013695138, 1.0203424135631318, -0.06828952414901908, -3.605361777735838, -3.908670695844541, -1.3646539345412925, 0.011173525368263803, 0.8009697058739236, 1.3617151490698687, 1.3952814391256216, 1.3940450490340814, 1.366624118687154, 1.4113561961227166, 1.4037228993422002, 1.3589046656940456, 1.3804605702757344, 1.327311409201742, 0.5975879402090734, 1.3657036998268004, 1.712793507692474, 2.6310478593138726, 5.9544963470760575, 6.269585809572823, 1.6181965617423846, 1.1236524920786504, 2.181376356810256, 1.5792107902850727, 0.9881853015191676, 2.8175884014085053, 3.830112539995234, 1.1055280643822345, -1.6185823513991537, -1.4800727971510117, -0.33198707618286694, 0.26221199891882174, 1.3768217837017087, 1.4473842433373105, 1.4537975759178783, 1.4052547166279774, 1.423988713099584, 1.3728837096904025, 1.4052661987597375, 1.3940134915111735, 1.3564969367964828, 1.374017771066264, 0.6556303596386234, 0.5761863269783597, 2.046064489140783, 3.824425183858598, 4.997968614938843, 2.9371610022922234, 0.9892091696090441, 3.0107946425178813, 2.5301934868957674, 1.7614670569897724, 2.451688253379947, 5.164785902947173, 6.157340225793492, 3.603553928298092, 0.6819941801250031, -1.053068579107279, 0.3262758670853365, 0.9151802567664976, 1.3582879913424297, 1.358678717850041, 1.3223806844465356, 1.373601107583198, 1.4497101991748098, 1.3697062199799632, 1.3558724614739044, 1.3246661211373947, 1.3812645607232936, 1.3378503914938562, 1.38600991721256, 1.425405404986533, 1.4654787073578412, 1.431581243228212, 1.468937003665902, 1.6548000331116688, 1.3365772225545511, 1.5670742769839212, 2.244164542089641, 1.8320425234039417, 1.3919274956941952, 1.5881294092638838, 1.7069757677985586, 1.331238418839584, 1.0810411744529589, 1.0029640184638258, 1.2826776877069062, 1.4043769997219389, 1.3489926863488237, 1.376171998843389, 1.3258690578280243, 1.3981047779718716, 1.372119532034308], [-2.1121119014720002, -2.1917343577342554, -2.2052359485073367, -2.153267031979926, -2.240821533568986, -2.275591343001862, -2.148592959831588, -2.1829162015308783, -2.2438215259797722, -2.192647829248938, -2.1976222696016143, -2.204097904193329, -2.239120453116929, -2.345420156292337, -2.317091927973378, -2.2439893062302243, -2.23875367160217, -2.228066487654566, -2.230559931543608, -2.2303554490873254, -2.2014002858980444, -2.2421261958153744, -2.2241566357340763, -2.1839132358104134, -2.240356600213116, -2.167685361348191, -2.170506256989101, -2.244191905802808, -2.18224471271441, -2.1723380023396572, -2.256039287219916, -2.2498285936743305, -2.232162337635038, -2.1973866174182737, -2.270507732168583, -2.1138784746420174, -2.1123476111404416, -2.025375043156137, -1.8941479451941987, -2.079833719778567, -2.3885854699112468, -2.418497875898492, -2.619060419971007, -1.9494323201574841, -2.7614998060314746, -3.015788391429402, -2.4586114496237674, -2.405501872667068, -1.968630867321869, -1.6161501447102349, -2.0998880212411914, -2.174538604003751, -2.227379837410265, -2.1468989061236323, -2.2626940275181093, -2.2552144124856497, -2.157055010579023, -2.222556928591793, -2.210535669587278, -2.281612506924822, -2.1571610385502007, -2.1106110073017668, -2.1605948328686546, -2.040925973091587, -2.022137847649787, -2.419855550436518, -2.8343234363672507, -4.701644328207628, -6.03249303198321, -7.245636123100996, -6.676667602345576, -6.414911333752865, -6.217184952571864, -5.181039568647968, -2.706361831538552, -0.037144254358737507, -0.12470461787736027, -1.1822935902059954, -1.3085477791193074, -1.748576086335755, -1.8039515948386045, -2.2470844404022867, -2.1213635055651663, -2.1976819696047007, -2.2343467586189916, -2.2123325995888354, -2.1623422053910044, -2.167655571678336, -2.171489775537781, -2.166690986574793, -2.063653091305845, -0.9456118009492083, -2.2684869131415843, -3.6609921601152875, -5.451778518975077, -4.20417930194702, -1.72248687575213, -2.839558735911844, -8.2491628752697, -9.321465454126415, -7.628374530112783, -3.414860891369905, -2.9376427573701123, -2.7394405878254995, 0.7568005713975885, -1.2900781930438137, -1.7187716679736857, -1.8001160663602884, -1.770914045620244, -2.262789316497586, -2.273424948673276, -2.1921934773338205, -2.2217665393042343, -2.1654304594565246, -2.159257956158231, -2.1810820298289646, -2.3869710896733687, -2.4175609399962483, -2.104005371410113, -0.850772126923707, -3.7179199884343657, -4.335812152966863, -3.4750652670903186, 1.3155825433669937, 4.85205567043723, 2.7279407335370265, -2.2766052790664704, -6.444965553050123, -8.538298699063073, -11.05436548976048, -6.057689414623604, -3.8598492304685075, 0.3058894821460711, -0.8897210635126872, -1.595588550761496, -1.5599134922690188, -2.4468835441912997, -1.98748444065301, -2.1824460023148418, -2.1889990846033367, -2.211564193009812, -2.235221211500315, -2.20522538504669, -1.904592115979845, -1.4073591531062672, -1.4785958972399014, -1.8987263743214557, 0.14464196760094566, -0.6949273818467109, -0.2331238154873274, 1.1514375242686796, -1.3573114696816293, 0.013255831814891861, 0.9569691250678073, 3.5560745725655414, 4.9333980334253535, 5.063858039529849, 0.1350989874940744, 5.623436866958664, 5.7567837169765586, 3.2423782226765847, 0.6608289248297495, 0.2611559355116372, -0.8664067713889505, -0.8567649141328149, -1.1736202224776457, -2.0661672770952904, -2.2372517166702, -2.161092897153118, -2.2175215639407164, -2.1421269952695385, -1.8015078003266776, -2.554390767282647, -2.4750443994056255, -0.4197622406399298, -0.7649002134641448, 2.9734696890834167, 2.174646052691363, 0.28159180237860726, 0.09701395790839903, 3.2248667252750094, 1.4522007733666171, 4.348017569723742, -0.23381807397187687, 3.1165306514052404, 4.390102345304378, 7.897488477917245, 11.023600346419968, 7.025903693324058, 4.299818846552438, 2.2048941726645555, -1.9704791149950078, -2.8199769946085773, -3.2345479900523144, -3.034156527413967, -2.1166771085754164, -2.2441321188203616, -2.1719505196558684, -2.630532896368782, -3.1432481171941005, -3.5706287683416598, -2.9365746234225614, -0.3489674871169729, -1.3429156529232078, 1.5399304348754024, 3.6704743053679034, 2.3561087649391492, 3.633785396323726, 1.4685943680451734, 3.3125736056273305, 3.5407576631523283, 7.558263707021281, 3.9407256940884157, 7.00192069459735, 11.480322692773838, 5.508268638281567, 5.994581586031102, 3.664585209680941, 3.515548771815424, 2.2191322435552077, -0.512760232025067, -1.859950532968803, -2.1774260069440845, -2.1928816787924443, -2.1892733159537214, -2.304147272585057, -2.8803077956475076, -3.105888397888247, -4.252353549061683, -2.867584820035295, -3.2774776207591363, -0.785559544753178, 1.0494801803798572, 4.3305914816746975, 1.6429017757826796, 0.9765499583846041, -0.9419946492112684, 3.4457195446821522, 2.0344410260536323, 2.442133570329927, 1.4847167171881055, 5.018557043855374, 3.3505587013696982, 9.775708129837472, 7.699235543939722, 8.616396831023042, 7.297659796456609, 5.140792659079049, 1.021256343524716, -0.04237540933540531, -1.4570988534554268, -2.446972304192361, -2.2427926833282603, -2.3059585677015506, -2.3810369125229514, -2.5653796551739405, -3.6710105439682192, -4.28245291075605, -3.49867976828877, -3.775923170005897, -1.4785416899081971, -1.902851846746563, 0.6813118868203957, -5.146968922304118, -0.47146695068411815, -1.7910775437124697, -6.396555930641733, -2.8596365501454786, 1.6896684398987454, 4.140708108487726, 8.589231798049443, 9.878256650379202, 6.497929931439191, 9.55826461002573, 9.039269126622774, 6.30477897847953, 2.95748276117341, -0.38453364841534615, -1.9175877347885983, -2.3965994111003353, -2.2598274214008662, -2.3048483316185764, -2.2905030253608367, -2.5849842570670165, -4.376959834038502, -5.97660733280509, -4.543984123537691, -4.17837434725351, -0.7876599863025435, -0.7762433157907552, -4.6450378720967445, -3.2805670843987573, -0.6757503655450833, -0.7782548921962047, -1.8781767671267229, -2.3639451543324466, 2.738208513314467, 6.595912250657737, 2.6687869539598292, 1.8799224825056, 3.168426595714643, 2.562979643545811, 8.42106950939643, 7.106131342313643, 1.4941713856122194, -2.6770650003201144, -1.9783644291471838, -2.1529282649506607, -2.218290769354754, -2.1992273559006517, -2.308051378261927, -2.9894158227534637, -5.126764293664114, -4.668183090224942, -4.452222238090481, -2.303367445942589, -1.0837481919793923, -3.289524830187361, -2.9758540984703736, -2.5057762046866876, 1.2849034241381014, 0.9832009686697741, -1.1276684568371274, -4.141970804757036, 3.7613461362538736, 3.377249369693461, 1.1526968788984981, 1.8402967894007576, 1.8936127940271688, -1.2019466783454482, 5.430113606595572, 2.0172984603697457, -0.9886979995945632, -2.6368767542555807, -1.9221272285337896, -2.2016019692191517, -2.180277693297913, -2.270459039659299, -2.4268850918615383, -3.32042736262825, -5.239538102293528, -3.6391056116049008, -6.490560287202947, -2.4840826400929767, -0.9258632174007636, 1.3665167364069546, -0.6508687662583879, 6.476782892874304, 8.7219221291547, 3.685527615122822, -2.9711085889087787, -1.137342582968235, 2.4257160574840277, 4.061171030535238, 0.3814274256133296, 1.9355550883220363, -1.359469843664961, 2.7074734182218902, 3.1127814790723436, -0.1127261627164611, -3.013145595697814, -3.1262276999362375, -2.2426828537635113, -2.1901339037539156, -2.237114420434959, -2.2034515064662634, -2.2923064240224074, -3.4128086680474174, -4.000217466463341, -4.446324994554488, -5.835603419252978, -3.632942841197328, 0.19119358159489497, 2.415350006251348, -0.8718240697974343, 4.653970796876389, 8.444079390756103, 2.1816704520498664, -3.7633097025494537, 0.4025278352505855, -2.198926203829889, 1.2788264237071312, 0.1879573846474514, 0.40602285927937126, -0.797619612214574, 1.6770316477074234, 5.0990688501838255, -0.3300383466688472, -3.9271259526846096, -3.253676560736949, -2.4913045994612713, -2.2424348502173923, -2.1823259600898814, -2.2737439214144644, -2.4913425381763994, -3.2464236907458046, -4.246853370477533, -7.0795397228949, -7.418641779352823, -4.052043207675301, -1.6544871234423904, -0.5344632392246214, 1.1371813029547078, -0.6055306143153127, 2.306368139579482, -4.246896976163192, 2.211669306357069, 0.3831988763931327, -3.835673535028436, -0.8223311479231006, -2.5936157629946863, -5.732986310576377, -3.6541618348383396, 0.9690207032621213, -1.313169677046824, -0.7792992631586281, -1.8492153206439916, -3.010259991762872, -3.085826454772743, -2.2929624738833376, -2.1919134488661083, -2.2419891479402585, -2.4312794540521376, -3.858531314093339, -4.382259174393409, -7.189240563982085, -5.612075888621993, -2.115493242322727, -2.5115778808276756, -3.4558088560547766, -3.6941846586412743, -2.652246150921024, -0.4487951709714417, -5.847304733825326, -3.2298221095058604, -0.8300077964246666, -3.3136164627526723, -7.543471203177352, -5.341112309603685, -5.192948527957521, -2.3381991517198095, -2.552176649568939, -0.17508696102705132, -0.09307586752533717, -2.250370464913895, -3.1601695025824417, -3.824527704699252, -2.3072703326822896, -2.2585117107099446, -2.1645241700392237, -2.4559593957829455, -2.6603389283574965, -3.3245079147318566, -3.364754294384297, -2.726952722457285, -1.1601173481539826, 0.04661752267184292, -2.360070792467352, -4.087586283790332, -2.8975674524733983, -3.7234674755585426, -3.6652744182163164, -4.554931105430322, -2.4909423476824997, -4.127564171808826, -5.37324981743678, -3.420165379053474, -2.108041191702093, 0.5459172135292314, -0.4361114455977532, -2.462484418598831, 0.9478064208203387, -0.452461667453596, -2.380066305113885, -3.5381675770780197, -2.536311447645783, -2.248266223744692, -2.1844420316466415, -2.9385186296777652, -1.815019749994361, -2.0519363120417906, 2.260669315436683, -2.641553124310555, -0.6687210480324814, -0.8687571181058767, -4.502151866944214, -4.460768368948154, -2.8823024913091957, -4.6924754520036425, -3.0787825102396105, -6.224099843885491, -1.8252276966723215, 1.4047853134208, 3.3174995513049432, -1.352957984337437, -2.5655818968209534, -0.1317908333466625, 0.21722514763993483, 0.41728179339932425, 1.7617335459229164, -0.5290558111454671, -1.9445328006192846, -2.3682387639569966, -2.4405068673018215, -2.2077652990341927, -2.207800755181821, -2.7561720852112646, -1.9481977512334865, 0.09593587898692567, 3.9353394117329117, 1.9500134292061149, 4.715831732881945, 0.612838774290024, -6.55169915827914, -1.775943870561558, 3.837762469237604, -0.4245660863780098, -5.748805185402562, -1.0193296016608742, -0.3370203024149385, -1.7549591519231533, -3.168710323550778, -3.976622907696502, 0.31686148794884794, 0.7201136319352591, -2.1324140067629918, 1.4794314521123826, -0.8307643381705332, -4.074878152388846, -4.470345484479194, -3.190171141524763, -2.4814135784001525, -2.2108665773214424, -2.315190480593981, -2.2155630358135894, -2.032428602524462, 2.175568851644441, 9.706326294124347, 14.038322021168689, 24.129501098915107, 16.069667263611173, 6.096571078378969, 2.50760468002164, 1.9377980447373717, 3.1969859567221772, -6.035935898089779, -1.06899096772268, 2.006940505020965, 3.58759526415381, -0.351169657059011, 0.7214737888841652, 0.1978328362378779, 0.0187819429042824, 1.2706160190188, 3.87705136642002, 3.3449155572237332, -2.3695303672414347, -4.150573039583333, -2.186811657280562, -2.2284807636571835, -2.1597574982296672, -2.3204179417674644, -2.5242990035818846, -2.813045744300899, 0.7093791246572452, 7.121653500671023, 11.578052238619362, 23.74954447387964, 33.2996235343117, 32.905685601665986, 7.8582115039939495, -4.600323256151963, -0.8832407821205579, -1.6310182685879435, -0.08683289697547882, -2.3136493881861075, 0.9833562225729964, -0.4785833534319176, -1.7823190833473987, -2.4538076631738943, 1.284317342013834, 3.636994508318369, 5.738531557619235, 1.8797436164213712, -1.4215871053985822, -0.7716925564628839, -1.7253406224293977, -2.303445946321492, -2.235195271291021, -2.320990814512056, -2.4585473904339925, -2.5160938879021466, -0.587165129691212, 5.070255675837193, 7.845432650395663, 11.832621180747507, 22.33300418532974, 43.78280120338682, 22.088382517189288, -1.6371949055906276, -3.015080754874862, -1.291486753839095, -2.8764911588854716, -3.510215206824722, -3.5901139124771246, -1.1448711851738063, -0.45578697626398756, -2.297671486184945, 1.9097254397844285, 3.493410356088797, 2.968662271926504, 0.15692263764682296, 0.2017495796674315, -0.8107465510817597, -2.2482792690436955, -2.239689303960476, -2.19986711732574, -2.2487243499751726, -2.175489207222733, -2.3737755806276364, -1.8327078156869052, 2.5040897492234944, 8.967008965871752, 14.217332748735961, 18.83519318704486, 19.98172628717749, 16.378663809670385, 1.3505719669066916, -1.7461839275429936, -3.2726361561034487, -3.490546750556522, -1.6804245264212354, -0.6915525541685892, -2.421191899325735, -2.014396381745109, -0.5260956905675317, 1.2948476415293526, 0.6695258075067547, -0.035638118266092055, -1.767972240928046, -1.3421458555579562, -2.269040862391917, -2.1571564782721215, -2.2406432335279765, -2.1894512600173925, -2.157174702754685, -1.9732321054190516, -1.884733572605402, -1.0946167015287556, 1.109550132263188, 7.634375933232395, 15.33844868753651, 21.66043575482885, 11.328670841752437, -3.084870683665838, -7.351636383845753, -4.847872946274599, -8.142473118184446, -7.325343622652406, -3.1308862980775944, -2.294876010804231, -4.342942266410389, -4.366447055976735, -2.8579203356631298, -2.861126769345498, -2.7742525912323703, -3.7949852283925893, -3.835177972276775, -1.9659271818014246, -2.187579352292092, -2.259894158064204, -2.1976107513495444, -2.1711444371050583, -2.236799928205824, -2.0957405617982308, -1.47787738395872, -0.8504300264517033, 0.7953692047591016, 5.359273708143459, 11.762793969436501, 11.053181733076759, 3.685977202391534, -4.73690692317548, -6.613130238080226, -7.078102746800668, -5.4988993863628535, -3.718356770578463, -6.031920896424367, -6.9024713104918005, -7.831974870937591, -6.488054064361434, -4.591173469764408, -5.218129641300065, -3.606075207757636, -4.01346068921373, -3.317146569100768, -2.2666275914897556, -2.1425925674346664, -2.206694870305365, -2.149650315712428, -2.1839222368659423, -2.191666853537374, -2.211429164795624, -2.217660882225442, -1.6809381478004577, -1.315350218828752, 1.673929393593582, 5.806469554041431, -0.23845974364231948, -7.765184958809223, -11.086863243959554, -14.700101770179112, -15.20932114552725, -11.966620957331592, -9.227678727213712, -7.4974955121543925, -5.204740252463697, -5.019309920068455, -5.649970667547156, -5.125336898648279, -4.2429943098396254, -2.9104540464695026, -2.77951631907816, -2.63396090715363, -2.34286318410416, -2.19342702474254, -2.1802990632992922, -2.20166982948189, -2.20444666265615, -2.2561066031539867, -2.161842702935679, -2.168726877843217, -2.246509070795856, -2.01136899006252, -0.9540196525787347, -0.6972829639635539, -6.109948952164185, -6.329169599895478, -7.250488242113117, -6.314286147810247, -4.680229353493431, -3.175516553444831, -3.340336721352959, -3.7645923867184345, -3.3676694368777804, -3.140339715439457, -2.6941706261025073, -2.3301153052602563, -2.7009703914978926, -2.4944462533284906, -2.228948183583903, -2.1061616903370037, -2.2799931286386514, -2.2200208912113277, -2.2234002375454955, -2.2406634047743603, -2.2096138253976396, -2.2309126326438116, -2.256895212701454, -2.1762640505684385, -2.1985666164666906, -2.2217260672586807, -2.232113526424306, -2.919369121494901, -3.3918326608356786, -2.696104759733417, -2.458971903155529, -2.1950357445160598, -2.2162710876085177, -2.2618358291160794, -2.222775371880117, -2.15767356897648, -2.260008592802785, -2.228713216655722, -2.2199215038741413, -2.2418586410133488, -2.1903902171830776, -2.2079583978238237, -2.209089911430608, -2.1976717076754526, -2.2225131157714175, -2.2133685159879923, -2.216420885450512, -2.2469052274680035], [-0.949605070138712, -1.0352420700980327, -0.9916974762548014, -0.9713641934253285, -0.9943020309485633, -0.947467427086115, -0.9931240512952293, -0.8858570148667493, -0.9279491441295968, -0.9686414101731782, -0.9607052374420322, -1.0181588578120635, -0.9396826458436731, -0.9209075285813926, -0.8965951043914258, -0.9611111407944588, -0.9102580247140721, -0.9530456628367345, -0.9378875322133302, -0.9389976292710269, -0.9560980389242943, -1.0018497978739287, -1.0035825861657341, -1.0465200228434315, -0.9747348318684228, -1.0326504046105673, -0.9944265313131481, -1.0930111192798717, -0.9995690283250309, -1.006064771246488, -1.0034698316478918, -0.9817394463808664, -0.9718846315941176, -0.9844636968738523, -0.8836164063580916, -0.7505484462278031, -0.8347501203523336, -0.8877893979833731, -0.786602826503606, -0.8755461927155852, -0.9712068225436825, -1.1312563882243214, -1.0409743521061408, -1.131780391116129, -1.4167773408770612, -1.2005911217399141, -1.0467372219567042, -1.297166816658265, -1.272883331650911, -0.989365245630887, -0.952015716012425, -0.950208128341774, -1.0069386405358771, -0.9726668401951231, -0.9997760442347463, -1.0334530194232474, -0.931107552287467, -0.9421056377417119, -0.96141111891043, -1.0432367380710927, -1.0005714441301352, -0.9925022335967857, -0.9690075752450846, -0.8080306218875023, -0.27370945078486597, 0.026649868618299825, 0.2885124418582292, -0.47379447232681704, -2.295462639525993, -1.7716338087633285, 0.43835603240455806, 1.6965394398645852, 0.5052161113676562, 0.1500975330131681, -1.0467185533331183, -0.48959553719578974, -0.045261622439878954, -0.6427282722922402, -1.2077371953363847, -1.2112994040125398, -1.1205390812481792, -0.9901108025601961, -0.9854289822398961, -0.9951621393874804, -0.9913272778418227, -0.9775210174337323, -0.952612684217963, -0.8954664082087294, -0.9506587045852977, -1.14575154167854, -1.0425611409174604, -0.21874974556538704, 0.8541225387515281, 2.269241110098669, 3.4490057007091797, 3.6711803551621314, 1.5930755019828335, 2.0321128372208945, 0.9549907629965111, 1.5651258747655403, 2.03446488716208, 2.902598587290626, 3.01414379406545, 2.8492084951924026, 3.549718595549883, 0.05375256534928405, -0.27627559043619054, -0.9126408085517587, -1.2699765573106687, -0.8795106124321737, -0.9476303701909807, -1.0036755973382072, -0.9853220762244734, -1.0210257402595404, -1.0049238497368573, -0.8778809078920702, -0.7914798243772463, 0.10347826237592529, 0.8117307367644182, 2.0360477960480914, 4.119325985145114, 5.543911323890482, 5.1428730894446355, 5.096201022687861, 3.8940221143784783, 6.013837289792876, 2.7312123671499853, -2.335179814349607, -2.544712601561402, -3.1872000422743945, -1.9910741473972824, 0.5264666235934136, -1.0441445478832347, -1.9789314374116833, -2.101918365998951, -1.587991545774538, -1.7438448834680131, -1.382009148101611, -1.1450273113823206, -1.0039280666196095, -0.9919032058794623, -0.9821300023431441, -0.9760959643965368, -1.0702606680402411, -0.8883996943980451, 0.8805735450869233, 0.7948337634618708, -0.38415283854383053, 1.0708485306119384, 1.2251416648170785, 3.0033909417791604, 2.676544739074372, 0.15487650827275748, 0.9557137189189615, 3.7851243081177013, -1.345624996677909, -0.23061482190240645, -0.5222764133960995, -3.02472613770605, -3.0643421722539634, -3.952104547891525, -5.741143685108851, -5.900892081993365, -6.740743739169994, -4.591481513571645, -2.5429301152336885, -1.0866293857634055, -0.9658500811799666, -0.9636136358522047, -0.9854712647980759, -0.8974750444547563, -0.9499269833469518, -1.0351269839663455, -0.2877045397886839, 0.9854386610193637, -0.6403445539993722, -0.5701025821467722, -0.9820426425074278, 0.06022939988591289, 0.17010899098704219, -0.4336757567574862, 3.245972623116027, 2.9658547499912573, 0.551628665644546, 1.1581712191644338, -5.655527040878041, -8.446744911717428, -7.006512577462714, -5.092627219124848, -7.752623300367332, -9.28629499486874, -6.756063137309916, -3.6759124320025496, -2.0948207341369103, -0.38814107049443464, -0.9499430436049199, -1.0443593115124628, -1.1572532086130565, -0.9711223251302548, -1.1962469460456155, -2.182850415867353, -0.6612197569993191, 1.4585306310771746, -0.48178282340270534, -2.5337929505385146, -0.7940855883063508, -0.379478727791341, 0.8206799160001462, 1.481976680084429, 1.266739214100054, -0.1486903899460656, -0.14443426013560842, -1.3699690787872705, -5.216339945543664, -6.4137062152518, -9.480137876797865, -5.682668158228217, -6.4505937656488985, -8.973178219111812, -6.587138135448114, -2.0639011935602998, -0.20260066544380978, -0.186848671327526, -1.1234446907740172, -1.1391459203313572, -1.4896151090236294, -1.2640680978150416, -1.8312803135206883, -2.3261860017899068, -0.689634788218361, 0.8855884205472491, -1.1233141142051217, -1.1164145982066385, 0.1440726266511707, -6.834284144329642e-05, 0.23769280099158432, 0.9221634815525083, 3.4578571524923305, 0.13474950350337794, 0.5640334053825692, -0.04014996411714777, -0.6642051049895483, -2.1606010375986053, -3.08225261290585, -3.2673114954023776, -5.981537895817158, -7.268408296823086, -1.3611447114499313, 1.9110430341441613, 1.1068558244775326, -0.29875811661712776, -1.2389052321228582, -0.9214208099856787, -1.4156859658102743, -0.8516502932787601, -0.8864832326416793, -0.6768030507360593, -0.3398034366278315, 0.19668821137980416, -2.223611302696867, -2.424183253917894, 0.8952342108061486, 0.9633100359178596, -0.7859872287659906, 1.7401725912024155, 3.080688076854902, 2.4582919360119386, 2.2566631630796756, 0.4065175162077948, -0.5963238438361168, -1.140687083320046, 0.34291837600877434, 1.1150120882501173, -2.551774701296158, -2.8504427463423334, -0.49443597774012293, 1.6246468391143205, 1.405598271121908, -0.043040745684220554, -0.9339239460844487, -0.9510562651450083, -1.1299919269730394, -0.3745016496588153, -0.8017507768899523, -1.2399611908713566, -3.4099001169371843, -3.480928950771783, -2.618018464445968, -0.19750903089698463, -0.5266442139515755, 0.6002908959720618, 2.541628115335469, 2.728974442454909, 3.5543052534839403, 1.5218155399801738, 0.44275645243064815, 0.6128922444091588, -1.1679411252482226, -0.7512588912600479, 0.9282125024638899, -0.025301318312028084, -0.5359794541389369, -1.9958805100340136, -0.199105611224988, -0.1700035299834046, 0.20238396283683419, 0.06626218259029507, -1.024776282417606, -0.9996687936564206, -0.9721741603516396, -1.2508648376389164, -1.3307382284617217, -3.2995285774498253, -5.817868050031987, -3.7509148060511692, -1.7502902524027766, -1.1919075616561667, 0.3776474767238769, -0.46913161649061824, -0.19073022033040743, 4.957604010554601, 4.933245881951102, 2.1070457526911093, 0.4389842730018323, -1.1644836975882649, -2.2997125737067607, 3.6429179783669055, -1.233095441591248, 1.2491678334936593, -0.5896915688596316, -2.604274427779018, -1.3460373684820113, -0.7059800248280349, 0.012187836906358709, -0.350950582152064, -1.0223768982878387, -1.0682211676084725, -0.9548825698830363, -1.6160446983561678, -1.7450483298169324, -4.0822082711763175, -3.0209323702167867, -1.6706493545417291, -1.6696494394683006, -2.912793017152867, -0.16708147415119146, -4.021309334551796, 0.25785482608496696, 3.567479567377654, 2.155011532963352, -3.073434100496579, -0.12505064490671694, 0.24662705092598874, -2.096358414456954, -3.4483426810436306, -1.1731553158673182, 0.8072190683011387, -0.02705145345218744, -1.1625421271360572, -0.33678369735376695, 0.4638917471667773, -0.821613114687419, -1.3613558591366148, -0.9461476712803112, -0.94002354962616, -0.9721171455983326, -1.1087839449727812, -1.1651641700649555, -4.043800678598774, -2.1343233489852342, -1.596528087649287, -1.6870812467868797, -0.3784889329041134, -2.9512696655684, -1.6390020154159548, -0.45845529901438975, 0.0013118621716845906, -3.628521374900363, -4.488075891349592, -1.8949620179071123, 1.019179510818109, -0.8310455326313331, -3.64026213630895, -0.595749754665318, -0.6789966809302844, -0.4692223485055742, -0.1958769648454617, 2.01933864777372, 3.5084461627331147, -0.3334672789807919, -1.2120850823105713, -0.898484245639066, -0.9839024250095769, -0.9955390928116613, -0.8823892597340676, -1.1986146601392702, -4.885696568689413, -3.677351280127579, -3.6299157605645265, -0.7936341964068929, -0.06698175173396512, 0.21370337007760545, -2.645510066947225, -4.108391613226667, -3.0913601583870345, -2.4831958295386047, -5.276760786386494, -2.3677470072505162, -3.317446005964161, -4.390094695871502, -3.3140385912758736, -2.4100240461721643, 1.432921154106437, -1.5913617119384984, -0.38001957769476863, 3.14662330786871, 4.487175113295893, 0.2887510037848976, -1.1886413790980626, -0.983180783627637, -0.951210771171384, -0.9595851257429382, -0.8314777329888583, -1.3181115808162376, -5.937705374612199, -5.033196814699492, -3.8533033837160153, 0.8619047195869656, 1.7076251929824435, 2.7468708193478855, -0.49358790615093323, -2.1916306323612647, 0.608873622693857, 0.4226739954946543, -2.5331495947964835, 1.145318331612713, -2.6212108844625686, -0.6044716641516731, -2.612148120202547, -1.4602269963809076, -2.0719792486617292, -3.24493253628161, 0.9194291583679841, 3.2653059871155867, 3.522944562946065, 0.4437035517973408, -1.1340823832383642, -1.026520737063777, -0.9516975581778906, -0.9476814210657749, -0.3504700252559685, -1.2242973986907806, -5.465741575419549, -6.318784745141031, -2.8823161835930344, 3.0211761710402083, 4.632068045667324, 2.550162656838178, 0.6851289168015199, -0.3165216626872938, 0.8052518576348804, -2.439057448729535, 0.1923399129468008, -2.806043787623405, -0.46917240866038046, -2.0198773204597567, -4.678480069388078, -3.5255974490814386, -1.1188584761866494, -1.1143612146638475, 0.4833440673173841, 3.4587019196307542, 2.272144057082403, 0.5095593282178599, -1.3308628960610043, -1.012982552082903, -0.9321487754335118, -0.9934460054724141, -0.36537226933923694, -1.950393527290066, -5.694120398787729, -4.986739835489681, 0.24359059899422808, 5.0264834699365935, 5.739876001324542, 5.918787492614229, 3.815340049826631, 1.1409773309204865, -2.3418074166565312, -2.624259615314746, 0.49128287736738513, 2.6156315600604776, 1.8459729594097742, 0.4135513896289232, -2.591533406334496, -1.034818900224284, 1.435644873032253, 3.2904895708492297, 2.2157225236414164, 5.084100630229798, 4.36891565098418, 0.9116208470293167, -1.4518811713203215, -0.9782602736652404, -1.019709953117314, -0.956537547644452, -0.9088458527705034, -4.100826850377245, -8.453893048449537, -3.701714044841724, 2.2988399375635717, 8.385474530874614, 6.1788401432228435, 8.955255621542898, 6.509745474362701, 2.733517478043823, -3.646602732741359, -2.895524453289366, 0.897344669144487, 7.34179061809604, 6.3373428600900095, 2.9836015236580264, 1.5292772808697042, -0.6701553239038599, -1.8567335562876015, 0.7754987739361829, 2.387066935168442, 2.986945611105722, 4.756117046554422, 0.3683613326313051, -1.3070588130899083, -0.9410479214835912, -1.0058279901766396, -1.0195714555658661, -1.1672136548629308, -3.7453782267345037, -10.069727841621672, -6.296197735863649, -3.9507590258444627, 6.505110915486347, 11.954469003623048, 7.476808842367953, 5.584318426364489, 3.468216036729921, -6.05648873365453, -3.969039426418737, 0.6164657394958968, 7.515457163881736, 4.182639268308828, 3.205008813291114, -1.554278902241481, -2.0542955641447955, -2.4297968866300557, -0.38513262648549274, 1.3751431104383232, 2.950595010711242, 4.5518258074637306, 0.07939996815315165, -0.5009884532577393, -0.944920671034587, -0.971473037739564, -0.9594528156343232, -0.979880445572211, -2.7264058807295597, -8.949495326436958, -10.990106766758913, -9.511702621108302, 0.04500596475521641, 6.4626323859400125, 9.903793451407234, 7.5268390862590655, 3.835567416400432, -1.4276204717453789, -1.8001234783146542, 3.049068433469534, 10.282190961009137, 6.924300262447849, 2.9376225713913624, -2.116476664985559, -5.847471654504869, -2.2546437499172143, -1.2020369061008616, -1.1247311100110549, 1.8345409786619509, 5.43581064314622, 0.2284855094116061, -0.7733956422790789, -0.977322698102578, -1.0143743112591779, -0.8735196915899452, -0.9897849898248268, -2.3857310427337968, -6.447292743066295, -12.069190621239155, -15.350041550069864, -7.604492292849679, 2.393919158832459, 6.707100010380856, 5.29839365007504, 0.679212856924375, -3.2985180631527053, 0.10758348203954025, 7.083389609647965, 13.73738143944804, 8.214967181451605, 3.156102721464086, -2.8870216216893723, -4.18142997514983, -3.2247990026094473, -3.7044952637330653, -2.377332975167754, 1.625608140326961, 1.7724704014212764, -1.2150351168218514, -0.8300771070089483, -0.9209723247604811, -0.9932265914129679, -0.9704088764641741, -1.1041406701445946, -1.7496380173308084, -4.60433584668055, -8.553298626259394, -15.570686347214451, -14.47234670652091, -8.816773917629662, 0.2911277070477596, 1.4103315345990424, -3.961724588016339, -3.453355669029842, 0.32083052971220016, 9.845982943590613, 9.807473931336581, 3.927831287460796, 1.7876768780417531, -4.037706122912062, -7.8484697295247825, -9.91921356901807, -8.480343176458026, -3.913502175656398, -1.6214150154823503, -0.5582007154936375, -1.0940989004826902, -0.9977591891166719, -0.9041228869087661, -0.9573102860625784, -0.967297195972509, -0.954569708421559, -1.1707471166618104, -3.3133873447238456, -4.522565547649406, -7.931787094048845, -14.03770294394852, -11.700206547363326, -4.8903570671071925, -2.0158536965345175, -4.60665043659832, -3.4453051763435765, -1.2931969559210326, 6.312915391872725, 6.2831996463664685, 3.678425197281736, -1.9018961416050417, -12.027203211999982, -13.559108889877093, -11.628436313531513, -8.604576992551365, -2.9906077820723134, -1.7662226820518838, -1.4336860855047608, -1.0531220623313426, -0.8708706621329203, -0.9589314120253318, -1.0068831370870845, -0.9810550652409549, -1.0447533301323084, -1.0523003023813962, -1.568757789696379, -2.1212563759642338, -3.722817607605721, -5.326265413595719, -8.322943541167076, -12.416897817808175, -11.068766442098687, -10.581088473376854, -5.740284428080495, -0.9587194311148892, 3.4785010139755252, 2.62401792373065, 0.26190011630007753, -4.808937363974314, -10.002703735067074, -8.407846223675046, -5.873299125450976, -5.145200349519826, -3.0249078667710254, -2.12080065009454, -1.063609875923984, -0.8319221369948206, -0.9590003067767174, -1.022754238429443, -0.9936859700718631, -0.9663286451459394, -0.9867937049071669, -0.965461875853552, -1.0851396759766696, -1.3153900400852325, -1.8508461116143835, -3.00306742059892, -5.363183100466494, -12.718600733446129, -16.801836925071818, -10.048958907635006, 0.8818167554941413, 8.763135532068791, 7.576184687108253, 2.9725644216461586, -0.2638724408683891, -4.891533454991308, -9.594821814405393, -5.067604347648026, -3.4836158159140704, -2.406778954063759, -1.2725601643121527, -0.9604944007062193, -0.9516144790841452, -0.9803620658078454, -0.9353021410385676, -0.9340928689991301, -1.0387243281590008, -0.9613529241938996, -0.9782410042840628, -0.9901740620095594, -1.0317470486354283, -0.9290818791046787, -1.1736444992656268, -1.8236183955597045, -2.630527707015039, -5.553134785450952, -7.285826676027673, -4.281247396619506, 4.047527703979851, 6.760201533196005, 3.9077597427884925, 1.5593485513799734, -1.5155234629555006, -5.578298880906938, -5.616803830886689, -3.1599397164604786, -2.0219956637405736, -2.066787371425674, -1.400135182672683, -1.0810205279450558, -0.9955134465461931, -1.00435162248287, -1.0156053437580084, -1.0067091739543317, -0.9596249428405885, -0.9599753548031573, -1.022017072246279, -0.9288793266118804, -1.0162655003983823, -1.0306858525843137, -1.0129992092985152, -1.0466612673249307, -1.2277194110698277, -1.4490951851146807, -1.2676364461145537, -1.3959390917955379, -1.1932066165744677, -0.5394251898998472, 0.09459648780868718, -0.9808158094649628, -1.2452557893703902, -1.3197625332512204, -1.4452703530425448, -1.068410747085549, -1.0011211206079715, -1.3063676091500156, -1.2516239382332703, -0.9841276772498506, -0.9141980059702157, -1.0186275746629836, -0.9497020482109588, -0.9710600192543752], [-1.0068840337623923, -1.0184921024917253, -1.0399981974717514, -1.0007457751341697, -0.9995909862399531, -0.9806577608152287, -1.003386803718645, -0.9877360269498345, -1.015972310053326, -1.0568574547270793, -0.9624590567893949, -1.0442938900355674, -0.9833380774301095, -0.9576182332972172, -0.9916827853870693, -1.0195334497342776, -1.0145123575454063, -0.9515761738563959, -1.0181266382659298, -1.0292687996806842, -1.002134258402574, -1.0149991772469777, -1.0318818159370615, -1.0518531380608083, -1.0500356311742418, -1.060901364676704, -1.0001454464623516, -1.0088826761323022, -1.015039288825095, -1.034517532117045, -1.0095612308900368, -1.005577356288591, -1.0546270519315806, -0.9799093690070847, -0.8947437785922003, -0.6888064738467271, -0.6609870541398974, -1.1477463852831762, -1.6379562279234017, -1.0501086205862902, -0.5364656652909844, -1.0388515298341714, -1.164053465340431, -0.7156003656031009, -1.0860843802044124, -1.636529778077758, -1.6195211795732831, -1.3769138575486242, -1.1762621358611058, -1.1022595535120436, -1.0801185845116417, -1.0095801088876706, -1.0525898493444277, -1.0726333504610281, -0.9824463216053596, -0.9660458447515212, -1.0101726899975978, -0.9940486690828894, -1.009482205536151, -1.0122216269064725, -0.9820114909006635, -0.9653214687911088, -0.8882775114812991, -0.9550724629321841, -1.5734533828267558, -1.7024036696496463, -0.002213011037610989, 0.9331567719450997, 1.40243071001624, 1.222985559456025, 1.632634901812069, 1.1451949535410753, -2.106583851889083, -1.2752759208469617, -0.05514275479813558, 0.0739653255948038, -1.836553572379546, -3.0041315992555373, -1.4212719263235687, -1.264309073119393, -1.0825469993869217, -1.117244013538514, -0.9876748009508012, -0.9731298079921125, -1.023041062089294, -0.9831101329399285, -0.9690488085265688, -1.0145521503613242, -0.9959776635937876, -1.0230164696251822, -0.9625317554613948, -0.8710950846520086, -1.4270806924050774, 0.1038776006823877, 3.352146532548142, 4.622271986437889, 4.759171666595421, 5.798350063404868, 4.0897362217687725, 4.804806669778517, 5.32422667488209, 2.030693399281274, -0.4494253967249476, -4.7827331082742, -7.393256164403719, -5.779154729868917, -2.1219314756240157, -1.5998265981463082, -1.2703902669404594, -1.091464898668123, -0.9856026760786145, -0.9759901521428136, -1.068719202532501, -1.030243517133046, -1.0779900778187188, -1.0896906036648497, -1.228408419250378, -1.3466946529281818, -1.8207809051243113, -0.8785199340473924, 0.024771569093484283, 3.9458700985968425, 7.500619378677319, 6.075796388555024, 6.777130458297389, 