{"name": "hl_32_bias", "layers": [{"type": "input", "nodes": 784, "weights": [[-0.18492671105966926, 0.029001508644530407, -0.01993228992357059, 0.2037563731180404, -0.22002653579686293, 0.299171586055681, 0.051410301349313355, -0.08312181953361351, 0.22997259820893767, -0.07807448772671863, 0.06834079332221756, -0.008196662981623403, 0.038876023487248196, 0.22940500562681934, -0.12576480322747913, -0.03571339372186361, 0.17659836426391107, 0.01902781495378172, -0.161995423460038, -0.06089964126797555, 0.15201013583448822, -0.03809915057684129, 0.11512154361977621, -0.0005784786960281042, -0.3304832138155809, -0.10408210095158975, 0.09775672158906158, -0.01865042219252461, 0.0460075740145476, 0.2117861936998322, -0.11108887890253398, 0.03874182331341934, 0.12849108491176206, 0.1558767416021291, -0.3859485374436304, 0.05296925583243899, 0.1509966524145567, 0.125553155121284, -0.029340860330834963, -0.27861511081915724, 0.272623317824705, -0.052762816540618394, 0.18122213199409365, -0.10162216479018635, 0.131094533095775, 0.22209865310388147, -0.13013749576371453, 0.06951126010515796, 0.24237726239386695, 0.22507772455495198, -0.15515199613971525, 0.1495952990843444, 0.030146083545113975, 0.021942358829965498, 0.15738354162615042, 0.13105741106614363, -0.1418319082396356, 0.07498107934421157, 0.03242095351471581, -0.031158540406776028, -0.1680059725566333, -0.25128153450299406, 0.0918841023804485, 0.05672261903199884, -0.06571281727029657, 0.469585729939518, 0.30441069161900824, 0.13371273425923383, -0.15051914315872486, 0.08905688905532465, 0.018870253288838058, -0.111869312794658, 0.12826983086816457, 0.2612709988638851, -0.3089773781286986, 0.251536855904969, -0.10893333902528468, 0.2202460761876589, 0.0587410222609991, 0.5894746260484508, -0.023462478607046637, -0.008412322209622985, -0.39276099041901796, 0.06315188539620108, 0.04739809777605334, 0.19478501634080717, 0.07998809306157025, -0.3522044628129213, 0.007217826008472839, 0.2988737779661303, 0.21473063589287217, -0.021295627834434352, -0.15992359804501055, -0.03324199752981883, 0.34212219362967455, 0.22971359816823467, -0.4124323689492291, 0.06694491791720247, -0.012942346357381857, 0.20195122833313725, 0.024360304373313043, 0.10963261652095875, 0.20567296250946, -0.005352189239241316, 0.048863676215367004, -0.21639194135190437, 0.009537421762422116, 0.07537474447195942, 0.10312004105876833, 0.014143205463616866, -0.20191671079083032, 0.015808930929489522, -0.3497484661433132, 0.30131229796141495, 0.1639082806005496, -0.004105278903029796, 0.08474834008239036, -0.26189832766223453, -0.041165686941363834, 0.2107288346456005, -0.20697132362350654, -0.029994014939124514, 0.17681209738077167, 0.19499962411240135, 0.13491832660326655, -0.11436750677328414, -0.2599773049086459, 0.28681544941140663, 0.11357618951955736, 0.19019035572503232, 0.1599620906414369, 0.4678064403751511, -0.05553755783150592, 0.03656757895995775, 0.1037195533529908, -0.16148728467578832, -0.34235623630549866, 0.0009627717818209103, 0.1250573338947371, 0.1401391193383353, -0.23589727649938516, 0.4857523147219547, -0.003620576985451433, 0.1647934198163281, 0.02925594492576447, -0.04400465378843162, 0.14481871990326095, -0.13319715319349507, -0.15156814130334106, 0.0010495096970280452, -0.1558151902676471, 0.02083740525686187, 0.29717329654462743, -0.04471853196734124, 0.3176864394855168, -0.06573882235425275, 0.011739223523740972, 0.2701412797882002, 0.0551775269717431, 0.1225276032690466, 0.09001605755423135, -0.033441564156913246, -0.11341474465420304, 0.08043952649066509, 0.024173754707993197, -0.04859290377115881, 0.05866069189730884, 0.042024734910520625, 0.09167539839054853, -0.3281240894024434, -0.1457718806950631, 0.08457814830280658, -0.014434022601463271, -0.15832153590540368, -0.03327920805200794, 0.07622411104006661, 0.033307736424495846, -0.1798805947312768, 0.07779666345705502, 0.13619397821681797, 0.12451573362378607, 0.3904582377170042, 0.33978514195289067, 0.2173717209385614, -0.07917398363876067, 0.29917437336727776, -0.17526016792709245, -0.03655589012226759, 0.18305700974436778, -0.032844417058594415, 0.0031285907627901515, 0.13835171319000397, 0.05083859929464441, 0.06261395158303719, -0.11677711135116535, -0.141344989285253, -0.10323969326826207, 0.2985539411253116, 0.02527947912354366, 0.1772121897130857, 0.31975765901513564, 0.04854187459119107, -0.022801014952987045, 0.13202592460428386, -0.20530588677193115, -0.10493347613701502, 0.3065015974750697, 0.028197349097394537, 0.12940474349590828, 0.5116624199221929, 0.2675820026442636, 0.3748275670572829, 0.18794625329546658, 0.38592559624395084, 0.40724397751620617, 0.4429719800574882, -0.05579444370247196, 0.07178081079297961, 0.06986829454187791, 0.2323179630708736, -0.16119898438739114, -0.05893388621474745, -0.22118430654844193, 0.13064920425656812, -0.0794307127681847, -0.11506597470931097, 0.10558695251780631, -0.2834402658006527, -0.2688000937872077, 0.0959283114560087, -0.130237840602164, 0.016771164139982024, -0.16885111372332784, 0.2769567956458828, 0.031989404889281654, -0.027777575794313652, 0.010921182200512181, 0.3649812302882192, 0.4524348902692076, 0.05884697463573223, 0.18339010543817047, 0.29136943501989704, 0.12169585398242076, 0.13706433178243047, 0.013441126419804206, 0.21334281195934152, 0.07956909828340673, 0.10049573125219718, 0.07997413156558021, 0.028637982519576787, -0.1388209547927043, -0.1896493028601535, 0.03860641551338905, 0.4039867816157232, 0.22505726911605492, 0.04572814478251801, -0.1152798642397539, 0.18996927361898117, 0.03337090827232111, -0.048222397295402585, 0.2346382841499148, -0.03148991245573714, 0.14333056467939267, 0.2963355588360879, 0.17096068769486694, -0.17355411797689332, 0.36513793233824915, 0.20716314029031438, 0.23053317992412645, -0.028549380076041894, 0.24573702761527, 0.4138035743691305, -0.24556436817056002, 0.09072408928772324, -0.03714410655682822, 0.2573579628273353, -0.08873998468581878, -0.029617500749589316, 0.15775489732875164, 0.015410950014044142, 0.2342334662238293, 0.011539398603761438, -0.34232978744207226, 0.019881983260081088, 0.042233605907111296, -0.06898826908105375, -0.09851458347153957, 0.055004112333549335, 0.28750297924366064, 0.09890203973680556, 0.3046908617865986, 0.0733629179240642, 0.11119546016176263, 0.27646444787992336, 0.2470461240852922, 0.292931111138833, 0.4740703208228339, 0.28066204510893206, 0.46954446163276237, 0.24392193672195045, 0.44707467344899443, -0.16740336754960045, 0.25593952273537973, 0.1690306446763896, -0.30143122056986393, 0.2633454640463758, 0.22810943694663066, 0.26192517063684356, 0.17745536866996858, -0.0315701572074645, -0.13756943679980116, 0.4410723729422002, 0.038833019960419685, -0.04345931244028264, -0.018729057294293396, 0.23107464888471338, 0.3342339274146482, 0.09305936319644369, 0.21879447488648862, -0.07074140725884155, 0.42125184953752565, 0.4181921600632579, 0.2940533864552331, 0.5792926644019618, 0.20649798984860215, 0.6286754179819337, -0.023510872292206816, -0.011973457995849549, -0.004928241208051818, 0.22411564593287206, 0.07374191869303412, -0.030050630681995667, 0.12145902522157523, 0.14767829969857763, -0.3790000539678639, -0.17964982356643858, -0.18766455152570305, -0.06855172413700263, -0.1308899459457153, 0.11144383791928328, 0.046277100578993716, 0.3557832285790946, 0.04185762071749607, 0.21571179918888136, 0.17291062703417193, 0.02556507928451574, -0.08364712502575704, 0.15207446223854842, 0.42623693855377565, 0.06495062578297056, -0.007016037167481812, 0.3905823017903465, 0.2861475515997373, -0.10692669188573843, 0.08475203677144283, 0.32679623205798203, -0.01727100600020903, 0.01787269385090412, 0.0985721550942612, -0.22521283771768766, -0.08795336221275842, 0.2710591962968298, -0.14039440366365988, -0.04576155449167154, -0.1430075274919255, -0.016810378443679053, -0.33942329599627874, 0.05279780361898112, -0.023844406066801847, -0.19179925541710982, 0.19088716984089069, 0.011375929359982778, -0.10773827412023662, -0.054169204225121295, 0.13671816987529914, 0.3182641139224751, 0.0036128979038002914, 0.25691816040075455, 0.5085089335306383, 0.29223223156041295, 0.2632768970661423, 0.331242715598478, 0.1681660852832269, 0.12571830397421427, -0.014386717861280611, 0.04345277530925743, -0.006223373852400086, -0.3549820748147456, -0.44926451807286105, -0.07569614710738082, 0.06911119064741175, 0.16473746755441265, -0.011818047879254676, 0.10020591774733807, 0.3170536253606913, 0.13214027868148218, -0.3023480173279322, 0.2933573296293435, 0.10918172460543982, 0.011029273647576743, -0.02213230026885838, 0.5081088556897808, -0.20595118631452766, 0.1793552219756239, 0.01820189152569897, 0.21644950226989312, 0.20438178776451188, 0.24362062421681496, 0.04620976500314615, -0.17577171443180706, -0.11394092439214329, -0.16690192816353472, 0.016953553437261775, 0.10397423824168792, 0.1424246292558118, 0.11845290554588324, 0.34397485522547655, 0.3841873675124273, -0.09328626261626932, 0.312607501995537, 0.001860075202266707, -0.01974616023881799, -0.12131524831754872, -0.11679089239430945, -0.1707140034462988, 0.05115742962617901, 0.08953089320373969, 0.3013252101957671, -0.0018878937074404787, -0.06879074442919163, 0.3491654462082149, 0.40277168378173395, -0.2582526588643069, 0.33428806760537005, 0.36143539048474305, 0.1370513464842801, 0.2916553853769343, 0.2794979807479256, 0.3789990626571681, 0.1526963736138321, 0.08532556947293032, 0.06784250671105072, -0.059833541195505914, 0.012557015773576785, 0.26829394362467734, -0.018401890506791904, 0.1644397282837493, -0.0639498452174181, -0.2346600791904047, -0.058228262399993465, 0.11721788407594279, -0.131823992214251, -0.16736604384095607, 0.3083379840569329, -0.08626598110254047, -0.10711358009108654, 0.217014984922848, 0.35633184159953735, -0.1055051344136043, 0.09931087815998847, 0.3529770829692326, 0.5503891698512016, 0.4545868598572211, 0.1105227285693814, 0.16186270954397608, -0.06651739737189916, 0.08026501298356958, 0.01774685784902258, -0.08452415706296725, 0.012863678331122633, -0.019394383844527224, 0.41451331750234305, -0.25534342833281615, -0.2599029089136351, 0.18387887925359941, 0.13924233381757944, 0.29334768906950526, 0.02294578370466559, -0.07958448758858809, 0.12724512827856274, 0.037800234784710875, -0.01525815030520017, 0.13521882764510607, 0.10438014329441389, 0.15676026059247425, 0.15708804779253566, 0.2010260160677397, 0.23545058167826058, 0.18828785787921623, 0.3482930093080669, 0.09615058908984844, 0.2163427837850983, 0.3314859184457273, 0.5187755221711676, 0.2642543314854485, 0.13227590661641406, 0.30886543558027885, -0.00884783465698031, 0.28664853740796936, -0.03547047417504196, -0.12076293449956221, 0.15075281171303645, -0.12785922144031253, 0.1590966267608487, 0.15985378294461297, 0.25648234866451797, -0.030142647611163226, -0.254525025854117, -0.06866100278203964, 0.14981290578895112, 0.03114395899413311, -0.0587053669029279, 0.033608901191467075, 0.14091673923975703, 0.40761845322471685, 0.2107174570921674, -0.015380092646731467, 0.3854125162804869, 0.3867736989843284, 0.2096753564728544, -0.04245539570634051, 0.09379475838523055, 0.10529345749393132, 0.33139850848078906, 0.12639259288142676, -0.1612468798984368, 0.13123334724504784, -0.2763805349935227, -0.017022613857954564, -0.08730457070391184, -0.030926401487801965, 0.03567040135660952, -0.05012705623852278, 0.170926378511003, 0.41866991795918634, -0.20535717603138773, 0.06929063053212527, -0.16416959042740384, 0.05436673410054456, 0.32041713732506755, 0.38615152067936165, -0.18259954705779544, 0.1366110399897773, 0.11858643286087811, 0.04336001024363613, -0.08910207698307707, 0.2292147746604561, -0.15406303506057273, 0.48319422281872537, 0.14086699948816314, 0.4435398388838352, 0.11122189191038494, 0.15470579309368165, -0.08735112885348911, 0.029064693910060727, -0.120988872480094, 0.1424040243370744, -0.09153932511461593, -0.19278112422012453, -0.2866904212837834, 0.21885997685898173, 0.11622006594249751, 0.04271277081426681, 0.08339421427000597, -0.127090110182268, -0.31334435848481734, 0.016820804729925982, 0.4655391904695799, 0.046060732696995836, 0.07226005709687437, 0.13208974068963855, 0.15594971466577728, 0.36410644305711987, 0.5819264716818658, 0.5981638247427578, 0.3348967081756188, 0.36695427038725975, -0.03675990995063382, -0.019088060007313685, -0.00851454211778421, 0.08766355715662272, 0.06447410085900328, -0.17968528898812264, -0.21164979525733577, -0.21183942211571505, -0.35675387945720405, -0.03170559785332211, -0.27084294245729373, 0.07528526171371637, -0.1509531359505862, -0.16818185542660372, -0.11986363738337848, 0.18548526846351046, -0.2561966255729745, -0.09091557214809391, 0.020145586753850257, 0.022998507272475106, -0.04401640325460908, 0.5628815062330063, -0.09597980079988977, 0.11429739835932368, -0.08618282196382247, 0.12074443212862343, 0.2115380361963744, 0.24463519345936982, 0.2735352106229358, -0.013808905789360698, -0.0072313942709421215, 0.06253533665003322, -0.07264965237454496, -0.03303262006280179, 0.07995841736414913, -0.12029217296148421, 0.06729840964503976, 0.0910981810141197, 0.23427555936161604, 0.12957048809252875, -0.14839179095600855, 0.15624823727297382, 0.121767041028906, -0.011069921728251407, 0.041186855459372035, 0.019596993645215086, 0.10003628520004071, -0.24650806287622593, 0.12424726420113218, 0.12539265404631608, 0.1898648891743577, -0.027844456026222025, 0.20843166636165275, 0.33671258418200817, 0.16606220030269886, -0.1304226288403479, 0.23562505282197038, -0.022871841398110843, -0.17493726201524892, 0.10608557313102315, -0.28415892682498667, -0.1609532742270746, -0.19731927781886663, 0.17006140704963074, -0.06478821883917782, 0.17517658684541823, -0.06319414531997491, 0.19695802513594962, -0.01563221293562874, -0.08206595651360854, 0.0469351235145414, -0.1357419549384689, 0.2190729243628252, 0.044507301164486895, 0.1803949482802158, -0.04793428558149773, 0.25041136527449964, -0.13962966554021805, 0.23840837918669933, 0.05193459209597393, 0.21794127688698725, 0.4200357461490256, 0.06179816804588512, -0.05975897095330798, 0.3991451660788067, 0.2187713703464176, -0.07776295265775102, 0.3179366618422314, 0.11397450418840828, -0.06617852734796412, -0.22914056343093148, 0.10435777264293282, 0.18344358257944066, -0.11041376914761473, -0.03760569255553344, -0.1612842646087117, 0.2329234990523068, 0.09655747218775716, -0.02657100880905404, -0.09299707121359566, -0.08409959848794192, 0.15712857164102628, -0.0024685240173556635, 0.09538800961399438, 0.03905904824799247, 0.3308387682066347, 0.020900992517041354, 0.310356601090352, 0.27273734250131537, 0.2709762647973004, 0.09207334901452079, -0.06802214533961821, 0.25356545287553867, 0.22725191682096488, -0.0451713860416883, 0.07390494357573249, -0.17465733112090406, 0.24252397722833224, 0.04933182348798894, 0.13332462713962587, 0.012170071830937112, -0.10648801271586032, 0.03887688604272312, 0.07425411859656361, -0.21867504379928723, -0.16866549678236586, 0.06964003130799148, 0.0688559180653852, -0.2508376637407776, -0.13271151066730744, 0.03991369540280041, 0.13197427195670716, 0.2936770840808815, -0.18310674969724933, 0.11773725692082165, 0.08757078391553623, 0.17377912561445258, 0.12314239340085384, 0.14691862022218044, -0.19756737274622216, 0.16044643224660698, 0.29386528844786847, -0.43555080228651755, -0.17358569579495944, 0.22127068051067397, 0.25001308711778786, -0.3054655267946802, 0.1744105438800486, 0.07773360977620637, 0.17414765365810148, 0.4932759121899944, 0.07243020044318306, -0.05403207098579254, 0.22631881212385563, 0.04271160969126484, -0.2380183563166653, 0.012673761463696084, -0.10766311347479578, -0.04433407530501203, 0.21137030950587138, -0.020838197617533017, 0.19469080998032953, 0.06822115704282157, 0.18281479618616964, 0.014380836807171699, 0.2959556356223012, 0.07372510489095883, 0.05097945458046286, 0.22113590946064335, -0.05221110871828002, 0.13427562437650734, 0.3832359063058588, -0.0840003490201567, -0.1587616533851991, 0.17447512719233046, 0.19368378776284667, -0.0827890176426161, 0.1204022445393729, 0.02638574949409833, 0.17576534760487736, -0.3139246192797945, -0.03038375942894141, 0.14463637705132906, 0.2982319235795421, 0.09227414071669296, -0.10972633987362727, 0.159963439874881, 0.08810613389064513, -0.17822646672791537, 0.19324659228519966, -0.04398618427545801, -0.0618728219706025, -0.013061161449170864, -0.05990884303661143, 0.08232298107596132, 0.009906883644720402, -0.07234481104711583, -0.08192584852396065, 0.19834909217101976, 0.0740201934336192, -0.24979713469299264, 0.12911678717247638, -0.13438823646601827, -0.04855000840921068, -0.007477867741991775, -0.1147218029992086, -0.07578419742169286], [0.19685988386375783, 0.24039598363495157, 0.1726276465667656, -0.3751097121410572, 0.364522772798476, 0.22223211959460906, 0.054408637522675864, 0.10633801398493457, -0.24254572620194217, -0.0038797955920095786, 0.12656937311149805, 0.2996944189071009, 0.10500405265659934, 0.08044382626446393, -0.12108283297430375, 0.009363450259370487, 0.05128393551179871, -0.13538599531956655, 0.22505188854418118, -0.04799846215166186, -0.011265400275965762, -0.18425085382979858, 0.04871017268343692, 0.10818121142406542, -0.10465303882724017, 0.10594766930638848, -0.23253530843806602, 0.18095664305652504, -0.06745801081342907, 0.35738538202646164, 0.100511893885791, -0.04340460848900394, -0.12360287539455063, -0.11091508957217135, -0.04410468296870487, -0.15933539323196863, 0.0977187460881241, 0.14948083310658408, 0.11977775817219903, -0.07383507055470508, -0.1977809208105275, 0.1467039792684355, -0.12396027682872474, 0.2336249374297862, -0.00318290666980057, -0.12735364587088635, -0.1448184638472666, -0.291726386333108, 0.09071356915011179, 0.1450539400225795, 0.17606396228544013, -0.15168552388604928, -0.546668731159602, -0.2808233102942556, 0.045686642233007356, 0.1509157398419896, -0.1332906825405257, -0.07465573340315067, 0.16940882631062157, 0.12421524184931095, 0.11228976092225335, -0.030013220466738155, -0.09032587769680052, 0.0728752784716123, 0.10024631076393777, 0.15579292146761398, -0.27838965505830093, -0.18441633123578194, -0.18296932134463983, 0.16322182585970874, -0.020285118139232578, 0.053568803316095995, 0.05515721492762993, 0.05745229471030581, 0.17460779739807777, 0.062036677321039194, -0.18732050753751348, 0.05986729094576956, 0.3539021525848853, 0.1327959084467986, -0.11401884991215268, -0.34452323788314626, 0.4002997984296912, 0.00674380139266584, 0.131359359242547, -0.3963422325881529, 0.09661922759321198, -0.08874464221641112, 0.015959735256940208, 0.05057895720732216, 0.1493462029824737, 0.092114876888508, -0.012075162503318233, -0.19012412110897198, -0.0973449232342619, -0.13306903257048702, -0.3312351655560261, -0.05829749347434907, -0.22389051858603531, 0.1631172509586619, 0.42183346236293967, 0.14076545946613336, 0.12327470289659087, 0.010889314449156825, 0.09657470661719683, -0.22818673438904422, -0.007015711687485747, -0.1470701797740072, -0.040608902408687454, -0.09028187405491911, -0.015871964263296255, -0.050151300420680826, 0.049423637527611204, 0.002847174341178155, 0.03212422782444927, 0.05263268303328282, 0.02935019967917339, 0.04448219112926616, 0.005101373650033663, -0.11711780455287993, 0.1385450333177809, -0.2572512130890227, 0.19630615098699758, 0.21933424102591512, -0.19544279463610975, -0.2731684909198499, 0.24134723184780307, -0.03287176463769177, -0.2745083614460629, 0.037806651918830106, -0.010136306827090442, 0.05296289522117942, -0.18127145341566456, -0.18251144512494774, -0.2107866466812196, -0.029024980953168543, -0.010019781975116299, 0.09509047067558934, -0.1358924149519994, 0.060204018607842635, 0.1409995793417123, -0.04173269608798518, 0.0834114557721963, -0.052577779973236156, 0.07492772406218821, 0.0057831044857049345, 0.08851548598247677, 0.32770189400829647, -0.021398488245011192, 0.058213429670652454, -0.10361536805221197, -0.024283563842389427, 0.27949548390617696, 0.07220315925264648, 0.09706288763300765, 0.15342675250759333, 0.0753054593850039, 0.06948937143030723, 0.4094040870791484, -0.1347149547085628, 0.01328555536219871, -0.17052374159649783, -0.056727092596764755, 0.14414989900716002, 0.3311503582261342, 0.10293128931831931, 0.07550303722703243, -0.17732347063344353, 0.5026413874107132, -0.07211949026130728, -0.2749580898438776, 0.12760737834912497, -0.08074069936258073, -0.10316961521890594, -0.2413646878911542, 0.16742906477581038, -0.06016671665171204, 0.12445367335192685, 0.17791689782105888, 0.06508499207691497, 0.24509969300368806, 0.34841040204155566, 0.15210053923455732, 0.22288829803825203, 0.3324765978935994, -0.0358261652663121, 0.2576302184826872, 0.256760532332796, -0.01188300555199704, -0.05031332957369368, -0.0279869255889192, -0.10465973670277016, 0.1398350031898493, -0.20125365088901948, 0.12304140011960765, -0.1154942697035667, 0.20396783389545683, 0.04689019571614521, -0.12109962803170066, -0.02859981673154206, -0.2029304873841258, 0.010705646961130612, 0.1191445573186681, -0.11570728952283885, 0.09331587162653703, 0.04958065433815991, 0.06679385568100764, 0.14325415939850375, 0.018114494448315775, 0.534201944789493, 0.30207081679822917, 0.030568499103589008, 0.12838224862528533, 0.1748675941468187, 0.09244699837797339, 0.1162007805141216, -0.1654675254271428, 0.12386312084067704, 0.368923963300127, -0.01703463723604173, -0.19638277850443495, 0.16163466263173557, 0.06630493695157352, -0.12759127946224458, -0.09181354414114663, 0.24035154367424574, -0.13367264781871419, 0.10349425928869846, -0.07409557625298818, 0.08178091888057001, -0.03632984074968859, 0.14500644907292368, 0.22025091508073716, 0.17140725607311122, 0.07057538480969619, -0.025178935868258607, 0.5311428670706207, 0.41349297529852513, 0.12462022099383396, 0.22369208691497727, 0.37707556505049494, 0.19402077089224995, 0.42960295791342645, 0.21979207873353557, 0.20079349776187863, -0.14061156324461033, 0.07408087437310906, 0.18135875395396378, 0.17375822333505367, 0.15270453541510187, -0.19522410945900767, 0.16734934153940534, -0.11312872025940085, -0.24083519758693755, 0.1521692561348358, -0.16599528163786043, 0.20240174054664342, -0.13893015720132088, -0.026905021200341248, 0.2281379721376699, -0.20835686504872655, 0.2354115231126746, 0.06619008110659363, 0.010922801958262437, 0.2844334611171942, 0.14461453930200566, 0.023809109320875193, 0.3486528530655689, -0.0036757501137972765, 0.19816904276976505, 0.4193196082490045, 0.11082101564477403, 0.09394005588035988, 0.04314652270644006, 0.08533416161867895, -0.05201667199483691, -0.2522419154951558, 0.07579085111907483, -0.4069543330540633, -0.2604008744482293, -0.17250048585340264, -0.18255653937246966, -0.12086051461566973, 0.23810999220013895, 0.010646362224702078, 0.10477002988424104, -0.08034084060288788, -0.23619504197284014, 0.1855578704392112, 0.39529678856941447, 0.38998050743449286, -0.11873956310789287, -0.037979304092402466, 0.2853663668162192, 0.5015400505564398, 0.44794772734861843, 0.4861714238455024, 0.41196754207287994, 0.04957297935879515, -0.05137834953796299, 0.36919594484210944, -0.10512711129200636, 0.02501501344462804, 0.22521084641973074, 0.16923580146990913, -0.12368378528003422, 0.026254396415550305, -0.1792112506908556, -0.08267034330566349, -0.2680883447510125, -0.1261165438991123, -0.03607464729657042, 0.1588653404935284, 0.12183256444706127, 0.4660525940567005, 0.41276762323148913, 0.047721425800380524, -0.2783167054953197, 0.4703745123741584, 0.34083179521943774, 0.15428060859747011, 0.18003741734171505, 0.139451409606147, 0.5428456325273554, 0.1833901573485387, 0.36337947904202594, 0.3370687108264565, 0.1929711166133146, 0.20802559213154065, 0.2816053996995862, -0.04076104919030821, 0.03193073141191501, 0.10505641995327568, -0.37151412761078817, -0.07045389523311346, -0.2911044441173492, 0.049217141327277766, 0.13593583283388583, -0.12609293081884376, 0.21564695712376186, 0.1136795150496718, -0.13574475217323187, -0.15986603082423362, 0.07994691529748173, 0.2038552110333298, 0.23327087781788747, 0.07315528437458974, -0.12485850987596704, 0.12214569516452446, 0.11912239114680707, 0.17118787511690178, 0.3670849614425349, 0.19280339462001572, 0.09489026941340832, 0.2550551494969482, -0.192881762657464, 0.18525110220735855, 0.15681435825324833, -0.006001488580832243, -0.09681969498565958, 0.16768486698271293, 0.037636224806853025, 0.18250077228611555, -0.07069837947019447, -0.027542358971544195, -0.33665179847507465, 0.1525318214873723, -0.058398780539791716, 0.09686698150987481, 0.1140452687342833, 0.2029316794016068, 0.10562295361846344, 0.3041900989712328, -0.07651200381787286, 0.44243646419529903, 0.12434554291381673, 0.06994128606752138, 0.03825817633612952, 0.3943892691653244, 0.4414208671558517, -0.012624831610524882, -0.06463229175662519, 0.05223341864785214, 0.12074430340569128, 0.08264264313539937, -0.10583756488252365, 0.18826956196154046, 0.2747874070660842, -0.1550060142674955, -0.21486564483907453, -0.2524582386003719, 0.10826048990704835, 0.3529416300655941, -0.14456584166530922, -0.20030666608045739, 0.4015976125348318, 0.21133196924653677, 0.17713147345805116, 0.24684081970280577, -0.1581442313022176, 0.016034100571764773, -0.027331350390947844, 0.12508833063279393, 0.07320085307242558, 0.052492428250266725, 0.24470660336474095, 0.4591861394988427, 0.2592311123105111, 0.08174826912364556, 0.32359884877218714, 0.3458239623521353, 0.35327928566642286, 0.16066850569561025, 0.10090976611264488, -0.15406580962010785, -0.08722867639985112, 0.006273718310348697, 0.12418208298474012, -0.018292682492165604, 0.23565193091775113, 0.0749489567868241, -0.15851254612823015, 0.11567862602694239, -0.32730525983319464, 0.15339290585998072, -0.08368445595064754, 0.010124385765926038, 0.12775348933444639, 0.031216955147780116, 0.13542190467186926, 0.08430128782963979, 0.3882358110379144, 0.3453979338087661, 0.35824065252740883, 0.0532585830326441, 0.4406736160831525, 0.25473568649442446, 0.4438610661240227, 0.4873549607573981, -0.19593622931860313, 0.1343760683217603, -0.021694201460791197, 0.15357016054968975, 0.0016080088236039367, -0.01840817401891228, -0.023517475544560254, 0.04971615999464463, -0.1650463855126467, 0.19560932226604247, 0.29178226772104693, -0.09465448039395406, 0.09394560774106336, 0.0753509994516456, 0.24600496462320384, 0.0007936065564594581, 0.10911932178546228, 0.13609493456180263, 0.09933019659370773, 0.499553880374964, 0.030491940348615687, -0.06853371457463497, 0.40884328748344106, 0.36256846966374146, 0.19032412185252817, 0.04626312775480787, 0.03300786794706625, -0.07800648415912466, 0.21509877813978584, 0.18621280924985872, 0.14950876320443596, -0.1387253447932963, -0.20248543187486187, -0.026246714797134866, 0.04102640842195546, 0.07574426202076105, -0.12663475556975043, -0.2552870676378235, -0.09450405243062486, -0.07478912550722931, -0.33283878772301806, -0.04721730245785729, 0.2785357812409778, 0.08379531974391712, -0.1561208749337765, 0.3498192891375834, 0.22884390961194304, -0.13165327582158334, -0.03898941975715413, 0.15980325843262772, 0.38610729946642725, 0.586546772062765, 0.27314751375951624, 0.3159398542660288, 0.07841630188688344, 0.20776440194553694, 0.1004384105250639, 0.12131327366469359, 0.015405781206605185, -0.08050976290529416, -0.1396499645477945, 0.00966854296811573, -0.14826416310460686, -0.24068649113398313, 0.20798124476908375, -0.1442859774927597, 0.17807478347152933, 0.41800252496450846, -0.042731245654864386, -0.32111989718996936, 0.1625645251035206, -0.3536650116527467, 0.14950101926544765, 0.13155767941661792, -0.04099196723252067, 0.4015895047220763, 0.028723662389323563, 0.04713386643714041, 0.16671552707823395, 0.24107596539337808, 0.37757896799322316, 0.10672660009667015, 0.0749279411915195, 0.27991668633222766, 0.19358707630818212, 0.1702985351686122, -0.33093314801118073, 0.2618895457542423, 0.05811475029449774, -0.06128913940064769, 0.10110249098985385, -0.21410017515822494, -0.0878878255427849, -0.1324366989263319, 0.12166483348100608, 0.24481310043456683, 0.001894345875195158, 0.055083197436757124, 0.13393188498244807, 0.0480282661896265, 0.043347555063418426, 0.13525754540020177, 0.26430570957892063, 0.11516216654990345, 0.12164032586456194, 0.14589226857208254, 0.632485564713262, 0.3201596387947709, 0.10777898264751377, -0.24800147324731517, 0.18950729182549067, 0.13066793520441572, 0.06030064838227416, 0.11961587937913896, 0.35613704040374555, 0.036905641341656276, 0.37910514544839125, 0.02546041682361251, 0.14937133900180394, 0.2804153340960331, -0.26439875735059265, -0.12552858077574255, -0.28977120044213595, 0.1571593527446153, -0.16951732332846858, 0.24560512329735196, 0.10582922447546178, 0.21711196695835175, 0.22798979596556362, 0.14731164187947118, -0.019139952002610292, 0.4682920897358991, 0.4002761288555754, 0.606396962697227, 0.06113583421408154, 0.1859641425804451, 0.6263079440009636, 0.13716016789159002, 0.35542470203530746, 0.3023428649948867, 0.0008189439117364342, 0.17372779539160083, 0.06891613111105155, 0.06797755640672622, -0.23996373299879392, 0.04921888416337162, 0.1728988857153491, 0.21352190644333532, 0.3489171629984616, 0.06532889680664042, -0.1412525329767898, 0.2851276930172239, -0.03393929099626837, -0.05579691854886899, 0.026281465563841203, 0.506960366211953, 0.09512764413648897, 0.2169118085233683, 0.486459929283842, -0.06920215826022096, 0.054038933308688746, 0.2937733442420761, 0.3376500722619027, 0.33016089548522204, -0.13638184793293973, 0.2784231512589057, 0.4228571973520893, 0.018795081734134623, 0.25273076380370874, -0.02939613033175461, 0.05285858445335305, 0.1503141951046074, -0.09300728162486067, -0.056706415016629555, 0.050069404067057593, 0.22851004102278644, 0.19314411133420833, 0.12745856524812613, -0.1709953495401129, 0.08257155352569573, -0.05198554399498905, 0.08037904987780757, 0.08347689505317218, 0.1976441219762702, -0.06653381602200763, -0.07883526548880707, 0.036825380721346154, 0.1494988747371629, 0.3496985366911495, 0.08259189327593469, -0.12064541049478904, 0.4847415446798954, 0.2695807298188518, -0.018621369757850788, 0.1795522893011003, 0.06407869067026718, 0.22996615558227415, -0.18648516341822985, 0.06247792671186638, -0.03574196498728703, -0.05514935114626867, 0.31246292759741284, -0.1136999625024048, 0.06447859726607444, 0.37046754405863036, -0.10361856832131465, 0.048432848392275, 0.612847506787952, -0.009390635316433636, -0.034662302352230265, -0.021494624352916374, -0.017173331462814048, 0.27464445627539386, 0.10738067861844454, 0.16390130418587154, 0.09270358804369445, 0.18415290884165547, 0.32031223019947824, 0.08567205401473163, 0.07002821174396634, 0.3172700472679079, 0.39738129174856324, 0.06013171594679599, 0.14789638258449614, -0.03513961145492559, -0.03804155525251837, 0.17937034083218564, -0.09597255905508016, -0.13764467499719513, 0.09304536842209803, 0.17821171770220604, 0.08401558356635737, -0.2829784810169773, -0.0733764136204882, -0.3151838275943477, 0.4164301733505811, 0.12517051880491126, 0.08659372357828787, 0.3147631549545443, -0.07672563283630456, -0.2346434225988545, 0.03085315482221295, 0.08537357246134801, 0.02146965215685301, -0.10096398180345782, -0.17089416482878653, 0.15458460323815404, -0.014748992739795606, -0.053997459054455785, 0.19407599544799034, 0.09494299763031655, -0.15502173833890892, -0.07550846719064142, 0.007684419946654023, 0.04535516018459453, 0.13224001435379748, 0.027308161621565224, -0.008053489219064968, -0.2963770225460431, -0.029264451205807087, 0.08085802387842042, 0.13755571766650598, 0.2159224897322561, 0.2499084767625962, 0.32105642049073735, -0.16222887932070262, 0.03677118158545674, 0.11909872049979503, -0.044027396711893464, 0.3821534490656228, 0.09532123323107546, -0.07444663885345747, -0.013920536896967543, 0.11392024717134663, -0.15484280391885769, -0.17358828144407665, 0.281073190864043, 0.29571760620848275, 0.19874094979548404, 0.015347496292633215, 0.3206182361234285, -0.26026777349173585, -0.14671921072534003, -0.04963201088162296, -0.1310983832868717, -0.0009149147915725837, -0.16193750696718226, 0.017642053615071755, -0.055051845799119536, -0.2321844429839806, -0.26472862768303584, -0.1946213245894077, 0.1891271490320477, 0.24094872632168893, 0.08673629813035165, -0.14305311847860228, -0.08650196912748184, -0.04086777182094162, 0.09023532658166833, 0.18179637303473908, 0.07429041906616166, 0.07473534347334224, -0.0486174351512599, 0.38030434975254807, -0.3111798277055327, -0.07197927195903006, -0.10668635408171737, -0.08064896029529427, -0.021075451560190514, 0.030392614158376074, 0.17789948771125383, 0.1826679310625223, -0.11401917424469889, -0.08780676941343364, -0.030722022049380283, 0.14844663694235535, -0.019465090405831536, 0.30285089882879573, 0.2537843096380988, 0.542590843843874, -0.07687587304365337, -0.17868123966820215, -0.05190264381458293, 0.00037760384895736026, 0.052543926030945334, -0.28286987656973184, -0.08984627945450004, -0.15592866674526717, 0.11477639424580728, -0.0923088711195329, 0.05859419388601533, 0.32376162835056016, -0.21859010774526372, -0.21458968024485345, -0.11784388804264738, -0.25134375904181266, -0.09497590621604275, -0.049152666482307976, -0.20024162661638797, -0.3753431297654396, 0.0041413532998356714, -0.07762025554031012, 0.2946948826897805, 0.08443523147066795, 0.11900208522693016], [-0.10807679321179324, 0.3134134894633021, -0.24074258160344966, -0.047991620227507685, -0.11844706952582847, -0.1890098883433473, -0.18086758592547494, -0.10591395231681748, 0.00842171568841137, -0.2115040182933172, 0.09373844887270551, 0.030458832410662478, -0.40412612177214347, -0.2850378893426246, 0.1536679657972508, 0.03608562242308244, 0.1197994106840041, 0.023352564110978934, 0.08259606025366145, 0.05965541751678603, 0.1996756758641588, -0.054253080078887635, -0.12481273861526344, -0.05581564566644695, -0.19654167368743344, -0.21789274713887735, 0.04633155945836342, -0.15681361213190373, -0.058227849894415026, -0.019964127465594728, 0.19955375994591912, -0.15410291074963303, -0.01364572958459925, -0.05394671488005941, 0.1679655285070074, 0.24893157696069687, 0.11597414632601544, -0.06389131822888146, 0.2040426238208624, 0.23636305278560066, 0.1307690212177971, -0.019026755501123243, 0.18324637016878723, -0.10363287036958563, 0.2149869330300506, 0.1291709599549836, -0.3824230992483711, 0.17862629523604678, -0.20554675739172515, -0.12785987046545022, -0.2052506857348176, 0.3827894557679932, -0.03590137655773457, -0.19815338526055412, -0.034838191379987206, -0.12874284832729135, -0.14840198806132274, 0.04835112651452506, 0.22438512251048306, -0.03678148479789551, -0.02444479103083436, 0.2291724477722718, 0.24524246846186035, 0.399176240169427, 0.11571063295396461, 0.331112040191583, 0.3750880901163989, -0.16569926294549542, 0.08248442263348439, -0.21255677505643808, 0.11786063375545666, 0.016725012205158492, 0.12730250292116654, 0.050889286004491247, 0.1730509011685696, -0.12379448986293307, 0.3691041954661945, 0.22156600885953542, 0.06877666937336016, 0.10811547329373022, 0.25178314720816797, -0.12518057149817058, 0.23296441826394274, 0.14424261106526817, 0.07931521549874564, 0.14050753639916191, 0.17093184533253053, 0.060829546731129586, 0.11781545787080258, -0.11370263244013298, -0.05580057169698139, 0.035128323352110274, -0.06953672303774817, 0.30016928971274925, -0.09638123728732423, 0.18209272709912855, -0.14983666573548945, 0.003460954271049392, 0.057257909972612896, -0.0417200066532946, 0.07724535865910884, 0.20743370914443265, 0.033559350243848256, -0.07938025792650814, 0.13064223744501724, -0.12514130586898067, 0.21927003128113792, 0.3541111221647181, -0.05207512327721678, 0.2728051830230602, 0.24484360950464548, 0.3173196437503874, 0.0026164913968433076, -0.23822892660031267, -0.07684846272078504, 0.18955390940158476, 0.2687708623329141, -0.21616857484820748, 0.15530546287057226, 0.12305661969568618, -0.31856092107206346, 0.0714471346982962, 0.06708265833963026, 0.0007409575421562582, 0.2579712711699323, 0.04411288287968846, 0.025579665533855767, 0.3612473222202028, 0.1013957868382212, -0.41223026260854717, 0.14354507352764564, 0.07031693068442918, 0.1412739683420187, -0.17160606802113945, 0.16933781118364438, 0.03700314159564792, -0.15207218742772, 0.04934509013334997, -0.08669657544595467, -0.08243378788645685, 0.12211717834940079, -0.060652072698388036, -0.1552876768260576, 0.17010018772362595, 0.011574717226266571, 0.22127840398980841, 0.11777037384672302, 0.053806476848799877, -0.17640069472135325, 0.008507886616730347, 0.3099694040151405, 0.15214090558753499, 0.4454035764407808, 0.3067004391762739, 0.00394096352478869, 0.08497196563266111, 0.1478830032623553, 0.3994859562720628, 0.1589247302511795, 0.10424425527635302, 0.17842753936393738, -0.3614978747155356, 0.00793441377719098, 0.12778409873953472, 0.07998009819645134, 0.10262992978840423, 0.18022174291139498, -0.2057942964354314, -0.16324962781650132, 0.09844686743928156, 0.08713331391254575, 0.0998718325940275, -0.03342316741525406, -0.2020715712075201, -0.10162316008300766, 0.05178078699216642, 0.09102515649716883, -0.21506901600921696, -0.02334880051528673, -0.07414004501637107, -0.034400589127571456, 0.1812625906332165, 0.3080343121610995, 0.28992461079645226, 0.19004743051391865, 0.3037201798637412, 0.34214656048332037, 0.2219309156929955, 0.30345050264131557, -0.07580951636676994, 0.2562802832427376, -0.15011017321103517, -0.08086555877555567, 0.18790053025621314, 0.1705415023712593, -0.23520390194130342, -0.23483265396310427, -0.25307578884554455, 0.003090024947896822, 0.21333987900822468, -0.06888163640843437, -0.13613379690413024, 0.08859605171938485, 0.04093516014945184, 0.14712212559769744, 0.14296232933888067, 0.10675893251642408, -0.054424726349048866, 0.05474125043852928, 0.46474329528750113, 0.11003406611530442, 0.15466731627305927, 0.3792820796000738, -0.04275095591457298, 0.07478054537407407, 0.016759183540827283, -0.20384148553805878, -0.14329929744726866, 0.29815210488352595, -0.022983353991330134, -0.27777926095569017, 0.02616064864475533, 0.06410094063177345, 0.19954546868015252, -0.2688388436641993, 0.05116302212115585, 0.0016836860681957286, 0.2059841874245781, 0.1933284080597484, 0.3416787611638475, 0.073004752578305, 0.1897765127850128, 0.1653344140982279, 0.024253204446876928, 0.15836530799594065, 0.33959038783542367, 0.0920795963443406, 0.334678593595573, 0.14221606417750846, 0.02783422638154172, 0.6125988237855008, 0.3850006224149953, 0.42364866805417195, 0.21566766777013507, 0.24512484144155827, 0.08434204878911185, -0.20648816443261697, 0.269445139797481, 0.14807309982991296, -0.0923615833775438, -0.10747730487406594, 0.18523726405304963, 0.14019957866166757, 0.20291157403053878, -0.032914772049243646, -0.18162323389782076, -0.10866580783420092, 0.06850911017518362, 0.009347181901523652, -0.4182730600526396, -0.05008185591191019, 0.1627737399777071, 0.399516414112734, 0.05158239427483235, 0.10075796026310654, -0.05259268352794862, 0.6407752749924615, 0.3891354698945449, 0.2694905544464339, 0.17095441940823894, 0.1520002804464517, -0.0261386278520989, -0.025647041285266747, -0.034146634056450166, 0.04099553890410282, -0.015130191853388571, -0.10739951917782865, 0.1897114484238341, -0.17973551781254443, 0.04802973772231692, 0.1348723490184298, -0.1730161541896526, 0.37028199114468147, 0.20579503868819518, -0.21401718103818146, 0.13991643439161564, -0.36957204460505283, 0.19974331496009767, 0.1699025794227352, -0.273995959425689, 0.08341258545449555, -0.01077670321902422, 0.1727880660396849, 0.2686413283220385, 0.36285018212770226, 0.22157323447505126, 0.3976748343535732, 0.08863409257974768, 0.23638096084389423, 0.19245403834786318, 0.007984733959643532, 0.3551112231279239, 0.10230719558359523, 0.08780902149618428, -0.1438519438445556, -0.07548960752248804, 0.0830812807887123, -0.2525832315079302, 0.38232331100943745, 0.12464957877049745, -0.029929642111958265, 0.20794764621508305, -0.1946243344171039, 0.17688722042704502, 0.1353336175537916, -0.03188342761195358, 0.28260165967449574, 0.10946571899855435, 0.09330723290088061, 0.4298320889075414, 0.4200459808274607, 0.03769554757391948, 0.04879669195162422, 0.2391220592456227, 0.09514445379301195, 0.4371906737212514, 0.2972311203745452, 0.38253504884986156, 0.08929660182163653, 0.24014715540634057, 0.11839083407449989, 0.22059567957434192, -0.2362838549114336, 0.11264200775414153, 0.29363033597170324, -0.18006061481955002, 0.12447257509342989, 0.22697589423665343, -0.16152537720709303, 0.18454207069548903, -0.1708454082082296, 0.037833007648335616, 0.06394427784758132, -0.17938044265187825, -0.22273256099363262, -0.06112121645821184, 0.12008758818353246, 0.1296939172336124, 0.09997922932249831, 0.14714262547045287, 0.4402237331606018, 0.4887178540138741, 0.2837794688548203, 0.14273321308875775, 0.19672152867191736, 0.02410550813613457, -0.019601799586762187, 0.14627883358955204, -0.08148974227603374, 0.11386637378904066, -0.14933476651452413, 0.10220762630374146, -0.10725044645393779, -0.2697124849601475, -0.3753291872107107, 0.08771419401939919, 0.12985922101567293, -0.0809635561629734, -0.23562538833912075, 0.12964165912737627, 0.07585710675199064, -0.15433885486087165, 0.30413365792433045, 0.2689502106275242, 0.368796223866055, 0.16627307125100543, 0.45028575648253466, 0.23544014148508716, -0.061962270520981445, 0.3058110298112477, 0.10642445662898854, 0.4149275425838856, 0.013090484168163045, 0.07817890839223884, 0.021582271912155164, -0.19699861126301815, 0.07786414608537125, -0.13873199407224418, 0.22307031840041552, 0.04345287021497312, 0.2902440965039673, -0.19486907901609013, 0.18853213450803752, -0.31752465449233336, -0.017526584981845714, 0.11041636315156911, 0.13277901946213935, -0.19858058291596695, -0.05441108470442389, 0.08361642476100316, 0.0546410890439905, -0.2367017438633813, 0.11299544906576423, 0.16037283902384403, 0.37175296856072465, 0.11986152995684805, 0.676455922549581, 0.23695356921518926, 0.5069560151468501, 0.24643191431933087, 0.3212346538501998, 0.3471321831499695, 0.2688259472821744, 0.13537772089033126, 0.17683150129555494, -0.006223317416842934, 0.010114615600519867, 0.13970968778344747, 0.19900177104688832, 0.060509523674095345, 0.024098814772540764, -0.14646896666395534, 0.007467565399966161, 0.3183087816633127, -0.1974357224176373, 0.3424047258919919, -0.10776337603684329, 0.16101304415939946, 0.20403199583790782, 0.13598359832416212, -0.1668008693490386, 0.323221096547759, 0.11793165714299186, 0.4875902692558995, 0.3739600786723295, 0.3936214132386673, 0.6550782536475069, 0.043547653845694846, 0.3056631441118703, -0.12140995710918265, 0.30578910657817404, 0.1802906844712823, 0.16523006680845237, -0.036200841318642346, 0.0141167381478225, -0.14977090362321646, -0.1373608714913292, 0.02220366575572282, -0.30565687435213607, 0.10599645648684286, -0.06801243003615084, 0.11567676962260522, 0.18572867274897858, -0.042836433079854956, 0.1483411754589503, 0.18390122106143986, 0.23379222277983464, 0.2664077155620245, 0.1775193323682855, 0.24355895119489057, 0.4981923275269276, 0.2639538028205993, 0.18995191163974573, -0.0293856348266468, 0.20388207512963366, -0.0526554820812093, 0.23299797790021845, 0.07539050115510475, 0.027198050268698946, 0.005126198477425074, -0.004435417182062998, 0.1794143178104197, 0.07550334562314427, 0.12153720584947701, -0.11353744925797556, 0.16046199708001205, 0.17341133754742277, -0.06822573356629323, -0.13433157737941231, 0.3480416316972506, 0.06267752497470802, 0.12230473636442872, 0.11606833586076719, -0.05926312627316106, 0.22437661409618215, -0.06080760229437271, 0.10177761350761948, 0.051215859236792366, 0.014461301010798228, 0.3842375166626343, 0.5246947391359335, 0.6450625228505176, 0.11215431792911368, 0.10260647439266828, 0.2017809027590153, 0.43816918938286054, 0.13085188959601934, 0.44627780029768177, 0.39965187442932776, -0.14024006632824884, 0.428274963291924, -0.15918345196659037, 0.23492575028749413, -0.17095286759827144, -0.0691775161312498, 0.09618359231770827, 0.14540740332742047, -0.007178749582648772, -0.14102758345911043, 0.14304394826854713, 0.28697756451254863, 0.17481444811474572, 0.13959119731672087, -0.06295660780975154, 0.01521693496122585, 0.06781890920654342, 0.32220247573655625, 0.001615235390952912, 0.2663387546697065, 0.351650365074564, 0.5476801849890909, -0.1823218492770451, -0.012933207843684902, -0.05961672142338792, 0.24905560016958056, 0.17309556186845246, 0.06786319698059538, 0.11845010758006216, 0.03338409497384182, -0.034722492691068745, -0.1263115782643061, -0.18164069649323236, 0.4255649530484707, 0.014734074148681981, -0.2735396979615838, -0.07631626944439852, -0.2855326861819716, 0.32113224892116954, 0.14577779099149624, -0.0659220218200993, 0.2888776173478931, 0.20431050966870815, 0.10961906846453826, -0.04847465499565231, 0.13584865163235052, 0.20769503054008506, 0.30709902102057085, 0.09070658384281084, 0.34769310597058994, 0.561934436192361, 0.12714641214248087, 0.3217231992561842, -0.02216236975921737, 0.01864819017207235, 0.3839881230314083, -0.009950345544495323, -0.016875516423806296, -0.015759623125563248, -0.09119315791754698, 0.15185240194934535, 0.16903436476100447, 0.10026543460727651, 0.03490915371808695, -0.01786512004022037, -0.1420214066576841, -0.3088780327986002, -0.15032642966936013, -0.14698238888708437, -0.262184665081171, 0.3262505854385537, 0.3443653126787957, 0.21295737446194976, 0.13322432455551347, 0.3291660135492659, 0.2113932605634227, 0.21265969894729686, 0.3861808537991906, 0.15075779938165138, -0.033233829156978895, 0.018600844209075814, -0.1361669149993416, 0.19486843730357584, 0.08127817247342262, -0.03542055857987408, -0.1293219741867825, 0.2920626268708611, 0.2145006822071731, 0.07016147158940007, -0.1588511850909883, -0.3132865229981591, -0.4545519172910652, 0.003220081529936902, -0.14242447499462954, 0.1378036387233029, 0.2334002541437355, 0.07376521572958626, 0.20505326916754124, 0.35214585897044215, 0.03426814155715379, -0.0577874564648755, 0.218183971782781, 0.38389917791669803, 0.13771358818058052, 0.33754742157035206, -0.03258491197825015, 0.17128035937313843, 0.2792372504204231, 0.08391907877982263, -0.009464645151515854, 0.17690344005617714, 0.32077419019818215, 0.12363107290319278, 0.003225678382967341, 0.09812314864211952, 0.04463838432715964, 0.26163337698796246, 0.2176617641129907, -0.46121689792852816, -0.021959371708869618, -0.2590494785055821, 0.29259916518458806, 0.15433850039868155, 0.16328240035633, 0.0573367947638517, 0.31290138059226824, 0.029555739369420787, 0.21169190338985946, 0.125779985315244, 0.15766411382911424, 0.4578963408968518, 0.11457195331167094, 0.2679956550170006, 0.1270813391083729, 0.03714831582390893, 0.35871848540753465, -0.22142242547391194, -0.0026435344052461217, -0.028504958921416912, 0.2975481145685825, 0.3164236946569718, 0.15347384641226214, -0.1969366585605729, 0.04233683479083429, 0.15947172867243453, 0.12646982886821606, 0.2199411562866013, 0.08675352914469943, 0.16872064118289254, 0.3863531511876563, 0.04624967440663757, -0.40553971084294443, -0.1184677703930004, 0.0027949741777519668, 0.057984197456714466, 0.10592585772315206, 0.4035041232726781, 0.21723595666045006, 0.05188975639779649, 0.23142993386187835, 0.09465115956807212, -0.08573152873016249, 0.04472460494533842, 0.2502570506107429, 0.3950215652457843, 0.1811506862869192, 0.003119583415104391, -0.20167752836276343, 0.0874665939286804, -0.1686399231036805, -0.09563788344755074, 0.02527672868825887, -0.0016312031781525972, 0.1318049673096928, -0.2811204834827865, 0.3675729422009324, 0.2842443275380013, -0.18260130406998853, -0.13373746914201537, -0.22181306896199435, 0.15647701474916165, 0.09854103395315549, 0.09510983005660859, 0.19590313797606002, 0.25121177483204343, -0.30128146684514817, 0.24901936174330655, 0.08135473684750877, 0.2570770671067223, 0.230355859623002, -0.03939576320043293, 0.04785728606547089, 0.042059752448772886, 0.020775068637479077, 0.16921399621191963, 0.029718366852385252, -0.14927053511874305, 0.12800032802983022, -0.08018327083938616, -0.02495269984085745, 0.20464153406687022, -0.2878039512463485, 0.10054950662534594, 0.23335577667095192, 0.00040070638970436727, -0.1063742865578774, -0.0680625126819178, -0.06543404998284674, -0.12475550647452124, -0.153917243582376, 0.06026461144168129, 0.10686963690542611, -0.24812129902617447, 0.10477882398403468, -0.05203590454026951, 0.10101908315673434, -0.09172814336760221, 0.1906373935575886, 0.29910781257879077, 0.127353923724939, 0.18202632752150702, -0.08878587914141053, 0.27138702736587683, -0.08824049333194256, -0.03758989000442663, 0.09004675855161254, -0.09530304500697973, 0.005893309466542562, -0.17794891861938797, 0.08420510723575662, 0.006452638910655043, 0.04387831880109484, 0.3710624371551824, 0.14409714690534597, 0.09291833890599151, -0.060513282680140654, -0.23996215281583827, 0.15728550866718155, 0.0938121677909614, -0.03498166666607113, 0.10326894255106644, 0.007431806289961544, 0.10204749066902284, -0.24149963551696932, -0.06770412445599927, 0.00018392474537796673, 0.04595514491802493, -0.3067903245020295, 0.09059343066090673, -0.3162237058515959, -0.16975861874837544, 0.007813308126932726, 0.0016560640006983854, 0.1517542726633764, 0.2346007857802514, -0.34996941157046685, 0.28380684269896755, 0.08721922423007232, 0.10287477943148174, 0.02445426174809299, -0.24796566749509996, -0.013761231476334583, -0.02788643857271329, -0.2370895321542578, 0.2172126843737466, -0.04031799535710129, -0.0726254133915407, 0.1621030812545551, -0.1677199127881577, -0.06407982157844727, -0.17819370009886437, -0.34472931308536386, -0.1269711293192721, -0.03845926113081696, 0.024572865885779057, 0.11757545656950112, 0.1644602172673547, -0.0830795656665687, -0.12881246502576607, 0.07041612821526956, -0.2892056376660835, -0.3198657390434558, -0.3073249724293481, 0.2414571711707527, -0.1292765383568039], [0.005714894255683623, 0.10107784270690208, -0.1455955874113428, -0.12367048423332039, 0.023288977504024835, 0.03209486048056158, -0.07468236317555946, -0.026989641766462444, -0.06520816382299419, -0.035845169840125465, -0.29976458238376896, 0.06790331343044012, -0.010900428878698885, 0.2333770540089263, -0.032648780082464364, 0.1090316441309846, 0.1410695623561393, -0.10325296087189806, 0.02039508984990278, -0.14053502837631868, 0.16343687303841867, -0.15561043070329536, -0.15412419701204683, 0.10446529500248508, 0.07014254087102606, -0.22309337183245337, 0.05632040223113154, -0.13463992504845673, -0.06861690878453004, -0.12473427756712922, -0.323712922381193, -0.16334361379449633, -0.22604475421054573, 0.0989536060103657, -0.01830661113424056, -0.3462186049926435, -0.26036221496016404, 0.10778377291097031, -0.09158264027612424, 0.2864080437470275, -0.22662358695439244, 0.3447916595195476, -0.2565116807697074, 0.07209460709112275, -0.1144070876251479, 0.05321169259301549, -0.03696813292189461, -0.015499747977568047, 0.19217265887378393, 0.6126609464218941, -0.2254563206962222, -0.16209026512288824, 0.2925880067586272, -0.1931783385070743, 0.15789833434188097, 0.024363997421849255, 0.005079849509113586, 0.23802592999615932, 0.1394101720653328, 0.5517881450654376, -0.05255926838450888, -0.1272319136216937, -0.23313336981094335, -0.0170719308916997, 0.1325867529086894, 0.08430706042393282, -0.09201273155666624, -0.14058618858520208, 0.15885151640369344, 0.10142655274595094, -0.2068792789877756, 0.029943114060953076, -0.022077262857610566, 0.06415068371682556, -0.06934703315953772, -0.13111878916070063, -0.012498649661134226, -0.01295111716767812, 0.1943918065366652, 0.16579851104736718, 0.14055485868530224, 0.08619599628153024, 0.06645887610515906, -0.11946139587755115, 0.19602110495494987, -0.27547511226616245, -0.0040301935807983595, -0.03359405030687323, 0.18082425993879353, 0.18432474682923333, 0.03174272117064206, 0.10314129796265524, 0.16711710951816525, 0.17582164892583377, -0.023729826025089384, 0.15066942558961782, -0.02302431792799922, -0.19009194142293703, -0.07490128854392644, 0.13792718365482204, -0.3098480060727929, 0.20904180053950508, -0.15007853711226637, 0.12457791878194084, 0.09977797937845172, -0.009176228124407335, -0.009414313989281017, -0.3558535681686322, 0.20559306558227167, -0.0061661847911341034, -0.04020150289789002, 0.3053141147224794, 0.006421452183586131, -0.07914904815126665, -0.050846932321768026, 0.1964213924204468, 0.1407487031058208, -0.005119393998221683, 0.1872228327213315, -0.2791135288661576, 0.013512109587440667, 0.13199533839180533, 0.2049191548026534, 0.06878651120339282, -0.23241193015546707, -0.288264233261967, 0.0846590709692268, 0.18142279611125378, 0.18646319097691283, -0.4203765194499811, 0.06691963793925597, 0.13790823088785806, -0.1356366328547178, 0.2061714869008104, 0.129858277119356, 0.034212244836202256, 0.026033978406735464, -0.231471847098972, 0.007402551573114886, -0.06256971485910362, 0.04844099012838564, 0.21865844060441866, 0.4700020956794237, -0.15649903742855492, 0.3101787210301518, 0.1626009944087743, -0.1806905776146282, -0.1307674376613802, 0.09576636380652252, -0.0832906797329848, 0.23142474347833458, -0.15268999912342976, -0.0033754463026821804, 0.09742915945781895, 0.33246751766055155, 0.18654870076452315, 0.05188919148461397, -0.11046915284891776, 0.22146382617005822, -0.08790913394193366, -0.09586949070348412, 0.24476225018764777, -0.12449069666405711, -0.1485705659721551, 0.1404777593831393, -0.34520088478028566, -0.1245977414582164, 0.23880258454509873, 0.021392497981927543, -0.1819632845577531, 0.1049951020986088, -0.019797228032498095, -0.08808353055718747, -0.2189015749342562, 0.19336527053746463, -0.19147178030730078, 0.11492977415702021, 0.08850127057375733, -0.11446535552036362, 0.2694988270145044, 0.2372778068239105, 0.09375396297905167, 0.19250229961867485, 0.07317636268643207, 0.103815416636093, 0.30061426764828875, 0.3174924830953792, 0.1392287131927378, 0.2844862582278398, -0.19992912620317957, -0.08936409648557979, 0.11077331317264343, 0.19533313084739523, 0.06331979841769211, 0.19983578134371163, 0.008514986418824989, 0.24204383610907065, -0.11264238399308528, -0.10239541696478002, -0.10774786850852747, -0.10653148723063961, -0.1962952927918643, 0.08815196232406437, 0.09762778638726828, 0.016082008877137677, -0.045094076168581805, -0.04177977286113771, -0.01740505568556755, 0.09803462447922318, 0.4181372762956208, 0.614486572196457, 0.6501794987400951, 0.12163336252399799, 0.3512615911226779, 0.29264664739857843, 0.2083212664230122, 0.07813222116696189, 0.03145107367423923, 0.2697424457001997, 0.0198824600897236, -0.17180162502365137, 0.08851298565373363, -0.05466899588123057, 0.039534420245351753, 0.09137083450718551, 0.008728337367472347, 0.05217564478813427, -0.1322590569131872, -0.3806159011165395, 0.14232228519085532, -0.022010599281990367, 0.23538554698660266, -0.2172440803455, 0.15683112157243845, 0.010327499832993518, 0.1706776777844661, 0.32397724020499813, 0.28251786629595077, 0.40254464908149207, -0.42115301973150204, 0.3434419431269021, 0.23376866520923087, 0.5111319230998475, 0.11812961093704706, 0.08742625315523063, 0.027829129863935965, 0.13219938907481488, 0.05790624872227219, 0.1775161829992249, -0.012411322178480469, 0.2699727750790743, 0.1718734021542871, 0.09482562877685104, -0.1775058511548827, -0.4879931115702158, 0.012624850466595382, -0.379554366906976, 0.21360786799170997, -0.019008497259122435, 0.20138111119712404, 0.020910678070104733, 0.2854748050507153, 0.23554788332520216, 0.1574664049797406, 0.308388389278874, 0.06713416648945457, 0.37325487695199544, 0.352539284704033, 0.31899466418203065, 0.22347203799450824, 0.06351993617203285, 0.10165816332417511, -0.07116886121366078, -0.18382929992898084, 0.023473146787334184, 0.16574801721143428, -0.2075622257998038, 0.06190457699096661, 0.11936789878668969, 0.10863328475416195, 0.19125574216831595, -0.045432381876482124, 0.2501658704916173, -0.06062084955037138, -0.06845676764538967, -0.07309152086415624, 0.21853166957783687, 0.12994886234718417, -0.2410368814489893, 0.1260180903424214, 0.2640392367656186, 0.10606953645825722, 0.3807959345925955, 0.19015969214817663, 0.5994731800921996, 0.44141507567200505, 0.21165808633202124, 0.13536561022693985, 0.038709929765184274, 0.34296058349538805, 0.23182666340283148, -0.19153776131896674, 0.19172556061693583, -0.002803023506161819, 0.2680723816201631, -0.2425971227827319, -0.1353599244809665, 0.07485326348731274, 0.06526220043113566, -0.3318533075650209, 0.05474382081333773, -0.01956790760678785, 0.524580210949766, -0.23553162702246183, 0.3926566862782022, -0.040819450761697754, 0.027538066596279397, -0.05179538397666944, 0.23124300075198595, 0.008402985743161425, 0.27126909913619607, 0.04083221647630897, 0.1835888518504168, 0.4441493293481027, 0.0832749641129027, 0.11196686084458497, 0.394092253294154, -0.021252029476505004, -0.13637828332718258, 0.4305566717457973, -0.07438900719309513, -0.16162709357170013, -0.07723878126672175, -0.08774000762103945, 0.03795091045890754, -0.037021846199256254, -0.23213147307938511, 0.13748728303907, 0.16835826858984895, -0.07706073512641892, -0.1020774045126939, 0.05698565146523818, 0.1317577999729452, -0.12387371957378372, 0.3018871892587669, 0.19082056218483762, 0.20166998007106088, 0.003624000003323121, -0.10513648076486344, 0.48290311698168004, 0.2236842569470669, 0.27695996804589784, 0.31534518113444454, 0.285305845587372, -0.11149582819645597, 0.15748688516708093, -0.12037883114118218, -0.04117341966001918, 0.3746185714968492, -0.008026946477950544, -0.04046170837168628, 0.23452287444130512, -0.00715386475301794, 0.0748369074410566, -0.15715463416360956, 0.535510040561656, -0.015662790834219013, 0.05950612046521915, 0.07739402661961756, -0.06415760490442282, 0.40477452589698465, -0.034368666918426154, 0.01540470605792462, -0.14133892639005455, 0.5208975378831349, 0.06625997008144235, 0.1811611350378001, 0.008687041179833578, 0.1805677910545956, 0.23080248624621288, -0.11777624761563986, 0.1230527099477066, 0.3472928887283896, 0.026965714462102205, -0.12666067343028833, 0.002090274495222324, 0.219384628528967, -0.05531078140428202, 0.17673666838914603, 0.22388841021010866, 0.2297293043886295, -0.040022420116922273, -0.13534648723965523, 0.3773049285013009, 0.16619650780853945, -0.01924864408861706, -0.1515880774739119, 0.1255001607137872, 0.003434084591470905, 0.1455860646266168, 0.28572017547791884, -0.035975181960015826, 0.18525070811489547, -0.09420559666724548, 0.24015894446797756, 0.26765697203854966, 0.4657386081025815, 0.05988144144751298, 0.514503643444653, 0.03425042940794385, 0.0011512149868824109, 0.154773679139563, -0.04721414198707463, -0.03822772330237822, 0.09050423630992332, 0.007303221154982551, -0.21889036803982737, -0.33585394458481593, -0.13730322806978, -0.019793660178306485, 0.1345657176148977, -0.02010702406881735, -0.0008485881028944335, 0.1220562941225079, -0.2580084355549729, -0.2781443619480725, 0.4204504170301412, 0.44605494833320763, 0.17906504684705937, 0.09012048202797747, 0.007906614493364435, 0.33171418524356244, 0.2361410628693749, 0.37093577199433003, 0.14455132602970655, 0.457124077226222, 0.1369070773477483, 0.2057851839538535, 0.12640838106604785, -0.13817649569123736, 0.10385443754399262, -0.048234927486841155, -0.3126992617252616, 0.25479516857833845, -0.14678451028118922, -0.15221491336044526, 0.057937163590121764, 0.0470983982460566, -0.2869249423257018, 0.19441710163170162, 0.09246531367799737, 0.19331968330810181, 0.012258923923226498, -0.10372983864277208, -0.07561357747203, -0.2085670659749368, -0.18265531504750065, -0.10392757788164429, 0.1875577663546061, 0.23036256643932718, 0.14936760631246415, 0.31506458572399126, 0.39031739998727655, 0.4157825859178372, 0.32809029160426245, 0.35320268444061004, -0.06335517121283471, 0.15226850274456286, -0.02297556051475441, 0.15466762504486264, 0.13136382647328376, -0.21973802127790587, 0.006512472485222103, 0.13981787941637905, 0.30234338545700207, -0.2430969428032877, -0.06213231655442712, -0.3204845925510708, -0.009522113249070586, -0.28774798630935156, -0.04047553848481303, -0.062459242171259054, 0.3057773880400649, 0.23325208717987161, 0.3685848951188147, 0.26101703302394197, 0.3969291117984631, 0.08287672805998784, 0.23079465930519816, 0.5394958082177796, 0.5050795382244321, 0.08201481269406892, 0.3361155204158877, 0.3111195095834509, -0.1001610786996693, 0.20768947619703906, 0.14739184658859936, 0.4432953339182641, -0.2633047280035389, 0.09208203403992195, -0.1773623578518078, 0.21440009566787033, 0.027479403323812965, 0.2387438789750888, -0.14539521930999608, -0.2563652149639001, 0.052237893040755136, -0.26342489000073244, 0.06828802598015517, 0.11623534434541662, 0.37607673125673846, -0.022441593922243874, -0.05474163570029385, 0.34138878925362787, 0.23158796101456708, -0.12015687349322492, 0.40143650700831085, 0.20793595235918647, 0.014664629612110165, 0.5930315528488584, 0.2817302329367964, 0.13876801588892046, 0.25009684169411295, 0.5280698897044056, 0.17736783819254684, 0.08120739702345392, 0.21719925091030326, 0.018294067074822933, 0.1979505612269167, 0.1716446677900937, -0.1618886229293389, -0.11986290777114236, -0.09477698911265521, -0.1710957334197668, -0.6217596842361877, -0.2100433612278743, -0.2453027125024354, -0.01328443704523483, -0.15894408573122235, 0.18768827920320558, -0.18356144718011683, 0.2753977355672464, -0.07276461847666389, 0.057830002042124636, 0.10988905941435659, 0.11732001295555414, 0.43311797231616317, 0.05662898165498362, 0.12877834685155978, 0.2081730671199164, 0.09366222946957777, 0.31319192244510263, -0.39639717861426677, 0.03375498996154678, -0.03865019341903411, 0.2010787245094258, -0.2193207565097279, -0.12528592187987592, -0.04583901696351344, -0.0024160762467150595, -0.05343844700951915, 0.20054118252793518, 0.2897743732662352, -0.28249726575031503, -0.07789393721116587, 0.15646715369782233, 0.25053019913978475, 0.2783755206402577, -0.01227602296854734, -0.0673097164174844, 0.20789785341583933, 0.030137675204381903, 0.3764585935799376, 0.34261054701372534, 0.1883546699896966, 0.1991901685172415, 0.256691214810904, 0.2667437342856151, 0.0012165110118371762, 0.34279287892817845, 0.06320028824849983, -0.1356909017506965, -0.1879008921779566, -0.054973275982507744, 0.01862580439525868, -0.07058976566162158, 0.01302910324374236, -0.04694220161368823, -0.15414659900143576, 0.06933861613629455, 0.11608685256254431, -0.2947091857927407, -0.05396621928535937, -0.031118225591557955, 0.283500829567519, 0.1715302779544858, -0.20643218438601285, 0.5909564634038024, 0.4511642627534202, 0.2887001595397282, 0.10768987843160957, 0.17652035232543173, 0.10498664993159976, 0.28514286458994387, -0.19925365747178744, 0.12603011582014748, 0.04580669009779804, 0.32355812345294743, 0.12156793512327746, 0.022556914668284685, 0.03229291935113075, -0.09648630634590681, -0.09127907649917064, -0.006897473664874552, -0.15065048027836425, -0.2491510049758577, 0.09951059942854788, 0.16301475145797878, -0.09974168405370157, -0.34626902748303295, -0.2647729533073762, -0.23967609562249856, 0.0007443331277635899, -0.04135578833356752, -0.016929804754735923, 0.1293833098547615, 0.5620409081314005, -0.19070151549865946, 0.35179413137554694, 0.3041132046373789, 0.02990761476885745, 0.24148310395003525, 0.44862370462550194, 0.275985250992664, 0.1614172991729152, -0.10565239620915635, -0.01598047369912783, 0.08230839032189138, -0.13132827670110492, -0.1041319449911322, -0.011556478706715513, 0.16408626845470647, 0.08064403270302976, -0.0032951024770105915, 0.1442985527634806, -0.01740607811391571, -0.004683310306617007, 0.0022617369091846914, -0.0832709638697894, 0.10086335162910944, 0.09476838507166017, 0.005985026576671102, 0.034038087290036524, 0.0610981904388874, -0.14412764152986843, 0.05071761829864359, 0.3608024824084345, 0.12152598729372813, 0.5856675702091201, -0.0010017663598426824, -0.11522410564616865, -0.12038257125219047, 0.28574294897915875, 0.2619864513480455, -0.1019623906881835, -0.2418362945667825, 0.19388161987286526, -0.00039733374122848634, 0.37486882026814045, 0.024288243344760055, 0.0828460527959877, -0.08617145573644372, 0.22825363383691763, -0.07237543123343183, -0.03331224644754013, -0.348241698459736, -0.3876777126127573, -0.2016428730580195, 0.0970111493853534, -0.1935576718661849, 0.36481992846800193, -0.007248065826142858, 0.4163697425517666, 0.06805669779754288, 0.06237552071289539, 0.09380939299976694, 0.057900844059555326, 0.20864134070510296, -0.016001994973984714, -0.05564573536972527, -0.056201610573636936, 0.03395246544580112, 0.08068288526820136, 0.25743165037214605, -0.2385838355619587, 0.28596787538110396, 0.3198335424891448, -0.10598273828515575, -0.14616235778204917, 0.04639506592333466, -0.23288252447530564, 0.2649044820600071, -0.17354118319890627, -0.018852357913941506, 0.016915707271189545, 0.041728034715460764, 0.38148070519745414, -0.23298253839769636, 0.21224553318565917, -0.06099351949101654, -0.0870811924299853, -0.06694214471512688, 0.08771205850214658, -0.12662947537595282, 0.16659432422473397, -0.08765161066152853, 0.15001646669037233, 0.11646517424266198, 0.019470357797967443, -0.07320933563348735, -0.15241500847182643, -0.21421198560902938, 0.37094175518231864, -0.030538535108885167, -0.20915116857247018, -0.2600766966341452, 0.15609864584736216, 0.21126710277621333, -0.010772981626351126, -0.189376387087054, 0.07155489848663181, -0.3168366174682548, -0.05992273582320056, -0.06644942635999597, 0.3499295722310203, 0.22925698658234103, -0.07906027877150834, 0.036520080546552994, 0.09919901509588974, -0.13344237890141322, 0.21561778875726337, 0.07280477283903267, -0.17011280122854064, -0.07518602063835417, -0.2997324664361468, -0.02901778278616938, 0.34027299460345783, -0.06595602842975505, -0.3569192685898058, -0.025544557229106094, -0.03562852559553609, 0.05373462193184022, -0.2289161653465829, 0.01358937472480267, -0.11001375323478418, -0.03695330654308037, 0.17051321356094856, -0.3303017767243642, 0.01906436731143903, 0.42230342781802205, -0.14725837525219163, 0.03283074109058204, -0.022336670904323716, 0.1109086205762002, 0.026367722628994388, 0.008494002838901955, -0.2152820315903549, 0.04638959185410412, 0.15999957959474592, 0.10938908611215217, -0.1456805564429307, 0.05929509897722197, -0.04724686417005453, -0.038375350581149215, 0.030899242813392507, 0.16553622685197775, -0.006816379278155124, -0.030388257334584428, -0.0808787557331001, 0.014834796617209146, 0.2634422036948931, 0.1009969536174925, -0.4159847530035428, -0.12740056328277918], [0.088891121287758, -0.09609133423689772, -0.18897166958315065, 0.08521346030687327, 0.31062930344210254, -0.035251778462670386, -0.08836944086026921, -0.2760458516192504, -0.09482882525405094, 0.24189153463776303, 0.14140468010717022, 0.25584924761344596, -0.3247980141931333, 0.13487001610654475, -0.06727130595897332, -0.15510485844416286, 0.15266001195012496, 0.00879884683481196, 0.07263275776747687, 0.018279522079723567, 0.06281413694942906, 0.003253867000335952, -0.10360926365338574, 0.20743936443782152, 0.14692477728667158, -0.06445116362006112, 0.23620745479609406, -0.36887414227439913, -0.061884978454108855, 0.10756359950276631, 0.002182748747793427, -0.040136656740025534, 0.058586368994840377, 0.03154348301905755, 0.3469586268423747, -0.04956288070271768, 0.001502573799357993, 0.07576016940403814, -0.21088607042287053, -0.023728714569633904, -0.1834482471939522, -0.2228224250314555, 0.041910773278222714, -0.0687427386490198, 0.056954272400234054, 0.17118087395845805, -0.09657065154662305, 0.08533510804173734, 0.13662082450552346, 0.0676216938448656, -0.24387562910666627, -0.2956186852499658, 0.05193053766782567, -0.23192653571930977, -0.08245313319810639, 0.19390538488863795, -0.02958144944037823, -0.08261700672005103, -0.10279723252811146, 0.4332432530940513, 0.15512729488283789, -0.13384990741956007, -0.017061526560076475, 0.08231048504991431, -0.1817706409405449, 0.1417737288176981, 0.3365173308228498, 0.2474311591478538, 0.24196880111778718, 0.1759421028046633, 0.2732945881715052, 0.20123955245347563, 0.15594606803965338, -0.08915587621238646, -0.05302185006488682, -0.20551110869342484, 0.12424458581521096, 0.1447056582505044, 0.2396899085289046, -0.28649545206864707, -0.1796572202546479, 0.10624606916576114, 0.0846390020050825, 0.013762917182545123, 0.02773365153388684, -0.27761162362639213, 0.057834215393291075, 0.043576837106812406, 0.11554091300548186, 0.15112676573007716, 0.18908589407868376, -0.005145198565603013, -0.04333237217028766, -0.027815502002593466, 0.005918578668878132, -0.19393969041402026, -0.07753217469836923, -0.03650979931332091, 0.1929371371058263, -0.10096074957722949, -0.00555360586136119, 0.047699964946694234, 0.008241683698883843, -0.3382201369246073, -0.012864888016014858, -0.036868313165882904, 0.25779670879482924, -0.14465547480456709, 0.18094017841056304, 0.2352574492186684, 0.12369374512360441, 0.23816262117493836, 0.24564301813728617, 0.10409342755554889, 0.22441163042761525, 0.6038426952452441, 0.13350381203318376, 0.33652686017603917, 0.1519095714831241, -0.34756074247060814, 0.33383122931502357, 0.14982697274391688, 0.008566821589744821, -0.18261656406427196, 0.3179538541667068, 0.041846199834878084, 0.25227614953721084, 0.14751861883434222, 0.29948666259880435, -0.35874677740148186, -0.18025884814735949, -0.008369685299519907, -0.08521463511302008, -0.35316658205685336, 0.06516890531768373, -0.20755493507105002, 0.2102239360434089, 0.37474750166745185, -0.26826776860796075, 0.0018550835721103324, 0.2502598241384972, 0.07115123764560287, 0.0707274262280815, 0.007760543165951733, 0.02419249919824236, 0.008210693342375676, -0.17486490178962927, 0.07685485209536241, 0.003003653051542502, 0.03213351285867559, 0.01162821752107917, -0.03907263784905214, 0.13160829464204732, 0.1397930684999987, -0.06546616119894474, 0.2889343390214089, -0.14038486480708917, 0.35449441517759, 0.029742407156109752, 0.1963866197658112, 0.2125174717610211, 0.10367112977435335, 0.07554059140826336, -0.236264046767761, -0.11153879849046984, 0.032810031131213016, -0.156891078489557, 0.05820976257902343, -0.10542005291234338, 0.2045736196041595, -0.17245338387213352, 0.16667966139436047, -0.07737250166920742, -0.1451842082404109, -0.440736271454073, 0.013754796061705349, 0.3394510499347429, 0.09327272837166659, 0.16859325874995382, -0.0160586033742107, 0.2926073165157366, 0.2418744985242244, 0.0736160174939538, 0.24573831748183794, 0.16111652776882743, 0.37924605946255013, 0.4408607432306336, 0.12304740314979018, 0.11415269207554873, -0.02077107497433246, 0.01019625392014713, -0.06815479897220851, -0.22828200480617075, 0.4385555054519122, 0.15695584851630245, -0.09915960390859005, -0.101153012488109, 0.07005744626314928, -0.3986752889088249, -0.1593634816280973, -0.008606221813788577, 0.1847756517062813, 0.06727910456736264, -0.1291314095231029, 0.18973558180627978, 0.44411945450553886, -0.07619653887578283, -0.06049517114218625, 0.09162918670777617, 0.23781820010859447, 0.3534362749862922, 0.1322227656182688, 0.18998910671881614, 0.3729739104210933, -0.06165548079174121, 0.43577361199406695, 0.10305034053274155, -0.1291311504284811, 0.06725626701713641, 0.06532721762215413, 0.08210356362228657, 0.09485276406365051, 0.058432527089615986, 0.384277472661194, 0.04616711531001915, -0.15576900226840232, -0.17125596753802666, -0.35011414365526417, -0.16549836302406348, -0.01547061847240839, 0.12299960928613042, 0.05173021389619663, 0.02222562386741965, 0.20152312768149336, 0.3073833621700038, 0.37624724811448235, 0.2797202270505297, 0.3728564669389965, 0.3961754755224757, 0.5850607736640479, 0.18724758346981346, 0.10189256885597205, -0.09656666786467011, 0.2198788762402317, -0.03420602089048194, 0.054072058655673556, -0.025577645188744922, 0.06703886364917432, 0.011500254637440692, 0.0929216350479295, 0.21144417993560277, 0.011958567178482345, -0.15021157636663282, -0.12280145965246725, 0.10259639292802648, -0.06780994978475861, -0.054354020818385126, 0.27515749902271874, -0.07883845127842236, 0.06307083541624377, -0.08490651701244062, 0.23315432736036537, 0.1961915349770988, -0.025206885868677614, 0.3376555636696113, 0.2010428360921767, 0.038684506311328, 0.19113644732494883, 0.39577953218199896, 0.0730825886824577, 0.49574929811238533, 0.011704171169550567, 0.17098679861457247, -0.1894037664399401, 0.16018098940156042, -0.06044379977964672, 0.0157371020198935, 0.14055956275382778, 0.09033365974304024, 0.06239190863173938, 0.13357603992310413, 0.18277540890195873, -0.12244018825528116, 0.23066301247854543, -0.22128754796759684, -0.227172007999625, 0.047473953625894204, -0.12526404210702924, 0.46293293550470577, -0.049634299283818684, -0.042249720862488946, 0.33779048060568384, 0.2633666494684633, 0.05367447068617827, 0.4452907484362273, 0.08936681624555412, 0.22678564492957493, -0.00491833924987191, 0.2557045172657433, 0.3730552931013733, -0.16243492268798915, 0.30141583887071266, 0.10711727095918543, 0.43962153062691606, 0.14597171084939753, 0.02809316255493988, 0.16741631193206638, -0.1421584984577407, -0.10669320236209895, 0.0101554474624308, -0.2480029323004851, 0.1301950690328233, -0.08822527154038952, -0.0632224989543768, 0.31633421110696, -0.22683099257805955, -0.15094595209427264, 0.32393829119487255, 0.20250448286896586, 0.05355701409109005, 0.033581706990451904, 0.07527616469649841, 0.4399054916210131, 0.17046484094992714, 0.3812061278148496, 0.09117774537877994, 0.08213408264497378, 0.5440406643047675, -0.1187918818757113, 0.014298829586779782, -0.269895147972895, 0.12451016635829056, 0.35070979135612523, -0.036870241937545796, 0.012351083756575888, -0.056241157608533904, 0.32693475664430544, 0.02554499750531178, -0.35796170261417803, -0.21257876212854865, 0.1995987681137521, -0.23095489638634245, -0.16237905606294967, -0.035589999029620796, 0.20578716759588914, 0.015322249498571907, 0.18314574104806636, -0.24609575530594963, 0.12417036665875365, 0.14253000561075269, 0.30992007655526665, 0.13233809697301832, 0.17803800509258616, 0.0008133023581981735, 0.08722243134694446, -0.18064828421880563, -0.12945828045995628, 0.0010545123745082134, 0.3651737928405791, 0.2989226261447185, -0.31491595253413374, -0.1944293127561516, 0.17940085981877027, -0.08486745727279793, 0.2420677146794209, 0.09239265077886753, 0.10199251205356553, 0.0061156629392335755, -0.004476110220831138, 0.06129436800056656, 0.20874023678091538, 0.08616271089715065, 0.17739876505828495, -0.2007093864181378, 0.21982924779271523, 0.16775445284502552, 0.13765655332977766, 0.15713022375970379, 0.34597262184312433, 0.5394344682551798, 0.45572210663987284, 0.032827950520035884, 0.21339472886630984, -0.12330597466818417, -0.07212999658657789, 0.29753331571863817, 0.23241705380252228, 0.13100991363906447, 0.10767785289648861, -0.051096666070778875, -0.03847847601567749, 0.048125135393231794, -0.03032047562098029, 0.06958392105794937, 0.18935979732044445, -0.30224882482110327, 0.11967095836830043, 0.10389720507295105, -0.0014047972278132563, 0.20388888361144517, 0.5654457288573221, -0.031020062398693704, 0.581041616308113, 0.2674826542511053, 0.06314309733865234, 0.2862868199553747, 0.232568066687482, 0.2039805666048277, 0.24941050661835373, 0.32076702636221843, 0.3528521322162529, 0.06479507243765598, 0.08122741763950088, -0.24974889883458495, -0.22993896320322185, 0.16725196707003454, -0.0307941894168605, 0.16229103391064076, -0.07514984570273099, -0.44278019432755805, 0.21667029555159018, 0.10450044498030078, 0.09979367056712234, -0.09937666014990072, 0.21274449123566022, 0.09005826263057577, 0.18205715064144473, -0.04666674630414672, 0.19286766376166883, 0.32839195057710696, 0.11862083671005118, 0.21590028925950014, -0.01934160592687688, 0.7432756645934856, 0.29829996799764324, 0.6358079580788277, 0.20860477805946087, 0.34033393102681553, 0.0669580733548348, 0.04269298670700431, -0.15142933434478043, 0.33021958835230814, 0.08745047527618692, 0.3622448832252258, 0.1076269739327216, 0.021163518506487844, -0.11234075004755528, -0.1016643744374644, 0.053548989743724365, 0.39263027248687843, 0.05381798562390837, -0.08041176284936571, -0.12668685761971787, -0.11199694885558091, -0.04517614653020937, -0.02442274863467672, 0.10399217604576004, 0.09126207151103523, 0.34383645866780066, 0.20763017548757223, 0.4822892151589926, 0.2452643320543839, 0.4311296555085225, 0.2512950139251475, 0.18781067348871144, -0.009940623250726824, 0.15783233052021955, 0.028664081887468766, -0.1830961206084012, 0.23417761624987907, 0.03775918956161038, 0.17331582974405452, 0.10787064453938096, 0.07351590918369741, -0.25848414460555097, -0.2412336530137592, -0.1233491600827948, 0.17851275855388019, -0.16549008905398027, 0.31825674692347483, 0.1579428935749138, 0.09121556619115954, -0.03319712254323662, 0.10313475876020244, 0.20428063544764755, 0.17022837049380984, 0.1447478299508944, -0.07165363893611314, 0.06662040424761553, 0.33416363646743746, 0.48977582887551113, -0.0278637485540026, 0.3667253162900714, 0.15107337613850344, 0.01836357858700709, 0.3258337786558713, 0.44031046492720743, 0.13200780389689235, 0.3893750920947694, 0.1829393577176254, 0.047121568838507925, -0.49110043869524844, -0.17388814642031122, 0.07293710422519648, -0.08357237924195396, -0.02111863927827119, 0.14372239645260731, -0.23832666055092513, 0.09808474198560228, 0.14466506587297814, 0.31437182430285665, -0.08193102222924896, 0.12637308045015588, 0.02234572106948044, 0.19850643101030102, 0.33345255604443386, 0.06461790852650233, 0.413603527680968, 0.34840044376829366, 0.4224834450807128, 0.14822066210273246, 0.5281866824530659, 0.45962663204488435, 0.2612357305856924, 0.23890384194307263, 0.07263161166625551, 0.2942854968459488, -0.12384841130416407, 0.20689272289649208, 0.07370178760250272, 0.11574938361173547, -0.22240532746634023, 0.5829984534651665, 0.07108054943822208, 0.15533531818435672, -0.2873792360694926, 0.008061432018024343, -0.28029659451122213, 0.15955016692595875, 0.2524356000383456, 0.06723900742497198, 0.028584950320537542, 0.2822961049411954, 0.38973613182068606, -0.047242614518028886, 0.1665382435826145, 0.2977247981072122, 0.16828588515125797, -0.05421337913120214, -0.11414025067634424, 0.10711907076556394, 0.00596612349537717, 0.07938255950718494, -0.08669451257311928, 0.05070858653769075, 0.006303488818373541, 0.040096802855532215, -0.006835968600689579, -0.24473917414952873, 0.12479664679316592, -0.40136891954112597, 0.16129541070634076, 0.426283252659737, -0.041200245579398546, 0.08651680190319293, -0.0069718271346664385, -0.20694648262716603, -0.12284736197032926, 0.11918127024291189, 0.144294873253998, 0.10815812983779177, 0.2006890215707321, 0.10074188830216961, 0.4624232391430991, -0.15166599489537047, 0.1610667667025156, 0.5179288878082545, 0.03367217175561435, 0.03281067697212872, 0.1744725353929929, 0.09132412997663719, 0.31038997278399266, -0.15607315614854755, -0.11581056879838648, -0.20016854427215766, -0.08889167232889728, -0.014183837515809596, 0.13978034581609175, 0.3535975365221321, -0.09802978523603834, 0.03845165320967106, 0.10063337451127365, -0.19897257134515414, -0.07286867912366098, -0.0016147991344765942, 0.06934585087307463, 0.2080146724918769, -0.07250754646486961, -0.08750994392237317, 0.19643961807750995, 0.4395326677338791, 0.386828295303327, 0.19890458337310693, 0.3102425722339086, 0.18389229434037094, 0.3052912738276532, 0.019931864490302008, 0.21567460454301976, 0.13396747102021056, -0.017616535962937333, -0.1204480812100295, 0.10122177272661942, -0.1298024514294783, 0.08414626515026936, -0.11748886546785758, 0.004103101395867813, -0.2907430049574514, -0.021266481465112518, 0.18658460856639145, 0.013590850692621094, -0.2712749667472042, -0.2347320947422582, 0.2132609141136835, 0.1674980723369887, 0.46038989954496096, -0.030069750757772514, 0.2334874898239993, 0.1956777862290385, 0.2213821529204095, 0.24035649589907554, 0.1603650175174865, 0.013597384482342977, 0.10950969224803603, -0.08069698621457903, 0.20041331196574275, 0.20746110339809049, -0.10994561513905712, 0.1117085005863468, -0.212607698856816, 0.11452188363308384, 0.17002058942364517, -0.026326779144819738, -0.2883954686536709, -0.1709156982099566, 0.04166132659579033, 0.06570005122412488, 0.10328473539798431, 0.1750822353351905, -0.002687975209722022, 0.1410997048889495, -0.05721522949869635, -0.016866574689460616, -0.003995274756514684, 0.03381397599742627, 0.09469938586819485, 0.15338783105434653, 0.10753115984719507, 0.36802661822135, 0.09581481666797441, 0.39382695368706194, 0.29425377274950265, 0.09697343053605788, -0.041432917345843194, -0.14109466319317532, 0.20335774576551274, -0.27476595368558215, -0.1140296040138664, 0.2308017506207188, 0.2220486457061226, -0.14315880009825574, -0.060238763455067505, -0.08015547987251762, -0.04069699936176081, 0.11728858654787545, -0.35475235510248726, -0.17918763181195296, 0.29554975187322197, -0.19598004256427023, -0.1278615191799601, 0.021729102931508357, -0.03151816068947117, 0.08728588348725858, -0.049541980362703485, -0.1198600206715844, 0.28111740707035043, -0.12010977472361083, 0.14923970152384305, 0.050090797783186425, 0.14475756191684183, -0.3497910144464763, -0.025612784881939778, 0.04752001860621596, -0.023947472932174835, 0.03200805366363956, 0.01679734673381758, -0.007762123739446711, -0.11712038221944077, 0.06288696249232163, 0.23203827645308267, -0.020968649419373243, 0.2842435189550144, 0.3150673033176997, 0.16789715649746248, 0.20865672369502708, -0.15706161871931787, 0.11554130242338373, 0.008162505203533461, 0.16225148043152904, -0.02911384995683326, -0.17563132168483114, 0.13179096994735248, 0.034755583539636016, 0.132569671771084, -0.08023959406660423, 0.08996370232458821, -0.11541134975077821, -0.14308046292617538, 0.27548951965636914, 0.010011473841037444, -0.1890868397010781, -0.4424480488046297, -0.2937684467629658, 0.06788754821046789, 0.0860863403246141, 0.2490587987098715, 0.038034013686127, 0.261718367137643, 0.14727736342163106, -0.039818207019861454, 0.11123464271784987, 0.04154575667631029, -0.09101444337021554, 0.046278908932244726, 0.025863331927510117, 0.07328059341814859, -0.07391395664113813, 0.4561261623805678, -0.1387630592563947, -0.03272076374407043, -0.20539622942242722, 0.08910186110090117, -0.12732296365500181, -0.08111080122962992, -0.16391055810638697, -0.09702666679365349, 0.0084571793006048, 0.07098110322843525, -0.15300061990392191, -0.05950743933900117, -0.10314470630875398, -0.02563352499850396, -0.10087095651057154, 0.0029892300280065245, -0.07072584861564005, 0.02290513466803075, 0.22793195724750992, -0.07698409700873997, -0.26190409638567314, 0.01731772688768412, -0.20461914591845753, -0.050885221440460295, 0.1729327564456533, -0.051003514647825814, 0.3172925191371635, -0.06227673504973527, -0.2173386992131042, 0.45981546104475374, 0.18583931142399984, -0.1135675053328472, 0.3204647795959714, -0.06114039143535811, 0.014775262934090094, -0.09988100802018214, 0.21708862429873496, 0.17292064211777444, 0.25259379745719673, 0.057895722132185586, -0.031013172797548307, -0.020832500836665244, 0.13096386016921543, -0.27717805984964317, 0.015337276113450966, -0.16788418199445165, 0.011349898836522807], [-0.14934522726177166, 0.13685604747662589, -0.2559125417896774, 0.002723106705445252, 0.5388877615081319, 0.25479350814526175, -0.056511447736173566, 0.11191215187713649, -0.12239558746420033, 0.0897237979075243, 0.07649987739990094, -0.06707518446046276, 0.17010183116678795, -0.21451651243511366, -0.3979091694430264, -0.1199227735498347, -0.01720023071136663, 0.2783065288660095, -0.3723494187564579, 0.2980350545703391, -0.3300134964798879, -0.17350565161377063, -0.10822419531265634, -0.0517583100481179, -0.05942420565814301, -0.1276437779711412, -0.33628945590841886, 0.025484128336756978, -0.005635552856515231, -0.2577372944436489, 0.020297884362254368, -0.1873776132745586, -0.03575816696176557, 0.1163939650981681, -0.20409867738524815, -0.09350345818920536, -0.04702430896681708, -0.16405989324081716, -0.11480856448558452, 0.16137409199971153, -0.2288971163435981, 0.07731940041764163, -0.10706815210385291, 0.12318403961925509, 0.024878760660478692, -0.14032165137180283, 0.06358197577346895, -0.1390252793335042, 0.29160132979734577, 0.011418816200650887, 0.0403979000216217, -0.08855297908119396, -0.262864935215741, -0.04903987824813051, 0.0019014060463317605, -0.1663630765752251, -0.39153069687669606, 0.03486041613256164, -0.12404794842919765, -0.3685095389358838, 0.2398384959652339, 0.19998460876240617, 0.40018075073548826, 0.04160297518924322, 0.13541594072239307, 0.0912172793649869, 0.2682435727797333, 0.1435507059123278, 0.16642481180795773, 0.12061592307001226, 0.08511413047859236, 0.08638022287915255, 0.0916329993339761, -0.03308288510531326, 0.1787248695377798, -0.2579702742072104, 0.2759983123843601, -0.20338535355491766, -0.043886889116065836, -0.06589650171218779, 0.22746554336777425, 0.059777861796902615, 0.11177913698846516, 0.05413557463658696, -0.12654021355295517, 0.42941398813439846, 0.015299061029900649, -0.0023952423491430874, 0.0735996914466412, 0.41075305453915106, -0.04314820574700093, -0.16634995940294145, -0.1110247932757949, 0.16573473918785808, 0.1330614327556504, -0.07432657823832647, -0.018127625662310288, 0.06710825773330673, 0.2031472389356065, 0.0548379383652653, 0.1623934103709997, 0.39287528546202594, 0.07152607284889158, 0.030562882639046843, 0.09855580638709173, -0.053132055881567504, 0.1071039217881416, 0.07041071280747556, -0.3506948321470807, 0.05612412985542245, 0.14196166167634136, -0.04618919075704957, 0.17842082288338446, -0.10319156206602337, 0.1348163676929058, -0.01417973437306412, -0.16161506331110706, 0.09697066534278666, -0.22864696008462124, -0.15946864953252682, 0.12339628803411339, -0.01876707687477511, 0.26119289827985337, -0.0516100648785079, -0.24380006160856002, 0.0220724483258873, -0.023330689432519328, 0.37335791324392203, 0.17273829040196617, 0.04329577498402078, -0.006683109526830416, 0.17481836790508679, 0.008186952872701624, -0.1541185506215042, -0.008006509293209667, 0.26141426879084195, 0.05764517224762165, 0.13555571417417248, 0.02270914073814027, -0.17740570413506634, 0.2820016482806121, -0.034226388495165724, -0.07988867094372194, 0.2699982474878261, 0.13741545317879977, -0.3146089635245488, -0.09305961526666824, -0.07362121124746873, -0.23024441814462382, -0.015209856107455252, 0.03908574322166398, 0.2847924933595983, 0.1650536533192268, -0.04917887796487519, -0.020460925340371208, 0.3704350699432845, 0.06790025064152334, 0.23493347526382327, 0.047794807268114664, 0.11533708887838827, -0.010745708595293774, 0.11551127135014778, -0.03545977706233615, -0.28210226219754253, 0.10321015593324444, 0.04153112143346935, -0.16239486948060197, 0.017912332710773173, 0.14042801861493057, 0.23990471636477212, -0.2567714244062002, -0.02775697732967814, -0.16387500034426414, -0.14019335811015146, 0.040421896553409546, 0.17679289989283684, 0.1457592163768357, 0.28413192185234964, 0.12674563344044007, -0.10961765464123832, 0.27668979509409564, 0.18550959014121018, 0.07382172695793833, 0.032244713665267453, 0.5729649185715852, 0.22371677354632272, 0.34789965686159374, 0.19163696401653849, 0.19731214867022576, -0.044280075170680534, -0.015119579651354567, -0.08052051309235388, 0.3430713027032142, 0.20701278799499534, 0.16992894965848745, 0.426073290477843, -0.12394868476754738, 0.09501593978168961, 0.07394230240721684, -0.21370317473685646, 0.09759122425791719, -0.15463092418204388, 0.0989688356917419, 0.32666703531303554, 0.1833375922984182, 0.1478831000000833, 0.12576444178033075, 0.1792130073365115, 0.02103606118018529, 0.47010748230605576, 0.24147211256667195, 0.3827136039722842, 0.3775771008037718, 0.3413443455693153, 0.1882601556680421, 0.09942058700792844, 0.24509821233634432, 0.2383685750403896, -0.1489124127798467, 0.18364462216896923, 0.1909595683799563, -0.07366604999304106, -0.16826101316692113, -0.2943667407897943, 0.3233079420310518, 0.09696098462150066, -0.19550062938729826, -0.226790155460734, 0.311111757395274, 0.23053143868772952, -0.05223067027203681, 0.12451728412739775, 0.02119340713569112, 0.3223052141344616, 0.11365434093842919, 0.27962379352738953, 0.5742293883598261, 0.8428034749102493, 0.23576510750251506, 0.30198914936502214, 0.30400682757280045, 0.15939291934930283, -0.008620859135515921, 0.424554599893029, 0.23606555411129282, -0.06081739206230466, 0.3665789618523531, -0.014139852364352874, 0.13891123690794993, 0.4335148879761624, 0.2246050394615645, 0.029007218825375658, 0.28895137817950617, 0.1693756728176951, -0.12286524357271854, -0.17008655540477405, 0.17884125978817436, -0.45604080219608184, -0.02585926454104711, -0.14437486810734607, 0.04609310154820106, 0.29751019592036504, 0.2298440369741504, -0.0006724482790487599, -0.1304300065170873, 0.11995746513488321, 0.48877219694119184, 0.6004372199412554, 0.27587663066929874, 0.32086715719003456, -0.04690684688725137, 0.16765327996404028, 0.07386608025000393, 0.25252779772295025, 0.2957755748809351, 0.40418627800231444, 0.21997208717424865, -0.12970331312374322, 0.03342898321908425, 0.13230152568300235, 0.03344832697322192, 0.021917859064186654, -0.033313659756675315, 0.14105878881319278, 0.11309387544601779, -0.18568905414261075, -0.1432037791546275, 0.07502027995387094, -0.10498470452456556, 0.1449969530849811, -0.06130272017309679, 0.07846009862125647, 0.10579529328323269, 0.002760014968411788, 0.17765496267084166, 0.2807042728065109, 0.27963091746697993, 0.2815651611902665, 0.04839654174164215, -0.19621903612201458, -0.11251884574956239, -0.01617582437371102, -0.04709132056463412, 0.09446081322322332, 0.16235971822229564, -0.11879822624606068, 0.2806684038258183, -0.4010324306102621, 0.037588884423294416, 0.10307828827094788, -0.14734836128552983, 0.00830960100186007, 0.14345815406498008, 0.048353306484144314, -0.040127682674538166, 0.18039886719791487, 0.19622647629340365, 0.124351677555445, 0.14003208396261393, 0.28732273797164337, -0.04979108154346426, 0.09382771284566391, 0.29286914784198864, 0.39277435360155827, 0.05995895645800169, 0.4250143346521469, 0.04270500095897917, -0.05618857917726714, 0.16165548419013104, 0.3374580814278586, 0.07777595730379876, 0.4102899947469009, -0.16782617971424438, -0.06368376255048783, 0.04427385050435584, -0.18377259081158515, 0.008199475577762133, 0.028408294596456635, -0.03264764142471945, -0.08115504483231256, 0.07232379862102932, 0.1391472154150187, 0.21651732213043268, -0.20089258346949052, 0.29883904587351834, 0.31398837236755467, 0.3144049985252435, 0.07862277330062907, 0.08090772574096451, 0.33700109120990174, 0.02657106675136684, 0.4542107100044202, -0.08132648635974676, 0.2951189502753614, -0.010816430676717517, 0.05074426822352238, 0.4397524988102374, -0.08734923823925843, 0.008283821749833714, -0.005503789451924247, -0.3227685450512096, -0.2669581211989698, 0.041047664933944, 0.1850481630234831, 0.20710007163395108, -0.09025380875881711, 0.0996242263274522, 0.28181694404179686, -0.032187832176610136, -0.22614469236079707, 0.124912842901613, 0.02864267361158564, 0.14137568067869186, 0.11024375326328573, 0.20905160555519528, 0.13411803904168884, 0.2712086889281551, 0.03563248188682502, 0.4431796927163965, 0.5434758568696002, 0.22281152479355004, 0.08655910757148447, -0.15125454098314495, -0.12154283616141108, 0.27323691586264665, 0.10608705410725386, -0.02624939906889873, 0.12219445634597888, -0.34309058820131383, -0.06156117760533799, 0.03021118737851942, 0.028197603609684194, -0.06525464028281708, 0.0015836195399563165, 0.19177528681383615, -0.1256525247161618, 0.23959597209768513, 0.04133846992285907, -0.029606402982048245, 0.17792613319830544, 0.08701469091916476, 0.08143474859012444, 0.3830547719945221, 0.06350994900640923, -0.006599284557627647, 0.08341128048454995, 0.37590182962472796, 0.1756313074989116, 0.12340737842198038, 0.20547230271893058, 0.26531934333870477, 0.06473529629451844, 0.07789711686215953, -0.2722878161812575, 0.012735493790439529, 0.00431587118898099, 0.03905911757298063, -0.03383244468944084, -0.28189038540430145, 0.08102746362253764, -0.1108956296967042, 0.06789224886007772, -0.23191188680726812, -0.0771989222251215, 0.24109851183629377, -0.18686011731415542, 0.26398177879273055, -0.14286425822901952, -0.13670962983392493, 0.6128357827050815, 0.309552215648126, 0.0449858571446447, 0.013181114716437167, 0.08568057419772014, 0.3314349569590221, 0.4519359726366133, 0.14055733956921768, 0.126700979597427, 0.20083729808216708, -0.15226404170751687, 0.17666167403338373, 0.21006127627879276, 0.18703582043678565, -0.011437750381881013, 0.15600235068764184, -0.07895362881936699, 0.03979969160933426, -0.1375840322174245, 0.1773946622658062, -0.023954500517168277, 0.48034540997873193, 0.09962247493387785, -0.33934035846262806, 0.24198725850093294, 0.34940437494264986, 0.10369037926472385, -0.016113606027007923, 0.43798054081880916, 0.012718592533062165, 0.2502860846463088, 0.30647170334319224, 0.3203309951777043, 0.4045178044040104, 0.1159599364144339, 0.3096277496542995, 0.1425887968137378, 0.2653928642954198, 0.0034410790399884835, -0.06772433368649947, -0.19472497013461873, 0.07669321672291789, -0.07019069307766225, -0.3306338452433971, 0.1626571166573588, -0.11644320495703914, -0.04604521283283917, 0.12585536830358296, 0.04577104721958337, 0.42349403756237963, -0.2975812746973783, -0.26456362482318024, 0.25684705651111384, -0.0175804684051306, 0.07977453917560141, 0.0991073948606994, 0.2965817878110917, 0.25528349617727425, 0.374353679327084, 0.06934767337270145, 0.18812475517514868, 0.6627063859528812, 0.33172181856171984, 0.10097078338718043, -0.17953773872545536, 0.28780512930951524, 0.10423023194165343, -0.06597026579717506, 0.24001369856284765, 0.25755088596101144, -0.12224704379067797, -0.06674588923730775, -0.09211201968662378, -0.0468623553628927, -0.10284441412118124, -0.007314635838698107, -0.12554775232026208, -0.17198852376328164, -0.2741183143853659, 0.09942729095868172, 0.06386536140745805, 0.21774333478441432, -0.040563170734451835, 0.012948225603361502, 0.07798165534966482, 0.16500979584463327, -0.02855036700667472, 0.46649889807519257, 0.1754177008336141, 0.3381821093844303, 0.09554909314013252, 0.1928241730599501, 0.11148954264487121, 0.1432479780255453, 0.32348526760222135, 0.1356304196547714, 0.2130444837734984, -0.04020300466343749, 0.5226680839397141, -0.6186099488983355, 0.04665338451228237, -0.0985407068750151, 0.07431098478612203, 0.23869389321507137, -0.17502830288258975, 0.0013761623214200965, -0.0920883982862962, -0.05454907328978797, -0.27263440886893986, -0.005546857362122233, 0.05536739957956553, -0.015660555417415005, 0.12059310597789653, 0.2015444477610056, 0.2901904480559237, 0.08358685912586504, 0.4252237743896332, 0.1966069205735809, 0.03539988157683587, 0.4757155002002546, 0.361673954096827, 0.08668586782244948, 0.24175235823416938, 0.10099863262929255, -0.0729699592554201, -0.10471549100241188, -0.31524221310389794, -0.22429240321742988, -0.04294864628155947, 0.36801520706203106, -0.2545885336893281, 0.22841680078908497, 0.13273268513389133, -0.2089186961425983, 0.2373732319431673, 0.22420991851504857, 0.3718218768783669, -0.028362423099546355, 0.1287328189624791, 0.1437794171996345, 0.11414936424038942, 0.1788679045086736, 0.06756381650664658, 0.28329645793029296, 0.1513480896927882, 0.29647127038041066, 0.09915733023774086, 0.13749465565238508, 0.11661070107163782, 0.035273156163845416, 0.01228541007797407, -0.01216092417592594, 0.0724182739728854, 0.08420480901687004, -0.12663676259145543, 0.0692944915301309, -0.06503958136369448, 0.17117719058705322, -0.15099302079897123, -0.30623795533562864, -0.15633738110780268, 0.39528033038573956, 0.02862781255237554, -0.2514457579058086, -0.03598122652811349, 0.1689461711833048, -0.1997348216742786, 0.0717652724793293, -0.0037547320795008874, 0.1171503127496355, 0.08810713187556458, 0.147015823781218, 0.3530653017301266, 0.20021359813956946, 0.23030244168388878, -0.08025180078410765, 0.1690996603404252, 0.008367538279899422, -0.039217974839515966, 0.21669155531598402, 0.2171775795000888, 0.06251312965315105, 0.03309355744661609, -0.10945359749018341, -0.08310649743503754, 0.1306943006212912, -0.025074191405925303, 0.06821395034420465, -0.07178666551404904, 0.023938439774856705, 0.07480634381652752, -0.03489674718531215, -0.03464438958560455, -0.21572106564044058, 0.4837114238920976, -0.19917062885081524, 0.17677516753491948, 0.16081319794507495, 0.404837433649726, -0.014522208679137104, 0.5195738211935734, 0.43228593710121405, 0.43155184955495496, 0.009952452511866874, 0.13376374325331072, 0.3260636955347074, 0.058665268422214235, -0.05963388953210838, -0.2627252769745344, 0.008129701941238207, -0.19335130164974257, 0.030245835745639566, 0.19462364755721212, -0.05305055244063814, 0.1363560580989704, -0.00843659874664509, -0.12216522191064019, 0.07107297618685464, 0.2491373393924895, -0.06414632414720906, -0.026544793890865847, 0.2890908086443588, -0.05498244855087893, 0.1386851657753853, 0.22517862247909665, 0.10140726193555688, 0.09593657359317748, 0.16407104477537096, 0.35170611602336255, 0.3289459156871865, -0.018539577940802045, 0.21837449153376146, 0.4075849788846143, 0.13334154393784622, 0.12319023016044543, 0.21849110139721797, 0.07025168480870693, -0.06127656698105856, -0.041772393355827546, -0.047054747046148385, 0.022452436368793717, 0.10988923417504451, 0.3338055337414766, 0.18705122313707512, -0.001413024247448873, -0.2314729182292822, 0.3728232900050437, -0.040521465522888996, 0.31271067440725975, 0.1789581663198721, -0.00047341568258525257, -0.16392820430269495, -0.11310142265089596, 0.2593133410712133, 0.2534733634704405, -0.008170930455297537, -0.09485486731139622, 0.03828339939246399, 0.33460300347460264, 0.06546886795556792, 0.36435433648216425, -0.02540591288348057, 0.01683194972129379, 0.14576882700737837, 0.49487778312689207, -0.02092373277580377, -0.11492667303546805, -0.005453871420022795, -0.2683640359867646, -0.02103071276838456, -0.17868582100981673, 0.1354524121328221, 0.3561396843087031, -0.34241060560913966, -0.042710436325404125, -0.1749455600236006, -0.06054890743946334, -0.01994447741288554, 0.23975242507457875, 0.1326432153373357, 7.092151381238612e-05, 0.4146717119335286, 0.1835691723573983, 0.11889266113025522, 0.23178822142038238, 0.3069215288426065, -0.020484078344970947, 0.2030167750035519, 0.2399508240576687, 0.21052056475966527, 0.013990564077879384, -0.31213489495469693, 0.0635470278083787, 0.06557209592818933, 0.13573201326409642, 0.049578434843048864, -0.155638868381148, 0.14837318208296, -0.1049531629611311, -0.09729556540906148, 0.39165109281731214, -0.0649987853383958, 0.22790859672257802, -0.12698157641933583, -0.18627891187408344, 0.20215029781293914, 0.013714277401567491, -0.18655971235332955, 0.024306031355099553, 0.2336254020171543, 0.3543392703023637, -0.016981153525430212, -0.10523406444601521, -0.0867613458173358, -0.10052842559095855, 0.19640052534013946, -0.04508607480831291, -0.062293642844761056, 0.21901608276673296, 0.3782116466121965, 0.03614860484616392, -0.11843985439311232, 0.1806709036191369, -0.008420344709922652, 0.10148031432602468, -0.07581844171280427, -0.15368467467445768, -0.04508178596075941, 0.08141299708796314, -0.3183536875195662, 0.017327617866234962, -0.10313652785986241, -0.062364344308682415, 0.013797444776231021, 0.15516715337651948, -0.30151184348728527, -0.11608592399003291, 0.335330638533432, -0.24852421342683345, 0.07899777445335679, -0.24242134003896693, 0.10556298254541902, 0.13506391331638956, -0.005805845521448956, -0.00833791571895601, -0.19289397709659523, 0.13507302515926, -0.053955749485152964, -0.051551736146861364, -0.20890859162209768, 0.04193583112082273, 0.2848436240488533, -0.06750780312668146, -0.18117854875344666, 0.23820118449374905], [-0.3037951325199554, -0.3440109007613784, -0.49512331748667715, -0.0857345843052585, 