{"name": "hl_4", "layers": [{"type": "input", "nodes": 784, "weights": [[2.7905789674017654, 2.6520024508035864, 2.744366204876101, 2.7095418917555425, 2.727183047790542, 2.7501369956861583, 2.6829643440790583, 2.6943926515647907, 2.7436326669875784, 2.67430411203923, 2.715614402063079, 2.6749738204669, 2.7254539539187337, 2.642979800960806, 2.607791577551158, 2.6979253320754766, 2.779332523540931, 2.7819712191386494, 2.7401218551652744, 2.693198328239951, 2.8022161997534494, 2.6817189748862735, 2.708675305764077, 2.7656341386609182, 2.7141178014830545, 2.748332734459978, 2.7122831341812454, 2.751950070591835, 2.786047688054445, 2.6765101801147746, 2.7344475594423225, 2.686020110851713, 2.7518209033223227, 2.80369433889738, 2.770725772877291, 2.714480182699672, 2.762482196071917, 2.754829615660542, 2.672806252773121, 2.576813584508555, 2.363652424440604, 2.396021536251338, 2.306024673472948, 2.9090137822299447, 2.7040039737011354, 2.2216124609437857, 2.9273471716555894, 2.7081784423141033, 2.6913477532946706, 3.3864312832396495, 3.085553914425711, 2.7042661615861383, 2.722202706336852, 2.7428934750255034, 2.6921512748386562, 2.7095906380271484, 2.687671400299394, 2.741518109282367, 2.7155492377512336, 2.8101989096048405, 2.468259393949875, 2.674008890403409, 2.684727524553218, 2.7580269522328478, 2.7677735685456772, 2.85110312630023, 2.972429965748903, 2.593765151314619, 1.318789709230235, -0.6936953031264373, 0.20535093292972967, 1.0197527087850031, -0.1581508822387283, 2.819164915287207, 6.945625681399877, 8.426266239426091, 5.713181687827395, 6.518924316626644, 4.5510502356727915, 3.6263195344420094, 3.0479171159532514, 2.5309300073478105, 2.6636504507960095, 2.690367862355504, 2.687235743147338, 2.689602336957447, 2.792078182757684, 2.551260643394784, 2.6815742357522967, 2.8493838302714782, 2.9156914147657234, 2.1791894093974786, 1.463800320678998, -1.1143051304131992, -2.6286193390851373, -4.057408415574101, -6.626484056500861, -3.8809750813728487, -0.6432090720927701, -2.2194528043997463, -1.3301370496134262, 3.6943967107715894, 9.92461847407725, 10.211005421616564, 5.424361762119028, 4.042168459901237, 3.600779158218932, 4.652799969616452, 2.9943398141780753, 2.3558506908979573, 2.6591378457216828, 2.692376723559898, 2.7401667454618086, 2.773066035925321, 2.7426490370473844, 2.6599719142749554, 2.686600729195352, 2.5854566571377697, 1.9819001874166446, 0.3518800740376532, -3.2024873513723704, -6.9902344639875915, -10.178710256774087, -9.256666450577416, -10.911428375171909, -10.926419861835983, -11.716909024625433, -5.8297396491371245, -4.115547055378753, 3.1128964273814157, 5.827922280878161, 4.831893016210062, 4.344621609041782, 4.795924934556014, 5.25093151468425, 6.731969945940641, 6.175226872770208, 3.596953597605157, 3.0412277979327125, 2.7364035450049546, 2.674381566779313, 2.730790449754051, 2.746750683590358, 2.803315171007294, 2.278680258758385, 1.3150823503470785, -2.1575621758957997, -6.0140682520376245, -10.339286856522914, -18.631879677589147, -16.238116493442256, -17.386537483928066, -19.396178888618866, -12.362370141387565, -7.405730872246976, -7.131877320037789, 1.5514736126695414, -3.5381077644316927, -0.032599998760761965, -1.0493175125057117, 5.955174106952954, 10.527477164772968, 11.863926172640731, 12.326148303368953, 9.991949188444462, 5.827449293606364, 4.000923493393539, 2.6238141633944854, 2.754405121251906, 2.725546063509823, 3.245499509154245, 2.898601093279249, 1.8331934065785556, -1.2877995495972698, -4.920432197671576, -10.055893190418418, -14.204203257315424, -18.568241900397062, -16.300427595214202, -17.833412432252615, -11.163917554209634, -3.591484767876773, -2.2260805633465686, -0.9516860293978532, -4.074678776839275, 1.1760659281957169, 6.827187470506806, 5.0090497813198605, 8.632549649331008, 14.294192442745882, 10.813646185660726, 13.320132809785513, 14.432395725115228, 8.006548707519071, 4.711593408276959, 2.6144797893874707, 2.7169549536950774, 3.1937048143126936, 3.3043835317894055, 3.244067650688159, -0.14436044982763133, -4.01737829214961, -8.50078384079904, -11.491919598032364, -10.815305440128805, -12.57335902962257, -17.01431714128563, -10.388590135520504, 2.9435902686955995, -4.536593556002853, -1.916687007648984, 4.220883584243557, 1.2077855545004361, 1.0407659420537656, 10.536579605716126, 4.59522863525482, 8.017285966861738, 13.645928550574546, 11.464906151022696, 13.761516672928638, 19.087023190083524, 13.049432078931215, 4.498427610964779, 2.586358873341433, 2.571324844608893, 3.0454759996994425, 2.4214298439948574, 3.2787136157473675, -0.8306553600880647, -7.822326540227227, -10.291905279161032, -10.838700352717451, -11.793968146702374, -14.382580749845237, -6.9629995920474785, -1.4986465449075388, 5.714335295660076, 4.264925260020801, 3.1681104491260434, 4.9491802645583896, 5.237333954418861, 3.0100303026765736, 3.2363438206562316, 2.922439599757121, 7.317505868327174, 9.153810730624588, 5.636073887244931, 7.101523764887724, 15.540401864481574, 11.478014778412074, 4.7077378445242415, 2.9496018005139946, 2.7032052295822147, 3.505384834408967, 1.9752839958193054, 3.7058969171850458, 1.1447245670676776, -6.062400588787918, -10.506176763935327, -11.289386365543596, -12.37522305901169, -9.665414857178181, -0.6062091485222959, -2.6931062846748204, 10.664898806669804, 9.125596899949691, 8.773284183748709, 8.659277070814657, 7.613070158562796, -4.233987919652003, -2.095236534748498, 4.522190858541341, 9.180601339097166, 3.444626518932083, -1.0227438996038336, 5.619761774611742, 13.277699230434553, 9.507280135772733, 5.414671993388189, 2.9266964623623606, 2.7350917666667702, 3.5856343872015124, 3.0144024016703175, 3.859796148598927, -1.771315481809874, -5.516469638418457, -8.834619202664104, -12.637174130076614, -12.02188968867134, -7.742630303805973, -6.539396607968667, -0.6238861667782699, 12.310035916547763, 15.60396747744981, 7.652595057876104, 5.605442649362142, 2.2400280642431167, 1.034819926749588, 0.07599312119912348, 1.03303287746452, 4.131943006665867, -3.047142391975239, -3.695714838240253, 4.548993560280906, 8.303291045182847, 7.510181399589224, 5.296372514062504, 2.9741704159466393, 2.7011153018097667, 3.431745778089504, 2.9899305787828316, 1.795940108730962, -2.0410725259741795, -4.809414956519462, -10.927091386290659, -15.217497639488927, -12.007161813367633, -7.2443412213498295, -4.698657264789525, -8.642316453595818, 3.683781592681856, 7.8638459318925555, -0.4645454423229693, 4.343120544315575, 0.38522771835252445, 0.3731228297771938, -5.512250489104193, 2.5114893246936374, 9.709079471297022, -0.8051561595366988, -5.469272721504948, 3.4285545173595686, 6.066799228210225, 5.442940132096289, 4.247862801345346, 2.794842221863103, 2.7367622635630107, 2.9788608672496437, 3.8282066409151447, 2.5086483035522513, -0.4551293901743401, -6.262565985676342, -14.085827847883548, -17.699196406624335, -11.477865113359782, -3.2955616509682737, -2.5090006828933946, -0.0429008082491413, 0.8416363508694145, -0.8000633561530671, 3.184428743199359, 9.568200919435219, -0.2680787945200336, -7.321529159228322, -2.0220943228884694, 2.3699061741184897, -3.2344114925125007, -11.686764379470828, -14.089050023857416, -3.8485967887145582, 2.43241226289615, 5.342508620635238, 3.827290075157332, 2.67716632738647, 2.778804466852432, 2.7767175932531565, 3.235399732120661, 3.1841623817935303, -0.5385065436127031, -11.37659217955822, -17.489306034515938, -9.536797389276634, -7.342064413722387, 0.18322030716241516, -1.5237153264650316, 5.720317474333819, 7.587749849885399, 5.080698027717633, 12.726458942629932, 7.5896103927955165, -0.8785812727515281, 0.4620701228789722, -0.07681392895435586, -1.0582187177580125, -6.821402728682165, -14.48559332302532, -15.111255228335901, -7.349033642352539, 0.6190663257736495, 4.905206120243242, 3.993384649558557, 2.9545855270639874, 2.7192163972784864, 2.761736769774191, 2.7949086316879304, 2.2134986174073887, -2.34505853539429, -12.749592043543847, -18.41569645002908, -15.310748338007995, -7.338520394930709, -1.748290730106249, 0.19570678517192724, 0.935100095900436, 0.16424817182684612, 4.836644659476465, 6.836161838322065, 6.894369917357706, 4.767918968131193, -3.29794284731166, 1.0913881563549261, 2.7481203920569452, -8.946691829088598, -14.526242037704437, -15.77025124130991, -9.889137343072331, -3.388951810961866, 1.5236823642613302, 3.853910577273647, 2.7960021523736844, 2.6920206007302228, 2.6834558890414457, 2.6612240253590382, 1.657358548062167, -2.2396588860717266, -11.617015595600233, -14.809955153856164, -9.529137037891896, -5.765384861657075, -3.7310900871440844, 3.7226837904337633, -1.1666991682817376, -1.1426785347448074, 8.494866965129662, 14.333590223979987, 8.514818475333346, 5.553744130958026, -3.331964387231257, -2.400447664888288, 1.5864735449543694, -17.30604375641009, -18.706794295677458, -17.54683253778727, -12.148714506902289, -3.2820565736708347, 1.6924210873913823, 3.847061357145371, 3.062982443290464, 2.7096800485231314, 2.7460783448532067, 2.4730512563288016, 2.700471525139675, 0.8443354659116633, -9.260616073622652, -13.182883735716292, -6.000470962343302, -2.754470296356433, -10.503743747607876, -3.224922220597421, 1.1825626878284834, 7.225185749240605, 10.83541120757896, 10.630404124886574, 11.938080150055129, 12.351937460517297, -7.831670809863414, -6.010596063463584, -9.990682294216594, -25.096967025512896, -25.787393889849326, -17.105000454041956, -9.293021178187724, -3.4352026009711443, 1.8688020023780811, 2.7489210480120887, 2.6658451885069767, 2.7320033177907193, 2.861792247285892, 2.1871678660515137, 3.9861939511307023, 0.7396031786767988, -8.755792112630504, -11.902816653144564, -8.200995299556814, -4.995712541519208, -8.94601720011462, -0.8318686238545988, 7.7037603182747345, 3.706733407084351, -0.23301161016528515, 12.85991316801952, 18.140603690472147, 8.188356978177543, -6.734638053258286, -0.6572140315676942, -19.229764770443175, -28.430662911665433, -17.983090931195772, -9.102310219813038, -6.696363765143495, -2.560812302221941, 1.0649122916143308, 2.26587152512624, 2.9606476325753612, 2.7596609166545885, 2.7518954443336088, 3.274245717299946, 4.641689848749877, 3.160366104917698, -0.5473536919865185, -5.341240715866165, -6.581310893385486, -5.715846892235025, -8.235433325263408, -6.747564083905833, 5.902362342291046, 6.235080975867138, 11.732186469957842, 10.248607847616618, 9.339338184337558, 9.804227454099056, -5.488171371973556, -10.028215538554674, -27.974695425500474, -24.237674641370937, -13.924955892152909, -9.055850656264928, -6.407210758476186, -1.9020014397666598, 0.40128461849396563, 2.125309498503026, 2.8566767327994937, 2.7583195899589605, 2.806555522778359, 4.672841628524113, 5.735196971820597, 5.210491360263227, 0.10900390713840151, -2.1058405834357936, 4.87172297587415, 4.685239258822772, -5.075974778826201, -8.879180726448128, 0.3888091804521873, 5.868915788148618, 6.147824428622328, 6.928137917588181, 3.9841899205741265, 6.143006671031174, -6.574182228791632, -23.72061226319179, -25.962772413176218, -21.488491673538643, -15.535905335768515, -8.603179164815437, -3.9630016730347783, 0.33020040728554517, 1.175992302431404, 2.542351998937245, 2.723626864257907, 2.764772221319943, 2.9362394108030094, 4.533075864319446, 6.954938321753333, 1.6538892891855552, -0.4040663049068416, -4.310994042034498, -0.9232600524641025, -0.7724576174962573, -1.6037142399278572, 0.8658526535658657, 0.7665559097215288, 7.179274572963081, 9.62924085369868, 9.86741465964312, 12.991643500262185, 4.118031201952166, -17.665853632871745, -23.430836040118354, -33.841613512934735, -27.200471427117265, -13.951697680150986, -7.256711747019692, -2.8738423021708184, 1.670140685611817, 2.787386929352726, 2.570171286585101, 2.746183958724577, 2.6679701372638873, 2.775737744492043, 4.189605373003674, 6.944704516720292, 1.4117524124592602, -2.1086907231205263, -4.457864951493862, -4.1050048264835715, -1.37888346054842, -3.8760792876431838, 1.9363800015341444, 5.396038242653144, 4.6406248485339585, 8.70879170112165, 3.025861270687773, 5.070456415632568, 0.27500462910868834, -19.180732483298158, -26.262219672666554, -33.79951004343051, -23.421037790597943, -13.053866325141277, -6.5592704252920635, -2.368020838603536, 1.1914329772911578, 2.268487651663426, 2.834653446006124, 2.7273311119640176, 2.743176754709148, 2.741345821975616, 3.7101809476338077, 3.6478092630493157, 5.035161477846017, 5.907572397218891, 1.5343574107523994, 4.179529062385407, 5.399845819415271, 0.9786956892568517, 4.518314814844959, 4.369759476766547, 6.7183335879793065, 8.233579479630501, 2.448246287844039, 7.767469733629613, -4.8383394502890065, -19.526374037518423, -21.96551446097436, -22.07546814885525, -15.237158754553782, -7.335392250254272, -3.980452075231226, -1.1046020293075123, 1.5921672793022188, 2.4354938204264935, 2.5822676093549184, 2.7380878394893373, 2.709354541429265, 2.6528246149647035, 3.1403499297683983, 2.634383294673219, 5.223855407817912, 7.536580761111006, 8.535351298321507, 8.047402656368236, 6.22947741378295, 10.45842999538379, 9.897180345202196, 7.108270671575997, 7.125007729189698, 11.465592802040488, 5.423096096737052, 2.5335955760977, -21.14252679870758, -17.799509326288668, -13.488720507893017, -11.026657671644067, -6.087974467434397, -1.1048841101756175, -0.4433631688614496, 1.310402491060506, 1.9568175865811854, 2.6258991948656236, 2.883354353884773, 2.709052953583219, 2.7130019320408985, 2.7373498621850465, 3.1132347221007186, 2.8418789002565825, 4.613146465934379, 7.2494833415599444, 12.750343890953394, 16.54590956609145, 15.440149092364036, 18.353250295246205, 18.00448521049873, 11.701821090059793, 14.053087070329573, 14.712727955822622, 5.234754528994589, -8.280499093808812, -16.415504164013427, -17.785224851982818, -13.35245440455143, -6.525906196964893, -1.9218853385987646, 1.4874754165612851, 2.807757131767952, 2.495575966318748, 2.510541107534672, 2.5878059687520953, 2.657876912738591, 2.7087159578368474, 2.7640857334679736, 2.7698677291703926, 2.7131961585084796, 2.850334407313752, 3.839289777816523, 5.227880984824125, 5.695998478880906, 11.095137114785496, 13.457323311508114, 11.656773241419867, 9.809638038892917, 7.435743421957508, 11.100033529679926, 10.589577246212732, 6.709984765734664, -4.324696667553565, -5.183158150137105, -6.795483755684228, -4.770307075592058, -2.6346448472628006, -0.37047630235909207, 2.3933209521871226, 2.8046807301092707, 2.7234022064952303, 2.684309340594887, 2.6351288050063615, 2.5867187386722565, 2.7237922234892022, 2.7194768138893086, 2.750434079078675, 2.746017708816734, 2.7049240362554463, 2.7977878612114133, 2.8777048442945588, 3.3968322124288144, 4.748941275926788, 5.921401103616828, 6.981029006615538, 6.855617451344599, 7.616054544755695, 10.603878670903343, 8.023088637181276, 8.031220247149834, 3.9418176767944284, 0.23126364949127187, 2.2068437956854936, 0.6132997779794206, -0.019703736230508313, 1.5229611980656748, 2.478207222393976, 2.710804871958669, 2.8637649499574205, 2.675158025177867, 2.768454492371155, 2.700704399690284, 2.75802853387878, 2.706117177761103, 2.694927077537215, 2.7305572103029125, 2.774777015822296, 2.7241973659470475, 2.6964200417261632, 2.7646304753458657, 2.9285693989577637, 3.4091247304709857, 3.817074903814144, 4.369135768090084, 4.169173512923464, 3.5445787944480283, 4.987049576164745, 6.9244555542708826, 4.881176504086412, 2.7934449622352964, 3.451104189988253, 3.3922456697999324, 3.0113987335433223, 2.9673798913342364, 2.7757022327718492, 2.7195959525656694, 2.7889390929713547, 2.674441694680047, 2.7596962238567726, 2.693679589599171, 2.706406376722468], [0.03646643166263715, 0.0973130594648661, 0.03559400293148683, 0.056454361513139026, 0.08830360151950047, 0.04505518974639863, 0.013025397162039105, 0.06149218974583493, 0.07013315869617263, 0.06777270351568852, 0.040238865010631626, 0.030505627271173376, 0.06922555370826554, -0.0032202734445610933, 0.05841762789094796, 0.038740564287274806, 0.027038736157623103, 0.00924113381310595, 0.047541759213446964, 0.10062238164359669, 0.017915200821768153, 0.047047565315554526, 0.10698428466005529, 0.05870080495864955, 0.08261306341073087, 0.04049323647331038, 0.030583520797848325, 0.09123753470072485, 0.0445489673002777, 0.04306236003258874, 0.09220906619202746, 0.05398745150238758, 0.0900880846453997, 0.044982792934608, 0.05870739844293683, 0.054339844145792765, 0.11716289150465341, 0.04019374606066316, 0.056683434594961946, 0.01528181463414275, 0.053212914645300126, 0.08495503053834728, 0.14488416393852374, 0.038275684767192904, 0.015924446862971973, 0.0961792813431157, 0.03149675227878545, 0.09380273101934807, 0.047998776443620494, 0.08169064811571211, 0.06071422437062838, 0.01152144020157441, 0.022356746943189607, -0.00016466326341168586, 0.04234902148751077, 0.0447002769941045, 0.007770730046964134, 0.10277016453950757, 0.011714299566542272, -0.019643734375709765, 0.0035778781269302147, 0.09666695820282482, 0.09701575356370765, 0.008403045789390863, 0.0016430746227618347, 0.04644982227799209, 0.027879208413558232, 0.061067062379722196, -0.06866159246618732, -0.05125792902295215, 0.051731751670967406, 0.08876659216838079, 0.053693212299549826, 0.09774846770425871, 0.09134415459216974, -0.0036989246716652045, 0.12697503880912656, 0.04168214321024749, -0.010107099285695587, 0.09371162044539853, 0.0912892009939734, 0.05156003383548072, 0.049555250198445554, 0.00896787522764124, 0.0369702501423167, 0.12456462468059325, 0.06182870162523261, -0.005300306847887969, 0.04186348856019063, 0.06780458435610699, 0.042463531265519806, 0.07946804606246151, 0.04350821469313991, 0.13482831387157965, 0.04875972951718621, -0.12025827532048068, -0.06300440254543145, 0.1346913925127679, 0.12336791853494981, -0.06517438787843098, -0.09009605836306214, -0.01795346749874621, 0.049252099650972214, 0.05584949226834258, 0.07512650983725395, 0.016488079696976597, 0.041562781887011464, 0.09300341558438237, 0.02877703385828466, 0.10045540850332309, 0.012884774637815368, 0.10104325184955368, 0.08309894520970498, 0.09953972651538845, 0.032013650098666364, 0.08436819035209304, 0.06221307725528669, -0.01874590263367104, 0.05107258024163504, 0.026103593381763063, 0.022464008773635392, -0.04397353329015411, 2.7798575019266734, 3.76745708245699, 3.8999987074100835, 2.0182497938193134, 0.07931428643376902, -0.042227187037303264, -0.178930634614436, -0.024529510090735715, -0.05023699982679339, 0.06557846376440894, -0.024764897952671026, 0.07558873494623461, 0.09057563927511568, 0.11036626039879131, 0.06349932138396838, 0.03148664450679179, 0.05496049796397717, 0.08357876855696562, 0.015804517074424936, 0.05978375303515554, 0.04884373403819701, 0.0531194244480246, -0.034783328758823714, 0.07223267400175074, -0.0060540965544166915, -0.008844525177168348, -0.03876408690855622, 0.8514360070790331, 3.8572998978936717, 4.148854638169507, 4.154366291699492, 4.241357256239783, 4.2655403904241, 1.159215060884312, 0.11879228867889836, -0.027207853584829887, -0.015504055022625661, -0.026364431167410687, -0.11469558686024851, -0.11182642560934693, 0.047807434549948326, 0.15093019097250532, 0.12380306028116957, 0.11008626940805939, 0.0351377670567433, 0.12465767233699025, 0.05758490933950746, 0.11766408711950017, 0.06553581827453872, 0.01265352056614066, 0.0825268313891963, 0.04860682057421447, -0.09061531878895197, 0.023034969917232077, -0.20099650682092104, 2.767122469016203, 3.953317572130387, 4.191173108351513, 4.408441896287165, 4.390299713360871, 4.416762203570745, 4.365416949791494, 2.288082830485582, 0.01933626790347363, -0.001391604378635786, 0.04926707076301785, -0.08530280411823633, -0.023042806000046413, 0.0885482085483355, 0.26436770579088326, 0.06366030439592262, -0.04135729014253997, 0.05945760912604025, 0.06999264727544835, 0.0654484276423441, 0.05170185527211331, 0.004279622171469672, 0.0378202196462678, 0.04585491973644593, 0.0009424856127578621, -0.12466857301385718, -0.15321092680331969, 2.7559816164836026, 3.94249151647614, 4.007011631426042, 4.014430533422238, 3.277869520998509, 2.279400536398051, 4.172961769461935, 4.2848173842872095, 4.310422283895587, 3.130322080055195, 1.137582248248053, 0.01200427106660621, -0.03029636910941679, 0.13420993833943606, 0.21769224955653257, 0.3657050980400896, 0.15430200475387004, 0.07203257283229167, 0.023954497143225457, 0.018281533097910377, 0.06427978482810001, 0.08928746346828377, 0.018952723056287566, 0.03546449285076139, 0.04611895657219, 0.018302620281723327, -0.057873672200157, 2.0704702497952336, 3.8671795501120014, 3.8244157259984335, 3.0614937399059716, 2.2192982808687005, 0.3749718558226427, 0.6856882045838569, 1.4654409909591586, 2.47361315740135, 4.408010916075192, 4.060080739943792, 4.205838510443371, 1.1296045193882323, 0.06350713958782002, 0.33402958577681263, 0.3567875262680274, 0.28424010037862446, 0.2695586034461357, 0.1711362745565938, 0.0929687112042601, 0.04050235344102621, 0.06925116236633368, 0.044191731586737955, -0.0008275118424073929, 0.0350498364498868, -0.0027342060515760567, -0.18658802962773302, 0.7932686321939867, 2.899340245300095, 3.9697455662442844, 3.038980062447616, 0.38275057868466833, 0.2631750477446437, 0.5853308868921321, 0.7057782084254798, 0.6958990296830202, 0.6539942836182903, 0.36061884349973655, 4.3474095750514525, 4.279004574391467, 4.159596920867962, 0.14873289606531945, 0.25812119994137783, 0.3667208138124018, 0.25257846485038665, 0.10737728890464092, 0.11779287895162101, 0.03203727881583494, 0.07097164514226466, 0.0583933357373029, 0.08319952436012679, 0.07181210528022407, 0.07264033976696344, 0.03841184313261908, -0.09522447558237455, 1.864878709413157, 3.9256556214938185, 4.101676469249298, 1.6036253425795841, 0.7999482808359177, 0.4461163284149143, 0.39283973839270236, 0.6739513142913445, 0.655707433420525, 0.6008654696814429, 0.34544087683590935, 0.09102712040428093, 3.183364623875283, 4.059851427050556, 4.128885118210309, 0.9771227628558654, -0.03676436281809164, 0.11115351624021402, 0.08377432342711498, 0.011851442030547742, 0.012223900640641836, 0.024280800692042817, 0.05172268289581446, 0.08226388378031117, 0.09896536643311293, 0.06683335256951504, -0.11435909789269147, -0.047436634356522, 3.904360350927878, 4.042058920418379, 2.545288635283564, 0.7198905790422023, 0.7504591296964623, 0.5004847337719817, 0.4632690702199931, 0.5297134315329186, 0.5223474308444559, 0.39544464067167556, 0.18061471541657925, 0.024818964899344754, 1.1944980811150792, 4.434482344351105, 4.1005135049017, 3.0777455634454465, -0.18025647527396735, -0.03776916854600141, 0.046424887639623755, 0.09045984986073645, 0.025420107726192312, 0.020785836515926283, 0.062273880631865355, 0.04931884996879112, 0.049226877452875024, 0.10384379782037857, -0.08389698845104387, 2.04686713199956, 4.0483512509682456, 4.1131190003971625, 1.4661382973435122, 0.7863526596023233, 0.6695596304166207, 0.5752148039224405, 0.3632945380796045, 0.20185278664059292, 0.4961939564650514, 0.4910555881373842, 0.30899384466917257, 0.33558256186633134, 0.409099681047104, 2.5876191213520086, 4.635715639128613, 4.243425103628069, 3.1769493587212647, -0.05438687479958107, -0.022821786460525652, 0.02675184982230803, 0.034482345463546886, 0.07467974164597607, 0.035471446264005474, 0.05223723308796242, 0.05085058129423042, 0.08196033315038077, -0.03521463346262184, 4.090675843301271, 4.124733002007503, 4.057241758101912, 0.31770334833924796, 0.4127366796167244, 0.40978402601374325, 0.39393781292211694, 0.1890128892312656, 0.08824032226266221, 0.49082470048999155, 0.5819051081409453, 0.48967829281695857, 0.34269796029630384, 0.44682696186534665, 0.5942063505591277, 4.713595795978523, 4.28596604474938, 4.197101388316902, 1.1005451384460245, -0.035113279706743744, 0.05022628173394939, -0.026314580761387228, 0.021843809186389642, 0.0472503407206599, 0.12988097253496883, 0.008027054908413156, 0.05529233289130331, 0.00015406319883070268, 4.062422935180566, 4.210254460068017, 3.2270415652699156, 0.3204817637578619, 0.22742907278043803, 0.12935155363692852, 0.264208169655924, 0.3133752868190072, 0.49977552085604215, 0.5443651689012139, 0.5905298362004384, 0.45245856741123874, 0.17020382810845733, 0.5041745373830518, 0.6444101577806463, 0.6834074262503259, 3.437064565726093, 4.1636746837663425, 3.0986579905966285, -0.01690688780976116, -0.01739749738389141, 0.020367770482836625, -0.0061183030823819436, 0.05787829900345363, 0.08808844644487102, 0.08942809967537878, 0.05913635028140365, -0.02275976369805411, 4.07773906023214, 4.051731962076535, 2.2282941501993294, 0.4213591142375789, 0.31964459392009936, 0.2983133762004507, 0.5258075567394596, 0.5830761837785564, 0.5170561054345373, 0.6814898798605866, 0.5772560048903725, 0.34297426080679655, 0.34477134382186686, 0.4173609317439118, 0.7136105879806625, 0.43842826335967733, 2.300961652647653, 4.313170819929738, 4.073835492816906, 2.023511612069255, 0.0787116916034989, 0.03071616529365403, 0.08831173834629133, 0.02801774426442415, -0.011396770097191554, 0.1257483011739699, 0.015157296540758564, 0.11287446111061987, 4.081447315041311, 4.121333936114392, 4.068706804180756, 0.28674530829778494, 0.38195773638387875, 0.24029140903548787, 0.3990529357240711, 0.4130929033803445, 0.6059373405042277, 0.9006053020440026, 0.9504495505330804, 0.5510618143550747, 0.3553510756866431, 0.32798008601056516, 0.34869084045913706, 0.3628423850033592, 0.3351333285883898, 4.004572141533578, 3.7224674178187604, 1.8624787900327582, -0.10360062648972591, 0.026612344546970805, 0.043883966550366665, 0.061256833868889055, 0.02781293778896743, 0.04173680258094082, -0.020318038579826697, 0.2169292294737066, 4.097233468965259, 4.07859747057218, 4.018646414646285, 0.14288472773748578, 0.37905156979521754, 0.3732939000419337, 0.19747511806842422, 0.18900875178063326, 0.3935174551637938, 0.815405250756661, 0.876857097559847, 0.6745593168260887, 0.22792378528217666, 0.1987215247890612, -0.013423685544701825, 0.3340649065693585, 0.14717430291789046, 1.7553447136263614, 3.8282066422099645, 1.9006770639921469, -0.07555903953011113, 0.05231143496259525, 0.05541369397031457, 0.07604350753379163, 0.061920225679654946, 0.09700378614475832, 0.005779113808314255, 0.19240764636332913, 2.287619347959407, 3.93908960821019, 3.8663121893575156, 0.0043180709511849115, 0.11135349999206182, 0.15095621827492092, 0.16395254432701978, 0.32326975911288697, 0.4526970350216295, 0.6512340722209028, 0.5366623318810878, 0.4732795005622058, 0.291016839747792, 0.23449716050816602, 0.026527439739489476, -0.06151904042605165, -0.07203617175489178, 1.7191463702979257, 3.8614642755383644, 2.062936855184752, 0.05355948353760014, 0.013000212600981303, 0.03107338788159668, 0.09383885220571124, 0.06408611129944303, 0.0569558265363029, 0.06974853041331254, 0.22747613273718817, 1.2465893817388929, 4.049710325777774, 3.7380290605708932, 2.843075004739947, -0.03255049314289427, -0.01490029400115538, 0.1671683643289853, 0.3226741483026267, 0.3486015801435426, 0.353839907836257, 0.3121349351013573, 0.2296373152208408, 0.28865307976844967, 0.019184978501956135, -0.25938297082791373, -0.18086024559402386, 1.7304260262068063, 3.8182399435832326, 4.0666696788742005, 1.036998442963142, 0.053668879026491874, 0.021462574681735794, -0.020426449752886912, 0.03417162589281965, 0.041798436930519364, 0.08964737848140264, 0.03477914315925176, 0.09759896823940001, 0.169062170035699, 3.04355442605953, 4.046108139922889, 3.944368182943818, 1.8647591807736852, -0.09259177962578095, 0.04947585262175043, 0.11008637043929319, 0.2453446273701082, 0.4316724300486363, 0.11198891059529213, -0.08087143171033506, -0.03324457501058419, -0.18766293834502368, 0.8221313631098547, 3.6413309219598493, 3.7884462383119013, 3.85451081500194, 0.9923534630995117, 0.05678410127330736, 0.014603648414671475, 0.06628162825611424, 0.05206915447156631, 0.09342057017873605, 0.03561999592013536, 0.016960971626926544, 0.04731100559911245, 0.07334400211642639, 0.18148061400946794, 1.1298574501940652, 4.3135855589090815, 4.412253795151663, 4.3976095334101375, 4.273952930183412, 2.027168416460948, 1.0728740021080447, 0.023868403660777925, -0.12682220672686412, -0.21504602032944056, 1.6743048264861273, 1.7877540780236807, 3.7990735706694636, 3.8267450320330005, 3.8936691393003215, 3.962258824414743, 3.0333749109750343, -0.055718161091476884, 0.0800933892401922, 0.08541961828511895, 0.006192197908498214, 0.05100936353844205, 0.05371696885939242, 0.027872937896205686, 0.033431182444010415, 0.12236207948476889, 0.053201646544440456, 0.047397762008407694, 0.1369365464712068, 0.20664520370577308, 2.309210291855852, 4.498222154705114, 4.587284931611648, 4.483529868847603, 4.14487752210776, 3.948191422137339, 3.8846441544765216, 3.849390837379343, 3.9746312358489666, 3.974619014211041, 4.117937774356917, 4.133623655454743, 2.043063843381326, 1.0278061813820638, 0.023398518929433315, 0.045543330450610646, -0.010873406072459825, -0.000696257067962554, 0.08414660276118471, 0.04879901689115051, 0.013179648721211697, 0.06967510590216426, 0.027480689113022164, 0.08734944336394962, -0.0028909534081106246, -0.03940600183283656, -0.13580668812341015, 0.022913758526403927, 0.07416555499730954, 1.1731813825179407, 3.4015111523600337, 4.5740441131335565, 4.452240134311638, 4.301861942303536, 4.309458077891428, 4.193845998741999, 4.395038670320022, 2.2532124970118983, 1.3279675772698976, 0.28288852268873454, 0.1714023065282399, 0.07704451453835594, 0.12572048643502612, 0.040494241099867496, 0.0726265369542776, 0.03595022052508602, 0.07517158959385761, 0.08594128819588734, 0.08787489509823629, 0.02160951011122951, 0.057412967819241864, 0.07278726595581524, -0.06352320884600175, -0.1468472360094691, -0.09701452689626285, -0.15738647880448728, -0.022566922499009164, 0.18524132924763786, 0.2753936834597306, 0.40221781163079345, 0.4009469805682547, 0.4054464676600114, 0.5175777445503095, 0.5970084747739173, 0.42273293001800927, 0.4294122682032084, 0.28037778274050207, 0.16885583778426053, 0.1378874360238183, 0.03840937286914992, 0.05110049859063085, 0.05559410323248046, 0.05850793615975081, 0.044849518916333576, 0.00553319688285828, 0.05743412891617039, 0.07387435412155133, 0.034747078784185315, 0.044724765662733264, 0.1096013742805982, 0.008005118434720487, 0.11548345372569195, 0.05560162374251139, 0.10229245840609195, 0.08334074326805048, 0.09803309348579543, 0.1464486206445217, 0.10205040644680749, 0.15233760603838412, 0.08713247913330607, -0.11582772218385919, 0.03951506899798541, 0.09612037494460084, 0.08593389161773678, 0.10059964381007067, 0.11532209115767543, 0.09415575099291133, 0.04837958027154809, -0.0023795383418142176, 0.0442498730348703, 0.07808357695018016, 0.04906484535368281, 0.0113183387197302, 0.0052745113645185394, 0.028873907875241016, 0.03559159408516064, 0.08659832719411165, 0.09136320536491817, 0.06159844266267011, 0.06986622859827717, 0.03741738052063202, 0.05674201772070658, 0.0610826332102707, 0.06771064012520456, 0.10376059273936315, 0.09104537662163546, 0.11426769589436926, 0.047983793874958186, -0.022605418891925487, -0.07841836230396514, -0.0431540536064922, 0.040920492860623284, 0.06594130760022256, 0.06555984040560625, 0.09941896592304383, 0.010547572604905128, 0.07627098430349182, 0.005741795146406121, 0.07399544892556735, 0.05402517148415368, 0.057619540715971584, 0.013254455582519538, 0.06050405100541795, 0.10181445226440505, 0.07875068236214806, 0.017382713542845457, 0.06144513907703506, 0.08994730141094968, 0.004210058032400311, 0.06214587449171575, 0.03049562600805012, 0.040678710955554094, 0.056842421776522406, 0.05385106144698775, 0.06413348174064415, 0.1215444613112621, 0.08584416088853607, 0.08201476305277185, 0.05145207515345594, 0.052511311329164, 0.08534290242006426, 0.05498713274907826, 0.10043885074524538, 0.0025209309918572177, 0.07246949915564206, 0.021602941914481217, 0.07403251398099193, 0.048105698211665736, 0.06892548099126487, 0.06271974080753996], [2.8676153089257586, 2.8945192502519337, 2.89908256861258, 2.9567056807073024, 2.9184984455508687, 2.8637160483936652, 2.935216032038105, 2.960645863000245, 2.926233072097907, 2.8881956696656097, 2.8953528287136905, 2.973390653444655, 2.931996077023843, 2.969757492807453, 2.85070160412109, 2.916690125874796, 2.9017232164721785, 2.963004018321585, 2.8992883676655268, 2.9380893125749283, 2.941224841191425, 2.862396216957851, 2.9215202402383103, 2.941390238260503, 2.9087746586523915, 2.9046043871263363, 2.9375427241774856, 2.9886269519483264, 2.863412899134591, 2.9112553466409015, 2.9236152955916177, 2.9699150896841644, 2.9189481314079178, 2.9758848679372765, 2.968068532091097, 2.862643146733541, 2.763390071034295, 2.384058097521871, 3.107651374552847, 3.609726423185143, 3.901648086878409, 4.454406361383191, 4.460215887622473, 3.7268661792458406, 3.0011072267092054, 2.832854093543449, 3.272255819300972, 3.388550775457318, 4.081943064099561, 3.051608781218441, 2.9244989825544794, 2.9488547337879227, 2.896972978242255, 3.0020338253827887, 2.910575096521831, 2.8470317413666244, 2.9443372825672993, 2.928576846488961, 2.73553342722599, 2.9646705594405818, 3.084422812821309, 2.8769778656096427, 2.917814367324076, 3.6169061725174867, 2.353042098284425, 2.657378566548709, 1.7115579988361755, 2.4082852187863235, 6.15416730687584, 8.312758794223386, 7.600531130318819, 3.0658523306983323, 4.020698213753705, 2.333362216853612, 6.761737568427684, 5.1734583753081, 3.672690031237586, 1.022004751575743, 1.9900994565455445, 1.9552421284264443, 2.5123411555906245, 2.9500396221948186, 2.8840340912641267, 2.9561671258363393, 2.920401490687757, 2.8720484503193404, 2.5074977342974343, 3.0501376791788957, 2.8847914464904445, 2.9419701689485818, 3.457014068712408, 4.383700179425473, 2.815935974464418, 4.121525194542971, 3.4587778323325877, 4.995614452359673, 8.068582021799699, 4.137185921713158, 8.839048954540907, 7.493843063981326, 4.613417971410797, 5.2304644822903725, 5.151915282151086, 3.711946262184617, 5.2302824236150105, 3.1181696220912403, 2.185020173584723, 1.8061950459257854, 2.386185410202529, 2.778207100677358, 2.9199234723832186, 2.9582548710057477, 2.9153535620926005, 2.9296263392265356, 2.874233312152956, 3.087873659999241, 3.093091851095232, 4.823249383447528, 6.721169231430306, 7.4108876198132085, 7.182616621636158, 7.659461522984556, 10.867616654395416, 12.182958623308952, 8.265071793428243, 9.056525654931455, 11.468338820671796, 11.885900736820027, 4.730998238290345, 1.8399541733834992, 3.684695858440715, -3.746324918063914, -1.396299353972456, 1.8742500287362183, -0.1580225814621983, -1.5294691437674732, 0.11774662666456064, 1.9055983361861528, 2.618936328739067, 2.950502605351007, 2.855161925327595, 2.91402620366022, 3.0222234404666617, 3.1130238252225793, 3.875039180287313, 7.232555539364426, 11.369561808137544, 13.064152127333003, 10.432311276903642, 11.35619499697878, 8.961313725576018, 7.3378104255180885, 13.200642591169329, 9.987182226101305, 12.211416503034657, 10.89449391571323, 6.983698563434107, -0.2153491025400685, -0.3251015575565868, -5.873422661090262, -8.21892972452193, -1.168084716161431, -7.999131298273521, -8.57236415343256, -3.5300231454199493, 2.1642855431015033, 2.7796878368137548, 3.062382633583253, 2.93387352702711, 2.9375330133457838, 3.0688654606620287, 3.006345500575919, 2.943573858286103, 6.797576503037251, 10.658571494156009, 7.815840368085887, 10.779752006068637, 11.029621128097114, 9.600506492029583, 8.87511040165138, 2.7764641165045068, 5.114637942445098, 2.8259050643883183, 3.598117875369288, 1.4120870159390284, 3.2126370102343884, -4.439569356985257, -5.812960553408762, -12.997871927936858, -13.02637980977666, -15.943399586497097, -12.57417485160714, -7.2936898414650075, -0.8769412261466538, 1.4141562030239059, 2.841378781895573, 2.858938561538549, 3.1236019178785956, 3.2785987774049827, 4.156900945499444, 4.594072193979337, 7.460835919419332, 8.639955043428593, 2.4546281170572564, 8.26062154240836, 7.67231997668749, 5.862098977249143, -0.3470093936794701, -3.4614054974398916, 1.9354086206848626, -0.21766665985513103, -2.9974707070693936, -6.088991901947055, -4.888663293198914, -9.426801665388329, -9.758709798439977, -20.453690524328916, -28.06290949397891, -26.141291085833668, -15.50524162960915, -7.890427673891039, -2.003071838381942, 1.7619758792364402, 2.95882616402667, 2.9621165591680496, 2.9238170269379733, 4.424589731078863, 4.692084027873895, 6.32338440203661, 6.970701336577419, 6.402714372114046, 3.884325163899657, 6.630766561466913, 3.1215099986429005, 8.908446215019035, -1.6506529077044176, -1.878058870850048, -1.1259394247951244, -4.7597279494227696, -0.3014724127690956, 1.843772922642337, -0.46894028364951235, -0.055972660589389295, -13.802150456136339, -23.517700328536584, -31.159505459700437, -26.595120113713197, -14.497434743665462, -5.859035032873031, -1.3119910004635182, 1.7826094753566308, 2.5130270234804786, 3.197842999641052, 3.2974382001667637, 4.405799976968087, 5.578430996125367, 4.210726197737177, 3.0022824687595397, 2.3674718813815328, 1.9782128022417498, 0.3529756529995033, -3.0352639617025154, -2.440402276710113, -4.105918251098874, -4.915541404958854, -3.205336510806362, -3.504265221911412, 1.4796481368417655, 4.684446231788546, 3.067063372665331, 9.442403774634533, -7.1459581639082845, -30.740047624972778, -30.963764054312968, -20.20304584885832, -11.529605789645988, -4.651310037388696, -2.504220308380372, 1.6553539025010406, 3.1587761782354686, 3.143265383513149, 3.6705532746181064, 3.7728519957241873, 3.906004451063258, 0.33985589298140056, -1.107537573612049, -2.811883895710293, -1.6089546656394207, -3.773692604496502, -3.352127013674188, -4.032914299910949, -0.23272246639676517, -2.4741000919262803, -0.9297940425117478, 1.7422087070026133, 6.3237103309828715, 6.32153769867904, 5.162248384813286, 11.174863332601818, -8.691532935721115, -30.644135907137034, -24.276986195986204, -18.320456528499847, -10.902819941501544, -3.322758806987246, 1.22624612177535, 3.3376091128944556, 3.0366971078840486, 3.126405425984823, 3.4310274669167984, 2.6070618859738444, 2.3111893836585717, -1.8061186747608557, -7.588879264134665, -8.752530253760913, -10.47838966612176, -9.128046100147467, -6.727190011521732, -9.09180722968646, -5.376150418567581, -3.8365727972198207, 3.8881396028891695, 10.069194900017521, 12.770041642836745, 5.567022776962626, 7.717787099245575, 4.816849309433351, -10.09841914800888, -30.12186975360099, -23.346472096907245, -17.855359003761063, -8.739914864463293, -0.20799209138260458, 3.4591068806099945, 2.5376722881717715, 2.9689840016218483, 3.1293388399352153, 3.067976740784873, 2.778097699517082, 1.518253549001804, -2.9913052684430617, -9.16255918190664, -10.872816646514412, -8.981221686286487, -8.451659631763563, -10.225145720675421, -3.738283508736369, 0.49139384714531825, 3.0492819273148117, 6.969786934103606, 13.06534904699341, 12.826266647325069, 8.366230005848594, 8.180314413444364, -3.9800038467504413, -14.896271413688401, -19.339165955651772, -17.936578946851377, -14.508978229676707, -8.636788316066257, -0.6989280869325553, 2.124058014923294, 2.984206208314225, 2.9824769877181216, 2.9060228246801527, 2.4691458527241927, 2.973468464939874, 2.374152974595398, -3.1469486806849036, -9.275602837687812, -11.943646046571427, -11.710131268148027, -14.139680880677068, -10.56786686411341, -4.558201447307939, 1.2507127179199893, 3.6007738691783286, 6.220075307581601, 17.28897795977358, 8.749860358565899, 6.672181850554134, 3.982010382753334, -0.33340531022992287, -13.066290157140317, -16.360581313365067, -15.133385895117168, -16.51313906013044, -12.095524825520684, -0.1818628833592729, 3.6322032195310445, 3.917503787321449, 3.5021138070874036, 2.9898198467114527, 2.796009510442002, 2.4805483063443643, 2.3996421615461903, -3.5093890851957323, -11.51609960034767, -15.471018510360985, -18.19520202776713, -19.070767412339855, 1.5036522414774387, 3.4552250906384265, 5.843554095099388, 7.226082016966396, 9.562355780986667, 7.762865544054797, 6.23505593642424, 6.06554095252457, 3.087090133784113, 3.2402328569851417, -2.64657914562805, -6.351373962405385, -11.021362043120561, -14.082465998809113, -14.992565012659911, -2.3883260884835034, 2.305844039852342, 4.65808602605037, 2.925472089780916, 2.9354815259617553, 2.9106768532679244, 2.2180718506944626, 1.1167635576138504, -3.8068938610691974, -12.155680896368409, -20.126882690116627, -24.11009772364697, -14.138784421081747, 7.417282224362992, 2.8732247716210755, -5.063685336519866, 2.3648652650706827, 5.347318098326958, 8.880461868319722, 5.703511887310547, 0.16191802956331633, -1.237443657967866, 4.341183859575349, -1.0347545677512058, -5.4744149300800125, 0.051154981346132604, -13.647944618044702, -10.79221679402645, -2.1984969206953813, 4.1517646696618264, 4.472012810443609, 2.9927944820654258, 2.989065492837989, 2.8782528223209027, 2.3054305494217937, 0.6717837335596957, -2.219832131890869, -11.032536108791465, -18.244694750399113, -28.412883653494514, -14.708325226572398, 4.536990844237727, -1.3725395399684632, -2.322916453501181, 1.2809981284962313, 9.657985580521848, 9.057066983668644, 5.659085373735292, -0.43619752186978666, 2.7094521763122765, 0.5368215300573088, 5.9709556294126545, 0.3770274921813934, 3.5370107958539365, -5.025905095528402, -3.633068038592712, 2.4140381630737573, 5.997974028389009, 4.693065331060055, 2.867598440171565, 2.9047877547434657, 3.134821715962926, 2.461469974027559, 1.1565171806029502, -5.687196069415106, -13.81875532783667, -10.462629099720775, -22.771899744716904, -18.441465373201527, 0.8680821451586777, 2.8100050523481395, 0.7218941909274316, 0.43569068394996435, 6.149124866886467, 2.7231986430697965, 1.2202068840363762, -4.428977755674904, -0.0207221127178061, 0.8455764603683499, 7.4167406329604635, 5.70420364048421, 0.79741659583983, -3.353260014061787, 3.025065866936699, 6.532709435659582, 5.460147042144944, 3.4415278722124105, 3.0621356997288443, 2.9495728039276856, 2.984682335999425, 2.109179910297318, -0.14033717417507144, -9.769667596661117, -16.816215153209246, -10.17512063704053, -13.127759211121397, -21.149982080481013, 1.6711344836503446, 8.424509804710327, 5.236634023253661, 6.169453578543475, 10.057202372617246, 0.22779699509830317, -2.243142841831744, -4.438835940404752, -3.5254793134453357, 2.8372167359519684, 4.271391174411442, 3.4243041843016044, -2.021134786185574, 1.429168106146202, 6.518538853404792, 8.660709093112123, 10.068484602444606, 3.3325929835939383, 2.903612712443147, 2.9603619511161288, 3.1269145390023683, 2.928098674523283, 0.21062112854554307, -13.937432109338234, -19.048132198551258, -13.426139230356219, -15.535579470109317, -17.146639498742243, 4.126612496236159, 13.180246411539683, 8.410916634856212, 3.423304559098218, -0.6236189941383764, -1.653161007962112, -4.073476901372062, -7.3434047490438825, -1.6849839736375796, 6.261676229887152, 3.598987633841957, 2.8083066300619994, -3.984153495661346, 4.967955095077355, 6.501478041809946, 11.363882494845953, 8.477806791679372, 3.6319240487769, 2.9644684040443394, 2.893215411904296, 3.290283668552246, 3.771408748847377, 1.1342075165131984, -14.789641805370305, -19.856010978159457, -19.528827445778045, -17.41335844903836, -13.317803167542989, -7.731907066979991, -0.5271132643691442, 4.253223852283722, -1.120342645451338, 2.7563082309256868, 2.060044901826737, -0.13825619360072047, 1.1997948824628615, 7.456398633393161, 6.25231357062988, 5.143296891644353, 3.2367440887009367, 2.6191768755323372, 5.33230610050859, 9.733939204614243, 9.042219760298883, 5.094766122281965, 2.95795280025712, 2.8699775240598013, 2.861292395036073, 3.308160800722674, 3.5830959419911075, -0.16857343389037985, -9.959595957109789, -13.330446195473272, -17.587469191663658, -9.078172348048003, -4.877443833659233, -7.711143147879045, -3.4668363328319587, -5.100155845191349, -4.446475234016134, -1.3005408490568509, -0.9958421246946544, 1.5585149015859645, 3.1879037438264883, 9.093455632873024, 4.387738579292371, 6.936119477374101, 5.363358894330207, 2.724909049372802, 4.285332203826326, 5.581254808160477, 5.556910409511514, 3.5483341798138786, 2.769787867025477, 2.8905500481432895, 2.8887459844506473, 2.84736007041145, 2.737182052246871, 1.8215355566349587, -4.5920657707576416, -7.463577928799251, -11.982542656777547, -5.936245464315467, -8.821436803054445, -5.5210726929036245, 3.2898004697930032, 2.8310195197549683, -1.2229217914124182, -2.6478660071511606, 0.051028700223765974, 5.763819841991909, 11.934004147763615, 10.279494435705375, 9.47313567103908, 4.406886952976221, 2.9351938296657147, 4.972732240289989, 0.8848679595932716, 4.0790699461510656, 3.6667693603550946, 3.4821434794915405, 2.6712228789829613, 2.916455696995845, 2.88585397215952, 2.9318274722500144, 2.4375964826768524, 1.7339169282636782, -2.3778878245959776, -5.57209695687066, -6.456645054638024, -3.333864873867809, -2.52573645722625, -7.109916760571707, -4.2587151141000685, 7.566236449359372, 5.799152193346516, -0.5451742564232737, 2.0379937841424227, 3.666692498491572, 15.789965366585617, 14.566948070535645, 7.692809868729603, 5.610304956590493, 6.786656559269915, 4.5647081493712625, 3.9467549459777094, 3.523306857441752, 3.19190870805237, 3.3074825946000086, 2.9465981864584743, 3.0144744286632728, 2.9458065518243526, 2.9116768757775056, 2.713275800297561, 3.1446516024102142, 2.729503955388762, 0.21584227969491537, -2.851029674827853, -3.848361636633944, -3.5361265699358087, -3.5422736955562657, -11.248636904022222, -5.069092814391488, -4.040567222756605, 2.008249252009757, 10.196344110669948, 12.054576193565932, 17.532222038955368, 17.359530876615704, 9.405945988597507, 2.876915148578688, 3.6376685232648343, 3.4275892092336173, 3.1784744266668428, 3.370846022672787, 3.604539638361667, 3.3728496209662717, 2.869756727038993, 2.896215897687849, 2.938610303200635, 2.8889017442652607, 2.916613684754179, 3.0349429637090823, 2.8807584330509517, 2.3657618080967993, 1.839301586264075, 1.9809820468937909, 0.20473254492756918, -3.7244538221055055, -8.263170681578792, -4.459754686211009, -0.944431490764967, 2.6399123027978013, 8.07242760524263, 11.385491812931216, 16.846916435347243, 11.833653704648533, 9.31510331520598, 5.381403599295419, 3.4379576343723013, 2.823591827454816, 3.069830182603132, 3.2022821061351507, 2.9798978367944926, 2.908828082523314, 2.9352856830979244, 2.87482099578284, 2.885651306634596, 2.953312395575299, 2.9170206361050797, 2.8714102694257146, 2.897896205600123, 2.976656575463821, 3.266262871116076, 3.1101284782355507, 3.1821409773208065, 2.1903997300586884, 0.6863226126784467, 3.6179654439293603, 6.695710096322448, 8.739961286215587, 11.170471887834728, 10.613644976750889, 9.615557991659331, 10.086730991230251, 8.245317755346564, 4.519381356219465, 3.2557894990221676, 2.674144615818637, 2.9760791738161556, 2.832371127882226, 2.874444974796048, 2.9738917258000495, 2.9328526521336986, 2.9175561903980656, 2.94050493280671, 2.8773633199680786, 2.891553983459862, 2.8815550208384595, 2.9311418498693644, 2.984106469724024, 2.8853292295194164, 2.9125217949297983, 2.9270148128606754, 2.7834680900793023, 3.6701745988596755, 3.485780266803876, 5.190679721770975, 5.267805552683911, 5.359742456673796, 4.912088958189466, 4.51944120319364, 3.5099864182042166, 2.388342270697215, 2.19753214987724, 2.261649559272115, 2.6669362375404733, 2.817763401713467, 2.910315283004077, 2.902220171545941, 2.920761479082268, 2.8895248715750164, 2.9098092815655043], [1.2878771777280285, 1.2810590483758106, 1.248417062749427, 1.3128528449783425, 1.348616516385934, 1.2582339459549108, 1.2783753019904978, 1.2483172860722183, 1.3127126595678005, 1.249076807660643, 1.2532197271971504, 1.3583553643452453, 1.4447963104312607, 1.54401227552629, 1.3083559512760703, 1.29709429317407, 1.3004433556157362, 1.3012025084271797, 1.2846964113144634, 1.2916626951625994, 1.253411518093227, 1.3052371367827746, 1.2989291547996393, 1.3736024182101112, 1.3231827887635503, 1.2529886896698217, 1.3683492130644257, 1.247075860089829, 1.2720395513660765, 1.2886432388504174, 1.2337382643990396, 1.3095809847251967, 1.3009160642127722, 1.3487497072056063, 1.650678571671855, 1.875576450372599, 1.22864184663812, 1.2662013906945997, 1.5427988030477293, 2.933048562438896, 2.56309371940392, 1.0832367081197962, 1.9162685423548, 2.6975626681732736, 1.4386788374201847, 1.0656315620962749, 1.5018099824373425, 1.5440693253843782, 1.4551152314229665, 1.1610424791857146, 0.9368473284888852, 1.087612815688132, 1.3043946029682585, 1.2474835575506706, 1.2629320883112467, 1.2961626097374268, 1.289558927288206, 1.2535616758492079, 1.2435603596122637, 1.2933663178681358, 1.2957638917510577, 1.274780589830882, 1.4004435715893393, 1.4962022745716428, 2.9983373378498985, 1.7808395699902326, -0.4498751772455618, 2.114637528239751, 1.6187378629896176, -2.1228730180633444, -0.8763427937685556, 1.0387068076950918, 0.17384786281549278, -0.9756999952402771, 0.614112364927728, 2.1616562661418532, 1.5721611366955845, 1.5990773406277636, 0.7601755156589804, 0.6108959972580044, 1.0376750905385108, 1.3508318087173417, 1.284335595346109, 1.3113058610365658, 1.3251122429281035, 1.254085999007098, 1.2720949539933282, 1.2517115072913303, 1.2916642440143724, 1.2389347730802842, 2.090688196334544, 2.090863363745101, 3.987138157131085, 0.8449464251892055, -2.2540651910671667, -4.32925234440288, -2.980636993532627, -5.214028750959573, -8.138962684699631, -7.0198534611453205, -4.137756925566557, -4.46255966889791, -1.519691372444578, -0.9273890848456153, -1.3583933407550526, 0.46511540471294543, 0.8782912201461076, 1.5319769221542874, 1.3484936072813023, 1.3723571377499837, 1.3262747444286973, 1.2895977116201822, 1.2171782582173767, 1.2602150530524299, 1.224801074529082, 1.3308758938985121, 1.8414865818720227, 2.589799454470147, 2.53658998004256, 2.409186129308689, 0.4369077220588221, -2.8881608200353073, -8.052930407415083, -10.581911999846913, -10.048526257531915, -13.568134686438905, -15.090093405401332, -13.50611380338159, -13.717914732098333, -11.307424072065679, -8.211102465887274, -8.224856305124293, -4.691329980263872, -4.283679112252047, -1.6414693633244477, -0.6695269439122076, -0.021617437550234358, 1.6717685364174446, 1.2801269570496607, 1.2172053586261813, 1.2530882745065062, 1.317558390860566, 1.2751146014972539, 1.557574422286322, 1.9412817643239009, 2.114240893363911, 0.02724116947758026, -0.30571744366795045, -3.1736044810337054, -8.80586797838722, -12.760167785558222, -9.850014223465127, -12.703941434025658, -16.73622959774196, -19.990866290920263, -18.801894230047832, -22.76722847461062, -17.531700537823642, -13.574970282544362, -13.823103468948297, -7.729896947241324, -4.174124932150428, -6.010541205626789, -7.276977075318904, -5.043961155046893, 0.7273230411651807, 0.5439054060442566, 1.263762136332233, 1.3502748871521326, 1.3155149658008554, 1.378541084374322, 1.6305178951447254, 1.5753451251754567, 1.4132976624261948, -2.627060509234805, -2.6545093256199164, -5.009382806533454, -6.7429262218761234, -2.0699456122585813, -4.895718346648029, -8.266840041066665, -10.487601925554529, -12.030484881785148, -8.319192905863282, -11.37427681816536, -8.583858217812313, -6.237579148702077, -9.117803909341177, -10.328057120233284, -6.710333396003556, -9.700362363530349, -6.66398898111238, -2.1367149507468977, 0.9765016653922766, 0.35936570861716827, 1.1976865015528972, 1.3105711835877798, 1.3433306705624444, 1.4242321807428788, 1.9283460004917767, 3.840423553893762, 4.269035590564405, 0.7936261886873154, 2.187880125920384, 0.21127808049122165, 3.0749534075524743, 6.94013187401417, -0.036421922937355314, 1.7116934801782513, -1.336809079298009, -0.8890777270679875, 2.089992967773856, 1.0529770520131028, 0.9063265430953673, -0.10743633333365471, -0.5550546787340318, -3.922774808893564, -3.6885633894751435, -2.9629767187853284, -3.4826232101941486, -0.04196664515730954, -0.15982297352177136, 0.313723443212346, 1.4059337090953492, 1.3496982578635508, 1.197677451135595, 1.4199168192897496, 2.93112837027869, 7.553371132292131, 3.9173411450482525, 3.8094158746379274, 6.738233352940963, 6.487951710476492, 5.683776260392317, 2.3786001307276776, 4.050243211435407, 6.949291946874668, 8.70921373304105, 4.195890332801013, 4.758710392467008, 1.2698976951340608, -1.6436547384710412, -0.28982360028760573, 0.6065011541536014, 3.566471069825654, 5.783636197444764, -0.9027929107314377, -2.99460315739162, -2.5497547725339196, 0.2971914561896536, -0.1709613107976935, 1.0720610931338876, 1.3388843049441268, 1.3315303132042764, 1.4739158906146228, 3.4196554938146044, 9.242732736924532, 6.6832677670535645, 7.401548647984518, 9.618434548139778, 6.287226275777559, 9.949161388007111, 6.128361289799273, 7.37351378230529, 8.34338837785733, 5.044996508488233, 3.700481482430605, 7.189003042497172, 9.582344347567393, 8.256989441078284, 6.46686227521444, 6.6754581791029075, 7.774990198529246, 1.0821169785406066, -4.463836533610455, -5.1079403736186535, 0.25902548428098887, 2.6358251764863714, 0.5745121161623559, 1.1938686783788173, 1.2656122034069976, 1.2454444229311543, 1.5634477930678516, 3.272086912006936, 9.70188169083805, 12.907221268338068, 9.186107350338993, 6.130371944717807, 5.176606046073966, 10.2404661840151, 7.370204859182604, 4.253908654191459, 1.7645534485593615, -0.05889634630401363, -3.8924130541020903, -3.3534779626439097, 0.6971511011702857, 6.149036624187174, 7.82359912163722, 6.289559897810091, 10.111032378787927, -2.649463716856581, -2.9118354151758656, -6.220932550864206, -3.3505776374413254, 0.4085380113077485, 0.5591971406428204, 1.145468434295096, 1.2652537160509911, 1.2655149207962177, 1.638265343425676, 2.1219351854912847, 10.323587861090475, 12.439467542504184, 4.288867427813923, 8.23143733796572, 7.4444804934442885, 10.264497094229714, 7.781816384904581, 1.39421162744062, -3.716438307632114, -7.946552799412885, -6.487672125518475, -3.6043362418673017, 0.8553554520978803, 7.158434809499336, 5.5455030982319045, 3.221346286719113, 7.001808873593271, 0.37303421986402546, -3.258303139597645, -5.728805980115324, -3.91125025340129, 1.7528426205344156, 2.3630763531110395, 1.273317492726543, 1.3007146454192424, 1.426498001072861, 1.6849937468851748, 1.7542003498187542, 10.195307100905085, 8.679955188396077, 4.363670002311311, 14.051704703350632, 9.04137866542659, 5.318505486387325, 5.450701942036572, 0.09471857582112354, -3.1610238621532774, -9.281109170782536, -10.060930994546743, -6.393524173371362, 5.449928370212764, 7.273778335861394, 5.8921453493149905, 6.8581422211031295, 3.326077721579225, 1.9608109132421745, -8.341643586386212, -5.199877620881024, -2.8128924215934776, 1.5645786586073218, 0.9104027502343756, 1.4782659169065961, 1.3259010940909197, 1.5857196845287054, 1.6136327685527743, 2.3961775902710047, 8.23845434164018, 4.775962997375956, 3.3328287125837526, 10.1532683987178, 10.277307838299372, 2.699097062407017, -0.16478386448383053, 3.779977931536537, -2.286494080909595, -9.302079366206586, -8.090981287606688, -2.832791670486307, 4.707395863466987, 10.08275992329788, 8.994040787510018, 9.426779673144209, 5.940106994686338, -1.9101956277321825, -13.65704379267374, -9.429237998534308, 0.09771361896370655, -0.697927787842441, 1.3017746139446642, 2.111360225085946, 1.3187772303970766, 1.4920456139839582, 1.5910160804453295, 3.0918006573710595, 7.015917066468162, 8.80221510043828, 6.874890973258419, 11.292100134624912, 6.981376269754209, 5.372437526939382, 3.901564211006156, 3.6783251672416934, -1.4793284085552196, -1.6994125037244465, -4.682175130291515, 0.06738013862034276, 5.73710286598897, 7.264422886435723, 4.978298076534362, 5.615002575328407, 0.03784744022390494, -0.9808401468710737, -11.3418808469426, -7.953055817746201, -0.664215860281132, 0.403256473610641, 1.6356309094373105, 1.334917503379405, 1.2655938680788108, 1.2713244664480452, 1.4131814972195746, 1.765153725947899, 3.6559771043105367, 9.128614993777353, 8.717885054203881, 4.880690192959784, 5.569438899123789, 1.312525668833067, 4.152271578484772, 4.457133144419824, 2.1462032867118266, -2.0169183774913053, -1.1619239719962955, 3.8299501776330995, 14.163837054199128, 11.822482104673576, 6.994456846735283, 0.017354428998590236, -1.1152181387617652, -3.2294824202119488, -6.655153303707063, -5.014755882947763, -3.453778599730717, 1.7557147531022872, 1.7983017327196702, 1.0688229051980995, 1.2668066806092708, 1.322639508568855, 1.236229128348478, 0.4826269576579426, 1.4345712637303243, 2.0254565922045034, 0.4749364635266595, 1.0330113219758967, 0.9730673295206217, 2.5883009174451352, 3.3084066261451266, 4.372930086410101, 0.11089832541812362, -4.031983547688273, -2.7393199786639144, 3.4259549568381207, 14.934124711389961, 9.148874171317628, 1.3534373512515405, -0.6030970798090095, -5.013673140644761, -6.573962649882043, -6.2726566474491445, -5.834867800571742, -1.3000567150180213, 1.072408875955295, 1.9261890398828168, 1.5391849285362063, 1.2667428577586495, 1.3444964058442486, 1.270385342485878, -0.6184653726413353, -0.9802306814169497, -3.0475000381367146, -0.6277536150114417, -5.128000008404248, -0.8889269607193406, -2.653646550512749, -4.48322440596191, -4.959682645523812, -5.565366412484382, -3.5736257387508634, 3.6580438870222722, 6.358584495250985, 8.989797998753119, 7.794167203966681, 1.8449656234236236, -4.553127346079364, -7.640358119144049, -10.208846493295201, -9.25821697029232, -7.51557442868817, -0.498422262259432, 1.4991840793297442, 1.3958231107280101, 1.4991852942902106, 1.3079523998552698, 1.2664971445960533, 1.290949351591719, -1.431605228575453, -4.080829591110901, -6.192691222379358, -8.359193295627348, -10.73107071523884, -6.351821476380485, -10.65495568904784, -14.069171067555928, -8.486762130378969, -6.681478873414836, 0.43713800957725896, 5.3762520477634865, 1.0658270231545048, 3.489545731818255, 4.16851463413655, 4.89963488132888, -6.328311253722676, -10.650363150100501, -14.359596415835648, -11.465824557395054, -9.719328619475585, 0.6716518618231325, 1.794437180958238, 1.319430853256183, 1.2957404292764987, 1.2403589948768758, 1.2693241550724628, 1.0341892094473115, -1.8949556531865943, -6.969006275019978, -10.240388426470682, -17.370319829871725, -21.398979815517496, -18.102143563203644, -20.823861990679475, -20.702988805238675, -17.748022987887452, -7.085652074359447, -1.5064995816064715, -3.681516760881313, -0.4257513503087041, -1.3347082232265928, 1.640721616851977, -4.506118656080902, -9.295948376716236, -11.087175317654602, -13.805012845546253, -12.85416574889188, -6.368798416439068, -1.1598974581985009, 0.035705983616272904, 0.9879538434619786, 1.1201963157556, 1.2988735116043808, 1.215562044120411, 1.1314411567614648, -1.0021141610276538, -5.381844968676804, -8.663650182457527, -15.675068338258932, -20.071634808968465, -24.092038869590105, -25.208335402170473, -19.656261685877972, -16.829294553172154, -8.363057511843664, 2.138466305795019, -7.596222913122754, -0.642806221163058, -3.213406516420316, 1.6891691619289502, -8.877211801446588, -5.114204671025201, -10.945459728729812, -11.794546814122207, -7.044963086128866, 0.508597952644246, -2.008324586965874, 0.7306207411709628, 1.4509323526695668, 1.2604166658929834, 1.2643186817480283, 1.2291126158940735, 1.1317655306641305, -0.40715808105333906, -4.7066402206577385, -9.897790850417177, -15.567987592801694, -20.514346841098092, -22.396596481668972, -21.53846726723814, -20.695547502152717, -15.217508298390785, -7.457492522583701, -2.0186909707016474, -4.487183260677558, -2.571189944247676, -1.9269333453889994, -5.169069078548439, -1.8465978245520773, -0.503218682902289, -6.096005548967713, -7.496492715533966, -3.182617908897874, 1.4637466448219865, -1.9354494974971543, 0.061558982712786016, 1.0166738451371597, 1.2750665470382276, 1.2438034910989615, 1.301317829512383, 0.9106337566256097, 0.3543141925504354, -3.4430278261355363, -8.98754918071854, -14.029722498550509, -18.33426072228401, -20.69850672509345, -16.815987091549573, -11.91348994627386, -11.775117949685521, -8.715060887236831, -3.1659254349295183, -0.9115813283202595, -1.6366635844648834, -1.630810847093634, 4.605367601045442, 8.730294499646865, 6.84715085231937, 1.6539968730099934, 0.49585432224477083, -0.3106128379055923, 0.784473608702265, 0.21580556424100075, 1.3480544343834997, 1.2110266743671194, 1.256049944616281, 1.316857965291667, 1.3218025098960198, 0.655315570192351, 0.3504385383267913, -1.5919554261111908, -7.061251709554804, -10.81053920699413, -12.293208848680974, -13.502302075433285, -12.986039740648316, -9.071745496882247, -4.729126359813244, -2.342323495670858, -5.3233325829911795, -2.344040752675783, 0.22448508730927882, 7.88955118621625, 10.225483363073694, 11.240121942253976, 10.425197457320618, 6.652238523768045, 5.9810435408880664, 5.50369795710408, 4.086437533445241, 1.4858904833875521, 1.4340181467993778, 1.278358379107887, 1.1776945795163274, 1.2918222894304365, 1.325992788339869, 0.7274804833767223, 0.5498508660385502, -0.7488317346643896, -2.8307122823879474, -5.973117931798569, -4.03417047235866, -3.6680639431705875, 1.1898802143222476, 8.344855770398954, 5.354678565851054, 4.833688892498214, 7.346567386312644, 11.485624790463753, 15.961235550711915, 17.99770921772825, 10.796217253585157, 10.84801195492228, 10.744278184464685, 6.4381311506402605, 5.536561227883787, 4.379919817344573, 2.1181630361326396, 1.4814821057472098, 1.0854762310807293, 1.2453674783529443, 1.3699264933576514, 1.2984362224506019, 1.2891068978854145, 1.274306994169173, 1.1382055831783529, 0.7793111763917413, 2.7099530560976275, 0.5930371100577154, 2.179893812030757, 4.608678515816563, 12.05177772483696, 20.007620540200993, 16.252286116603738, 16.03895989211681, 19.295660093555018, 14.676428368326675, 11.84864951138014, 10.272818977990436, 7.243400456044971, 6.029988641121641, 4.647948876798287, 2.2033526701327935, 0.6159617052566096, 0.6262899723221448, 0.6483285987094324, 1.3118493057826812, 1.2390997706210798, 1.2762620387858334, 1.328210912917356, 1.270272689493895, 1.281063726316164, 1.269353043386847, 1.317522787064817, 1.5847380506524225, 2.9294919592816564, 3.986324744026476, 3.6568519391999885, 1.818602883081393, 4.1772657772367605, 6.029878883325416, 6.669231274266998, 4.115220109747775, 3.814670377518162, 4.118998838097659, 3.1903327868919926, 2.8090569694934677, 2.495303982298994, 1.9550179787047919, 1.4388080128997034, 1.242577978954038, 1.428939790344397, 1.5378822944802029, 1.0832262793094345, 1.2845483658419663, 1.3079222862835447, 1.3163827437950475, 1.245338729895719, 1.2690611791544326, 1.243051210913624, 1.2966907341244636, 1.305187097144324, 1.3050358393462487, 1.2278017183734715, 1.2594061135592425, 1.3521955075873748, 0.8662213055561736, 0.6342273852593656, 1.3987837030241097, 1.7650877469014492, 1.7016505243451137, 1.6708590204367517, 1.8295289971174047, 1.5362708704757002, 1.3797031914737767, 1.4163680489329469, 1.7237075874292371, 1.3849121207148838, 1.2868127570978982, 1.2741684954870713, 1.4192203630810087, 1.3589079962972892, 1.3253635741729581, 1.270545047489956, 1.3061387272313445, 1.2537088257084166]]}, {"type": "hidden", "nodes": 4, "activation_func": "sigmoid", "weights": [[-0.03271679334056414, -4.544170095902087, -0.0385831453489897, -0.025754726011239914], [-0.04917731261232091, -4.536988543424525, -0.04446005461565694, -0.010989430914012385], [-0.019193411985407558, -4.572838379430639, -0.016900419430051612, -0.0026865659365487176], [-0.03994309111487545, -4.5378809253618355, -0.046951795152706845, -0.018311895339055896], [-0.03580793076797239, -4.587947468483625, -0.003054710974658795, 0.038808448300013454], [-0.01755671376379452, -4.561674467939976, -0.030092205450916173, -0.01412552643901659], [-0.010848037854682581, -4.5736938585590075, -0.01520722682424717, -0.016369744141932575], [-0.05231416311840563, -4.548528217176551, -0.029076464937747383, 0.00019583341066145424], [-0.053557383164617604, -4.5395690139317635, -0.037126493378917214, -0.009462656615521538], [-0.050566780735310755, -4.5479307535851365, -0.040677632566190884, 0.014753857259710243], [-0.031466159993901135, -4.565190484820842, -0.022403933644258352, 0.004120986410591955], [-0.031220038059967106, -4.555911946263199, -0.023445195147666072, -0.020496088202759936], [-0.0941271248738634, -4.476583325859043, -0.06288184501191665, -0.09260204838612193], [-0.0186479049154427, -4.575044007590745, -0.011317528530059226, -0.0007178762749768184], [-0.053492562691448343, -4.532555464540592, -0.04345537480758063, -0.0161116579399161], [-0.037248113685750525, -4.585781715967509, -0.004811969261949992, 0.03815385321384038], [-0.038422404346830974, -4.5311430683578, -0.04737191904620838, -0.039766809868794974], [-0.03265423380631064, -4.513026612823662, -0.054324320736521436, -0.09530617409716861], [-0.040954355085693034, -4.524568364125077, -0.0509189997570761, -0.0493082266332901], [-0.045069273699653134, -4.523997801012965, -0.061622294990970765, -0.02581101627752134], [-0.03686587045472442, -4.544225451647044, -0.04672300672381585, -0.005546674765553814], [-0.026514259994240317, -4.5587814536429025, -0.02702656419140202, -0.013451147426339542], [-0.02916398355474418, -4.554300081555066, -0.027242246306666815, -0.021744188242310707], [-0.028456502738123824, -4.581753146479212, -0.009996960817413558, 0.02363736590328598], [-0.015428122113831795, -4.580943364563344, -0.013922826143276232, 0.008705605992206475], [-0.060137065255778985, -4.541388966334501, -0.029358890150687173, -0.007813174458038457], [-0.03369434942451046, -4.555917877749094, -0.02827198313442409, -0.008320050938229863], [-0.0388704276147743, -4.528750525280493, -0.04384190475522511, -0.052784908642538875], [-0.04230446044970841, -4.53704480504574, -0.04731378734769517, -0.016464365035417355], [-0.05673714768829163, -4.502964951455291, -0.07242488013559054, -0.051821118076478115], [-0.01869019449810305, -4.563865101546841, -0.02383136155017892, -0.016837290758972903], [-0.043207054668615005, -4.545928095220101, -0.027788867485216737, -0.02303151528694893], [-0.09401191216939755, -4.507365259475253, -0.05301139664357339, -0.015858800502076147], [-0.022749774890453003, -4.571831700251012, -0.01877505892947351, 0.003789427599827599], [-0.05790524983400091, -4.544117619561384, -0.03439051096237052, 0.01338790747242909], [-0.07221844170086046, -4.4993549747428245, -0.05458548068331783, -0.04563339051919935], [-0.056922684396265764, -4.506849739740021, -0.04476212636530913, -0.0473475388656289], [-0.07164740914292113, -4.486943050237853, -0.061064250933848145, -0.037911892965122054], [-0.10395417196737397, -4.471890736244362, -0.0313716761845148, -0.021869950355190834], [-0.12874110798949012, -4.435473723609009, -0.03953269013211842, -0.03752788961872931], [-0.1368478734449334, -4.436097585446804, -0.04185143404103264, -0.010646051808430899], [-0.1576574999924423, -4.432333154541927, -0.011348130694609049, -0.043220212599190656], [-0.1445552283268952, -4.410630954354436, -0.026522501992112268, -0.09337990071609961], [-0.11690635644571397, -4.434063601486149, -0.032691083321214114, -0.06982580714431734], [-0.10781271507534197, -4.416794965108938, -0.047968714404171366, -0.08518459172260104], [-0.08793819265430107, -4.37265076106556, -0.1075481088590855, -0.1892414549217722], [-0.07173882966557693, -4.4663037794857114, -0.05261011261389619, -0.06962585006070747], [-0.03762212621117753, -4.499576823310565, -0.05293341725918204, -0.050245575131302435], [-0.0381490604272349, -4.508328145554787, -0.04636109485087996, -0.05231173180607776], [-0.0281903992112239, -4.559337137221261, -0.020910325447873447, -0.0009973426886040273], [-0.04882004822574865, -4.521224047228647, -0.049616226662912474, -0.03929125552207418], [-0.0281396444332349, -4.553604983773373, -0.0347773885588971, -0.009162919494661076], [-0.047080350846513484, -4.534536997656005, -0.037759439230273695, -0.032815708778098404], [-0.04893319766952122, -4.5473684063478155, -0.030603089841562497, -0.00541174061912959], [-0.05050205697751644, -4.528263467769825, -0.050651209962939155, -0.023502342866863393], [-0.024046105990120026, -4.582462437485669, -0.0023149707479748786, 0.006385316571876762], [-0.05194212941361496, -4.5177827563379855, -0.06851384263116567, -0.02182570945815518], [-0.03974645337137427, -4.52923530553716, -0.045532189455131475, -0.046713109861884476], [-0.028997639449494975, -4.56537626109899, -0.019280769971005602, -0.003316973465429389], [-0.04477367371334733, -4.538220317114715, -0.04665476578494277, -0.0099471029567409], [-0.03070534003419783, -4.556957087345616, -0.02543190120640888, -0.008139787914650599], [-0.03532788352941105, -4.555004164454021, -0.03693882481904463, 0.010646543937636449], [-0.04963453429001041, -4.552052023803539, -0.007452402180852543, 0.009014618155256659], [-0.1256608996757998, -4.436618518580263, -0.060140846198135534, -0.03219160193800828], [-0.19517669429129028, -4.354217230852381, -0.06375976492740977, -0.06033594209307024], [-0.3268185949647588, -4.152569976638686, -0.10997210111202038, -0.19129891406985708], [-0.49882223489745015, -3.9558361793570382, -0.07592815891306384, -0.3059557067051605], [-0.676664586265585, -3.7875398344175104, 0.012084545598233788, -0.4657594845813661], [-0.8792675412391097, -3.597779919401106, 0.07926971060300758, -0.6769739514608477], [-1.0641907793478507, -3.4111255147151813, 0.14566136159048615, -0.9396800552293326], [-1.1300636799208315, -3.238037318979519, 0.1671746215042659, -1.1601460228357925], [-1.0650284101258554, -3.148547855121755, 0.17074611286068767, -1.2761214339531814], [-0.8645194233587102, -3.146233036531259, 0.11176047083584686, -1.2702944102865528], [-0.5520123622831952, -3.280690225399859, 0.012788217813771133, -1.1332040844443019], [-0.23550208069728143, -3.4792108314397745, -0.09078704517259562, -0.9715753887545496], [-0.04234902328298198, -3.7016116750286723, -0.1575260348697982, -0.7767574316813942], [0.04011722965640858, -3.9753206895918036, -0.18574703999181688, -0.531861181553483], [0.07115164310010885, -4.231497642555433, -0.14427948440469254, -0.3104282777678734], [0.003146853293931638, -4.384849378851691, -0.10429863339950171, -0.13073807910085802], [-0.00887686553559019, -4.524447122322143, -0.03255794086071212, -0.03918874729402262], [-0.028070771813843702, -4.532945239015769, -0.04238324146939387, -0.02437996558721624], [-0.01606191380264967, -4.553483073361553, -0.031063973369512495, -0.029328088215741], [-0.07026667492011401, -4.504481103286122, -0.060234939884207854, -0.04720777058186317], [-0.03754524664990797, -4.534050282549763, -0.05176296444975343, -0.02496590154611715], [-0.04854665079844006, -4.49638087762049, -0.0666314646099585, -0.09869905834786377], [-0.03353877181949113, -4.55108938944298, -0.03228805635841374, -0.015371124812888187], [-0.04882854904543049, -4.524835875486457, -0.05068298295342548, -0.032337602075359725], [-0.033685060299684585, -4.540746482123902, -0.03534991987757876, -0.03490257067378784], [-0.050563375223057115, -4.54580419151646, -0.028510721237087536, -0.0005143279255800054], [-0.09209424852000349, -4.473461965648176, -0.06263448881467262, -0.03836138179572922], [-0.15525002057565154, -4.41575777164241, -0.017110937136953816, -0.06155232031390112], [-0.3415456645329092, -4.220944699934672, 0.03654267070542223, -0.1792398524306411], [-0.633077019942939, -3.9406996112902437, 0.13891518099477487, -0.4185263045027797], [-1.0441247574829131, -3.5489842789398307, 0.23228585122422873, -0.8322223819829208], [-1.4290292130316136, -3.2101212477526238, 0.3252039057118774, -1.1799220093955047], [-1.7214649728725033, -2.8981888821053636, 0.39200513644871476, -1.5420393407830653], [-1.8799989576237162, -2.598042902826219, 0.3862624801001477, -1.8712747589246614], [-1.8804361682243411, -2.308161533593348, 0.3599838931000607, -2.1543562363100457], [-1.705738515981728, -2.027007465893593, 0.3384220616288364, -2.400703400250928], [-1.4316662923783328, -1.8552897872251644, 0.31366521002721093, -2.4814893239700244], [-1.0084624225973726, -1.892496496328499, 0.17374430013052056, -2.349471023071821], [-0.5387939844434229, -2.1542767573021075, -0.0031605840400115597, -2.147121564277674], [-0.1516424958278196, -2.490410118331892, -0.17150640404083256, -1.8801376551179836], [0.12058334915948639, -2.844190556310907, -0.2714743807798859, -1.5782692558250428], [0.24376884326089265, -3.2176973338144035, -0.40369217098610194, -1.201095453946931], [0.2619151013126135, -3.6099828644456986, -0.4681534296357697, -0.8452353981432495], [0.15357234823957933, -3.9978832741481156, -0.3672603953899213, -0.46244582146725893], [0.08865839844280299, -4.307967884310815, -0.2235599244765744, -0.20483305166433083], [0.033812665853013096, -4.464014792490532, -0.10730785530116342, -0.07907795338273273], [-0.15922431411833307, -4.468567782279041, -0.05173342662807345, -0.016907564677421178], [-0.05375454085287169, -4.530787127489077, -0.036574204379899326, -0.03224715046931857], [-0.029125965306321847, -4.556399723787179, -0.031064873082951392, -0.009263027109230736], [-0.025636952438601777, -4.538424550664403, -0.03194806929070729, -0.06763669539105233], [-0.048674479457023585, -4.516316778258022, -0.06289911810943213, -0.03997756863689375], [-0.02213356638180344, -4.58521679682972, -0.0005715836341046672, 0.014266394293174606], [-0.03569101371025077, -4.565588128796116, -0.017007712388655054, 0.01634272722445065], [-0.05675431611123811, -4.544784733060115, 0.01348881733116315, 0.0015569601495018898], [-0.25901317222444076, -4.355076689827834, 0.11409075307295341, -0.13290425976250372], [-0.6302360990633721, -4.1118007003390495, 0.35812454975139607, -0.4175629018732859], [-1.243088193836358, -3.8116266933954264, 0.7024289947660339, -0.9727284961397559], [-1.8503892047239363, -3.3868014108617417, 0.822535374368318, -1.4981782448093364], [-2.3259792701756306, -2.8639966557060794, 0.8423921383680665, -1.9744692460956905], [-2.491747342341071, -2.4385137690756533, 0.8509450894657345, -2.368167760186631], [-2.3381114391284417, -2.017367976219296, 0.801920560524438, -2.7163728380371297], [-2.032846923524543, -1.5741240178287765, 0.7102167402846966, -3.015833160650065], [-1.7428480773520232, -1.0670976212301968, 0.5604472262097584, -3.4171921315957494], [-1.475822344658441, -0.718369140053905, 0.40658437623894916, -3.6677083278626283], [-1.1828376977339614, -0.5226394023318643, 0.2729703613725524, -3.5778820467675168], [-0.7946227242269719, -0.5370781174942884, 0.09945324020882368, -3.230323226702048], [-0.3183673480180869, -0.6868140391334212, -0.07493160669298199, -2.891855360465031], [0.040754101551996054, -0.993020431434972, -0.2706156401607575, -2.549469390480765], [0.3004133786852773, -1.4644854373672822, -0.4540882150875213, -2.1810610518932005], [0.5013846840851363, -2.101233049475298, -0.6317840152427939, -1.7153489198924463], [0.647934874498034, -2.6892055427741997, -0.8686078366783015, -1.3540430170805189], [0.7453888898747397, -3.241295619867627, -1.1201160656332292, -0.9963139985937981], [0.6499589093497262, -3.7416087490769145, -0.9939604414896682, -0.6920742020649816], [0.3896175885863512, -4.14817198179557, -0.5304244692359832, -0.38264051563243756], [0.10014578384724668, -4.42577301525464, -0.17455864206690033, -0.1500803275994166], [-0.009288378018201577, -4.527607856144525, -0.060421892986005324, -0.04198658199486794], [-0.017317020050053155, -4.573517339280936, -0.01828736094058944, 0.0006266819970463327], [-0.051636723168032514, -4.538223640404918, -0.037973534679126446, -0.014697368061483073], [0.005739689801432006, -4.534988981631763, -0.030736724901512594, -0.14641591345572208], [-0.03183989295205791, -4.5336493208499755, -0.034307969335868924, -0.05589262913485503], [-0.07513450012776843, -4.5411493239434915, 0.010277212746619859, 0.01046132518829398], [-0.2532350088750407, -4.404901389243667, 0.155199839895814, -0.07310465068931332], [-0.811661142365993, -4.097576322852881, 0.5508864405090728, -0.41004960183181577], [-1.5654235001670396, -3.793222837206561, 0.9596809173542178, -0.8638411147924789], [-2.235797435390551, -3.330048562061895, 1.1683716814405565, -1.244907379608136], [-2.7541265526594647, -2.7003085292548246, 1.192297364565628, -1.524694549917691], [-3.0140911946249505, -2.110201101139428, 1.157402040045412, -1.677276823648088], [-2.911636905540337, -1.61246254082552, 1.1302280009432366, -1.912497518839849], [-2.6446349703066723, -1.109650082005232, 1.0544375171247833, -2.2616644139093802], [-2.2427006386842723, -0.5840700797029669, 0.9575572599548895, -2.6605285042589406], [-1.9443831486800713, -0.0567117935348012, 0.7233227365066882, -3.0433115617731614], [-1.6077942134940608, 0.29065132094645524, 0.5292776726580901, -3.2388585504820218], [-1.1807742081865733, 0.44535217982694664, 0.3230312898083653, -3.1783419836902507], [-0.6244030613497974, 0.370073159296991, 0.13547909423004872, -2.892465641447055], [-0.10826643574647975, 0.22438867843964977, -0.13532832633473577, -2.668585629263802], [0.23863403594503765, 0.022354113240534837, -0.49913387857409186, -2.4504889072059965], [0.4520862063106343, -0.26312313540442933, -0.8616056415694437, -2.140333391550949], [0.6934783036504943, -0.835710966445482, -1.2060138608205773, -1.7417361593559975], [0.9675910624859992, -1.6141868358710079, -1.554182217335252, -1.3728294787229745], [1.2562923269573334, -2.444961559202692, -2.0445066806386714, -1.1302015299202248], [1.2979442630745004, -3.1808945489130744, -2.073514832490633, -0.9520233329278429], [1.1238417316830092, -3.7572764145573827, -1.5520480010741262, -0.8827583421281142], [0.5380245071071533, -4.187995214093239, -0.6445312176751938, -0.47504038691016826], [0.07129723660583084, -4.482844749348174, -0.12049196363111647, -0.08674675959695247], [-0.02541105734846872, -4.520808369798182, -0.06516384811362586, -0.05614082763075996], [-0.04582446863033399, -4.557922984983474, -0.03740596886711667, 0.029121150012596745], [-0.02278607284707527, -4.533202799412167, -0.04911527728560628, -0.05636920355192096], [-0.04351277848994958, -4.569153152354661, -0.0037443870185430196, 0.030954802661451137], [-0.1750343784900967, -4.4760044733298265, 0.08115578778364721, 0.013002395540168299], [-0.5906815035869465, -4.226783476154602, 0.40703440834640925, -0.04590262279082744], [-1.2776874698461902, -3.807282862383595, 0.7894937612833977, -0.28231503025280086], [-1.994491548873831, -3.3631690218085604, 1.1270679775995964, -0.5187912035488293], [-2.5526751043461333, -2.720436187121341, 1.226363160918815, -0.7348507875540912], [-2.82042112635188, -2.0607284215366706, 1.1630243881047275, -0.8433898181756772], [-2.837759257334912, -1.4620898042707104, 1.0375775253692672, -0.9218294824730514], [-2.620802254310436, -0.8950124225669297, 0.9590225958336749, -1.0148358644395472], [-2.245697896349359, -0.3385217495375999, 0.7705548174593597, -1.140567202358835], [-1.831536609525892, 0.1582562291661502, 0.5365787989788926, -1.3139185655250158], [-1.4935386394949086, 0.5006022197385251, 0.30510123795725763, -1.4805101712782442], [-1.0960559612736505, 0.6235944582196825, 0.17251531984541402, -1.5896010098509203], [-0.6316749718624304, 0.617373366877769, 0.11903865350050187, -1.6511619492797471], [-0.24949758028512725, 0.5395327146088758, 0.04177500980995601, -1.7039116318943754], [0.0117576206784443, 0.49374508052466176, -0.16060403824738526, -1.748462078681893], [0.1696889612922655, 0.43190873774871474, -0.5911414931576948, -1.6991859872851303], [0.3127135896446416, 0.29580510182120806, -1.1123944580944107, -1.5831854380901058], [0.5627826144940777, -0.17586942790162136, -1.732338675992914, -1.3559877519574848], [0.9679179145833879, -0.9869116484287801, -2.2870455995447174, -1.2723303322433654], [1.306310881688868, -1.883607895163092, -2.8578554310704467, -1.2109533839504565], [1.5021123459698085, -2.7820473250061224, -2.7910211096619237, -1.0838254040583415], [1.497117679524235, -3.5551046346469994, -2.2045360470560125, -0.9136342850382964], [1.0785171375712612, -4.059105763759548, -1.2807161995999603, -0.7045743876609409], [0.2328968620287591, -4.410869359879669, -0.26944972489470537, -0.10261021350948732], [-0.004066860855431051, -4.568006168730974, -0.037255118822135204, 0.023600935559874282], [-0.048566942523402754, -4.549655376143144, -0.030591868802185698, 0.0011360121937392987], [-0.04333222999771624, -4.543231098689167, -0.026168313886308223, -0.010919258608500428], [-0.06733656622698826, -4.555381866433653, 0.027040956795651463, 0.07761289292817625], [-0.3291238911548873, -4.464393073679282, 0.2273664263519524, 0.2997356134623817], [-0.8277055066292859, -4.125594879788707, 0.5658425907924305, 0.436477771649184], [-1.2906861203319167, -3.5730658499598613, 0.7864841986838917, 0.3492196528698074], [-1.6241815840483314, -2.92207110543841, 0.981124550693637, 0.15612353125741962], [-1.8472843283616402, -2.191071010112967, 0.9327970317775289, 0.051618606626180494], [-1.9654883944894341, -1.5450838798405684, 0.8061384511678165, 0.07394294744323383], [-1.9749429252074633, -0.9818637896138893, 0.7010072773246535, 0.11404626762621961], [-1.8080953860151645, -0.531816008195027, 0.4345461941193117, 0.11855245779410165], [-1.5350912828028194, -0.06464256072871284, 0.16269348554987811, 0.04408431023166174], [-1.2064819104981575, 0.24736844876192896, -0.05232254656293375, -0.1281141621782477], [-0.7813108633167365, 0.3530020585411415, -0.13472815302556146, -0.31390107258918165], [-0.2895530847590131, 0.2864950868787296, -0.07430400699780604, -0.35748786612882777], [0.11028209682152651, 0.14835781646854224, 0.05967166453523591, -0.33110200514206456], [0.26546230443667873, 0.018063414420569097, 0.167056721893012, -0.3261408062284183], [0.2693360802563098, 0.03783540484074246, 0.08182949689945848, -0.3455382125086068], [0.1938449285875466, 0.1902676369146351, -0.43361825695475736, -0.37146889296952545], [0.20299275897332708, 0.38095083450873485, -1.2454070038165301, -0.5976079891634768], [0.45149600140643087, 0.16882476591885143, -2.096747670828092, -0.7587736903359497], [0.7876837767699358, -0.5654866529156859, -2.870033901673307, -0.9487377104529396], [1.0372146297437685, -1.4831835647565323, -3.472890908266436, -1.0890017460541341], [1.3681484330064315, -2.527661336159091, -3.2178661601211256, -1.0420038081204823], [1.61131542207018, -3.5073047276766, -2.5977123922904255, -0.998031392753191], [1.3465497344895574, -4.0847394185921635, -1.6329383421023973, -0.7043373100683372], [0.32989164878103006, -4.3445384508168825, -0.4113932242613184, -0.15596685719456724], [-0.023018424049630008, -4.533003143235301, -0.05672773713600178, -0.007247221821312717], [-0.0719208935419909, -4.489278638404845, -0.08396593224405935, -0.04507828625214847], [-0.06185790254193919, -4.535472995030403, -0.02204763204745385, 0.025604712582233197], [-0.21201407421350418, -4.540136236388816, 0.10308603677441747, 0.3391925040573585], [-0.5650522703997197, -4.426350128664989, 0.30925837640666964, 0.79971291273675], [-0.9603504006148015, -4.0330448029941115, 0.5127123155018577, 0.9607278161555505], [-1.1229637615984107, -3.3840985023584804, 0.6561269411777142, 0.9772814898316511], [-1.217071004347487, -2.607097617313214, 0.660705325792494, 0.8169452307512577], [-1.3637912658334332, -1.902705986109655, 0.5347969893334839, 0.7705299061004979], [-1.5955581486507797, -1.2960088106127974, 0.4016984996019349, 0.8117194403515565], [-1.6638868851413782, -0.8534526655379111, 0.2174494167198887, 0.9145130358983093], [-1.5332733269961334, -0.3855505978476509, -0.10428075420685617, 0.9391124296242952], [-1.1572032778287722, -0.016973136732419146, -0.4295659481883192, 0.7654807586993199], [-0.5453677148108133, 0.11717310113194801, -0.5865407914182056, 0.620162706916879], [0.0372911711913607, -0.006606019040816963, -0.5192411916996741, 0.47959528204495366], [0.39572206035889856, -0.28154709094394736, -0.263820209450369, 0.4220456431975269], [0.5337355442890329, -0.6150174341723259, 0.17019302889033244, 0.39644982183018324], [0.4515635484452153, -0.700994357724361, 0.5687070197834316, 0.4068632372810654], [0.25944469490685834, -0.6106237059901142, 0.5407311953101798, 0.5408530233058699], [0.10330700027019246, -0.254973133512926, -0.1356040414536755, 0.5685649536426493], [0.1416721719422325, 0.19229115818963816, -1.2438046157297482, 0.26047395078855523], [0.30896460316874247, 0.17339075798553685, -2.3472962388472745, -0.2552722412365071], [0.5238229939649587, -0.32294300964529676, -3.3104983686884712, -0.6342886063753269], [0.6046357272761834, -1.233182632368445, -3.6584757886014514, -0.8971700505252355], [0.9709080099621902, -2.2968305597366117, -3.2183690085196983, -1.0232290739839585], [1.486839756001198, -3.4388424077324835, -2.6146835083169826, -1.0593192846704245], [1.460694299201406, -4.147723977429001, -1.6956723107295644, -0.8934971329310523], [0.3324668129005081, -4.361826098562267, -0.3812194749556461, -0.159714060788583], [-0.007542814398970264, -4.548294391622857, -0.04908501899448096, -0.0036636801190583295], [-0.03525016910455004, -4.532891168991311, -0.045693787229401234, -0.03411764826798964], [-0.08996118625907543, -4.530246541772206, -0.004018903215118248, 0.05616813550672949], [-0.3453792014294383, -4.502787072728433, 0.11924115980338942, 0.5256228202586818], [-0.6951649913035468, -4.401506352345929, 0.2537668331875614, 1.1007493947621743], [-0.9507605081395034, -3.9814212242045293, 0.3217338623206273, 1.3635487555768235], [-1.057787431022416, -3.237513702746627, 0.34699969367377576, 1.3868902385863098], [-1.1822083047647283, -2.3758265920429094, 0.2220442427557975, 1.218295956020114], [-1.4077552363137802, -1.6451494736887882, 0.11112380297735011, 1.194858645435316], [-1.6629779371558842, -1.0749732576765905, -0.04321364384817473, 1.3019795879066767], [-1.6527966519515642, -0.6248153127604308, -0.33726629406502534, 1.4327521385224171], [-1.2765877128918441, -0.22998035992954943, -0.6532020934336822, 1.3894930588569354], [-0.6320758512728655, -0.00838898507916931, -0.8566960541784033, 1.1531307110766533], [0.09433722936376866, -0.16661602183420687, -0.8231720803736938, 0.8261225531968261], [0.5165764477989048, -0.4920948578342392, -0.5897506083507308, 0.5131806675310313], [0.707528541095799, -0.9194164186182112, -0.1413385080597842, 0.33436271176359905], [0.6702662721946643, -1.2554815615530752, 0.528061617839216, 0.25753959800098036], [0.4570955185471645, -1.3420074123930361, 1.0428090839397264, 0.40911591013797766], [0.1772448942815419, -1.0999259903993766, 0.984194751359829, 0.780090629547799], [-0.001579486250550305, -0.5674085120098062, 0.10495326000371766, 1.0017717064615037], [0.03768018976617577, -0.01661713574595585, -1.2559982688266136, 0.6830900783719223], [0.13077879439818998, 0.09462640004816075, -2.588996610078774, 0.11134384744050523], [0.13422306860423436, -0.2154079149540159, -3.4216318922913644, -0.42854808267005184], [0.029977564554433307, -0.9791800027850582, -3.444741620156474, -0.8050408491368034], [0.35901864923234683, -2.009796100226037, -2.871639122422787, -0.9856830083162034], [1.0061778668313321, -3.27415756871611, -2.224325669034964, -1.0621800229040324], [1.1815669921059933, -4.160886102173379, -1.3311349985112417, -0.7576239016421589], [0.22652163544302803, -4.401040668500247, -0.2781070480341881, -0.1265844626616726], [0.0006507449694244995, -4.575195526982994, -0.018075196501772507, 0.007082340607982688], [-0.03835226899614592, -4.53705995479931, -0.05072746158298682, -0.005572080630097443], [-0.09661449890161408, -4.528604285443976, 0.0011260623922747263, 0.0783705381690755], [-0.3362185298398227, -4.491749465332688, 0.07814664785986108, 0.5512413171065914], [-0.6932493464172101, -4.310984295676168, 0.05035885665008663, 1.1593891610504785], [-0.9753965181932828, -3.9264422234051928, -0.05398235240347358, 1.5965102286276052], [-1.197062091490423, -3.0330794759993895, -0.15571302576701251, 1.5921874391763366], [-1.4520261673249344, -2.0763259969156933, -0.3334968388221904, 1.406767515350047], [-1.7149819055389774, -1.335908271268836, -0.42023655878933314, 1.4504004194020463], [-1.8110838556126403, -0.7433579059004224, -0.620712532557928, 1.5634789860499607], [-1.525565672484559, -0.32459037337610314, -0.8656351625192722, 1.559290990827497], [-0.898162163675025, -0.10242648291549741, -0.9417910261172716, 1.3469136495163567], [-0.1152258260720875, -0.10311729662104602, -0.9290028107484928, 0.8057259026953832], [0.44170304718229664, -0.3905950453969833, -0.792070916250744, 0.2155159746117437], [0.709856398719363, -0.8665199996398824, -0.41372527741439813, -0.1791389508748438], [0.8125652886902858, -1.4136938808537778, 0.2827831594120017, -0.5208696169580945], [0.7269791725751971, -1.68086715699227, 1.0858798484167795, -0.47550643137634796], [0.4373103189479284, -1.592337761999448, 1.5030530168951513, 0.09796557805435391], [0.07806896149866802, -1.269046184689425, 1.2815020397575732, 0.8243169416050304], [-0.06170754707032404, -0.6007973752910652, 0.04887556720386485, 1.1867005394921182], [-0.012838046673638807, -0.09860255006628654, -1.4643920306140947, 1.0206866361054208], [-0.052369313917115225, 0.09148241080060579, -2.7024867116364537, 0.3496614437208109], [-0.3446410792291778, -0.11857191719363996, -3.4152137400345968, -0.31160338355466777], [-0.5824609347962532, -0.7436916236245306, -3.355840511889528, -0.8657276024828411], [-0.3424303195936284, -1.6755331807571536, -2.685452555726913, -1.0875954896592852], [0.24725013985785527, -2.9367938638034823, -1.7103757617747812, -0.9468355598011153], [0.6548876110079247, -4.136456493478985, -0.8016696773017532, -0.5173468912907108], [0.12188117138233755, -4.453720396695361, -0.16280773960068998, -0.10713714098144818], [-0.006798143024705805, -4.537110152224692, -0.03924750948888406, -0.06775689304070472], [-0.03674199989647793, -4.528078833262748, -0.04839593017168388, -0.04177254285287914], [-0.09195703644647565, -4.521812986777983, -0.018168830864428956, 0.06268193910506391], [-0.2654088948701679, -4.4518379108519115, -0.039365168389318105, 0.4464640317258633], [-0.6843112436459692, -4.236051095373808, -0.250563565054718, 1.055276324293666], [-1.1335044309357523, -3.8285238480349415, -0.5419059804390813, 1.5900181911478646], [-1.5479707408027321, -2.759095959469222, -0.7827569111511778, 1.4867754230962473], [-1.849626696601661, -1.772037857147856, -0.9626704562549006, 1.373420323970414], [-2.027133828644888, -1.0234664442226205, -1.0238659887211037, 1.522344669146713], [-1.8508006565749375, -0.45406076908394444, -1.1186271299284454, 1.5411736029289933], [-1.3504840897257904, -0.11829805887087344, -1.1244252139649593, 1.3746521214356264], [-0.5379522283674883, -0.02114701779116025, -0.9719218715730937, 0.8876156461927126], [0.15426614987791848, -0.12317550509117033, -0.765238149068086, 0.08188185079795231], [0.5290505578233589, -0.48535834813537293, -0.44449292591006706, -0.6505038175552892], [0.6573606356571662, -1.0072519731591942, 0.1088105983794202, -1.220564578416247], [0.7803791601505038, -1.6679170211001537, 1.0174140677595924, -1.59408962640523], [0.693604391133221, -1.7032225745754617, 1.6381902858591, -1.0991573557731569], [0.3816186836012736, -1.410251135501796, 1.7114798398183075, -0.13178805385843115], [0.04478790807963808, -0.9912216796903931, 1.033031823552103, 0.8561392992818856], [-0.005147019497660088, -0.38319841055952847, -0.36967613369847163, 1.2961124470346421], [-0.10768523457824265, -0.05307194334463222, -1.6290398217078919, 1.1128136773659336], [-0.4171287476880875, 0.061102896485207774, -2.6684832457771477, 0.3890528245590685], [-0.9710123009147886, -0.0798992656166534, -3.3701745562369476, -0.4403819977734376], [-1.2592886008214959, -0.5534144461047572, -3.5193558680113566, -1.0874679242576872], [-1.1867286683457055, -1.3532849020838258, -2.941639832324317, -1.4441605394372217], [-0.5847223529201498, -2.6007216784628233, -1.640798139452419, -1.0947096833854755], [0.14621929208994708, -4.213224407280336, -0.36675104770986705, -0.22157665098089552], [0.017151340503352975, -4.495677395888936, -0.09358842734315284, -0.027305718119971043], [-0.04045416672698739, -4.554271584498815, -0.0301275354786059, 0.009213058356607864], [-0.028721037397408913, -4.557982958053522, -0.024978762853748438, -0.010401452598019246], [-0.043923326358755316, -4.492088779894399, -0.05742500313716013, -0.08363166326969695], [-0.17349330477117283, -4.478681157231995, -0.07319699369206802, 0.2828946513825786], [-0.6409417020370051, -4.206644236480074, -0.44239514921781103, 0.8866863638708579], [-1.4788583796217076, -3.732769455739303, -1.0898504295645604, 1.564997255785642], [-1.9831658233175344, -2.483145034903981, -1.3963219979926764, 1.3154964088283165], [-2.190238330009662, -1.490205793256907, -1.5564606214095074, 1.285503500772495], [-2.1249208281470335, -0.7143402129428955, -1.565590793483831, 1.4142332438933847], [-1.7836270112523613, -0.15340503532086908, -1.4149214308442029, 1.381801924591042], [-1.0856486354267234, 0.043416819341877126, -1.1445482439040071, 1.1166328371728202], [-0.31319993205498065, 0.08699337476009561, -0.7165736611024787, 0.35762369981223685], [0.20352637286268813, -0.149303137879517, -0.2885582736235849, -0.5228714448860947], [0.44471765797465507, -0.5249751093436451, 0.11734667515668902, -1.2247010359364365], [0.5006878945317941, -1.066123144619748, 0.7266234567735476, -1.7273641623925617], [0.7243783090050152, -1.4583715185422785, 1.62352339303666, -1.814375465937222], [0.6445343094511234, -1.2443267931903195, 1.8874453900096513, -1.177251902690632], [0.3368696524799211, -0.9045819611363156, 1.5355059716942556, -0.08514490839837803], [-0.003313066013300215, -0.5111571579503383, 0.5270045662911202, 1.049899174242184], [-0.12726638679859595, -0.15196625151968568, -0.672199445063511, 1.4072841408361236], [-0.4298698166548086, 0.008586453319385689, -1.5703085894685662, 1.0122412715625457], [-0.9302227176937526, 0.09895732849931871, -2.3142227973901233, 0.22976241199857453], [-1.589407376844045, 0.04119495109945501, -3.0808384430015283, -0.7281908032506138], [-1.956839031686182, -0.35451470559568365, -3.5497632054161903, -1.424606771704622], [-2.042515378270821, -1.139230859327349, -3.2087611018076196, -1.731167675016271], [-1.4167922541257847, -2.3194037901064744, -1.8987979229041434, -1.2473041126765272], [-0.13703119266501523, -4.201154833468212, -0.2580714485540414, -0.1324254495075018], [-0.02405826363726285, -4.503015854627916, -0.0649402689751055, -0.03817225493420326], [-0.032955762522540365, -4.527414407773647, -0.047639713346516184, -0.04676559100348879], [-0.031456953258225916, -4.4860218441446795, -0.06264827045712804, -0.1840755256316356], [-0.03172368923218745, -4.5652961608373595, -0.020321436769851632, 0.02044381653625912], [-0.11059012012688171, -4.485436575820075, -0.08061946917355296, 0.1208649678282693], [-0.5394745359506805, -4.21184649099426, -0.46108088155711613, 0.680815054327172], [-1.7457243056223464, -3.5658798940710152, -1.5050362119752148, 1.4663295675614194], [-2.2618533078832708, -2.1186449942384837, -1.9446732545984453, 1.1188788326258738], [-2.2975735404371873, -1.1814781352267456, -1.9930278047050196, 1.168835564937052], [-2.1613233080726144, -0.39705819599585357, -1.98807660011619, 1.3184390566155055], [-1.6350399482264915, 0.050446571336725365, -1.5568553336645197, 1.269008680905704], [-0.8428207351416821, 0.12107043696260716, -0.9441690644264388, 0.8407358461000151], [-0.23507595977647905, -0.012808863818707793, -0.28757769351479223, 0.12684723771208326], [0.15256296165240327, -0.30243242537815085, 0.1684371590487243, -0.6160470900657355], [0.30306782311531333, -0.6179167129183034, 0.5204248887232625, -0.9875692159172395], [0.5865958336472242, -0.9711568196312385, 1.144621950344093, -1.3173914686208485], [0.7876554481439847, -1.1038998341624184, 1.7458646300428993, -1.4106616467537862], [0.7063719642980121, -0.9008181846184778, 1.760111761634361, -0.8213935484780417], [0.32085049879553434, -0.5028951059465366, 1.066041720231654, 0.29975051817143056], [-0.13963979158325893, -0.11853514750532607, 0.14396772582132544, 1.3510794006613847], [-0.42520548992031965, 0.109863152659274, -0.6363180931458403, 1.2944234790451132], [-0.7827637307042666, 0.14062473359785818, -1.1224532274385106, 0.7698666032693375], [-1.4201235380704629, 0.2059896117543057, -1.693114576646388, -0.00787779538773318], [-2.0787452717718153, 0.18744487958892722, -2.5061221126362443, -0.9845195652618063], [-2.548444364496435, -0.25824679471007683, -3.170706706839341, -1.631395244467879], [-2.6858911209145804, -1.0011641191040823, -3.1058754033619262, -1.7570636148067], [-1.8690536367085178, -2.1204924741938806, -2.025511250074271, -1.237960601702692], [-0.25497227272879325, -4.094372900908161, -0.2740167883092633, -0.13557993314465358], [-0.06892959013950513, -4.465435062481667, -0.06875019631346307, -0.056811811072359615], [-0.06424410488916955, -4.51335544977019, -0.05907567352520988, -0.01962490082097191], [-0.06390776150259181, -4.538527090870237, -0.03817546076763996, 0.00617452112952677], [-0.09165969955277577, -4.489215848121082, -0.05424819483006412, -0.06403167561775623], [-0.06333833678226762, -4.541196117837273, -0.03586392137072011, 0.06345725619220938], [-0.4569930170359096, -4.242997090558544, -0.40765139446505294, 0.538133577713116], [-1.8218771585438438, -3.2886797414550157, -1.7521034957400756, 1.232040588559246], [-2.2823375057618303, -1.7567873974771542, -2.461792017307357, 0.8683460987617762], [-2.25976881066987, -0.8798239718029366, -2.481416374490517, 0.9671474895398818], [-2.138057406298634, -0.14947775258306017, -2.329692751960488, 1.1318992175467593], [-1.5640683626751877, 0.18022684498777317, -1.6695352192594601, 1.037762284547833], [-0.7907300487792495, 0.07708833407924812, -0.6810061671549235, 0.6422123163272343], [-0.33911729896081594, -0.26071601442973885, 0.0291971194928196, 0.21914857500829904], [-0.03867769160620278, -0.5146769250809475, 0.41202598616333974, -0.08641563993271356], [0.18104089070442683, -0.6657622529398095, 0.705780275431927, -0.30757304723799883], [0.6227265528414401, -0.8607118142631492, 1.2287090490495873, -0.6837745010141568], [0.8083067425631942, -0.875175033392709, 1.5162878877527268, -0.7313827125100651], [0.724288438934102, -0.6765478298725336, 1.3643802738487565, -0.1626347470294853], [0.2552885177817693, -0.29024391025221175, 0.6122143168087226, 0.9768478255757577], [-0.20005337561809655, 0.014570951132080854, -0.004685713913591867, 1.624646959196772], [-0.6768800215170842, 0.18843281230392667, -0.39406191658722983, 1.146014997298262], [-1.1428616964362628, 0.201819789225782, -0.5944080217795367, 0.4583207023309548], [-1.7494207931749735, 0.24347801924121626, -1.0941337843655168, -0.23629660675741365], [-2.446692490692279, 0.2602383798147414, -1.9070547588813416, -1.0848062530291338], [-3.018471992130388, -0.21338313291894823, -2.566931685728936, -1.5994052873808164], [-2.9131366852387552, -1.0000381949242199, -2.707173149770801, -1.57561230084987], [-2.0344566256698493, -2.0327946246463697, -1.8983839313929671, -1.1523881130094469], [-0.43642251670138066, -3.919673069466911, -0.30463493224858207, -0.1761085913503269], [-0.08119593375418854, -4.479821095247523, -0.008348731190564389, -0.0934624666730773], [-0.0362002095447077, -4.551405051413318, -0.026207477118879784, -0.0183002865189014], [-0.0887295125595916, -4.489660205263355, -0.06844607510209172, -0.04896958085112274], [-0.061822332102773506, -4.5605812961947185, -0.01337693226124851, 0.022453395169612145], [-0.056509156011268644, -4.506643787416994, -0.05792266765674267, -0.017753488241531924], [-0.3786627244011614, -4.195245121289642, -0.3956640933904157, 0.38373363236515823], [-1.6301186874085984, -2.9025489139248237, -1.7729471175016647, 0.7156492562975062], [-2.0692109138772583, -1.4264292795630173, -2.8662831875707635, 0.4347346341301614], [-2.0789224431047364, -0.589321984694858, -2.968256583813219, 0.5467262071825809], [-2.034789190368304, 0.11952258404352106, -2.5809105300995765, 0.7553644358983865], [-1.5428809911113266, 0.3080644671837836, -1.7231334262894524, 