{"name": "hl_4", "layers": [{"type": "input", "nodes": 784, "weights": [[0.5644841052083193, -0.8080692222801354, -1.5713905953913612, -0.0575398763122914, -1.0863092501601024, -1.0323898564753597, -0.6351815605722372, 0.24340738626514644, 0.2612517139956295, -0.47324283400338096, -0.1445403605801547, -0.8133570776785505, -0.44808841886494544, -1.0746799454401357, -0.23532411692160113, 0.235627625897913, -0.6526778814178554, -0.2329051111105304, -0.1719377553739678, -0.17673019805483317, -0.6567928138083406, 0.13426988945298, -0.04079310339919285, -0.9282161883192818, -0.04802129922290394, 0.2184987560245887, -0.04219098120113637, -0.1503728197842452, -0.6414124008020029, -0.17413612390670666, -0.9370227653986355, -0.4957619862265866, -0.533223585924545, -0.9405858871392107, 0.38622812742853996, -0.5197820968860325, -0.6645373993441193, -0.2808122296847588, 0.4118787357891614, 0.19114146885704267, -0.6067214300404233, -0.21807696244765154, -0.6180775194529433, -0.5372026001269403, -0.3055895816056977, -0.5599662359953973, 0.02517767010290212, -0.5516713268570858, -0.20560167909981644, -0.371434928923721, -0.9151445180773322, -0.30521944211204377, -0.21142242672155095, -1.21642773291082, -0.8676329233475649, -0.31979446832890535, -0.7561702452635791, -0.3261347479822705, -1.3515175427424952, -0.5386927930985578, -0.8381561672845373, -0.2879649904691684, -0.8260326445017695, -0.6359422604953023, -0.3790730157768576, -0.2661225099843264, -0.11108387738447788, -0.5004196413091158, -0.6717028298249462, -0.5929246179204826, 0.08727186479650818, 0.16240748761850435, -0.22375437398583942, 0.39628776109031183, -0.03328358848953765, 0.10992517313923199, -0.5438723130627472, -0.30681039598015875, -0.5367403316560906, 0.0694789760358806, -0.1785871531939521, -0.6140039870128507, -0.5138558249983834, -0.32055637795478475, 0.5084289275764563, -0.48543120285764507, -0.32468736327213416, -1.061581662665024, -0.2711771201597634, -0.6357424526391645, 0.36062379856271237, -0.28441667847218355, 0.4526176568265672, -0.445906334940196, -0.22371881277943376, 0.14134746576772744, 0.20750894787169932, 0.1003537169568368, -0.06788051015722824, 0.1846409049276216, 0.5681242714996466, 0.12764040422472497, 0.268012589479608, 0.1312195971699898, 0.10732529668873182, 0.07473231877260265, 0.3042992910669168, -0.5005433096834839, 0.383209811322536, -0.284276356820915, -0.0764120839591588, -0.19295445013489385, -0.9286477839513573, 0.0223594627991572, -1.168585102673126, 0.6777162547455282, 0.2485780094401471, -0.1705565719552967, 0.14899969113269448, -0.04581159079701872, -0.0076757762051635915, -0.36209976763198437, -0.57041019012174, -0.42325639633788514, -0.8927750035837723, 0.005963877649598481, -0.08340239713279089, -0.397538425926136, 0.40466080597319976, 0.3196905124689934, 0.23505689734124807, 0.3792131852752691, 0.6896065852025444, 0.7049250433568871, 0.030254065792472574, 0.3880218298671836, -0.5020779159296471, -0.19955207702009156, -0.16650822399345414, -0.181102111508021, 0.06681248382855251, -0.17787180312398024, -0.3140470188073091, -0.4487885922838991, 0.06453970666329388, 0.023158615386831383, -0.2797093389882532, -0.2548945164651917, -0.9291378466438771, -0.8250313691472494, -0.069914224463681, -0.46935401668398347, 0.22084856541375048, 0.18265786181195065, -0.32972415634699476, 0.028031593244820525, 0.07539911972705206, 0.5183249343343604, 0.3314604773411607, 0.34968196652452627, 0.25871770172924896, 0.32083140929922543, 0.8843969478522486, 0.8647126334540116, -0.7150174249370644, 0.36825330891840025, -0.7945406375271981, 0.028841664946009867, -0.7220325018547101, -0.3518153370922741, -0.6889190255996693, -0.5462412201017646, -0.5643703482988948, -0.38358318018725485, -1.0683258300510485, -0.8841902852923577, -1.468398985350588, -0.6241756786481888, -0.6323356455568332, -0.1342039417885514, -0.5367353743375474, -0.118549673658736, 0.3329089121688179, 0.4273917720450361, -0.17696339322831398, 0.05020870194962449, 0.05439355249710121, 0.5519577193590819, 0.5949657965560489, 0.6242767527260948, 0.28680086528613913, 1.0344031635259772, 0.550931510635837, 0.0775700300996447, -0.37729099283403184, -0.5884312102918666, -0.1118300507450995, 0.11711256000614129, -0.2824858219073788, -0.19733267561512055, -0.28566081542518273, -0.5840906938493847, -0.07699022382075048, -0.6546897172595059, -1.7301195405157552, -0.04968483055214047, -0.4863885618576419, -0.38840046597370564, -0.17842613057427884, 0.20876478259383963, -0.05759043146239808, 0.27676343386190555, -0.3783383416731693, 0.056906517367365086, 0.2144753741666388, 0.18573319039691627, 0.5146189739877653, 0.4096350718851469, 1.4413804312051592, 1.1919205062677583, 0.6517559749233944, 0.04250171811992278, -0.4364434831042057, -0.18368968754775097, -0.36966079133694735, 0.29166342804960255, -0.5173143186685394, -0.22658105250690083, -0.22773224147222135, -0.4495991746504331, -1.2191481590364994, -0.9205073024605555, -0.5064239616338025, -0.5651849180290359, 0.21938751131082934, 0.001119973447321804, 0.21320471796427734, 0.22799406456379068, 0.05659500427551914, -0.33579430154990775, -0.1360245112551043, 0.005840860170896674, 0.18124339604704875, 0.2121815126979236, 0.4518458126088893, 0.4413624723461035, 1.0000280123698908, 0.3534025494277449, 0.10622143326185042, 0.3439114916842271, -0.2954299093629119, 0.042241167861233046, -0.26838176226963806, -0.7159804167677745, -0.13317060666417915, -0.391579012092543, -0.8223345895359743, -0.2823077318951721, -0.41090698872046155, -0.6585910165902092, -0.38864774738135044, -0.5394859035571646, -0.28023592708694073, 0.2153853390997895, 0.308087330938039, 0.32375108248315365, 0.4531947655999473, -0.0807180060037599, 0.15126188905569637, -0.13074326126788674, -0.24555243816532543, 0.0030524497251723597, 0.05647338028823444, -0.061248715556431334, 0.3602155695050499, 1.1387131008843538, 0.26017403342646445, 0.537160329771251, -0.24384550992682022, -0.3374674974945138, -0.6708256360496089, -0.06262832768612427, -0.20700970829714924, -0.24198524298035975, -0.42429264713896436, -0.7879276587370352, -0.2821221421325268, -0.3647493825734048, -0.13449845996008267, -0.2503350281233918, 0.3706999113949197, 0.3177632223156711, 0.31279849478883415, 0.0755832111141641, -0.1695351004395389, -0.08580281090427967, -0.5737248361205266, -0.14028105708055402, -0.13730856009607548, 0.2642473520450368, -0.08591476657326345, 0.5365836568144311, 0.3100842251651436, 0.6056261358912189, 0.2511295445258881, -0.1337687937363909, -0.35580206838177014, -1.0005661125996237, -0.8678741805931259, -0.16748517181556197, -0.4038095499003402, 0.0657496437895873, -0.17056114603473227, -0.5812427073269856, -0.48100399854151765, -0.14795287046328137, -0.022831966084143035, 0.08093752094963345, 0.4635605535694511, 0.38868630109160934, 0.3864385920295376, -0.05085942924314963, -0.09348056670850016, -0.2871443264731873, 0.26633718039214915, -0.26537911914522505, 0.004210398045981343, 0.23555232094562714, 0.9711641767316925, 0.6824350749233858, -0.08302832955895184, 0.1021388616541239, 0.5303498490739392, 0.03163353743282234, -0.14769535455483412, -0.31625713800945643, -1.2481764771538821, -0.15149018032054826, -0.315745038574169, -0.05658645264036639, 0.21234825733716928, -0.4139849921760461, 0.06552392508789502, -0.31755866802773397, -0.12031736729171791, 0.383937357901544, 0.25858395409832924, 0.3807384597984403, 0.2623293113515342, -0.1287319953336966, -0.27589297099599436, -0.4384209209561289, 0.09479482692919677, -0.04254820771336153, 0.061731686748109686, 0.16355642206977522, -0.48758160030032566, 0.6806268970881133, 0.343980834266038, 0.23934416076099885, -0.7147532362705012, 0.17657137179907306, 0.002448880640597168, -0.06374145222056354, -0.07122364475554033, -0.04848134568111786, -0.3768898992485052, -0.6775839875964587, 0.1435130188383406, -0.29539945861931455, -0.3537983304945655, 0.16849013093386375, -0.18465173692324127, 0.14050663325744853, 0.043156206929207276, -0.4486944051734646, 0.47939181712096357, -0.09369566629714442, 0.05338427637563841, -0.12113530737754295, -0.4791759082906113, 0.11771292122704853, 0.12503111397680572, 0.06470263970518189, -0.24545363082040764, -0.08003278174885772, 0.46727216393787296, 0.4197581290003047, 0.18591033669588716, 0.32203636877271574, -0.044081251005797885, -1.78122349458838, -0.5184026457591527, -0.7542936378938997, -0.43703547208568067, -0.09725877772316266, 0.2830684586162906, -0.2269779633580302, -0.0756440120107279, 0.409810970745432, 0.3446235401872541, 0.2033978525430335, 0.30060681745213774, 0.11404769670938292, 0.3252540783515048, 0.02159731569629471, 0.06925126123732393, 0.025660960142729974, 0.17459198756429165, -0.08575845223672239, -0.2739083348283368, 0.3548494213470482, 0.012074118503292321, -0.0037414277004226004, -0.1744694474919541, 0.1248537878030837, 0.15975176275382946, 0.12910756884963567, -0.5563292316697971, -0.3602532576779216, -0.821981108895446, -0.21409912356599584, -0.27449295531226436, -0.628905193439421, 0.5708196077516223, -0.013158988994260672, 0.47789673155028384, -0.06973570037453408, 0.013881129014040918, 0.537217300067642, 0.13650430194784055, -0.14316241115568193, -0.1760065132202548, 0.20704052280196433, -0.04855933594627865, -0.02541494178674975, 0.08376458646067002, -0.12205451208815755, -0.07960946280060406, -0.1841644266009823, 0.20205315733984536, 0.11874921445943831, -0.020613759691434808, 0.4483404289019446, -0.2426929345908758, 0.16053385747419016, -0.1467486543198407, 0.40995889938846153, -0.8126842242200348, -0.8866080959802908, -0.7166105352963686, -0.29671305688887245, 0.773804615682681, 0.6716476976208787, 0.1869821447935779, -0.17023412612609676, 0.3707752925498327, 0.16244403911510613, 0.02403288812377456, 0.3509515929603936, 0.35720788519764163, -0.13543668907708245, 0.16292694005615185, 0.08204179840923032, 0.23119759679962745, -0.12603914060276344, 0.41685976705433564, 0.3011455371103341, 0.38469479222375125, -0.08722713773763183, 0.936030767214805, 0.102481190951038, 0.19206452067974927, -0.2854951729249032, 1.061247756280684, 0.13815646757659153, -0.31825306718520874, -0.035259281703746516, -0.06695303516049661, 0.22466340824659878, 0.22429226060653712, 0.2827942740398308, 0.6134172341904245, 0.28345479528040823, 0.15854874988368367, 0.05535597925758843, 0.22436972868550006, 0.5180937167845163, -0.09609653800704827, 0.15874245794399416, 0.0396519050406869, 0.05743927994603919, 0.5154512337052695, 0.0942417076134156, -0.1453171972276986, 0.28789491682741547, 0.5431311949046361, -0.4275669787902981, -0.13049178402315761, -0.5432950723291342, 0.1210061219835637, 0.3667906050652659, -0.301900210633461, -1.3563715096029703, -0.5259258819237148, -0.10667193453124374, -1.0258465350752455, 0.4839700778860858, 0.4596277976437428, 0.31265417981930765, 0.38874300907362036, -0.17456952727650477, 0.47885212737654026, -0.2135023049937696, -0.04910804005811018, 0.42141955078648957, 0.07047911874398938, 0.004139434652714405, 0.4609052605878156, -0.4225482083845543, 0.11598017560156174, 0.02589721372289156, 0.018296934770574175, -0.36796786145041005, 0.26963103062074195, -0.3532106970081787, -0.23994467167847117, -0.18866403930740838, -0.7070133499972426, 0.23548274663242544, -0.47692956673792564, 0.12648397809700337, -0.22852129979539512, -0.9519971796328901, -0.14282172470193433, 0.013433074503955792, 0.42381926554188726, 0.5609956513428959, 0.18570989994989479, 0.5070565986775492, -0.017310861639297456, 0.38263399072402793, 0.023743762067227038, 0.013053430673006669, 0.4318410157080908, -0.1315176112643727, 0.8137211833209961, 0.23701613468789798, -0.19840003904928533, -0.30946494576968325, 0.1162402684361058, 0.057853347455489965, -0.011095229215201773, -0.40027347262866264, -0.2929996668433752, -0.1381678404538904, -0.4293735590231373, -0.3626252361302967, -0.45794890012279466, -0.0822784571979206, 0.1526276507405769, -1.0079908648399303, 0.08855426750834462, -0.07513399826175006, 0.4980002320341541, 0.7176477440651361, 0.14799666844853276, 0.6768367903233303, 0.6325238782392357, 0.2425309851758499, -0.02782404182260948, 0.0169291264244378, 0.045085102191797455, 0.11329043198144, 0.29312698771689605, 0.3687045206804823, 0.39925168706473474, 0.29870745269956117, 0.06281796574876716, -0.16485611956133786, 0.029997698783818614, -0.4682299228524661, -0.4256990749055695, -0.391731185244745, -0.3782637935738626, 0.25021576804556683, -0.7357370312589941, -0.5019233101078903, 0.4397121758224626, 0.08806795339791734, -0.4036850848786164, 0.37494547061632005, 0.6682128799375119, 0.9996019248138017, 0.34884363450260153, 0.14212889311012902, -0.04980527458359747, 0.5071727422530389, 0.15156724017782647, 0.13778322216042585, 0.46568201412558646, 0.010162722324531902, 0.24313632033122706, 0.13468493885042224, 0.21100124124017886, 0.05023598237093165, -0.5727889486053821, -0.3181656560716146, -0.5767874564269986, -0.7887112475270509, -0.40969107909095354, 0.13072637900686365, -0.3128980834521945, -0.13183785408210955, 0.6003005139345439, -0.9907992258596957, -0.1302019963528697, -0.25003245068059504, -0.20090481131271232, -0.10448816192477005, 0.09821677125339999, -0.14950414006023446, 0.2887697639626237, 0.33350122973197127, 0.34150320697003544, 0.30649422987647923, -0.13424887751860193, 0.12848991215408292, 0.2532558851786182, -0.16144398176151295, 0.0627516156533235, -0.24770156594516357, -0.19421452018163513, 0.15039677278326252, -0.05915867389665674, -0.7178012829140815, -0.4086020296465898, -0.3334465903743386, -0.3963113060917629, -0.6625500284993896, -0.2629431775428037, -0.7635115521274833, -0.23363739756142024, -0.016883757482844073, -0.9194208583098539, -0.48766578509859015, -0.26246414291366166, -0.22275199978947013, -0.3067534732224727, 0.6032324902066128, 0.05222868499315697, 0.2381553216977797, 0.4673192590381554, 0.5647546671203478, 0.31551184967744705, -0.056336087813193124, -0.021966737207663897, -0.023287325031376354, -0.17859295445953619, -0.07555338749551431, -1.3688778192352387, -0.9904536740246049, -0.3883400438768465, -0.6955083168316744, -0.8133751951802085, -0.6731211487235862, -0.14951379595136466, -0.4445356180273245, -0.18838406610739442, -0.1578502394551153, 0.727282219024067, -0.6566158707263884, 0.05340853472840439, -1.0596703528317808, 0.21127948887080747, -0.5931507319782917, 0.22943593231022308, -0.024991993184086212, 0.40978574771061943, 0.27126564299353717, 0.016713482863854854, 0.6604862875655885, 0.3790624243162515, 0.16022028832592905, 0.0878436448678176, 0.2875928166553133, -0.4898340165054895, -0.6768130489343805, -1.3590662995166107, -0.7601863837216445, -1.119579077448545, -0.5241269958901531, -0.09794718145693637, -0.18803188013187802, -0.40906292099954994, -0.39272047474541244, -1.0997398553966213, -1.0167469070159183, 0.7580160777097994, 0.373926608776773, 0.24065725672305002, -1.165662351169121, 0.10978392860975966, -0.038987471535282404, -0.6090436717594154, -0.4502858233832863, 0.034072072663770624, 0.25598974247764184, -0.06752169555571678, 0.16674045172301405, -0.3234594111134778, 0.12365127163527753, 0.2533856252642043, -0.14093967200877566, -0.1260550391815125, -0.661133394587331, -0.5049195260402916, -1.3266476493169448, -0.04035481809460411, -0.26715294031443426, 0.27137322342480397, -0.9777934946914727, -0.5709828060570814, 0.39049140933830656, 0.24562499271193103, -0.4672687795110172, 0.3305701210445373, -0.48760319314018874, -0.07759848992606391, -1.0993996912420254, -0.48032936838046913, -0.0250658432520271, 0.03952812049448491, -0.6786608492788533, 0.13896792147291934, -0.07292559923339706, 0.2577164904376505, 0.19528658154699263, 0.24186417759159753, 0.4296780777267774, -0.24119347263163862, -0.5316317365935609, -0.05094697767891695, -1.0835932888142394, -0.5594353553063217, -0.08541621542985459, -0.10068559229402418, -0.29075254142593876, -0.48813647787951275, -0.18384323847183195, -0.11371344415898924, -0.8148737609947898, 0.7100011433539514, -0.315695473917568, -0.5316234317994749, -1.2328282771483674, -0.6745134241557847, -0.2039208498968774, -0.9438838706430795, -0.43003021000436514, -1.0227535936814953, -0.40784821285170225, 0.16421647145989063, -0.003306677538411896, -0.242867683928288, -0.004787766363064457, -0.45100189429477083, -0.1867310369225257, 0.19226874985180412, -0.3681720247473706, -0.5850709011959634, -0.9974756422291122, -0.19481028631750882, -0.7039960721626032, -0.16252796080196627, -0.5767207883724286, -0.7157936519695696, -0.9259055589217707, 0.4143598097509211, -1.0212939599970552, -0.5370359318271182, -0.4259899945994121, -0.4995895561341879, -0.1259453206184459], [-1.762852968387515, -0.2157499198493695, -1.0895310856736657, -1.498306316090096, -1.0362783028136338, -1.4549829786257782, -1.630045775240774, -0.3086597786043349, -2.477567967097112, -0.7437870137300759, -1.7397999759068743, -0.2529107563715007, -1.722058452625639, -1.3668025858383286, -2.0775969297456007, -0.6470699757847298, -1.1775817455732607, -1.62886025176505, -1.0694907525653996, -1.9692481464558569, -0.9166608075346636, -1.8309654882057351, -0.6304325765665364, -0.4540137732434588, -0.6856307548193528, -0.4085573502413684, -0.7174315580783375, -1.7881292198561127, -0.7901682814066313, -1.686121076418244, -1.3278380065119777, -1.6370441572038732, -1.0389894440276781, -1.0848674360746993, -1.96868578668176, -0.3426474475407588, -1.3981324016755463, -0.8053344545114178, -0.7977533558158864, -2.1329074929455145, -1.2403546432981332, -1.5783150370871128, -0.7262058548524408, -1.1483191029240931, 0.25943412659530074, -0.06435948407624086, -1.332108140813239, -0.6915900636127849, -1.7576597083969323, -2.090199423168552, -0.5155159806929067, -1.7777977078675324, -0.4787502856486384, -0.7431697350522768, -1.5174632787223243, -1.0536793010270447, -2.1145728758502744, -1.4054214462324233, -2.299527894900169, -1.5226715225079515, -1.2189987960456548, -0.6570513885432325, -1.1365955725608652, -0.7914537083469682, -0.6871061178894787, -1.0407492258103357, 0.35298190526307127, 0.03239549354067993, 0.22129966555083277, -0.059610221845634775, 0.7443486565211943, -0.1583206639112444, 0.3230876597066532, -0.2761970811086334, 0.8932921237661098, 0.37892053668328995, -0.056877029081650037, 0.37505642362022346, 0.5655724796665997, -0.6578233635487627, -1.0066383571686381, -1.0532459035273767, -1.0300038060145191, -1.3657991299497054, -1.0672957468387627, -1.7085207952248977, -1.6988577572376011, -0.6782071258855535, -1.8097493598145307, -1.5975286574499479, 0.12771544601103804, -1.2257297308221102, 0.33227282579090217, 0.280192708718491, 0.502465633654533, 0.9125676641780522, 1.3000501238201214, 0.03504584374140528, 0.9977884419167994, 0.4600888329313251, -0.12361803148330881, -0.4113808746348405, 0.5632090272443311, 0.3557566849170523, 0.41855902509437615, 0.9036688005041174, 0.8834725873347953, -0.9784403473338786, -0.012340062722790928, -0.7592312434025011, -1.8012653845129127, -1.583680181011515, -0.5727421502957453, -0.6816341334806668, -1.2020863798320718, -1.7838581774598894, -0.9993803907448245, -0.8304455070236191, 0.10248488828503864, 0.2532556275822217, -0.3068800377127748, 0.3009600358383874, -0.17751419223198517, 0.6276803417381016, 0.10976346036475873, 0.2346281993313775, 1.0139952893201802, 0.9641520760971657, -0.1611211604499326, 0.9119394778856044, -0.13176431670828465, 0.7592812876077109, 0.38652802646872875, 1.0027702836486356, -0.013935323692206543, -0.09601950940469542, -0.20235308864909138, -1.465539835893852, -1.0968247634701496, -0.7887786360355737, -2.364904740895128, -1.888066470993462, -0.5258813940384935, -0.8554605949439315, 0.15667248047841686, -0.1608855067385724, 0.06906318441708255, 0.5312123490999102, 0.08063570893948528, 0.38283438222073335, 1.0476174692817335, 0.7446783496299982, 0.2741386730594356, 0.48685422996603384, 0.9305170280195051, 0.415444677025469, -0.00692924183569461, -0.12070024865248646, 0.4343631048831301, -0.01637073148646259, 0.527187188041571, -0.09166697420133267, 0.00038001244036054484, -0.14249000909729623, -0.2085875270772362, -0.9001137958430405, -1.196479879225551, -1.2873009283227836, -1.4471992031725212, -0.7142045842160643, -1.305719574807484, -2.0399761410857713, 0.13172308329898885, 0.15361292593831974, 0.9685979323125414, -0.4060783995927675, 0.3498984227765388, -0.01683957920967096, 0.2073190532254923, 0.10433385521742705, 0.6785145259078769, 0.24737850818987803, 0.46043482494594806, 0.009683538256411132, 0.036837384116949985, 0.10612676674800697, 0.15535944907855803, 0.23939266641814566, 0.018308234380247854, 0.755035983694525, 0.41913267709660534, -0.7440482661957855, -0.12535940717020091, 0.09410919996229973, -1.3091003895949873, -1.2573623773922262, -1.2991232251172014, -1.1474187155554474, -0.9568436708360982, 0.3320792614715021, -0.29917583604761655, 0.49899280360461157, 0.4501005077482224, -0.1709236710871459, 0.16216143159653806, -0.45023144127907755, -0.14007589093890807, 0.06504080278361293, -0.6047788795130168, 0.2009591264693751, -0.2779763466028197, -0.46276286785942405, 0.29280201372427483, 0.19188723605591526, -0.34137120449576697, -0.3725946086512469, -0.3742050503877307, -0.09608511237264537, -0.24853287383519354, -0.2661010949653337, -0.8175869365261922, -0.25118913750309396, -0.15221120935027566, -1.3794007109085942, -0.8853075815517526, -1.8124005425758514, -1.3174912725153671, 0.16707687347080957, -0.2559626484050417, 0.2425283832331601, -0.9101548570823869, -0.10930564519631776, -0.19780073845414306, -0.1714884204000846, -0.27233049964113826, -0.43800497484478157, -0.578882734517431, -0.49786068408165046, 1.0272803915061635, -0.9106539201069296, -0.11180209693041004, -0.21559418821864518, -0.4571558550940856, -0.6601403001597967, -0.5411040389829519, -0.8431254024507303, -0.35315226614487283, -0.4337126111825692, 0.27632901576909863, 0.5064686026181916, -0.6686454812456463, -0.7822209724550603, -0.88226345363586, -1.2753594811519502, -1.482416164649334, -0.6385171909694781, 0.7555115752929394, -0.33084058231612645, -0.0036533070305032143, -0.12450463046511444, -0.6687142058757322, -1.0112458565599074, -0.38880347303489216, -0.9493160415135051, -0.32535285619078963, -0.3066807690222231, 0.2481752920967243, 0.5781130611457609, -0.05494725005265589, -0.6209924963615149, 0.2791457321109217, -0.6466674014454878, -0.4191830258836323, -0.5748870705772062, -0.671990117283698, 0.11916606547573501, -0.8058468408173701, -0.15652823222851758, -1.4152084814311636, -0.8510401982315529, -1.1846754824839125, -1.6536131701016743, -1.2673789575445633, -0.4433119872608444, -0.10308428559416881, 0.11137903920585138, -1.521588648032714, -1.9083761947363338, -1.5092076196456725, -0.3793849221437615, -0.5402286960025801, -0.8220073250078545, 0.21650050679763644, 0.39653975280656223, -0.09566247604017804, 0.1348087767450822, 0.29486390863898615, -0.17668095963736283, 0.12743937623480506, -0.7308315524021021, -0.766859899978185, -0.989699361141469, -1.1300239818667985, 0.055600237266466256, -0.29722413475987386, -0.27092497259674164, -0.757381044939796, -1.860428972191138, -2.182955582851159, -1.035479749811434, -1.5953425861247355, -0.857347943395818, -1.2608439210430942, -0.8790127741526279, -1.676614024816033, -2.710302259919791, -1.9314682238484995, -0.9799850746772911, -0.47056896426334344, -0.5414684141155705, 0.22730312275784686, 0.6628918258008335, 0.04641828950548091, 0.6432999838333217, 0.6195904227946775, -0.10047593103128769, -0.2639433805329317, -0.5355473193184099, -0.33479025988781774, -0.9504760459328396, -1.7063910663717596, -0.816313474710511, -0.07239152177443363, -1.3791935821014198, -1.026451687583256, 0.07041863773382205, -1.358235964825557, -1.3068319703966584, -1.3388203981394766, -0.8403994507415969, -0.4798175518653057, -0.6812677089343132, -1.6048772340643327, -2.9321791841033393, -2.6932347701969337, -0.7787916021757706, -0.7504919367119808, 0.3513124872383472, 0.38977187631495586, 0.5636709037387808, 0.9590990076436311, 0.40542509334305443, -1.092543142358074, -0.6358109077427684, -0.1624617631199105, -0.4350632739189623, -0.39324588131888044, -0.5936171194802745, -0.7507234775207671, -1.2067316736977558, -0.7080913826687106, -1.278826464309365, -0.7843275353730031, -1.6154802400146993, -1.1429824574394671, -1.596789086776692, -1.721645377462878, -1.3719503108418707, -1.5124322231243343, -0.32367958521879586, -1.5724140703690086, -2.99675940021314, -1.3658892312305833, 0.1798182834966013, -1.0173095027312824, -0.04522945507221159, 0.17041485336493187, 0.6912617988448522, 0.7365486328846256, 0.35192171336349204, 0.11806322930165182, -0.1286218129021443, 0.3199935058762882, -0.8044557841297738, -0.7331821642961852, -0.48520672267301623, -1.1827485513913867, -0.18254623505235484, -0.4387886963769212, -0.7436085931335558, -1.8944242839590513, -1.53215530640213, -0.6603679505590414, -1.0903179881557183, -1.4058042425092634, -1.1455630274178372, -0.3517876242170899, -1.2322261343196332, -0.7663570095520188, -2.0808459408691333, -1.059597188457035, -0.6123397575365384, -0.8673422606117146, -0.13245589573233477, 0.04472650717003216, 0.719774007550765, 0.16209053251569394, -0.04336557402710279, -0.7948101646776302, -0.02880391434425502, -0.40873542101161436, 0.1370139376279051, -0.597610299778443, -0.3933027114744868, -1.8168490688738304, -1.4529163846084545, -0.07281418646260707, -0.7694603127768432, -1.0564975437939195, -0.7034215094001381, -0.9359366534201177, -1.2723465067570812, -0.5229776564572329, -0.5596739958750389, 0.028572548226484213, -1.0176753869081185, -1.6121062808993911, -0.7861259161266885, -0.42464724377662744, -0.1968636491347425, -0.00795197664378734, 0.32903026802261814, -0.12374571407805167, 0.6899603831323031, 0.050425070851037763, 0.4461170068099642, 0.19960630859212125, -0.6602606307862952, -0.19281697341413928, 0.5068743449271377, 0.15692541693207843, -0.21802902575430105, -1.1876531949172369, -0.762676146824924, -0.7770795974206116, 0.2914047474130832, -1.8203990623737794, -1.388372041585079, -2.120603585344006, -0.7819013983797367, -1.6964701416804564, -1.4667015226667754, -0.3581022092797758, -1.5444975272391437, -0.6241274829943698, -0.6385561228907968, -0.58884472240492, 0.41384161460993074, 0.032746576915709986, -0.1427876211837431, 0.11241844286769122, -0.07983640663326558, 0.5642334698590419, -0.06146384966392874, -0.8246106511235826, -0.028559836253164304, -0.587406454342804, 0.8501012249740006, -0.7849965321948887, -0.9662674180905354, -1.0867400238662754, -1.560496179223104, -0.19892473451815199, 0.08507599103067003, -1.3867207524564864, -0.916795984391445, -1.1237526984328297, -0.6149749355545067, -1.2085165040288477, -0.8611914834240156, -0.06966337893625775, -0.9142879306018357, -1.0473049134526273, -0.06188079820864765, 0.3979306942229107, -0.06291464539347975, -0.044754801553724514, -0.4372970905931477, 0.24730768640699818, 0.04286326544181205, -0.10854901748972094, -0.37973977537381454, 0.4080178271010241, -0.5279814205041998, -0.14974345209826104, -0.023705436247370967, 0.12805763600476772, -0.36905068301819266, -0.36046456200595833, -1.0027783720894392, 0.4300843350993639, -0.42002245365907487, -1.4023938517153247, -0.7366020824739248, -1.630682574484279, -0.9341051689920541, -0.6400647771662895, 0.1591258809171252, 0.20101818806197197, -0.19542301523518668, -0.44673394173047026, -0.1698546939518873, -0.21058302156210001, 0.07473781714737553, -0.28818623301513163, 0.026409213906851813, 1.060130704669966, 0.39599236420520095, -0.08784724766076307, 0.16429622772294225, -0.8317869753927106, 0.09275391921827239, 0.12136671574853612, 0.534019313237569, 0.02854308405605102, -0.08934159225467657, 0.1760584067527756, -0.3000475008016951, 0.4238120710125395, 0.5920051154900045, -0.9611584288737282, -2.012750214154675, -2.149260651127599, -1.226718414992396, -1.3826237991955117, 0.18323622762706632, -0.8405067242196176, -0.15044170955332267, 0.6587414970728888, -0.07523228291571867, 0.047739904826995694, 0.5449184036638889, 0.023925787704843833, 0.4429049577397344, 0.9293606007978166, 0.5737354863663461, 0.12671519821526303, -0.09313962631443849, -0.11140052995743875, -0.003586109424678702, 0.4765863056462092, 0.5111111186378027, -0.5916725655810875, 0.09580866150983829, -0.12093690799695839, 0.01182991428397512, -0.18518624362318478, -0.44217460264036185, -0.3127224323301862, -1.8435716976381136, -2.2095807398598555, -1.6928960305152811, -0.00984808682282586, -0.2770881918839491, 1.5854857879114634, -0.5786681869023429, -0.30359002186056194, 0.4007453586716211, 0.5086216327870947, 0.4570984974187534, 0.7337992222595228, 0.1827830799573186, -0.043329150992875154, 0.2976030920056003, 0.6623182687726751, 0.4275152637467122, 0.036534365070180846, -0.2534960296509427, 0.007707489497998273, -0.17422851039344367, -0.3410892255550206, -0.0228110365023937, 0.04548084243054842, 0.4277968474490514, 0.07947606488391756, 0.16914944007897556, -0.8076010737412391, -1.122789561121628, -0.6239288275673867, -2.5081067173070206, -1.1625035899498204, -0.2238856737311161, 0.6447860906734405, 0.21246792967883343, 0.035042806168014265, 0.03220259779825435, 0.35510671083905543, -0.22616990787066743, -0.07540648990120169, 0.33309586216469156, 0.7657396059885426, 0.9274699904617839, -0.11806141240069809, 0.1438855167099738, -0.43772305974410325, -0.009998979785611555, -0.1318233708121074, 0.580178962099605, -0.6178123155049995, -0.22731113437094186, 0.27612250870628363, -0.6654855334708206, 0.3681638352501518, -0.826599218892183, -0.6961416728540458, -1.369602454438285, -1.9989691323609993, -1.1499673597650146, -0.7089633933636678, 0.2385860109700259, 1.0243966595924512, 0.2791442275341503, 0.1844046881749146, 0.22494784563219514, -0.2969601196090031, 0.4288479801803467, 0.7157277363356219, -0.02505162135948241, -0.04240558881582375, -0.4109940153971437, 0.3936379686601942, 0.5027962709058326, 0.004501077962238475, -0.43446663251966944, 0.3821233909967256, -0.40358109455701213, 0.36720032957754845, -0.012315395244842006, -0.5509011328533497, -0.006854364493137416, -0.8180633635068463, -0.8900739634878291, -1.8138098068701756, -1.509516515426068, -0.832506374157753, -1.6162435317067756, -1.8083701701933885, -0.24572813127753784, 0.2651533388291527, 0.45066282740722885, 0.8408839595971008, 0.915624681325269, 0.13176003030491246, 0.44097166202209664, -0.19589483991434464, 0.034717968254179755, 0.664571423031117, -0.08940249229028281, -0.4297297588779119, -0.3300366850778928, -0.8675259859519968, -0.20492375957335326, -0.5350397012067912, 0.1391699329007972, -0.37936251296499757, 0.1927706077555976, -0.9854050057434875, -0.06874427512618607, -0.5253940550814198, -1.8071289782232027, -0.8576242132098104, -1.1572510287534297, -0.37070095122897473, -0.7895642910517975, -1.478663154991031, -0.9177228493832811, -0.18088831211079837, -0.7089827196865895, -0.008766149241940234, -0.4550651857640448, -0.871181482037327, 0.053253888229371535, -0.01172536256884262, -0.6321591733734455, -0.7105528214193633, -0.7096679618948879, -0.5054026616001411, -0.9713800585187894, -1.3283795149184523, -1.3210720332522645, -0.4527234573036885, -0.821392926995998, 0.13051886481200928, -0.2072179638858796, -1.195925352298672, -1.0832370963466256, -1.1705307837993877, -1.6593563013546202, -0.6834570864587801, -2.0419654332081074, -1.6793722917219382, -0.8075111574853202, -1.3745781910042938, -2.2564822278009826, -0.8278487005660169, -1.1346301747015919, 0.09081968749571497, -1.9673915162066093, -0.0932350244000262, -1.2505053525826575, -0.5732159833606127, -0.9957018199682844, -0.670003193051512, -1.1998814444140833, -0.7361063234969782, -1.051966002593673, -1.0698292796062758, -0.8617872684561835, -0.8808967943821767, -1.1375819074807332, -1.4199723269427986, -0.726538092838929, -1.7131371641603406, -2.051256292591913, -0.6136018680693841, -2.4371866779121536, -1.6157208278654822, -1.4306813438930177, -1.3551971147612771, -1.3279830953546907, -0.7306575131191944, -0.7814491244775481, -0.8157882931096985, -0.014513072228042451, -0.48009229371359674, 0.5186412048136181, -0.8155771372848551, -0.7727413556930502, -0.14560406978027557, -0.37045507525468024, -0.2723686742987528, -0.47862954818091763, -0.46731753715299584, -0.5060717132440999, -0.3325435974194209, -0.797155459170043, -1.5936378055099705, -1.5486342129596962, -1.7583011612760486, -2.1128476321253253, -1.190161179017866, -1.2774329929028643, -1.1285580244933782, -1.3865331515226251, -2.369339716433585, -1.4158652077386071, -1.0008423742258212, -1.1496692338038244, -0.7181126417471431, -1.4058929604429464, -0.4477490213728854, -1.4886808462093863, -1.3163112416669729, -0.7089231850703339, -1.0765281319929054, -0.9342183716630585, -1.6484416873430223, -1.4863313208121987, 0.05016587853303982, -1.255943668193049, -1.3199597855386578, -1.8468111395771933, -0.9745210939120541, -1.310083259125372, -1.6267286198601456, -0.15797813802176125, -1.5629950509174289, -1.7037961389081029, -1.4888981833651758, -1.4034111427172886, -1.717056870262523, -2.0781814205048845, -0.6831146365530705, -1.6055538808540548], [-0.955294110609888, 0.6313128279150009, -0.12541172019571736, 1.5050470372977194, -0.3267738402689474, 1.029196951186545, 0.1380530711847744, 0.21260324283426596, 0.394634096133551, 0.103082773719871, -0.06465632168566696, 0.4137806179307559, 0.35960401398899067, 0.14173278431653266, 0.06181804840796926, 1.0363381624628953, 0.42326555276941474, 1.0610214237062388, 0.11506573856388588, 0.12802327626500343, -0.39757840761805147, -0.7130972381654246, -0.057065880940845956, -0.6441932592131501, 0.967103555521827, 0.4013681367756299, 0.08733648983804872, -0.13583222357178346, 0.4886927883776658, -0.22013932012277446, -0.27618953046542416, -0.25507994511915466, 0.27839239053330106, -0.3717405445452738, 0.6691490077644233, 1.4644483003554958, 0.35021639314185493, 0.5849842769996563, 0.39680668110261463, 0.13518950633580573, -0.5379096735323069, 0.6253446959457221, -0.04759109207195065, -0.05507331429734769, -0.35401170307748503, 0.27716117072570684, -0.5462461269954724, -0.4594638752483157, -0.0903699890157274, -0.6111534242078189, -0.35264262727734497, -0.0563688466570746, 0.6703505785760808, -0.0014792474232486104, 0.47441437521952623, -0.31629003439403464, 0.04867744783833011, 0.7347484038352665, 0.24342726729694328, -0.05622646423700409, -0.15637600677999, -0.36238551357593446, -0.21881584430258105, -0.5871405340686896, 0.6035566438940182, -0.12427228369111865, -0.164667874337804, -0.20419461437796113, -0.1892164300070488, -0.3478705793770657, -0.004959725865288049, 0.3952073313093297, 0.24626031352287472, 0.17459426653441834, 0.08785394326730812, 0.5230351436540951, 0.031285821221145434, 0.19108366668725824, 0.2697068715721734, -0.37179005918581715, 0.7579705248011492, -0.34228550566529015, 1.61105704425128, 0.2762503445600656, -0.3996753987672965, 0.6081860252077628, 0.4083799008003894, -0.14799493412206616, -0.324180270980736, -0.3279802029170318, -0.521223715118597, -0.42895983064836674, 0.39141679615693464, 1.0150168528014594, 0.7893852874885555, -1.072737223666942, 0.8864205518704508, -0.20930752098152902, 0.4093899920704364, 0.024318833730167647, 0.05684705547885656, -0.5821524915161325, 0.7895688148368295, 0.1422592812850093, -0.1970897609060623, -0.4094999723030551, -0.2549773926412221, -1.0708569087588447, 0.7558004695171684, 0.08394804184248476, 0.03174660147556478, -0.35391181304084063, -0.26329047418876805, 0.235917004185507, -0.5430259873698051, 0.2238899641881202, -0.21905284178375903, -0.04419773378300559, -0.6125167381729741, 0.26960657403359517, 0.37005464730180315, 0.8060102792082141, 0.2793466989215461, -0.19392477905296665, 0.08391850629148381, 0.07467070407481385, -0.6692437460672176, 0.40328637690713676, 0.04183654802115601, -0.19683164292260605, 0.20695474422922452, -0.7114779731351157, -0.31701458653385195, 0.5114200665981832, 0.17690556602938753, -0.232292247417293, 0.2639314306804967, -0.39391379742428045, 0.4306721881343314, 0.006702358927917251, -0.41428141847550487, 0.10837258617214758, -0.56982703434277, -0.12565260482525448, 0.45155156748970865, 1.0298231599142644, -0.9685350657054794, -0.14500836950967036, -0.13142158989754063, -0.4056194407941855, -0.32694052760222136, -0.03474380680472142, -0.2365494587317309, -0.10654397123810264, 0.019044944770772395, -0.10940655669926143, -0.4984154929523587, 0.822708782895198, 0.1030235510175654, -0.12063717593992807, 0.6664132301375884, -0.4453380964056696, -0.4359985139536033, 0.38836570805671283, 0.4178049052384941, -0.355859616589022, -0.11316709267399282, 0.08073565444257526, 0.5502421875181177, -0.3022454741940782, 0.14108732192388987, -0.11062245346803695, 0.4749541378851947, -0.931053198807927, 0.31903260798784966, 0.13349356818901054, -0.39458535562376873, -0.3817668851295837, -0.3579403709888479, -0.041970248949322934, -0.5050813495098495, 0.11396096960255635, 0.38371876966941953, -0.40794119754912805, -0.05893378685282447, 0.35434234171305895, 0.10485116494600882, 0.033876001688900044, 0.22969142773483484, -0.1497492868817203, -0.014532234937932936, 0.06098411228296243, -0.17873157903690332, -0.9205857683313895, 0.5811248141901271, -0.5735019189253284, -0.04326466153360532, 0.5085879555656124, -0.12299671750475046, 0.07382792385937954, -0.5292765248375605, 0.3384728609587919, 0.3216018340036898, 0.48520867092182635, -0.9539091062014897, 1.0623295101481607, -0.0392550156790872, 1.035624861232508, -0.45401484900972505, -0.6378409878585897, -0.05598849904631993, 0.46474005320601836, 0.10578675006737596, -0.5543263325975489, -0.8937186707012454, 0.8860408198205254, -0.8693365429869839, 0.41210972355625297, 0.19941322251285418, -0.6536901457398622, -0.4405217218367101, -0.1187171757065752, -0.31509685065580334, -0.09589589575158307, -0.4154282736719033, 0.09931627163993283, -0.10470002794485413, 0.1954843977780065, -1.0598350502990475, 0.25635831683056215, -0.34214929600418437, 0.08712946730262533, -0.0639985872032274, 0.1621240376005293, 0.11742695707913041, -0.8413163774252455, 0.5193623606368064, 0.18894275771038627, 0.19986197743065276, 0.00249682402096523, -0.5968153863375588, 1.0700024380486515, 0.23179032939264865, -0.4542666846983538, -0.2403163715533616, 0.3961364161448261, -0.496301906809464, 0.09386093832273097, -0.3865536327985937, 0.14031446645179596, 0.7669055411517102, 0.1155647541990225, 0.21857171568429526, -0.6445640086482144, 0.24818512362462633, -0.5485217408956147, 0.24839851931134369, -0.2450949750340318, -0.10141264248741556, -0.07593672884852574, -0.2447651733949667, 0.48560035354643555, -0.24495765551650317, 0.7368474837303057, -0.4242062753579409, 0.3125165081978053, 0.6830690489639951, 0.4585828302826268, 0.38823017727016224, 1.06586225681314, 0.6034222465650558, -0.48362908678815975, 0.11890530008208873, -1.3048927719972732, -0.03231621387444078, -0.5038370070370025, -0.28142819860721036, 0.13701347082770363, 0.16879343533138708, -0.43797478001378287, -0.6272858387228023, -0.486626740645234, 0.044315624414339394, 0.27437957696219817, -0.6465016286134593, 0.05308442698235689, 0.31539266770274216, 0.598525888801589, 1.0677553733012448, 0.675827179426674, -0.3539937287253631, -0.27231643252604504, 0.45083050316788575, 0.21074733368720697, 0.50069995636381, -0.4290598489628834, 0.27076332249429996, 0.285680463453253, 0.13504194782068435, 0.34555864080453513, 0.4667736345080208, -0.11263078739816194, 0.2058659467192289, -0.668622560502042, -0.0862681123683756, -0.43306910301303986, 0.6004303249671924, 0.02945575629201482, 0.15331741987004316, -0.1551282321766423, 0.6152297090707926, -0.18967020051298777, -0.24486267911177137, 0.05686629465093012, -0.38577038014186743, 0.1296073933483211, 0.5228890280904898, -0.3618071782394577, 0.9414336102245694, 0.8747817418765554, 0.7840138391401941, 1.262180005878672, -0.2669987445171016, -0.7488094340800276, 0.6917095314350885, -0.4590649010595068, -0.42516601620766026, -0.7268971256928228, 0.6162657864009408, 1.021063888445462, 0.42516217080143, 0.07350447634260933, -0.5372843762521018, 0.5239000909103221, 0.320372773996876, 1.0275598451998134, 0.7422851460340211, -0.7717484924440263, -0.2389632228247588, 0.49673045588717035, 0.3383809862631516, 0.8656051678172866, 0.936523243346675, 0.40341669894241355, 0.5535044702666296, 0.015736334389087118, 0.2474421671836709, 1.2025832674256831, -0.016523467789291642, 0.32001871850213953, 0.4791191700031656, 0.6415088061019089, 0.44330393250452854, -0.31963530476948365, 0.4943293348222967, 1.328173442750855, -0.19904944973381525, -0.9359489351621052, -0.520910692946083, -0.348529775654143, -0.7305306378441615, -0.2888491508609168, -0.4399142243375732, -1.106431537481294, -0.17568983924282972, 0.5317310750246447, 0.061367315751056875, -0.08892767583729198, -0.5090521506676869, -0.6716581364358413, 0.8109731625026984, 0.17614794243749943, 0.4457206804761387, 0.7442496603203812, 0.5597173273628114, -0.11710005504701167, 0.23920678416309818, 0.015292437386247141, -0.34044585703974195, -0.3533355690869991, -0.774768702566605, -0.32243206613888636, 0.6884257812430952, 0.6373507145212967, -0.08019362958986662, -0.3923582208735034, -0.025195380260280127, 0.021379416781599152, -1.1796337450479804, -0.6988302347207258, 0.43156265043032505, -0.3023147197925468, 0.8357196231061376, 0.207084476091648, -0.018282831296453972, -1.0238704313918385, 0.1434242296265528, 0.8246879220600585, 0.053702375792548156, 0.6083805654870372, -0.5495659150161475, 0.48426076195480566, -0.11850359033021698, 0.38876915946790175, 0.4322112649354785, 0.34683236928417904, 0.4067467913795711, 0.20331901992137089, -0.35923220579752246, 0.8441257051163534, 0.28865313527840486, 0.3423521120133899, -0.4806915684756109, -0.4175222068601925, -0.1536470960185446, -0.41024336502022957, 0.20330291136801365, 0.4222753676818896, -1.007618508167185, -0.41827185990422594, 0.5734288183365573, 0.3680381682730928, 0.8059412829098136, -0.047549953863583516, 1.1463163187476848, 0.4567131654199582, -0.3079703856495867, 0.4409945617018949, -0.8896501817724944, 0.8280043519429213, 0.2266799873679171, -0.09738398520758955, 0.32553665984970553, -0.3294550377485865, 0.1762820256062709, 0.7939659044020951, 0.16663469642338824, -0.9344894473567367, 0.5932502557790029, 0.5571385859440449, -0.42706155031545634, 0.5408681850072898, 0.1307463345000763, 0.3711354217779855, -0.23333490178731403, 0.4606962121241388, -0.007337390407575748, 0.9332402306194829, 0.27939629801408034, -0.08314266216763462, -0.21628472680985714, -0.004859510541932496, -0.3430772604793274, -0.5326989414014461, 0.7818970948501346, 0.2745793134066807, -0.1555283807586589, 0.14073234028107703, -0.08927953367674701, 0.4254532097812252, -0.7330959770274865, -0.8046096361604985, -0.2781399523712388, 0.10194813723318846, -0.016808690951468558, -0.19635873975962606, 0.22307893100034712, 1.021471345526424, -0.2837109099403188, -0.2857952657468815, -0.5659844203758017, -0.5486911745914236, 0.26028451814830184, -0.37057935737151093, -1.3069566089264961, 1.326528964985153, -0.2995178749347553, 0.830867481026399, 0.1582849899983652, 0.4956036396481503, 0.26160642541222695, 0.03938561198485097, 0.7285926595841364, 1.0342940110462056, -0.21216266669277692, -0.2340212845420688, 0.6289606512661957, 1.2168850073807513, 0.19649177566379436, 0.25117399169346377, 0.5245477354455631, -0.4953647275700052, 0.6158480122198582, -0.11144903650437209, 0.3577069731137351, 0.26018251999937125, 0.2361166324911877, -0.3453644778144914, 0.6246248618867747, 0.6184487303894357, -0.05123799403613378, -0.31110893150847263, 0.32375047118209405, 0.19899247933902278, -0.47368448671811675, 0.0359152174964955, 0.024443539983167912, 0.09888514649987874, 0.034986388681325975, -0.6938579048819378, 0.8893573325734483, 0.3268545712041383, -0.07541065390400838, 0.485974107685985, 0.2947431432784297, -0.42528161903618683, 0.8848976850030297, -0.27780168047635556, 0.9019496116437699, 0.26279640336335347, 0.1221926467990691, 0.919650993378971, -0.5035824712961652, 0.5256922189833693, -0.3802096977142444, -0.4888711052703885, 0.4951025399781343, -0.33899846661835803, -0.5637456241314863, -0.699736081443672, 0.4729910519903801, 0.6190115496191098, -0.9160153922093218, -0.19295044266871553, 0.5211569210819358, -1.07130623154184, 0.08733001037977553, -0.6419337414031674, 0.36832479133406953, -0.6250195528540418, -0.9248700484032046, 0.14513579405637603, -0.058684734143135804, 0.7534959185379687, 0.11849832292646006, 0.7565789829045029, 0.22878389138028687, 0.3683687409595351, 0.36627683791935706, 0.6766987675786863, -0.12183044183892819, -0.2649966828657834, -0.9942191207623471, -0.2312865829313425, 0.011087062698202699, -0.3134580803465589, -0.2503646730981469, 0.7218865707019814, -0.2450772588342819, 0.19359944102590976, -0.19847669877805088, -0.5690274084241039, 0.25505546840475785, -0.14558596792284131, 0.7275544652964862, 0.369227759395328, 1.2939883278733093, -0.18379283924472353, -0.16040704543771034, 0.26158495094245054, -0.007380622738642629, -0.19320757734091398, -0.0964353351042868, -0.2796991156808516, -0.11327403873775059, 0.8677394577355325, 0.04246521865896955, 0.399870807666214, -0.20109661113104446, 0.4998804581422462, 1.1326450844242355, 0.7512311667320066, 0.812145445053578, 0.06106759244961795, 0.14849034938237204, 0.5382943026070444, 0.3865833415755607, -0.5362461668979465, -0.6356894925126554, 0.7504267984203771, 0.3288696002432576, -0.1926099177937779, 0.060941268378299183, 0.1320818569918652, 0.7342121872276506, 0.036966281069798, 0.6541041670752944, 0.4870308102007993, 0.919816534082377, -0.042030867537319105, 0.4556272406554581, 0.3708497028764188, -0.22167262448687564, 0.07952217080808906, -0.1488656082181917, 0.758028792277014, -0.2572758514534822, -0.6181152975595637, 0.5308362950208944, 0.001126000538907186, 0.9653548832135216, 0.1837424746782768, 0.4487917103468987, -0.43440129505632513, 0.20958087677580658, -0.48910789698293533, 1.0558158294896027, -0.1473438676195913, -0.34956916132886195, 0.40643170532932016, 0.7086988738746226, -0.911227582165084, -0.5333972693238511, -0.008050720327962467, 0.023537242661820505, -0.20470082561260333, 0.047409933680623434, 0.9714283762708751, 1.0428353814490077, 0.6711297725028288, -0.448033811977383, 0.09593262031784305, 0.7949317451045926, 0.17200823128361986, -0.13876174525616367, 0.3180854223922743, 0.24738449647242006, -0.1908644500557518, -0.2962562113393744, 0.6098140801720173, 0.278410486251609, 0.264192568090324, -0.6855436311693196, -0.486482096021107, 0.07684578536022774, 0.0563220051125813, -0.06392207055287825, 0.6545152940634302, -0.15850972669210497, 0.43064207431186446, -0.2239758014604657, 0.2698314064892168, 0.5086003554747395, 0.24573189885492444, 0.14567294551215781, 0.23810848469887863, 0.5693951854778588, 0.7678008578051855, 0.21766327660769788, 1.2527272156237403, -0.21671351431090272, -0.42907546292239257, 0.17435710056626144, 0.09037641123146425, 0.2183166748987228, 0.5544536926437205, 0.007607806658500019, -0.24119367706441375, 0.8962993425159462, 0.6230390902988235, -0.14963847398688254, 0.3614949419128538, -0.13879889209796228, -0.17587678684392505, -0.24889939006966333, 0.21786899516504063, -0.2983754472094703, 0.39916422733203244, -0.8608792696405079, 0.0653985356867128, -0.029840413400981838, -0.09462685814029043, 0.24858994943026413, -0.7288849391141922, 0.5962819901527995, 0.04253714730255316, 0.20339661477596796, 0.5624997189045917, -0.16200380753744753, -0.17862203808068314, -0.14021670970797362, -0.8504341336440239, -0.6314277074301224, -0.7644603311070658, -0.8684008008329398, -0.1611058693341062, -1.0686845141977634, -0.7152692708678207, -0.1709794428467084, -0.05514397165254785, 0.6157889437347644, 0.3103439922426219, -0.3427580253127553, 0.16376401424194756, -0.23330912348544286, -0.47749356523307546, -0.22394444754229925, -0.21681055809955685, -0.02850647113029498, -0.3925060565722765, 0.029381203145220747, -0.08343967036093314, -0.43006776221650467, -0.28311478019864234, 0.9393870469944938, -0.41526473693839483, 0.31483512311730877, -0.9171194735122615, -0.7147591405151972, -0.04804562093656809, -0.5584694499987168, -0.04886875059584488, 0.34559564528380754, -0.48341624553849083, 0.16663787468003988, 0.4922519685006958, 0.011497543209261059, 0.17212893296754625, 0.5139581722984607, 0.04579583688393357, 0.3703584631865281, -0.3234499256969525, -0.08645482795560985, 0.8016686617859043, -0.1783500025087374, 1.272009481766282, -0.24305957608532835, 0.24361379602410696, -0.4805935153241225, -0.3758972790561004, 0.29856515373193476, 0.2819130335071676, -0.3474685179307622, -0.3066789833703058, 0.3686207673847127, 0.4218428360691014, 0.6046089482494638, -0.7577027556720709, -0.5195181143566912, 0.8834123536158386, -0.6021020568786656, -0.09465551263586187, 0.32097310758673636, -0.4662690534452324, 0.36344944012446806, 0.8887572846250277, -1.0023384112075961, -0.7316804757858635, 0.1687231008544367, -0.6027044773154029, -0.16976844723084225, -0.6325056253053485, -0.33882233461658, 0.1628751512826022, 0.11499734342229544, -0.36468271907701033, -0.8594666078617892, -0.7074389172552681, -0.7252202650605329, -0.5224339589446377, 0.6515161751666518, -0.1521727176371972, -0.12793206656565012, -0.16445487413586413, -0.10826271856373615, 0.2344065524089581, 0.27786334911123634, -0.11286390352517561, 0.47322336936496934, -0.07294095412295758, 0.3488907832220251, -0.5487319088564142, -0.3395676675722439, -0.799241738436328], [4.060960547294786, 3.75083860710826, 4.254428332785342, 4.279427291198446, 4.199580436061049, 3.570283806713999, 4.07936589777989, 6.0040744484376605, 4.164365141185715, 3.7882007795522052, 3.8113595273486527, 4.293353321047499, 3.8183689456465513, 2.760922059921054, 3.046498915862759, 3.3908535836487954, 3.798209856665865, 4.086663843262213, 3.5627771944341027, 4.48633342868174, 4.176742996010927, 3.821898771462816, 3.658709954320566, 3.5732487302131015, 4.4012349728852636, 3.525956040823288, 2.7936269587667, 3.118355731629651, 4.1695201184477595, 4.049168594112078, 3.2933495699124546, 3.4153219833656467, 3.54846441963405, 3.977490495271049, 4.261469716519621, 4.194461932474737, 2.749434074709711, 3.080686596875354, 2.2670525135221626, 3.0849277868571723, 1.6146239520205443, 2.5811669532788617, 0.45554050677155905, 1.3797102821066893, 1.6169773244477215, 0.5988505578819081, 1.0861587443931495, 0.500042367608703, 1.0557362008535642, 1.7133209580920048, 3.9187343589187313, 3.294793518216238, 3.4746777319372186, 4.222728193656297, 3.8082239172154817, 3.980365646283619, 3.878450793730026, 4.153833629472085, 3.7974047113079448, 3.4008001086433444, 3.742944632923464, 3.139336060998373, 3.752029350904156, 1.5568435951225297, 2.0929564866276844, 0.004929671412899051, -0.1330564188936458, -0.919402789162029, -0.07281665284036103, -0.024683805526859393, -1.3332400202208705, -0.305229286596635, 0.07907350089470921, -0.7520583886889841, -0.08122152443435865, -0.5381606324670252, 0.005995099644972109, -0.5279812259085125, 0.38338742478692317, 1.9193164156121296, 2.7046052300375707, 2.638901878243948, 3.285341230499158, 4.136140902899318, 4.919236579141754, 4.392847779141891, 3.1195381565561275, 3.354045060973181, 3.9392145134211725, 3.1537366318890006, 2.1795106333908545, 1.0005441216213686, 0.49626127903423517, -0.6842825344956428, -0.6995326648702389, 0.7243051837621086, -1.2789726596105042, -0.4759778759735997, -0.9987258069015209, -0.48663923188535924, -0.9543458189684862, -0.20286224184980967, -0.5997236060114376, -0.3905028866386757, 0.2936520839388534, -0.3509020638479753, -0.8233318478727653, -0.36006220412833, 0.25420553513666216, 3.3398188830202256, 3.445456977734468, 4.2094915794829975, 4.091189842822776, 3.1647782798620345, 3.731459396614213, 4.543141973985635, 2.464762189961468, 0.07911128974585425, 0.54278244437611, -0.6026594016546009, -0.5937820718859148, 0.28849607522916815, 0.4077848221175799, -0.12946282368109852, -0.4610492960145146, -0.4586864998715589, -0.10489653439467535, -0.25272153747446596, -0.04436814835309049, -0.844615937772747, -0.09589539693582586, -0.5470367859641124, -0.0359070362738734, -0.03609247840346415, 0.5818229174126792, 0.06808760054342702, -1.041957826593677, 1.525555154591204, 3.2846303256651717, 4.082525026673921, 3.590598086177516, 4.015744047450375, 3.8053236977226867, 2.429301976712292, 1.8061590167350248, -0.03639403346015526, -0.7522562034197148, -1.1223123667715384, -0.877020119483772, -1.1210035531707103, -0.33618801925631614, -0.49042381273211716, -0.6623079083599818, -1.0005259765373589, -0.5069971631200065, -0.9521899413557837, 0.19648331869890304, 0.4712580756076598, -0.8409730217574791, -0.17982937694962078, 0.11574972535366691, 0.1253982560066263, -0.08633425080353613, 1.2850961006974129, -0.4407537038431743, 0.08740252779301624, 3.1491339007377612, 3.472608449443268, 4.48333939257243, 3.2564661805484794, 1.9681423141850658, 0.8080357863337922, 0.39072662893074056, -0.19741727374663687, -0.024374472721447056, -0.6363326945925973, -1.0058636986307836, -0.8887651091030833, -0.7704396931133656, -0.302597867140401, -0.917141975654522, -0.44863599062777515, -0.005891475150600277, -0.10179708991496547, 0.018090059290297583, -0.42773741547874994, -0.8149595718942044, -0.09659484848792088, -0.33022118583512905, 0.5183852347198896, 0.12764745213130588, 0.40778967907649544, 0.9049941511936546, 0.47295426312605704, 1.830924671681025, 2.9336218167919514, 3.6246146093067453, 3.780780664924618, 1.6494587019785454, 1.2533657379009757, -0.4164870447916823, 0.016948214554024083, -0.5419164500036336, -1.2078863732509788, -0.36100798681430313, -0.2548416388951236, -0.11413886923101213, -0.633028510331364, -0.22489255509283512, -0.28115508792113847, 0.18881358841116863, 0.01992178441121162, -0.37045576680234016, -0.08716871789701147, -0.15539442246693566, 0.9666113010021349, -0.4634311034772545, 0.0635336674683958, 0.23397079652219654, 0.3961895387375394, 1.0168189785396988, -0.29313881662874, 0.7625049042105055, 3.6943088045000674, 3.6802273844747213, 3.0003950447890797, 0.7610723002888359, -0.059101773036879135, 0.17228151752445933, -0.9766943641202196, -0.5732988774078556, 0.44360556483804214, -0.38386143286272606, -0.010157979205582366, 0.14407883644491193, -0.033808264308950474, 0.2556895416467499, -0.30910216674891566, -0.42946830371196093, 0.3005685658020548, 0.1197420295546328, 0.4023154929278457, 0.49755975546859954, -0.019859866127883593, -0.11599088646273038, 0.4749380086407411, 0.48018676019185197, -0.1000556953349059, 0.4043847708322041, 0.8289196588741725, -0.9676304240720168, 3.8485068622065373, 4.292091511355743, 0.8531431037698086, 0.28379926553852397, 0.8305584181189332, 0.3511151065794036, -0.02730275672385616, -0.6845969270692854, -0.1924851449493581, -0.2936975771225443, 0.3334771717933298, -0.5238014126101979, 0.5643317706298694, 0.06484734557895443, -0.11548144988477363, -0.041484798304321155, -0.6424488819450326, -0.12294315946450872, 0.7600151651684003, 0.2416963356432317, 0.7833931126046529, 0.11590355580675421, -0.5682871106334897, 0.035383349951360867, 0.5012798277335327, 0.8777756599743942, 0.24160312692750355, 0.5226410843924209, 4.095821275146188, 4.072729548607016, 0.17306918019488682, 0.3224655166529771, -0.7573868903962273, -0.9534978751550675, -0.23383425914248882, 0.13689661897726474, 0.05531658667357825, -0.1886142746050061, -0.43624296605047636, 0.6656905039826588, -0.8078549309360076, 0.222650420556568, 0.2624479767083327, 0.6065347395210604, 0.3307945725782353, -0.21535763279710707, 0.24448327961782726, 0.6342468717498646, 0.7138454265657384, -0.014252015210749532, -0.5412687426311164, 0.39504244868526905, -0.8128028176949443, -0.4868312817875947, 0.056475108231809276, 0.35691995730575143, 3.324751450405589, 3.902456537777342, 1.4274577140019047, -0.12055780670521198, -0.5603267173606721, -0.3240171048807107, -0.8998990124952924, -0.8722306536343236, 0.22595721321731915, 0.014385699184817358, -0.04819268966585124, 0.2976273130963524, -0.022981494659219528, 0.18672691159545374, 0.2048526948048858, 0.23978546469354647, -0.02615836129347693, 0.418692031429731, -0.11836438276502802, 0.04682729796108672, 0.25796992558982573, 0.12265296345002878, 0.12821191416618608, -0.1078884582006059, 0.9298765065978469, -0.987972911461374, -0.4375325437167186, 0.32388822061062883, 3.2251485665007524, 4.491614661540183, 1.8917221983509542, -0.5843701559059851, -0.6419355223048244, 0.02787196845224895, 0.1347939033237483, -0.291035523098022, -0.13450268538439986, -0.07043756577361912, 0.6877921157979188, 0.6620666047826174, 0.3503794519210991, -0.04746809337232519, -0.04489444197140978, 0.5774435197439441, 0.3574408319631933, 0.17377026835070122, 0.5048652767784759, 0.4575789616155095, 0.4963162498568012, 0.0857111838753478, -0.5872736322414067, -0.20163666666355543, -0.4332533748654467, 0.32933008660561164, 0.576510624662661, 0.3918156741303445, 2.8975475270631237, 3.397565756372708, 2.632173767077837, 0.6479525617845612, -0.44979953824521424, -0.32510320154552097, -0.07396413292411944, 0.03951732452987898, -0.5626721566459293, 0.7011000282341171, -0.5342197386478688, -0.3454825575734248, -0.1570402998975042, 0.17178091830012232, 0.33966768144968573, 0.01773100907591887, 0.8611321019116446, 0.058510592788688295, -0.05282221811063825, 0.044460623417356696, -0.3258084450129071, -0.7555468930775578, -0.7963291659302646, -0.3933313711114092, -1.1543034518102273, -0.48963340889934104, 0.02512056873997958, 0.5512309323354991, 2.567739353619259, 3.2514429683590147, 2.4297342529808614, 0.5039387066182381, 0.6992898374426627, -0.7420417389113197, -0.6994723940066447, -0.6921947221026999, -0.18836591924110757, 0.25220043734490993, 0.43052179101601445, 0.5000737658566792, -0.08584869350011111, 0.3627337264974745, 0.23627300870593448, 0.249101292398424, 0.6620207223483743, 0.1055093774897936, -0.11985610494359963, -0.02389697136619897, -0.20899549451209543, -0.6368190145543957, -1.0229452370438161, -0.8283476822564546, -0.591161766252971, -1.0940336017661572, 0.4612234459872462, 1.835939201181354, 4.154009955952514, 3.5735928186320964, 3.389936835222749, 0.053457143754299934, -0.10451289865251089, -0.7152931177005593, 0.6025425181129389, -0.36631685183691004, -0.28856012854099033, -0.085448425227291, 0.1520923750937607, -0.19395359884402597, 0.11460533131789453, 0.456190086129677, 0.14165984073694923, 0.3313774069617471, 0.7386295302302229, 0.41433026796030864, 0.06296324565422355, -0.9522137229563631, -0.7331945815017823, -0.8648962529232737, -1.3778330939858257, 0.02531465156152204, -1.6488336937302206, -0.6689949839689476, 0.40144158921860146, 0.44150844576487747, 3.9882503093078676, 3.9066039031036355, 2.533671706329614, 0.6289054901534689, 1.5319113994250728, -0.3438850571392483, -0.9987650436805866, -0.46378568790875235, -0.10226488704238426, -0.018551413672071297, -0.016821838259934538, 0.9638045668150801, 0.22879536619909382, -0.1049527080339865, -0.27605308870844664, 0.46287588524781126, 0.4008317720250369, 0.3887496489773071, -0.597408667898472, 0.11154007967410763, -0.48865445280742936, -0.7848275442823469, -1.2757408512780917, -1.26484195156232, 0.32864594806422726, 0.11263062089931586, -0.3852314646871248, 0.7725355565898773, 4.061948937858567, 4.517648799729108, 3.859594734537296, 0.3557733650632036, -0.4501319373026922, -0.02172745166831943, -0.6316425009301624, 0.10607043465248842, -0.7996634326644549, -0.6847858006716019, -0.3135540392908773, -0.3905984753199386, -0.25844218354736687, -0.30982846604796305, -0.03397971468797977, 0.480300508019787, 0.22132108376980733, 0.7107027147367291, 0.07176011846003484, -0.2817071347662856, -0.2627371898642458, -1.6965168587204773, -1.1910277905881088, -1.70971687888563, -0.5262802299298036, 0.489870536775806, -0.9818468226529984, 0.2677670158809542, 4.0150384195697795, 3.7539333120702634, 4.058782031581267, 1.6943951647708557, 0.013447095483409244, -0.2679309953674443, -0.16803499621124712, -1.1838022561979427, -0.8558940885541418, -0.3452074271604805, -0.3076669893194864, 0.16499731532289194, -0.07272424288721961, 0.004529730936857016, 0.4778189051650211, 0.4870752312354519, 0.2083040768171589, 0.10924730684908118, -0.22083305491006228, -0.294530956258157, -0.9484784923410728, -2.5972206318579065, -2.0821111390296463, -0.8437395499353968, -0.3242481197030705, -0.10459890882854227, 0.27820542213415017, 2.51888990242924, 2.874933247341135, 4.335662838741364, 3.463306443550248, 0.05563455894047391, 0.08603162222253441, -1.2898527266940674, 0.3194019485353275, -0.5658735559636063, -0.9681938213532961, -1.0019597284503576, -0.6144807964513505, -0.5416351537169328, -0.7731865708024785, -0.36057532620958443, 0.2762860489843414, 0.06349063024802235, 0.19273375544687182, -0.25165613171612994, -0.6568893627433701, -0.6846566072230572, -1.0167415377005942, -2.2243154985124365, -2.3669772530922084, -1.2198851276885188, -0.3198390008907118, -1.5125262842698735, -0.1439689831107648, 1.9812767702707244, 4.014370056532999, 4.461167149395846, 3.1155586921995053, 0.34691797735953334, -0.4374272220470385, -0.6351755097413322, -0.3477736065446449, -0.026169356192864993, -0.6934170976093728, 0.059942584263722044, -0.41344486738996217, -0.00349026825846119, -0.13173777336878428, -0.3254992411950934, -0.38932458304647455, -0.07784624727360735, 0.8026906059490199, -0.187695692419495, -1.2372587631186698, -0.11718591777454052, -1.4777317429424488, -1.837319751485085, -2.270051681546181, -0.3857415903941793, -0.44560113470819923, 0.2463180722344755, 0.27585861351940183, 0.8392627666755086, 3.768568906999485, 4.29713586499905, 3.990841888545192, 0.19802081267068802, -0.4573287786445531, -1.0043988019021073, -0.05521137995752078, 0.043313847870393316, -0.9389466949206249, -0.8050335455220208, -0.03644638315612171, 0.3004990379098014, -0.47734931499996275, 0.19272296055055826, 0.27569993081912864, 0.1378925250188624, -0.1821800056152939, -0.01873963665620778, -0.6495176014340128, -0.7119830959209109, -1.1991241426329666, -1.3027598164349754, -1.8699090954290283, -1.1112478550799536, 0.12564569627734393, -0.589395272267889, 0.3228081635368817, 1.7510896177492952, 4.002949792721086, 3.1451848978963057, 3.26475930363948, 1.1451856191920138, -1.2628637584836915, -0.2832800377366627, -0.446595832115174, -0.3733567260976567, 0.1117871392782196, -0.3078393948193775, -0.050845033536122346, -0.26298287465052117, -0.40466601770070987, 0.5209947244582458, 0.1121474389897478, 0.34611844338888564, 0.1519535275466636, -0.2533913460388298, -0.5447682197021765, -0.7389193918494881, -0.43366242499875773, -1.5588934571413064, -0.6003677205694921, -0.756452188211835, 0.09210352924643829, -0.56022471436746, 1.0042894943633036, 4.1692946649622815, 4.368997777334902, 3.522921301878942, 4.009283615071909, 3.069395214954557, -0.017240679381739052, 0.20501176271970384, -0.08925182559890422, 0.21065058400429806, -0.10300340586641217, -0.3146563825757815, -0.07418176269441716, -0.9390642204847994, 0.4922801251678766, -0.3064293569036708, 0.1441147649899118, 0.13262262593034405, 0.19065881005793986, -0.204193408475676, -0.25666003795540565, -0.6913715143645098, -1.0458216885311042, 0.3241016618720075, -0.24470026727220034, -0.2411653809934332, -0.515232232458233, -0.2766682898871811, 2.3894501185881296, 3.9395476354152756, 3.699949425126827, 3.3253126850968324, 3.593736851328742, 3.255917576037484, 0.8993195426766704, -0.4540292826240581, -0.021676904184792775, -0.07922800262210267, 1.1227247204622919, -0.3788556970454746, 0.8283887286611565, 0.7549936119621652, 0.22312507407215726, 0.7591132482257857, 0.9538599074529537, 0.42357989086721615, 0.9406597480345545, 0.6324269016887037, 1.2343474291038485, -0.3540988889999583, 0.6692050056357064, -0.29355938949691424, -0.3850408279454317, 0.19431859961365977, -0.4904091430442015, 1.5757726359098003, 2.788809038362928, 3.085238037555404, 4.00183295480665, 3.2719359357838926, 3.1128358057005188, 3.9593323764484887, 2.8857205584614154, 2.4431957444339445, 1.408632692571725, 0.09953602881800618, 0.8407485230595424, 0.5146482232527763, 0.9715740082674862, 0.48088357546979, 0.9955386207290045, 2.0827594678236028, 0.5408183615184825, 0.7116130020301072, 0.4695614718581067, -0.005525851074355108, -0.1621190850090976, 0.05050041604060587, -0.9334961086088515, -0.3075734741825258, -0.10914983209712599, 1.7963175344222424, 0.5627671354176979, 2.7834961890768004, 4.0195560148997025, 4.330545789002417, 3.8151261998278527, 4.245961952625383, 4.221738935950277, 4.625427030862597, 4.150471962017607, 4.196677400785786, 3.9798876686169544, 3.8651539948013887, 2.815288415654708, 2.720361412776065, 1.3368674113376657, -0.10385503592689196, 2.0905619544599525, 0.5459418870246193, 0.41408087023444684, 0.9550327177167273, -0.674999399744045, 0.9673983269026059, 0.7051308591169964, 0.13697556915178788, 0.42658947070805675, -0.5352380623368371, 1.537572968814491, 1.8453118071989618, 2.931881911038334, 3.587315354091858, 4.001484660011454, 4.42188454642631, 3.677440022396928, 3.2291155686555544, 4.183972390267669, 4.233004481460967, 3.2034453177730016, 3.8341179501509157, 3.555423590866562, 3.8463416515983475, 3.858709331283259, 4.33091733084889, 4.253556477311159, 4.200194184247162, 3.97446099206004, 2.775635272843843, 1.7562799900267818, 1.272698271073336, 1.4622783116310625, 0.7173146180179647, -0.33130726483022743, 0.7794422662185413, 2.3126138764608943, 2.671359488210363, 2.8838083377689085, 3.9435887625541484, 4.086526270721067, 3.611506800455095, 4.20119169621242, 4.208561787855227, 3.131592310702168]], "bias": [[6.274251054857131], [-12.669264698942335], [-6.887841366830787], [-0.21146115924157077]]}, {"type": "hidden", "nodes": 4, "activation_func": "sigmoid", "weights": [[-0.7023447205970386, -0.540410579570954, -2.021918649354858, -0.5066306661502107], [-0.676800508087267, -0.5107719362810144, -2.008240779888669, -0.5091511101378793], [-0.6971215650607584, -0.548473267917946, -1.9944800771386098, -0.5150407806895696], [-0.6619919842525395, -0.528771259741905, -2.0282098316913206, -0.48983421693516827], [-0.6749393663254739, -0.5293057249023737, -2.0265724831142724, -0.5116509123959778], [-0.6835018607636939, -0.5624084356534809, -2.0179269070606694, -0.5350791105330798], [-0.7022192027748755, -0.5279222096646105, -2.009570434331426, -0.5136160326655927], [-0.6957400090111995, -0.551384748141153, -1.99778810815721, -0.5305973232574577], [-0.7047868613744569, -0.552875520869929, -2.021630529002249, -0.5080590622287162], [-0.6498363260785783, -0.5323310877747076, -2.021967902131181, -0.517037466457173], [-0.6916581731461047, -0.5676037207265389, -2.0114746606194225, -0.5478170870728832], [-0.6603700895876575, -0.5521690566354214, -2.0248729786400506, -0.5074273755935269], [-0.6926688875814098, -0.5504298247025671, -2.014104363257647, -0.5294207319449242], [-0.6640060322242992, -0.5329918126373463, -1.9857677472428679, -0.4912835663361002], [-0.7033255270888471, -0.538009068704666, -2.011109116899291, -0.5058682061036534], [-0.6982210037237996, -0.5299246229972546, -2.013071467434163, -0.4855490802794747], [-0.6330846378974431, -0.518507124786648, -2.0114834174561524, -0.5184758347818376], [-0.6734930762960167, -0.5384606796269259, -2.0022681591344558, -0.5059056065746322], [-0.6658942629410688, -0.548972474183826, -1.9782787202635883, -0.5270186835569445], [-0.6866923110983215, -0.5475424452390177, -2.0051797479077, -0.5241602306446911], [-0.6479389571739221, -0.5249522528475536, -1.9763728649635812, -0.5230030927074304], [-0.646300800139495, -0.5283817653455884, -1.998694633422973, -0.5082385754883628], [-0.6783417949483459, -0.5400135497808203, -2.0304623693594595, -0.5127777350065789], [-0.68385184622704, -0.5503550440878626, -2.008808937528695, -0.518392609343793], [-0.6944737595779955, -0.5377477488960843, -1.9896806874687556, -0.5365349347666336], [-0.6716690339075585, -0.5486720928319131, -2.0309658094395315, -0.5090697966425269], [-0.6647041697665373, -0.5429220624989722, -2.0217747172267795, -0.5010367858830725], [-0.6781431689458038, -0.5482388304141188, -2.043145924026086, -0.518612008211799], [-0.6672465201999266, -0.5361457330371459, -2.0296588275620433, -0.5076600435994904], [-0.6872921078845311, -0.523051911333914, -1.9951909231326197, -0.5149620637392933], [-0.6938283550315659, -0.5392126579467226, -2.001214408577176, -0.5004932775542978], [-0.6839354579867469, -0.5511247264213555, -2.009978741951471, -0.5259819375957772], [-0.6740157493390515, -0.5582406193507191, -2.032647302408133, -0.5191207182010624], [-0.6642185947160028, -0.5425342215797898, -2.023650101583753, -0.5135414809847659], [-0.6751895284975907, -0.558342730775594, -2.059266493301801, -0.518919172021107], [-0.736604061815265, -0.5589223714964867, -2.010049324150335, -0.5303641816016699], [-0.7043712324552194, -0.5270520461553896, -2.0006545949733083, -0.5091342276560502], [-0.6684303120317411, -0.5500967275729853, -2.0048938807832455, -0.5384874826677157], [-0.7242472551623925, -0.5659365664202461, -1.9268933686765233, -0.5399499084985415], [-0.7396544002202714, -0.5876926333954431, -1.9681680583884256, -0.566920232494393], [-0.6969395259698822, -0.5616995534287732, -1.92598671292432, -0.5370620400846504], [-0.6497004797078624, -0.5268029277228905, -1.9637186506704276, -0.5498202100820326], [-0.6521336703416657, -0.5364957634118378, -1.963770024805719, -0.5667491051607576], [-0.6227045647461986, -0.5070089904145084, -1.9638289035608456, -0.5209811370025189], [-0.5837571077597813, -0.5033846247319157, -2.01816231074528, -0.5310277439083264], [-0.6281598899470028, -0.5033392444216062, -2.0040115902186204, -0.5214563049119209], [-0.6073397303208224, -0.5167085378974984, -1.9940509158721136, -0.5102099022781614], [-0.6446306505084908, -0.5049043208084572, -2.040207379960517, -0.5150744365004238], [-0.6899230774729754, -0.5293205992312567, -2.0349807054468148, -0.4981576703291103], [-0.6417855819670704, -0.5349410940536288, -2.0257592089878074, -0.515052590478453], [-0.6757035736011742, -0.5280045883905038, -1.9891610155198172, -0.5118103998579059], [-0.6961370950715017, -0.5170625282525365, -2.0206793158932235, -0.5131830962725448], [-0.6769370505135848, -0.5494518954175559, -1.99940178504712, -0.5315762683964473], [-0.6496714255629669, -0.5425562944341275, -2.0362808074433163, -0.5207939210324547], [-0.6857209801106278, -0.5347781083079615, -2.0248863650860285, -0.505729014445035], [-0.6780207535626237, -0.5292554530776425, -2.0016498222275887, -0.5000868023877602], [-0.6508926688340407, -0.532345923771, -1.999729895961347, -0.5288815956250892], [-0.700716672506901, -0.5426323333135709, -2.014431548319151, -0.5217114810360372], [-0.6917033064926229, -0.5217309325586679, -2.02222319949508, -0.5256391477799796], [-0.6487843078586307, -0.5407409364065182, -2.0187561844024975, -0.5058150069482861], [-0.6991814507543793, -0.5384945481043562, -1.970813924221119, -0.5195327637219375], [-0.6623148220839635, -0.54255236522535, -1.978209010310325, -0.5386350986935498], [-0.7005078981172149, -0.5692034550799032, -2.004186173097928, -0.5244396797645974], [-0.6786905365777426, -0.5479760326208906, -1.974141371799822, -0.5537627067906488], [-0.7339241608106193, -0.5709346303065334, -1.936365206985331, -0.6101021786059732], [-0.8000530465596252, -0.6090052008264633, -1.913436069527911, -0.7132549781599783], [-0.7805425709103991, -0.5978286367456069, -1.752426355957114, -0.8056348656427726], [-0.8385745334366078, -0.5990490980749723, -1.7007027231114877, -0.9507470771235725], [-0.7301711489117868, -0.5178529132336641, -1.5940591666195043, -1.0918653897628046], [-0.40058675362946145, -0.35089605651402905, -1.6221459553594593, -1.1587412950753393], [-0.02311400866737491, -0.1264876181207186, -1.6842551027296349, -1.202300496445834], [0.37906203925947707, 0.1568567105390374, -1.8025123863761408, -1.2052793538079214], [0.7606752585716482, 0.38894713727648894, -1.9991744249432604, -1.1932759310880057], [0.9596423062050508, 0.5173099483373335, -2.1284438825934506, -1.1020289004834922], [0.9432699189162862, 0.5305657435252797, -2.246278280000546, -0.9509791833553198], [0.6961945696066012, 0.37247996437394415, -2.3103971180606027, -0.7888281790053819], [0.16184655753894844, 0.025067942378882997, -2.063285649218131, -0.6161233005902834], [-0.28083968628455147, -0.28734247537702545, -2.018012149632011, -0.5407554233686597], [-0.5268108570963105, -0.4425780990630539, -2.037044649358941, -0.5169861365040049], [-0.5872606004193803, -0.503181988886845, -1.9767509483305183, -0.49745164801382313], [-0.7060019583630653, -0.5451700869945721, -2.0257628382613495, -0.5356544319837971], [-0.6880197111409887, -0.5149703168114916, -1.994228407402611, -0.49381654974639116], [-0.6411163049126749, -0.5122717372111344, -1.9877393312900127, -0.5068865816857747], [-0.7200104346147638, -0.5383474482516306, -2.000667405399104, -0.5106167091334091], [-0.6814136583008162, -0.5340069249894268, -2.0406844773381914, -0.502061107694313], [-0.6829006745692843, -0.5216201441037066, -2.0292041789726003, -0.5181926976641439], [-0.6398392487634498, -0.4945663298555021, -1.9999953310900862, -0.4979332589375101], [-0.6995056406813642, -0.5571730161821477, -2.027841712392371, -0.5189764913632522], [-0.6548894620931367, -0.5399014063356199, -2.0204186821681756, -0.5122348053090977], [-0.6704006399580799, -0.5294725958241926, -2.0053996476527978, -0.5292116156039808], [-0.6956462732340578, -0.44252086247747563, -1.9574587136332808, -0.5887365774326422], [-0.7308008944246822, -0.36387269267912015, -1.905224901670335, -0.6719598121321904], [-0.8654296490491404, -0.12723236345769873, -1.819657551020739, -0.8831719127355582], [-1.0083714869694316, 0.11870068708887295, -1.6379113150173594, -1.220932633468978], [-1.1413484327844954, 0.22229868784354848, -1.4684835140424184, -1.5811147736058837], [-1.0201434677768038, 0.31541485480123954, -1.317783813215973, -1.892761377984071], [-0.6372119118274393, 0.4338278549197788, -1.3173273581701992, -2.0934245449557367], [-0.2100040564609683, 0.5592613509073724, -1.320365162077313, -2.195439401503834], [0.26938076018873525, 0.7204359565249152, -1.3324781552256493, -2.2322954620436852], [0.8062707140244462, 0.9748689843101588, -1.5786060105304913, -2.2516676586269413], [1.38096001518321, 1.2177176654337345, -1.8133592414835467, -2.1280147198191677], [1.8564442606255014, 1.3925567048697478, -2.1874719712031823, -1.8565201720008953], [2.144493046616676, 1.4134626656854603, -2.4177133613736377, -1.5901459878861872], [2.033232915543761, 1.2866062773368652, -2.4786423265448536, -1.316232860922965], [1.5500495168081534, 0.9479396183226555, -2.4101332930530046, -1.0119971738947102], [0.8204421033937562, 0.4339152306497102, -2.2689073328398517, -0.6885150231561106], [0.004454627279774877, -0.14997834779972866, -2.0065322745355973, -0.5222027116422822], [-0.4400220123726283, -0.4165131240943896, -1.969777268919887, -0.4861115137151803], [-0.6382733137466913, -0.5101547379037151, -2.056100856781752, -0.4993783426324179], [-0.6528157999751245, -0.5172956353006023, -1.9997066036721407, -0.4998025084931992], [-0.6578137689521975, -0.5550958376206864, -1.990080084219555, -0.4868459865336273], [-0.6739390359295853, -0.5636015640844536, -2.0086765491499543, -0.5071472526316544], [-0.7344841182860564, -0.5478449385536607, -2.0266337867772313, -0.512815921138167], [-0.711535109513482, -0.5545788527911504, -2.0329138578904904, -0.5221897197147792], [-0.6975697211201637, -0.5427866493164673, -2.0294667959149093, -0.5023408887360393], [-0.6916945745481694, -0.5466612123040201, -2.027704749401333, -0.5284049817970485], [-0.7072547722427545, -0.5028864754958928, -1.9884532727349644, -0.5316824337400635], [-0.7225963116026985, -0.30708209736149095, -1.963371771260193, -0.6058430870409918], [-0.8615990243988073, 0.07628797048074677, -1.8223952207254226, -0.8511806680503005], [-1.3208030171236114, 0.6339633403905107, -1.687883224594247, -1.422204852564308], [-1.9007363093015799, 0.9457434399961809, -1.4069374920052031, -2.1407351255312808], [-2.196102869608335, 1.0426407851608661, -1.1736765617389466, -2.7776574903204914], [-1.9500024265063984, 1.098450960981173, -1.0330685569089717, -3.12840615546391], [-1.5443871313315707, 1.1784639745331142, -0.8681970499796733, -3.0604940128194795], [-1.1336877014335822, 1.2365955890974474, -0.8079574489602456, -2.5829688730152114], [-0.6156705894039023, 1.2634234495395114, -0.8399103153693641, -2.2058246196252345], [-0.028092453410770435, 1.2791419776328021, -0.7683990819439389, -1.9877814172600599], [0.6410984510978184, 1.3034344490265664, -0.9552916464109961, -1.9590830975236488], [1.2894968605288206, 1.3123292324987734, -1.212067498441348, -1.9894577533363234], [1.8368461748783234, 1.3083073402649343, -1.4446543282140327, -1.8588694426314643], [2.2105818121402976, 1.260811465247554, -1.7903068153786474, -1.577703452922353], [2.337590664969059, 1.1037768515797792, -2.0119429793117596, -1.1301176842512082], [2.2531705185318702, 0.9330463871375282, -2.1658901948830223, -0.6478259797391394], [2.0109273444494007, 0.7684711401046793, -2.376178528396324, -0.28577680683297746], [1.4102148797340326, 0.47528764696210535, -2.400426318241954, -0.07317026200719966], [0.5572768579696981, 0.017149273241256906, -2.244814800841127, -0.1906002471905328], [-0.2519848553921575, -0.33754326820567276, -1.9839785366322138, -0.4020187308668241], [-0.603965085335706, -0.48950964493526367, -2.0322153502347993, -0.47748401959051673], [-0.6622467643206333, -0.519811413979032, -1.995883260850486, -0.5021735599100298], [-0.6999165340204284, -0.563272469615993, -2.0784540111290366, -0.514308090195413], [-0.6602274208952857, -0.5255509058906176, -2.01117898756283, -0.5257179596752625], [-0.6859334021504933, -0.5331970078083882, -2.0307293656349747, -0.5245201673984484], [-0.6955499292229884, -0.5201509823158598, -2.033124486643224, -0.5087790693320245], [-0.6769743873852, -0.5063189728414634, -2.0078706480155577, -0.5278132828298869], [-0.7122018532414999, -0.3438154765641142, -1.9511497018721078, -0.5988495239414479], [-1.005520991261209, 0.22065923389353498, -1.7633541733379352, -0.9918285322779514], [-1.8118910711806533, 0.722697291620104, -1.4543193396421534, -1.78463342359861], [-2.8267319835982136, 0.9601644152811474, -1.2017496663812506, -2.6630741096454242], [-3.708868451204906, 1.0547967792216661, -0.8744321712310863, -3.462932874564016], [-3.5446837120206154, 1.0922489230046941, -0.6014371850401894, -3.879226413626932], [-2.4566823007941037, 1.1613989824361377, -0.46909714672668157, -3.639175657272775], [-1.958390839114159, 1.2255473889597899, -0.27334209266372833, -3.170997723014442], [-1.4142962787517568, 1.2205603743695892, -0.22623939571607618, -2.6713376757721887], [-0.7704624839452296, 1.2644750146603303, -0.26538745391944973, -2.2614783534526395], [-0.18689522326170743, 1.3790075809291846, -0.30228877814746297, -2.0312376350746946], [0.33215887833758084, 1.4280038533104689, -0.35198646715030407, -1.8360607792132042], [0.794885001500112, 1.3200388742257165, -0.48967337073082406, -1.5362289796229824], [1.2722230834252826, 1.1811983805425186, -0.7191117933567562, -1.2430268689782777], [1.7526094353484827, 1.0104136078800963, -1.0401436872008245, -0.9886563107087256], [2.116705587006235, 0.830091900263247, -1.4098733944434914, -0.6513204018965416], [2.4051728191750614, 0.6356689484347477, -1.8086796039033592, -0.24656857153189482], [2.7799208241575126, 0.4363611649605289, -2.3037757153780105, 0.16105485598071048], [2.71639713251082, 0.21959041510271407, -2.6174984160881496, 0.521330253702151], [2.056067999173745, -0.02245294585501916, -2.5740784622459487, 0.7717724371303337], [1.011510079250069, -0.18762098525802337, -2.450559673870027, 0.49367410274028317], [-0.27328288247291743, -0.440767876116219, -2.0072118254240583, -0.24823674295756382], [-0.6199432321088975, -0.5400361928472073, -2.0426952286510267, -0.4768843104889921], [-0.6723939526558826, -0.5446636056721212, -2.0412623500974445, -0.5132816201641474], [-0.6938358648671492, -0.5406138936885735, -2.0450122562528534, -0.5173064688857666], [-0.644109755586096, -0.5279607468958224, -1.995878347869251, -0.5216269921781437], [-0.6478515451815069, -0.5287749816799125, -2.0298959135066283, -0.49679543938350956], [-0.725146864233321, -0.4595127865437569, -1.972313262040056, -0.5448031959404183], [-0.8891731133936044, -0.11079179355687008, -1.7864067316839183, -0.7482960212742763], [-1.5820710504318412, 0.32062871098135953, -1.408346042943035, -1.4125927849139222], [-2.8039330060584455, 0.5694014434512062, -1.0569119757384666, -2.245790793859211], [-4.331712587273596, 0.665362266704079, -0.7157701095360388, -2.9352069592310364], [-5.485620887545692, 0.6517326879687155, -0.38232203768798034, -3.1398923631618034], [-3.2368132921535087, 0.5666741302636403, -0.06693254941098882, -3.00270967616801], [-2.2169339511822037, 0.459977187742973, 0.10397505622156478, -2.7868510608923787], [-1.5699913775684913, 0.36737724914910497, 0.160284523848317, -2.434729381620612], [-0.8560748099033926, 0.38719273904971346, 0.13386129711294653, -1.9501053731894291], [-0.2518883218049431, 0.5493109249679208, 0.11397301612019245, -1.6138043126375607], [0.09496841166806007, 0.736956894279751, -0.009758980361078388, -1.3764683425007473], [0.2866248081038158, 0.8429698777827748, -0.06956580050473497, -1.1379934305587514], [0.44401067684782564, 0.8153094741377861, -0.14224987640312467, -0.901936835022028], [0.7722476454817788, 0.6943945734405627, -0.28777980184809643, -0.7191685867487843], [1.2961583680501878, 0.505001007338411, -0.595840476683319, -0.5657842581278292], [1.8757537587471371, 0.3017194891980079, -0.9687020081098792, -0.33846499001411856], [2.4322923971348227, 0.09356558053819329, -1.4836435406594428, -0.014440441874847191], [3.2783295461147253, -0.07821916608883187, -2.3634326827637877, 0.35445082290321217], [3.746069284923641, -0.18959344989710375, -2.966161696232969, 0.7277965335695677], [3.006609219593882, -0.2620809639061981, -2.8942649627599013, 1.1080164625375395], [1.9435372895136078, -0.3031975980013722, -2.7051632813335367, 1.198305763201453], [0.4664699343339571, -0.39958553177481393, -2.22847981636266, 0.3122561865866623], [-0.5197562428570469, -0.5307131669209003, -1.9867997303749534, -0.3476920174843337], [-0.6477361780411637, -0.5323715932745391, -2.0368782947951574, -0.49893195915903554], [-0.7199082961528807, -0.5398736733607185, -2.043786524010128, -0.5284008520104588], [-0.6440350236431821, -0.5363581728790577, -1.9956743302223856, -0.49554995939630203], [-0.6650767858546038, -0.5459976653197807, -1.9750647325617174, -0.45958214633614064], [-0.7971687104841254, -0.48676448221937496, -1.8744199081874953, -0.4277037415455007], [-1.1412517192595968, -0.31393420489287094, -1.5240408953365403, -0.6030957841018146], [-2.1037941793003108, -0.15925513525447108, -1.050228853312424, -1.1147937281612328], [-3.527020161962726, -0.03846785872427676, -0.6927436360944531, -1.5143052440426512], [-5.088002591656426, -0.1174060578235897, -0.2942911336990126, -1.7607944713477253], [-4.78081013094037, -0.3410504341237985, -0.010312167817577465, -1.8611845347716443], [-2.4560524225296114, -0.5907595824199557, 0.28520469060852033, -1.9063600885521443], [-1.6841576856294866, -0.7325274674768606, 0.3991508295991915, -1.6893659534442025], [-0.8291131387592569, -0.7307625864810082, 0.3207167813026333, -1.2575628606289564], [-0.12118439608115895, -0.582319989875754, 0.23038202122911786, -0.8711068461821085], [0.3186371015845756, -0.3697044737270976, 0.06706663524995726, -0.5265460077947485], [0.40154112926565333, -0.15963535335953366, -0.014818178806992148, -0.2207230587588328], [0.19541950698918492, -0.017238601146369152, -0.03996516602199565, -0.004831449102060965], [0.01264622261878361, 0.0018623544360467587, 0.02897911181377661, 0.043733555630036725], [0.19062547752374068, -0.07801983568421988, 0.03824136791043512, 0.03789325631468737], [0.7829368401141886, -0.22254938688175896, -0.27967059269634026, 0.015694977325112536], [1.6012462348028256, -0.3921921610069056, -0.6826669051175072, 0.07695285374530654], [2.3640635909901495, -0.549477877583078, -1.1719230205520998, 0.25675599355714535], [3.2525283933389137, -0.6888450984076865, -2.0857705259155006, 0.5376239913792955], [4.513673611688206, -0.7231939208554005, -3.403625926366441, 0.7826173642961476], [3.6227161652760707, -0.5974595441270394, -3.0583035624976973, 1.1661243821583096], [2.40192803769429, -0.42746912367608786, -2.861915771747461, 1.4639933832188807], [0.983178938324856, -0.46071502678673887, -2.498360844574964, 0.7748235688340692], [-0.44996435833491755, -0.5249105604217829, -2.000831628015996, -0.28543337578590056], [-0.6982452087955271, -0.5222461644732509, -1.961866247754403, -0.4831365689224038], [-0.6670967886205791, -0.5516152307310848, -2.0037337786601297, -0.5048332151589063], [-0.6934817422666096, -0.5447952219258225, -2.0159633009929525, -0.4815139896249939], [-0.7519033227096771, -0.6142293917510981, -1.9536140296812745, -0.3470943398713645], [-0.9368283464137377, -0.7337569044451434, -1.7873914623203264, -0.1113666529095267], [-1.5254779366924922, -0.9012274467917575, -1.2903387504770096, -0.2638380897791309], [-2.5803321336924694, -0.9246511470143619, -0.8777505843962969, -0.53975149610735], [-3.9630061911246264, -0.9234446667118118, -0.4905786382606339, -0.8458160137567203], [-4.575556794225822, -1.1593060045646038, -0.030331747321362408, -1.0858994372379263], [-2.6906264038443743, -1.4906454248429963, 0.26178904779488377, -1.2796075721595772], [-1.9634469717318013, -1.7242230280051616, 0.47036444632616004, -1.1675046087317913], [-1.0759817312469953, -1.7134914266037369, 0.44230484690353267, -0.7475634025499288], [-0.08476578086929082, -1.5168339094076018, 0.1586852385188249, -0.29570160500958065], [0.7335070571771942, -1.266293244224184, -0.03720411959236352, 0.16103368457774409], [0.9470701132821925, -0.8953082612488661, -0.22481050919970572, 0.4553612604860901], [0.585650239911436, -0.566753090341919, -0.23603558324314702, 0.623400877089308], [-0.018769172849385323, -0.3527745749120946, -0.13457509612979543, 0.6672064392077017], [-0.41554394327368716, -0.2902105006588012, -0.038036847055534985, 0.5920330512915759], [-0.37350244261481985, -0.42299679411370533, -0.021460997397713608, 0.463455215262273], [0.2617616501511506, -0.6071243169713804, -0.13666925818705422, 0.3911050594051088], [1.2454036812362421, -0.7886973631898081, -0.47904518964107295, 0.38262565527970077], [2.1419661450921637, -0.9998673411438347, -1.0103036094160192, 0.4003733494801349], [2.86183434114246, -1.187596745560383, -1.6502130298083297, 0.5163288233472361], [3.902674403846972, -1.1847457840817759, -2.8760613506723467, 0.587837629128644], [3.3849710882972364, -0.8775694740070988, -2.832131280603674, 0.8538057307796263], [2.2868832772762735, -0.4939102501032236, -2.7554591929664425, 1.3152163966204395], [0.9522544997350124, -0.4204956937837164, -2.5182521917990983, 0.7702129241731396], [-0.4693310693466628, -0.5137365115846305, -2.041027739311384, -0.3112401090354867], [-0.6866960024306578, -0.5366402537140054, -2.0384019281924903, -0.5000408258019315], [-0.6862584849115851, -0.5464603831943896, -2.000873302602682, -0.526702255751697], [-0.7251055678898998, -0.58262385646991, -2.034124180303014, -0.4720050390127369], [-0.7449499152983572, -0.6467038474259283, -1.892010434704907, -0.21879110637218965], [-1.0525231571402718, -0.9693893039552102, -1.7065686739396275, 0.09397948018272889], [-1.7181374018700604, -1.4399350641182835, -1.2054534795088603, -0.04206911417236299], [-2.7233558721633973, -1.6914509780260556, -0.8128348646273283, -0.340588163895742], [-3.604666742222307, -1.8595569856864111, -0.3432761679830586, -0.6810318127765674], [-2.666812658786546, -2.2470685850196115, 0.0488183041767826, -0.9177042808904239], [-2.010320796716268, -2.5368003140829476, 0.38037046511815453, -0.9403914649387319], [-1.310220791785104, -2.5231534584355435, 0.4234514871718456, -0.5603528510642539], [-0.24002774855963854, -2.201207670498537, 0.2195372222078498, -0.047157057322669345], [0.8823776447976397, -1.8514931953363296, -0.11892335142688529, 0.42549924272748313], [1.4001216735211468, -1.2643144983789705, -0.39971081384105833, 0.6468280153462734], [1.1198370880707642, -0.6213230904668646, -0.5633264944403172, 0.7131420770975045], [0.3664983446233668, -0.1766477918503363, -0.4986456517480182, 0.7575929918263976], [-0.4449956272033323, 0.09844364696539758, -0.34845248623293823, 0.7792585606879805], [-0.8650214777182572, 0.0770791449318387, -0.1583017510854402, 0.6735689672789557], [-0.7741394832522482, -0.2676002048553501, -0.01205684915772222, 0.5351648750552571], [-0.10630532201969675, -0.6240978371331368, -0.0710181554666823, 0.5005678463901764], [0.8992969816298657, -0.9151227741049386, -0.33888910742058836, 0.4501454581004043], [1.7664037661981753, -1.1995918613406953, -0.7963830510455333, 0.2904577142871601], [2.3207227045839507, -1.4913290450252088, -1.2822953493523626, 0.1390170736882515], [2.685302136090754, -1.6333059947503852, -1.8223104719297611, 0.002541144458279975], [2.6472174098779417, -1.3473003343432937, -2.258211268156236, 0.19355782208599426], [1.756614074895389, -0.6926373059458337, -2.350429664690913, 0.7391555012734192], [0.4580694871617502, -0.4419626111159491, -2.187098550460866, 0.36305499507979677], [-0.5248844446169274, -0.5107649650077916, -2.009506242015137, -0.38301735881465104], [-0.6673863921833262, -0.5205489280226107, -2.0427170726986623, -0.5081104617783296], [-0.6932244869649813, -0.5499892491041792, -2.0215396684610525, -0.53385089798849], [-0.7143565109220958, -0.5376929534008094, -2.0329615856671706, -0.4378348603815733], [-0.753697742469314, -0.6713661383893202, -1.915008529206065, -0.22142746519114512], [-1.0128528104381629, -0.9977784034744921, -1.6916856222852286, 0.06715628758711234], [-1.6063334650971945, -1.666223081414079, -1.2417036732883031, -0.10915174403044242], [-2.4429537408413164, -2.4344953482553477, -0.7278974216695463, -0.5435498130649699], [-2.461948445184143, -3.230694831112646, -0.27025971884019484, -0.8925745716428004], [-1.8939193785321167, -3.9353271838083845, 0.17041670039480805, -0.9963663354158406], [-1.3094753804754318, -3.5699006567638287, 0.34674440146439867, -0.7261719147651756], [-0.46270415888744504, -2.846834899777811, 0.27990279448497796, -0.2272743388035089], [0.7111016969456281, -2.2189004534782266, -0.08488544498180338, 0.2730960021699071], [1.4441774150169344, -1.3864401686529675, -0.46989294640774, 0.41602797290252513], [1.4976670590034964, -0.43643801301100826, -0.7127965797728155, 0.38734190271561236], [0.9334573158663235, 0.23436093326792842, -0.8209053609110473, 0.395555639150743], [-0.12755265403673854, 0.7264670559388665, -0.721952218609449, 0.5339487394033373], [-1.0190251227558154, 1.0433213902726794, -0.5821603544826933, 0.6031726771975472], [-1.1855430342150073, 0.660698218364511, -0.2425974770308093, 0.4746605295253849], [-0.8788582175723979, -0.023939473663469386, -0.059639259060991934, 0.4332607276760717], [-0.1831324915248319, -0.6455842133952101, -0.06412522230863346, 0.5142004960716529], [0.7063853084569218, -1.0710795516876097, -0.3489017340067095, 0.4370291343859126], [1.45788252513774, -1.3766996783444323, -0.6602818513625819, 0.08089677371632044], [1.9004680162532677, -1.8500151947265546, -0.9517370287139002, -0.3805893441366708], [2.121155210284865, -2.3586684236156135, -1.3437395872430544, -0.740969677573723], [2.1913097965855224, -2.3654186671280297, -1.7993360920345225, -0.7209922819608832], [1.3692085784192063, -1.2105637106188094, -1.9719331360138714, -0.13365081903286644], [-0.08879351057406135, -0.4894163157137849, -2.0420724629363503, -0.11454894289328886], [-0.6129290619650691, -0.5353341860727464, -1.9957229128590281, -0.461286206569962], [-0.6261256609319035, -0.5026760632508549, -1.9906308618816153, -0.4923480342100608], [-0.6913037096334036, -0.5391388720143232, -2.0173817497646045, -0.5050086387252803], [-0.6751392765906291, -0.5436974135565872, -1.9231762035760644, -0.47144732870917233], [-0.7183661063852094, -0.6294408054701527, -1.9356710153813697, -0.297541730281107], [-0.9094904105141491, -0.9088817662797277, -1.7289151165331784, -0.1355304238361885], [-1.3790732655299525, -1.6191605152064987, -1.2307578357033808, -0.39295431356450206], [-1.972226441950093, -2.951508817659592, -0.697594909535106, -1.0154416428089148], [-1.6895942943696383, -4.879535116389761, -0.21822693357467254, -1.2588537260050767], [-1.229098801349504, -6.90123625650942, 0.10977169547008611, -1.0978567079959265], [-0.5972421698497862, -5.0565268869477045, 0.23683628155523326, -0.6333029554568222], [0.35980066308885955, -2.853697262338644, 0.1357263918850602, -0.13110014536144846], [1.1966567546058549, -1.7883140739398597, -0.15472904568682683, 0.1059794588652154], [1.4588774030364624, -0.47798706972883714, -0.5859959060002524, 0.024958826118773675], [1.2841901839305483, 0.5632105453994379, -0.9038435475444832, -0.08339838304931564], [0.46855781790178297, 1.1148313295673349, -0.9083608490381063, -0.02036001626337353], [-0.7578556991282407, 1.7235259193714532, -0.8827576346630719, 0.3029712755453001], [-1.335085693357453, 1.716151515703949, -0.602261804845943, 0.34939435383501816], [-1.0951330744167458, 0.9216203339780634, -0.18462386924020735, 0.2733689756976119], [-0.6509347029005332, -0.05589789306359172, -0.02386251495331019, 0.3675958000022136], [-0.016887896383436504, -0.8389501689183637, -0.06139976152879411, 0.5222444120393319], [0.680180920012271, -1.2542931239613604, -0.2815308501716634, 0.29710732363312015], [1.2426518413446563, -1.602673630667091, -0.5333392667880879, -0.2712071805496224], [1.5971403058790465, -2.286484147270187, -0.6964020678835701, -1.0123759175535896], [1.7876652738824395, -3.3141630792276455, -1.0174725143370702, -1.5179059269552349], [1.7626507954270028, -3.503200199938182, -1.5180220627577738, -1.7043851751004706], [1.208916076717952, -1.719750265388505, -1.7642845797776947, -1.063406517135275], [-0.41708904099281363, -0.5438755816643394, -1.9960323147327261, -0.4064079698221208], [-0.6523093543150035, -0.522799809996483, -2.065264222898905, -0.49121463940512256], [-0.7189960174281739, -0.5596745973615996, -2.047800073397845, -0.5041849703845649], [-0.6878945200208448, -0.5599656865755346, -2.057811504322388, -0.5256633461184578], [-0.686539204046391, -0.5535665515715419, -2.0241008662451465, -0.49035436222831097], [-0.714608551291553, -0.6049942681226566, -1.967290634601375, -0.40947731177532665], [-0.8194228999236184, -0.7995314601840057, -1.7721546432943616, -0.36317410087340096], [-1.2115607319163881, -1.5729109328014812, -1.3088104672183238, -0.7852425252144908], [-1.4013355776201442, -3.2248770262505992, -0.7002883913130269, -1.4594901949241021], [-1.0238185109394182, -5.651252672164454, -0.23265953830376918, -1.4981627365934016], [-0.553341713113043, -8.199153564940376, 0.07814291905871854, -1.1111397293056615], [0.09236755697771964, -5.238283503046832, 0.1533544809894587, -0.6344994130608392], [0.8477717178952971, -2.548685754392625, 0.06293859646666258, -0.2112265065647056], [1.2054207224420657, -1.1425297955030849, -0.1918869825837343, -0.21136396495502693], [1.1818675058648136, 0.25720975143125807, -0.5788811943717481, -0.3391315853077201], [0.8542320696584004, 1.1462456097162779, -0.8546473600737613, -0.4016541380420012], [-0.05428207703715316, 1.584635325633095, -0.8048993366637669, -0.17253998595859235], [-1.0156692164569294, 2.0609233343217266, -0.7479834997478509, 0.1999981867850471], [-1.1674843136379442, 1.7519737808509472, -0.39431925478171476, 0.20357742633352305], [-0.7453880719158531, 0.7835532211679654, -0.09161259250090042, 0.21410374056800874], [-0.3134426628551858, -0.30325375989184405, 0.06879295322887125, 0.32237957472031137], [0.1542757784215654, -1.0292197293950955, 0.010211973155245434, 0.338015079713863], [0.6322851486054887, -1.3054788088287121, -0.21446332774768026, -0.10627214589462343], [1.0505273856585502, -1.6594953850828813, -0.43366119293907884, -0.8510892597643058], [1.4041741358510111, -2.5518847339505046, -0.6176512555815874, -1.7108024569316553], [1.5389027321589492, -3.996642293218799, -0.933870062556407, -2.4165593751838323], [1.3954801988791838, -4.095355870567663, -1.224095849097079, -2.8153795707011575], [0.9486898456028054, -2.045053275318903, -1.5868765235634539, -1.70358608924789], [-0.5660989223089028, -0.5909908136049536, -1.934808685633851, -0.5253750040198755], [-0.641943834140011, -0.5365859948115321, -1.9543811438572631, -0.4862576521533919], [-0.6905979678194609, -0.5684110514463893, -2.0483823077349315, -0.5098163257888073], [-0.6823028129907923, -0.4992924307936038, -1.984691448078058, -0.5026928632515023], [-0.6883693502564989, -0.5371615091043694, -2.003172578508735, -0.489632217025252], [-0.7101825777225225, -0.5871986899042188, -2.029356789096039, -0.4764476547546904], [-0.7783970114437319, -0.7332712130323057, -1.8426872209048355, -0.5073922724317882], [-0.91106962491099, -1.5389835026202463, -1.2781395899158428, -1.0428977759423526], [-0.7087016013433161, -3.465303415403205, -0.7638317997932542, -1.7121118978690977], [-0.37785228260262127, -6.214912704617581, -0.35056846703538724, -1.5314659347933317], [0.09601989410226716, -8.573563694567493, -0.057944571615631546, -1.1329365046165267], [0.5774002767609785, -3.8300925224331213, 0.12885256512488624, -0.695810148889444], [0.9480059316628121, -2.046912872853291, 0.08168374015410619, -0.3615754518151935], [0.9758418030467934, -0.6575490845213858, -0.2122392741138726, -0.38452332215016116], [0.8051476807153596, 0.4661193367071104, -0.5290460448678282, -0.4289314051957616], [0.43972642457241723, 1.0368869470641877, -0.6599982750883702, -0.3089260801364654], [-0.29708737836731286, 1.4644714623629904, -0.5772497924980546, 0.09884770125946059], [-0.845244035336702, 1.7795738113262192, -0.4271414163424448, 0.3292466160465631], [-0.7776405995271367, 1.408161379580832, -0.25312505384529865, 0.3700019556351527], [-0.3629685965670342, 0.3957698789634674, -0.03546114095227404, 0.3097374299362598], [-0.03336054430583539, -0.5755695039880301, 0.20502403892700843, 0.18520045887437953], [0.24647252641848683, -0.9946634370825511, 0.09500985651916224, -0.08886783628328626], [0.5428010001122262, -1.0859755878872597, -0.12468454201325228, -0.6608810670717818], [0.8965233406500086, -1.480708655049355, -0.3161007352980331, -1.4699371617242158], [1.2790969862486552, -2.488537347104886, -0.5491292709868714, -2.4371754038046674], [1.2951361366668392, -4.099412080099517, -0.7102232919261188, -3.50495371827431], [1.0482391640045, -4.332679940154899, -1.035438185778076, -3.3835232852312274], [0.5833164227981359, -2.2269561533870745, -1.4103357743019507, -1.9680736555463432], [-0.5878189487941422, -0.6296461986690104, -1.901685231239105, -0.6070492601316676], [-0.6705600057078148, -0.5201887881655983, -1.9967924007501918, -0.5016567784144719], [-0.6362635429295749, -0.5146482859745043, -1.9944464387141678, -0.5081899286439924], [-0.6214518038067358, -0.5218763586246508, -2.001502836995886, -0.5104357201956424], [-0.7115394593242793, -0.5713283864252284, -2.0048418021316503, -0.5182008417725352], [-0.7100087291371018, -0.5593099095633469, -2.020547640854397, -0.509130630122289], [-0.7110930899260928, -0.6685499826114478, -1.9029718448515685, -0.5766489932779345], [-0.35321157565116135, -1.536673551825291, -1.4553839269572877, -1.1559850041248707], [-0.03187605544462225, -3.7037103698663234, -0.8526190676862296, -1.7255123912113266], [0.29147549756154423, -6.538899999129778, -0.43244396328793666, -1.5097403763341632], [0.639207271356848, -7.09876301283317, -0.05986791910207746, -1.246362559839301], [0.8454611725371173, -2.945616090330422, 0.07470578264803608, -0.8698415427501042], [0.8559400456284884, -1.5819636443976879, 0.00982620018614377, -0.5057997905308048], [0.7121683052009874, -0.477900169576299, -0.19690877185110492, -0.3656211768368863], [0.5162232516942074, 0.211561364550061, -0.4576371624012767, -0.1989744719720795], [0.23773827396063468, 