{"name": "hl_4", "layers": [{"type": "input", "nodes": 784, "weights": [[-0.6015898290171428, -1.0018567783826904, -0.7768930204004817, -2.4542968365836977, -0.6043434415658259, -0.8699366047932081, -1.3609065209571276, -1.4507385287664172, -0.3799051214742682, -0.6088388144146711, -1.2262775393333993, -0.9334094185482492, -0.4134193730869206, -1.6105880851156895, -1.4495730377539213, -0.2745869591711617, -1.5896957930061584, -1.3113905583063952, -1.3793355302023373, -1.1457328473991848, -0.7441637045696495, -1.244781317042186, -0.9410906298180678, -0.834648965533984, -1.042910747540489, -0.7936263882485072, -0.15149311555259934, -1.6235327178022825, -1.1652963616410323, -1.6144149038332287, -1.5001590427141522, -1.9896652387011624, -0.31462713535365455, -1.2422834486474366, -1.6272435467493818, -0.7949877290325671, -1.6717296621352347, -0.6293232720000185, -1.188982402865657, -0.8932161459364545, -1.1527465697904389, -0.780587075999128, -0.5884994078229441, -0.8205947184216327, -0.6464293898431097, -0.7744536792963601, -1.2698479073862239, -1.2344373568223521, -0.5045903389198781, -0.45219487993399893, -0.18712080713667692, -1.2302221193560827, -0.646152985889359, -1.5511291192313217, -0.5392835453591293, -1.2895130500756755, -1.4263088902723662, -1.0912114633244885, -1.483825015515563, -2.021601446880391, -1.3485923521229328, -0.9845497447969632, -1.1743592496260473, -0.9225707268424765, -1.4319930082241927, -0.5190618809802435, -0.18524427793774076, -0.16875672659299149, 0.4087830940288351, -0.42507985080707983, -0.528003969850946, -0.15059346410574012, -0.4118634590686698, -0.1912442590377795, -0.12605380593486892, -0.08994876303778622, -0.7438705779080751, -0.6918604168114295, -0.4009738070071645, -1.1225398106885187, -0.727664706237492, -1.394849450120716, -0.9028706643500922, -1.1468517269232716, -2.274331422677154, -1.8669908029344726, -1.2930653667597674, -0.687309331186027, -1.8009812933613643, -1.3858053211924068, -1.3532624166241787, -1.1734182190266482, -0.2246256787257374, 0.3991029452718188, 0.03770760981820383, 0.4156248318541875, 0.21619282611476998, -0.5268792121624442, 0.026693064379092964, 0.5113554989061387, 0.14465044555534637, -0.23030762013814973, 0.2641074282765392, -0.21824830922280508, -0.1896118153943772, -0.39060188872858675, 0.4320304488138234, -0.3215114476350367, -0.868575052980604, -1.7289759746292788, -1.0958433433828465, -0.9778215511702856, -0.9084300598796434, -1.265145471188875, -0.8632197395689573, -1.1904818193867448, -1.3993703505283375, -0.6582383798187412, -0.7388580823892538, -0.20222748018945313, -0.678327723887261, 0.1393605534356338, -0.39614138805229965, -0.5723623136044654, -0.726363829161901, -0.2796656325404788, -0.2130579899562405, 0.3956902296190123, 0.6490844363847458, 0.09498418927052961, 0.07107093241425019, 0.19474780318719484, 0.0887748731108527, -0.08104843183603218, 0.07786834143626993, -0.2889405093625113, -0.22885469916097856, -1.683039094726831, -1.3868588307799765, -1.31993379736736, -1.5384749619011617, -2.3826746537068253, -1.3417591452628757, -0.8583791083737146, -0.7039840036719556, -0.3919072447939749, -0.39426594358099926, -0.18088315956868872, -0.4762282469824314, -0.7338282647796862, -0.2503298954566102, -0.33537939983149856, -0.6703513280105985, -0.30176899151910097, -0.42323779659941113, -0.16668839251382447, 0.07635679053963543, 0.269294037345077, 0.2257122030019214, 0.2482340801462352, 0.26462214422040786, 0.08308022924489501, 0.5577221958476768, -0.1459706044121854, 0.0776566558361835, -0.8432110303944186, -0.9464420622057138, -1.5196618041368812, -1.6353825288349362, -1.930862138766373, -0.3549820105806632, -0.8897160866378984, -1.0077636783679942, -0.6027239824429159, -0.44300632031708553, -0.6868640502176597, -0.6933759239559399, -0.6874085982927972, -0.4542841008184454, -0.5743925262232297, -0.17653246626790714, -0.42573440211313734, -0.16586083511985225, -0.3965074421298022, 0.04136431714774213, 0.10397880867631162, 0.1870371741864483, 0.291907216624338, 0.370654364532243, 0.3238674547158862, 0.40053060916545186, 0.3323129549857434, -0.24278146615486101, -0.22907330360771355, -0.36306982751382555, -1.4318267221785916, -2.3999799128763994, -0.4640849246929503, -1.7776355439729106, -0.974608375016802, 0.15522988008367877, -0.44761015076147703, -0.8452872852627306, -0.48948874094134825, -0.7979987721670343, -1.06940628471335, -0.07433208156679404, -0.3315344289550049, -0.08559844576712593, -0.1479004754992855, 0.11374496985036328, 0.006567732134432915, -0.13897468379657113, 0.009946048068739236, 0.02329331353423778, 0.23609590346365214, 0.34274861202746765, 0.5368794159286003, -0.09452026137910778, 0.6206597176987695, -0.614587539947518, -0.3808597070793921, -0.73548506261046, -1.2268300557508933, -0.8747872935462029, -1.0997760729815877, -0.8032011789433645, -0.7959296271317395, -0.17663106997288958, -0.1671234178740901, -0.9303463180966578, -0.6329225617901963, -0.4655253944225786, -0.17783055178500037, -0.2829370354339133, 0.616405484009494, -0.15042335566621842, 0.25120974169583843, 0.2682224351735742, 0.239282704801591, -0.47655656668259383, -0.14656284337660025, 0.1495133524814382, 0.6032570948620123, 0.6070508867066505, 0.4202084051311167, 0.6108257239691434, -0.09458279136595188, -0.16199397118698197, -0.15540079749560057, 0.023523713590690037, -1.37227531046056, -1.07337525815635, -1.165462610058865, -1.0395655810781803, -0.5248380283224066, -0.07810237317790021, -0.38995561955854746, -0.5384144329536336, -0.7939673450045822, -0.6479116740727845, -0.0852521994255097, 0.3502403063954088, -0.12677111772937963, 0.5978071405750669, 0.4305225309937439, -0.19346849060157598, 0.004996976713351497, -0.1403263700531665, -0.23841563603475008, -0.03433099485071078, 0.12380500016396853, 0.42038430112372793, 0.18316963129651062, 0.41755850912494336, 0.2177605139604168, -0.5031147656225181, -0.3285954627573229, -1.0027244647721882, -0.8768058602978503, -1.3077737872416209, -1.4322218863269454, -0.7337973720653709, -0.14685312550435423, -0.3103876582690963, -0.005187866994252113, -0.544775584833637, -0.5280583923160952, -0.3277229459575449, -0.19905291974694597, 0.22886830001025094, 0.4109813964357446, 0.4078703003212098, 0.25822819805177183, -0.09138214805128789, -0.1462994547249235, -0.2500517604257987, -0.15580653212371895, 0.10109429605292825, 0.19763785632006242, -0.2242059724408156, 0.024966633649406607, 0.0031118234010988795, 0.586424711947044, 0.013230773570816303, -0.5393514967510015, -0.47642935231810474, -1.5635278571123623, -1.1562616040798495, -1.5410473205984385, -0.7416251452841028, -0.7352699939415962, 0.19200010931228373, -0.448937994141995, -0.4010316403104102, -0.28588844457968937, 0.02400976673236507, -0.2622566850153224, 0.30794572598614656, 0.5430633276084732, 0.3483001475362688, 0.495273537004623, -0.1283381562274686, 0.15158384004659328, -0.2037370616894818, -0.30258450023061884, 0.2155849383959453, 0.37424828429178336, 0.5902674023211179, 0.12382949745393713, 0.32712593997605316, -0.09785810273584512, 0.2990442360705589, 0.05230200841493833, -0.9057133324383959, -0.9318234533522926, -0.7817182377528208, -0.7696555004596343, -0.3337709649105978, -0.09324152173307021, -0.3392962075023432, -0.6329586822676968, -0.3141066104108895, -0.31942151200980384, 0.10205698891293997, 0.0703532941598732, 0.3727358199733198, -0.057812697639283865, 0.1940934715450521, -0.17276750651817369, -0.15636327498751348, -0.15972643747222026, -0.3300087872646225, -0.2509330327308279, -0.19719374701287545, -0.12415517326593187, 0.5522797581501607, 0.29002425096660833, -0.2817841463347304, -0.16528382207185874, 0.24243994890067008, -0.6484422962889949, -0.7748138758373491, -0.6206816463721011, -0.3349233461669041, -0.6192370402635364, -1.096707599392124, -0.6919316773037582, -0.057720431881235, -0.36543018693539986, -0.6771365483773413, -0.337492784717161, -0.21932040684155837, -0.15607481848739574, 0.18547039317549505, -0.05061035499559248, -0.1861286244719339, -0.04126561214651033, -0.2909944919441617, -0.5397931541775703, 0.11586984854348367, 0.26448031938674743, 0.005976932398556561, -0.4971062033749523, -0.13415236894566535, 0.07344092548839266, -0.042548503841013344, 0.1473520744925669, -0.29127556774480745, -0.5852949345085917, -0.9528975132390887, -0.9721326627157271, -1.0458916239899292, -1.8513059927896434, -0.7351876024871464, -0.9258600842221553, -0.530874018398217, 0.09068772488979905, -0.32520728478842487, 0.032244951261820205, 0.13990331055598437, 0.31617010464730544, 0.3197007465412189, -0.07974477077056474, 0.4556946594456035, -0.12266628823133882, -0.32853565703164217, -0.24677555317009478, -0.43290364768161105, -0.17460969182077302, -0.054692061257888544, -0.3865912346761792, 0.25031170533268743, 0.5231772292564443, -0.05795263102354933, -0.5032576847172249, -0.4460330809991921, -0.14116315276812177, -1.5736204806810423, -1.5723570618751967, -1.1433851100558545, -0.07135539124278201, -0.829997628123115, -0.6557719876329404, 0.0994009227719621, -0.5700682497986894, -0.06909841186885421, 0.1825543601693671, 0.6316627411371473, 0.02328824578513157, -0.011646138860671505, 0.5904256918409383, 0.15791961742069283, 0.02481891043984908, 0.2753913118452615, 0.08039046433444196, 0.022145860567675063, 0.17583646893884233, 0.17907749614146876, 0.09326867964595652, 0.009972011625371119, 0.16000305005975987, -0.07885639399625376, -0.15811031260004207, -0.5269972408337996, -0.581681522726146, -1.7450160260802772, -1.3898846639498994, -1.0254747388698338, -0.9125540057979528, -1.2435983622674889, -0.07917900523310072, -0.06456162527190491, -0.04588245867109592, -0.2052684223648007, 0.35643057988651344, -0.22127994281473728, -0.3346312904339257, 0.6897285091182551, -0.4490091994687829, -0.40829346896726015, -0.11802638824961986, 0.012637781028169995, 0.07436525847834544, 0.08093888089277029, 0.3041163257064044, -0.04037389211818402, 0.48475807284235906, -0.04634046776849931, 0.07543528494037564, 0.6637570118830126, 0.061750271101311364, -0.21699919856205896, -0.4388766241414485, -0.903433925168844, -1.472538160011427, -0.5605836817503546, -1.0394703662848594, -0.5038582411393933, -0.5777076903729216, -0.650041654485599, 0.10655899599372087, 0.1321074360835292, 0.6155786167648293, -0.05845674101225215, 0.33012136776820583, -0.018441237409862896, 0.21465562998822296, -0.10569389341609667, 0.035444527021792696, 0.17308390136930957, 0.3008674668402014, 0.0020381901407804277, 0.4679249572852586, 0.09466963420868482, 0.12877372390476344, 0.013178202653878621, -0.07833683632574392, -0.10946423571197422, -0.11651590251972448, -0.10861322131784969, -0.5802890167129262, -0.5223307514321014, -1.0450728434847791, -0.7324072562595738, -0.26965209116440203, -0.8033637452885061, -0.0754528038478102, 0.8008380037899604, 0.35163423025838614, 0.1975941825732046, -0.4666907320676876, -0.24922479119893504, -0.001986697587364018, -0.08047011158178165, -0.03215603561150642, -0.3467996199450747, -0.2357988769649594, 0.11754987221614911, 0.11106439356338889, 0.28390229516038945, 0.39041122101265774, 0.29693516663751757, -0.3011216492267007, 0.017679393951551124, -0.42631288930102645, -0.8830146432090414, -0.4787067102014036, -0.24940593787329576, -0.35542288677789846, -1.2899254496474484, -0.6347099741546894, -0.8094669511882003, -1.0260239488658751, -0.44056097680099654, -0.39725893995981654, 0.266991158684002, 0.6416345439065491, 0.12732969202073985, 0.32912338284540116, 0.1130991920404204, 0.09837868831071502, -0.021334382140785733, 0.3127146011461744, 0.34012128780849393, 0.46933899481270713, 0.20925143264810742, 0.16332260122245154, 0.43730481195644966, -0.1274451063763829, -0.07957199591394257, -0.2411721955356278, -0.11137252177658129, -0.7160458227087689, -0.6183927653789179, 0.002059864841519904, -0.5128564633940929, -1.334836261848753, -0.8172947362855032, -1.6680041689096199, -1.01979486998445, -1.1752198375178082, -0.9887321367796497, -0.2678284029161598, 0.3101550304344102, 0.04083413153516293, 0.11851602145671777, 0.14327885440909385, -0.0005944923553852728, -0.03922624686039244, -0.20880617356749623, 0.01525189455458154, -0.08721469849051247, 0.4532207734829358, 0.008871440980150112, 0.0957449883346194, 0.03646114550861214, -0.33419338065092075, 0.013950294506290869, -0.21765691448821833, -0.8357449245780983, -1.3189714689158634, -0.08886609352499697, -0.5974847595196313, -0.03757953230267604, -0.09151537605601212, -1.1407208087050202, -0.26957555257824556, -1.120397315489774, -2.160832160965395, -0.17297644330489223, 0.15324831742893993, 0.36698641078156635, -0.09964157213554828, 0.38837018754832603, -0.23141938018997157, 0.6100360371385055, 0.049924865072838, 0.31806685126973616, 0.16060506146800843, 0.03193771416332505, -0.38418349651397, -0.1172573663741367, -0.33583254604988705, -0.06353847322545135, -0.24254660737703615, -0.1966096672433632, -0.5740273390005992, -0.2184410469758172, -0.4052691875223645, 0.12620222285627358, -0.3395052451461071, -0.8681065638827294, -0.7214567991204315, -1.5698011045057627, -1.4614695492257885, -0.9572726745204251, -0.2332482137904532, -1.1173389337241733, 0.06944264976896593, -0.05637454546652669, 0.2117514299236025, 0.09162597264847779, 0.14351284025675065, 0.05455323239442008, 0.4514784488733637, -0.19008459914156398, 0.06430911849788504, -0.021629447218169402, 0.29641044398437427, -0.12284200022527164, 0.11459903566707147, -0.5539193115311031, -0.677291659704986, -0.8966214384485064, -0.6161181488154799, -0.46377632777458744, 0.21822469172597353, -0.08595293673628052, -0.3564298728329842, -0.45901715354338574, -0.7195932054098759, -0.9242235371161646, -0.522746407835249, -1.4176329569402313, -0.7320732352132614, -0.272574097714894, -0.09677917125200065, 0.1537746154282884, -0.0680776553874968, 0.22217244659661428, -0.01857254724590489, -0.005854404525942118, 0.13764597203643966, -0.14054424114026048, -0.02683010638914826, -0.21399339775764012, -0.09815552283684836, -0.4720381138189213, -0.656044064525731, -0.5780748892016166, -0.37366656909322304, -0.7162681922466502, -0.6641177369362125, -0.11295605752444796, 0.1401966243356355, 0.0023308353765246082, -0.8305853676083508, -1.2800226161237356, -1.2756795099973715, -0.7273842057650748, -0.7034841907039472, -1.475323920836681, -0.09438473208885201, -0.9987591576073329, -1.3059263680281747, -1.0479084921294088, -0.1478439698827023, -0.119200555571148, 0.3255262933711623, 0.27345955517454984, 0.48673934739505215, 0.40394505685798787, 0.2656636748652889, 0.4136745622235172, -0.042767181380136306, 0.003203662454216692, -0.43120335997892845, -0.2153363278317199, -0.5063403568723484, -0.7185925133247442, -0.5259689386384174, -0.07267316413480483, -0.42521082808210237, -0.7024406365635502, -0.3889192452539672, -1.2202956688785673, -1.1671952471505844, -1.8713335560766282, -1.6383341102182407, -1.1032405336854074, -0.5301900250499082, -0.3977877784868651, -1.4555124583660772, -1.6077797995329473, -0.9080745872921222, -0.11911366628044219, -0.1946965427323406, -0.351966093312598, -0.16845624838772305, 0.23210663106123627, 0.04098498259172413, 0.18919114982263188, -0.10055637898037184, 0.024330009006288386, -0.4092698772536168, -0.15802159359469425, -0.1829836958924441, 0.40200902530834254, -0.2780940007377031, -0.7926043763096996, -1.1669956812325508, -0.6469388433509341, -0.8724993469940935, -1.03625628925534, -0.5800378616940286, -0.9324213174716712, -0.9661326758179901, -1.2441416811915094, -1.0659222565283075, -1.5098578121909396, -0.9536421491296442, -0.8399256173172787, -1.144270700457958, -0.08568054183842735, -0.5162903582218319, -0.49907833863066714, -0.36514926557705474, -0.32318135900882017, 0.3322224384333033, -0.24120761670599128, 0.010312493636672056, 0.00548153601143435, -0.6664067997464255, -0.3008965256087302, -0.31703218720952303, -1.004959952759959, -0.9854256878541533, -0.8301816191832183, -1.231914063053562, -1.2658046630511643, -1.1839492075530478, -0.2662275910833481, -0.7142266860400551, -1.0455334020905025, -0.35366239502149593, -1.1982387708303528, -1.1938044462206645, -0.7762862307057382, -1.4448362065962548, -1.0180883904954556, -0.34193731461871235, -0.5900246671220013, -0.8695284492607787, -0.8097241355681046, -0.6198909660809494, -0.03946462507308116, -0.8636380368567292, -0.33048122864662816, -0.4159028537431741, -0.6103624690027933, -0.8945952437158071, -0.8499350556254981, -0.8357517209127276, -1.5666831394982372, -1.102668881862808, -0.9934410690567891, -0.5106132413973562, -0.5696952827036276, -0.8679925317306331, -0.9543828153821402, -0.950983631597356, -0.31050862242930405, -1.1888093453025212], [0.062124544123221284, -0.10439806769039951, 0.7090431301848362, 1.2332119267080393, -0.1340605191337391, 0.8194957650269549, 0.8232814701814767, 0.4452262636298652, 0.5955854450263162, 0.22024537248965945, 0.22690848131691668, 0.43584623272895856, 0.6432968685682382, 0.384538243374174, -0.05874918427646315, 0.29543296000441915, -0.42838992601454146, -0.0752345929400108, 0.7913495768913171, 0.8744881455615056, 0.46919652485028024, 0.5468879033687689, 0.7634878395788592, -0.3439651994138427, 0.6874277261052469, -0.2177697141843822, 0.7668547367278128, 1.596517553870825, 0.14779897062911276, 0.16354738786961745, 0.13306559450512703, 0.41069585111479173, 0.14114801716009287, 0.3162912698782994, 0.5278428946614665, 0.300707282343607, -0.16386260278510378, 0.21789789764742995, -0.47165893943682674, 0.7486167540113847, 0.23679825662729304, -0.8207336829989832, 0.5882771799563724, -0.22903116208377808, -0.022402736654977693, -0.13886162671444274, 0.7586228620585589, -0.4835767597270375, -0.24703096178320527, 0.010662117029239348, 0.720790781132966, 0.18910075936223245, 1.2384783651098596, 0.502573371157692, -0.12279628854448375, -0.14744646204362014, 0.3753443997281491, 1.2900804400052814, -0.5048434294578467, 0.4703370308051388, 0.27193283870497803, 0.38909177946927015, 0.2846613151726193, 0.5135654124143901, 0.3562933385904541, 0.3433352744041646, -0.05533286514637057, -0.8556282522107562, 0.08571904537950574, -0.22749016214185735, -0.24790086196129651, -0.09259547170456318, -0.01928303353617648, -0.09424950326647326, -0.5701875190632256, -0.3399227862462164, -0.16684973827947996, -0.09498142244774668, -0.16268763551251525, 0.16756705670351474, 0.0899080649802174, 0.020010585430982955, 0.1868690247114488, 0.5224360532716151, 0.3731421191148339, -0.5459086072086371, 0.7198804008077493, 0.3709840946681823, 1.0921446702125164, 0.9053439987262447, -0.4579078204433376, -0.5244674433622704, -0.18799169058206702, -0.5078159511330806, -0.3342529098553302, -0.4228125810777662, -0.5200415739661627, -0.06146241806689157, -0.6577599934850248, -0.5653703823111231, -0.6886567456041195, -0.7087930508500886, 0.08330122290855962, -0.5250326402366338, 0.2961446004806941, -0.14186039232912184, 0.11483387875556303, -0.6162229812816344, 0.09815528769958573, -0.27359464634070463, 0.1476187622246202, 0.7846506366069858, 1.3843047225393506, 0.25082324323297417, 0.18089771607523794, 0.5508479846402887, -0.03737959282141275, -0.3439609726380655, 0.5344025144443934, 0.23872932655937998, 0.7196889559742146, -0.45439041836248445, 0.06614614168807655, -0.3310595463348592, -0.33362616502870973, -0.4495888151798608, 0.2666671905936518, -0.3469306344781062, -0.011769244214091623, -0.034114144550712155, -0.7233429326358027, -0.4661580700077198, -0.6972716860255872, -1.0053281792391173, 0.020231030279628928, -0.3127068525560128, -0.14098279104822684, 0.023516869662958937, 0.5111559764080588, 1.3036440686387019, 0.21091404049679205, -0.1869832942615933, 1.2618019946216799, 0.5413914122246904, -0.5168029816323524, -0.5324626376830367, -0.0777870200563036, -0.07987246913398033, -1.3782597827675696, -0.774992536762559, -1.2496196059106253, -0.6210663624405647, -0.8070418706923687, -0.4335421482381315, -1.0032826432945676, 0.517437902826214, -0.3696091898270506, -0.5886122371872916, 0.07741287865895828, -0.7973930695242926, -0.4527847983514102, -0.14133424478219142, -0.10686271649956104, 0.22928095703882329, -0.057854976429582664, 0.2795923353014972, 0.24379333641557785, 0.6622719460139638, 0.004467817743820534, 0.5359641152848379, 0.37688295569350383, -0.21751928398986387, 0.3504996928493902, 0.28058638810184133, 0.13591876063955918, -0.38897478912904243, -1.2881951222461523, -0.7098913636190768, -0.135357926321551, -0.38432072883862145, -0.23100835146042467, -0.18395274975211098, -0.07848997373131254, -0.22637515460677204, -0.12155139386764238, -0.9964566593278488, -0.8080930598412591, -0.8179443027924028, -0.0902438859116801, -0.23182476237171998, -0.5327038857794039, -0.47187063414235364, 0.22646862947734608, -0.18120321952688967, -0.0884285643350285, 0.22493055007495047, 1.2223298061836632, 0.3493368555154615, 0.3777900836958445, 0.07984837887253664, -0.28129200619423983, -0.1467519972454517, -0.024735869532921957, -0.871952816390837, 0.6067089567418014, -0.45163506350457894, -0.5853378406596536, -0.18181899152599018, -0.30052133604731285, 0.22413174824180052, 0.015460056766912051, -0.37407712300593565, 0.8159903899296841, 0.19047459721406784, -0.16086581361957134, -0.3949987013836561, -0.7051983177997406, 0.37614226109893695, -0.2031925721149337, 0.12166102275334244, 0.49151378464230644, -0.18123367701466564, 0.5175388549671858, 0.6180836811575198, 0.8099406213640938, -0.11318539325484829, -0.037984175845069634, 0.22823566451670196, 0.6273655341925869, 0.35364616625778994, 0.652133017705476, -0.343877547089506, -0.05727460081548916, 0.437212312356466, -0.5062877398000099, -0.20651521133339767, -0.7725982820953157, 0.1547459777600391, -0.4714410612170293, 0.491411415521993, -0.060936988690767205, 0.04269221841482235, 0.25237164173162624, 0.1132260245362886, -0.21194969368455174, -0.13320437653136738, -0.3367829538070842, -0.09782583079737278, -0.13610718435338653, 0.7532605055890931, 0.34967051124660137, 1.143407270761409, 0.013500493042381627, -0.09329914119365866, 0.17324519943838096, 0.6132704261592496, -1.0374054435604063, 0.3001271742612311, -0.16342659672512783, -0.14102513536829026, 0.19289924369565228, 0.8084601625174225, -0.3079675689125274, 0.721552962722704, 0.5192055824036121, -0.02410012713470434, 0.7421387380933882, 0.010696957093680196, 0.1976961068669665, 0.07932093018713401, 0.40713400204431377, -0.4328590685318813, -0.0696473034703381, 0.5850477515841562, -0.7147740955060148, -0.310742537386701, -0.0024478942042530025, -0.2930878490857237, 0.1346939608100335, 1.0057270558133737, 0.4879181415098336, -0.9259221447863898, 0.5509656166136493, -0.47967527485606465, 0.5141718025953889, -0.37651208503976935, -0.457078489653725, 0.5677311534536823, 0.018089137998243892, 0.027508847803068164, 0.42676823376649814, 0.17300101159257997, -0.015675401778591343, 0.22995211044111158, 0.3219542651036825, 0.4169527597880546, 0.6511268887447066, 0.444538206215694, 0.5076523284180101, -0.2274624173974661, 0.1733277457177832, -0.36165454080672305, -0.048796162600297135, -0.8554321955224755, -0.5347516582975737, 0.004197212873914244, 0.22597919126491614, 0.5663829856021799, 0.6247588613214966, 0.010032885138376467, -0.495456493108285, -0.1739717829967748, -0.20848916513586976, 0.3751688652982565, -0.043650815464014225, -0.5743052224642412, 0.45031438269914625, 0.7922699281014435, 0.6923920459458521, 0.2599962750990726, -0.16479694510064993, -0.05108213492535146, -0.4574516779087182, -0.04958453167285502, -0.09313628055296336, 0.016941826510130154, 0.1732010722767558, 0.04061754517119424, -0.09355633280396591, -0.16773259617137293, 0.723103546734885, -0.1820545449333271, -0.9379719875968202, -0.06767964680297393, -0.7996016220938951, 0.13511255226138694, -0.12277512074752923, 0.03613853505687079, -0.024766312941395228, 0.3066263452868522, 0.40767482585305587, -0.12934183367961277, -0.22808587893384583, -0.9113791704250201, 0.560185282162794, 0.5548195987135988, -0.09762729037824973, -0.26227187529584983, -0.3157102730148222, -0.4288468276183857, -0.6154618908273805, 0.20780650193393918, -0.04934878507731566, 0.06490004060495802, 0.7038856354463456, 0.4644308617003266, -0.36087063945091347, -0.3420109694602926, -0.3834398076703704, -0.9224600405863501, 0.7145857424326525, -0.40079419420623064, -0.5715116072638909, 0.2944929544765544, 0.6321207793157847, 0.21271755475243095, 0.1788334137911781, 0.2790690496136142, -1.119438114738958, 0.7043990910551451, 0.4503879784103757, -0.34294462220058564, -0.6556265893807652, 0.3939615679161742, -0.3891264092484902, -0.6936524217890448, -0.40738623552439635, 0.6102857762813111, -0.4449294514219289, -0.031898953851831564, 0.34186425295225426, -0.15575602378616357, 0.41541922091991973, -0.3498370266802518, -0.37230955711476926, -0.07608039648280931, -1.3678732513978122, 0.039418360895052906, -0.08000295135038551, -0.9185521746056581, 0.2682873258879507, 0.1818599617789731, 0.5894370699317751, 0.8365277704386455, -0.9109271985533491, 0.1322194718327219, -0.4740974146287429, -0.23061444572375747, 0.07170204823422678, -0.13356221821263492, 0.6372876112496451, -0.18633090303020164, 0.10570068594917988, 0.3314981591856634, -0.3687803360016464, -0.3121832208255213, -0.047250750338128894, 0.08042010028909224, 0.007878449137377792, -0.38185380680652, -0.9113456823304285, -0.34407022782540675, 0.29546288058590403, -0.9056975735560069, -0.44867569003682267, -0.29305361141389924, -0.6665280243182249, -0.10817825024471839, 0.61382991674782, 0.085445334636203, 0.6721690586639452, 0.7470149444925253, -0.09280580479986404, 0.5207870317279372, -0.42926747468940707, -0.18330012259877476, -0.517722348274353, -0.025610526349244447, 0.25368155543741594, 0.19561965445105114, -0.3852000399509466, 0.30015864598810593, -0.5220439970747712, -0.07814445899975352, -0.18131057778559911, -0.2538462026745614, 0.09529386561002536, 0.2910162809931965, 0.16026421505583405, -0.17375488284037516, -0.6451677688103503, -0.7823377618564, 0.10643162210613451, -1.3375128295436507, -0.2533223931974863, 1.0697143125839617, 0.21933588862069484, -0.0348033960848518, 0.43021576951734913, -0.5953520089582348, -0.2579928535079981, -0.42828047648122797, -0.2704214437387128, -0.3871971187572699, -0.5084643233119355, 0.011325725276282322, -0.3112169216045324, 0.041912690437993276, 0.12549347550399237, -0.591468031191689, 0.12512810445469127, -0.4131002851121184, 0.07889506682089933, 0.4173487603235972, 0.10447794112930807, -0.17720349089692322, -0.09140564386889156, -0.861512323861469, -0.5586297589030678, -1.3383121523567358, -0.8858308870481115, -0.4426051493606359, 0.4467791515264557, 0.1960055000897964, -0.15190119263971455, 0.5725617634744312, 1.1762878690779057, 0.5253280029009958, 0.17311522506482777, -0.8526593438255351, 0.39276951798567267, -0.43864899516203876, -1.0818185701624292, -1.0411388029834427, -0.44823130958342206, -0.36495663665668465, -0.5589799392215055, 0.19059699805622238, 0.1705723645774916, 0.6069443163961302, 0.9913471820603932, -0.18857567266259986, 0.6599609841553465, 0.4228978653645133, 0.16085844852784636, -0.42723806953840854, -0.7862311435750976, 0.219120591615456, -1.231834449501432, -0.27524446449409057, -0.4837861173292346, -1.0399210641374599, -0.7529570413972101, -0.3471853850370103, -0.263972843720658, -0.40128204001978435, -0.610990819248063, 0.501705648118041, -0.27013301044039945, -1.1522294169474496, -1.4795511579571436, -1.2918041129401696, -0.9427850711022207, -0.39036725119210136, 0.44288153037749484, 0.15342060527141743, -0.00487058576628936, 0.23003890042381983, 0.767683159991246, 0.4227501397284497, -0.23920639130976898, 0.12123575977334954, -0.5687890965722836, -1.2340512528835563, -0.8948892424597708, 0.12683786304281955, -1.5307489968743047, -0.02404130288654705, -1.2396024487693176, -0.2795798530035039, 0.42265162582310045, -0.22231200863365216, 0.23285495110132312, -0.12633739129934576, -0.0023573470221311932, 0.6158487436175046, -1.2300693761983774, -0.583203415888133, -1.8094854653022348, -1.2353760957761708, -0.613638241297864, -0.5055690782231452, -0.5793963991560827, -0.9834418907237363, -0.2921937734825543, 0.028190115774422042, 0.5499797143294428, 0.32387358752451384, 0.24672143697170373, -0.506802322776518, -0.5901064682910914, -0.16424492172954477, -1.4921089620041528, -1.6866000017382852, -0.005296807388085063, -0.9204211761970609, -0.6741125429380453, -0.4683857819060008, 0.45990946630190305, 0.21722676840056446, -0.10031869740106432, 0.6415374412509022, -0.4135968521566386, -0.9582551590156929, -0.4159424139817752, -1.1397845053629467, -1.2374466875213168, -0.8759412121290983, -0.4080622097254657, -0.8951841582481779, -0.6391401938668146, -0.5912734548809137, -0.5602521915273957, -0.5458342549949871, 0.42570508238014176, -0.24394231036801942, -0.6314132618619359, -0.19636941990603898, -0.36043479534972056, -0.43868842734027663, -1.303247712852468, -1.5739388218355512, -0.5245168354860912, 0.024094605106617976, -1.1182309370688246, -0.7603324549626604, -0.44945207269101206, -0.03217548723329641, -0.05206039783883528, 1.3732499369210598, -0.6814149584317836, -0.9749883568803082, -0.4783188761636007, -0.8758745546993517, -0.9653461248623622, -1.086141808352643, -0.5430988758520104, -0.10542268345749689, -0.1341579825648537, -0.5016223129376656, -0.14547007033206807, -0.02834377179804664, -0.2829017126570359, -0.2807542529903894, -0.754512251407395, 0.10501521912508986, -0.18446266122354685, 0.03017714094293166, -1.4226699597058718, -0.2538878557961075, -0.6534500983614171, -0.390072585242969, 0.7970271130090362, 0.06052803594902878, 0.7211857957972946, 0.5457978383820544, 0.6922460417000703, 0.07412540776955044, -0.26743124844118604, -0.08604461727155051, -0.975982065267567, -1.0197567885628773, -0.6112884706736016, -1.1463822897507292, -0.716434645256116, -0.5441058631162244, -1.166397826083837, 0.3634972216031535, -0.5273662382131045, -0.5781112381942224, 0.326429532633063, -0.43265368282155087, -0.4530480359894578, 0.34589949642050205, -0.7616582491849494, -0.0418894902734707, -1.0129775950716848, -0.4926935820527613, -0.7979937415584554, 0.4155153841754349, -1.1632744563830006, 0.10953325748417256, 0.8801542041590323, -0.6977075655019397, 1.3473772229618437, 0.6132809181184266, 0.41077198971475626, -0.14598411141258238, 0.07351517062327732, -0.11890553900449094, -0.21034402121261395, -0.7828340925214604, -0.5176889584405263, 0.35710379819136734, 0.07422917004894891, -0.46832317082426134, 0.07423675524295006, 0.21746189552353373, -0.2396077534138324, 0.23343033769925345, 0.12697627078710294, 0.05461482359032468, -0.15122806307440861, 0.05513379213816554, 0.33017213572523757, -1.325533506496818, -0.47383650196937094, 0.2732085446028062, 0.46495520900933685, 0.7349221488873433, 0.9238348815432628, 0.24405146857859197, 0.8240251935512445, 0.974700427208589, 0.6656094199878596, -0.3705484650164351, -0.1880458653817817, 0.09455865127916606, -0.2564586537240972, 0.09712256152131278, -0.37417035712383306, -0.021049114915349765, 0.41845225513947465, 0.37018352884295963, 0.4443228198159671, 0.17356865623120113, 0.3695972532736656, 0.9654465429142625, 0.6938611817750844, 0.08437731962355426, 0.7335978480856304, -0.24471178349750522, -0.14194233957603494, 0.4950279365448812, -0.7363840237584213, -0.0027408416613146293, 0.3993854096318945, 0.8133470456408968, 0.5616006593644683, 0.6679095406989098, 0.5500950780424344, -0.02303429535102071, 0.1868130697658891, 0.284956254871129, 0.4726485111608358, 0.2822784632311277, 0.38534403730760763, 0.5809494709743178, 0.556377096652464, 0.6469927038508773, 0.468632399127075, 1.0292525468900438, 1.3064782218943043, 0.7081405951393813, 0.6845227416478086, 0.8508954791194584, 0.8515208097919623, -0.2090238682145973, 0.13427608656114082, 0.6734129536662533, -0.6060761742991325, 0.9188900019464394, 0.18337343852346136, -1.141278789480334, -0.07490490557701325, 0.4227705314755858, 0.1338134007313934, 0.2874467557508215, 0.9087775976676439, 0.6308870395691283, 0.6180789424609962, 0.16454994290476685, 0.29832941484510145, 0.5558463134931978, 0.4644955952967616, 0.35139916322765896, 0.06275861288071148, 0.4657860508658444, -0.6613050527242678, 0.26385457451678135, 0.5206111409203086, 0.6601703707416894, -0.10458200701499018, -0.2514572460764544, -0.47221749232743604, 0.37707769531719215, -0.6828093393822282, 0.04084408994872488, -0.609861190456121, 0.599728143447161, -0.6000562890382058, 0.7302316940899529, 0.3946266313230648, 0.5367932146770854, 0.24272679349410145, -0.6384110037240674, 0.12277115933634326, -0.5562216876267406, 0.7631676590804267, 0.39967322911763986, 0.3291514512986394, 0.7319234172356172, 0.9196243262142716, 0.29487665320271184, -0.4480190315342637, 0.2904574480711127, 0.15655061407066875, 0.5556164639182846, 0.7595324597696645, -0.8280608612544342, 0.741820421051286, 0.2468487137872969, -0.07339470065281621, 0.499848315273187, 0.2856650434160898, 0.7231050471778312, 0.8398134935052136, 0.28742716041846667, -0.2073589892883196, 1.3783511631187142, 0.6161441746435515, 1.0266770382945072, 0.1770513701995202, 0.11977744559116611], [-0.2490685226130158, -0.4045336281068035, -0.05044256483780812, -0.3592028969784292, -0.24126412644853076, -0.238668482545236, 0.9879166452292112, -0.8046659169509616, -0.42054473828775485, -0.683330833030904, 0.702546810436061, 0.37060442140531713, -0.08023101871166305, 0.04479921188464175, -0.8331356717644707, 0.032840694137138894, 0.34301019991687753, -0.527619627193125, 0.09561031730872682, 0.16712552607582296, -0.1900048759559995, 0.926834569019146, -0.944368083960829, 0.16564348814451876, -0.09668481394944461, -0.613550222973458, -0.10070230142450659, 0.4145536050269296, -1.2608079623192814, 0.08033219805639866, 0.601820340215538, -0.46423632974014106, -0.45561557672648356, -1.1322079213670944, 0.28547388337693125, -0.39309441086107766, -0.387039862765002, -0.5675156677661861, -0.25276277191906804, -1.0035242642643771, -1.904301794799296, -0.5392644507528589, 0.805585754818077, -0.6846915617696558, -0.7027905659748096, -0.33971131895738005, 0.3727355957556553, -0.3021020820689515, -0.365159520566599, 0.25701040244022, -0.11607012725641133, -1.1681319925464049, -0.4190662495880263, -0.23420204062506536, -0.8778975300708434, -0.8280042320656971, 0.22479466087749087, -0.30711488454649616, -0.18576681193156022, -0.607667654611669, -0.4841783995624422, -0.19667149024490774, -0.01804860872664873, -0.13708076733901922, 0.8145706495382306, 0.32007939039514494, -0.22658196072601852, 1.1207338635353865, 0.5365052496925858, 0.8239342271833607, 1.1275050673143745, 0.08042473845162659, 0.3355401495882302, 0.3005810393199198, 0.9648317098315308, -0.021370189401114136, 0.7257228707696258, 0.2726982792598202, 0.005080089685568766, 0.7901426406574337, -1.1760418692965935, -0.692515511227278, -0.8318940123387766, -0.5532380487564896, -0.8832166671255592, -0.38586825473452546, -0.32681919603645854, -0.550080251880122, -0.3260751214125226, 0.5863240807211533, 0.3680215891414941, 1.2998842229996108, 0.06918143634247975, -0.32974240090866, 0.586354621135258, 0.785521631261618, -0.08415273796117104, 0.4529941285575187, 0.03151833691309785, 0.037361283376031784, 0.6359971902227427, 0.9209988850605108, -0.48995933822398435, 0.2374078055000087, 0.6258028583639719, 0.2622860827735091, -0.958451399542346, 0.1725192393197224, 0.22881227249595681, -0.5293037706412244, 0.5725389253555767, -0.9336999005930084, 0.21504689107125938, -1.1854813904344623, -0.21997727020501, -0.585208672349126, 0.011389929366423964, -0.4094824430232314, 0.646645121349827, -1.1499108921354217, -0.5027299133664953, 0.8876118522955199, -0.27586019451296534, 0.19847054741275927, 0.19961391110788357, 0.061433292738185284, 0.21748716298466816, 0.10311555205867944, 0.2491228731976233, 0.02136356893354194, -0.4018207020182226, 0.7249681051874286, 1.0531508860274494, 0.6196220540916284, 0.649371858235936, 0.4642567692809962, -0.5500276202254164, -0.1281689168880586, -1.1299663657999934, -0.41590876336883664, 0.4892096978812035, -0.41123333570317855, 0.5729754656662824, -0.4879057962382018, 0.8853014402774595, -0.2632037339563051, 0.07550821507856714, 0.6221988474591494, 0.462811795544771, 0.5197058944889748, 0.288500365098143, 0.8939573604009621, 0.9799254310536718, 0.6242683171417752, 0.13122744525315766, 0.975268127091469, 0.2810618998212317, 0.6179057083254829, -0.44418788785588714, 0.3350708551276074, 0.11918464685351106, -0.3522347530658069, -0.4968265213338556, 0.43995285955794816, -0.37777042745925926, -0.3658023660573971, -0.40792121157971317, -0.22127818134463847, 0.11679650103863648, 0.2150391128574378, -0.2565787667416268, 0.1663298003188549, -0.37121354217093805, -0.153712420037722, 0.012451378064256485, 0.12466531744355137, 1.1846330354003665, 0.1523675342512991, -0.7044289333309126, 0.45025786053571787, -0.3539051544225658, 0.16894985293008938, 1.0543356643635702, 0.31393648579267264, -0.2257557042025342, 1.10900335223046, 0.6999771023941694, 0.0885594195209854, -0.11599211118719123, 0.09764074936340839, 0.40849045054643945, -0.06682781753098985, -0.028677275687279676, -0.6392482755872892, -1.4321005913730704, -0.08920864792148764, 0.2744361547933709, -0.11305454340434479, -0.5973681434500063, 0.6350647903710822, 0.6302188186096728, -0.5128044120536319, -0.3261431803538906, 0.6949221069914094, -1.1086497300527205, -0.3202021730987034, -0.21044976502483217, -0.45570825895983297, -0.053176018794131266, 0.10830194950771355, -0.2787266105843314, -0.192661566799461, 0.08318247926625941, -0.013184290404172839, 0.24042390631842556, -0.44999216168608364, -0.28256761784213363, 0.18965450323290678, -0.39979940544540016, 0.15949693481932295, 0.06136541041463722, -0.4015031335978247, -0.9106924993672858, -0.4505522072310287, 0.8040879718094152, -0.12242889526635686, -0.35414231258743506, -0.6439199399907133, -0.463604157409023, -0.01562980993055646, -0.4557872268941395, -0.6983685315852123, -1.2744467730401468, -0.7535912622461894, 0.315014686190406, -1.4231879354014507, -1.3415890762486549, -0.49434056763944045, -0.5252995531593031, -0.42607878270433286, -0.033121728540850895, -0.2167507704225245, -0.1630662291746205, -0.16746505075261273, 0.046394061143622975, -0.6682736865722483, -0.7158455352343639, -0.16808918753531318, 0.5051584218323745, -1.350384480864154, -1.4492058545668258, -0.2687857104388645, -0.17773226113997234, 0.3612363009694384, -0.1714253330707091, -0.29663824089406826, -0.007219016265152244, -0.6471816514817906, -1.392214288955677, -0.5986805266459311, -1.4134922465503772, -0.9714573042292254, -0.41542088972181307, -0.21475161515039998, -0.12806151877792074, -0.06844750336176351, -0.00806038735573975, 0.30728368028167996, 0.31456690004391014, -0.46839542397917217, 0.07430223010384297, -0.11350926844108747, -0.8715261219157745, -0.1911851182401347, -0.7305893009554713, 0.03027986561914002, -0.8203144371739668, 0.36564922087883406, -0.6874498504164679, -0.5470911852924214, -1.324957262984441, -0.46514034018157074, -0.6236026494275051, -0.2633858533779562, -0.9374519853522055, -0.31500228107570727, -0.6946011446294038, -1.0584549109566812, -1.4251978796295428, -0.6454127732002514, -0.9611168828579734, -0.537981716754921, 0.5317767420670887, 0.15723008589585652, 0.07311533113610107, -0.39383428593401915, -0.08293157656714484, 0.7435426810887255, -0.3442271856545039, -0.0826234604002944, -0.9880360735960331, -0.2689374148696551, -0.9890495356866154, 0.17394505028960283, -0.3465728843604609, -1.1661117740378637, -0.8852582758814171, -0.7079956231074513, -0.6921873966341261, 0.24134560382494386, -0.7333255433694329, -0.7416147294952945, -1.0293630185106128, -0.4172631595410859, -1.011338077630088, -2.80496936381675, -2.3652832126602257, -1.3765613091802413, -0.5706899974688344, 0.058077394872776196, -0.1348949524805383, 0.39189686283953146, 0.4397343982648749, 0.4952041394092249, 0.9010659987143103, 0.7196093030907504, -0.4704516837411321, -0.05331221566479827, -0.8694536541884401, -0.5567166556595782, -2.1104475467596293, -1.2506209433211823, -0.6832450273537933, 0.18274076564377675, -0.1798328182550117, 0.014905849407053296, -0.10611946467675087, 0.3672978381224035, -0.8929757393553667, -0.1544705355091455, 0.03118721183934146, -1.626708142625271, -2.084280047663511, -2.2991395897780866, -2.018140959684924, -1.0176663439575775, -1.028531015792206, -0.30196962337260375, -0.05273777383273642, 0.8919188671887731, 0.41831712450046443, 0.9124485543053531, 0.22835458064293904, -0.5015375159581863, -0.6144835544316215, 0.04613181598839569, 0.4072517457757175, -1.3450424299772976, -1.6126950459453397, -1.0038203637775858, 0.14847238310722738, -0.6070885459591909, -0.6666948874574192, -0.5263359275707887, -0.41697610941910845, -0.8695906091894888, -0.553832596297774, 0.9151999852148042, -0.7418460650083157, -0.22719968099477483, -1.442458467254615, -2.521138794653304, -1.4820245241730379, -0.8680967239005859, -1.6034139355540142, 0.2767328405333687, 0.7380311744768769, 0.16593358225710297, 0.10717689048249356, 0.36061476418204624, -0.1364629540450903, 0.1275714724734995, -0.24818180465751194, 0.13218279123799856, -1.1827196585294133, -1.5379561486313131, -1.674219189953783, -0.7966689114383562, -0.6818625881013614, 0.5232468894955887, -0.5512658367848331, -1.3298296590707377, -0.30413873366277155, -0.28391803431563656, 0.40953678260879617, 0.23405711917808722, -0.48185753082290755, -1.3317448069379243, -1.8953716202868658, -3.657858089673654, -1.166588653082436, -0.017716956494936223, -0.5307899250467987, -0.0286746078633148, 0.321226733214341, 1.2538746807434389, 0.4093934516364182, 1.1248706601679714, -0.26353103472860606, -0.029078823017715173, -0.2696733394380472, -0.3058469334935602, -1.225052240681483, -1.33558712380958, -2.25324090665522, -1.426222151127199, 0.09452969274007397, -0.8587361431426083, -0.47959917693011833, -0.9775277836130531, -0.00955582420984186, -0.3281558874248436, 0.5646074907273307, -0.2999687831725614, -0.373013255750087, -1.7001547193027227, -1.9404139809225938, -2.34601484379287, -1.0949997355502998, -0.7918644559547318, -0.04910088099995613, 0.223330330295031, -0.7775976892725852, -0.004314622635610811, 0.10300164340721027, 0.041534018488982714, -0.5356500529297324, -0.6433411554331223, -0.7608215925606372, 0.09833838736026455, -0.5947021635945011, -0.19415756610983936, -1.622798898999328, -1.0127287984451834, -0.8265409340804024, -0.44017347400698703, -0.12005980851393125, 0.3430653944605635, -0.6663421288697366, -0.14020611287321275, -0.10058503893696127, -0.38678389840837873, 0.11016038604873987, -1.1173658536252757, -1.2450703884142635, -0.7508461279045826, -0.43015403155413157, -0.6113679518142062, 0.10392363625147269, 0.5312668598907161, 0.030347022445664777, 0.651433398416348, 0.3222545939647699, -0.49171915180473463, -0.39093109741352977, 0.222981976893762, -0.6663151471325333, -0.5202717181026977, -0.04152946140144135, -0.27365357011944974, -1.0361015435081415, -0.8781757435558406, 0.386394709065161, -0.37989501582636226, -0.4781681839888899, 0.3356928210954516, 1.222086912109988, -1.0975247780076005, 0.2865328687718305, 0.37988427964498805, -0.68213036450683, -1.0618733598973173, -0.45281605919876805, -1.209691827766716, -0.01876374577056318, -0.046077774481966836, 0.015451176789002635, 1.1710532165880694, -0.211199556885323, 0.03898867732481765, 0.008743800854030712, -0.29442462045377, -0.7487776441213356, -0.7638815823738404, 0.2614302399390465, -0.14014410350486245, -0.9222202563737988, -0.6829065835949286, -1.7362899242130776, -0.6753438501732788, -0.1966720494380926, 0.37553269590048327, -0.19457269253034257, -0.6583432447071842, -0.013181883956639395, -0.5729793245282726, 0.2849764159267498, -0.9618880884437626, -0.47955725289711143, -0.30406583452176744, -0.44131817336175555, 0.31168614604994205, 0.8724298491299528, 0.06747850129249498, 0.6593891662815604, -0.6054403958430838, -0.15850860283189222, -0.42279463358431524, 0.6225279018096989, -0.41334450309427195, -0.4067606479562052, 0.03325616938634563, -0.582450345118174, -0.06920542312971267, 0.17215553859416644, -0.6456407921854994, -1.0313351138428168, -0.8356932284361401, 0.031621936933433556, -0.05625794053220714, -0.14309727058196064, -0.6610059364790776, -0.454823650816748, 0.5127035538111239, 0.03330709490674775, -0.8774115019083946, 0.0020413667388057906, -0.343570151840516, -0.03464679451082062, 0.3206444923840224, -0.981571875155518, 1.0704243165449432, -0.140508849207582, 0.6716665609939778, 0.41349689131714723, 0.29090736014163054, 0.2593904636375073, -0.10609907737555307, -0.009745626643358967, 0.6307103660976688, -0.02667670096590529, -0.26402109502744353, 1.116947077744678, -0.5350461152004305, 0.12968789981551013, -0.43913240142664334, 0.49846110209551114, 0.6260900612434027, -0.6072887566324523, -0.14872297941101684, 0.32609304965073516, -0.20712538212123485, -0.25258570422371796, 1.3152028721485103, 0.09383220457882453, -0.7601754972209661, -0.16204663010829345, 1.162339048676239, 0.28874396874400315, 1.1861152879698347, 0.1720450186717301, 0.5828540662038013, 0.3928838487439602, -0.19545166308421996, 0.4161048825132924, 0.37498287392852475, 0.12885209684596635, -0.3035350581639237, 0.5870657551169574, 0.4640438176698899, -0.500913170957232, 0.03255140571287342, 0.345020540297821, 0.27671751164517255, -0.15888099364609326, -0.20841163748302266, -0.6993815789934956, -0.11173673007173435, -0.41795635880737336, -0.7769612905864051, 0.9491710496959337, 0.1763134652824345, -0.2118300186072301, 0.5073787820517837, -0.5568253035526988, -0.09261249633381863, -0.04855759710390486, -0.33274019326849313, 0.2839322304536527, 0.5063669971610621, 0.27664153411259007, 0.3725339390937784, -0.37273766420565274, -0.029342522327790596, 0.08229344506249094, -0.32113251057094083, -0.8978065861650265, -0.3860420721251951, 0.03700169886939649, 0.36675184937328503, -0.8098121298194301, -0.517913020538218, 0.7677254211234472, 0.4548777778016069, -0.16476592111122584, 0.1490614899630164, -0.340464914965641, 0.2622393621411985, -0.36118285833015057, -0.027099955901326064, 0.7102817338101972, 0.09549021573736768, -0.12061901740999996, 0.5252813566876031, 0.6137943392446399, 0.6733064572721932, 0.626769611205204, -0.13075592558503274, 0.5294444707093059, 0.11392191341498595, 1.1288565847355247, -0.4296174410934502, 0.031962375927179466, 0.053861859743569315, -0.4174902702778076, -0.1649835573814658, 0.7269508492001864, -0.33930448626942533, 0.2589481511909118, -0.1288798990412965, 0.3166680383364796, -0.6440608657801034, -0.027651551244319644, -0.16950593220502327, 0.4018026747028637, -0.20504402395550994, -0.725909682276853, -0.3515725170604499, 0.6128379018216401, 0.07532321387950668, 0.6403371638617968, 0.03720873265147874, 0.5274667686401067, -0.18969572566343987, 0.0010669458905874368, -0.005961475233883627, -0.15447414727667882, 0.27921230152418064, -0.15968005607206354, -0.8225731544094886, -0.7718279912374971, -0.14933765191354093, -0.0550940557384642, -0.25746611636557953, 0.010709951642835058, -0.4879126864591067, -0.11121975021023328, -0.05886545936871232, -0.9520460737377218, 0.24484800611985513, -0.6178315488766029, -0.5094560906780294, -0.508802421172881, -0.04002428668422694, 0.9144439319465553, -0.556778986494721, 0.0018075796225781305, -0.867906998265254, 0.1591545367364908, 0.33108117674394716, -0.39462341887512437, 0.1680636304989252, 0.009760457067583845, -0.04981338645596412, -1.0530202195519756, -0.43632557644783804, -0.494041664222162, -1.2825854674197603, -1.2748015045821435, -1.0790565242331862, -1.299115410159489, -1.108644888108268, -1.118716487711945, -0.5305157601614165, -0.047067743989952754, -1.1645844953213704, -0.5781415795151351, -0.4306256270554767, 0.2047827114478856, -0.80323593740298, 0.22146119297886238, -0.370477188322506, -0.44578673133369806, -0.638701919418647, -0.9359900299338438, -0.9513549125997972, -0.7508623026263528, -1.4454918586882162, -0.7027863623736823, -0.8847307709146521, -0.8315445785552028, -0.2816637783523603, -0.21743195916171829, -0.8115696625292422, -1.152460539349013, -0.5121521851871288, -1.0494965871459279, -0.8372065616368123, -0.9024477816518751, -0.7878721822287806, -1.002297077762439, -0.9785619428298632, 0.4756365291041626, -1.2645906615491709, 0.08388246188641058, -0.1664158556313157, -0.14264228881918165, -0.2845502759198859, 0.5996219723766893, -0.006663227909585896, -0.17079643125805413, -0.5366841624371181, -1.1793700376697698, -0.0681466731102929, -0.035209680306323723, 0.09811697107354916, -0.40162823961950145, -0.3360641401521168, -0.04722248930116455, -0.27081997902227584, -0.00756099978518992, 0.19171864867041513, 0.23645526568208167, 0.6124859456737196, 0.506029808717415, 0.1467521162622163, 0.010016831179654375, -0.5059266757470359, -1.167365727857573, -0.7477866780323037, 0.3519647051245202, -0.7191402831314697, -0.5369645301747845, 0.1937472288324585, -0.2639914954247019, -0.3029443314881193, -0.9430563324128409, -0.6181291480391338, -0.499546291007608, 0.34680409256292877, -0.1471633136171497, -0.031661229218920665, 0.018302303560641508, 0.25390780249885514, -0.11888451291672046, -0.9636649075147486, 0.45818244035481365, -0.06554370052852707, 0.07886687261492487, 0.4036272102014752, -0.7201642608979537, -0.020164653076975597, -0.37686694575448515, 0.2687978915979217, 0.1564196400502542, -0.08790174589990388, -0.47629008597159445, 0.0855815177402959, -0.14846607741475623, -0.28637814153189023, -0.2345324653794114, -0.22873759601949525, -0.10897899553398921, 0.8967313801207251], [0.4438426593598959, 0.3700402941425187, 0.30195572174759583, -0.23830810904560384, 0.1590349893781673, 1.0420876613203418, -0.18405272528691047, 0.5279111318566739, -0.16016248901610328, 0.17645827715217136, 0.43718334805035475, 0.08193465818256286, 0.3531790556340302, 0.009059830713738927, 0.10132707300730115, 0.35962493722337846, -0.13013072963915642, -0.41142413929702815, 0.5974692354303021, 0.5950856105103209, 0.9168067480800899, 0.9434370642178076, 0.0693747997913645, -0.16098298472762368, -1.3648571403224978, 1.1001977065707178, 0.0881860783336446, 0.8816439390290101, -0.5116615807428151, -0.6914141339692645, 0.4732352842660991, 0.42520914569415713, 0.9884284359778824, 0.09325147736035333, 0.1469497239647033, -0.4527937204801049, 0.0055102477307406045, 0.9463842559707659, 0.0974025827244349, 0.8018387099119303, -0.0622830604732704, -0.053416679340736815, -0.6890535659653267, -0.13068115061438898, 1.2514537868823785, 0.07374085945709012, -0.0036964332422881343, 0.2103410599084567, -0.7885817248939627, 0.1232146891459803, 0.42264071830958905, -0.018256674545481084, 0.40918620133348826, -0.03213299976430953, 0.3812847709580181, -0.13889528151843544, 0.010209705977815809, -0.6464859607781265, 0.16358777462159804, 0.11617620405352819, 0.1884206167967873, -0.043478681094478, -0.5893141830063388, 0.12957025739114028, 0.5788898159511071, 0.0844307257856281, 0.19939230603946465, -0.30520516471657794, -0.24992445538030847, -0.8008662535459079, 0.16115012673599663, 0.3672519768617706, -0.1299665028929794, 0.5133084674922442, -0.6857874005729969, 0.22618216203652455, 0.5546221722692061, -0.10774109646219392, -0.635006694284308, -0.04669092597010491, -0.17328205387037138, -0.9283544799291149, 0.9510098108129923, 0.09673964594592761, 0.38788441733141976, -0.35424608598649665, -0.2897150150865551, -0.30773726565348203, -0.8490510587416626, -0.11373268141828625, -0.8490415598253168, -0.9555288157686589, 0.4733568979006345, -0.07593284234101003, -0.3297621367754862, -0.3168875139441529, 0.485031681618689, -0.33540539429816096, 0.5142207189676132, -0.5594077306620522, -0.19365467333839706, 0.5457031156188842, 0.10387091927151974, -0.8030001455117518, 0.8120511619091954, -0.3451515955998563, -0.2963825014273394, 0.7877137430680035, -0.3595901090823499, -0.2615157111491701, 0.25152782950265945, 0.6690935891716592, 0.5064319346715874, 0.6562436315508174, -0.634331621893752, -0.4162476331304328, 0.07788116238066184, 0.8327292651151137, 0.0651797698937868, 0.39978667893579095, 0.7519459569771555, 0.24343198099967303, -0.22105863604950268, 0.9251689152461563, 0.6266111644098731, -0.826947281894005, 0.8886183305758429, 0.4484913978867907, 0.18127300939841268, 1.1678431993006657, -0.6188326254021418, -0.19880237896117536, 0.32936465158614064, -0.5365284792137144, 0.08043473349022873, 0.22890581092478707, -0.2735747739861102, 0.27787880361525985, -0.015729816509134843, 0.14421322982682624, -1.458745970551388, -0.7401167242202292, 0.0019015348048905998, -0.43073628010054027, 0.604467227036793, 0.3943060051851029, -0.4052567227344673, -0.048093801116763445, 0.2095465132815522, 0.5972381429115236, -0.17614369070214755, 0.6401444251999489, -0.4225866707247567, -0.6692557828475051, 1.062808135017227, 0.28608529922672665, -0.18529084625380474, 0.6051411473575022, 0.354727334710732, 1.0058037430907794, -0.5785081685372382, 0.04045145408912559, 0.20479735913099198, 0.15475912488820479, -0.09377955890324126, -0.087672138959086, 0.6406152889126611, 0.14305147554151845, 0.9048166432461975, -0.6756942828323281, -0.04876970270761144, 0.29445173192407065, 0.16684123586612745, 0.14392015259990668, 0.12036045179935963, -0.21461900282044752, 0.34919150818982553, 0.5494967598751269, -0.38292151629486376, -0.3655207877775739, -0.32560035992445835, 0.17621198902210708, 0.7038866178481259, 0.8488493826886385, -0.4554371583651881, 0.2396680917181416, 0.5770652347114171, 0.16704693646265645, 0.2606671211786874, 0.29734619741780643, -0.03476199170414949, -0.3049011330657996, -0.3790333757816839, 0.3527465185101574, 0.44922297701204206, 0.18646153716697367, -0.19741275640892234, -0.400022065215948, 0.36278370598112225, 0.04106224077440898, -0.20810384845022922, -0.2700348462837474, -0.34015681709172074, -0.3719357275376356, 0.7041300552865156, 0.5576586528453815, 0.7272918078397741, 0.45097799248283155, 0.9460299126199191, 0.5072520350693154, 1.5699946595812533, -0.08149448178864227, 1.9793843446822976, 0.5424606148264137, 0.7613504130598946, 0.3687320228917392, -0.00024379993493915943, 0.817706217481203, 0.2709576902742778, 0.6346104841846857, -0.4313156479612308, -0.007826605200255705, -0.5287400972929992, -0.04874479725177538, 0.11532624085998058, 0.41033140352535175, 0.2866155096177354, 0.34292790050555666, -0.6810516954528388, -0.39720792949955047, 0.5146736906704721, -0.10351724122531808, 0.7834151473864213, -0.6435421191330318, 0.6715343402208874, -0.04433317154673102, 0.35691964436112145, 0.4844929678735195, 0.9999574336405829, -0.00496675181102342, -0.25863833704149086, 1.1686811368876486, -0.5733867893631442, -0.28400046761325276, 0.26520719434801693, 0.5399989590732933, -0.3382825645066717, -0.1706284460585836, 0.3950349501170054, 1.0179343549578381, 0.3775697459329562, 0.6294230842130099, 0.9014322455060814, 0.31778180635461695, 0.160081133676891, 0.6287793909490145, -0.12016919068106552, -0.25773011899172377, 0.2981855572389711, 0.45409400891508783, -0.01836227917321908, 0.44369745837964747, 0.667950962228362, 0.7809160223173844, 0.8015460061842241, -0.269217311829336, 0.0017544209425085012, -1.3754326329570092, 0.2980745139788716, 0.6229887791347778, 0.15282728501148762, -0.255424698838395, 0.22178043696405067, -0.23409717543431602, -0.2273115041363106, 0.509688963340134, -0.1096812605752643, -0.2992386642348183, -1.1338184665798094, -0.2361590500427262, -0.012113905784450613, -0.16210984237853973, 0.2961477900508622, -0.5709094352919928, -0.7636635329048003, -0.5132645124395472, 0.43732572731800823, 0.2928919414876802, -0.006034213107239635, -0.059220684776527026, -0.06902361624213038, -0.19647292691431392, 0.2363573033845642, 0.4581135237731877, -0.031405148143992326, 0.625643241409155, -0.15677692336110016, 0.6146770030263222, 0.4458139632487217, 0.8417927529357075, -0.269197077875574, 0.39609839664731805, 0.605680012413307, 0.41596112990035305, -0.6788771598675416, 0.1562049219096541, -0.4214694252439137, 0.5435077120956225, 0.7148297350750035, -0.34930594245584873, -0.6909512949223943, 0.22593123961953412, 0.26040594907211106, 0.7208403105249297, -0.29192729449233873, 0.5676725406769997, -0.3342493427247601, 0.41977065497505617, -0.19040803217060853, 0.5900815820696611, 0.5159610965731635, -0.597070692257391, 1.0076109045766022, 0.0032668879940247445, -0.12186381737975262, 0.1620278493245641, 0.9622018797609212, 0.3215640523900663, -0.12170906068603247, -0.31114078223643743, -0.9080879919140542, 1.2561519553494407, -0.027464814048682624, 0.25647134029180724, -0.19634381440194507, 0.2925352603427844, -0.6321572632035731, -0.4445055346813298, 0.4917368827100588, -0.849758654227467, 0.3229054040342575, -0.40685955304155746, 0.3445982319746346, -0.5463015267440401, 0.37764758858180886, 1.218542972230704, -0.15732210007761332, 0.13604432148041948, 0.8168712817730752, -0.011115200948018333, 0.5099874473825433, -0.23368132647635245, 1.2375959482870649, 0.43509050067613686, 0.8026481648139628, -0.24796391443141277, 1.0226083675539488, -0.7555557197628782, -1.0789068124334367, -0.05480533775914196, -0.23886256912905304, -0.6718866533438899, -0.03529107000544499, 0.4235212440330374, 0.08811866835349326, -1.1645798300119905, -0.7204119635258669, 0.5930800251207173, 0.2011443673117412, 0.6818161655390444, 0.08560230960930877, 0.3970162761019115, -0.4301683614420952, -0.2376161010294949, 0.13931518216816025, 0.5480042039722852, 0.12065156051555702, 0.21014084791692578, 0.5330418555086438, -0.22548882857286023, 0.859152686630991, 1.1141240071368825, 0.21943396663777776, -0.09113844711620102, 0.9954660839637327, 0.02069243032634735, 0.4748402780234543, -0.781419084566804, -0.4507956292191231, -0.4931461203516207, 0.336969002819103, 0.43346052847426125, 0.20488833307265047, -0.08656566995538519, 0.18823882577699072, 0.3214943604069904, 0.7299288704094269, 0.35143642246429385, 0.4515083179299448, -0.47823365318020616, 0.6376182971762161, -0.12781236009192096, 0.18315487566737637, 0.31441434043373423, 1.4282297409271487, 0.4489186891494743, 1.0222496020104208, 0.6412837940543218, -0.5480277385679994, -0.8410423339760801, 0.44909607813877434, 0.7538156535795042, 0.5766498364049947, 0.023063100492808818, 0.27294427144837075, 0.5134177775552905, 0.6359534319136675, -0.12675551487232004, 0.2802168233147527, 0.13543104015707907, -0.805468585640498, 0.011945965003436943, -0.13439033348471358, -0.09475553153732785, 0.7146524646063219, 0.16384082638836012, 0.4054953813383988, 0.15790490537783422, -0.5065334376881562, -0.0814536560187454, 0.24835543692817358, -0.6732890766987345, 0.4552056778737497, 0.43039165592500145, 0.5496506995414896, 0.15900649193821464, -0.09074470331568693, 0.7314080847462131, -0.05800493034764084, -0.0535307016215136, 0.3614551605366035, -0.781977771949924, 0.5984167072396304, 0.0482628599668322, 0.38281209325532045, 0.8150575026313847, -0.3056259466653087, 0.23333728443274307, 0.2668591358939028, 0.3484508121122889, 0.6518198973104101, -0.4255128924033718, -0.1410003292597346, 0.8508989201708014, 0.029163212047529932, -0.39611610498397787, 0.0367422884248174, 0.05715706583037778, 0.9691211890258857, 1.4125063908087276, 0.09305957646350174, -0.7913215971986384, 0.9199561328671692, 0.7286495923140369, 0.42188249594842886, 0.11446905941545842, 0.49762317476442713, 0.014430315923220366, 0.7603149548444933, 0.16418017653212302, -0.2426275940320083, 0.8767238894785199, 0.22834105322487303, 0.46772363770159975, 0.5777612055070974, 0.3926209263452474, -1.002753421911331, 0.09343476951720096, 0.20033951566458666, -1.2313480771357608, 0.5401307146787314, 0.20268632750335705, -0.5338551843881995, -0.03400699952654619, -0.33724080857805233, 0.7266327649154888, -0.27551034739976227, 0.5724755440929705, 0.8763985604300519, 0.20095849411001412, 0.7959005407559441, 0.5009373127755368, -0.7962595570144769, 0.2346871278285944, -0.07181873268999919, -0.7643433877295139, 1.0397132206656354, 0.4666849909121543, -0.4066801605426587, -0.3891929303879454, -0.11164545593659803, 0.6216406922036307, -0.4215782509701805, 0.14971952317593673, -0.7796542462801364, 0.19730402109593123, 0.009882656093784699, 0.08699675198630286, -0.10934640140505257, 0.13141367607049778, 0.1837252443811879, 0.4602808298047933, 0.029237877735646574, 0.18412847617791556, 0.8930181471621285, 0.6458135181387696, -0.4359758223093344, 0.5440496286468458, 0.41764087023623797, 0.6799822324168983, 0.409633364449907, 0.8250551312913, 0.06650344864941138, 0.27688914618464217, -0.09156354559885452, 0.6423779062273249, 0.06622097546417681, 0.13698451895868088, -0.20334213435168758, 0.4061776539034991, -0.48147603068360495, -0.6456875382309728, 0.20200726950603776, -0.5032168843544275, -0.1523665839718281, -0.3962053487304325, 0.10813926706425679, 0.22341369959821453, 0.16594141630113707, 0.2618872251766183, -0.7435857406388063, -0.10108745526147289, -0.23830151537072153, 0.025221079634205897, 0.32843407413009845, 0.20676652426080555, 1.2889217563445798, 0.5124436461201655, 0.12659793484054072, 0.9327215168580707, 0.6036234986074965, 0.6131142420791251, 0.3568835907848194, -0.02435416879082845, 0.3647507540551247, -0.9834077797480597, -0.9397682008311182, -0.11040268573516834, -0.24392116735536187, -0.9085678009935721, -0.5275150569853085, -0.6991824665271097, -0.5257522935707512, -0.06273233085748844, 0.19115228022061595, 0.18090165935212016, 0.7877289279395499, 0.6577544232367961, -0.4377781752669232, 0.9479655592874693, 0.1501716807545015, 0.5194001711974936, -0.29793303968093426, 0.693076598461456, 0.2667734052913996, 1.0333213162699741, -0.37660037333305374, -0.7486265265913867, 0.030177703877546116, 0.2791138620736679, 0.5542362668446537, 0.26080765222248714, 0.6145590983046346, 0.024481588830486622, -0.5175667238126517, -0.39110555878167225, 0.9053805286255907, 0.2918290081403579, -0.14835066129049787, 0.038713876315349005, -0.6378809038335513, 0.5699968387549486, -0.3773847745056283, -0.05652462359862442, 0.1485041124385874, 0.5675534284575495, -0.5254309564746992, 0.445516902595792, -0.3640827398372461, -0.091630101550154, -0.20831754015451104, 1.032179220326224, 0.5443639640508777, 0.23960348478794297, 0.47927407859172705, 0.2671561553182768, -0.8367246455185949, 0.15658448039299294, 0.3194051831733279, -0.5624853598301037, -0.32027771550535844, 0.17954576646046513, 0.20073320426453595, 0.4123010748803586, 0.2701361636302404, -0.4879067947668567, -0.29640050397938333, 0.9785564463532735, -0.7886812415045934, -0.02058951586418147, 0.23527362995974088, -0.17689227222969012, -0.5575879217186842, 0.16720757351081825, 0.5044213931249378, 0.05751125963642172, 0.27679658298350374, 0.6044292835371734, 0.2607641655486567, 0.2561770064183927, 0.6999931859602873, 0.7346957278104421, -0.3584666671836904, -0.49319641552236915, 0.8591994229591081, 0.32772220709092903, 0.10733855024020342, 0.34384148006492715, 0.7912621139503313, -0.37841986123908655, -1.0946985801172346, -0.06861097013877365, 0.01574020937729382, -0.35659636485321067, -0.22634961632241501, 0.14573040576861748, 0.5227816353678163, -0.3302304539503059, -0.11661173320879388, 0.5647185648530908, -0.8374268003338617, -0.4744695197805334, -0.8113829197205253, 0.5524815712995618, -0.024008568269005104, 0.4232508064541614, 0.33798386786350376, 0.04076941793907764, -0.02833657709173569, -0.3357508763844752, 0.37741579957281635, -0.18934350885076262, 0.42863362266912625, 0.41585942317347085, 0.0392909563832682, -0.507520288438315, -0.06057428769456849, 0.05992157228327368, 0.7026924411608737, 0.33768794010072806, -0.00158201755621569, -0.41950562806526087, 0.29326327132155916, 0.8520531771654491, 0.32938472906401406, 0.23930683779325332, 0.11400661336791182, -0.08275444587016609, 0.295843482329397, -0.3280905088990127, 0.6690495997266583, -0.8336244871218633, -0.07146932071816565, -0.8166007683450441, -0.018803377513359306, 0.21756087253789574, 0.020655152679714666, 0.0017854282205298712, -0.2512752462598555, 0.18301286057288055, 0.3338669285760691, -0.3998358336044097, -1.308414962316172, 0.46229956195352645, -0.6569444437449691, 0.6023878409564198, 0.3721254832828823, -0.027625003490806866, -0.06290030528346457, -0.0842332550739928, -0.06516711970146184, -0.020921512822910122, -0.08748465360655795, 0.802991205887425, 0.8489837857802948, -1.1334714512272885, 0.18065216192053846, -0.6126472139564224, 0.005296591019582588, -0.1739159417722724, 0.1805697417358155, 0.36948925813665284, 0.371825011057736, 1.0377453567645194, 0.5643722607009065, 0.10350155847912197, 0.2599370140250053, 0.4394729880769855, 1.0731235877965788, 0.4994420061764845, -0.28588720298243514, -0.4284597158785914, 0.5188608451487322, 0.3776541305373063, -0.28468166269513684, 1.0476750482688801, 0.4333451362094047, -0.08686761791066307, 0.3541077724189283, 0.10719304584213894, -0.08642493682315434, 0.5480004541487283, 0.3974474507439665, -0.5210684033824499, -0.10614698103822522, 0.4350154139053684, 0.35895980642826586, 1.0894227276868318, -0.374524478321791, -0.7943603527372768, 0.014556299099642032, -0.3849855949797126, -0.03951261971748942, 0.7949666264824095, 0.4797347048023516, 0.06622033147461188, 0.3200282617444912, 1.147239379396029, -0.09895704288183173, 0.15217708256519258, -0.19588286573505015, 0.7786473550055436, -0.9910593307028673, 0.5977864782046681, -0.6659685975270269, -0.19095834938837666, -0.11946849081927151, 0.20184055045189425, -0.4433606144285006, -0.1903415916906467, 0.22269249381416875, 0.6594020619558364, -0.46590232640074775, -0.12865580803196736, -0.05951594550805666, -0.4048164958338942, -0.6694088001495717, 1.2491579824336736, 0.4990616187806107, 0.7757413549623691, -0.841050676700817, -0.4680461049060464, 0.6254132276631187, -0.13611367200406482, -0.3981414746766528, 0.33107745244962106, 0.2201481231512307, -0.032261357055036397, -0.15993269745202154, 0.43671329317947344, 0.5488272799712555, 0.3889649883128091, 0.2423544346484111, -0.46728046497142056]], "bias": [[-1.1550326010181073], [-11.308546133933271], [-8.947938099162306], [-0.4364915978297594]]}, {"type": "hidden", "nodes": 4, "activation_func": "sigmoid", "weights": [[-1.4056929416606794, -0.631564747608293, -0.739286015909377, -1.9803294757433123], [-1.4728715274745008, -0.6072349824141811, -0.7353291305869427, -1.9746973051399916], [-1.4074187674899865, -0.5942143385890105, -0.7220611067225646, -1.9149505923662749], [-1.3714562156947372, -0.5925676045514988, -0.746689408452851, -1.9079777994763119], [-1.4240328018138195, -0.6178048192251692, -0.7583016403438458, -1.9840979508045167], [-1.425423007220448, -0.5960071243432178, -0.7719963135838589, -1.9364362904244836], [-1.3925829782253956, -0.5985375197152795, -0.775963820790017, -1.9355522821838198], [-1.4049352612016375, -0.5941418842772125, -0.7359321886226963, -1.957314667104457], [-1.4066951474426819, -0.61532647306887, -0.7784205218194892, -1.9466683562481832], [-1.419658589210546, -0.6086133200300101, -0.7291636078134901, -1.9518913637024853], [-1.381047187187218, -0.5940384760154743, -0.7425686478911316, -1.97691920650257], [-1.4630815336379412, -0.6503857223886497, -0.7726099913171469, -1.9737107653471344], [-1.44237331622565, -0.6095557736139214, -0.7481684406142515, -1.9659621454164957], [-1.4135410535106145, -0.6088347222654905, -0.7424225568185749, -1.9470823755931173], [-1.4535494607564332, -0.632802488108407, -0.7567188605211351, -1.9898285287113326], [-1.4247062528344174, -0.61797823417078, -0.7459174001202683, -1.9750351160303696], [-1.4723726468562488, -0.6068927585535311, -0.749360708135278, -1.9534175620300067], [-1.4020187707383434, -0.6103965820598775, -0.7354878942684879, -1.9782982891626233], [-1.3646086723811397, -0.5982440250080282, -0.7383537291301202, -1.9639327936892557], [-1.4171548275358699, -0.6191639300255043, -0.7412301741079037, -1.9955408531665797], [-1.4030087470808816, -0.6209035384845737, -0.7849409701765167, -1.967563376698716], [-1.352527548341852, -0.5844199979740012, -0.7539556706819099, -1.9824931128116448], [-1.3583020799527596, -0.6051160532386263, -0.7359335455317682, -1.9576098339818901], [-1.382695467670658, -0.5819858751413682, -0.6905071049516445, -1.9294924192571665], [-1.4020465349261928, -0.6054245458792994, -0.7329157513516165, -1.9624896151930848], [-1.395489873381339, -0.6096126234006309, -0.7648700459929632, -1.9986423114604817], [-1.437825572380386, -0.6203264668863017, -0.7335090702672331, -1.94747474065955], [-1.4642198641869753, -0.6174005370496275, -0.7701157499405211, -1.9619752421821244], [-1.3977816366718299, -0.5956011515633749, -0.7471921688865804, -1.9741296668517485], [-1.407302442042086, -0.6279616583745398, -0.7560389456127211, -1.945909767082911], [-1.3996992147786351, -0.5956773406711942, -0.738275626606786, -1.9533871043211368], [-1.4180210570283804, -0.6241733951127555, -0.7383341126345221, -1.9602019509502642], [-1.4055162600403943, -0.61048926293248, -0.7730248940780424, -1.952573375071111], [-1.4204082367063298, -0.5863128191574418, -0.7345340279471992, -1.9344066763092116], [-1.3984461905358603, -0.600228378683347, -0.7479863425192871, -1.963617013061852], [-1.4205626305684376, -0.6249845680118921, -0.7586483174254177, -1.9957769097874378], [-1.425259679618622, -0.6367970515947414, -0.7906772096502176, -1.9401163018411047], [-1.377803568016123, -0.6329890073232632, -0.7224033582072594, -1.912148929307726], [-1.3884385867303097, -0.6354455499539766, -0.7854073282795458, -1.9146007428426155], [-1.38717049464871, -0.6569106287518957, -0.7557475258998372, -1.965406175241564], [-1.4396753646826068, -0.6338418293743606, -0.768013876823292, -1.9469030313067577], [-1.371738613410396, -0.6111742987590153, -0.7344545551120337, -1.8960572021644713], [-1.4136454870555781, -0.636995301451916, -0.7255564374767067, -1.9584097646377865], [-1.4162991974911698, -0.6350194388309836, -0.7328859208272934, -1.9271101753849293], [-1.3888668269718156, -0.6370947838724788, -0.7618935666456826, -1.9318802444871308], [-1.3687491030025853, -0.6285742008590264, -0.7314876945699942, -1.9485595935207118], [-1.390560237946703, -0.6393748881948148, -0.7185646375121597, -1.9332745727007479], [-1.3843601046884528, -0.6402379986026964, -0.7581323704860718, -1.9501075181891963], [-1.362197760458014, -0.6305656933444038, -0.7423947467952909, -2.0093254084109042], [-1.4103713331487164, -0.6108589825779694, -0.736065235640586, -1.9867337113816277], [-1.4104198213302386, -0.5934458891941661, -0.7385391248616828, -1.9418575149489807], [-1.3442973787430643, -0.6017549722789595, -0.7259291828605069, -1.947501749751367], [-1.440915132723646, -0.6168165407487304, -0.7520365686165251, -1.942673236532474], [-1.3558148430025685, -0.5805174970146612, -0.6991859011314144, -1.9590481506797734], [-1.408176824911514, -0.609390016663209, -0.7250932791450074, -1.9908270471334053], [-1.4217416808232306, -0.6301808506866013, -0.7464373058939302, -1.9872773997264355], [-1.4135557997224182, -0.5927783326438364, -0.7146523052910155, -1.9743184204954882], [-1.3770281922669976, -0.6040778463001919, -0.7955752797304113, -1.9680488485285819], [-1.435435435290936, -0.6317637069970516, -0.7705395635056749, -1.9683497356074546], [-1.4239647928295887, -0.6179792462096693, -0.7633018669022656, -1.9543993715448869], [-1.4718672489379168, -0.593082213682629, -0.7573389702384465, -1.9874655917855064], [-1.3854550982654257, -0.6371309715405359, -0.7477719649234492, -1.9711621457207562], [-1.3888635293754799, -0.6293175128355587, -0.7373722208309088, -1.9401630757552009], [-1.398131308447237, -0.6302948550669082, -0.7700531022119552, -1.9220622236188116], [-1.3521736330046723, -0.6922429782383717, -0.7458854091859072, -1.9217731139710779], [-1.352122485301129, -0.743655551665161, -0.7518088641375623, -1.8629197895297536], [-1.2822791546783723, -0.8088840296973676, -0.7460302666049367, -1.8152480956512418], [-1.2695855473012094, -0.9204641039034972, -0.7551158212338681, -1.7578833160851886], [-1.1064512694310502, -1.027804132072013, -0.7270835171971078, -1.741163337474165], [-0.9289669774226393, -1.1264143417870336, -0.663789044963974, -1.672296219853531], [-0.7517181639504154, -1.1842954733302118, -0.5548963617330345, -1.693558742408843], [-0.6031401282043544, -1.1999058932825162, -0.4093707302119815, -1.7564673657423349], [-0.5211018313205349, -1.1692713049315095, -0.2987842665808616, -1.9006984586720668], [-0.637924681165464, -1.0948947323047478, -0.23592940679961694, -1.942876845113725], [-0.8118526104112491, -0.9864851263063956, -0.19665468041199918, -2.050579987000986], [-1.002526541411196, -0.879853447864154, -0.2370279782463637, -1.9849397592034612], [-1.1347011317530322, -0.7748678309077658, -0.35806113250229, -1.9969839535459164], [-1.3312209836348006, -0.6995994005632841, -0.5592390149637039, -2.013572345041953], [-1.3577172823605403, -0.6399146508594707, -0.6424428192717655, -1.961920369157767], [-1.422866025029812, -0.6359925452517985, -0.724410529785837, -1.9643960468772415], [-1.401011574884615, -0.5893752948770871, -0.7297821224884912, -1.9707214397521078], [-1.4341579232255333, -0.640177226270681, -0.7378158229116494, -1.928688032008655], [-1.400949566307237, -0.6071895649978158, -0.7234950419832744, -1.8896365609855343], [-1.4183051496130392, -0.6073758807329597, -0.7517076438178543, -1.9693276581070065], [-1.4334094149512873, -0.6340960610003601, -0.7255115109976706, -1.9564084291195605], [-1.3753226411101012, -0.6458775175069893, -0.7547875676820367, -1.9637483780010931], [-1.4475272877925747, -0.6189161363106236, -0.7337872594649448, -2.0316903852525363], [-1.4006014347325353, -0.6312040377986475, -0.7501240575420914, -1.9844488309550719], [-1.4074313462015848, -0.5663733724428025, -0.7493444090200703, -1.9460897245679867], [-1.3976648116892199, -0.6087961565887772, -0.703392363725227, -1.9381264325794703], [-1.3725156564306777, -0.6507051739855292, -0.6770746973859766, -1.9321572895870651], [-1.3303144459292233, -0.7081172896467517, -0.57995191738759, -1.8916832037353049], [-1.3301765988658365, -0.8735151241758691, -0.37193810528926236, -1.8040233312794915], [-1.3410231497486889, -1.131059655416242, -0.189220347510681, -1.6714817092399143], [-1.348552340099926, -1.41632889641808, -0.07451441812511995, -1.5213010723887175], [-1.281179359171451, -1.711263917752661, 0.03052319462609478, -1.3199872432062583], [-1.0397034520135489, -1.9558237732096546, 0.08765548536784984, -1.3007559563181614], [-0.6256524645493704, -2.0885022000622033, 0.11278461079442485, -1.2431441168357893], [-0.11471792377285159, -2.128006721326851, 0.15693771322522304, -1.4189018692618216], [0.36735116439127163, -2.1070154000644283, 0.2746182452620368, -1.5970336360740454], [0.7511371413193332, -1.9510829309958044, 0.3683016910156167, -1.8236991567929421], [0.9375425528578692, -1.6906353254017348, 0.4085182490914988, -2.028903222900474], [0.8683742605988731, -1.5033644137472855, 0.36180674164708987, -2.0623495048849], [0.43917492849224227, -1.3505179227405544, 0.26337617527926216, -1.9714909739611846], [-0.3584483204948263, -1.1463944737218863, 0.0708893596629933, -1.9342591072616226], [-0.9750906652159174, -0.9161629208941803, -0.19432307886001154, -2.029985425206667], [-1.192029657439808, -0.7219729704791165, -0.4318093039090655, -2.001522822715041], [-1.2706705640139162, -0.6251951364820104, -0.5835701896312773, -1.9556233346594554], [-1.3292538874515316, -0.6121922077827398, -0.6753709130942239, -1.999309857378911], [-1.407997612629201, -0.6150087680587204, -0.7650099129440695, -1.954518006262485], [-1.3847744151748973, -0.5782648603109825, -0.7055757091349335, -1.9284119350655224], [-1.4691739679746805, -0.6308684997080988, -0.7536731847572015, -1.9755465513374935], [-1.3853075390022525, -0.6011783911228559, -0.6874203768983675, -1.94012066959173], [-1.4201098109995882, -0.6361512778244298, -0.7225359889283064, -1.9762967464378431], [-1.4400692522123433, -0.6400724437695388, -0.7957493128172193, -1.9523177511157244], [-1.4432212091570462, -0.6081095130045411, -0.7312200398160421, -1.9536165119259445], [-1.402133926856607, -0.6367558905910476, -0.7091897946581328, -1.9344084205141892], [-1.3699965797278582, -0.6793788936151789, -0.5372888256855891, -1.9534176743409546], [-1.3585521915031586, -0.8410864283255394, -0.25440923173883834, -1.8509649053800563], [-1.4303604275431705, -1.2411621185541255, 0.23572002483185037, -1.7334152944201002], [-1.6363358492308975, -1.808954059378968, 0.5473415304250184, -1.4531861694519848], [-1.9357452326643774, -2.36273875530233, 0.6812943876153404, -1.094006571777021], [-2.184183126790104, -2.79337971973541, 0.7686675313122368, -0.8633810768037018], [-2.1380811493920784, -2.959066311998861, 0.8515184727603565, -0.6765869049880945], [-1.7944453046268738, -2.592266603550593, 0.8496513185144429, -0.4555075539555255], [-1.2575607855875728, -2.1923899623789747, 0.8164712211850815, -0.39392290382550355], [-0.6366844959761668, -1.9388098833166034, 0.7883845645204164, -0.46585702566916554], [0.016609412083988216, -1.862961849223547, 0.7525728263930475, -0.7217772425531972], [0.6015399423828337, -1.8517722324915542, 0.6890024352671849, -1.0881310451870345], [1.0884051795324028, -1.7883437945099308, 0.6325873599499076, -1.4976522639975676], [1.4146960513860374, -1.6979029779727173, 0.5620283783048019, -1.9303532340572396], [1.438786896524626, -1.4962990870964366, 0.4580319785369709, -2.0633222020478246], [1.132483941789445, -1.2551500039423815, 0.30704371721154244, -2.067719920320461], [0.5414406496636587, -1.116724543638896, 0.1118297695023478, -1.862085582322445], [-0.4582290300786006, -0.9281274147949038, -0.08165951725474219, -1.92969634981402], [-1.0065966533482498, -0.7258999811453624, -0.2834097402358299, -2.0350768826423784], [-1.2993569994938048, -0.6133627013190107, -0.49760503945627677, -1.9646689706209792], [-1.4145503239075468, -0.5947387811792457, -0.6887543037059284, -1.9658305869404298], [-1.4316800408239443, -0.6209724541732932, -0.7543627807493793, -1.943553638230853], [-1.3705416663653047, -0.5853848413689785, -0.7088672605940961, -1.9113017005149122], [-1.3580491778562414, -0.6123358931149525, -0.7153176287718693, -1.926877935453198], [-1.3968794956033073, -0.6168445912702704, -0.7692881275520111, -1.96251153019694], [-1.3937373894781413, -0.6326871141276212, -0.7270513357147178, -1.938065256175102], [-1.3838200005899097, -0.6260911869963043, -0.756005310696677, -1.9713810367472135], [-1.3764431227863703, -0.6699372655819039, -0.5653219380286455, -1.9473729770404287], [-1.3486609462401284, -0.9091824769862148, -0.10110702050695504, -1.797365003825856], [-1.5345949516450552, -1.4393280145040286, 0.4081565789034865, -1.598580640958845], [-1.9964974277153618, -2.088111913092715, 0.7003002075691709, -1.207670016419657], [-2.603711503361674, -2.667707961226715, 0.812474239141154, -0.8138112066116251], [-3.0960047758579052, -2.9435671011824023, 0.8790327331259936, -0.3929185212251379], [-3.198472748318737, -2.9276521132811313, 0.9360017372082831, 0.016739250256667206], [-2.866636447328991, -2.796405747952478, 0.9613672300937023, 0.36686847720551], [-2.278439856359947, -2.540490584016732, 0.905175537026809, 0.5543318110807858], [-1.5910033610913066, -2.271442905585412, 0.8910969814703668, 0.49565365063021716], [-0.9199724008714945, -2.065878439021924, 0.9499548601341181, 0.28558447615011073], [-0.33230511511488925, -1.9207037959779383, 1.0021765357399166, 0.09540653557880215], [0.1834441168540572, -1.7316649855578348, 0.9278988901239417, -0.2731056582993006], [0.6985856050139835, -1.600770411706803, 0.8023500703171926, -0.6590493921812004], [1.2193094094256245, -1.4901259881830013, 0.6218101523744183, -1.1419850312641386], [1.590463281982894, -1.3248457411477148, 0.46240260215432916, -1.5776979925045638], [1.7145235174930424, -1.0938041863548371, 0.28998700605175687, -2.0059376472340955], [1.504508731411301, -0.8993829578897483, 0.11392292749114397, -2.0938161302134373], [0.9700615701913813, -0.7634527230451196, -0.07040503188491383, -1.989420729966498], [0.04448032991020128, -0.5876308433300352, -0.27500544697503293, -1.8571213365167556], [-0.9262778971904708, -0.446227799362775, -0.41613595794382485, -1.9988427805508466], [-1.3027711657611134, -0.46728168994673774, -0.591091927398077, -1.994592154596411], [-1.3848345006560292, -0.5651877367570525, -0.7254046599592171, -1.9803875037311884], [-1.411391508221195, -0.6343629155240245, -0.755589123066338, -1.9630519234752377], [-1.3851198519533572, -0.5909464143544956, -0.7630383411698427, -1.9487852100009713], [-1.3844077986590855, -0.6031906779919646, -0.7341424433671306, -1.9142555299853592], [-1.4086488308873757, -0.591332108386722, -0.7339509894081195, -1.9318209936043647], [-1.3741682094576353, -0.580573478610199, -0.6315892099854441, -1.9023542815907024], [-1.3368050056357845, -0.7025373520004431, -0.3293366982814451, -1.8596236271076205], [-1.4578830804862908, -1.090971536925681, 0.0799950541055663, -1.622245400519617], [-1.9205184832729922, -1.6255438809960707, 0.39323990211927956, -1.1965349886042744], [-2.7002760803542767, -2.0142430286099278, 0.5181122069718767, -0.703332349130837], [-3.3906481569346427, -2.1320665627641895, 0.4890193225618358, -0.1410457399962663], [-3.6328482973692346, -2.1679578291511876, 0.35220221401231866, 0.38836043283788896], [-3.1798590307901273, -2.2370086297279865, 0.2056707062074443, 0.9002545509931535], [-2.4126451608432182, -2.217392038324832, 0.09972585142268638, 1.1257873442572859], [-1.5875932070020038, -1.9307379189246736, 0.1362819378495325, 0.9690558364365857], [-0.8672733262460471, -1.6599531303592425, 0.33121861639325967, 0.6269993668311775], [-0.4099844283662414, -1.5070953167468013, 0.5729594828493648, 0.40516670813586847], [-0.14259013672171436, -1.352294798336936, 0.7259515338838933, 0.2027061515228419], [0.0605693176707311, -1.1835799075131936, 0.7243272277176475, 0.10164776134436775], [0.3860205720642365, -1.1033771737404021, 0.601886048848088, -0.1315932010084127], [0.8943134949291918, -1.0712222413935206, 0.397458570724323, -0.5370044875585736], [1.4096200930137792, -1.0121200234233219, 0.18257459777230514, -1.1134073226035257], [1.8177296018109073, -0.8911840005361599, -0.032870081782227285, -1.6029620068509058], [1.9268238235662747, -0.7456736605883239, -0.16853918123680542, -2.0758304114699193], [1.5775509734777249, -0.5500956469782856, -0.2342784095251223, -2.1164017880424475], [0.8790054488536002, -0.41269907444143233, -0.3062079809571119, -1.989438125233577], [-0.31028420285507985, -0.28608450776533006, -0.4282112207998393, -1.9267728240130606], [-1.1297936244839202, -0.2772410603593513, -0.5619753944720338, -2.0205470017544], [-1.3868409846458827, -0.48035572920093544, -0.7338968973501092, -2.0592327731371958], [-1.4053002646910924, -0.5939737881104887, -0.7591377446798676, -1.9754120351913762], [-1.4227553443668246, -0.6047826096738624, -0.7195913766774911, -1.9497332541312045], [-1.4399203301191814, -0.6071701726357404, -0.7487670000350831, -1.9792773696211376], [-1.3801084190259656, -0.5711498469845544, -0.7470833519862058, -1.970640733142234], [-1.3486650476122841, -0.46280034372771633, -0.6368651928298067, -1.9099474617332521], [-1.3694500548363637, -0.43633436299068823, -0.4735516674829462, -1.7730626808998864], [-1.579220950471175, -0.6098382860899318, -0.33783370570193594, -1.2879330441586359], [-2.271307729008908, -0.8898713761180087, -0.21850236967955214, -0.7334251712827882], [-3.1120372340222273, -1.0906427601109867, -0.26954319623310663, -0.10825741736281483], [-3.6311893315341526, -1.2127182858478005, -0.4973441995877848, 0.42465554423873636], [-3.3698683589755736, -1.3612247647166864, -0.7732433433252001, 1.0348809095701286], [-2.436708858442069, -1.3217618846916226, -0.9121221860316128, 1.3094680806176227], [-1.3684734006968806, -1.0888671158089844, -0.8326317142306411, 0.9814654583855297], [-0.4571133596060005, -0.8606003186793341, -0.5927895727747599, 0.48478406328191925], [0.15728034428484927, -0.6504379266392368, -0.30834236850963614, 0.19015212807642096], [0.33060117103705594, -0.4009516881364649, -0.04520863060426058, 0.01604171479755675], [0.15828642571405033, -0.18821580161073867, 0.11884270327887189, -0.03300459030655755], [-0.021501283771115706, -0.11886458334243685, 0.1402691458895251, 0.1065562539571888], [0.12560997857888204, -0.18487032609349952, 0.0484506309886323, 0.005371363340783034], [0.6236048333219958, -0.3587860258011006, -0.10736584812669196, -0.2905340868470807], [1.238855181944457, -0.5095947484750386, -0.27878053251037505, -0.7805035610233015], [1.7589952970945313, -0.5744966392918218, -0.46124880575324834, -1.3161594545941746], [2.042507378333777, -0.5664654797828211, -0.5716704481117041, -1.9031527916159237], [1.8485963410321915, -0.4702844926685918, -0.5877155278857169, -2.236806838190625], [1.2362538214227907, -0.2727850001162564, -0.48403049620550054, -2.0668249358174076], [0.14706888208187266, -0.16878729525556574, -0.45977109111585807, -1.8897424450477138], [-1.0816357518791468, -0.11804312593395402, -0.6015880740074949, -2.0648699139577342], [-1.38208199375752, -0.4217588249114153, -0.7382863394185327, -2.0121587181387595], [-1.3843136580978443, -0.599363495859256, -0.7272924834809359, -1.963344511031311], [-1.4335418744344999, -0.6273239076939806, -0.752758306865447, -1.9441796443398995], [-1.4190104376254364, -0.5597177047976883, -0.7687415735302527, -1.9299802034227334], [-1.3748533079516903, -0.4007162571947247, -0.7881862321300823, -1.923017759806629], [-1.3956472297782327, -0.0731041391527167, -0.8404257554002877, -1.8711049666557107], [-1.4192821986380744, 0.1179902727059121, -0.9809349655456722, -1.5916506643587138], [-1.8957990041759023, 0.06502669870284257, -1.179836450145406, -1.0694369122810956], [-2.713726345056457, -0.21419312084088565, -1.1747060653951726, -0.47673336116196924], [-3.4255693218550265, -0.443203232510449, -1.291057384059362, 0.18629213552626872], [-3.480982263427901, -0.5990542016290228, -1.6165240146414592, 0.8844016297917746], [-2.7176233366052642, -0.5865424937010212, -1.9012896068747165, 1.2749185342720981], [-1.5927677752439002, -0.39161027595451825, -1.7839307074490136, 1.0905460497657784], [-0.26728384934928334, -0.24018491633274486, -1.41937696653079, 0.430027488466421], [0.8118955414947588, 0.0025990977983993695, -1.0966562192206437, -0.2599421158153554], [1.1232525774536326, 0.24109896330724553, -0.679662054411321, -0.5222110878167316], [0.7529722922064782, 0.46725608801574464, -0.33860863222838833, -0.5819710918506106], [0.0930520190240833, 0.6103091064282945, -0.13905844579364146, -0.36244036759061854], [-0.3406973406674484, 0.6053673177146733, -0.07883613069598518, -0.03918838567170393], [-0.2825748413977522, 0.4512752497537504, -0.22952506251718463, -0.021952584987121375], [0.2788910123822949, 0.21957616888279904, -0.431084251851043, -0.15063959144825897], [1.0089708599591234, -0.045620633879338214, -0.6120193268343335, -0.5846049189106375], [1.5695808714573043, -0.33215690334071235, -0.821615529552063, -1.0973263592620075], [1.865563064649795, -0.5033697232907456, -0.9839467949249526, -1.6184421112776224], [1.789126726729674, -0.554514212682754, -0.9723601630573055, -2.0007256276487966], [1.2458760927614776, -0.4137188655083166, -0.7391995101043529, -1.9668139874290553], [0.10517951812077879, -0.19128292864677648, -0.5289564242725552, -1.8142924115985466], [-1.0892253644237728, -0.09595410647623956, -0.5835064170056169, -2.093255212616698], [-1.351502612463456, -0.4202293367733745, -0.7321230143368415, -1.984131432730363], [-1.3586885331214933, -0.6173077837682532, -0.7598950667559494, -1.9578422277223366], [-1.3886488801815848, -0.6053246802366904, -0.7383309413251313, -1.9361199128367463], [-1.4013870985279027, -0.5516965808654418, -0.7416398291532245, -1.9526648370046202], [-1.46461630501895, -0.2671652577776371, -0.8291858120818968, -1.93146295489476], [-1.3987930394705104, 0.21325132955373824, -1.0347181477039413, -1.8796232348845021], [-1.5813165419424013, 0.4455773704280791, -1.4643696431274191, -1.5698290113709712], [-2.1324708773215932, 0.3397089666845742, -1.8879802072552714, -1.041708919807143], [-2.963972524450758, 0.04304359180216354, -2.214179766055375, -0.2968742399942713], [-3.3406386860174866, -0.12315683114566027, -2.5248894990200736, 0.45359684291472724], [-2.781799606481653, -0.13911327607072052, -2.767457789986932, 1.0447800186239036], [-1.9058034684753873, 0.030200382813766417, -2.687264461291176, 1.043172845391674], [-0.39768635099635613, 0.16104718603728457, -2.0885103073694316, 0.41369817882719256], [1.0716132372663063, 0.3107764871927026, -1.6478618471671223, -0.4195827464265093], [1.7710448827389191, 0.41106530489323795, -1.0454110728440331, -1.0619608906584166], [1.4260641112808126, 0.4698896421732172, -0.4102201399958614, -1.1358224359566604], [0.5282524406622996, 0.6411787472591985, -0.019445595626198933, -0.877497324820552], [-0.398013683970971, 0.8339695462916407, 0.24852846958578886, -0.5047242973137951], [-0.8293668636707354, 0.8270687544329521, 0.2290688773251278, -0.2318341946374287], [-0.6434731116111746, 0.6658096972354474, -0.10287862712428564, -0.07695137301593133], [0.029684342384083493, 0.4891497464618026, -0.4702142828982855, -0.23346565997351068], [0.7848682095343548, 0.17685329835039942, -0.7752249092472148, -0.5441757615011799], [1.298937610165198, -0.27921534901079303, -1.0868930245891428, -0.8613083145168432], [1.48602464953719, -0.6397974216331496, -1.3548561022272567, -1.1694165145478317], [1.456092447702051, -0.8469115710358548, -1.4295684932124566, -1.6077475420099183], [1.0638750255479477, -0.786296220474866, -1.1795745886170046, -1.791234580439812], [-0.21569332137492203, -0.3892609143693264, -0.7128538973519594, -1.829803548095097], [-1.2235158452149226, -0.22380728287005816, -0.6370531264436186, -2.0585062630182014], [-1.3752196719472536, -0.5051671227871956, -0.7306522055011689, -1.9682006311514548], [-1.3601833864985977, -0.5939202991305439, -0.7520366790007085, -1.9286811027937039], [-1.3921224083869514, -0.6003539803022844, -0.7644908502494389, -1.9246648755979199], [-1.39726411246251, -0.5648778041906004, -0.7907761280819953, -1.980007645914265], [-1.4338514727072087, -0.26071450226710857, -0.8461076540132921, -1.9403471405981805], [-1.3745451433060887, 0.21634726436840937, -1.0763206695924363, -1.9386259347357155], [-1.5230759063001509, 0.44681584140147024, -1.61905962730527, -1.5627407817446197], [-2.1022261264245063, 0.20741112447968332, -2.310535926554228, -0.9275804876779034], [-2.8387301999801426, -0.09581598936479431, -3.1710917153104696, -0.0883010766653925], [-2.6813559917731697, -0.16556726250531523, -4.166640668537188, 0.5332065958875387], [-1.9496164802968556, 0.005995112621541366, -3.823781902257714, 0.826656810167244], [-0.7682374356730297, 0.20473802662506657, -2.8282349674324334, 0.552982534954639], [0.8572287679349049, 0.2848987658766583, -2.060467444755467, -0.29012334323945266], [1.8768239435849456, 0.2204253265675468, -1.229586521678587, -1.090981734691188], [1.9184045983883111, 0.07036014462473303, -0.2539690637967009, -1.5512957731280568], [1.1213609974431926, 0.08277092380615482, 0.32711445090104435, -1.3166905822915524], [-0.14601544482673603, 0.4301923673616397, 0.7497104189958637, -0.904436509146056], [-1.1018641542261496, 0.7330349819564871, 1.0813457062826741, -0.5676677214593459], [-1.1751141633903264, 0.6935365976982873, 0.739920980041525, -0.20634284163404926], [-0.7033930509566997, 0.6047332782310922, 0.10916645914527127, -0.0798791513297366], [0.03829390893074176, 0.5613621333204099, -0.5090121661300864, -0.23694795261507223], [0.6898730133831418, 0.26940309234794185, -0.9818304600359509, -0.5035927013378846], [1.077023925827387, -0.33775683130574785, -1.355628352042324, -0.7550355539027269], [1.143752745941156, -0.92647526902707, -1.803775476368418, -0.871486513337393], [1.07888927790608, -1.337468824109695, -2.1280064716010205, -1.1880235407789594], [0.8335232370438102, -1.4166071146238435, -2.004486779524576, -1.5175478638645181], [-0.3335934409919637, -0.796052801158544, -1.0966126379621945, -1.660136016497379], [-1.276162776866707, -0.4051484637591768, -0.6595582876943596, -2.0388025278916526], [-1.3738275952962375, -0.5656982498359661, -0.763492251466414, -2.005776059074618], [-1.4162557937383757, -0.5962890604575034, -0.7622705054898158, -1.9626889709862005], [-1.3853221670984903, -0.6234135313380438, -0.7551520691606566, -1.9387345407151517], [-1.3732986095971425, -0.5792036892766754, -0.7423994759511152, -1.891725458153685], [-1.3882583493180114, -0.3613206109842795, -0.8233440552870122, -1.9738514146901225], [-1.3163831308059648, -0.021468125058490314, -0.9781212322527114, -1.8880006494806894], [-1.409540770539609, 0.15635813639114945, -1.5177672298680458, -1.6025252667879102], [-1.9918494211632702, -0.19094545770736268, -2.53858349127475, -0.8260297142877949], [-2.460521230406656, -0.45021600792626676, -4.169419378423271, 0.005026766068563366], [-1.9152640971394541, -0.3795964361372051, -6.439852455223649, 0.504052980854919], [-1.074733326531033, -0.0643683911911188, -5.903423976632544, 0.5379754678536869], [0.29925085522812067, 0.0942992238847187, -2.7804863697894047, 0.026879957475017906], [1.54192394131269, 0.019749359947768164, -1.7375882095665647, -0.6832578987679129], [1.8633735395470434, -0.24461941702726842, -0.34855167782376945, -1.2626851009695306], [1.5313614082276932, -0.5054282539328774, 0.6733487568443512, -1.5322549802992922], [0.37847898316946715, -0.37794290385823825, 1.0880631557788487, -1.139629772326957], [-0.9702253039917763, 0.16733810666758295, 1.6678201953016951, -0.8491392486583984], [-1.5226375426955097, 0.4415728390959942, 1.7547829546237095, -0.5107049508514963], [-1.0663557058389277, 0.42894483358297036, 0.9949823934858895, -0.1832338815505967], [-0.3889562677372601, 0.4764676343892928, 0.07685546990353585, -0.14604200831674652], [0.28282874508798106, 0.5615519938792037, -0.7370947332037837, -0.2851594771851155], [0.7046715112081039, 0.20559109393475813, -1.263943015310656, -0.4458709950771083], [0.8863899366851485, -0.5693003415948791, -1.7219434739376271, -0.5382669506644902], [0.8584400228425211, -1.3932316039733377, -2.3988649244963622, -0.6253162998969658], [0.749543121202633, -1.952201722808756, -3.9189883372016743, -0.8639843185878693], [0.49961676616010886, -2.1701694137727685, -3.176985341751316, -1.2126306142282366], [-0.3895378320377367, -1.3158620742504887, -1.543498333782732, -1.624433560804075], [-1.32278859866871, -0.5524875906614856, -0.7361354005021868, -1.941794868524818], [-1.3895336091974781, -0.6011604218049657, -0.7713942671541926, -1.963822505238713], [-1.4518692817773018, -0.6263342946419812, -0.7284954588519659, -1.980931763989274], [-1.425947425658434, -0.6118581659733126, -0.7409037002659372, -1.959087657736429], [-1.3677894825581438, -0.5686927020050643, -0.7495805914395199, -1.947829857249173], [-1.4061427149949914, -0.4901573925891032, -0.7865668667751714, -1.9527224766777285], [-1.3187825725145181, -0.3058358312568084, -0.8769846821133122, -1.9164088179710712], [-1.3495766975470533, -0.23642750528297152, -1.4241681620607434, -1.5506631596783278], [-1.8741103144111362, -0.5956264906854302, -2.7560997537209757, -0.7156387435139627], [-1.8769658824103033, -0.7714599368152174, -5.010496868023587, 0.015866205996485368], [-1.192844515339326, -0.5507989898500351, -7.810183132278964, 0.34307173997036783], [-0.2523764373545124, -0.21343158393522196, -6.398429790417426, 0.2196347167383508], [0.991238426931096, -0.13061861125296054, -2.6271149363846664, -0.22870249246735255], [1.4923404249706704, -0.3456465508088506, -1.1234638329780735, -0.7598830002534862], [1.3988246867566634, -0.6795565925008274, 0.36796273259164075, -1.210437801169042], [0.8405648691244171, -0.8836208141207991, 1.224641072154195, -1.2373664934617694], [-0.3147536627864839, -0.5754500805199835, 1.569325199617433, -0.7316135695619058], [-1.332551915524958, -0.020484098447176226, 2.0811445743388557, -0.4788586033235733], [-1.3243937221159099, 0.18882360696204017, 1.8239443971197162, -0.24663808026163256], [-0.6075832349625319, 0.24011058503451946, 0.8881087879782298, -0.08209016266114497], [0.017284756822443795, 0.3553695026213572, -0.1843802675095746, -0.05831479972750929], [0.44726403290481015, 0.3788549640418937, -1.0082493213447885, -0.20613073345359284], [0.6139282326789616, -0.11582352931202516, -1.4632726639865492, -0.2586145017327291], [0.6892311085863628, -1.0292429200182545, -1.999873094682362, -0.34738886839524175], [0.6872649965459349, -1.9564813245595183, -3.122462990424547, -0.4438053606301047], [0.4835656431654401, -2.7056096574404362, -5.311777744037949, -0.6165906369352341], [0.16041312463333668, -2.9300834235814257, -3.9198141505903723, -0.918768075277581], [-0.4974679982859693, -1.7014825459118823, -1.90304550528188, -1.412501730098103], [-1.3531775945751905, -0.6524739155312335, -0.8202412274555724, -1.8900080854686354], [-1.4034467854856754, -0.6080025205093471, -0.751988945846954, -1.9615355762260531], [-1.4126656032224563, -0.6051367579959108, -0.7359352263774999, -1.9320934811501806], [-1.3613623841378883, -0.6026922799066047, -0.7484742372817549, -1.9777918963939634], [-1.4611533251531827, -0.6318273540195846, -0.7577451202319716, -1.966099270461485], [-1.375489045889621, -0.56572699298285, -0.7701353537567981, -1.949151021887391], [-1.416729958307435, -0.48983713362074494, -0.862887986342445, -1.9360386469184794], [-1.2573204288564177, -0.5417050302631399, -1.4200266531980328, -1.4543179583942387], [-1.5603652371557855, -0.9452201811245705, -3.119161599043449, -0.6782663011640241], [-1.1794699796516475, -0.9483383261230506, -5.812241322254909, -0.05146585568607355], [-0.5021599607082134, -0.6759526053278995, -8.747313728236811, 0.17733408865094738], [0.38571208763665227, -0.3982978445713027, -5.1024456039973085, 0.052269235944043396], [1.1596773377689429, -0.32872524384232593, -2.2430590652894535, -0.3144306518409473], [1.1789814961527838, -0.525993793400689, -0.6806593193303093, -0.6203709796536647], [0.8974219969698903, -0.7591499924787776, 0.5678358391980782, -0.9279149641649933], [0.34065057160281564, -0.7593566773177576, 1.1550251866850931, -0.8516290700402247], [-0.5165397173906259, -0.2648655052363208, 1.535567677656833, -0.5527367287902897], [-1.024443429659447, 0.11464991378296549, 1.874691119144095, -0.27651360613792914], [-0.7450219679466997, 0.2693300839960575, 1.528276850174542, -0.1348042593281084], [-0.10421334197373024, 0.240248652132348, 0.5358115070482171, -0.1036784296687111], [0.31565591640449336, 0.2054603518908675, -0.5015887723162364, 0.00901911892905769], [0.4500343872480933, 0.022037695496716126, -1.0885236526667736, -0.06435724522296397], [0.4381779611631982, -0.5656858245803434, -1.3819492324453593, -0.0609235761983857], [0.5150769309281477, -1.507242433023273, -1.9976855277756465, -0.22104601465000448], [0.569093418032006, -2.478513595161371, -3.2249210429410655, -0.2608566361434944], [0.24988252017391865, -3.5229101431313583, -5.584573004205723, -0.4138620705463764], [-0.155311261234696, -3.2071845947059248, -4.282415769306911, -0.6979792845827868], [-0.6808094689669932, -1.8803673206293556, -2.1468585408498626, -1.2203486780313724], [-1.319353906164822, -0.6795498121538408, -0.78852084659918, -1.8820954576279294], [-1.369971156294887, -0.5717316970256687, -0.7221933003523702, -1.9280934242503793], [-1.4278279835859446, -0.6089516382374703, -0.7739582882867478, -1.9753512890742844], [-1.4548186192019987, -0.6051138597918719, -0.7591265615461922, -1.93521503864557], [-1.4339071866093738, -0.6190470358502635, -0.761895047041751, -1.9871659118528724], [-1.3957740520433644, -0.5913100863258282, -0.7417761168938959, -1.897534207491577], [-1.3717197740971565, -0.5765027262588719, -0.8671963039723849, -1.8908608179745618], [-1.1232287638311746, -0.8121325810895347, -1.5071993214084651, -1.4803573397998482], [-0.9680262458987717, -1.2429340943797087, -3.558833091279572, -0.6732245172205288], [-0.4840796693139438, -1.0930175026451088, -6.559190373017189, -0.1783347119311702], [0.10127257994665155, -0.8820008313105862, -8.95184923291627, -0.012957532294134728], [0.747872329523251, -0.6344765495619797, -3.5290277340048077, 