{"name": "hl_64", "layers": [{"type": "input", "nodes": 784, "weights": [[-1.0423846263836327, -1.012862150826654, -0.9818837748806437, -0.9593732585459342, -1.0115525828692926, -0.9782673877631944, -0.9523459017473397, -0.9797856707822559, -0.9886852528541208, -1.0087750522315904, -0.9458368076830421, -1.0170150395475304, -0.9808064037199045, -0.985857742072739, -0.982716645099251, -0.9991438880774743, -0.969037777342878, -0.9367224734321067, -0.9961929772217164, -0.9412012810890982, -0.9739778249072528, -0.9419055259425111, -1.014891549698603, -0.9875760167486887, -0.9761929086536998, -1.0339077175506457, -1.0264209778389919, -1.016654731557166, -0.9508487357962387, -1.0120320309518587, -1.0047608668842392, -1.0270255264776402, -0.9569497756974177, -0.9378894835672733, -1.0355169535811108, -0.8485304774062418, -0.4086218155133322, -0.1890572999769378, -0.36681406297330726, -1.1809775258470747, -1.8870715738448693, -1.5366978385126946, -1.950070115745637, -2.4920241996940784, -1.8083520149722399, -0.9187209651377766, -0.32861498444203274, -1.2151349753055656, -1.4441230271774053, -1.3575273517369981, -1.071013779808882, -1.0270146244688734, -0.9782492805736145, -1.0166281907579604, -1.0043883487654064, -1.0113369348994434, -0.9753374209394658, -1.0093393115472074, -0.9729734542649613, -0.9995118169675828, -0.9868697245636676, -0.982032077844996, -1.0375189728232201, -1.2132503442972755, -0.8605258559828137, -0.8182522970477432, -0.567668109095098, -0.2124035879055265, -1.584805629703517, 0.3103627660093411, 1.3463863972654602, -0.22856637997902798, 0.0733900275508413, 0.8306921877831812, 1.8093666304979965, 2.922595920378872, 1.6099240361138154, -1.167664023546858, -0.6733247565631472, -1.145190805954253, -1.205359395238637, -0.9243509572203519, -0.9717966799841531, -0.9568477582171164, -0.9754300555648057, -0.9853655843260123, -1.019450059056773, -0.9837228412388695, -0.9909262036612452, -1.1287774272901017, -1.1107863998849719, -1.8475953363700535, -0.9506013866622469, 1.080580664815735, 1.675735387794665, 1.4921631644112174, 1.5719688798525326, 2.795032161348412, 1.1418438193947156, -0.06500751591413854, 0.7030729626553012, -1.6525020733670592, 0.21417290611535084, 3.7206273757678034, 0.7959528638887818, -1.298640049843558, -2.0910380650470635, -1.6594039708903794, -1.1346439170248181, -0.8883493248892361, -0.9709213332850934, -0.9825754642608557, -1.0409068349356354, -0.977295526213219, -0.9642903156955542, -0.9338111916839139, -0.916557777673273, -0.5332213924768056, -1.431495622442319, -1.3220758964656472, -1.606219307679927, 0.24049283717731432, -2.1003233450577596, -0.1007909024513173, -1.239560337111818, 0.7106085942103757, 1.0823259064520803, -1.5377271860147415, -0.6096288710437399, -0.3495833470991346, -2.630411786313342, -2.3877954625454376, -0.6479112604736434, -0.7143414692615332, -1.4023062518372051, -2.5402737876086525, -0.7873936061754295, -1.0884123389476525, -1.1093100099241904, -0.9681679399712039, -0.9628545602847025, -0.9217370957299309, -1.0405669382997906, -0.9326273377295636, -1.3766138503381504, -0.7887104681144824, -0.7056335467785696, -0.6827599094058274, -1.541992955072187, -2.2370179302399307, -1.934525258483217, -0.5113517778748011, -1.8112958540895416, -0.10719296616522439, -0.7536709581388924, -2.6929731198477667, -1.906725103118428, -1.557554562526726, -0.6088720631415135, -0.15399670792402995, -0.867231613615676, -2.8608537711820876, -2.325528262480367, -0.06298201751730927, 1.6502261644097032, 0.4955799235521568, -0.1498862425818335, -0.8485195405870364, -1.0141133048487474, -0.9705866576883633, -1.1295418129751786, -1.193983263894567, -1.795215508282031, -2.5787702552139864, -1.2822577771342096, 0.35514252503322263, -0.46866205919756393, -0.6029610997733909, -0.5909086080459205, 0.10081558396074453, 0.8364461846082988, 1.417146435904909, -0.604193361433165, -0.8960334236777864, 0.9001090248630477, -1.1592228661983834, -1.2404551783844187, 0.21471608760958377, -1.1694802333579541, -2.839526478835329, -2.7530734494068905, -0.6487500486544728, 2.179571879939989, 0.9731351246455326, 1.3507850488970408, -0.5649423829237029, -0.9934239059709307, -0.9632576801918893, -0.9909279326577267, -0.9893126732380566, -2.2148660424885587, -1.6057316807230382, -1.3671229308131823, -0.13149786309141404, 1.157424430252129, 0.24167962616016828, -0.2770106378144957, -0.5161949276723294, -1.0389929597530683, 0.44711697629254477, -0.04110509926363789, -0.4503818985218844, -0.9527248967113038, 0.08705729527363473, -0.7425246018487843, -1.3226489919586781, 0.7111914375850108, -2.3807650219497103, -2.781721541419545, -1.9608225532924772, 0.4449793721374217, 1.5721449692247538, 1.8408220436027225, -0.3255971234200683, -0.9960706265525101, -1.0971775669933024, -1.2889803506490727, -0.5090861012887199, -1.2884185238130852, -1.4773659653754843, -0.0003594133917770625, 1.865751352602928, 0.43823129058379223, 1.0249130063304284, 0.555179822044639, -0.07492024655593696, -0.3856718951371445, -0.9502989879875411, -0.367624118754279, 0.5551635471122638, -2.0679709205419576, -1.7126145645706523, -1.2450564522700873, 0.22150057869456946, -0.7550553221669558, -3.071475039817776, -4.33415997483048, -3.0360581946418628, -1.176355391003759, 0.7053952546257986, 1.8344671925763976, -0.6701395003219172, -0.984773423036212, -0.9741863648437011, -1.3279190374116574, -0.8370645341640125, -1.8735685552886807, -0.8063069650841181, 0.44621603316182373, 0.5804295569536569, -0.7270557735421219, 0.005003161012906897, 0.915071378405835, -0.6518392901296605, 2.364864314928429, 0.7880833313345098, 0.47596171461630987, -0.7718062764663718, -0.38479371882147945, 0.8554193782750646, -1.943777962707625, -0.0996364718236781, -1.3582493753379816, -1.0169883564853497, -1.504850120607844, -1.7366495423171529, -0.04357855885792899, 1.6433964257818234, 0.5695484734067973, -0.9235913027616737, -1.0250515023824567, -1.0150664126023545, -1.4206720795847239, -1.5300493605686813, -2.830173827919674, -2.2365157003983795, -0.4723291639872627, 0.7923162300474341, 0.3118600806707085, -0.8967257707949544, 1.5310478173821342, 2.6735670115895998, 0.703472999573761, 0.3000968293153735, -1.977863139948753, 0.191701374607589, 1.4438446160740606, -1.146247270935279, -0.6021723390142864, -2.312012079449061, 0.5553858031436181, 0.8395431325993333, -0.19690888803309092, -1.4082077477960295, 0.9920721185342986, 1.5775656610283613, -0.7122321678433848, -0.8727545522145996, -1.0232935565577064, -0.9042056839443448, -1.233452011530245, -2.6237262544340014, -3.3927154906481425, -2.7163724600676824, 0.5994393648226904, 1.9815318297471252, 0.04421580798751879, -1.540459753870452, 1.0057127223747169, -1.0414406321121794, -0.6906388392446411, -1.9985406419758691, -0.8032497573930261, -1.1075755516054484, -2.1736016464114254, -1.285107222385297, -1.2970589317971792, -0.49701658052891606, 1.0024659624409427, 2.667540723040739, -0.2225897668192163, 0.5828391745050596, 1.738430074192623, 0.36793618970597813, -0.8464463242085901, -0.9361999656396475, -1.0109790182282117, -0.9981391219869568, -1.042097796617589, -1.4066318833246232, -3.622184608382637, -2.757228060819382, 0.04768540694564327, 0.10534055013385346, -2.296336175246111, -0.17596848014857525, -0.09370675480627026, -0.15058188528475458, -2.758204302034391, -1.0014786484744131, -0.8974503076413024, 2.465538134503463, -0.4772885457862261, -1.0982263846040428, 1.429433188289262, -1.2023087564391002, 0.5495105065762981, 1.8772722646528694, 1.4029453136875976, -0.3679432224758981, 1.7511000146271534, 0.7076595956424261, -0.3993764998223519, -0.6934356245243415, -1.0213669651348933, -1.0132620052736023, -1.0739895248570326, -0.5150467102848846, -3.1858500170227693, -3.848684917650352, -1.6736685334023256, -1.3519909618434842, -1.6763824995902434, -1.2893797166017484, -0.8328951070079642, -1.0266644929225563, 0.571589829823894, -1.8874362284900894, 1.4409054255313092, 0.38578323631168987, -0.3554253860505601, -0.443845575843039, 0.6680344138513115, -3.0820533837264183, -0.18044090944157823, -1.2943196360999734, 2.884226692226039, 0.9691022421558875, 0.9764465983643992, 1.5725166112499045, -0.2738138223221943, -0.4718155951666971, -1.041343606840559, -0.9799175622171583, -1.1447025409135343, -0.8933108801071287, -3.185079043134381, -3.2445459275258637, 2.0774321958569435, 0.46186599743484386, 0.49496123667648373, -1.5053335057271695, 0.474140156937225, 3.1409364850657897, 0.1770506101113813, -2.3937425499364364, -3.0794544347093593, -1.679673509566388, 1.1460171342970666, -0.07034680955186405, 3.3815149579293027, -2.909113673939364, -3.542199241440566, -0.41637053095966214, 0.9545276023413377, -1.460974424862065, -0.30510141564684684, 3.2023248663845107, -0.46171241355267983, -0.95461915977002, -0.9648311031642258, -1.024369221035427, -1.2181727387721426, -1.0752323659408467, -3.8513223717717895, -3.442028974992134, 1.046636011961301, 2.240836675608413, 1.6918014528266692, -1.5178851860005493, 3.1137379280917306, 1.6776591971650947, -1.0314320832523065, -2.630621472816912, -3.8628869184902794, -0.875465872142704, 0.16580297222832371, 4.032665619822794, -0.4668357234520981, -1.207712064429284, 0.45327948915449495, 1.0661564408285438, 0.45624881035714815, 0.4767448585348765, 2.5699896026961655, 2.607858928632358, -0.4276384084620157, -1.000279255539357, -0.984169809518385, -1.0303899817983229, -0.8343421913753052, -1.4078827476750553, -6.245510823009788, -4.243936602190174, 0.43547185929391513, 2.516899446976314, 2.5966609107920053, -0.6898934252925372, -0.792329327296027, -2.9194605898799075, -3.9663053944291216, -0.7988374509135535, 1.3075921629127523, 1.8736467014719218, 0.7419486062792116, -1.4952491045892355, -4.267805398216876, -1.815237970908975, 0.1246198284032933, -0.12798579635788182, -0.483079418978477, -1.6922362781529696, -0.07884078294144514, 1.7217029264670103, -0.5683425000066309, -1.0286790727057715, -0.9819194633316555, -0.9793178365696216, -0.8954346246894139, -2.319720950987656, -7.407483483896609, -6.560001297285536, -1.5513889568912924, 0.46534906285825534, 4.231391149685266, 2.840426946207118, -5.562443277222186, -5.868048895712074, -2.51675251552354, 5.797626988050687, 2.875998327004789, 0.8740627984698308, 0.8642942974060799, -1.5338893491108117, -3.1334438382070258, 0.5189752959738598, 0.48341176660307716, 0.8827581267509005, -0.7831620583976505, -0.39875124070672535, -2.0601427440724813, -0.12041417589156832, -1.1635220460740818, -1.0684950876440615, -0.9874293351170322, -0.986565030582133, -0.8017077396208819, -2.7523433688698686, -8.73877158578785, -12.208780617525017, -8.047197063868408, 1.1033113855387613, 10.899892016821637, 9.032149092496473, -1.074484454446305, -8.323503134885028, -4.504316002677862, -0.6887047589768936, -1.5938458040761472, 1.3473530629886612, -0.5738997958019179, -1.3354038760911626, 1.7736261878783814, 1.6865114818769815, 1.0885177326795938, -0.5220558953016989, 0.019796897730423466, -1.1623975795811714, -1.2519985315430866, 0.10338416301105104, -0.8882845120388867, -1.0119503075961571, -0.9693211017236918, -1.0258058794168654, -1.4682952913177267, -2.6620566952694014, -8.27985402805148, -12.760921756260792, -12.750033809565497, 5.6564988904672555, 13.676003487339006, 10.801312415368402, 1.0566344503709901, -4.623187477877622, -5.760367722534396, -1.1491848478825404, -2.016448944808439, -1.845687970194805, -0.7167212444456937, 1.440372248797107, 0.8517480336099025, 2.2713159434792116, 0.7259054266316038, 0.3720167651465767, -0.6906632290293311, -1.9171821207198665, -0.4950686445729166, 1.083552620343536, -0.04319485590732832, -1.0074511468085001, -0.9577262859114473, -1.0615341840892305, -1.189251599504288, -3.22302141182342, -8.264688678534764, -14.201365267531344, -12.786340079381837, 0.5940870278138375, 5.426698379091512, 14.289943102267088, 2.34959153150442, -4.616346231876064, -2.6570271898056133, 1.6177285377557866, -1.7930805941587122, -1.1024521158444593, -0.29990536850032845, -2.4003851672430336, -0.4980282100497906, 0.7534247232443309, -0.1330662515919836, -1.987603906964681, -2.184697912821328, -3.568465139581149, -1.334128208025195, 0.7808595537899208, -0.14379831498419962, -1.0166513835473814, -0.9587434080770131, -1.1203809895204688, -1.1183961046781885, -2.833211638304037, -6.235954416772369, -12.68116626112024, -15.116802044714978, -5.7816044185336235, 0.619427049724902, 3.2550766886741407, 12.495454395684623, 1.2228785432397644, 3.4023098324506096, 2.242393000176435, -1.189274943607272, -2.4322627865345243, -1.7268573941574283, -2.2654097674406977, 0.062229761514807594, 2.0208565955800726, 0.08455154425477773, -0.9017777198417912, -1.8059711979462132, -2.5906829536040505, -0.9272836808310833, -0.6837156370914836, -0.6291097108382827, -1.0184522166629355, -0.8964602914586505, -1.015765346649097, -1.2545354580867847, -1.7725034639452772, -4.531425367238545, -8.337744593045075, -10.880108869248799, -13.129001677794085, -2.5084359749451037, -2.2949936932738018, 2.6523177888726384, 6.342065702380808, 3.2272558852480873, 0.2644012323181666, 0.5660935264574877, -0.4337570725754358, -2.0779957015383084, -4.7178446220492445, -0.9537717748868174, 2.3519264911082587, 1.2910663598330194, 0.45289123506386836, -2.252743373320188, -2.2849366830830906, -1.5332568681825618, -0.2971481789084759, -0.8317354866636387, -0.9613673611944222, -0.9156675693872793, -1.036146029408632, -0.9642010106622898, -0.9950336014101424, -2.7741016064355493, -5.926438543060976, -6.215076057670288, -8.416022783238443, -10.54874378927899, -5.361932869244478, -1.6742061269243553, 0.9806846080575851, 5.623604518331847, 1.7907079769166505, -0.6165531624701566, 0.8849460321405153, 0.013223775536086144, -0.336807571266155, 2.315820231989711, 0.9870175979461372, -0.8583547160807874, -1.7621242866502862, -2.4762846379687153, -2.0835804073636734, -1.0841819713905898, -0.5109866050195276, -0.9520747336653393, -0.9638296972134266, -1.004230085874836, -0.9504169188419105, -0.9453794013894083, -0.9013050120373687, -1.1927769465646854, -2.46710823456663, -4.662396543075221, -3.2099380216529503, -5.7272463235718325, -7.250473479309877, -4.605926129772743, -1.1762879895573954, -1.050331034643656, -2.130953176053893, 4.339797645827266, 3.7624208705265842, 4.114751774151339, 3.369150217405801, 2.6556402208559873, 0.24414917143503106, -1.4394340222770137, -2.573946905284178, -2.5111160340379466, -1.5916390838419805, -0.9230506406733017, -0.7746569426988144, -0.936092686899665, -0.9989791597016034, -0.9808179312247876, -1.0022941966134034, -1.00384177385253, -1.0004871708566978, -1.108183610692147, -1.2476705055099024, -2.4947243925160336, -5.231572525877167, -9.795318094421923, -6.301235653075866, -2.144824224415936, -3.324710983926306, -3.6432897944758538, -1.1435345090657745, 0.6985965684302007, 0.3579337820905341, 0.6940576978945033, 3.883038527574215, 2.226186134389981, 0.36727479493406884, -0.5563504479041576, -1.3275775582952203, -1.188329533822933, -1.1798408787235029, -0.9358628127700153, -0.9276603782873409, -0.9525763206543888, -0.9067490066991943, -1.021017704531467, -0.9196963786742982, -0.9961200530777963, -0.8917801302408477, -1.1184502423373441, -1.2760548272441459, -2.385929116467177, -4.61469062070042, -5.870661059899829, -8.151927429416939e-05, 4.774445372756777, -0.22460088693598187, -2.222478899307291, -0.886582126845583, -1.6434937093653827, -2.5722051870267504, -0.6501549822327818, 2.349304066073697, 0.7057435707571792, -0.9995259897493503, -0.0838296420864475, -0.410018194528553, -0.5894919983289978, -1.0278680356103067, -0.9632511361613127, -0.9217851667185599, -1.0186436871032658, -0.9735426680137393, -0.9258214257659527, -1.040892259297384, -0.9868547232568314, -1.044409109089648, -1.0418318242680158, -1.1542645703522436, -1.351528209897969, -1.705329260056126, -1.593564631066739, -0.5481537503425158, 0.762376476290937, 0.14222470818322785, -1.4720667520290314, -1.3179204716976862, -0.7753838090024324, -0.8265672901774046, -0.4770626636877919, 1.226129648637582, 0.6204221218369741, -0.5072022893991657, -0.4085974576746598, -0.6825410270418636, -0.6576506969429583, -0.9147235006513372, -1.0589096815977697, -1.0097963544909758, -0.9880203885948042, -0.9709408895570688], [1.3735304932449222, 1.439079681302853, 1.4581232262615262, 1.3939016628330878, 1.4895195314726621, 1.459956978836365, 1.4084928316216312, 1.4622415299383043, 1.3887820469557577, 1.3975072092150682, 1.465176506093978, 1.431669505764965, 1.3824308849562306, 1.34625472777244, 1.4338535390170468, 1.4807588676877395, 1.4207198541739359, 1.4885256538986191, 1.4899801935913113, 1.4693654642514182, 1.4227977544626318, 1.3764312102182383, 1.384692617697431, 1.370792473961295, 1.45031617870409, 1.4683762380585048, 1.4236346932639041, 1.4273436818523033, 1.3998836380838184, 1.3873412829609857, 1.4071113031411377, 1.3463223337631727, 1.4222666222263858, 1.36804135685656, 1.334054266331328, 1.0295774765577947, 0.4463992132707724, 0.821823744559735, 0.6715748025030794, 0.6356469725156799, 0.8588358573812755, 1.324442709241263, 1.7563375289455834, 1.3968893410144998, 0.27194599834996225, 0.62444250932064, 0.5017965973985236, 0.33333910584594445, 0.9290420828079675, 1.2708892742244504, 1.3016921561807024, 1.4573668701082958, 1.4139455398960312, 1.3919486497020437, 1.4345688645362673, 1.4104072104013368, 1.3786934996167852, 1.398662646729519, 1.373493934230846, 1.4403982968634557, 1.4252856647348353, 1.3942045451297258, 1.0314112695295803, 0.4999980050856428, -0.5909702472123146, -0.5517934181869464, -0.82791014255443, -0.7751763543333489, -0.24244548864803359, -0.8315355720733583, -1.857031795317024, -1.6881650521266538, -1.1840552282449957, -1.8990820703501525, -1.4449457849969753, -2.5900451155054705, -1.915039169961793, -0.4057921336611109, 0.5618390308256576, 1.3638461921324883, 1.4404596266423124, 1.4642221867143146, 1.4069350270849188, 1.4629272292457236, 1.3975805186785706, 1.3835380943357547, 1.4653360642139477, 1.3460573549759467, 1.3491736196523372, 1.490990561377303, 0.78136670163765, 0.5822805224849039, 0.5972217911636892, -0.5778482225514909, -1.0177706322518103, 0.8685279969205526, -0.20920181731819845, -1.499693806504104, -1.56478818031079, -2.479963444797502, -2.214951398535779, -0.6411016833419073, 0.523462608426592, -0.32675352136142705, 0.49363581896865094, 1.3468380173234833, 0.8366368794903862, 1.095466946048423, 1.2152647679113495, 1.3272615819712124, 1.4197418775214474, 1.4608923580796678, 1.3929869939859547, 1.4005729054665481, 1.3881411399347694, 1.4498369697755702, 1.0350467800628622, -0.2968756502044188, 0.1660088682700536, 1.820909538591976, 1.1265854291105226, -1.0720094080000486, -0.8342942174968251, 1.5195999205974002, 1.9709453624292932, 2.400056497299902, -0.09695219752219716, -1.6630668314408283, -2.3541349153319002, -2.8422809838405847, -1.6604801248456293, -2.3834580706086648, -0.2972454547404886, -0.5926526900557565, 0.016021630995153534, -1.0509877066756155, -0.9128220190245483, 0.04140733227878649, 0.9594174517684033, 1.3976764340858219, 1.4127449916215877, 1.3337467239538536, 1.2890655308273566, 0.9443858744237903, -0.5898385453054387, -1.2298241888841634, 0.7837770748464064, 2.7170123485407913, 1.9435396600707608, -0.4270654779367169, -2.815165653797471, 0.6621672558937581, 0.43105050430086195, 0.5364517199607544, 0.5715831729972762, -1.6492585688890755, -0.3453190966648436, 1.7807914815358135, 1.0662476541333936, 1.5729280347353816, 0.5363194138311191, -0.32614023818123233, -1.52684756792406, -2.217914176595219, -1.5168347489536211, -0.0874084397079568, 1.232370576171876, 1.3768835221959823, 1.436811130614456, 1.4370713675929296, 1.3761131383600058, 0.6461119013355223, -0.6227111763122274, -0.36552666362703445, 3.829742756589332, 5.731028065097536, 1.7377530574432152, -2.7591151057957775, -2.305365602590551, -2.1973680238630253, 0.5828979415644191, 0.08497781667801134, 0.6622262464002588, 0.9085399756718995, 0.1887944272297381, 0.8153145228710935, -0.1555467761351062, 0.23373415168534595, -0.5337097383721149, 1.0764617634348852, -1.9696710329673823, -1.7403156892737164, -0.3932375302788831, 1.289992447106131, 0.9376077120961135, 1.2327392408224727, 1.4059378968702905, 1.291942541442233, 1.2755041485433938, 0.43654472313319814, -0.18669668234730333, 1.974679284348083, 4.626314668974202, 2.779261765407599, -2.8504105074866546, -4.815251070252408, -1.7394640579085923, -1.4591675051846957, 0.685181672875595, 0.6012543324218675, 0.20840922050406424, 0.6497460655846014, -0.49022037130687923, -1.1076674399525188, -3.8798156689727, -1.0695687067139095, -0.2946896665535877, -0.07314515507696452, -3.896301064281588, -3.0112124213723384, -0.5728860243462633, 0.5644306415720006, 0.2667275558098368, 1.2152982019441212, 1.3236816143331802, 0.9546504344282516, 0.5494063249756975, -0.23613875486315064, -0.28076429515442053, 2.2838438323915913, 3.7582390353206248, 0.00760606744016029, -6.169289335495058, -2.5147478566771144, -1.061530296417592, -0.05159874681632027, 0.4669362262065049, -2.175136602411665, -1.414822516351377, 0.5862276336396547, 0.7207898511805083, -0.6343525059788238, -2.499740251757848, -0.021626851091216884, 0.9267659744129995, 0.5935042759035855, -2.005739321203383, -1.7816885517812746, -0.8662874783884207, 2.1644530403299105, 0.8778747036314662, 1.195031480355319, 1.3843466541995904, 1.1268692604521058, 0.246069912023548, -0.13032035305386172, -0.17237789144134016, 0.6516592155278639, 0.8641651358838215, 1.1911567756281993, -0.2792572632605018, -3.0256201600670622, 0.2368202761830115, 0.42389049221522973, 0.49370509196476026, -0.009650281506311347, -1.6506577019674655, -0.04923477097286181, 1.5025006990868583, -2.2465878216277506, -3.18379739313427, 0.18261369353549578, -0.026546665720986504, 1.2757265201918768, 2.2956552828835957, 0.5482536076705684, 2.5645336606040012, 2.6507846458016338, 0.928914844925127, 1.2665531642971206, 1.313006808599012, 1.0302239566747748, -0.5362727360092635, -1.0714589839382924, -0.8086541806188078, 0.2201104223642438, 2.502684064061067, 1.9101717041877972, -1.8110008493116105, -2.084220116687063, -0.8851556882734012, 1.1753927375150737, -1.215947953869228, -2.3234977826592416, -2.345313408867338, 1.2900870361244623, 0.5855864433814002, -1.6738090521414646, -0.2654341553446341, -0.13820373069098763, 3.321297857680399, 1.176770717048225, 1.627998386195639, 0.2098068113430806, 0.47232217949777505, 1.9960900790341827, 0.6372855217947835, 1.1847703699957743, 1.392822925954602, 1.0334912302809856, -0.4155785839553724, -1.4179930840214165, 1.4583937610322588, 1.2785151626618845, 2.3408075456654447, 0.926505784612409, -1.9449931431651089, -2.039628462627945, -0.2210751624055123, 0.41033805424016323, -1.0319355105224668, -1.1916326224491656, -2.5410051320665983, -0.20696076115598316, 0.16854165326144685, 1.9430844459116061, -0.061101675754147815, 0.20372284642340763, 0.9574122718988243, -0.6150768954877598, 2.77649151548061, -1.6181353312150608, -3.201285685658819, 0.22479176458493055, 0.08226572694346322, 1.475619981256216, 1.4110114249278498, 1.419177954406176, 0.18714284096804296, -1.1628156613924887, 1.0037529216184171, 0.15060259613788488, 1.4723963267690505, 0.2043887190421497, -2.859716036995053, -1.826162217286386, -0.5727416349166677, -0.12972471203582359, -3.5794475701334174, -4.133545978505864, -6.217000781890187, 1.7851450737987042, 1.10133110740874, 0.5882822055564808, -3.116619481607415, -0.11198617854621007, -1.2351431388359937, 0.8008628471727303, 1.041696008758194, -1.3433300662792331, -2.9784612001844786, -0.02803868776188116, 0.6330314277863358, 1.4269665372322387, 1.3701524297469925, 1.4741824040529425, 0.9197711759761877, -0.9487913392191967, 0.04808245743215014, -1.5405861373022598, -0.7345191323717712, -0.6173070171423367, -1.9038896104670422, -0.17201837035962841, 1.6921212108021704, 2.4438221684028885, -1.0023013957712692, -4.018095611935249, -1.135261268721859, 6.561403642416748, 5.326515041106709, 1.0222332274813741, -1.6408128105895532, -1.0751997546394325, -0.7472089886572391, 1.6604485364337331, 0.298525209467305, -0.8639722343549899, -1.462325086340952, -0.00275076165728578, 1.0870176742258968, 1.4283531154512155, 1.4083642710348292, 1.2715427226189029, 0.9422204600695261, -0.5597098085731791, -1.826786573337003, -1.646361335096926, 0.27347119232015715, 2.471436963961152, -0.07184610261388552, 1.7948964818318214, 1.6740215907578027, 4.322600263435292, -3.2645731655769157, -5.531512113574009, -1.833413050516123, 5.482298066296899, 2.7274753097529585, -2.0384507423227136, -3.5934368201367506, -1.1975256585240568, -1.4827831963969156, 0.7029972142159894, -0.6109381967276053, -0.7957966546095986, -1.6930979414503908, -0.42856233846791647, 1.0420990429650965, 1.3361318833365206, 1.4138223195809998, 1.1149102042452814, 1.1282888390077244, 0.08471222657596529, -1.5978088853628243, -2.7771736030007186, -0.04055167742895992, 1.3650153061770167, 0.7589165887034166, 1.3791712816530044, 2.211892664735661, -0.4425414390691004, -4.0600631905113875, -5.069550928520243, -2.951507970972713, -2.0088990874785413, -4.610891247785547, 0.4068180216839871, 0.1423773479659303, -0.5822214987502936, -1.2419652791270552, -1.2991043126372217, -0.2610465448483937, -2.0406996794108814, -0.8133052242952348, -0.4232251605500132, 1.2792966179643428, 1.5287318029568793, 1.4274156034680685, 1.2318917798277134, 0.9793420380953348, 0.7180964479568344, -1.5912115399485, -4.141299788385317, -0.8192330869536971, 0.2174422286736126, -0.9012808739381463, -0.8222463596526509, 1.4668140480098957, 1.0416962921415636, -2.129383591585596, -0.8348747071524765, -4.952467403857127, -7.430459903297057, -1.6449803852337261, 2.760911175338501, 1.1298930159271006, 1.6012921473281223, -3.039541444427681, -1.448827006450364, 0.19697766344699166, -2.566562850302106, -1.4799402667891586, -0.6793035177661465, 0.9653548027548078, 1.3646540680240555, 1.4029946399876583, 1.3433828172080688, 0.988110329812236, 1.1419765458247157, -0.6894120944996028, -4.2974218281712195, -0.9265536377710127, 0.4816195486212886, -0.43542522863358, -2.5994255555136303, 2.999002552653332, 2.2613202922301667, 3.409966087683423, 5.893478086835149, -1.096030399243616, -1.5762154232904477, 5.151795835289989, 3.9008070363779206, 4.125506717655701, -0.9124697253471684, -3.807139757326337, 0.6418753184529569, 0.32548817370985933, -0.37695649479456167, 0.4778881553243092, 0.20477193411725403, 0.47252085746395484, 1.5218888567910127, 1.4032301391053543, 1.3669010063594984, 0.8647448717837389, 0.7881816666229527, -1.7218706834535504, -4.925759282368263, -1.235877456274517, -1.005809726675694, 0.23323050815101337, -0.4792110058249532, -0.4126643884152058, 0.45052111495327163, -0.34954692373718743, 0.18596825746798737, -0.8390799088752892, 1.9503712261664825, 3.031375377765599, 2.2037074931383165, 1.4296278285399802, -1.193770815129021, -2.2459593507094824, 4.1175714372206205, -0.6022076882329155, -0.10031893638675077, 0.11606529801438499, -0.3950060891443935, 0.6810066963389525, 1.4290805602158496, 1.438839896081865, 1.3643613803658785, 0.9181148887790455, 0.36253648699975816, -2.2770024217274907, -5.392975254849302, -0.4869809859840698, -1.233471588683311, -0.20970193237342272, -2.836852760176006, -0.7832490078574297, -0.5123149662209515, 0.4034820090195759, 0.8255697159187829, 0.42283644010544397, 0.006330564978921186, 1.6970570089059664, 1.6037231505925789, 1.6205874803541604, -2.092928197986295, 1.1519891141501282, 0.9090055514350884, -1.5489289940350617, -0.3737537977177867, -0.2561852179132975, 0.598639379668113, 0.20804318721171108, 1.3801641052816107, 1.4505301307995542, 1.186416317795085, 0.4767849851598266, 0.7921511604494575, -1.1441980695930656, -5.513564792815148, 0.6835981411374393, 3.799765303286914, 3.1867035506364414, -3.023919935305795, -1.9086132883082658, -1.3695585443587708, 2.450415887271927, 2.7820678591019137, 0.5774857052076436, -1.743927135115295, 0.6046183636561662, 1.636358306439328, 0.24693651304444889, -0.6278391413063775, 1.4836653438223804, -1.9097002769089675, -2.046422518776328, 0.6709954268328356, 0.6398662315704207, 1.3988941538783755, 0.5432654471123637, 1.3836007194954154, 1.413085043261329, 1.241353686807669, 0.7213895164509768, -0.013499351213630209, -1.1212987074013787, -2.8938881201139472, -0.2576339725335772, 1.2733723313731364, 2.4194945324262336, 0.8113399535330831, -1.2861928488607908, 0.26894349030216486, 2.1120571240212143, 1.1724780987621521, -2.8241569187245137, -1.439253263975128, 0.057034214108648826, 1.0570351864849707, -0.12513853471804265, -0.8456014200763179, -1.2622865217818307, -0.8784365042614322, -2.2619839331993568, -0.32427697458440624, -0.942504226611074, 0.4614232157852419, 0.796930604751916, 1.4166270153999239, 1.35296824263514, 1.4384677413693066, 0.719832231565586, -0.026745985731236495, -1.1759241869580235, -0.7175361559181697, -2.4821750165639727, -1.0152182578951494, 2.1947208153210456, 0.8187784968106374, 2.3130358945916627, 1.0550578791473977, 1.2595175939341072, 1.4587778108084937, -0.49173915494225845, -1.3426829327279108, 2.2076915163813844, 2.380093804544179, -0.1125554648729233, -2.2346450943613974, 0.1563127336147861, 1.0386077146512507, 0.7774818989055303, 0.24941477966557832, -1.0891785851483224, 0.6746765390794254, 1.0370081121836674, 1.4370993491564505, 1.4365234788516277, 1.4358291846999955, 1.2804990271200998, 0.5147979079768157, -1.0607730372009117, -0.34099117364012604, -1.7689267145750156, 0.38183904443773603, 3.310967974504228, 4.052833178926228, 2.9706786181190257, -0.07408495999422905, -0.21753203215400194, 0.45407405715149113, -1.670366133268156, -0.8614157140532012, 2.4779997278635624, 1.5963356905849266, -0.5407224671466156, -0.30506968780190286, 1.0796413922331116, 2.1784291000425426, 0.9456667317269667, -0.10401558551990958, -0.0674418011059926, 1.1290626479375536, 1.423504943296324, 1.4590012366902492, 1.4004912289501255, 1.3799048046579745, 1.519631571260071, 1.1169167156520279, -0.37539601019605684, -0.9676571191910776, -1.77416210797703, -1.240475415231165, -1.5860817836145535, 1.2349521808280794, -0.1492565318057431, -0.6635645508923051, -0.8428118598190487, 1.6203408833181776, -2.1477861989982445, -0.7315988053757616, 3.4883204422440564, 2.1389804610824554, 0.6194457754044869, -1.0444524121675411, -0.7650025913205376, 1.9447118660748894, 0.43368430583287637, -0.3500360650659658, 0.7722059592846484, 1.5450878376948038, 1.383841256482783, 1.3705290882656043, 1.3981757855435537, 1.4851810257670615, 1.3991374798024274, 1.3992552740064277, 1.5668305747662437, 0.23898809936813703, -0.6072283955715626, -0.03414339294888607, -3.2160753914924074, -3.3153383445784903, -2.667208494329356, -4.206905548158867, -1.4444218843830188, -0.437010060854354, -4.514301787402946, -0.9093251800720399, 3.0859147589865827, 4.498449561136062, 1.976846848801605, -0.8023032151302759, -0.10441920450403369, 1.0837077077061952, 0.9419089150224231, 0.7880337836832689, 1.3036661987471698, 1.360130957300761, 1.4055943412528682, 1.3994630146201457, 1.3575524051205223, 1.4209119268127346, 1.4073545013777278, 1.4401419638716157, 1.3407081290313476, 1.2114472457515648, 0.6391240614055292, -0.41605787303606384, -1.1989799187835188, -0.26175693638349684, -0.677679177303933, -1.712942561382829, -1.791811604053123, -1.8422266395494595, -3.686841570010686, -1.1140964084189329, 3.8341580258991246, 1.4494559171402215, -0.5810935218363688, 0.0682562587022358, 0.9544290676828475, 1.5184435605309665, 1.7781617203326983, 1.3921040993037983, 1.3942804633458306, 1.4167390233420878, 1.4052856485736653, 1.417022881376323, 1.3738168838841667, 1.3798846039255392, 1.4246298219162246, 1.4230156254576298, 1.376907870638709, 1.3626460158419502, 1.2002803479408841, 0.9907797003487511, 0.655195270656414, 0.5553359933685325, 0.45355457780602093, 0.7101260694598193, 0.6463620036184045, 0.21533764992920154, -0.6065419033704562, -0.4560790108522052, -0.31658629281259293, 0.43280981468359825, 0.17264676528773007, 0.6236914917290435, 1.136488769099428, 1.5928852831459765, 2.063252096482833, 1.6166258894958434, 1.4681082188855188, 1.50024403005799, 1.4422727040692787, 1.4163019126524217], [-4.409877339974787, -4.3238203265927995, -4.3359721514297265, -4.38862709472165, -4.381091036858144, -4.377558792902788, -4.412703490387837, -4.352109780327274, -4.380959434464649, -4.371365197293685, -4.409970361075508, -4.309177304442643, -4.354158608556863, -4.102466304045667, -4.125161484513484, -4.383924075555661, -4.404896797122025, -4.42121471158027, -4.437927049312299, -4.429800393988541, -4.405980216886911, -4.383751736477216, -4.30044712668595, -4.348479352132297, -4.316738468944789, -4.357949801769318, -4.407144602888537, -4.353349627194453, -4.338843402719422, -4.355606633771843, -4.361784012984772, -4.269930350584144, -4.345832016165308, -4.34123364859058, -4.292874781942537, -4.2466928601375535, -4.241449696342947, -4.195049537152938, -4.0312004075203, -3.930913309156515, -4.723738963336608, -4.119250666385996, -4.010108241592222, -4.340160038561881, -4.572886213891011, -3.6129854569122553, -3.500633495320538, -3.7253658565555456, -3.8217019348415238, -3.8482865672191986, -4.058962866984965, -4.389293013004945, -4.348377807011903, -4.353935334790166, -4.394894305544519, -4.40641118441937, -4.353862478935764, -4.353274977882326, -4.336753996235054, -4.362269986022733, -4.407821221651357, -4.286879557752596, -4.0278293429538135, -3.5122803282095054, -2.938680022352137, -2.8117863888130388, -4.520559156133453, -5.060357026624658, -6.995071815261335, -4.915258534588349, -3.87813865988847, -3.700188213005037, -2.371919393293413, 0.7679256707964647, 0.7551800445438759, -3.0466741611957557, -4.388167809205138, -3.560606276301518, -3.9484648906737836, -4.436404431934718, -4.40234911595904, -4.398877792340479, -4.374097187862806, -4.358942503429442, -4.345226417706097, -4.375528143179076, -4.251840173720058, -4.446225188051382, -4.373087929350862, -3.7060759010030706, -1.6334356379444812, 0.3834047425443662, 1.421354436085235, 1.2887105728469315, -0.9365970368474736, -0.13113375856150736, -1.0901299023718563, -1.488438773082437, -4.113491371474899, -2.2611297115179902, 1.0451199094515202, 1.1558156153566514, -1.337398869445859, -6.89665515210764, -6.87187430917398, -6.392399902063595, -5.021702274859657, -4.44985917072172, -4.482642442083987, -4.335977837972108, -4.364196501839522, -4.349132406926956, -4.383595370503866, -4.283309531351984, -4.3531793883313865, -4.385446139481177, -3.778335835885483, -2.660924769133728, -0.3371637549550354, 1.2877338857839171, 1.8569371944526332, -0.4359816203930015, -0.5376090278241291, -0.5532741837493248, -2.830518820907276, -0.21822775424328014, -1.015525885857192, 1.1467974720524141, -0.3501468977257191, -0.27456520453716693, -0.6618069193022371, -1.6454536176429804, -7.3213238750894805, -9.32539919069123, -8.160954947789186, -6.187878055271703, -4.68108089386229, -4.272194522115903, -4.324143631430023, -4.3422678211333805, -4.362219588094985, -4.387614759317066, -4.449667334457571, -4.26143847965488, -3.726619565153624, -0.3672173753640135, 1.357667869705422, 0.2738411699058978, -1.2924628627726342, -1.825306733080268, -1.3942969004629582, 0.6641635695469419, 1.507597888861073, 0.12308585231171798, -3.341715539474312, -1.1859861813902413, -0.5653775557835529, 1.8776176760469863, 1.8801205050562209, -4.254444802441159, -8.828763440726977, -10.219174090137344, -10.260813798623, -8.32462417999355, -6.133420124119459, -5.211058984698353, -4.520135242780895, -4.34991385099788, -4.378886683447539, -4.356969569784004, -4.256068511848925, -2.548431607939841, -0.6681980757729988, 1.2266376415459053, 1.7005400665542008, -0.6462526204811587, -0.3683144858953526, -1.1055792499801436, -0.16920864625140639, 1.6649664806858897, 2.725076625075928, 2.441749308595938, -0.18176979327628606, -0.22667268072683716, 1.331259584499791, 3.1920807541687246, 3.554201586479105, -4.808038167121712, -9.852337083981928, -12.377406840714123, -12.274741085319196, -10.656925639550243, -7.034156207215583, -4.818007718017314, -4.2134834172492175, -4.298171904055305, -4.263000590617436, -4.084784205271902, -4.2540907409600965, -2.211253331493375, 0.8427576630528093, -0.7799542463985157, -0.3268340658111766, -1.3778115538143847, -1.2933139487363075, 0.3477951989824441, -1.9997282184534897, 3.008977349748261, -1.2676128031902987, 0.21381314559910047, -0.9532399662719787, 0.13333134575041405, 0.21834910514024303, -3.657711135613411, 3.11260156765792, -5.767006700614226, -12.630506921821702, -15.622782109402614, -12.713700910590122, -10.280667966509577, -6.206709237684892, -4.414132216329273, -4.192881249502689, -4.467223854328391, -4.327784500900888, -3.016215043138908, -2.9832990665976604, 0.35893349253457757, 0.06472097273841586, -0.7275860294262444, 1.1146798666391018, 1.2880652489728022, -1.3020203678868114, -2.745323220976287, 0.09563652143708483, 0.29042699837924874, -1.549620188170669, -1.1185963820195224, 1.604342831470132, 3.675767720664141, -2.138878106960467, -3.50686223771381, 8.964172533611766, 3.161508705475899, -12.652558144201318, -15.5875214257624, -12.79303724486643, -9.818146836798935, -6.160244408568631, -4.22585872712326, -4.1661589347786565, -4.466893024384011, -4.325685459658581, -2.772817113900537, -0.11574698820101252, 1.7361907675854202, 1.3678019381991886, 0.6731756952177674, 0.6689559920296752, 0.6797145021608278, -0.4279714831868982, -0.07387246478634883, 1.439665224983229, 0.5393765729382197, 0.1082526460959027, 2.2377954931963706, 1.0206451600860005, -0.5391123277966963, -0.0813280634720389, 6.346979335827572, 16.081469421855083, 7.45155910110379, -8.476254803920146, -12.790368395258046, -16.171625490670007, -9.695624874032248, -7.087351889518416, -4.8340508469274495, -4.351539224862666, -4.504040938574006, -4.34062570146152, -2.82939396875046, 0.37867775568251766, 1.0308640789033798, 2.458553085718686, 0.16685507116455423, 0.5992982422850637, -1.2018510123478183, 0.9468459273626963, 0.022770048653961636, 0.41150435045015094, 0.1983692271966265, 0.2089572008116499, 1.2494982019258059, 0.28566048531886434, -1.0112090067514334, -3.277503310893703, -3.321250252879301, 12.786050582655458, 6.437768219403416, -0.37394084272615075, -8.062048318622868, -9.988527470458976, -9.056986835845759, -6.185774628493063, -4.620541602474422, -4.29114308415997, -4.436313068726522, -4.418161925187624, -3.4160164896188143, -0.28594748751328974, 0.44263007767213647, -0.06013348547357278, -1.1230047065287072, -2.444696498444315, -1.3243306760835567, 2.1102651623038744, 1.3271326475580345, -1.9826619893503696, -0.16446450042222277, 1.614432665832301, -0.5964674206386067, -0.6638652620961255, -3.4770357165131833, -5.727518231702506, -1.2881222817227937, -3.4175011090923464, 6.207184233677481, 0.9127811713334953, -0.9889974094541788, 0.13073103380979237, -6.420583738277734, -4.569129576965696, -3.24498453049335, -3.425266520696139, -4.35499447412272, -4.300340415916298, -3.5210718029422168, -2.503854656650188, -1.2151827772002766, -1.3022466215039532, 0.8800921353166445, -0.7729350806633343, -1.8018169327616294, -0.30119398835953204, -1.9305849733963856, -2.785378451372663, -0.8921150358955244, -1.5378063722100568, -0.799580407372945, -3.5995987077330454, -1.1846515441446341, -0.8938278573759406, -1.0116365752865202, -8.636564946509903, 3.999713466942828, -0.36916463628375584, 0.9768688167501434, 1.0525001921588295, -1.2376429055770766, -5.07202345634816, -2.643777946814068, -3.0462249932515038, -4.329784984778819, -4.387546195065811, -3.9477059357356543, -3.7794487995969117, -2.2643548872938855, -0.573089064294915, -1.3875340672019216, 3.127761178932449, -0.6635909239218598, 1.6833757598905974, -0.5937888136988321, -1.3863716406087268, -1.9946162879787241, -1.4377986646534906, -1.9052476408803087, 1.087213294740224, 0.6266519884233218, 0.0037912927012035084, -2.0087426801565758, 4.50301349176319, 2.417093408442299, 0.5426564833684359, -1.1798099752314182, -0.9468619110121126, -1.798703839801891, -5.618969313684598, -3.0534284863490226, -3.5418674405120125, -4.388656521894786, -4.388996783138269, -4.214337083617362, -3.592312476857321, -2.144646182682085, -0.9950910098833545, -2.034695981565507, 0.6234177380596279, 0.549089484059258, 1.1835997272476864, -0.09017931771001456, -1.3634707428114152, 0.09957778765240077, 0.4565104987278713, 1.1573684374997166, -0.887639827636752, -0.3836835232003849, 1.9545012020576407, -0.18317111711655984, 3.3663582948975703, 1.3293650514821578, 4.0494074786731975, -0.985796567696949, -0.46685778106174475, 0.19943047704675068, -3.149383764879061, -2.6065372398935573, -4.110780172104601, -4.303927814247711, -4.374567649857745, -4.387583664469887, -3.3706311892416907, -0.9220082109516475, 1.0130565708012107, -0.023108455308336467, -0.5594998010082997, 0.10091593470480262, -0.4846470080713796, 0.22605170798443872, 1.3794465293258114, 1.0024010580855816, 0.18287003351944994, -1.4118314814979378, -1.6179239697405619, -0.49079719408968664, -0.726354386578828, -6.615614129103075, 1.7255121245672111, 2.8692665692798593, 1.4125141142187416, -1.5984881930309933, 0.6337479268618684, -0.6637638122081734, -1.6527160930375975, -1.5144930174501352, -4.023926673232152, -4.471357482401735, -4.388544779691247, -4.316076049865093, -3.4839977630638956, -1.8968353679585306, -0.033713506352356495, -0.05437874972984264, 1.177683464727106, 1.56846590244293, -1.6338321727543608, -0.020867221901003558, -0.8569905805990744, 0.541465691162016, 0.00292868325912604, 0.6861885595884648, -0.3515117161903476, -2.872440822286652, -1.0109489950343837, -0.47028474397534065, 0.6090298666565772, -2.072745433379306, -1.0391914587509221, -0.761991732496022, -0.571728775578749, -0.22398479843818833, -2.2857577390690853, -3.4294891204986224, -5.132396618004331, -4.578966000759546, -4.40815500055728, -4.122360605647724, -3.578207784135037, -2.8565884176580747, -0.6548034346501542, -1.2049884536058175, 0.5338796040730502, 2.8550861866187525, 0.2616004670177912, -2.1225326204776045, -1.5969448178120265, 0.34065184290916045, -0.9667538019003827, 2.2941281101424944, -3.1324550963381173, -1.0347667146901494, 0.12086466674139142, 3.332211210162716, 0.9502278691673643, -1.9439484139502217, -2.65012869792848, -2.69114880871585, -1.0276381837148252, 3.374479494299086, -1.750562991474312, -3.214256992331017, -4.515879479865323, -4.438345385257, -4.438321580414018, -4.154328216507049, -2.792955937121494, -4.2243457166603395, -2.4486484146566156, -1.069061791984803, 1.9133874434776175, 0.9747743635104291, -1.882336639382558, -0.8915793912359384, 0.5488315996265951, -1.3236398004008632, 0.688439357942045, -0.3681311634213555, 0.19160710256943886, 0.19514715990606984, -0.21139367859878622, 3.0231014648092827, -0.6474674075565652, -0.17940027106103623, -1.2780575278763124, -0.0032243737567208557, 1.2705649832517127, 1.0253940452697754, -2.7541023962178666, -3.5360499942609307, -4.419980018616489, -4.420960638603838, -4.300681123728526, -4.153343431573207, -2.3090885307950684, -2.7299231295369775, -1.1251431115962034, -0.4965756690832661, 1.0700937554427297, 1.2719786704332514, 0.41371805961803243, -0.6436260419895928, -0.6970928097041643, -0.3861292594373521, -0.04009775704302982, 0.22532872049542063, -0.09466668717616662, -1.550242872386174, -0.2619372366057074, -0.6347977937181037, 1.2094074883436658, 1.5550193788811566, 2.23627499193899, 3.0166600275465183, 0.7913919804814774, 0.388220962305024, -0.9969069359913221, -1.4962400876527635, -3.639610578501311, -4.371343387697286, -4.371525042211059, -4.188997195168117, -1.8489038171033576, -2.044040051873731, -0.6356154556689658, -0.1357465129722849, 1.8313242424974678, 3.536807988660922, 1.0966608892793035, -0.5404201336560425, 0.31613228609906774, 2.148625351863346, 0.9703993272365395, 0.8369257321105649, -1.3755132430424857, -1.6469745641250189, 0.38622561264740507, 0.19174004446783358, -1.1093841486492253, -2.451412652878076, 2.0508758650827166, 2.567851568789877, 0.6116619262017667, 0.41562687965391537, 0.7248601306393887, -1.072349183377835, -3.253575347501659, -4.383171499393882, -4.3701466229698696, -4.188196704234161, -1.7788824517212518, -1.1420847388455242, -1.0726406141053721, 0.5430909434653296, 1.0766754320581922, 1.8049635026958262, 0.5511845103348688, 2.3413064842603455, 1.3868460871998616, -0.8237958119757304, -1.4797060259133863, -1.1761090453453509, -1.454105016610849, -0.4481526586029849, 0.8176053777538866, -0.40039099750497525, -1.6497923415019746, 1.367835671942984, 2.0497689059081337, 1.879462399451963, 4.135657764435985, 2.4322091377067334, 2.88482789228262, -0.26480560856899393, -3.7891713722927562, -4.436452848122905, -4.382298940816875, -4.333864529006049, -2.0527500372110565, -0.06355693242779217, -0.14337453635637049, 1.9894065994508887, 0.5908632247777148, 1.3548437607560329, -3.4877807914152856, 2.7564719895365775, -0.8004310674019003, -0.7670671834599763, 1.6359998016010102, -0.23773529440864066, -0.17170865450921732, -2.4283606701067892, -1.2497423713935902, -3.4142445197354028, -1.2357954445004253, -0.31302728960342335, 0.4259605973648948, -0.46981851988979595, 2.9144226237634627, 1.4294381488326964, 1.3870537832795289, -2.0524278451904623, -4.249775191648465, -4.365653035452341, -4.32545026344711, -4.325240019522263, -3.006807187112373, -1.5174171705200892, -0.6947310295676845, 1.3743837713867073, 1.50248985427592, 0.4660372740218525, 0.7899269661512918, 3.2381894837515706, 0.9314728873177875, 0.2452131423761746, 0.6639575167938427, 0.5270165232916525, 0.2282641118410657, -1.5913872755299172, -0.16746983788403866, -0.6371232546503421, -0.4108193099539152, 0.24811166368046877, 1.0982990396264851, 0.23023591980277236, 1.5480823506467873, 0.9808449260658408, -0.582918430962195, -3.3603438357295405, -4.38850818506249, -4.368149848411131, -4.398179485333231, -4.3375068008711795, -4.117136174474643, -3.5423907961686063, -3.2590845841198735, -3.021601623619626, -3.3447620780916316, -1.7594799689196117, -0.6489237258296119, 0.1122097935345028, 1.0688235687556187, -0.15597234751950179, -1.1938467801650843, 0.13715660123429513, -1.9040120941495786, 0.3964447285392465, 1.0393761767438077, -0.555158315399665, 0.5882990461329577, -0.37782367119862365, 1.7863481364685887, 0.5417706062043953, 0.3403990011118805, -1.3648530840243647, -2.4165117291629015, -3.685282676014922, -4.263342144939855, -4.36088949102698, -4.39435068202421, -4.299705263484632, -4.372880236837261, -4.38026066780935, -4.251605369540376, -4.352161122293628, -4.339635048155931, -3.963690524978219, 0.8181349719175537, -1.997881474712155, -4.614920536561023, -3.2874399858830556, -1.8915138730825722, -1.555261462166112, -1.5208238625527477, -2.4617080524331527, -2.3080392601555904, -2.2940548137185126, -0.8891271855887896, 0.15046007936401526, 1.4934581528906892, -1.7015732478721255, -2.558063234355632, -3.396004433000154, -4.02037258291981, -3.9950781676100195, -4.272060211093816, -4.33266754023249, -4.358149441943133, -4.4117331762431204, -4.338238325981883, -4.406518924777827, -4.4632379034983405, -4.115946655646315, -3.783867023744383, -3.6911919670115223, -3.1491180487725696, -3.373063964157772, -3.8389107000476725, -3.299964274852334, -3.3454714293783483, -4.420187193888062, -2.8035865884635274, -1.768492545642422, -3.5924110946882215, -3.425512356969384, -2.267625427691301, -1.620047830979648, 0.10397848278063089, -3.917636571504937, -4.735797114392085, -4.35944557838758, -4.329321104712027, -4.363689604041467, -4.409882249964677, -4.30578288702922, -4.400397100654639, -4.364677205751755, -4.352365034507415, -4.3412102910814765, -4.299439383460386, -4.229759023697831, -4.072983434685795, -3.7416439638815646, -3.4528008542643174, -3.519770177082109, -3.2442598638405706, -3.2700991579926146, -3.5018450967001327, -4.482451930569467, -3.8793138124315445, -1.8343643751913363, -2.4713956935287125, -3.237794033023509, -3.527674033123724, -3.046106775901029, -3.4809051485584437, -4.290665491703538, -4.811743688960727, -4.383300805509512, -4.336440870278733, -4.404801301233301, -4.415675738722682, -4.33453939449591], [-0.06486204011216673, 0.0005847448850280805, -0.0034473794504858908, -0.026863868365518746, -0.05212093447293574, 0.010656339375208039, -0.036931376073623526, 0.015403577553793088, -0.02652400602268859, -0.0292398230516345, 0.03732172821185284, 0.009931824452888777, 0.004730614110768811, -0.0008788484511739945, 0.018912619855231634, -0.015117371108496574, 0.02687800342589869, -0.08715616589922566, 0.002818751409779664, -0.04610493549361071, -0.015170313821342568, -0.01991376540646913, -0.0549429175625681, -0.0070231248586629874, -0.04775711266711438, 0.06441444133853953, -0.009402823851956694, -0.083603667521411, 0.08786365939354106, -0.048498023514847, 0.030447698500231213, -0.00038660902253361814, 0.0066274420823219235, 0.005002992961871248, -0.0012006147378958733, 0.03015038936878839, 0.015126552206119553, -0.038725731791781536, -0.014584040398192605, -0.028841273703516572, -0.03633983713131475, -0.036316209997233576, -0.0024863880308451367, -0.025638782093545663, -0.07941240438142283, -0.04881970214213864, -0.05710448997948238, 0.0380556046338576, -0.07712576947329451, -0.05599400513111642, -0.0015447059074890402, -0.002952719800197959, -0.05284800657086694, -0.013703461561490802, 0.000874961548752408, -0.008519578579011111, 0.003467997061533934, 0.02634901883946318, 0.037174713358169506, -0.037679350994527995, -0.07002655235097184, -0.0018092123566938953, -0.010615677226759473, -0.04765720570025457, -0.027549866473070922, -0.060167340629984536, -0.03394440576644979, -0.07982851552814407, -0.03464307967480751, -0.10744155657379717, -0.09790730056642898, -0.06062292435332415, -0.003510027266480681, -0.002064364669335082, -0.053408046851230816, 0.03902266867728487, -0.04629147517349443, -0.03866589993835094, -0.13669045904677546, -0.027932840146101257, 0.005597614086955359, -0.008960210551189215, 0.053767523757433905, -0.042062738062661365, -0.02163520217824328, -0.07342326755463434, 0.053359510078836034, -0.053226207617829556, 0.029114261242619118, 0.023810135074446088, -0.02635118669748893, 0.04011195520471277, -0.004424643309887614, -0.0028824010414468114, -0.024685391003659792, -0.07077173161982372, -0.09646514139363492, -0.12553842405538404, -0.16294670710765013, -0.07699372615333418, -0.129348779375649, -0.11283390725531381, 0.05698989053170303, 0.06686234818780355, 0.016810049754157196, -0.08767904704496648, -0.12005845088086958, -0.10364399367824433, -0.035513454725986354, -0.0277791046191224, -0.011715209342159947, -0.0347042093127336, -0.014403461219056845, 0.029391126891312694, -0.00889559997673445, 0.019499452972743237, 0.011226552443578884, -0.06696211010316785, -0.03161347277472502, -0.016289375498845345, -0.12429927515646241, -0.12760121109837286, -0.22731389944791183, -0.22109781592883468, -0.24984686511183934, -0.068718169192304, -0.06334072197036655, -0.043153758798667764, 0.037866800094608466, -0.07678452412217199, -0.29764395042240555, -0.3296090772995643, -0.3753672579608885, -0.40310427307188224, -0.2138589530899157, -0.17223650091371095, -0.14887055953025305, -0.0008103832583096131, 0.039585589880858876, 0.023544740650797653, 0.01904432177579715, 0.006700763365017967, 0.012188220440042344, -0.047801285299218184, -0.04368735360360493, -0.07911142519756184, -0.07718994667050821, -0.1359272551266462, -0.21201626364788637, -0.3931706374026245, -0.5243144843976916, -0.42394015002849067, -0.37421783065760184, -0.5734511348965055, -0.4026953366397491, 0.031211427030573245, -0.007932050203415631, -0.1598480393414209, -0.36186487843468107, -0.4104623700513424, -0.40983124574713775, -0.37495508259956045, -0.38366813522023824, -0.10908610442864562, -0.08092316531171746, 0.010362959842834323, -0.015456925300967534, -0.05505097486179811, -0.03390727546577785, -0.015991828942835757, -4.4124871971056307e-05, -0.026972467661270913, -0.08889936878521916, -0.15018261183843168, -0.14618004630865836, -0.2410000970766158, -0.4021791660305919, -0.5647142680965919, -0.6189228387320003, -0.2986253623133361, 0.0027820533582092522, -0.1418111818800243, 0.10389086227546217, 0.12955604012141078, -0.020344998736687794, 0.07484227168069443, 0.22547953607396007, 0.15650976831724867, -0.023307725271801666, -0.2303052130388544, -0.41893453280283716, -0.18258027137964924, -0.08630647639395639, -0.020655666559845322, -0.014774514106593138, 0.05638003337963207, -0.00815996229018896, -0.0006553595387548474, -0.032498627476137895, 0.025339304393302745, -0.10834749385039939, -0.2730251274387786, -0.22027769472616304, -0.32016063087797025, -0.47756534077005414, -0.5290296303140665, -0.33977569482669306, 0.11244561644813793, 0.034902413726631026, -0.13547087815334377, -0.05663825560452163, 0.15473246278756847, 0.16601366038593227, 0.3834331346945005, 0.13006544065320563, -0.009553650270114376, -0.0611219223460304, -0.3430891376975053, -0.40077716489242615, -0.22272307739145364, -0.08830277865565785, -0.05840177485403714, -0.0357743590760581, -0.04802109532270206, -0.01355882765098628, 0.012757956643784346, -0.008239246867854773, 0.017305845729367237, -0.13780797416306542, -0.11733770716100989, -0.2517546284939338, -0.17348794611951573, -0.27188242313066197, -0.044549956875169265, 0.09860925527420714, -0.24894288113889798, -0.3845555899582778, -0.5225565175675362, -0.4582322560479338, -0.1817306796170396, -0.27859048168949635, -0.30084266584315583, -0.2842151071269387, -0.16797893174447243, 0.015517258450119649, -0.3338687184784068, -0.4530784448467072, -0.18218415896396642, -0.11282763389096077, 0.14249391181154222, -0.01681048173031754, 0.01917889640737645, -0.045560048347383, -0.00910857955620492, -0.11696468359781309, -0.04083352146361631, -0.14993280064735523, -0.0983157057902045, -0.044053214449809606, -0.017099953410969156, -0.11388441261356204, 0.47979685615853496, 0.19048450688324872, -0.08688226242898366, -0.3072689893461068, 0.061176510292015845, 0.34457836331315395, -0.0947844892461448, -0.20624822212356791, -0.3863578727977749, -0.10935712156553845, 0.05804620205833909, 0.2072230616943723, -0.0926182896134277, -0.32152115860242697, -0.27920237413716226, -0.1162678572899986, -0.09221229443522708, -0.04048633781566377, 0.030763768488190808, -0.022944503456407195, -0.02331999298369418, -0.041105580193633515, 0.01627309864563316, -0.2572413374273777, -0.1812121835137529, -0.17765491970488137, -0.11957527741336091, 0.23183483381277406, 0.4206490371830922, -0.11842542938714468, -0.48698954344155937, -0.3922841458319078, -0.12290485218537837, 0.11302452450111762, 0.08834525397284075, -0.5153131509617379, -0.4488804474875267, -0.19829300158750102, -0.23753856071498622, -0.002719751975935095, 0.14129321892940133, 0.42840764766480616, -0.36054232409486836, -0.20190277361702375, -0.02194264011353808, 0.003323669633401709, -0.025703810642175348, -0.05929584591842957, -0.06655066607171199, -0.09336594968003394, -0.08745229110063465, -0.1415814669278821, 0.045743769002333456, -0.030934567127904967, 0.4193576657473939, 0.37457285839079507, 0.1831710986205794, -0.05680978986846867, -0.5828453616875582, -0.5995831980686652, -0.27589027306781666, -0.20944799885743462, 0.008414469777804523, -0.5445088170963374, -0.4056147692651955, -0.015542247879214545, -0.15330357957277344, -0.619671833338028, -0.10869517387978925, 0.30409583916686633, -0.0914887052455973, -0.36617611160906866, -0.11984823280169038, -0.021784103364992605, 0.030117401796562505, -0.06021385401613916, 0.01178339236476626, -0.07512288343080141, -0.08734792214192758, 0.1943879150742571, 0.10803006204827457, 0.3591299019012643, 0.2723519634300241, -0.20615959103639725, -0.12504207256113228, -0.4164020424929742, -0.6667854335091233, -0.5571044357348376, -0.1729140769721149, -0.40960813178132993, -0.5585059204939, -0.557747811881533, 0.07885442852106339, 0.16300097315717046, -0.3274797686887553, -0.7505971126606044, 0.1864924736654919, 0.277297653182234, 0.19033390582286433, -0.22854060542925914, -0.0643145473982766, -0.050634990057841105, 0.039201247148694704, -0.01682933246787096, -0.008573818933994946, -0.034252279882978465, -0.03002631812594931, 0.17785963682989722, 0.20332026411811854, 0.09451544016949946, -0.04468627090769695, -0.23099669533885345, -0.2597879806336835, -0.3687276654268217, -0.6509788586215827, -0.5420994890610218, -0.2900760510785329, -0.5274389434229537, -0.7168665949801606, -0.2808438763358856, -0.05306059663399075, -0.2398698581874743, -0.32782837598848985, -0.2780925408395667, 0.08781698032182912, 0.009857442037859192, 0.03924932761663351, -0.37805261402373097, -0.010102578758195691, -0.02078796621702832, -0.03586538396544489, 0.04252203961757428, 0.02155947361796811, -0.053256979148423735, 0.06659464819973364, -0.059565383161009844, 0.5836875671731995, 0.21083535639763126, -0.4420995007263949, -0.34190198468708716, -0.38121387565050985, -0.4874903332792872, -0.6833671203831617, -0.5860713258154445, -0.4801576313163779, -0.6123323786650925, -0.2853321212125978, -0.06420790072829062, 0.014640819493162262, -0.5671901523804895, -0.37864248148631824, 0.2112797536687449, 0.5204588520654072, 0.4897807480122565, -0.4418637760848996, -0.337242499777893, 0.04799467478944313, 0.02399558170337647, -0.017858893061979512, -0.003933456104722219, -0.01314993201465976, 0.009586550676420473, 0.07810246222551305, -0.31561720154758693, 0.45635857408077596, 0.31345660694190636, -0.10322141093567896, -0.3041647912848664, -0.2324826598647306, -0.4158607517776549, -0.4247585340250329, -0.3814356005714361, -0.4536380343592117, -0.43093016824228436, -0.07543697270701114, -0.11910589661291897, -0.43634167163398446, -0.19685472412462693, 0.3595912519317317, 0.35435447714547286, 0.6405565541807177, 0.05844818863361635, -0.4354238976996453, -0.26459070352150904, -0.03559850611775999, -0.04628895568586893, -0.018813427228636253, -0.01202910403240757, -0.04167298818512058, 0.02012249733834594, 0.08149312599396721, -0.39911543603948574, -0.28552630488775693, 0.2785908935794871, 0.2870303112851175, 0.02691176162847548, -0.25860013053825603, -0.34916888385728967, -0.05010283850521165, -0.2264534059566879, -0.6589997588105178, -0.7288540705112982, -0.29354200952286624, -0.19734346489417992, -0.04643544893570526, 0.4091691975325853, 0.23951043220901086, -0.05121857471679139, 0.23214909166937303, 0.15842297081189294, -0.19941177060020987, -0.1813055177328764, 0.042781971110323364, -0.027240117352158512, -0.07777167971023856, 0.017038245137395262, 0.006390346563577941, -0.07764934740158043, -0.01788085198451633, -0.16554343005644928, -0.6527437643851166, -0.1682299227275403, -0.04845171456444989, 0.1370106560193623, 0.0021857578566315886, -0.3562379976388568, -0.48058012087432334, -0.8467055939033739, -1.2017871479297975, -1.0328172312894133, -0.2210426162250843, 0.35593692011302797, 0.2462199580417706, -0.18149622423247858, -0.287273900068809, -0.6483187536501963, -0.20320968308170706, -0.05621665755573582, -0.3249103439839868, -0.1782471935818229, 0.015763143008953318, 0.007951791830802713, 0.010262481821469924, 0.028079846965685423, 0.01364145346082053, 0.022589929979513302, -0.05350438152518108, -0.15205021509802272, -0.3583935112105278, -0.20560765933759423, -0.3883721438835147, -0.25453287188623436, 0.27888279712201314, 0.4896536953354652, 0.3771349106291391, 0.042498102579856305, -0.2632019942346041, 0.07302870651938259, 0.3084215004175259, 0.4276715663040145, 0.014543077342705359, -0.41150527818973204, -0.6308710683156468, -0.2858384884626198, -0.3037799076260742, -0.17593166036137167, -0.1265988674455294, -0.0470473257814573, -0.004924393232576346, -0.04736737569825513, 0.06975173463126237, -0.018874678283257413, -0.07423773302554411, -0.04481708594346021, -0.029272049074398905, -0.24756602845102388, -0.07067049826988374, 0.027412948984372926, -0.272953467701108, -0.3343165950448222, 0.3995243567688304, 0.29970957864612463, 0.3457362553714495, -0.01028391823702557, -0.12586657758516007, -0.02217624611745684, -0.32867436625436525, -0.17852122625647066, -0.15341872639930365, -0.38842446248642915, -0.04659659612453707, 0.15084969907346665, -0.28965324007970267, -0.30608527302247446, 0.1269890413289829, 0.2193625241410046, 0.09246649049290286, -0.0439981638240901, -0.02986915873262452, -0.015638933104293342, 0.00985546652168987, 0.040369273007188886, -0.07674351169356579, -0.07114495448899036, -0.08342354833400963, -0.01711972746918685, -0.32542304143797773, -0.43489878319118463, -0.412403245820493, -0.34123695577595414, -0.4893756778957674, -0.5100027089272978, -0.2116203611390954, -0.30508067053714993, -0.3496442515134447, -0.32546183924100364, -0.29002423640371366, -0.2995383367419302, 0.0942663586178094, 0.3119622400040179, -0.18673801276841184, -0.3948006634104072, 0.09948377238359747, 0.33315109930900366, 0.25206134102009975, 0.02923331524651439, -0.035013742078247354, 0.005764738343719072, 0.03764698513986403, 0.0016020427892482004, -0.07900821429553029, -0.04705255954217735, -0.12934095282336083, -0.20884309664069023, -0.3333830815275935, -0.3551459330300922, -0.14324793995842278, -0.13279809943655846, -0.36202870956904526, -0.37266174725640555, -0.38421157901137903, -0.5093824204049171, -0.6726868539982174, -0.7234515593540558, -0.1366877168302059, 0.06537513827382534, 0.042801426127028405, 0.44286247818680763, -0.16194115910729984, -0.3054716092265698, -0.07214218319907494, -0.14167903196027437, 0.016485324973101043, 0.048193906515447915, -0.05710185629040178, 0.06855758084890473, 0.0002822498102301619, 0.011629916243864443, -0.05247383903451737, 0.017140464382176195, -0.18176358276420077, -0.2746786375851076, -0.3476401785632815, -0.40488127421594977, -0.20831226301049968, -0.1487063013149945, -0.21380242596635335, -0.19466115598974437, -0.5704416396237302, -0.63430429159283, -0.6070713134926703, -0.5705738294928565, -0.011137137692867857, 0.07920649376552226, 0.10303620236644165, 0.36383633758910183, -0.05239304921048376, -0.19752862140313013, -0.040834580776182884, -0.04620621056466962, -0.036412855923675984, 0.0197244326811493, -0.02967993483995105, -0.052526724442182454, -0.05070415849835322, 0.03331336550191748, 0.009710952077507955, -0.12829216908056496, -0.1492393286770826, -0.13360687563166976, -0.07528365232820255, -0.216763040328193, -0.3543998556318718, -0.4756258030926769, -0.4240153254785229, -0.4532412155691334, -0.44551308246958193, -0.5207024949766869, -0.48453941873902684, -0.22254224460071725, 0.16734948604066288, -0.09089794405008927, 0.036177922388569025, 0.29405587652765114, 0.08681207783993754, -0.16380049974449098, 0.010717335720299728, -0.046927790318368086, 0.05643759497810266, -0.028628175393506854, 0.04973797962396902, -0.02129297228311032, 0.0003034539692813668, -0.07957645697115957, -0.023190814402581326, -0.030330762371073277, -0.04541146066193617, 0.014831745526372618, -0.11681722829162042, -0.21874462533785521, -0.33670018531754553, -0.37201555233705186, -0.245453852255088, -0.0788624503887781, -0.38994742503753316, -0.5410495758485729, -0.5310812351650783, -0.18050387410468746, -0.04202192077795432, -0.115928418617725, 0.012137827314407776, 0.28517710671119195, 0.34569221957762897, -0.06906355158435704, -0.04779001728465016, 0.004969858940221812, -0.013865618520940981, 0.029066062632124995, -0.0226424495812486, -0.008855895150794053, -0.0034945670240025786, -0.027681539454062026, -0.016001437405357966, 0.015556506796666385, 0.00042835262276623334, 0.11431466651497242, 0.05811391131704323, -0.12770802170188694, -0.15894469214316068, -0.17226350071568564, 0.0012796451545145449, 0.15723175514391663, -0.011394128459300101, -0.16934585126630752, -0.23037836350126684, -0.058859779452117185, 0.04661756305457086, -0.19689142647384625, -0.04918931422630665, 0.1195405839830006, 0.031937516422690215, -0.0569500425739795, 0.014543776052257956, -0.05013422837031441, 0.04121940768261198, -0.01238039968609278, 0.005763990187739759, 0.026317121986635238, 0.004346729740314451, 0.015370321683602155, -0.009004292344962906, -0.04687426532326634, -0.04851612220888633, 0.003654293492544366, -0.05402313637471622, -0.034131509045363155, -0.026300375652212837, 0.018191529286924853, 0.08220180296905376, 0.1427941285871894, -0.023508960033134414, -0.14515303715991734, 0.03678732169578443, 0.013474587857176482, -0.3211921624246095, -0.242777642563641, -0.16446664642102954, -0.059615056657089674, -0.06362864363056434, 0.02488813004729171, 0.010464217309995858, -0.05727052821856858, 0.017406670365920043, 0.0011478678455299474, -0.08830423242050049, -0.03706727684680221, -0.05308491966377389, 0.018313538494297392, -0.04526388940212747, 0.05559176070821101, 0.021261526852138, -0.002051563005785219, -0.07139872693875146, -0.04147683415646707, -0.06782861346379883, -0.027798128402522944, 0.043333338497644376, 0.06152901310418392, 0.008238263404727534, 0.02358706836970162, 0.09888859864147657, 0.040522376149369745, -0.09619038884218863, -0.041001025471465335, 0.000972768100309622, -0.00957935146534794, -0.015226669286691044, 0.10519559065990632, 0.026386012229885805, 0.027899592155164132, 0.024914769793587317, -0.0360638768737323, -0.04328824062371729], [2.3031682650210867, 2.321945537579705, 2.3334207957385584, 2.3256372031785513, 2.255097295095434, 2.27693577847498, 2.3204274557577045, 2.387958397311086, 2.3170887928687924, 2.334590442951867, 2.32689309592999, 2.3481000204550546, 2.242123061129982, 2.134137565566023, 2.3054148297980634, 2.357289332897597, 2.2889824171072095, 2.3780782362357953, 2.3163528889047433, 2.3345460488376673, 2.341484290696943, 2.267609513041952, 2.2875593196329445, 2.3636239771669483, 2.3166404647517065, 2.277253892237048, 2.2906680367445937, 2.306388616785418, 2.3253883697771465, 2.345129852859977, 2.302476504907625, 2.304678692159333, 2.3194608539859076, 2.2863192407901374, 2.3208010278613194, 2.159212580938244, 2.007064766134419, 2.1562036329838787, 2.3237809933949465, 2.6669452142308434, 2.401836380740588, 2.3185224156244413, 2.4142597112366335, 2.4394770585637287, 2.522953118912125, 2.26349757831273, 1.9351144487465857, 2.547395705958288, 2.7913908426526866, 2.3234179513345374, 2.3614728465042076, 2.3101518971463153, 2.308293509480181, 2.326492981645116, 2.289660955349962, 2.338786949994127, 2.307410849613347, 2.288394094008481, 2.300376415182786, 2.3547155422688557, 2.290318183184185, 2.3070514715316417, 1.9690668271707907, 1.4843825536029718, 0.9163796540180877, 1.354649725206741, 2.504708475777257, 3.3426780418461743, 3.909389249666955, 3.0927287577407907, 3.3935581435551816, 4.630882635170969, 3.9832090635683204, 1.5013054285808871, -0.4093324719886796, 0.575625049854006, 1.5086631543908233, 1.8986754672828015, 2.3900256119291545, 2.2721808069489673, 2.3624068554568782, 2.365359024513402, 2.3606089936215047, 2.32788662523367, 2.311265353811256, 2.2718466035303995, 2.351004608171035, 2.339990516156245, 2.3529327807364386, 1.755915253178002, 0.7059041297018356, -0.3660127672382716, 0.010165639074002754, 0.06096859702021057, 0.5478993988886888, 1.2253397585301093, 0.20658743069247612, -0.5146979052497487, 1.537172733450045, 4.770574746627961, 3.48385910324311, -0.4721759914417719, -1.3072562596874402, -0.11274419387629164, 1.489304379598203, 1.802943984040096, 1.544877394658087, 2.245025047537449, 2.5225814341648483, 2.4432969535277977, 2.298207984635787, 2.3025601514195464, 2.279202526397872, 2.321396177462363, 2.1950815457321, 2.2030807154604535, 1.9589672940982374, 0.44670435334072683, -0.6712727968418758, -1.3300149083833255, 0.10767147413981747, 1.320596534574132, 2.432902267752989, 1.3949604914491471, 0.34948307998153366, -2.6081507383539577, 0.6684761103981732, 3.1433079384078644, 1.8841838624028333, -0.230506896860781, -3.012567222400101, -1.0763608629570316, 1.130842210670974, 2.429531884356792, 4.094593144730545, 2.4769047421461408, 1.4274217527292956, 1.9701002846494635, 2.0952855614048107, 2.4115360697969046, 2.3375898021109722, 2.279530752079802, 2.2850733688156266, 1.9947021466398334, 1.5178429707869385, 0.9402412569483102, -0.6396697957753802, 0.08838960341508971, 2.422097161502011, 1.026624007637641, 0.9157032390311863, 2.737191892664654, -0.8106250352130281, -4.2054088765604645, -3.1805760759092485, -2.853481448388423, 0.4830077118155122, 0.8192153479357467, -0.1472041155359918, 1.3644963529933163, 1.8214072825030916, 2.1248369332431505, 3.5420545704148543, 1.203485763419343, -0.6608355901653002, 0.27179829254852256, 1.9909813663896219, 2.329881441969017, 2.2340896377633723, 2.277011459474257, 2.1390800399510397, 1.6854235160375133, 1.6891837636613765, 1.4247207093401348, 1.6140659529273902, 2.327090118569008, 3.884578277608946, 3.6516744365283156, 5.556421020667476, 0.017737712247656526, 0.1312680232489979, 1.8719577905755223, 1.107408529466782, 6.1380983243895075, 3.5644094158589725, -1.555125971673122, -0.27096678387691525, -2.8242578193154264, 0.10560483967851624, -1.0836161407648397, -0.29880100773493534, -1.9802316927872747, -0.35068614540150483, 0.2083848789003861, 2.313573953207298, 2.099229304017677, 2.341448704547003, 2.3476851451076333, 2.0691806164870097, 0.8158718565951127, 1.5842281953600117, 1.4621942639909573, 1.1740389962760789, 1.8378362139711557, 2.471330583098585, 1.1847198944569388, 0.0021312810751763704, -0.8671764116161991, 0.5618628652707347, 0.24353013440016077, -2.459500197288705, -5.971437352288443, -0.0734204699942382, 4.200564503621699, -1.977607103276543, -3.496678061491911, -1.5054254981670658, 0.5999204081860967, 2.1125734784400803, -2.7540767471338072, 0.4639516199807305, 2.7967381177639608, 2.2080336271881547, 2.393394838226182, 2.30115992648447, 2.1815043434039962, 1.761401482366791, 0.26379847271690243, 1.9437411815350805, 1.8826179172638655, 0.2883913679699361, 2.691919408955557, 3.3452732691375733, -2.766026503042479, -3.5457965409391083, -0.3691191064043376, -0.21548700142318297, -1.7172468882145182, -19.51377116367577, -31.84718964878686, -9.028119785273091, 7.252749396209632, 1.8506892814034068, 1.7297837910534337, 4.840672630633525, 4.75750489873148, 3.2980941826724326, 0.0516756978263068, 0.16445318938420608, 0.9254389402752081, 1.7867772045465906, 2.2677190250960564, 2.3087698112410124, 2.245568896497961, 1.4804392367962436, 0.5028966876648583, 1.1505217337240008, -1.4218716472136717, -0.4427018170977323, 1.8441645975372294, 2.2095494993331277, 2.510985609645072, 4.569567824593797, 4.404869817540277, 2.9422580246460996, -9.881433589410118, -30.377418998741835, -33.1525650213353, -11.452782845848311, -2.8954144611077073, -1.6762381235647366, 0.029347902789658428, 2.700743139605397, 4.020243857870483, 1.2583445839745375, -4.23972790412996, -3.477450702077685, -2.4967218930376935, 1.2161595774790865, 2.007078523165193, 2.31823700638097, 2.186176619935825, 1.5642717819379515, 0.3092002675226494, -1.220827595183293, -2.935102694423655, 0.5021115265370425, -1.3068578923433334, 0.32938161114007297, 0.8978635126983986, 5.129983984396066, 2.2880165184583716, 5.219178010705913, -5.54197576743538, -17.15230760597454, -14.421084293110786, -3.800393306062291, 0.36754761819876985, 1.2398119433419283, -0.15522654095791558, 0.5626375999521184, -1.0312753944801278, -0.8384994628793336, -2.8316914577709054, -1.5278496524136367, -1.5036983240058928, 1.329122691673388, 2.2277211836959623, 2.361261211056903, 2.649155897709211, 2.065163067807767, 0.9939526297305924, 0.09810216678335161, -2.9618561399582473, -2.583581864336716, -0.6230355095696699, -2.129935395161084, -2.6161863742129294, 1.9298627974541296, 6.015851253982774, 5.183731632263087, -1.1905048781427916, -6.7224048028921874, -0.9629133893572068, 2.838451532715288, 2.897860622432534, -1.4705787197757487, -0.8224515345610712, -2.941813188229862, -0.45133591241935134, -0.7484016715078979, -2.56339715183487, -1.3683212253849364, -0.9544105737625387, 1.3409873344570877, 2.3214892409743797, 2.4736358760594954, 2.390447066638185, 2.162363926563374, 0.10851679887745738, -0.37254871573967185, -1.6799282658716315, -0.682530316921062, 2.664947858237759, -0.049811058037788465, -2.7075570156567017, 0.17974087736419306, 1.6412826812440888, -2.1364065270886394, -0.087607688060067, 0.29068361209840893, 0.3338549291762902, 3.1284339557209546, -1.4352224683312065, -1.3461457288590077, -0.3621167171203483, -0.9309724625633378, -1.1874563353014622, 0.039330043173645794, -0.9218162213902543, 0.20815617534622766, 0.8082608594425535, 2.030602116502974, 2.3567844318421582, 2.3492963427814355, 2.312163827866022, 2.178918274538932, -0.02572352716378271, 0.0439859011719242, -0.2896134891359993, -1.6562283288129254, 1.4392626368164585, -1.576828738047239, -1.7969533540759879, -0.717271432619376, -2.878562913213799, -0.02578218617716755, 2.7653445587351158, 0.7197360434270007, -2.23057016486312, -0.630898670220291, -0.8140693168670036, -0.06048724625009116, 0.23701212184861042, 2.539446465448754, 2.010486407971535, 0.42125239781675267, 0.43396385271998406, 1.4450523719816084, 2.3263591373842263, 2.611985675100525, 2.5226339145403656, 2.392805035066732, 2.3517473490587175, 2.283294779097502, 0.4017901383958969, -0.5441207225896797, -0.3787287030089774, -0.6573492360586801, -1.4844816594615815, 0.5343139335924482, -1.800258915735476, -2.721224981138763, -2.1403322494011423, 1.974115216374542, 5.21984425255983, 5.3194103503951, 0.3336535335124767, -0.9468519970365639, -2.5335262110149053, 3.100405321568837, 0.7090448857526431, 5.493595160852398, 3.7651155608711284, 1.564134386940358, 0.12468051080718259, 0.9796890773817197, 2.871604445668633, 2.267031485667737, 2.314726492269472, 2.3088922206640703, 2.311281366324059, 2.1328652511446644, 0.14329312105663622, -1.4306318721477402, -0.1309942063362034, 0.31648911976583266, 0.839649130717646, 1.4466897294311498, -0.595411440929079, -3.1946171975657065, 1.8476074759577745, -0.6928237928318335, 1.9659335774569473, 3.3303641173535223, 3.2756130303091373, 0.235329043550619, 1.5879542316643962, 2.3203719363635615, -0.005699603069904312, 1.8307970509505587, 1.6651580750037518, -0.629681191495542, -0.5039342444891701, 0.8049159940781196, 1.4939667268870331, 2.1922718158584704, 2.33733346902953, 2.3229682768536875, 2.3384842097081964, 2.2319036302929502, 1.0843691714193522, 0.10911213568922551, -0.19928906915381733, 0.45577468209364447, 1.8068314139075872, 3.1387117562825155, -1.2016286186171357, 0.16257171065406378, -0.30074548332800677, -0.8549715865135884, 0.2816974197498004, 3.7006108195600884, 2.013723277770404, 1.2299823902122717, -1.0235333331505547, -0.11273986128324336, 1.4813183838532193, -0.02744346016482244, 0.9090309891437002, 1.0306399614618733, 0.6369158545830493, -0.04306076829079478, 1.4575417783812772, 1.966119297278355, 2.2971388268055684, 2.2992916749261565, 2.2836056326938095, 2.4650048958551403, 0.5997674758049606, 1.0058372284580352, 1.8353654360407499, 1.8722717524788972, 3.1724015871310183, 1.8170876147023571, 1.2311757010438322, 0.4611303099253189, 0.8483646374356301, -3.548841972616787, -2.3874725939421197, 2.209327454508173, 3.1514128876444096, 2.1568643724343257, -3.2207889296876986, -0.9337487194869287, -0.0534073151234301, -0.4154396283555533, 0.13447599837537497, -0.6819891147893496, 1.303669788570264, -1.1061463586001257, 0.006754113619847884, 1.6041478271157257, 2.355544928071116, 2.319976292231958, 2.285520527499362, 1.9124381996233757, -0.5157282912507457, -1.2882268153540328, 0.34644438999330024, 0.3574016645164599, 1.4624647104642394, 0.24944233783692557, -0.24502810344559622, -2.1648669677393544, 0.5301307533773996, -0.28581862164187233, 1.7619878761287382, 2.503688540071793, 0.042009426138079765, 2.316992333647075, 0.6773047041604615, -2.0152398321887777, 1.2651630469277189, -0.2182813706147474, -1.6944412086001368, -0.8106311009761061, -1.7645847573616786, -2.0101647005873646, 0.04300968626692472, 2.08823183471652, 2.413391384994687, 2.261561262233006, 2.1076312710403027, 0.9949982171077422, -0.35363148098581454, -0.9775918099517921, -0.7728935631206773, -1.7195987876731638, 1.8327593684141725, -1.26821816072462, 0.4214219529580989, -2.3292201914905566, -1.470207719488625, -0.08676843203245733, 3.3975304038906713, 1.356190048550036, 2.8097554282310853, -0.5533952240043083, 0.8119517965177198, -1.2378016928212532, -2.0531917465451452, -1.880509997454635, 0.18209654675543135, -0.8688765675553181, -0.8722873772789446, -1.4219195213984752, -0.16957085973192268, 1.497211239019524, 2.266055048896512, 2.350139533153859, 1.7534780374516774, -0.43094940251721914, -0.6411365653850618, -1.1124974077209064, 2.5865259479111744, -3.488413227092826, -0.1910686529743674, -0.7702019983747408, 0.7075665683379067, -1.8080659487042035, -1.0554771850134343, -0.7867813697201318, 4.463769048023882, 2.966990842553193, 0.7376230212601683, 2.27963700387442, 1.252330779646826, 0.4679533229056288, -1.0010474073493523, -0.7121749760322208, 1.3340347339721017, 2.002689224285119, 1.0853796557918753, -0.10207828946590326, -0.4513259479349848, 1.2753294425564659, 2.312340296383038, 2.339647275396341, 2.00106021493796, -1.0083464575926584, -2.815139226948284, -2.12162381758852, -0.7878666835260377, -1.2410577802338967, 0.6340717192035898, -0.2629142071741048, 2.6185793290338517, -0.6786227439564263, -2.9608323197410806, 1.107692103238742, 3.0013681622647685, 2.8503505581016717, 1.9754600281994863, 2.0597626168308225, 1.2395747035056697, 1.7006249429350813, -0.7668215725975516, -1.0269534012230792, 0.9555154098984949, -0.2782597516032204, -0.08595398324919255, -1.0977916782642552, 0.6968203762090601, 2.164152803360229, 2.3114884600880283, 2.3428496508991414, 2.377736280214438, 0.4148449886650377, -1.4176284575084923, -0.5260781459643488, -0.921394927853213, 0.08931324189414376, 2.4368853549640486, -0.3070349056587703, 1.1657628069532397, -0.30618451470460306, -0.7788983614384567, -0.4672681720417571, -0.9342139331527334, -0.9064551380530875, -1.5825117876069406, 1.2852979466793257, 2.618198778239432, 2.478790502921683, 0.6874805247575627, -0.015554987979427759, -1.3227042162635645, -2.065352219391482, -0.6300160525257396, -0.2864875365760099, 1.6276987464140604, 2.3672507828724303, 2.2401172420628854, 2.3219220603290815, 2.323996471227447, 1.7472010421316764, 0.29447274150207114, -0.877155758322419, -1.8220527808897526, 2.174076670831487, 0.6302301670661621, 1.72477750726411, -0.14335798800305466, -0.47110829731958015, 0.7555567347775194, 0.544777529665769, -3.124657108603668, -0.591314789271338, -0.40524983447645674, 1.995099836807881, 1.4691294051814934, 1.6175039361137864, -0.9636721364023345, -1.1726046786137758, -3.0264978500348656, -1.511823900389653, 1.1421548881615127, 2.5068169347716744, 2.4906897748252574, 2.291128770759252, 2.2802172263549347, 2.338767564653885, 2.395392307781092, 1.8590609745393518, 0.6273462886914906, -0.23681853248891335, -1.1144952321122474, -0.6285852751658685, 1.0566170367731522, 0.03976663981367299, -0.7683914477095086, -0.01351621752847392, -2.640827649328947, -0.7388347268977647, -1.236964436023033, -0.6444962913781025, -0.744451557031793, -2.739968391900765, -1.3559426101199146, 1.132980676676694, -0.6479615397386804, -1.462337504480733, -0.4045536248708653, -0.8502544090521862, 1.549028491693471, 2.2649718007631585, 2.4148267221188817, 2.3875261217303647, 2.2668915355358776, 2.349140856707359, 2.3331038865484843, 2.2381155224301996, 1.7866153327521257, 1.769911680849842, 1.1929164570457595, 1.0010621192631135, -0.013108625741717677, -1.754004340345556, -0.3506745337582951, -0.006860884809304026, -0.345010286028814, 1.678561687797761, 3.0452449826042822, 0.9466374826612274, 1.2744011783937315, -0.5959089204647156, -0.6927429441740228, 1.5300536032689802, -0.3477079840188343, -1.8150943889419286, -1.2813777282489525, -0.3840538455023457, 1.2970572559110032, 2.1956573450901513, 2.320720177570521, 2.4047167955003603, 2.277160751901921, 2.305250866034981, 2.3850106561412256, 2.3002715187698537, 2.2840840025808773, 2.3168397468440154, 2.1778771051420454, 2.5497313774295627, 2.788593859375196, 2.4521124670345777, 1.1212807868265842, 0.9593474182207685, 0.5494402738326707, 1.9765862132956564, 2.306069630901161, 1.8175760466399666, -0.39055339332565175, -1.344651672116961, -0.879486940317094, 1.4825765181071064, 1.9429743043150902, 1.7041593250761267, 1.742486095986806, 1.9219378755584677, 2.225219266226307, 2.3700004443962617, 2.3375118468180935, 2.2835850216539417, 2.2540392989351674, 2.341225003594117, 2.3132024894213585, 2.334289964817072, 2.336126644725296, 2.352943792673352, 2.331945031942286, 2.191049737086378, 2.3102113633567085, 2.212468038242942, 2.1648250950315133, 2.3463694119777583, 2.265886564833855, 2.283388919590703, 2.257916987795212, 2.2131280430163454, 2.0837148393430365, 2.12283096473522, 1.7781773263836234, 1.814693267368994, 2.177774296787084, 2.3221510075255507, 2.2996381675920508, 1.9811318119421732, 2.2088699508885172, 2.3131157415560337, 2.305822026792016, 2.293552949420256, 2.3096340293012294], [4.293895003979151, 4.308612827829383, 4.273557891721194, 4.261812780042699, 4.300837546567437, 4.319979134585757, 4.281241152578258, 4.349350709117274, 4.282580657095232, 4.31408900777958, 4.358012483948516, 4.322864376235519, 4.257347359058738, 4.074169821306398, 4.078654951122271, 4.3078459882642886, 4.29947750374797, 4.303345279013789, 4.357135637519153, 4.320444138554149, 4.360641104377856, 4.320954000677927, 4.309041067443268, 4.321090098025738, 4.394516327669597, 4.3007118519387815, 4.390071882178627, 4.355693400833293, 4.339810250896641, 4.369801493564061, 4.373727458374774, 4.292652671574186, 4.373067492973781, 4.379071822823691, 4.341468777651281, 4.074403813791877, 3.3945157874094325, 3.7163891707158703, 3.424802630857885, 2.684747176406438, 2.5024813740719067, 2.5619731892541413, 3.4505735685431946, 3.860644618886949, 4.287311360821811, 3.853955238963207, 3.6601462171871195, 4.300044405608585, 4.1516900722295285, 3.9826702777452336, 4.189538496930614, 4.313614706586697, 4.349315818935502, 4.2756762660638, 4.301222098573285, 4.303918218439882, 4.332704578839057, 4.262895559429329, 4.339906110681093, 4.367361261651866, 4.31274738627772, 4.279826779473352, 3.660543584386955, 3.1300704577770273, 1.3065800627172075, 1.4321679938372662, 0.5691266037113162, 0.6592730404117061, -0.1534909558100605, 0.5195520144574945, 1.642550604474387, 1.7116731194755335, 1.9155832438201084, 0.38914258194880547, 0.9561886683902799, 1.205428196327752, 2.0069201669296595, 1.9630609580637102, 1.9108222116958993, 3.3085581976098544, 3.8861784063215032, 4.100833896814073, 4.30797529852268, 4.3455304864870685, 4.34747958067383, 4.387200036774332, 4.364031770074793, 4.298085519682177, 3.9428791693587284, 4.136781262441263, 2.841227164447411, 2.3525628478423464, -1.4931139477968371, -2.3229816720640946, -0.5835876745935402, 0.5877995033572455, -1.0053305486045094, -0.5297968192979997, 0.990908675723132, 0.45810550683775736, -0.6491509632686396, -0.6701646120064422, 0.3748585025885274, -0.06978342240747362, -0.11740601703304047, -0.23604777937925966, 0.4118956102120715, 1.007149752023161, 3.228969728539865, 3.7136098657784826, 4.237370289193929, 4.303128856337815, 4.346923565669846, 4.342816162590753, 4.209290928260617, 4.295273501285558, 3.5648708343242563, 0.4346247692522231, 0.3071838679034706, -0.13540345785898225, -1.8084581890267302, 1.8817418852425223, 2.80673385143996, -0.8740246865562011, -0.7923065630683507, -1.9780758811754613, -0.49332164651771554, 2.8723170215595055, 0.5433917669530933, 0.698438846661518, 3.0517249642244226, 1.2639574816763688, -0.8086069270176593, -3.564609295836642, -3.9545438592378366, -0.9440212192091486, 1.5365794729886277, 2.7443535949356774, 3.8891449973028673, 4.293021839943633, 4.3356135561271865, 4.275706861605454, 4.2015063557227155, 4.019089163680007, 2.1815492088478647, -0.8215984374771258, -2.3815764872183833, -0.7153682775341915, -0.9861672584874906, 1.1012541671506821, 0.6221748908427138, -3.4265991244056964, -1.7110327881251326, -0.3011589643542514, 0.32806158750982295, 2.378620210876224, 0.6760587299718746, -1.4184647116331466, 0.9547891205121579, 0.10641053826194022, -1.7289563303625723, -2.0038890825614812, -5.0713014836631025, -1.302101298504962, 0.8979238520953705, 2.5337195053328836, 3.9995922436200697, 4.386253682735107, 4.302112119122801, 4.264506255881099, 4.209082076433958, 4.0330158233269815, 1.5537398603453785, -1.0831835753180037, -3.8240797254419445, 1.067689084376816, 3.7816733105432023, 6.169416672134489, 1.7748484799326174, -1.3706112612276338, -0.05810258946017339, -2.012662690992736, 1.583710838094018, 1.43122171741156, 2.9295002606942377, 3.4699023706946845, 1.9639864243430722, -1.5175816627359962, 0.7768951698381368, -2.0325995080764008, -1.0737936816040905, 1.1231102865619633, 2.651203122957905, 2.7888972908576455, 3.427996556468613, 4.346213517013914, 4.276803265517173, 4.171997290983787, 3.3821179306601343, 1.366164000513922, -1.9425806965890633, -3.1906944576999794, -1.0983616495765638, -3.028948918924517, 0.0705658106320676, 1.2803439601787443, 4.124690773344038, -1.6478491422174768, 1.7444014037639202, -1.0588388212518127, -0.3679374734475853, 2.439992039443866, 0.4638551811408342, -0.6795256913183414, -0.21396819874152107, 0.8978551958027666, -1.6244308931835494, 1.069639842925012, -0.727513872841095, 2.643710793116966, 4.265092607459911, 3.2422139479327012, 2.4314713784169313, 4.2037590384470285, 4.254699076560093, 3.746233070665606, 1.6988562935767375, -3.294956315206035, -3.2749090649102883, -1.967890948219697, -1.8560590049617707, -0.35804967692611905, 1.1659194204091579, 2.045559687979824, 0.29252532841237655, 0.567279158949801, 3.1324156652151722, -3.0285920520540053, -0.9025465562799487, 3.9332108327706767, 1.1530345641279978, -1.9213262813654493, 1.0426719168590342, 0.31547557451240416, -2.169335628657262, 0.6888585722638241, 0.9748291739169817, 3.1289902105436442, 4.1542176293009625, 2.306268330916476, 1.8787916109696043, 4.194027434115859, 4.243073843745974, 2.883735228359534, 0.9464929737154898, -3.743063499572306, -4.219594365154541, 0.40491391036014235, -0.42523212818937584, -0.7416714836829003, -0.20204407400855756, 0.8667814093352132, -0.110854728763022, 0.19423171190441652, 0.9086832694661512, -1.310810684053146, 0.3964937318539143, 5.163097560079188, 2.490104655480486, 0.8958909372753957, 0.2367315464299196, -0.7263421336284215, -2.217101805998943, -1.0030861153487642, -1.541041318609549, 2.5382492530204015, 4.062138704310399, 0.9195221916064517, 2.722689932386258, 4.531569713195386, 4.115216397875851, 2.8496913851525787, 0.4246296171968718, -2.253227476335007, -5.17245240190161, -1.0928879305635704, 0.45994720542187345, 2.5673807917758555, 1.1393014281741718, -0.0016808442946257, -0.779737200884304, -1.2338099488443712, 3.5484425560006096, -3.8557705458392864, -2.289737972966108, 2.269087728710747, 2.163499900278083, 2.7775029574357704, -1.5824474687759325, -0.9752069349722682, -2.454813329080788, -0.21855130666975792, 1.7940169499746559, -0.24224407833374306, 1.349385510288602, 3.5337854594885147, 4.6188859718318, 4.3233776443218765, 4.178682375771752, 3.357596154503463, 0.4909189518743922, -1.8464187695886827, -3.5568680404415076, -1.0762565028478897, -2.5265856723790163, 0.21980746808168855, -0.8541924294011974, 2.034088971014077, 1.1889721979027073, 3.4556752042604453, 3.314347154013793, -3.5106748365531923, -0.721236876343576, 0.34454039381621976, -1.2203995266831742, -1.066644099344341, -2.3713708818008645, 1.9726897080255947, 0.6449169601972897, 3.462628677306061, 1.2353217177870734, -2.0848045647095215, 0.5081767424539868, 3.1698369056569944, 4.048108326285349, 4.318858046937075, 4.194609939365967, 3.9798744645913007, 1.644194343368167, -0.287671665352982, -3.348601094642397, -0.21195625053517522, -0.6859707572347444, 0.7076791129795185, -1.1932305160395338, 0.8318430567570175, -1.117694868683058, -1.0722464206793334, -0.6896588222672947, -3.472342692963002, -2.984900278610939, -0.42863378044621675, 0.9898590579721058, 0.06975601755165348, -0.4374425524058473, 3.042378141932231, 3.976701662066283, 3.043409184589201, 0.21829014803659585, -0.052674562790556795, 0.1447806893639942, 1.9715391490064054, 3.447411798912864, 4.236258259610514, 4.4153387938170185, 4.173260820125076, 2.982598144791901, 0.8361217685322178, -3.2546925691494284, 0.035543462197372214, -0.03592760841668891, -0.15741721971196096, 2.881208109786057, 1.1635957392775176, -3.0689461578382757, -2.198187342143711, 1.660410056615405, -2.6776585475997123, 2.026998779521503, 1.0300504459171989, -0.7794830456279874, -0.7692062066987867, 0.975379412193261, 2.3098417574329004, 2.1543250349195793, -1.4311318317853603, -0.0840617715579655, 3.5103834637598412, 2.277243267261587, 2.3647776149415076, 3.942523678527936, 4.370171082377152, 4.46561119880049, 4.095042544456256, 3.5869058430571403, 2.215247578623108, -4.083900100606677, -0.5438098422194207, -1.0371913081170974, -2.1729308692354405, -1.019185953948865, 0.9233071906890494, -2.4366243843382156, 1.9822508117121866, 2.069647651146161, 0.38439220469631685, 0.6811815320548597, -1.9358273595660629, 0.7252571489823939, 2.93732976057062, 7.681663790476014, 0.9087924510134447, -4.731476485690749, -2.123769921651782, 1.261764666685698, 3.4259607714862463, 3.601169304107246, 1.9530131226360918, 4.73503537039176, 4.311861063486058, 4.291737547650922, 4.017923888748865, 3.7352496429929687, 1.9117786813893363, -4.857167318504372, 0.4241082275210493, -2.854045735458055, 0.5712809755478391, 0.6140572798091479, 2.416860281781585, 0.6191303295468699, -0.40679539582524343, 1.3624416304778757, 0.603896094832462, -3.36650392497491, -1.9426448250764672, 3.3685148373123073, 1.2757707959430074, 1.2341501735437903, -10.359636120827501, -20.78957888915438, -8.639872095203716, 3.4093721426954673, 4.008362605273364, 6.785521573595702, 2.575435284941095, 4.05712233794946, 4.1911562521922, 4.384043890240452, 4.174771555722208, 3.824376644480503, 1.7995312809849904, -3.132402697020039, -2.372656456941821, -1.0340259544570591, 0.8008271664604886, 2.790445769837644, -0.12899716361410146, 0.9267784155979006, 1.91193867490876, -0.21738720002605602, -0.3592392020944177, -1.5216785373815462, -1.3050779401847035, -2.7343704210252104, -4.296500380255528, -5.666151453402494, -19.069894895644026, -29.012934500519997, -13.127396216240106, 9.786683789188436, 2.9946233420560953, 4.738026699409758, 2.6235407513663986, 4.042889238663808, 4.728291234212098, 4.340192485963034, 4.208422505297717, 3.9382589720846166, 0.8867187996209666, -2.2200711352062457, -2.9167004097384748, 0.8669985235235413, -0.1433772180859529, 2.5474213008646274, -0.5470843628147721, 1.2986989473816903, -0.15770876723212965, -0.5334215988580071, 0.5189405483582289, -1.2668322414376056, 0.738738129541844, 0.4843070376157889, -1.9213076802042874, -7.82889207568873, -22.8271113030717, -29.152314952904547, -4.333648682641683, 13.896567671479122, 6.017685600844538, 3.413141021177826, 0.9635204648129438, 2.585749471772279, 4.127083747062961, 4.366241804091677, 4.1248460008980095, 3.0695191914084776, -0.5616708286719981, -1.3323300466819321, 2.284428127276528, 0.33056382929195866, -0.12378450754064424, 0.47656201541901483, 1.3348951107951972, -0.3767097217329058, 0.03901888288977873, 1.739341239723448, 2.2381249693658742, 0.9312027553028117, 3.519990584958109, 3.7134446496583213, -0.5875038451494623, -9.52879694837052, -30.175972130842858, -15.47090397595749, 0.970588269057816, 8.409151002973896, 4.848992784135897, -0.987027360595266, -1.550942582452751, 3.123282101860761, 4.146518477540117, 4.336543794327442, 4.148127838385456, 1.6399273928161653, -1.2782058709694497, -2.8847725597502625, -0.04402270027521137, 0.9447322451227805, 0.10986531344898484, -2.0216458022421366, -2.26455767631081, -1.8787661389588481, 0.7722606049373052, 6.82133538603067, 1.8735848308700822, 0.7129707525563288, -0.902480590219937, 0.45910175133999226, 2.043191186922368, -0.5203719729436357, -13.182524183734717, -5.527665783120187, 2.005912937616489, 2.2786685955236274, 2.9077568568010506, -1.1881099393723435, 0.20760862259930843, 2.9249391264423603, 4.299035720542851, 4.308580205240134, 4.025209880287874, 1.3932053281892878, -1.5264435981399305, -0.6875530157333982, 0.009124264011061964, -0.6782723961979824, 1.5609142942117848, -0.6564493789583993, -0.19295231671798294, 0.39915735865556445, 2.879368511215909, 0.004073423921146652, 0.3284837646283047, 0.5315809175199748, 3.6117857204950443, 3.3697170035009973, 7.2832826198138765, 6.008502658964985, -3.7357777984271987, 0.6909003190346025, 3.445917020364992, 0.23979801664279457, 0.4498450147901323, -3.2408121942199806, 0.03921649508895392, 2.8791442880384155, 4.318107837583828, 4.347614595833727, 4.047710178558334, 1.6177937149414199, -1.3919034745761643, -0.08161675994490762, 0.9787384261875419, 0.6334342716665328, -0.1429539015399564, -3.6319333454242626, 1.2970600550385862, -0.5239111125171255, 3.1912823486867823, 1.90935602107357, 6.236095656607235, 2.997496018324696, 3.578135643885191, 7.4716860507872065, 2.3087910075790306, 3.0562483801120623, 2.5320526575326245, 3.543474463520193, 2.6338333729331236, -1.8999192865526184, -2.905454191186279, -2.3758624619831696, 0.29878556999686345, 4.053376461922797, 4.346234883356927, 4.3900906442432674, 4.3506304979011, 2.496686087999848, -1.5730330719910917, -2.616231426246444, 0.20196494698238077, 2.044641560799815, -1.048683408843668, 1.5837873568662175, -0.820416281505656, 2.078842400094491, 2.248274296951309, 1.9478844626985088, -0.9838709634924397, -1.9290336431627377, -1.9432064876637574, -2.0576621230909247, -4.00139917247649, 2.865869130060478, 0.9647750957763356, 1.8455467076394694, -0.6485670271566216, -5.763059333874322, -4.006901722683576, -1.4312344350220223, 1.957030257194389, 4.200070905221893, 4.299504482535599, 4.271200445655501, 4.328775591420828, 3.808110698967341, 1.1609351770436642, -2.0506655318839297, -0.3984528085375685, 1.3592585187647146, 1.7206870762793118, 2.9663984771998124, 2.366046389955693, -0.5811497066412837, -1.5624933671090964, 1.65639946080068, 2.4646910776034114, 1.9187529150214724, -2.6011047612434317, -4.148878835618264, -1.906687762465971, 4.952483479694115, 0.8963896944449982, 0.24810535434596578, -2.6151791223508454, -3.8931948765518243, -1.6205566798928022, 1.1390391001318774, 3.7197293752232428, 4.416077513024119, 4.287605136072393, 4.326849354769803, 4.3824364656260775, 4.239268672496175, 2.6734507913353944, 1.3541165027320974, 0.41461262504424357, 1.7426629958701383, 3.196547798645119, 3.289137183008051, -0.5277623852552, -0.2115094914593416, -1.1292044422113092, -1.1238878360599318, -0.2989669740888048, -0.004559135008829071, 2.118446467051162, 2.323152776304787, 0.8838245506029374, 4.068644733123323, 1.4477061897361931, -0.6223830045818445, -1.3928061335631585, -1.3873563826862745, 0.3827478678551836, 2.67872986486703, 3.855495723141451, 4.282055471991302, 4.335302740635126, 4.312052086754005, 4.27053386204681, 4.404052368117631, 3.732124404011718, 3.525690574485959, 2.07552072660897, 0.1327148386903345, 0.9859655618021699, 0.6402635858650475, -1.0613273579382625, -0.9615100317541095, -1.1660104066431618, 0.6189466768636512, -0.314650954864907, 0.9114539896038735, 3.29240299739714, 1.5081107628610908, 0.8325548247434061, 2.6854890244260794, 1.9608993296182162, 0.6310094869785124, 1.5227500288828737, 2.3259458778157174, 3.316777516884403, 4.23038425115441, 4.279578260130912, 4.329619275209748, 4.36177611438593, 4.357535835705986, 4.304913704699374, 4.3353689511833045, 4.298680624860126, 4.154904917241181, 3.029451595130712, 2.248344567581135, 3.2241236429796225, 2.5971732352281625, 0.12613107031019807, -1.5923390757774718, -0.22798551340326914, 1.6945722919074744, 2.1980627651769105, 1.765042465079578, 4.392250621877473, 2.6421468011024176, 2.424617731807395, 2.93082147096752, 2.3154139784604304, 2.2762489745862196, 3.2719574834696443, 4.009124661698455, 4.397176877727644, 4.365673792907024, 4.258279204778179, 4.38068903036524, 4.326946007295896, 4.309905379337921, 4.361549491641839, 4.32542348774457, 4.355080878827692, 4.306668613552896, 4.215872893261742, 4.0282373625560375, 3.898593577836393, 3.27557141703289, 2.761450644490166, 2.550809702447621, 2.992198509780857, 3.7148031733919207, 4.270391017609776, 4.389893611820804, 4.461131788444204, 3.5179106484344493, 3.7507361074528838, 3.3272585016699097, 3.4300272989850566, 3.7620173080294976, 4.106848236273069, 4.319778442770376, 4.327916864057802, 4.32668032361573, 4.329978507208538, 4.336214537838374, 4.385384466711339], [-0.28295149010010806, -0.30927197727355377, -0.35291037133570385, -0.29006681991702293, -0.3365751432199032, -0.3306943376905374, -0.300099806220624, -0.23590882077304134, -0.3154009045632297, -0.3367006583325472, -0.3513339075429424, -0.3592173807133397, -0.2911939556634046, -0.39597992151441347, -0.44246313737327486, -0.24672197690979716, -0.3672458445779256, -0.3578853436773319, -0.32044673501761584, -0.3924721156172664, -0.2926443654658644, -0.28313300588782814, -0.31196608898306283, -0.3457513388334051, -0.3798618976230405, -0.33940446317069056, -0.30955896496708474, -0.41951811110485443, -0.25406649879754656, -0.294484202886305, -0.31040723086745275, -0.3030025827309876, -0.3309737783181483, -0.26680529570783856, -0.28462655033329026, -0.3360685514080037, -0.19339391900581263, -0.23810967275542952, -0.2696540790228524, -0.44328818844812756, -0.6217847323821605, -0.5509229177264798, -0.4946851942018312, -0.8365897525315585, -1.2700522045423024, -1.0012412671778836, -0.8309144967343053, -0.6821646023781058, -0.3447515174571308, -0.2828031724327659, -0.41209048639841067, -0.4420783149053274, -0.35994194150356945, -0.35014324742844855, -0.3142191342237732, -0.2515682794444447, -0.33465137910055004, -0.3782763921962286, -0.2939902655305298, -0.3061091053126885, -0.4641685562452466, -0.33554903165700783, -0.3548874454462872, 0.029484385722528532, 0.17178148575007776, -0.6413544456527525, -1.2523171009619165, -0.8000390401814432, 0.9413578734644824, 1.8926528326585934, 1.6909022938093172, 2.14290999570608, 0.42994351755693533, -2.9290384049673728, -2.399814198254281, -2.2027804436997274, -2.3643853543570277, -1.6186982251923814, -1.9800621217188779, -0.9727600092445854, -0.4178001290958077, -0.29656783659660774, -0.3056662012368732, -0.324555882733967, -0.3764381242615163, -0.3318773977479194, -0.26934035220226576, -0.43139948429654923, -0.3877437994185186, -0.29571278419546265, 0.14970171981101937, 0.6508070581411279, 0.8406749136265264, 0.6335465163208998, -0.40365321189070197, 0.608962446664082, 1.5600756555545015, 3.2129005440436544, 3.996620591583226, 1.3823395507227174, 4.00023011803117, 1.516788180017739, -0.21194812190019338, -1.6589891025885826, -1.5737073149537282, -1.836539939764717, -0.7982532098313766, -0.9503884990842645, -0.768989018086672, -0.1626131159811663, -0.2737586652828285, -0.34386213934421356, -0.284540329433335, -0.2663665907892579, -0.23305915774038796, -0.21979835847610166, 0.12648788672782188, -0.32714489142365644, -0.34934160522086855, 0.9506818252984545, 1.2068810462503372, -0.1598214346092235, -1.4958771154268076, 0.3475921179281328, 1.2091404186645878, 1.849732518886803, 0.79632855632936, 2.3730593231046386, 1.4785592190446852, 2.349023950829183, -0.049990599522695515, -1.7730684681531885, 0.38554508183884806, -0.6739914565803816, -0.7321408894120311, -0.6438506829445688, 1.1499315832961148, 0.44895027584573877, -0.39022738135897767, -0.37306522969093575, -0.2591796248518166, -0.24719541178921553, -0.3508270552100104, -0.2816474076175039, -0.38660058439420353, -1.4455876645850516, -2.0549035321371263, -1.9131502155172957, 0.13516420945832103, 2.2530114672515227, 0.6259854118307404, 1.0406591986524634, 0.9504809374778941, -2.696340098040539, -1.689715253332007, 0.6305713072218193, -1.8439040512479212, -0.3450504333174028, 0.47184834827028505, -0.04190399973900167, 2.704127780941495, 1.4561667079879494, 1.2349431463129223, 1.194339903288013, 0.9950807132881658, -0.7486933099947789, -0.771999746365658, -0.31993413060241976, -0.33655638089631373, 