{"name": "hl_8", "layers": [{"type": "input", "nodes": 784, "weights": [[1.3635635491654141, 1.361949012148358, 1.3166086784157147, 1.3187421508039732, 1.2977687873816945, 1.2814981900191356, 1.3117586364752638, 1.3064564347901522, 1.2862393357368722, 1.300364177100764, 1.2881260644755144, 1.3334395573175315, 1.3799922907204323, 1.3564566575577195, 1.3023323017986868, 1.3375352982468698, 1.2954064803179413, 1.376765778180482, 1.2896891754608166, 1.296659352097461, 1.2700172619458345, 1.3244621601229745, 1.34229197193519, 1.3085287503404444, 1.3633695712351535, 1.3176058413409977, 1.2926456505552926, 1.3215366339346533, 1.3313602700726452, 1.3574234978056925, 1.3068243533565016, 1.314499873993952, 1.2852001486363935, 1.3630566406167142, 1.318412118571692, 1.3156428367403077, 1.2944714121247434, 1.2964771602449652, 1.5931252400130727, 1.1372332009830781, 0.9497921881766356, 1.2991361906637506, 1.859883978283286, 1.66271151680671, 1.3305154239299914, 1.287485919450089, 1.6477379029542059, 1.5222599233055503, 1.3857649290455705, 1.3676913756681763, 1.3143350935640943, 1.3212541507253208, 1.3343807990176666, 1.3207107483561815, 1.3347416060770558, 1.2474943997911945, 1.2834528558552578, 1.3247100995916177, 1.3440810082297365, 1.3293845173680716, 1.3242657190360216, 1.2730207909273263, 0.7176579728934073, 1.0821138883432633, 1.5469704613911408, 2.6320552538035864, 3.0251989193761513, 1.746613510148118, 1.7467038241042532, 2.2413593555360967, 4.407163255810322, 5.830617320595547, 4.302960959021065, 4.311891979994233, 2.9760653517620326, 3.761994720664988, 2.9621326267747734, 2.600248611773233, 1.6375185305408733, 0.8729105364703691, 1.469322432627658, 1.5327573189430637, 1.2874757112402455, 1.3026449512261387, 1.2925222307518531, 1.2529849780200881, 1.2833057677273516, 1.40452742950541, 1.3576780514396738, 0.4689634905178568, 0.12480580921072448, 0.7527310991931776, 0.3467873595932712, 2.683707585329951, 5.195772641979285, 2.025411493449538, 1.0964170143607757, 2.909718016878825, 9.873890822023698, 13.792658987213494, 8.796266743009463, 4.838697553225383, 7.97965746365455, 6.431191192216173, 0.342951203181558, -0.4307023063643728, 0.17488918255097116, 0.7787447132580454, 1.3789715724425062, 1.6700802612790326, 1.3008917208695485, 1.3234842824978368, 1.2976402532552105, 1.2769423555814443, 1.3509884912741779, 1.428572985599966, 1.7135257966861526, 0.5706000346073857, 0.45111261131693897, -0.20613800454748882, -2.3816421073513934, -1.6181020579037313, 0.5796324922736021, 2.8199444619691234, 5.712159488172558, 1.5274051003831728, -0.24648168600789216, -0.4916935381712918, 1.7313288990460987, 4.153383722083993, 4.168883419793377, 0.3507697859229019, -4.824325094145276, -3.5245431987925397, -0.6590425780641566, 0.4118836320017806, 0.9601761224063503, 1.036989772572827, 1.3036743202971992, 1.2966341620901485, 1.3746818185880048, 1.2785186994155797, 1.3110975476169107, 1.3658706610647389, 0.7520281020703224, -0.45337336944630713, -1.6033600404800867, -2.5075582511672625, -3.2892946403165424, -3.6785501228080353, -4.309317868256751, -5.215023729586981, -5.55638158331994, -5.23067984744431, -10.048970132088373, -9.715674625360048, -9.454599856586528, -5.661593803750445, -6.235050551836458, -8.99627410610564, -6.959550804804302, -5.186817778344256, -3.932617744809411, -1.1361259456589738, 0.6862009212868172, 1.9316029446587994, 1.4900408524518285, 1.3422110833614325, 1.4007963716839043, 1.324166737972433, 1.4655159177971164, 1.7621366574311015, 0.522200713862656, 0.3029956047572478, -1.7064077795476384, -4.441820394202062, -5.885675698649946, -3.5813883552973924, -5.283623909950763, -1.7576572403851736, -3.243797107155256, -4.720589439846533, -2.414809160347728, -3.4673333972775424, -9.17793416463443, -9.525372680579487, -7.330576382052619, -10.93740360345444, -11.46863151051459, -8.854639160176914, -6.347807096435116, -3.623823180075443, -0.7991812405640378, 1.829330583765374, 2.1996235532040584, 1.4799548278695427, 1.3494483325578002, 1.3486665223769165, 1.6033564417991562, 1.9172979727063917, 1.311066736502389, 3.8978262188492026, 1.90549445350557, -1.986427904033634, -3.047403011314815, -1.3122171025746712, -4.348237391250159, -0.454871778134654, -2.4738222852973544, -0.31178284401726675, 2.594032091903466, 2.4021596432748806, -0.663290389746412, -6.199679239680251, -4.622923453366619, -6.586914039236511, -8.39783050441535, -7.5882773376911254, -5.272419958438874, -3.8916089229746174, -2.595774329776006, -0.09115819377268562, 1.499793891499592, 1.607173273544763, 1.347853999316082, 1.3894974411923038, 1.3663105448911061, 1.9672712508125896, 3.5105935871464444, 5.317764045900854, 3.642816102666676, -0.26608752725839513, 0.711534558520973, 0.22446213141245702, -0.8520370023961232, 2.288343388465857, 4.379646878363728, 0.6877085635809272, 0.08844560716734452, -0.5718477751645127, -0.2436576335586281, -2.846822543184343, -4.0264859521773, -5.665506016845603, -4.094501898131905, -3.814166368219332, -6.142549878132404, -6.940624197326292, -1.1473307917492679, 0.506548835746287, 1.0278153736943445, 1.5999935239199423, 1.3239755394924488, 1.2897223243810645, 1.1138748734209574, 2.5072831825911517, 3.6175691168377453, 3.3969085093988154, 0.3765235525253982, 0.0035959044526572177, 1.013163230196887, -0.8241925511155788, 0.8904287924151424, 9.022326709382092, 9.64249676014941, 3.4583288603909503, 1.1465499819657212, -1.2822490514999099, -3.7365738366573202, -0.1509710548456451, -1.9159539268560564, -6.875158501104788, -6.209319572489057, -7.9040693301613185, -6.6324887683696225, -8.881752827080453, -2.8634878604076235, 0.2788509273685882, 0.15660443632515036, 2.1835924914897693, 1.314287206811005, 1.3221487547225954, 1.1826005216316433, 1.2952477623605347, 2.7559326256960097, 5.232772015854821, 5.94027569760821, 2.397984943352837, 2.1126261194721825, 3.2251033214899123, 3.317896682699337, 8.430937335989212, 5.797321867820865, 2.4023050708312423, 0.7126354440760584, -2.1953547761624566, -6.505638970686137, -0.9676981763008572, 4.079783372973898, -1.830633353236383, -4.340302449268487, -7.128080752877093, -10.414555007477478, -9.49116392420597, -3.513430029948199, -0.0687927497273828, 0.5071328657280697, 1.2321183797050037, 1.3585230168476095, 1.3164791619351077, 1.2567652215374843, 2.1774631352300573, 3.621871770691824, 5.84403918931463, 4.758647387793607, 1.1000876835039985, 2.8082387738750167, 1.5121933247668735, 4.061768153448635, 5.290447679688976, 4.74934297783558, -1.558289014262804, 1.3403110811776862, -4.067947313384338, -6.151540812839086, 0.9279181329157263, 2.5317079084356324, -0.30561617874015423, -3.366676611628161, -7.4433618258752725, -10.215254025194744, -8.492011849244095, -2.1297685825899424, 0.8138644092241263, 0.9790465457684894, 1.3656261502414986, 1.3299986779984145, 1.3699630119926436, 1.2249708874154595, 2.0961271190506268, 5.40651171379029, 3.3093811061622413, 1.616237359805759, 0.9955336496978763, 3.5776883329295903, 2.1369431026037704, 4.551891647613084, 2.223022333688423, -3.9456465470841655, -7.356448439667874, -7.544788324244567, -6.308066640988621, -2.0418060311804056, 2.435845517288075, 2.2653167842836948, 2.536428789647675, -0.10455429632032527, -4.26989664627432, -6.847913681986385, -6.031718446574531, -1.7224354286953305, 1.016730435870182, 1.1630971041351637, 1.2866204822099103, 1.3359622153529234, 1.3358102120483815, 1.124470877558138, 2.679976920366187, 4.596894788818233, 3.1700227214922565, 0.7716713010409264, 1.8268548530527076, 5.377814357953564, 4.282597634209092, 2.0103946734974465, 1.6058044329688101, -3.0851534915284873, -8.92267882508462, -0.14344602016879665, -1.7067996625770216, 5.025532595948005, 4.279801075646493, 8.800724280557663, 2.2364429544504403, 3.0086697955931196, -2.499038176984759, -8.032823949788005, -4.311772200169564, -1.8016630728332628, 0.2237358765544172, 1.4955223491788985, 1.340300868193931, 1.3352840087162374, 1.3058942363096127, 1.3866080213224143, 2.1309106371439697, 3.9033210827480103, 4.005783730565807, 3.5573830510912354, 5.991728260367564, 5.674228534431447, 3.6516090931634873, 5.875415855334034, 6.6558879825983, -4.425085160505372, -6.670937623599817, 2.423254362770475, 2.3666337305066563, 6.977978511338916, 9.338063266210884, 11.22902909838166, 3.601339219602927, 2.3353900548295172, -0.2487492467647091, -4.668866000348398, -3.7302944964415583, -1.93241218279869, -0.40713327249109316, 1.4111407863485228, 1.3253480575615513, 1.302240371694527, 1.3070522007987204, 1.4828979341586617, 1.9563632933630983, 2.323611390562918, 1.0594311307446618, -0.17111867070823222, 3.808675899520406, 3.3773381900716277, 4.675736327844903, 8.014948886664417, 6.0593830508551045, -3.1191061152415505, 1.9898597735364214, 5.072583504960095, -0.052945193067770645, 2.171895153016432, 8.831609075116901, 7.552158639170668, 3.370635237383384, 5.797937484165905, 4.774731117731538, -4.40661709743689, -4.669316172716519, -2.3051415730381657, 0.23389538264157322, 1.567334364154552, 1.3043075102878319, 1.32676710966465, 1.3566187185269944, 1.191610229459809, 1.937551796302083, 0.9174209306430658, -1.8012699389821611, -1.153961157357343, 3.7827725634015064, 0.023915179204464135, 6.276569630213737, 8.147619960205835, 5.182944255340073, 2.0261596212084982, 4.831291774485691, 5.731794567211106, 3.072235354510601, 6.882823796362191, 9.532715543337561, 3.9685972773741156, 2.2769096322638496, 1.6512761988676614, 2.6476851427148085, -1.505320590154953, -3.5837948912934596, -0.8439249918870979, 2.3965765969454615, 1.9252010450817152, 1.4595451736499752, 1.294534576571401, 1.3560472967225274, 1.0306213964551367, 2.1713274702622973, 0.9908021480115217, -5.524792468044872, -5.898071399130148, 2.84666315175383, 2.603520746963892, 6.176247860058028, 0.9712022798327953, 2.102620911567832, -0.8082486524181304, 2.2796228292619123, 7.387602255907719, 4.94263760828749, 9.000624161293164, 9.511326834265065, 5.418956650484203, 0.1340621228166575, -3.6073660890836825, -6.061295849064575, -4.371752217206589, -5.329941887941913, 1.6165289987100286, 3.764707903196933, 2.4727579924234915, 1.3729952112631998, 1.3221948201708889, 1.3075404490111486, 1.1230101277680533, 1.6746151197029981, 0.5884145181230825, -5.4410649095106365, -10.03464284716566, -4.256903019061118, -2.608091911161574, -0.9383392187738937, 2.1469607690966317, 1.9342101716700366, -2.818039836265663, 2.2282872201429087, 3.145213246292682, 4.660021837128204, 8.79349587650437, 7.699153986526253, 2.7994012023905275, -5.905628698282917, -6.702681159260876, -5.215352877483402, -2.7363252381489627, -0.8976540398854063, 3.781345319375554, 2.925957000652381, 1.977496184856445, 1.054904895846188, 1.3309697118013584, 1.2624168934077433, 1.40419414835797, 1.092269182306283, -3.316243147243653, -8.713282523986168, -15.100313581524821, -11.59899714888357, -6.801761601646436, -2.447402929537492, 4.645303198838135, 0.03783707796084553, -7.093796032144994, 4.678549069845118, 4.10733988810824, 2.2019861744946905, 5.622635010478807, 6.16230905208877, 3.085690730277681, -2.507800608775401, -2.1069724250390918, -0.2569029855329277, -2.9853843666798268, -0.8349522443446303, 2.8351113659905, 0.19751468457089527, 1.2240707814710252, 1.101198164312093, 1.3145865757399715, 1.216897823303025, 1.2496194213827412, 0.9531410238797492, -2.038707501400697, -8.96934329941006, -14.737816999609354, -21.707194084766954, -14.305702501856635, -9.948013545929735, -5.146580677884339, -6.216247988644891, -3.6578853511388534, 5.8885126528888, 4.9986411470065475, 4.464049907986633, 3.451645288124652, 4.004129470735412, 4.0737473226102185, -4.2331003246423675, -5.8351435170480155, -3.270332479240844, -3.864427065534517, -2.415697194039659, 0.258709547955401, -0.2791934197369887, 1.2120769016502566, 1.3550780484134797, 1.3953361138758718, 1.2935337689146071, 1.0321435374621923, 0.9096881044585684, -0.19668628375496794, -5.821988336519809, -11.7640613922092, -18.22205491076099, -19.138598270469778, -16.891950759362, -18.293161019135397, -10.48749766722212, 0.44508872853721454, 5.792279316794127, 2.145404527241058, 3.9482257139012154, 0.9718818376768545, -3.794762598355713, -3.0930486707966494, -6.942425954953286, -7.172299676394992, -5.164839356451562, -3.29528728073475, -0.7080815932733016, 0.8775786952114986, 0.7783378964073466, 1.4411291521667675, 1.3450057313352048, 1.3408765707004036, 1.2856194069139861, 1.1590620871967614, 1.2818029160554498, 0.6212923645287107, -1.1564593721221372, -4.954465764407398, -11.665501796084802, -16.94368078330882, -26.2509160826339, -25.918453115726436, -17.815695953770668, -6.615528691131728, -3.8901559636455074, -0.18254663257404605, -3.4863539619601083, -1.0865482211654653, -1.6608682684144258, 1.2006838101645279, -0.6554847081352182, -0.21572207574230493, 0.729809172675847, 1.8179316562552341, -0.5613434218962622, -0.16498868221413915, 1.5637770273389668, 1.4794277519474912, 1.329050105632855, 1.3036720900463976, 1.375249258384526, 1.2680405480838917, 0.9102194187869468, 0.5772280412736175, -0.5681161055745734, -3.6047897545237118, -9.432992720949677, -16.17580536710438, -22.694463267660883, -19.025009908754395, -15.45877606682068, -11.349698539904658, -8.432665143532414, -6.590878092328238, -5.353121862576311, -0.12898120715602224, 3.709181420164801, 6.991674182315095, 8.231564621029786, 7.5101782894877465, 5.298531430702481, 3.092905190805209, 1.194225203938347, 1.0653690411218208, 1.3310301547288093, 1.369610433614351, 1.2683323159255528, 1.3008059440847717, 1.305146790171844, 1.2712997822881138, 1.1577104611254918, 0.8111232398187583, 0.017909246253127058, -3.817962185240839, -9.020888092093784, -13.900506039627397, -15.50385873041857, -6.374727550965017, -2.5819763710602506, 1.8259942339252215, 5.53488962425822, 4.114132448173718, 8.245808294485743, 10.511861260888143, 11.239201716832875, 9.423087175145888, 6.218838357795655, 5.604570177494935, 3.264815166582473, 1.7599029287154784, 1.1317969345132268, 1.570511556144803, 1.4155248653556092, 1.3955115010723946, 1.2517184980307876, 1.3426553820828055, 1.373326889551759, 1.2861506566154217, 1.3866771236840583, 1.2198973828963664, 0.8890130143922823, -1.5861975626885798, -5.038597118184126, -7.299775333532649, -7.027307730305362, 3.979553650266807, 7.402203668674065, 6.761614987866308, 7.570270320522329, 9.354574086682545, 9.209553622751152, 8.461728159024634, 7.0394320701431665, 5.852950812098978, 4.490839544556072, 3.1300858411527526, 2.2986924263721638, 1.5869117573912233, 0.939754591839415, 1.3495034512668713, 1.3208170014064384, 1.344498280162271, 1.3232983127390376, 1.2972147883366696, 1.287926158405107, 1.318136280532265, 1.278537811585224, 1.5403523739655833, 1.9168703030483398, 0.9519761735210858, -1.1508152476814404, -2.0338404775038135, 0.6387637085490009, 4.42042613189762, 6.513435519353299, 4.199749638678204, 3.2321110254678267, 3.229438699608146, 2.895632533268094, 2.4455137564160405, 1.8061003962536257, 1.8957525944733438, 1.963809212889506, 2.0593779898460363, 1.7145664326875818, 1.8358901616718644, 1.262471234984629, 1.273613941906289, 1.3444727583991205, 1.3243376804794202, 1.3493144221168332, 1.331350678247213, 1.2779882618659415, 1.3004779790511085, 1.3408885871838536, 1.3559223772963138, 1.2921209878452116, 1.0683418420088766, 0.8646593023104148, 0.8157600624569351, 1.1788470471870969, 1.358424504456072, 1.3892737463609621, 1.3950506692711495, 1.4956805271377407, 1.8325850427366166, 1.817710699190683, 1.5210408125258108, 1.4366663284971162, 1.5918550084921332, 1.303671567742516, 1.3339628018441407, 1.6534646020708048, 2.211993687988066, 1.448060140810694, 1.3285391853166657, 1.3200042376983534, 1.3002966545824632, 1.372353555531542], [1.194431672751713, 1.1930763211914643, 1.1636270319021798, 1.2258700227622727, 1.253974692761896, 1.235058260693456, 1.1582908667396146, 1.283812373328644, 1.275850585422987, 1.243554016147533, 1.2476087380772232, 1.2212984466262304, 1.227071581669296, 1.2245141823276418, 1.2529082483372427, 1.2357173856311687, 1.1501877958022269, 1.1757295190405348, 1.2281714711598843, 1.2404736970046184, 1.254691334310219, 1.2371510620434798, 1.2114501029275286, 1.2460090384058813, 1.2818306455376904, 1.1923780160790394, 1.2091214968362853, 1.171646695193363, 1.2496111277329407, 1.2143442718043918, 1.2428313186451934, 1.2739545961365921, 1.2315534088571993, 1.21385576863396, 1.1847014060924101, 1.2116570338233823, 1.2167814652996818, 1.1990552460090027, 1.2169637952574954, 1.1823046599198077, 1.1450014798415655, 1.137364438714039, 0.461529191234908, 0.3559655411462266, 1.5483017777849493, 1.3264515244326531, 1.265158993272304, 1.4237852786443124, 1.3676932933710049, 1.145041941778634, 1.2178714492366505, 1.2695110704569526, 1.2145458211877733, 1.2333700795665032, 1.171994477690139, 1.2289256053227364, 1.2325147157957523, 1.1994375292084818, 1.2693425135661347, 1.1799031939720448, 1.2080746892169578, 1.2286851206183111, 1.2293578503043665, 1.259534750221906, 1.1450607821970185, 1.0839193737509214, 0.43661681438156175, 0.5005338634023019, 0.3636692357214101, 0.81767014316342, 1.0477315085704744, 0.2316074303793406, -0.317587617215862, -0.9315852196052493, -1.43723628433779, -1.8330786796787981, -1.1721207695671265, -0.23169858694428677, 0.46452916562814084, 1.1498449402397224, 1.1762392646891906, 1.241642370534519, 1.202897212180748, 1.2698725588534268, 1.2608603134041967, 1.2944543358298424, 1.2278371937643688, 1.141659138581162, 1.2471272611034705, 1.2533298391375352, 1.0891075194880968, 0.8912252445232025, 0.7120767961684644, 0.12248885897755489, -0.7682747190193566, -2.1748912630112884, -2.3981889673316017, -1.8649887992123673, -2.4655648586026766, -1.5497917284917972, -6.8755350838208384, -6.899476423432319, -3.674707485702764, -2.5993938016464115, -2.0287020922189214, 0.24546400533976995, 1.7920405329798692, 1.5755617362840395, 1.426642144906527, 1.5595136681197022, 1.2452299097021082, 1.2637651619006405, 1.2459847876664611, 1.159502778282618, 1.1901112358418466, 1.1878921779797516, 1.1396059097238422, 1.1293236147443793, 0.5332592371259236, -0.5746505217656903, -0.9755805294580224, -0.7208748588704095, -1.734967761726382, -3.5702135123144707, -4.361390471467107, -3.5976879460503173, -3.6641818687902377, -1.5972422155138015, -2.8891363492806934, -11.183519524284447, -8.772418641905752, 1.1474621574109638, 4.037389544128852, 4.372866663754357, 2.9469494382282924, 2.7990916328706947, 2.5194277092343533, 1.3222450230151, 1.1711824832555346, 1.2258895328598352, 1.2869210427875466, 1.261309258311926, 1.2261841107965863, 0.9699618594325891, 0.7586209432168672, 0.5353035689075168, -0.9225209361899276, -2.855678525066684, -4.491326094596151, -8.219850301803598, -10.003387346084708, -10.929306669130224, -7.830140696224983, -11.571298154328115, -7.484949123394245, -8.860705456132754, -10.303678129971996, -11.203125146150837, -4.690619017378228, -0.11569589885867496, 0.6935711383036507, 2.814263702440014, 5.763919126182373, 3.965374409693672, 3.1182873723638806, 2.1791145784070682, 1.0151430004753224, 1.2706469670622142, 1.1688060636818085, 1.2622420150105127, 1.3843852446829188, 0.9888499384299194, -0.17614642966972785, -0.650086471973288, -2.208249980016541, -5.163917049471639, -6.7813368176065625, -9.433581175438826, -12.803742644581336, -15.2468227261161, -12.557417413616134, -7.310532573224508, -5.175396267414745, -1.6918290766619835, -1.0368938755847317, -5.652884882421465, -1.8187101327831185, -2.537941966230863, -0.3541057461819652, 2.020772105703656, 0.528979227801348, 4.844623267189648, 4.35358204994922, 5.016642963473788, 1.6796271294319385, 1.2657423619934036, 1.1976196280043674, 0.9487584947802661, 2.1153829777958966, 2.1432548349562404, 0.12584356631929586, -1.535249682111559, -3.665187827815941, -6.106921646782843, -4.703598255865016, -0.2513193362614685, 0.8465500630599092, -1.1761112515018632, -4.7283044182481255, 0.14242427860070483, 1.3104274768762925, 1.4917814871747264, 0.15871951400326484, 4.111586259705001, 5.9904158108691945, 2.501014761655045, 2.514528692354093, 6.466683547899155, 4.3911502798764825, 6.3032380521963125, 8.809184701840259, 4.355627074827574, 0.5072240645842891, 1.1530837947952564, 1.0747873379398893, 0.8882137992036719, 1.4218538532278016, 2.6717965010787186, 3.1936488131656047, 0.593656531737507, -1.4365282757020683, -2.3932794984508803, 0.2752623949331933, -2.833008199360148, -6.8527371839174975, -3.925652016539699, 3.43136184786749, 3.997658546285523, 5.41505944811943, 6.963301824780817, 6.888625596366916, 5.529407726168838, 7.832968121488099, 6.999132670038885, 5.782246164863278, 3.661480606861591, 6.153185771157844, 7.085111735616054, 8.241152589131158, 5.266744413471094, 1.4391361051213796, 1.341686689099695, 1.2535088867199857, 1.1017603751878573, 1.0919807261416379, 1.1196777334094188, 1.72057561234049, 0.8496277887265918, 0.7053335442394352, 2.6240662392836014, -0.49633508476212074, -1.100010455068579, 0.39734358372030637, -1.7499560269017236, -0.764020806864448, 1.4287795037029598, 6.7427436314735125, 8.445830768200809, 5.855178351591594, 6.97246533046687, 6.024647986821856, 2.565421073639344, 2.968685296151812, 2.1223469911065096, 1.93223963668515, 3.637618085802218, 8.496849366553272, 6.417973974466607, 3.355981590849731, 1.4486979411038747, 1.2854699738541437, 0.8151569335815129, 0.7529181251079248, 0.1533628211495234, 0.8727210194598769, 1.8644831535123214, 1.6492451933214458, 0.7889049066082248, -0.9447339858467484, -1.2202166565941843, -5.595273474750701, 2.4513880200932534, 2.166860522010838, 4.425187500398771, 5.308752501337843, 2.831028338050545, 3.825432235423341, 2.4910575496480223, 4.697705019241113, 1.2834677888371782, 0.9795625939024103, 3.80177000257614, 2.495007389358374, 3.691325626816486, 9.591246268943392, 8.538609593015021, 4.735638350699096, 1.6952310710161405, 1.096419048232478, 0.83266954493471, 0.4748485667299631, 1.6289836867175247, 3.0254293547029008, 3.524584617018297, -0.7524389418523564, -1.6840331379041207, -0.20920383129233167, -1.5098477677388555, -3.158308904278536, 1.710721620307958, -0.8332060416415346, 2.7793218661818933, 1.2280248980322241, 5.382146191825717, 4.769199705061945, -3.7855570346667653, 1.5523159320707647, 3.268512677625614, 2.3960068880074497, 5.035817137534143, 1.1234013968565735, 2.8167693320152143, 7.206886368654563, 6.176284450399804, 3.1449574652487735, 1.2314536585811202, 1.0514236496662448, 1.1509945420094407, 1.3308172351920973, 1.9451306337334957, 1.5982951466167514, 0.19124055402040624, -3.2957312035912874, -0.4876074382538329, -0.14255247729173853, -3.2169873145751646, -0.01801519617199464, 1.131438139064374, -3.173635532870191, 0.011627961516177053, 1.9517118584075368, 1.0909103480565276, 1.7492528411129677, -3.7167648334834795, 0.3666217557798528, 0.4291509680070712, -2.375161571213202, -6.915870197058723, -4.915035563198037, -2.3729836225843814, -1.5142147750024788, 0.8787398723805677, 1.1833871766748911, 1.1571398223452456, 1.245115455080957, 1.1436760844229115, 0.9833408291775084, 0.7481952750552553, -1.3549075241520427, -5.357636158709664, -8.119971718497359, -6.95517136636839, -1.6795608410000253, 0.06277599672537536, -5.303040145722898, -4.057430698023682, -2.573130298462126, -1.4291298737137155, 2.589139297612897, -0.029245090841367574, -0.7766459820874955, -1.4239238984457403, -0.8975564826298948, -1.3650917030336056, -6.741193485421374, -10.142733456722642, -7.976698557831515, -4.634733935713568, -1.6939020328142873, 0.8751725666478081, 1.12752363419946, 1.30875211659652, 1.3037800973758127, 1.1827675955048187, 1.1123475132111291, 0.10554928027303336, -3.5375105466343504, -9.100467114385255, -12.759511903011422, -13.014339274627932, -7.066259829738545, -3.292956949012151, -5.1195791918055304, -7.272330718769999, 2.340498541126624, 5.046899576699973, 5.626991387733078, 5.8680567723818635, 10.515656567847913, -0.5633232882749073, -6.190347346901796, -5.265315484805215, -11.671542857350449, -9.030465554198742, -8.020049719957111, -9.522724097184176, -3.9995513928359094, -0.5658645290795533, 0.580861131739284, 1.2614636844337894, 1.2197327022718023, 1.2599169367491385, 1.2688230559597502, 0.664439814067882, -4.583263092997292, -10.897881756418066, -15.555490771959187, -12.616304186409534, -2.9615915627856566, -3.533461076885714, -1.2815358526123102, -3.461838654817013, 1.0765958282649077, 5.129154225969337, 8.159851570838434, 7.901495212578575, 6.818570077642372, 4.49759267567101, -6.764125593808564, -14.495645164192156, -17.234579040707835, -8.645668533499826, -9.696456376268973, -10.578669058662593, -3.3757104530973696, -0.3744536783927081, 0.9835624361496598, 1.218379188832594, 1.258985369556928, 1.3156096039739444, 1.1584243213521639, 1.3227628410532066, -2.352126419761138, -10.45531308559539, -15.61751377391364, -9.569311633608455, -4.595903565440576, -6.50325397833667, -4.3622513755759895, -5.938345914307815, 1.2943799771398807, 7.239577439248578, 9.897998508713268, 6.1517121656950335, 6.942528796886731, 2.266482180184307, -12.459120279583443, -14.696174784573408, -14.801510513049415, -10.638825256860413, -7.556354897969399, -4.987621355867222, -0.2856445951808094, 0.49328406834460636, 1.6237666152547778, 1.303119691023283, 1.2169243563925234, 1.367137636825344, 1.2179135462148716, 1.9464813588296648, 0.5501887409580475, -8.221727430459689, -10.019586619674422, -9.596224566327765, -10.202932083455405, -7.060266600109103, -1.191073357943903, -2.4536438832255274, 4.354432248991233, 7.468269261530343, 11.964108774044089, 7.902910107245068, 2.531810098388199, -2.2950391711451084, -16.863631872920497, -15.209451483994846, -17.836904922853783, -13.824551718859007, -9.026842812839408, -4.8051247851309595, 0.2503014887855126, 1.834126120139206, 1.6645497423506321, 1.2097448718796764, 1.1516641763184483, 1.225767732495527, 1.6929623408288437, 1.4336854044161886, -0.25080227015146855, -4.271932219066496, -4.004433299079964, -6.187205097445155, -7.5825717529526075, -6.793285395642963, -1.5596197250520054, -0.7541322204740792, 6.855074018731563, 10.732650178224445, 11.333408144075408, 8.00098984980544, 8.862606233065208, -12.049480412325861, -23.216781438786462, -19.97693278757051, -15.214741974854743, -10.573548877173243, -5.727194291412931, -2.42501486222674, -1.5337889990758116, 0.005396640952246363, 1.1103120995079607, 1.2198266582325636, 1.2102479187856858, 1.2478372180831259, 1.678229417398093, 0.7292834178255811, -3.9267645642064863, -7.659660016623505, -3.4616158741778693, 0.47454718468479024, -2.1351642364417605, -4.175700730984384, -6.068503261364987, -0.18249706335926905, 4.673828250747135, 9.928259571767915, 8.979086682220546, 5.059648457527809, 3.540570797267743, -19.218780676163792, -26.39601436184178, -14.44452785096928, -10.928434825924082, -8.535930052527556, -3.305655125162922, -1.241497865808488, -0.8490818844364302, 0.6318580323062591, 1.4428178002928593, 1.237541161753658, 1.224539624193487, 1.1711866473624657, 1.7071581179791644, -2.408288833716965, -5.744555127080382, -6.452672608364815, -4.506387494999167, 0.09326641978479386, 2.490683750314615, 1.375763342104844, -1.741558734874196, 0.5984087276792163, 4.17658215773596, 5.368650215313407, 5.876873936190204, 6.218337664993162, -5.885548167989411, -24.868895274448956, -20.79336095075022, -10.34485593979793, -10.053791259842917, -9.552001282020706, -3.633328309478046, 0.1115875485282387, 0.2829285397254937, 0.7435979846559575, 1.3237636344358692, 1.1677912896686549, 1.2256058839141566, 1.1595147149256453, 0.7855405802021784, -2.344289659095578, -6.21434409522804, -5.173002744661083, -4.167767066947588, -5.103131638440861, 1.0972441003403484, -1.4474588137452702, 3.557595542605339, 2.7426337271208188, -0.6664074570206412, -5.042312134606513, -5.275573161967665, 2.2371407826324967, -4.504579167540964, -21.346052125602693, -22.90925321632332, -14.16979273249974, -9.639639427083301, -6.807343803679378, -3.113304883347914, -0.988087169949351, 0.062424871378077125, 0.6204974413239721, 1.163115232617012, 1.2277100493510982, 1.2250544138418233, 1.1921563132967516, 1.2152247458019958, -0.5865382844262634, -3.7750546084836674, -4.652735737424269, -3.4132556654793595, -4.121258473180954, -0.9738130543527502, 0.06351320691350965, 3.830057183935227, 7.143660580937773, 2.757896710317538, 0.47229755413618985, -3.4285713745525914, 1.168791697582507, -9.873668180385776, -26.605146876194947, -20.803781829310445, -14.215480644117026, -7.843618261017263, -3.508020717692863, -1.1114645791137103, -0.5952340589850615, 0.5175099546301986, 0.7920333057224923, 1.2197236875188966, 1.2164624831911308, 1.19724375947196, 1.217448053279709, 1.5312796851576, 2.0967883346345175, 1.5821549610912413, -0.9173613316971877, 2.6850777296226847, 9.381688786200671, 9.064651215135665, 4.277725641466124, 3.791199617688949, -1.3014053092667484, 0.3368494158410146, 5.747731089114871, 6.937953768380578, -0.08476307856856553, -13.274858230524332, -21.146998789461215, -14.428876809027171, -5.70956641054325, -4.216049234683818, -1.4385545403460904, 0.18307379028104465, 0.614200405232496, 1.2066209532826744, 1.038780303947735, 1.211669137764029, 1.218275815274047, 1.1875789835581207, 1.289398036076139, 1.4158479960800292, 1.4688350589296473, 3.1851146534517376, 4.902691126080195, 7.037389412099672, 8.248376240820674, 11.431153768148341, 14.713052505773932, 16.521812315913007, 11.150205284304175, 6.206372699636097, 5.639464502569705, 2.994712038253734, -1.1077355133301547, -5.825842728727602, -13.312576677049263, -5.5574645700229635, -0.5791186898755192, -2.1799413689460523, 0.20947482829139144, 1.2659631376751939, 1.9320739968199756, 1.415403063671399, 1.1304679820367356, 1.2644697790600314, 1.268823417724615, 1.1560801604565085, 1.206987296330783, 1.2202703552314074, 1.3820452908571785, 1.4906216892108215, 2.3260510717559146, 3.7220025266945993, 6.077127980309731, 9.003433948158536, 12.300851192693276, 14.640072814803537, 15.926683426375925, 16.450717530705138, 14.067364320592416, 9.054343002318204, 6.190431953145989, 1.751179507299659, -3.1881705580981277, -0.8471897948035905, -0.17448496933368907, 0.08416525736991086, 0.6278880006057077, 1.2543927469502494, 1.5045122038766643, 1.2101419224317647, 1.1691986479727288, 1.2717677347803311, 1.2551208472700723, 1.2224581944682524, 1.2216513591240201, 1.1997248143747072, 1.250353133496697, 1.2218812508839245, 1.3102873193397921, 1.2710399645426578, 1.9601476445294337, 3.443265847354616, 4.353086858695572, 3.0359606416106284, 4.789077106595859, 8.883384197252076, 10.973673386492951, 8.571369673810647, 5.310045725954436, 4.530445008952522, 4.061107018116638, 2.336027464636732, 1.2229673832299863, 0.574518155221619, 0.8122393684694764, 1.2191206734008362, 1.3432319858763824, 1.2205070924135717, 1.2730513722280274, 1.2490037652381079, 1.2877942054980387, 1.2443035134109628, 1.2402250681540423, 1.2493029180714166, 1.217502547017703, 1.3235048878250277, 1.263524575050339, 1.18747138714732, 1.5729604594997069, 1.8109502932474093, 1.4341459160199697, 1.705306997915641, 2.3942714583630296, 2.654432569163787, 2.6116680137008497, 3.310171629860127, 3.682431653164364, 2.281363313507261, 2.4393785572692663, 1.2672603096860366, 0.9604696670499516, 0.9091524476288859, 1.2365575274390375, 1.2262071805219092, 1.199774712427389, 1.2567440611542728, 1.2421012755954706, 1.241770877447084, 1.2227532273172048], [0.946425356660685, 0.9658846157824034, 0.9687957951804181, 0.9945270430821984, 1.0322083766891255, 1.0378278965387353, 1.046349882651532, 1.0296812955802193, 1.0076428212343895, 1.0140440825553159, 1.0763412038719, 0.985199499422143, 1.0112572933344157, 1.0152582055319006, 0.897354722160944, 0.9521437486158871, 1.006245491731331, 0.948744983869167, 0.9465692484164187, 0.9787060128975537, 0.9396081014457663, 0.9766956840905002, 0.9908727998645265, 0.9856400836512197, 1.0011278047554781, 0.948802840412926, 0.9588765320592568, 0.9719182488541337, 0.9806796498905216, 0.9810397550364559, 1.0354015524251763, 0.9671681409132055, 0.9622493705945089, 0.9970342698326247, 1.0258812512875026, 1.0215905436998791, 0.972698062480784, 0.6840259114052587, 0.5973978597558756, 0.9033716980839352, 0.6948459564926779, 0.9570576933112102, 1.1160730608040352, 1.3032426761956692, 1.1898145041068493, 1.3675708898076882, 1.7533610372535766, 1.6941490652907458, 1.2461730903591632, 0.8198117706004152, 0.9909073104068763, 0.9866684008331629, 1.0120495152834683, 0.99999338706266, 0.9771687705942426, 0.9502238196758769, 0.9844088028376731, 1.0197647201665256, 0.9636575437139802, 1.0364661855427841, 1.0144154124198153, 0.9900504139733111, 0.9449229206932599, 0.9912952679286879, 1.0964654949119494, 0.5743433769532645, 0.5692267070895611, -0.09505068066868406, 0.09775676604853631, 1.6374142648141141, 0.9581256841351417, 2.1163274611612914, 1.1863935659169111, 0.669154386910561, 2.7124094331926663, 1.0044962625045015, 0.5477312236289296, 0.368600426763627, 0.32720578534094175, 0.672172497029861, 0.9311166750400985, 0.9700932791534466, 0.9678479375743881, 1.005196089408746, 0.983211210269704, 1.0067771701267652, 1.0075296128089783, 1.0445577612443033, 0.9646071095756318, 0.9333696091891445, 0.7352200149461942, 0.93668849101587, 0.9690007951773166, -0.3469299382395256, -0.6071222192592505, -0.9652901536795383, 2.0852710594516317, 1.1719383228546305, 0.086427420090087, -0.13489541461626497, -0.8199761624134126, 1.0089552980563345, 2.673227428992693, 3.609667930215582, 2.1162134103125685, 1.9879118932860536, 1.9370500019858867, 1.18360644036926, 0.9991046622917291, 0.9218644375792284, 0.9789523014694703, 0.9438110608752551, 0.964126479365074, 0.9247110809748268, 1.005762635249136, 1.0828006679890514, 1.2389225859649589, 1.7736255358604238, 2.545726063362582, 0.7053941587348693, -0.5632027771291661, -1.2678388163698955, -4.731995004408872, -3.3468777324090326, -1.146746826410354, 0.13651467702362224, 0.8772472394102719, 2.6602289404610833, 2.309380509470562, 3.1480619580578266, 1.1717989257558277, -0.9541923852221067, 0.6653106916862566, 1.5466271201257507, 2.503267202898505, 0.19660153592030374, 0.7929430861622059, 0.9735099417697769, 1.0958814905701433, 0.9980046603782289, 0.9543053630860964, 0.9586091229537396, 1.020382024006214, 0.8975766149435284, 1.260978901996271, 2.3546103427201728, 1.8283124022664405, -1.2668629912912683, -3.2166493863373096, 0.7889126668027354, 2.125987964587687, 0.8272245116689672, 1.6453251565943534, 0.40868015859529844, 5.045236232964635, 7.032685158212229, 6.000461259028448, 3.814050960171083, 3.184557034260561, -4.2495591819762595, -3.642830214187822, -1.0910274575293528, 0.7697277319973351, 3.49919513219237, 3.074600886926062, 1.974685258087471, 1.6629156796397346, 0.9807223665022953, 0.9766820713827814, 0.9648128197046771, 1.0482309796457372, 1.2671098657322004, 1.2935328410943912, 0.7698546398360998, 1.2932797151176691, 0.19138739499339327, 2.3111922594318424, 5.905662927997333, 5.412405301691402, 2.862915462911304, 4.027605032536459, 6.594036701612566, 9.3879226938463, 6.524330013774466, 8.492822362671777, 9.644516780688946, 5.3645135221342874, 2.6784756408566555, -3.9321908483088297, -1.1238189062173247, 4.015519593235843, 3.0573215778893448, 2.6949650560946656, 1.83893771930002, 0.572916004470673, 0.7947515717305642, 1.0348993053291822, 0.8532705330478204, 1.157402284686939, 1.1000418602587982, 0.932944314226866, 3.97834768564151, 2.6502300981495495, 1.0355204653424537, 1.491118367434481, 3.641248254081172, 1.430924894393877, -0.25364230288000217, -0.09574609742677076, 1.9741369473693346, 1.6683783094846314, 4.252092168138781, 3.932913003807179, -1.4720750797203623, 2.650000734209031, -0.3192897455776513, -4.574125668139939, -3.1525917331472675, -1.963038922320678, -1.7470129645030918, 0.2658275207883623, -1.9925422559437205, -0.3018124544923189, 0.7614859643826097, 1.0313273237899108, 0.4137381405108795, 0.03189228356874676, -0.3620886603185293, 0.26254288594071185, 5.577775366566784, 2.3724979251694687, -1.3324881149140635, 0.4571360574680627, -1.3822536134204793, -2.3837444526680884, 1.625867962671316, 1.1574483840668073, 1.9500435513647025, -1.9064611875675321, -0.7976029219551561, -1.250717880366632, -1.1249303179529775, -0.44411107425298907, -8.296961492179781, -8.71002719102054, -12.028447676922683, -13.007977087207443, -10.287623590843124, -5.9382748899213595, -2.2402556455070033, 0.4149329918520214, 0.8021475673103728, 1.2270310323380562, 0.7383355062906862, -0.1965511002115475, -0.7684484240673437, 1.847456111160968, 1.6693858193214302, -1.0831734217636722, -6.445336837199155, -7.00376283839785, -3.679135821433052, -1.4479812015688993, -2.001541176983911, -4.586892246965626, -1.6012857424614528, -3.981839412330585, -0.6693327065773326, 1.316953196668146, 2.6665849719092183, 5.345511559658445, -4.69251870776406, -9.760079077592508, -16.12123328696659, -18.213343747260907, -11.939785092640365, -5.990619271448584, -2.6525379101273523, -0.4301204661970574, 0.9881586940961418, 1.300042265437482, 1.8726493333555385, 0.3920709830727392, -0.4585022076642791, 0.8295729856901871, -2.0323378352183354, -6.268451144012943, -8.257100496957317, -12.912228869721838, -9.064446203445748, -6.391523441154872, 0.2520617145776428, 1.2228065735593299, -1.1987176579169796, 4.385684369905424, 4.412306839475481, 7.4637202679537875, 7.679668300376756, 8.567365545128462, -3.0814377671848017, -10.298978232244812, -16.535014644809117, -14.185876781381417, -8.742506780713207, -4.557356364410886, -2.401175830228881, -0.44138767763907955, 0.9362608098742862, 0.937161008024291, 1.4118600844831986, 0.9200086098025836, 0.6805647262594281, -3.0711520748328187, -6.920679966059442, -13.457249556404422, -11.356333466364207, -8.891008774862465, -4.63500282309652, -1.3368663255263342, 0.27043302475966585, 5.914050485168202, 4.0796222570293805, 6.24041804670858, 9.509096863853252, 3.97446645582915, 4.208425092238048, -3.1130485079521333, -14.977928609505263, -12.147796525393092, -14.089837872800237, -10.281226084423228, -7.395902780293035, -2.0706046396546003, -0.7995768618109886, -0.22510383013280255, 0.9903661820584058, 0.8606032865110346, 0.6512087807901416, 0.4870203249246358, 0.47553631845960426, -2.9254080531294298, -9.946830912562646, -18.196741369907762, -11.54385372165985, -3.666224959171927, 0.41123627948443936, 3.2525687895778344, 2.4781068750462527, 4.952928646161519, 3.0031621890726217, 8.607640222711343, 9.702849185048615, 9.44494278857325, 6.50935127460296, -5.504650655823476, -11.154090452108905, -10.720453819123318, -11.464972855665637, -9.008872548290366, -5.468828261637225, -2.1747179103671237, 0.24593667558435978, 0.7834319385059486, 1.0614136531507379, 1.0367430794510695, 0.7067204249225546, 0.9702825994807734, 0.9863521031982796, -2.773312812608091, -10.441678413378485, -19.853502161816973, -12.479800284813578, -6.532447954674629, -2.541743650097165, 6.196119096670824, 8.084781905554042, 7.114753027848473, 8.714856331345583, 10.242330030250566, 3.721083804623847, 5.876123926038042, 6.112830308938137, -5.2164714890949, -10.159920804359048, -9.503297821379153, -13.275883063284242, -11.754058479596914, -7.6539769431298055, -2.375452557110821, 0.11172911264764761, 0.8533608046966701, 1.0423105539267177, 1.0104248005591399, 0.8734358581193138, 1.3025297319098197, 0.9740903072352178, -3.0537254762783306, -9.803841395319237, -17.847186734386533, -15.220098114459235, -11.449560264095549, -4.74020254003113, 3.354599490405584, 8.362053700692638, 5.7952809078713186, 6.339134180614676, 3.6634899159104544, 3.227677911855764, 2.0524028859999683, 3.5951834896741346, -5.1444381223488005, -6.030197857317436, -9.969007536012818, -15.509534038564693, -15.186162044257548, -10.13603497804428, -3.6425975778192843, -0.3421975988603965, 0.8530146099393814, 1.0356843925441699, 1.0322907323164383, 0.97025467168209, 1.3740902887095605, 0.5385798804805854, -2.790077472375983, -7.819186555555768, -15.807199817916548, -17.266871111177224, -14.845202087443782, -7.419429725939316, 0.05199767874167806, 0.5890202806290243, 1.8270640233504938, 6.280420926018982, 4.963869287479464, 1.381489420259915, 1.3779381487510725, 3.688005905587687, -2.603787868745621, -1.1823682054690567, -8.316879430286567, -14.133010757218832, -14.534302573658307, -9.416124480232254, -3.6361759985126345, -0.12400448174134145, 0.9211783980187518, 1.038260656726949, 0.9723157672130606, 0.8076607500425659, 0.7672524276001543, 0.731098207437964, -1.7991238763846475, -6.95709687573001, -16.699890266819224, -19.781456599070193, -18.034837923643924, -5.008973028900398, -0.8442355057565076, 0.6956988210425957, 1.4274619433863311, -2.734683464216131, -1.4996623427070301, -0.8597905933410196, -2.7126396825469103, 0.2545533658274576, 0.25419556774108654, 0.3469133532114957, -5.60348806687333, -10.735426063243077, -11.876580495176967, -6.331041904910574, -2.709402591893428, -0.4167241741299316, 1.1248502294255331, 1.1419998630977677, 1.0252072779333667, 0.9543859218442237, 0.7769536037902326, 1.9071391973235516, -1.702053873307942, -8.56832863871234, -18.690595215920627, -18.46937071563852, -16.511603391256713, -5.091881479116887, 0.05107388929450565, -1.9460067778421284, -4.289387413107127, -6.555151129489181, -2.495632470965261, -0.1240611562283353, -3.787145674366006, 2.670575309668379, 5.794597916588601, 1.835093673754767, -10.463743699855558, -10.00531368872665, -5.877792132185997, -3.912376517666976, -1.6729230369337391, -0.07796717425446048, 1.2641057804673799, 1.0795305575952203, 1.0219885519999463, 0.9832183660508559, 1.1751504539270414, 0.5031162670253644, -4.5625504679127795, -13.72954256831777, -16.705384878806054, -18.26658875961924, -12.957071938386735, -6.225395075408284, -3.983646374673716, -3.276076933938835, -3.8606738593388883, -8.231795640858094, -7.768418685440985, -3.239322608960535, 0.15510866559181838, 1.124588847123693, 7.470444141475822, -1.728882454726179, -6.92051675608359, -4.810995234604845, -5.661559322873885, -4.103276142192269, -2.0356720657964695, -0.28424791264224897, 0.7775993132686747, 1.043132315205369, 1.0069238373976497, 1.1323203034462452, 2.323838872946767, 1.1421985378271438, -4.338680069157455, -11.876407248264368, -12.934880090350017, -14.713573142824195, -11.82255684581108, -5.437758226381823, -2.841722331899027, -1.431497626089812, -6.736075868953581, -8.358962882567326, -9.759715168394235, 0.7468320043912424, 2.119700830963981, 6.319003288622471, 8.184969634857863, -2.3271070655048494, -2.7477675524433205, -5.010521742149543, -4.804673464516681, -3.549086324514362, -2.1414048869785343, 0.9929191246130632, 1.0077126806541072, 0.9984840100926133, 1.006654386126882, 1.0034820827567894, 2.581499606581825, 2.2538673757957666, -0.6648837643733037, -5.710103945979366, -10.005003269629688, -9.01122233430559, -2.0458167387774795, -2.4650384768579396, -6.643375793405761, -8.061768383327315, -7.486869418463815, -9.450475168948516, -3.8799261227982886, -2.302298299460629, 1.8212897992760408, 11.63882675181256, 4.163507877814812, -3.408840625760714, -4.982762202511923, -6.646360095590852, -3.103345528436335, -3.4236280989062005, -0.41009057963169404, 1.9501657986480325, 1.1375021748538021, 0.9535696325856658, 1.0182977096950443, 0.9531185678305075, 1.596735998924579, 1.6461726638912786, 0.3747177012387254, -0.4535123568568821, -4.670310774978301, -3.695769053693177, 1.585710789326727, 5.046225461257507, 0.6433631058524784, -5.713997217780348, -6.587250101323426, -2.7285597957285797, 0.7453571368824925, 0.17923689699607315, 9.102842017266378, 9.92973336908124, -0.2584011830041282, -2.61423515774082, -2.6032660530660987, -1.3747962530590636, -2.902051098802953, -0.3033094391456985, 1.0527991291167584, 1.9419710592984434, 1.2266058106325088, 0.9989809157021178, 0.9658483630758351, 1.001271563288181, 0.9213464595979374, 1.319039604643318, 1.1952052013991314, 5.473127951595905, 5.1411297039506465, 0.7734502517615407, 0.38829713671428995, 3.309437293168096, 7.160300763723046, 4.131878741711947, 5.841942583683847, 5.41449156724061, 2.8586291540853015, 8.25034350636602, 10.91228225442789, 6.155258577875813, 4.694362227653446, 0.5642273890679889, -2.372910185265181, -3.0865377939025294, -1.9555015656237016, 1.365337815158657, 1.7272027337623632, 1.4755845303250708, 1.0532668124653173, 0.9554883038050642, 0.9421838680478846, 0.9482654205410689, 1.1829502944027848, 1.6124896204458727, 1.2629261279999755, 3.688813983042915, 5.165579074076185, 1.2700118536356453, -1.8188431769598994, -1.310062559344207, 4.251646035680986, 8.951032759717823, 9.382529077148424, 8.929921106932566, 8.266654099145397, 14.190991511237325, 16.447474108338994, 12.256182146521335, 4.868012782143261, 4.419082176484857, 1.6323939625177981, 0.8907625729021049, 1.0343300788058931, 0.40843853373668365, 1.4498854678422048, 0.973707470875223, 0.9952537643254363, 1.0587427693253444, 1.022963348888767, 1.0241228671855205, 1.6015791585529064, 1.8046806584265858, 1.1505121241897063, 0.9936239559747515, 0.31939102452238394, -3.343126930276731, -3.0953170947827484, -3.458469872382075, -2.4737065094542454, 1.0050890825731826, -3.2017110410265355, 0.7371328767889991, 3.475348663538324, 10.411940857352878, 13.632250221521872, 9.269034524704471, 4.446730719017921, 2.992212203663123, 0.1958566994566506, -0.0805686542998975, 1.3897711233758805, 0.9675422894341292, 1.2329779885041756, 0.8766059223207888, 1.041139003273159, 1.011972477995698, 0.998579002224006, 0.9861479045746407, 1.0644698394102812, 1.1195961024695131, 0.9450082830506678, 0.6099973033764524, 0.24803515505197618, -0.484438387063338, -3.1333282918380165, -3.8728296923007868, -4.106985754349146, -8.120891188478172, -4.083942349361006, 0.5411040460144919, 2.2425571535187356, 5.674799975181755, 7.505746762491539, 4.7458224397901265, 2.7967498941112403, 0.5627738780910093, -1.218597758633225, -1.112623945949527, 0.5494351017875293, 0.43456084244211385, 0.8790637618693912, 0.9076714779346778, 1.005104376665604, 0.9664416457683219, 1.011578999185847, 0.9903146601524866, 0.9643971621421007, 1.0056153495672713, 1.0071857893530036, 1.007669385641198, 0.9000048702475085, 1.081938578788568, 1.2313191191290231, -0.6620939024151268, -2.237191751400895, -4.244762543494647, -2.80313144858132, 1.3812969170839091, 0.4751989936210614, 3.8845314282214303, 3.5802513928345467, 3.9215292614083834, 2.575161895755941, 0.8393015578963335, 0.2430791056809694, 1.1821820949150619, 0.8464542298683106, 1.1065206649601036, 1.010054599270648, 0.9552809125791134, 0.9872326695255372, 1.0225958911752888, 1.030685040943426, 1.014653721024445, 0.9382204631136707, 1.072217325344147, 1.0507284820717797, 1.0121421783074642, 0.9809941113635431, 0.9888290047171845, 0.9049687991024973, 0.9367880539388618, 0.6691104385893675, 0.086945549732209, 0.3321438561044367, 1.6039395110258117, 2.1823515468946075, 2.980342480552801, 2.6646021896334076, 0.6568386538125152, 0.7910390404658713, 0.5176700738163938, 0.8209958450190322, 0.9500089723206651, 1.0385431304435466, 0.9925622573020252, 0.9678652270175533, 0.9966868755458441, 1.0953830755242588, 1.0300314193107227], [0.08689778782412574, -0.0018360309838876552, 0.02833425273400893, -0.03823596070723288, -0.03164997866034022, 0.048380600522277356, 0.01221175169460094, 0.043070458087362415, 0.02232693371321071, 0.003938839184909119, 0.02951103581120477, -0.016178730821553435, -0.030986009640163698, -0.0340092421092384, 0.05883824368134757, 0.02292513121224526, -0.036631353240885775, 0.023348628239869395, -0.00296577305203929, -0.05317298352950647, 0.003304529006936119, 0.023633107974780836, 0.02295524614555328, -0.006321983957465939, -0.003924469947834513, 0.04596568833512625, 0.02028817492948783, -0.030697248447523074, -0.026633494718061198, -0.028720453541924606, -0.027168737621576147, 0.08994169550258412, 0.013465297507676117, 0.06272375528727865, 0.019419212953190726, 0.0035709564112505784, 0.08199168980688047, -0.015350302329003538, 0.05548436129239357, -0.04001872007332127, 0.03854915932244893, 0.04472618519704658, 0.005955176263105487, -0.04789910622951538, 0.023804075875916462, 0.06697501578866599, 0.06024618917358438, 0.045118517407428074, 0.033508836808451355, -0.03511224695919391, -0.014774745603924014, -0.009542076813573084, -0.007975117636394826, -0.016087550371784536, 0.013224038789946426, -0.030727354100269492, -0.02097631140973111, -0.002150361429492745, -0.011425635818330475, 0.06273101893401865, -0.006301850724554953, -0.029027541021535725, -0.03308160524436003, -0.04618897035834512, 0.023181169998992494, 0.0502491778110422, -0.004030544029967403, 0.004821957685749076, 0.0005862199962162442, 0.06878410044428719, 0.05115086406076466, -0.0003367422422634245, -0.013289969383008289, -0.0363119754661402, 0.0528973907027364, 0.04560353336756144, 0.02774658070688585, 0.03985898384304708, 0.024027052638359903, 0.06456799691586332, 0.034894759870696755, 0.056953956143552836, 0.04715963137809023, -0.011998595423884989, -0.024760085880394838, -0.012106224990549502, 0.014208989796574208, -0.0348198900313425, -0.026657319310549207, 0.027420081254306037, -0.030685615947336087, 0.00321235929969307, 0.006444324101085438, 0.0010510287360083108, 0.00919720232816697, 0.01880740412776514, -0.015174003801047796, -0.0335466519465428, 0.09021417905788465, 0.04621027081667804, 0.10118580745489493, 0.0835548655964189, 0.043606611185859234, -0.002203152659958486, 0.03183262561754024, -0.01954586058544198, -0.024977733288679985, 0.03038787633145806, 0.07709565663664843, -0.05825017224867526, 0.013163218396693824, 0.013550623580702545, 0.046277304507097994, 0.017819549677393277, -0.004747875673631567, 0.054463861459465024, 0.008202060346983656, 0.025560622390260364, 0.013960992478571271, 0.03384031305300608, 0.03964436434364083, 0.05695066973900413, 0.01659387175056657, 0.06436023805968644, 0.006467514514422985, 0.06584317473032573, 0.09802018561202488, 0.15120305060278175, 0.1429334066261228, 0.08246978568051883, 0.03145149885101671, 0.07395123960037721, 0.0757311291032307, 0.01329041151994629, 0.10044920449075698, -0.06887095435301015, 0.011491275146387979, 0.01798460482120985, -0.03390951495291899, -0.0014305623383184002, -0.047833044864371385, 0.010350323320245568, -0.05128747970340364, -0.020994295425572376, 0.03608240289321631, 0.0191312747053512, 0.12762716224133092, 0.009306250128093855, 0.01714797237617427, 0.042685626910812964, -0.013926578454894844, 0.09272874500452435, 0.13288031942158146, 0.22001770261789316, 0.3028509450265964, 0.2653456851522949, 0.1535919595806939, 0.0905036174034967, -0.06659039214383033, 0.0974021741978439, -0.03708714101052175, -0.01830796143285593, 0.012344411080672957, -0.033864920652681055, 0.03773321590313996, 0.013391881916264132, 0.014282773585150222, 0.021796437396989547, -0.01397902042141429, -0.023335189633125072, 0.014133432625638627, 0.017001974812937845, -0.017891342781501538, 0.09410991308360668, 0.026571042408903643, -0.027791407210251078, 0.010537821510896274, 0.052109311281154404, -0.03421551904415939, 0.012361896600638392, 0.14288073377351904, 0.1900073185771162, 0.1724113089091126, 0.16777222299972247, 0.1471531542181168, 0.19225343181374768, 0.012587570059144553, 0.12870205107382454, 0.17412677097447385, 0.055838632859598246, 0.019300523917916583, 0.08346240750268791, 0.18353543847933404, 0.007054992988770916, -0.012889647827906962, 0.04244330432201952, -0.03273564457057014, 0.03945414756921826, -0.005382408463652402, -0.01161536978852605, 0.06427897163624123, 0.022682175320870114, 0.08813375392901251, 0.08245067667230505, 0.028235326705783836, 0.04982261428105205, 0.07223360745445294, 0.09581342071216094, 0.21951375932080683, 0.3160657788430559, 0.3411240106604154, 0.310391067102545, 0.21005120815891332, 0.11795926722217859, 0.15464413520760678, 0.21915399940670324, 0.1999268732202731, 0.18719860035931354, 0.07856621450562593, 0.05592163421726947, 0.08305779050839246, 0.09180990059798011, 0.044617104794991126, 0.025143175130045634, 0.0035996930946154485, 0.05963456871345376, 0.02784172584798339, -0.0027224590262908406, 0.028166321852291103, 0.053800148232092455, 0.10970850467656977, 0.19499663315755458, 0.2214493516093078, 0.15760546016006524, 0.18444564820967377, 0.2649631028719435, 0.3055752861330026, 0.3126560051205229, 0.34889692271929484, 0.3017697283573036, 0.34774409413619956, 0.194767679227088, 0.3099724446647391, 0.30918389761241644, 0.14972358854796014, 0.13144005769139086, 0.039652029571839685, -0.00873669662963628, 0.011678185057072446, 0.018064876821041905, 0.015357296270909636, 0.06210370519447099, 0.08380281819194012, 0.04229419982850366, -0.007871046324358966, -0.026419440893912995, 0.05444935683080892, 0.14100375310465493, 0.183658337918422, 0.1988557798810739, 0.23034285743107735, 0.17880874725911122, 0.24957142128329393, 0.16319053063499317, 0.16108035192439346, 0.16233137692003705, 0.40332662904652167, 0.4971462080742727, 0.38969534542500983, 0.15101063338061851, 0.19516455297434293, 0.21462920255410117, 0.1638855580963744, 0.08758394390328009, 0.01666495509822546, 0.04403664141531527, 0.027098481348127305, 0.0027845106790103007, 0.016126848049023253, 0.053995126915705925, 0.04379659344983813, 0.045640067369844585, -0.0211110247114616, 0.06738375214628362, 0.024342101227017132, 0.09295684093737532, 0.09554541966147533, 0.17999781859588537, 0.24293573497004103, 0.09650299181616194, 0.10945652655679075, 0.077621636622313, 0.13576443443923142, 0.3280030766318675, 0.3552047746091854, 0.3259721175133686, 0.211934646952227, 0.24863359133771423, 0.22288939137950653, 0.22289415191850953, 0.13617990381954012, 0.10290218190215107, 0.10897982923171878, 0.09056736790733506, 0.08846616728423773, 0.04955061032335051, 0.024638092540747322, 0.002394368072294994, 0.0026420999455994605, 0.08211264771165883, 0.0349777313704108, 0.04419680059576349, 0.04081223431273093, 0.0625339384475024, 0.14850988136117046, 0.23427711617312938, 0.3032510477496115, 0.15303906479995527, 0.2617257851529983, 0.2242777819513843, 0.11347668056053001, 0.1678807682331726, 0.41814891569241014, 0.2838908781905388, 0.2997197644711758, 0.22852981975868777, 0.18154482692431317, 0.20744054261097014, 0.19760234539706267, 0.1210611560525086, 0.14636109459156155, 0.030724229189365994, 0.05493172079429844, 0.03429703219306167, 0.03105380905699644, -0.037714053210049066, -0.00801528283656897, 0.006547829942743653, 0.012500362430476477, 0.12752692534089627, -0.007297892373177394, 0.1272481758018559, 0.12037304432918247, 0.2036356369873389, 0.23955317927281128, 0.1676252712567992, 0.2716545221115489, 0.2703180809826323, 0.062037978544624076, 0.06183786690681148, 0.4140087783925848, 0.356787464314005, 0.2774723025984621, 0.2768890670844472, 0.17431622436873354, 0.22013472068630224, 0.26874138858193164, 0.12290022339261909, 0.07048151350997484, 0.04812593684184145, 0.021322151426432633, 0.010891425799726283, 0.05647692798390352, -0.013606203612249596, 0.016822914886332942, 0.03397443947168086, -0.026691988658803994, -0.0007444856817445388, 0.09008008751107043, 0.13948821183794877, 0.06554821928856534, 0.10438783971164803, 0.07094362939472272, 0.16849530787524736, 0.33930039510659205, 0.2003222431924657, 0.07322093458509608, 0.18296319007155384, 0.4080979382255924, 0.4016056097003569, 0.2536166095667036, 0.21458333686003922, 0.1906622507977351, 0.15142039876032695, 0.15024412936653558, 0.051756201561144945, 0.03888567847825328, 0.06682389369757617, 0.08886619170886853, -0.018872442426428288, -0.006878477400781049, 0.06660201852603491, -0.019765626378356105, 0.04099561115421661, -0.012046290473028336, 0.03933829245787614, 0.059257994279404896, 0.1409180252092503, 0.06818138313206873, 0.06199848792537186, 0.03402309556160566, 0.14862078987274388, 0.24057987861778388, 0.2295591233719879, 0.30158394378541936, 0.444834138095641, 0.502189577517796, 0.2775519845462713, 0.18875123261944232, 0.2599472871876232, 0.16517438799892073, 0.2668382209378691, 0.18884284371937257, -0.07105709738518624, 0.07128360243999486, 0.10305122604831679, 0.07562133495224269, 0.012037102934256276, 0.037028539618398526, -0.009240224844819424, 0.006228858636148617, -0.057975414731807104, 0.04082935462622687, 0.03633894075903371, 0.05544728002039729, 0.09455171814274056, 0.0686339673636418, 0.04911325487893568, 0.07530942094993176, 0.20499997316187554, 0.39409062089384067, 0.2934067487449547, 0.357509754625535, 0.5360883288077465, 0.6567225378221856, 0.3118547405205617, 0.18480211372736388, 0.14857130134039023, 0.23298502016058278, 0.2890936857971745, 0.19260739189191453, 0.10357356652370142, 0.09321502382426744, 0.1003332705664088, 0.14421797707149375, 0.07346450117857804, -0.03792367413962686, -0.06194776319968472, -0.02937985441539374, 0.015370313128656386, -0.020558497989820845, 0.053387366610794386, 0.06016326677116093, 0.11202426364581633, 0.11486044699314854, 0.0421996757775287, 0.14071151921870736, 0.16134249637372658, 0.24830144778702107, 0.22709724525485708, 0.36467382421905314, 0.5601889912111621, 0.5618285894899901, 0.5008255713479176, 0.3145157385417675, 0.34921280758311873, 0.1563315057716047, 0.18659957544835176, 0.15605533201611205, 0.14955314556648067, 0.08994543545429395, 0.016532271524692554, 0.03526747802410502, 0.01809311267470825, 0.0013791443704633858, 0.02033695997351013, 0.06588022012597716, 0.057726950500160266, 0.059069835827862474, 0.011626717044616167, -0.0032906254510852865, 0.08322736818493234, -0.06690629042550676, 0.019855389218641332, 0.006015092819733227, 0.14204842388768527, 0.25285191665633655, 0.3040347992782333, 0.31546793847701365, 0.3382765085324294, 0.44190959130464014, 0.41198254136872753, 0.36764032093531945, 0.19674907042608591, 0.16806408733996955, 0.03494306016464207, 0.12773621347108477, 0.1679906992206664, 0.020051634214028103, 0.045627709188626346, 0.04394447828671205, 0.029555572469824612, 0.023154630551227164, 0.026075383478273373, 0.037234870551628906, -0.047996887063186305, 0.015325362128411265, -0.023065227178285283, 0.03700976008714772, 0.06399508043413853, -0.07540053421562094, -0.010655066056898262, 0.02695137480747781, 0.13497871629733724, 0.27607276043398765, 0.34046301215611313, 0.2212560657270706, 0.32103556733314503, 0.4086710746835614, 0.37127827536269375, 0.23280678899619733, 0.15026253572373502, 0.11347010604271383, 0.16327860926027796, 0.18026342835239537, 0.08104327301622473, 0.030525339886008664, 0.009010921926791095, 0.017976032578343067, -0.06488189422089721, 0.011124497053886675, 0.019682291885090724, -0.00488326582721369, -0.007356565754325465, 0.07238348578897827, 0.005976266544498023, 0.04878354885507526, -0.022340665980147868, 0.061363055778750314, 0.0067543128389050185, 0.00845720231632552, 0.08754018037090107, 0.1442593200264761, 0.24904971005098964, 0.33414294188988136, 0.21886817201839398, 0.2812872778677978, 0.2752028222636541, 0.2717764875926321, 0.29627289246161004, 0.16976625528722986, 0.14651423160535412, 0.10975231517557588, 0.05546324856232172, 0.049517606695231045, -0.02326396909690047, 0.03292698622538927, -0.0006360015548313836, -0.023396613968311067, 0.010678889097131746, -0.00193012387467631, 0.04452409659863741, 0.016693354078107667, 0.007275611822124087, 0.020594468512126565, -0.024841216924239667, 0.0680196869097417, 0.09819626617304361, 0.10864032659676205, 0.10594904189449662, 0.1886308128093667, 0.19972944625572375, 0.2003880087111806, 0.25181104390138415, 0.2890995859412502, 0.28434543039753163, 0.33570324026556364, 0.2571536947884173, 0.21236945680511118, 0.21600215120500743, 0.05486281523282756, 0.019508337577787093, 0.05894468603179448, 0.024182304238370346, -0.011905943006876413, 0.036355859333340644, -0.005663467746130263, 0.015463151694571952, -0.03762357013289399, 0.003184191331742014, 0.04593234703320132, 0.035679386851523456, -0.029118866831869764, 0.07411371488648495, 0.1372263153385129, 0.15809802533272985, 0.1937704005843698, 0.18241230765255806, 0.20512899896720604, 0.25195878252585946, 0.1943984298374698, 0.262507335875266, 0.23221424747716596, 0.2542594673331635, 0.3216464949435118, 0.24167751576818702, 0.24666696274312852, 0.12244191409086072, 0.03911596127844756, 0.06929831440927488, 0.05540806666003661, 0.01297659324355825, -0.036157547318292516, 0.030656456245418018, 0.002430897731863561, -0.005472692348647233, 0.022937216116994702, 0.024211966799006956, 0.07578891398804748, 0.04996501374565568, 0.03651693906581219, 0.04577484595678995, 0.15052833293139162, 0.04096119037050081, -0.03512575923695632, 0.06567434649232964, 0.18662808953228946, 0.18829166138117198, 0.16425509606390643, 0.23893485829522593, 0.2674523188394626, 0.3332267149720722, 0.23194115964615986, 0.261814913617169, 0.17697635506684192, 0.07800570110346634, 0.07289224362279643, -0.0035772501322119637, 0.026033105687893358, 0.006729180580598331, 0.0005312040927654837, 0.00498100667625209, 0.009713144063490692, 0.05804201068826331, 0.056499064876555566, -0.011091097644467262, 0.09975312315170394, 0.05151173813941229, -0.08296194092351117, -0.06085828744216671, -0.10732337328204462, -0.03177141481727614, 0.026192093063394355, 0.007958111568953829, 0.1205158169613182, 0.08538099092148885, 0.23643353695562624, 0.287015051874855, 0.2379486114748454, 0.13544677107023925, 0.14827019953420928, 0.14804544419189902, 0.049101215635813426, -0.0011089231597837075, -0.002865270919852188, 0.02148268114451778, 0.0065841042729447834, 0.04083959359706044, 0.01357357905802161, -0.01772246226732141, -0.013934524339039986, -0.061318347497895755, 0.06745721727265341, 0.04889071787786946, 0.052136174626544705, -0.034129623982630676, -0.09704726412986993, -0.10297792794933328, -0.040157268727030085, -0.04958518411146122, -0.07032098443133457, -0.002232836513298918, 0.0734725528779281, 0.04731216631023473, 0.2346046486513656, 0.0793765045874508, 0.13038820759882794, 0.22091463144876008, 0.20373975594563207, 0.12444531077058885, 0.11907471582765262, 0.12091910062398013, -0.0019283724474903011, -0.04784346035077574, -0.00799640367189566, -0.03136597308174732, 0.0202521305813806, 0.001721596759870874, 0.07088640466540964, -0.0016349371274308126, -0.017002060398038848, -0.09006421993490436, 0.004162868850242497, -0.024166895054578464, -0.034272968314527946, 0.004147892358807861, -0.031524806457149564, -0.014211244364767853, -0.04529202543185573, 0.0323478612047176, 0.017277258207225563, 0.07082520657357302, 0.12653411583958343, 0.048240887150389385, 0.06886712383959812, 0.11312225280483039, 0.07895699481891419, -0.02629565427076034, 0.03023305111072868, 0.03905339411038763, 0.04431942609560225, 0.004707342796417526, 0.015743383917528813, -0.02266225059258146, 0.025925628466939576, -0.011560021812607832, 0.059305146084063926, 0.01729023512113327, 0.025975780562259018, -0.015718526616273844, 0.037866212612000336, 0.004444753030899249, -0.0072151923803573, 0.004652742448769722, -0.06245969943702867, 0.008586407465960955, -0.036854887201651004, -0.005273729686640005, 0.0645504040411628, 0.036409424213765425, 0.13052846198171847, 0.11407423586226748, 0.1649368875072676, 0.11247601863699098, -0.035790928797725066, -0.025054507369519613, 0.04311996935981473, 0.03694590701323036, 0.021296785945100927, 0.04777160395163196, 0.08556215988424745, 0.058922622423553096, 0.0455307267387833, 0.003980342760775592, 0.021859566020741007, -0.037006692042494585, 0.05248855548428147, 0.024488966619676752, 0.061308149876457926, 0.012718225846954144, 0.01088126070186951, -0.02103633071172527, -0.002234302242029404, -0.0073219713528332965, 0.03501264228417052, -0.00983045460044748, 0.060571878920795, 0.04435206668561509, 0.03311042525628805, -0.010309119614171872, -0.010032446843637232, -0.008467237408821805, 0.07827035155068039, 0.08900538915940855, 0.07172512309366111, -0.023203337563882688, -0.010201566071134134, 0.04231990644144114, 0.049398270136706994, 0.07883231943434187, 0.006792285584634229, 0.06583701307861657, 0.02330036977269802, 0.006243010391464239], [1.111572467923097, 1.1087326948428742, 1.0619862102855342, 1.040010238918264, 1.057607214400003, 1.078849815485448, 1.1148547829866766, 1.083163743023755, 1.036067759840492, 1.1288909896807318, 1.0998436861082463, 1.096261764278963, 1.0469848737805687, 1.009155181221548, 1.0673176516840093, 1.1159220130089458, 1.1396344720359282, 1.083586673779948, 1.0739549939916, 1.026898108910222, 1.1283945121964227, 1.1401520472163083, 1.0497783398628793, 1.1205972317573676, 1.1010695830639836, 1.111378197555346, 1.057666556220069, 1.1080102903911166, 1.0487637530545713, 1.1074269747587473, 1.122223453837912, 1.1244341944246452, 1.0926708540654428, 1.0832808350504317, 1.4871563905842835, 1.6270721627398659, 1.0046538223738888, 0.8732719503265272, 1.205346096947022, 1.521484604399592, 1.4604226513841916, 1.0320781141635509, 1.0629141131433988, 1.5242969157933282, 1.8948665686612205, 1.3756523423508604, 1.0960844319853829, 1.1260855625735164, 1.1113767003171588, 1.1133861648087553, 1.0621939518114978, 1.0989889711360168, 1.1283337455409317, 1.0936443423586095, 1.0179153822309632, 1.000985726729403, 1.0974986539127904, 1.1219071203195181, 1.085328566836332, 1.016794984868491, 1.1797925536669793, 1.1138376141694635, 1.279053869577095, 1.485721304742911, 1.5839230069037473, 2.8086411452056415, 2.9960669022611515, 3.7415607124950045, 5.205704882427741, 4.888188530484833, 4.960157252221073, 5.076526142703655, 3.983054295948369, 3.124715041843653, 2.701694070637087, 2.533829578611779, 1.929087361995363, 1.2779616685209108, 1.2340679898785416, 1.0791765097331432, 1.024390168657299, 1.0744144202580028, 1.0878826200194742, 1.1076647528490797, 1.0996911303824268, 1.0843765850801632, 1.0851347203848187, 0.9196204996929996, 1.0472986154079205, 1.2983126604373185, 1.2680723030751453, 0.8195077718928441, 2.669214508069829, 4.95498572039049, 6.48726170512789, 8.267378059221235, 9.314844267874113, 10.987915856583887, 11.626718951924541, 12.149277908880453, 12.965749200789599, 9.650149051998877, 7.28635156854927, 6.316498352622622, 3.7791568676081555, 2.0571861254095287, 1.615905818561906, 0.8467755739387864, 1.1232867191572042, 1.1253195303999644, 1.083637555453382, 1.1775118479086806, 1.0892732719903826, 1.0825445695007536, 1.1672878986600586, 1.0044635269047641, 0.5646318804379625, -0.023341923122933594, 0.825240788780056, 2.8711497522361786, 3.322693889844622, 5.569985211526861, 8.663262116750577, 13.14623799788927, 14.449245422303601, 14.806264079762531, 10.683930819772721, 8.143973568475145, 7.209730513045426, 8.108849612913268, 7.682154180928493, 5.96732658557412, 2.3571366647993037, 2.4350708134986143, 0.9568419617136922, 0.5124542060172259, 0.5681407571216074, 0.2711736577245509, 0.5022807405939018, 1.0840091599237, 1.106381727630733, 1.0544029869010776, 1.0874583707328567, 1.1244546622400675, 0.6667766493387376, -0.2712291235373992, 0.355386445665566, 2.964285735846201, 5.556505993763974, 6.759834517961681, 9.33367558052067, 9.691809075578636, 6.899459517665145, 5.721773798072824, 5.080554746959524, 2.519229838781047, 4.0114742389034195, 3.162406926957686, 2.0105331640127067, 2.061310385108937, -0.25397929291925697, -1.3708734404794594, -1.4622931711965288, -4.039694190734374, -0.8335912538934952, -0.10422697213551119, 0.3837456776325172, 1.0793834401065332, 1.090148836652113, 1.0138142005448179, 1.2367755499938369, 1.2778233639049634, 2.2604350141077165, 0.613143126917897, -1.1356153587876427, 0.3107558448932695, -0.5247031887999267, 0.7739602986329356, 4.896667131082521, 0.6506307815193144, -0.5117143370859298, 1.7933517816116165, 1.0783523157556998, -1.9681401167194188, -5.572850528256124, -6.97421052685763, -5.495873065952907, -5.374355214002744, -0.3735023182893652, -2.0199523473662486, -2.6001428720401627, -4.262769857458977, -3.2510593424805663, 1.7696624553395457, 1.8855528563072734, 1.0320796934134164, 1.0702628845787625, 1.1562179351731134, 1.144633023561656, 1.2729116616244105, 1.29737825131962, -2.1030399767741557, -3.981057176387843, -4.524442874934753, -5.456027801597982, -0.3438117128535918, -2.6678835462676065, -2.517121701504849, -4.0208148480038854, -2.3029496038310096, -4.648469635569592, -5.886677041741964, -8.453873017183012, -9.053299732650196, -3.417037557128922, -6.884063461812127, -2.9007051821224654, -6.430016957188335, -3.193223890310535, -0.4022249734841185, 0.6122883553950065, 4.210359853946269, 2.596281343248121, 0.9994483270272854, 1.0748801051313404, 1.2394400574601832, 0.8759871480437795, -0.07902947933186434, -0.9203211044863076, -4.227415142667905, -6.97969903104171, -8.757152354286141, -6.463067017846744, -2.6193246438583713, -6.600279170277355, -6.286256218957725, -5.315066440642602, -3.283611067494532, -1.0983176332732048, -0.7755994692415229, -3.5947581783868867, -2.4321551779428447, -3.800349881700445, -5.500546509741478, -5.053016495213071, -2.305267074997738, -3.4414443124003014, -0.4905833687158387, 1.6333205472864638, 2.10997563751626, 2.18790044870878, 1.6405786027523184, 1.03566829729217, 1.1345403206130191, 1.1087135015865008, 0.43486391185478984, -1.787900120882049, -6.018856923717701, -6.474895900636184, -7.314727734157199, -6.9976532859683935, -3.2578393247978785, -10.271282031196893, -9.571581633017594, -5.455643178817069, 0.9890909888523447, 3.8013212752929078, -0.2801487693140209, 1.3576334296377892, -2.9959133321770004, -2.6694416531055816, -6.273267842020909, -7.000024613960738, -4.472116662060614, -3.5811252226304355, -4.234099182398436, 0.3147383289755369, 1.67672787902215, 2.121051763026274, 1.1507327427706098, 1.0578490301266732, 1.142983397594407, 0.9882596271268633, 0.7805223111680685, -1.279331930106985, -6.1707838252728635, -7.394061020825637, -9.103563806346123, -6.541239500762489, -9.255726705905907, -13.753652143780165, -7.443700957892253, -1.0967256760669863, 2.2197693005823527, 7.365285890679467, 2.0570127726404768, -1.7275781400568784, -6.554255085414492, -0.18840043993558767, -4.435950370681254, -5.331475256807163, -4.376430228040847, -8.71771962525683, -3.747194645493455, 1.351164198380864, 2.0289689188962456, 1.7510360455230172, 1.0392542757570793, 1.0741329819480359, 1.1008984925026102, 1.1776310713147589, 0.6265411380417737, -0.651288413392794, -3.873661117851642, -5.848920386459922, -7.217941685160829, -4.419676528758798, -7.3221090213434525, -10.160553074734148, -3.5865155885016415, 0.607251237592026, 5.4562619515521105, 5.536767893834284, 3.1661450913129103, -0.5802930835821042, -3.796523386994757, -3.0011296264467573, -0.5834634129097374, -5.217248540847362, -7.689736218947168, -10.759782734209658, -9.781901417586871, -0.9793629963830084, 1.9562818117673084, 1.5407179865848442, 1.0717189330149817, 1.073134505451845, 1.1051471863633269, 1.146346832078434, 0.8356541755270271, 0.06663648492292863, -4.028561639893438, -7.962324993575086, -7.909515295612914, -3.552300906981806, -9.956250681790548, -9.345027470265235, -1.6145793961382768, 1.2639836448840154, 6.48824129582675, 2.097050869839837, 4.303152818801112, 1.1352714224485985, -0.7976598600517819, -4.401239182325946, -1.8656458066579904, -1.7397209348712506, -5.922200432706768, -7.172548578041065, -9.189844001827353, -4.178418375169151, 2.279961617795544, 1.3500110806526866, 1.1299991197900177, 1.094063652446882, 1.1218987342538758, 1.3181198951080568, 1.2193917506724021, -0.17772112177714347, -5.4932205043057625, -10.467067617864439, -7.374848233339584, -4.68006678885824, -5.583703707996859, -4.474671113190734, -3.346507000039176, 2.0859124549826356, 2.4646866359054833, 2.5559281101984093, 4.501897189473617, 1.1884115807749547, -1.3491010639888932, -4.509632021144295, -1.43813496850347, -2.275736973352485, -1.8422962011300703, -10.475362566146954, -12.28094551898374, -4.853807573327428, 1.5151120627651278, 1.2659053939079088, 1.2877271862339612, 1.1482259275797806, 1.0181767689361028, 1.0832000337532484, 1.3764865621488327, -0.20770610308119, -5.178642910804184, -11.389581576116086, -8.92875248515998, -0.30030934387414276, 0.6760576861832017, -1.0696631182129108, 1.620748265341551, 4.1304653723052995, 4.623551568557378, 7.268807856767571, 3.5726588982726044, 1.324198694101324, -3.6846871690631775, -5.060276308885301, -4.804981533703253, 0.428014173969341, 2.3347103021367652, -5.7708646008002455, -8.871432024022502, -5.9146733144560315, 1.4500893766349694, 1.347136084108275, 1.0366631270240778, 1.134492423553437, 1.0908907372510495, 1.0499110006703534, 1.3952560973563666, -1.3276159649139172, -6.709199152823387, -10.287513501035729, -9.21329510630937, 0.3859181782244964, 4.200730583374316, 0.11610965910049738, -0.7008618431322661, -2.105833859623949, 3.795967749869114, 4.871079283973041, 5.1413651612385145, -1.860291862070347, -2.0466795596923637, -0.9802246657539553, -3.502837720558118, -0.43538836897065875, 1.6149406578767256, -1.5277911855267572, -3.9723401840376207, -3.765452014542402, 2.0887599087959274, 2.150885384140243, 1.0787593493413552, 1.0675387935805023, 1.1944620075131462, 0.9678606005127, 1.7614153266553738, -2.2953145036020417, -4.950410378962726, -5.080463660453358, -4.399349168900778, 3.8063897922588237, 3.004159701036089, 4.067139168003484, 6.052913759285505, 6.636319571867989, 12.706238443665633, 11.275540500467454, 6.304647901915919, -0.425338222291531, -2.2818423566862314, -1.2615701555820595, -2.3331673052740585, -1.1593373952116794, 1.3891654543607042, 1.5152485265902862, 0.33511377318026214, 0.20458868771114216, 3.087808397494236, 2.7184057189965434, 1.0435689884053105, 1.0715644413562246, 1.0537723072531566, 1.1385126913572186, 2.5926907602660094, 0.034953660630146155, -2.1277849492422307, -1.4930895693436461, 2.8223087084495133, 2.811811413170739, 4.2310454259307635, 7.146276600146496, 9.246928311992791, 10.939444932488744, 12.087219137979005, 14.527350960760081, 3.6066342147580546, -0.9849888508544289, -1.7296155701261626, 1.6949018678452634, -1.0406757132906694, -1.9444440419463713, 1.6053728102363654, 1.014539989793364, 0.782574518154487, 5.309057876831944, 5.368613355903601, 1.9582012853987927, 1.1114532487538404, 1.0981471418612838, 1.0918654691185612, 1.5929238083897541, 4.749586751556554, 5.6399481131238725, 3.775636824442085, 1.9322061703226916, 3.625312685000698, 2.961197254959689, 7.055718885906378, 11.764097588173632, 11.406587230781142, 10.437810063763484, 10.774711734127315, 8.276077271829116, 1.6540161567334253, 5.129699808875303, 0.8491508156673322, -0.1570295142840537, -1.4166963533655046, -0.9903894095409119, 2.875335143620786, 1.3666826344450924, 6.153838187332018, 9.119748826521946, 4.999168411105312, 1.2278147264719552, 1.063957754749457, 0.9967842183328401, 1.1014923001244268, 1.7213252317679382, 4.040708687976537, 7.611342104647852, 6.2536899620930475, 4.681184316647247, 5.839614870912867, 7.741607902400876, 11.8903748217974, 11.544761719362748, 13.797724775757262, 12.713799933704282, 15.029469963558599, 9.82379434788716, 5.198375110529431, 3.830688395684814, 0.3516645700299142, -0.46528896218186894, 1.2518936103080982, 2.8181486075208895, 1.1728062787080955, 2.4516838146932076, 8.989504497855098, 7.337344109317599, 3.2129488669263537, 1.0102587374758634, 1.0775076721876442, 1.0956861383813423, 1.0863952227063476, 0.9709429953501343, 2.4526584424303057, 5.0775286318582245, 5.70492454778457, 4.374996986839085, 7.19260651010047, 6.695603629960758, 5.271345611154725, 11.548737741296039, 15.297190090797088, 12.253605827171986, 6.4962356754258925, 5.230722751197055, 6.51527974309527, 1.9466109227796724, -2.6245906484457904, 4.054369202874748, 0.033036856834269115, -0.618808200578194, -0.9033975681099672, 4.049306523967281, 6.059068847241695, 3.9423038288587855, 1.4074121896770713, 1.0664037864913172, 1.035604765142326, 1.0703732700915751, 1.0399881478224784, 1.0700324471789053, 0.6993016455318569, 4.747349938355163, 2.7866082772388463, 3.535463817540937, 1.7106233018410695, 1.096430036981512, 0.5840052546668658, 5.3451619626674605, 5.874619664159703, 6.516174472509977, 2.9908322224505843, 1.4714765735231703, 2.039329513407857, -3.285998659339751, -3.5091981643954027, 0.04285289842794644, -5.554852382122095, -5.921792787507603, -2.0357488277980966, 4.174791853000697, 3.7665453299487552, 3.3064421793768792, 1.3448508249264635, 1.1037724775930287, 1.0904948998982689, 1.1260311271153367, 1.1424769411575877, 1.527175816677212, 1.2754725829530198, 3.372752949470254, 0.8890181553681773, 0.34849652465101083, 0.23789454049198477, -0.30195820829191405, -2.1935039159836873, -7.731793921663213, -7.76409973873883, -6.533363983853589, -6.192113266698889, -8.308663571610884, -6.970569738541171, -5.980852468409747, -6.240067829352423, -8.619900146998557, -8.737597115771992, -7.020268505643708, -2.5157972243473905, 3.5718266579245292, 3.347179608651212, 2.7740394712891616, 1.555100217770857, 1.025906357387902, 1.130391378557031, 1.0902373258497544, 1.0904249153061314, 1.253432780527022, 1.9898941452405912, 3.235026192910347, 2.7036647721186515, 0.6676700696451842, -2.049795631485329, -5.011375193029831, -6.764704386232815, -12.276124042886853, -16.23090412021674, -20.10084980746569, -14.339605542371721, -15.095973543965506, -15.026308581502937, -10.633787173952031, -8.208195747917605, -9.203028009920047, -5.320545372786678, -4.0771496259594375, -2.0543025033537514, 1.9249345394124922, 3.1880156127048918, 2.905071072593655, 1.5436622129814224, 1.14070188033901, 1.1314252493015262, 1.0947062217700316, 1.1326611715389876, 1.1928188664304424, 1.5233622989701021, 1.5863283480378094, 2.293596146760585, 2.3143575737426962, 0.47459730805255934, -2.1745861343362516, -7.583016107039159, -10.948541819417603, -9.282739985318852, -9.549331296529395, -9.005073046186483, -10.245456327228998, -9.58476168197207, -8.462749744155861, -7.484757461808574, -5.759108571286276, -2.902150906542568, -0.9243953365648989, -0.8077608606157535, -0.5683768361460797, 0.2723750056878151, 1.108692604861139, 1.0685707278652512, 1.133395652095786, 1.0708668282471916, 1.1276161287770554, 1.094594442161544, 1.1388340649436515, 1.2071740214655478, 1.9027350708363575, 1.855618910969573, 1.8923105622510643, 1.259002472673553, -0.23847069075459593, -2.3956139967799626, -5.470344685540262, -7.437857371098213, -8.158668635982535, -6.550051931155736, -4.995068355527514, -4.955548677834648, -3.3643975008915277, -1.6522243082734256, -0.009190397669249796, 1.3646710172402308, 1.5450310677577501, 0.8851477924143618, 0.9029352216313119, 0.8508154221624759, 1.0672061517442009, 1.0458365348885987, 1.0766285171603194, 1.1273416177554458, 1.1372869740003217, 1.0767490714709769, 1.107649958680215, 1.1252028704792139, 1.2818544642057024, 1.2995994942454618, 1.056275759956356, 0.09618004163155884, 0.04279799898463303, 0.1451070616049643, -0.3627443323412472, -0.8434139752748511, -2.6449457391476203, -1.9502569764147641, -0.6789237427298174, 0.6033192231089883, 0.7625705885200242, 0.5018092990154815, 0.7295281929490852, 1.2957214758647981, 1.0710594073782982, 1.0805068264454663, 0.9140955808926754, 1.1230542092348677, 1.132913030724803, 1.0735725002586682, 1.0845026069072567, 1.0878608887973094, 1.0544192568074282, 1.0472608934128145, 1.0944871918999852, 1.0936683411058334, 0.9859621967667254, 0.754644169187073, 0.7923399042957722, 0.8969775357821534, 0.72677322111893, 1.0010327452185765, 1.4319101115366832, 1.338954740165314, 0.890985974699693, 0.8981702985452945, 0.944614855879572, 1.2094225513880885, 1.0762374864243724, 1.0804637421439427, 1.0640811195664603, 1.0511505073309393, 1.1125603443094088, 1.1254353935256676, 1.0802237544156417, 1.1821552194334144, 1.10765578007069, 1.1627565932085608, 1.1252669469954468, 1.0980703760709747], [0.013380785100859193, 0.027581573845450225, 0.02040514172645546, -0.04282829239080097, 0.04194038826835778, 0.006753153062708689, 0.10639634491269184, 0.06123534676583665, -0.0011004913905599267, 0.009871272387178325, -0.04212292728828241, 0.008514223043287212, 0.018277968926289936, -0.03857809102124629, 0.06169718993521758, 0.004608621034010941, -0.026876781824888354, -0.06184415813131612, 0.03300488957629812, -0.019618703939002016, -0.01327567916426818, 0.08016160579657011, -0.008968110428464005, 0.025061682957909556, 0.002520814887926, 0.03394361084122193, 0.05997512785820754, 0.025219230315086934, 0.009950207434740324, 0.017086195841803268, 0.048294139307557375, -0.005469156315144296, -0.002446095419022648, 0.05425387017098953, -0.022422995429756506, 0.024646768931445562, 0.0007654014005495268, -0.04086572676879385, -0.0528288022561391, 0.03335302103247387, -0.008938261184302292, -0.0328001816175363, -0.03443692912529039, -0.006516353866138249, 0.031673321133291736, 0.020820151951241518, -0.021999489476376366, 0.003713931503859719, 0.005823005114788891, 0.01322659846192735, 0.03664787629425966, -0.01711784548456705, -0.002626115042529553, 0.039233841333188836, -0.004147993643386032, 0.012123590060630378, -0.03865349200910092, 0.08446493152289847, -0.055187548124343094, -0.06729937617972076, 0.015667647319473763, 0.02895643125150951, 0.04425711359364771, 0.026086429567545696, 0.0666937934114573, 0.014465932853310286, 0.016292473406189802, 0.06670430115827311, -0.057031633397253756, -0.0006914199078895757, -0.04639357390716216, 0.06587365459761053, 0.12072353233865667, 0.0376353302930165, -0.03450567056576049, 0.018789894445728973, -0.00045961278485014904, 0.02722877173139077, 0.02645900915528426, 0.006899866223360862, 0.01737809366898599, -0.05367335834239909, -0.04126707147213029, 0.0651611894831309, 0.04250791007703874, -0.00690953082091325, 0.04109311126763667, 0.09481698486081803, 0.02447188634095155, -0.02222561452851927, 0.01242941018523421, -0.03050673207531398, 0.013597292749029353, 0.07028725772428208, 0.0028794696222529978, -0.01703009755428182, -0.07827383220797508, 0.07034142352639455, 0.1207082441722131, 0.19739082581823073, 0.1213753362188534, 0.055701731312071054, -0.02737393547618181, 0.03103985791336703, 0.05191109461542244, -0.048559106359505076, 0.022280226309381642, 0.056529713701495565, 0.05019333204864135, 0.03198220739444775, 0.01876350742799241, 0.03874076530643764, 0.0020918213916240012, -0.0372716840978946, 0.03039502416222864, 0.031394435409317654, 0.004746392036165806, 0.03176754125574221, 0.03335977857471993, 0.03748086905270466, 0.002846211930127363, -0.004876819161616923, 0.07443049097064483, 0.016993943609127083, 0.06243402873164069, 0.1070255942651838, 0.20749556408905426, 0.19842776111241064, 0.07036708342526056, 0.03712037132827504, 0.049703284044212426, -0.06519141539660922, -0.023750870886222655, 0.014449001371901617, -0.02743223283828532, -0.055902048743245024, 0.061088086363720616, -0.0015839263946580049, -0.027078996052365044, 0.0078041787884368255, -0.0014236066032962042, -0.018323515050990537, -0.016529279673560663, -0.019278946345390513, -0.007216840272764234, 0.0389593687789008, 0.0424901458717323, 0.028826045273955436, 0.024419963602276176, 0.0599016819599117, 0.09079917960417139, 0.12434334680752196, 0.14661715565214775, 0.28897917870513357, 0.26001925048824975, 0.24261699789817853, 0.1527126966566941, 0.19100181663576768, 0.14575529848614796, 0.09618297014693296, -0.005380122972416811, 0.019063825013212746, -0.014417320811055607, -0.01996756108048834, 0.031048009503980574, 0.016519159959399805, 0.03434895220830481, 0.04920461279416062, -0.007747293704985856, -0.021606073041106306, 0.037124226878537545, 0.029733476255354673, 0.08953858877000619, 0.054039957943134834, 0.07433658848460126, 0.00557296928416557, 0.006247727234958297, 0.10933172371232253, 0.10019384369385105, 0.05515749730274874, 0.25745947613445536, 0.21980006265011254, 0.17864142352835233, 0.25855296603001043, 0.28241232576818187, 0.27434132203873146, 0.2495381115780888, 0.14475226877241515, 0.007934173844432487, -0.02160067988070985, -0.03634989296847337, 0.05479520274851798, -0.02070169050243051, 0.03251962196594186, 0.026256784962621117, 0.07491254597785524, -0.026430540447539865, 0.01551581413808932, 0.02261032361873395, 0.07720494746344221, 0.10577577306232228, 0.13728861859332786, 0.07637483836696055, 0.08768478562277636, 0.05811765024762046, 0.08016350141175141, 0.1243979182299594, 0.16027153750836348, 0.30034954203678654, 0.3127863166711666, 0.32200472733857616, 0.2704500326233823, 0.35675740230757097, 0.17358141372075814, 0.24326757977769833, 0.25476602984417934, 0.1079025760171903, 0.004422998796428548, 0.0036515568272481834, 0.0005108122786031321, -0.015059046218838398, -0.016911348781026448, -0.007124206799742391, 0.022192052577055952, 0.004997406688596965, -0.04528856541961231, -9.892595571054287e-05, -0.035296203295122064, 0.0926227857465901, 0.1480266661868548, 0.06938963036805477, 0.12021702641648412, 0.06415776747266068, 0.03766665681996907, 0.10749020550454949, 0.24383513044186736, 0.24476942063763618, 0.30513540299056696, 0.42781782352656506, 0.38886949668542947, 0.26913689617513087, 0.17602751759381557, 0.3763622880724873, 0.3087134077956064, 0.24586237434640582, 0.015643300650627374, 0.09285143947423714, 0.03668343186357863, 0.040197984784138885, -0.05260617349556672, 0.07413651598357929, 0.02997523382958792, 0.0232379071055394, -0.01686875966760868, 0.010714433345960195, 0.028301230288931417, 0.04599021669405429, 0.11138178191236117, 0.15475335430120485, 0.1665943338758276, 0.10110049338571153, 0.13821422723914079, 0.06671240869648297, 0.22496985950971174, 0.2500592085730642, 0.26189980647537736, 0.42538983344006037, 0.38844355578772016, 0.34008089378394385, 0.2307646936211762, 0.28978267447487993, 0.2163087146453986, 0.1394516381298682, 0.05936871760981945, -0.008782141332272897, 0.07944171692863777, 0.0713993114120128, -0.0040728541717774385, 0.03790786497920037, 0.02367921452345096, 0.0191323176404187, 0.03556782936395384, -0.0007893693395133604, 0.007717668098540401, -0.008264531172093482, 0.08378493888086391, 0.09379690674895237, 0.15143921668562627, 0.2148306271001124, 0.19548791533667034, 0.15199608708803217, 0.26911681063278714, 0.21508049755299555, 0.2757003454653, 0.4184088711314615, 0.33726243934792366, 0.36231540785233146, 0.3145936689279963, 0.2756324925063218, 0.2065095544769657, 0.08557767575439108, 0.08090513807249543, 0.09013199863693294, 0.05829027007972187, 0.008674358064673498, 0.020812294046895875, 0.03691766157935243, 0.050205881997610315, 0.033498817324293426, 0.024867107496899896, 0.012008173269454688, 0.008728267752245888, -0.0014293424097756302, 0.13831600588757023, 0.1043904737089153, 0.20521651240376557, 0.2745209788815794, 0.2164852276892263, 0.28722382154657733, 0.22396770372204183, 0.2603125969694918, 0.22311644364604818, 0.38112073087586856, 0.3681690574916835, 0.34805275292123744, 0.3955778291705602, 0.26823740164123333, 0.1784374315345702, 0.089741840364093, 0.07410278050181113, 0.06714407044391175, 0.0795843280149399, 0.035886701853433615, 0.023972010980663205, -0.03193507076581288, 0.01975258981028556, 0.046555907041286156, 0.017397789729388068, -0.06733800999387096, -0.007954298260096481, 0.0757044260477947, 0.07710231301143003, 0.2376669006526489, 0.25292281355975366, 0.3216545177964982, 0.2260168883486524, 0.3052598370547209, 0.28808279135397225, 0.1687994804309587, 0.2425050764558868, 0.47333069025766594, 0.4040574604527703, 0.38677545699492, 0.3307130274734347, 0.18938762126703743, 0.17403467332914876, 0.01924172015198149, 0.08128940746773834, 0.07643751356547747, 0.1588978533067863, 0.05118365831419172, 0.0138188747973168, -0.004353389007787912, -0.025547819766305054, -0.020269467073111624, 0.0538759693210611, -0.0354945337599624, -0.0014591671293150154, 0.03772544062282412, 0.13908429751271384, 0.1874908987760605, 0.10648199190935805, 0.2010271208201764, 0.08135041626237036, 0.23826543720258697, 0.18128178717164964, 0.12220638707303413, 0.28957071219289676, 0.4970544231921053, 0.3594468229617185, 0.3082691476911999, 0.1555887900086799, 0.18688549300336915, 0.12773993266645825, 0.008421382281726139, -0.013625770049194047, 0.08656436985284466, 0.0456580071088681, 0.042471832621309026, 0.034951640152949444, 0.06281252604273928, -0.013042043128168677, 0.058326244239665696, 0.0549468246233967, 0.006232309553518555, 0.03339920213523364, -0.04011911502355829, 0.138491350832191, 0.17514114862282032, 0.14937264702326083, 0.13347783411384503, 0.2458762515778985, 0.27751433986900326, 0.2176298967960974, 0.18342341655496514, 0.3586307635159334, 0.4977679174003244, 0.4073044008920329, 0.29893372032471394, 0.3217353814070324, 0.24250952110627416, 0.2842115808631303, 0.18438762298941777, 0.03642693002335654, 0.05754594567396482, 0.07410373058533465, 0.013656008458042436, -0.03515401203746914, 0.0017667037035471239, 0.024450668722522984, 0.007985517420243365, 0.013426443051392706, 0.0011784697018337616, 0.04182224028346509, -0.04043340375515995, 0.07098302287249063, 0.06239099500103141, 0.1414629674232746, 0.07791851083738198, 0.19200921830962905, 0.31527908988841213, 0.2683358753873799, 0.3110073086421341, 0.46536584430857625, 0.5039639337771515, 0.41805882117670085, 0.41809589940175884, 0.3812237537094686, 0.21697253042539066, 0.17191312770179468, 0.17414977089525882, 0.11692720871659033, -0.01235532613139564, -0.02411130128441961, -0.05138922204368614, -0.04734101688721036, 0.060328475644162875, -0.014274159052906722, 0.050930131393784425, 0.011210894723122344, 0.045045535416855416, 0.021249730231062355, 0.006589135321864453, 0.0821878984068317, 0.04597225237103045, 0.08273808954424362, 0.11409756594363459, 0.22340270337126109, 0.3321268961356353, 0.34118363098868293, 0.16543969241038897, 0.3997526357544153, 0.44980185620702956, 0.4859032215226397, 0.4422646321267401, 0.2459964490114405, 0.10515796260743436, 0.05750688657780664, 0.1426454324482851, 0.16230682578768507, 0.05036711941803068, 0.06858600599532189, 0.0474029474566377, 0.07058416985053123, 0.05629271456146562, 0.01714012107531266, 0.029687900485176662, 0.012697264620297993, -0.03940265054880643, 0.0347753697079628, -7.904996553062584e-05, 0.1360934460729886, 0.11424100064937841, 0.1483776655698827, 0.07985912776883689, 0.16953678699126737, 0.275695861640039, 0.25688825617243843, 0.17217614820024268, 0.23884596436766825, 0.5328639120562221, 0.38475047961579983, 0.28884901421659187, 0.20602729251929258, 0.05639086433421474, 0.13166367013826946, 0.2343349287941456, 0.18782703095119335, 0.010706691872470198, 0.05712694678468433, 0.010939517844387282, 0.09229409136133679, 0.05515825809418473, -0.026587580365117384, 0.006371352644964428, -0.007473526348780519, 0.01257124721364565, 0.03255707316871842, 0.04583354001111683, -0.044429828158218256, 0.0966709487958823, 0.017729455739588996, 0.10007846997055385, 0.11775131140442342, 0.21173502732133243, 0.21490915439919606, 0.10106321788156152, 0.3519092962803958, 0.3896949138248268, 0.25450422940659984, 0.10867674266604586, 0.15860151540718878, 0.15603298778429683, 0.24666850481974, 0.2446188728907282, 0.048374964619778776, 0.09268687357027283, 0.05594508729846394, 0.09266546367666675, 0.012087418482460211, -0.01107665234664218, -0.020146098989574507, -0.0007882236813770916, 0.08164678739217938, -0.0076111285213872285, 0.010759161176895788, 0.02745667962944692, 0.015602184881194288, 0.010492543525714595, 0.09125401457932104, 0.08772091728547969, 0.12693183781756018, 0.22371951555365113, 0.38645693662797637, 0.35970758721159646, 0.3501262759413465, 0.3328004000967717, 0.2758675363608601, 0.14973080841464875, 0.32476672722253136, 0.2908234148673444, 0.1956078308210954, 0.19184256626428722, 0.09079228486541033, 0.02721377998992146, 0.0984462274457919, 0.02101966805580197, 0.0016681687640848306, 0.041856543616483784, 0.03771403043719954, 0.022150301179180456, 0.015453069687865568, -0.0630345172656186, 0.11024371313208085, -0.017605097138384658, 0.026299981009883577, -0.016449743183251816, 0.19897114688141376, 0.21403972917843642, 0.20141596163648273, 0.20825613022964953, 0.3069320310555289, 0.3058269892478029, 0.3410061169959094, 0.383647834273024, 0.35161688182600054, 0.25450337682977575, 0.26924004487921804, 0.24918702448561658, 0.2914105523185964, 0.19577960155011778, 0.060140645028915876, 0.02237209792627465, 0.024158837879662894, -0.00486980989956652, -0.022294440417038205, 0.09141459708256171, 0.030769953941508933, 0.08725444090429735, -0.011188350494391056, 0.025984207130007972, 0.004353220096929148, -0.011761884457236027, 0.05885656458893784, 0.09849153836837951, 0.19613920608150806, 0.1885091130592275, 0.2222928560372044, 0.15634089596817072, 0.15639025490035582, 0.18767636267005883, 0.2801958299859028, 0.2991297103768207, 0.2647309575900197, 0.21292477225478884, 0.1407841989822244, 0.10908542844857007, 0.17989311953302625, 0.0954390750952003, 0.06845674421955554, 0.08600125988248687, 0.08061893384048911, 0.04416967982776281, 0.03243014603099933, 0.010289439529413448, -0.025231242860951505, 0.012247540856405115, 0.03716149941480548, -0.0018844997226420334, 0.06092645996482771, -0.012604612759016387, 0.01630987663282291, 0.06921015917552875, 0.1435561391721544, 0.18081828905311162, 0.10646484317217944, 0.1277196816255829, 0.1800777789803647, 0.2286507864663735, 0.260722172094212, 0.29870809069012394, 0.20400875378146233, 0.24085411418908922, 0.15845606258704692, 0.12014465210816502, 0.15372997652724202, 0.1818858844539934, 0.11655131972112182, 0.05824324090531361, -0.0593006517834374, 0.03547787887689017, 0.02862203477552311, -0.005536063171241926, 0.019406463883082554, 0.056495535057290956, -0.01191598783820046, -0.0014169492383879394, 0.014104949708561723, 0.011032156228105631, -0.00106473223358638, -0.007761081489071367, 0.05494732698305215, 0.10740226754483172, 0.08678815007309766, 0.09984270300329486, 0.1867712882484528, 0.2160069679895517, 0.2829152605781278, 0.29978390218652173, 0.2645345286523641, 0.24665187862016014, 0.17929846931261623, 0.05359486293627787, 0.07652563412509354, 0.05567638368193921, 0.08756158931230243, 0.03761412781425776, 0.004217625434533444, 0.04625337701017396, 0.04639979527120534, 0.01888756292465388, -0.039278170564491795, 0.019710094920848055, 0.09420993660704602, 0.05057823036854149, -0.00249396825526283, -0.028089467585002893, -0.08593236711057983, -0.09505010220883615, -0.09510034390826401, 0.045131107651933296, 0.05943972566171147, 0.014045975177177093, 0.12246475937645213, 0.12247198229330651, 0.08401660906803046, 0.18877245207597906, 0.06717629805103285, 0.1250113466942236, 0.048191256008039744, -0.023165044697512488, -0.04031890387645509, 0.11324431835840434, 0.12232055613611167, 0.00594767992892231, 0.05262694680479263, 0.024386062658678244, -0.028179444597458567, 0.0002477636072134886, -0.0020987650004088126, -0.012154541404016572, -0.008668132188792132, -0.0761499290020295, 0.07369441969363559, 0.0890714371001705, 0.01787380621526227, 0.02362215028554768, -0.09210513105594254, 0.07811140348574226, -0.016972360211672567, 0.0672625445320713, 0.08324009044013946, 0.002511792277899903, -0.0031612538790049467, 0.041209860812743866, 0.09130292453102691, 0.07407748803331947, 0.0055759223435803765, 0.06359980294859778, -0.028513066527644248, 0.058943320754211714, 0.08601817988675009, 0.0027969481246554943, 0.004043703189886001, -0.036378167654655465, -0.05581525359281855, -0.033666270021331546, 0.013644775250606011, 0.05925529958572293, 0.03235088100271092, 0.02671062854840701, 0.04836320783163047, -0.015531640091512732, 0.06458960518420755, -0.027607579933644225, 0.0228840008472499, 0.027486594033865972, 0.019233191061302106, 0.02030076950793321, 0.017018308988613468, 0.018621625947876072, 0.0011377325613614938, 0.0722690304617965, 0.045422009370056256, 0.06661250596013253, 0.12408788573731006, 0.03242117649142621, 0.008108837608747255, -0.0339624923746987, -0.030604037857133046, 0.0517076352029029, 0.004614228560528379, -0.03651947859589974, 0.032896808240848174, 0.06638534446275571, 0.06803676358996352, 0.012494211097400636, -0.010981974672207892, 0.019898323353798934, 0.0465142115296641, -0.02880727825564549, 0.060683178424321575, 0.01286560793193876, -0.015588252840938644, -0.02920330383536406, 0.012843798382826479, -0.03208812945746224, -0.031317488310362816, -0.016204331616425587, 0.021057070907111605, 0.040750837496283845, 0.00753013419202817, 0.053737237456447144, -0.004192563226779151, -0.006657071740501213, -0.070167064028138, 0.032245579398987465, -0.04768306340531098, 0.009127843111917413, 0.05300201746709527, -0.014919788245512074, -0.02258026345311979, -0.04932748585945037, -0.015376235732446867], [1.5370284600688062, 1.5508286690136932, 1.5490620994637727, 1.6470724236878642, 1.525939107584571, 1.5876483601537308, 1.6193943447951, 1.5537054486501878, 1.6180531353129795, 1.6561569076213376, 1.5260575558466727, 1.5360110694385718, 1.6346500535953152, 1.697171585398037, 1.5433849777223878, 1.5688992355284086, 1.571293972237531, 1.5780217792798317, 1.5720611935994497, 1.6101872784785665, 1.624926352664563, 1.5173223627768364, 1.616695647923159, 1.5970350519003327, 1.5396347343864234, 1.6059422446780316, 1.6226268524965073, 1.5487614591673158, 1.5456099068865317, 1.5382977149164991, 1.564941626744474, 1.5665948168122192, 1.5353408606209404, 1.6028176233159483, 1.56298183338767, 1.6289394860274304, 2.134658875257941, 1.8701527253743302, 1.8593060985587706, 1.634714828396036, 2.2833067075515725, 2.5234830104089156, 1.9645371401615133, 1.5572970216943816, 1.6619414327570676, 0.46932173232569024, 0.8638768481113543, 1.5176760770936835, 1.5593645081398884, 1.5382107921667092, 1.599018878095151, 1.5956315717850769, 1.5929997746584272, 1.529457912817392, 1.5660287231738497, 1.5013743036295983, 1.581516796836042, 1.6198255227867346, 1.56212977889654, 1.5423375609684216, 1.5166093233122335, 1.5144074117416795, 1.5094780304674835, 1.6960088437323135, 2.154262170301533, 2.1850305762772018, 2.856947563412877, 4.082341077093786, 5.201813855798524, 2.5838216456126135, 0.8338560260911663, -1.3736789855322875, -2.8202490028807623, -2.013846315635455, -0.0909847689944992, 0.7895984682800039, 1.1448680335970511, 1.3539069574847342, 1.5210661062322484, 1.5747114946438014, 1.5304475322433657, 1.5684997357035713, 1.585535699727201, 1.5729697591490328, 1.5701736650103764, 1.513696923477611, 1.593174082599693, 1.6029224331213683, 1.543290610103097, 1.1841779307533593, 1.5772450581792112, 2.2477694722333053, 3.722536291665416, 5.048943148540242, 7.340151125696866, 9.01316239223066, 9.212988009089, 5.665963737273495, 1.0334225403004242, -0.9564677746469675, -3.2448499559678, -6.390699398084332, -4.755512850582321, -2.491197096132665, -0.8964023141408648, 0.24690052348328873, 0.9131503532347708, 1.006118855363358, 1.1602912198260782, 1.5297177356036287, 1.4748237728387605, 1.5596991361733428, 1.54964939515157, 1.5336984659925814, 1.512863552678724, 1.5482898802637937, 1.605901631112553, 1.7104798026341423, 2.315119395944177, 3.6591424147624623, 7.260095332138006, 10.952934063386218, 11.320459505332606, 15.300947496164527, 14.007500252035154, 9.362969758003475, 4.377814306358944, 0.7089987269127221, -0.481788031573444, -6.551817673547701, -6.602633314841831, -5.812461333230159, -4.998041428217752, -3.302515274855694, -1.9658235164270748, -1.1294123458592942, 1.0496965727098226, 1.4708445322124137, 1.5140139655835163, 1.5347612699289603, 1.5894937124816242, 1.5722413735307026, 1.5980022172956887, 1.4760498466755538, 1.7502209600828214, 2.4311475371198243, 3.0944245333014284, 5.4524609242914535, 10.79469542176922, 14.930253177815064, 14.357203142908338, 17.57858398619046, 11.939610795850086, 6.92037013060224, 3.3019636819449625, 1.6760612774834824, -2.504614079894248, -7.564560768575161, -8.063281759919878, -8.086071510386724, -6.855737582161691, -6.423084216949185, -5.334076196145873, -3.9427190006555373, -0.6542701178924012, 0.8413933740445392, 1.3278880056809472, 1.6302116858335876, 1.5534585572634023, 1.5860080120829634, 1.6418108820856172, 1.6009216764743834, 2.044678589757887, 2.943825219395099, 5.3338920009593735, 8.998116515296596, 14.18962333664011, 16.125359043610597, 9.985557485719506, 8.299107723349431, 4.659070145216859, 1.163691441685121, -1.8679895261427666, -5.101817611742389, -3.135749894393073, -2.526015683082339, -4.308110693365192, -9.641632975828939, -9.428519059999834, -8.706471227785014, -7.601625214091179, -6.846502753385687, -1.7719026180729802, 1.3796962407384026, 1.0009146555209418, 1.5596461121903658, 