{"name": "hl_8_bias", "layers": [{"type": "input", "nodes": 784, "weights": [[0.053250080368052836, 0.23670850148970748, -0.3184974391141375, 0.23792519575371887, 0.09792729029633443, 0.08402870344463031, 0.007285590521559205, -0.10659868009200521, 0.2740925756350891, -0.11979086744241421, 0.09304082635878777, 0.4064554681504415, -0.3129731410503854, -0.134003440378116, 0.09731426484803768, -0.28018501439287685, 0.2434817447890419, 0.03030566876939087, -0.27217395484987583, -0.17135410485724603, 0.17430148768978437, 0.037260926998402034, 0.970984458135938, -0.44478704547678205, -0.3697579290295879, 0.27211626430831976, -0.035219110708245065, -0.09518566271876291, 0.10191619031460411, -0.009771671011391573, 0.21014084582352707, 0.5279325375556146, -0.2885762474680746, -0.009247038195002277, 0.18154645224202656, 0.5265614567876027, 0.37061701169346467, -0.3764843439343614, -0.4343847990862221, -0.4470829949692872, 0.15040407751505966, -0.049506654558757725, 0.24656617704989245, 0.23005414937323085, -0.12205232854497362, -0.26331423012202, -0.6010746783847839, -0.08865926872043076, -0.008732960472136371, -0.017257905234193287, -0.3022934470656347, -0.1933967478564204, 0.35226890543033185, -0.054771086546869956, -0.2903661629297328, -0.12651000695063605, 0.5472653416948839, 0.14995822366724582, -0.2669042361390443, 0.32240092446080076, 0.8361669004512938, 0.5802108047264394, -0.30174613800497657, 0.3200118978239307, 0.3475814984807047, 0.32930555595451017, -0.7166596555229263, 0.05354246768737441, -0.4322097416306032, -0.09540733800320923, 0.93557337923273, 0.1715967237402988, -0.2104574905403972, 0.15338339597127118, -0.06726923010655413, -0.4140026612610223, -0.32612853215496446, -0.5967798928644052, 0.10233226572903614, 0.11037814389781721, 0.6361675849967071, 0.27413895383814235, 0.12944448962034374, -0.5000542566327877, 0.39024922675545676, 0.2377059046243315, 0.45438883591632434, -0.577443868898168, 0.03735477781364665, -0.6161487630273415, 0.24850711598010214, 0.13728832598962748, -0.2261285415825399, -0.9958524270650622, 0.22443438880965016, -0.0815404297674304, -0.15317928791368918, 0.17026574681401654, -0.23233783738130656, -0.9336863620069923, -0.3940677231902599, -0.02792853457784974, 0.08639532556071468, -0.71670810864265, -0.3968953326851527, -0.3741290759451325, -0.5693038010710142, -0.11450425674489131, -0.4218286331965264, 0.21156074967946792, 0.8552217059618579, -0.25149158882156536, 0.12166884380678125, 0.7558543307702308, 0.014137573669246, 0.23671018087716977, -0.24733780158588314, -0.22865843196073585, 0.1918881766011863, -0.12393566891084422, -0.28084435259103135, 0.18058595462954583, 0.234642236832495, 0.11107861155556387, -0.33704183956144956, -0.15457573364117586, 0.17959635556491568, 0.5234633720138337, 0.5697711145639579, -0.058951361462576665, 0.02309198414259165, -0.19983636745305158, 0.202426773445393, -0.07425306107269454, 0.7575995473309437, 0.43801153384250546, 0.044474957871743326, -0.01739700700510067, 0.3429119807644239, -0.4861380454845474, -0.16144050070882057, 0.2935524874622966, -0.2819689903791204, -0.3027317139733075, -0.4436265425133, 0.463897930814618, -0.3285496010297158, 0.17939979847334347, -0.19368203029452705, 0.3756712268790542, -0.3656998809623313, 0.6785154644659772, -0.5014402449941806, 0.16759448676499272, -0.3273032347446465, 0.28926889335078654, -0.21598063647804638, -0.5571119762641088, 0.18028169650918519, -0.19743877082841285, -0.03571148940453817, 0.8000617412645917, -0.08475168684905293, -0.3313927248775877, -0.2836972230432105, -0.388851395478666, -0.3035152692928759, -0.12090984697247795, -0.33685655415725546, 0.2033774497083626, -0.31092126181699903, 0.4902976989249266, -0.141182109953544, 0.22719167787757644, -0.45903532623171844, -0.011672401610300488, 0.10154920194311916, 0.6956417156995952, -0.3109522144694075, 0.29049799073772886, -0.29275183414996675, 0.31728170420397694, 0.3969129263222265, -0.25750152444376895, 0.3210038340012137, 0.47198274541097357, 0.6589389087685632, -0.25983337049057253, -0.3557892943287757, -0.013918636816670734, 0.3146094073645139, -0.7781756469093889, -0.24373876142198977, 0.16522110910241117, -0.38456902999079434, -0.08348246216919517, -0.2949803457338244, -0.07483192627402428, -0.006192212752676682, -0.16386038407045153, 0.3975650786380909, 0.06845579267271268, 0.4790789560426256, 0.05521780465268636, -0.36236926507164574, 0.4996676423214025, 0.5698808735964601, 0.3548251088640245, 0.49761589823467894, -0.05890594512567096, 0.5597742442814776, 0.09506594679875852, 0.08110901421568265, 0.42225842573039757, 0.08325925057082548, -0.1250441076036019, -0.16961650070341988, 0.23518365391309146, -0.3120264026317264, 0.005075089837947779, 0.6613338567965826, 0.27496255150373794, 0.4386420591233699, -0.008046916684613822, 0.6676227497830208, 0.45542089906589583, 0.30695179886113816, 0.39490009975298573, -0.2804226272824605, -0.46487353522487923, -0.5810238638399718, 0.13562721293280697, 0.21110812992873554, -0.02833831913435191, -0.18472715370044118, 0.5319596227515868, 0.11131546085438318, 0.5639582121267714, 0.24203143039004338, 0.3764517517024051, 0.24981809821552337, 0.30009099092740915, -0.06975415218907798, 0.6563392215281031, -0.15990387955446378, 0.2716018144098804, -0.11361857658168768, 0.08588184856385306, 0.034323469989635175, 0.18480891367741387, 0.04794486148298084, -0.16397078140390947, 0.11422694320740095, 0.400176093684835, 0.8333687937984949, -0.2069092834130287, -0.026840212808092834, 0.4699347450498294, -0.1160237802235492, 0.04699168708038414, 0.1397406686866301, 0.15433652147829843, 0.0839969695197804, -0.0030547601041549625, -0.42861548927523613, 0.5000075139069291, 0.5170761109634471, 0.6106767295242518, 0.3962543114981642, 0.10406451136708308, -0.2266088891435529, 0.6103113484079626, -0.15522784865067948, -0.5266786842466241, 0.06630984552660653, 0.009512305233673, 0.08181872840671205, -0.30648880346882096, -0.007772644003975376, -0.11308133555551231, -0.4021506492845425, -0.4508406217169657, -0.13768708057523382, -0.46862737303833724, -0.49823538010080287, -0.296360471762529, -0.08705156472805882, -0.22671053926146978, 0.2616980523698101, 0.22032723568742568, 0.32668902290736856, 0.6815107492428994, 0.3030983859273025, -0.3299466626833477, 0.7680201674244252, 0.1571905851468651, -0.32319731864528467, -0.015413063146610829, 0.060298624133725026, 0.011480975805556976, 0.12933171647348077, 0.434271536520402, 0.16376080857270878, 0.8248903716171261, -0.32696766132162236, -0.3952831471538802, 0.04308478720766075, -0.17762606795946462, 0.12668793017769922, 0.24882450761633235, -0.09105984712270335, -0.3237829347650974, -0.3706979037617332, -0.21420187210083624, -0.2247406496902402, -0.02657435777376019, 0.5778742974039441, -0.09166779665726985, 0.3169325332719603, 0.025759477863133932, 0.07108301271379888, -0.09896787378801392, 0.5637096614584398, 0.4294443217078916, 0.04345522532913832, 0.24300439065191842, 1.4882417950193771, -0.3415298514703145, 0.12508435430499898, -0.00404533772374255, -0.08218677265597113, -0.26664981696326384, 0.12323464332113032, -0.12202268796140497, 0.037536262782047275, 0.6857155241695042, 0.061034951310192355, -0.14987465056481436, -0.11120285361492745, 0.41977178645238966, -0.5138521311836742, 0.05137014638758871, 0.3378710727249671, 0.1358777101751737, 0.6329187696718043, -0.0532762000268953, 0.18654115913818273, 0.30795386578363704, 0.2005095306904495, 0.8241623786470913, 0.11911195501421773, -0.09260036576235034, 0.9048974299185023, 0.6119462502028297, 0.10876714742590786, 0.08665237256423727, -0.09245061918832975, 0.2970369621070442, -0.13193359873952368, -0.09953749813151076, -0.085018635084447, -0.6425940075858969, 0.17185402175604075, 0.1539500361585245, -0.2721386140673786, 0.13251408395423594, -0.204937317724773, -0.13733113985654838, -0.11880472265360047, 0.3128616437001912, 0.23231820524768823, -0.36253999444014096, 0.17307977782227746, -0.4913543131268689, 0.757935608920412, 0.17045225630084015, 0.19283523658682053, -0.003091456164895576, 0.6508251394581483, 0.23467981519907533, -0.09185090011322883, 0.5298930637035137, -0.10190427064761058, -0.2940312313883842, -0.2509900542285996, 0.43641918093671916, -0.7390145187847997, 0.01927219448607874, 0.2073772104430178, 0.23817046942113315, 0.0635201853622242, -0.7858206086576204, -0.21085506479575422, -0.8238534800790335, -0.09514134658961299, -0.13395622547137137, -0.2099328257976086, -0.3422878676367635, 0.5243436673199121, 0.3768505925567513, 0.3937919006783507, 0.3596136285562565, 0.22099957170519577, 0.07721421311229544, 0.14627908191020358, 0.014050977979298948, 0.8915859879966839, 0.47619447804681375, 0.32814581302602264, 0.28235344042037175, -0.15129079497351688, -0.02138540156279493, 0.6540399024797827, -0.16938414047256256, 0.5508540207225113, -0.3760809046678618, -0.2537407414679674, -0.16755589447880198, -0.40216863798272134, -0.03219624559221595, 0.3495616738370867, -0.25748220960879925, 0.3805971464082902, -0.15986502384606255, -0.2244714851557223, 0.06994096911580201, 0.3130357853424323, 0.6072976823596178, -0.38645296125370576, 0.5442444431522226, 0.10586991487969256, 1.2174253488688058, 0.3002529169227312, 0.3305310387385273, 0.25492491301496734, 0.3547521003836406, -0.22586662832751855, -0.24100907433731786, 0.37264278793491, 0.2607220551418214, 0.12663313172791638, 0.44895249956391875, 0.6456878997339168, 0.32525336964329726, -0.30346826369597246, -0.5470548801259212, 0.4744160524954865, 0.042270561744211205, -0.1896286200766501, 0.0028742745411105015, 0.46975826508960844, 0.028674198582848448, -0.007284851850425893, 0.1455055061040133, -0.6237335630839241, -0.2928884124409814, 0.47851324574094195, 0.2510041322657323, 0.35828840436679965, 0.07471224993928374, 0.009888257584647545, 0.5261084848270349, -0.017318929606146963, 0.08350426852572307, 0.02416999223851307, -0.019651358996395356, 0.861702454043911, -0.06926301880591877, 0.21793059393262365, 0.060856836210130404, -0.49979338723719297, 0.14785102156031932, 0.4307710313288839, 0.46284960166366296, 0.44050793468431687, -0.19640651361908965, -0.5974901275745721, -0.407940696366329, 0.3233128245017922, 0.007253081956621994, -0.3233004579964757, 0.10718019994884574, 0.026900970161380374, 0.04150004002634239, 0.13705797739019562, 0.5191728835043619, 0.1175170021137235, 0.1712121779266524, 0.3788254556090742, 0.47669638841094464, 0.8342330151784703, 0.31376691401000695, 0.18497135633656997, -0.43530515712696444, -0.07813474940116112, -0.3969782472084246, 0.6925378081369039, 0.8657742863979937, -0.014310637473406655, -0.4565094344229654, 0.1729425074070136, 0.036033131274067626, -0.5810206328552933, -0.34872115719661795, -0.2829623134235147, -0.1360760481732359, -0.24000644844526037, -0.35032219857475333, -0.2783224893011859, -0.6130782685756357, -0.2438236065172923, 0.30522681203983043, -0.10595843924482644, 0.02142891328965699, 0.14557952995606774, 0.3705697846144362, 0.05741966436725042, 0.0521596577506069, 0.418932914692943, 0.6355126377368255, -0.17156690782771472, 0.5787713878827903, 0.1732250105796167, 0.13014847100871507, 0.248918487566629, 0.5353274975289007, 0.20033113987434564, 0.1186763330967826, -0.06620775355274856, -0.11532929482155324, 0.6465222747111459, -0.5168960161106178, 0.14108532674203053, -0.09582330839196912, 0.029382603429026696, 0.11054538838859912, 0.5003975427418587, -0.55971554457502, 0.1680744944276822, 0.15438421298983823, 1.0833355358454846, 0.2319210953879986, 0.12999680487286513, 0.6276648896674496, -0.17050087667424915, 0.05045228529991732, 0.5497621634227925, 0.45216618492781036, 0.35312491721505285, 0.557801717097321, 0.043360236339839486, 0.6353851192395078, -0.059815565005934664, 0.46141285212887095, 0.022986739371248815, -0.2781784792535341, 0.136221202451791, -0.17300280253068032, -0.571035184114192, 0.0871419446593675, -0.000496977125320643, 0.329780884466031, 0.728082192723631, 0.07893700960124488, -0.22482730810562596, 0.24033029227646865, 0.22830250483463543, 0.4090948807493206, -0.18574057390905002, -0.3086427193229576, 0.46845002946610387, 0.49072241645882725, 0.47104120865986576, 0.520747481677347, 0.3503515782877795, 0.5005747016797912, -0.15358762006286442, -0.11663060822398243, 0.12574647454029172, -0.3411124026855969, 0.1708609314602838, 0.30160895529013115, 0.21072056966569577, 0.21117510760905267, -0.030104654085905635, 0.0632970762637616, -0.07232203190856556, 0.35366824926127416, 0.18555509648736376, 0.3785269034725715, 0.5470807257128817, -0.12738560376424338, 0.3730923827789658, -0.5657174084261538, -0.5334436969785609, 0.4872925866712054, 0.3968633296903773, -0.35218684987714527, 0.6756851916308988, 0.46173462215069117, 0.34866141973153647, -0.30653589924070895, 0.34587855554131314, -0.22714827474713406, 0.6874225480641001, 0.15952350317424482, 0.31775898485000065, -0.014052910939586397, 0.1749638044744241, 0.3402571549355737, -0.0080789397860442, -0.047566143625305944, -0.6741131576089104, 0.03513779041905151, 0.2935396813300148, 0.4994426234353378, 0.3261620150116508, 0.024451994500039233, -0.1929107887512474, 0.5491346688284053, -0.27720471034318245, -0.15822416465007913, 0.5678232241016811, -0.5674299494690977, -0.02403017215618782, 0.10541443489431887, 0.47410301888257483, -0.2061832390486411, 0.3282988074448055, 0.6665389275005733, 0.23316242286928804, 0.4688339696671214, 0.5011585696640458, 0.24561056081284266, -0.4625919680495443, -0.0876168981937238, -0.039963776657276094, -0.328016451367897, -0.08899883960243443, 0.11139051851219078, 0.4266921441005805, 0.42018014273615534, 0.22915569767048927, 0.09213524888328027, -0.11635639090551006, 0.27776536824374093, -0.3462225858128621, -0.1458498495486609, 0.735599222330664, 0.3477328968365987, -0.1885664652663785, -0.19347947048083697, 0.8611377118518841, 0.26047296347808246, 0.031076576491885353, 0.24952634972780008, 0.20881249331449422, 0.07978635351039146, 0.26761749873228846, -0.1742701021929908, 0.5947330555733423, 0.013595403672460416, 0.40497716302859554, 0.5330518853086677, 0.16690932341099746, 0.11640881312216665, 0.1958893313804803, -0.6181688790661506, 0.2650925558149565, -0.312246588889569, 0.5168696266622257, 0.03678881046682041, -0.273152360615013, 0.11591240818856133, 0.32356979636991673, 0.02281387297585915, 0.7456446316422766, -0.2494020537221077, -0.0011349634087763258, 0.3325750981518215, 0.3613232282840443, 0.2943538262968523, -0.18762576112230492, 0.0061591522785231214, 0.12544578572193138, 0.7307844115138382, -0.015158673938858917, 0.8647068937169927, 0.18925989506614557, 0.23718336057242875, -0.07920589248889498, 0.003482872856404954, 0.5257139377296445, -0.01717741325628752, -0.39291371686444165, 0.12045432418111558, 0.20203224921007143, 0.15421530347314927, -0.25423198410021347, 0.012723881303211306, 0.030096542741452022, 0.26805139711301823, -0.11757866106399442, -0.2582432720598071, 0.03997741808770426, 0.008277556625224978, 0.24990308427844554, 0.22587969975921487, 0.34246698606353787, -0.1902485254392011, -0.10259481397096865, -0.011339336321907109, -0.47394158591761243, -0.08524004611228624, 0.024938949632206418, -0.5721936323665371, 0.5536604427142539, -0.279007199917761, 0.1998729012128922, 0.21245098902158902, 0.371246854773104, -0.5751663203641941, 0.015061546834596432, -0.012195444363671499, -0.19086060287979484, -0.06269272522647554, -0.5760010945640178, -0.6503365401609801, -0.22861454583035856, 0.19344392638808355, 0.021463211020708327, -0.7612100010778565, 0.3215690276279857, 0.3077370705552487, 0.4325554570180941, -0.2741229581527312, -0.35326604719726273, 0.1903062236366076, 0.03155092105765818, -0.04662160348935108, -0.05038244114897488, 0.7666174938660495, -0.14140625513932653, -0.19666008531852608, 0.4443262996947713, 0.5361869296519174, 0.2297607355669803, -0.10928008666957015, -0.7487716977597576, 0.3320727921444104, -0.3734073326394388, 0.08376307494140667, -0.7323009023451954, 0.23113107390984078, -0.1462460359401953, -0.1501216657821376, -0.05776584202297938, 0.08011185827675138, -0.15281474821474272, 0.5063458939925891, -0.055150677023963104, -0.29578803151331484, -0.3665083278366537, -0.04141516742922033, 0.15040032749415158, -0.3289096829691587, -0.0884222160669519, -0.1692413023596057, -0.14906291437672173, -0.4455910312559358, -0.1564420666497293, -0.13816025297721252, -0.43862448122744874, 0.3922825054399086, -0.004516774690599129, -0.03634685791145049, -0.3115118123043104, 0.10917052110231652, 0.12638521561606192, -0.03619239421289197, 0.05586238547746915, -0.6203511526010554, -0.29812291678790664, -0.5919121498863978], [0.9827857985596252, -0.22588252052446478, 0.07534039553641772, -0.20958754004443927, 0.06371368785403013, -0.21048720231441567, -0.014201014247862855, -0.08809403866648174, 0.20458376514586912, -0.0454209350069123, 0.2640175806177405, 0.8055402317724583, 0.15629831971017208, 0.11439605935146781, 0.013041094816513, -0.22360094319571922, 0.6642938452562416, -0.1821551774825184, 0.11461093472597153, -0.1526099303825661, -0.22496821699096467, -0.4087389858393067, -0.3986911407395664, -0.36545060738923385, -0.16509658384560488, 0.3041589347059628, -0.07254130066605351, 0.17710829486770863, -0.3305229120140543, 0.5499248205327971, -0.7918952516659601, 0.6150441883366311, -0.06259560934665673, -0.5393910137677815, -0.14653862797044878, -0.3353381688960078, -0.5994518563604488, 0.09613433607623817, 0.21317341525345876, 0.025849633632646998, 0.041647028362497805, 0.21512018086346857, -0.23409783121311742, -0.2613466878795478, -0.059927272007195775, 0.8419795806070283, -0.10195463737428047, 0.47770037699822704, -0.12063342325397748, -0.6031483237257929, -0.18323949719048171, -0.18191458822629314, -0.8005859543200944, -0.33308267538495684, -0.6141821879433884, 0.2894089091745359, -0.558814278584739, -0.28320856041407455, 0.04226366777487404, -0.10508872786696913, 0.28079703482626445, -0.37958007927692766, -0.022819880076388063, 0.22326217976953236, -0.504762137780994, -0.17779597323863033, 0.22012085570634699, 0.12560034276109153, -0.3628477606960266, 0.21192424064620957, -0.1371785846620921, 0.12399378841210508, 0.6849989747715556, -0.100263076757167, -0.07990017499569774, 0.1410586994908091, 0.47927404889692243, 0.4059496980178658, 0.37721345804450446, -0.08702454003504825, -0.18423148730696665, 0.324896004662592, -0.28847713723811513, -0.4785460582271001, -0.4708307039104416, -0.003978584579558895, 0.6600012294086882, -0.14905764290185475, 0.1052698035762367, -0.2899830253005541, -0.00868720487381646, -0.05259338398477069, 0.24332015493450668, -0.22545432313798655, 0.3862091550635088, -0.17193110086406063, -0.5241820492839161, 0.2317706120798351, -0.07982443018866146, 0.6600149080009975, 0.7180976626336061, -0.011570239763612114, 0.29289413758426747, -0.07642092764044711, 0.24225058377505715, 0.5117913849520329, 0.4961770748511672, 0.24563112461196765, 0.1908643729828347, -0.042600288845943475, 0.24127327518744124, 0.07826535437565656, -0.444756605302989, 0.40068570346632376, -0.9057322072371939, -0.1281588169688385, -0.02524128849999503, 0.30288638272515883, -0.1533400844033552, -0.6908718925894913, 0.06148192689924915, 0.3500973427399278, 0.00022188048242512509, 0.3976564131641107, -0.19590397749807603, -0.2501604198087195, 0.06273555012114579, 0.22144798950625577, -0.28659022124553474, -0.03366500781404972, -0.392888060902315, 0.49087580014918897, -0.48575569162311716, -0.31756082069420466, -0.5546866105937024, -0.4889242495045175, 0.20098799907053916, -0.14967043224377005, 0.03411638862818297, -0.02977500932439549, 0.2430515489373343, 0.05800317250141483, 0.20234226818121231, 0.15285508267230677, -0.5442090426031819, -0.12367794631290847, -0.07663516895766721, -0.2984469672706684, -0.41562446884960946, 0.11008837070793644, -0.02327556152430396, 0.11857190134403942, 0.07905025935944222, 0.42103592970533227, 0.1696305921123407, 0.5788671801583373, 0.9413656393802325, -0.03213016884391276, 0.22313360970801463, 0.5024902166567343, -0.2472564650977861, -0.42996078064797955, 0.32645565675352195, -0.7569856464909116, -0.2991840259884539, -0.3885844383721065, 0.39467228577066904, 0.3058408229371728, -0.05406015392647788, 0.1583421816590685, -0.16891844827009303, 0.39577251265484775, 0.15216910034946662, 0.7110889925927463, 0.1689440554647375, 0.012924505715470876, 0.1015091420712851, 0.2527603353628336, -0.11651514453296982, 0.4416109350062902, 0.7242229434964482, 0.01664695632456797, 0.11650819865598647, 0.9361457652230573, 0.1697634363982528, 0.32333581090823765, 0.12190543600333505, 0.30582093136345095, -0.12985123125078274, 0.09180564523325917, -0.12302716027021005, 0.4549001462414859, -0.6414962032596746, 0.1111067879127677, -0.4261834513155341, 0.14094370882679577, -0.17169183840168356, 0.32753758450376386, 0.21237716705291187, -0.12625727637615206, -0.05437050455342379, 0.037945456547892636, -0.04526117806686693, -0.01043808857377881, 0.29917078933686797, -0.28976719419180363, -0.1570066739796756, 0.3544830444285633, -0.09618240778192101, 0.699311053909873, 0.16312832130696356, 0.174054556087649, 0.30123431307262494, 0.27640205402353146, -0.23721629773569067, 0.18620304497410664, -0.23950421879475264, 0.32408731030373217, -0.3582206510140004, 0.09171369629099335, -0.43683085231705215, -0.29957709189626075, -0.018691016537058125, -0.15123554399984493, 0.0844133760996239, -0.21232325134283264, 0.01783605812028413, 0.12705175102600208, 0.12306876718413896, 0.4740327172758897, 0.19962804526329675, 0.021296663250525785, 0.1581508400802351, -0.007893303830843917, 0.19348400598295593, 0.2404497346982385, 0.1987171921860894, 0.7585261005213544, -0.32428478238088465, 0.33163762617876447, 0.6985827350126885, -0.02437267012293465, 0.6156813859534715, 0.13352681041273057, 0.6719344500862601, 0.6111087395754848, 0.6883465788223863, 0.26194522948860394, -0.3413207386882093, 0.31936460215288975, -0.5161529728438763, -0.01119674949598093, -0.18729502399752013, 0.00679756576045661, 0.13222784876217875, 0.7683001374079936, 0.16207692175796304, -0.1541434704827842, -0.09348744758683139, 0.6572673357319844, 0.5171874415632813, 0.8128108412789133, 0.5348719415776203, 0.2758373601917347, 0.29564457034396824, -0.08090292800807207, 0.25408538921272406, 0.14266966361657982, 0.07910083721613434, 0.8428202210029864, 0.17260582951026265, 0.30923870339183257, -0.37558189381325857, 0.3782542888373126, 0.2555120355529239, -0.04191690827425287, -0.09850342465247451, 0.04539246879533892, -0.32959322381929274, -0.0950778189172722, -0.417524893011475, -0.013278636360983382, -0.18960438138449, -0.36088413898881344, 0.4664819894023064, -0.23660166870208973, -0.06760274346670782, -0.19564238533314268, 0.13160515769794534, 0.5408635027958593, 0.05814562340640779, 0.2168556657994659, 0.1935717787434824, 0.2995500668476686, 0.03984968997248551, 0.3001607930183553, 0.7748724815883294, -0.13600641784272838, -0.5484224445128737, 0.36210542262049406, -0.055104495206721366, 0.048678983082255274, -0.3295328349079019, 0.7714642230499495, -0.009990005239864704, 0.28179963462225005, 0.7634228761380374, 0.2138295106061428, -0.509874888684469, 0.4622832524626848, 0.13760809935857535, 0.394840785077338, -0.50268833946537, 0.24808083608448292, 0.25486757831743356, 0.24487287032181482, -0.04874359630052651, 0.4366795089944131, -0.10855586428022038, 0.40146601652333114, -0.15788184670388794, 0.6150366385317506, 0.5373168117802051, 0.7160542538139646, 0.11841796250008482, 0.3906131024597524, -0.11554516601223029, 0.5257275691900742, 0.29655782828043287, -0.13549830670049207, -0.1637592643097135, -0.08783738487197913, 0.33221057936531145, 0.21193885489365125, 0.28833780277055543, -0.07340137870882925, 0.34437675596921413, 0.07853657956739232, -0.02676111273246663, 0.09370472572732784, -0.5889787154297723, 0.3006679939212441, -0.3489231740151515, -0.01741591529272532, 0.2923427538395313, 0.8394233070008946, -0.14034603835392478, -0.06479733367113504, 0.027998452925333282, -0.0497710777127448, 0.26946182000488994, -0.4826439393878812, 0.0037908798439011404, 0.2765007118100739, -0.06512434785802539, 0.2721706427262181, 0.5827906693043156, -0.06640063606417486, -0.06608800401245608, 0.16908408306135672, 0.19408412227734623, 0.15501921862135298, 0.3083480038382811, 0.28747273866804357, 0.6404470191197584, -0.16594797474987383, -0.2819977782695271, 0.3438419637141807, 0.1708754259134961, 0.33083860774963125, -0.4702334199311868, 0.3392097510246041, -0.005394607008267567, 1.0177337247438465, 0.19408230620332914, 0.8641839769823516, 0.11815765969042752, 0.1677572150128908, 0.8484532133903505, 0.47919043841731374, 0.5593971319022623, 0.010814123141657844, -0.3301170824738281, 0.6611678539705245, -0.2177084389784858, -0.10570326258636274, -0.0005976017815441237, -0.3283409943085566, -0.08690932864881247, -0.49321264352692323, 0.13227340531315182, -0.08881536675313269, -0.4282861425333871, 0.45209996639849087, -0.3875548550958539, 0.15390518462554426, -0.6935410445332472, 0.5917107159630017, 0.0277330382515359, 0.22271305214744883, 0.22211668567073922, -0.06906178912083723, 0.07856634077269706, 0.9268064446321772, 0.5308761307184174, -0.312654235184254, 0.28350931956404235, 0.4626729469295033, -0.41787783243535864, 0.3017998402363477, 0.28970491448381586, 0.21938126767763522, -0.20603570990131026, -0.22129532305986083, 0.33060390440914594, -0.11924462269591102, 0.18193898673522862, -0.25599477018985084, -0.3745360003593627, 0.37797528313662837, -0.18429561528096777, 0.80017666021227, 0.17042928710707, 0.6983305437082906, -0.5619802288159712, -0.2921709669832764, 0.2710768713087352, 0.21791519109527663, 0.12728332073557394, -0.3149005929303911, -0.11738805703599628, -0.180817070286007, -0.33784283654618497, 0.5545886607723904, 0.24722950761386023, 0.48321488887851877, 0.8383992448366553, 0.5945249831977868, 0.40580154327444823, 0.2515201812424964, 0.24516145371954048, 0.2233180830305171, 0.20602487411970322, 0.3651743839909583, 0.24454535474835076, -0.12095926530346013, -0.06440217830367295, -0.19452316731341548, -0.004077580361811926, -0.6004660722391942, 0.2656846572266635, 0.13604993195382137, 0.23252892475749257, -0.39497102837955267, -0.02451876334473491, -0.16642667281138343, 0.2613672278315043, -0.03175283233609778, 0.3521753448531519, 0.009602883751923332, 0.26094764175601637, 0.24656335255513237, 0.689230640550969, 0.752772289667692, -0.04537486254053315, 0.07287864763939492, 0.11673867108629919, -0.3557478959108958, 0.09179010663623263, 0.1256368320345948, -0.2330260133368007, 0.24500906124319635, 0.3685530112233736, 0.3756871211535501, 0.2644414569605344, 0.2910198318871806, -0.1780353250539414, -0.3949856318990915, -0.03186707085667334, 0.15205309522533794, -0.14939061747497343, -0.3667062933153269, -0.020560212717565803, -0.08169498123900241, -0.12370553145195293, -0.3951343333758767, 0.10986855531329587, -0.3239847131183779, 0.9765225211311673, 0.1004862286177752, 0.45046230724817543, 0.57616934241414, 0.40333268157181523, 0.48080806705176976, -0.08281302174267807, 0.5088197366334782, 0.40156274340576037, -0.8039676220210631, 0.6071338545996208, 0.04967488934054328, -0.08762143933043992, 0.7609315336745945, -0.2638957960436394, 0.2614081176872472, 0.2917435302651916, -0.3555680160347561, -0.10899528989283198, 0.9504058431044848, -0.307249314176352, 0.15786670317731727, 0.4122245046501138, 0.09451430319541387, 0.22306141801554133, -0.03310262902847263, -0.16865254854731615, 0.5855848630139369, -0.584015258654752, 0.16700499806667699, 0.33533011318707073, 0.07334009791434132, 0.3717881538893019, -0.21423632357349892, 0.024856587903328058, -0.38135068300080327, -0.19839809635380146, 0.37970468611894836, 0.5190276569293786, 0.1439577237984899, 0.5777757885563835, 0.3670981821964443, -0.5694262193086174, 0.5287532564058797, 0.25147568476275994, 0.33890794987517037, -0.18244176893241237, 0.3431061177234279, -0.04772937110460688, 0.10474695870852045, 0.4606934498973113, 0.2991451467113214, 0.31609717782825186, -0.02421333791202457, 0.1906943760116265, 0.32466858890169575, -0.09697398507319459, 0.29981731085132796, 0.040701913716762045, 0.23823674710848372, 0.10335941195123391, 0.20007842949414656, 0.2590400963749304, -0.050518815044773964, 0.19348024453974375, 0.3912169992687543, 0.2581296139350956, -0.24916252890048615, -0.3773447587374874, -0.2125242209841128, -0.45743378810793656, -0.13333172007867417, 0.47268708656466796, 0.36299767953448636, -0.3946892366419733, -0.07268616274046631, 0.26222256865609217, 0.027839022733908265, 0.157007720421803, -0.23927045506988215, -0.5952107755569439, 0.3050333052287482, 0.1543767452414641, 0.3324318987471067, 0.2765757292549784, 0.296753091581891, 0.5629160058594519, -0.11102875346735412, 0.5825001341344315, 0.3650353848640313, 0.2258231216041603, 0.5549269954672559, -0.4867542114957082, 0.3389846276374046, 0.19016829652449208, -0.17040010926598753, -0.07868796878044586, 0.1344795470321778, -0.1643765459505648, 0.12930546631221632, -0.012282819822953938, 0.0717999832969036, -0.24097691669234944, -0.3123544039140659, 0.10811005292932006, 0.6920926580314036, 0.741486219638373, 0.541251571481465, 0.29171828560769725, -0.3497769498950494, -0.590299299619649, 0.2531153530225063, 0.3872077915503809, 0.2670607457125711, 0.33904300973480694, -0.10823651345351888, -0.6054648229401718, 0.3893896946502166, 0.5355710740982125, 0.1081414932144048, 0.4640979495049941, -0.04578041321945928, 0.7054569542599802, 0.6795530806636011, -0.2517255047306399, -0.0383277446111657, -0.3973205111706122, -0.4168844734935397, -0.4334732477121444, -0.2994568975138503, -0.296787998104428, 0.03854272453381408, 0.1405524513740599, -0.2632051811394712, -0.00792879177740835, 0.0924793909709887, 0.6808351253376536, 0.33346446637592686, -0.28483333492336566, -0.05932544815248811, 0.4107443086900561, 0.1684946644004759, 0.5279342421829434, 0.7139747759218854, -0.34591265327611603, 0.029827359174306282, 0.018376230540385074, 0.3172646611711973, 0.05246886693768345, -0.46958635736251575, -0.6586611159462262, 0.045946422330345724, 0.03476709282401638, 0.08529536789756025, -0.19683774689783348, 0.42723587768057597, 0.16883676987508292, -0.22794007727940127, -0.3173155203550206, 0.5302222695710191, -0.03252318453546019, -0.08384421846771008, 0.363759264482065, -0.09043038485080158, 0.668737889128136, 0.19334352676713837, 0.596320936745087, 0.03439629505755169, 0.14807850975016737, 0.44612765346090144, 0.4889749291352287, 0.06721863790304086, 0.16266032910246092, -0.28771101861407455, 0.6006403860157896, -0.2431814587120939, -0.1023568869293317, -0.0009604765182484376, 0.06903088409883242, -0.4778622793718787, -0.07213814284688982, -0.7553870711782751, 0.006483339050712321, -0.1113818987350009, -0.22407719363119866, -0.5529399836217962, 0.05185307887487504, -0.3107097289081365, 0.39369219531273636, -0.09412818727075903, -0.2924416330812946, -0.6141896916523453, -0.4422438129200912, -0.44411804204826527, -0.15756652959411604, -0.060384093740568585, -0.5068661508156403, -0.287033803069431, 0.082376494937277, -0.4193883550424435, 0.06995027702699516, 0.2283692384422837, 0.0149787967572999, -0.3173766819991087, 0.31396563738008304, 0.22005579021475863, 0.4267692905959553, -0.1863475089738293, 0.42142904889733795, 0.47514209664043516, -0.29357445363228546, 0.19772440204399894, 0.5889259759714687, -0.2634000387245038, -0.3213064685680114, 0.1844765472553489, -0.18782894220824367, -0.7498389235269466, 0.4569867452917092, -0.2945763706017185, -0.3894593457553046, 0.139409074816303, 0.08513555880479108, 0.3889230354944277, 0.20628989892461755, -0.21304822500032952, 0.5401637220948967, -0.14810275090677505, -0.022164036701839987, -0.08246636639778442, -0.38290037834335794, -0.260244136914706, 0.5409534920534459, -0.19228972678600015, 0.5737243025749463, 0.24479322529335587, 0.9478096093126792, 0.1705543350678263, -0.41812316919665377, 0.25765676872422166, -0.6519960175624187, -0.5045079701061136, -0.11775356116568074, -0.16882950786871695, 0.33207895445491464, -8.298840587949878e-05, -0.4359537693772011, -0.04888177883563559, 0.10094928929935143, 0.4180766334000474, 0.12644505697773825, 0.2607209530340962, 0.37671147100440056, 0.1869968264234276, 0.2851550707963414, -0.17938789082397766, -0.8212852907716028, -0.18991865643115427, -0.3721764873395864, -0.21938802891077633, -0.10896725071106642, 0.36119361291251967, 0.38221562976312917, 0.728424344965277, 0.08869527471616061, -0.25813745293368656, -0.29636070069598747, 0.5586845083083056, -0.2732155805100819, 0.02208313683931129, -0.5626280193050017, -0.20663951884747286, 0.2119233158084384, 0.25798416270118285, 0.18921606369301008, -0.01051591061839101, 0.11444215802776002, -0.24965548282579672, -0.613545368857118, 0.4217186206614777, -0.2342734344224648, 0.1773161917823689, -0.02850841584877518, 0.3863935196242323, 0.4031922751475833, 0.1378955898974319, -0.1016481531291669, -0.14279750566003557, -0.028520005316876436, 0.17242642500343572, 0.5723793856578143, 0.428601381651621, 0.2646641756716501, -0.33885125826057644, 0.05273229699721064, 0.9604364561115161], [0.027114563117512112, -0.14088588980576294, -0.48793714119455683, 0.016407168797583388, -0.15775662925293688, -1.0031093216107956, 0.2975100879202886, -0.043556873037190684, -0.3314101616273815, -0.16659104892026727, -0.32126636330003605, -0.4922299621573824, -0.5989305545638159, 0.027727159344020938, -0.34063373914732603, -0.09876192997565841, -0.5837366050396338, 0.34181830528504836, -0.5196589691863018, 0.5519457399451284, -0.4103483447729494, -0.16763533747241538, 0.02902341608064759, -0.2713769646711289, 0.5240885094510066, 0.2552975968238193, -0.79240302075379, -0.0018682913444448166, 0.1929811820896945, -0.08292901998355057, -0.31029567920530593, -0.19074391565971027, -0.47777486356299986, 0.30218454505106945, -0.3459270792101142, -0.11475907900923821, 0.032281137448352364, 2.837865573944701e-05, -0.3665309598629389, -0.4737207992798505, -0.6126858005133139, -0.4998192901847942, -0.1774276171589328, 0.3185497816093968, -0.28428994103871785, -0.5164884038591637, -0.590382028161083, -0.1640741797910109, -0.018263182118324922, 0.0383421843538664, -0.5096688634074121, 0.12053969402183384, 0.27444421272286973, 0.8741113543732759, -0.6481703442731102, -0.1680276057687473, -0.1457702226361955, 0.38855254805999623, -0.10067916217834016, 0.41518244508501245, 0.1913829314205482, -0.6657989191023653, 0.09575181426231844, -0.5139548762812781, -0.23002430005542207, 0.02602084921154396, -0.6002777926591328, -0.5566181582356333, -0.25896167286908783, -0.17078874699105978, -0.10363441527925413, 0.12510712535382384, 0.14495152930428937, 0.200748353241269, -0.029224058476395823, 0.0717421334499944, -0.11040335782869157, -0.19586326410539032, -0.39517357009592485, 0.4212656990054162, -0.5164070817529051, -0.1195169670696872, -0.3986488625924179, -0.16712370280206107, 0.3590838956989198, -0.04216352252073006, -0.17767355614106148, -0.6649529355451816, -0.1254756888920611, -0.6239519443166539, -0.010806542314322, -0.10426515445004428, 0.36467604862280956, -0.18851620208299397, -0.2676859034963931, 0.06250199968202076, 0.05266992555041147, 0.2524035874991396, 0.01191792058313233, 0.08133876735426264, 0.5391101692485171, 0.25147806036842085, 0.5608658283822525, 0.34112059409544254, -0.0671848059793151, -0.3237807470197746, 0.12066095569523218, -0.38601606612770295, -0.03710010621441906, -0.08312545479524411, 0.38322855066526057, -0.32956330205538215, -0.07686373258143081, 0.018158026973915928, -0.01620957676912801, 0.2573157306738464, -0.03217415315928233, -0.384103850525661, -0.29773204656400215, 0.18733237166916322, -0.7136801286374591, -0.5520705188974744, -0.3774201691400505, -0.47509294966438337, 0.0768422247162107, -0.0703933238022572, 0.045722330684751164, -0.18066725764664304, -0.05564088836660762, 0.48286199348627273, 0.5538466384675904, 0.2891583862441115, 0.2773757167025615, 0.018960560765984208, 0.5340745874938556, 0.8535087170928907, -0.1384247656631651, 0.5854211179687363, 0.21323990258195613, 0.08391176408482168, 0.1602307013131603, 0.08739846384441399, 0.20955713348751862, -0.15507265654350877, -0.10137369906346749, -0.23615553035410575, -0.24369512381892272, -0.6281765957811885, 0.05600752954828622, -0.8157707098081738, -0.32164428357636127, -0.5262206331001614, -0.7049754817608443, -0.4283410738836409, -0.16299134941865367, -0.032092025509546054, 0.49152746428816774, -0.0033092161829278996, 0.3082943851749616, 0.33104931344860006, -0.010158871880110068, 0.465586760406988, 0.7011079156339352, 0.794812100324802, 0.04293761521679376, 0.12478303226692582, -0.2936629236041748, -0.24325132032107244, -0.2401308463967335, -0.19314348991965657, 0.09043660339595525, 0.23403887872194742, 0.10167523963301664, -0.472971726969335, -0.3610100889769763, -0.8866329455995425, -1.4079426736895797, -0.7963706938876481, -0.5959541475665198, -0.23253946007319368, -0.2547823352419253, 0.19650873438965977, -0.2677576818016527, 0.11379207640601358, 0.10589854301927581, 0.3169423675640769, 0.04175770179406399, 0.05019135310598507, 0.21549920959283314, 0.9921754884858379, 0.440436998899546, 0.5459872792283506, 0.13284091845795443, 0.4454672436400328, -0.19425112781750287, -0.30799005259010853, -0.20664115548945905, -0.11255246478605857, -0.35549259595790894, 0.22613570932199678, -0.09018995577381173, -0.6709576914965731, -0.39218087668238466, -0.8507438956525196, -0.9288844913858252, -0.8555922677121078, 0.03651353272572891, 0.5612942265309683, -0.08044525225252439, 0.1936620389404646, 0.34012129535397095, -0.2128820180039012, -0.18306884237760374, 0.15215847120868073, 0.057512203010119875, 0.5202126559967528, 0.154150811543277, 0.7228117074253498, 1.01051215233604, 0.3354631691084662, 0.09128424448327623, 0.20691636790899665, -0.024693154212000662, 0.6868310469778476, -0.3651031503034557, 0.027294597086847, -0.33412199996433894, -0.24272563354414553, -0.27389646508248927, -0.811712968118954, -0.5875841863165917, -0.9717521172198881, -0.0073632026176913955, -0.7299118500365633, -0.1931529168433341, -0.10179451623104603, 0.14276077264428327, 0.6042314532529333, 0.3552227548616752, -0.030230206029887415, -0.2951049383271534, -0.04390195172625379, 0.5804922593038755, 0.32827320556580636, -0.02872080983131662, 0.7648521420287614, 1.0530510771274217, 0.688462630680842, 0.24818770802538948, 0.5097903470248333, -0.25766145456060074, -0.4781949199005551, -1.0511140993237724, -0.17564718169854926, -0.36012506295128555, -0.23450682587830965, -0.8380492219110443, -0.1761527131685876, -1.552152038937541, -0.53348436620214, -0.2059858703805104, -0.6341093010568095, 0.07983044643227825, 0.2956344306238886, 0.14812710242557772, 0.00492163729341326, 0.43010142390182127, -0.3541804676157038, 0.2157506248133019, 0.0159373766909424, -0.3426461770435942, 0.18170921963510453, 0.34743544104094903, 0.6520640363852508, 1.0095953179352566, 0.7257070291086748, 0.18421569516565386, 0.18987450643077305, -0.2691246596495195, -0.315549095235661, -0.24406525884870534, -0.11585384639510923, 0.19985731999227754, 0.3394484725052659, -0.34784870447288274, 0.1257536225270437, -0.661144490648284, -0.3930599752955868, 0.2451156256134219, -0.09914550515807737, -0.19646018232757018, 0.7566365016174817, 0.3112532695700911, 0.47812443305428365, -0.276378341637589, -0.5320662789587267, -0.5561314257939354, -0.385555383196355, 0.29914630258072306, -0.1030771151114013, 0.12273983786940207, 0.06099977256372218, 0.9958050096859821, 0.2348918715049564, -0.05333836484357563, 0.06625791294024652, 0.26715733075084475, -0.2260395469246502, 0.28552485571319225, -0.6711806941060163, -0.12615414472110315, -0.28486930406251276, 0.21089401178269768, -0.6203582947809044, -0.14665721180998056, 0.03953534390762982, -0.41935593066213184, -0.19587117829563905, -0.3140549506900991, 0.01513627234180386, 0.23426471125295303, -0.337905194263643, 0.0008461266754640203, -0.17239245667852268, -0.1984682451443517, -0.10542756589981192, -0.015738072334652766, -0.2447157971456737, 0.19912683984509177, 0.46118376158396546, 0.2650852061135893, 0.3322432526052654, 0.7649231637275783, 0.042501545939192795, 0.2969822761634476, -0.25076498856235135, -0.421644403930066, -0.3832602630878802, -0.13989282205411754, -0.049870870918222746, -0.31930600344706783, -0.5990183491004885, -0.1642136724052141, -0.24961352285676347, -0.0871793257264461, -0.1597445458752536, 0.07800222974969516, 0.22513527312688653, 0.1822394306516711, 0.042796502334254444, -0.4451304977021593, -0.102091225464791, 0.20237261149701882, -0.16128525874883975, 0.3468514587838779, 0.28623539897244366, 0.2317958030866968, 0.22393557907513564, 0.4401444618300311, 0.1835460612305511, 0.6545091628190233, 0.06776562013478526, -0.2334193386800948, 0.2981426376244655, 0.5923688545631262, -0.42324594551229927, 0.04514762610031773, -0.8203941904362625, -0.46488646577898396, 0.08213855864781267, 0.15769610951018315, 0.42778380014737216, 0.13894364185808114, -0.14795078775922688, -0.13121891090994636, 0.09431086807268856, 0.16464778068290997, -0.2868624173966153, 0.06966281956040866, -0.1640064350133246, -0.25630962295109244, -0.23440398537957025, -0.3049214015214687, -0.18232164850340138, -0.22072953303591547, -0.07191520472860063, 0.1947932188921056, 0.7469988473294241, 0.04401035204092621, 0.4485279460478884, -0.2492413330050071, -0.16835177803488477, -0.10857892875774619, -0.07358639641717044, -0.37763177573209544, 0.4091829046431592, 0.09661756375296525, 0.41821974231348397, -0.37604807828626247, 0.24674251631984845, -0.22146731847816023, -0.03712687932992102, 0.3026849071248181, 0.14972858248310417, -0.02516899430672494, 0.04510764979476109, -0.28845691199226037, -0.2633836588257083, -0.3052285331420661, 0.30526296177141116, -0.0709572329778511, 0.15358468922358298, -0.1034733504662667, 0.2513378990504827, 0.1341137538137609, -0.014995457673852035, 0.38186222688159077, -0.12707627708015035, -0.17159813365180696, -0.10173230369586467, 0.021831296964666777, -0.15093194407660093, -0.3605030149565348, -0.3858689521421212, 0.1213676979028007, 0.2682049219786372, 0.14006023344761848, -0.27274962867361047, -0.07193800622773572, 0.24202434494286326, 0.39440433240064465, 0.02795214605285642, 0.19223185182300992, -0.3195117623848271, 0.0627497509120401, -0.23014140359456323, 0.18317528005209457, -0.042706114046297934, 0.09078963257129488, 0.6163843013060807, 0.10240794364284288, 0.07465116409216868, -0.025876958157915755, -0.04626121016377088, -0.09009307041438867, -0.009471982719162293, -0.39234150758822045, 0.1796070832615983, -0.030355473120531495, -0.23643565937345606, 0.6362331079228658, -0.11924825789258076, 0.864182455844252, -0.2579636208384988, 0.6076080720738058, 0.47607910702131356, 0.6954125765435293, 0.21785422759643563, 0.5041662410614396, 0.23090397297561263, 0.2053106142632325, -0.09914389110254351, 0.08966598751260374, 0.07299659500946472, 0.06901465078245528, 0.21133986304923738, 0.14685833686313357, -0.6003722212571138, -0.2890580416671488, -0.25479012399267653, 0.12616045863942488, -0.08337513975622049, -0.13508407865548663, 0.17300845025060593, 0.3717095177283593, -0.22877608031415492, -0.06782658789957952, -0.0948456862070973, 0.17136173763560042, 0.10230933366849612, 0.08526050091018852, 0.717188918986941, -0.10832426535732306, 0.649843785328412, -0.19766943729456135, 0.10737020462218726, 0.006095902200106811, 0.2825365331363901, 0.03997200738123173, 0.16801401029054147, 0.1403988218726049, 0.1374765025164679, -0.008326586656894275, -0.025897888107825937, -0.18648159954099017, -0.27476439077383075, 0.09238984514214016, 0.515167229451428, 0.2462669875432534, -0.5928570339248653, -0.41750842960243656, 0.3093720757690292, -0.5118755484831696, -0.34921731250699645, -0.7621034741889418, -0.15381287411299827, -0.5470094245097965, 0.476023548210172, 0.40559155099696725, 0.06355259444088723, 0.13097085513381473, -0.31231249472744166, 0.8560265609685431, -0.10864697850736786, -0.11208106487555393, 0.14519432622478554, 0.12291325980584585, -0.0054963086929152504, -0.259194622974675, 0.3183060971243405, 0.18998696601228593, -0.052707701283347085, -0.06707165502662919, 0.5660168307200103, 0.27383812858758916, -0.0820325215729181, 0.1748973987093755, 0.032738323792751906, -0.9113173976358085, -0.29745257889491117, -0.19837821256241017, 0.16481990191564805, -0.6000425391180243, 0.5272348826242738, -0.14067766397221587, 0.029443811465822922, 0.4832562430883481, 0.9415374123512142, 0.11738845701574309, 0.748302258655492, 0.941378549438415, 0.3234099135573318, 0.0650586477754524, 0.38304733986353956, 0.21522382589509384, 0.11400326989833924, 0.039592817146141164, 0.13617403968750952, 0.14821435146297693, -0.08263131658030565, 0.0967713563870277, -0.5385175894670489, 0.35901363700416083, -0.099038023113342, -0.6705525960881268, -0.8321136532901439, 0.32893363813220416, -0.3041301781198599, -0.021469285849122888, -0.0002115927248624041, -0.0003212343309836886, 0.3648774134937381, -0.14103243884466543, -0.3743321740181223, 0.9378299987811447, 0.6193917754605613, 0.5266547162769204, 0.5644796327155146, 0.41613252824056884, 0.604816388725648, -0.1320429190607969, 0.051711219685456486, 0.15955413502924562, 0.2957332730762283, 0.11058469376497464, 0.17924010576647095, -0.2050334244588039, -0.4006713967388638, 0.14265268194165653, 0.07567910420888575, -0.3598268201841457, 0.3275534117050793, -0.2296961266591428, -0.3724366975345599, -0.5159102527310075, -0.20719833668874757, 0.1332413631016229, 0.30100958094063285, -0.08379000671792958, -0.004348494825801298, -0.17362396775052588, 0.24503244709364155, 0.5200648176882317, 1.0642696895548618, 0.44906684605894276, 0.19366986589273777, 0.2679088146223786, 0.25968308636678467, 0.7046609012751767, 0.4617356452689996, 0.29424022194656135, 0.424391169140647, 0.42572700486270143, -0.018064815080232846, -0.2111864094784321, -0.310375220571811, -0.48363204795949105, -0.6977174040101976, -0.27727879564887353, -0.138177919618242, -0.3682815874147689, -0.6697590108045859, -0.32584007749502353, -0.02388864942890489, -0.5385709858902022, -0.21943071403098086, 0.15845662011493789, -0.23039721516371242, -0.08616661207894316, -0.289722890809471, 0.010530507238344545, 0.7364550120232363, 0.5378653535960475, 0.5259722228412358, 0.19068717990629871, 0.6995894873209626, 0.12603982326962232, 0.17368718344422465, -0.08389809865714033, 0.1485338007024875, 0.14989841989697958, 0.0667132652372775, 0.208536004283046, -0.0507583893986751, -0.5631432257440399, -0.5631738374154046, -1.0559635343252285, -0.7351067787344702, -0.4255662123829546, -0.18790985879669503, -0.7345127458506672, 0.11790257992584091, 0.01888151532076769, -0.4512467260696315, -0.9365781496697585, -0.14917981744745112, 0.0635635084264887, 0.19379815272407536, 0.028525112876149755, 0.5387934015793362, 0.681177542605926, 0.43002421880630726, 0.6831410118622188, 0.8191254574950361, 0.22445493083585003, 0.024218594581058222, 0.2806676789501139, -0.056249815836342636, -0.05059786679318338, 0.02452905985636515, -0.8208934759582068, -0.5658580570888321, -0.5683394391057807, -0.7060804510168175, -0.3550245305159766, -0.45776316968996195, -0.1194947330866582, 0.39030869019119985, -0.8880641118041424, -0.16295244060447978, 0.34776369901075593, 0.2847634240632119, -0.13642237622147946, -0.2791872459698373, 0.3368329663600083, -0.37200138157106627, 0.15415992729341677, 0.061164930758430845, 0.5931509210306152, 0.4238495000270102, 0.11609715742768183, 0.46466002258563527, 0.22482390461758733, 0.47289133618285856, 0.0198492428237082, -0.42470474634469285, -0.1626350548988451, 0.0005412038789478149, -0.6671311163988063, -0.8673761051733, -1.0670030199421479, -0.3324775149623709, -0.3874022139651467, -0.3191059949527156, -0.10825951610568715, -0.08313019044470521, -0.2698159780380008, 0.07034971329891263, 0.28742687317781873, 0.37299799717770526, -0.17010567448811392, 0.08067905755056307, 0.2655447552999907, 0.40684308643684336, -0.28243528442026417, 0.4307001792151532, -0.06845319902613987, 0.2768050276540126, -0.013476840741689788, 0.09743087184457731, -0.014147878568890724, 0.17946346602724375, 0.0980376728583014, -0.11378194711398841, -0.4192092585773314, -0.8650555322938399, -0.39999687362504427, -0.7807480552791879, -0.6625846876742539, -0.41390378995130417, -0.20714430540812334, -0.22696953587951482, -0.2790503642680671, 0.22459757552555237, 0.32047322055522803, 0.280954574909059, -0.25901606366978763, -0.5793192352194454, -0.03344140892509442, -0.1347765159392777, 0.7010497898084618, 0.2892953737824521, 0.006364199254377708, -0.6487557837858768, 0.26182250530526896, -0.11371053902135589, 0.12428314806534531, 0.2882081162786005, -0.17643108985031816, 0.35001031766421425, 0.06220688983561323, -0.2537253098638986, -0.4448656612943738, -0.5179752726010796, 0.05287007331684646, -0.11504605149012798, -0.30945556886444947, -0.11321315320903017, 0.00284770864861468, 0.04262682381078523, -0.3798395011207556, -0.5248246791850439, -0.5282464073359127, -0.4443451998740415, -0.3292238093025372, 0.3217135229156571, 0.140101342807527, -0.33231560376102404, -0.5322637271138715, 0.14199202460233584, -0.30160115616637767, 0.20140680225761456, 0.24106330344857288, -0.02818613964355991, -0.28692593093152224, -0.09758978660742701, -0.2289319246574234, -0.17779021906786394, 0.32510333568438216, -0.07717854556472353, 0.21769751638316062, -0.46362670390559607, 0.23432253382866097, -0.6142512468630473, 0.18819740880670133, 0.0355115905017653, -0.3544272046639419, 0.011497946678490129, -0.23815046370053627, 0.10228535642382347, -0.6631127647477688, -0.3756522617372576, 0.4389601994045704, -0.2702983437275526], [0.3242846301026022, 0.2558000596816653, 0.19314763739543198, 0.46509495737590795, 0.004483248423975761, -0.40974849667199004, -0.41627865550415616, -0.16092018698840765, -0.12136394681547369, -0.08076129399231634, -0.1421454045182421, 0.15398225019729186, -0.1610792251522193, -0.3270464643887049, 0.20189417559302003, -0.7237799141811675, -0.17988108598915167, -0.21782700681504277, 0.4516423717940005, -0.3321782350555767, -0.04283656873192286, 0.0661351469226277, -0.38715360679028227, 0.6057579902983656, -0.3236206854854795, -0.27336904615530655, 0.06900865934891827, -0.126774885898081, -0.41844555949536255, 0.12806911490527692, -0.2642410261775878, 0.49385064558643177, -0.6138216768119559, 0.27018129430571275, 0.5191030734140819, -0.2206674824908184, -0.020074114456128087, -0.12411737414016008, -0.1969164843700494, -0.4089275797296087, 0.13830431073318797, -0.15366128439231333, -0.11356975188815477, 0.005811732105224046, 0.10282717407716467, -0.5328620362258568, -0.08158900258033691, 0.5254545910133667, -0.5788609906961538, -0.014595340992951867, -0.6701793098612009, -0.14923689420802694, -0.19657021541583072, 0.32305006119823315, -0.09151612790801048, -0.028823918437868676, -0.30456820647595845, 0.4286024521791117, 0.08598792158053674, -0.4145205432935414, -0.09819629146693433, -0.04383419710349219, 0.5469824083108296, -0.19989515954377796, 0.034094558190774865, 0.11265043797178198, -0.32974893199145794, -0.7262285641294894, 0.22590818646148608, -0.29487080509761104, 0.37183696838124997, 0.1471800758589815, -0.5644456005807146, -0.18464382947770472, -0.12282851814035077, -0.1790450318197125, 0.11007006441469462, 0.003828093267916684, 0.03850383649367634, -0.1247890471791582, 0.28585606915707307, -0.026376108526972596, -0.028967259036616077, -0.15770287536701094, 0.6543797590334967, 0.10481885413440102, 0.3624613905930513, -0.3582478709213141, -0.11857950435032942, -0.26574888907809496, 0.03910964407960057, 0.5872044514521461, 0.3330127646437417, -0.09500189383424755, 0.037829642711123254, -0.4651637981926625, -0.8437590458754822, -0.24917783782690595, -0.18271689879781225, 0.351857604348455, 0.4573593960380954, -0.48203663365855187, 0.20710157062014198, -0.18472609813009203, -0.06409092732722872, 0.2933869691007995, -0.6307450511672122, -0.09583859146907678, -0.26394597031466793, -0.5396378539698663, -0.15435988420521035, 0.8544183565566189, 0.10737540963414834, -0.14544228000811207, -0.19946236494630637, 0.3135594287253743, 0.17443943262152606, -0.17839288317277988, 0.17125168084827327, 0.550093744953338, -0.16350177362167398, -0.11581555564459563, 0.4627645789081281, 0.19335377341764268, 0.17855473053279303, -0.045918579664405205, 0.35709535571818385, 0.0521602013435083, -0.12438050161662367, -0.5966149875039547, 0.48059042217673353, 0.13506051920927542, 0.31764980607813426, -0.05326263318627938, -0.8793985090511628, 0.1188884998117278, -0.07873145541707634, 0.18154877300637542, 0.370685232576803, 0.04205755687568092, -0.03211848955304895, 0.0845148346169008, 0.11556051335457102, 0.4466163186689167, -0.277743439589295, -0.16730042109701998, 1.1308898591836265, 0.6765566917062892, -0.1853296615814038, -0.5366520792476652, 0.22741588501773335, 0.5227636726375832, 0.047551373400122665, -0.1789132386121419, -0.32021336829113906, -0.4563328198813551, -0.014946449126435786, -0.27204310233846596, 0.06056490486813679, 0.06480070283501502, 0.03409155048001569, 0.7284772562176856, 0.06432240542401631, -0.6378103625700723, -0.2758932075960197, -0.6012359689431374, -0.34638363721254845, 0.3293251201208216, -0.5290916069116532, -0.10898780957594045, -0.3727844324752117, -0.6840104972742425, -0.31394770026526675, -0.006521834109915172, 0.39251451970554774, -0.08548480471674935, 0.24284907136565137, -0.5200113959337583, 0.008894610289195528, -0.2650516197651219, 0.20461465931919925, 0.12371437049942444, 0.525523780196366, 0.5133391596765465, 0.3901463483645143, 0.09672690636921326, 0.3056479567831119, 0.12473154191376101, -0.7036712759626766, -0.028225635142228447, -0.24507843973741567, -0.3349854355489793, -0.018529811311858047, -0.037503983232186615, -0.9396897708916443, -0.14924891850199523, 0.1541074777177949, -0.973636620763577, -0.12320430272348505, 0.5734239846063673, -0.035451808697484696, -0.15975043798817484, -0.9007520186556549, -0.13061096991704502, 0.5314116864100941, 0.5583658228988145, 0.2918721142739795, 0.6055292814806769, -0.08187956331522178, 0.007053135937740854, 0.578811422485258, -0.006200105843364397, 0.5386916044623611, 0.48283593905498245, -0.18836562388428954, 0.31037780297674744, 0.04035695115371782, 0.5163943700098684, 0.6107094077336379, -0.3340854293813543, 0.27273910850979266, 0.5810573013304084, 0.07426710778496697, -0.048797818337127014, -0.12914516720734331, 0.3299502309926514, 0.6652015396760311, 0.0004900863634484107, 0.042295197074581604, 0.41784953564946675, 0.25185537108901224, -0.014189928644679689, -0.09188150411656011, 0.3725867246523399, -0.361595984752097, 0.5686901720999699, -0.23116504855248504, -0.22917132267641446, 0.02270416208116918, 0.7898991030909998, 0.6510252245125194, -0.001990959168799005, 0.5535033894339529, 0.24415940540934108, 0.11701444045893653, 0.24259322236247652, -0.055824950538294456, -0.19976660237586946, 0.0964258728697787, 0.05455934551663924, 0.13036198002115354, -0.4780403804313941, -0.2508233581614871, -0.07319687429474635, 0.3844347872489647, -0.6058510892710605, -0.03336633108662999, 0.8196264928223504, -0.18457537131506233, -0.08835165409538823, 0.45589930698963127, -0.23910917206450288, 0.6983696794727606, 0.25812104936787866, 0.022954059762340318, 0.028248102594043534, 0.20273131657902965, 0.45414141236101807, -0.0012033832338053014, 0.44734867453071975, 0.8140629067990837, -0.2608187677845232, 0.18836517880236964, -0.3963730489044132, -0.3571272874905951, -0.19115147420693096, 0.20375049855520716, -0.28166126928306195, -0.31876403361239153, 0.2946254950540862, -0.15970045112702153, 0.09486462436260455, -0.26343277656702785, 0.4465885019646114, -0.01517248555436271, -0.2289619355458501, -0.13704373403144007, -0.036149476787811344, 0.37637489758844384, -0.22006957825688706, 0.09058676609345868, 0.36995062549194363, 0.45564766595693373, 0.780540702861812, -0.20461829815071286, 0.33749295997440004, -0.019688100057434505, 0.6303631716413369, 0.3132075157971347, -0.7060050059170275, 0.3780748547613507, 0.020540164243407388, -0.3877237916865483, 0.4834271897303606, -0.07647551090759513, 0.04845813322794231, 0.7479688288038624, 0.06765114114503633, 0.295973496707299, 0.024692540870012804, 0.24244279307166833, -0.8112649901964926, 0.20921546464038873, 0.2927720387866521, 0.4564725603203361, 0.16619626624169026, -0.04229712294460248, -0.36866583231051886, -0.1429873034804247, -0.3215118192952006, 0.04455088634015026, -0.007777405000131347, -0.0894957725718248, 0.9366003866901464, -0.39607131976103166, 0.22050605400228576, -0.23198896692703472, 0.1506928759979632, 0.06178883660692863, 0.20525181054068262, -0.038518431025438844, 0.40229900371614036, 0.6235444981591493, 0.015305538849074945, -0.37235981383505057, -0.2411156442662581, 0.4462466605347272, -0.05516057983301081, -0.39519992303060125, -0.4013870148069695, 0.5493465018439097, -0.022205523255119985, -0.1242598090726962, 0.5811267394896816, 0.23516363706864082, -0.0033153879214242138, 1.0966251117934107, -0.1282601332695608, 0.2703961597456601, 0.15390728193922906, -0.07474204446473688, 0.30985267501418506, -0.21020038767942723, 0.7569700816992959, -0.012774128415404498, 0.22422574700541764, 0.2254827084658206, -0.17295135741376627, -0.5275310217540555, -0.23595918859481843, -0.0416092293032595, -0.21765268315324915, -0.868177702673597, -0.14574210832698417, 0.2893376243754899, 0.6527056267841059, 0.6432513525750442, 0.1857201155108009, 0.1344541607464929, 0.42450981868705556, -0.26131934460109674, -0.30323429640186894, 0.15472891897312524, 0.6417459645641795, 0.7254148196233233, 0.32365396368249677, 0.2226087142062872, 0.3757918655397124, 0.4595053390784382, 0.14504178270265708, 0.055389027999218764, 0.3848917431842116, -0.5215146185631935, 0.5988171349158344, 0.2860058260163387, 0.21831217469096179, -0.1578859816126949, -0.09616994896632018, -0.3481211025738928, -0.11771564011071053, -0.2824516410310877, 0.02889984019392128, 0.2583824425087748, 0.04177366600680171, 0.2306455025032856, -0.3458214305256811, -0.26687534465110047, -0.17090846874508586, 0.13063771691399403, -0.0474291712380294, 0.1906543939660548, 0.34395760038674666, 0.3857787202688797, 0.24674864300267688, 0.5273661587770553, 0.4393777590353458, 0.7483370733473828, -0.010094455386323553, -0.15291422796202273, 0.5487532380749406, -0.0019826985918692534, 0.6021370308342386, -0.30083233853541297, -0.48851150676452176, -0.22071856926650604, -0.16405681470598404, 0.1935180477673382, -0.0072848858086260095, 0.05254748247392196, -0.12992768822214473, 0.3033105912287391, 0.6427718562814364, 0.27730079387542894, -0.5106800752441999, 0.10421461606125497, 0.5815056855521366, 0.0018426390742017306, 0.00908954205997596, 0.23786008513605714, 0.2960325661343363, -0.03686129915664244, 0.6636500366643784, 0.11889281824162448, -0.1154733738099085, 0.7926305247750136, 0.19334236812716565, 0.1443614378253137, 0.27728203427729164, -0.11922234232747345, 0.398369933747355, -0.2972684639068248, -0.2553520784673532, 0.0756010046175741, 0.04848049724213521, -0.4439244411520289, 0.34458534522050543, 0.20120966482730046, -0.4525719951495712, -0.2959397866388839, 0.19352245282130673, 0.17805793203439307, -0.14801012693731616, 0.5559256523097825, 0.11730714840288982, 0.12507227997524892, 0.25117206979168355, 0.736253302896255, 0.2607981087763749, -0.23846784433474075, -0.1707118922921767, -0.2032381256036291, 0.43327382278024396, -0.055831919067790135, 0.7222118572379786, -0.14595413370449095, 0.5638283313341084, -0.062356334563015606, 1.2268744776709681, 0.1285553442485726, -0.12027888374842763, -0.4861290854412832, 0.04773480809171635, 0.06572296407873068, -0.09237402932114205, 0.3644392037653127, -0.14984141042957413, -0.3431774689983625, -0.13361102319354054, 0.9103028797020472, 0.4389394560514252, -0.32976405673499887, -0.013691828520517669, -0.18101270269537487, 0.21092974252719565, 0.4668449693924896, -0.1983658852600532, 0.31335158858341433, 0.2645267461665565, 0.11709369255148021, 0.8663418646755311, 0.43568952276002937, 0.35964630001294223, 0.4098003311354886, -0.03776853966010117, 0.46673889280822084, 0.0755741909848943, 0.795550934797082, 0.012325257218774963, 0.49023356622533326, -0.032960929378644255, 0.014408103441729502, -0.4306654725682038, 0.0050198999978187196, 0.15039281477622693, 0.1561931511318919, 0.045247304065324866, 0.3108821706586309, -0.4700624627697001, 0.10878356686637551, 0.019394332174129874, -0.32710174717191803, 0.5610026769345063, -0.0508219933261861, 0.7092034457642927, 0.30934089685530636, -0.17026053135637037, 0.4642399718078314, 0.23820277670435813, 0.31042509931015344, 0.5963008463631767, 0.16317429952416726, 0.0059482180849176145, -0.04985390262539261, -0.12169934342488546, 0.19505158515779494, -0.07349909419675153, 0.14288083045348585, -0.023889779287656263, 0.4125913518781824, 0.33917268862256333, -0.29792519221328706, 0.007773145131590239, 0.14386773855827542, 0.5674107179509215, 0.13671604256682976, 0.21972991634860486, 0.15095322804924274, 0.03366094764586838, 0.13707266428836334, -0.3449242721563383, 0.41787773452719706, 0.188976835188794, -0.2854499444364941, -0.4187414732000603, 0.07410076537773796, -0.03502181278210723, 0.5262840914933826, 0.08573018416078612, 1.141789918468047, -0.49371084077717753, -0.020146608312656845, 0.5538964061702397, 0.6831738891527409, 0.3078776680620208, -0.025914149489362246, -0.010881073038123388, -0.11592316104418288, -0.21716804819953325, 0.5596962836350294, -0.4428602671587712, -0.10767159191435692, -0.2239985615871437, 0.13274737220310914, 0.31210434532078324, 0.4677046620244481, -0.27178660842420965, 0.8944863402301295, -0.1909306981047129, 0.03674190846097178, -0.1799903829901101, 0.5893197644935374, 0.16200218656411244, 0.4037605329964749, 0.2705823133947216, 1.1128299119032488, 0.08225067656483592, 0.06196937382441595, 0.4437483778496286, 0.8348342449156467, 0.09148516218497463, -0.3445312087381618, 0.4420117305868908, -0.1908670728001413, 0.009812097073125104, 0.11100204062367362, 0.2179101694854322, -0.4287397365721818, 0.3667318885310612, -0.3960057483201066, -0.24158055287389002, -0.14426191423659607, 0.5217204786547264, 0.14647590035007663, -0.007414782073220848, 0.04142151573338545, 0.4671541432421616, 0.6765920006567414, -0.0853039403120543, -0.13713207467211816, 0.5877595330521184, 0.3608518282613877, 0.21471410115431672, 0.46510200462899315, 0.0746123037347082, 0.4782020645586091, 0.33231038272618507, 0.06153625634628456, 0.38591627825362956, 0.2650082173412577, -0.30205962902098715, -0.12158963510063567, 0.4029885672713814, 0.1420368402167644, 0.047954466195064736, 0.42039697140139626, 0.39096718581950846, 0.002976274266268379, 0.327886942990699, 0.30934143121725954, -0.5870833792161636, 0.021460369729627147, -0.4990644690324241, 0.5597475158297427, -0.00952776392216287, 0.20735325421411596, 0.41818187973640986, 0.8271227386884805, 0.38537564737024976, 0.4070281551320374, 0.03724224590743745, 0.21541524583580784, 0.3474333396026372, 0.7136925585644364, 0.16670814049259505, 0.43597623963846505, 0.5582844578838734, -0.2788585786937233, 0.15920996981700578, -0.3873243854119798, -0.28118915254991356, 0.05571794845499737, 0.6561954932246671, -0.46025774408320386, 0.34565491613134675, 0.5610943827583159, 0.06989495678017132, -0.1666499739216832, -0.7136187071414375, 0.22537667833590905, 0.4629032172496993, 0.5091992537683426, 0.3671219197098984, 0.2903747607254525, 0.20696024887731423, 0.006915852372557165, 0.06199388795448068, -0.1592228550063574, 0.3316186204350721, 0.6830340242823358, 0.0367319073401546, 0.38961980842476684, 0.7867356196383136, -0.1591893919935755, -0.041197744069253986, -0.313683154245815, 0.523384308298411, 0.47540585676585834, -0.07294592581438424, -0.057981622795573146, -0.6990073084889622, 0.03367099534670633, -0.6097602326621882, 0.0414753122666642, -0.01241824009024497, 0.32410448566399896, 0.2725218802653647, 0.21126308987619882, 0.04662379072510842, 0.0656690114705356, -0.12995167628431506, 0.05048465827420455, 0.4394356882699137, -0.1749337708999234, 0.021279549561005744, -0.10647472317539597, 0.06215248789762642, 0.15879402935755318, -0.2195328101713327, 0.4811248476272293, 0.1836321189683006, -0.23979761228807028, 0.26313493894483386, -0.06513185459644544, 0.13906575179849143, -0.0215452435379041, -0.0821829984609088, -0.21973579860314846, -0.35639393744492726, 0.4922832185829917, 0.33111427505402824, -0.06901651095631126, -0.5496732919026122, -0.01838757850973094, -0.28816073499942774, 0.3045693069781677, -0.34735284225259205, 0.13247767514982348, 0.12416448950380647, -0.060618698682343874, 0.796300113190475, -0.6971720318068836, -0.3066484388094643, -0.09408788975758452, 0.25578589288506626, -0.0035891349410899155, 0.767325574316529, 0.6902188963041933, -0.4283561511043174, 0.0348731394001344, 0.27964617501566214, 0.7363296957637677, 0.010331644600489544, -0.6066062456583742, -0.34264254438276537, 0.7211048349511394, 0.12450116811598207, -0.2861398493122844, 1.0115317485245545, -0.6671242824955882, -0.6783201778204553, 0.40145376130864985, -0.6408498007963986, -0.0382127290594766, -0.40854777689175287, 0.12068421493352216, 0.4547071164507506, 0.06296911287237639, 0.0787435913753612, 0.37555844554899903, 0.058532926518035225, -0.03902632206123052, -0.4940600896583072, -0.4496141306627964, -0.2020867426770743, -0.41602479372222834, -0.3204571064750589, -0.44237713241123655, 0.4598231796256409, 0.015328731174546794, 0.579938820237579, 0.17054701590691188, 0.46978544440641967, 0.1588822869762986, 0.8026674375238185, -0.36782630235529695, -0.11668472848356579, 0.04933761912001626, -0.21852281072863963, -0.47151823928876596, 0.13968007089405954, 0.27851875599612824, -0.21596927844938688, -0.095063477446197, -0.004679300047998353, 0.21502750105624843, 0.6003340413649363, -0.022793793163902013, -0.14785639153117605, 0.2023765681206681, 0.3812243249975898, 0.11844706215955356, -0.45914532865333096, 0.1334482628040185, 0.10695247226606824, -0.4957089601993647, 0.12285100736184336, 0.4573500247729285, 0.01044964576616622, -0.15062791749562587, 0.6942801797112448, 0.3452607093019719, 0.09265557104534217, -0.6191244856644769, -0.1404695980951244], [-0.1265343453803986, 0.5441495810990554, 0.25219588202306176, -0.24407059907904122, 0.11864817424901093, 0.648129042783259, -0.020820790559413934, 0.2234968235656022, -0.520400086435885, 0.37807681147807726, 0.9238078170820102, 0.18842757498608192, 0.42815659308908327, -0.12896763528403302, -0.2587663275313472, -0.2653059359317692, 0.3254275528542677, 0.4187525158230182, 0.10696390265793236, -0.06169283779302319, 0.27320571969670027, 0.37348977235588343, -0.48853196375375385, -0.1382681839677482, 0.09438846013367476, 0.050455434249697895, -0.07900575276149228, 0.17949023251147528, 0.43533529324849907, 0.5577791906526993, -0.17172051550271944, 0.2318218209079071, -0.1966984415248617, -0.07950035906411528, -0.28900774968802734, -0.32635778183353936, -0.10530725617548241, 0.16116116018738258, -0.3776429206217271, -0.07285834326509252, -0.15537035806520283, -0.20101721427001448, 0.23153944238752058, -0.2357977566762561, -0.8672502991941891, -0.4325376528765589, -0.01353242643964549, 0.21746193341900755, -0.8154494066872855, -0.13246925002079124, 0.41927485875726145, -0.08228909373943273, -0.12299435459731912, 0.21484430411425848, 0.10152078893697043, 0.2991328255828727, 0.3126944191079625, -0.45554500867743564, -0.00712208306970453, 0.022399721348648562, 0.08188532760412748, 0.48204382105245563, -0.18437767527003418, -0.015394471940307838, 0.07426827258163633, -0.08633705417785424, -0.26108025909691224, -0.922949550114394, -0.22225170795469926, 0.1311589351135472, -0.6064720831332049, -0.39879208354277657, -0.48653437344154327, -0.5981243755097501, -0.8688959202630337, -0.0728486007814821, 0.30737185058592764, -0.6327780549520319, -0.09223081277770798, 0.5934182202311288, 0.35285875300751246, 0.6148259609163224, 0.019907373575606253, 0.49124809566906324, 0.0054203975483754045, 0.5220365205633172, 0.5541005527671564, 0.7362743868837568, 0.2061212763727544, 0.09734376643929772, 0.055639029284989136, 0.06318059177523931, -0.9424087837548123, -0.7617923641192793, 0.15645121074946874, -0.36496959590813854, -0.6442040432064788, -0.40992818462117053, -0.8219665678111227, -0.7816409790186363, -0.5971255903164973, -0.38592347536887295, -0.028978887664474786, -0.16061669781983778, -0.2759784520287826, 0.2046148185619248, -0.11654007280185011, -0.028652287701871545, 0.25736499304999655, 0.38176883442304427, 0.27879490250408334, 0.5100979097216131, 0.02821697889530674, 0.6700384909811262, 0.2198644058158483, 0.6568451182434741, -0.3954202040178478, 0.8215794747295023, 0.7801908653995367, 0.04429954144565604, 0.33455568186156753, -0.12328788062382687, -0.9456601817849828, -1.1937125145364418, -0.4759134612576421, -0.07806001960314417, -0.39881402193074694, -0.013310659378540222, -0.7767012114030751, -0.5576599533465724, -0.5822115065064905, -0.21521690669171073, -0.17050125190952414, 0.2887316050871432, -0.3041031068832, 0.2798234541549656, -0.6796443520428009, -0.2633665694907581, 0.34429329525889085, 0.38724148109333, 0.25407871479484756, 0.03291798529244491, 0.16379015328635047, -0.07703138603930265, -0.04387260241161324, -0.025755428788914753, -0.3930544547775129, -1.4550485798252766, -1.484372408059435, -1.2407212101867435, -0.8838990388584148, -0.8196046845264848, -1.2172684979424926, -0.6460829412752359, -0.7597328012231762, -0.787003378281189, 0.10429755076242375, -0.367677429541941, -0.7354340832248696, -0.058178219818268734, -0.05018860267352717, -0.1530656396076459, 0.3405610097412822, -0.23551574797169336, 0.1547167659248159, 0.4265095918207595, 0.04605687206366045, 0.20937472808971458, -0.036846741010645584, -0.12893652462953, -0.09068819023440418, -0.3106601245241577, 0.02543784672577445, -0.5402380670213743, -0.5327685893349333, -0.8430710745302916, -0.674393347394425, -0.618387744364647, -1.5689266415664966, -0.9132453848336437, -1.1906725674225427, -0.39702466890100874, -0.5336420757420968, -1.0508586482354025, 0.2528985827315506, -0.0017098097921535312, -0.5090707333385486, 0.08881369824152734, 0.20014148897276546, 0.2845549992755796, 0.6199352790690533, 0.3891985321380964, 0.7080777706195729, 0.7450959882838663, 0.29567360736365833, -0.10914612098116837, 0.13690663915350504, 0.22219860429189608, -0.036619462759925905, 0.3611951564544412, -0.11747167051247742, -0.47025387809186575, -0.8567190257236557, 0.03446730211075372, 0.25901840741608817, 0.32548201384283343, -0.9493065126900134, -0.29562899587752717, -0.6881204172649863, 0.12936478322157802, 0.11924549018923328, -0.09394681041731485, -0.07594811168242763, -0.2166888780321533, -0.1576598425013818, -0.04250604457063113, 0.6156902744317395, 0.09027604537724264, 0.4154589693496148, 0.040427965252047865, 0.5435117800936792, 0.667381750652085, 0.06164148834501111, 0.6784505346386885, 0.11601784096663588, -0.1890511249681451, -0.13714643649522124, -0.6214204760752363, 0.24069738170725324, 0.14527609930069746, 0.4465610330512974, -0.4884188959863645, -0.11985058807032078, -0.8770300957298401, 0.4679719914088664, -0.12581714895004156, 0.3311841138565065, 0.5603687468548869, 0.21976877758942703, 0.1119650884606543, 0.8574463447593036, 0.3052460875156922, -0.1511928999400895, 0.3973512808189623, 0.39675428931605394, 0.6644245984686905, -0.06329341778519441, 0.04497044636487944, 0.6523744076889291, -0.058570044255384215, -0.23431817842075278, 0.361804242921117, -0.12392633871059323, 0.18464138680051087, 0.13070958831062832, 0.48395932232905275, -0.28547538823061785, -0.3044211045154797, 0.9346707710614099, 0.3319810402217589, 0.47372663190950215, -1.0557485596229597, -0.46050214880295326, -0.2879320992416713, 0.505073176357888, 0.5357193342841566, 0.206954064776079, 0.6359915233870077, 0.22299120679916512, 0.6432224346460012, 0.13658067366774385, 0.1072944400984211, 0.3046451798590497, 0.2897040002617317, 1.2693155661856697, 0.1008369928933983, 0.15330780991579995, 0.41220662608466824, -0.6685657603765991, -0.5947210629360882, 0.7780027694441346, 0.26852301483789087, 0.38027786780506595, 0.49113933684409483, -0.01198987877113437, 0.6363126865677544, 0.16661207481439455, -0.9268433163182904, -0.11659045513393622, 0.059963928861128724, -0.259871759953377, -0.012623617393314324, 0.6311298281729221, 0.21316807289456802, -0.7342013272448366, 0.07102537634571156, -0.5191151338601696, 0.07873167513225265, 0.06063417994219319, -0.13162208650563362, 0.1872551730335954, -0.2283501347372135, 0.42513871412122006, 0.8103955478576577, 0.5546725384228857, -0.033156324309178045, 0.11173671456702278, 0.13283501253634747, 0.2710344011176563, 0.36486907080136716, -0.024584076878655253, 0.32870502499573084, -0.6088960288757762, -0.013489827339354716, -0.5550318651032363, 0.4764460475560983, 0.80251193207632, 0.18644067794608168, 0.08471267175345044, -0.17124081248180856, 0.380509720078262, -0.08413050585135468, -0.1815750961243486, 0.3417283435073972, -0.08149197905074455, 0.2706997711630482, -0.1989510401343687, -0.4184395688160294, 0.40797695469056805, -0.09588889373138926, -0.6150336741975733, 0.1185710520396045, -0.5166320226012552, -0.8071935541527977, -0.2669984693756189, 0.20416749363225545, 0.07527045537500869, 0.688309727732289, 0.375161666364088, -0.12177589833386049, -0.1615177756521155, -0.743912902890632, -0.3578884855281849, 0.31110063258916326, 0.41018474808557265, 0.3675042688856374, 0.15880460514006914, 0.2954961612390927, -0.47456251387088727, 0.7806048912635601, 0.11702657937058099, -0.3279487485360996, -0.2418365470237244, 0.47054547002965375, 0.07385874230666817, -0.9942408735351118, -0.5229592111917141, -0.8051553042469167, -0.10003279248832254, -0.5469055330587892, 0.35850024517827905, -0.23717782602210458, -0.7287013049661626, -0.31371415315349305, 0.21256766997355153, 0.1576551890870192, 0.09152035485381313, 0.4312192518553045, -1.0566232750070483, 0.1522473157582182, 0.24764575022269397, 0.49656218381437545, -0.25961546220391923, -0.032241910238546785, -0.4547706671232249, -1.041690872013878, -0.8068986797842769, -0.41750146557467605, -0.02279221181224681, 0.16261053246759788, 0.36635541817655104, -0.3053360104977966, -0.10717802539508502, -0.5853045094765952, -0.1075230794218661, -0.5937632899670051, -1.3929149421244038, -1.14519095614052, 0.10864972441898323, -0.773154114373575, 0.0376613518494566, -0.016644060882389376, -0.03791801993831617, -0.1736616600416287, -0.18105574123646415, 0.3953472076251596, -1.1189008557015139, -0.3064232966131861, -0.1976106743782397, -0.398833233326845, 0.2985675942978426, -0.6845139527903273, -0.1875572869466844, -0.3000621850882071, 0.05740409053585431, -0.36152638236051726, 0.20471505354402325, 0.3014495573064281, -0.19956753884280093, 0.16419520000595642, -0.4297658278271927, -0.3861357987498505, -1.1366910663569145, -0.9228122720380558, -1.4332674420626699, -0.7675453398244404, -0.07894189337218023, -0.19003181606644903, -0.5731409549507008, 0.022519201853556405, -0.506833525951972, -0.17890644745120882, 0.2267953768899579, 1.1414299848896177, -0.8668863084358863, 0.1594689067708049, -0.5914680828429347, -0.23000338935523484, -0.531024194803145, -0.11942238159072016, -0.7351792650588457, -0.11138019992103552, 0.3936247292530787, 0.5758013553056135, 0.443929958050368, 0.2455610922011087, 0.12980864864847896, -0.3125386333389429, -0.8519021885072102, -0.030817105072641723, -0.18849367453391946, -0.28353446390806347, -0.9030926354656406, -1.0954340316697038, -0.3099282804544148, 0.06119852396277785, 0.13964257576013941, -0.4616772836340781, 0.13867094940422087, 0.1331160994962668, 0.14837525093915443, 0.7179992223351112, -0.1826444734990324, -0.5780146589040865, -0.14712548689595353, 0.17722556949540702, -0.6958647253184681, -0.9256986135116796, -0.27515658765161694, -0.5312906053332408, 0.18052683912242676, 0.5418137485743233, 0.16570963394884575, 0.2758476267076154, 0.09297096046172104, 0.23599520055503784, 0.15497824495496576, -0.8199122285613952, -1.3765234908379305, -1.2147566154551663, -1.7848173381281824, -0.6700528558627631, 0.04815183444166871, -0.10656861902982966, -0.016192533539791693, 0.2397266857787303, 0.17280046339130106, 0.5222169705236467, -0.46200351785208105, -0.28343216538578914, -0.029242062955995168, -0.6151796317111213, -1.1902530855515845, -0.2478707955497022, -0.9071128453488558, -0.9104168809166326, -0.5803700548385846, 0.19729003812653606, -0.3428580583795171, 0.23091523361920982, 0.495601416739876, 0.6800164462438063, 0.3556433138253993, 0.2766079851229232, -0.5712234950689121, -0.8847128507921708, -1.7010137036680528, -2.1153870409491784, -1.9125578327208523, -0.30084234201537063, -0.6724064524448187, 0.09784712133092269, -0.3653995169157132, 0.11976135448195356, 0.4331210104001173, 0.31356202509725495, -0.3016162380101004, -0.449318350965161, -0.5085258293131071, -1.1547049454139628, -0.02451143328000711, -0.46658412734509735, -1.2540232343580595, -0.3833487001115341, -0.7518912082809298, 0.4631386507713848, 0.27081851650788685, -0.5891776894124929, 1.0078903076858978, -0.33965038477709975, 0.13035036403135594, -0.7502024250454438, -1.1181043090762566, -0.5696231435274212, -1.6576055350701608, -1.6766081363750975, -2.052962415592826, -0.20132308098750196, -0.5771775622574492, -0.3216011292227219, 0.23027916521637248, -0.0033067762581402015, 0.23755337170964053, -0.7083201753215788, -0.4094548194277908, 0.2468897033081833, -0.9292358974238953, -0.22013527490080148, 0.036252727680117454, -0.974653864771716, -0.5466042589077401, -0.7800011571684071, -0.8027982030556532, -0.7619251443877173, 0.07969112643255344, 0.3028131220328688, 0.08262232189676387, 0.2561603581578919, -0.41718127724105986, -0.4238569580370401, -1.2801243579877482, -1.8054042029533706, -2.0813169219959593, -1.734415469470347, -0.9219754733911053, -0.3415996755950019, -0.5646273115435706, -1.2097182071735353, 0.05057558717626773, 0.3136883096501508, -0.47658856652582704, 0.2624314092260688, -0.475161939836307, 0.1682129734330412, -1.0218606324989292, 0.3950811145266309, -0.20052038090689675, -0.45060619553980297, -0.05659175461588596, -0.36421226014961655, -0.6474960069981838, -0.21007843365024786, -0.3490375065385357, 0.2744197100016691, 0.09885278633061627, 0.2803416783641764, -0.34928832207697075, -0.8746094087071915, -0.7725877896978949, -1.052834474319436, -1.3724511239564232, -1.6018627788979534, -1.4534648855921002, -0.32475350316205326, -0.8928506761920866, -0.15388407055687733, 0.38956886286648734, -0.39124286726070123, 0.17155700990863537, -0.5291924141606487, -0.304236587827158, 0.005535286719715109, -0.7704759466866707, -0.050038604108951126, -0.3901998772690595, -0.5170270683195893, -0.7431428350303649, -0.6317573848191385, -0.19444484392633082, -0.17648512252458837, -0.5171758492688132, -0.15513502424283668, -0.08346941660527223, -0.6372325328321397, -0.4917631155943945, -0.17682870822320657, -0.7769637736135551, -0.9478463164417489, -0.6022014827019869, -0.9065808382837217, -0.9485941350479885, -0.7317140377234591, -0.19131358431496004, 0.059206975185790295, -0.03882572374928943, 0.2836508490963986, 0.06613327293399547, 0.2577148832449304, 0.31862968820225485, -0.7139312237521664, -1.020076535992181, -0.3308776438838078, -0.35301112844777194, 0.29770097779363247, -0.01377039339770042, 0.015629005941294297, -0.7614249642320116, 0.23305273044018782, 0.8607247746086426, -0.12799677525292538, -0.1361553821478102, -0.1720274841484981, -0.7153164546931692, -1.1755936901219493, -1.2615402801722513, -1.1179686277537557, -1.1262134178468257, -0.6882416547393271, -0.730655286454243, -0.5364128697636774, 0.007538325294315906, -0.5116463079875364, 0.13963663284817268, 0.12128619205717413, 0.1984524092800935, 0.8642657906708663, 0.339676275730783, -0.2639067065528519, 0.5745172874017919, -0.014214909544295133, 0.35989838593493817, 0.38623066922807675, 0.047644639091172954, 0.10727184477461148, 0.015850532054849736, 0.3320766886988077, -0.6899527463358301, 0.11590625287504239, 0.05001365022113952, -0.05788191946204501, -0.09443711017086111, -0.4377926871265572, -1.1277776227803196, -0.3496635884631897, -0.2882063678790734, -1.4879795719496545, -0.3202016163933604, -0.24936295713320283, -0.328885707594878, 0.23588555722247936, 0.272222151464766, -0.1533480001812878, 0.041670141166167005, -0.0806475730227522, -0.14397000155534626, -0.5597145328982528, 0.091908961863659, -0.4180938408292946, -0.38961307897566916, 0.18247361130972464, 0.6806608360758732, 0.7121808197451134, 0.9768857140441818, 0.970654136091618, 0.2702302673212842, 0.8599287599650005, -0.1770294939904155, 0.06738057322341857, 0.16124137768809368, 0.018695102713845283, -0.4525673211910261, -0.7171052167178614, 0.09225749535093634, 0.12451542297548678, -0.7183555862042746, -0.19139611115200356, -0.17223027094675936, 0.030424300073115758, -0.1634110062144179, -0.6216356223287779, 0.11704834598737938, -0.045890723157809496, 0.6113066311484178, 0.31631940616441, -0.3261375541657444, -0.2903425529345829, 1.2178424736352171, 1.176753837490213, 0.07399009003669421, 1.062470341917127, 0.8485272226428088, 0.38191138723262247, 1.4607534102139892, 0.5581047007842281, -0.11662424327447, 0.16007837920072146, -0.1651840771352501, 0.5640368155582256, -0.2551955107748216, -0.8277373638048664, -0.38345726684374853, 0.30783183700224, -0.8127440419020405, -0.4626590649743496, -0.49233484383732773, -0.18700310115558672, -0.09054831413846724, 0.1028141893368439, 0.022254195173247223, 0.12070322926579448, -0.6413983797300137, -0.018269679161825602, 0.3757780042110522, -0.28721333597295584, -0.18144684109682194, 0.7522593340922255, 0.23127490699610065, -0.527031410083425, -0.35072336640475343, -0.6228870253749037, -0.25133006532010593, 0.021790654745036466, -0.24566294640240025, 0.5288458242268688, 0.5772015119158249, -0.06399012682543645, -0.4567708563173065, 0.08458660991476305, -0.7354924274504787, 0.39494218390142466, -0.917659655524327, 0.5307611463190872, 0.23196169137021977, 0.1741642751351704, -0.32820745127421, 0.0834794834789352, 0.5000160911096315, -0.6594934730513001, 0.06982278699715795, -0.1456061520591, -0.2817221582119802, 0.1997995003451679, -0.02592871837821199, -0.5751696819050283, 0.27727682881105525, -0.14966022591327557, -0.12656243056395794, 0.26008011179414076, 0.3629400686568493, -0.27031390651560444, 0.4220433388318861, 0.21449252764916743, -0.5809473616555767, -0.08862533149614658, -0.15104359219953256, -0.20267527445638936, 0.5336997771748372, 0.5091161029168835, 0.3068305512643612, 0.9063753696517426, -0.2730417443579034, 0.7816314625547355, 0.5191113744619654, -0.27970064136327843], [-0.09704610956956901, -0.06779963419664851, -0.2605943748461793, -0.09606498511521837, 0.4825334390844779, 0.43512586719162416, 0.2808415474841167, 0.5155422336902542, 0.5873567594154867, 0.553743210954686, -0.16865788869635875, -0.21934406863807218, -0.06548188576644666, 0.15435063290968717, 0.20699857844257477, 0.5001044663995251, -0.6310171561456841, 0.001863165036533409, -0.043626339195424295, 0.14743474316402258, -0.11922594077846833, -0.1632311585276808, 0.3004363406990401, -0.13100732546546204, -0.11381645279415885, -0.07181662015388453, -0.012505772568178865, -0.24031128334948584, 0.17158263411308386, 0.5741767701084763, 0.07861615560972939, 0.38953435354227983, 0.022489031097853652, -0.37056537513653165, 0.24743463251217904, 0.19238479738472, 0.17456947116419871, -0.04113353582276461, -0.31055463671149297, 0.28811040098776997, -0.899487439074349, -0.7842348937002044, -0.16131035234531949, -0.9610577505591742, 0.6875658296417526, 0.44527782076251, 0.22093565519932362, 0.11901803933550746, -0.5786370083324093, -0.6796716120425988, 0.4457414553203348, 0.7398381853569508, 0.35856375086965575, -0.48241647333277027, -0.13438767740706667, 0.0009970898369213456, -0.3568819609032077, -0.23361679897702717, -0.1343867516715663, 0.3372013019480329, 0.5731960045515331, 0.20488477656871665, -0.04214259008559513, 0.6929376664369565, 0.1861120342440553, -0.00235427009299824, 0.029276111915115904, 0.4636641873167787, 0.35035708966479495, 0.48801896758859387, 0.03611336410296032, 0.08162498382474104, 0.6019518669430586, 0.16412046777434205, -0.22115460094567366, 0.38590504434049466, -0.24230475292577808, -0.04624735935723046, -0.23517341121481558, 0.2675951134482777, 0.1219876000873971, -0.13681670851064345, -0.22383231546398139, 0.4331071663618504, -0.2709886839010526, 0.7243536171598446, 0.09160267681522628, -0.0289045484838765, 0.4426267346228615, 0.1939429996164824, 0.45189327048950845, -0.15012591223750962, 0.4148510317629791, 0.11815583162461119, 0.7024158087055339, 0.09853719030307145, 0.5044311585338715, 0.5150572458214056, 0.24878591730871025, -0.20371422024955385, 0.8255237089362231, 0.7312150544394943, 0.13402203513047556, 0.5700194609214302, 0.16149570166122532, 0.3044781605372294, 0.41388564741897077, -0.2356417757623818, 0.48416024906384414, 0.43139881245996015, -0.5399605891773613, 0.2617508872603017, 0.17839584217335971, -0.1755583211490929, 0.26611103992995866, 0.013720166813408685, 0.3634524593324241, 0.029073067639997365, -0.1794730864888804, -0.16406393347658746, -0.8293186883317841, 0.2252397345070351, -0.16086760545007095, -0.04769066585106281, -0.11680657357562292, -0.19153859494980374, 0.02243669838197079, 0.1564095168487727, 0.3903156454018505, 0.2548493600239149, 0.47742390901660686, 0.48098305811603614, 0.25541684857110547, 0.4767782506271595, 0.7781424835217993, 0.16041324509764224, -0.5113084217513756, 0.24888560046850688, 0.4312121166571943, -0.43581006758552276, -0.04319219014459292, -0.022407343791972133, 0.028143756357831787, -0.6756022736998698, -0.11695689775150393, -0.7771932803285898, 0.7286459588268396, 0.7811019186985668, 0.02114001232654805, 0.3640895388431764, 0.07796851873868804, 0.21880794739003556, 0.1917239520378078, 0.8073944263209796, 0.49167801449499493, 0.7352820797495861, 0.05800443456607309, 0.14622261499732017, 0.6824789737196145, -0.37465992596996406, 0.4324302250309794, 0.09255790742852378, 0.2561161486234362, 0.18664944245145731, -0.24726577617225012, -0.2998560019502785, -0.4134692485712529, -0.4045491338805701, 0.5200040588095647, -0.0030507091397600776, 0.24671362953088513, -0.41006263780124885, 0.02918357981606436, 0.01106804722842042, 0.6786818546239752, 0.4833594568673376, 0.10626075203703801, 0.11570541636922388, -0.05840970254090181, 0.5562224180112055, 0.8888373998401744, 0.7418866665820941, -0.14631656203866839, 0.40930593798655684, 0.20247156875855743, 0.08448803049434372, 0.24652072117117682, -0.256242155797789, 0.1642378753939348, 0.39908334219622377, 0.5417522480369273, -0.309791478369216, -0.23622751869320227, -0.21690273020538764, -0.2635091845944304, 0.14621662361809037, -0.21434889944331922, -0.04934954178081954, -0.4987782724070735, 0.6277021969882428, -0.09329327732071296, -0.5565283593532779, 0.07725928769833852, 0.013905757685209352, 0.06495606466728251, 0.17991154120619768, -0.6711358925699933, -0.2410487037210417, 0.33212305155637634, 0.3052285019275655, -0.3054612560397291, -0.33703146821312835, -0.1565097991668568, 0.3929446849281217, 0.2051217280471678, -0.4535168222143014, -0.9112076660588958, -0.04887563008325948, -0.3894688731505228, 0.2018501716494539, -0.5014330688173293, -0.6351708937258249, 0.21676018780070042, -0.030630146450792057, 0.578101517308527, -0.024737939529339243, 0.04360406086985846, 0.07610054143578132, -0.6441272643062892, -0.35097177039655936, -0.7297018322632923, -0.83436462958513, -0.7428717305629021, -1.0743164582118827, -0.09771523111983833, -0.4644001829043195, -0.15067077190739459, -1.0826271691832752, -0.21831236284203195, -0.10641116805337293, -0.5118305151850443, -0.25631216551675756, -0.16262839745066665, -0.5471746115962683, -0.08634039946530278, -0.5611621590448455, -0.22931253450236497, 0.16177047296860408, -0.2307436262712023, -0.08482577588068642, -0.04591253977511125, 0.8900981080010535, -0.21785358363040133, -0.22948929335372412, -0.6569796120861084, 0.07426553423965311, 0.008676900915911204, -0.5125063894804792, -0.09794415218904262, -0.861652398473987, -0.07061031396194896, -0.5609714793651128, -0.012739654378302228, -0.3843696066381105, -0.09590158385276476, 0.42389731603476055, 0.11651336521682275, -0.24339142250344284, 0.00884807737241682, -0.09080510663172066, -0.32970299419763666, -0.44019591139322756, -0.19923914575533613, -0.22330662397812906, -0.8821276379070697, 0.20359457617386065, -0.7858150718641471, 0.6705109615433463, -0.37650288408054644, -0.01018038070332915, -0.3110069707515699, -0.5907864753017404, -0.009736056737572099, -0.30603309332638473, -0.18908867882502553, -0.7663518895789281, -1.4822695145303653, -1.37275740927838, -1.1949745548284445, -0.9024092635367905, -0.717292569199978, -0.20507667314211514, 0.2630339140183327, 0.5756740123632612, -0.2596252722796745, 0.055693703649980726, 0.35917221904152713, -0.04003662315440992, -0.24557727140167818, -0.5544561117545235, -0.32546974955911806, -0.8407392260885078, -0.6596912787813504, -1.1837723329827412, -0.45914087007277643, 0.14283351931392713, 0.0423797255033757, -0.4185621236480771, 0.4292837365127786, 0.2034202848746423, -0.41732957801902104, -0.14555770917248517, -2.012788659831742, -1.0370403157272428, -1.2618813061089, -2.157463004971952, -1.692823361914115, -1.210455865569884, -0.3392596616581059, 0.13913850088686314, 0.4568088256036783, 0.24761234263505572, 1.075175054376357, 0.9574212982171444, 0.7283433052016972, -0.05028622743882553, 0.10380762963559254, -0.004603181892891653, -0.3033465733682677, -0.613086450018155, -0.9770871558951494, -1.1275061829934157, -0.015861122755117175, -0.3871726536703487, -0.3428630326579778, -0.40386247013525556, 0.2419322633499373, -0.19314330067423433, -0.3148400181367128, -0.22954525297044717, -0.6685543110424601, -0.84761926419346, -1.1176231168067357, -1.5394359982997072, -2.011419477259757, -0.610084880021041, -0.8337238152686642, 0.04827964699602531, -0.09458916124103738, 0.7411382480553337, 0.05235615032212, 0.3219692313558706, -0.1666907182230477, -0.14620721351151444, -0.34823100205444524, -0.3228682417744115, -0.7331779438754693, -0.09944789028581207, -0.9281229228347855, -0.66626920940021, 0.4048809972131546, 0.1889476889595054, -0.15221893032446462, -0.44092335343242184, 0.204252775597878, -0.5459804590761168, 0.11037963847737572, 0.671033670412163, -0.5468556786334432, -0.7007942452349354, -1.900607597054733, -2.848729001029287, -0.9992962296065523, 0.05091721722622236, -0.5298652342085721, -0.1397081336565001, 0.8431257483338658, 0.3982203138565722, 0.9543717797405101, 0.5284288607887879, 0.16203111771070083, 0.6109795992085103, -0.37334269953333793, -0.25127627726993307, 0.2698201395309389, -1.0183441002503737, -1.6210214570168358, -0.8347416146779794, -0.00568348745204818, 0.07939361644004116, -0.7698114699791563, -0.18724960763401624, -0.5674299380091314, -0.9229652359651286, -0.15538859785078965, 0.021294118926963448, -0.7568709480757148, -1.095905436116283, -1.6525403060656407, -3.08464324538716, -0.9970624820741957, -0.3152961638117442, -0.4587001385687516, -0.25706746168079914, 0.11814358317703394, 0.11257059780474235, 0.1594202146189809, 0.43870830227086083, -0.3151823051525275, -1.047009795534397, -0.04282678584694687, -0.43533557355746777, -0.09818077622940424, -0.09774554085011453, -1.0298953221232885, -1.1269562768191026, 0.18776398073798448, -0.635398330953842, -0.12938544293653256, 0.2461457558274078, -0.07741138660977466, 0.6623166148862303, 0.39421773700127405, -0.3326810384798541, -0.6215857188231271, -1.903237465174633, -1.7329221701420583, -0.8011990456381981, -0.7782395764480571, -0.5272124968401751, -0.3939945527856231, -0.33512039749203526, 0.4782146261706687, -0.13287571014628016, -0.1429697545944475, 0.1930154059233891, 0.26196479269688483, -0.41640059455423156, 0.45176977583141165, 0.3220319164279009, -1.0183164436936674, -0.05448076910602169, -1.1748025039236238, -0.8954608268104993, -0.3860219209400838, 0.3879631174651704, 0.00626954070374709, 0.06460075653874199, 0.34229600682524297, 0.515653465864051, 0.2337417848994158, -0.39670552190009906, -0.41884539442949337, -0.3620002023404698, -0.5053873536865984, -0.4801646291181522, -0.652722155449463, -0.5193464076307195, -0.5953636512138532, 0.02732218222028243, 0.23551800743885137, 0.5332783090678199, 0.11721712778030013, -0.7731554380044455, -0.1553847706687565, -0.6709877564008896, -0.7468466634746396, 0.6313698607772997, -0.3909206983072525, -0.38811398704517414, -0.7371799939659072, -0.5223460655447437, 0.6454525299655366, -0.5536441158650954, 0.03743856403676699, 0.2249652681035428, -0.18571468963145202, -0.14338531062656315, -0.08023163186913353, 0.27936887912459124, 0.06602057551301174, -1.1355115818969208, -0.5088321961280802, -0.47133819146026873, -0.5061619317146302, 0.6691389709958079, 0.18546580675590976, 0.37493184671686197, 0.004473456549462829, 0.4804243463640778, 0.2341222067138042, -0.11531461106824142, -0.026515419893244324, -0.1463527633673966, 0.29547630335281677, -0.19007406281122177, 0.2818127465985204, -0.257887126027066, 0.3107010210753817, -0.3094269540654051, 0.41536456833598046, 0.28957461644539395, -1.028044732534465, -0.14608339627952363, 0.08772726772103705, -0.6325604853274618, -0.11681489325597999, 0.35821957181018554, -0.3167358914218007, -0.19504829369955867, -0.7629441767329993, -0.6086543414873107, 0.10901901891898746, 0.096357948157893, 0.20774498051937793, 0.28778753848400634, 0.07623236913990636, 0.29730591165732284, 0.25937618878655905, 0.11554070124241951, -0.2375745819459523, 0.2977852578806943, -0.20983582417466268, -0.7429071516790157, 0.24666872559204833, -0.33402582689890653, -0.1297955483357048, 0.30800674623366653, 1.2748382305863952, -0.3358747314272017, -0.3303462011033068, -0.3798386266301632, 0.16695630001580977, -0.16066526905803527, 0.6092671650047363, 0.49638073236166963, -1.0144051584039415, 0.1166398097003982, 0.6870237184629303, 0.3559273446414091, -0.3709434553761671, 0.21151460637354044, 0.23257589603050108, 1.0207155621003081, 0.4603001172813013, 0.2561083531017244, 0.17432549948781462, -0.20919067373753902, -0.23938479469321905, -0.010268190211314787, -0.1040996403581057, 0.16874590093132907, -0.23565181008215252, 0.522350744982336, -0.033611931161630054, -0.5039764179920255, 0.44536716072998195, 0.27480053065660237, -0.3298914151679707, -0.2939623850095271, -0.27032918792312666, -0.05556478924828007, 0.2832660916460443, 0.6860525641780201, 0.7097657618610858, -0.12840804102862277, 0.16151111575719107, 0.5340464755204959, 0.314133436901469, 0.9479170764027905, 0.4586592601704376, 0.5914438237985825, 0.2870729608700184, 0.5332116069145333, 0.4541001224997915, 0.10008478820822148, -0.08396183921697849, 0.21150113441378313, -0.03947917547071204, -0.030129221283587127, 0.21712485182690625, -0.3926093051348145, 0.5317806729930739, 0.365775677926515, 0.4491803723708494, 0.2691763475475304, -0.5075799553683907, -0.2846662339028837, -0.11407729033439586, -0.3988761300369519, -0.15952547520925794, 1.0612208608229006, 0.27562874516407665, 0.3245890080431913, 0.34079186322871335, -0.29618751036969915, 0.3917040967960855, 0.20306308065830214, -0.36937859707653664, 0.6120204267283117, 0.3223674662667815, 0.18462469820815033, -0.3687350970313259, 0.4873514279507642, 0.25735651006654175, 0.05917287053593901, -0.7445803305975798, -0.09711085625912508, -0.05808808463327099, -0.11004730354271237, 0.12005322748864239, 0.2540188001148206, 0.07645462324524492, 0.2546913071400837, -0.0396654282349525, 0.594288144441731, 0.04052619138955805, 0.21270678340794028, -0.3151591759094833, -0.24598075058799515, 0.31609942187054174, 0.2215581106883798, 0.5092710555496794, -0.12567126248177812, 0.6295134400939292, 0.7771522149307365, -0.049552005019750316, 0.5694981550435848, 0.4370522800005358, -0.16283003753024686, -0.2053719796484515, -0.5312052423797446, -0.10321019146102435, -0.026212388231330735, 0.49755298540003884, -0.05618369758428364, 0.296321401419965, 0.26134636974627035, 0.027904958774202602, -0.01004934979543587, 0.4266975377776471, -0.3711002345934562, -0.10639079981803905, 1.0426183660271369, 0.16122882027461297, 0.5212282213543971, 0.06292901862673081, -0.28662424644543094, 0.17553421263801464, -0.0031269783798601168, -0.4367053106092739, 0.8695308597530461, -0.038913412488829895, 0.6365455635703371, -0.4676396332837943, 0.032954193294518555, -0.1791794525529441, 0.2912000332337495, -0.06263672132291281, -0.3274659377675668, -0.4375812865262797, -0.34284971938262343, -0.8086671259773583, -1.061324391990352, -0.38346198694736, -0.11888982090016728, -0.7560345577197455, -0.35485723791975143, 0.19377751933946438, -0.12699675032351623, -0.5705241198053819, -0.1250050419345219, 0.34554748683334546, 0.5175051890424374, 0.30059724138127386, 0.2671160381364569, 0.5158445391462566, -0.29592176058330266, -0.7706939165482706, -0.46912811517954206, -0.6986809905528468, -0.20410184541810336, -0.9546615372927841, -0.35861334849375526, -0.08494364008762542, -0.6171126538595154, 0.09237044271529775, -0.7601727133836551, -0.4751515647867737, -0.7913045330085665, 0.05992906835479247, -0.03384699506177442, -0.14331609371376944, 0.36433120747186964, -0.4382681246664287, -0.7290573804127012, -0.20981223473310504, -0.3347861033605998, -0.0011148457957567272, 0.6407833374897103, -0.4690777701415353, -0.46107959680052535, -0.15704610547561212, -0.4217055794607487, 0.30717572603013166, -0.29623729104104485, 0.17688442828388842, -0.2971067613520281, 0.4610633654787858, -0.4948953237363293, -0.2969945186871575, -0.8501730544801334, -0.799165233020139, -0.8832087832401924, -0.11513735529782937, -0.44961274170001, -0.2935158993665702, -0.34346844376736674, -0.4381346736154056, -1.199683284891745, -0.5211198908676862, -0.6365567962521455, -0.030632686914173448, 0.15850976706007283, -0.27160924409335807, -0.08043452671267122, 0.4068543455777326, 0.28826131017169576, 0.3362103621925189, 0.12923990706634805, 0.18214553371555967, 0.15041709298378528, -0.011107714015548218, 0.14449655567128095, -0.17915013443138492, 0.17610816904537943, 0.3320657211641056, -0.5394173932499469, 0.3087754597016291, -0.13660171385183845, 0.09056627211025198, 0.2243410310156968, -0.287109132877432, -0.02965727534685118, -0.15695409390926515, -0.05455699384556625, 0.23586498424287522, 0.2831648522515935, -0.6450495136445139, 0.18708377937082346, 0.02280690219709675, 0.5544095593186821, 0.06757158907441997, 0.13965469072417216, 0.11608531530965825, 0.292264658671764, 0.15392790780269497, -0.08479368546067868, -0.017506394783747697, -0.5380847464121585, -0.2519803551547479, 0.14195434344052058, 0.1560781582964892, 0.436548343771209, 0.13733407535200218, 1.107479428046874, -0.20782013347321174, 0.43521389421759726, -0.029215348468532947, 0.6404694560976261, 0.6249743775877008, 0.44411523943176756, 0.29168123635432075, 0.023023502634843127, 0.1851121919982888, 0.504684170975779, -0.23078546764161842, 0.2023993877946351, 0.17122516760425935, 0.13905904820158002, -0.47953846202097117, 0.06537270261144311, 0.0602064021750448, -0.19666518152935134], [-0.530496514345065, -0.31768124051556523, -0.11240715232707876, -0.09128482786569049, -0.23565191945280278, 0.16849374366460285, -0.5012505216344135, -0.20502886326486286, 0.6902770858239694, 0.23833828204736682, 0.04744718981754283, 0.416278944280454, -0.34297034031632023, 0.14353600369113848, -0.1905930894145424, 0.20484609626966904, -0.11780469150840096, -0.25501142627275397, -0.06380273991244112, -0.17020851377862953, 0.30803917937310005, 0.4319263720793817, -0.037842212179959575, 0.2677151978628813, 0.1399742146512775, 0.08499798533789588, -0.04376739889305473, -0.019020988118998192, 0.18818312828627334, 0.002444937207886686, 0.34979220754199125, -0.3144683706479928, 0.21216547720815074, -0.4136688928840495, 0.1940922024589907, -0.09316020862188668, -0.049842660029131056, 0.04680972889186113, 0.14039440419269855, -0.04742927027086553, 0.03660098702691447, -0.12872750574784667, 0.24481655713061604, 0.2129103162424852, 0.2213191693059165, -0.00426536104176926, 0.0005972948027099871, 