{"name": "hl_8", "layers": [{"type": "input", "nodes": 784, "weights": [[-0.47910943844065185, 0.08055271679138931, -0.13225912505966192, -0.33820649925889545, 0.47394738792330043, 0.3295626240302254, 0.5690639439143843, 0.34037187650802786, -0.11167490544120827, -0.12528367750461425, 0.9420751021492432, -0.08660582082613051, 0.1778392944073904, -0.21425573164929648, 0.007285662212823722, 0.26195006438816165, 0.08714286668043632, -0.5172769298591473, 0.10551112678863914, -0.07184791649099502, 0.34036046455234925, 0.08445437044932465, -0.23846366788913964, -0.07688378549867007, -0.34777957887006544, 0.10148098199295769, -0.16422509773947075, -0.03544495690270513, -0.3719873620644283, 0.6563015073640932, 0.10538267193122246, 0.4218596807440855, -0.40032097174558234, -0.054365876754560685, -0.3199111391149334, -0.1389475505079877, 0.3538013198021562, 0.36929000079543667, -0.009426976154001598, 0.08077873450609717, 0.3989083204259336, 0.3478557463900335, -0.19397074378093365, 0.18159905762561468, -0.06725980797887576, 0.29615142678230316, 0.4521076948258465, -0.1430316723307017, 0.5420643846310372, 0.3021974989554114, -0.6467118350798676, 0.031637307193561996, 0.06684325649537996, -0.19417195610468205, 0.1462539816549902, 0.7384354981449985, -0.6945911535459889, -0.437678150380624, 0.14156457238887385, 0.6981248730287983, 0.31137986652694544, -0.2430285728903313, 0.420527137448756, 0.012398143894899906, 0.35246089186272234, 0.1237040370731167, -0.09633456679373628, 0.05941860137876138, 0.31770795884193864, 0.5527403883941567, 0.5374575714348048, -0.12297000217273912, 0.15425732996102315, -0.23379614940187657, 0.05308382986997233, 0.36204897795032787, -0.14032051605944465, 0.4173395272304548, 0.19432214776099277, 0.023880014819742952, 0.18909931456130194, -0.16067685163003984, 0.08453660327287, 0.2549009206463178, 0.38991624684191767, 0.06449193394657132, -0.3230441781956775, 0.16491197129518503, 0.019837756201665602, 0.37957132356457607, -0.3365961339655952, 0.13769829174844087, 0.058278033838735734, -0.03335217936778745, 0.6558258343886008, 0.39410754589185026, 0.0818170025756419, 0.26317902057826353, -0.14140886955682727, 0.4632377823087571, -0.13353515525104417, -0.06092012780620122, -0.030011350086626653, -0.3739456160153729, -0.010503121728992124, 0.06023005235609842, 0.24299177321959806, -0.0374168163558844, -0.6008529464080788, 0.10903078020970729, 0.0044071206461920595, 0.3707168840748199, -0.18258187517547964, -0.04202724303077096, 0.2614433587258565, -0.5511103898448756, 0.029992102127002367, -0.1509809068280632, 0.6202184022556008, 0.6094227921477547, -0.36088683238885866, -0.16827187794660708, -0.02117946494868318, 0.15104340165491645, -0.16232002891838399, 0.4991285084919487, 0.13022665877356654, -0.22982215362896888, 0.5627939800003346, 0.31364345982006775, 0.13379893552628636, 0.31787328017322336, 0.576531075227067, -0.10555158789162246, -0.10960457221964633, -0.29737108731983497, -0.5111465966736056, -0.27233829469795734, -0.0657044635807423, 0.6591813280515453, -0.21037147047331461, -0.3394389336843239, -0.2832885419461048, -0.19141386489839102, -0.37352505494808785, 0.10647043700842972, -0.2568609352352662, 0.5693296346889949, 0.5862290431197176, 0.006912585660131921, 0.19850516550436706, 0.0940466780623056, -0.21925457916606683, -0.3731151135092984, 0.20557714937699342, 0.10442191249795386, 1.0333562198415225, 0.19940766733670967, 0.0059704854143718825, -0.5767991098264363, 0.4227336440485643, -0.05535149274159516, -0.6978786765429019, 0.5369759043401853, -0.29033171028644345, -0.14970673632067183, -0.20953963304364726, -0.4907716015008144, 0.046362442109592575, 0.50528681894992, 0.5171946174317398, -0.5249891512529217, -0.07700145645761226, 0.24879869427594967, -0.2660709163369236, 0.37006925276102337, 0.10916143022725798, -0.4083846013938737, -0.4321390119154291, 0.3182023865946723, 0.15055394744771916, 0.470912661888267, 0.6395316656028011, 0.3683271035210956, 0.10804626654971097, 0.32742879792154367, 0.09357165646226008, 0.21704444536400047, -0.40278124810615484, 0.4073016496757334, -0.0029418797799185786, -0.3648195141854095, 0.010725665664985598, 0.02319069445057104, 0.6772560245366898, -0.08520451883454261, -0.6221276795773719, -0.44605458101143813, 0.6417225773528006, 0.4336230528697876, 0.5957564186914638, 0.5215635378345244, 0.31341595559553165, -0.22686815623245182, -0.4521193053084881, 0.16104093670841382, 0.519648265065623, 0.09747739121675254, 0.6716294520086199, 0.006461451090881982, 0.12446856944933657, 0.10548637856395482, 0.15669916721908125, 0.3958697671632162, 0.22438973776510052, 0.27822141811763357, 0.3164438674452387, 0.32207548064687497, 0.05252718035570336, -0.6595774580832738, 0.15855556503910767, 0.18786004444777044, -0.23519358988794753, 0.5977344747961252, 0.03259074598921169, 0.20700547153837823, 0.2914643446025411, -0.22935054888365303, -0.20630563003520522, 0.4448967844210396, -0.3104198110700681, -0.15721738263511106, -0.33247828266473006, 1.102177167924122, 0.22536967371975686, -0.19191075780227768, 0.47576112795548575, 0.08466894695369653, 0.6430181150342387, 0.35299691623062274, 0.6442835763803499, 0.4139989901957884, -0.2874305193889399, 0.1654326756801423, 0.4692289586252784, -0.1555038747956607, -0.25063555432488444, 0.06184476646199992, -0.047838927670537386, 0.26678523572394947, 0.10588690770702994, 0.24532484764808987, 0.4935205780982986, 0.009416380500861427, 0.44291215215164503, -0.05616262737393357, 0.1543273906087947, -0.023207277554474864, 0.30821343105258703, 0.1794098022181245, -0.0343183035955081, 0.027422364657058915, 0.8780699397378049, -0.5067840738624102, -0.010271302897617157, 0.593742729519117, 0.15810902588162937, 0.3992582576535307, 0.552276305397914, 0.7340942128992076, -0.0739309723998777, -0.09701239705804972, 0.3296073146966104, 0.06386636285185639, 0.04118735648652915, -0.9140624086382269, 0.0946298743839303, 0.09864689829255191, -0.23386851850562584, 0.09781723089718579, -0.8304246449257934, 0.36273015965798344, 0.14323915233552514, -0.0005207837589564329, 0.4826573094328924, 0.015544544094706922, -0.052768024337282345, 0.2221425217136791, -0.03932678651831555, 0.40397468469778824, 0.435023920331819, 0.08307271362675066, 0.9416134909794663, 0.31260321417499326, 0.3236554847077421, 0.09295334502401666, -0.04829921573423071, 0.48395882538259116, -0.1747262945039727, 0.031462835656831376, 0.31635427142612377, 0.06816116418510962, -0.06831038658993574, -0.23815888881453948, 0.034954225539668544, -0.23049836497515935, -0.16660406646462655, -0.6933219315033231, -0.029187104297024837, 0.0379189055365878, -0.20501071291127276, 0.13533842659057738, 0.4665708589202074, -0.08007997952911505, 0.46105526939753216, -0.44548393431992866, 0.05148858475248225, 0.6553809306900824, 0.15448967167303435, 0.7074216227612865, -0.3580349559171206, 0.8173682601136931, -0.1572816812625298, -0.06899462693870272, 0.5685207305426901, 0.06308388035392182, -0.04586854964252904, 0.11806003632610584, -0.6654480235947563, 0.10878716752096373, -0.135058018310058, 0.16964733979053914, 0.019712545002221228, -0.18678202899318166, 0.41199028742128163, 0.5979484226252284, 0.19364733326664366, 0.276290567565061, 0.2941117502549117, -0.10047861819168023, -0.24075494001695613, -0.5472544437662357, 0.3321879006955059, 0.21104482375381828, 0.30734695749384716, 0.3327268945392505, -0.23653513191655093, 0.028084022937483324, 0.5291185270786036, 0.3237215743408679, 0.17450830445855406, 0.4703209127285432, 0.5409423845738468, 0.666333539839906, 0.31209259716094595, 0.5996820191588211, -0.3293322687306407, 0.2223160041048558, -0.14934391121189905, -0.2678778046644674, 0.3625344544414709, 0.24555472185483496, -0.04875008211512343, 0.2951997528039225, 0.20260765260294578, 0.1731498683535371, -0.3837870575088855, -0.466108357699923, 0.07700443134208702, 0.28022215053387445, 0.10926057950264459, 0.5911264104374393, 0.3241977132536673, 0.2690699080079371, 0.42409617734349675, 0.12129454755874053, 0.23167348242665908, 0.34504303569313105, 0.9107200471459495, -0.08653350539865785, -0.2768402584222264, -0.08799662730548427, 0.4656884546939259, 0.17937268776157075, -0.04333788174966621, 0.15681575655550414, 0.3801224711258704, -0.526592384613531, 0.3882497845366291, 0.29307911310588936, -0.837333742810193, -0.5765975275510541, 0.15857416243209463, 0.19613711754283672, 0.4356616548171534, 0.2739419139281349, 0.22184340715442355, -0.02318282703112781, 0.41677357777982066, -0.29450689371006217, -0.13361146093174076, -0.05863014900936429, 0.36763435550314655, 0.23862916875981333, 0.42977607233372045, -0.2521130683640416, 0.4058341135892883, 0.024343292259075784, 0.36609300170809955, -0.06551856124366501, -0.11010207190191745, 0.02509631528870683, 0.0785136010961907, 0.2568120053864754, 0.13970249535690035, -0.46253289940326664, 0.0737125367105313, 0.42957619300237315, 0.4741690355620291, -0.2162087871207676, -0.9589684370398684, -0.5660036473635204, -0.46544505891638455, -0.23053213074881398, -0.17678851918214183, -0.1682202305661841, 0.27758486105377767, 0.6841183335577711, 0.03966152115671416, -0.17385186256757926, 0.4771291319522912, 0.29237716265791, 0.4630281948543461, 0.4567759798792957, 0.4662320775596519, 0.33088226490824385, 0.6053558067083676, 0.24366597839399842, 0.18501182320826312, -0.036731428991902924, -0.34200430363673323, 0.19264349500482572, -0.004651178033216417, 0.4361215848787672, 0.05440797789944208, -0.07335621638389522, -0.12937117038387896, 0.40257571973545764, 0.3389818861470722, -0.4374997046405668, 0.5276223654205321, -0.5808936668965846, 0.15786864661138647, 0.03344573684041978, 0.3792912414112592, 0.5748228719704147, 0.15435657933506303, -0.0038899212474606784, -0.18973898706111952, 0.6397800583850611, 0.2133056925470349, -0.005154200504903265, 0.25197555930000476, 0.20944591567024115, 0.02887516305116805, -0.0064600747488140296, -0.19883511413392332, 0.31112205552493033, 0.4028334812502987, 0.2649114618168466, -0.119178183523554, 0.2944975094584916, -0.1944355585992921, -0.5358289012823846, -0.14208823722236777, 0.7220317148342795, 1.2064635919560682, -0.1964724353566629, 0.2593530825824002, 0.0884900901428548, -0.22117682187033158, 0.5767981629509226, -0.39487124095941845, -0.3707945414444076, 0.03814979696572362, 0.42028220842797875, 0.11616786475905126, 0.10221841241718943, 0.5257300462225604, 0.200551551339794, 0.36253443612392794, 0.600461624890774, 0.32921646058459825, -0.11387938527430518, 0.15288156131056704, 0.39194476060131755, -0.3048720921973411, -0.09161866873213922, -0.11578956315809547, -0.1776311379823644, 0.753962556216908, -0.486783443732002, 0.17434754996971474, -0.2861194032150626, 0.19331354337487017, 0.7436259259930372, 0.1475427669145528, -0.04694500429690317, 0.1577277388498851, 0.08954129523703151, 0.004721645043481855, 0.5726393569648461, -0.5997163790266713, 0.22129863135893701, 0.36660323932934663, 0.35181489256529797, 0.13402767303473945, 0.26884021784596623, 0.5980029576057637, 0.5938656615233494, -0.4573960337439898, -0.14443486389808927, -0.04334472514381203, -0.6510819628453408, 1.0986760412810133, 0.04448600139576123, -0.1930071298559777, 0.3769133533381811, -0.45064651804658307, 1.0428276917660837, 0.14863872432050565, 0.09597291190327785, 0.31302499179960896, 0.10313219031185991, 0.060566587190570904, 0.011478650483948657, 0.508742266823294, -0.05546137804555731, -0.47178313110450576, -0.15319544842683103, -0.2568211128699215, -0.44566853911252613, 0.29514078440210323, 0.8629873967307008, 0.5699836502860229, 0.07749141544128789, 0.41223242617475175, 0.4216840385373535, 0.6963406921412226, 0.5420131879882436, -0.39731833762401514, -0.23347346931180227, 0.04295214268489009, 0.030951551778448685, 0.42420329712562777, -0.23960509420664897, 0.4407134109849787, -0.17632241061912313, -0.2131189595255359, -0.6605101802947229, 0.15912910277045417, 0.34210830738724923, 0.45050521066890975, -0.1987864109426071, 0.09159147385535268, -0.007586223085368162, 0.5094934762212375, 0.3816675021468212, 0.34605485486824794, -0.12479759644634576, 0.34275745978897976, 0.5261627867704084, -0.04763178693635758, -0.32091758783119123, 0.3972352989914888, 0.11707912304051495, 0.5458359306077274, 0.6152147586847666, 0.34222576361983476, 0.7044280799736162, -0.08553925463013864, -0.20898095182414603, -0.06072297447954846, -0.30455145842405723, 0.07476729903800519, -0.46440648307057714, 0.22938555222141652, 0.4433781057316093, -0.1610839677861852, -0.1736839978993472, 0.0029693813316413503, -0.17559294050641067, -0.46504930028546915, -0.13708677211542136, 0.4015935888051315, -0.30955800171412157, 0.13497899134828462, 0.010896920958027904, 0.2781515218419131, -0.48301647669320835, -0.42269515704411853, 0.5417648435277778, -0.12156899984723876, 0.40795162158766096, -0.227867685377162, -0.05564028667698546, 0.5398411398990104, -0.10927340333040444, 0.13993603160590282, 0.18635356512920406, 0.016411026573348562, -0.22973375840557964, 0.2501842225497603, 0.276208941226741, -0.4630346242595964, -0.1903751398783927, -0.13632099603848072, -0.2890586659534782, -0.31793082193198546, 0.2066494868387703, -0.06825884655784227, -0.4680437136535267, -0.24962669755973343, 0.02486919396871251, -0.06009869067341008, 0.24087048509709405, -0.00069872263173688, -0.14201041681620968, 0.3873916359355513, 0.7415376038685795, 0.3789096094501539, 0.2547227302122419, 1.2956947124176692, 0.298133913952945, 0.2587390171346907, 0.10626468452353896, -0.41680549730482963, 0.21846466475099924, -0.21336318386928704, -0.431387013047206, -0.14710614236398278, -0.6438385109720738, -0.2711029385630531, 0.4876469845712568, -0.2981306443856795, 0.2837851469118959, 0.03650624407464608, 0.35329124326160705, 0.3217430974619965, 0.4212107211850088, 0.923212690516807, -0.23612510750527996, 0.19517157608066446, -0.15733827740069345, 0.7094966418535762, 0.48595377269785467, 0.2977895609251846, 0.9195299101528832, 0.08819171439408219, -0.42398209619097205, -0.18980486929278748, 0.34144673480309384, 0.7850196532937856, 0.29182612188545387, -0.003095111908703931, -0.47509085741213836, 0.25906948136948904, -0.1471541114617246, -0.7403856964049561, -0.2528165337043492, 0.31532171446150736, 0.5180147421674298, -0.4597414635213259, -0.8956503219159743, -0.26710223662030586, -0.363457040754182, 0.5467366280458575, -0.09989078514846314, 0.9030647663569986, 0.08690522483722322, -0.06381578129648519, 0.1357058989163225, 1.0383981224598866, -0.2967065288811037, 0.4734115105844834, 0.06167831877243208, 0.5114583826649105, 0.34441060052937533, -0.018199129158748134, -0.527069488070743, -0.3877804965566853, -0.04253094748162629, 0.15601435908558875, -0.46279284373764856, -0.15767923029394232, 0.26068534731692555, 0.07371539846800025, 0.43325129129567863, -0.2869842763760527, -0.16834944981242497, -0.07679165332512214, -0.10210250152182161, 0.16109378199423555, -0.03906882712725687, -0.24528766045675718, 0.3241205805862425, -0.5017205174687703, -0.25325873646946967, 0.1658618473137315, -0.10050368948362905, -0.26212773864182604, -0.038928395088636436, 0.42343452107838403, -0.0777080777179081, 0.16351167832661354, -0.008053823654846063, -0.023146450001977372, 0.09942043029699675, -0.15354851336512676, -0.4812604551990428, 0.755488729376985, 0.6083384233235728, -0.10122319731930506, 0.4770207294833784, 0.1078417560884877, 0.2709031853747043, -0.26320265702352214, 0.0842798501724872, 0.562729413031445, 0.4508218742637151, 0.5832642707215062, -0.27988011960507786, 0.5420782235887229, 0.020585916446850424, 0.11183307112889193, -0.5143260079291713, 0.05583535303088452, -0.255358813645817, -0.1454903622272763, -0.2521499869164805, 0.20109772804478618, -0.3124922765019817, 0.35871129972695076, -0.31226199031015583, 0.06111415096749662, -0.09568465708685307, -0.6306916619972561, -0.09102280883873554, 0.2841655366943036, 0.06914100645373235, 0.2092589715805486, -0.21019623563884604, 0.02593093561050618, 0.02972246048465038, 0.3949422915361975, 0.04831988065650142, 0.7084429026121, 0.3808729829063267, -0.34939097137668157, -0.010426007289510632, 0.08485305654692335, 0.19061246180854163, -0.20377938893054318, -0.7017298466007386, 0.2663533022281877, -0.20511322895394832, -0.32785404058099843, -0.26678464756808684, -0.24510386360167127, 0.5549592288421947, 0.1414032005360346, -0.5650649214463009, -0.24100598507445364, 0.11543974062153849, -0.02079863668735827, -0.2989395698720546, 0.3038864464125513, -0.6346810961554011, -0.26626750188320286, -0.028506144267179016, 0.23192735284103316, 0.2666462980808298, 0.45405263437968074, -0.8474302030241126], [0.20980043126444353, -0.09907104672192608, -0.06424112089558816, -0.3430438262918331, -0.5998162163881673, -1.171715022063668, -0.5729549733172707, -0.23829531018162153, -0.7244366234384159, -1.0332446118230982, -0.6953911104789396, -0.5043841905924697, -0.38908369863701103, -0.5567697668045313, 0.32815518559066986, -0.9745097910968077, -1.1151023880165374, -0.9535354344914695, -0.5382688123922388, -0.5403478717851664, -0.36870659017350677, -0.9458581926913918, -1.0941455791299455, -1.5308868735650205, -0.15575542873032472, -0.7051459456379727, -0.22548437879809036, -0.9370545453592045, 0.058268016995898515, -0.2544902871875056, -0.911637652247741, -0.4538851285490864, -0.26229585851841336, -0.43153129155205155, -0.5738872157166801, -0.277380591736287, -0.9816201694241603, -0.20045361248104748, -0.45314025778248274, -0.37925915955266465, 0.45391241625808254, 0.1852153300566216, -0.0002870685187492072, -0.5875170299332393, -0.34105171887159424, 0.0015684854633393481, -0.7097791436185512, -0.7008109326692442, -0.65162344547663, 0.0713415698749285, -0.7040064926048878, -0.3137025570319569, -0.1965509994824125, 0.17622627353145404, -0.4606119524716307, -0.7244957951316808, -0.4160662145800655, -0.38701007609383414, -1.0420352296278175, -0.9483243894309589, -0.44548434018561744, -0.1915014423313714, -0.011656049424709596, -0.16494708146408776, -0.42003639358262024, -0.24710374031663812, 0.01954692572637195, 0.24488437916435768, 0.6680385110635135, 0.714480853020537, -0.13441860475812661, 1.0329463431362111, 0.6791685216312685, 0.08057450513917506, 0.4849093378215164, 1.0898031531692902, 0.43911352920244295, 0.4673628184519305, 0.5046768341889348, 0.23674696962884728, -0.5899468911121711, -0.0060264183902833035, -0.5613267642909394, -0.08801473746867587, -0.7901786893612011, -0.7533031873658118, -0.44720812817033834, -0.6953215452627751, -0.5685586062410865, -0.7900879175770351, 0.7049756535663566, 0.27716532428846324, -0.5563209628941783, -0.09269974646995736, 0.10747534196738183, 0.7481426390349885, 0.7350030662795067, 0.3134808678073707, 0.5804561572320505, 0.2654445727822961, 1.0759783423668987, 0.08376043882466448, 0.7478149049469072, 0.7465486078782834, 0.07543922052290418, 0.18619751621904657, 0.25114403447110933, -0.6474618400879, 0.11102204178072496, -0.6299129076295534, -0.3084049938431725, -0.4497169559419553, -0.37650879797131537, -1.0111220173036677, -0.5741045425456791, -0.5190624166986502, 0.024050540909184008, 0.43237902070905765, 0.10300269023563176, -0.41765814993321354, 0.48660799821510387, 0.2225162394272143, 0.20322594419566287, 0.37774858589584237, 0.08900274094055403, 0.7074895484936057, 0.2495960274310133, 0.17731737671922068, 0.0454998860290485, -0.03915188512007423, -0.017128678382348272, 0.4417187383819468, 0.19622093954939168, 0.39257207968838526, 0.1747587983281596, 0.004441776201503683, -0.7097483760414331, -0.4331863736851222, 0.41176311197757803, -0.32443392239624896, -1.2343789124670481, -0.3705703004886946, -0.401827106447126, -0.18722466498555607, 0.05942163819206252, -0.5226836135216728, 0.3303803540695335, 0.04517608065458279, -0.3056190046464806, 0.42403407823614775, 0.352403336750531, 0.25271786433841265, 0.22399721930635197, 0.05302366568648678, -0.30022014269362773, 0.7302811454111126, -0.13490940896306292, 0.4845678211848172, -0.054093614703614394, 0.5149325076129453, 0.5108941166372645, 0.23471766335505403, -0.23949813947920762, 0.2755482186182867, -0.05842532680724611, 0.049811951650333766, -0.5052763729094415, -1.0942742027899177, -0.8358663788643004, -0.44163307472850394, -0.36119691249350433, -0.3607477639367665, 0.20894470714289443, -0.014701138496010343, 0.11120014141336006, 0.21279425077364364, 0.06717590591255294, 0.40645498226325366, -0.7467634907242456, -0.40349704925478524, -0.7721258353508313, 0.3204061654825923, 0.12262663214148675, -0.12914480395041977, 0.23443899017795347, 0.1739856683908766, -0.1995201259297242, -0.10534332631737789, 0.062314396016797946, 0.1441775779313589, 0.19257445822911848, -0.5855954926052247, -0.11271975262047482, -0.16818014790200225, -0.6253740640577202, -0.6430729791919757, -0.40897201739304484, -0.5071967669052794, -0.6652090843999217, 0.15247597513465694, -0.9980219697796578, -0.5482549802837225, -0.5317443163050712, 0.1183209379307358, -0.008442377203215693, -0.3655394500493595, -0.14295786315976697, -0.6221839546347471, 0.11846018783026471, -0.16954580926799462, -0.007143280873561888, -0.36939723739057906, -0.4828687825095375, -0.19687687520717442, -0.14309711361336006, 0.07973663093808322, -0.3124793637536764, 0.15650511062859188, 0.21208987727659445, 0.5762912392452252, 0.015267135336534352, -0.29989802620546685, -0.20046760016566428, -0.2825190186676921, -0.588545998377158, -0.5706397768118172, -0.5739953898496851, -0.059734820774176946, -0.4027982657427423, 0.001753090956723636, -0.6344377477612095, -0.7818582874671514, -1.6413604641235657, -0.5990662873091376, -0.4513895152162704, -0.848270454524865, -0.6917686009000222, 0.24792229489371412, 0.07898248499799626, 0.08573604572438609, -0.3267352613135161, -0.3984931593987106, 0.0955596372207585, -0.11836060276448396, 0.28987169135818003, -0.2438266346920193, 0.08505501441720117, -0.37880777283057426, -0.035432751608209564, 0.5397721156131136, 0.19418939710441796, -0.7815595820753932, -0.46729572159339866, -0.6443887321681627, -0.6722857949329993, 0.21946733793062986, 0.4011074433173452, -0.8257019083267724, -0.4070941880221555, -0.7407687698203353, -1.2719684366088344, -1.2808910144674586, -0.8194850795977413, -0.42025210920984213, -0.2473248272669938, -0.026855758421728562, 0.11975034426043871, 0.41782715620145255, -0.08172633192161124, 0.15066168465742166, -0.8436570769136873, -0.5267662397771816, -0.33831105337796996, -0.4798330672928841, -0.5746799949039142, -0.7017286649560935, -0.5137658806412854, 0.546744717185751, -0.0014172557497253051, -0.2653876504063391, -0.5893235642698843, -0.05441192788265418, -0.6449461334430008, -0.5141051296767737, 0.31678026761983447, 0.032544172185055224, -0.6090515180138887, -2.493537774398813, -2.2850535571065107, -0.6941801848477429, -0.08674838261847033, -0.3769369895753956, -0.21505440501387096, -0.04008283199068675, 0.8354074034064881, 0.6070602487997944, 0.1532554653062574, -0.10379922445663958, -0.08837183866988452, -0.21953510373298452, 0.06927204407674781, -0.5464910129832984, -0.20196884679417004, -1.3193157572537793, 0.3588627571113107, 0.14423013795577108, 0.2653080047333461, -0.6973572584333806, -0.39042459428670034, -0.08691444461154217, -0.47608407109758283, 0.012697877949282552, -0.4662463970441732, -0.03991187372500601, -0.38219933455292204, -2.411463126264822, -1.5450774722277896, -0.841267937820975, -0.3971242949724208, 0.023568454017929195, 0.02501517481941173, 0.4808410087050911, -0.0030105656392578114, 0.7953141777310692, -0.4245608435570206, -0.3537927817407192, -0.40451986690801955, -0.14829807359268743, -0.1935667472794754, -0.5775528008844686, -0.33419293821196, -1.102564716735385, -0.8859343589883977, 0.4759001766583897, 0.3337882181032961, -0.21610257811244377, 0.11745215668181745, -0.38608730437486716, -0.4994526298667106, -0.699117287007766, -0.20776863718170768, -0.11161673490748596, -0.4381620739375546, -2.5900943811525536, -1.6815964646028647, -0.3397025262117619, -0.2735843142271051, -0.5246779049227992, 0.4351530163513224, 0.22918032865015475, -0.4099876896564233, 0.13696752944557203, 0.19848647572755249, -0.05102172809867861, -0.4637899290753001, 0.18935711201369357, -0.0815922131013794, -0.31192326673050697, -0.4528662007325912, -1.3014912183041725, -0.12036886557438065, 0.059797171242530436, 0.3059998496072994, -0.7443939745653976, -0.14428456074032164, -0.4451295527891114, -0.7421497406638236, 0.2383303587868487, -0.9419460478245352, -0.9415924618549982, -0.9704769995267862, -2.4639396974957877, -0.4883687078759882, 0.18880055076020516, -0.46393531218090245, 0.40417634607797265, 0.20872926483767532, 0.29776320637715964, -0.0320381230523841, 0.036487650507698165, 0.21771649243873212, -0.4145430873754057, -0.4129926372783644, -0.47454557259354246, -0.8929988297268825, 0.47283968885308436, -0.5075142976744692, -1.5913144151038743, -0.2533998105014115, -0.049848273989055114, -0.09109222313972083, -0.11906498927914842, -0.6786729247301835, -0.4980661585328405, -0.5952384514214811, 0.5376530056481316, -0.2592480223372038, -1.2728683268864391, -1.7724473787441564, -0.43164361792196254, -0.17920664815087523, -0.25741291144060696, 0.3218787360668579, -0.39776243786011045, -0.1807871837267189, -0.6476237068524711, -0.11084645090636168, -0.2240568547621344, -0.04406489572148575, -0.6653561955029126, -0.08201251906184229, 0.05707610956443676, -0.17665765782544876, 0.45137734597522927, -0.2771692379434852, -0.44898574172425043, 0.19516041330120187, -0.5691472683030765, -0.7638779149665047, -0.834932786108955, -0.6228427462755102, -0.10153272221425856, -0.030224633640628787, 0.21493320731917676, -0.39587603312772546, -0.0004708341122478726, -1.0950766513042605, -0.267430497138271, -0.11933628521667164, -0.20952321042815525, 0.6393379654609368, -0.03744288068013131, -0.03846016838821402, 0.006768019646312056, -0.20145883362626468, 0.27995705013233285, 0.13386215047102779, -0.237319759141386, -0.6473710555175377, -0.2695853123134497, -0.22300899429190207, -0.12020066435241102, -0.12343813028553412, -0.6431509184985637, 0.41320113234745837, 0.0738511256727533, -0.4474060601785773, -0.17832863731369647, -0.42273349287488976, -0.8731455776198022, 0.004915464888879014, 0.2671768371086159, -0.8564902599571476, 0.008006941187990401, -0.4437868180328127, -0.1615825828839913, -0.07318410282960701, 0.061689858358641124, 0.1811170234046987, 0.43912326656740064, 0.004830127316453197, 0.5305350337774335, 0.23731204310178772, -0.1742116520886138, -0.5382967825681974, -0.6949608739085801, -0.3739518644733961, -0.2360026738817823, 0.008671432252556847, 0.09857417824389862, -0.8426603297024202, -0.21143895040889452, -0.4422093431474168, -0.3590146234595907, 0.778279363042746, 0.3166662849445409, -0.4898434080576299, -0.9442158194813012, 0.26316933850718166, 0.19436293370561106, -0.020525416567700374, -0.4662994640882168, -0.08404268672277389, 0.33554900659256715, 0.575435912463633, 0.17639986549546546, 0.42463718657102706, 0.19105560350503772, 0.3721344402712258, 0.6394805932805415, 0.2780524723343559, 0.11335325731554939, -0.21630787052995679, 0.11232288001807646, 0.20108237084808317, 0.34564633997468674, 0.05770381213774381, -0.6663201412372503, -0.16803075122533123, -0.016337429093069306, 0.006572216382265555, 0.42376364658317844, -0.23603222649102462, -0.3098995137815082, -0.625049495752445, 0.11613196036794503, -0.4643040711062617, 0.6876595043887485, 0.07339132084874686, 0.5183888446593458, 0.655871521535565, 0.348750107191186, 0.3201732046008324, 0.4005536319171198, 0.6490307866910058, 0.22419484347288235, -0.41710898672667013, 0.2134229855549457, 0.4923654783714616, 0.12077002759869408, -0.07733435945228839, 0.046377260304075865, -0.03909833603371908, 0.24586983536649276, -0.24872100759574636, -0.2800950766198993, -0.35550397567233516, -0.6897621750455067, 0.5046407642442106, 0.14598359875527203, -0.3124115253296079, -0.692731904849939, 0.043999270709613146, -0.9736142074935399, -0.314896402466177, -0.35220490061733184, 0.028851409217856245, 0.041996854731263134, -0.2237318672528097, -0.07576165952250571, 0.21877622601418475, 0.45695480142747186, -0.0780234638158028, 0.8448584253107192, 0.5221293845593141, 0.49687199857675757, 0.009875946227411293, 0.6438461653959627, -0.20131551194528768, 0.11892934715504845, -0.011209648703178504, 0.5215266532095714, 0.10799967487057506, 0.051281279094436104, 0.1940559994451546, 0.3410017874387911, 0.3300961150819255, 0.22299448820482148, 0.219574839602513, -0.7312699061048142, -0.6364170280134487, -1.0460454721309393, 0.5617355342125885, 0.32466256140452937, 0.42429325359415593, -0.040899020444628134, -0.11974196321192733, 0.03961766969647548, 0.25982973228328754, -0.5274845328657506, 0.7198838594932542, 0.34135236493831494, 0.0415525544757358, -0.18906390697912223, -0.48742588696525957, -0.6158792570742452, -0.5511131522803815, -0.1790263317139123, 0.4195502974457956, -0.8309286633055487, -0.32667124007377635, -0.4751571245108241, 0.1503548793042639, 0.12381054750377041, -0.08219393809982418, 0.28963960854167004, -0.0759685219295408, -0.49148099025473774, -1.101274729866212, -0.642864611227423, -0.46806883353748835, -0.2681715283478831, -0.23184484785591292, 0.3962901146833141, 0.12613201068389204, 0.0524328086588779, 0.0678565647732498, 0.03068418130972806, 0.6332016740285636, 0.7254426730676264, 0.4519799395450437, 0.49067032901122964, -0.03525114233115862, -0.16825747304485206, -0.22155375219481926, -0.47252219664416495, -0.3533810845599263, 0.12735623143563934, -0.9063826247283907, -0.538130028740149, 0.22860856746084507, 0.12074226028276473, -0.22627804215401917, -0.03855600477538027, -0.34758347405954676, -0.7426566229960352, -0.27394426854198234, -0.1908400308420205, -0.37470541583977407, 0.28684689935129043, 0.03382733767051942, 0.13459291066522402, 0.7376735724559427, 0.14502661411255036, -0.1056291332888952, 0.1935933950730329, -0.6252658177921013, 0.1825063234964874, -0.12146960458087461, -0.1398295296968232, -0.2934074423554358, -0.28227407248502684, 0.0802919797985369, -0.37670844792447833, -0.29482264069906905, 0.21468039109098244, -0.04168756859515935, -0.1012582656237168, -0.24532743351592035, -0.05242455085263238, -0.05756187833024305, 0.13163735312805808, -0.2176785575826925, -0.9306013754914038, -0.5634859579907237, -0.7000967821854147, -0.5964422120775685, -0.2799736934794644, -0.2341467121548439, 0.4150478227211435, -0.6250017540228399, -0.15116245853772045, 0.3978756306447729, -0.8750661817489497, -0.23300821962735585, -0.6840848589769539, -0.6851703533123686, -0.48346149684676737, -0.35095689138460356, -0.5238485311069079, -0.6713945842438697, -1.063837142649576, -0.5900108764869643, -0.010312199372635354, -0.5380443812576626, 0.15364983130204157, -0.4227704860049454, 0.5001400524473787, -0.2525409316508933, 0.4614228341912799, -0.6359862698535014, -0.22093826625007507, -0.7762934233744483, -0.666249763108768, -0.28712532304793165, -0.33401864880434057, 0.053108199142584765, -0.27544706696231125, -0.040512007458722306, -0.4133334750025059, -0.40513689771102757, -0.11247403879415144, -0.7444540139599214, -0.5192366423794962, -0.2869630053792939, -0.7452484625379432, -0.5260024511801519, -0.6332756276174879, -0.4002347874843913, -0.9394409077215438, -0.39647242262688165, 0.0140615107484947, -0.0014165068544678128, 0.08124914717030242, 0.21557594490274304, 0.14459484866946304, 0.1371984608097962, -0.9015036344292087, -0.48733006029899634, -0.32907136090389927, -0.21894943210773804, 0.07006154485432246, -0.05399007641303467, 0.0029846471944210227, 0.07109923944799992, -0.12989892597480104, -0.09122978246514296, -0.8732929814486265, -0.511765309750821, -0.7028418111373118, -0.47126943439294516, -0.6099729021927067, -0.2500079046240157, -0.9383991528065299, -0.3817496626241464, -0.3364770292887353, -0.6015939650241763, -0.9187139856969656, -0.48518681818755055, 0.38814982906304, -0.5840661746679018, -0.04869669629583248, -0.48011076026365457, -0.6506532583855195, -0.4569044540259129, 0.026868144114379967, -0.2528255810633652, -1.0514106864809203, -0.4235801030913748, -1.038759300555275, -0.272580683245565, -0.9126914327020754, -0.6354888084262867, 0.42691197633034655, -0.15931734643974976, 0.19254421693638368, 0.28828063817159183, -0.42326064577452843, -0.338509006946458, -0.2737122880718742, 0.04833712716030478, -0.5419653698437179, -0.7461162756632592, -0.16311996027050388, -0.02352883338595993, 0.26386871980934523, -0.1596947455461268, 0.15200492830095044, -0.17061693102251657, -0.7721159734622547, -0.23973089308762202, 0.26895827591312443, -0.7106682109863924, -0.8902910594513459, -0.7361854749072587, -0.6132331859922546, -0.3057092504116738, 0.12835876769538668, -0.4185343546966201, -0.11408375582436871, -0.6481256937791386, -0.6338624736843583, -1.3576109114272552, -0.43369871438674396, -0.6805356338938685, 0.6607841753231568, -0.41914158585642985, -0.22875854589642627, -0.17633378260000818, -0.012421382256249808, -0.7761213133015183, -0.7898432699457119, -0.7057676247560162, -0.95397354016428, -0.8150434749885989, -1.0001468949782777, 0.056451468504824055, 0.1487723821669939, -0.9161694123975733, -0.5040788887026334, -0.8749176520391797, -0.9556885491060636, -0.9568557672056541, -0.7211200037901055], [0.19883795219638123, -0.27186055402732107, 0.18681557470643503, 0.6697013827768065, -0.4627980010462646, 0.21948103150983994, 0.31993322289549814, -0.2945396721182165, -0.16394267137755944, -0.24772275895057724, -0.3246139489875427, 0.7706642425684855, 0.44041080292592477, -0.36714083502253486, -0.11027077024459173, 0.09583846092054138, 0.09660011464749739, -0.2902620771945445, 0.2077524827097044, 0.0397478265032362, -0.03641483084864283, 0.23391951078554143, -0.44976802929454895, 0.5536918883188823, 0.30649608097752395, 0.2741624397716576, -0.25520847552730963, -0.28892759751382474, -0.06625194687112901, 0.5576284818769193, -0.14096037844852555, 0.49929032949932445, 0.4122097143965556, 0.37552434146006847, -0.3919535375877125, 0.44881836318507906, -0.10267029657150514, -0.08952833779045938, 0.027634601478193497, -0.062173821308139705, 0.10398091261786221, -0.5177225033654781, 0.3836148926122573, -0.37099883922402127, -0.6406242226472946, -0.20418037880012868, 0.20331199968523905, -0.4613205364993732, -0.5889140453562203, 0.019903658852496144, -0.17339535481313179, 0.7420336557012306, 0.024855510106715505, 0.0993911555361691, -0.16805293045313435, 0.6298762925655427, 0.3514160272269831, 0.07979576740380308, 0.4050907958646717, 0.28078113548793077, 0.32874604466061064, -0.2970199906067969, 0.2686008216428942, -0.1290337335653478, -0.06634770217237118, -0.027473282638481058, -0.2347078339763946, -0.1407207449098322, -0.3576855977854378, -0.38686583687152293, -0.2477024279604376, -0.6659964232154185, -0.2178168724116378, -0.262000849605232, 0.0615179809111465, 0.1432273865960504, -0.0869282916491106, -0.47178509462174906, 0.30058990502730615, -0.04552522448514958, 0.18574036133705177, 1.5844099786124916e-05, 0.11712853376158908, -0.1714775528265665, 0.18207659102506876, 0.33992372176279234, -0.028383496020170557, -0.15488415910981052, 0.8245676301592856, -0.22230602982522346, 0.06122546929109455, -0.1338598273562286, 0.20620819280690422, -0.22371673829957497, 0.021329753099048242, 0.7239988397878429, 0.2237283072423037, 0.0792885431429157, 0.3948571740734116, -0.2965545226300784, 0.06756634082961645, 0.6573615795146729, -0.11594951047368447, -0.205212028196773, 0.22918539427319295, -0.06266224614377666, 0.09814483303474351, 0.3386563550978554, -0.28110181645672616, 0.28848131746947714, -0.3176848586081988, -0.05979551455939637, -0.06269905802114385, -0.1599541032279282, 0.6431133527673257, 0.24866426270598047, 0.14337796125898333, 0.12825194773777532, 0.14563273361804416, 0.21051987517393528, -0.13962860359217552, 0.15454449112092974, -0.005067086082117879, 0.4516601258722247, 0.6397835211677452, 0.5585552281433263, -0.008658919475064373, 0.6117831166230919, 0.4470969741051109, 0.3126000837214335, 0.8474071973594578, -0.3193331080879966, 0.09546311755592411, -0.14775966512263303, -0.37977554677738856, 0.2982405761734284, -0.3630651625833133, -0.30182415003993174, -0.05129938774747555, -0.10455400211773548, -0.505691439439764, -0.2442602063876675, 0.045148449607324496, 0.15473157231692627, -0.10292680142598516, -0.04609910914101015, 0.5421105669717359, 0.4735728007659483, 0.004264665800722836, 0.12209575140889663, -0.11345769379059033, 0.2909794013904731, -0.1872410566171897, 0.22350648320957997, -0.023514897396120067, 0.5449080393183492, 0.614739771282438, -0.3576559942993108, 0.37801329984014426, 0.27919264165237734, 0.25721505308310094, 0.3442634172909018, 0.2021816892823075, -0.5324893522684846, -0.34629889638408456, 0.2885168719469232, 0.16985885173541942, -0.06421382888770837, -1.0187418822631988, 0.3834334542104097, 0.12516552368140638, -0.35123662962797036, -0.20148521098042832, 0.23377012855246576, 0.4476310557918687, 0.14030333785191956, 0.03176187206490848, -0.2666042983433285, -0.11716623109718384, 0.20962045596630022, -0.21343907920524044, 0.3229606684082893, 0.46320416624800465, 0.7233905790560131, 0.15706757257935633, 0.3527496328559571, -0.02981902750851869, 0.12763504983973825, 0.630553575244014, 0.07021390319609204, 0.07588048478015302, 0.13013738146916748, 0.006313037589051448, 0.20265220319003877, 0.28728382344317516, -0.1515016065739267, 0.4933235716850317, 0.10826162883103514, -0.09132990541646341, 1.320719411314365, -0.3635845600017874, 0.07514414185178797, -0.08524707449598291, -0.5271652613524633, 0.15802109933150074, -0.033783396900226956, -0.26435996293323033, 0.3254650966434166, 0.5821582563087062, -0.33648382897376683, 0.2670352574541276, 0.3279797566318963, 0.1505608538243593, 0.43056282614840535, 0.7260065700552293, -0.1829982969123179, 0.5017058820813055, 0.21650226501028388, -0.4110587032180876, -0.3581413626066893, 0.15744520124098066, -0.059735750992609006, -0.3820179746501279, -0.44605241143312907, 0.1595362012620311, -0.9846549224777856, -0.16239795602873824, -0.13581603556466612, -0.5689022583156711, -0.16605831980344246, 0.46027587054622365, 0.6188631946665932, 0.653526646966429, -0.2085672871208909, -0.05003387205132469, -0.07361577653957191, 0.36953391400285607, 0.6507530947398518, -0.2239120333975484, 0.3894173351500894, 0.60061198204708, 0.03802263648391552, 0.27840222445019197, -0.16448230217966783, 0.14030271316608006, 0.11551755414057488, 0.03448534556186671, 0.10064360819078479, -0.21529472110654713, 0.406789978335677, -0.32414371884611864, 0.041307912003977716, -0.31346293596351205, 0.28486897560106034, -0.6988663094712692, -0.19519076106107716, 0.6402371796739232, 0.527483388009397, -0.25131899952077036, 0.25676712290182824, 0.5432240806647839, 0.24238555073637194, 0.07850545155407365, 0.25708961252134405, 0.27780760294627155, 0.2638765226698085, 0.27606720078314984, 0.7429175205875995, -0.20457397055573462, 0.3341076671074704, 0.28722819605852185, 0.6267583021971725, 0.0808274314112913, 0.08456269964504708, 0.20067436683133547, 0.5401581732971648, 0.05457358049811596, -0.22556693670364167, -0.41658796491372196, 0.19702544080839607, 0.038283280629235646, -0.17272288565498695, 0.05881042747561874, 0.8251095269950324, -0.14119379908659418, -0.04852762868339547, 0.12489506238646007, 0.18203099083575439, 0.43141195817405315, -0.17680554449589622, 0.2991574242477399, 0.6343898310438305, -0.40445293971892105, 0.1455661204832028, 0.634209889143531, 0.893919474563368, 0.4984496175152383, -0.3128120655893434, -0.2669895275838243, 0.29080674267215945, 0.2500764127930686, -0.18918056269404387, 1.1325107353299682, -0.11104216829187204, -0.49902592252859684, -0.6296258153505169, -0.18932665777487762, -0.029198403676783717, -0.19159859782232389, 0.37110350665117503, 0.37494563162753924, 0.2868971401840013, 0.06174533565108266, 0.3751818168851369, 0.6856209470804564, 0.04508983725560588, 0.5704185775336903, 0.7786034180422511, -0.031099959768040013, 1.1743462991828855, -0.19533016602266062, 0.7935770901117938, 0.5169866940310893, 0.39658745410463153, 0.4241032478482515, 0.4618674930933102, 0.5780759776047019, 0.4020856169037633, -0.06267675730505905, 0.09435459611897153, -0.2559581966311233, -0.06389079921870788, 0.09267374977296093, 0.2022825903378646, 0.098960677526239, -0.3666885859907477, -0.21535669761711346, 0.23311223096864905, 0.12439882026382523, 0.35812925407012836, 0.04492144976137407, -0.02136338048779238, -0.1458293430517819, 0.3086850066615184, 0.3723639728588411, 0.05291116570285565, 0.48741916532732665, -0.03033343791647761, 0.079786376511289, 0.3944509017988379, 0.5134626930728987, 0.24154234087009993, 0.6340708940856812, 0.3343558101556685, 0.6628202194270592, -0.3323177281035511, 0.0020031958795563697, -0.31808868925651834, 0.32157875405496966, 0.5484594214525182, 0.10704244468808922, -0.25498885712312735, 0.2642185639646775, 0.34520433527730965, 0.01264399519382893, 0.5762435065094199, -0.06540603417181325, -0.8429905530027284, -1.031270275118825, 0.09263876423146837, 0.05178808364122455, 0.16127176515734631, 0.9854034266276678, -0.004732368176412683, 0.15652575301731775, 0.12199681953588243, 0.6723457574460737, 0.19227769909463943, -0.3270143181344833, 0.168379298401838, 0.4702433494407259, 0.3229104673234293, 0.12823872059736602, 0.15768408590588467, 0.612426130017116, 0.35018527012660156, 0.6670471479514628, 0.08327701561647972, 0.519452628310223, -0.5267848366154166, -0.18479979301842264, 0.004764137594096111, -0.3155404166126356, 0.024887940784491608, 0.33433398771393563, 0.1454411765780254, -0.08492599896991344, 0.15950242182624672, -0.44913749136019865, -0.3165643567280579, -0.5261885424987212, 0.5236676022692445, 0.12161312840925242, -0.31111579283680735, -0.056722670076736516, -0.18361667036817084, 0.7231167813360764, -0.2185320730941582, 0.3445034914344496, -0.09087166488321971, 0.37487185427931413, -0.10110540080136711, -0.02290341483117068, -0.46867487026374505, -0.3668192348229479, -0.05110328228580672, -0.22090603636655137, -0.276181383001002, 0.23609413974076815, 0.1546072135249906, -0.1027146366955275, -0.030510200545940648, -0.04482012038168149, 0.2522024675496248, 0.13558912072346874, 0.10949231375290713, -0.5279909337486521, 0.04818067826920848, -0.19094005275245918, -0.1644389611033863, 0.19152037566686494, -0.006186688182830013, 0.5776249658780106, 0.30491148742251417, 0.4219180494624498, 0.48307787018880294, 0.13440286478092972, -0.01389034267268106, 0.1905562156894035, -0.3079050157603562, 0.09148946859986538, -0.2767528021015037, -0.872267349866659, -0.23137710871131248, -0.6567472393798693, -0.014312287235633755, -0.2918854879449902, 0.4712812467007334, -0.3977846430358415, 0.1823785890381584, -0.2340168656715721, -0.005228907003086034, -0.3431976619029589, -0.1521729326651048, -0.7856764048667473, 0.31350430539538554, 0.5356433174326788, 0.7229695542740555, 0.05801575413990049, -0.10817917448690963, -0.15013663605240055, -0.04758214326848681, 0.4737743447304979, 0.2992377692293964, 0.10402708834138792, 0.8568617862812322, -0.19058643724699625, 0.5893191749408103, 0.2559342696680942, 0.34513473226133456, 0.0964888968218593, 0.21479259605652773, 0.5016415300038186, -0.015127484191464835, -0.027390495049772416, 0.12736271244712907, 0.46418892652424576, 0.21055540016220722, -0.28550199842598734, 0.3503321853413057, -0.03166694683923828, -0.4450532897193799, 0.5410903712199394, 0.31739037477829407, 0.27797149479922684, -0.25538571649238373, -0.07475694248161387, 0.5447050412532977, 0.27426344895798305, 0.9317746506894418, 0.15624581093295828, 0.44041581073782954, 0.9280256149643458, 0.39603972223144396, -0.08572809599959445, -0.1683829663094296, -0.07690773651722484, 0.08964845668970474, -0.2548489144012358, 0.04017948436903571, 0.7853183305700961, 0.2991492813655489, 0.21039126361322186, 0.38523444274999663, 0.16108624945168412, 0.4776428127186615, 0.1574009992110799, -0.31896919948910907, 0.009906946914956116, -0.13078291348126372, -0.3261299643702432, -0.3958851737676827, 0.44512029034772055, -0.4648306193175642, 0.10484944175341993, -0.31461105804320416, 0.5636502247967052, -0.03693573505573085, 0.7591426911653308, -0.3909679257805204, 0.2588977547130314, 0.10094173847863375, -0.19134314427428947, 0.1661079347063149, 0.08061760635008879, 0.260198209189889, -0.41811939270692267, 0.36480651396989267, 0.5764070469005498, 0.6660723102828459, 0.05536370736345383, 0.09278018180194215, -0.010557909513585085, -0.7225040320339557, -0.20616197952664775, 0.43653829348749823, 0.03952420906479021, 0.3120483326583701, 0.3994764646697989, 0.6994550941131013, -0.04338987167252356, 0.20993718811140938, 0.409288827004444, 0.3150099187504593, -0.025689752245576306, -0.4346966112275611, 0.42754414853051587, 0.11258622906455723, 0.551067949890502, 0.3679403148963626, -0.0796821569943984, -0.21957672716492949, 0.4853168900907997, 0.33424892037936543, 0.5057400128863484, 0.2532365888567834, 0.12228679949872566, 0.33318393229784704, 0.08791439142080656, 0.5829499737628265, 0.7964989046875709, -0.1601507646911313, -0.22495211309285876, 0.5824776152419147, -0.37181243358204963, 0.09711583577521996, 0.44655412185150994, 0.11954142393922612, 0.14257643155055796, 0.1776580628787796, -0.46907688771417616, 0.7621287716151857, 0.40315751341096767, 0.3565235794082648, 0.3060589157479515, 0.11823500951106322, 0.24203552035292758, 0.31226006970344816, 0.3781485089484073, 0.43589583618532507, -0.15308857266647838, 0.7874091196339674, -0.025371269500376038, 0.45090377161762984, 0.08260176734188689, -0.24038375709551216, -0.4788182018817261, 0.326949867797699, 0.12324975744868223, 0.11839868848267304, 0.21910580747069222, -0.028544355606155182, -0.4795253908504061, 0.07929808670671049, -0.38423066377072557, -0.08635341722386132, 0.19459359254715752, 0.24128515522066565, -0.029082028417786003, 0.5170496871551992, 0.027238245541588844, 0.4132462337114537, -0.08928564757498743, 0.3176262526622395, 0.12266477934307718, 0.8378647376149921, 0.10759900256186543, 0.6205653295218028, -0.33474548529822834, 0.4907366569455011, -0.23018495027830632, 0.1383043358620462, -0.11846867438265683, -0.5337805536020341, -0.10476844940385356, -0.1437824569605878, -0.5678166347085646, 0.1208642982073539, 0.2269340977435508, -0.33544909524023014, -0.018283665370809544, -0.022162121458967843, 0.1750103732180778, 0.3415586974489155, -0.19694279489457023, -0.2783791955078026, 0.4025007279262647, -0.110651324913355, 0.34806927756231965, 0.5088956481000413, -0.24242681613817832, 0.0532156917421219, 0.5178108157900937, 0.05681275199190327, -0.26365437282082793, -0.3344628611239894, 0.04132631989185778, -0.1905318126334106, -0.7479886762241054, 0.46832153843326957, 0.4724731197695017, -0.2107939971861031, -0.4727822296846725, 0.35896553123930725, -0.16381078558140122, -0.3632177038327392, -0.12417253329121597, -0.2902253252983273, -0.4923255703384324, -0.2198820293155806, 0.3225171756425829, -0.11149458789602947, -0.08060745298780088, -0.3306166433352383, 0.19114322707574263, 0.2599440166357398, -0.6441040694919876, -0.030995789933205932, 0.053299204475719196, 0.6041088912617631, 0.498602214857137, -0.07710898560230585, 0.13165161032694556, 0.1733711961910959, 0.8462128787116401, 0.039828482389405444, 0.2279801826998621, 0.7386469185796479, 0.21233950428254433, -0.33514697258096776, -0.2221269274750053, -0.958297430314161, 0.5426208351511176, 0.445147776680331, 0.061708221804310986, 0.17911967704469037, 0.09608824827488571, 0.046945377316254026, -0.1630379810469017, -0.12259828046238291, 0.4615672113009528, -0.17481132281512615, 0.3938708409136329, -0.04264312363610906, 0.17076856006052193, 0.8219001416488253, -0.10912779256319557, -0.3800724757249034, -0.013563706992898664, -0.004160741895273251, 0.39487008810582347, -0.10216931147047328, 0.25151360130280853, 0.08394037452115055, -0.3303439124274614, -0.33477323591721264, -0.07065808224072956, -0.05929477208158976, 0.10398502297571582, -0.052033194018957604, 0.2427086748988669, 0.5167093428329882, 0.3309795987294167, 0.018422131150993754, 0.10711707415480484, 0.02978099594611137, -0.7434482086133158, -0.560416268934881, -0.031075842691412812, -0.06380699651456162, -0.05315676717844958, -0.185671170989833, -0.6135727627057855, 0.32243546874513035, 0.3686080011174804, 0.06795187394829136, 0.21181223737449315, 0.0973046837461899, -0.5406539147688728, -0.025581687528448097, -0.20806890744611523, 0.5869382244422943, 0.8975464343557041, -0.1428197405213061, -0.506055494227781, 0.40530340784002, 0.5044648944644126, 0.6956988950412548, 0.038051505250257786, -0.46634488951652, 0.10554494964919603, -0.28370014890787026, -0.0375177959602011, 0.4915458352310834, -0.21859463137888746, 0.1895505778616371, -0.2836503100046688, -0.01908216808859772, 0.48071029869641124, 0.3049416194075277, -0.3664021831741222, -0.1643214395432799, -0.5840071989362748, -0.11491398307174139, -0.20483507531100986, -0.1815141464173605, 0.5020451781798072, 0.6598380278661437, -0.006209682864436704, 0.16179211881433841, -0.3561269970182389, 0.26263926697354484, 0.016071023314062922, 0.5209500817973176, -0.005822612697183716, -0.0400926356234695, -0.019714914896738343, -0.17175167516180412, 0.0009177781867700406, -0.9748153249539897, 0.27890940416787663, -0.14489445009816526, -0.15588064243572092, 0.20492189608874578, -0.19232137433449825, 0.20284049143246866, -0.07943480723540111, -0.07661839521462332, -0.15421803385891888, -0.7381798625962459, 0.37253730950317343, -0.3150732980442037, 0.42792730460039574, 0.0748417520927063, -0.15247368882622261, 0.049501623885901576, -0.31606032800437717, 0.1954182907850839, -0.1044571190144618, 0.1320299326041502, -0.34786741936930293, -0.6883313578937822, 0.5557398966953677, 0.3028745660070021], [-0.2665837476455025, 0.1866995302117585, -0.5558995911662461, -0.31254474570845214, -0.6919432853976355, 0.1900655210617858, 0.07887213757519167, -0.01919582339278807, -0.3599820436966501, 0.374779060779192, 0.0880738298451078, -0.30130417418983346, 0.5188035434213958, 0.1412978002580243, 0.15599440936730413, 0.03004352918767825, -0.23148977879373905, -0.42766510676417147, 0.4720899479776659, -0.1589397037603274, -0.029810901964696764, -0.053480539512134245, -0.9448263542420532, -0.5476604401589988, -0.35067601636292867, 0.11497631840464938, 0.5409784922300576, -0.47098748032439586, 0.34164151573728996, 0.24000046214605703, -0.5225542916691566, -0.7433267360761098, -0.23545369430969965, 0.2202747746407252, -0.09305523006322987, -0.29067954513090527, -0.40817967190867893, -0.5009309308049056, -0.25528522226807127, 0.04154844578862006, 0.6263730004475183, -0.42839009902763603, -0.9985650950914498, -0.7049199796758455, -0.7897887156718911, -0.5044143299239888, -0.46920531411908767, -0.5106798669080812, -0.5453361154273035, -0.33326998543198616, 0.2722421626844942, -0.7995776935482131, -0.0061625843186118145, -0.09899933362514919, -0.10440710626999723, 0.12487209087592614, -0.18358067907972153, -0.4249915600970038, 0.04263506163940069, -0.981436095545418, -0.2828187524694328, -0.6381231204772304, 0.07112586872151956, -0.2332063689683153, -0.3493292026984944, -0.29265614199690704, -0.960101086235555, -0.5616506600037435, -1.5061292327546485, -1.3852843366583034, -1.775984327787372, -1.003837913672, -1.4086070056894213, -0.4378217484481799, -0.2521592253162761, -0.6259272222559561, -0.38091378269152526, -0.42049713804031263, -0.853649947581558, 0.15836585741451126, 0.14513321555592928, 0.1102384901198105, -0.3464494997043642, 0.32163842021391986, -0.25308946061528503, -0.003494346159792826, -0.8369736450918618, 0.06955162436365066, -0.09928884442500588, -0.140805995176248, -0.32270011379380154, 0.04304899623858821, -0.8967851903806291, -1.0979057284740148, -1.072904268251614, -1.6424694483587503, -0.9754670160328744, -1.432722884039055, -0.7715435199688109, -1.2976630155935864, -1.4567409485930642, -1.962326707910854, -1.0409260380280625, -0.6137242000093449, -0.3203246858535175, -0.22376172464545, -0.19470398167737235, -0.34335533778293076, 0.48547040843160105, 0.32099418702953697, 0.11307794918746848, 0.042017944985159775, -0.6730743815764837, 0.11374733357117793, -0.41623139954138516, 0.07283450362951616, -0.2734380488607878, -0.06469749792765199, -0.6663797728880513, -0.7006062809861539, -0.8203970936754441, -0.8348682435903301, -1.476977661074646, -1.4116182973386022, -1.3721784210617496, -1.3883821143861652, -1.0758355288760635, -1.0785385565518741, 0.058292879581272036, 0.05015084952729301, -0.4660327867846208, 0.10770141020554132, -0.6416883978705983, 0.9122620501158387, 1.1547772263209775, -0.31973141919301973, 0.30707920164879016, -0.17795494611927803, -0.23418856796166282, 0.5442766882089529, -0.9110389783062496, 0.33392132348960135, -0.30443150018273696, 0.612331488622439, -0.1546745600689885, -0.9082952751364533, -0.01623709563324111, -1.0232338121508087, -0.2097688068519774, -1.5739607223200998, -0.9312355223698059, -0.32783755246270674, -0.4212212760167697, -1.322906885258462, -0.4823727813202542, -0.31203983683950004, -0.5867879318909355, -0.2816464777367489, -0.6637319658921185, -0.3733681417816507, -0.038823497056780704, 0.16242012365623182, -0.509925114467133, 0.3065688169003199, 0.4230942987986548, 0.13257784659348865, -0.13357012363617835, -0.25264649079288504, 0.27579182672209546, -0.007110102704190076, -0.48761674330091365, -0.1737301418364564, -0.6583314043335365, -0.5820921372574462, -0.6670720712323198, 0.32830367239678265, -0.6692820200312176, -0.3395812891811176, -1.0294831745961244, -0.6158471516264229, -0.5044103531660522, 0.2828514815222857, 0.042955991998261805, -0.494635305880874, 0.22626101317219435, 0.5280319609190748, 0.7206026722966556, 0.11972667131105234, 0.036089385498922856, -0.4598842115301237, -0.25704718767030793, 0.710961819855105, 0.847023110524115, -0.5990642974011219, 0.2326096221407255, 0.22006645936072683, -0.12986588764075702, -0.6504441219722739, -0.5065342860011536, -0.3608962304549318, -0.3212397890272363, -0.2139056827766066, -0.21366548334302748, -0.6765750130572223, -0.8879077919128395, -0.7745090900332706, -0.06818113963241122, -0.5365529579745802, -0.7586959096674369, -0.5608619706875209, 0.014787107474187869, 0.9522735036308678, 0.022434347924815554, 0.7510127959599638, 0.5932881374390808, 0.06284777752916183, 0.20452605034769336, 0.3834626460099294, -0.20848835975710384, 1.1647126278846398, 0.6514599007153747, 0.737826433966168, 0.16968807352246912, 0.3061736609745703, -0.05379318822800992, 0.19780710936880747, -0.15792357596906895, -0.2633328459240539, -0.28102363386640333, -0.19094016536364053, -0.07208708612355996, -0.1787311279217981, 0.07823970475705148, -0.24454089483630162, -0.731801431851172, -0.172017885398275, -0.16631040556375884, -0.34986444561860747, 0.37547270155213075, 0.31165853254536247, -0.04069823241299982, 0.3907118817677942, -0.3039409992187294, 0.06933954017868246, 0.013092540350269787, 0.30583069486355785, 0.4404676667660185, 1.4553346288401987, 0.3941951759914071, 0.0634454700542082, 0.16196967344094826, -0.5361218412963277, -0.5859292991554167, 0.2479291366563305, -0.39954942037905755, -0.03250975085064065, 0.3994285518710222, -0.48187911972578196, -0.2793175037684418, 0.13986730696660998, 0.09675020902511235, -0.9995073702164589, 0.4012838640432107, 0.133326742475572, -0.30462175870837965, 0.32431685209752414, 0.13836631112401465, -0.16282276092020034, 0.28050160031799, 0.013316431670021995, 0.047094822269564796, -0.026119420378396627, -0.16389394357956286, 0.4059559489366624, 0.4446276438119374, -0.9979609143344882, 0.7019558396546925, 0.5968628825111566, -0.05434844751454213, -0.2567416651508593, 0.4451955892967461, 0.14955862614047388, -0.42394359859126096, -0.2379198380449183, 0.3251064325960094, 0.03914209719605071, -0.562014933022682, -1.525412181075238, -0.24931109134193938, 0.6464777201717806, 1.0384808646386574, -0.08216248152467232, 1.0332619737911646, 0.7339232942147617, 0.08185170703971718, 1.2102167405406175, 0.8104508403833609, 0.5653387355407424, 0.196911972872911, 0.6070603963405167, -0.19142390392625336, -0.23819031404687058, 0.30914702918327525, -0.03627302430870266, 0.5945865744587638, 1.0302010067905503, -0.8649064480604229, 0.4662011427653386, 0.28247159186997006, -0.38538095801957645, -0.8077894762367666, -0.19765638529714286, -0.22305673608892732, -0.8238056825047683, -0.664070046599509, -0.26208348867432857, -0.19221722527278298, -0.1826684890135496, 0.3851109715411442, 0.14455899181497353, 0.3192210244228387, -1.2610485599572636, -0.5699315888832199, 0.3001178565940181, 0.17409153489876447, 0.8882508539686803, 0.14830848472374153, 0.0678214273722587, -0.6267748179290523, -0.2353964504208255, -0.3742247854564795, -0.38787247781574247, -0.40062733357415703, -0.29806161567132794, -0.5045680938192372, 0.04683747259968911, -0.44920056614970305, -0.3771757058529996, -0.1463300517950137, 0.07523031408075029, 0.20908710105899633, -0.29807414218432715, -0.07156160651256199, -0.6504659009200305, 0.6324095773651478, -0.21336168232348693, -0.23573708389272788, 0.17168800580903681, -0.4516877727476067, 0.5075663600074016, 1.0098950935040572, 0.6071608347425328, -0.39781161581339275, -0.23330229345957196, 0.3262732446564863, -0.19512900295624616, -0.5468562176174281, -0.6683568847212269, -0.8894406360116568, -0.49914970666400205, -0.16160460100405222, -0.8524120120088986, 0.11438291111083353, 0.09098980944086, -0.31518872408635334, 0.009671825088323167, -0.4357906672171813, -0.3791462032622944, -0.29047391306109127, -1.149660335652169, -0.9285040584309568, 0.02329527265705404, 0.36670653406953413, 0.33644774515242903, -0.33793018036649447, -0.4305954470996157, -0.19813424022116227, 0.2272766896048844, 0.24521692813732707, -0.07849643215233913, -0.17643662547220398, 0.566050274668554, 0.002352540732725669, -1.3742728469257202, -0.6745739273758011, -1.275888187653775, -0.7244392626535551, -1.1042666101210368, -1.207653938001902, -1.9630500845415413, -0.7003305659343284, -0.2747906456335123, -0.17444975293520754, -0.33424533947200297, -0.4840089943636513, 0.37774518989993877, -0.523327541645901, -1.262516782590608, -0.5253051302541822, -0.03635331024766512, -0.6396858534605093, 0.5756254365212867, -0.03626351854792165, -0.2706187682146837, 0.4865006353228215, 0.08836314207609813, 0.32182032871931343, -0.5706273409215603, -0.19052916335052889, 0.5988583256546304, -0.7842039230230176, -0.43320137776493534, -0.15949302865151277, -0.5639053126975495, -2.29808938938756, -0.7730501361459372, -0.4107172259196257, -0.665727380145201, -1.0025380825446062, 0.053160194716507736, -0.378713475189575, -0.07652728846246677, -0.09255559770009604, 0.17587712201436898, -0.8566685062620568, -1.4388876145223188, -0.19043739361326723, -0.4666805629429499, -0.7546154900426132, -0.9717919950084587, 0.4460189186126639, -0.4449359187824767, 0.008487581264232926, 0.29360820836445134, 0.5772768587211599, 0.6757484245721461, 0.8047014452343727, 0.8443347513878272, 0.24490585563743741, -1.2851119040793044, -1.2450554005313044, -1.6011008179482273, -2.0082421512727517, -1.3273649930567883, -1.0969559294041165, -0.6333851572878091, -0.7467846060263751, -0.7849219178681401, 0.011702864096624133, -0.37641611400718444, -0.14649391392027758, 0.2251483991317574, -0.38297932890563485, -1.3971844627995096, -0.5374416087863743, -1.0979778535198972, -1.2232530237557708, -0.12824692621659303, -0.5049665264608171, -1.055935646962912, 0.4647898593820525, 0.4091485779309984, -0.16216288407892387, 0.7676830289882162, 0.16679047200244018, -0.0009980291665436336, -0.883761973201909, -0.13740006119944714, -1.6714294959846374, -1.3776137851497399, -2.6595028658960165, -0.015010299732153393, 0.41390598028714004, -0.2981174333832889, -0.6747235848915161, -0.3073975262318198, 0.005741120782991353, -0.1655227261617997, -0.17134302028852624, -0.6897325206645082, -0.19084570197023537, -1.6069448541341782, -1.609838714669422, -0.9587427013251529, -0.1455879365021252, -0.5251486647710036, -0.2429477838733999, -0.055388653161647455, 0.05977041101952202, 0.2224862775645475, 0.35228264027519307, 0.6457414761522519, 0.3162267380800401, -0.25340375110276614, -0.4229912720867014, -1.3327899981250897, -2.099114114713338, -1.776959405345965, -1.3919658386230847, 0.03781910066414546, -0.6508105831024426, -1.045887726751337, -0.30059021658436696, 0.257634606995896, 0.5342257742628492, -0.3764771981803997, -0.1295932608493673, -0.6219618725414972, -1.1953788899999072, -0.2640620737495647, -0.9416232613021944, -0.6806192751190435, -0.8992515132370156, -0.589827327231098, -0.28170577747213654, -0.1748263676502991, -0.7695163170444621, -0.05890739370558649, 0.35466996436386683, 0.26808069101898896, -0.16926901086328985, 0.8971353403156861, -0.7789125234781427, -0.802142471446836, -2.6128858428376267, -1.697200522713447, -1.2560206307647739, -0.31697049220732065, 0.14274995063782586, -0.21590681633173273, -0.002938880592424548, -0.1370717347660525, -0.39079028439236796, -0.1999966149368433, 0.17847084938237023, 0.17253448949577385, -0.7364939050708058, -0.4320475063945437, -0.5957206940309483, 0.24838350915545981, -0.3611470173689222, 0.2356038611624185, -0.2543742865819515, -0.22933830937624516, 0.47694850434740377, -0.018371657454394445, -0.3544283912164264, 0.4959570390739983, 0.07598385420811825, -0.7171290786866074, -0.6425765963121572, -1.2065545882696176, -3.0460159406040876, -1.0916422650868784, -1.7313636674325277, -1.0935968244456282, -0.8691776545141573, -1.1712707965437859, 0.3083362986442706, -0.25639737689157227, -0.009782578869869402, -0.1801919761241041, -0.3774210970941982, 0.3694297165943844, -1.1463117599338746, -0.4238874246776947, -0.6746372114447184, -0.2287030567783856, -0.30678725511714966, -0.3959189750984346, -0.6403087506766617, -0.23513971640699646, 0.2344660077373213, 0.5503525141074902, -0.18704266913848194, 0.30795701413668997, -0.5953039453716351, -0.41281787995192176, -0.48552433045191346, -0.9867304512736793, -2.0803167847813344, -1.823150810434195, -1.1957743031679584, -0.8625595025664928, -0.477548469715861, -0.6391510207993805, -0.197657516929186, -0.2151532271480749, 0.22370652376164996, -0.7767849861995342, 0.30407495168914067, 0.5547892695026491, 0.03569067004815825, -0.4300244791616598, -0.022604287716100784, 0.2792246147607797, -0.20844087958129084, 0.12277482757617253, -0.38707802418842124, -0.09918563333581382, 0.09543676938509175, -0.4342100985911215, 0.280520678595354, -0.5207648021093199, 0.36084092493552455, -0.9404805857041084, -1.0347524083982702, -0.4554366675606419, -1.5786048991973953, -0.15163492964489084, -0.053258259566254657, -0.28198332810609616, 0.06634123071104023, -0.675691380994332, -0.28451301100420445, 0.14606542246364512, 0.13140331875443134, -0.45958362727050983, 0.34463862899447945, -0.43099083931795706, -1.0350764631357572, -0.3005508612369618, -0.9681635908366667, -0.2940474269076557, -0.5617584415210404, 0.2696301352137201, -0.5030491201978177, 0.4885204464415388, 0.02880250861916405, -0.46591716123957355, 0.18016937932693003, -0.24379390842399082, -0.2581442009610691, -0.9541404254004613, -0.3382707899816889, -1.8786832859330211, -0.8611326398808028, -0.5645834566560802, -0.7570507985490771, 0.2123897070266863, 0.042053740625154705, 0.3675540782449071, -0.07583407825842274, 0.13382756141575314, 0.0014205363000951343, -0.05918821830405638, 0.14648339782355346, -0.5643268069172628, 1.1592151444473782, -0.5381560526225229, 0.11400802314324603, -0.5295366350006082, 0.0488139421991794, -0.5033003555760821, 0.9130580400852427, 0.008733147313588199, 0.1921751892545577, 0.3860985606887071, 0.18591494224827684, 0.5231318622335202, 0.5159150973560962, -0.932771004880439, -0.33101923132717226, -0.8528764874611726, -0.3315465236099303, -1.662206463840821, -1.0519058363221012, 0.4162531739342663, -0.9765751091853697, -0.4447093306128031, 0.09932711612566049, -0.15375974410125764, -0.44430067835388387, -0.4537100185228512, 0.25990286496982123, -1.023467912486678, 0.16312935441858986, 0.06344294976680248, 0.3591020822632264, 0.8927986509922997, 0.6110049882960545, 1.0034892715389439, -0.0449499906928146, 0.5683331325617555, 0.26430030642337743, 1.2610067153361566, 0.562209358537658, 0.3720807710767449, -0.7964956469406391, -0.6374003607827189, -1.1301441069236817, -0.3778589201031209, -0.7666093627454172, -0.9679410801488401, -0.5547384910609083, -0.0704837166723443, -0.15525696116202692, 0.562441812885722, 0.14908331029401395, 0.21771692121023312, -0.10860176823891991, -0.17533764810795027, -0.697120659517622, -0.016561972997943777, -0.2701745485750651, 0.21643692076630802, -0.2464089899497836, 0.06595387164708882, 0.8669460732290138, 1.4309859142218855, 1.2685065519522178, 1.3459515453491566, 0.3701341769747756, 0.9147384269299866, 0.7395284157597268, 0.32979617055121324, 0.6520834736296018, 0.1025529433277757, -0.3327043500239215, -0.26709658139277276, -0.6344278608063068, -0.14140891614990497, 0.12218742161169933, -0.17819926771543096, -0.09207606568562911, 0.17361509550260024, -0.42369108885526274, -0.03207369402663374, -0.656344021877751, -0.30084244211988764, 0.20959832489197622, -0.4908517940450631, -0.048188911475607936, -0.7686493960481708, 0.053918901328050176, -0.12529316319425737, 0.5907529461315172, 1.0109068064463, 0.4077265164121539, 1.0076172159435417, 1.3556955344774007, 0.5147115836398959, -0.01665552463705161, 0.34410881929203774, 0.7157616086662623, -0.3717857449504749, -0.6382749066767264, -0.24037976945666245, -0.048680628669354985, -0.04308004281101195, -0.019598261617791497, 0.2485761754644447, -0.2667574458808545, 0.05569423124322677, 0.1725350440892951, -0.3831056776434342, -0.6139897892568988, -0.20498689396531206, -0.46681083587500705, 0.0489124734941908, -0.16565017712816194, 0.30654552943565866, 0.26954035962388606, -0.13162829169064572, 0.30126966328247184, -0.458641233890775, 0.04308026058765715, 0.22601221583127012, -0.2568665805481881, 0.08790452813989671, 0.23274152572924597, -0.6569791369785994, 0.09462932443781953, -0.20240742682118068, 0.35606222729638437, 0.035191283762974715, 0.6397230870725527, 0.25286525024764495, -0.29288318724285245, -0.0817982052728647, -0.34522908889747084, -0.2037238606250668, -0.4842614218601201, -1.2810688877996603], [0.8935959883352466, 1.1260468488859665, 0.9620388539656656, 1.5256638209216309, 0.7434731519321748, 1.6401213974394455, 1.4131340546699374, 0.8723638131386274, 0.735654122441897, 1.5670796635603015, 1.0207780489715361, 0.6880985239696985, 0.44530828383573773, 1.335717569511396, 1.128630568622254, 1.014964771585268, 1.3632449448817385, 1.5228571499703238, 1.0473951569887743, 0.85567900523636, 0.8355378954382949, 1.6506093260505228, 1.098859630942608, 1.3796882958954924, 0.7217629693771598, 1.6637594294669893, 0.885599501710591, 0.6899790351905969, 1.2417344347732224, 0.634215562677828, 1.59789730417992, 0.8263726455274362, 1.170855966057362, 0.8047392144738991, 1.3104487262953604, 1.0667731012651087, 0.4196493795459721, 0.6276773731030474, 0.29657130730523995, 0.16606679439944325, 0.8420140412761167, 1.1885589831876608, 1.1304979100871617, 0.6103917032191111, 1.3020935267014198, 0.8168171154873631, 1.5475095685812268, 0.669065782848075, 0.9318225784025693, 0.8539404145935349, 0.7987192636470805, 1.031138412915774, 1.1803617310721317, 1.0924158824156125, 0.9783633951316794, 1.05589057555135, 1.2737291629951337, 1.3577996055128443, 0.962209667135412, 1.1614920103926372, 1.0615174578305553, 1.4098477031428376, 0.9461806720760783, 0.15936098845919008, 0.07747470574119335, -0.34068540254658797, -0.4192176249320835, -0.23471384528204128, 0.21187013746930874, -0.08152019240179949, 0.16689372602809327, 0.2540351722598571, 0.24681334521340828, 0.5175814092835507, 0.4657058478191254, 0.4978201596619658, 0.010840409859469095, 0.09078210836806945, 0.2782878662903299, 0.4933715138046924, 0.03661559566410258, 0.9440422118807618, 0.7617931079738199, 1.1326857044169074, 1.0114262581880231, 1.0534529537267825, 1.1046885943203875, 0.8567345253361532, 0.7367877485059418, 0.11945337379191362, -0.6891251872975624, 0.16386026884290286, -0.23763757832085056, 0.12881990047086153, -0.03732169725944362, 0.4850498640056437, 0.4026185603678158, 0.2948418347972675, 0.2031764750334126, 0.17627319561895896, 0.2518843136205711, 0.4353331964585894, 0.17189159665367634, 0.19341102075001415, 0.2959147638771258, -0.5858626446273826, -0.26521229882037217, -0.4261178179620007, -0.27384801555368565, 1.0227512011911073, 1.5182656420902911, 0.7577510515829106, 1.1487327319461427, 0.5893564160361348, 0.43349554575609756, 1.3542530066963996, 0.8115394003814158, -0.2876605080706571, 0.11908208490149103, 0.1402552265562738, -0.2660287081374502, -0.4901207603011908, 0.29926470792097054, -0.020757897929902954, -0.2502247810337797, 0.11106459624445847, 0.1670278151836867, 0.14891318422380084, -0.23449529953672654, 0.05271828261510081, -0.3168166079315445, 0.28032273398727126, -0.1268665953481254, 0.13658987099409167, -0.25050054583180376, -0.2895460247424211, -0.34432407074088095, 0.34252726292321656, 0.7563075794584736, 1.269686860200692, 1.252896089780791, 0.8232210474847136, 0.6133827901528849, 0.8545830916939484, 0.1812320722983819, -0.6706411518094781, -0.02287901202381434, -0.47167699367307325, -0.4199668072644691, 0.4796081923091857, -0.43770451890139683, -0.1593467871057583, 0.06804809789750772, -0.14324546239090832, -0.44159811732438053, -0.3817807644423052, 0.006409720814187579, -0.4105444854046672, -0.6083067062235094, -0.13289136061180526, -0.4220513377772668, -0.25853156908990543, -0.23578761327064263, -0.23595575659211818, -0.21528034461988232, -0.25767724364195504, 0.8651219501799842, 1.0800180538138369, 1.1451755054665589, 0.6097194145218009, 0.27091096710469714, 0.33287452299580017, -0.16930210760939976, 0.303726659144614, -0.14511476999107467, -0.10516063353051566, -0.24239048169418648, -0.4530809536880997, -0.2927106701887829, -0.06256904932330853, -0.26289101096314116, -0.5067290113515658, -0.21905146408623194, -0.297655160907384, -0.49620506462759384, -0.2179049765036019, -0.4365824957172405, -0.5054504409339684, -0.4809147460295147, -0.059057792347131884, -0.602596543751384, -0.27938642718536766, 0.49205001279044336, -0.324064483220634, -0.3724282284387269, 0.6724776631663226, 0.8338257048813221, 1.1288100491586721, 0.4967861593830848, -0.09435375241378822, -0.07156751020786742, -0.12448785426158428, -0.4626375488858611, 0.056974951746436575, -0.08244032776564647, -0.21441742770706562, -0.3066227891500235, -0.3272758805530669, -0.07655998614153273, -0.11476093730765054, 0.09843599348345607, -0.033355573803669915, -0.28201063286284367, -0.24783280530593663, -0.9719906390931807, -0.028666440537473293, -0.20093013796271683, -0.205520821736356, -0.21267428024499782, -0.44372891067079095, -0.13317796150458608, -0.7611069906691349, -0.13678488647279471, 0.2242867561395466, 1.1333266921237326, 0.7355622624856711, 0.7427489279828042, -0.27622037526470317, -0.24449260831930988, -0.16744636835964313, 0.6747501116723249, -0.03144078314191613, 0.2898308689191138, 0.09164578181652291, 0.2697027668257356, 0.2110746051406255, -0.12710815826278277, 0.16099143964037438, 0.06702122818327724, -0.11985514502751682, 0.3985564456199319, -0.33787172746576405, -0.018795929881161133, -0.11154260709418605, -0.1727926749411328, -0.2905105362696214, -0.47969998956078114, -0.10061666697053608, -0.08600136493313053, -0.038854896795546635, -0.5162801214862761, -0.2760773331281442, 0.966304230732585, 0.6774722294147375, 0.16992394748200285, 0.43971468278145087, 0.32926726960170305, 0.058051434782036296, -0.03693025696731006, 0.04632441772164023, 0.5296481750541757, 0.4006417449435455, 0.0511104657280553, 0.43429256687614765, 0.1816180536361184, 0.15192006309388817, 0.024800309102889845, 0.1011617430854595, -0.335609336811464, 0.08766172420274153, -0.24664354411819964, -0.1549562574414305, -0.1024155728576536, -0.7688488452433649, -0.23725208802139422, -0.364643129294394, 0.014649210926591709, -0.6057688248094151, -0.6082316807227397, 0.086320743882657, 1.2013738040768802, 1.0416177030808436, 0.2452038136505134, -0.1144194695690642, -0.1860318943310008, 0.7098205929663585, -0.0066687159952770825, 0.12250786948704455, 0.9648315279074375, -0.4876001454676613, 0.37983706978386256, -0.06433748562734899, 0.24847927134703082, -0.19168417065121665, 0.21362517265773195, 0.054517992575787384, 0.0727675350424156, -0.15425019892628086, 0.02018302109213471, 0.2871105024157395, -0.12017119457698294, -0.03737138241967825, -0.3837775414204631, 0.04736354172109051, 0.24249847778272596, -0.5584325417600164, 0.4737461924236117, 0.8589167060530989, 0.6541202903315707, 1.175386452232228, 0.8521229529673263, -0.1580876883654567, 0.2020635023194308, 0.5173787592742405, 0.009049014681315793, 0.3090752645372722, -0.1041466388286641, 0.23011451004643696, -0.06756089524989899, 0.2440404395651821, 0.031390199567011355, -0.20710021793876582, -0.4551033897739866, 0.007646026463317297, 0.18950498621020404, 0.20844647587894485, 0.014778309460311825, -0.08144774391070518, -0.1415774387747708, -0.565708224465203, -0.2064122359990299, -0.2574707381746217, -0.0465508181541707, -0.21615812724670877, -0.3377119858246303, 1.1214966105060342, 0.7082963229793805, 0.42116593002454705, 0.6702499795634037, -0.6959285505557689, 0.1273130790382615, 0.24158277844677306, 0.6258469097609227, 0.5622345124197976, 0.09030431473321734, 0.44392631262380294, 0.008799239156309141, -0.37751499392580684, -0.28935586407554514, -0.24786280294637722, -0.07793853038538955, -0.23904794086005382, -0.03680963719282898, -0.09991900045738393, 0.08223079161254912, 0.13292782563385191, -0.06187833223414453, -0.0632266689999019, 0.081713065156846, -1.1577339488500136, -0.24238992053591732, 0.4634827332866419, 0.6208922157297861, 1.3882980786166632, 1.5213395760686783, 0.7818286484287827, 1.0815009988268818, -0.05448574982159893, -0.04601652590960898, 0.16104846010811597, -0.3197228940959068, 0.2961488872006828, 0.3398426433451089, -0.31194114431378694, 0.003959397027461134, 0.038717986838161814, -0.4147546233327661, -0.11102249838638155, -0.20302533701581127, 0.3159810208563186, 0.16392507238730233, 0.016126715685236808, 0.38920232225419676, 0.720623673538809, -0.07910335918368115, -0.053776141719300535, -0.2865317948190526, -0.24305428573105586, -0.10680408563901592, 0.039593588411754935, 0.09992057258633397, 1.2966032092473752, 1.0287434265371092, 1.3760584499409143, 0.9569861962477614, -0.5356868799610118, 0.2620716175717783, 0.2639993112855952, -0.07882349922944216, 0.6152711062534318, 0.3746541440026027, 0.34137702565879047, -0.2697128658476003, 0.005562402221018114, -0.37186282297460577, 0.0001545023998978001, 0.19618922134667033, 0.13469114713560848, 0.18340567318652742, 0.03642841641773582, 0.45147729973770057, 0.2453153499984978, -0.132691278260859, 0.08393600822080947, -0.20645092758271422, -0.30652439054129244, 0.23556665707361646, -0.5467895209624819, 0.47826843144888576, 0.973717371368298, 0.2018674512650183, 1.4635227601106577, 0.9463086136958363, 0.2158177702724202, 0.004299368086388407, 0.5764508567881218, -0.32744668472468713, -0.13643837961827457, 0.14220422892867465, 0.3179384964777237, 0.5703756840542108, 0.2278227597093509, -0.22440960349203665, 0.32353173167114874, 0.13773936665048223, 0.28429316281575717, 0.10047987674214118, 0.04129222860999297, 0.2835264999271358, -0.23827347804014448, -0.1268972173531542, -0.12092875579563983, 0.042249919543372164, -0.022362382916567, -0.10321491638288183, 0.4284298285879657, 0.7429543634667801, 0.804063059975805, 1.1170008910227245, 0.6502137075227342, 0.7207957137630955, -0.4842936167248376, -0.29440634158932766, -0.5930383428569649, 0.040456268198845874, -0.00038222619671623856, 0.37242916171001766, 0.49284596697924987, 0.6763149462598266, -0.13311606271848908, 0.1853826718085071, 0.15666354874290278, 0.29398995401796335, 0.20404138954598106, 0.4194485298525565, 0.24226409515106104, -0.009969485561082462, 0.24820255595835058, -0.21262878925565706, -0.44631687875459597, 0.6214458765842498, -0.4265937727091584, 0.9374986536785683, -0.2573380575476354, 0.3904160472343968, 1.190195045609032, 1.5579928847344724, 0.7888083912918734, 0.46023331177171545, -0.6113175370942922, 0.3152212010364778, -0.035614128745805426, -0.46124016203431795, -0.013451954206951708, 0.40932138389773687, -0.16062232119686948, 0.18078294946653273, 0.5821963541703606, 0.0073027547035038505, -0.007369480350881337, 0.035992184092404365, -0.04990229975745764, 0.32834087062654804, 0.09453913520304685, 0.0009502916036152155, -0.21262311861826608, -0.029753509630505715, -0.10064212207749818, -0.37357265371115544, 0.7028679149573496, -0.2605007997971637, 0.03936201184515568, 0.4290106461063943, 1.2986828758460236, 1.4740060093306657, 0.8505490232724783, -0.21072273746452133, -0.11799462423433861, -0.0714131744537572, -0.48015437153157464, -0.4974488595590214, -0.484606629423684, -0.203375354360244, 0.2970096711013118, 0.03441234734623359, 0.2126403512787823, -0.16878534538344142, -0.09873397978282548, 0.12950968798426687, 0.05316030007670985, 0.5213731986751184, 0.09936215883104378, 0.3817413527311415, 0.5506939484072793, -0.5094084120596298, -0.10199591980652457, -0.2809637282970414, 0.0858274260831404, -0.017120806851307933, 0.2865999417412035, -0.04311824814404299, 1.0434027887576938, 0.5625686097447778, 0.21178666363906187, -0.2970981984255875, -0.22203073698511885, -0.3471563116942721, -0.39955009589734325, -0.04751843582112097, -0.5796559157426503, -0.627333082982159, 0.04812260319343203, 0.22104530156842245, -0.16764179840058205, -0.402368808429248, 0.10380069205048144, 0.19269745846612182, 0.26093999165001175, 0.4603215314407343, 0.2335287900022098, 0.2953170048336717, 0.10566821358909427, -0.4831363812100955, -0.04261404276734227, -0.8542632602960156, -0.2768154307707578, 0.2825141622602139, 0.2395163841753392, 0.3344422923874199, 0.2171126073472874, 1.198129172962846, 0.6816153813223756, -0.08987098492289955, -0.7416261963661798, -0.2177262202685787, -0.8241810864048804, -0.17274374767748377, -0.7821440500971287, -0.09256072706290645, -0.4987305987696024, -0.2450924605329985, 0.1098411047525218, 0.0395039606660101, -0.2795205555591188, 0.03659399929655581, 0.04102460907091855, -0.08528188328254922, 0.13947689170617578, -0.1972199203319584, 0.2167092281594481, -0.4574250893728572, -0.17506894356370448, -0.08272536344101761, -0.8812107058055734, 0.2887586116928397, -0.7768441400352823, 0.16056462661582124, 0.8426479395621987, 0.8341038740377481, 0.0610723757345706, 0.4297516066170108, -0.10109671313710884, -0.2670569259867284, -1.2316717222887277, -0.8922819911671508, -1.2607703738477032, -1.242287856688857, -0.6748849810463594, -0.5741379689965678, -0.4404161114318875, -0.30837761514067047, 0.25156654609522205, -0.08051654008722182, -0.12852260506155666, 0.16532340809419221, -0.14390744619826673, -0.03939536112297537, -0.07173947898107137, 0.024257334568422644, -0.7311791483045629, -0.3265801190390057, -0.3129068134706359, 0.25578725062131874, 0.22415631172506775, 0.2272507733410528, 1.728327683894947, 1.1128683641620127, 0.7772182157589563, 0.035280851734934116, 0.22263060112002073, -0.19787192562698172, -0.18822004791406025, -0.4184155782210682, -0.4481357968635928, -1.588251328169829, -1.6393087351040643, -0.7815988729433043, -0.24373447855050007, -0.5334958381752556, -0.5430321787805005, -0.4484637082576395, -0.6367780096405949, -0.3394389103207663, -0.3807500277537298, 0.023546859231193325, -0.25621772559452466, -0.042572949345615854, 0.12278195877609659, -0.23846268629108072, -0.34391504994849237, -0.9053005793601273, 0.4082911348140754, 1.0554515528465342, 1.3454508078816119, 1.1970844994987506, 0.6409235699336812, 1.0928861348202257, 0.3746974448463075, -0.5823950088901957, -0.6080580974584172, 0.09440056409614836, -0.9865053347733327, -1.6500794356212494, -1.1770384247980568, -0.566669303958312, -0.6380335628384993, -0.06738879163224334, -0.31460118328553005, -0.3285313005376322, -0.39373282061546194, -0.3550393647433745, 0.3852289821144142, 0.0451419736246486, 0.5485820877447701, 0.22884857449430066, 0.5373281040982176, 0.3633900808139329, -0.1609966984962994, -0.5002441391124683, 0.7591853961006746, 1.0039226058334374, 1.2542036011721196, 0.5545324747977732, 1.6327331951534263, 0.3454239531602253, 0.06706331098252136, -0.3860493092693038, 0.005855723957260577, -0.8963037423974184, -0.9519354772754642, -0.7458191294245691, -0.9149325184368059, -0.12790427689266523, 0.02267653393101941, -0.07598296437843, -0.005837598053487313, -0.04218962714121517, 0.0329648179398194, -0.21046697072202206, 0.1385269129393986, 0.04083035406860667, 0.7756485379346867, 0.24500269499605826, 0.20386867114057852, 0.17940757137149885, 0.21243901623802056, 0.06417705862122089, 0.6140144419449945, 1.3874305033536616, 1.4540951813208531, 1.6882794808853423, 1.4816250046594863, 0.8876649218735712, 0.3703789257486624, 0.3950902164712438, -0.01790263631247914, -0.37291372013312624, -0.080674622142682, -0.25681828533530116, -0.19898095740317767, -0.4316785169981835, 0.5130660715120191, 0.21567952977952107, 0.47094256703983556, 0.43045443855741905, 0.5090024249353918, 0.5142784150387775, 0.5499888245384141, 0.8655421566544634, 1.1744350866423876, 0.054653278091566365, 0.15031242264134667, -0.2432059271429365, 0.3836822236577251, 1.1130099633944384, 1.156677402408862, 0.6794459165412724, 0.44414638401384854, 1.5877714762634634, 0.9379596787707211, 1.71028846792567, 1.0917795627597648, 0.4598245975646341, 0.40273193433318527, 0.33489778725082386, -0.13198541236269365, -0.3178002561109153, 0.05293700579708625, 0.29734248808491864, 0.20857392215863224, 0.7848765645357882, 0.4309164632731172, 1.0740635331602804, 1.5200864471319495, 1.198119538544468, 0.6757264431741713, 1.1486201633217117, 0.7821547585800204, 0.8681481724373956, 0.950735033719107, 0.502389928980031, 0.8985805432169154, 1.4366262610844591, 1.0373647948244566, 0.5548817358480876, 0.4663220309985241, 1.7023123760311352, 0.7371101459252513, 1.0490512583374665, 0.3360107947736597, 1.0343592847661642, 0.22819674493372233, 0.16697369596899986, -0.46120833269900446, 0.08157292933482856, 0.3918429796273017, -0.1917144239298493, -0.3407178280816434, 0.0035693602514602777, 0.7272995404869849, 1.2069784899965128, 0.8738906752365777, 1.080806257805757, 0.9250632454726849, 1.0722505189933031, 1.0771548245572482, 1.4612056490121443, 0.49854092331723693, 0.6815201924785049, 1.3170007223290683, 1.398375323070094, 1.0916813637553209, 1.1020607001927267, 0.5712223114219858], [-0.8436958563014947, -0.4905487144454007, -0.7793297018268648, -1.1902334321951662, -0.595388749238136, -0.19554266982468563, -0.0845753844484293, -0.915235181547686, 0.31503846176243255, -1.3196392182501218, -0.23027426449693797, -1.1939510665585915, -0.7223311703346944, -0.7772032199592607, -0.5218415459284, -0.6577218624597969, -0.4359000743469349, -1.152513961948402, -1.1376174860695738, -0.7284459012097213, -0.46794722793874, -1.160960309328216, -0.10647553859147971, -0.6931337504567869, -0.005907741786710687, -0.8465751949580111, -0.26166100126455016, -0.5542389571571964, -1.029304524213688, -0.5508666591867895, -0.9477060376497222, -1.1558045712753595, -1.244664300887854, -0.5213853740251806, -0.25709704208689965, -0.2671958301928037, -0.8045712138627845, -0.3963826923654941, 0.15115707019223992, -0.3645766887275551, -0.7845352394172024, -0.6448627908598834, -0.16803542452985756, -0.007527783711203341, -0.35432739131104984, -0.015681902703283325, -0.35528923581590566, -0.42946372967117546, -0.2153121303020446, -0.79101386068739, -0.250403087700824, -0.7810354149706464, -1.4490476289489453, -0.7195654804191509, -1.2070874131853018, -0.7979837298104033, -0.7559471156639825, -0.7587663285559312, -0.4554223475164214, -0.6041562851280727, -0.8387472151265452, -0.5802993311992086, -0.7148572949571289, -0.17315765595700738, 0.3495135647683001, -0.5828551794745779, 0.39102205750306457, -0.4060618015762234, -0.2289775593578924, 0.051371367832561375, -0.06242059788704209, 0.06597137527462822, 0.12340903727583917, 0.4491108218906006, 0.02507342308555925, 0.31612158278887825, 0.10967677952718057, -0.46692142449873747, -0.5310771395612914, -1.0023816534944843, 0.08209607875745556, 0.11562270701373606, -0.17266377309542982, -0.4853758496149415, -0.6401444922526436, -0.7460137729590417, -0.673272457158463, -0.9205119025711609, -0.2262767958677659, -0.1602707179374546, -0.4100396783636074, -0.30750471098267096, -0.7501835489477655, -0.053645333994639964, 0.24505635807512605, -0.7018179100939237, 0.6987251959749572, -0.3912446961695051, 0.018905203452946665, -0.3233980386589723, 0.10218391872062248, -0.1088458543314838, 0.1578534160096422, 0.4671558752418582, 0.21341037622094067, -0.07229973044413372, 0.0905511983794984, -0.16029986647874142, -0.3064795136421158, -0.4772777322114066, -0.44251557464781366, -1.120649913117057, -0.6603061370958365, -0.6390304465178267, -0.45683390031746396, -0.6239499650705378, -0.7319370725217557, -0.15786301169758152, 0.11362871636346185, -0.7514972248355564, 0.15716582274083524, -0.19579972800586454, -0.01993220124757997, -0.29285943738280407, -0.688552390036185, 0.1780134294837021, -0.1518966231679391, -0.22700590277712684, 0.031600399287327614, 0.3070043773546639, 0.5523220889181211, 0.8363744001144501, 0.6836856349084798, 0.43660313309630244, 0.5646401240997194, 0.40397270072603786, 0.20116883926959758, -0.09179408422040149, -0.2753248039549749, -0.841503017884814, -0.4686210844707296, -0.8881521997319899, -0.6679006637690674, -0.5808339804706842, -1.35087949524553, -0.5155636929058226, -0.2748208176568221, -0.603352685993584, -0.7499634932334949, -0.5099025516566483, -0.8648367999451776, 0.3911134823319808, -0.3671976240766109, -0.4699077295415831, -0.5000239427933113, -0.08010075969846298, -0.5210139280815402, 0.21943725753597831, -0.32965268786674273, 0.42883735385620164, 0.5723489603001769, 0.04116382637689821, 0.375104069826847, 0.3803946993622904, 0.32284946896455785, -0.1788029188270984, -0.7718862500799677, -0.5670124865771873, -0.5093595741230501, -0.5106343433899627, -1.163284447600375, -0.3261400095784442, -0.7578981122981205, -0.21964597817172896, -0.3354051289811922, -0.8741815316314879, -0.4442618841185058, 0.003101011909980837, -0.5438127564586592, -0.14033053533536433, -0.30744922659663054, -0.4100820518615228, 0.038647659964327556, -0.3112383008517585, -0.09252471857435053, 0.5472822576986498, 0.1523628421962819, 0.3941282192353926, 1.0952199497146693, 0.5382861394242362, 0.597985699832807, 0.666359748429986, 0.7239250532082259, 0.11349973166051892, 0.1567474375715547, -0.5341632953801436, -0.5799748026482834, -0.7702771823405126, 0.3527056989044, -0.6541692217264585, -0.03816892303621836, -0.5092359372376615, -0.10994441973822769, -1.175284223079638, -0.11461694665346175, 0.1144445744673715, -0.008359394971084436, -0.44950449486074284, -0.035895723257091075, 0.07153229788527593, 0.13174137942217612, 0.019965205485426567, -0.37761347161084563, -0.2236508158585692, 0.2560114622096571, 0.2848581840784367, 0.484301873662665, 0.563301390838684, 1.7199885379080968, 1.2493747801128385, 0.8571326883936814, 0.2665374632471616, 0.3883289238367046, -0.6735255962147826, -0.44676807356280557, -0.9195832040246541, -0.4543296849795186, -0.32963715280143907, 0.3877599955284279, -0.49339073036108555, -0.49996544112279445, -0.45533036546113054, -0.43805556711407695, -0.2730397689054653, 0.3263656263281633, 0.13043324447059143, 0.28490956305416015, -0.304230827278316, 0.4364090932190282, 0.20263752314291308, -0.12761062811966026, -0.8526491712735536, 0.06453989287019184, 0.20940605332387283, 0.976276827994013, 0.6565247839860567, 1.5096100361116107, 1.1723757873177278, 0.6402613234571224, -0.17457920040220704, 0.3989668213209851, -0.6851439865967692, -0.49790178042858396, -0.6830823887996609, -0.11796754075172418, 0.07916553657933352, -0.6417498428727623, -0.10315828188366383, -0.12100013293915551, -0.4382992301753395, -0.0803391794511206, -0.4493388771445822, -0.1060838779321404, 0.42794399127197713, 0.5577823281121292, 0.6644022294399342, -0.11683788128902557, -0.15954835661898617, -0.2809019280723032, 0.09762168694353247, -0.009354599486927613, 0.3517615741498715, 0.32115260539460605, 1.0553352353129797, 0.8581108763059393, 0.9139183056020846, -0.012768917380352417, 0.8930944937916412, -0.2178422894320261, -0.7990662351283087, -0.8850046516660153, -0.5295010833101353, -0.09676992591185889, -0.04215118272037916, -0.22380212636921984, -0.20912679401857182, -0.47476107935085127, -0.06425029164232338, 0.2731521092056944, 0.39999601696574794, 0.3161499094872027, 0.4770602313322384, -0.026990179263828618, 0.32508096921382346, -0.5540374317634075, -0.6094202736392218, -0.1075571728266648, 0.11906531541488784, 0.03262704468377229, 0.2618324106970211, 0.43960535750829804, 0.6469211281439123, 1.1405833419047986, 1.4486320520513016, -0.2089444257769415, 0.40642196841803824, -0.4430868407237438, -0.33834857285052217, -1.1875900099395063, -0.29833475781469065, -0.3210427799831811, -0.17137681097752241, 0.13638087661831297, 0.06472413896426966, -0.21495109216781, -0.0802403931088923, -0.13587456799586817, 0.18659673863796739, 0.36402147090098436, 0.4579901973393204, 0.26139035310316533, 0.12277800782995064, -0.19326575679229702, -0.4265351567781833, -0.527602631934733, 0.6060000043642819, 0.3298921642649178, 0.523344579905656, 0.8846829096137802, 1.2821171007166168, 0.6320971860219228, 1.006497995876155, 0.02957233231834235, 0.597381082762458, -0.2999981081094871, -0.32828259767683854, -0.90449144207625, -0.6453959008675508, 0.3466047392606321, 0.24662261557342097, -0.44899840951875425, -0.21277358710921523, 0.8286410335434861, 0.31168229066596215, 0.19513871764890142, 0.3505992833131963, 0.17497902770297688, 0.22544432133866682, -0.11278738911791485, -0.2601808635208367, -0.62203963836882, -0.7980338765393594, -0.3134436681460077, -0.5673918579906212, -0.17904184536159243, 0.5475486937850211, 0.6836849999784526, 0.5533473032525348, 1.0702448737315577, 0.5913670811602232, -0.7949353073419078, 0.14444751397008768, -0.568759782080892, -0.8107031812675052, -0.25326565061668704, -0.1685849248747572, 0.05022736974988152, -0.7037710074523239, 0.040053882088281756, 0.3651764406101855, 0.44833163405280163, 0.4893518380593468, 0.4544552861089171, 0.5391480128348595, 0.4487979735204666, -0.3065423467002835, -0.19430936384547545, -0.09259726230229447, -0.5585672140849951, -0.23141582316492243, 0.24661551651701644, -0.13852125741851004, 0.23507503644233152, 0.5070167789332176, 0.48929091447267814, 1.0781699307481383, 0.8329786597982136, 0.6879897303103375, -0.14001484082056634, -0.4882816924824875, -0.5085406633586045, -0.771333949920034, -0.7668861669190659, -1.1568390914559803, -0.6732106378171893, -0.381969373523259, 0.1434264516629179, 0.11824236747640962, 0.13495911949228043, 0.1862718286994575, 0.02014824051389593, 0.1415342893430006, -0.0030524906160898013, -0.3807154441484825, -0.06493820641630291, -0.14801048611425402, -0.5883373431081323, 0.09362548580321475, 0.1671581363884924, -0.2204106394752878, 0.35473719617784205, -0.09390425462366682, 0.5292014468566217, 0.7870971986396262, 0.07642293647786798, 0.1475847266080053, 1.3290817644417272, -0.0013406328412164075, -0.36480736813547643, -0.8850472250605532, -0.3898697434215075, -0.9995381891680032, -0.19991992932771355, -0.6100915901863485, 0.2206256928211687, 0.8197893047134089, -0.06164444412804564, 0.6379617222367356, 0.3196136392297001, 0.4524594085562156, -0.041066130591765455, -0.03568611938374556, 0.2887450489563634, -0.3725067877642402, -0.1247969436345176, 0.03242946103241687, 0.12015672859179508, 0.31474610504373224, 0.1605263844683173, -0.24713845813792656, -0.3519627378834306, 0.6711936745994711, 0.5312681760809064, 0.7001279609628819, 0.009448683364042795, 0.042841073387669903, 0.21528237938468497, -0.6913543128696907, -0.8358706558414257, -1.146746998573156, -0.07374623455005067, -0.2506551118031611, 0.5120714585351475, 0.2799845916116363, 0.8423392659674721, 0.937712083007954, 0.8368511172591674, 0.24196207396339411, 0.05051436543165945, -0.13519962343047592, 0.15489035736762402, 0.07965396436546425, -0.4094332361068737, -0.39918403139372954, 0.07631096613790636, 0.18519976195481355, 0.40883173078463264, -0.40855480524143334, 0.01510559585942802, 0.1416623685422657, 0.9167590207436426, 0.10264275817452949, -0.13255035876826177, -0.1535872445268057, -0.14910889661401588, -0.5781082516348018, -0.8359172671772228, -0.33638173776819735, 0.03166553007813171, 0.1598222469947953, 0.367379214297794, 0.8403999441220897, 0.6989445393110227, 0.6169026727007123, 0.27829449589430444, 1.085522427754371, -0.08837673933022294, 0.21005662594096938, -0.14933800872326733, 0.4512140889633295, 0.6305043010129516, 0.495470388003445, 0.17970064274598924, 0.4649027476416302, -0.023560390380051806, -0.08632672521606519, 0.03330995163748822, 0.47553729095106784, -0.3430226270758281, 0.477480704824231, -0.5261937188588318, -0.7194099153913586, -0.41040287675742854, -0.5786081156501209, -1.0706267715266544, -1.0140975762778832, 0.05553637675936691, 0.22127895615256993, 0.7261302547908449, 0.702700042320773, 1.100140124063163, 0.7601312931835603, 0.4354917558885454, -0.3020241704178731, 0.3910349075838295, 0.7716226457275958, -0.23827638256761702, 0.28681426456193604, 0.15968408970253628, 0.34102963482499427, -0.38161984844699104, 0.48526709898138276, -0.1734179960689637, 0.11445232797118199, -0.09565745047432886, -0.48476259693510737, 0.46103481772136284, -0.6224655929339213, -0.5652669029802615, -0.7836521505356062, -0.4102938721015182, -0.40439756435218965, -0.7794057513457526, -0.43110823108651397, -0.21242067195657036, -0.020782084639958936, 0.5264527731675814, 0.32683460939716485, 0.7255337069206856, 0.6389546422058066, -0.31374177235937906, 0.2364430625076206, -0.3775436548162234, 0.20426358702996694, 0.48466526462292925, 0.370382116270233, 0.25885949469688824, 0.3614596223702011, 0.13127902025547433, 0.11127145302548275, 0.07319275122084604, -0.35295128700182804, -0.5627366498257301, -0.34838028278884986, -0.19004683394271782, 0.08506416830824594, -0.49260690071139657, -0.09238705508993143, -0.3584117025322786, -0.2283834870135559, -0.9986169413380519, 0.303399083026192, -0.3123279962245268, 0.37966425039992074, 0.15415354449876148, 0.4158504745884449, 0.46129255546269665, 1.312189471870992, 0.3502972717378631, 0.19683461331815105, 0.3225167717291147, -0.3128174786821813, 0.3632735204392861, 0.17085584419628186, 0.4703267437360672, 0.13951445159609097, 0.5707987271814713, -0.03291492652571475, -0.46157862986931936, -0.19181139086745874, 0.12524983236184928, -0.42329416693690874, -0.7007516969052809, -0.1354951943382502, -0.32509349075395433, -0.846398826616508, -0.34979536337141903, -1.5436047689581107, -0.16902292852238607, -0.8575545141186738, 0.5559392534869158, 0.840524245201415, 0.3722279714949223, -0.05757682697272759, 0.248316235971797, 0.7846339712215119, 0.5068730274688619, 0.06972862929067322, 0.1697472890180116, 0.28630613062828947, 0.5305546945621894, 0.06988882041818816, -0.10903845336671261, -0.2863076103555969, -0.010765708787418818, -0.12222565900989983, -0.3881787126846284, -0.03065117462957022, 0.1980672920962498, -0.24749919544092103, -0.1631965949431259, -0.44791856840542454, -0.7088645650566712, -0.13146840927890308, -0.6984974288839264, -0.6446204591041884, -0.9447699644848857, -0.6614626741855798, 0.1287006609193809, 0.2970640586236281, 0.09314449056432833, 0.6951096536119928, 0.5530192551164105, 0.19369081639910396, 0.298091429251376, -0.13205278335733903, -0.32740190469282276, -0.08278266555947301, 0.2502813659279938, 0.07672097396328105, 0.13795235650719864, -0.4228007642519105, -0.5394958306273395, -0.36730107145189594, -0.16213538638485664, -0.8791453990796589, -1.1431294550787727, -0.4316520809071623, -0.3122337380079451, -0.6866522400387005, -0.2422236431067665, -0.7418551649009665, -0.3731441910214685, -0.29687929076790787, -0.06598989424388735, -0.26547118232949274, -0.23258796475783625, -0.028690824002775582, 0.41954504527867087, -0.1334075916259503, 0.06390059722139751, 0.2945357907191329, 0.39307263481217414, 0.04473795358369282, 0.34599186231083057, -0.21521338106088897, 0.3162872491545557, 0.24694272005649714, -0.4187989377726945, -0.22962466470382473, -0.2834464180770611, -0.874660780362228, -0.9177809114583025, -0.6174046309784795, -0.8317653002700762, -0.5143473041359865, -0.05292598196210723, -0.3096956534059634, -0.2238828295275212, -0.038348539186898734, -0.7086623590903374, -0.33719885646991654, -0.9005650293058187, -0.8104644686670652, 0.3909458733514337, 0.31440363920870756, 0.001682531011102077, 0.03368954784738266, 0.5068670180230629, 0.35694410215394096, -0.22981987186339317, 0.11649102192865655, 0.17355442317172637, 0.2480171281443137, 0.08190628144414674, 0.09295068014272201, -0.11236946558900245, -0.44064825180816125, 0.2027830786468116, -1.0472735229212593, -0.6511753345944131, -0.7940126423603646, 0.19923325196780084, -0.8160358478115294, -0.6391573380578075, 0.14457723386133964, -0.37069240191226416, -1.0832157273732073, -0.24698366518487516, -0.6045488863330963, -1.093903967518892, -0.35059958013355386, -1.3667132610531572, -0.9264167576225366, -0.14909628496943794, -0.030917256309909207, -0.3587521806797246, 0.2278490740940284, -0.35257911514269336, 0.37377525256604893, 0.29341330836650514, 0.5682727284147077, -0.21020383137423737, 0.04116091679166002, -0.040189001490115846, -0.4365618027489211, -0.7316555408520772, -1.3984559110323205, -1.208683291480176, -0.9533438721118653, 0.054858474664813486, -0.22321216359669385, -0.6678702852662692, 0.2781317617149033, -0.9127304666083923, -1.0307835805956307, -0.4481216837370138, -0.8515967067294541, 0.20510561286180193, -0.590628338107223, -0.43806073884814634, -0.37835190337624214, -0.9699525786458629, -0.5935357111564811, -0.2188259165499752, 0.14798289998108344, -0.038587232743586976, 0.4196652033614379, 0.5444283848032869, 0.6584273203348474, 0.3565314128819308, -0.6816670972509263, 0.16540332916627667, -0.37710400780628006, -0.0021936663019902786, -0.02316020031759879, 0.13791906914932914, 0.36578011723097303, 0.022744547832003564, -0.979395407752905, -0.9335879126609249, -0.9663479541911167, -0.7626245782734093, -0.003026735124998986, -1.2395912500190722, -0.4661704936526342, -0.6414571505851676, -0.6057693427889552, -0.541831930863653, -0.9032981657721428, -0.7494139574102272, -0.5117468146424434, -0.14894468545076947, -1.0395899440511207, -0.292796508021724, -0.6102815531303962, 0.21723016291537556, -0.11240630898756082, -0.10970630276957927, 0.3154323136795274, -0.3687944460135454, -0.333055444221621, -0.9779442172967784, -0.7002993041822178, -0.4157440124771691, -0.41637594955431817, -1.1186995683794112, 0.13971621567843276, -0.9364021687286972, -0.8311458329941201, -0.8074167603470286, -0.6952998611499157, -1.2133052681422407, -0.634869364008515], [-0.38886277700531036, 0.07313657579386178, 0.4546860815850759, -0.34914594776410857, 0.327164950687143, -0.2640924390940558, 0.004887660697766109, 0.10570757787316407, 0.3593192538618578, 0.3807973934772881, -0.42171332051639193, 0.09473126655207559, -0.17507310093565298, 0.29584401677793987, -0.3509285622188398, 0.20477561621542634, -0.33620900398488307, 0.752463788391884, 0.2129216007969161, -0.20880699805354141, 0.0024519083767879533, 0.19145956673300407, 0.22445574397453275, 0.19828553096127755, 0.16570031628985435, -0.08993352766569368, 0.2560715787813448, 0.2675279749807962, -0.48914826868086275, -0.056015966243895515, -0.2130683467932342, 0.06747892289123776, -0.12288157275668633, 0.640254924739577, 0.210502323349514, 0.064172308463974, -0.241328990259224, 0.1631835390342924, -0.44174208633741646, 0.22131832626329725, 0.2479894621060478, 0.05223018324769293, -0.5567810928708934, -0.09485093186599375, 0.4167781019380417, 0.06183819483486435, -0.0643469403793071, -0.8237483289902946, -0.10785119686371239, 0.023482994614129088, -0.15841681864747634, 0.12282294233306394, 0.21501535652648393, -0.904527996549454, -0.19943315006755738, 0.11103815194130395, 